1.42115e-11
4.06882
-5.29324
21.8877
-1.21399e-11
2.46684
-3.30216
8.49633
-3.30026e-09
6.3245
0.72879
-4.2588
2.21247e-09
3.95896
1.35913
-5.0303
5.17252e-13
4.77318
-5.46257
26.4243
1.70687e-11
1.12297
3.29033
-3.3445
5.28981
-6.78519
-2.46733
0.350427
7.16744
-3.9582
0.221801
0.263642
-2.09384
-2.13703
-4.28907
0.350427
5.18204
-2.86177
0.306779
0.263642
3.53195
-1.95051
0.450104
0.263642
1.8094e-10
6.16769
-1.38907
8.91775
6.76661
-6.81241
-2.06229
0.350427
4.56675
-5.97667
9.17908
0.350427
7.90564e-09
7.27634
-0.883807
6.7813
0.606611
-0.334999
2.6207
0.263642
-2.39308
-3.30504
-7.80262
0.350427
-5.43706
-6.20112
-6.88078
0.350427
4.07974e-11
0.52631
-5.57918
3.2868
-2.78753e-12
2.99097
-4.96952
15.2141
-3.30176
-9.15188
-1.29859
0.350427
5.37653
-2.96918
0.295682
0.263642
-1.57175e-11
1.32607
3.78837
-4.67323
-2.84532e-12
2.66234
5.06647
-13.1382
5.59525e-12
4.49806
3.76403
-16.5804
4.94313e-10
4.40265
-3.0077
13.5923
-7.81793
-7.85027
-2.14224
0.350427
-8.15556e-12
3.17317
5.3118
-16.5048
-2.15016
-7.53509
8.70786
0.350427
3.57936
-6.13526
7.15333
0.350427
-2.24323
-2.56271
-0.657404
0.350427
-4.56182
-2.51925
0.348489
0.263642
4.32883
-2.39058
0.367246
0.263642
1.08793e-11
0.883486
2.95623
-2.26136
1.28056e-12
5.88285
5.26337
-30.6132
-4.20825
-6.47709
7.55842
0.350427
-3.98901e-11
1.90992
3.71532
-6.74552
-3.6507
-6.9898
4.54608
0.350427
3.46506
-1.91357
0.458792
0.263642
2.58744e-10
2.83797
-3.95947
11.5873
-6.30976
-3.48455
0.25195
0.263642
-2.34097e-10
5.54049
-3.71117
20.9121
-2.7581
-1.52315
0.576391
0.263642
4.46697e-12
6.19234
-4.57903
28.7053
-1.34588e-09
3.09551
-1.79458
5.90556
1.60318e-09
5.75583
-1.5354
9.18794
1.65254e-11
5.78213
-3.62099
21.2874
-1.18465
-7.76255
-3.82109
0.350427
4.21775e-11
4.27681
5.06163
-21.2972
-3.68698
-2.03612
0.431178
0.263642
-10.8542
-5.99422
0.146463
0.263642
-0.369764
-0.204201
4.29935
0.263642
1.9177
-2.06487
-1.9704
0.350427
-2.97833
-3.0852
-3.84472
0.350427
2.86216e-12
1.94303
-5.77824
11.5777
0.141311
-1.84279
0.111984
0.350427
-3.53199e-09
3.24502
-0.518268
2.03222
-8.02458e-08
76.8965
-0.0239223
2.18997
3.63559
-3.70988
0.309941
0.350427
3.61029e-12
1.36798
-2.52302
3.80186
-3.28369e-11
5.63533
-4.94102
28.1947
1.63371e-11
2.00726
-5.78805
11.9686
6.53358e-12
4.11712
-3.2378
13.6808
-1.58291e-10
1.29157
-0.641983
1.1796
-3.04263
-3.12641
-4.88909
0.350427
4.50362
-2.48711
0.352993
0.263642
1.617e-09
5.46853
-1.91091
10.8003
-1.54583
-8.4647
-4.92225
0.350427
1.59482e-10
3.83444
2.46619
-9.10604
-6.7325
-9.30437
-8.5038
0.350427
6.35237e-09
3.55816
-1.05493
4.10405
1.95434e-11
1.19163
-2.90584
3.81312
7.2407
-3.99866
0.219556
0.263642
3.10068
-6.08163
-8.00673
0.350427
6.1428e-12
4.29837
-3.42501
15.0724
-5.72754
-9.97326
4.7221
0.350427
1.00404e-10
2.13193
-1.51127
3.57236
5.21844e-11
6.51263
-1.98638
13.287
-9.5302
-9.21035
2.08294
0.333772
0.409778
-3.77342
-5.32252
0.350427
-1.77898
-1.85196
-3.09142
0.350427
0.438633
-0.242233
3.62432
0.263642
-2.07168e-10
7.49607
0.66207
-4.61249
-6.30123
-3.47984
0.252291
0.263642
-1.29027
-5.86828
-4.13151
0.350427
-3.83971e-12
4.93285
3.53106
-17.0678
-5.41999
-9.82088
-4.18286
0.350427
7.35908
-7.51133
0.0956899
0.350427
-4.17933
-4.20722
-2.23314
0.350427
-1.12867
-1.49726
-0.0558466
0.350427
2.47244e-10
4.20309
-2.1413
9.35052
2.43445
-2.57609
-2.08842
0.350427
3.74213
-2.06658
0.424823
0.263642
-1.66934e-10
6.48269
-0.672914
4.71272
5.34008
-8.77025
-3.48154
0.350427
-5.53021e-12
5.3031
5.73811
-30.0793
1.86011e-11
6.68643
2.77721
-18.2192
3.699
-2.04276
0.429777
0.263642
-1.25906
-1.3765
-2.60275
0.350427
1.43409e-11
1.38531
2.63489
-3.2997
4.15484
-4.37377
-1.29957
0.350427
-2.60087e-11
4.86042
2.6534
-12.5462
-2.37726e-12
4.99179
2.89589
-14.1053
-1.06551e-11
3.36088
3.69859
-12.0801
-1.99327e-10
3.03819
2.50345
-7.25554
10.3781
-5.73128
0.153182
0.263642
-4.4961
-9.88792
3.98353
0.350427
7.98059e-13
2.81371
5.24272
-14.4011
1.7329
-0.956991
0.917387
0.263642
3.88506
-4.04081
-3.19439
0.350427
1.59386
-0.880203
0.997419
0.263642
-5.33812
-2.94796
0.29781
0.263642
1.24065e-10
4.22979
5.70251
-23.77
-2.18804
-2.3469
-2.95184
0.350427
1.54633e-12
6.1905
-4.30218
26.983
1.87092
-8.36086
4.16273
0.350427
2.56706
-2.65831
-4.26157
0.350427
1.32056e-09
5.38901
-1.72769
9.66094
-6.77519e-13
4.72958
6.07351
-28.3748
0.172033
-5.59596
5.53891
0.350427
3.2646
-3.33845
-1.06648
0.350427
-2.03072e-09
2.14614
-0.531054
1.49014
1.77813
-2.05751
0.0320776
0.350427
7.15315
-3.9503
0.222244
0.263642
-4.19509
-4.20662
-3.16648
0.350427
4.12361
-7.26714
5.97254
0.350427
-5.7441e-10
3.34355
2.30388
-7.3527
-10.1593
-5.61043
0.156482
0.263642
2.82317e-10
3.60443
3.98187
-14.002
3.38413
-5.84925
-2.43005
0.350427
-2.59113
-8.77785
7.29282
0.350427
-3.31123
-3.34324
-0.573848
0.350427
-2.43618
-7.40093
-3.98977
0.350427
-5.17315
-8.47622
-9.65806
0.350427
-4.5476
-4.74487
3.42437
0.350427
-1.46462
-4.13203
4.74858
0.350427
-2.09813e-09
13.1986
0.191
-2.17052
-3.84638
-4.31104
6.60064
0.350427
-2.04327e-10
3.723
-2.03912
7.94206
4.69531
-2.59297
0.338581
0.263642
-1.02603e-10
5.7339
-3.55572
20.7386
2.38662
-4.95825
-6.64515
0.350427
-7.33553
-8.41077
6.28376
0.350427
2.85884e-09
5.07143
-0.420577
2.48336
0.337412
-4.01122
-5.17453
0.350427
1.48078
-1.54899
-4.33717
0.350427
0.672691
-8.31164
-7.4152
0.350427
0.423617
-0.871428
7.34207
0.350427
-6.30078
-7.28967
-1.24918
0.350427
-1.05505e-09
3.09948
-1.55439
5.16822
1.53101e-11
0.244687
-2.06774
0.856376
-4.2393
-9.35142
0.246671
0.350427
-3.22266
-3.38783
-1.9714
0.350427
-1.32971e-10
5.29694
-0.874416
4.98215
-0.434659
-4.28427
5.51814
0.350427
-8.09167
-4.4686
0.196467
0.263642
-2.44403e-11
0.934516
2.6134
-2.09184
2.63318
-6.49297
-9.02813
0.350427
-0.125386
-6.74552
1.86008
0.350427
0.835926
-0.461637
1.90178
0.263642
-3.30222e-11
5.13474
-2.16196
11.4516
1.60773e-09
0.378116
1.43351
-0.191606
-4.44297
-7.01495
-2.50038
0.350427
-1.17803
-7.52645
-3.54017
0.350427
-0.411034
-0.226992
3.86767
0.263642
2.28402e-12
2.99251
5.90527
-17.3212
7.87023
-4.34631
0.201994
0.263642
0.855269
-0.941248
-2.83335
0.350427
-4.89209
-9.19399
-1.22206
0.350427
7.42257
-7.48149
-0.337037
0.350427
-2.9727e-11
0.593317
-4.93452
3.27816
2.05813
-2.1546
-4.36493
0.350427
6.26363e-09
6.53718
-0.854472
5.93626
0.00508495
-0.535973
-0.343414
0.350427
6.8204
-7.67674
-4.72589
0.350427
5.93122e-11
2.01762
-1.87139
4.12618
-2.9931e-09
5.34573
1.52648
-7.8097
-4.99891
-9.85557
-4.06897
0.350427
-4.40383e-11
6.10571
4.24017
-25.5388
1.55618
-5.75679
5.52716
0.350427
-5.08484
-6.3029
5.54037
0.350427
11.3903
-6.29028
0.13957
0.263642
-0.235883
-6.3187
-7.95733
0.350427
1.13118e-11
4.51519
-4.37871
20.1212
-2.67953e-11
7.71718
-1.16254
9.32197
-8.35292e-11
6.7813
1.55752
-10.2116
-8.49236e-11
6.63018
-1.74621
11.9281
-3.30853e-09
6.08675
0.576946
-3.1613
2.9859
-2.99965
-4.54982
0.350427
-8.98014
-4.95926
0.177029
0.263642
-1.18338
-0.653519
1.34339
0.263642
1.39576e-08
8.08626
-0.615872
5.33053
-4.30414e-11
1.3205
1.81133
-2.04143
-1.19452
-4.77518
5.35648
0.350427
-6.25677e-11
3.0789
-2.4284
7.82723
6.21872e-11
10.127
0.566674
-5.3883
-2.28959
-3.29307
-5.58969
0.350427
-4.97262e-12
0.063938
-3.09599
0.548379
1.90302
-1.99592
-2.21876
0.350427
0.320225
-0.362479
-4.00356
0.350427
-2.04154
-9.12642
-5.38654
0.350427
1.7944
-5.66024
9.26732
0.350427
-1.82497e-12
4.02838
-3.47377
14.3441
-1.16181e-10
0.517008
-1.78178
1.27162
0.357979
-2.612
-4.4704
0.350427
-0.54226
-3.23705
-3.30766
0.350427
-6.45035
-6.39584
12.221
0.333772
-3.18935
-6.28232
7.12169
0.350427
3.10477
-6.50523
9.2419
0.350427
-2.30456e-07
3.8969
-0.130433
0.85871
3.75064e-12
4.08176
-3.43756
14.3817
-4.70712
-7.8564
-9.47796
0.350427
-0.0520906
-3.06248
3.10912
0.350427
-3.41314
-1.8849
0.465771
0.263642
2.95652e-10
4.16959
1.72499
-6.84205
-3.98956
-4.04224
-1.77286
0.350427
0.430825
-0.237922
3.69
0.263642
-5.49982e-11
3.6555
-3.67783
13.7947
1.96302e-11
4.98855
-2.56347
13.1384
2.10369e-09
2.36143
0.283593
-0.319257
1.00178
-0.553231
1.58692
0.263642
-1.90518
-1.98572
-2.27049
0.350427
1.55012e-10
3.41937
-1.53786
5.60893
-0.382883
-0.211446
4.15204
0.263642
3.64389
-2.01233
0.436276
0.263642
-0.709525
-0.777634
-3.43977
0.350427
7.07961
-3.90969
0.224553
0.263642
2.01208e-11
4.23369
3.61663
-14.9613
3.0759e-10
3.97507
-2.73559
11.2246
-7.5205e-12
5.93538
4.3333
-25.3694
3.51572e-10
3.89305
3.6564
-13.8841
-4.25515
-4.26183
-3.76278
0.350427
6.55877
-9.21878
4.5143
0.350427
2.36437
-1.30572
0.672374
0.263642
-2.48091
-2.55447
-4.62013
0.350427
-0.889492
-3.53488
-6.64593
0.350427
8.9476e-12
2.06744
-3.24653
7.06245
6.76745
-6.7873
-0.692627
0.350427
1.01605
-1.02412
-3.42024
0.350427
4.1283
-4.2086
-1.64597
0.350427
1.41102
-7.74963
7.5936
0.350427
5.41918
-7.32647
7.77289
0.350427
-5.93523
-7.61547
1.9468
0.350427
-1.29666
-0.716076
1.22603
0.263642
-2.20717
-5.60262
-7.41706
0.350427
-3.21485
-3.22305
-3.06759
0.350427
3.66792e-10
4.36122
-1.18608
5.52319
-3.00836
-3.10044
-4.1048
0.350427
9.65668e-12
5.94845
-3.51517
21.2603
2.1584e-12
1.75289
2.7748
-4.51351
1.42864e-09
2.67817
-1.61712
4.68135
6.28198
-3.46921
0.253064
0.263642
-2.1083e-11
0.683979
-2.37795
1.9769
6.32057
-7.20079
-6.95618
0.350427
1.75039e-11
1.47413
5.29902
-7.46102
-3.34477
-1.84714
0.475293
0.263642
-10.8189
-5.97468
0.146942
0.263642
-5.12822e-11
0.0877015
-4.4519
0.740865
-1.84285e-11
3.30893
-5.40409
18.2322
-0.925124
-4.93047
-0.0751562
0.350427
3.88859e-10
5.52344
-2.15118
12.2323
1.45224e-11
4.28024
3.75154
-15.707
0.47352
-0.779786
-0.617066
0.350427
-1.30417e-11
2.27916
1.2776
-2.56144
1.89023
-1.04388
0.841031
0.263642
-8.14694
-4.49913
0.195134
0.263642
7.41049e-10
4.33158
-2.60268
11.6241
4.46584
-7.34491
-1.66395
0.350427
1.65404e-09
5.8244
-0.5705
3.67325
2.98678e-11
0.869598
-5.68563
5.29464
1.10984e-11
2.30478
-2.4821
6.07112
-4.52856
-2.50089
0.351048
0.263642
-4.3241
-6.35798
1.53151
0.350427
5.02951
-5.78859
5.30706
0.350427
-6.74512
-6.76081
-2.9151
0.350427
-7.73767
-8.62288
2.67683
0.350427
-1.96479e-12
2.32668
3.75471
-8.38558
-1.05816e-10
4.34347
-1.58813
7.24843
8.55777
-4.726
0.185766
0.263642
8.22477
-4.5421
0.193287
0.263642
-1.32861
-1.3482
-2.25696
0.350427
2.25304
-2.34259
-2.69083
0.350427
-1.01238e-11
1.32959
-4.12524
5.83532
-8.18288e-12
3.10115
2.10886
-6.18946
6.01658
-6.32306
5.28414
0.350427
0.432468
-0.238829
3.67598
0.263642
-1.03993
-0.574298
1.5287
0.263642
1.98781e-11
4.7179
-1.71936
8.46217
-0.161222
-9.43642
1.75043
0.350427
-5.40584
-2.98536
0.294079
0.263642
-7.01459
-7.97034
3.53572
0.350427
-1.209
-1.34381
-3.451
0.350427
3.91677
-4.89374
0.475096
0.350427
-2.59547e-11
3.44426
-3.07769
10.9508
4.19209
-4.31681
-2.32491
0.350427
4.93957e-06
0.155154
-0.0292951
0.354973
-7.80951e-12
4.30397
3.40257
-14.2941
-2.07411
-7.53223
0.284849
0.350427
-8.51575e-11
2.34903
-4.82804
11.6916
-4.84925e-12
3.20535
5.83636
-18.3571
4.20747
-4.41756
-1.49119
0.350427
-1.97662e-09
1.37089
0.465797
-0.288127
-2.29313e-12
2.22416
-5.25734
12.0436
-5.24245e-08
0.33288
-0.507056
0.519216
-0.475211
-0.262434
3.34534
0.263642
-0.669618
-0.783225
-1.00579
0.350427
-4.86826
-9.45522
-1.71054
0.350427
6.73106
-3.71721
0.23618
0.263642
5.28621e-10
4.68073
-0.675407
3.51182
1.22446e-07
1.24412
-0.274942
0.692489
-4.73546e-10
5.58979
-2.71232
15.5117
4.52243e-10
5.77368
-0.472612
3.07914
5.78059
-7.20437
7.08018
0.350427
-3.65943
-2.02091
0.434424
0.263642
1.45912
-0.805797
1.08952
0.263642
1.89066e-11
6.12847
1.86193
-11.0604
-8.31333
-9.4176
9.70806
0.350427
-0.451856
-2.51714
3.74127
0.350427
-1.21111e-11
6.02445
-1.45296
9.10374
0.490604
-7.27656
5.05331
0.350427
0.899684
-0.496848
1.767
0.263642
2.81349
-1.55374
0.565043
0.263642
1.12241e-10
3.58286
-4.10093
15.0435
-0.533772
-0.294774
2.97832
0.263642
-6.06349
-3.34854
0.262183
0.263642
2.71679
-2.75347
-1.70689
0.350427
5.56912
-5.69033
-2.39548
0.350427
-2.80807e-11
3.46348
6.02738
-20.5253
6.50217e-13
4.39288
5.91469
-25.6321
-3.37764
-3.46982
-3.24938
0.350427
-2.94682e-10
0.74099
-0.802222
0.944866
-4.39805
-6.10067
-2.91269
0.350427
2.00697
-2.49184
-5.89385
0.350427
1.51137e-11
3.70649
-6.02422
22.6792
-1.35074e-11
2.39848
-2.16185
5.53559
0.400065
-0.220935
3.97371
0.263642
-1.55724e-10
2.32117
-2.69268
6.60058
8.56568
-4.73037
0.185595
0.263642
3.74527e-11
4.63918
-1.9118
9.2196
0.218932
-3.08793
0.0499734
0.350427
2.89723
-1.59999
0.548712
0.263642
-3.02234
-1.66908
0.525998
0.263642
-3.04107e-10
0.13099
-1.64127
0.565417
-1.8909e-12
6.92202
3.99261
-27.2865
-1.64191e-10
4.02195
2.55475
-9.92465
2.16145
-4.72164
-4.63508
0.350427
3.56164
-5.46395
-3.88607
0.350427
-1.69245
-0.934653
0.939313
0.263642
0.576853
-4.14534
-0.0026226
0.350427
-3.01545
-3.06781
-2.81882
0.350427
5.79383
-3.19963
0.274386
0.263642
-0.997321
-1.09765
-3.1039
0.350427
9.5722
-5.28622
0.166079
0.263642
-2.11351e-10
5.6158
0.98741
-5.19466
-9.26639
-9.14914
5.68193
0.333772
8.15654
-4.50442
0.194904
0.263642
0.471231
-2.21156
-2.05221
0.350427
10.31
-5.69367
0.154194
0.263642
-3.69095
-3.7697
-4.35842
0.350427
-1.07539e-10
0.326242
3.93896
-0.934629
4.30754e-11
4.01252
4.06811
-15.9729
7.67154
-8.86414
7.74263
0.350427
3.71294e-12
11.1765
-0.604619
7.10795
-5.07078
-5.90185
7.68227
0.350427
3.00939e-10
5.46527
-2.93849
16.41
-5.97696e-09
4.9539
0.364736
-1.45644
-9.8122e-13
5.32097
3.96252
-20.734
-7.14677e-13
6.18103
5.20563
-31.8257
2.66709
-4.35448
6.33414
0.350427
-5.9628e-09
7.27866
-0.458528
3.6879
-2.55543e-07
0.958283
0.167406
0.190005
-1.20742e-10
3.9179
-2.62922
10.6514
8.701
-4.8051
0.182708
0.263642
2.4797e-12
4.98709
-4.3676
22.1321
-10.652
-5.88252
0.149244
0.263642
-0.843019
-4.41612
-2.67324
0.350427
2.31093
-1.2762
0.687923
0.263642
3.96324
-2.18869
0.401122
0.263642
-3.67355e-10
0.850637
3.63108
-2.73831
4.25126
-2.34775
0.373946
0.263642
-1.35006
-0.745568
1.17753
0.263642
1.39814e-12
6.55873
-5.15558
34.1645
2.78358e-09
4.3009
-0.530799
2.63334
-7.41847e-13
3.91856
-5.8641
23.3293
-9.78314
-5.40271
0.162498
0.263642
-2.96713e-09
0.54282
0.597097
0.0263114
-2.01185e-09
1.7518
-1.31856
2.66028
-0.586714
-0.324011
2.70957
0.263642
10.38
-5.73232
0.153155
0.263642
-7.99576e-11
5.91881
-4.57928
27.4543
-3.1939e-09
7.00413
-1.75414
12.6366
-7.178
-9.41035
0.175018
0.350427
-0.35731
-0.197324
4.4492
0.263642
-7.28745e-12
3.36673
-4.47602
15.42
0.207887
-0.377035
8.63078
0.350427
-2.11405e-09
7.35486
1.36996
-9.72541
-6.51724
-3.59913
0.243929
0.263642
1.03584e-10
4.52514
-3.95237
18.2355
7.89814
-7.65665
2.7589
0.333772
-1.15323e-11
0.123229
-1.80644
0.573033
-2.55675
-2.67771
-1.55884
0.350427
-1.95375
-1.07895
0.813688
0.263642
-4.44485e-12
1.26866
3.91565
-4.61722
-4.9001
-2.70607
0.324431
0.263642
0.398782
-0.220226
3.9865
0.263642
4.15977
-6.30811
-2.14433
0.350427
6.9408e-11
5.21371
-3.38893
18.0193
-1.63729e-11
3.05752
-2.09149
6.74522
0.315693
-0.17434
5.03573
0.263642
-2.4049e-11
0.634262
-4.0933
2.94665
-1.33743e-12
5.94137
3.83464
-22.4326
-1.34785e-10
2.02933
1.18258
-2.04941
-1.87833e-11
5.09497
-3.80426
19.733
-7.47224
-7.54453
-0.383291
0.350427
-1.06326
-1.0759
-4.98116
0.350427
1.20871
-1.92222
-0.497836
0.350427
0.670862
-0.370481
2.3697
0.263642
-4.70483e-12
2.40453
-4.67281
11.5864
-1.19489e-07
1.88192
-0.192839
0.713335
-1.1619e-10
5.18057
2.41616
-12.1667
2.53407
-4.91969
5.27883
0.350427
-2.86948e-10
5.16604
0.619758
-2.85127
2.22283e-11
0.441867
-5.13163
2.61793
-3.27682e-09
5.94199
-1.06594
6.68424
2.30032e-11
2.59236
-1.91625
5.31803
6.47586
-6.72498
-1.29787
0.350427
5.21851
-2.88191
0.304636
0.263642
0.901984
-0.964491
0.455914
0.350427
-1.53351
-0.846875
1.03667
0.263642
6.59698
-3.64316
0.24098
0.263642
-3.05787
-4.66821
6.65971
0.350427
4.21504
-4.30977
-2.06078
0.350427
7.92082
-4.37425
0.200704
0.263642
-3.66935
-3.79644
-2.66372
0.350427
-0.609831
-0.336778
2.60686
0.263642
1.96179
-8.50953
1.25435
0.350427
1.78739e-10
4.72418
-2.71744
13.1881
-3.29506e-10
10.0818
-0.627762
6.67942
6.03361e-11
2.313
-2.7931
6.81086
-5.25888
-5.49503
-0.88402
0.350427
-7.10305e-12
4.54898
-4.29299
19.8792
3.51679e-12
5.6861
5.82493
-32.7707
-2.15658
-2.30108
0.287597
0.350427
-1.61618e-09
2.60095
-1.26406
3.63818
-5.90697
-8.5401
-6.45377
0.350427
-3.57983
-1.97695
0.444084
0.263642
1.05589
-2.59066
-1.59201
0.350427
-0.464946
-0.256765
3.4192
0.263642
-5.47228e-11
2.17091
-5.89538
13.1488
-1.71393e-11
5.08544
4.42946
-22.1753
0.4872
-0.269054
3.26302
0.263642
-2.81699
-1.55567
0.564341
0.263642
5.35872
-2.95934
0.296665
0.263642
-5.0735
-2.80182
0.313343
0.263642
-9.73879
-5.37822
0.163238
0.263642
6.26695
-6.30883
6.11595
0.350427
0.98339
-0.543074
1.6166
0.263642
-2.07594
-1.14643
0.765794
0.263642
-1.65515e-12
2.91874
-3.95982
11.9081
-3.08208
-3.19488
-3.36785
0.350427
-1.88775e-09
5.59962
-1.23436
7.26238
1.49133e-10
1.63275
-4.4847
7.67282
-1.10077
-0.607896
1.44421
0.263642
-5.03742e-10
5.23662
-2.20055
11.8739
0.50873
-0.63322
-3.76954
0.350427
6.2674
-3.46116
0.253653
0.263642
-3.67372e-11
0.473367
-4.49996
2.48056
-1.31706e-10
1.49783
1.49863
-1.89427
3.20019
-1.7673
0.496765
0.263642
1.07484e-10
2.59201
1.02101
-2.29605
-9.80912e-12
5.47313
-3.45362
19.2525
-4.20664e-12
4.72599
-3.72167
17.939
-9.85556e-12
0.778919
-3.5634
3.12603
9.14449e-09
2.64669
-0.462953
1.57572
0.831856
-0.45939
1.91108
0.263642
1.20354e-07
3.3024
-0.168162
0.905766
-1.97642e-09
9.44436
-0.914058
8.98312
2.32525e-11
2.04581
-2.72655
5.92843
1.78405
-7.13126
-9.52541
0.350427
-2.36847e-11
6.28897
-3.58118
22.8724
-3.53601
-8.17001
5.20517
0.350427
-2.48017
-7.73428
-7.89088
0.350427
1.19618e-11
1.55674
-2.69631
4.54789
-9.4997
-9.70955
-1.70131
0.350427
9.45532
-5.22167
0.168132
0.263642
-1.09209e-10
4.60945
-4.51643
21.1687
-3.50334
-7.36077
-8.70395
0.350427
0.47707
-0.5341
-0.699931
0.350427
3.70251e-11
6.08049
-3.22761
19.9759
4.56217e-12
1.72603
-4.7265
8.50853
2.77189e-12
6.14033
5.72015
-34.7732
3.76836
-7.00758
-7.14473
0.350427
-8.21585
-8.22569
-4.3613
0.350427
1.64806
-0.910138
0.964613
0.263642
3.72645
-9.55267
-4.09595
0.350427
2.79283e-11
1.9994
-2.83169
6.0121
-4.1303
-4.16519
-3.68382
0.350427
1.36494
-8.59823
-4.31852
0.350427
1.42271e-10
5.23801
-3.84431
20.4869
-0.924064
-3.85303
-2.38175
0.350427
-5.2613e-11
5.40269
3.65059
-19.3726
5.23172e-13
6.30407
-5.91542
37.6416
0.807574
-2.59259
-8.53087
0.350427
-3.03629e-12
3.15874
-6.34906
20.4054
4.08587
-4.21616
-2.61455
0.350427
-0.187201
-0.192062
-5.10779
0.350427
1.12153
-9.79746
5.16374
0.350427
1.50469e-11
1.98687
-2.73391
5.78236
1.46638e-10
2.83655
3.79174
-10.4051
5.98521e-09
4.35796
-0.832831
3.97987
-1.29817
-2.80271
4.81654
0.350427
-3.51476
-3.85261
0.156148
0.350427
2.98098
-4.89637
-8.65054
0.350427
7.19068
-3.97103
0.221084
0.263642
2.96074e-11
2.42947
-4.17887
10.5029
1.90119
-1.04993
0.836181
0.263642
5.50333
-5.70259
-1.04555
0.350427
-5.37853
-9.22181
-8.64853
0.350427
4.40488e-12
6.49743
5.17307
-33.2612
-5.35892e-12
6.01807
-4.16114
25.3924
5.69872e-09
0.525284
0.601013
0.0347248
-2.22984
-7.61296
-8.57594
0.350427
9.0262e-12
1.91376
5.22778
-9.6543
2.63518e-10
4.19818
-0.353243
1.83341
-0.0162521
-0.0731376
-4.78263
0.350427
0.139849
-6.22877
-9.50262
0.350427
2.55961
-7.48227
-1.2887
0.350427
3.63066
-9.28373
-4.28141
0.350427
0.729561
-9.24435
-1.66989
0.350427
2.80656e-12
6.97351
3.76772
-25.9238
-1.82588
-4.76526
-3.21195
0.350427
-2.1917e-09
5.73858
-1.29921
7.80607
-5.11607e-09
5.38498
-0.875089
5.06277
-2.39635e-11
0.603995
-3.60441
2.52747
-7.11463
-3.92903
0.223447
0.263642
-4.23643
-2.33956
0.375256
0.263642
3.90468
-3.86106
15.2739
0.333772
2.94997
-4.78646
1.4783
0.350427
-2.65829e-10
5.07174
3.08256
-15.2835
-4.74418
-7.23458
-0.514252
0.350427
5.92428e-11
6.97536
-3.58583
25.3628
-1.12324e-12
6.25881
-5.46531
34.5568
2.06616
-4.18212
9.91258
0.350427
3.66368e-11
2.81108
1.98899
-5.2408
3.2029e-11
3.97229
-2.53649
10.4261
2.16353e-09
2.39716
1.6574
-3.62262
-4.26543e-13
5.47984
-6.2128
34.3956
1.90249
-6.93553
3.24226
0.350427
1.66182e-11
4.58216
-5.4978
25.5422
-5.76913
-5.93442
-2.54788
0.350427
9.23907
-5.10225
0.172068
0.263642
-5.01444
-5.09492
-3.2181
0.350427
1.51364
-4.94122
-4.05555
0.350427
-1.4623
-1.82665
0.46282
0.350427
4.51285
-4.69372
-1.38482
0.350427
-0.628834
-4.47689
-0.81217
0.350427
-1.43551e-08
7.49954
-0.153104
1.49864
5.93052e-05
0.364315
-0.0262177
0.359979
-5.2461
-9.392
-8.08626
0.350427
-7.29595
-7.52121
0.1914
0.350427
-2.60461
-4.57026
-5.323
0.350427
-2.26921e-10
4.24764
2.7482
-11.3229
8.2054
-8.22023
-3.21667
0.350427
-8.2458
-8.73859
4.6685
0.350427
-2.34493
-2.69763
2.03176
0.350427
1.25386e-10
3.31385
5.22674
-16.9702
-5.65916e-11
3.95493
-2.22507
9.15042
-4.08947
-6.1465
3.87122
0.350427
-1.40485e-10
2.73583
-2.67977
7.68182
-1.0516e-11
33.4364
0.205604
-6.52425
-6.00562e-09
3.00752
0.964305
-2.54973
4.80102
-7.48158
-0.608229
0.350427
-1.85902
-4.23737
4.98678
0.350427
-1.92763e-11
5.88826
-2.1888
13.2387
-4.53055e-11
5.04793
-5.04651
25.8249
-3.26042
-8.62153
-8.92153
0.350427
5.51055e-12
5.24793
4.79528
-24.8148
0.480188
-7.6631
4.25161
0.350427
0.587695
-0.324553
2.70505
0.263642
2.53126
-6.07689
-2.53459
0.350427
8.45368
-8.4781
-0.642965
0.350427
1.30495e-09
1.82964
-0.97944
2.14245
-5.10753
-9.34071
-4.02098
0.350427
6.3121
-9.13547
5.00961
0.350427
1.94468e-11
0.551773
5.03175
-2.42596
2.86669
-4.75825
5.01915
0.350427
3.26582e-12
5.28578
5.25952
-27.4502
-8.15583e-12
3.62662
-3.69065
13.735
4.6238e-11
1.28713
-4.23036
5.79545
6.76837
-7.6516
7.98241
0.350427
6.37272
-7.77054
-0.084609
0.350427
3.50456
-6.285
4.55064
0.350427
6.87759
-8.98822
-8.81514
0.350427
2.97868e-10
5.9099
1.87935
-10.7563
0.649461
-0.358663
2.44779
0.263642
1.05613
-7.01979
-9.66147
0.350427
0.0275752
-0.148393
1.72478
0.350427
-1.62918
-6.1028
-1.91496
0.350427
6.47555
-9.25222
3.35061
0.350427
-2.19091
-9.51376
-2.43827
0.350427
0.225288
-0.814775
-8.8293
0.350427
-1.53019e-10
5.01439
4.85447
-23.9917
4.16165e-12
6.45518
-3.439
22.5498
-2.47192
-8.15904
-5.23664
0.350427
1.96528
-6.10215
8.87346
0.350427
-7.16325
-7.49077
6.83199
0.350427
-0.659168
-0.364023
2.41174
0.263642
8.75018e-11
1.8302
2.62686
-4.45724
-5.3479e-10
3.68214
2.45555
-8.69128
-8.19591e-12
1.81962
2.94172
-5.00239
2.9507e-09
4.37677
-0.260757
1.4917
-3.39609e-12
0.602513
5.99044
-3.25889
5.92777
-5.9546
-0.260061
0.350427
3.82171e-12
2.06711
5.08752
-10.1661
-9.58557e-11
4.5412
-1.03145
5.03447
-4.53094e-11
4.1844
-1.77953
7.79671
2.06824
-6.88783
2.41292
0.350427
-0.311861
-0.172225
5.0976
0.263642
-2.69188e-10
1.31439
4.62321
-5.72626
0.423006
-4.71412
8.70271
0.350427
2.28564
-2.50109
-1.6449
0.350427
-3.10607
-8.88844
5.53853
0.350427
4.24244
-6.37208
9.92145
0.350427
2.9332
-6.48513
-1.78064
0.350427
5.48348e-11
7.6156
2.0412
-15.1945
-1.05487
-5.01238
-0.811973
0.350427
-2.70903e-11
0.712022
3.26137
-1.97174
-0.409561
-9.1339
8.25677
0.350427
10.0238
-5.53561
0.158597
0.263642
1.25401e-09
10.7067
-0.064149
1.03725
1.31338e-11
4.33108
-2.29277
10.2806
4.41373
-7.75841
4.05914
0.350427
0.674191
-0.792403
-2.4829
0.350427
-4.1027
-2.2657
0.387487
0.263642
-5.43776
-6.74091
5.36273
0.350427
-5.6556
-8.14275
4.19711
0.350427
5.90563
-3.26136
0.269191
0.263642
2.30147e-11
0.356646
-3.44019
1.57736
7.84235e-12
4.18873
-1.70104
7.47564
1.59717e-10
0.657303
1.75601
-0.8038
5.76647e-13
6.58911
-5.34639
35.5784
3.50876e-09
4.87144
0.814513
-3.61743
1.73248e-12
2.30217
4.03355
-8.93551
1.02955
-7.81273
0.368715
0.350427
5.00982e-13
6.80993
5.7384
-38.7277
5.25582e-12
2.00137
2.52616
-4.70537
-2.05863
-5.53909
-0.415915
0.350427
7.85933
-8.07346
0.290478
0.350427
6.74597
-6.83433
-1.32997
0.350427
-0.472244
-5.56822
-6.6666
0.350427
-16.1418
-8.91424
0.0984864
0.263642
-1.88748
-5.6504
-7.67603
0.350427
1.42952e-11
0.579746
-4.40462
2.90399
-0.505807
-9.62377
8.62187
0.350427
-1.61001
-0.889125
0.98741
0.263642
-1.76788e-10
5.48881
-4.39555
24.4768
1.52339e-11
5.08969
5.31951
-26.7242
-4.49325
-4.76734
-2.85284
0.350427
-2.76252e-11
3.78822
2.75896
-10.1011
2.9671e-10
2.47309
3.86165
-9.19979
2.98177
-1.64667
0.533154
0.263642
-5.93811e-12
4.02653
-3.02995
12.5506
2.27671e-11
2.46749
-5.52765
13.9899
2.69802e-10
2.92447
3.34729
-9.43864
3.35882
-3.53461
-1.07442
0.350427
-6.5876e-12
1.66938
5.67834
-9.1289
6.03496e-12
2.98991
4.27541
-12.4327
-0.803485
-0.803909
-1.96291
0.350427
3.46375e-12
4.04131
7.05185
-28.1483
1.69208e-11
6.7427
3.23219
-21.4433
-3.66715
-2.02517
0.433509
0.263642
-0.648031
-0.357873
2.45319
0.263642
-1.09336e-11
5.90346
4.2135
-24.5238
-1.31087e-10
3.31206
4.2409
-13.6957
-1.2756
-1.29269
-1.95582
0.350427
3.12446
-1.72547
0.508806
0.263642
-2.12287e-08
3.93454
-0.285745
1.4747
-7.54854
-7.60652
-1.72766
0.350427
-4.95614
-2.73701
0.320763
0.263642
-2.00446e-09
5.64153
1.20291
-6.43581
1.63211
-0.901328
0.974042
0.263642
9.86953
-5.45042
0.161076
0.263642
-1.10885e-10
3.87024
-1.42638
5.87086
-7.78712
-4.30041
0.204151
0.263642
-9.29811
-5.13485
0.170975
0.263642
1.83706e-10
3.04144
-1.71392
5.56319
-0.501527
-0.276967
3.16981
0.263642
-5.31853
-2.93714
0.298907
0.263642
-1.84873e-11
1.33432
-4.19918
5.95346
4.07614
-2.25103
0.390012
0.263642
2.6058
-7.90494
3.03991
0.350427
-2.37564e-12
6.69362
-5.1962
35.1318
4.28014e-10
18.5096
-0.363648
7.0814
6.19863
-6.23939
-0.717563
0.350427
-1.95242e-10
6.51148
-4.03063
26.5958
-3.41641e-12
3.11393
5.65603
-17.262
-9.79241e-08
2.91309
0.238316
-0.343809
4.19785
-6.97845
-9.02798
0.350427
-1.75245e-10
5.58076
-3.90243
22.1289
2.40936
-4.34367
-9.04456
0.350427
1.35992e-11
1.09088
-4.97288
5.77526
-3.74014
-5.83553
5.40877
0.350427
-4.13111e-11
5.58571
2.5735
-14.0244
4.38323e-09
4.48709
0.719192
-2.87665
3.05671
-1.68806
0.520083
0.263642
-3.02838
-3.22302
-1.40456
0.350427
0.426937
-0.235775
3.72361
0.263642
-0.0173904
-3.12503
3.52561
0.350427
-9.30824e-11
3.28698
4.68313
-15.0429
1.57613
-4.30922
-0.738649
0.350427
-3.84014e-11
1.13803
3.49133
-3.6228
2.57497e-11
6.24203
-4.74606
29.9755
2.11795e-11
4.31576
-3.59218
15.8534
2.60553e-11
0.0725834
-2.80311
0.553887
5.52846e-10
0.983902
0.650991
-0.290084
-1.68085e-11
4.3047
-4.18117
18.3491
4.72063
-7.92206
9.67056
0.350427
-5.0876e-10
1.50111
-0.677575
1.36754
-1.0762
-7.38388
3.19817
0.350427
-5.97595e-07
15.5584
0.0627879
-0.626454
-0.493271
-6.52832
-0.919898
0.350427
-4.85094e-11
2.53549
-5.84938
15.1815
-2.36861
-1.30806
0.671171
0.263642
-2.03633e-11
1.62654
5.4657
-8.53976
-4.39286e-11
6.21891
0.995014
-5.83747
1.31345
-1.40359
-4.10086
0.350427
2.51956
-3.52329
-0.306202
0.350427
1.93555e-10
4.43335
-4.35114
19.6405
3.12799
-3.13695
-3.18188
0.350427
2.11744
-7.96681
-4.21365
0.350427
-5.30904
-2.9319
0.299441
0.263642
9.09875
-9.09898
-3.47224
0.350427
-5.7613
-5.83113
-0.332647
0.350427
6.05456e-12
4.35899
-5.5196
24.4103
-3.50635e-08
13.2255
-0.0846613
1.47011
-7.99098
-4.413
0.198942
0.263642
1.26627
-2.06831
-9.90423
0.350427
-1.36587e-10
4.55562
2.57062
-11.3603
-3.9408e-11
4.18409
4.73499
-19.4612
2.40238
-1.32671
0.661736
0.263642
-4.12833e-11
3.16225
1.92981
-5.75212
-2.08075
-8.67611
-5.6796
0.350427
-1.69189e-10
4.75284
4.61746
-21.5956
-0.676056
-0.899106
-1.26361
0.350427
1.84769e-11
1.53421
5.85405
-8.63091
-0.561391
-0.310026
2.83179
0.263642
-2.50246
-3.37038
3.94641
0.350427
7.13339
-8.41211
-3.7036
0.350427
1.0384e-10
2.44441
-1.44309
3.87793
-3.54074e-12
4.08722
4.05539
-16.2249
-7.27245
-4.01619
0.218598
0.263642
-8.29586e-11
5.90503
-6.10276
36.3874
1.22742
-5.97129
5.95591
0.350427
-1.31156e-10
3.99938
-1.90902
7.98532
-1.06372
-1.23561
-0.181974
0.350427
-1.2204e-10
3.40599
1.55149
-4.93394
19.4281
-10.7291
0.0818269
0.263642
-1.98863e-08
5.11443
0.507237
-2.2438
-5.17421e-09
2.74897
-0.463194
1.62373
-3.18267
-3.32634
-1.48555
0.350427
-1.45694e-12
2.41082
-6.10235
15.0621
-2.38125
-7.81684
-8.16443
0.350427
-1.02798e-12
3.64644
-5.21759
19.376
9.52898e-12
1.04382
-5.62675
6.22377
-3.49679e-11
3.57292
-3.87922
14.2106
-2.22986e-10
5.57517
-4.16201
23.5543
6.42827
-6.52096
-2.76916
0.350427
-7.78272e-12
6.51687
-5.46906
35.9916
0.0283354
-0.566513
4.49754
0.350427
-6.61168
-3.65128
0.240445
0.263642
4.48802e-11
2.12098
-4.15604
9.16529
-0.358988
-0.19825
4.4284
0.263642
5.77748
-5.88521
-2.10131
0.350427
0.955391
-7.13518
-8.13002
0.350427
-6.8225
-7.5077
-9.12857
0.350427
2.50112
-2.66936
-2.72923
0.350427
-6.54657e-13
3.03038
-4.46271
13.8741
-3.21286
-3.24777
-3.14823
0.350427
-8.0853e-10
0.760551
1.56963
-0.843355
-3.17093
-3.20924
-2.90614
0.350427
2.95543e-12
4.07277
3.50083
-13.9077
4.02803e-11
1.58401
4.15803
-6.23593
7.06881
-3.90373
0.224895
0.263642
-0.392294
-9.07029
-6.59642
0.350427
-1.93581
-5.10655
-6.95578
0.350427
-0.696755
-6.17039
-7.95065
0.350427
3.81226e-10
6.76248
-0.582378
4.28875
-1.27977e-10
4.90276
3.12767
-14.9838
-0.0194003
-0.0683677
-0.677252
0.350427
9.83243e-11
11.881
0.606327
-6.85334
-9.23272e-12
1.75893
-3.80133
7.03669
-6.68788e-11
4.43021
3.65928
-15.8609
-8.74056
-8.98666
-3.97773
0.350427
1.83443e-11
4.73155
5.47846
-25.5712
1.02789e-10
1.00036
-6.03325
6.38584
8.51436e-12
3.66601
6.1334
-22.1347
-1.38596e-11
1.45459
2.79099
-3.70931
1.14932e-12
3.36407
3.97958
-13.0372
8.44837e-10
3.3655
0.820502
-2.41098
-3.79974e-11
5.31724
-2.73196
14.8769
-1.96355
-6.76494
-5.47233
0.350427
-1.18501e-12
3.32305
-5.49074
18.5964
3.13911e-10
2.00715
-3.09811
6.5688
3.18576
-5.89802
8.18439
0.350427
5.09847e-11
7.47679
1.88425
-13.7377
-4.86285
-9.30681
-6.61774
0.350427
-7.86596e-12
2.03247
-3.17418
6.80183
-7.48999e-11
3.16092
-1.29193
4.43411
-6.99443e-12
1.38508
-5.99825
8.65848
9.85878
-5.44448
0.161252
0.263642
-3.48293
-6.54257
-1.51991
0.350427
0.761517
-2.22786
3.60925
0.350427
1.25523
-4.65117
-8.45183
0.350427
-1.93667e-10
6.51895
3.64339
-23.4006
-2.60957
-2.66235
-1.70858
0.350427
-3.9918
-9.34559
5.23791
0.350427
2.32046
-8.75534
2.88336
0.350427
-1.27724e-12
1.25266
4.77277
-5.62822
-2.31508
-1.2785
0.68669
0.263642
-7.01951e-10
0.673328
-0.389938
0.612983
-0.507929
-2.49851
8.99208
0.350427
-9.31322e-13
3.63534
4.55162
-16.1963
0.0388628
-6.37883
5.27768
0.350427
-1.68628e-10
4.41558
-4.33959
19.5123
1.38505e-09
4.87722
0.376935
-1.48797
5.20557
-7.71125
-4.20919
0.350427
-7.88483
-4.35438
0.20162
0.263642
3.66324
-9.4391
2.38573
0.350427
8.61312
-9.69345
-6.34174
0.350427
-1.44499e-09
5.72049
-0.762801
4.71402
2.42686e-08
7.86285
0.404902
-2.83326
7.61758
-4.20679
0.208694
0.263642
-2.8787e-11
1.13683
-4.96184
5.99122
-6.23384e-10
5.73883
-0.997512
6.07498
8.14205e-11
5.91641
3.89427
-22.6897
-3.49014
-3.73233
-1.44841
0.350427
-1.13138
-1.19064
-1.07548
0.350427
-2.36154
-2.50132
-2.11003
0.350427
4.22169e-11
2.76921
2.95551
-7.83398
-0.440782
-4.72384
-5.64514
0.350427
0.851422
-9.50438
-3.04395
0.350427
-7.49662e-11
5.52222
5.24031
-28.5877
1.60579
-5.66461
-1.77004
0.350427
2.48601e-10
12.6357
-0.372879
5.06202
-2.16447
-1.19532
0.734473
0.263642
-7.38311
-7.26823
5.79936
0.333772
1.46054
-0.806578
1.08846
0.263642
-3.95443
-2.18382
0.402016
0.263642
-1.81031
-1.91985
-1.03614
0.350427
-2.32544e-10
0.242114
1.24827
0.0482035
-9.14864e-10
1.03797
-2.22223
2.65704
1.1567e-12
3.89852
5.83931
-22.4142
1.72821e-10
4.82362
-1.39042
7.05726
-1.76856
-0.976683
0.898891
0.263642
-3.11664e-08
0.550637
-0.195679
0.458176
-3.13044
-8.33412
1.74889
0.350427
4.54804
-2.51164
0.349545
0.263642
-7.77646
-4.29453
0.20443
0.263642
1.02855
-0.568016
1.54561
0.263642
-3.11532
-3.17039
-2.89431
0.350427
2.78201e-12
2.12095
3.62974
-7.34807
-2.01363e-11
1.94542
4.96419
-9.30701
2.77562e-10
6.2879
2.06127
-12.6107
7.57325e-13
6.53052
4.13923
-26.6809
1.26105e-12
5.81417
-4.8311
28.4393
2.10796e-12
6.50408
-4.34434
28.6063
-3.38984
-9.21725
-4.45172
0.350427
5.47242
-6.1843
-7.60118
0.350427
7.93337
-7.77556
4.22167
0.333772
1.33986e-09
1.25484
-1.79401
2.60162
-0.224231
-5.69949
6.38999
0.350427
5.61037e-11
5.09773
6.19106
-31.2099
-1.41429e-10
5.83684
-1.46694
8.91273
2.44916e-10
6.20825
-3.20406
20.242
4.22922
-4.86339
-0.842471
0.350427
1.27612
-8.16762
8.00276
0.350427
7.81939
-4.31824
0.203308
0.263642
3.51496
-1.94113
0.45228
0.263642
3.68104
-7.61408
-0.742649
0.350427
4.39449
-2.42685
0.361758
0.263642
8.98895
-9.39732
2.55821
0.350427
-8.87131e-11
5.14144
4.27772
-21.6432
7.42376
-4.09975
0.214143
0.263642
6.5119
-6.20577
2.17629
0.333772
1.1021e-11
5.10897
2.37851
-11.8013
0.665274
-0.968455
-0.44794
0.350427
-3.71061e-11
0.529443
4.64804
-2.11044
1.53089
-0.84543
1.03844
0.263642
-5.94192e-11
5.92472
1.60189
-9.1403
-7.42356
-4.09964
0.214148
0.263642
3.23614e-10
17.0532
0.253548
-3.97337
-1.32941e-10
6.92532
-2.20988
15.6546
-0.247611
-9.40134
3.13857
0.350427
-6.97602
-7.0216
0.375007
0.350427
7.27123e-09
4.84146
0.539796
-2.26298
-1.99491e-12
3.57353
3.67939
-12.798
-4.76597
-8.99993
-0.266515
0.350427
-9.29874
-5.1352
0.170963
0.263642
7.35342e-11
5.65303
-4.58083
26.246
-1.66769e-11
6.84438
-3.13628
21.8163
-7.34531
-7.8617
6.81302
0.350427
0.254841
-1.18411
-9.87143
0.350427
1.97273e-10
5.47082
-2.78022
15.5605
-0.614817
-1.9386
-7.90202
0.350427
1.39714
-0.771564
1.13786
0.263642
4.78842
-4.88936
-3.70528
0.350427
3.59316
-3.65126
-7.65948
0.350427
4.39282
-8.08463
-2.07997
0.350427
-4.99928e-10
4.38168
-1.87872
8.58237
2.74302
-1.51482
0.579561
0.263642
2.2381e-11
0.130061
-1.79899
0.584405
-6.612
-6.69047
-3.39004
0.350427
8.08659e-12
3.07735
4.75989
-14.2975
-2.95379e-11
1.70842
5.4403
-8.94389
-2.96558
-5.78146
5.65095
0.350427
2.86609e-12
5.92476
5.17032
-30.2825
-0.627872
-4.07548
-6.14734
0.350427
0.0207355
-0.134848
-3.12626
0.350427
2.32655e-10
3.8861
2.21419
-8.25413
2.4344e-12
2.49881
-5.79882
14.8406
-5.44823e-11
4.67819
-1.50405
7.38668
-6.21827
-3.43402
0.255657
0.263642
-1.32213e-09
3.13203
0.945071
-2.60956
5.53867
-7.27032
-4.85975
0.350427
-4.3039
-5.61181
-0.59785
0.350427
3.19297
-1.76331
0.49789
0.263642
4.13428
-7.97596
-6.15587
0.350427
3.82552
-9.84041
8.03792
0.350427
-4.38734
-2.4229
0.362348
0.263642
-1.54889
-1.6054
-4.55567
0.350427
-1.097e-11
2.7521
3.11808
-8.23085
-2.07857e-11
0.934452
4.15001
-3.52756
5.3509e-11
3.45675
5.32701
-18.0637
-1.65077e-07
2.44443
-0.187563
0.808912
1.58496e-10
5.6785
-3.2316
18.7011
4.69716
-8.66482
-0.716709
0.350427
6.7288
-3.71596
0.23626
0.263642
0.680911
-5.45899
-5.15164
0.350427
6.22323e-10
1.29787
-0.961913
1.59887
-0.740713
-3.14047
-3.56327
0.350427
1.77174e-11
0.725199
-4.85593
3.87194
-8.33108e-11
4.12087
5.05756
-20.4911
-5.23314
-8.475
9.26471
0.350427
5.60725e-10
4.96879
2.51334
-12.1378
1.74566
-1.87853
-2.83825
0.350427
1.11046
-0.613249
1.43161
0.263642
6.89382e-12
4.09543
4.18428
-16.786
2.44356
-2.54937
-1.14857
0.350427
-0.676022
-6.01022
8.99864
0.350427
6.86494
-6.93564
-0.38068
0.350427
1.05606
-6.11419
-7.11294
0.350427
-4.13229
-8.01746
-6.32677
0.350427
5.41417e-11
18.0488
0.456204
-7.88349
-7.21536e-12
2.22581
5.61792
-12.154
5.94031
-3.28052
0.26762
0.263642
4.10783e-11
0.507429
3.81596
-1.5859
2.98937
-6.66281
9.10112
0.350427
1.53721e-10
0.827909
1.9198
-1.23899
-1.2802e-09
0.844833
-1.05003
1.23753
9.25211e-12
2.59784
-5.13707
13.6957
-0.499293
-0.499479
-4.53356
0.350427
3.25029
-1.79496
0.489108
0.263642
-1.70926
-2.25921
-9.36663
0.350427
-3.20835e-12
1.92409
4.36434
-8.04697
-6.61135
-7.29529
9.58622
0.350427
4.0335
-2.22749
0.394135
0.263642
-3.55973
-3.72423
-1.53729
0.350427
-1.61938e-10
0.150086
-1.17866
0.527327
-3.27354
-4.81579
-0.562149
0.350427
1.22102
-6.86635
8.48059
0.350427
4.68165
-2.58543
0.339569
0.263642
4.01825e-11
3.64498
-3.71903
13.9062
-3.61747e-11
5.85371
-5.92378
35.0265
-1.59576
-0.881252
0.996232
0.263642
-1.28485e-09
5.992
0.580068
-3.12534
-1.44366e-10
3.79331
2.36172
-8.6083
0.700938
-0.387091
2.26802
0.263642
-1.26555
-4.57822
7.65902
0.350427
-8.15806e-12
0.716155
2.87866
-1.71114
1.93065e-09
4.01797
-1.12899
4.88668
-3.0776
-1.69959
0.516554
0.263642
1.17981
-0.651547
1.34746
0.263642
2.50098e-12
0.650005
-2.55791
2.01308
-1.0913e-11
4.15787
-2.40084
10.3328
-1.52122e-09
2.75496
1.79585
-4.59706
-8.95749
-8.98923
-0.178946
0.350427
1.79038e-12
5.9161
-3.82322
22.969
-2.26031
-6.36379
-8.15975
0.350427
-2.00093e-09
3.58091
0.285516
-0.671982
7.16165e-09
2.84979
0.473099
-0.997806
-2.88201e-09
5.31719
-1.21058
6.78733
-4.37508
-2.41613
0.363363
0.263642
7.2994
-7.96932
-7.13462
0.350427
-2.05915e-12
7.03957
5.07778
-35.395
1.06753
-0.589543
1.48917
0.263642
0.486145
-0.268472
3.2701
0.263642
-7.35602
-4.06234
0.216115
0.263642
1.35936
-0.750702
1.16948
0.263642
7.58992
-9.4992
9.55745
0.350427
-0.37364
-3.04253
7.3549
0.350427
0.51654
-2.47908
-1.14114
0.350427
3.08896
-7.17006
9.25671
0.350427
-4.33495
-2.39396
0.366727
0.263642
-6.41108
-10.4173
-0.656142
0.350427
2.25853
-1.24727
0.703884
0.263642
3.95145
-9.2997
4.58638
0.350427
2.45846e-10
3.21169
4.06149
-12.6938
3.57392e-09
4.82415
0.870385
-3.84844
1.46399e-10
3.67937
4.88387
-17.6191
5.7385e-12
5.08854
5.50531
-27.6636
1.87484
-37.6045
0.0534724
0.350427
-7.06603
-7.06627
2.56334
0.350427
8.41186e-12
1.38309
-5.05884
7.34724
-3.57606e-11
0.0123556
-3.99924
0.39984
-5.77674e-12
5.4149
-3.68146
20.2851
-2.54348e-11
1.40529
-4.96353
7.32564
4.19863e-13
5.86436
6.30052
-36.5981
6.19729
-6.21671
-0.444502
0.350427
-2.36959e-11
2.39613
-3.59931
8.97484
6.3231e-09
1.05439
0.904435
-0.603204
-6.10363e-10
1.42208
2.7706
-3.58958
6.82004
-3.76635
0.233099
0.263642
-0.238815
-2.48423
1.73757
0.350427
1.43092e-12
4.86815
5.39431
-25.9099
1.68857
-5.62408
4.80959
0.350427
1.46644
-1.5195
-3.41795
0.350427
-0.418117
-0.230904
3.80215
0.263642
1.05817
-3.32174
-4.94037
0.350427
-4.51654e-12
3.16744
-4.35225
14.1359
-3.70059
-3.84612
-1.58796
0.350427
-2.35952
-9.12623
5.78254
0.350427
6.43766e-11
5.50958
6.58135
-35.91
-1.07197e-11
6.89431
1.86796
-12.5279
-5.38796
-5.43396
-2.272
0.350427
-1.68178e-06
1.16686
-0.0938849
0.459977
-4.05855
-5.37204
1.68506
0.350427
3.17979
-1.75603
0.499952
0.263642
4.0638e-11
0.739087
5.22249
-3.50945
-5.13752
-8.14902
-2.65337
0.350427
2.50405
-5.66468
-8.69672
0.350427
-1.65779e-11
0.78096
-2.29555
2.14316
-3.05689e-11
3.35266
-1.52436
5.46108
5.23856
-2.89298
0.303469
0.263642
-3.02089
-3.25573
-1.01983
0.350427
2.595
-1.43308
0.612619
0.263642
-2.26703e-12
5.14666
-5.80355
30.2194
2.59992e-10
2.89675
2.63062
-7.26984
0.42087
-8.98396
6.21646
0.350427
3.87517e-12
2.19106
5.58448
-11.8855
-2.54237e-12
6.59956
3.66727
-23.8519
-6.73879
-3.72147
0.235909
0.263642
2.71231e-11
5.68734
3.80732
-21.3031
4.23436e-11
5.94827
4.11628
-24.1343
4.15314
-7.70433
8.49803
0.350427
3.15236e-10
1.67022
3.84117
-6.06519
8.89957e-13
2.61544
-4.19834
11.3309
0.750362
-2.42335
-0.246543
0.350427
0.51363
-5.07808
7.17627
0.350427
-4.21211e-11
1.94353
3.08771
-5.65062
-4.94711
-5.29611
-9.64894
0.350427
8.12684e-12
6.2785
4.30673
-26.6894
2.93444e-10
6.81308
0.850087
-5.44128
3.45578
-9.62973
-8.31459
0.350427
0.287321
-0.41506
-2.55231
0.350427
-4.60807
-4.78988
-0.249759
0.350427
-2.8209e-11
1.01
3.2969
-2.97944
5.54532
-7.23846
3.66627
0.350427
-1.45369
-9.29837
-6.39814
0.350427
3.22432e-11
15.3781
0.473891
-6.93711
-8.58341
-4.74016
0.185211
0.263642
5.12652
-7.54215
-3.34443
0.350427
-7.62834
-7.652
-4.92736
0.350427
-4.46108
-2.46362
0.356358
0.263642
-4.51768
-4.58224
-4.44082
0.350427
3.66093
-9.44925
6.90397
0.350427
7.35037
-9.42263
6.04123
0.350427
5.52358e-12
2.59542
-4.06264
10.8947
7.12003
-9.5445
-2.83029
0.350427
1.65877e-10
5.48908
-4.92467
27.3823
1.27305e-11
1.12795
-1.96816
2.57041
1.07816e-11
4.97403
4.49432
-22.0045
-1.59318e-10
3.76679
-3.742
14.4457
-0.146494
-0.295112
-2.90889
0.350427
-1.88876
-1.04306
0.841688
0.263642
-2.55079
-6.97398
-0.476717
0.350427
6.15982
-6.27851
-2.01645
0.350427
-4.3628
-2.40934
0.364386
0.263642
-9.59897e-11
2.42107
4.16946
-9.74412
-0.185922
-7.24149
-2.66155
0.350427
3.85079
-7.64487
6.94748
0.350427
2.29475
-2.43871
9.81722
0.350427
2.89155
-7.79852
-6.06381
0.350427
2.35051
-7.51278
-9.2742
0.350427
8.95352
-4.94455
0.177555
0.263642
2.08484e-12
4.80667
-4.46694
21.8216
0.488138
-0.269573
3.25675
0.263642
9.67595e-13
4.52016
3.80974
-16.8702
5.82482
-5.87832
-1.00122
0.350427
-7.33169
-9.83201
3.07611
0.350427
-4.55934e-12
3.05898
4.00599
-11.9038
0.144866
-0.241312
-1.79511
0.350427
6.01655
-6.18332
-1.56997
0.350427
3.04858
-6.78483
-0.963209
0.350427
-1.55742e-11
2.82153
3.40521
-9.25748
11.2974
-6.23894
0.140718
0.263642
2.94837
-1.62823
0.539194
0.263642
-1.66253
-8.65671
-5.96211
0.350427
-4.51742e-12
2.28235
-5.09951
11.9893
-4.7637e-12
0.904366
8.16311
-7.03201
0.330307
-0.182411
4.81293
0.263642
-8.47269e-11
4.00863
-3.93743
16.1341
2.63645e-11
5.72309
2.02697
-11.2501
2.53518
-1.40005
0.627073
0.263642
-1.7491
-6.30591
5.7275
0.350427
6.10958e-11
5.03546
4.16488
-20.6217
5.32378e-10
3.19989
1.77536
-5.33055
-1.09923e-09
0.499906
-0.403979
0.552379
-2.5465
-6.57285
5.12182
0.350427
6.07894e-13
5.65833
5.16139
-28.8544
-1.16626e-11
2.66006
5.08182
-13.1675
-5.96873e-09
4.57487
-0.931225
4.61066
6.6711
-8.48128
-1.64978
0.350427
1.1899
-4.76998
4.74728
0.350427
-4.82644
-7.51195
-2.39029
0.350427
-0.637963
-0.352313
2.49191
0.263642
-3.68418e-12
2.68903
-6.30382
17.3016
-2.432e-12
2.06144
-3.80878
8.20199
1.15785e-10
3.52015
-5.67658
20.3328
4.55506e-10
4.2164
-0.808765
3.7605
3.33614e-11
5.70231
2.36744
-13.1494
7.53522
-4.1613
0.210975
0.263642
7.08856e-11
2.55517
3.50739
-8.61155
1.66713
-1.77321
-2.50629
0.350427
-5.95253e-12
4.59869
-3.52667
16.5685
5.69274e-10
4.08463
-2.08012
8.84692
-5.38916
-2.97615
0.294989
0.263642
5.00502e-12
1.97512
-4.40588
9.05258
-5.20153e-12
6.36057
5.20902
-32.7819
-0.963368
-1.0027
0.258773
0.350427
2.84097
-3.66806
-4.48423
0.350427
-0.58824
-1.44128
-3.02628
0.350427
0.314788
-0.316233
-0.380717
0.350427
-1.79844
-5.67038
0.7795
0.350427
-0.200924
-6.73147
5.47345
0.350427
0.927146
-9.89295
0.138567
0.350427
1.48576
-8.27279
-7.62664
0.350427
-7.56947e-12
3.38836
-5.55339
19.1673
3.7538e-11
5.38806
3.0899
-16.2982
-1.7099e-11
5.5393
4.33162
-23.6437
3.59672
-8.01152
6.63922
0.350427
-3.20216e-07
1.25937
-0.199229
0.601331
4.55333
-2.51456
0.349139
0.263642
-8.28298e-12
0.163229
-2.55069
0.766773
-7.48359e-10
2.96652
-1.9748
6.20871
-1.11828e-10
5.77789
-4.94544
28.9246
-9.70821
-5.36133
0.163753
0.263642
-1.14444e-09
5.11572
1.19585
-5.76718
-5.39043e-11
4.1727
-3.43661
14.6904
5.42144
-2.99397
0.293233
0.263642
0.20689
-1.82839
5.97674
0.350427
-1.99872
-4.06759
0.929916
0.350427
2.69951e-10
4.66566
-2.09228
10.1123
1.37634e-10
3.29827
-3.5623
12.0999
8.63187e-11
3.78685
-0.867226
3.63448
-1.76582e-09
4.68739
0.292873
-1.02239
3.68086
-3.87655
-2.10194
0.350427
0.477814
-7.89077
-4.90906
0.350427
-0.238888
-7.41679
-6.74757
0.350427
-4.68266
-2.58598
0.339496
0.263642
1.1978
-0.661483
1.32722
0.263642
1.56425
-0.863855
1.0163
0.263642
6.65822
-3.67698
0.238764
0.263642
-7.33846e-12
5.82412
-3.50304
20.7526
-6.10467e-12
6.2901
5.20665
-32.3999
6.84838
-6.93811
-5.60664
0.350427
2.47322
-2.48741
-2.62806
0.350427
-0.0592949
-0.0595529
-2.47711
0.350427
-7.11357e-12
2.3157
-4.91242
11.7261
1.66263
-0.918181
0.956163
0.263642
7.1761
-3.96298
0.221533
0.263642
-1.91537
-3.29515
-7.4914
0.350427
3.73611
-7.03313
-5.38795
0.350427
1.56906
-0.86651
1.01318
0.263642
2.69274
-3.56864
-5.15714
0.350427
2.29887e-10
3.73144
2.43387
-8.73142
-6.23025e-12
2.08263
5.92362
-11.9863
1.71173
-3.92201
2.47553
0.350427
-6.71686e-12
2.22349
5.75001
-12.4347
-2.21828
-6.87512
6.82355
0.350427
-9.84819e-11
3.24591
5.85099
-18.6414
-1.50594
-1.58885
8.83752
0.350427
2.65637
-9.85653
-2.81541
0.350427
-5.30557
-2.92999
0.299637
0.263642
0.65962
-0.67253
-4.69415
0.350427
5.61502
-7.69322
-1.8973
0.350427
-6.62105
-6.86465
8.57029
0.350427
-3.40819e-11
5.34026
3.69607
-19.3876
-0.859003
-1.40854
5.70382
0.350427
-9.94229
-5.4906
0.159897
0.263642
-2.40998e-10
5.35702
-1.30396
7.33577
-4.82079
-2.66226
0.329769
0.263642
-9.32004e-11
3.51486
-1.23387
4.68732
6.16238
-9.14621
-6.96078
0.350427
-8.36983
-4.62221
0.189937
0.263642
-4.28763
-8.74411
7.31417
0.350427
-3.50765e-12
5.87817
3.25027
-18.7552
-5.99375
-6.0709
-2.70631
0.350427
3.53081
-3.62448
-2.63028
0.350427
-1.38334e-10
6.18845
4.39605
-26.8543
0.412926
-0.228037
3.84995
0.263642
4.91562
-5.08116
-2.60068
0.350427
-0.342742
-0.189278
4.6383
0.263642
0.559795
-9.46745
-7.45004
0.350427
1.22777e-08
2.77316
-0.538246
1.84307
-11.69
-6.45579
0.135991
0.263642
-0.795834
-1.66932
-4.87826
0.350427
3.33361
-8.54687
9.08712
0.350427
3.48146e-11
4.72223
5.03297
-23.4164
-6.77025
-7.29374
-0.693111
0.350427
7.71212
-7.51046
3.30377
0.333772
7.09301
-9.22421
-0.179341
0.350427
-3.29775e-12
3.78251
-4.98652
19.212
0.0349461
-6.25507
-1.80623
0.350427
5.0661
-2.79774
0.313801
0.263642
-6.72275
-9.88999
-1.97619
0.350427
6.92754
-6.97423
0.680391
0.350427
-0.515138
-0.592673
-1.86852
0.350427
-0.172585
-1.43074
0.315269
0.350427
-8.31819
-8.94568
-4.38535
0.350427
4.93769
-5.17714
-0.344906
0.350427
0.972484
-0.537051
1.63473
0.263642
-3.81299e-11
2.21906
4.86032
-10.4349
-2.3887
-5.37743
-5.28852
0.350427
6.71071
-9.30448
-2.36208
0.350427
1.10747e-11
5.10931
3.33897
-16.7094
-2.4603
-2.63985
-0.551343
0.350427
3.398
-4.39796
-1.72644
0.350427
-4.10282e-11
4.17489
3.83124
-15.6446
-8.45774e-11
2.09424
-1.82496
4.17233
-5.26528e-12
1.4224
4.09314
-5.47166
8.88359
-9.04988
0.0470934
0.350427
4.3016
-2.37555
0.36957
0.263642
-3.25065e-12
5.66622
4.87779
-27.2882
5.73686e-11
6.57421
-1.54042
10.4774
2.92794
-1.61695
0.542957
0.263642
-1.47403e-11
0.790193
-4.93503
4.25005
-5.81228
-3.20981
0.273515
0.263642
1.92753
-1.06447
0.824756
0.263642
-0.749389
-4.93605
4.14911
0.350427
-4.99343e-11
5.3609
-3.99355
21.7595
-0.564507
-0.311747
2.81616
0.263642
0.214278
-6.86756
-5.72837
0.350427
3.92469
-9.16722
-5.51093
0.350427
5.33566
-2.9466
0.297947
0.263642
-4.52806
-2.50061
0.351087
0.263642
-1.67196
-7.79474
-9.17686
0.350427
-2.75209e-11
5.03943
6.60997
-32.96
-3.41662
-3.56021
6.0139
0.350427
-4.97093e-09
16.5269
0.244684
-3.69344
-2.92727
-3.39438
8.52215
0.350427
4.72328
-7.02967
9.01521
0.350427
7.38871e-13
5.98419
5.68844
-33.6903
2.34451e-11
1.59974
-4.52932
7.59618
6.37162
-3.51871
0.249504
0.263642
6.48346
-6.8816
2.18545
0.350427
2.15477
-3.1834
2.11412
0.350427
-6.08715
-6.09888
-0.286231
0.350427
1.60606e-12
4.52513
-4.07355
18.7838
7.4182
-7.46556
2.98838
0.350427
-2.31107
-1.27628
0.687882
0.263642
-1.97782e-11
3.39973
-3.59254
12.5641
-5.12799
-7.2137
-0.852352
0.350427
3.74111e-10
6.0502
-0.579942
3.85919
2.80885e-13
4.81107
-6.5238
31.7369
-2.31594e-10
3.70987
-4.10307
15.5723
2.10244e-12
2.09535
-6.08975
13.1106
1.41688
-1.42888
1.16876
0.350427
-0.374683
-8.67356
2.31493
0.350427
-2.83342e-11
2.12688
1.79951
-3.47692
-2.50061e-11
1.67073
-1.23368
2.41157
-0.375871
-0.438461
0.923025
0.350427
-3.87639
-2.14073
0.410109
0.263642
-7.26507
-4.01212
0.21882
0.263642
-5.84898
-3.23008
0.271798
0.263642
3.15104
-3.36268
-0.367974
0.350427
-2.4807
-2.60789
-2.37212
0.350427
-10.1559
-5.60858
0.156534
0.263642
0.0410753
-0.774831
-0.249808
0.350427
5.20412e-12
6.68432
4.00095
-26.3932
2.45803
-3.16273
-9.51027
0.350427
-7.75712
-4.28384
0.20494
0.263642
0.597337
-3.29256
-6.23942
0.350427
-4.61719
-4.64224
-1.71591
0.350427
-4.64292
-2.56404
0.342402
0.263642
1.51569e-10
3.52542
5.05188
-17.4596
2.6995e-11
0.232809
-4.522
1.40319
7.80306e-10
1.41838
1.49292
-1.7671
3.23373
-9.65681
4.33765
0.350427
8.49885e-12
6.02269
-3.99115
24.3879
-7.42727
-8.10823
7.18769
0.350427
7.48618
-7.84066
0.40451
0.350427
-2.1989
-2.25649
-2.96974
0.350427
-3.14685
-5.47446
2.63529
0.350427
9.5093
-5.25148
0.167178
0.263642
-3.26369e-11
1.16997
-1.09731
1.63426
-1.53054e-11
1.12708
-5.16943
6.17677
1.29938e-11
1.76198
-3.76211
6.97917
-1.09055e-10
4.95186
4.71823
-23.0136
-6.69407
-9.58209
0.599393
0.350427
-3.31925
-9.70297
2.12061
0.350427
-4.8644
-2.68635
0.326812
0.263642
4.20484e-11
3.06581
1.20518
-3.34441
-8.24932
-8.74705
-7.09123
0.350427
-4.44172
-2.45293
0.357912
0.263642
1.91213e-10
0.468895
2.35476
-0.753707
-0.311226
-6.16116
8.49498
0.350427
8.82004e-11
3.78279
-1.16096
4.74208
-0.442477
-2.71353
6.7635
0.350427
-9.28454
-5.12736
0.171225
0.263642
5.84385
-7.12747
-5.00864
0.350427
-1.57766
-4.38115
-4.73933
0.350427
-3.08903e-10
4.10379
-1.61262
6.96826
6.00749
-6.96148
-3.30991
0.350427
-1.83405
-6.74301
-8.68745
0.350427
5.62918
-3.1087
0.282411
0.263642
0.745606
-0.411758
2.13215
0.263642
6.48493e-11
3.75298
3.39264
-12.3821
7.59902
-7.76048
-0.468409
0.350427
-2.35701e-11
7.47566
1.65241
-12.0024
-7.6865
-4.24485
0.206823
0.263642
1.50532e-10
6.15893
-4.54506
28.3432
3.65099
-2.01625
0.435428
0.263642
-5.96144
-7.41284
-1.44148
0.350427
1.01641e-11
4.50738
-3.55764
16.386
9.00497e-12
3.64347
4.1882
-14.9092
-5.65132e-12
4.27905
-2.66707
11.763
-1.847e-11
3.52591
-2.57632
9.43431
-8.68031e-10
4.46949
0.640002
-2.51006
-1.44975
-3.03434
0.0447626
0.350427
2.4924e-10
7.55886
1.1302
-8.19256
0.673229
-0.371789
2.36137
0.263642
-1.62387
-2.01141
8.67781
0.350427
-6.43996
-7.69603
1.91172
0.350427
1.82891
-6.49405
1.07846
0.350427
1.87945
-6.50076
8.72512
0.350427
-1.89836e-12
3.22502
3.86109
-12.1017
-5.47072
-8.87913
5.22837
0.350427
0.671608
-0.370893
2.36707
0.263642
1.20312e-09
5.02894
-1.27497
6.76217
-1.53865
-1.8972
3.8285
0.350427
-0.418233
-5.10072
-3.64261
0.350427
6.28072
-7.36975
-3.72801
0.350427
4.49751e-12
3.37005
-4.19647
14.4927
4.1014
-2.26499
0.38761
0.263642
-3.44263e-11
4.99863
3.15846
-15.4375
-0.950306
-0.524804
1.67288
0.263642
1.03097e-12
5.1002
-4.9412
25.5516
-2.72174e-11
0.881023
4.95468
-4.01476
3.36888
-1.86045
0.471891
0.263642
0.095561
-6.16432
-3.59209
0.350427
-4.69565
-4.90121
-0.523467
0.350427
-5.62369e-11
2.55574
-2.02221
5.51867
-1.58481e-12
2.10029
7.2236
-14.8212
-1.76917e-12
0.749028
-5.39776
4.3935
-1.34747e-12
5.71117
5.84743
-33.0453
-3.97449e-10
2.08799
-0.680264
1.77081
-1.76875e-11
1.99449
-5.96592
12.2494
-0.143833
-0.515531
-0.172131
0.350427
-7.42078
-8.64448
-4.2898
0.350427
-4.95664
-9.7326
-3.07947
0.350427
3.67437
-2.02916
0.432657
0.263642
-1.04441e-10
1.22637
-0.744173
1.26306
-5.33775
-2.94776
0.29783
0.263642
3.37431
-1.86345
0.471131
0.263642
-2.45405
-7.85171
8.8434
0.350427
-9.93899e-10
3.38545
-1.52646
5.51819
2.14461e-09
7.21401
-1.50952
11.2401
3.34279e-11
0.266641
4.79356
-0.927732
-0.677698
-0.374257
2.3458
0.263642
11.0705
-6.11364
0.143602
0.263642
-1.6021e-11
1.52001
-2.99912
4.90911
3.82841
-7.59666
2.05253
0.350427
-7.69515e-13
5.89721
5.52975
-32.2596
-4.75107
-2.62377
0.334607
0.263642
4.10198e-09
1.58975
-1.10998
2.11503
2.02988e-09
2.83813
-1.20257
3.76348
-5.41649e-10
5.19258
0.313869
-1.27936
0.317685
-5.61743
-8.86972
0.350427
-3.23149
-3.2764
-0.28412
0.350427
8.08855
-4.46688
0.196543
0.263642
2.31283
-5.01198
-1.79687
0.350427
-5.89193
-8.43811
0.997172
0.350427
-3.00487e-11
0.36414
2.81269
-0.673785
6.3903
-7.58849
-6.54818
0.350427
5.56194
-9.22742
4.12399
0.350427
-5.7574
-3.17951
0.276122
0.263642
-3.09283e-11
4.39479
-6.33351
28.1849
-6.86222e-12
6.29131
-4.72069
30.0498
-5.85135
-5.94554
-4.26767
0.350427
3.4033
-3.52714
-1.89162
0.350427
4.25149
-2.34787
0.373926
0.263642
1.09978
-1.67269
0.355233
0.350427
-2.05191e-10
4.979
-0.543048
3.05427
0.236095
-0.337098
-4.75013
0.350427
-6.07048
-3.35241
0.261881
0.263642
2.0332
-6.75986
9.48263
0.350427
0.381993
-3.08161
-9.55739
0.350427
-8.64953
-4.77668
0.183795
0.263642
1.93801
-4.96332
3.52473
0.350427
8.17692
-4.51568
0.194418
0.263642
6.19684
-6.22903
-1.5431
0.350427
0.159646
-1.07215
6.56736
0.350427
-4.52237e-12
4.10809
3.28748
-13.1548
4.59927e-13
5.49246
-5.73304
31.8389
-4.96591
-7.10524
8.74397
0.350427
-6.99945
-7.06675
-7.6326
0.350427
0.733225
-6.76125
-7.26199
0.350427
-8.79504e-12
4.11489
-2.39525
10.2066
1.19853e-11
3.37406
-4.76969
16.4436
5.6199e-09
0.977452
-0.548447
0.886507
-1.01639
-1.24594
-1.02392
0.350427
5.86977e-11
6.02585
2.9151
-17.2155
-6.39707e-12
4.93666
-2.38361
12.1175
-1.38229
-0.763368
1.15008
0.263642
-1.59929
-7.34087
8.59075
0.350427
2.43325
-2.75255
-0.594494
0.350427
3.70049
-7.36069
4.16422
0.350427
-3.68398
-5.56018
-4.57005
0.350427
-6.53205
-3.60731
0.243376
0.263642
-3.99311
-8.76746
-6.38341
0.350427
6.48251
-6.64822
-1.28909
0.350427
4.18861e-10
6.74307
-3.23915
22.1922
-0.202115
-0.421823
-0.0780742
0.350427
1.47494
-9.31437
-8.66813
0.350427
2.28908e-12
2.97669
4.90095
-14.2382
-0.860642
-1.90437
1.17746
0.350427
-5.72727
-3.16287
0.277575
0.263642
7.33405
-8.40119
-6.19374
0.350427
5.19318e-11
3.39508
-3.6344
12.6895
4.65521
-5.52112
-0.253656
0.350427
-3.33914e-11
0.18082
4.87607
-0.531261
-3.30236e-10
3.7115
-2.01375
7.82446
-1.10276e-11
1.88675
3.33963
-5.95063
-1.32279e-10
4.3909
-2.24967
10.2285
1.38502e-09
0.964473
1.48397
-1.08082
-3.09732e-11
5.56199
-2.1601
12.3649
-0.442221
-0.244215
3.59491
0.263642
-2.90045
-4.46441
3.30855
0.350427
6.93003e-10
6.64054
3.03391
-19.7964
1.01872e-09
0.703921
-1.9205
1.70231
2.07036e-12
3.32051
-5.47675
18.536
5.58286
-3.08312
0.284754
0.263642
-0.893307
-5.59298
-4.75616
0.350427
2.04393e-10
6.22491
4.47401
-27.4998
-1.63627e-11
2.25162
5.32528
-11.6401
1.77946e-11
1.15617
5.31487
-5.79447
9.54058
-5.26875
0.16663
0.263642
-7.31933e-10
0.235454
-2.62188
0.967758
-1.00042
-6.48567
-6.88374
0.350427
0.204311
-1.68934
-6.03628
0.350427
2.17833e-12
0.0665735
-5.47533
0.714939
4.38138
-4.50889
-1.55183
0.350427
5.9704
-3.29714
0.266271
0.263642
2.54948e-10
6.08377
-1.05161
6.74818
0.877959
-0.899519
-4.34508
0.350427
1.52961
-0.844723
1.03931
0.263642
-8.56819
-4.73176
0.18554
0.263642
5.89138
-5.93979
-2.40199
0.350427
1.83395
-5.76376
0.217786
0.350427
-7.48896
-4.13576
0.212278
0.263642
6.20149
-8.71611
7.90335
0.350427
-6.24348
-9.57921
7.07081
0.350427
-3.72787e-10
5.89929
-2.44695
14.7857
-0.20023
-0.238928
-5.35507
0.350427
-5.70957
-7.90387
-4.78372
0.350427
6.76974e-12
4.12221
4.79947
-19.434
6.11362
-3.37623
0.260033
0.263642
-6.8986e-12
2.95733
-6.39878
19.2738
1.82358e-11
3.68193
5.17589
-18.7069
-5.11419e-11
4.2639
-5.41603
23.4438
6.55295
-3.61885
0.2426
0.263642
-6.10914
-3.37375
0.260224
0.263642
-1.95669e-11
1.71857
2.46655
-3.88852
-1.50489e-12
1.78928
-4.92236
9.15792
2.96406
-7.03766
2.30185
0.350427
9.31792e-12
2.02872
2.07951
-3.86833
2.5195
-2.61668
-3.90126
0.350427
-5.07332
-5.62471
4.51043
0.350427
0.925246
-1.616
0.346583
0.350427
4.15537e-10
3.67039
2.47405
-8.73032
-8.19541e-11
1.41494
-2.01333
3.19916
-0.646726
-0.357153
2.45814
0.263642
-9.20548e-13
3.10304
-4.94542
15.6963
-3.67822
-2.03128
0.432205
0.263642
9.41752
-5.2008
0.168807
0.263642
-2.87225e-11
2.5081
-4.08282
10.5906
-5.32067
-7.87261
7.52508
0.350427
0.789151
-0.815313
-4.34614
0.350427
-7.50853
-7.20676
2.20775
0.333772
2.79159
-9.83069
-7.10324
0.350427
9.7296
-5.37314
0.163393
0.263642
7.03229
-9.13417
-0.287024
0.350427
9.53952
-5.26817
0.166648
0.263642
-1.10394
-1.73586
-9.2908
0.350427
-4.04701
-8.1103
-1.84199
0.350427
-2.5448
-3.67584
6.50617
0.350427
-4.53464
-4.61594
-0.843337
0.350427
7.112
-7.70673
-0.313124
0.350427
-2.44572e-12
1.94968
6.05696
-11.4587
-2.30903
-2.88267
4.5486
0.350427
-3.19962
-3.26014
-3.712
0.350427
-7.95034e-11
4.9879
4.26074
-20.9018
-1.16058
-9.52518
4.31558
0.350427
6.20858
-8.8129
-4.87842
0.350427
-9.3765
-9.94056
-4.18816
0.350427
4.21425e-06
0.845053
-0.0437836
0.387427
1.25728e-11
2.78515
1.76497
-4.56527
0.787596
-6.48141
2.49236
0.350427
-3.06848e-08
2.6637
0.271828
-0.373641
4.3199e-09
4.90991
-1.02636
5.38977
8.35165
-8.38725
-0.132325
0.350427
-0.419142
-0.23147
3.79286
0.263642
-9.31984
-9.58113
-1.06964
0.350427
1.28707e-10
5.18685
-3.67448
19.4094
1.0182e-11
5.02894
-3.04508
15.664
4.80742
-5.01577
1.17019
0.350427
-0.792687
-4.68044
-2.69107
0.350427
-2.9285e-12
4.50456
-3.99451
18.3439
1.72382e-11
5.3385
-4.33766
23.507
-2.08519
-9.6797
3.03931
0.350427
-7.50047e-10
0.631406
1.74498
-0.751365
6.37664e-10
2.63944
-1.44331
4.15996
-1.93006
-1.96992
-4.08871
0.350427
-2.55681
-4.91389
-3.10502
0.350427
7.28339e-11
4.81099
-1.86849
9.33972
-0.0237457
-7.29682
-9.09028
0.350427
-3.50093
-8.22755
5.25631
0.350427
-9.45095
-5.21926
0.16821
0.263642
-1.80455e-11
0.495245
-4.45104
2.55478
5.52518
-3.05127
0.287727
0.263642
-5.78436
-8.63395
6.29427
0.350427
0.45194
-5.56785
-5.37286
0.350427
-5.2085
-5.38965
-1.97424
0.350427
1.93856
-3.5785
2.97506
0.350427
7.70065
-8.21295
1.49197
0.350427
-7.19701
-7.31814
-1.25423
0.350427
-8.60911
-4.75435
0.184658
0.263642
-1.52372e-08
1.27662
-0.446662
0.920644
3.2558e-11
1.51491
-2.53235
4.1867
-1.31706e-11
1.83632
5.07058
-8.96078
-2.30303e-12
3.48024
3.50712
-11.8552
-4.50474
-8.65972
8.29845
0.350427
1.7278e-10
3.073
3.68348
-10.9689
8.2219
-4.54052
0.193355
0.263642
-3.65731
-3.71971
-1.82966
0.350427
7.59743
-8.37348
-0.115817
0.350427
1.92393
-8.39437
-7.06414
0.350427
-8.58089
-8.59258
-4.25376
0.350427
-1.30858
-6.66953
0.839497
0.350427
-8.42925
-9.35024
-9.2523
0.350427
-1.35331e-10
5.55247
-5.36287
30.1276
-3.3333
-3.47786
-1.74692
0.350427
-7.45253e-10
7.6878
-1.15258
9.21123
2.05366e-10
1.49751
0.984331
-1.12362
-2.86839e-11
2.81158
5.7066
-15.6941
8.14603e-11
4.65238
-3.02396
14.419
0.401498
-0.221726
3.95953
0.263642
-3.56323
-6.55654
-6.62423
0.350427
-0.916422
-2.47211
0.222927
0.350427
-0.99347
-4.9187
-5.22886
0.350427
-3.85678
-6.5393
-3.88518
0.350427
-0.444214
-0.245316
3.57878
0.263642
-5.54477
-3.06208
0.28671
0.263642
4.94916e-13
5.80947
-4.77917
28.1149
-1.25548e-11
4.35172
-6.72042
29.5958
-7.96225
-9.83738
3.72024
0.350427
-1.11266e-11
4.39128
4.77872
-20.6342
1.33813e-11
1.04427
4.97322
-4.84295
11.3927
-6.29157
0.139541
0.263642
1.83973e-10
3.54969
-2.4359
8.9971
-5.472
-8.13671
-7.69729
0.350427
-7.82889
-8.4756
-0.408546
0.350427
5.30569e-12
2.4494
3.10956
-7.26612
8.17946
-8.29121
-1.25185
0.350427
-0.520838
-7.60171
3.8942
0.350427
4.49038
-6.94344
8.5004
0.350427
-2.04858
-6.34077
2.20269
0.350427
-1.38245e-11
3.25975
-5.63328
18.7135
-1.90831
-5.20255
-6.43334
0.350427
-8.20868e-12
2.7279
-2.16373
6.25285
0.362583
-0.200235
4.38449
0.263642
1.57932
-1.67929
-4.40399
0.350427
-0.745756
-0.411841
2.13172
0.263642
9.32231e-12
5.13245
5.38338
-27.2795
0.723738
-5.67223
-5.56757
0.350427
1.57421e-10
5.25359
5.26709
-27.3207
2.67198e-11
4.88723
3.23449
-15.4573
5.09975
-9.37012
8.70782
0.350427
8.76754
-8.78537
1.60518
0.350427
3.6142e-12
3.93971
2.26504
-8.57317
4.7718
-4.77994
-0.745751
0.350427
-0.756021
-0.41751
2.10278
0.263642
4.85596e-11
7.66611
1.76903
-13.2112
-1.45671e-09
5.86386
0.604191
-3.19246
-5.4519
-6.59508
0.815862
0.350427
-3.22548
-3.30017
-4.55402
0.350427
-1.20873e-11
4.68913
-3.37257
16.1648
-3.5207e-11
0.897968
3.91539
-3.16547
-7.85377
-4.33722
0.202418
0.263642
1.56411e-07
1.0959
-0.312732
0.69315
9.44985e-11
6.21729
3.66279
-22.4222
-3.66926
-3.81059
-2.25187
0.350427
-1.65791
-1.86125
-1.60006
0.350427
2.6151
-2.98889
-0.490343
0.350427
0.549935
-0.3037
2.89078
0.263642
6.37068e-11
4.37342
6.19792
-26.7557
-3.26454
-1.80283
0.486973
0.263642
-4.00265
-8.15395
-0.851311
0.350427
3.18479e-11
1.66095
4.76501
-7.56404
-4.25141e-12
5.19298
4.30707
-22.0161
-7.0267
-7.50281
9.88537
0.350427
2.20601
-1.21826
0.720642
0.263642
-5.33495
-2.94621
0.297987
0.263642
-9.63739
-5.32222
0.164956
0.263642
-1.05954e-09
4.03288
2.26226
-8.773
-6.91822
-7.135
-1.59109
0.350427
-2.85865
-9.83681
-6.68329
0.350427
-0.446285
-8.81701
1.45064
0.350427
2.70048e-07
8.55917
0.144601
-0.887235
6.05782
-3.34541
0.262428
0.263642
4.38761
-4.51499
-3.12261
0.350427
1.32367e-09
1.44881
1.53487
-1.8733
9.77133e-12
0.153251
-4.2257
0.998018
-8.9069e-12
3.52116
2.86058
-9.72212
-2.33671e-11
53.3894
0.135821
-6.90096
-2.68208e-12
3.75626
-3.43493
13.2529
-6.67552
-3.68654
0.238145
0.263642
-3.40379
-8.8723
-5.79294
0.350427
6.46521e-09
6.64109
-0.691661
4.94381
2.4449
-1.35019
0.650228
0.263642
5.39922e-11
5.30419
-4.40683
23.7251
2.26238e-11
1.53511
1.09334
-1.32797
9.10342e-12
5.61937
-4.22334
24.0829
-3.66468e-11
5.88219
5.06533
-29.4448
5.56497
-5.6021
-1.63997
0.350427
2.01927
-2.7946
-8.02224
0.350427
-1.51885e-11
5.82036
-3.97497
23.4862
9.58564e-10
2.59321
-0.906264
2.70056
1.10511e-11
1.42892
2.44938
-3.14955
4.40031
-2.43006
0.36128
0.263642
-0.53424
-8.58402
-1.85879
0.350427
-6.74962e-10
0.248977
-2.18595
0.894679
3.36412
-5.83165
4.29008
0.350427
1.68636e-10
3.4943
-3.49061
12.5477
7.26701
-4.01318
0.218762
0.263642
-4.36126
-4.51195
-1.85721
0.350427
3.26836e-12
1.79036
-5.78273
10.7036
-2.53583e-11
6.21742
-3.53305
22.3169
5.9077
-7.90025
2.42612
0.350427
9.55278
-5.2755
0.166417
0.263642
-0.494539
-5.27413
-7.97167
0.350427
-0.733931
-0.405311
2.16607
0.263642
4.74657
-2.62128
0.334925
0.263642
4.40885e-11
5.37937
3.99619
-21.1466
-3.84077
-3.84981
-0.287518
0.350427
-1.33088e-11
10.7082
0.6082
-6.16232
1.39439e-11
0.842462
-2.6584
2.59003
-6.53286
-3.60775
0.243346
0.263642
-2.14255e-10
5.72545
4.27301
-24.1145
-9.69349e-12
5.24662
-2.44661
13.1868
-6.2554
-3.45453
0.254139
0.263642
3.92819e-10
3.89879
2.5156
-9.45737
3.04921
-3.05754
-1.63316
0.350427
-4.63936e-12
4.67197
-4.0962
19.4877
-0.604611
-0.725247
-3.82252
0.350427
-2.7209e-11
5.0124
2.32712
-11.314
3.2689
-1.80524
0.486324
0.263642
-0.78729
-0.434779
2.01926
0.263642
1.02808e-10
3.62845
-2.84965
10.6902
4.69006
-4.72177
-2.21029
0.350427
-4.09325e-10
3.81886
-1.66253
6.69938
1.7253
-0.952792
0.921429
0.263642
1.29041e-11
2.5593
2.05628
-4.91221
1.86192e-10
12.0993
-0.643373
8.13478
-3.23558
-6.51593
-7.2819
0.350427
-1.00339
-4.87507
7.5984
0.350427
5.93345
-3.27673
0.267929
0.263642
6.44238e-12
4.70057
2.41898
-11.0202
3.74957
-4.14222
1.21373
0.350427
-2.00754
-4.11346
-4.93832
0.350427
2.13905e-12
6.43524
5.02438
-31.9827
0.330583
-0.182564
4.8089
0.263642
-2.91688
-5.53504
-8.24309
0.350427
4.81803e-08
1.22261
0.311968
-0.0309864
-5.63143e-11
4.09353
0.954009
-3.55483
-8.00606e-12
1.13579
-4.1688
5.0853
1.79949e-10
15.0601
0.549439
-7.92416
-1.79578
-1.86396
-3.6771
0.350427
-3.40779
-5.44267
-3.26242
0.350427
7.12117
-7.49944
-8.4971
0.350427
6.98517e-11
2.67374
-4.08382
11.2695
-7.19312
-8.76196
4.43442
0.350427
1.42725
-3.37016
9.41546
0.350427
-1.9027
-7.47394
-7.89392
0.350427
9.59683
-5.29982
0.165653
0.263642
2.78807
-4.9469
6.14833
0.350427
-5.49478
-9.92126
-0.153317
0.350427
-0.1167
0.167887
-2.28421e-06
0.350428
6.07265e-12
6.02565
-2.62533
16.1697
5.50967e-12
2.08719
2.45749
-4.77883
1.95156e-12
1.24141
5.58793
-6.58651
-6.7392
-8.85043
-1.84058
0.350427
-1.43725
-0.793716
1.1061
0.263642
-0.0586028
-7.07762
0.0882672
0.350427
4.62621
-2.55481
0.343638
0.263642
-9.78278e-12
1.06333
2.34988
-2.14826
-5.74217
-9.51361
0.884803
0.350427
13.0624
-66.0363
0.0389305
0.350427
2.12264e-10
4.68346
-3.36832
16.1258
1.77942e-11
2.04451
4.38532
-8.61538
1.07913
-1.11723
-4.57985
0.350427
7.48266e-12
3.80175
3.15117
-11.6295
4.84925
-4.92616
-1.99098
0.350427
8.16929
-9.21197
6.50127
0.350427
-4.6532
-9.64211
0.31441
0.350427
-2.8753
-7.24526
-4.65557
0.350427
3.62532e-12
2.06391
-3.01663
6.57648
-2.8105e-09
3.03764
-1.08005
3.63123
5.95573e-11
4.60845
-4.73254
22.1601
-1.92286
-1.97321
-4.18644
0.350427
8.05367e-11
0.539055
2.65438
-1.08043
-2.90268e-12
4.46575
5.15182
-22.6563
1.58966e-11
1.44588
3.2412
-4.33597
-1.3492e-11
3.34848
-6.05543
20.6269
0.157758
-0.548406
4.66402
0.350427
1.61185e-12
2.73866
4.8535
-12.9417
-0.180225
-4.1077
8.48394
0.350427
-6.48001
-3.57857
0.24533
0.263642
-0.997496
-2.27083
-4.34118
0.350427
-5.11265
-8.19089
9.7253
0.350427
-7.6009e-12
4.88792
2.7969
-13.3206
-2.51572e-11
3.58389
5.12668
-18.0231
-8.5605
-4.72751
0.185707
0.263642
-2.28154e-11
0.939914
-4.25408
4.3489
-1.78303e-11
0.0887876
-4.22429
0.725492
1.87767e-12
3.13874
-5.65343
18.0951
-1.49837e-11
1.78925
5.24311
-9.03082
-3.24943e-12
6.3114
-2.46476
15.9065
-5.00942
-2.76644
0.317351
0.263642
1.03916e-11
4.45263
-3.55809
16.1933
3.43857
-1.89894
0.462326
0.263642
5.53824
-8.80981
3.19178
0.350427
-4.33852e-10
0.481863
-0.976564
0.820997
-7.24199
-7.24294
-5.19021
0.350427
-9.20642e-12
2.98012
3.1731
-9.1058
-0.000382976
-1.43613
-9.7482
0.350427
0.23969
-0.293866
-2.36786
0.350427
3.02476
-3.16959
-2.32523
0.350427
8.11072e-11
5.48283
4.74678
-25.6754
1.72764
-7.15738
5.293
0.350427
-5.09757e-11
4.79351
5.64652
-26.7162
0.228961
-8.0267
-4.96509
0.350427
-1.12943e-10
5.78985
-3.9608
23.2829
7.7283e-11
5.35273
2.10487
-10.9164
1.03641
-7.29697
6.31486
0.350427
1.85927
-3.51276
-6.76178
0.350427
1.53617e-11
1.27847
2.83911
-3.2793
-0.058145
-4.23591
-1.7433
0.350427
2.87827
-2.91062
-3.75919
0.350427
-5.55572
-3.06813
0.286145
0.263642
6.69296
-3.69616
0.237525
0.263642
1.30571
-6.22094
-7.85676
0.350427
-1.04514e-09
0.777706
0.58106
-0.101466
0.375724
-0.207492
4.23115
0.263642
-7.48408e-12
1.03333
-5.18924
5.71263
-4.03409
-4.14016
-3.8154
0.350427
1.29475e-10
6.35545
0.942358
-5.63868
-0.36336
-0.200664
4.37512
0.263642
-3.1708e-12
5.26932
5.48957
-28.5759
-3.32531
-1.83639
0.478074
0.263642
2.83272e-10
3.72836
-3.76024
14.3699
6.12695e-10
8.22704
0.844455
-6.59694
-6.639
-6.70411
-1.34635
0.350427
-4.01827
-5.43393
-6.24219
0.350427
-6.53031e-12
4.20476
-2.98677
12.9091
3.01692
-8.00981
0.323046
0.350427
1.05082e-07
2.47447
-0.0972032
0.590954
8.37661e-12
5.08558
5.35957
-26.9061
-4.06614
-6.58567
1.58445
0.350427
-1.2272
-1.30435
1.01724
0.350427
-0.390066
-0.215413
4.07558
0.263642
-3.25351
-1.79674
0.488624
0.263642
2.21511e-11
0.902265
5.63672
-4.73539
9.84522
-5.43699
0.161474
0.263642
8.36255e-10
7.45575
-1.8319
14.0087
-5.20458
-6.03919
-5.68205
0.350427
-2.05409
-2.13668
-3.08567
0.350427
6.68505
-3.6918
0.237806
0.263642
-7.26298
-6.98942
2.43534
0.333772
8.98335e-13
3.73853
-5.37018
20.427
-7.80545
-4.31054
0.203671
0.263642
6.74743e-09
3.68908
-0.860399
3.5245
5.80909e-09
10.2231
-0.656986
7.06684
2.64334
-2.7904
-0.144543
0.350427
-1.75988
-6.69884
-0.0138955
0.350427
9.63996e-12
5.15919
4.59449
-23.3534
-2.49581e-11
2.34081
4.98077
-11.3086
2.87994
-3.69488
6.06771
0.350427
-1.83023e-11
4.71095
-3.44437
16.5767
-1.72373e-10
5.0513
-5.11902
26.2081
-5.93032e-08
8.90583
0.179501
-1.24817
3.9208
-3.93954
-3.79143
0.350427
5.90519e-10
1.03209
1.53451
-1.23333
9.13196e-10
2.77913
-2.02121
5.96764
3.84107
-2.12122
0.413881
0.263642
19.3574
-20.3515
0.0475813
0.350427
5.96262
-6.46692
4.33392
0.350427
-7.19551e-13
5.57284
-5.95974
33.5631
-6.95281
-7.04271
-0.757984
0.350427
-3.08725
-3.16459
-4.30809
0.350427
1.44735
-5.34628
-0.217693
0.350427
-5.73008
-5.76712
-3.48642
0.350427
0.0114533
-0.117704
-0.535598
0.350427
1.27286e-10
2.1138
0.882373
-1.51474
-6.81908
-6.78395
18.9639
0.333772
5.38647e-11
1.07185
-1.8651
2.34954
-2.27073
-1.254
0.700103
0.263642
0.805777
-4.87401
2.75759
0.350427
1.29217e-12
2.11152
-4.53553
9.92729
1.43732e-09
0.308318
-0.647563
0.550083
-8.45578e-12
6.19571
-4.02125
25.2649
-6.3383
-6.3586
-2.01374
0.350427
7.00025
-7.08094
-5.33679
0.350427
0.939498
-1.03374
-1.50528
0.350427
-2.25418
-3.27291
7.88212
0.350427
-2.66857
-4.1821
2.98283
0.350427
-0.246246
-3.71778
-3.22397
0.350427
-4.72969
-6.3408
4.10326
0.350427
8.97284
-8.99967
-1.3009
0.350427
-1.62595
-0.897925
0.977734
0.263642
-5.97402
-7.16126
0.80429
0.350427
3.38343
-8.87948
4.54327
0.350427
5.18695e-11
0.664502
4.18069
-2.42765
1.56887e-10
3.45475
-0.929915
3.56305
5.53652
-5.5497
-1.47544
0.350427
-4.06185e-11
0.084049
-5.17258
0.785177
3.27694e-10
2.44384
-2.37962
6.16583
-10.1938
-5.6295
0.155952
0.263642
7.47774
-8.01066
-7.78953
0.350427
-1.28062e-10
5.44736
1.83959
-9.6705
-1.18523
-1.27116
-4.63261
0.350427
-1.63925e-11
6.44629
3.18976
-20.2117
-2.36783e-11
1.85583
-4.6543
8.98803
8.7354e-10
6.38919
2.17055
-13.5176
0.707251
-0.731264
-1.65497
0.350427
1.52366e-12
5.24303
3.43617
-17.6655
1.29225e-11
2.99006
5.08256
-14.8468
-2.71187
-2.92216
-0.790612
0.350427
2.70562e-12
3.20787
-4.33887
14.269
-1.29977e-10
3.06172
2.55384
-7.46871
0.997148
-1.36913
-0.965089
0.350427
0.66949
-0.837359
-1.1996
0.350427
9.26549
-5.11684
0.171577
0.263642
-7.32574
-7.72709
-0.313566
0.350427
-0.928031
-1.15727
-1.00048
0.350427
2.28741e-10
5.1192
1.70393
-8.37233
-2.717e-12
4.13835
4.93638
-20.078
-9.01626e-07
0.976298
0.0372546
0.314056
1.38652e-11
6.40094
5.80978
-36.8376
9.13884
-8.76434
1.779
0.333772
-4.50661e-12
5.81682
-2.82784
16.7995
-7.18142
-3.96592
0.221369
0.263642
3.64557
-2.01326
0.436075
0.263642
5.17725e-11
3.26899
-4.74677
15.8676
-5.08256e-12
1.68331
-2.30917
4.23747
4.1126
-4.19707
-1.38207
0.350427
8.09006
-4.46771
0.196506
0.263642
1.86676e-11
2.83037
2.9664
-8.04559
2.1082
-8.12086
-7.59184
0.350427
-0.867537
-2.18451
-8.0165
0.350427
-7.47877
-8.82273
-4.56665
0.350427
5.11497
-5.29914
-0.92006
0.350427
-7.28765
-7.43285
-2.14641
0.350427
-1.24271
-0.686284
1.27925
0.263642
2.864e-09
1.09235
-1.00849
1.45205
0.744856
-9.09801
-1.07083
0.350427
-4.83637
-2.67087
0.328706
0.263642
4.60621e-10
5.03806
2.68815
-13.1926
1.13628e-11
2.28364
4.6258
-10.2133
3.31271
-3.37795
-1.94157
0.350427
-1.05815
-6.65102
5.09773
0.350427
1.33022
-7.83954
-9.6948
0.350427
-3.28352
-5.87016
-6.40728
0.350427
-9.25305e-07
5.70701
-0.0962332
0.899631
-0.0363701
-9.83948
7.22773
0.350427
2.90314
-2.94612
-1.97649
0.350427
-3.34099
-8.58096
-7.08406
0.350427
2.37018e-10
4.9022
4.13407
-19.9156
2.72799e-10
0.905771
2.64792
-2.04798
-0.00923222
-0.0703005
-1.60008
0.350427
4.20692e-11
2.80285
1.806
-4.71153
3.25779
-3.29094
-3.97952
0.350427
-0.599032
-8.56786
6.91247
0.350427
4.18973
-5.78244
0.445818
0.350427
4.88685
-4.89772
-0.62018
0.350427
-1.44113
-0.795859
1.10312
0.263642
6.02855
-9.56293
3.82966
0.350427
1.0133
-0.55959
1.56888
0.263642
-1.32856e-12
2.98278
4.79592
-13.9547
-9.36655
-5.17265
0.169726
0.263642
4.44786
-6.08582
-1.0565
0.350427
2.70649e-11
2.15726
3.73024
-7.69665
6.68228e-11
3.99036
2.1659
-8.29229
3.24088e-12
0.837524
5.46294
-4.22492
-3.68915e-12
1.09512
-5.07181
5.90466
-6.34174e-09
1.22603
-0.477606
0.935985
-1.42593e-09
2.02113
0.370501
-0.398402
7.58208e-10
2.04948
-2.11435
4.68373
2.62361
-3.02129
8.4149
0.350427
-3.20073e-11
0.940609
2.31223
-1.82448
-8.02397e-12
1.32185
1.89389
-2.15301
-1.88067e-10
6.27009
1.40522
-8.46044
-5.45505
-3.01254
0.291426
0.263642
-2.4038
-2.51087
-2.18894
0.350427
3.86661e-11
5.1361
4.93599
-25.0013
-3.89668
-7.60208
-9.35894
0.350427
-5.11056
-6.9446
-6.84856
0.350427
0.809079
-7.76681
4.70469
0.350427
-1.95033
-6.46551
-3.88129
0.350427
-3.18871
-6.197
7.08606
0.350427
2.00891
-4.77522
9.96096
0.350427
0.172022
-9.78801
2.4856
0.350427
0.925904
-0.97219
6.1002
0.350427
4.87672e-11
5.09753
-1.47923
7.89084
1.66555e-11
2.76674
-3.50634
10.0516
4.88418
-5.04605
-0.628189
0.350427
-2.73286e-12
6.54211
3.40551
-21.9288
-3.00352
-6.94942
8.90214
0.350427
9.20962e-11
0.257952
-1.03347
0.617013
-4.67394
-8.55035
-0.177849
0.350427
1.55167
-6.98347
-7.47419
0.350427
-4.46447
-2.46549
0.356088
0.263642
4.53623
-2.50512
0.350454
0.263642
2.32832
-2.3607
-2.433
0.350427
1.7658e-08
4.94349
0.458369
-1.91551
8.57158e-11
4.07527
1.78251
-6.91379
-0.362804
-0.200357
4.38183
0.263642
1.28025e-10
4.01992
5.7063
-22.5885
0.266666
-9.47417
-1.2841
0.350427
-2.0153
-7.74026
-4.40539
0.350427
-2.82172e-11
3.42186
4.74802
-15.8966
6.49344e-09
2.99957
-0.798244
2.74482
3.04154e-11
3.78259
5.78543
-21.5335
4.71257e-11
4.89613
-3.96781
19.7773
5.38206
-6.82192
2.69493
0.350427
-3.08937
-9.51388
2.42623
0.350427
3.69339
-9.97192
1.42744
0.350427
-2.04076
-2.3042
-0.550003
0.350427
-8.09445e-10
6.51161
-1.06402
7.27893
-3.83303
-9.59319
-0.810248
0.350427
2.34857
-8.03875
-5.11253
0.350427
-2.27301e-10
6.16188
2.22469
-13.3579
1.57795e-11
3.41269
4.47366
-14.9168
-0.327921
-0.181093
4.84795
0.263642
-0.434674
-6.42979
-9.63779
0.350427
1.96156e-10
4.18491
-2.06134
8.97694
-2.45611
-6.51329
7.50668
0.350427
-4.00368e-11
2.05081
1.03826
-1.77885
-1.17622
-0.649564
1.35157
0.263642
2.13963
-6.49911
7.41218
0.350427
-7.68791e-12
1.20725
4.69325
-5.31548
9.89598e-12
3.44467
3.66535
-12.2755
9.77782
-5.39977
0.162587
0.263642
0.326284
-0.180189
4.87227
0.263642
-5.40926e-11
0.39576
-0.985592
0.740485
-3.73264e-12
1.96002
4.84377
-9.14349
-1.1415
-5.90276
4.36764
0.350427
7.87897
-7.94839
-2.1658
0.350427
-1.69365
-1.71643
-2.28031
0.350427
-8.4606
-8.74511
-9.96714
0.350427
-6.47028
-6.4911
-0.399204
0.350427
3.09162e-10
3.91222
-3.20186
12.8768
1.7405e-11
13.6965
0.567752
-7.42581
3.66111
-7.97734
9.33509
0.350427
-6.85376
-6.92032
-2.24064
0.350427
2.61527e-12
5.30332
5.34794
-28.0114
2.7618
-2.78181
-2.26288
0.350427
7.51014e-10
2.11165
0.806171
-1.35192
-6.06359
-7.04996
9.37698
0.350427
2.48845
-1.37424
0.638849
0.263642
2.64799
-4.31252
1.98728
0.350427
5.77324e-11
9.45122
0.952094
-8.64802
-2.7331e-09
3.16305
-0.674143
2.48278
6.56903
-9.23909
8.08832
0.350427
-4.3639e-11
5.82768
2.79099
-15.9146
6.34174
-3.5022
0.25068
0.263642
1.8457
-1.01928
0.861324
0.263642
-8.09905e-13
1.97701
-6.67129
13.5396
1.68805e-08
4.57962
-0.332347
1.87245
-5.66713
-5.78789
-0.412053
0.350427
2.5328e-12
5.59619
-4.57794
25.9695
0.312778
-5.13738
2.4398
0.350427
6.06145
-6.58587
1.53726
0.350427
-3.62397
-4.70741
-1.15522
0.350427
7.2295
-7.41562
-1.1808
0.350427
-0.427797
-0.495416
0.261844
0.350427
1.1833
-0.653475
1.34348
0.263642
5.3673e-12
4.29276
2.251
-9.3126
-8.22253
-8.23116
-2.75382
0.350427
-4.64606e-10
5.63388
-1.72394
10.0629
-3.61803
-5.92869
-8.099
0.350427
4.56949e-11
4.75214
4.62947
-21.6495
6.78934
-6.95685
-0.828344
0.350427
-2.00058
-8.0283
-4.81384
0.350427
0.276145
-4.36618
0.314102
0.350427
-3.32745e-11
2.32091
-3.23239
7.8525
-0.490773
-8.49788
-1.52718
0.350427
-6.15284
-3.39789
0.258376
0.263642
-1.21567e-11
0.725657
4.3612
-2.81431
-0.435312
-0.2404
3.65197
0.263642
4.51972e-12
2.84417
-4.57092
13.3509
-1.50327e-10
6.28974
-3.17965
20.3496
9.91192
-5.47383
0.160387
0.263642
6.69001
-6.55972
5.11358
0.333772
1.11795
-6.85985
-7.36706
0.350427
3.11099
-3.31221
-2.16787
0.350427
-0.716555
-5.05251
8.17352
0.350427
4.64463
-8.38489
2.62605
0.350427
3.11511
-9.71592
8.19552
0.350427
-7.60974
-4.20246
0.208909
0.263642
-4.68561
-7.59009
0.251963
0.350427
9.04831e-11
2.37052
-1.72475
4.43898
2.18011e-11
2.63348
4.8537
-12.4317
-1.21174e-09
2.17398
1.63705
-3.20849
-6.63082e-11
2.2905
3.0885
-6.72378
0.788064
-0.799161
0.0526048
0.350427
2.72988e-11
2.69104
-3.079
8.63613
0.791877
-0.86136
-5.31284
0.350427
-4.68012e-11
3.7209
-2.65008
10.2111
-1.41841
-2.0677
-4.00778
0.350427
-7.91845
-4.37294
0.200765
0.263642
-8.44904
-9.78578
1.02359
0.350427
-2.24542
-3.53916
-3.71861
0.350427
1.16956e-11
4.07534
-2.36427
9.98563
7.94741
-8.11111
-1.69423
0.350427
1.36016e-10
6.06693
-2.87078
17.7673
-4.66439e-09
14.8746
0.196782
-2.57663
-3.44011
-7.14506
8.9395
0.350427
1.10244e-11
3.96506
-4.38014
17.718
-4.52422
-2.49848
0.351385
0.263642
8.63222
-8.71814
-4.27054
0.350427
-2.23573
-4.46697
5.93039
0.350427
-8.11804
-4.48316
0.195828
0.263642
3.40045
-5.16024
-0.544288
0.350427
3.21861
-3.26538
-2.90912
0.350427
5.3556e-11
5.76507
2.80004
-15.792
4.04934
-2.23624
0.392593
0.263642
-2.2755
-7.9455
-9.89728
0.350427
6.98612
-8.19094
-6.86162
0.350427
-7.89391e-12
4.73285
-4.43746
21.3522
-3.34386e-12
2.99084
-3.93003
12.1045
-1.75464
-4.08339
9.79241
0.350427
3.44036e-11
1.72469
-3.90547
7.08616
-6.27319e-12
4.56401
-2.73871
12.8499
0.266659
-3.73764
1.44285
0.350427
-1.10252
-4.28137
-1.73526
0.350427
1.00348e-11
3.09068
2.92481
-8.68922
9.61676e-11
6.75754
-3.09065
21.2356
-2.59705e-10
7.10511
-1.39677
10.2746
-1.8563e-11
0.8277
3.94043
-2.91107
2.45548
-5.52685
1.82787
0.350427
2.27668
-1.25729
0.698271
0.263642
2.149
-5.65378
-0.0117607
0.350427
2.64836e-11
2.78827
-5.3553
15.2825
2.11682
-1.16901
0.751007
0.263642
1.93957e-11
1.28951
-5.02466
6.82979
1.34777e-10
3.60502
-4.23869
15.631
-7.67168
-7.68026
-2.54733
0.350427
-0.847717
-0.468149
1.87532
0.263642
6.2934
-6.47202
-1.01336
0.350427
2.73943
-4.07227
2.96407
0.350427
-3.84459
-2.12316
0.413501
0.263642
8.14365e-12
5.18044
4.95905
-25.3396
-4.89517
-2.70334
0.324758
0.263642
-0.0314295
-0.160344
-1.42685
0.350427
1.07447e-08
3.47846
0.505084
-1.40648
-2.13312e-12
6.01751
4.64944
-27.6276
0.326591
-7.55475
-7.24591
0.350427
-2.02157e-11
0.193751
-1.29459
0.601255
-4.08633e-10
3.64843
3.10301
-10.9707
-1.95959e-11
0.75045
5.71329
-3.93711
2.22923e-10
1.62956
-1.11497
2.16735
0.91331
-3.16981
-1.89648
0.350427
2.38219
-3.22039
-4.1215
0.350427
-7.46728
-4.12378
0.212895
0.263642
-6.65795
-3.67683
0.238774
0.263642
6.46531e-13
5.77246
-6.17539
35.9976
-4.90848
-8.75744
-7.04015
0.350427
4.19968e-11
4.6537
5.13502
-23.5464
3.66476
-5.11904
-2.72058
0.350427
4.56581
-4.88838
-0.779513
0.350427
9.25076
-8.88916
1.84241
0.333772
6.92831
-6.95898
-2.74813
0.350427
2.84569e-11
3.14753
-1.38274
4.70264
1.8748
-1.97663
-2.11288
0.350427
1.01231
-4.15269
5.36047
0.350427
-2.69915e-10
1.8731
-1.07979
2.37297
-2.25776e-11
5.58872
2.88742
-15.7866
4.13808
-4.28855
-2.04652
0.350427
-6.88985e-11
3.46335
5.04441
-17.1201
6.58053
-3.63408
0.241583
0.263642
1.66166
-7.8025
-0.979051
0.350427
1.86427e-12
2.49324
-4.24762
10.9408
-3.6476
-2.01438
0.435833
0.263642
9.11463
-5.03353
0.174417
0.263642
2.03766e-11
6.46478
-6.14464
40.0742
-4.85902e-10
4.19171
0.743519
-2.76618
-8.27082
-9.25753
-0.0501689
0.350427
7.44429
-7.47345
1.08576
0.350427
-2.45179e-10
2.32873
3.0569
-6.76827
-1.75204
-0.967562
0.907365
0.263642
-0.101752
-0.182995
0.26259
0.350427
7.5085
-4.14654
0.211726
0.263642
-1.39141e-11
5.46873
-3.57622
19.9078
-0.0154691
-2.36214
9.96769
0.350427
-8.57366
-4.73478
0.185422
0.263642
4.99955e-11
0.432179
2.15195
-0.579598
3.04092e-10
5.10141
1.45674
-7.08099
-8.47243e-11
6.28487
1.45466
-8.79192
2.60451e-11
1.99716
2.53736
-4.71709
-2.85885
-1.57879
0.556077
0.263642
-9.30177
-5.13687
0.170908
0.263642
-5.30534
-7.14536
-5.92116
0.350427
-1.02002e-11
1.23954
-1.56806
2.29411
9.57923
-5.2901
0.165957
0.263642
-2.73497
-1.51038
0.581266
0.263642
2.72302
-8.81117
-3.58215
0.350427
-2.35669
-2.40542
1.17093
0.350427
-0.889629
-8.8541
0.496994
0.350427
2.51799
-5.86061
5.56223
0.350427
3.59284
-9.61308
-5.02146
0.350427
-5.77347e-10
2.33384
1.7404
-3.71139
4.17566
-8.03478
-7.68104
0.350427
3.57897
-7.40191
-4.43108
0.350427
3.58309e-09
3.20676
-1.19235
4.174
1.16596e-12
5.74877
5.53592
-31.4743
-5.40948
-2.98737
0.293881
0.263642
1.67735
-0.926309
0.947774
0.263642
2.84047
-1.56864
0.559676
0.263642
-7.27256
-7.27732
5.88188
0.350427
-2.52501
-1.39443
0.629598
0.263642
7.78878e-11
3.27907
-5.71432
19.0881
-2.01014e-09
2.33849
0.508029
-0.837592
8.56642
-8.79723
5.99394
0.350427
0.412131
-0.227598
3.85738
0.263642
2.87619
-9.43827
-7.66138
0.350427
8.85326
-4.88919
0.179566
0.263642
3.45241e-10
2.62944
1.39475
-3.31698
-6.62786
-3.66022
0.239858
0.263642
6.46745
-6.57016
-0.904032
0.350427
3.22051e-11
6.0689
-3.94618
24.2994
3.59312e-11
1.49886
-2.76524
4.49514
-1.53307e-10
3.35651
-2.39011
8.37287
1.24399
-2.71648
-0.882907
0.350427
-4.69889e-10
8.77475
-1.06262
9.67468
-4.86716
-5.7331
0.899332
0.350427
0.773115
-4.4214
4.85844
0.350427
8.66457e-12
4.32515
5.60531
-23.8934
-4.25215
-2.34824
0.373868
0.263642
3.25291
-4.7243
7.39772
0.350427
1.08972e-12
5.80024
-4.22426
24.8522
4.25662
-2.3507
0.373476
0.263642
-7.74742e-11
4.81892
2.55672
-11.9702
-7.31527
-7.62451
-0.78845
0.350427
-2.2373
-9.17377
-4.59265
0.350427
2.11094e-11
5.23667
4.65384
-24.0202
-2.49153
-1.37594
0.63806
0.263642
-5.99558
-7.8276
-8.02591
0.350427
2.01203
-3.65771
0.531255
0.350427
-2.30357e-11
0.579316
4.29534
-2.13793
-3.54335
-6.44138
9.49063
0.350427
1.67711e-11
4.90472
-2.03381
10.3257
4.40717
-4.66059
-0.578259
0.350427
-0.814711
-4.78863
2.42399
0.350427
0.020267
-6.87498
5.25325
0.350427
-3.99624
-4.0905
-4.24084
0.350427
0.318917
-0.176121
4.98481
0.263642
8.02084
-4.42949
0.198202
0.263642
3.21541
-7.34104
1.53101
0.350427
9.84929e-12
3.93023
-3.80757
15.315
-2.454
-1.35522
0.647816
0.263642
6.53173
-6.68625
-1.49205
0.350427
-4.39357e-12
1.66606
-4.82607
8.39096
0.719348
-0.397258
2.20998
0.263642
-10.1374
-5.59834
0.15682
0.263642
1.6815
-4.92016
-8.53277
0.350427
-2.46875
-6.12357
-3.53613
0.350427
-9.71003
-5.36233
0.163722
0.263642
2.07056e-11
0.284763
-4.99347
1.77238
-0.237906
-9.8495
-3.4695
0.350427
-2.58317
-2.70816
-1.95738
0.350427
-1.573e-10
4.51254
-1.76391
8.31014
1.22668
-1.32792
-5.09909
0.350427
-2.40272e-11
1.28965
-1.71284
2.5594
-1.29592e-12
5.20582
-5.01803
26.4734
-7.8503
-8.97048
-3.27009
0.350427
8.23579e-10
4.23194
1.40739
-5.60556
-2.6489e-11
0.567621
-2.48551
1.76125
-0.000940558
-0.192076
9.59149
0.350427
3.74123
-2.06609
0.424925
0.263642
6.73244
-3.71797
0.236132
0.263642
-3.76813e-10
4.94249
-2.72441
13.8158
-1.64115
-0.90632
0.968677
0.263642
1.90897e-11
5.48054
4.06526
-21.9294
-1.6773e-11
4.1765
-3.14356
13.4795
0.509855
-0.281566
3.11803
0.263642
-3.2862
-5.58472
-1.92947
0.350427
1.0173
-0.561799
1.56271
0.263642
-2.72031
-6.88061
6.6049
0.350427
-5.62689
-6.40784
7.94371
0.350427
4.61069
-6.52743
5.32674
0.350427
-6.16075
-6.19993
-2.51592
0.350427
-9.69079e-12
1.27202
-5.4742
7.31369
-2.19731e-11
4.13585
1.86155
-7.34866
-5.17812e-12
2.39375
-2.95969
7.43516
-3.09256e-12
2.54035
3.13399
-7.61101
-2.80586e-10
5.90164
-3.35901
20.1741
-5.4119
-5.46789
-2.88357
0.350427
0.365996
-0.39413
-4.21533
0.350427
-2.53874e-11
14.0357
0.33846
-4.40012
-6.63018e-12
3.76444
-2.26005
8.85825
2.07638e-12
5.70733
-5.30154
30.6081
2.30168e-12
3.70341
3.58879
-12.9403
-7.52042e-11
5.62352
-5.38185
30.6154
-2.39281
-5.79304
-6.31301
0.350427
-2.40371e-11
2.91392
4.16085
-11.774
6.39669e-10
8.8885
0.962724
-8.20675
5.80931e-11
4.10878
-4.86119
20.324
-2.96545
-1.63766
0.536089
0.263642
1.75509
-6.81843
1.87884
0.350427
-1.23412e-10
6.59676
5.49749
-35.9152
-3.47587
-3.6066
-2.25499
0.350427
2.11378e-10
2.06191
1.16926
-2.06048
-7.53257e-11
2.51118
2.8132
-6.71404
-3.074e-10
3.18577
-2.62892
8.72554
-9.08133e-12
3.64671
-4.76761
17.7365
7.69105
-4.24736
0.206701
0.263642
-1.64884
-0.910569
0.964157
0.263642
1.43393
-6.4611
-8.34911
0.350427
1.8724e-08
1.68011
-0.337297
0.917123
-7.32861e-11
2.54664
4.68845
-11.5894
2.50034
-1.3808
0.635812
0.263642
-5.37483
-9.23638
7.2331
0.350427
2.12789
-2.90863
-9.49381
0.350427
-2.05529
-8.17975
8.30673
0.350427
0.141822
-0.30095
-2.07302
0.350427
-5.72328
-8.35189
-4.2098
0.350427
3.71996
-7.3258
5.32604
0.350427
-3.8223
-9.01871
5.47973
0.350427
3.04757
-3.25977
-1.15714
0.350427
-2.43664
-2.54439
-1.30124
0.350427
2.23708e-10
6.81923
-3.48158
24.0921
-0.333853
-1.93334
-0.236517
0.350427
7.6539
-9.20604
-9.77689
0.350427
-9.54453e-13
5.17935
5.8484
-29.9405
0.52279
-9.68302
-5.71701
0.350427
7.97919
-7.68634
2.27501
0.333772
-3.30394e-12
6.12126
2.85158
-17.1048
-10.6352
-5.87325
0.14948
0.263642
7.6418
-4.22016
0.208033
0.263642
4.18368
-7.47509
-6.174
0.350427
1.50208e-10
3.8326
-6.1528
23.9316
-4.02945
-2.22525
0.394531
0.263642
-2.63059
-4.38726
3.57286
0.350427
1.71932e-11
0.821106
-5.29949
4.70187
7.6596
-8.22804
-7.52933
0.350427
1.28723e-09
6.96482
1.75953
-11.9044
6.17656e-10
7.70844
-0.438022
3.72689
-8.53604
-8.545
-2.57732
0.350427
-0.923764
-0.510146
1.72094
0.263642
6.13515
-7.76264
8.37363
0.350427
1.15752e-09
21.8814
-0.362342
8.27896
-0.346618
-0.191419
4.58645
0.263642
1.76403e-11
5.01123
-5.76036
29.2169
-3.69414e-09
1.21512
-0.7722
1.28874
-1.74998e-11
2.51773
-2.70949
7.17219
-2.37352
-1.31077
0.669783
0.263642
4.50942
-6.66166
-3.33105
0.350427
-0.779229
1.86328
1.00489e-09
0.350427
10.3884
-5.73694
0.153031
0.263642
-4.68269e-12
6.63137
-3.17069
21.3765
4.68031
-4.95055
-0.462773
0.350427
-1.56263
-4.72838
-4.37589
0.350427
-0.0521386
-6.64634
-7.3138
0.350427
-5.83083
-7.27091
-9.61078
0.350427
2.94711e-11
5.81031
-4.02047
23.7106
-4.03429
-2.22793
0.394057
0.263642
-0.348629
-0.377047
-3.50913
0.350427
-4.77947e-11
0.304828
2.38169
-0.375579
6.81928
-3.76593
0.233125
0.263642
3.1253
-3.20983
-1.66755
0.350427
-7.60864
-4.20185
0.208939
0.263642
-7.59193
-9.2739
-3.18504
0.350427
1.14204e-10
3.24704
2.51966
-7.831
-4.31819
-9.17438
1.44515
0.350427
8.31299e-12
3.19352
1.71351
-5.1217
-5.68471e-10
2.2229
1.38223
-2.72214
3.92321
-4.05757
-3.65874
0.350427
1.23874e-10
4.59806
1.92693
-8.5097
-6.96406e-13
5.96945
5.81426
-34.3575
1.13094
-1.25396
-1.35629
0.350427
2.79921
-7.42372
-1.07678
0.350427
-6.8759
-6.87675
-1.3735
0.350427
-0.387567
-2.45169
-6.17854
0.350427
3.83341
-2.11699
0.414707
0.263642
-7.01888
-7.04211
-1.7074
0.350427
2.69148
-8.38351
-6.41742
0.350427
4.50766
-2.48934
0.352676
0.263642
3.97853e-12
6.3929
3.49887
-22.0175
-1.04963e-10
1.99423
-2.10588
4.55002
1.79597
-5.80338
3.88866
0.350427
-8.88335e-10
4.38605
2.10617
-8.88733
3.16393
-3.19237
-1.07505
0.350427
-4.00664
-2.21265
0.396778
0.263642
-1.13229e-12
2.66386
4.56962
-11.8224
0.203091
-5.1075
8.10644
0.350427
-0.903022
-0.498691
1.76047
0.263642
-3.34508
-1.84731
0.475248
0.263642
-5.34288
-2.95059
0.297544
0.263642
-1.03157e-10
1.51005
-5.05057
7.97701
1.3098e-10
5.5116
4.28591
-23.2718
5.51853e-12
3.97966
4.44932
-17.3564
-5.2082
-7.00264
-3.34364
0.350427
3.38304
-3.53267
-1.55359
0.350427
-5.03288
-5.08928
-1.5625
0.350427
1.70012
-1.79105
-4.34011
0.350427
4.2753
-2.36102
0.371844
0.263642
9.58148e-13
6.43631
-4.31316
28.1112
4.30412
-7.78335
6.78139
0.350427
-2.76001
-9.54352
5.39924
0.350427
9.2122e-11
2.547
3.53896
-8.66331
-3.59646e-11
3.04353
6.19003
-18.4891
2.84296e-11
6.91051
2.68601
-18.2113
-2.45433e-11
4.70267
3.41914
-15.7287
6.85481e-10
7.81215
-0.541396
4.5799
-7.22415e-09
17.078
0.273543
-4.32114
-4.48225
-8.69182
-0.478026
0.350427
-1.81193
-1.91069
-2.20891
0.350427
2.64472
-2.73253
0.139429
0.350427
12.4819
-6.89309
0.127364
0.263642
6.75033e-11
0.601593
-1.67487
1.35802
2.59668
-8.73745
2.16829
0.350427
0.150673
-0.60775
-0.434367
0.350427
2.03422
-2.07414
-4.07097
0.350427
-0.80285
-0.811487
-5.00165
0.350427
-6.16847e-11
0.463489
2.85452
-0.972609
3.43666e-12
4.00889
-5.89388
23.9783
-0.0471435
-0.314228
-1.06533
0.350427
-5.04567
-5.06519
-2.27056
0.350427
1.20914e-12
6.49927
-5.13795
33.7434
-6.80277
-3.75681
0.233691
0.263642
6.28692
-6.92851
-2.15597
0.350427
-10.5892
-5.84784
0.150129
0.263642
3.9184
-2.16393
0.405712
0.263642
2.40212e-12
5.14442
-5.56439
28.976
-0.483652
-0.512868
-3.51617
0.350427
2.8666e-11
5.2172
-5.19015
27.4285
3.5399
-9.13926
-8.73804
0.350427
9.82318
-9.97331
-4.5884
0.350427
9.86707
-5.44906
0.161116
0.263642
-6.21298e-11
5.96644
-4.90596
29.6216
-7.01348e-11
2.79104
-4.94637
14.1559
3.55176
-3.64935
-4.15878
0.350427
2.98538
-1.64867
0.53251
0.263642
0.824905
-0.978843
2.2009
0.350427
0.978591
-0.540424
1.62452
0.263642
-7.33985
-4.05341
0.216591
0.263642
4.70408e-11
3.23782
3.27851
-10.2648
0.875493
-8.95711
-2.18665
0.350427
8.78903
-9.25162
9.95383
0.350427
-5.56725
-9.83811
5.27617
0.350427
-8.33991e-12
1.65969
-3.4619
6.09612
-6.03442
-3.33249
0.263446
0.263642
-7.62379e-12
5.37929
-1.80859
10.0793
0.196842
0.338076
-3.35872e-09
0.350427
-8.31585e-10
1.72392
-0.889595
1.88402
4.17756e-11
2.61499
5.3723
-13.6981
-7.5234
-4.15478
0.211306
0.263642
-4.69145
-2.59084
0.33886
0.263642
3.61485
-3.77534
-1.5161
0.350427
-1.44098
-4.97544
-4.02224
0.350427
0.442074
-0.244134
3.5961
0.263642
8.44759e-12
1.78419
4.02173
-6.8251
-1.16539e-10
1.99779
5.31481
-10.2674
-0.181935
-0.249476
-3.15207
0.350427
-0.421634
-2.42522
-2.30736
0.350427
11.0451
-6.09964
0.143932
0.263642
1.1262e-11
4.63186
3.52567
-15.98
-3.5788e-11
4.54272
-5.06932
23.3789
-5.06165
-9.70003
-5.4675
0.350427
-0.0727012
-0.0817783
-1.93811
0.350427
0.94504
-0.521896
1.6822
0.263642
6.02313
-6.25678
7.34581
0.350427
-0.904055
-0.499261
1.75846
0.263642
2.2323e-12
5.00698
-3.83337
19.544
7.74562e-09
0.181283
-0.724389
0.481747
2.8709
-5.54562
2.60122
0.350427
-1.9815
-4.25265
-1.38607
0.350427
0.884528
-0.488478
1.79728
0.263642
-5.39088
-6.52714
-2.66523
0.350427
-3.66895
-2.02617
0.433296
0.263642
-4.44403
-9.56218
-1.46114
0.350427
-2.95055e-10
3.47294
3.71135
-12.5389
4.56083e-13
1.56204
5.96762
-8.97127
8.27672
-8.72864
4.25362
0.350427
4.78477e-09
4.99725
0.854332
-3.91889
7.34636
-7.43134
-3.93803
0.350427
-1.17953
-1.74222
0.04592
0.350427
3.33636
-6.34381
-7.96734
0.350427
-0.878469
-0.922791
-3.62558
0.350427
1.78825e-11
3.65455
-5.42981
20.194
-8.5382
-4.7152
0.186192
0.263642
0.0751375
-2.1772
-9.78118
0.350427
-5.36829
-8.3231
-6.83017
0.350427
-4.37392e-12
1.61339
-4.65474
7.86032
0.399917
-0.64797
-0.938943
0.350427
9.88544e-10
3.83002
-1.82663
7.34645
1.01599e-10
31.8253
0.21848
-6.60277
4.29879
-7.75482
-9.15865
0.350427
5.81822e-11
1.45017
2.18816
-2.82279
0.874996
-1.01805
-1.09255
0.350427
-7.93352e-12
2.48766
-2.09806
5.56969
1.35215
-1.92051
0.0419542
0.350427
-0.435487
-0.240496
3.6505
0.263642
4.77331
-9.27014
-7.1093
0.350427
-7.57692e-11
4.08311
4.66976
-18.7167
0.352271
-0.501049
-2.55279
0.350427
-3.72058e-12
2.80728
-4.47151
12.9032
4.59628
-4.62881
-1.19261
0.350427
-4.72739
-6.96399
-2.78338
0.350427
2.89559e-12
5.03531
-3.29929
16.9634
-0.425521
-8.95519
0.635315
0.350427
6.42877
-6.88889
8.06891
0.350427
7.9756
-4.4045
0.199326
0.263642
4.13251e-06
3.19236
-0.0529917
0.519596
1.94562e-11
2.40794
2.33202
-5.26495
-2.88583e-09
4.20931
-1.31176
5.87205
-7.64764e-13
6.12622
5.43138
-32.9234
-1.89488
-3.79867
-5.29867
0.350427
-0.423333
-0.792763
0.133434
0.350427
-2.10556e-11
1.8012
5.41843
-9.40924
-4.49706
-5.09583
-3.17609
0.350427
-6.07145e-12
3.00429
3.38015
-9.80451
-4.43104
-5.18848
7.13216
0.350427
3.70518e-11
2.97938
1.66833
-4.62016
1.68871e-11
4.43427
1.46424
-6.14242
-8.73429
-4.82349
0.182012
0.263642
-4.17181
-4.19159
-1.12487
0.350427
0.0536489
-0.833348
-0.256537
0.350427
-1.00576
-6.67931
1.34804
0.350427
3.39795e-09
4.67099
0.948256
-4.07886
-4.11219e-11
6.2501
-2.08321
13.3707
-5.31653
-8.69263
-8.81347
0.350427
-2.08775
-2.14627
-4.27752
0.350427
1.2849
-5.07705
-8.45405
0.350427
-2.30903
-4.10078
-7.02338
0.350427
0.639481
-4.52479
-7.2316
0.350427
0.826383
-6.73197
-8.00694
0.350427
2.27436e-11
2.98007
-1.29955
4.2232
3.33339
-5.98902
-9.91378
0.350427
-0.166487
-5.15285
0.620192
0.350427
-0.562527
-0.832655
-0.642387
0.350427
4.29354
-4.8462
-0.0847648
0.350427
-2.29748e-09
2.94422
1.01554
-2.63956
0.634345
-4.07866
7.33256
0.350427
1.15931e-09
4.24146
-1.94917
8.61777
3.23139
-3.2325
-2.26287
0.350427
-0.695998
-1.27825
7.23616
0.350427
-4.98964
-8.79926
-4.82008
0.350427
-0.0550511
-9.97242
4.43163
0.350427
5.52472
-9.28961
-0.511075
0.350427
1.10626
-1.19156
0.991137
0.350427
4.95396e-09
4.49208
1.10207
-4.60017
-4.15329
-2.29364
0.382767
0.263642
4.47261
-2.46999
0.35544
0.263642
-0.382754
-0.211375
4.15344
0.263642
5.23831
-7.32049
9.69951
0.350427
3.44532
-3.64199
-2.07945
0.350427
2.05453
-2.17997
0.135203
0.350427
-0.413264
-0.534998
-7.27987
0.350427
5.4259
-5.62674
-0.836742
0.350427
-1.37017
-1.45066
-0.0137407
0.350427
-6.36677e-12
2.49622
4.33399
-10.4682
-7.3289e-11
1.42279
1.96684
-2.44796
0.0909083
-0.133207
-0.679781
0.350427
1.5535e-09
3.11832
-0.848057
2.99494
2.83625
-2.9812
-2.07179
0.350427
-1.4239
-4.63254
3.19898
0.350427
-1.8755e-10
4.54398
3.55447
-15.801
-1.63276e-09
2.84801
1.45616
-3.79673
7.70012e-12
3.01099
2.83991
-8.20052
0.517797
-0.285952
3.07021
0.263642
-1.69722
-2.80201
8.7607
0.350427
-2.95683
-1.6329
0.537651
0.263642
-3.3517
-6.83106
5.62424
0.350427
5.00271
-7.98336
4.38318
0.350427
1.84625
-1.01959
0.861065
0.263642
4.26963e-11
3.94621
-2.1902
8.99342
6.28485e-12
6.2733
-2.95287
18.8747
-6.21318e-10
1.96436
-0.42753
1.19025
1.75347e-12
4.08162
3.42792
-13.641
-8.098e-11
6.72111
3.21185
-21.2368
-6.25769
-6.28662
-2.48677
0.350427
-1.08709
-4.82728
1.04572
0.350427
-4.14167
-4.15577
-2.40776
0.350427
7.09112
-9.45064
5.8905
0.350427
4.32147
-4.62728
-0.923866
0.350427
-9.52266e-12
1.46834
-1.92863
3.1823
-3.95944
-4.08858
-2.90755
0.350427
-3.25454e-12
4.81531
-5.27656
25.7587
7.61418
-8.47112
8.07774
0.350427
8.11069e-10
6.02625
-0.545308
3.63659
-7.99268
-4.41394
0.1989
0.263642
-1.42473e-10
2.29541
-3.14206
7.56272
4.59062
-5.61128
3.83405
0.350427
3.77005
-3.79792
-0.400439
0.350427
-2.71486e-11
6.57877
-4.40511
29.3306
-3.98648e-10
3.59262
1.54655
-5.20573
-1.12973e-12
4.95916
-4.40679
22.2044
-1.95379e-11
2.06994
-6.13505
13.0496
-7.31679
-4.04068
0.217273
0.263642
3.72705
-3.94395
-1.53961
0.350427
-3.5622e-10
5.88939
2.30798
-13.2422
-1.53657
-1.59802
-3.66228
0.350427
4.38896
-6.1593
0.53726
0.350427
1.96532
-6.71369
-1.78562
0.350427
-8.08968e-12
3.63625
-1.88544
7.20636
-0.787743
-5.6203
8.57536
0.350427
1.26912e-09
4.28907
0.752018
-2.87503
0.312655
-4.84349
-9.49993
0.350427
2.45638
-3.04991
5.22651
0.350427
5.07379e-10
2.20888
3.16189
-6.63383
-4.64528e-12
5.76194
-4.12751
24.1329
-2.89815
-8.83893
0.0549498
0.350427
-2.42342e-11
4.22528
-4.77654
20.5327
4.26467
-4.18734
8.61508
0.333772
-4.73663e-10
1.03739
1.91554
-1.63674
2.27348
-2.36191
-1.31296
0.350427
4.05595e-12
1.33897
-3.07534
4.46821
-1.80229e-10
1.74366
1.63452
-2.49963
5.78196
-9.44041
-5.60028
0.350427
0.20025
-2.24412
5.04551
0.350427
2.0886e-12
3.77938
-3.36076
13.052
5.82232
-6.01338
-1.34758
0.350427
0.401436
-3.3554
4.6758
0.350427
3.83558
-3.95328
-3.35004
0.350427
2.97576e-12
3.75988
-2.65052
10.3161
-0.562589
-0.310688
2.82577
0.263642
4.52373
-4.97205
-3.25592
0.350427
-8.77888e-11
1.96648
-1.15198
2.61578
0.816991
-0.451181
1.94585
0.263642
4.18038e-10
3.43983
1.74039
-5.63622
5.23844
-7.0549
9.80614
0.350427
1.16426e-11
2.44775
-6.09858
15.2782
3.32099
-3.43861
-3.70532
0.350427
5.82277
-3.21561
0.273022
0.263642
1.75098e-12
6.3365
-5.87983
37.608
-0.842844
-0.892763
-1.83927
0.350427
0.274594
-0.362777
-3.76894
0.350427
6.97065
-3.84952
0.228062
0.263642
-1.12003e-10
3.63258
-2.1119
8.02207
-0.1266
-5.35614
-1.63703
0.350427
2.39039e-11
2.1863
-5.40332
12.1637
7.19156e-11
5.04789
-4.71356
24.144
-2.35583
-1.301
0.674812
0.263642
-3.42142
-1.88947
0.464645
0.263642
-0.890003
-7.08143
-7.9916
0.350427
4.98641e-11
2.82483
3.0041
-8.13564
-4.95145
-5.06127
-2.01821
0.350427
9.44815
-9.65846
-2.25348
0.350427
-0.472211
-4.17171
2.45886
0.350427
4.77637
-8.46863
6.87107
0.350427
3.69772e-10
3.14573
-1.7496
5.85418
3.67878
-9.12105
4.29437
0.350427
-4.09087
-2.25917
0.388608
0.263642
-6.44506e-09
31.2004
0.251457
-7.49514
-4.90069e-10
6.19908
-1.01521
6.6438
7.06215
-7.46802
-7.74309
0.350427
-0.644977
-8.84408
3.97561
0.350427
-3.72985e-10
5.90661
2.12458
-12.1986
-1.15063e-12
6.78577
-5.33163
36.5296
-3.94888
-7.45982
6.12387
0.350427
-2.52622
-5.75189
9.48069
0.350427
-0.240877
-0.277144
-0.406363
0.350427
-2.66059
-8.64979
9.01859
0.350427
5.52622e-11
5.59129
-5.35966
30.3179
3.67134
-3.75644
-2.52062
0.350427
-5.17338e-12
2.05152
6.15673
-12.2802
3.17105e-10
3.77326
-1.79489
7.123
-2.80954
-1.55156
0.565837
0.263642
-4.00081e-09
3.43615
0.910591
-2.7785
1.30421
-6.18638
8.20527
0.350427
1.05972
-0.58523
1.50015
0.263642
11.6337
-6.42469
0.13665
0.263642
6.95224
-7.0231
-1.94688
0.350427
-6.52806e-12
1.87538
4.25016
-7.62024
-6.12959e-11
4.4784
3.99851
-17.5565
5.60379e-11
2.23391
1.91469
-3.92682
-1.43674e-11
3.10426
4.71047
-14.2721
6.63984
-6.86307
-1.17233
0.350427
-6.56892
-3.62767
0.24201
0.263642
-1.34572e-10
3.22504
-4.2676
14.1136
0.621662
-7.64501
9.05979
0.350427
-3.17545
-1.75363
0.500636
0.263642
-4.42236
-2.44224
0.359478
0.263642
-2.0785e-10
4.45476
-4.36599
19.7999
1.34213e-10
5.22432
-2.12299
11.4416
3.04177e-10
2.38516
3.23419
-7.36364
1.85006
-1.02169
0.859294
0.263642
5.10001
-2.81647
0.311714
0.263642
2.31716e-12
2.81501
3.59237
-9.76213
4.93842e-11
4.91298
6.68995
-32.5172
-6.57113
-6.77354
-0.648816
0.350427
10.4582
-14.1737
0.156053
0.350427
2.07804e-11
5.73311
3.59171
-20.2412
8.78512e-11
2.80396
-3.37379
9.81041
-2.14362
-1.18381
0.741617
0.263642
-9.67331
-5.34206
0.164343
0.263642
0.697554
-4.77667
-2.33144
0.350427
5.90511
-3.26108
0.269215
0.263642
-2.60396e-12
6.16137
-5.89311
36.6601
-4.33213e-10
5.4995
1.8567
-9.86049
-8.43672e-11
4.6515
0.989093
-4.25034
-0.182289
-7.70102
4.81653
0.350427
-5.32065e-11
7.87345
-1.08116
8.86291
3.82008e-12
4.64809
6.17814
-28.3661
-4.32559
-4.83002
-2.14525
0.350427
2.00995e-12
5.72874
-4.37983
25.4413
2.98217e-10
4.30193
1.69023
-6.9208
-0.494009
-0.272815
3.21805
0.263642
-0.356165
-0.196691
4.4635
0.263642
4.41357e-12
3.28145
3.19083
-10.1201
0.408755
-3.7873
-4.92289
0.350427
8.53084e-11
6.02856
-2.86632
17.6302
-7.22495
-3.98996
0.220035
0.263642
1.92359e-12
3.27716
4.58889
-14.6881
-1.20735e-11
1.07081
4.54878
-4.52046
-0.167147
-0.357488
-1.8409
0.350427
-5.40559e-13
3.86047
-5.53685
21.7252
-4.70201
-2.59667
0.338099
0.263642
-7.04947
-3.89305
0.225513
0.263642
0.673763
-6.63227
8.26688
0.350427
4.0194
-2.2197
0.395518
0.263642
6.85444e-10
3.50012
1.80463
-5.96598
-4.2132e-08
0.668846
-0.115181
0.427466
1.80289e-12
4.60696
5.24935
-23.8331
-3.61492
-4.93613
-7.93015
0.350427
3.39118e-11
6.56117
-3.13217
20.9011
-5.94679e-10
0.791302
-2.45789
2.29536
3.08209
-9.59311
-4.21915
0.350427
1.16603e-10
5.07467
-5.16631
26.5678
8.92204
-4.92717
0.178182
0.263642
2.00583e-11
2.20648
-2.52621
5.92446
-1.02905
-0.56829
1.54486
0.263642
0.596801
-0.664286
-2.60578
0.350427
-2.56152
-5.2504
-2.16885
0.350427
-0.554351
-0.306138
2.86776
0.263642
-4.88515e-11
5.79912
-3.59139
21.1773
-1.35293
-9.34809
-9.24929
0.350427
-1.21232e-11
4.3579
-2.81923
12.6363
8.64315e-11
1.87594
2.40366
-4.15872
-2.00225e-08
4.37673
0.269352
-0.828455
1.15683e-10
25.8492
-0.249029
6.78761
2.00204e-11
6.37913
5.07807
-32.0432
3.28773
-1.81564
0.483538
0.263642
-1.01572
-1.17745
-1.38679
0.350427
-1.52302
-2.10652
8.29508
0.350427
-5.41941e-11
5.33286
-3.7673
20.4409
-4.32215e-11
5.93363
1.27328
-7.20477
-4.96224e-10
4.63366
2.6731
-12.0358
-4.32104
-2.38628
0.367907
0.263642
2.39896e-12
0.634743
-6.40749
4.41754
-1.74753e-11
4.39035
3.06931
-13.1249
0.479435
-2.88395
-0.655436
0.350427
-7.77502
-4.29373
0.204468
0.263642
5.31278e-09
2.96089
-0.296017
1.2269
-1.17527e-10
0.242037
2.32426
-0.21213
1.28179e-12
5.94524
-5.61111
33.7098
-1.24778
-9.97871
1.1826
0.350427
-8.16732
-8.53326
0.0914301
0.350427
-5.94403e-12
27.0759
-0.284692
8.05873
2.32981
-2.68432
2.71384
0.350427
0.798139
-5.52783
-0.241526
0.350427
-0.305281
-8.7364
-6.06194
0.350427
-1.17755e-10
4.27046
1.93699
-7.92139
6.39456
-9.78665
2.1623
0.350427
-2.81651e-12
2.47089
-4.2102
10.7534
0.763514
-7.0589
-2.30798
0.350427
1.88151e-11
3.70126
4.41686
-15.9975
-9.97383e-11
3.41176
3.61488
-11.9827
7.05264
-7.18557
4.47951
0.350427
-5.29463e-12
3.22476
-5.52689
18.1733
-3.12492e-12
1.61027
3.22132
-4.83676
-9.37022e-11
2.56455
5.94947
-14.9073
-0.314337
-0.173592
5.05745
0.263642
1.62814e-10
4.59213
3.11014
-13.9317
4.25555e-10
3.4407
-1.92974
6.99008
-1.13667e-10
7.12252
2.72567
-19.0632
1.15683e-11
3.78652
3.14931
-11.5745
-1.85552
-4.06819
7.14419
0.350427
4.93825
-7.54877
4.55248
0.350427
8.59152e-11
3.71638
5.23868
-19.1185
-2.82461e-12
4.66396
5.39413
-24.8076
-2.13955
-4.69292
-5.36505
0.350427
1.60953
-3.5398
4.09977
0.350427
-0.639262
-8.39441
-8.01903
0.350427
-8.68974
-4.79888
0.182945
0.263642
2.91147
-5.95155
1.80535
0.350427
-1.92194
-1.98168
-3.27923
0.350427
-5.12266
-2.82898
0.310335
0.263642
-1.37331
-3.04229
-7.5423
0.350427
-1.9133
-3.87039
9.97637
0.350427
1.43073e-11
3.5164
5.13323
-17.7001
1.12516e-12
3.13559
4.88984
-14.9821
2.15209e-11
3.5532
-5.02746
18.214
-5.18941e-11
3.88204
-4.94878
19.5618
1.15747e-10
3.60564
-3.64151
13.4804
-3.71682e-11
7.03768
-1.27432
9.31872
0.659913
-4.19417
3.23101
0.350427
1.91927e-10
0.973151
1.42373
-1.03508
4.71563e-12
3.84975
2.26254
-8.35979
-2.81136e-11
4.07361
-4.86783
20.1801
-3.70905e-11
2.99086
-5.54516
16.9352
-1.53785
-0.849271
1.03375
0.263642
5.71255
-5.96166
-0.11039
0.350427
0.862324
-0.476216
1.84356
0.263642
-3.69349
-8.24649
-5.25363
0.350427
2.66011e-12
2.44548
-3.6047
9.16564
-7.07895
-7.12434
-3.02733
0.350427
4.14604e-10
2.88161
-1.55971
4.84491
5.17234
-7.06986
1.33552
0.350427
-6.13405
-6.30007
-1.24388
0.350427
4.15822
-7.77873
-3.14615
0.350427
5.72049
-6.28971
-0.25574
0.350427
9.51124e-13
2.39914
4.907
-11.4222
-7.12843e-13
1.78249
-6.30539
11.5898
2.73911
-3.05996
-0.74334
0.350427
0.713519
-0.727946
-1.34533
0.350427
-2.62974
-3.75491
9.23644
0.350427
-8.60068
-9.00468
-7.11899
0.350427
2.81405
-6.33418
-0.954754
0.350427
-0.557674
-6.34748
1.31242
0.350427
-2.42942
-1.34164
0.654371
0.263642
5.68058e-11
1.5813
-3.39895
5.72518
2.02729
-3.22601
6.32969
0.350427
-1.52442
-4.46221
-5.70499
0.350427
5.25132e-10
5.1301
1.55379
-7.62069
4.351e-12
10.6088
-0.77382
8.55971
0.201091
-0.315812
-1.39049
0.350427
0.983285
-1.06548
-4.9768
0.350427
-2.5798e-07
2.28584
0.0755662
0.177695
2.31665
-1.27936
0.686226
0.263642
1.30984e-11
4.47905
6.20102
-27.4242
-5.54144
