 -0.350339  0.0757193  -0.445829   -3.68052   -8.66304   -5.99673   -3.85285   0.572526    8.31995    1.76675    13.1351    5.04543    3.90207   -6.42104   -2.60047    3.32038    8.81868   -5.06496   -2.98331  -0.572448   -8.23864   0.932535   -14.5261   -5.42034    4.25426    6.49678   -3.05277   -2.68814   -6.69449     11.664     6.8543   -2.66451   -8.02472   -5.56113    10.6206    4.10006    2.29498    8.01307   0.804632    -4.6484    4.42246   -4.90195    2.03266    3.59642 -0.0210219   -7.65749   -1.88765    0.67926  -0.413007
   7.60615    9.57869    4.10987    2.11591    4.04449    2.00079    2.25474   -9.47597    6.13464    2.00442    6.34753    2.26081   -2.44351   -9.07502    5.03519    1.80678    -2.2467    1.94202    2.18121    3.08731    10.1985  0.0598152   -6.01246    3.74203    6.41502  -0.473315   -9.55221   -6.16271    6.28708   0.873989    -2.7787   -8.00107   -7.91029    2.04311  -0.312633   -2.89547    1.78076    -5.0665   -1.84595   -5.98582   -2.03932  -0.107486 -0.0672572   -1.44487    1.07229   -2.50891    7.61005   -2.94452    7.62505
    4.54638     7.57515     5.44675     2.17293     4.48459     1.61285     -3.6443    -2.04984  -0.0441173    -3.77886     5.81208   -0.983827     4.43761     7.39651   -0.105081    -3.38007    -2.82588    -1.72787     5.69038    -1.78811 0.000555526     10.0067    -6.42488     2.62022    -3.21398     -5.3566     11.6594     2.33627     7.35465    -8.60628    -3.93277   -0.936017   0.0635709     7.59568    -1.40468     1.98681    -10.6381      6.3602    -2.46814    -4.09066     4.96874    -6.59434     2.39994   -0.102209    0.167469    -1.62052  -0.0247791     6.14872      2.8611
   4.37116    1.83467  -0.799577    2.98539    2.26217  0.0183945  0.0398979    3.99397    1.96213  -0.188714    2.29993    5.38569   0.356207    2.75072    2.07203   -3.38189 0.00702316   -2.22805   -4.94159   -5.62419    3.72509   -4.02818    2.56233   -1.67656   -4.74535   -7.94931    11.3245   -6.54617    2.27551   -4.35543    -5.3032    9.64537    5.69163  -0.178478   -7.67557    8.87444    2.48939    5.35765    -2.1124   0.155966    4.74074    9.85151    4.49074    6.50412    6.64668 -0.0812882    5.44403   -9.55059   -1.71301
  -3.42017    20.9533   -3.38661    3.22598    3.93339   -2.75307   -2.76316   -8.67484  -0.933689    5.52685    10.8297    2.37537  -0.615706   -25.9778   -4.53294   -9.66414    5.27603      8.302    8.27562    2.49861    -3.6207   -6.84319   -3.12002    -7.1452   -8.22837     25.897    2.60725    6.44497   -3.03185   -5.25951   -5.20787    1.23413  -0.953207    6.82523   -1.54199    4.62652  -0.799685    2.12388    5.53899    2.84153   -4.78696    2.63062    1.41996   -3.47604 -0.0619628   -8.07814    2.75686   -8.54904    12.2203
    3.1266    5.26205 -0.0211525    15.4784    5.54158   -4.26257    4.17177    4.52502   -7.40234     4.5346    -1.4213  0.0907586    6.16711    3.43315   -4.02271    19.3438    2.81968   -2.89812    4.87461    5.68139   -5.18716  -0.215142   -2.76277   -5.90411    -9.3241   -8.89211   -8.88024   -4.28082   -8.39966    7.59082    -9.3157   -1.26281   -5.48933    4.48311     12.528   -6.05319   -4.92087   -2.33323   -6.90178    1.15874    -4.8472   -1.57828   -1.46483   -3.97166 -0.0283186   -0.95019    1.72255    1.63515   -4.42677
   5.23953    8.39325    6.99948    6.81292   -2.92159   -2.53203    2.66749   -5.49669    4.38022    2.87193    3.95099    4.52932    3.57566   -1.01878    4.72869   -10.5608   -1.15054   -8.36886    7.67723   -9.29192     3.0404    8.46126    -6.1136    7.61876   -8.84576  -0.629424    8.42422   -9.55943    6.66404    2.44838   -2.30597    3.85852    5.31637   -2.53016   -5.54075    -3.1613   -3.20314 -0.0343919   0.742008    -3.3488   -1.40932   -1.26433   -5.29044    1.29043   -1.20179    6.01392    5.76875   -1.56982    8.64992
  -3.1605  -4.23695   4.78829   2.81421   18.8199   2.85677  -2.08263   5.49487   -2.3458   4.89887   1.40755  -4.28766   -5.9929   10.0171   2.18442    4.1382   34.9764  -3.15662   4.94318 0.0375666  -4.52732   9.22568   3.14206  -5.66906  -9.46013   2.52722   7.64056   7.03017  -18.7228   7.73526   1.25579   5.53454    2.5183  -5.02368  -8.64711  -10.1643   4.47413  -2.90477   1.12989    1.4365  0.842475  -5.38447   5.83883   3.46594   5.60176  -5.95941  0.616164   5.07448  -9.38779
   -0.766449     -1.11738     -6.46856     -6.55354      10.1703     0.814656     -3.44787      5.69754     -1.01879     -4.75266      7.09788      0.56089     -4.71118      7.52318    0.0891659    0.0370897     -22.0647      7.56281      7.47893   -0.0793773     0.893543     -10.7553 -5.36476e-06     0.313695     -6.25752      16.0716      2.93187     -6.95395      2.68333      8.89697    -0.908257      -2.5949     -2.21178    0.0463283      7.08836     -6.10646     -5.22689    -0.787505     -2.45356     -3.84729      1.72008      5.82814     -5.09932      2.73909      5.76817   -0.0187439     -5.49643     -8.73995      3.36117
  30.4633  -2.22192  -8.90277    2.2552 -0.710345   6.53526  -1.74355   5.06893  -2.70235  -2.45084   0.56089  -3.40241   10.2508   4.54438   1.94116   -3.6706   6.73323  -1.20009  0.589883  -1.09014  -5.92228 -0.130192  0.313695  0.759434   40.5104   -8.8461  -3.96514  -5.99112   7.63515   7.74469  -4.28665   2.28995  -8.37855  -2.57119  -6.10646  -1.49604  -2.05507  -3.65742  -4.99593   5.48901   5.04919   6.32547 -0.386154   4.88568   1.04208   3.96698  -8.73995   5.70695  -14.5543
  -2.22192   -2.43864    2.36132  -0.250663    3.54063    4.67151     4.7348    9.97847   -2.36688   -4.43407    -2.3088   0.409656    4.54438   -1.35411    -3.5998    4.31358    1.99452    2.64008    2.63871    5.58402   0.140585     14.306   -1.27732   0.642979    -8.8461  -0.253955   -6.03977   -4.64625     5.6346   0.434603   0.473557   0.970143   -2.60707   -0.47889  -0.236711   -1.70309   -3.65742    2.94059    4.93206    2.07495    4.62272    7.62744    4.40515   -7.31958    3.78875 -0.0231085    3.93297    2.33974   -23.3105
     7.40545     -10.5836      4.91865     -6.65809      1.79159      3.50446      5.48904      5.00482     -14.1068     0.293404     0.240112      8.91901     -3.25905     -10.7219       5.0359     -6.92338     -2.24253      2.37907    0.0286513      -5.1848     -9.11201    -0.728818      8.24798      5.77956     -11.0253     -6.16797       2.7153     -3.42378      4.01646     -8.66012     -5.44969     -10.3573     -2.59118 -0.000833416     -8.71856      1.64625     -3.46944       1.2167     -4.71782      1.53716     -2.50738      8.17373     -1.15081       -1.482     -1.97436    -0.440129     -2.21184      3.10115      18.8076
   -5.37519     1.63872      -7.128    -4.06251     3.50446  -0.0314747     7.80055     5.84273   -0.040335    -4.66655     8.44177     2.29942    -7.39913     8.60522    -8.08773    -5.95055     2.37907   0.0626944    -8.01643     4.95379 -0.00610202    -5.29449    -2.68836    -0.73458     -10.496    -10.2455    -2.65129     -4.3323    -8.66012  -0.0151105     -7.7585    -3.32986     6.67685    -1.73441   -0.958166   -0.255362 -0.00994015    -2.54008     2.22202  -0.0110202     8.17373    -2.88073  -0.0182745   -0.027878    -1.12219    -3.41428    0.850489    -3.18182     8.49909
   1.32438   -3.78599    1.85576    -3.6507    -1.2772    -18.152    8.32964   -4.95527   -3.63632    6.69017    3.90581   0.304342    8.24188   -6.24991   -8.85352   0.708295  -0.418955   -6.58127    3.01081    30.2791  -0.622465   -1.11946    6.44563   -1.85824   -10.6041    4.52217   -3.27678   -7.44098   -0.20758   -2.60369     1.2003    -10.135    1.83235    7.80787   -4.66368   0.621793   -1.67709    7.45675  -0.023469   0.437081   -2.89556   -4.52239    10.2707   0.196695 -0.0520443    -8.4525     -7.227   -3.32733    23.1025
   -5.9075   -1.00263    -3.6507    2.64266   -9.22963   0.896533   -27.7092    1.96825     5.5456      3.889   -1.64369    2.85494   -8.80307   0.809536   0.708295   0.990515   -13.7525     3.6603    4.71046   -1.31606  -0.700645   -3.16482   -5.31158    9.16817    4.84565   -7.80695   -7.44098   -3.60506    7.56945   -4.73804   0.042429    3.29153    8.66137    7.05925    1.34426   -2.33053    8.78845   0.813613   0.437081  -0.646497   -5.62776   -1.97691 -0.0115435    3.78499   -8.90983    8.65904    -4.9439    2.83308    11.2718
  -1.00263    5.49067    8.07893    10.1537   -3.71339  -0.109417    5.51635   -2.03372  0.0472489    8.84545   0.344695   -2.58369   0.809536     3.2133    4.72001    5.76414    9.23434    8.71242   -7.41421    -2.6597   0.021597   -11.8783    5.16621    6.41069   -7.80695     1.1669    1.71978   -6.67171  -0.567295   -8.86443    1.39671   -7.95079    4.54268      2.237   -6.22194  -0.394492   0.813613    5.50376   -3.76944 -0.0173954   -4.39398    2.37345    5.11078 -0.0402033    4.87779   -3.20113   0.665194    6.29764   -21.0589
  -6.12177    6.57158   -3.92613   -1.74558    -6.3554   -6.26975    12.9272     -4.014   -25.7443   -15.5337    1.87651   -4.98213    3.10496    8.30101   -7.13586   -6.03819   -4.42093   -4.36636    4.50548  -0.224371   -32.5647   -28.2742    6.49156   -1.74463  -0.260977  -0.436878    4.87351   -2.70472   0.433544   0.429395   -11.5652    4.26404    1.71635    19.3029    2.90707    4.45915 -0.0440088    6.07088     3.9202    7.49496    -8.3453    8.44211  -0.948851    3.67008   -1.54916   -0.99635   -7.00477    2.46486   -2.47451
   0.332703     7.64583    -6.19243     12.2578   -0.316736     1.55859     4.86998    -7.73877    -3.55559     2.49236     9.41581    0.194177   -0.299864     3.85282    -2.60649     6.19427       2.366    -11.0094     3.05095    -4.00813    -2.34359     6.54262     5.89933    -1.39795   -0.901006    0.500572     7.30308    0.802854     0.62232    -2.77991 -0.00659986     9.65558     4.79379    -9.32001  -0.0140341     4.96644    0.381145    -6.96197     3.88622     4.32157     1.18644   -0.284887    -4.62795    -5.27942     4.68011     6.61134      2.3908     2.11552    -10.0562
   7.06599     7.6094    6.27177   -5.25319   -4.19534   -1.66233   -7.52407   -2.74444    2.49236    13.6901   -2.64357   -11.5782    4.45852   -11.4459    3.92968 -0.0588992   -9.27159  0.0495621   -1.51876    4.44967    6.54262    30.2492   -3.28952   -7.32171   0.751361    -6.2206   0.645309   -6.29242   -5.34481   -3.74493    9.02541   -2.31483   -9.32001    17.4415    8.67712   -1.24355   -6.91221 -0.0191278    1.31561    9.78396   -3.35478   -3.60244   -4.88672 -0.0459035    6.61134    1.02482    3.91049    3.48278   -2.35273
   3.24314    5.79673   -5.25319    21.5663   -1.66233    2.11687   0.540159   -3.53464   -26.8582  -0.974482  -0.836064   -5.93182   -7.41588     2.6689 -0.0588992     9.9028  0.0495621   -1.28523    6.33796    4.49673 -0.0894231    8.53532   -9.73581   -1.45807   -10.9978     3.4611   -6.29242    12.8734   -3.74493   -5.74747   -0.69507    8.03662    3.08095    -4.9121    1.07851    11.6898   0.668114    6.56013    9.78396   -1.76784   -3.60244    9.93972    -4.0617    4.68019 -0.0107861  -0.017118    2.61756   -3.14403   -2.57411
  -3.86917   -4.90704   -7.87316   -6.91398    -5.2399    6.07983    7.19846    3.99655    8.26457   -7.81436    2.34591     4.3238  -0.309245  -0.459317     4.4313    7.90248   -2.10027   0.425824    5.40777   -2.24983   -9.29354    8.86851    5.57756    10.2894   0.645474   0.791478    4.83778    1.92244   -7.34266   -1.04278   -7.58726   -2.45634    -2.4924    2.24891    1.00331    1.84993   -12.5141     4.0779    7.60198    6.12441    1.90744    4.64148 -0.0204077   -14.9924    3.81448   -9.46944    7.71196   -4.20434   -21.3435
   0.301929     3.98061     4.80313   -0.347996   -0.276016    -2.55771   0.0801186    -1.10468   -0.311958   0.0360142    -3.51873    -6.23404    -3.67646    0.317288  -0.0211218     4.26214     9.55875    0.117186     9.13986    -1.06832    0.266211     11.0431  0.00383363    -1.00415     -4.0311     6.32904 -0.00121753    -5.61158    -13.0571    -2.67521    -9.31678    -5.94423     10.4213   -0.041395      3.5412    -7.33062     3.84838     4.36277  -0.0671358   -0.333663    -1.85835    -4.16453    -3.62707     3.29733    -4.66731  -0.0295039     5.30334  -0.0537301     3.29946
 -1.27344  -1.67917  -3.56025    4.4785   3.98672   1.69816  -6.02174  0.346576     13.67   3.79612   7.25025   -1.0419   5.83109  -8.13123   5.07704   3.04459  -3.17314   2.35636    8.6264  -1.62422  -10.9263   18.2335   2.61334  -1.41215  -4.21456 -0.760028   -2.8813   9.01719   1.54265   6.93233  -4.89092   1.17037   5.30713   1.70296   9.83199   2.45123   1.37223   3.34725   -1.9225   6.01542  -6.67561  0.252157   1.13747  -4.97519   1.92605  -1.51043   -3.7585  -7.18727   8.05577
   -5.30011   0.0163234     2.31042     5.51215    -11.0548  0.00320389     2.67752 -0.00750481     9.34088    -14.3545    0.884755   0.0125308     -2.5929     9.79582     2.57403    -9.33077     20.2942    -5.39973    -4.46999    -4.16805     11.8585     5.01382    -1.12343     8.36838   -0.320037     4.43376     8.10825     6.33372    -13.3334     4.13081     3.05178     3.17877     21.1804    0.870512     3.08594     3.78486  -0.0340613     5.35059     5.23858     6.91069   -0.483688     2.66565    -12.2573    -3.48105    -1.09888  -0.0122027    -8.29503    -6.28995     1.19247
-0.0423983    3.24651      2.576    -1.1228    1.47317   -1.84149     2.8995     4.8184   -12.7878   -6.37556  -0.163882  -0.391392     10.128   -3.13735   -9.89233  -0.492271   -6.33803    4.07485   -11.4032    1.03116   -0.12264    1.61648    10.0262    7.14196    3.90882    6.38851    4.87952  0.0515913    3.15184    6.73102    5.63283    23.0551   -12.3251   0.197081    3.79693    2.54656    5.20799      5.268    6.06864  -0.144485     2.4661    4.52642   -6.65128   -1.85631 -0.0537925 -0.0285313   -6.93309    2.31579   -20.1429
   4.02834   0.946893  -0.214778    1.19211  -0.719014   -4.35082   0.316092    -13.972    1.77256   -6.65649  -0.654874    1.36648   -3.33183    1.27185  -0.593961   -1.22708    3.75278  0.0815471    2.74952   -2.92787     5.3328    5.06332    4.09374    0.60247     7.3671   -9.22926  0.0796914   -2.52762    7.55859     4.4539    16.0721  0.0286738  -0.666646 0.00137763    4.81672    9.01332    5.95743   -2.03416    2.05105   0.436118    4.98405    1.87732   -1.58544 -0.0162687   -0.27961  -0.022896    2.68825   -7.10534   -12.4584
    5.06064    -17.1188     3.27016    -6.60582    -2.28685    -2.72408    -5.48036     4.27625    -6.42269     9.29226     6.47997    -9.02802 -0.00837493      18.146    -3.41976     3.61468    0.774546   -0.662864     5.75603    0.777636   -0.249248    -9.90875    -3.57048  0.00222146    -6.53248     9.69917     3.22076     1.60667     4.10637     6.22479    -5.41143     5.81838      10.048    -5.27309    -1.57291     9.03158     0.22605     1.61589     3.96934    -7.16897     8.53323    -6.59898    -2.38915    -2.24252    -3.66615    -2.98275     7.28269     4.98931    -5.15781
 -1.61817   12.1713   5.38247   5.80822   3.71221  -7.36792  -28.3945  -3.57277   1.14799    1.3044   6.82949   4.41591    1.7838  -1.21753  -5.65941  -7.71637 -0.355883   7.70363   37.7266 0.0726162   1.34256    3.9745 -0.748285  -4.49978   1.26144   1.12101  -3.99698  -6.72542  0.368449    5.4575   32.8814  -8.62376   8.73467  -5.30894  0.613845   8.88883   1.99589  -2.13045  -11.8335   12.1166   2.69024   8.21747  -2.48287  -5.36188    8.0085   2.28815   2.29205  -3.56564  -3.00585
  -2.21207    2.35806   -1.54583    1.80355     8.1206    0.95482   -7.22563    6.95283   -5.75992    4.08477     1.7125    6.89023    10.6767   -10.8145   -6.59473    1.86582  -0.155547    2.44406   0.445899    5.32941   0.820195 -0.0786451    4.64944    5.27349   -2.65098   -5.29562   -9.81852   -5.07109   -2.73132    7.75328    7.67052   0.121658    8.69622   -1.36654    11.3927   0.120828 -0.0220992 -0.0164567   -4.63647  -0.941394    1.50838   -4.31212   -4.19339    2.49967    5.05598   -3.05115    1.79604   -2.54266    2.17933
   5.25207   -8.14001    1.80355   -8.19441    3.85525 -0.0399412  -0.931808   -7.90393    2.99884   -2.84291   0.115601    4.36512   -2.44997    3.13568    1.86582    -5.5233    7.17804   0.132002    6.99576   -5.31713   -1.15222   0.952685  0.0539214    8.15184   -10.1073   -1.17583   -5.07109    7.25751    6.05216  0.0486974   -2.55377    6.99455   0.432661    4.98822 0.00151525    6.86885    3.70968   0.668318  -0.941394    4.18453   -4.25776   -1.45413 -0.0278221   -4.35077   -1.85861   -1.94907   -1.52059    3.74251    11.7347
 -5.61396 0.0599496  -3.88508   1.06187 0.0868631   0.76905  -5.95891   7.79126   3.26539   1.72356   2.51509   4.55486    5.5211   2.46984  -5.14519  -5.95343   2.72223    6.2612  -8.30227  -7.64696  0.757769  -8.12031   3.72226   6.39424  -3.87703   1.35018   5.11592   8.41134    1.4663  -7.09793   8.11972   5.35954   8.69751  -9.85267  -3.60262  -6.24223   3.38835    2.3418   1.86252   7.84339  -2.18558   3.63511  -4.82494  -2.46845  -3.24719   3.61605   1.29059   3.97561   6.13686
  0.655861    1.78618    3.78804    4.52717   0.813402   -4.20236   -3.19689   -4.18001    5.40481   -4.00849    2.05798   -6.52382    2.59767 0.00476425   -4.08122   -1.97717    6.42092   -5.85224   -12.6484    6.14192   -7.99043   0.118101    8.14693   -1.52309    -1.7608   -2.04506    7.88718    10.5579   -6.91224    -10.377    8.51954    7.14943   -9.30493    5.94983   -5.49543   -9.31605    2.73039    1.83286    7.33263   -4.22112  -0.257588    4.33875   -3.47464   -3.80756    2.90047    8.89337     4.4962    1.15361   -8.44582
     4.254    10.9473    2.84284   -5.41289   -4.18719    5.72517   -4.31336   0.289325   -3.14053 0.00133553   -6.52382    2.14245  -0.254335  -0.415474   0.208774   -2.85521   -6.03638  -0.338164    2.39432   -5.74226  -0.647175   0.974236   -1.52309   -3.53101     2.5177    11.3245    8.72068    8.16657    -10.246    3.37424    6.83678   -7.59081    6.68002   0.935042   -9.31605    5.63317    5.79677    2.48503   -3.40062   -1.35709    3.35492   -4.36171   -3.44056    5.96502    9.59501   -3.17735    1.15361   -4.35932   0.594517
  9.46313  -6.08163 -0.473703   3.10068   4.55394   -3.6834  0.289325  -5.96575  -4.13794   10.4187   5.20067   2.45433  -0.31766  0.176049  -5.69177    1.9838   1.28262  -1.03019  -5.74226   10.9799   7.63578  -10.2679  -5.11454   6.08925    9.7868  -7.32498   6.49275  -7.33554   4.13767   -3.3617  -7.59081  0.547331  0.384862   8.75279   4.36693  -8.51925   2.15421 -0.141767  -1.14951  -1.39871  -4.57392   5.56227   5.96502   3.78176  -5.46587   2.16383  -4.37115  -5.49892   6.43517
   0.724925    -2.49896 -0.00329312    -2.74523    -4.35419     4.48845    -3.98346    -1.86083     3.73268     2.98484     2.95874    -4.42388     4.68383      4.1742     6.40035   -0.863628     10.0998      11.766     6.62799    -7.88078    0.612463     5.87276     7.56039    -11.3042    -6.09333     2.53714     6.40531     8.00868    -2.30432    -26.1312      4.0317    -11.1897   0.0560824     -8.9103    -2.23847     3.35004    0.686027    -2.20229     8.11604    -8.46084  -0.0183434     3.55278     1.37005    -10.6415  -0.0778446     5.09423    -7.82438     5.22059   -0.621858
  -4.96048    4.02942   -4.87923     5.7933    9.08312    2.34937    2.13771   -21.1165     8.8348   -5.40971     4.5805   -5.29369     3.9403    1.47438   -3.04446  -0.524955    15.8148    2.79896   -2.38306   -7.69977    7.40406   -6.47929   -3.64222   -6.33569    2.06296   -4.50749    7.92522    -7.4501   -25.6227   0.340208   -7.31474      23.61   -5.31607  -0.756115   -1.91424  -0.732361   -2.44663    -14.647    -8.9647   -4.67673    3.99483    1.32896   -3.66336     2.7895 -0.0193841   -7.06794    2.58391    6.61207    10.7667
  6.58398  -7.11437  0.274349  -2.75585   9.87442   3.63452  -2.42976  -10.7724   4.86209   7.31091  -8.60586   -6.7323   3.05722   1.30107   1.11371  0.551179  -2.03514   8.61225 -0.286809   7.26281   11.5062   3.40721   5.81753   1.35109   7.50715   8.40827  -3.31181    2.6632  -9.53847   5.83021  -4.64631  -6.11732   7.77819   8.34258   -4.8996   6.49935   5.97652  -3.32723   5.22442   1.67089  -2.39209   8.15447   8.64198  -3.15993  -6.12556  -5.40698     3.925   2.79746   6.63667
 -4.60229 0.0719793   1.90405  -6.56528  -9.89306  -4.06086  -2.37628  -3.61188  -5.88098   5.02591   -8.0447  -10.5059  -6.72654   1.80717   -2.3646  -9.58676  -6.06656    2.1509  -6.41575   4.44081   -3.5318   2.85731  -4.07082  -5.30821  -5.82079  -5.90327   2.39478  -8.29749   7.20437  -7.10846   8.79777  -4.55442    4.2599   -3.5905   2.77122   3.60829   3.50163   7.55931  -3.96398  -2.47217   2.78049   9.57116   2.69984   2.04941  -7.03913   2.73897   6.27107  -4.81218  -3.37557
 0.0719793   -3.67242   -3.16173    -31.073   -4.06086   -1.49269    -4.4465  -0.114467   0.919581     8.6395   -8.69333    7.20224    1.80717    6.46952   -7.19173   -3.94495     2.1509    2.61491     7.8502   0.194357    4.43173   -4.35152   -1.09626   -3.62434   -5.90327   -1.86988   -10.3663   -3.10555   -7.10846  -0.739883   -2.28962    2.81301 -0.0308393    6.35302  -0.864472    5.29585    7.55931   -4.57472   -1.59121   0.841193    9.57116    2.91052    2.78374   0.926303   -0.05577    8.40141   -3.03955   -10.0822   -1.54572
   1.42335    -1.6061    0.12167   0.112793    2.85618    1.64268    1.44607  -0.277317   0.660445   -3.78827    4.94317    4.47572   -2.81656     5.4481   -5.20838  -0.406477   -8.44067   0.301831    4.17121    11.8577   -2.59176   -3.75597   0.102119   0.853925    3.57266   -6.19331   0.357339    1.05044     9.8177    2.53544    8.38145  -0.814553     2.8644   -8.71955  -0.415751   -5.40747   -4.42302   -6.08191   -9.05257   -0.89842    6.20571   -2.19009   -3.27621    3.94942   -2.65721    5.28577 -0.0645508   -1.95352   0.706949
 -5.94564   5.72645  -0.16899  -5.04249   1.26342  -4.58053  -8.68063  -6.79575  -3.78827  -2.81778   7.09935  -8.03643   2.52825   2.42585  -1.35893   2.69056  0.991063  -1.82177   3.67287  -3.23167  -3.75597   1.14449   4.09143  -4.61088  -1.93167   8.16921    5.7921  -8.52833   6.24185  -11.9003  -2.86666  -12.0529  -8.71955 -0.902827  -3.26943   3.70732  -2.18301    7.5829  -6.34234 -0.133283  -5.03177 -0.200009   1.27714 -0.817305   5.28577  0.589406  -5.40009   4.75004  -10.4396
  -3.11233    9.04777    2.64623   -1.18125      8.832    4.09214    1.21452  -0.285851     -4.306    6.21124    264.987    4.43817    2.11967   0.124553   -7.32956    8.46753 -0.0833575   -2.42445   -8.83261    -1.7919   -9.55848   -4.40743   -119.477     9.8385    5.24553    9.10174    9.82874     8.0103    8.74297   -7.18544   -8.35357   -2.08755    1.73671    10.1059    -778.41    -1.7892    9.62575    -1.5862    6.98617   -7.38838  -0.995454   -5.30695     7.0592   -2.49332   -8.87641   -1.98172  0.0162264    8.59691  -0.445079
  7.93387  -8.94798 -0.721551   -21.429   4.09214   1.97459   -2.5998   -3.7604   3.64897  -4.46871   6.46446  -5.81815  0.125741  0.054992   8.10474  -49.0015  -2.42445   2.36381  -3.38122  -5.31159  -5.68238  0.595935   8.58622 0.0639673   8.01562   1.78456   8.82057   70.4857  -7.18544  -4.53875  0.598595   0.98703   9.29241   10.0073  -1.54209    1.1537  -1.39928   1.44449   -7.7667  0.466957  -5.30695   1.04462   -15.066  -3.87188  -1.83096   7.09501   8.29874   -2.2772   6.70118
    1.37452     8.13846   -0.394762    -10.0463    -5.86708    -2.73866     2.20578     4.12439 -0.00121705    0.541704     3.04693    0.912921    -5.16205    -3.06255     3.76402    -1.35524    -3.42607     10.7589    -2.25479     1.65448    -2.52805    -3.53498    -11.9342     5.17181     1.11188    -11.2512     7.09092   0.0541768    -9.33274    -2.36819     4.47691    -6.20861     2.53405     4.19599     2.61603    -9.62685     1.36087      3.7788    -4.57367  -0.0320558     1.81753     5.15428     3.89835     7.65547     2.49807     6.60457    -5.26202    -3.22039    -5.78078
 -1.48452 0.0798289   2.71395  -4.23831  -8.75002 -0.581467   11.8728 -0.571713   1.80562   1.40992   6.24836   2.68227   2.63334   2.45943  -4.59642   8.04888   16.5493  -2.84338 0.0939586   4.65834  -3.50299  -2.74255   3.32679  -4.85002    4.3178   2.59494   7.63894   4.05644   8.30425    10.552   11.8488   5.45369  -1.74851  -1.39757  -9.58903  -2.41036   6.27365   2.87345   6.46938   3.57812  -3.41657  -5.57838  -2.03796   3.89569   1.83987   2.95459   1.95485   2.66898  -7.42384
    1.31974  0.00271823    -2.13423     11.7376    -3.34474 -0.00469363    -2.18661     2.53479   0.0131818   0.0747968     7.48165     3.52502     2.00244     4.17093     4.64523    -7.93671    0.292099    -4.10775     4.58934    -1.74814    -4.89289     1.88954    -5.07059   -0.132877     3.33614   -0.716128     6.79136    -3.48153     8.25156     6.24984     6.92057   -0.771839    0.848572     6.65713    -2.21842    -10.1061     3.08674    -4.58587     3.85677    -3.46681    -4.41438     2.15891     4.52949      1.5508      3.8407    -8.37003      4.8786    -4.58594     8.55761
   1.82453   -5.56224     6.9149    9.31859    2.88261    5.52336    4.06182   -2.17305  -0.217102    8.04346    4.66161   -7.98357   0.601705    4.81844   -3.71234   -8.13272    4.72975    -4.3305   -3.07621   -3.62816  -0.516124   -6.25071    9.60025    6.35486   -2.39433    5.27491    -10.648   -8.87054    7.62737   -2.01823   -1.39136    7.27282    6.31245   -2.87251    0.41821    2.91824     -4.022   -2.21306   -1.58759    1.30556    2.67389    4.44536    4.36841    4.30434   -7.82889    -6.8005 -0.0334577    1.52608    5.97319
    1.34728     6.18589    -2.25825     5.41317    -5.73672    -1.34544    0.875233     4.09771   -0.127967    0.777115      5.1126    -4.51216    -1.76792     11.3227    -12.2163    -2.94707     6.91886    -6.88513     4.95525     1.47801  -0.0154447     4.23145     1.06195     5.48247     5.62174     17.5402     -5.2604     -8.4355    -6.15005    -8.85508     2.15277    -9.87375 -0.00907228     1.81225    -9.65913    -4.85222    -4.20853     1.67304     2.14436     -3.7658     2.35646    -1.01082   -0.673944    -3.37434    -2.51787    -5.46482     4.12914    -3.00119      6.6686
 -29.9481  -9.46987   8.52479  -2.69863   1.55433  -1.09989   4.09771   2.44774   1.94668 -0.102111  -2.51403  -4.07962   22.9835   7.35341  -6.41634   6.20902  -6.47929  -1.84835   1.47801  -5.77764   1.35583   3.25144   6.11577  -3.74404   22.0698    7.0649  -6.15619  -5.65602  -9.44786    5.9466  -9.87375   5.26924   3.26929  -4.36567  -5.58131   9.17683   3.78191  -7.45711  -5.02499  -4.67112  0.192999   2.93886  -3.37434   8.89153  -5.97539  -2.02887  -3.69436  -8.76429   5.75662
  0.191465   -0.70619     4.7942    4.07009    1.36394    -6.9753    6.16322    6.99489    21.8057   -7.00995   -3.91906    4.08827    2.47794   0.139427   0.347608   -6.11994     -1.318    10.5311      5.022     1.6436    5.07589    5.15499  -0.788897   -3.00191    2.70344   -1.88901   -5.91659    2.21855   -2.82501   -3.80633   -11.1399   -2.49149   -7.78367  0.0128145    4.83242 -0.0101026    2.03487    8.04706    2.38604    5.26944   -8.57972   -3.08786   -2.48869   -4.36999    1.38858     4.8301   -3.08869   -8.30261   -1.34719
    1.03544      2.8353    -2.22521     7.40555    -3.03315     9.54177    -4.11273     -5.6422     5.50792    -1.71088    -18.0367    -4.34762     1.01228    -4.43618     4.64067     7.40385     4.75495     7.83938    -5.70523    -5.26722      5.5089   0.0684653     19.7843    -6.53995    0.942318     -1.4201     6.86754     7.84184     1.52009    -3.81628    -10.0212    -11.1273     5.81564     1.73462    -11.4965    -11.1348    -1.51029    -2.85117     -2.6234    -7.15453     2.61856  -0.0219947    -2.76055    -2.41553     9.86042    -1.39334 -0.00845391    -2.91898     17.6211
   3.24562   -6.06696    5.12736   0.882801   0.211156    14.2285   -5.75507    5.02454   -2.28102   -7.17464   -4.67417  -0.445852   -1.98688    -8.6483    7.31467   -2.88242    6.51078   -4.47411   -5.27446    9.84679   -4.46473    2.26178   -6.40358    3.54139  -0.667032   -8.88532    7.50448    6.85662   -8.15947    8.90975    -11.083   -6.35142    2.86115   -4.49272   -11.0691     7.1947 -0.0693317       5.62   -6.67825   -7.19588  -0.616641    2.81917    -2.5619   0.878134   -1.99819   -5.61659   -2.71023    8.97694    16.4443
  -8.04628    1.92312    1.30548    4.66274    10.2934   -3.57325    3.11524   -3.28034    -3.6424   -2.90227   -1.39795   -2.34176   -1.73509    -3.6116   -1.99786    2.78261   -10.7373   0.790631    6.08424    1.37507    3.80798    1.24067    1.95438    4.82715   -9.85183    5.53705    7.87232  -0.370804   -4.97673   -4.50709    -9.7876    2.73439    1.76667     2.4299    5.30313   -2.20423    1.02927    5.04402   -8.14656 -0.0685274   0.999416     4.1139    2.94308    3.06009   -2.85949   -3.44521    6.65067 -0.0510166    7.00046
 -1.52585   6.96738   2.71837   3.62939  -3.49702   -4.7374  -3.61855 -0.215988  -5.15866 -0.109298  -2.83854  -5.68554  -2.22237  0.960722   1.11163   4.36106  0.757397   0.27381   1.46321   2.27768 -0.354397  0.027611   1.32939    4.4096   4.06554  -9.29691  -3.86212    -9.188   -4.6121   5.03459    5.1273  -2.50056   5.98924  0.168832  -4.23223  -10.1046   4.02783  0.469496   1.10351  -1.23156   2.37989   3.05863   3.83736   2.17889  -6.76918   3.60625   2.73783   5.30633  -10.6341
   -4.3721   -4.45354    1.29326    5.59037    5.40667    3.58201    16.9486   -12.9711    7.83595   -1.51111   -1.43966    16.3521    1.16902  -0.753677   0.672706    4.42158    4.28158    2.35578     19.089 -0.0379477    8.68264    3.03274    3.07329    16.6604    7.07458    10.4057    8.50054    8.04351    7.77681    6.59819    8.25488    12.9315    3.79244    1.22141    1.27902    7.69451    5.72011   -3.99502    6.57933    4.61253    -4.7935   -5.81696    2.65641    -1.5188   -6.89302  -0.572645   0.465883   0.536677    4.53481
 -2.49015   5.58673   5.29226  -3.17717   4.18605  -2.24735  -4.90784   5.19273   6.77451  -4.27286  -5.64228  -2.10531 -0.743903  -8.53273    3.7483     2.372   2.95969   2.99094  -7.23089  -7.92867   10.0059  -6.32415   12.1439  -1.62234   8.41055   5.18476   8.15841    -5.533   6.42808   5.10518   8.02125   4.82259  -11.6203   7.29783   34.6534   6.24029  -3.18786  -5.83953   4.58527   -1.8655  -5.86187 -0.951991 -0.939412   6.25119  -3.15609   6.02014   1.38929  -9.16283   5.63519
    4.1166    7.24891   -7.20467    4.60273   -9.37393    4.64532  -0.189516    2.24407   -6.82884 0.00185928   -2.90267   0.601036   -10.4126    5.97977   -3.67456   -5.03707    10.2926    3.51334   -1.49897   -5.68297    -5.5158    6.98255   -3.17747    3.69732    4.27063   -6.55321   -2.11899  -0.366722   0.770733   -4.01913   -2.41935    2.32984    6.10894    7.00875    6.31252   -6.34281   -5.73921   -4.02516 -0.0356118    2.42054   -1.19976   -2.23492    0.73022    10.4779    5.75873    1.87042   -9.69481   -5.44328    14.9207
    3.2441   -2.15707    5.12013    2.07287    7.49437    8.44192   0.757193   -6.37571 0.00423714   -5.72896   0.601036   -7.26722    5.64947 -0.0969357   -4.50112   -10.9742    2.32043    2.60768   -4.00568    6.16532    7.45633   -2.66604    3.69732    6.39652   -8.13351    7.95019   -2.00617    4.81721    -1.6369   -1.85045    1.76188    12.5474    7.46959    8.04421   -6.34281    2.85049   -1.59652   -5.39451    3.31864   -3.01399   -3.07455    2.69401    8.19085    1.42979     1.9556    3.39446   -5.44328   -2.35273   -9.17804
  -4.01481   -4.40679    8.07063   -9.32881    6.37332   -12.2101   -17.7884   -4.15604   -5.20097   -7.97835   -5.65011    4.15504    2.55377   -4.20336   -6.03434    6.97051      5.238   -16.9075    10.7565    2.45211   -5.02933   -7.97063    3.55824    2.61003    7.21469   -3.04147    3.46798   -4.00185    4.11514    7.79515    4.77122    1.10722    9.06332   -5.62874    1.53803   -6.15817   -5.23575    -17.746   -2.66288    2.28408    3.15171 -0.0133554    1.47459    -3.8707     3.8342    7.26402   -1.82882   -7.45767   0.441252
 -4.01684  -6.00508  -16.0816 -0.810759  -51.3602  -40.1091  -5.20012   5.97254  -7.90505  -7.16318   4.01829  0.956242  -4.26519  -4.28893    10.008  -2.49006   21.8088  -18.3981   2.19652  0.685618  -8.38622   4.45899   2.11112  -2.52714  -2.80277  -10.3109   1.56727  0.466708   11.2465   59.6825   1.13685   -8.0315  -5.51207  0.697018   -6.1611  -8.45512  -14.7728   2.33745   3.82357 -0.105576  0.413246   0.00628  -4.11198 -0.688156   7.49771  -8.60726  -2.26672  -7.86134  0.724711
    -6.04665      4.84968      0.80374     -8.96054      148.253     -3.04515      5.97254      3.41233     -6.41286     -1.95036     0.956242     -6.31077     -4.27706     -3.17209     -18.7772      5.96478      194.444     -6.40097     0.685618      7.17717      4.20528     0.712647     -2.52714     0.451117     -10.3718    -0.930631      19.6475      1.91451     -149.619    0.0502138      -8.0315   -0.0515844      1.25742       8.4755     -8.45512      -6.7403      4.48351      8.59193     -3.43077      1.16425 -0.000876431      6.80998    -0.688156      -6.1068     -8.17102      9.37183     -7.86134     -3.29402     -3.28453
  -8.73249    2.42159   -1.98095    7.76211    0.49449  -0.113391    -2.0234    7.97071    2.41582   -6.92438    1.46908    6.57975   -7.41313    -5.1772   -11.2284    8.19943    4.16549    3.03004    1.41354   -1.55582   -1.90834    1.33771    8.75403    6.94158   -5.94481    7.60291   -5.28863   -4.25114    1.99182    6.76427   -5.62296     4.5201   -5.18877   -3.93605    4.13815   -3.60177 -0.0243478    8.04115    -5.4882   -1.86429    -2.9913   -8.57687   -1.06597   -3.94356    -1.6202    4.50453    8.44282    2.18888   -13.3102
   2.48525   -6.40175    7.88201    3.63335   -1.35969    1.19399    3.97166   -15.9347   -7.24836    5.75464    4.26489   -1.67287   -5.33312    -14.411   -3.91614    5.99108    1.39209    2.71317    6.55384    16.2472    3.62172   -2.87522     9.5831    3.75714    7.81887    5.49836   -2.73037    5.34775    4.56486   -1.02882     5.8428   -42.3961   -3.67975    2.92163   -3.66784   -5.67603    8.24937   -2.17711 -0.0271599    5.09206   -5.95095    2.41939   -4.68779  -0.459859    5.81487   -7.36283    2.56067    2.55187   -2.71343
  -16.8727   -7.26717    3.77347   -3.69658    2.46068   -6.30024    26.0669    -1.0869    2.44055   -36.3287   -1.94005    1.86518   -8.90412   -3.83356    2.70196 -0.0304082  0.0346349    2.33414    9.97719    16.4856  -0.809972    13.7757    3.81878     2.0068    6.85765    2.95491    7.21769   0.536586  -0.371523    6.44292   -37.5674   -1.04365   -2.48263    37.2053   -5.80239    5.19302   -3.39802    7.87804     5.6603   -1.06093    1.49105    7.93131   0.010776 -0.0182851   -3.51589   -1.14199    2.54679   -8.97754   -1.22654
  -7.83644    5.32964   -4.87702    5.82861   -5.13089    4.44521    6.07244    2.51615   -25.9903   -4.78572   0.547013   -3.03884   -3.13345   -2.48376   -1.94708   -26.7115    2.55915   -1.71898    4.69553   0.659042    15.4102   -3.75737   0.366941    1.01073    3.22279    7.22413    2.00207    1.40724     6.9997    5.75293   -10.9024    9.13121    37.6229   -8.56164     4.7062    3.69226    8.07667    5.29935     -13.04 -0.0118278    8.10593    -7.7201   -3.76107    4.00932   -1.04209    3.37127   -7.69047   -4.78142    6.93476
  -7.81125   -3.94621    1.91325   -6.81509   0.397584   0.685198   -2.88502   -1.41689     2.3725   -6.26004   -5.51174    3.03946    5.90181    1.86091    6.44198    -9.6927    5.30538   -6.90804   -4.08794  0.0106066  -0.255368     4.7289   0.574467   -1.32189   0.145509   -5.81218  -0.985568   -8.48359   -5.70413   -8.82417   -3.58485    1.37807   0.874608   0.117844   -2.08836     -4.387    5.19815  -0.404139 -0.0408022   -2.43379  -0.987012    1.34727    5.73073   -0.95969  -0.617921   -6.50746   0.227514    -4.6927     2.8818
  -8.21404   -4.85286   -3.50614   -3.27417   0.685198   -7.04428   -8.38355     5.0341   -5.75636    2.64301    3.34596    7.48891    6.84409    -3.5272   -7.49568   -3.26814   -6.90804    5.86969   -6.10431   -5.90591    4.79815   -3.19525   -3.76043   -8.75029   -3.80301    3.83122   -10.9498   -1.39035   -8.82417   -3.15288    6.57732    -4.0824   -2.54257   -2.10436   -3.58898   -6.08945   -2.11178    3.55683  -0.749257  -0.063524    1.34727    8.66091   -2.05148    11.1508   -7.62169   -2.73349 -0.0322049   -6.54058   0.845987
  -1.47714   -6.12566    -4.2008   0.742567   -4.65905    1.26299    4.33509    3.73182    4.53875   -3.92914    6.54523   -5.77999   -1.04147    5.13046  -0.402899   -7.23015    8.02758    1.87667   -6.12913   0.580081   -7.82298     -2.949   -9.25473    4.85681    2.22913     -4.707    4.48044    8.49281   -3.27446   -3.35291   -4.27226    -6.6965     3.1882  -0.526516    -6.4496   -4.44811    2.10598    0.75062   -5.61785    5.99568    5.36898   -3.69366    11.6639    2.18164   -5.52389 -0.0711627    -7.7481  -0.822284    -11.833
  2.26601   10.2066   5.73372  -2.12657  0.870664  -2.89205 -0.436138  -5.52853  0.744442  -7.60955  -6.15931   1.30787   -5.4036  -2.53538   -11.867   6.38718  -2.58378    6.4806   8.72115   1.38204   1.51289  0.790459 0.0209788    1.7416   9.40639  -3.13563   18.4091  -4.27284    1.7372   -9.8935   9.57352   1.70278   6.16983   -8.8568   6.17195   3.03265   9.10473  -5.56539  -2.83638  -3.20255   7.80342   4.55707   4.55681   10.2244  -4.04067 -0.839664  -9.63049  -6.77889  -2.13773
  9.77745  -4.25218  -4.14967   4.04603  -2.89205   1.36245  -4.49152  -5.88328  -12.1234  -57.0236   1.99781   10.8028   -2.4823   4.76951     5.733  -5.62757    6.4806  -1.81776   1.13998 0.0341884 0.0731955  -44.6721   3.80596    20.473  -3.62876  -9.27168   -4.4382   4.35978   -9.8935   1.41463   1.66642  -2.45171  -5.04912   101.444   2.26428    12.229  -4.23816  -1.29452  -4.75395   3.70648   4.55707   3.45425    9.1788   6.10345  -2.98127 -0.377806  -6.93824   1.27714   3.04241
 -13.3493   2.01498   -6.0581   9.72542 -0.403483   2.07795    5.0766 -0.489037   3.66421   7.98639   6.89012   2.21581  -10.2327    1.5222  -4.64158   8.67445  -2.81936  -5.58552  -7.72709  -4.73255   3.27779  -12.1595   6.96124  -5.93706   4.63411 -0.688195   2.10287   7.81145  -5.19954   4.50564    1.4384  -9.45147   2.94825   2.26987   13.8098   4.79178   3.46202  0.934498  -7.97527  -2.94858   2.38084    6.5039  -6.83949    1.3093   7.76742   4.32517 -0.243551  -6.13861   5.35748
  0.349492    -7.8658    5.45102   0.229317    5.72074   -1.85116   -8.66268     -7.692   -22.4445    4.31753 0.00643558     8.6747    8.67858    -7.8624   -1.43081    3.88843    5.66804    4.08364   -1.66203   -1.49498  -0.104597    4.21614    3.87367    1.91052   -9.21579   -1.78846   -6.84686    4.10793    1.28399   -5.98048    1.88637    1.67778    22.5404   0.919259   -3.81261   -1.85419    1.67854   -3.17249   -4.13292   -6.19469    5.44793   -5.42706   -7.76473    9.08403   0.925841   -1.44158   -1.28655  -0.340035  -0.703679
  -12.0329    7.95053   0.555706   0.423617   -1.92148   -7.30378   -6.03017     6.0037    9.16932    0.57669     8.9094   -6.06178   -5.29031   -8.94936    2.54087    2.98979    4.04467     4.8372    -2.6428   -6.75031   -10.3428    2.62566   -3.03363    4.01279   0.313834   0.759781    4.59311   -7.51607   -5.95507   -3.27078   0.157655   0.526841   0.738295    3.49407  -0.715826   -2.71286   -3.67497   -2.57741   -6.33845   -2.52083   -4.16588   -4.28232    7.29394    7.23443   -2.50836    6.06101 -0.0192955    5.15174    8.97846
  7.97035  -10.5601  0.423617  -4.15235   -6.7241  -3.15349   4.40391 -0.974697 -0.788447  -6.27932   -5.6468   3.20299  -11.4919   8.10257   2.98979   5.77711   6.50441   3.92845  -6.27442   2.50583  0.426705    4.8247   5.49343   2.93507   1.08836   8.68047  -7.51607 -0.567853   -2.9941  -9.80118  0.590726    4.7687   2.03503   5.16849  -2.52433  -6.19973  -2.85756  -3.31208  -2.52083  -0.90214  -4.63092  -9.92101   6.04697   1.54957    3.1915   5.53689   5.47865   1.45138  -13.3045
    4.26685     1.23568     -4.5568     2.44847     3.65914   -0.691834    -1.11849     -3.9181     -2.6601     1.89653    -1.91259    -3.48442    -6.12952     9.06302    -2.40766    -2.90335    -4.36454     1.85899     4.94067     5.65993    -19.7968    -1.88185 -0.00269219    -3.13679    -5.38613     -1.2464     6.96091    0.572936    0.855434    -5.60458    -6.63836     4.96521     2.73095    -5.80273     1.88644    -6.59389    -4.94089     -4.6738    -4.91827    -4.56722     3.00946    -4.92765     1.62582     5.34665     2.12482     7.86924    -2.28723    -3.98072      7.2345
   -4.85161    -4.06469    0.160213    -2.76238    0.043418     5.04876    -1.24838    0.201947     2.42179     5.23394    -6.25144     4.86261     9.70262    -3.38644 -0.00721556     5.51548    0.391824    -3.78658     2.56145    -4.81668    -2.40977    -3.92392    -5.21859    -9.70703      2.1125    -2.50012  0.00913674     1.13848    -6.95895     5.27328     3.81007     -5.1192    -5.29579     5.46561    -3.82794    -2.55933    -5.45604     2.38648    -1.33974     7.65489    -8.38741    -7.47344     4.09552    -1.75121    -1.45917     7.18746    -1.57599     1.07776    -11.6497
  -10.2259     11.692    -3.8875    2.94588    1.92985    1.29875   -4.74453   -1.37273    -6.7534   -10.6206   -4.76542    3.35659    5.11453   -5.09188    -5.8355    8.17369  -0.835605    3.62722    4.58131    2.26719    3.17187    5.33518   -7.16442    9.41529   -6.49014   -2.44459    -2.8714   -3.35677    2.77038   -1.50181   -9.66271   -6.85604    1.40092    2.19017   -3.52788   -3.90995 -0.0191969   -1.11372    2.50438   0.452085    6.65092   -5.45605   0.643179    5.29327    3.91328   -1.28583   -2.06729    1.68401    -20.102
   5.28959  -0.154015   -19.7858  -0.189382    1.69858    2.70913   -1.37273    4.29096   -1.45944   0.709786    3.90873   -7.08351   -3.12723    0.10117    17.4595 -0.0433428    3.97292   -7.28807    2.26719    3.15235    5.04087    4.39744    9.12212    6.25706   -8.43173    7.09835    2.98949 0.00237212   -1.99702   -10.1573   -6.85604   -7.45455   -6.66233   -7.27762   -4.59762    1.06721   -1.30065     1.1949    1.29021   -1.32765   -8.32814   -2.27982    5.29327     4.4066   -1.31351   -2.15865    3.60238   -3.62568   -7.44066
  -2.32951   -6.72205   0.239606   -5.26876    2.74433    -6.5398    4.23044    4.92376   0.709786   -2.08359     -8.019   -5.02065  0.0370543   -5.98437   -1.75161    7.23845    -7.2391   -5.82653     3.1991   -3.34867    4.39744    1.77899    5.45531    1.47709    2.42951    1.91988    1.98971   -4.58961   -10.1487    1.86629   -7.48927   -1.71747   -7.27762    3.85605    2.80159    8.32266   0.409517    5.54871   -12.6532 -0.0311374  -0.802218   -5.74377    5.02156    6.35197   -2.15865   -7.76701   -3.92683    8.72953   -6.46048
   -7.47798     3.64032     -8.4432    -9.03807 0.000800708   -0.809078     5.34561     4.42807    -2.12756    -7.16112    -4.44169     2.25085    -3.58296     2.42058  -0.0644062    0.305679    -1.37164     -3.6855   -0.242442    0.186746    0.256324    -3.43142     1.60491     8.69522     5.65359      6.6198    -2.70658     4.76061  0.00317064     6.22365    -2.81816    -4.67013     1.12492     5.41236     9.49898      19.821     6.98245    -7.73765  -0.0280505    -6.67106   -0.232019   -0.679092     13.0054    -6.16614    -4.42604    -7.29576     9.70151    0.420071    -7.26739
  4.13962   6.97362  -7.72729   1.68529 0.0283062  -2.62006   4.42807  -10.9195  -6.29945   4.15872  -42.2237  -3.89964   1.68452  -6.06449 0.0414106   1.77479  -5.42543  -1.12436  0.186746 0.0435095  -2.18436  -3.57643   -14.489  -3.05323   6.33146  -14.1062   5.26643   5.53665   5.23889   3.75059  -4.67013   7.45394   6.33992   10.3805   42.4838  -7.84219  -7.46056  0.967142  -6.60738   6.74663 -0.574557  -4.13787  -6.16614    4.6527  -7.54894   2.03404   1.12539  -3.98772   8.37433
   -25.8142    -4.46131     1.24789    -2.86574    -1.55229    -5.16125    -5.23268    0.516563 -0.00406644      4.7743    -3.89964    -2.26178     21.5429     3.72476    0.212203    -5.73024   -0.203807     4.31757    0.235611     1.17603    -1.86034   -0.163308    -3.05323    -2.05712     13.1297     2.31838     2.33511  -0.0513059     8.45688     2.58946     5.47345     5.28985     1.88733     5.01794    -7.84219     4.33955    -2.14396     5.33723     2.73397  -0.0548085    -7.63585     6.05368     3.26344     5.55961    0.485147     1.63409    -3.98772     4.04384    -14.6325
     0.68745     -5.59623     0.621028     -2.75958     0.856988   0.00151897      2.58898   -0.0110857      3.34338         4.49   -0.0202379     0.229561     0.689993     0.518411     -5.74287     -1.85961     -3.28875       1.0527     -4.59701      -6.5558 -0.000896637      4.53365     -11.0134     -6.59154     -4.00275     -7.72473     -7.48434     -6.81117      4.66396    0.0718285      8.98321     0.322908      3.32335     -9.24152     0.643405      7.95642     -1.29934    -0.546737      2.89568     0.180831     -3.10973     -3.59794      8.83167      7.53238     -5.69175     -4.07958     -4.17204     -5.15545      -3.6583
   -6.18538    -9.22648    -5.30809    -2.85806  -0.0891985      1.8188    -1.30528    -1.96812     4.46667     7.55138     -3.7124     13.2138    0.959566    -10.4875    -4.14413    -15.7234   0.0220011     6.69783    -7.16735    -4.07024     4.51161     5.90371    -3.43309     15.0266    -7.20039    -4.04747    -5.10022    0.307106 -0.00310511    -9.07346    0.139607     7.90395    -9.32265     7.26181     7.13633     5.79892    -1.98803    -4.96235     9.03539    -3.78293    -3.42467     7.69063      8.2594     7.34473    -3.25424    -6.34921    -4.44622     3.45951    0.772834
 -0.294901    3.11722   -7.89768    1.40936   -9.27319    -6.7769    8.81333   -8.28408  -0.354428   -3.06718   -7.34562    3.27722    2.42154   -2.09471    -6.0846    5.11332   -7.12784   -5.17748   -71.1895    2.81027   -4.81173    24.8297    2.37224   -1.77579    1.17411   -5.43921  -0.448963    8.66529  -0.507672  -0.334577   -35.0247   -17.9689    5.50787    12.1741  -0.372279    8.49364    2.58408   -3.05185    6.59809    8.33159   -7.88839    3.08183   0.687217   0.303535   0.653848   -2.23268 -0.0337683   -5.42289   -4.56857
  -2.97126    1.73443    4.28833    5.90167   -1.59809   -4.31557    4.24366   -2.99789   -2.49951    6.85299   -8.35528   0.662555   -6.58558  -0.670181    5.80579   -13.1553   -2.99715    5.57669   0.552006   -4.33489   -3.78734    4.39889   -5.37115   0.562715   -10.1594   -4.40265   -6.05076   0.359668    4.59232   -10.1902    4.80556    4.45915    3.85713  -0.887487    1.08621   -1.55613   0.274933   -1.49683    1.51886 -0.0245645   -5.76956   -2.44171    7.42284   -5.87663    4.40015   -6.91709    5.64088    1.67443   -5.01983
   -5.3927    -5.6568   -3.28234      1.241    5.89479 -0.0206611   -2.62797   -9.99655  -0.954479    9.69991   -2.92383   0.223542    7.91168  -0.189941   -2.27944    -4.5841    2.88753   -1.44612     3.8493   -5.29853    3.52037    4.77915    4.50029   -4.28465    3.35329   -5.27365   -6.48765    2.34425  -0.347469  -0.235101    1.63223   0.569184   -1.80033  -0.570633   -7.50401    4.50611    2.17022 -0.0753228   -1.10087    4.19594    7.00757  -0.121266   -4.48912   0.405152   -5.51184   -4.70405  -0.777656   -5.01096    13.5741
    3.46408     5.74788    -8.96773      5.5888    -4.14115    -5.15426    -8.16054    -2.34638     7.92315 -0.00204469    -7.08641     -3.7495     3.40473     3.30357     2.22902     6.14903     1.69816    -3.70146     -8.9988    -12.3335     -3.9378    -16.1805     3.36318     6.25191    -8.41997    -12.6958   -0.198766    -3.62372     4.81872     9.63245      5.2971    -2.07368    -9.54109     16.1481     8.44231    -9.66067    -7.90291    0.337671  -0.0338926     1.61852    0.975218     4.77795    -1.11476  -0.0217384     1.92354   -0.937248    -2.73957  -0.0877957    -5.53136
   -1.15101    0.178646     2.51065    -3.23626     3.96494    0.371014   0.0412974    -2.11921    -2.14109    -4.67227  -0.0663646     3.66582 0.000311336     7.50295     2.79784    0.111174      -5.229     6.07049     7.50097   -0.815607     1.22297   -0.308019     3.58811    0.706859     1.13993  -0.0262978    -5.32206   -0.132375    -9.61691    -6.64319     7.70948    -3.00031    -4.95019     5.04849    -3.68636     4.36587    -3.06375  -0.0431372    -3.99421  -0.0930867    0.899451    -4.75408     0.34856     8.94741     1.60921    -2.93267    -1.46252    -4.74009     37.3478
   3.44854    13.6078   -2.65414   -7.38669   -2.40887    1.28775    2.25937   -2.80141   -7.54413    10.1043   -2.00583   -12.8006   -4.98088    -19.655  0.0820714   -3.84422   -3.60126   -3.02571    2.11595  0.0808802   -3.95522    5.70663   -2.44462   -11.7715    6.91274    27.3086    1.46077    4.17808    8.69914   0.101716  0.0169798    1.54541    4.25864    -5.6209    5.19278   -0.26238    -4.8561    1.22173   -8.98096   -6.85075      5.259 -0.0867091   0.663517    8.46772    7.42486  -0.551029   -8.29497  -0.128445    -4.4222
  7.50217  -5.03562  -1.71225   1.55618 -0.165209   -4.5263   5.75359   4.06642 0.0998697  -6.85712   -6.8621  -6.66657   -3.4112  -3.49667    1.1339  -2.83007  -4.24787  -2.15046  -3.14045   4.43586 -0.470967   9.11941   9.13293   3.04128   5.63511   8.50957  -6.44301  -4.85866  -5.78539  -11.6115  -10.2431    8.4723   73.2925   3.75346   3.76084  -5.01764   -1.5625  -8.41966  -7.85881  -0.74894  0.283566    3.9821 0.0716955  -7.60971   1.82873   8.63834  -8.64405   1.72299   11.8853
   -4.4612   -3.09941    1.55618   -5.13822    -5.8743    1.90256    4.37418    3.93221   -2.81071   -1.62762   -3.63491   -1.52563  -0.502329    2.70765   -2.83007     2.2816    -3.5495   -3.19226    6.84041    6.15926   0.113453 -0.0882117    2.05352   0.855018    10.1381   -5.85847   -4.85866    7.43398   -10.3037    5.12517    8.38797    7.55837    2.93855    1.75669   -6.99314   -3.90202     -9.452    2.32555   -0.74894    6.26207 -0.0713227    5.96363   -7.95248    8.78988     5.2266    3.95388    1.09679   0.325341   -2.43898
 -3.21784  -14.4539  -1.75258   6.07366   3.85552   3.20455   2.88843  0.560718  -5.63583     7.746  -1.80144  0.841878    2.6127   13.5239   5.81169  -5.67941  -1.83926   1.95471   7.40548  0.529767  -3.44182   19.8565  0.810241  -1.62829  -5.84478   3.11588    7.5706  -1.30859   5.94368 -0.650554   4.04568  -4.27462   1.14329   10.8384  -3.91548   8.34146   2.38546  -1.56672   6.39453   3.69052   7.09477  -9.55749   6.88024   9.20899   5.39412   -2.5774  0.341563  -9.68614  -9.96309
  0.316324  -0.509551    8.74522   0.531966     3.4555    3.91501   0.560718   -4.98079    10.0537  -0.558864    1.68685    5.82985   -1.62369    0.14579   -5.82167    1.69844   -2.29561    7.86912   0.529767   -3.47932    20.2242   -5.10578   -2.13461   -1.78664   -1.84515    4.58791  -0.176134    2.21791 -0.0695947    0.70191   -4.27462    8.49525    1.80024   -7.81123    7.28615     11.435  -0.531504  -0.688662    4.76822    -3.5266   -12.1514    7.17766    9.20899    1.43183   -2.80862    5.46774   -8.58932    4.00681    16.6428
 -0.609019    6.95703   0.896432    7.36196    2.34934   -2.21475    -5.8461   -8.76399  -0.558864   -5.78998    6.18145    7.15133   0.118761    -2.4689    2.45356   -4.60161    3.53632 -0.0622418    2.96699   -13.2225   -5.10578   -6.18216  -0.628392   -4.79741    9.53225   -9.53069    3.33487    8.94152    0.59482    2.31181   -6.74165   -2.20395   -7.81123    12.0451    7.87021    8.87963   -1.26108    0.86664   -5.40985   -7.60075    4.52246   0.676097      2.612   -1.22585    5.46774    1.39404    2.99825    5.64604    4.19428
  6.75271   8.03984   5.87497  -3.76784 -0.119125   18.4639  -4.44899  -1.60256   2.21875  -5.26431    5.2248  -7.83903  -2.27373  0.781126  -4.62438  -4.34503   4.03351   3.35316  0.119355   6.79771  0.219627 -0.964035  -3.15838  -1.41064  -9.73789   8.84212   10.2693   8.01344  -4.21142   2.49047   -9.8088  -9.24096  -2.42188 -0.711723   8.02505   9.06309   1.52194   4.32168   -8.2289    6.4139   1.14704  -1.08451 -0.111165   2.19677  0.350203   3.74621   4.95579  -4.05308  -4.49517
    0.64509  -0.0783048    -1.78332     5.75199    -1.34688 0.000840547    -11.2547    -3.43027    -2.78879     5.88487     5.73972     5.76968  -0.0509348    -3.94996    -4.71533     -3.7647     3.47744    -19.8366  0.00646439      1.8785   -0.896611     3.12048    -2.83418     5.72153    -7.15232    -4.37162  -0.0924826    -9.68839    0.119376     19.8226 -0.00143699     5.31622     -4.4603     9.73998     8.68544    -11.5502   -0.461448     1.65572  -0.0379445     2.27859  -0.0501581    -1.58505  -0.0263326     3.65374      0.2319    -5.34563     7.62699    -2.49239    -1.12126
   7.27424     8.9501   -4.47116    2.57733   -342.303    4.45507    8.48521  -0.722728    1.40644   -1.02991   -8.59545   -4.51418    10.1597    1.59382   -0.76538    -3.8722   -14.1203   -6.70228    9.33974    1.80138    5.24185    9.38539   -1.55776   -4.95561   -5.83839   -4.89572   -9.58157    1.90493   -420.568    3.29965    5.86241    2.53587   -8.80644    12.8003    4.71849   -3.11439 -0.0252319    -2.0354    7.75037   -10.4118 -0.0112993    5.97774    2.37324    7.43383 -0.0929731   -3.45592    2.11038   -4.49524    2.59524
   5.93656    4.97924    1.17759   -8.85414    4.80906    2.96226  -0.874412   0.805229   -5.75422   -2.08897   -7.02209  0.0729768    7.49327   -3.85133   -1.95211   -8.20802   -7.82763  -0.320656    1.54671   -5.79837    9.29343   -3.66378   -6.50323   -0.93546    -4.5631    8.82615    1.23301   -4.47153    5.14534   -3.52285    3.43386   -6.57095   -6.17398    5.74268   -3.54475   -1.92579 -0.0274703   -5.10495   -7.10129    7.75146    7.47362  -0.611521    9.40223   -3.60681   -4.83498   -2.86922   -9.80078   0.698155   0.511184
 -6.12994   3.89717  -1.19452  -11.8363   1.57612 -0.611169   3.76436  -3.97942  -1.85332   1.78033  -5.55256  -4.53892   1.03002    1.6854   1.14427   2.01926   3.63276   -17.416   7.48708  -8.44078   4.86082   50.3884  0.939984  -2.46842   5.19269   -10.226  -7.35816   10.2945 -0.516423  -8.95713  -1.09965    1.2216  -8.23091   25.9208   4.79213   6.97848  -3.09627   17.7513   8.14142  -2.59749   -4.9994  -1.72795  -2.82362   4.63068   16.7862  0.593226   8.89497  -3.77016   6.42811
   7.32919  -0.127238   -6.01615    11.0505   -12.3466   -6.89034   -5.13119     1.0825    2.95152    8.86918   -8.18724   -7.53785    3.93971    3.40234    3.25343    9.95832   -17.7811   -6.20828   -7.38663    -3.5798    38.7878    4.46851    -4.2598   0.322905   -6.93424    3.56129    9.24665   -3.80664  -0.269608    2.37327   -0.11061   0.084902    42.1977   -8.11304    7.61621  -0.593421     2.5699    1.34956   -2.14026   -4.74423   -1.83093    7.60793    4.39141 -0.0662847   0.773971    2.07315   -4.55854  -0.036167   0.033286
 -4.83549  -2.34389   11.0757  -4.55919  -7.54015   -5.5954   1.34213  -4.98205   6.58021   7.51167  -5.95269   3.79573   5.83449 -0.554311   11.1118   5.93057  -7.56704  -6.63183  -1.60177   6.33849   7.79731   5.08216  -4.02963  -1.61882   4.17429   2.89938  -3.87949   4.14855   2.64181   8.11895  0.774935   4.46114  -9.54967   3.48733  -2.76464   -5.4568   2.04033      4.43  -5.77573   5.03417   8.46481  -5.72468 -0.138564  -6.61878   4.85315   5.61809  -7.11977  -2.77002  -7.10307
   -2.26396     1.34602      2.4344     7.96116    0.445974    -1.41211    -4.51365     -4.1576 0.000620293      2.2713     1.06376     -7.9149     7.41272    -4.11491    -2.19607     4.91592    -1.30437    -5.05437    -2.35022    -2.43976     5.67825   -0.188524    -3.48923    -4.75595     1.95572    -5.67873     6.72378     -2.1056    -6.06825    -7.81778     6.87315     1.03087     5.69103    -9.08276   -0.925956     2.02331    -2.62368     5.07147     -3.5058       2.756     7.42045     3.26321     4.31593     5.09576     1.43692     3.67195     5.48016    -5.48621    -2.28688
  1.34139  -9.87046   3.13611 -0.357883  -1.41211   1.56194   -5.9524  -12.2316    2.2713   1.00229  -2.76723  0.932923  -4.11391  -4.69102   6.25406  -2.29624  -5.05437   3.55178   -2.8478 -0.429014 -0.188524  -8.79334  -5.92481  -3.58225  -5.68593   2.20951  -1.28751   7.80764  -7.81778 -0.798869   1.33704   12.6746  -9.08276   10.4978   1.26949  -4.58038   3.36449  -3.84418   2.03864  -7.83321   3.26321   3.25393   6.32838   1.57015   3.67195   4.75255  -4.14855 -0.218199  -2.35357
  -3.32874   -24.0026   -1.58645    3.80936   -2.20372    2.75772   -9.53787    9.19942    2.43292  -0.235654    2.51164    -2.7514   -3.47242   -2.26902   -2.62973   -4.68359    5.75072   -7.18675   0.314248    9.73508   -8.67658   -8.54953   -2.34035   -1.12775    2.67345    48.4135    7.49164    7.92748  -0.658761   0.822766    10.2682   -7.49866    10.7573    9.39995   -6.19716    6.74427   -2.65331   0.794968   -7.63497   -3.14589    6.35346   -5.12539    1.29661   0.930008    4.87445    5.57684 -0.0637071   -9.47782    1.69086
    8.55303     1.30011    -1.95852    -5.50096    -3.08988     8.41409    -5.96543    -2.50566     2.60293    -6.19579    -3.43545     2.22132     8.30194     1.73511    -3.66161    -1.29802    -1.26712 0.000703106    -0.74603    -13.3382    0.624843    -5.99608    -17.3204     11.7993    -9.02549     9.00967    -10.0319    -1.73675     4.36235     8.41005    -8.45825     4.54885    0.828021     6.52858     5.74533    -3.98846      5.0687     1.60158      4.4738    -2.37003     8.12273    -3.10959     0.76802     2.17411     4.90147    -7.01465    0.491278    -3.20581     6.29283
  4.31508  0.261916  -1.45701  0.357979   6.87449   -4.1389  -11.7434 -0.676274  -5.08622   6.93503   5.50154   9.64595  -4.82473   5.97837 -0.345077  -1.91307 0.0189878  -4.79897  -12.3371   1.62566  -5.10949   4.62327   6.55143   6.43586    11.757  -6.32531  -1.82756  -2.43375    6.8466   5.01436   13.0135 -0.109487   5.40643  -5.01985  -6.77876  -6.99561   2.08411 -0.510525  -1.25097  -4.90888  -2.57721   -5.6566   3.87065 -0.193165  -6.04603  -7.35415   1.57546   5.26121   4.81299
   1.59587   -3.23705   0.357979    3.45155    1.14889    2.46612    1.84466   -2.17262    7.39171   -3.74913    10.5257     1.1838    4.98081    2.87232   -1.91307   -8.39125   -5.75592   -6.00071     1.6801   -4.20524     4.9069   -1.65111    6.99475    -5.8712   -7.18509   -6.19548   -2.43375    2.78436    6.63122    1.99693    3.44785   -8.59394    -3.9403    5.62168   -5.62174    6.77637 -0.0975156     6.2911   -4.90888   -3.89062   -6.47158    5.38957   -1.22276    2.96635   -4.62121  -0.666889    3.21734    6.20695    9.86184
   -15.2473    -5.34978    -4.60911    -21.8783     4.70804     -2.7027    -4.08352      1.8074     1.33929    -4.31981     -1.6202     -1.2044      4.2103     10.9295    -2.56724    -8.64996     -3.6456     3.28772     5.02515    -6.01792    -4.46457        8.82    -9.63874    -7.14668   -0.208555     3.51641    -7.40594  -0.0373985    -7.99913     8.28541     9.60753   0.0379175   0.0309332     2.83677   -0.798345   -0.591399  -0.0115062    -5.58047  -0.0362841 -0.00758565  -0.0720329     8.14735    -5.34807     3.87754    -5.26438     6.90605     6.42118    -8.67391    -15.0288
   -7.12816      5.7259    0.668194    -3.77841    -5.13774   -0.312447      7.6293   -0.887781    -5.19153     10.0589    -9.33714     -2.4282    -3.93656     3.44272    -1.35992 -0.00268566    -5.65758    -2.14447    -7.71834    -4.26519    -3.12656    -10.1677    -5.15521     2.74377    -4.20049    -1.18975   -0.322487     3.77458     13.7494     2.43764     6.47907      5.2156     1.07699     8.53859    -5.50195    -5.16176      8.8407    -1.46408   -0.192765    -4.15068     2.05053    -1.31318    -8.44588    -3.16208     1.57614     6.39483     -6.7716     -1.7767     6.58353
   12.4057    6.48791   -1.30384    3.46689     1.3465   -1.23075    2.68334    9.27319    3.62932    2.29062   -3.70818   -5.50886  -0.271909  -0.701689   0.096348 -0.0806143   -3.87331   -3.47036   -3.80619  0.0639451   -7.68965    3.95802    7.89638   0.111361    3.90365     -8.446    5.34067    7.78359    5.21786   -4.76756    7.00749     2.6212    3.43457   -6.36675   -3.51553   -1.71888   -2.67378   -5.99933   -5.16087     9.5907    -3.2899   -1.33324   -4.16857  -0.490985    3.63782     2.0582    -3.5805    6.78738  -0.497797
   6.48791   -7.19713    4.04116   -3.48367   -11.4108   -3.14953    13.7889   -7.01322    1.27358   -9.21397   -3.16496    -3.1537  -0.701689   -5.59747   0.220352    -4.3838   -8.81029    2.60899   -11.6483   -5.39191     3.0199   -5.50172    5.34162    3.78749     -8.446   0.940564    6.38142    7.88908    1.44864    6.36509    29.6049   0.868972   -7.25906    -5.9971  0.0926116    6.92792   -5.99933    5.60224    8.08565    3.22308   -8.61472    3.28277    -1.9977    8.23785    -4.4787 -0.0227824 -0.0579416   -5.13044   -2.15514
  -5.26101  -0.885579   -4.62631   -10.5925   -2.30547   -3.00094    -5.4153   -17.2601   -9.97547 -0.0861673   -6.76985   -2.87573   -4.72266   -4.65619   -5.53548    9.65357    2.96457  -0.987885   -4.75931    15.4189   -8.83142   -9.97842    6.14522   -4.41563  0.0860089   -5.55115     10.175    4.20876    8.92105    7.83033  0.0428621    7.00232   0.113863 -0.0680547    2.68902   -8.78119    4.69295     1.7289    4.13719    2.63303    4.44706   -9.71497    6.91829   0.158236   -6.25006 -0.0272379   -4.55262    8.86887   -4.59749
 -0.259265  -0.646594   0.784055   -0.54945   -3.13219    4.49332   -3.89077   0.654263    1.85281     5.6182   -2.87573   -2.95406   -4.79877   -7.93308    10.2756 -0.0352239  -0.890879    -1.8756    8.96266    7.16741   -7.76531    1.38535   -4.41563    12.3497   -5.07761    4.05939   -5.30305  0.0178209    7.42587    6.36098    22.4431   -3.58756   -5.86429   -7.00628   -8.78119    9.33798    1.28841    7.88484   -4.13645  -0.583575   -9.28396   -2.45967   0.686139    -2.8344   -5.63518   -1.19532    8.86887    3.52628    5.26431
    6.19505    -3.77654     10.6381     -3.1393   0.0666413 0.000923421     3.09888     -3.3223     5.19276     19.2786     4.51056  0.00125669    -6.72212   -0.509626     4.04167     -7.3475     3.00203     7.51166    -7.77226    -6.12054    -13.0195     6.54614    -4.87264     4.46408    -3.64804    -8.75003      3.8948    -10.5566     3.06918     7.06766     2.35776    -10.2026     3.94976    -7.84959    -2.64735     3.95679    -2.48323    -1.70984  -0.0208744    -2.76584     4.40497    -3.64196    -8.20557   -0.823868     4.87893  -0.0116983     3.39678     3.13718    0.951044
  -3.77654   0.712952   -3.03526   -1.69777 -0.0519774     4.1967   -7.90067    7.66339    80.7163    2.37334   -1.05927   -11.6723  -0.509626   -1.89639   -7.35581    1.22895    7.14517    6.55191   -12.4386    4.31009    45.3789    2.03316     3.5431    7.64388   -8.75003   -6.43179   -10.4946    8.10079     7.1762   0.743243   -1.41648   -3.18359   -33.4986   -4.41311    4.59465    1.08939   -1.70984    4.19238  -0.275322    2.34388   -3.64333     1.7197   -0.92492    5.23465  -0.498929     4.3337    3.36001 -0.0218515    -8.5128
 0.712952   4.90893   3.43384  -7.89496   8.93675  -1.48279    4.0157  -3.46588   2.20028  -2.80759  -11.5162   -2.7609  -1.89639   4.47971  0.751495  -9.36911   10.6102  -2.99503   6.01859   3.03855   2.11038   3.05418   10.1046   2.02828  -6.43179   9.38057   10.4633  -3.17495   3.58782  -5.24181  -3.73706  -1.07235  -4.31844   5.81541  -3.58068   10.1928   4.19238  -7.52205   3.09468  -3.49671   3.06929 -0.842891 -0.036544  -3.58237   2.31514  -2.05934   1.05369    2.5486   14.1593
   9.94184    4.23556     7.3417    7.56275   -9.58187    5.29023   -2.80192    7.14665    4.08161   -1.90443    6.05727    -5.1289   -2.64858   -3.12216  -0.308872    12.2181   -3.16028    2.57648   -6.54454    3.46026    1.35733   -1.08999    14.2188   -8.29316  0.0432273    8.57338    8.65481   -3.54776   -9.38862    6.01036   0.116258    8.11206    4.00065   -5.64826  -0.241152    2.41151 -0.0327772    7.03082   -8.74445    2.65493   -2.45007   -7.99541    3.18016    5.90173    5.76834  0.0169244   -1.48125   -3.92087    2.64293
 -0.477102   0.148633   -13.7717   0.602301   -2.50846   -1.77327   -3.34111    -1.0978   -3.23661   -1.15059  -0.673252     6.4592  0.0326011   -0.89085    6.89036   -4.12484    7.19616   -14.2257  -0.695201  -0.663302   -8.00441    6.48438    4.66983   -3.21901 -0.0329815    0.70158    13.2257    3.25421   -9.73433   -1.54386    7.72407    8.79494    11.2663    7.63697   -3.68167   -6.19415  -0.633064   -1.88395    1.76111    7.11304   -1.73128 -0.0206471   -8.35036    -5.3814     2.7128    4.28088   -5.95083   -3.77356    4.47599
   1.24311   -1.51651    1.15926   -8.36043    7.12253   -4.47348   -3.05821    6.09633    1.69331  -0.883472     5.4222    7.51821 -0.0733118   -8.90227   -1.48567    -9.1163   -10.3204    6.48715    1.51689   -9.12127   0.722903   -5.12232   -8.10101  -0.901646    1.24094    10.4653    2.64805   -2.75713   -7.40606    4.65297    10.2502   -4.90156    4.84702   -6.14811   -4.34215   -8.84337   -2.10732    2.28477     5.6009 -0.0281323   -3.49717    5.53518   -6.35739    3.50814    2.88412   0.362488   -3.96377    3.54116   -9.72126
 0.864132  -3.96405  -4.15647   5.59316  -9.49465   4.10736  -5.01169  -5.00827   3.59866   3.03751   6.19538   1.53579 0.0854947   4.94324   7.82579  -1.35519  -4.78131  -5.12139   9.40564  -2.53212   1.94649   4.39091  -0.29825  -7.08792   5.93028  -6.57375  -5.96913   12.3586   -9.1044   6.80943  -7.16822  -4.81571   9.08861  -2.00702   9.62558  -8.67273   1.97414   5.27991   7.74387   7.92658   -3.1673  -5.12012  -6.46373   5.95477  -7.90693 -0.052868  0.552988   1.63418  -7.31894
  -3.91464     2.8852     7.7564   0.951757    3.16474     2.5868   -3.41021    3.94426    4.74453    4.28615    3.21641    -7.9498    3.60558  -0.114897  -0.225793   -4.37319   -5.19239   -7.77408  -0.966115     6.3312    2.76749    2.49276   -9.68422   -8.54207    -7.3029    3.09022   -7.18272    8.32298    8.11845   -5.35685   -4.97968   -10.2765   -2.39449   -2.14929   -6.68195    24.9876    5.77551   0.364972 -0.0638669    8.98927   -5.76519   -7.94762    1.16192    3.40059    3.51086     -3.948    6.34659   -1.10136  -0.671599
    6.14322   0.0499311     1.19707  -0.0465749  -0.0777118    -3.77464     5.19651     -4.6746     4.51488     9.81264    -7.56225       4.075   -0.635696     14.1292    -4.45806    -7.20819    -8.73556    0.617418     5.64576   0.0134535  -0.0241593  -0.0796759    -10.0023    -5.68006     6.88009    -1.38424     8.30924     4.18006    -4.03138    -8.36157    -10.1823    -7.16226     1.11973    -4.36045     23.0594     9.75404    0.687391  -0.0117841     8.99741  -0.0186241  -0.0199766     8.23408 0.000769831     4.29139  -0.0525515   -0.019367   -0.965938    -5.42356    -3.18465
  9.90386   8.94694   1.24219  -6.38583  -3.77464   7.02708   -4.6746   8.37039   6.92584  -8.21922    8.8653  0.545168   5.68898  -8.08735  -3.48069   -1.2456  0.617418  -7.83602 0.0134535 -0.747401   3.98283  -1.60465  -8.36914   1.77331  -7.66778   8.59726  -4.77601   5.69834  -8.36157   7.47542  -7.16226   -8.1748  -5.37179   7.33566   8.68284 -0.170831  -2.25065   4.54051   0.19725  -9.04463   8.23408   1.43535   4.29139 -0.173122   3.21202   6.99587   -5.7451 -0.153222    1.3089
  -18.2896   -6.79354   -5.56718    5.92406   -8.83869   -4.65225   0.207727   0.650575    4.75016   -1.53506    -1.9123   -7.50662    6.06984     4.2297   -1.68907 -0.0272976    2.92903    3.69808  -0.129151    5.45486   0.122934   0.554842  0.0140607    2.47969    6.35647    9.71508   -7.25704    1.75159    2.90872    7.25544    4.44322  0.0753123    4.84968    1.89379  -0.566878    2.36801   -1.75809     7.7778    2.67669   0.800062    8.55556   -6.85587   -2.94176 -0.0594559  -0.922559   -13.6946     -2.591   -5.81494    17.3411
  -6.38843   -1.26676    1.52151    1.83261   -2.13526    2.47503    2.57802    14.8246  -0.461133   -2.98184   -8.11114    6.06232    4.61648   -11.3342    13.4636    0.18652    1.97862   -2.22804    2.89897   -13.4729  -0.415664   -2.70197    7.38667  0.0715471     11.006   -7.17524    8.53489    9.32147     6.0551   0.342048   -1.90705    1.85855    1.21825   -1.82896  -0.993488    6.10584    8.49092   -2.23336    1.87678   -7.87264   -5.35667   -5.53353 -0.0657524    5.04021     -8.132 -0.0739758   -7.55462   -1.73449    10.3763
    0.850686      -2.3106      2.93791      -4.2054      5.17808      -4.3341       13.466   0.00342465      3.76831     -1.58953      1.30641     0.252631     -7.73347      6.05845     0.973577      2.35589     -4.64416      1.26477     -12.0836    0.0900331    -0.726202      -2.8023     0.303585     -2.58471     -10.7235      23.9321      7.76045      6.55655     0.282821     -6.84835     0.736281 -0.000227312     -6.49395     -5.17848   0.00598728     -5.32071      1.26812      3.72055      -6.6746     -6.75296     -7.31554     -5.22663      2.80499     -3.20767     0.100961     -2.68765    -0.198688     0.241873      8.09729
    0.81101    -3.66781 0.000505604     11.5288    0.660785    -6.13204    -28.7503    -3.94869     7.15528     13.1459    -6.75842  -0.0578019    -1.94479    -0.62677     7.21565     4.24676    0.014971    0.406641    -10.5915    -5.92817     10.7444    -5.63656    -1.39615     13.9524     2.74814     4.33055     7.21175   -0.802582    0.681568     6.80851     1.99755     4.21569    -7.63844   -0.665179    -10.5354    -1.26278    -4.42657     8.23492    -8.39479      6.1333     2.70353     9.27825    -2.46567    -4.60692     2.53896   -0.013729    -1.27657  -0.0192557    -2.58406
    4.53024   -0.836479     8.64295     8.73758 -0.00821336    -1.01403    -8.23546    -3.71306    -8.46462     4.10418   -0.291264    -9.35542   -0.652324     4.34372    -4.96079    -5.24585    -22.2006    -2.63025   -0.122765     1.87017     1.22372    -21.3413    -11.7015    0.543608    0.753163    -0.20231     7.63497     7.81526     22.1834    0.451205    -4.77017    -3.17097    -1.41061    0.988768    -6.59924     3.74421    -5.10396     -3.8745     8.42888    -6.08841    -1.04562  -0.0480849  -0.0169147    -5.29809     2.71599    0.782012  -0.0128438  -0.0181825     10.5882
   -1.48796    -7.31725     7.02765   -0.219739    -0.98534     31.7594    -1.03639    0.653824     9.82733      5.2384     -3.3379    -1.89945     5.91543     5.93177    -5.69062    -6.05829    -1.24539    -14.3813     4.36405   0.0924518    -38.9103    -2.53149    -1.11342    -2.93038    -1.12149    -5.82192     5.58684    -7.76102    -2.21614     57.0457    -3.02255 -0.00542471     7.41422     7.78064    -8.81616     8.43497    -5.81377     4.78691    -4.98206   -0.298728    -3.07875     1.76718  -0.0366259   -0.485236    0.876947    -7.25549   -0.120585    -4.42734     15.3506
    -10.6152       -5.405     0.460708      4.48625      13.1669     -4.12789  0.000621234      5.11092      5.51304      -2.1833     -1.26108      305.924    0.0406013      3.07175     -6.56885     0.902488     -1.23472      5.97571     0.417148   0.00578058     -2.51511     -5.25501      -3.2391     -63.7527    -0.872237      8.46922     -7.27486     -5.27721      48.1409      24.2972 -0.000541996     -11.5453      8.02442      7.30079      8.73696     -411.538   -0.0299945      -5.0902     -3.74168     -5.42356      1.57325     0.935123    -0.770278      2.25614     -7.49738      4.10286     -4.58647     0.637116      15.9696
   -7.60086    -1.66237    -1.70936    -5.86527     8.23611   -0.786286    -5.64517    -6.36688    0.301442     1.95186      3.0664    -1.28931     5.97211    -8.74454     3.14734    -1.09124    0.599585     2.35064 -0.00515368     4.99918    -6.84144     10.2943    -2.94883     -1.2678    -2.32521   0.0165332    -4.65111    -8.13997   -0.274186     3.12701    -5.62235    -1.94933     7.10764  -0.0192373     5.73516     6.26701    -4.35276     3.42479    -5.25135    -2.22152  -0.0322489    -3.83111    -1.25683     5.18507    -9.24723     -2.9371     4.96557      7.4816     3.32849
  4.08787 0.0924813   8.70231   2.32748   -5.7984   -7.9048  -4.30711   1.18802   1.41905 -0.874286    -3.823   7.81969   1.38428   2.90412   6.80406  -3.17195   3.54332 0.0351259  -3.34956  -0.60955 -0.161489  -2.99068  0.651031   6.11678    5.4529   3.20667  -3.40655   5.46383  -9.47792  -8.58237    -9.637   1.83295   11.8125  -4.76391   4.44352   -3.0618  -6.05328  -1.61166  -7.99791  -5.41966  -2.33422 -0.292328 -0.609189  -3.92631   8.80573 -0.789739  -7.77855   8.87578   6.44501
-0.0108414   0.226394     2.4149    4.02128   -13.4435    1.27495    0.22267   -2.37791  -0.809779   -2.10719     6.9863   -8.58947    3.92916   -3.52583   -1.01956     2.6391  0.0490096   0.137276   0.848737   -3.92161   -2.84428   -1.18122    3.87669  0.0145699    3.87569   -3.94529    3.53461   -6.82847    5.93004   -1.93843    1.05806   -6.48729   -4.88226   0.619971   -2.04792    3.79455   -1.90218   -3.86272   -4.12014   -1.17489   -3.90914   -2.01816   -2.92501   -4.95193   0.122516   -4.96594    1.47402    6.09058    29.1264
 0.730694  -5.02237   3.24223   5.72215   3.18686  -1.08549  -2.37791  -0.61727 -0.510711   -1.0796  -7.77131   2.55113  -3.04632 0.0697727   1.95029  0.169018  0.165457   3.28655  -3.92161 -0.577921  -2.34055   7.77097 -0.201933 -0.916914  -3.74837  0.913798  -7.54364  -7.48133 -0.786579   4.38143  -6.48729   1.17298    2.8578  -9.94644    1.7237   5.49061  -3.79981  -3.22332  -1.93908   4.29399  -7.71241  -3.18308  -4.95193  -4.42497  -6.22656  0.964661   5.20348   5.88794 -0.470725
  -4.99371    2.10419    5.72215   -7.84037   -1.10652   0.617902   0.335001  -0.022502    -1.0796   -8.60188    1.11961  0.0214102   0.821016    4.23092   0.169018   -4.02744  -0.717204   -9.30673    -5.0802    -6.2275    7.77097   -4.42092    2.93868   -3.66468  -0.162198    6.33181   -7.48133   -3.34784    2.99476     3.3432    1.82526   -1.65514   -9.94644   -3.68322    5.45459   -3.74643 -0.0522116   -4.76465    4.29399   -1.95121   -2.72057    3.22453   -5.94398 -0.0335224   0.964661    1.76878    6.12747   -2.29585    5.97679
   5.91946   0.858224     1.7369    10.6926    -1.4578   -2.71195    -8.2044   0.710054    1.95479   -4.17822   -1.74964    1.22432    2.62455    6.13404   -3.65105    10.2897   -14.0523    4.16228    -7.8869    6.91259   0.724028 -0.0020657    3.66458   -4.23334   -4.26485   -9.52739   0.960838   -3.46679   -7.69842    6.93967    2.65902    3.78506   0.634635    4.19208  -0.965593    5.47067 -0.0312021   0.248306   -3.67875    3.99656    4.45206    4.41092   -5.21305   -9.06878  -0.142187    4.95232    3.59053     2.3768   -11.5729
  0.764454   -4.03668    2.89146   -8.24566   0.957569   -2.78983    4.88249    4.28528    5.11234   -15.5169    8.08519    79.3943    6.01778   -1.21692    10.8538   -0.82371    7.53632    1.01641   -4.94252   -4.28052   -1.18599   -1.54778   -6.63243   -68.0264    2.20284   -1.46639   -3.81532     2.6867    2.75832   -12.3668   -1.40825    3.52727   -9.59139    5.05497    6.13715    61.3059    8.12259 -0.0395604 -0.0146296   -5.23298   -6.50601   0.172904 -0.0207781     3.0355   -4.36571    2.77067    6.29476  -0.806231    1.18454
  -6.84788 -0.0549361      -7.64    -6.9334   -14.0128   -5.68162    5.48969   -9.20686   -14.3032    5.58794    40.7509   -6.28065   -6.88051   -0.38701   0.684268    7.61394    15.3963    1.07804   -6.69448   -9.31266    1.29273   -7.15858   -49.5924   -6.18268   -1.48265    7.22699    3.66362   0.596229    1.20352   -6.81527    6.06516    -1.9924    6.86268   -5.23426    44.9566   -1.36676   -9.39845   0.555051   -5.40828    6.80498   -3.37265    2.26087    4.20315    5.23211    2.88217  -0.026967  -0.570368    2.54163   -2.81452
  18.2562   1.86325  -5.19043  -3.86352  -4.16965  0.656113  -1.43313  -6.67533  -1.58196   2.54256   6.37723  -9.42274  -21.9705  -2.28791    6.3967   4.58978 -0.228009  -5.84367  -8.12216   3.20068  -8.83114  -1.76396  -7.71419   11.4508   7.13158   8.36856  -2.00092   8.45638  -8.17982  -7.74348  -4.48381  -9.88644  -4.85308  -9.24784   2.48004  -3.65023   1.46932   -7.9134   5.79375   7.06321  -2.14676  -1.04805   3.60181   4.77169  -3.34348 -0.100163   2.36809  -7.66079  -8.89631
  -1.22186    9.12794     2.1136    6.43583    8.04968    2.04606    1.24464   -3.50983   0.084945   -6.03735    1.59065    -2.7664    2.13531   -4.50317  -0.243993    6.72926   -3.89966     3.7271   -5.42664    4.38765    4.23583    -10.959   -6.89164   0.320181     3.3508   -5.75618  -0.915924   -4.41766   -5.06972   0.032135    3.18361   -8.08636   -9.71852  -0.155522     4.0402    1.21517    -2.0929  -0.702105   -2.18749 -0.0235794   0.778627    1.00757    6.46462   -3.09427    6.37378  -0.354671   -5.11688    1.61848    6.08288
   2.26277    4.42272   -2.92588    3.30877   -4.20082   -4.67896   -3.50983    10.0542   -10.1554   -3.28256   -3.87517   -4.78689   -1.57846    1.19084    12.4917    -3.7031      4.661    4.39767    4.38765    3.08172   -3.09736    4.39648   -1.04778    4.77713    -9.9042   -2.39691   -1.28277   -10.7643    4.99357     5.1044   -8.08636    2.21973   -2.24211   -8.81158    2.10523     5.3821   0.350723   -1.71486 -0.0241247   0.372454     3.1209     5.7125   -3.09427   0.724252  -0.739398  -0.512837    1.90589   -8.32968   -4.52627
   5.22391    4.79601  -0.816992    6.75604 -0.0606836   -6.05493    9.34956    111.157   -3.61137   -4.52733   -4.22145    5.03215    3.02384  0.0950942    4.07769    4.58221    2.70115   -3.50383  -0.247251    75.3714    4.71887    4.43069    2.10594   -4.93149   -1.53401    5.20693   -4.96871  -0.409144    2.77093    1.77376   -9.63263   -6.79641    -8.4918    1.10627     6.3195   -1.22955   -6.75322    6.05333  -0.129889   -8.57478    3.28663    5.79847     2.9646   0.519676   -3.19212    6.49413   -8.50635   -5.88823    -3.3136
  5.19439  -2.66565   5.22331  -2.44829  -6.36834  -5.62087  -60.9015  0.341509  -4.93945   4.96776   5.49808   8.15272 -0.175003 0.0943079   5.91019   2.00594  -7.20561   -3.9738  -11.3318    6.9442    3.9425   5.22922  -4.38969   8.56331   6.20268   2.68365   -1.8605  -4.87798   2.26691   9.57405  -89.6682  -7.22846   1.13773   5.56625  -1.26253   9.12963   7.09723  -0.77103  -8.81519  0.834813   7.19975   -6.9896 0.0858669   1.09789   6.49339  -9.23984   -5.8834    5.6152   2.42674
   24.398   2.22532  -1.73386   6.11434  -3.71481   4.67296 0.0329072   3.64334   4.28326   4.16608    4.3712  -8.01701  0.753497   2.76648    1.2915  -1.62299  -3.21626  -2.13485   7.13353    6.6973     5.718   5.76191   8.04757 -0.253556  -3.77717   2.56175  -5.59241  -9.96858   9.72485   6.81765   -7.1801   8.39176   5.18089   5.17775   10.0795   1.24242  -2.79071   6.39263    -19.98  -4.35766  -6.81106   9.14056   2.72546  -6.72759  -8.88656   5.71343   5.58786   8.45624  -5.41577
  -0.12441   -4.12102    6.11434   -2.36268    5.49121    6.79352      3.765    4.44604  0.0428761   0.719307   -7.72066   -14.4475    2.03736   0.640845   -1.62299    3.17896 -0.0507044    9.47359    3.96314    6.17789    4.90095   -1.39466     2.0349    3.81539     2.1698    4.76951   -9.96858    11.6446     5.8706   -6.37076    10.2815   -4.17039    4.94944   -9.96317    1.59299    2.97784    5.32881    5.83202   -4.35766   -2.87294    8.39842   -2.61528   -7.59047    3.96352    5.13684    1.55368    8.66919   -4.65477   -1.58649
    -5.4738      3.5602    -8.74199   -0.965226     6.54773     7.92249     4.17219    -3.04907    0.719307    -5.96415    -6.38382     1.26499     3.92995    -2.53319     2.60832     1.50364     9.53007    -5.66375     6.08538    -1.57878    -1.39466   -0.364897 0.000377534    -5.53906     2.75034     -1.7453     12.1965    -6.39792    -6.37818    -3.93332     -4.0818     7.89062    -9.96317    -6.38049     6.37882    -6.80019     5.33386     5.87287    -3.22277     26.3725     -2.5008    -6.35893     3.87036     7.95091     1.55368     2.66899    -3.97944    -3.81071    -11.7607
    5.44322    -3.49551    0.230998  -0.0145829     7.76344    -7.12837    -2.93277    -1.66395     -8.8076     3.16415      1.7462     8.22872      1.5673    -4.84101    0.328495    -3.25391    -6.54778    -2.05056    -1.84901    -3.50143    -0.83174     1.66682    -5.18017      -6.942    -1.51118     8.32836    -5.25856 -0.00335243    -2.46325     1.97951     10.0654    -7.86444    -3.21693     8.28874    -6.92023    -2.61286     7.54707    -4.24112     14.6488  -0.0908995    -4.69741    -5.78806     9.99639      8.8298  -0.0201279    -8.44709    -3.47287     4.42183     17.2006
   10.2887    3.05676    9.43033    8.63963    -1.0647    5.15009   -1.07427   -8.26585  -0.667208   -6.31442    3.08002   -30.6521   -9.06925   -3.55421   -5.55884    2.88961   -3.60851   -6.15836   -3.12991    4.86911    7.54437   -9.37239   -6.42865   -10.2253   -6.03489   -6.61701    6.86651   -5.20343   -5.44291    11.3129    6.94463   -6.02284   -8.27347   -1.95169   -9.94841    18.4618 -0.0232453  -0.735173   -2.28516   -2.36364     6.7803    6.04011   -9.95279    2.58256   -2.48194  -0.026744    3.03389   0.661331    5.25514
   2.72656   0.484763     10.353    3.05294    9.67682    2.79759   -9.30428   -3.17555   -13.5234    18.9886   -45.0054   -5.46345   -7.15896    1.14864   -3.83563    1.06232   -8.20579    4.09775    8.73313    8.33152   -21.0096   -17.8171    38.1323   -8.48825   -5.07133  -0.583294   -2.68819    6.78656     8.4799   -8.33041   -6.33584     5.9014   -5.43887    12.9266   -39.4289   -2.19932    6.16002  -0.174322 -0.0207997    5.96939    5.63591   -3.53146    9.61725    -5.3038    2.41559   -4.71755    -1.2143    -6.0028    4.96568
  1.80109   2.30601 0.0903454  -8.98664   2.79759    5.5057 0.0224293    3.4284   11.7163   3.00486  -3.66783   3.05336  -2.06933  -2.52983  -1.93836 -0.291091   4.09775   2.38225   6.75885  -3.94312    2.2248   4.51099  -5.47961  -3.94147 -0.299071   4.82476   7.67703  -10.7485  -8.33041  -8.13136   6.77585 -0.573328  -16.3277    4.1015  -4.97425  -8.18509   4.17926  -8.10248   6.50455  -0.07376  -3.53146  -9.56796  -5.24093  -2.25067    2.2499   6.07356  -5.04863  -5.99331  0.717266
    0.68373    -7.16157    -9.39842     -2.2484      5.5057     4.92255     5.32717 -0.00234594     3.73275    -2.79043     3.05336    -1.37608    -3.12312    0.170552    -4.94853     1.85366     2.38225    -7.86346    -8.52304     -6.4957     1.96715   -0.375199    -3.94147    -7.12216     5.73176     7.34598    -9.83329     6.15092    -8.13136    -1.03788     -1.1253     6.50562     3.92587     3.19895    -8.18509    -8.57212    -9.43392     3.02561    -2.24794    -4.23626    -9.56796     4.45982    -4.14507     5.06858     5.57134    0.774789    -5.99331    -4.97088     1.52971
   -7.53046    -7.02774    -1.25523     2.01693     6.80105   -0.584803     1.86155     4.46464    -10.7191     6.42435    -1.09711    -6.05272    0.439577     4.51787    0.604208    -4.32692    -6.82427    -6.68617     -5.3461     1.74438     6.87074    -6.46383    -6.88593    -2.37617     7.97324     2.69499     5.59956     5.93301  -0.0197757    -8.40272     6.83989  0.00703264     4.11079  -0.0144317    -8.80435 -0.00839627     3.27423    -2.26517    -3.86239    -4.74233     4.75126   -0.616978     5.12894     4.40121     1.47624    -5.04333    -1.46599    -3.29959    -10.3685
   -3.91947  -0.0171749    -10.5547    -4.75339    0.344205     7.15943    -6.41045    0.367023     2.42698     8.37894    -9.89561     1.44819      1.8167   0.0426821    -4.53279    -9.49231    -1.37696    -6.96521 -0.00407642     1.33965    -10.9562     1.63068    -4.24558    -7.77041    -7.67245     4.33159    -5.10076    -8.17225    0.595506    -15.4537    -6.40829    -6.00411    -20.0075    -2.36269    -4.78128     -2.2898    -1.07822    -5.34159      5.5217   0.0049073    -0.14824     2.13907    -4.27198    0.297551     6.14478  -0.0294446    -5.90773  -0.0313001     24.2141
  -8.13673    3.93317   -6.01464   -1.87551    4.72888    6.22704   0.434303       3.85    8.15296   -29.2141   -2.06931   -3.36057    5.95794   0.731619   -7.15937    7.92033    -4.1544   -4.55778    1.99701   -1.63176   -3.01307    10.8292   -8.32824    2.61855     5.5771   -7.75811   -8.47083    12.6966    -13.075    -4.2693   -5.58417     5.4643   -3.67118    13.1822   0.306234   -7.69454    -8.1745   -6.29587 -0.0162274    3.18194    1.70251    10.6749 -0.0182611   -4.30001   -5.42181    1.50431 -0.0355906    9.56554    9.86777
   3.93317     3.5004    4.63531   -4.32889    3.84843  -0.666991    2.18613   -3.79656    -19.192  -0.204528   -3.36057    -5.9243   0.731619   -2.00928   0.508802   -7.55921   -4.94576    5.56903   0.463635   -6.60745    -14.264   0.269338    2.61855   -4.39513   -7.75811   -5.71845    9.59416    4.50166  -0.358281   -1.43617    6.41834     3.9386   -2.76212    0.01907   -7.69454  -0.855093   -6.29587    1.59374    2.32368    6.59468  -0.220606 -0.0407454   -4.66017    -7.5456    1.39576     3.3893    9.56554   -4.56061    8.60334
 2.98923 -4.48653 -5.84724  4.42369  4.33329 -6.55631  1.49015  1.61835  4.77533 -4.34344 -7.36441  3.79389 -2.75022  -4.6617 -8.81615  6.74768  6.54157 -1.92316 -4.22654 -4.66094  4.94135 -6.65303 -2.12708 0.045698 -5.86936 -1.92223  5.59013 -6.73286 -4.14358  1.77283  4.53469  4.99263  2.04318  6.62778   1.9848  3.80807  1.25473 -5.96028  7.72665  5.97905 -10.4542  5.50843 -6.64242  5.97217  5.60221 -6.07075 -4.93678 -2.06625 -5.23449
 -5.26338  -2.13056   7.86454   9.41675  -7.31328  -8.68197   4.52156   3.61828   -2.2523   -2.0684  0.870153  -5.65497   -5.6703   9.42781   8.45815   1.73526  -1.36233  -3.95937  -5.47687   1.65768  -5.79806   9.16164   3.97439   6.81919  0.363085  -6.62202 -0.539566  -3.43525    2.6723   8.14138   5.10391  -3.39795   8.05333  -6.41049   7.11493  -6.36063  -6.57688   1.46444   4.38419  -4.79766   6.15016   3.62474    6.7626  -8.70813  -6.51305  -1.52482  -3.81497  -5.43692   2.50546
-0.0938382  -0.697395   -3.63482    6.15959   -7.79489   -1.14953    -5.0333   -4.91575   -4.00011  -0.506641   -7.05989    5.35567   -3.45374  -0.241862    2.44898    -4.2673    5.34601   -2.23533   -1.68255  -0.143249  -0.908999    7.64541   -2.39679    1.86655   -4.16666    8.00041    3.04727   -5.01217    6.37176   -8.23004   -1.77189    9.31438    4.84859  -0.204049   -2.41355    1.76627     54.002   -9.85845    1.16274    2.30357   -2.37508  0.0927266    6.10629    9.86709   -1.01622 -0.0417096   -7.67671     4.3295   -3.15131
 -0.600641    2.84877    6.81942  -0.346157   -39.6097    3.99003   -5.01604   -1.18445    1.61506   -6.93284    6.36758    2.81938   0.292987  -0.377799   -3.83983    5.85181   -16.9802   -4.75393  -0.702264   -5.34023    7.52236    3.92276    2.73325  -0.368222    8.24329    1.62036   -4.54708   -6.60393    5.66474    1.50499    9.06978   -10.2937 -0.0184843    4.62096  -0.909491    1.60267   -10.1511    4.93317    1.23542   -2.51632  -0.862101 -0.0252105    9.66444 -0.0411795 -0.0308981   -1.22898    5.33286   -5.02935    7.71168
0.0870411  -34.4023 0.0431602  -7.55606   9.83389 0.0133074  -14.8148   1.38284     3.725  -2.45508   1.96465  -5.06935   1.54018  -34.1924   5.55158  -7.63925  -8.40763   6.73088   3.56924    4.5336   12.1541  -2.67218 -0.465784   4.32925   1.63711    29.844  -6.90416   6.63193   3.15946  -7.48353  -11.1506 -0.514012  -1.35489   2.26825   1.47273  -1.61587   3.44619   1.66404   11.7511  -9.26557  0.877924  0.806334  0.604044    3.2984  -1.24981   5.14857  -4.62377  -1.74254 -0.488771
   -20.117   0.153295    2.37616   0.457539    1.05456    6.37811    11.9649     3.0411   -8.39785   -5.78261   -2.62294    1.35618   -10.5871   -4.08852 -0.0207746   -2.93527   -7.02157    3.25512   -6.79118   -1.70571   -1.59524   -1.76759   -7.52166    3.92598    26.2939   -5.02314    2.38459   -5.12791   -8.72955   -8.08832  -0.116104 -0.0380139    9.37003    6.73128   -6.36378      3.349    1.48569    9.44498   -6.03725  -0.325646   -2.38858   -3.16294   0.230573  -0.992864   -7.01335     3.1041   -1.34703     2.4993    12.7531
 0.153295  0.700029  -1.52671  -1.05065   6.93072   6.25923   1.80881   1.65557  -4.42781  -2.95139   3.43499   -13.236  -4.08852   3.09204  -6.82193   2.38237   12.9528  0.870537  -5.36938   1.83687 -0.650179  -5.50333   5.44414  -20.9171  -5.02314  0.742278  -1.63408   3.43119  -1.28375  -3.18626   7.14025   3.49784   2.29264  0.543527  0.498227  -1.90965   9.44498   6.51416  -2.98735  -7.02404  -3.31622  -1.10972   -2.2754   8.24298   1.49899   7.80218   2.39249 -0.626085  -1.21624
  -0.20643    6.02006   -2.79068    5.54102     7.1839    -4.8384    1.80001   -4.02287   -2.71859   -4.70712    14.4838   -7.06371    0.47957    -13.245    6.15227    4.37255    1.28994    9.46999    1.17351   -10.0688   -6.80645     6.5341   -20.1124   -1.28214   0.244423   -6.94499    3.22207   -9.54258   -1.61608   -2.96337    3.40488   0.350319   0.237328   0.874085   -2.69335     1.6146    4.69026    3.96862   -8.92219 -0.0911462  -0.896627 -0.0150885    7.93458   -5.85023     8.6292    6.79423   -2.20964   0.873124   -5.74213
   8.49765   -6.69776    5.35785  -0.161222   -3.49533    4.59523    3.37454    1.26599   -6.85678   -1.51108   -9.66157   -10.5404   -4.21499    9.45482    4.23963   -1.93746    3.72155   -2.34529   -5.14626    1.80413    9.72809    3.13865    5.12079   -5.87792    -3.0354    1.30997   -9.65532    -9.6164   -7.38096   -1.64283  -0.699552    8.64355    1.34672    5.27785    3.47565  -0.424005     2.0164   -8.85835    3.76804    7.69279   -1.29898    -6.6821   -1.53158    5.29223    9.39248   -7.80633    1.39324 -0.0251381   -9.39571
  -8.09138   -3.26119  -0.161222   -4.90942     4.3677    10.3116  -0.529008   -8.36633  -0.356374  -0.429237   -7.81865    88.1764    8.44085     2.8646   -1.93746   -1.46792   -2.76623    11.8427    2.81949    8.72455    2.43114    5.78616   -2.28128   -60.3789   0.455068   -6.40855    -9.6164    -4.7282  -0.769038    -4.2924     7.7596   0.470916     5.8326    6.30886   -7.51586   -15.1142   -8.81064    3.36584    7.69279   -3.43277  -0.391041 -0.0202407    4.78736    8.48583   -8.21942    1.16899    2.12793  0.0193896    4.45128
  -3.26119   -4.71413   -6.29263   -5.18123     12.557    7.22837  -0.644802    3.06739    5.09945    2.71556   -39.6492   -6.56201     2.8646   -4.10894    5.99229   -5.67325    10.3997     6.3161    5.20567    2.72506    4.20964    2.09052    -21.888   -6.71436   -6.40855    3.79995 -0.0842168   -5.49194   -3.29249   -5.83693   -5.86706    2.90841   -1.34961    -5.9644   -97.3581   -6.69756    3.36584    3.10931 -0.0427435    5.23513   -0.30224   -2.04902    2.51224    4.74814   0.722233   -6.25507  -0.532479   -6.38316   -24.5999
 -6.49273  0.783843  -4.73037  -5.96876    5.2394   2.23492    2.7411  -4.93669   2.71556   5.02027  -5.79028  -4.06858 -0.267079 -0.054987  -5.67726  -4.33094   10.2209   -3.3674   2.29494   7.52588   2.09052   10.1071  -6.92664  -8.12617   6.73533   6.47553  -5.61847   10.2844  -4.59472   3.69924   5.03897  -8.27143   -5.9644  -5.03235  -6.86278   3.95002   4.32987   4.55889   5.17195  -9.50571  -1.79748  -5.81045   6.56511   2.57133  -6.25507   -5.5605   -4.2571   9.14663  -7.71119
   1.27118    -2.6123   -5.17806    2.98358    2.33716   -4.20583   -5.56881 -0.0388012    4.88466    1.27424   -3.73596    5.41034    1.50398   -2.66947   -4.47098   -1.96969   -4.33564   -1.90314     10.331  0.0366174    9.36082    1.48277   -7.16881    6.28984    7.86944  -0.401151    9.64583    1.36009    2.02544    9.52242   -4.82298  0.0205161   -6.05754    1.38873    4.63822    5.89322    5.59387 -0.0539289   -8.93615 -0.0522279   -4.87196    1.81243    2.03573   -4.49693    -7.0531   -6.74201    9.19054    1.56672   -6.55797
  -4.05402    5.07939    3.75493    -1.5368   -6.06069    1.14979   -1.13282   -4.08296        1.3   -5.51856    9.15292   -14.6863  -0.959219    10.2156   -1.06499    6.16518   -1.73583   -2.98311    2.62382    -1.4669    2.60353    12.7927    2.15483   -5.26423   0.728468    7.69836     4.7591   -2.51252    7.79215   -8.05673    1.01464    4.07073    1.96321    4.94486   -1.65751    14.6264   -2.72506    2.04061  -0.404781 -0.0333366    1.57997    2.38487   -6.83867    8.61003    -8.0442    1.38592    1.17916   -2.40432   -7.12154
   3.04458    5.82215   -3.74574   -3.48474   -6.48706    8.43519    2.16879    7.42372   -7.40549  -0.631331    6.60742    6.35591   0.694629   -4.63777   -4.64074   -4.18055   -1.95067   -6.24484      3.337    8.90104    4.95717   -1.60105    7.92481   -5.32984    8.17114    6.50397   -8.51532  -0.191714   -12.0721     9.1244    5.49855   0.622681   -7.70547    2.25801   0.458492   -3.02473    5.80007     2.8946   -1.48686   -4.27713 -0.0315604   -3.59626   -7.92131    -1.9345    1.78696     2.7529    4.39448 -0.0393534    4.13536
  7.72098   -6.0814  -5.54462 -0.746969   8.89199  -4.61962   7.16131  0.690605   1.94197   7.43697   5.01574   6.54885  -5.74031  -9.66958  -6.75965  -6.65872  -6.51206   5.06487    11.377  -1.87902  -1.29739    9.1013  -5.47958   7.89882   6.67481  -3.33804  0.914502  -7.43945   7.64869   4.17827   3.93206   2.57074   1.63723  -1.24476   -4.5166  -1.02495   3.25781   4.62939  -6.42776  -4.93741  -3.35619   2.39914  -3.94692   5.78023   2.28652   3.54127  -2.25843   1.39823  -2.32583
  -5.37594    2.02158  -0.451674  -0.745739   -1.29144    1.57353    1.59096   -3.49708    6.75501  -0.484681    6.79801   -6.54746   -3.00794   -2.50408    -7.9561  -0.671117    1.82727   -1.90623   -1.97251   -2.27633    2.97047   -8.25478    2.98935   -2.86442   -3.91213    3.46468   -6.37251   -2.98657    3.11594    2.68871    2.73955    5.78466   -2.12411   -6.62736   -2.21278    2.07804 -0.0352834   -5.26986   -5.68073    6.96831    1.68039   0.269263    6.32036    5.83623    2.22305     5.4512    1.11305   -3.48298   -30.5946
   6.51854    4.16718  -0.745739   -6.92074   -4.01463   -6.76985   -8.39707    7.47251  -0.153036    3.31406   -2.04182    6.25606   -4.71792    -5.5049  -0.671117   0.083862  0.0302272   -4.41773   -5.49022   -5.41875   -11.1635    1.57228   -2.38101   -8.28035    2.85271   -3.29303   -2.98657  -0.902361  -0.635626    4.64135    5.76739    3.27252  -0.191694   -4.98885   -4.44275   -4.95742   -7.12102    2.80493    6.96831  -0.122102   0.142665   -9.05738    7.31452    6.20844 -0.0329607    2.44559   -3.13489   -1.86927   0.887237
   2.48015   -1.33955   -7.56188    7.12568   -4.96407   -6.78825    7.21073   -3.04308    2.94668    9.08011    10.5497    7.87046   -2.76348   -6.97403   -4.50323 -0.0217181   -4.70218   -3.97628    -6.0058   0.531971    1.22333    8.58797   -8.79817    4.47688   -5.41215    8.31581   -3.24427   -9.70942    4.99884   -2.90767    1.29142    3.58191   -5.36256   -9.14419    1.88945    3.36562    2.97451    5.38793    -3.6261  -0.254442   -8.77127    6.01753    5.71873    7.40438    1.17284    4.77558   -3.93307   -1.73753   -20.5895
   -1.5014    1.08582    5.84144   -2.64992   -3.39785    4.05182   -2.03595    1.42977    7.51364   -4.98651    3.50498   -1.30285   -6.38907    6.63845    1.81491   -18.3138  -0.727558  -0.507283    1.84658   -1.94442    9.39923  -0.202983    4.51476   -1.94731    8.32852   -11.1981   -10.8688    50.6954   -6.96844     4.6014    3.89248    6.52652   -9.61802    -5.2167   -4.56911    1.87543    5.33724 -0.0126085    -1.7193   -2.70295   -2.19186    3.45107    7.71683    7.78461    6.25494    4.25436   -15.8983    6.54116   -15.5211
   6.58152   0.545188   -3.53696     1.7075 -0.0945871   0.526332   -9.35377   -1.05043   -0.13867 -0.0276619    8.50442 0.00662413    6.12784   -2.03284    2.10067    1.10801    1.59899    3.69186    5.59897   -2.71015   -0.24189    13.6809    7.96628    2.17695   -6.39998    3.59539    -2.7307   -6.65184  -0.272424    8.10426   -7.25366   -6.35392   -1.71754    14.0029   -8.30939    2.19127   -3.52209    6.11843   -5.44344    4.58137  -0.192471   -6.27732    2.03688    8.14146  -0.303187    2.15099    2.70367    2.91248   -6.66437
 -2.02374  -2.38086    1.7075   -2.4524   1.12924  -3.04391  -1.05043   4.47836   9.18291  0.528544  -1.29571  -2.97025  -5.98323  -7.43354   1.10801  -8.21419   6.38632   -9.2075  -2.71015   4.38458    11.027 -0.355659   3.69684  -3.57145   4.43314   5.33507  -6.65184  -9.74026   7.08434   6.72253  -6.35392  -8.90485   7.75536 0.0583646   5.14377  -2.50669    7.9109   5.31503   4.58137   2.79708  -6.07879  -9.46035   8.14146  -2.99142   1.55998 -0.565518   5.74305  -4.88425   2.62616
    -1.7869   -0.656923    -4.04805     1.69001    -1.42796    -5.58169     4.35834   -0.200696 -0.00851157      2.0578   -0.609271    -5.05513    -8.22925    -0.55355    -9.04703     5.19484    -6.58118     9.20659     4.44943  -0.0657212    0.545753     4.49651    -1.16009     8.33202     7.71481     1.19386      -8.862     6.88612     6.16634     3.94512     -8.8856   0.0280206    0.540541     4.41736    -1.71025     3.57573     6.51908    -2.14362     1.51627      2.7386    -8.15734     -6.7351    -2.76138     -1.3718    -2.78749    -3.06974   -0.856289     7.40934    -0.11875
 -0.128654   -1.35645   -3.30942   -3.53286   -5.23607    2.32307   -3.70834  -0.153685    3.78105    7.31694   -6.57831    13.8041   -1.15146   -1.68504   -1.60729    4.71394    7.30959    4.42176 -0.0239988   0.294081    4.61969     8.9592    9.00332    6.45269    3.35829   -4.80882    6.30854    2.00999    3.14494   -6.85356    3.70531    1.81533    5.36449    10.4152    3.86347   -2.60154   -3.36626  0.0250615    2.49688   -6.50723   -5.80848   -2.77256   -2.22997    1.80708   -3.51723     1.7904    8.08964 -0.0182932    1.83778
  -2.23804    9.23172    6.23523    8.02541   -1.31854  -0.723387    4.13263    -1.5915    5.56259     1.9927    7.78121    4.20942   0.123643     8.7911    5.93959    1.58042    2.86295    2.14382 0.00919549    4.28424    1.02609   -5.12995    1.50039     -10.83    2.50792    1.99031    1.34411   -1.91819   -4.19329   0.690125    4.25622   -9.19416      -1.32    2.90007   -1.85693    6.12576   0.657896   -6.58817    9.73551   -4.07321   -4.13018  -0.111312   0.395257    7.65957   -2.92664   -5.16196    6.26188    2.42727   -2.12902
   3.52717     2.7084     3.6928   -10.5742   -2.78136   -6.08961   -3.30543   -1.24667   -4.19644   -34.5255   0.832711    -13.397    7.03583   -2.75606   -1.73822    2.50212   -9.61328     2.8418   0.729026   -10.3318   -8.38136   -8.54715    3.70886   -26.7702   -2.28714    6.85128    -5.2371  -0.206683   -6.62116    8.82767    5.05477   -1.05406    2.87847    54.8397    5.48151    10.2138    6.81591    1.00734    2.52313 -0.0304926 -0.0137273   -5.12694    4.75982 -0.0180271   -8.47104    1.06647   -6.77375   0.855724    9.61275
   5.15337    8.96386   -4.13421    1.34739   -7.60542    1.58216   -6.64838  -0.803017     4.9557    6.95037   -29.1029   -1.63022    4.79408    3.64394    7.55951    -6.2129    1.62991     -7.214   -6.11115   -6.09056    23.3239    6.30324   -11.8462    8.67985    3.07359   -3.00056    1.70429    3.74326    9.19389    4.34462   -3.95247   -6.92014    28.4126   -4.17374    9.75076    10.1383   0.849175   -5.22513 -0.0312066    2.77225   -5.43206   -2.40945  -0.683445    8.73008   0.588824 -0.0173282    1.60423    1.16202    4.31362
  5.60954 0.0454639   3.84684    3.3516  0.231237   3.75584 -0.803017   5.95043   6.08489   5.68404  0.379077  -6.85444   5.60901   2.29179  -5.87503  -4.49885 -0.125293  -6.09014  -6.09056  -9.39086   6.07841  -7.61636   3.19578 -0.589818  -4.59973   4.87871   4.02146   5.73123   -0.1061   4.10699  -6.92014   6.37054  -5.00314    9.7102   6.85224  -9.91184  -4.18337  -1.05407    2.9465  -9.82587  -1.02199    3.4054   8.73008  -4.07485    3.8126    5.7936  0.685292  -1.73065   1.58847
 -5.35077  -5.99574   4.04824  -4.87935   4.11283  -6.61703   4.52705   3.49072   6.86096 0.0253273  -6.85444   2.16426   4.45317  -7.63366  -4.43601   4.16743  -7.99754  -8.43199  -8.80156  -2.97181  -7.50747   4.05024 -0.589818   3.52377   9.77745   5.72868   5.61106  0.883369   4.83517   6.33496    5.3179 -0.636327   9.50232   4.04573  -9.91184   10.4043  -1.92989  -5.72178  -9.82968   3.57774   3.86847   5.14639  -3.53493  -5.05553   5.79402  -4.58643  -1.73065   3.33342  0.911363
