   9.39095    4.82388    11.7426    -10.037   -3.20064   -4.01733   -10.1727   -5.65389   -8.73553    8.72846   -14.0933    -6.0613    5.86123    14.9476    4.80234   -2.99237   -8.30194    8.46499    5.74916   -5.72747    1.39085   -6.65738   -4.20595   -1.41567   -0.27686    7.97648   -5.97772  -0.747892    6.39172   -6.38254   -2.45326 -0.0246584 -0.0213365   -1.29524    -3.2188    3.42921 -0.0172737    8.16759   -4.21119    4.21672    3.98157
  -5.53869    4.57122   -4.16742    13.8642   -1.72294     6.5629   -1.47048    2.56497    1.76675   -1.09115    3.47471    6.55699    -6.4851   -8.73109    4.94281    8.72735   -4.27638  -0.169984  -0.572448 -0.0724879   -1.31954    8.40917   -8.15185    3.31638    7.36891     11.451   0.433902   -9.55221   -2.66451    9.43584   -4.51305   -7.79098    3.69132    1.78141    7.94775    3.08867 -0.0700751   -1.84595    3.59642   -3.81192    2.68627
   6.45367    6.82553    8.98257  -0.242802    7.04756    -4.8811    2.56497   -7.44827    5.64171  0.0453248    6.47023    5.71324   -1.32521  -0.425196    8.80365    0.73632  -0.169984  0.0170204  -0.830768   0.447886    8.74537    8.52534   -6.82282    11.3408    10.6692   -5.63743   -9.55221   -7.41735   -4.26608 0.00964482   -8.24582    4.65702    2.35803  -0.553838    3.02746   -3.84791   -1.84595   -2.46915   -3.80657  -0.679374    7.38062
   6.76513    2.34534    7.36037    7.35736   -4.79385    288.376   -7.31673     1.3358    9.99061     3.5657  0.0109799   -6.46234  -0.224809   0.717397   0.874089  -0.796435 -0.0590454   0.321393    4.58322   -9.80959    8.11336     1.5916    7.55173    8.12577   -5.67573    295.218   -7.52176    0.20081   -7.35667    2.42445    4.21576   -4.15587  -0.501724  -0.504957   -3.51897 -0.0723798   -2.44639  -0.204702 -0.0170537    2.70555    -3.8438
  -1.75576    -1.9105    10.2879   -3.97193 -0.0622071    11.9152    10.1012 -0.0870769 -0.0454086   -5.32589   0.994921   0.718635 -0.0132536   0.297717   -7.73762  -0.905948 -0.0134648   -5.95923   -5.69661    1.98057    8.29087    5.38231    5.42746   0.658411    3.30629   -1.96132    5.32179   -1.95792    2.43443   -8.96576   -8.26407    12.0209    2.08318   -2.18549   -5.75977   0.709269   -2.14006 -0.0388212    7.78584   -1.19029    6.41456
 -0.100669   0.661459    7.03696    2.99071    28.9742    2.24284    12.7017    4.12721    -1.1365   -6.61271  0.0500183    5.15513     8.6043  0.0593723    35.3759    2.25981   -1.61423  -0.348584    -11.377    3.47513    6.78178   -9.07769    8.98488   -3.03418     36.963   -4.65039   -3.33071    1.64976   0.446596   -10.1311   -2.03668    9.78861   -7.21842    -1.7067    1.75326   -2.87308 -0.0169349 -0.0498262 -0.0271337   -5.22713    14.9703
0.661459  6.46095  6.57649  9.66681   3.8362 0.991715   4.3569 -2.14647 -5.24635  -6.1682  5.15513 0.353788  3.19828  4.73258   3.1995 -3.39862 -3.96356 -2.06335 0.533165 -5.51425 -9.07769  6.82834 0.622538 0.915425 -4.02128 -5.55065  11.2841  2.47012 -5.81141  6.76884  9.78861  4.47914 -3.63517  2.45041 -4.19551 -2.00926 -2.94533 -7.23031  1.84313  5.10486 -13.0899
   7.42317   -6.53876    5.34898    14.2601    1.35247    10.1802 -0.0248326   -4.89463   -4.07371   -4.53269 0.00118964   -3.28373    9.12532   -5.52062   -3.74683    5.10983  -0.587257  0.0100949   -6.97552   -8.48956     7.0596   -5.30989    1.59256   -1.07168   -5.21289    8.26617   0.578387   -4.31081   -1.20775    -6.5283    4.71597    7.37741    2.46191 -0.0211106    4.03518   -4.73132   -2.61793   -3.00655   -3.25362 -0.0238276    4.43372
  -6.59365   -5.12111     3.7915    4.39125   -9.01706    7.79695   -7.31432    7.95624    16.3967    1.85363   -5.56901    1.79787   -3.89391    5.15664    15.8424   -6.31248    2.56873   -7.06268   -16.1311   -2.50949   -3.43834  -0.798529     -12.18   -2.52618    3.65808    6.76586   -1.13401    7.14288    15.3255   -6.81349 -0.0279111    4.11783 -0.0337326 -0.0295802  -0.011382    3.60258    -2.8985   -6.38576    1.37652   -8.34419    1.18516
   10.1877    1.14448    7.19207    2.68248    2.57746 -0.0328219    1.52049    3.71786   0.979138  -0.197798    3.28508    4.36495    2.31603   -10.7861   -1.43762   -7.30048    6.90473  -0.815219   -4.44559  -0.190177     5.6648    5.55654    3.99153   0.221732   -4.02485   -8.66542    9.08135    -5.4146   -5.65382   0.413376    5.55256    4.50497    -7.9099 -0.0300309    2.56586   -51.1402    -2.7735    1.03059    5.21871     3.3056 -0.0848915
  -10.8291    3.52638    -5.5545    -5.4564     8.3278      4.571   -6.76903   -7.85901    3.75198    5.31197    13.1214    3.22677    3.64789   -17.0075   -2.66349   -1.47983    4.45509    9.51637     9.6996   -1.70295     4.3061   -7.74207   0.119184   -7.08334   -4.36309   -2.38997   0.151339    3.12844   -3.63162   -2.78194   -1.81709    7.51967   -5.90503 -0.0126052    2.89662   0.159437    4.81906    2.50695 -0.0239327   -4.72303   0.971294
  3.52638  -2.50764   7.98771  -8.87997   6.13839   18.3238  -5.49867  -5.33516   3.49983  -1.91987   3.22677   8.17543  -3.17937  -5.60569  -19.6192   11.5235   5.42145  -6.07054  -3.41853    3.0927  -7.74207  -1.38684  -11.1918  -9.31405   3.37032   19.3536   2.59904  -11.2688  -1.63774  -5.34711   7.51967  -1.77391    0.5837 -0.714863   0.72762  0.336867   1.92719 -0.100172  -3.07718   2.90288  -13.0097
  -2.90229   -1.25452   -6.35244    3.91177     -3.653   0.116204  -0.194027    3.84024    8.47482    4.66186     -2.225   -5.71987   -1.27632    3.43821  -0.151114   0.762111   -1.13122    3.65385    8.43766   -7.52316   -5.22462   -7.20434    12.2172    3.66183    7.81349  -0.944167    2.64622    3.60608    7.90582   -1.09696  -0.877059   -3.87834    4.43083   -2.31788   -7.58203   0.913829   -4.04049    5.73699   -1.56701 -0.0376816    16.9663
-0.954191   8.24493   6.85887   12.1644  0.622292   1.07085   4.41014   5.43196  0.303344 -0.547678  -5.82229   3.24893   5.80931   68.8774  0.706654   6.02935   3.74999   2.14709  0.486002   2.15173   -6.9919 -0.895148   4.73252   47.8288  -1.34026    4.1896    3.0464 -0.589498   2.90603 -0.254275  -4.27047  -4.21101  -3.64112 -0.609293   4.34889   6.94171   5.63696   6.34139  0.538405 -0.138846 -0.431828
 -0.740051    4.55678   -1.44108 -0.0211525  -0.185432    11.3193    3.47998      11.45   -7.68675   -1.43178    10.3478  0.0943027    46.2743    7.42388    5.97917   -2.11193    1.64048    5.39526  -0.722893    13.3326   0.830607   -6.16913    36.1444   -9.98223     4.6768   -3.57274   -1.66218   -5.46576   -2.87554   -6.87477 -0.0192438   -5.86883  -0.936076    9.58551    7.26567 -0.0121673    4.94171   -1.51127 -0.0269458  -0.011962   0.865054
    2.77903    -3.02457   0.0641859   -0.979894 -0.00129895     -10.968     19.3132     8.81162     7.91557     3.28348    -3.93406     2.23557     10.1472    0.337983     5.79851     2.46911    -4.33813     1.36177      1.2135    0.615223     10.0336     8.26421   -0.963771     6.35089     5.78014    -3.81447     6.72514     3.14117     2.82956     7.46711    -4.56188     2.04479  -0.0287687     9.16926     -2.0135    -4.21776     2.38609    -3.05105     3.37498    -5.53969     8.63884
  -1.12331   -6.85157   -1.65853    3.23875   -8.43519    8.37206    6.03516    12.5979    3.49684    3.02953    5.77031    4.94194      1.406   -1.12487   -5.98292   -6.03445    4.30926   -14.3566    -1.6318    3.36926    6.91469    1.64717    6.06538    4.37406   -4.48423   -2.01752     3.2156    38.8346    6.98506   -2.02378    1.86934   -5.40028     8.9345    7.85792    2.02603    4.38443   -2.85452   -1.32623   -3.27896 -0.0648516   -8.00973
 -0.0731204    0.253901     3.00144    -8.86396      3.6201     8.28658    -10.5681    -5.15547     7.84506     42.9595    0.305068   0.0534207    -1.51576    -1.91749      -1.515     7.47515    -10.1305    -4.77866     7.13227      9.2803 -0.00870728    0.134984     4.52757   -0.392398     -5.9578    -5.72544     25.8351     3.56425    -5.42338     1.89042     -1.0677   -0.627429     8.09037     5.48171    0.705386    -5.64072    -0.77463    -3.16632      8.0289    -1.13553    -2.06476
  -1.69637   -6.63296   -7.01348   -16.4383    -9.3615    13.2361    5.19322    9.07336   -5.33953   -4.22992    0.56089  -0.847021    6.59999    16.4007   -4.40579   -3.86852    10.7324   -2.65272    4.83751   -1.11082   -9.64316     7.4029   0.700962    1.90412    19.0895   -6.90931  -0.497374   -4.73858   0.484338    8.73767   -5.46211   -2.11264   -5.46339   0.903726   -1.05894   -5.42239 -0.0291386    7.88638    4.36667    5.64512   -12.4444
 -1.44114   3.15841  -21.8499 -0.107664   12.6874  0.569595   8.61218   2.50796  -3.77977   6.80429  -12.0583   7.59356  -15.4585  -2.42477  -3.54265   4.77504  -2.40874   1.67781 -0.121666   4.81647   1.29612   10.7504  -25.3141  -2.90977  -7.52615 -0.514404  -5.11767  -4.23013    3.9051   7.88681   -1.8815  -6.88563  -1.97711  0.342322  -4.68639   4.68653   6.86976   2.04374   6.33484   6.32814   2.79719
  -1.53745    9.34821    14.6001    4.61826    2.19621   -7.29219    7.38457    3.17993    8.12335   -1.09929  -0.290237    1.69727   -12.9924   -4.62009     2.1563     15.485    6.60234   -2.15788    7.39273  -0.205151    6.58661   -6.28277    22.5987    7.59828  -0.511931   0.725271   -1.64569    4.31715   -1.82216   0.745563   -3.80753  -0.631501    3.06235   -6.44486     3.7017 -0.0177164    4.85271   -4.72739   -5.43526    5.21157    22.3978
  -10.5667   -3.43612    5.24892   0.577586   -7.24786 -0.0067394    8.34509    3.00333   -4.88662    7.24479    4.82753    1.56009    6.22401   -6.63814   -6.90888  0.0192917    9.90957   -4.99162   0.639781    8.61011   -6.06573    -1.9828   0.840408   -11.9879   -7.08482    3.72314    1.39751   -9.97144   -5.56799    1.20505   -1.40474    4.22709   0.703201  -0.289939 -0.0253217    6.44498    5.03712  0.0955742    3.51959   -6.32716    -23.017
   -5.0077   -1.00263   0.188844    3.25623  -0.914197    3.37557    23.6519   0.763569   -65.0773  -0.082596    1.00557   -1.63143   -7.32168   0.711129   0.749228    3.06137   -4.00033    6.25959    12.1152   -6.93254  -0.350632   -3.62605   -11.3931    8.44602    4.98934   -7.80695    1.19179  0.0215348   -3.97081   -8.41933    5.06277    6.71612  -0.121273   -3.97833    8.71539   0.813613    0.87902 -0.0519342  -0.713964    1.43918   -9.88303
  -1.00263    4.46889    3.84323    27.9497    3.37557  -0.694493    2.78454   -5.78242    3.25578    1.11153   -1.63143   -4.85132    0.46916     0.3714    3.06137    7.12921    4.54774    12.1058   -6.81217   -11.3775   -3.62605   -9.73678    8.61106    2.27263   -7.80695    2.26978  -0.778069   -6.53375    3.67795   -3.62127    6.71612   -6.30344   -4.10947 -0.0102933   0.813613    6.23463 -0.0271542   -3.52247     6.2385   -3.92357  -0.672491
  4.46889 -0.921325   6.12595  -3.30404  -2.62755 -0.647392  -6.94179   2.50197   2.51042  -4.35543  -4.85132  0.768555  -1.07094  0.588575   5.44655  -5.95752    14.453 -0.395558   -2.7819  -5.87563  -9.73678  -2.07408  -47.4693    3.9779   0.35603  -6.62165   0.94053     2.929  -5.45577  -10.3326  -6.30344  0.259669 -0.371858   1.98668    5.3073   4.86109  -2.01767   2.61253 0.0451891   3.40436  -14.6021
 -0.160216    21.2865    -3.2272  -0.364243  -0.481936   -2.30748     2.8908  -0.444963    3.99483    9.98511    1.79109    1.58515   0.659187    7.00133   -6.07183   -1.35548  -0.580532 0.00876013    3.34024   0.738068   -2.04571   -6.01748    5.38349   -7.82669   -6.58689   -3.67957    3.51229  -0.460128    -11.964   -2.81001   0.282513    1.08478    2.57633    2.80686    4.81962    4.06466    2.91762    2.18414  -0.323221   -2.34517   -23.1786
  -0.548215      6.1282    -6.57561     9.15858    -5.16974    -2.46319     4.75521    -5.96549   -0.052622    0.402353     5.79373  0.00227303    -2.36158     3.29958   -0.209919    -4.51064    -2.39004    -10.9155   0.0918124    -1.05913    -8.03815     6.12144     3.33356    -4.65399      5.3807    0.817334     8.95949     1.98102 -0.00451606     1.47366     5.20493    -7.93266    -5.47486     3.90374     2.01869    -7.95282     4.74878      3.2712    -2.50983     1.04532     12.8943
   7.82053    12.2908    9.30758   -9.84677   -2.88095   -1.66233   -7.10001   -3.35205 -0.0569434    9.90412   -3.20277   -5.02513    6.73512   -8.04173    -4.0688 -0.0588992   -9.99207  0.0495621   0.100046    7.15899    5.44815    8.57079   -4.22425   -8.17975   0.903473   -9.78838    2.21454   -6.29242    6.48745   -4.49284   -8.12941     5.1455    5.79978  -0.019706   -7.78606    5.25066    3.14551    9.78396   -3.39377    -5.4517    23.2312
   5.91186    6.45882   -10.3977 0.00661987   -1.66233    2.20161   -3.35205   -7.19182     5.2129   -3.77054   -6.02719   -7.11995    -12.992    3.53403 -0.0588992    1.35453  0.0495621    5.02314    6.52003    4.82793    6.32694    7.21887     2.6902   -4.41078   -9.78838    3.56442   -6.29242    12.0817   -1.35249   -4.62442    3.65219   -4.98497    1.28999    8.69433    5.25066    6.98826    9.78396   -1.20539   -2.60854    2.73735  0.0175028
   6.69707    9.76854 0.00661987   0.445238  -0.750737     1.0513    3.05026   -3.33054   -2.43423    1.11025   -5.01576    -7.3489    3.53403   -6.42928   0.945881    1.53776    7.69422    2.15029    3.42797   -3.97399    7.44334    10.9042   -4.41078   -9.61734    4.10377    2.57306   -1.23836    9.18589    10.1441   -5.74747    -4.8331     3.2821    8.69433    -2.6014    7.36555   -6.08424 -0.0367888   -7.73989    5.55575    9.93972    1.30655
   4.3341  -12.5682  0.445238  -3.46786  0.372184   6.78376   -4.4849  -2.76533   1.42953   3.58392  -5.06272  -6.30203  -6.42928   8.69473   0.18415   3.41353  0.378635  0.918192  -3.56059  -3.46559   9.45337   8.49535  -9.61734   10.5217   1.99424  -4.58014   8.91407   5.52374  -4.31365 -0.797831   2.67481   3.77486   -2.6014   5.59029  -4.46563   -7.0376  -7.61683  -8.27793  -13.6654  -0.06083   7.32157
  6.25302 -0.782828  0.320782  -8.44147   2.45136   -5.8269   -5.4833   3.19451   3.83653  0.366757  0.840487   1.49632   4.37945   4.19173   -1.1497   3.56394     6.626  -1.26262  -2.37565   4.76635  -7.78692  -8.93437  -1.92557   12.9801   6.48682 -0.294023  -15.2557   4.46258  0.195156  -2.07231 -0.571299  -4.79736   2.36864   1.89218  -5.81417  -2.01506 -0.650965   5.83562   2.99267   -2.2473   -12.479
 -0.782828  -0.985926   -10.4172   -9.05846   -5.53002    1.66004    2.46645 -0.0150851     2.1782   -2.04484    1.49632   0.193306    5.56971     1.1711    2.92678    7.39473   -1.16746    1.28572    9.69003   -1.63693   -8.93437     6.1984    3.62131    10.2725    1.90345   -2.08739    3.66067    1.30293    -2.7294   -5.31813   -4.79736   -5.41408    1.07932    1.98913   -2.08572    6.82738    5.10171    3.77191   -5.24451    7.72413   -9.41184
  -2.06131   -12.4369   -11.0334   -7.40667    5.42172    2.86566   0.469377    9.60593  -0.862524    1.69206    3.35539 0.00822995   -6.92487   -6.95958    3.72784    2.69537    2.11641     6.3587   -4.04526   -2.78056    4.27995    12.4857    3.32979    -1.9179   -1.70311   0.738856    1.34424   -2.96636   -2.54137   -3.55599   -4.69035   0.980998    1.57375   -2.40786    5.01644    6.20683    4.65542   -4.66158   -2.50035    5.71961   -7.31419
    0.50932   -0.055352    -6.56689     9.40899     5.05305   -0.832871      6.9798    -5.01789     2.80939     10.0939    -4.96942    -3.72767     1.69263     9.42831      3.3685    -5.14437 -0.00566068    -22.7799    -11.4863     6.73283     16.1773    -8.70099   -0.552064    -4.71114     2.08437     7.11574    -6.96636      27.815   0.0622063     4.16531     1.14695   -0.265148  -0.0333896  -0.0100107      8.7553    -5.97343    -1.85204     1.09916  -0.0215421    -4.39363    -5.54015
 -0.055352    4.93995    9.90781   -1.87217  -0.852278   -3.89675   -1.83227   -8.25389     3.2241    6.22349   -3.72767   -7.07863     13.575    1.10227   -3.85729   -5.30856   -21.3739   -5.13476   0.450975    8.52783   -8.70099   -14.8132   -4.24085    2.98823    7.71655    1.58589    23.2583   -6.79886    3.79846   -2.68849  -0.265148   -1.56783   -4.34397     4.9665   -6.18703    2.08684   0.944545 -0.0262739    4.30729     5.5988    -7.8311
    42.5909     1.68949    -4.06629    0.775884    -1.25546     2.92953    -6.88286    -4.40273    -1.25727     4.99238    -20.3609    -2.65313     1.95764     2.67469    -3.00386   -0.593424    -1.58413     3.30282    0.315913 -0.00831536     10.9065     4.35321    -1.04598    -5.16849    -4.37228     -3.5605     -8.5841    -7.92971    -13.4383      5.0202   -0.435446     3.32285     4.49638     0.30344     3.65355    0.913321     4.78836     4.64434   -0.355753     2.57101     -21.693
   1.26961    1.19337   -8.30572    5.05668    2.50122    3.14414   -4.20878    1.80923    1.42518   -1.68181   -7.75701   -2.24933   -1.45284   0.477287   -1.14414    2.20652    7.94024   -3.40649    1.92871    10.3437    4.32995    1.64278   -3.36575   -1.45443   -3.77822   -5.36199   -5.80125    2.48694    3.37373   -5.75933    4.50758    6.34343 -0.0235972 -0.0426825   0.634392    4.47579    3.13162    -11.494    5.26576   -3.40878   -18.1506
  -2.29012    1.63337    2.36618    4.51664    3.47571    6.81248  -0.215121   -1.73425    5.53282  -0.866441 -0.0644163   -1.40893   -2.11573    7.54431   0.234244    -6.4712     6.9781   -5.35036   -5.14133    1.24395    12.1125     1.1196   -4.52774  -0.600917   -4.25495    4.78877     7.9076    7.09337    3.86024   -6.16166   -5.79717    6.10888     1.0813 -0.0386785    1.27418    5.18456    5.18379    6.83403    -8.2399  -0.107289   -18.1173
  0.937966     10.742    3.51482    -2.0708    5.57367     2.2863   -3.07217   -2.26459   -4.08208   -1.29388  -0.750165   -9.63429    11.0656   -5.69131   -5.22407   -1.50451   -7.69249    1.85989    -10.534  -0.159346   0.806985    9.69665   -14.0026    3.86951    5.12182    5.69104    5.16092   -1.98897    7.09328     3.1252    4.18706    -3.8186 -0.0408027    4.52614    4.89948    5.28399    6.25171    4.20031    -7.0391    1.89857   -26.3696
    7.67526     1.38103    -2.61221    0.002822     2.86748   -0.127854    -3.39525    -1.13095      -9.228    -4.35279    -1.84409   -0.111361    -3.80111 0.000841454   -0.749451     2.48611    0.822018     0.77922    -10.9054    -4.37863     3.73431    -1.57592     5.49579  -0.0156554     5.46359    -10.8102    -1.66375     -3.9928     16.9228     7.24812    -1.94525     4.70736     5.25244     1.69774     5.12005    -15.6887     4.31194    0.321819    -3.85731     4.98524    -19.5123
 0.923668     3.024   2.16791  -1.10091  -2.64253 -0.360911   -2.9763  -2.61602  -11.0526  -1.29303 -0.370976   1.31133 0.0489147   4.35514 -0.213196  -6.76632  -1.30708  -1.26253  -4.76034  0.011941  -1.33813 -0.185431   -2.5481  -12.5624   -8.3489  -7.15729  0.150807   3.88028  0.661473   1.31781   2.94452   4.90749   3.72168  -4.05658  -5.75127   1.83769  0.626355   5.13368  -1.53603   1.20084   -19.633
   2.76842    5.31881   -1.32617   -9.10878    4.34934   -11.7535   -3.75295    1.31626   -10.7235    3.43773    3.23101   -8.78552    2.36459    4.96331   -7.23313   -13.7405   0.281896     1.6015    5.84569 0.00793042   0.389339   -8.00486   -12.7117   -3.19555   -6.58287   -1.65642    4.03653    3.50641   -3.76197    3.45152    5.58871   -2.88284   -3.43678    7.71183    3.47662   -1.33493    5.41222   -12.3138   -6.57535    6.07843  -0.819857
  6.40464  -3.79392   5.05223  -1.54583  -16.5437   13.2714  -1.98246  -4.92225   4.56524  -4.52195   7.06137  -4.15781  -3.42025   4.81002   1.75573  -1.40889   6.79223  0.869424 0.0726162   3.03544   10.2721  -6.08201  -7.70183  -9.92427     5.821  -4.67847  -8.80649  -9.81852  -8.62376   6.87889   -2.7201    4.5561  -7.38164   7.92532  -3.30877   4.10332   3.25499  -4.63647  -5.36188   8.23293  -8.49864
 -8.17173  -2.43923  -1.54583  -1.01931   4.00449   2.99431  -4.92225    11.913  -6.57776  -2.07623  -3.04377    9.1284   4.81002  0.172453  -2.51996   1.86582  0.869424   4.41157   2.06281   9.45913  -2.59873   11.3049  -9.92427   5.77207  -6.59794  -9.08437  -9.81852    3.7701   8.52252 -0.438639   2.37841   1.69357   7.92532   3.93799   1.44191  -5.37525  -4.63647  -1.65777  -4.21921 -0.034497   1.34691
   6.42166   -6.38746   -1.19968   -17.9895    2.99431  -0.526185    11.3964   -3.78058   0.566089   -1.39867   0.774857      3.509   -5.60286    9.88157    1.86582    -4.6799    1.42131   0.697552    7.08753   -6.54052   -1.13707   0.710502    6.97113    1.99897   -9.08437     -1.278    -1.9768   -4.53702   -2.60937    7.93526   0.609352    6.11849    5.40838   -2.18082   -5.37525  -0.042453  -0.361409   0.835002 -0.0260607   -4.64007   0.143801
 -6.47042   4.51526  -18.3163   2.02873 -0.698073   2.57337  -4.05836 -0.687435   -3.3612   4.26547   4.38963   3.10747   12.3767   12.3936  -4.27087  -4.73849  0.414301   5.14098  -4.91562  -7.89967  0.341226  -9.29823  0.955994   7.38489  -2.54826   2.04884   -4.6331   8.88411    8.2761   3.41176   6.50231  -8.84394   -2.3133  -5.10363    14.735   7.13774  0.850786   7.86281  -4.62518  -4.29206   7.12294
   4.51526   0.618714 -0.0036791     4.2567    1.73726    -3.7436   -1.77286   -4.05442    4.36114    -1.5008    3.10747   -3.69627    8.49079     0.8756   -3.19322  -0.533368    4.73573   -1.45173   -8.05363    6.27895   -9.29823  -0.284682    8.48606   -1.50563    2.22557   -1.34884    8.61882    9.00043    5.60633   -7.85402   -8.84394 -0.0714518   -4.86473 -0.0518051    5.78391 -0.0595082    7.64791   -3.34864   -2.30857    3.78939    6.57821
  2.36921   4.72268   5.41211   3.24811  -7.24654   4.63012  -2.81713   1.58792   -3.9421  -2.92561  -5.31106   6.42782 0.0612028 -0.830432 -0.073373  -4.95633  -6.50788 -0.751333   8.88359  -5.74226  -2.08122   11.1736  -1.24363  -5.11275   1.67013   9.62312   9.31128   6.21995   3.46922  -9.20649   5.38679   2.07953   -7.2989   5.73324    5.4066   1.77576  -3.65658  -1.15457  -3.25353   7.85705   4.14973
  5.56292  -5.40871   3.24811   2.66077   10.2829 0.0780504  -1.27307   -6.1213  -6.09092   5.14933   8.45433   4.25631 -0.830432   -0.9412  -1.57035    1.9838  -2.75322 -0.544378  -7.52337   6.36261   14.0328  -9.58411  -5.11275    6.9855   11.9174  -7.32498   4.30347  -9.11518  -4.42613   3.74173    2.5866  -2.46283   5.73324  -6.31523   2.22734 -0.141767 -0.849869  0.227388   3.52143  -4.19619   1.53816
  1.70569    4.4079   4.42686   1.67228   8.48927   6.60164  -1.43104  -1.92342  -30.9557   1.08717  -1.06634  -3.48581   9.32996   1.89117  -3.86778  0.857122   4.79676  -1.59608   14.1237   2.22678   -6.9579   7.90047 -0.757088   10.2503   1.04258   7.46168  -8.09523  -3.79408  -3.81006 -0.188174   0.86517   4.32202 -0.314745  -6.00677  -5.59455   5.81719   39.7301   1.71192   1.52408   1.17702  -9.11353
     5.83362     -8.51884      4.88658     -1.26757      5.40543      6.61055     -1.50857     -1.82695       4.3897     0.144688     -5.76383 -1.53468e-05      3.10419     0.719338      1.75398     -6.32375     -1.29149      3.26388     0.562804      14.8236      8.86129    0.0467292      8.88521       -1.498      8.04973      9.87517     -4.10834      5.16677     -5.61563  -0.00186029       5.0014   -0.0372308     -5.57752      1.82563      6.02882     -4.77724    -0.315312      1.69099     -3.81674   -0.0216702     -3.80075
  -1.79117  0.0101728    10.0045    3.31505   -5.31881     -3.605   -4.57066   -5.82615   -7.80612     1.8218   -8.85899   -7.00087   -4.15061    16.3608   -2.35416   -8.06523   -3.56861     2.1509   -6.04909    3.80711   -4.17403    6.97867  -0.545866    7.67297   -7.69901   -6.30171    4.02366   -8.53429    6.86194    7.68596     2.2008   -1.55727 -0.0306165   -1.20195    1.38543 -0.0182838   -4.23582   -2.79684    2.47108    2.23071    4.03569
   0.362387 -0.00343673    -4.45017    0.610896    -5.23701    -4.96072    -5.82615    0.438376   -0.121285     7.30622   -0.114163     5.88664      1.5934     3.35753    -9.69747    -9.19306      2.1509   -0.469291     4.18441    -6.46547   0.0714192    -5.93051    -6.10838    -4.05132    -5.18484    -4.90773    -8.53429     8.89858    -4.48098    -7.40867   -0.740215     2.20816   -0.345915       2.635     6.82665    -7.23562    -2.79684     0.32279    0.189946  -0.0325841     -1.8387
  -4.59406    3.63772    4.41774   -7.22781  -0.119286   -2.48802    -22.241    10.9527    6.09799    6.59062    5.76495   0.644768    4.65746     8.3855    -6.0452    5.72304     25.969   -12.3338   -6.85544   -7.42529   -5.42063   -10.5638   -1.35167    8.30482   -6.09785   -8.20915    25.6781   0.844531   0.401129   0.532563  -0.029499  -0.623661 -0.0575054   -3.84827   -1.55063   -3.83713    1.24289   -4.27595    1.90265    5.32428    1.06046
    4.31716    -8.79842    -1.50842   -0.963145     1.20663    0.419848 -0.00497558     -2.7189     -3.1237    -2.84006     1.00166     0.53281    -1.46259     1.70972     -1.1026   -0.193414  -0.0842584  0.00247257     5.96064     4.07841      -9.365   -0.644435     -3.2965     3.66982     2.69725    -2.44215 -0.00185678     2.70203     9.39063     10.2391     4.48329  -0.0344751    -1.55821    -4.51071    -3.06477    -3.54589    -3.84275     -2.1792    -3.69359     6.42556     0.63732
 -6.34517  -15.0706   3.95857  -8.89076  0.419848   5.48312   5.41435  -7.35663   3.69146   1.47813   4.02055   9.82716 0.0528181   5.55613 -0.193414  -1.20227  -3.23988   8.47631   8.65244 -0.062586  -3.65975  -28.3894   3.98387  -5.09746  -2.44215   7.56739   3.03445   -16.071 -0.465107   5.07563  -6.44307 -0.650114  -5.06329   6.23286  -3.54589   7.16039  -2.74059  -1.38149 -0.035546  -2.97148  -9.61842
 -32.4269  -7.97893  -8.85954  -6.14994   6.08357    8.6697  -7.24934 -0.212896  -18.0167  -35.2309   13.6862  -4.84036   3.70303   2.57073 -0.962474   6.25728   7.69736  -5.03639  -12.9843  -21.4051  -19.1853  -1.25007  -5.19341  -3.56007   7.05162  0.312867  -15.7118   5.23831 -0.646929  -5.46862 -0.742674  -2.58922   5.13401  -3.52447   6.88839   -5.0375  -1.35923  -7.56815   2.41099  0.586162  -6.38132
   -7.3532    -8.3257   -6.01477    5.06697    2.20488    2.15697   -3.15944    1.66396   -4.32679  -0.576141   -0.90591    8.86292    7.07694   -5.39569    7.69761     2.7619   0.349065   -4.75924    5.08396   -7.07929 -0.0671896   -4.28905   0.134611    2.61127  -0.195248   -8.64926     3.8692    7.25055  0.0910561   -7.76643 -0.0365853    3.27346    -1.9654    -5.3911 -0.0302693   -9.95633   -5.61362    5.66403    2.71721    -5.1561   -4.20973
  -3.71399   -2.44655    7.01526   -5.22704    2.15697 0.00202873     1.8203   -6.13207 -0.0229411   -2.15324    4.25533    3.82198   -5.11827   -2.59777     2.7619   -7.68744   -3.13981    4.48222   -1.45601   -6.67811    -8.4847   -6.58655    2.63592    7.84374   -8.64926    7.56846    7.07005   -2.30449    1.25377   -10.9344    1.17533   0.604818   -5.92537   -6.09053   -9.95633    4.46624     5.2718    6.74106   -3.30347  -0.190253   -2.61608
 -2.44655   1.61104  -6.41596   7.34495   1.32454 -0.928163  -7.49426  -7.89375   29.8943 -0.763562   3.82198  -2.75085  -7.72238   8.86329  -8.11683  -3.93764   1.06836   13.5555  -4.22715   8.28416  -6.58655 -0.509556   6.08339  -6.97891   9.44201  -5.24697  -2.16786   2.52093   8.63306  -2.73209  0.604818   3.89432  -6.12604   5.33776   5.40859    6.4539   7.01804 -0.800577  -1.76811 -0.031156   4.47055
   2.58493    2.33352   -1.38391    4.50763 -0.0715316    1.79076   -4.46043   -1.05835      1.394   -4.38863   -9.32846     5.0831   -1.15684    2.02655   0.244001   -6.45053   -9.22084   -2.86184    3.25492   -8.78994   0.219073   -12.8247   -10.6957   -6.64666   0.342544   0.151785   -9.73206      6.201    3.33591   -9.36548   -3.61716    -7.4635   -1.40145   -1.22151    3.54274    5.18772   -4.32886      4.246    3.42025    3.26189   -37.9877
   5.46029   -7.92549   -3.28607    1.16296    2.19685  0.0155029  -0.969043   -19.6746    5.52849   -8.63678    5.22767   -5.96164  -0.845117    3.42939    6.50695   -3.86257   -2.64033   -34.6396    -1.5731    -6.4947   -10.6963   0.549248    7.96807    2.76627    5.24295   0.402606    8.16541     102.38  0.0115726   0.598514    4.10858    8.92311    -1.5056    1.82338  -0.980378 -0.0701699   -7.65994   0.623711 -0.0462012    -8.2006    11.8606
   9.84089    9.82096  -0.706484   -0.83484   -5.42367   -6.50535     4.4974    2.36993   0.659886    1.33472   -5.69166   -5.68201   -6.14951   -3.73071     3.2512   -9.86332   -2.69443    4.68167   -6.06264    1.65448   -1.35441   -1.34529   -7.76458    4.57168    -3.3645   -5.66413    2.79096   -1.89333    6.72974   -7.14894   -2.19517    2.17637   -7.95503   -8.03364    1.91857 -0.0203424   -2.35625 -0.0521488    5.99183    3.32676    3.97051
   6.34294    -1.4233   0.860049    4.86284    6.10029    0.97933    1.76909    6.82374    1.33472    1.92217 -0.0801364    6.68327   -4.50149    4.68471   -13.7112   -4.92998    2.14571    6.59609    1.65448    2.95809   -6.48412   -9.50383    5.08604    5.77692   -2.45533    5.61267   -3.94165    8.13295   -6.20861   -5.23353    1.68305   0.174517   -8.97705   -9.66392 -0.0198624    8.19759    3.87581    6.84463    7.65547   0.417303   0.759053
   1.4426  0.407816   4.31237  -9.25389   1.00667   -2.8888   6.54865   -3.3139   -2.0419    4.2677   4.50522   5.59904   4.63657   16.5026  -2.87216   5.15549   7.28162  0.708165  -6.34503   5.61997  -11.6008  -9.62895   5.32293   12.3334    3.8976   3.86923   8.22978   4.43585   12.6548   5.84143  -1.03606 -0.100726  -8.96175  -1.14988    5.6118   3.62419   6.94334   3.08411  -2.27316  -1.65366   -5.4833
  3.57013   2.78462  -13.6266   5.71107 -0.260158  0.151782  -3.70437    4.4321   6.45158    0.5886   3.86072  -3.83817   18.7401   5.32371   7.14626  -4.21887  -2.49794 -0.814594   6.03637  -2.62067  -10.9541 -0.117608  0.578262   5.37685    3.0625  -1.80315   6.21815  -9.82166   6.09642   8.73591 -0.512252   6.98241  -1.43804    -5.454    3.5971  -6.13946   4.23994  -5.53859   4.78622  -4.50862    3.9605
 8.52125  7.82352 0.655949 -1.30406 -1.54097  6.68147  2.59839  5.38567 -10.1466 -3.52609 -1.96114  11.5845  6.90609  2.94383  2.78119 0.228121  1.73185  7.94563 -26.5637  7.91588  10.5172 -8.82548  7.63898 0.956485  8.63906 -8.42358  8.54015 -6.05153 -42.3761  2.54788  2.53033  4.89281  1.10118  5.62519  3.25656 0.848825 -6.65751 -7.15143 0.326752 -2.12005 -5.32255
   8.0601   5.78013   -3.2615  -8.32684   7.13928  0.151936   5.55636   9.52492  -16.4735  -1.60117   11.4951    3.4482   1.98404  -2.27936  0.800462  -0.10947   7.92814   5.73844   10.0525 -0.435465  -8.77791  -2.26119  0.666824   1.19717  -7.96576   3.39433  -6.05028  -3.70039   3.36152  0.231698   5.10695  0.792729   6.01556 -0.728162  -2.62855  -1.17731  -7.43124 -0.483306  -1.20545   3.70061   5.04468
   12.2751   -7.12861    -3.1037     8.4992     -5.983   -12.5923    3.30179  0.0799852  0.0425698    2.63292    12.8768   -6.24171   -2.75723    8.92365   -5.24459   -11.2159    2.04842   -7.05291 0.00196139    1.47801    8.74693    7.55764   0.947024     6.0635    6.34644      3.842    -9.4041   -7.03099    5.89643   -7.84906    2.63597    4.37332   -8.37448   -3.82517   -5.23562    2.05906    3.49744   -2.46501   -1.12259    4.83983    7.86338
 -0.905404 -0.0399496    9.00007    3.84723    6.37073    1.17952    -7.0905    4.01295   0.521554   -13.9695   0.924121  -0.583947   -1.12866   -3.58112   0.626846    1.10666   0.543433  -0.306677    8.45054    1.75091    1.82597   -2.85027  -0.584053    -7.8787    6.98759    2.78761    1.35381  -0.767847  -0.165957   0.898905   -6.61872   -4.60126    5.78554   -1.78221   -3.83502    10.5571    6.50579   -11.5288  -0.038293   -3.74211    5.05209
0.00751083       12.5   -11.5038    2.54234   0.217564    1.53896   0.698325    6.70825    5.71018  0.0431608    8.70321    5.09554    0.10821  -0.606074    2.14381   -3.63839    5.91108   -2.14209    2.32875  0.0731054 -0.0176898    -1.4954   -6.41803   -6.39047   -5.29519   -8.00882   -6.63188    -1.2853  -0.682152    5.99462 -0.0353525   -2.35884  -0.013343    8.95201    5.91656    2.82572    1.68609 -0.0237493    5.13961    2.11758   -11.6646
   8.42768   -1.84747    2.54234  -0.015315    1.53896  -0.846166    8.47287   -2.06088   -5.93207    8.00174   -5.86422    8.19467  -0.606074    4.26597   -3.63839    4.34644   -5.48237    8.65335   -10.5445   -5.13423   -0.66295    6.50821   -6.39047   -4.59737   -8.00882    3.47244  -0.675158    6.85743   -1.07944  -0.637006  -0.704483    4.36614    8.95201 -0.0909565    2.82572   -2.33303    7.85328   -2.98603 -0.0268105    -7.6073    1.19013
-5.94958  6.34202  23.8379  6.74679 0.636911   2.2135 -3.36858 -5.90324  5.05926 -2.57782  13.2176 -8.45485 -29.3868 -8.96997 0.213872  5.42088  1.89862   7.2672 -11.2349 -6.32889  9.08272  -8.0815 -31.0177 -8.57213  2.34483 -1.59103  6.33514  7.67626 -7.71553  1.86805  6.08268  5.27566  1.66644 -4.98324 -1.45646 -4.91371 -2.41381 -6.74792 -7.15439  4.17228  8.41971
   7.25304    -5.0281    5.41429  -0.691424  0.0461584    6.46301   -6.33811    4.59363   0.805002   0.299249   -8.31076   -8.67347   -8.25852    2.91795    3.32763   -7.76451    7.24494   -2.10175   -6.70752    1.48489   -7.83225   -1.58226   -9.43708    7.57851   -3.35068   -9.52722    6.82265    6.67634   -9.95145   -9.57368    5.58094 -0.0309034  0.0708767    10.6645   -4.32907 -0.0779894   -6.42011    -7.2569   -4.66453   0.599019    12.3922
  -13.7039    2.03534    3.14128    2.92477    12.3642  -0.433548    2.86281    -6.5425    -3.7123   -1.99259    2.35259   -5.09932   -1.77492   -7.42317    2.64579    3.69109 -0.0899397    1.15103    6.06599    6.83461    -1.2198   0.316608    4.91674   0.457857   -4.87209    4.13415    7.83722  -0.576745   -9.80914   -8.99076  -0.773235    2.51148    7.77915   -1.76628 -0.0155993    3.50363   -8.00621    1.59054    4.09773   0.530913    11.0406
 56.9788  7.15087  5.21152 -5.10417 -4.91241 -2.20864 -3.16825   4.7225 -2.15204  2.87793  -17.244 -2.15359   6.1891  13.9744  1.79925  5.54129  5.58538  5.51803   6.2605  3.63769  10.9795  1.37327   5.7345 -3.33801 -8.82356 -1.36649   -9.188  5.15627 -1.46638  3.29755 0.889537 -7.12823 -8.40531  -2.5961 0.361077  2.77844 -1.23156  7.61847  3.29407  2.76675 0.817486
  -2.41796 -0.0912138  0.0126941   0.133958     5.5652    5.35396    4.46488   -6.13093   -2.52784  -0.280427   -5.36187    2.97903    0.91015 -0.0279867   0.261963    4.64837    3.18467   0.852596   0.427229   -1.95674    7.82401    3.15966   0.986918   0.187407    5.94443     12.752    7.66053     7.0088   -7.61433    9.85576    3.09401   0.565864    1.62331    4.21321     5.0399    -4.6732    5.82724    3.88592  -0.112994   -6.17127   -8.92489
   6.58741    3.03953   -4.98636    4.46483    -6.2601    5.33514  -0.210072   -2.24676   -8.73912  -0.141565   -2.07995    1.86644   -5.81039    5.20879    5.43853   -7.09676    4.64029    2.49523    7.62923   -7.93626   -9.80262    4.90606   -2.52916    2.26182    4.66395   -8.40315   -5.10214    1.84681    6.53933    8.00156    5.98107    6.82985    4.21161   -4.74879   -5.40885 -0.0181168   -1.62454   -0.31484    3.92969   -1.52024   -9.52834
   1.54988   -7.35498    5.16598    3.79789    6.98727     7.3967   -1.48914   -2.70906    3.69811    -2.9717    1.95903   -7.48317    5.24475    4.89902    -10.705    -7.5312    4.38038  -0.654756   -3.77879    8.75871    3.51492   -6.04237    4.22965    8.71036   -5.60521    6.15312   -1.21059    6.32738    3.08457   -2.41933    5.04461    3.97753   -5.71494    3.68369 -0.0184161   -4.78298    16.2586   -2.91015    9.50543   -8.14029   -6.15783
  0.556567   -2.00935    5.57005   -7.96571    6.06123 -0.0204962   -1.64593   -8.09401   0.015268   -10.4915   -11.3462    4.96601   0.728153   -1.03518  -0.927936    7.51231    2.96938  -0.206263    2.21929   -1.36782   -3.72434   -8.48006    9.87658    2.34732    6.98774   -2.64846    4.61101   -2.82177  -0.787576    3.09073 -0.0186449   -5.67717    4.01736   -4.78942   -4.36354 -0.0919906   -2.35231 -0.0261911   0.215053    3.61688    2.71027
   -2.00935    -17.3132    -7.34816     1.76925  -0.0057683    0.187218    -10.2329     2.69851    -7.12028    -1.12361     4.96601    -3.08582    -1.32797    -2.21126     5.08511     -7.8879    0.521449   -0.127974    0.379916 -0.00831606    -8.48006     5.31037     2.24986    -3.92978    -5.02765     -9.3244     1.53473    -2.86765     1.06857     21.4711    -5.67717     1.95388    -4.62196    -2.03806    -1.87354     7.90959     3.20783   -0.328334    -4.64173    0.194432    -3.15596
  0.752132    -6.4179 -0.0457003    1.37849  -0.884674   0.825993    10.3212   -1.21653   -2.56294    1.38914    8.43088    5.17052  -0.219959   -4.19355   0.274307    9.21494  -0.618395    2.32386     3.0464    1.83919    5.24579    11.5841    10.4752    6.26463    8.01783    5.76008  -0.309728    6.03056    5.60866    3.35404    -3.0172   -2.62075   -1.38471   -4.06925    9.11663     2.7267   -0.03169     5.2452   -3.52477    -4.0979   0.257319
 -3.31805  -3.38624  -0.80551  -0.46543  -5.20573   8.16398   7.70407  -27.0933  -12.3648  -5.79223    1.6608  -8.11328  -1.91642  -1.10888  0.265061  -4.08965 -0.399901  -5.03449   6.18665  0.375933  -1.67038  -5.22842  -1.25359 -0.726532    2.1013   4.55528  -3.10691   32.0823  -6.69671   6.17745   3.51829 -0.854516   3.08249  0.636497   6.80046   3.47613  -4.62546  -1.88626  -3.25534   7.61332  -15.6799
  -2.75341  -0.362103   0.940357    7.12007    7.19197    1.39467   -3.62411   -4.56654   -4.85698    2.48497   -8.83001   -5.54025   -1.35885    1.83559    -10.637    4.44104   -3.40868    6.76166  -0.834195   -4.02386     -4.451    5.92143    3.97808    1.36577    4.48977    2.24353    3.57825   -2.85114    7.14472     6.5079   -2.34326     1.2833    1.46328 -0.0395244    4.25339    4.62959 -0.0424044   -6.72608     3.1894    -9.0436   -5.64152
   -6.6012   -5.17077    5.16621   -2.41154  -0.482045    5.50888  -0.731174   -7.38367    3.45185   -7.72136   -2.20595   -1.77563    1.73025    6.10476    5.03833   -7.33235    7.58172    -3.9473    -4.5869   -2.86147    4.74877    6.93893   -3.70836   -3.44664  -0.502668   -4.39732  -0.752641     -11.31   -2.75225   -1.44998    1.19849   -1.51406   -1.56774 -0.0273575    4.14341   -2.78181   -2.77275    -1.9995    4.41468 -0.0326817    5.81548
    7.70861  -0.0221042     -4.5476     2.20203    -2.83207    0.557381     4.98649     3.01581     4.80458    -2.69824     -5.9717    -6.77785    -4.37043     4.83123  -0.0261513    -7.89166  -0.0219282     3.78468    -2.51166     1.87109    -17.6877   0.0254068    -9.40104     9.45111      2.8713    -8.44942 -0.00126401     8.63454    -7.36546     -7.0818    -0.47249  -0.0480705     -6.4664    -4.84938     2.73887     2.72828  -0.0646671     6.16601      3.1536     6.81359    -14.2192
-0.438485  -10.4351   3.07802  -6.09229  -1.05943   -5.7236   2.37322 -0.140141  -2.69824  -4.95173  -4.89307  -14.5198   4.80595   9.31673  -9.36109   8.73707   3.73636   1.67134   1.87109   -6.8619   -3.7259  -3.61221   9.31225  -4.90216  -7.18969  -4.59533   8.71087   -1.9427  -5.69425  -1.70663 -0.822861   2.05147  -4.78845   5.88042   0.41618  -6.29896   6.14974 -0.718955  -2.93183  -4.37357  -7.99829
  -4.31104    5.80553   -7.81788   -5.39347    278.071     13.271    6.15075   -2.79217   -1.18672   -8.01548   -3.45966   -2.51636    12.3342    8.53972    21.7801   0.133822  -0.837842   -8.08137    4.86399    12.8738   -8.33857    9.65338    1.08931   0.771756    361.029   0.011004     8.8709 -0.0708004   -9.06433    1.24662    8.57244    4.03368   -3.53207    6.60942   0.116478 -0.0216862    -9.0627 -0.0269427    9.67407   -1.01256    0.47047
  5.20475  -4.37141   9.12171   3.87798  -5.05116   3.80112  -6.67323 0.0418889  -4.92846  -7.30134   2.59969   8.09825   4.54736   3.91543   9.36353  -5.66944   5.44483 0.0949709    4.0227   1.02637   2.91672  -2.84925   5.11085  -2.22596  -3.29229  -9.55136  -1.66095   4.47709   -1.2285  -11.8009  -5.85708   7.37443    3.3194 -0.047507  -6.39582  -1.22134  -5.74074   2.72737    7.7362  -16.7791  -11.0975
  0.030999    -1.1757    7.00022   -5.97505    3.80993    1.93387   0.837028    4.74952   -4.37543    6.38156    4.60825    3.69924    2.39452   -2.85061   -12.0883   -2.02774   -2.39504   -5.09398  -0.467624   -6.84592   -4.64079   0.847623   0.165957   -9.31719   -2.75622   0.683702    3.91448     1.6397   -4.87501    2.19907    3.88084    1.70137 -0.0452574    2.53582  -0.542614    0.66452    2.67152   -8.71829     4.4027    6.27737   -10.8311
   -3.81854     2.59792    -6.86047     10.5015     2.72646    -1.90764      5.7866    -2.74486     2.12863    -4.19861     11.1355   -0.541762    -4.63327    -4.65912    -11.8821     8.37191    -2.55608 -0.00744655    -6.22087    -2.83866   0.0559595    -4.45791    -8.19504    0.608849     1.91568    -1.35132    0.335811     2.71481  -0.0348762    -5.01241     2.95388    -8.61257     2.59729     4.18383     2.76751    -3.95291    -7.63637    -1.41291    -5.30408    -4.26647   -0.617647
    -2.334    1.30882    1.20124    1.46933   -1.10307    4.88605   -11.5307   -8.89058    3.24074   -7.45654    1.69155   -4.01883   -7.97507       10.3    7.39952   -2.86832   -9.40794    6.55607   -2.39146   -6.29113  -0.907006    5.34208   -4.96601    11.8212     4.6095   -10.0414    4.27158   -3.44976    1.25616   -5.40691    1.79732    1.81408    -6.5148   -3.58634    7.00154   -5.62172 -0.0159135   -1.66575    3.21146 -0.0334119   -2.55313
    -3.69008     -9.65111      6.41813   -0.0197003      4.45418    -0.122699     -5.47022     -6.67408     -4.16255      5.34606    -0.860647      8.31519  -0.00330995    -0.183493     -2.43645       1.6882        1.918      5.74795    -0.401951     0.512724      8.98768       3.3645      6.39872 -0.000162361     -10.4733     -2.05105     -7.50004       2.3249      1.36844     -1.76245      2.87127      4.05502     -2.19557     -1.60722     -9.44035     -1.57832     -2.07307     -5.88032     -5.92803      4.56934     -2.59356
  -6.77934    3.34116   -6.53073   -15.1415   -2.24656     4.7738   -1.61621   -2.32633   -4.19169    1.83704    8.24841    -10.618   0.545578   -3.41531    7.18633   -5.81645    5.13031   0.926946    3.39409    5.88149    7.45757   -2.15305    8.17881   0.174607     1.5682   -5.25553   0.989937    6.18024    8.00058   -9.80118    6.11156    4.81481   -3.47542 -0.0216769   -2.59361   -8.67947   -6.38842   -4.92692    2.14961   -9.92101    7.52942
   4.93226   0.855792   -6.40614    5.06865    3.52953    0.52403   -0.83807   -1.49659    12.6901   -1.13945   -9.86138   -5.44234   -10.4191    8.28477   -7.00038   -4.16355   0.488474    3.06564  -0.147987    7.19602   -3.03233   -3.70675    4.23544   -3.35016   -2.24638   -5.58426    5.06692   0.825109   -1.00257     4.9043    4.93837   -4.54903   0.898814   -1.14813   -5.07036   -3.64864   -3.96548   -4.35641 -0.0237958    3.42108      4.117
   -2.0849   -8.54233    6.73843    -4.2393    0.52403    3.41847 -0.0526544   -0.95481 -0.0953381   0.142842   -6.80852     1.1981      8.577   -0.41217   -4.16355    4.36315    3.09147   -3.09946    3.31811   -8.30878    1.20306 -0.0645621   -2.11717   -4.97497   -5.58426    -1.0793    1.28107   0.546592    3.42863   -3.44501   -3.31387 -0.0360752   -1.22519   -7.55713   -3.64864    2.40617   -4.39777    7.20969    4.05176    1.61479   -7.18764
   4.55746   -2.10887   -3.22931 -0.0677478   0.681423    4.28118  -0.867318    4.28011   -8.08917   0.025116    3.77142   -2.23237   -4.82931   -7.24572    5.82848   -6.04711   -3.55229   -3.13249    5.95633    2.18071    8.28752    4.33766    8.08006    15.4284   -6.61686    12.8002    16.7491  0.0748609  -0.139725   -2.13441    -3.9036   -5.45381   -4.63544    1.84678   -2.54741    2.32367    1.42495   -4.05728    2.12061   -2.49267    12.6042
  -6.62718   -5.43341  -0.142466   -4.14615    6.32837    -2.0292    4.19651    5.70436   0.709786   -4.15008   -7.80902   -6.48584   -6.35879    -4.8853 -0.0435654 -0.0545683   -7.14386   -9.73153    4.37121   0.293446    3.85062    3.22361     0.6213    2.40244    6.41827    2.08909   -1.75046   -2.38616   -6.55415   -9.19285   -7.01127     1.9945 -0.0377906    8.54022    1.14052    3.60545   -7.30435    5.34714    8.69058   -4.22804   -13.7764
 -2.34442  0.652173 -0.338827  0.889142  -2.00039  0.929609   8.13526   7.74447   9.69805   3.88607 -0.224018   -1.9923   2.20815   3.43014  -2.60242   2.51777   10.7066  -2.57208  -3.20784  -1.30272  -2.61502   2.67168  -3.86618  -6.21404 0.0334324   4.25622 -0.131041   3.24235   4.14358   1.53825   5.19784   2.67607 -0.833389   3.80672   3.29854   5.54727 -0.826979   -10.613   6.26915   5.41777  -29.7621
   0.739842     8.20848    0.889142      2.1687 0.000807821    -4.77642     5.90931    -1.29816     6.38661   -0.526926  -0.0938089   -0.352009     3.43014     9.90642     5.75794     -4.0953     -3.0207    -5.98209    -3.26487     3.63984     3.20036    -8.57168    -6.21404    -5.94231     5.76343    -8.98157     3.26326     3.60337     3.53051     9.24505     3.26365     1.89494     3.80672    -2.50207     8.07246     4.55582    -9.53899      4.0911     8.78097    -5.97043    -15.4428
 0.0394403  -0.154647   0.499584   -52.5088    -5.9857   -2.81428    6.83864    6.34827    45.8179  -0.634539 -0.0843093  -0.841697   -3.13413    52.5912    5.99292   -1.34992   -9.19882  -0.129948   -61.6571   0.641798    6.03484   -13.2033   -5.25229   -43.1868   -4.89003   -8.79213    8.05591   -6.65546    53.9914  -0.465795    1.24119  -0.311595     7.8827   0.415893   -3.84629    1.02747    8.24214    3.49933   -1.23197    1.68956   -6.47221
   2.20155  -0.494067   0.570233   -1.07295   -2.65405    7.36367    -2.8237   -1.22206    5.47776   -2.54979   0.115019    -1.4821   -2.56651 -0.0106731   -1.00469   -5.55515    4.17781   -0.44979   -4.13571    5.89988     2.1754   -3.07687   -4.41101    4.15627   -6.85038    4.47566   -7.70438   -5.23569    3.33003   -9.41669   -1.59182  -0.241748  -0.127132    -3.4172    3.75227    4.08981   -1.21418   -3.93994   -5.53693   -4.81987    18.7069
  -12.2852    8.79062    6.67364   -6.08534   -7.48398   -1.04083   0.785649   -7.74322    9.21988    2.83395 -0.0649648   -5.27205   -1.24633    3.64143   -7.33455   -2.28305   -1.04967    7.99625   -9.54105     -3.825    12.2747   -5.94958    -7.9287    4.11696    -1.9361   -8.41997 -0.0294803  -0.855743    1.00889  -0.104593   -1.25918   -4.26968    2.21883    6.14574 -0.0328428   -7.90291    4.14119   -2.83747    2.37384   -1.18072   -11.2337
   27.4331    1.80756    4.25108   -3.48287    13.3035   -10.5136   0.015181   -2.23575  -0.936197   -1.36012   0.781277    3.36822   -7.28268    6.95202   0.157046  -0.297306   -10.6662    5.07742   -3.39099   0.105186    13.6295    5.17344   -9.03787    8.22947   -3.36479   -5.21931  0.0593504    5.79733   -9.46477   -8.53825    1.05865   -7.83189   -3.49992     8.7011 -0.0174545   -2.78053 -0.0301321   -6.91282    9.32121   -8.90689   -4.41919
  -1.40035  -0.138608   -2.66477 -0.0502215   -10.0716  0.0778408   -1.93407   -3.14667   -1.24787  -0.123572    4.58689  0.0206671    7.72975  -0.475791    1.08398   0.193092    4.96654   -5.02491    -1.9968     6.8027    4.84704  0.0567974    8.35657   0.118866   -2.70241   0.098983    5.50035   -3.06579   -1.21668   -6.92822    -7.7475    -1.3832    8.86809  -0.522785 -0.0231321    -2.5249   -6.58319   -4.53565    11.5748   -2.04024    1.03539
   8.51243   -8.72889    2.69394   -9.19187    1.96358   -23.9732    1.84844   -3.82695    -5.4423    4.22987   -3.43936   -7.79093    -5.4078   -9.64977   0.638737   -22.7781   -3.70062   -4.21682    2.17882  -0.193751   -3.63032    8.27008    2.05545   -3.43443    7.24628    23.4858    1.40594    4.06979    2.32421    8.83334   -1.23833   -6.18219    4.68819 -0.0182292   -5.62614    3.09921   -6.90335   -5.37216    1.90167    5.03182   -6.84073
  8.27744  -7.35094  -3.34475   1.35711  0.775889  -5.99152   7.39521   3.35356   7.17588  -5.08091  -5.22913  -5.99165  -2.33323  -3.12544   1.46397  -3.08075  -4.67555  -1.08714  -2.99235   1.82414  -6.38911   11.9327   12.7265   4.90333    6.6668   8.32729  -5.70361  -6.93225  -10.1742  -6.86913   4.61056   4.31477   3.84044  -3.55787  -1.64208  -8.46335   -5.1924 -0.195136  -3.78723  -3.79011 -0.591034
   -7.71521    -14.1672     1.55701     17.7967    -5.31125   -0.212736     19.8153     4.03132    -5.31351    -4.34172    -4.18028    -1.23253    -3.72616    0.322904    -3.19638     9.35398       1.721     1.26943     3.53826     5.96428     11.9737     5.32868     5.26902    -12.1877     8.51831  -0.0185838    -7.43949      8.9513      8.8499    -12.4078     4.25456      5.5264    -3.84561 -0.00578717    -8.48866  -0.0350078    -3.96418     7.92411    -7.56128   -0.900526     9.18299
-0.286417  -11.9685   45.3981   4.48968   1.35704    6.1451   5.14784  -1.28843  -6.99978   4.94061  -2.30045   10.4414   3.83943  -1.85616   5.00581  -2.69731  0.703913  0.553194    6.1067 -0.574559  -2.60173   8.71013   49.0731  -6.34863  -6.38743   8.03564   7.06411  -1.95223   5.09486   5.35598   1.20317  -4.37881  -1.22369   3.16996   2.17035  -1.37092   6.57713   -43.142    7.4582   6.06194  -6.81925
 -1.75047   3.36934  0.862052   3.95855   3.36726  -4.75043  -6.02496  -9.10108  -4.38538  0.400232   7.15876   5.82983  -3.54624 -0.289949    -9.503  -5.37548   7.22207   10.9375   5.26693  0.634395  -6.35386   -9.4398   3.15281  -4.27676   12.8519  -10.3595   5.03011   7.81345   3.73369    1.1138   -3.2348   1.48342   6.47249   3.96223  -2.16962   5.02265  -4.98619   -7.7049   22.8037   3.94927   4.12151
   2.40822    -6.1016    3.81335   -1.10161    -4.8355 -0.0714903   -5.73378   -4.54571     1.5381    -3.9586    6.82115     4.4325  -0.623388    1.56476   -5.45851   0.092631    9.16026    7.56577   -1.51163      5.617   -9.29238   -13.4126   -4.47453    1.75534   -10.3003    6.08132    9.83661    8.01518   -11.9358    6.31097    1.87211  -0.261535    3.98637    4.32463    4.92682    2.60855   -7.84181    7.22464  -0.855714    1.80575    -14.729
 -1.78931   8.71918  -3.79853  -4.91188   2.14316  -3.31286  -1.50376   2.27797  -5.58734    7.5033  -6.03313  -4.52609   1.98172 0.0946966  -6.57436  0.964396   6.21361  -1.68402   4.86944   8.88329  -11.2229  -3.05308   1.33501   4.98898   8.73946  -4.43392    7.7072  -5.91618  -10.6973   16.3184  0.121366  -2.37405   5.38578  -8.27905   4.20735   2.25319   6.53546  -5.75924   1.02867   -2.5745  -10.0935
  9.66295   5.59159  -1.75132  -3.92587  -4.88233  -3.82719   2.27797   -2.9217 0.0775548   3.01303  -5.30034  -3.09337  0.270021   -4.3503  0.758144   4.67244  -1.68402   3.62527 -0.101618   3.31045 -0.745987 -0.434275   1.48379  -9.79553   4.15015   -2.1791  -5.91618  -1.67482    6.1684  -6.40834  -3.14347   5.39954  -4.98124  -7.97736    1.7589   2.21025  -5.75924  -2.90749 -0.784505   1.91622   5.88082
   8.68481    0.97829   -3.92587   -1.72574   -1.81114   -1.28948   -1.59497    0.28642    9.90999   -1.95377    3.92629    1.30912    -4.3503 -0.0509348    8.14369   -4.44303    1.04376    2.17235    4.47606    8.75623    3.17777   -3.95833   -9.79553   -4.13741    2.94276   -8.90356   -3.82193   -2.73314    3.61079    3.14473    7.64039  0.0801846   -7.97736    8.53681    6.43383 -0.0539519   -1.45505   -1.17687   -6.70862   -5.99615    0.84829
  -3.88949  0.0581531   -1.72574    6.89918   -22.3849    5.03025   -2.09465   -10.7775   -12.8721    4.00542    6.31689    5.77187 -0.0509348   -1.71161    -11.587   -8.25679    3.70063   -5.72691    20.9349    1.89509   0.653954    5.83041   -4.13741    8.64701   -13.2397   -0.86528   0.396463   -6.38684    2.19538    2.37467   -4.09501    9.56959    8.53681   -7.88092   -1.76693    8.83625   -2.60491    2.78493   -1.80369    2.30008    15.5534
 0.0371064   -43.1605    6.21065   -5.69551    8.21022   -6.56042   -8.51933    7.49105    5.28329   -0.26677    4.08507    21.1383   -3.58597   -4.01756   -4.02403   0.300524   -4.11984   -2.07601    2.55093  -0.862337    4.12549    23.7608    9.78641    9.76249   -4.52613   -8.62392   -8.29136   -5.79309    5.14106  0.0460618     7.9043    -1.8795   -8.70079    8.48714    9.85106    1.44696   -2.47616 -0.0126848    3.97108  -0.355399   -5.06082
  -50.992  -1.33439  -6.84849 -0.160536  -6.56042   3.98965   9.26985   4.28323  0.171977 -0.465323  -24.1905  -7.66296  -3.88345   2.61263  0.300524  -0.76538   4.40897  -6.40278  -6.38828   4.65401   12.7393   8.67052   10.5595   2.80865  -8.62392  -7.75667  -2.32035  -11.0333   -7.0744   5.81405  -1.03386   -5.0916   9.14782   3.90761   1.44696   6.16911   5.65915   2.31202  -9.94484   -8.3118 -0.996962
   4.56608    4.95804    1.82214   -9.76662     2.9279     2.7822  -0.573199    5.02163  -0.759469  -0.963131    1.12567   0.763767    4.89495    14.2305   -2.99923   -4.91073   -4.48166   -7.29657   0.749864   -7.47635 0.00257351   -7.20031   -7.62064    4.87784   -6.33502    7.68918    2.53602   -2.50345    4.27005    4.23575 -0.0715816    6.68682    -2.8069   -2.00853   -1.63763   -4.27266   -9.85784    3.88994    9.90217    5.88271    1.46624
   4.95804    -2.9064   -3.36396   -1.40267    5.16776   -1.00219    2.44189    5.28253  -0.701142   -3.67245   0.763767   -4.27044    3.33313    3.67794   -1.89719    3.90104   -9.31392    7.84481   -5.92564    13.7623   -7.20031    3.22414   -7.46768    5.09572    7.04811  -0.330026   0.793899   -5.92007   -6.59509   -1.18538    6.68682   -5.21121 -0.0359865    5.93943    -3.9283    -5.1607    5.51831    2.82255   -3.81349   -2.29267    10.8055
   4.65595  -0.375151   -3.58495    5.18347   -7.88118   -9.25143   -3.05586   0.239917    2.45983    6.83424   -5.53399   -2.61335    4.14951    1.12626    9.28003   -1.56015  -0.201978    -7.1785   -8.00578   -22.2966    3.97781    2.92545   -2.99036  0.0190682   -6.67355    10.6447    7.01721   -7.78116    0.68676    1.89806    2.26158   -5.75835    2.44188 -0.0627227   -2.44873    1.90098   -1.66459   -2.14514    4.36696    -1.5806   0.342849
   -2.56713 -0.00289809     5.89674    -2.17974    -1.56211    -3.57491    0.239917     4.94576      16.543     7.86225   -0.889464  -0.0405513     4.40265   -0.337191    0.339152    -1.25746     -7.1785    -10.3051     12.2906     5.86501      2.9105     4.78894     1.13091    -2.61326    -2.00934      4.0816    -7.78116    0.388807     3.58568     1.59764    -5.77439     2.35658    -5.58179    -1.31762    0.432323      4.0725    -2.14514  -0.0313764    -1.64042     7.60274    -10.0137
  -1.46041    2.80923    10.0266    4.13101    1.85388    13.5584    -8.2122  -0.797604    3.75836     2.2713    1.15865   -5.93349    1.52672   -2.42571   -3.90816     3.8394   -1.28902   -2.48133   -2.13296    -0.5448    8.51719   0.839376    11.5241     -8.351   0.554017  -0.247547    9.49146   -3.24249    5.89772   -6.06825    7.07658   -9.08023   -3.64542   0.703062    13.7077 -0.0237449   -4.02826    1.66485    3.72865    7.42045  -0.955752
 1.49859 -9.19936  5.84156 -7.94216 -2.50912  1.05871 -9.35553 -4.61708  1.93752  8.87679 -5.57395 -5.06701 -8.42778 -4.36891  9.31676  -3.8695 -3.37428  6.66074 0.631183  3.20304 0.596402 -8.79234 -8.43501 -7.58044 -1.02069 0.466512  5.66717  6.66409  2.56992 -5.36823 -7.83056  5.43684   5.5595  -6.3234  5.80157 -2.75764   4.0846 -7.06089  10.4653 -4.33838  3.94918
  -14.6935    -5.3474   -1.67267    2.06766  -0.398723   -20.2576   -3.34122    5.95919     2.3341     1.1906    1.03299   -2.76613   -10.8386   -4.06409    -3.5904   -33.0693    6.56179     -2.298    4.38053    8.01872  -0.448518   -8.26819  -0.637229   -4.26417  -0.207766    53.4088    6.88693    8.24466    11.8882   0.471451 -0.0210745      2.863    -5.1067    11.3002   -2.55373     0.9343   -7.00834   -2.90465    1.33992     8.0056    3.65169
   -10.769    5.11707   0.387102  -0.307209    20.6564   -3.16982    6.69575   -5.96543   0.478124   0.350664  -0.973231    -1.7832   -4.38743    2.89774    -19.615   -5.29305    -2.7787 -0.0300774    8.43152    1.59237 -0.0140312     6.4835  0.0230899    3.21943    39.3925   -8.65805    9.00616    -8.3485    -9.0396    2.35584 -0.0296369    2.07003 -0.0734359    5.38977   0.672629   0.578596   -3.17702   -2.30185    4.51134   -4.85857   -16.1587
  -1.34194   0.838986   -2.78477   -4.62129   -2.22438  -0.372256   -5.96543   -6.62927    3.35675    -4.5407    2.28942  -0.353756    4.57526    7.56225   -4.34762  0.0563087 -0.0300774   -7.42241   -0.74603   -5.09042    2.65387   -7.68191    5.23029    8.64657   -9.60349     6.7886    -8.3485    5.35956   -8.45825    3.67841   0.873235    6.58996    7.49738   -4.82961   -10.9128    1.07761   -2.30185   -4.83606    0.76802    7.01573   -6.05809
   0.838986     -1.3101    -5.12007     1.43159     7.06777     -1.6236 -0.00471221   -0.913049    -7.89558     5.96074   -0.353756  -0.0899072     4.07402     4.74782     9.62213     1.35237   -0.246807    -3.39306     6.31352 -0.00149118    -7.68191     1.97703     7.73515     6.76379     16.5571    -8.84887   0.0227852    -4.15829     11.9802     5.91335     6.58996    -1.95874    -4.18754    -5.58624     2.72935     1.21896    -1.25789    -2.65543      2.6863    -2.36603     11.6546
  -1.65561   -4.18336   0.328482   -0.54226    2.07282    4.31613   -1.18112  -0.295208   0.511934   -3.52385    3.58271    6.88396    6.51108    2.87232    7.52372   -9.26987   -3.24083   -3.10173   0.165214   -2.18837    1.73615    11.0854    6.83169   -4.54315   -12.3298   -4.54313    -4.5696   -3.72693 0.00464731    5.70172   -2.50587    5.14261   -5.92439    6.88102    3.99254   0.935224   -2.74354   -1.73973  -0.623999   -5.53767    20.4012
 -0.927844   -7.48714   -0.54226   -7.85434    4.71445    2.89614   0.797861   -10.2232   -7.62708   -1.21768    7.40725   -5.58862    2.87232    12.7218   -7.60056   -12.7574   -6.34326   -1.27357   -5.68071  -0.836706    0.25111   -7.37034   -4.54315    10.0256   -5.99727    -4.8905  -0.205044    1.02716   -7.50027    2.21786    2.33139    5.42416    6.88102   -1.03929    1.73626 -0.0110181   -2.75578 -0.0297464   -5.34194    5.05533  -0.313445
  -5.61413   -5.23133   -14.4072  -0.917245    2.62426   -1.61536   -12.7865    18.3416   -1.51713   -4.77187   -5.98988   -1.17858  -0.293919      12.61   -6.98762  0.0250159   -2.52164     3.6672   -0.81681   -5.09921   -8.37338    9.13008   -4.85474  -0.514084   -9.66986    1.63333    4.45612   -6.39736    6.87818   -7.12356    4.09145    3.89621 -0.0150944 -0.0253327  -0.990714   -4.44222  -0.514078    0.34766   -4.36053   -4.81949    4.97787
-3.23565 -18.8484 -3.57555  3.10477 -2.55661  -4.8277  23.4465  2.65202 0.490292 -7.81899 -1.09664 -16.9993     10.9 -2.30209  1.14796 -1.67072 -10.6348 -8.51283 -1.84834 -7.07084  8.64103  20.3148 -3.43203 -6.43591   2.3933 -6.57985 -22.0954  2.65849 0.565812  8.44836  3.56578 -3.61882 0.938964 -4.96506 -5.75141  4.90077 0.615441 -1.65157   1.9233  8.68486  -12.655
    6.2454     8.2179    3.10477 0.00567767    -5.7957    2.13155    4.64509   -1.89066   -4.79685    -10.271    3.95025   -12.0725   -2.30209   0.121729   -5.90832   0.902171   -6.82759   -2.83367   -5.98043   -13.1838    -17.639   -4.09101   -6.43591    4.16731    -4.6216  -0.537899    -2.2969    3.27909    7.39457    16.1234   0.796674   0.807338   -4.96506   -1.19194 -0.0318568 -0.0988589   -1.47077   -3.33999   -8.32371    4.48997    6.06822
    10.4772     2.93165    -6.92772    0.257279    -3.29783    -3.16872    -1.88835    -3.97533   -0.150925     -2.3921    -9.12717    -2.55815 -0.00288202   -0.421406   -0.732117   -0.145784    -3.90635    -4.42835    -5.37919   -0.871597     6.50425     1.82164     6.88705   -0.814406     3.96106      -8.446     5.31665     8.14081     5.84856      3.8045    0.945279    -3.43689     -2.3175     -1.0411    -1.86522    -5.99933    -5.32871     9.67426    -3.42141    -2.43715     3.22597
  -3.06248  -0.652658     2.7418   -2.37921   -2.95705    7.22236    3.10912    1.84002  -0.611693    7.96976   -2.87573    1.20479   -6.92255  -0.867232    8.25353    5.17553  -0.403427   -5.12654   -9.18733     5.7057   -7.29282    2.10107   -3.37593   0.551236   -2.46065    5.96684   -7.64499    1.52898    11.2748    6.58129   -5.62408   -4.61248 -0.0304433  -0.115154   0.943293    9.65668    4.26611   -1.56198   0.263192   -8.77395    10.2897
  -2.12223 -0.0355401   -2.67051    3.35998   -9.02305    11.2832   -12.2781    8.85947     4.1885    1.96861   -1.30928   -5.20448   -1.50237  -0.939759   -7.30794   -3.15311    8.66889    7.14366   -6.03837    6.17616    7.30512     5.1847    4.16476   -1.00926   -7.76331   -3.39281   -5.99267    7.63109   -10.1415    8.13997    2.60047   -3.06049    2.89981   -6.45513    -2.3671     1.9101 -0.0171289    2.38802  -0.923076   -4.08606   0.785944
   2.47142      4.684     5.0124   -1.10187    2.74403   -0.50601    5.97269   -3.09446    1.95579   -12.0517  -0.657496   -4.05506    1.41697    3.86886   -18.1838   -5.02472   0.630019    0.29508    3.51494   -3.41647    3.04051    9.16179  -0.094855   -4.85364  0.0803322    9.66334    7.14207   -9.51379    -5.4805    0.22838   -2.23611    6.99718   -8.52263    1.35344 -0.0178675   -7.47744    1.93416    2.85045    4.94515    3.51881    1.38079
  3.00757   3.80795  -5.67739  -41.0326  0.842179   2.70095  -1.62982  -2.76045  -4.69581   20.0948  -2.17253 -0.161135   5.80666  -7.60617  -6.69402   1.87498   1.73905   2.82102   4.83029   3.75022   10.1874   3.97157  -2.25753     24.41   8.79707  -11.1299  -10.8413   7.93482  -1.86808  -11.9243   7.36775   3.28949   3.48554   1.22151   -7.1558   2.38096   5.09125  -7.78752  -4.23518  -2.50954   7.75589
   1.44563  -0.883406    6.01903   -4.77487   -0.84086  0.0583821    3.21325   -18.8112  0.0669099    3.82283    2.30907   0.551151   -5.53043  0.0483013     4.2459    7.14351   -2.87367    17.2872   -7.63094     3.8836    7.20469   -6.51348  -0.805639    4.93114    5.07752    7.15387   -8.31494    2.52092   -9.78446   -1.06574     9.4585    5.63937   -5.63758   -2.94406   -7.50851   -2.90804    2.00102    1.78963    7.08635 -0.0658295    1.80673
 -0.883406    6.93019    -2.1109    0.85487     1.8912   -1.45129   -7.58049    -2.5253    4.18373    2.03382   0.551151    2.22276    -7.0942   -4.18555    7.03831   -4.89405    1.37525   -8.70347 -0.0568051    -1.0472   -6.51348    9.16278    2.29639   -9.64313   -2.24668    1.55891   0.226961      2.797    7.95548    -8.5226    5.63937     5.6467   -2.61794   -2.20657   -1.87726    -3.6288 -0.0425725    5.65592   -8.55345    -4.2867    13.1835
  4.79026   5.58567   0.85487  -7.34241  -3.08328  -7.58229  -3.09659   6.18523   2.20274  -13.2394   3.42215   8.54853  -4.18555  -5.39438   -6.4839  -12.1744  -6.44294   9.35565 -0.244551   -9.7563   8.58998  -5.46186  -9.64313  -2.29218   2.16592   7.60698   2.16272  -6.00947   9.45438  -4.14147   5.20914  -10.0219  -2.20657  -7.56492   -4.8126   1.59789   4.80122   7.07935  -5.84148   4.18139 -0.682665
  -5.56861   0.229693   -6.42175    9.54487   -31.0686   -6.40998    6.73668    1.82807   -9.26261    4.19982    10.0201   -4.59167   -5.36683    5.86742   -19.1092   -8.50655    8.95077   -5.24576   -7.74446   0.111688  -0.316196   -6.34973   -2.70723   -0.12795   0.414726    6.37809   -6.70848    7.08819   -3.90191    4.31858 -0.0313759    4.72321   -6.82117   -9.56993    2.93509    -9.4672    8.98906    4.73785    4.71466    5.19546    4.17555
-0.357801  0.431134   8.66957  -3.00815  -6.45309  -11.4795 0.0254861  -9.21962   8.18628   2.65929  -4.93288   3.50118   1.67901  -2.71956  -6.17841  -11.5796 0.0412622   1.16833   1.59442   21.6743  -6.00809   1.02282 -0.819028   2.53071   5.46163   9.75662   5.58927  -4.05601 -0.770414   6.30956  -1.58558   7.00349  -5.44203   9.12609   -8.3981   2.33162   3.41577 -0.019891   5.73606  -1.14581  -18.0095
  -1.11034    -3.6521  0.0296262    11.7146    -3.3579    4.16963   -3.91165  -0.038199    3.62767    4.89469    2.26116    7.28749   0.135555    4.32147    6.41553 -0.0891797   -2.85591  -0.583986    4.70029   -2.54661    1.64436    5.22847   0.209469  0.0167908    4.54524   -6.97515   -6.95274   -11.1222   -9.88208   -9.12628    6.92706   -3.34673    2.31377 -0.0268934    1.31122    9.90808    3.99955  -0.912073      -5.95   -7.73309   0.658876
3.58429e-05     6.67364     6.28123   0.0257446     4.16963   -0.912188     3.81696     4.49462      1.9431     6.76032     -7.8697  -0.0315834     2.95496     10.1489  -0.0891797     7.40804     4.86787    -3.79127     1.65059     1.17607     7.86236  -0.0134453    -9.33506    0.122387    -6.97515     8.39483    -15.2563     8.28991    -6.25459     7.93033    -3.90777  -0.0482835    -3.48542  -0.0304072     9.90808    0.865824    -1.87949     8.12814    -1.11686    -5.26345    -1.13311
   6.18317    9.59334    2.01488   -0.05402   -2.36295    9.63553    10.4978    6.27549    6.69148   -10.9683    3.31533  0.0275487    7.54994   -8.40823   -5.50649   -4.01334    5.61203   -2.60599  0.0134535    2.71887    4.45192   -2.61796   -9.73855  0.0403513   -9.68806    8.46535    7.55495    5.50979   -7.16226   -5.10289   -4.47553  -0.022304    3.24037 -0.0364788  -0.376579    4.69742    2.63151   -7.20263    4.29139 -0.0211338   0.981322
 -0.531606 -0.0426114   -8.68749    0.60172   -8.54729   -0.70551   -5.68299    3.03163    3.90394  0.0569439   -3.46777   -10.8179    16.1152    88.3117    4.92254    7.45893   -1.46897   -2.90212   -3.97658     7.7532    3.99955   -4.51232    28.0934    42.8009    13.3991    9.55652   -8.92026    5.64211     7.7817    3.88129    8.38058    1.31519   -1.42511  -0.888621      -1.48    7.81301  -0.651727    1.13595   -4.72379    8.24624   -11.0152
  2.73934 0.0273131  -14.5338   2.70363 -0.644982   3.70364   10.7085   6.01548  -2.84525   3.08577   -10.878   7.48907   59.9339  -10.3864   8.42459   1.17939  -8.38257   -4.6992   10.6407  -4.55145  -1.00738  -9.93753   4.58127 -0.822086    9.2235  -8.74733   16.4605   9.22919  0.881962   7.69322   1.01156  -1.19943 -0.543622   7.94575   7.77933  -4.27993   3.93446  -7.04343  -5.75594  -6.16112  -15.5905
 -0.151642   -3.53488   -5.15757   -3.68597   -11.8329    4.52931   -7.10279   -4.92221    1.13561    8.45722  -0.902104    3.82996    2.86476   0.751116     2.0454   0.255223   0.566775    4.60772   0.843431    10.2214    -2.8023    -8.1897   -7.93894    9.28729    12.5393   -4.78803     7.2829   -9.50432    4.71327   -3.91674   -5.17848   -5.39199   -1.48176    6.70357    2.12183    2.28674   -7.93736   -3.28322   -5.72197 -0.0187429   -3.16967
  3.45139  -4.67937   2.96885   5.98503 -0.817633  -7.14755  -5.12084  -1.16248   1.94858  0.840219  -4.98324  -2.29011  -1.30667  -2.26344   7.84247   3.15427  0.502189 0.0120541  -1.17765  -7.87927   8.12908  -7.52382  -2.00677   7.99292  0.239687   4.84014   6.51331  -1.36571  -5.25909 -0.241583  -4.97508  -2.66957  -20.4767   5.61833   -4.4606   8.46462  -7.89439   1.54847 0.0673331   4.40097   8.03492
   -9.1949    12.5912    11.5349    8.98717    -5.0139   -9.54631   -1.03944   -4.23639  -0.200963   -6.38899    2.29341   -1.23618   -2.88181   0.119074   0.491752   -4.77761   -7.44512   -1.48517   -3.63917   -3.19068   -2.51765   -5.55585     3.1589   -9.52236    2.21244    9.29411  -0.169514    5.72356    7.96039    6.21681   -5.95552   -2.33247    4.72827   -8.98983    5.81577   -5.48354 -0.0432401    6.25344   -5.45886    8.19882   -19.1301
   -2.15433    -2.11936     8.98717     5.88292    -1.63794 -0.00781865     -5.8306    -4.39093    -6.41593    -22.5949     1.62644    -4.48206    0.119074     4.63663  0.00720288    -2.39745    -1.13541    -1.81191      0.1457     1.48881    -6.87663    -6.93409    -9.52236    -10.5613 0.000415197  0.00898683     7.90793     6.82873    -7.17752     33.5176     4.34345    -6.18465    -8.98983   -0.991867    -0.19687   -0.135901     8.51203    -6.07353   -0.981643    -1.00907     9.03725
  -2.11936   -8.04324    5.73945    1.41102   0.114918   0.201383  0.0348912    6.34155   -9.32208  -0.332257   -4.48206   -1.05598    4.67627    1.27908   -5.37184   -9.52473 -0.0059782    1.00833   -1.22057    4.36355   -6.93409   -1.98274   -10.8025   -3.42788   -2.43714   -4.32285    4.49924   -7.54822   -2.29293   -1.17216   -6.18465    5.73483   -1.77919    9.96735   -5.13967    2.87824   -3.60516   -5.26752   -4.98259  -0.053959    17.2153
 -9.01124  -5.36879   1.56377   6.35772  -2.92044  -6.28823   5.60603    1.9468  -2.18862 0.0286012  -4.90662  -2.91123    1.6639  -9.12199  0.253675   -7.0578   6.30244   4.67577   3.08856   20.2998  -3.33714   -1.9875   3.23302  -15.8017   8.49113   5.21931  -4.66315  -7.47075  -9.01146   20.3958   3.15858  -5.33842    2.5013  0.520624  -5.35653   3.11884  -3.52012  -9.99644  -2.19177  0.946377   2.72957
  -5.49981     3.5782  -0.261949    2.71587   -9.43875    4.64651     1.9468    4.37849    5.26931    8.90088   -1.57557   -6.15964   -1.51065   -14.2798   -2.71053   -7.98046    4.67577  -0.319902    1.07637  -0.562381  0.0198243    6.48105   -9.00743   -1.00937  0.0366377    8.40555   -7.47075    6.81268   -10.9326    11.3867    -4.2602     -8.865  -0.223573 -0.0209901    2.44885    6.82435   -9.99644    7.28515   -8.06353   -3.59732   -7.54089
   3.74652   -5.60262   -5.18765   -3.44394    4.84882    7.86898    2.42691   -4.23306   -2.27124   -2.82983   -5.91049    3.36873   -3.73387    5.17662   -7.63511    3.62691   0.728261    6.37731   -1.41221  -0.852438    6.46296   -9.80843   -10.2006   -3.74621    8.35528   0.429676    4.66242   -4.59249   -4.43284    3.82213   -8.74968    5.85855  -0.179407    4.21956    6.75896 -0.0388644     4.7222    -3.4647    -3.9705    4.00475   -36.2418
  -5.60262   -3.95213    -2.0992    -2.4939    6.09943   -1.81428   -9.19483   -6.89772   0.602519   -1.95308    3.36873   -1.81821    5.47634   -1.55197    3.90568  -0.537348    1.64207    1.52951   -3.24235    5.13344   -9.80843    8.19013   -2.72743    1.13489   -2.76578    2.88378     1.4553    -8.4276   -4.56861   -2.53545    5.85855   -2.40982     1.4927    1.69303  -0.714331    2.99906 -0.0283207   -1.31064   -7.11865   -1.64419    10.1975
   4.48998   -3.01828     9.4356   -7.09433    4.69746   -2.60074   -3.86939   -10.5524   -6.86122    9.24382   0.730643    -4.3032    2.89958    -4.5661    3.01874    5.19952   -6.07813   -3.25124   -10.3922   -18.4226   -1.22222    3.06382     5.2351   -6.00277    3.97517     1.7336    4.23001   -5.85809    7.29488   -6.18191 -0.0494893   -7.02408   -4.82172   -5.62184    8.45138   -2.24894   -8.75817    4.30845     8.0231    0.61989    -3.4306
  0.164494  -0.697657    3.55228    6.42737  -0.113415   0.927511    3.50638   -2.37791  0.0350172    1.30086    2.06753   -14.5897 -0.0105079   -2.74153    -3.0234    1.19053    1.79778   -1.63469   -2.84964   -3.92161   -5.42463  -0.789867    3.48113     9.1397    3.07648   -2.12101    5.30124    -6.5158    2.86124   -7.53298   0.513986  -0.021247   -1.64743    4.19132   -1.71969   -4.27955   -6.01657    3.91376   -5.94933   -2.48929    22.6002
   1.44677   -1.60864   -3.93578  -0.613555    1.59337 0.00824947   -2.37791     1.3146    1.30086   0.511671   -13.7891   -0.36058    -8.5714    3.10484    3.45063   0.169018   -1.63469    -5.6232   -3.92161   -4.75216    -4.1009    6.93813    1.85242     6.7318  -0.741887   -2.37277    -6.5158   -7.48133   -6.48729   -1.40551    1.65841   -8.51623    2.52656    5.97671   -6.31423   -9.52173    3.91376    4.29399   -4.95193   -4.86136    15.1399
  -1.73135    11.0753  -0.957655   -5.59777 0.00824947    2.46964     1.3146   -1.89609 0.00180644 -0.0119846    1.15457   0.373383  -0.171157    1.83824   0.169018   -1.87973    -5.6232  -0.332811  -0.952068  -0.493932    6.50161  -0.543344    7.82263   -7.60168   -2.37277     4.4056   -7.48133   -5.23565   0.925031   0.761793     -8.058 -0.0293778    6.59738  -0.784365   -9.52173   -3.03246    4.29399    2.70285   -4.34206   -1.25698    20.0812
   8.27707   0.664065   -9.49703    4.92996 -0.0350696   -2.77282   -3.23223   -6.31016   -5.73154   0.631912    10.1524    5.71574    6.23523    6.04005   -4.71077    -1.4433    0.85702   -8.04557   -7.30213   -7.43393    6.35535   -9.17125  -0.678499    3.78083    5.01135    4.33015    -4.0324    1.03564   0.936072    8.03197   -1.78662  0.0661953 -0.0320487    2.96986   -3.82456   0.606543   -2.50006   -6.47974    7.11275     2.2884  -0.646328
   19.0192   0.245757    2.41661   0.101033   -19.0324   0.133486   -5.35387   0.802567   -1.97282   -10.8798    25.6651  -0.521233    3.37814    6.13404   -24.3977   -10.1675   -6.82005     1.5402   -2.79038     4.0482    -4.9958   -1.26081   0.363393   -7.22819    4.60974   -18.3344    1.28626   -2.47055  -0.311555  0.0349478  -0.247869   -8.12163    1.85144    8.72179    1.86798   -1.29091   -5.77347   0.506181    -2.3006 -0.0309476  -0.836028
  9.01692   2.78061  -7.46696  -11.0978  -8.28851   10.5332   2.58992  -7.66787  -7.85738  -13.7934  -7.68129  -4.17418  -7.46151   1.83678   1.46762   20.9001   5.14633   1.38572   -9.1615  -14.6589   7.83842  -9.01316   4.38992  -0.53408 -0.334813   12.9994    3.1977 -0.288826   5.09055   8.42217 -0.014007  -5.02592   7.48479   1.89764  -8.98938   1.16777  -4.78932   6.93257   4.20852  -6.45384   1.32666
   2.78061    5.36422   -11.8503   -8.02039    4.06681    1.05243   -6.70765   -8.37737     4.1808    3.32896   -4.17418   -7.33009    3.72643   -5.07871    18.1879     4.6015    2.11293   -5.29642   -5.71944    12.3488   -9.01316   -3.94308    1.62877    9.07683     24.371    7.02758   0.924115    9.47584   -3.08073   0.479678   -5.02592    -1.9761   -3.77259    -8.4155    1.80478   -7.11424    6.62274    8.05142     2.5272 -0.0246002    7.17123
  -1.02522   0.849538   -2.54467    5.23575    4.91137   -6.83848 -0.0101216   -1.07515   0.160548   -1.54761     5.9446   -8.87011    14.6939   -3.02797   -2.80815    -3.0736   -9.09205    8.99966   -7.89548    15.3216    3.72807   0.171504    9.21349    3.01546    2.80314   -19.6369    3.74492   -3.71563      3.254  -0.319811    -8.8671   -1.08131    3.58042    1.99287   -2.18525    2.75162   -5.16791   -1.07171    7.14628   0.617372   -2.55177
   3.04813    4.93244    5.82782     2.5497    12.2493   -4.86842   -5.89949   -10.2836   -7.97205   0.542101   -1.99498   -4.99346   -9.50359  -0.140861    4.09985    7.98279    5.95579    16.9318    1.26396    -1.9605   -5.02736    5.32748    1.92047    5.68192   0.261723   -1.63841   -6.36295   -3.52872   -9.48234   -0.73799   -1.04708   -7.77591    3.99134    5.98615 -0.0269892   -9.26474    6.50167    2.11944   -1.40639   -0.11343   0.774025
   2.91265    4.01737    3.36692    10.8413   -4.05668   -3.67292   -3.01887    0.55693     11.056   -3.35877    -2.9388  -0.441973  -0.367992    1.80077     8.1285    1.64917    18.5216   -3.46682   -22.4868    6.52917    5.84778    4.53003    5.33437  -0.154483  -0.393249      5.336   -3.44111   0.641758   0.874583  -0.448544   -7.34195   0.308933    5.75255 -0.0286936   -8.21129    5.03967   0.951039   -5.14624    2.01463    3.26715   -13.4637
 -4.87226   6.83327  -3.84634   2.12159   2.31844   4.88291   4.97382   2.07163    5.2573  -7.40067  -1.78733   2.40914  -1.49967  0.697775   3.80034   1.65612   8.12666   -9.1318   1.94753 -0.739378 -0.960891  -2.45776   1.42584  -7.61584   4.55182  -1.73484   9.74827   0.21312   1.03074  -8.19657  -1.74043  -4.28545   2.13006  -5.39523   5.38833   4.28135  -2.52524 -0.035791   1.57459  -4.93259  -3.54332
-4.78767  5.89482  11.7813  7.47622 -6.85025 -1.40346 -1.09432 -4.13903  3.34599 -1.51135  5.00411   1.5635 -16.0629 -7.81482 -1.92882  -1.6023 -1.99627 -0.53252 -3.50143 -2.57393  3.01477   7.4302  28.6615 -4.70796  8.64561 -8.62201  2.92739  4.94181 -7.86444  4.23733  7.83064 -7.28911  3.07826 -5.03843 -4.59777 -5.91798  2.47227 -1.32313   8.8298 -6.59632  10.2331
 -0.795522  -0.277758    7.14582    4.01824    12.3622   0.926509   -4.69223   -2.54293   -5.44956    1.63621     6.2913   -12.2343  -0.479387  0.0878446  -0.824713 -0.0117193   -2.71867   0.532128    3.18492    5.80471    9.83338  0.0929676   -1.54629   -9.77441    -2.6649   -1.03461   -7.37197    5.35456   -8.63776    7.87473   -4.86717 -0.0263762    4.33921   -2.56357   -2.53424    2.58394   -1.09987    4.57892    5.17417    4.82667   -13.6336
    2.39068     1.06911     4.01824    -9.49273     5.07841     4.60755    -2.95339    0.689042 -0.00481776     2.63715    -5.82927     1.38224   0.0878446    -1.77672    0.953139   -0.358478     2.88482     2.38225       6.798    -7.02246    -9.68628     4.67971    -9.77441    -3.54433     1.89971     4.95396     7.34915    -9.98841     6.77579    -10.0998     1.36333     4.59073    -2.56357    -5.53127     10.2777    -8.38553     6.29416    -9.91473    -5.49247     -1.9795    -7.57096
   1.70355   -4.24557   -7.86123   -8.52551     4.3133    12.8347   0.689042  -0.745881 -0.0300665   -7.61296    1.25388   -3.74668    1.17833    1.52176    -0.3526   -2.18454    2.38225   -4.34018  -0.325764   -2.12389    3.86102      8.676   -4.42993   -4.83772    5.39825    7.28521   -9.98841    5.06726  0.0140849   -9.80455    3.86973    3.96781   -1.78876   -3.74241   -8.80607    3.55679   -9.91473   -3.34612   -0.98349    -4.6822    -9.7769
  -4.30127    -3.0991   -6.93484   -13.3088    6.33812   -8.11821   0.972529  0.0738164   -6.50324    2.12612  -0.279155   -6.48008    2.34858   -7.72075   -2.09507   -7.09117   -2.12158 -0.0557834   -5.69525   -3.54777    6.75932   -10.1354   -6.80605   -4.96868    6.20339    7.68539    4.03212   0.109249    6.16717  -0.344218     3.0967   0.703965   -2.29482 -0.0204159    2.51104   -3.73717   -2.71634   -1.86411    4.63418 -0.0802285   -24.2065
   -9.86004    -5.31591      3.4309    -6.61449   0.0104305    -2.28094     6.15484    -9.06729     3.04351    -11.7842    -14.7503    -7.94616     2.23756     3.98968   -0.228974    -5.70861    -5.17608     5.45807    -2.58216     7.10633     2.00212     1.07292    -7.16681    -4.21021 -0.00993435    -7.95493     2.66962    -5.82282     1.33132    -7.61361     4.43679    -8.24685   -0.188119    -4.15461    -1.12487    -3.18377    -4.11089      8.4975     8.28238      -4.221     0.93364
  3.93317  -1.63701 -0.361689  -5.90496   5.76133 -0.332026   1.05425  -2.21574  -4.61448   3.26665  -3.36057  -2.79831  0.726509  -9.80886   9.64371    -5.632  -5.30906   3.55463  -2.94059  -1.14846  -9.16986   1.44315   3.29782   5.10528  -5.00052  -6.08688   7.26407   5.78116   7.54379  -4.51762  -4.61146   2.07323   -8.5679   1.95251  -2.60991     1.207   1.80126   6.93462  -5.48939   3.37552   4.43908
  6.11269  -6.50984  -11.9137   7.22379 -0.177829  -5.43327  -1.34162   4.87478   7.87018  -2.38881  -5.09595  -1.57756   5.53705   -5.9612  -5.73031   4.49891   3.59863  0.304551  -3.65211   -5.4905  0.536931  -9.18833  -4.81325  0.542287  -5.93851 -0.431437   4.95214    -5.413   3.17786 -0.219656   3.12013   7.34219   3.56122   4.37843   1.19228  -9.35419   6.14953   1.50608   -5.4183 -0.059093  -16.2475
  -6.50984   -4.78839    6.09706     8.2399   -3.91876   -7.93587    6.99544     5.1404   -3.74953   -3.98872   -1.57756   -6.70323   -5.18723    4.53812    3.33787    6.82566    3.84342   -4.38639   -5.25389    3.39314   -9.18833    8.88332   0.721021    4.34164  -0.463274    -7.3109    3.68965   -2.59467    6.96851    2.01035    7.34219   -6.21064    3.90372   -5.51441   -6.10004 -0.0222952    6.45418   -4.64505    7.88424    5.96695   -13.4734
  -4.35387   -5.67776    3.50648   -1.63899   -9.30604   -7.84174    4.76182    7.22607   -2.60626   -5.49702   -4.09445   -5.64305    5.92936   -1.92817    9.71731    8.18646   -4.51902    12.2523   0.535267   -5.16083    8.44175    2.49326    3.24323   -3.75606   -4.50641    -3.7973   -3.01518    6.69868   -3.12573    11.0232   -5.62188 -0.0329874   -4.54814   -1.59115    6.13678   -7.30521 -0.0412503    2.18687   -2.17898    4.45748  -0.509591
  0.859051   -1.01904  -0.498257   0.397854   -6.77905   -3.36386   -7.86423    -5.3847   -7.69064     2.2283   -7.67449    9.11347   -0.68288    2.47856    8.39681   -3.69023   -4.46274    6.66484   -1.12522  0.0164316    -1.0224    1.21175   -4.88901   -4.39666   -4.44108    7.04756    16.7593     -3.526   0.114298    2.19313    1.91661   -1.64486  -0.213728  -0.109005    -7.3202   -8.33605    3.55882    9.21152 -0.0400171  -0.846276    3.98779
  -11.5535    8.14688   -4.91088    5.50895    4.20207   -2.57146    2.74938   -3.31199   -2.37109   -7.89522   -9.98393    -9.1529    5.54523   -6.23697    3.44471    2.50742   0.731626    5.43438   0.752873   -6.57293   -3.13933    6.32655   -3.80364    4.28533    1.16793   -3.67119    3.76845   -8.89268    3.13591    -2.1763   0.977411   0.668597   -3.72788    2.29323    6.40211 -0.0514578   -9.95987    8.97133    7.49152   -4.87139   -6.51649
   12.904  -8.34564   10.3433 -0.742986   -1.2272   4.03499  -3.31199   1.75043  -7.63358  -1.89129  -4.32917  -7.64661  -3.68401   7.84939   13.0376  -1.41451   5.43438  -1.57248  -6.99074 -0.332144   5.06365    2.5692   3.98064  -2.18148  -3.63057   1.55481  -8.89268   -9.6164   2.34757  -5.99852  0.668184   4.64965   2.61901  -5.92292     3.545  -8.89887   8.97133   7.69279  -5.10422  -3.07451   1.06625
-0.00359529   0.0385852   0.0298105    -3.28607     1.48675     11.9195     1.75043    -4.55592     3.00487     9.04871    -1.94023     6.92548     7.77281     5.56715   -0.745696     7.37161    -1.57248      7.7206    -0.28717       5.587   -0.119304     1.18341     1.21058    -2.68562     2.31803    -1.98667     -9.6164    -3.72457     6.31654     -1.5052     2.29858      4.0938    -4.25027     3.68198    -7.76727     5.12768     7.69279    -2.67592     3.87125    -6.78589    -5.13705
  -3.82779    -3.2903   -4.82988   -6.64973    7.60904   0.826837  -0.892025    1.54502    5.51759    2.71556    1.20232   -3.49775  -0.317768   0.651294  -0.686818   -7.70599    8.31144    4.03473    5.89733    4.46253    5.03779    3.65216  -0.335628   -7.19215   -8.43284     3.6903   -3.96378    -5.6465   -6.14844   -8.56589    5.21497   -5.22724 -0.0609536 -0.0499778    1.08696    3.17513   -2.98369    3.65397    3.10356   -4.57839   -17.9054
 -1.51902   4.08422   -6.1369  -6.12868  0.648839  -1.39059   4.84616  -3.93377 -0.624754    7.4264  -1.48565  -2.49231  0.777323   1.52974  -7.74308  -6.83076   5.63964    -3.489   3.43605   8.97349   1.05975   6.50572  -7.67167   -8.3666   8.33397   8.22603  -3.74605   9.09932   5.94303  -5.87415  -3.36719  -6.90527  -2.53696   4.43123    4.8646   5.74552   5.30467  -8.30098    7.5036  -2.80007  -7.46631
-0.434584   3.81504 -0.679688    3.9993  -4.14463   6.52584 -0.936314  -5.12191 -0.123625  -1.64066   11.7522  0.275809    1.4582    4.4614  -4.62379  0.596083  0.830947   1.02507   3.26501  -5.06729   4.21169   7.80847   2.29661   1.67934  -1.73728   8.38996  -2.44906 -0.309201   1.16541   10.3004    1.9776  -5.45481  -0.57663    2.5344   -2.4721   2.04439  0.734293 -0.055551  -7.19511    1.9795   3.19141
  3.77928  -3.33501   2.07795   2.11741   4.85639   5.11259  -21.0949   2.92805  -5.41134   4.68764  0.232215  -1.85767   6.17751   6.41965 -0.270208   1.34578  -8.23742   5.51687  -2.12401   2.21698   7.43944  -8.09998  0.938237  0.963532    10.662   6.68886   16.5828  -15.7303   4.26487  -8.05673   -5.1938   9.67056   2.44828  -2.39898   2.41383   1.50166  -2.29936 0.0412891   8.91579   2.38487    3.9369
 -3.33501   3.15277   1.08738   3.71764   6.15366   -2.2199    7.7016 -0.751998  -1.49231  -5.71759  -1.85767   6.77488   3.03506   9.24492   12.3966  -1.81342   21.6731  -5.79492  -1.23323   1.68064  -8.09998   6.47945  -2.29256   8.60325   12.0248   6.69204   -16.542  -7.07842   3.75949  -8.47996   9.67056  -7.06316  -1.58655   1.74919   2.53866   4.53198  0.212299  -3.16113  -6.84462   5.18606  -3.50352
   2.2443  -8.24112   -4.8192  -1.85187   8.52877   6.46218   4.60485  0.208565   11.1216   7.43965  0.502619  -3.09194  -3.45182 -0.798443  -4.93217  -10.0676  -7.19579   6.63713    2.5621  -4.29934 -0.301211   11.2463  -8.68652   6.37582   5.47128   1.00988  0.720248  -6.88782  -1.44294   4.77221   1.34018  -0.41199  -3.64516   1.72551   2.64739   3.95991  -5.58058  -3.91747 -0.300547  -3.03401  -5.32836
   3.94762    4.14348   0.214937   -8.07655   -3.23295    -5.2112   -6.42449    7.45504    1.92675    6.70485   -4.29075    4.11007   -6.77492   -5.93901    -0.5754   -5.20163    6.50958   -7.53043   -2.57271    4.89933   -8.45059    3.38376  -0.529742   -6.49453     3.7967   -4.28692    -1.2485    1.44666    7.04197    5.36214   -6.50625   -3.71978 -0.0373342  -0.602868   -7.01472    2.92394    4.10165   -3.55995     7.4507    0.71607   -10.9354
 0.0351286    -2.6066   -8.54799    6.24285   -6.73981   -3.33562    1.93469   -2.92742    7.29569    4.43295   0.145501    1.83905   -6.25847   -2.84551   -4.92758     2.3746   -3.27455   -2.52879   -3.16173   -1.84083 -0.0256181    8.42691   -6.10345    2.93254   -4.81229    10.8693   -5.14205   -7.12064    3.41293    2.06093   -1.78338   -8.67758   -3.88525   -3.62717    4.90858    6.71459   -1.29125    2.54695    6.90621   -6.32655    1.23187
   3.84053    1.00505  -0.439627    3.49871   -4.66863    1.25407   -7.68728   -8.97201   -0.13867    5.69778    4.12558   0.443332    6.12064   0.463865    1.48181    2.92487    7.72708    8.96317    4.78719   -5.63492  -0.793024    2.85573     6.5462    4.00121   -6.17273     4.3139   -2.70367   -2.78013   -7.93359     1.3639 -0.0635136    3.30179   -8.03307    1.31792   -2.61842    8.63411   -4.85865    6.61793    9.31509   -3.91142    6.98278
-0.110593   1.04215  0.761571   -6.9731  0.701622  -2.64086   2.87934   4.03769   7.42909   1.48461 -0.317623  0.342531   1.38353  -20.0379   2.48234  -7.42556   8.88967  -6.93652 -0.301095   4.83329   2.89777  -2.31008   4.02863   11.3795   4.30491   4.20512   -5.1461  -11.1084  -7.77211     7.722   3.40765 0.0105436   1.28808  -2.23035   8.40184   4.71114   1.05959   4.14714   2.85539  -6.45561   5.09668
   -22.404    8.33756    3.59033    7.05432   -7.01645   -6.65907    2.51639  -0.270497     9.5687    5.85717    17.2458    1.13902 0.00116692    7.36881    5.62154    5.16765    2.38876    4.75442   0.280613    5.91649    12.6295   -10.5048    3.56964   -3.19811    4.04423    3.76992  -0.977354  -0.322459    9.87678   -2.52139    1.50262   0.824685   -2.41683    5.06268    1.50628   -6.67541    7.41158 -0.0585289   0.893834   -9.31541   0.898555
    7.38013     5.06598     1.54346     2.86133    -6.19303    -3.53578      2.3738     4.98322     3.21483    -2.14104   -0.212679   -0.307874      4.1081     7.69531     5.22553       2.985     6.38048    -8.63657     4.28424 -0.00653768    -11.3899    -9.04557    -5.65666      1.5252     2.74228      1.5648     1.26185   -0.932436    -9.19416   -0.211644   -0.430787     4.27737     1.98535     4.93124    -6.08729     10.6704    -5.98008  -0.0253985     7.65957     -0.1309      1.0534
   7.61873    8.59056   -2.47548    3.00629  -0.123032   -2.41092   -3.75674   0.206033    2.03763    3.45382   -3.80946   -4.28244    2.52469     1.1046    -6.6408   -8.44042    1.21339   -3.50139    -3.2569   -1.74948     7.8426    8.81838   -9.81659    5.37519    6.90137   0.486528   -5.59348    3.83072   -7.71775    9.35107    6.33138   -5.64972   -2.43299     6.0279    1.00313 -0.0359708   0.680099    2.71328    5.30461   -5.30669     1.0565
 0.196905  0.389859 -0.229768   3.70827   5.50767   1.61531   2.26138   4.00502   2.96465   7.33207   4.29656    5.7693  -5.14262   6.30423   9.35193  -2.86614 -0.285907  -7.13503  -4.11573  -10.2279 -0.272567   6.16395  0.324298   5.04086   7.48073   3.34552 0.0183556   8.31295   5.01485   12.4345  -2.57582   1.89417   2.09503  -9.48935   6.38574   6.79386 -0.141322  -2.75784  -7.72768   3.12459  -11.1546
  0.383449   -2.91591   -2.32868   -8.00038   0.292957    7.12791 0.00136446  -0.136611    2.36814    2.25422    7.24372    7.58563    6.07095  -0.161889   -1.56483    3.75558   -8.39598       7.93   0.106679    4.00428    7.65136    3.65414     2.9243     2.7281    5.01308     10.901    8.38733  -0.973598   0.817031    7.81729    2.18038    6.19718   -7.76363 -0.0269436    8.75868    2.09448   -2.71825 -0.0313324 -0.0924771   -8.13262    4.15448
 -9.13083 -0.253186  -10.6796 -0.451856   -1.7084  -7.01586   6.92344   4.74332   1.69319   5.00707   7.10101   3.48558   8.31841  0.860746  -9.43857  -1.64531   1.60535   3.78952   5.69211   10.2316   2.47053  -3.76873   2.89072  -3.73261   11.1643   2.32089  -2.29343    8.3536   7.14796     13.84   7.11883     1.924  -6.10393   0.59074   2.22495  -4.22649   4.23883  -8.00679   8.89113 -0.589431  -2.50728
 -2.95972   1.37433 -0.451856  -6.06623  -8.63305  -4.85557   4.42914  -1.89953   3.32695   3.64178   5.31273   2.97919  0.860746  -3.15916  -4.48353  -12.3465   2.10923  -4.82837   1.06429    2.8916 -0.487853   7.01102  -3.73261  0.985437   1.39879   5.00492   7.71727   1.96197   5.08588  -9.22897 -0.045722   2.00061   0.59074   7.08819   -5.0112  -2.07887  -7.26042    5.2868   8.76652  -9.25009  -1.50143
 2.26794 -6.38198 -3.74856 0.490604 -4.01348  -3.9691 -1.56285 -4.34646   4.5187  4.62028  4.38537 -2.88482 -2.45762 -2.61377 -13.8897 -2.59609 -5.41351  5.04687  1.15767 -5.51746  6.67545 -9.72025  4.05428 -6.86315  4.53647  4.28464  1.77925  3.24937  8.71531 -3.54706  1.86835  0.94194  7.75587  -9.6574 -2.12082 -7.39502  5.40208 -1.18934 -2.13571  1.06774  11.2208
  -9.21754    1.04623   0.490604   0.952702   -4.02972  0.0790919     12.904   -13.3609    8.69883 0.00273337   -8.26888   0.962085   -2.61377   -2.24902   -1.27215   0.970505   -8.78985    8.62143   -5.77951   -12.2124   -4.39203   0.489869   -6.86315   -3.15821    5.30223    2.55771    5.10566   -5.23668    3.42405    12.2172   0.164873   -1.69263    -9.6574   -2.83887   -8.38203    6.69282    2.77987    2.42675   -7.88437    3.00307    5.24857
   2.84591     5.6938    3.15736    3.26038    1.85297    -18.882   -7.76546   0.542042   -2.52763    9.18194      3.515   -1.65468   -7.42444    5.41429    3.07264    12.6124    18.2393   -7.03292   -4.42332  0.0575437    7.23465    7.36463    1.73717    2.25639    1.28489   -46.9778   -4.27413    7.58664   -9.75751 -0.0244402   -7.56886    8.49696   -9.10401   -3.55755    6.22681  -0.381188    3.69354    3.80372    2.64024 -0.0329283   -19.8035
    4.91693     3.22267     3.93786    -5.08919     2.07745   -0.802286   -0.131261     2.70181    -2.78799    -2.14749    -2.64546     8.09496     1.72757     3.88352 -0.00450348     6.69431   -0.179453     6.76298     1.39008     4.91665    -8.41753      8.6558    -9.19265    -9.20689    -2.04539     -8.9099     7.59915     7.22567    -4.17912    -8.58096     4.79875     5.88071    0.443557     2.78711    -3.78513     9.35596     -1.3933    -7.07853     4.57635     11.7459     11.7284
  0.672192  -0.829954   -12.5376    -6.9012  -0.802286   -7.56625    5.79738    3.79837    8.47238    12.2115    6.88961    7.21544    6.14434   -8.58403    6.69431   -9.42143    8.85258    3.62905    12.9315    9.63641    9.26598    8.02038    -1.2628   -6.15761    -8.9099   -6.75904    5.25682   -8.12391    7.69339    21.8383    5.90372   -4.73873 -0.0243831    3.23378    9.35596   -2.95869   -6.98162   -1.28554    4.76417  -0.653214    -1.3902
 -0.85774  -3.02431   7.39807   10.4725   2.17852 -0.617195  -4.39976  -6.33212   7.88916  -6.71961 -0.822004  -4.77524  -1.10563  -14.1212   1.36714   -3.1935   1.41385  0.660416   -1.3605   1.15541   -2.9835  -9.27578  -9.29778   25.0056  -7.73128   3.83736   14.0675   7.40961   -1.2536   1.06539   6.37911  -38.8146   8.85046  -1.21488      8.22   3.10955  -1.99618   7.90187   7.06248  -8.33848  -2.18865
  4.72373   7.83368  -7.61945   8.45104 -0.654987  -4.54627   7.82014   13.9078   1.52931  0.809214   2.16274   3.59585  -2.74008  -5.39196  -8.42649  -1.59532  -5.07996   5.08715   2.61485  -1.10124  -1.13251  -1.88168  -6.65714  -5.69508  -9.06226   10.2157  -5.26564   12.1803   5.93838   4.59836   3.68506  -2.25589   2.16848   1.30866  -1.65937  -1.97774  -1.43962  -1.19374   2.86309   4.15875 -0.422738
   6.36238   -1.71782    7.30817   -6.35857  0.0222343   0.296652    8.65783   -1.80234 -0.0853053    3.79858    3.17242   -6.70967    3.68595     16.107   -7.72498    2.15751   -2.04846   -12.3718  -0.354483   -9.73401   -3.85363   -8.72145   -4.47518    9.53736    7.69711    1.14476    10.6731   -6.55037    7.46118   -5.77408   -1.19573  -0.418836    1.00187   -1.30145   -1.75126    3.09652   -1.00981  -0.556671     3.8654    2.12826    5.24193
  -1.30844    2.79279   -22.3575    6.77307   -1.68113   -8.18848    -6.0212   -1.45685     3.9198      4.961   -6.30685   -1.86638    10.0187   -5.84293      1.656    3.67437    0.40963    1.39567   -3.36786    15.2055   -9.12427   -8.90266   -4.68011    8.48826    4.51117   -1.71826   -9.80852    6.57125    4.90264  -0.258559    1.97189   -9.87925   -2.35035    3.80369    5.23532    6.38196  -0.246449   -6.06303   -6.59864 -0.0213896    17.3203
  2.79279  -3.57854  -0.42191 -0.123286  -5.28718 -0.758883  -3.20455 -0.478097   17.9966  -1.80809  -1.86638   2.24239  -5.58513   2.49684   1.98227  0.135882  -1.03039  -1.51265  -6.67191   5.68558  -8.90266   6.27258   7.29258   5.38308 -0.928413   1.26716   7.88934    2.0118   3.12976  -11.3291  -9.87925   3.16682   3.11736   1.59674   2.41175  -4.71685  -7.46669   3.66009 -0.724097  -0.24225   9.53618
  -0.991246    -21.3694   -0.888132      3.6937     2.30375     1.58404      2.4077    -6.90673     1.76092    -7.85715    0.345156    -7.52811     -1.1139    -6.15945     1.98559    -2.58327    -1.79306   -0.709545     1.05706   -0.799585     1.32966    -11.1817     5.79976     1.93519    -4.42102    0.827308     6.26899  -0.0459465     2.82688  -0.0571493    -8.99909 -0.00820064     6.08959   -0.722645     3.66114     1.60971    -3.64655     -6.2804     2.94008     5.49205     -7.7177
 -15.9801   1.76031   4.26649  -3.88099   1.27236  -2.80782  -6.15549  -4.27898  -25.0804   4.37955   26.1431  -2.99931  -7.38955   6.23222  -2.27126   4.77369  -1.12247 -0.963612  -4.55009  -7.72887  -12.6855    3.9334    3.5314  -3.06596     1.079  -6.26537   1.70235  -9.55516   6.94795   3.68209  0.423573   4.36779  -6.26268  0.283052   1.71655  -2.76279  -6.33179    7.9893   1.54015   3.78615  -9.80179
  4.49816 -0.949492  -3.14393  0.637127  -3.56366   5.98685  -4.27898  0.105779   4.05315 -0.992647   -1.0946   1.28967   4.28357  -2.00521   4.87783  -1.43874 -0.963612  0.105355  -3.73276  -2.62735   4.51931  -1.59277  -5.28481  -4.09094  -5.98979   5.99285  -9.55516   4.18876  -9.58969  -3.69515    5.2478   1.12859    4.1476  0.937073  -3.99868  -3.95747    7.9893   0.66507  0.520816   4.08627  -1.89509
   1.80271    3.65847   0.637127   -5.11308    2.50239    -1.9024    7.42714   -4.57544   -1.49211   -6.97614     2.7313    7.68212   -2.00521   -7.82213   -1.33275    2.54082    15.6069    3.41689   -2.27932    3.36186  -0.187278    6.10412   -4.09094   0.567166  -0.852136   -8.17354    12.4043   -8.86798    3.77794   -3.64546    1.72435   -3.82988   0.937073  -0.634668 -0.0880168   -2.54621    1.87318   0.342466    2.06393 -0.0316362   -6.29706
  -3.84586   -3.50521   -7.40024    2.00941    -1.9024   -5.96723   -4.57544    1.01438   -3.44953   -8.59851    8.68972    7.96669   -6.18786     5.4351    2.54082    6.74228    3.41689   -2.05921     7.7171    9.71629    7.29836    11.9497  -0.384507   -7.50346   -8.17354   -3.19895   -8.86798   -1.72354    6.47823    -4.6107   -4.24295  -0.622158 -0.0377688  -0.854477   -2.54621    7.95671   0.342466   -2.49442    5.41016   -5.54581    4.36407
  -7.76034  -0.701915    2.72389    5.66448   -7.13773    2.98672     3.9701 -0.0251654   -7.86967    10.0689    -8.1882   -1.24602    2.94805    -7.0306    8.74812   0.873272   -4.75547   -4.65162    7.41335   -9.48501  -0.740648   -5.52552   -9.04572   -1.59261    2.04247   -9.55889   -1.16362    4.68216    5.80365   -7.42395 -0.0315805   0.205617  -0.481675   -7.40269    9.22054    8.91411   -6.05228    4.04307   -8.37434    6.52845    11.8646
   3.76517    3.50294    7.80727   -5.40409    2.98672    6.96477    2.64891   -12.5859    3.17963    6.88425     2.8955  -0.965338   -2.12039   -2.11783   0.873272    -1.9442   -6.85343    5.35748   -8.26926   -2.02998   0.208769   -7.45689 -0.0829559   -7.62686   -9.55889 -0.0391506   0.535556  -0.795916   0.642345  0.0388459 -0.0431802    3.37833    -6.3124   0.318356    8.91411    10.0985    3.28963 -0.0185919   -2.75748   -3.05771    1.06217
   3.50294  -0.392374   -5.11882    0.42676    1.74903   -1.51712    3.57416  0.0891584    4.99143  -0.422181  -0.965338   -1.15624   -15.2715   0.037145  0.0663959 -0.0720732    10.6732    2.78051   -2.72844   -3.29208   -7.45689  -0.533942   -7.09845   -5.13206   -1.83452    3.38885    4.93105    4.62134    7.76384    3.88939    3.37833    6.34553    1.31467  -0.126696    4.18761    7.81118   -2.59443    2.41293    3.39558   -9.33276   -13.9706
  -0.20457    2.91792    5.32409   -3.08698   -1.60458   -1.13957  -0.194643   -3.05116   -4.16753      2.098  -0.298676  -0.624542 -0.0131536    2.94062    1.11651   0.324696     5.9786    4.20037    1.28169  -0.620252  -0.518543    5.91551 0.00945736   -7.06076    4.38859   -6.60465    7.18999     9.3377    8.01634    -2.7287    0.98382  -0.773303 -0.0610431    1.05069    10.0887   -1.54963    3.91616   -8.95287    1.90661    2.44356    1.42506
  -7.63203   0.413383   -3.08698   -5.61263 -0.0922352     5.9541   -4.26065   -2.87605    6.03661    3.42993  0.0739518   -3.42411    2.94062  -0.385905   -6.50896 -0.0101588     4.5804    3.99765   -1.06435   -1.10949     7.6813    3.92172   -7.06076    6.00361  0.0202687   -0.48816      9.523    7.28577    6.71043    4.12802    -1.1243   -2.51945    1.05069    5.59594 -0.0492747 -0.0532634   -9.30654    9.00854    3.81668   -3.72513   -1.28245
  10.1834  0.646996  -6.22425  -4.28075  -2.97595  -4.73178   9.03116   1.31773  -9.48879 -0.815207 -0.784388   2.65517  0.427743  -5.19686   4.41544    7.0955 -0.638119   -7.1786  0.744905  -1.52722  -7.27425   3.29244 -0.551877  -9.96383 -0.549037 -0.873213  0.800712  -10.3854   6.78233   2.51791   -3.6841   -4.9144  -5.45623   8.49186   3.52962  -2.23445   3.72921 -0.299651   3.93839  -8.25122   8.26984
  5.12127  -7.85288  -4.28075 -0.615756  -5.79195  -4.05073    7.3557  -4.22696  -6.61831   8.25708   1.34149   7.72925  -5.19686   1.34776  -5.80396   9.01441  -16.3681   -4.2558  -1.72599  -8.12904   3.37093  -7.74695  -9.96383  -8.80082   7.50993  -4.25323   7.71216   5.50328  -4.36621    8.1463  -5.62186    -7.272   8.49186   3.37992  -3.96587   7.02629  -3.88571   5.37161   4.30662   6.90643  -6.16827
  -0.264028  -0.0376816   -0.211835    -1.66783   -0.573749     5.62865    -3.88607     13.4988     2.39288     7.44407    0.475812     -3.1756     1.70741    0.873258    -4.78054     1.17939    0.623487     3.27573    -1.38313     1.85134   -0.823689    -5.13976 -0.00224609     3.74601    -5.37975   -0.217404    -6.21223   -0.580783      3.7567   -0.326098    -4.26881   -0.749313   -0.188761    -2.87115    -2.35034    -2.02129    -6.65819     5.02825    -1.94545    -7.63248     19.1115
  -0.0376816  -0.00132521     -8.58036      5.54045      4.36925     -1.26747      11.9794   -0.0576718      9.38826     -5.53822      -3.1756      5.03964    -0.576432     -2.67184 -0.000235822       2.2605   -0.0679314        1.927     0.632483    -0.503685     -5.13976  -0.00132829      6.10028     -8.39523      4.36017     -3.55315      1.33578     -2.78622     -6.67843      8.08758    -0.749313   -0.0646646     -4.49552     -3.84621     -2.67841     -1.61425   -0.0213965     -9.25827      4.09145       4.8226      1.15831
   -1.68196     0.27783     5.22326    -100.548     -1.4886    -5.14915  -0.0576718    -6.63815    -3.95386    -7.83647     4.99679 -0.00452078    -8.56395    -64.2634     2.10165      3.8667       1.927    -4.24695     2.37453     5.46459   -0.312878     5.00575    -6.08585    -5.94051    -3.59093    -4.92117    -2.78622   -0.392653    -3.52983    -7.31583  -0.0385736   -0.579854  -0.0205669   -0.352394     -2.3931    -6.80254    -9.25827      5.2938    -4.68667     6.82511     3.92649
