    0.101233 -1.49525e-17
   0.101233 -4.9892e-17
    0.101233 -8.32583e-19
    0.101233 -3.79627e-17
    0.101233 -5.75718e-17
    0.101233 -1.40929e-17
    0.101233 -6.21046e-17
    0.101233 -9.42357e-18
    0.101233 -3.53514e-17
    0.101233 -8.80523e-17
    0.101233 -3.30204e-17
    0.101233 -5.86703e-17
    0.101233 -5.58461e-17
   0.101233 -1.1511e-17
    0.101233 -4.20451e-17
    0.101233 -1.52243e-17
    0.101233 -5.07447e-17
    0.101233 -2.97513e-17
    0.101233 -4.62548e-17
    0.101233 -1.60217e-17
    0.101233 -2.79688e-16
    0.101233 -7.15555e-17
   0.101233 4.71572e-18
   0.101233 1.36451e-15
    0.101233 -2.06783e-17
    0.101233 -1.42646e-16
    0.101233 -6.84277e-17
    0.101233 -5.34774e-17
  0.101233 1.6089e-15
   0.101233 4.01231e-16
  0.101233 -7.078e-17
   0.101233 -1.8167e-17
   0.101233 7.27184e-18
    0.101233 -6.25133e-17
   0.101233 1.38664e-16
    0.101233 -3.42038e-17
    0.101233 -3.26893e-17
    0.101233 -1.78185e-17
    0.101233 -8.26911e-18
    0.101233 -5.43842e-17
    0.101233 -1.00161e-16
    0.101233 -2.29232e-17
    0.101233 -3.39993e-17
   0.101233 1.46213e-14
    0.101233 -4.51899e-17
    0.101233 -1.42224e-17
   0.101233 1.30887e-17
   0.101233 2.05594e-15
    0.101233 -5.69239e-17
   0.101233 8.62068e-17
    0.101233 -6.75597e-17
    0.101233 -6.26225e-17
   0.101233 1.82899e-14
    0.101233 -1.84261e-17
    0.101233 -2.82338e-17
    0.101233 -3.70916e-17
  0.101233 3.5083e-16
    0.101233 -4.44888e-17
    0.101233 -2.78015e-17
    0.101233 -3.74641e-17
   0.101233 4.78614e-16
   0.101233 1.32044e-17
    0.101233 -3.71646e-18
  0.101233 1.4497e-17
    0.101233 -6.75172e-17
   0.101233 1.23773e-17
    0.101233 -1.61582e-17
    0.101233 -1.88769e-17
   0.101233 -2.6204e-17
    0.101233 -6.33941e-17
   0.101233 6.43037e-17
    0.101233 -5.79963e-17
    0.101233 -6.44766e-17
    0.101233 -1.19664e-17
    0.101233 -5.87078e-17
    0.101233 -4.69858e-17
    0.101233 -5.81834e-17
   0.101233 -7.0753e-17
    0.101233 -1.58292e-17
    0.101233 -1.25767e-17
    0.101233 -3.02044e-18
    0.101233 -7.82466e-17
    0.101233 -4.96111e-17
    0.101233 -2.80568e-17
    0.101233 -2.24586e-17
    0.101233 -4.07876e-17
    0.101233 -3.07791e-17
    0.101233 -3.01521e-17
    0.101233 -1.17826e-17
    0.101233 -2.47009e-17
    0.101233 -4.94235e-18
    0.101233 -3.14335e-17
    0.101233 -3.52208e-17
   0.101233 4.35908e-18
    0.101233 -1.61972e-17
    0.101233 -5.75031e-17
    0.101233 -1.53016e-17
    0.101233 -1.78388e-17
    0.101233 -2.05276e-17
    0.101233 -4.62179e-17
    0.101233 -4.17847e-17
    0.101233 -1.28495e-17
   0.101233 9.65535e-17
    0.101233 -5.65778e-17
    0.101233 -5.08648e-17
    0.101233 -7.06008e-18
    0.101233 -2.49995e-17
    0.101233 -2.21685e-17
    0.101233 -4.43637e-18
    0.101233 -5.65636e-18
   0.101233 7.10453e-16
   0.101233 1.03745e-17
    0.101233 -9.67002e-19
    0.101233 -1.22958e-17
    0.101233 -3.37384e-17
    0.101233 -2.21742e-17
    0.101233 -6.20175e-17
   0.101233 9.02531e-18
    0.101233 -4.47029e-17
    0.101233 -6.39465e-17
    0.101233 -4.71387e-17
   0.101233 1.39898e-17
   0.101233 -3.9528e-17
    0.101233 -1.01549e-17
    0.101233 -2.88693e-17
    0.101233 -7.47558e-17
    0.101233 -2.24126e-17
    0.101233 -8.92429e-17
    0.101233 -2.21714e-17
    0.101233 -7.32638e-17
   0.101233 -4.0754e-16
   0.101233 -6.3081e-17
   0.101233 4.58487e-16
    0.101233 -6.14733e-17
    0.101233 -8.39362e-17
  0.101233 -2.414e-17
   0.101233 1.65754e-16
    0.101233 -8.14445e-17
    0.101233 -4.66316e-17
    0.101233 -4.36594e-17
    0.101233 -3.45538e-17
    0.101233 -7.28983e-17
    0.101233 -8.37499e-16
  0.101233 -2.228e-17
   0.101233 -3.7917e-17
    0.101233 -4.08127e-17
    0.101233 -4.88526e-17
    0.101233 -5.32621e-17
   0.101233 4.15175e-17
    0.101233 -4.39229e-17
   0.101233 1.15452e-17
   0.101233 2.95071e-17
   0.101233 -8.3096e-18
   0.101233 2.33404e-14
    0.101233 -1.06223e-16
    0.101233 -3.85412e-17
    0.101233 -7.48262e-17
    0.101233 -4.74654e-17
    0.101233 -1.48951e-17
    0.101233 -7.46442e-18
    0.101233 -5.74898e-17
    0.101233 -4.06607e-17
    0.101233 -1.66239e-17
   0.101233 -6.3199e-17
   0.101233 -3.3516e-17
   0.101233 7.97823e-17
    0.101233 -3.70183e-17
    0.101233 -4.95642e-16
    0.101233 -1.39993e-18
    0.101233 -2.13711e-18
   0.101233 2.84707e-17
    0.101233 -1.52831e-17
   0.101233 1.30349e-17
    0.101233 -5.44718e-17
   0.101233 -8.2162e-17
    0.101233 -2.51686e-18
  0.101233 1.2814e-16
    0.101233 -1.20943e-17
    0.101233 -2.99603e-17
    0.101233 -9.53516e-18
   0.101233 1.37622e-17
    0.101233 -3.10591e-17
   0.101233 1.28069e-17
   0.101233 7.09579e-18
   0.101233 9.21784e-18
    0.101233 -7.13975e-17
    0.101233 -6.25635e-17
   0.101233 1.80861e-18
    0.101233 -4.44127e-17
    0.101233 -2.67206e-17
   0.101233 -1.0649e-17
    0.101233 -6.82178e-18
    0.101233 -4.40615e-17
    0.101233 -7.51933e-18
    0.101233 -5.65052e-17
    0.101233 -1.97802e-17
    0.101233 -1.62585e-17
    0.101233 -4.72449e-17
    0.101233 -2.87788e-17
   0.101233 3.30206e-18
    0.101233 -9.34064e-17
    0.101233 -1.62944e-17
    0.101233 -2.48805e-17
    0.101233 -3.21311e-15
    0.101233 -3.56416e-17
    0.101233 -9.65667e-17
   0.101233 1.31087e-17
    0.101233 -7.90769e-17
    0.101233 -4.76598e-17
   0.101233 1.42606e-16
    0.101233 -6.00987e-17
    0.101233 -1.48539e-17
    0.101233 -5.55971e-17
   0.101233 -6.7773e-17
    0.101233 -2.18351e-17
   0.101233 3.04151e-17
    0.101233 -4.09149e-17
   0.101233 9.29702e-16
    0.101233 -3.89459e-18
    0.101233 -2.17531e-17
   0.101233 3.04662e-17
    0.101233 -2.62231e-17
    0.101233 -3.22212e-17
    0.101233 -2.54778e-17
    0.101233 -4.31599e-17
   0.101233 -7.8645e-18
    0.101233 -2.32371e-17
    0.101233 -2.21302e-18
    0.101233 -2.86491e-17
   0.101233 2.24373e-15
    0.101233 -3.05354e-17
    0.101233 -2.20548e-17
    0.101233 -1.99961e-17
   0.101233 3.48662e-19
    0.101233 -3.20958e-17
    0.101233 -4.23929e-17
    0.101233 -2.33666e-17
   0.101233 3.41832e-18
   0.101233 -7.2764e-17
    0.101233 -6.01484e-17
    0.101233 -1.84368e-15
   0.101233 -8.3372e-17
   0.101233 3.29827e-18
   0.101233 1.57427e-17
   0.101233 1.02978e-17
   0.101233 -4.4124e-17
   0.101233 1.69913e-16
   0.101233 2.33055e-17
    0.101233 -4.80133e-17
  0.101233 2.5085e-17
    0.101233 -7.93142e-17
    0.101233 -5.30065e-17
    0.101233 -4.33831e-17
    0.101233 -1.07037e-17
    0.101233 -6.64342e-18
    0.101233 -4.15736e-17
  0.101233 7.8304e-19
    0.101233 -2.11025e-17
    0.101233 -4.52624e-17
    0.101233 -2.12954e-17
    0.101233 -8.27613e-18
    0.101233 -2.85459e-17
    0.101233 -6.78777e-17
    0.101233 -1.92395e-17
    0.101233 -4.78698e-17
   0.101233 1.73258e-17
    0.101233 -3.84358e-17
    0.101233 -5.43583e-17
    0.101233 -6.21258e-17
   0.101233 2.93492e-18
    0.101233 -4.70191e-17
   0.101233 1.27648e-17
   0.101233 -9.1281e-17
    0.101233 -8.99469e-18
   0.101233 4.88649e-16
  0.101233 -4.659e-17
    0.101233 -2.35139e-17
   0.101233 3.73596e-16
    0.101233 -2.31161e-17
  0.101233 -9.968e-17
   0.101233 1.08977e-16
    0.101233 -3.73129e-17
   0.101233 1.31072e-17
  0.101233 1.1195e-16
    0.101233 -1.43597e-17
    0.101233 -6.02899e-17
    0.101233 -3.80131e-18
    0.101233 -1.96508e-17
    0.101233 -2.28627e-18
    0.101233 -6.58395e-17
   0.101233 2.13468e-17
   0.101233 -7.4849e-17
    0.101233 -6.18076e-17
    0.101233 -3.93183e-17
    0.101233 -4.35309e-17
    0.101233 -4.69919e-17
    0.101233 -1.74718e-17
    0.101233 -4.18296e-17
    0.101233 -4.85826e-17
    0.101233 -4.57961e-17
    0.101233 -2.81652e-17
    0.101233 -4.73341e-17
    0.101233 -2.41635e-17
    0.101233 -2.46272e-17
    0.101233 -7.43345e-17
    0.101233 -4.02387e-17
    0.101233 -4.30423e-17
    0.101233 -6.56368e-17
    0.101233 -6.61793e-17
    0.101233 -1.83874e-15
    0.101233 -7.30513e-17
    0.101233 -5.21777e-17
    0.101233 -5.77716e-17
    0.101233 -3.89315e-17
    0.101233 -2.06708e-17
   0.101233 -2.4277e-17
   0.101233 -3.2224e-17
    0.101233 -6.24398e-17
    0.101233 -8.23348e-17
   0.101233 1.97677e-15
29.1112 114.239
    0.101233 -1.91263e-17
    0.101233 -4.09558e-17
    0.101233 -2.61609e-17
    0.101233 -6.02556e-17
    0.101233 -2.53492e-17
    0.101233 -8.93233e-18
    0.101233 -1.46128e-17
    0.101233 -4.14169e-17
    0.101233 -7.94664e-18
   0.101233 1.46193e-17
   0.101233 1.99208e-17
    0.101233 -6.82179e-17
    0.101233 -6.71065e-17
   0.101233 1.23606e-17
   0.101233 2.67881e-17
    0.101233 -2.35481e-17
    0.101233 -2.14289e-17
    0.101233 -2.85677e-18
   0.101233 1.36397e-17
    0.101233 -3.40104e-17
   0.101233 1.62823e-17
    0.101233 -1.17297e-18
   0.101233 1.66059e-17
    0.101233 -4.97807e-17
    0.101233 -2.68283e-17
    0.101233 -2.77396e-17
    0.101233 -1.08579e-17
   0.101233 1.77127e-17
    0.101233 -3.15691e-17
    0.101233 -2.85907e-17
    0.101233 -5.93782e-17
    0.101233 -9.59041e-17
    0.101233 -3.14876e-17
    0.101233 -1.98367e-17
    0.101233 -6.39364e-17
    0.101233 -7.31623e-17
   0.101233 3.81642e-17
   0.101233 1.46044e-17
    0.101233 -5.50116e-17
   0.101233 -1.5712e-17
   0.101233 1.17009e-18
   0.101233 9.51551e-18
    0.101233 -1.21152e-17
    0.101233 -6.68526e-19
    0.101233 -7.12609e-18
   0.101233 2.51906e-18
   0.101233 6.63009e-18
    0.101233 -9.15604e-17
    0.101233 -1.56954e-17
    0.101233 -1.06015e-16
   0.101233 3.60112e-17
   0.101233 2.27711e-17
   0.101233 1.16152e-18
    0.101233 -6.07564e-17
   0.101233 -1.5067e-17
    0.101233 -6.53058e-17
    0.101233 -2.32563e-17
   0.101233 4.15509e-17
   0.101233 1.85854e-17
    0.101233 -3.65584e-17
    0.101233 -1.89605e-17
   0.101233 3.74067e-18
   0.101233 3.88429e-15
    0.101233 -1.04696e-17
   0.101233 8.83583e-18
    0.101233 -6.41414e-15
    0.101233 -7.37719e-17
   0.101233 1.68927e-17
   0.101233 3.10031e-18
   0.101233 6.86873e-18
    0.101233 -1.47785e-17
   0.101233 -2.4308e-17
    0.101233 -5.67508e-17
    0.101233 -7.41359e-17
    0.101233 -2.69426e-17
    0.101233 -2.70985e-17
    0.101233 -7.60709e-17
    0.101233 -2.58911e-17
    0.101233 -9.78212e-16
    0.101233 -1.53573e-17
    0.101233 -6.78517e-17
100.835 1814.73
    0.101233 -1.49857e-17
    0.101233 -3.09789e-17
    0.101233 -5.18942e-18
    0.101233 -5.54364e-17
   0.101233 2.36491e-18
  0.101233 4.8933e-17
    0.101233 -4.28337e-18
    0.101233 -7.37567e-17
   0.101233 3.25304e-17
    0.101233 -9.97573e-17
  0.101233 -4.693e-17
    0.101233 -1.31005e-16
    0.101233 -2.76227e-17
    0.101233 -4.26616e-17
    0.101233 -1.39566e-18
   0.101233 2.27394e-18
    0.101233 -2.28276e-17
    0.101233 -1.31632e-16
    0.101233 -3.93539e-17
    0.101233 -6.75078e-17
   0.101233 2.01623e-19
    0.101233 -8.97857e-17
    0.101233 -6.25151e-17
    0.101233 -6.15782e-17
    0.101233 -7.50546e-18
    0.101233 -2.66721e-17
   0.101233 2.83456e-17
    0.101233 -4.59588e-17
    0.101233 -4.07749e-17
    0.101233 -2.96678e-17
    0.101233 -1.23866e-17
    0.101233 -1.08651e-17
    0.101233 -3.77164e-17
    0.101233 -8.91365e-17
    0.101233 -6.05578e-17
  0.101233 3.3978e-17
    0.101233 -3.61237e-17
   0.101233 -3.0441e-17
    0.101233 -3.38697e-18
   0.101233 6.68847e-15
    0.101233 -6.98314e-18
    0.101233 -4.65751e-17
    0.101233 -2.16819e-16
    0.101233 -4.19098e-17
    0.101233 -9.66238e-18
    0.101233 -4.83672e-17
   0.101233 2.11303e-17
    0.101233 -5.73769e-17
    0.101233 -5.63672e-17
    0.101233 -3.08617e-17
    0.101233 -3.55459e-17
    0.101233 -1.37215e-17
    0.101233 -5.91693e-17
    0.101233 -3.40109e-17
    0.101233 -2.19543e-17
    0.101233 -7.79649e-17
    0.101233 -5.24166e-17
    0.101233 -5.93328e-17
    0.101233 -2.51417e-17
   0.101233 5.20501e-18
    0.101233 -2.45814e-17
   0.101233 3.88994e-15
    0.101233 -6.35211e-17
    0.101233 -9.04909e-17
    0.101233 -5.60833e-17
    0.101233 -8.54589e-17
    0.101233 -5.13906e-17
   0.101233 5.97684e-17
    0.101233 -2.07171e-17
   0.101233 7.41281e-18
   0.101233 1.77093e-17
    0.101233 -2.70214e-17
   0.101233 8.62429e-18
    0.101233 -6.49898e-17
   0.101233 5.30998e-17
   0.101233 2.34779e-18
    0.101233 -1.60475e-17
   0.101233 5.15553e-18
    0.101233 -8.75056e-18
    0.101233 -3.22559e-17
    0.101233 -8.95116e-17
    0.101233 -6.43021e-18
    0.101233 -2.80281e-17
    0.101233 -4.97338e-17
   0.101233 -1.6539e-18
    0.101233 -5.59431e-17
    0.101233 -5.46236e-18
    0.101233 -8.66012e-18
    0.101233 -4.09422e-17
    0.101233 -3.69437e-17
   0.101233 -8.2629e-17
   0.101233 3.28873e-16
   0.101233 5.98563e-17
   0.101233 -4.9115e-18
    0.101233 -4.77618e-17
    0.101233 -4.40103e-17
    0.101233 -1.20172e-17
   0.101233 1.08131e-17
    0.101233 -2.37781e-16
   0.101233 8.15619e-17
    0.101233 -4.61145e-17
   0.101233 3.27036e-16
   0.101233 2.44096e-17
   0.101233 7.12321e-17
    0.101233 -5.79154e-18
   0.101233 -7.9975e-17
    0.101233 -1.47062e-17
    0.101233 -4.31579e-17
   0.101233 3.05751e-15
    0.101233 -6.78435e-17
    0.101233 -4.20118e-17
    0.101233 -6.41811e-17
   0.101233 3.55492e-17
    0.101233 -3.46414e-17
  0.101233 1.2092e-17
    0.101233 -7.24254e-17
   0.101233 2.73377e-17
    0.101233 -4.65599e-17
    0.101233 -5.72109e-15
   0.101233 -2.9889e-16
    0.101233 -3.82273e-17
    0.101233 -8.32287e-17
    0.101233 -1.73325e-17
    0.101233 -3.54822e-17
    0.101233 -3.87221e-17
   0.101233 -1.6701e-17
    0.101233 -7.74517e-17
    0.101233 -5.74584e-18
    0.101233 -2.03287e-17
    0.101233 -4.57925e-17
    0.101233 -4.01652e-17
    0.101233 -8.09895e-18
   0.101233 3.20101e-17
    0.101233 -6.48804e-17
    0.101233 -3.96417e-17
    0.101233 -3.91724e-17
   0.101233 1.10402e-17
   0.101233 1.21097e-17
   0.101233 1.02562e-17
    0.101233 -5.00487e-17
    0.101233 -4.29522e-17
   0.101233 -4.3761e-17
   0.101233 -6.5493e-17
    0.101233 -1.60275e-17
   0.101233 7.55566e-18
   0.101233 1.22329e-17
    0.101233 -4.16419e-17
   0.101233 5.23844e-17
   0.101233 3.95409e-18
   0.101233 4.57579e-18
   0.101233 1.92394e-16
    0.101233 -2.86236e-17
    0.101233 -2.10394e-17
    0.101233 -2.80042e-17
    0.101233 -9.12811e-18
    0.101233 -3.09342e-17
  0.101233 1.1215e-17
-12.8683  467.854
    0.101233 -3.43767e-17
    0.101233 -2.45952e-17
    0.101233 -7.02732e-17
    0.101233 -5.75236e-18
   0.101233 -2.9314e-17
   0.101233 2.03679e-17
    0.101233 -4.12989e-18
   0.101233 1.21981e-15
   0.101233 -4.4885e-17
    0.101233 -7.91508e-17
    0.101233 -2.68543e-16
    0.101233 -6.55697e-17
    0.101233 -5.28717e-17
    0.101233 -3.40148e-17
   0.101233 -3.7576e-17
    0.101233 -2.47067e-17
  0.101233 1.6455e-17
    0.101233 -8.62095e-17
   0.101233 1.05503e-17
    0.101233 -4.08931e-17
    0.101233 -3.57788e-17
    0.101233 -3.24589e-18
   0.101233 8.91833e-18
    0.101233 -6.53677e-17
   0.101233 1.14244e-17
   0.101233 5.49394e-17
    0.101233 -2.25138e-17
   0.101233 -6.2481e-19
   0.101233 -2.4303e-17
    0.101233 -3.70573e-17
    0.101233 -7.95603e-17
   0.101233 -2.2888e-17
   0.101233 -5.3639e-18
    0.101233 -6.71469e-17
    0.101233 -1.24244e-17
    0.101233 -1.00418e-16
    0.101233 -2.72589e-17
   0.101233 7.99674e-19
    0.101233 -4.13668e-17
    0.101233 -5.78247e-17
    0.101233 -7.00094e-17
    0.101233 -6.23361e-17
   0.101233 1.69287e-17
    0.101233 -6.65674e-17
    0.101233 -9.16404e-18
    0.101233 -6.60981e-17
    0.101233 -2.25799e-17
   0.101233 -2.7514e-17
   0.101233 5.26769e-17
    0.101233 -3.41722e-17
    0.101233 -3.40396e-17
    0.101233 -6.01062e-17
    0.101233 -5.00251e-17
    0.101233 -1.48715e-17
   0.101233 -4.9656e-17
    0.101233 -4.89797e-17
   0.101233 -1.1406e-17
    0.101233 -2.73671e-17
    0.101233 -9.98917e-17
    0.101233 -4.09994e-17
    0.101233 -6.95483e-17
    0.101233 -1.79485e-17
    0.101233 -5.41186e-16
   0.101233 2.36069e-15
    0.101233 -3.87865e-17
    0.101233 -1.38602e-16
    0.101233 -1.07424e-15
    0.101233 -5.98805e-17
    0.101233 -7.21027e-17
    0.101233 -3.18566e-15
    0.101233 -7.60362e-18
    0.101233 -2.94002e-17
    0.101233 -4.07159e-17
    0.101233 -1.95391e-17
    0.101233 -3.50994e-17
   0.101233 1.48378e-17
    0.101233 -2.59495e-17
    0.101233 -1.62075e-17
    0.101233 -3.93452e-17
    0.101233 -7.10388e-17
    0.101233 -6.68973e-17
    0.101233 -2.54486e-17
   0.101233 -8.1548e-18
    0.101233 -8.52934e-18
   0.101233 8.92923e-18
    0.101233 -6.75991e-17
  0.101233 3.9781e-15
   0.101233 -6.9318e-18
    0.101233 -4.18055e-17
   0.101233 8.73448e-17
    0.101233 -1.82875e-17
    0.101233 -2.56773e-17
    0.101233 -8.17455e-18
    0.101233 -1.85381e-17
   0.101233 1.24246e-17
    0.101233 -3.68594e-17
    0.101233 -4.04024e-17
   0.101233 4.02624e-18
    0.101233 -4.95989e-17
   0.101233 -1.1432e-15
   0.101233 1.94695e-17
    0.101233 -5.13334e-17
   0.101233 -3.1098e-17
   0.101233 4.00183e-18
   0.101233 1.60186e-16
    0.101233 -4.06231e-17
   0.101233 2.37904e-17
    0.101233 -9.42909e-19
    0.101233 -8.18773e-17
  0.101233 -1.068e-17
    0.101233 -3.16713e-17
    0.101233 -6.76718e-17
   0.101233 5.60863e-15
    0.101233 -3.83047e-17
  0.101233 6.3041e-17
    0.101233 -6.41297e-17
   0.101233 -1.3018e-16
    0.101233 -7.12288e-17
   0.101233 1.27448e-17
   0.101233 1.34726e-16
    0.101233 -2.46462e-17
   0.101233 -9.4031e-17
   0.101233 3.37195e-18
    0.101233 -2.95939e-17
    0.101233 -8.18597e-18
    0.101233 -4.35108e-17
   0.101233 1.80344e-17
    0.101233 -9.56365e-18
    0.101233 -4.01385e-17
    0.101233 -5.30059e-17
    0.101233 -1.44083e-17
    0.101233 -2.96029e-17
    0.101233 -4.07451e-17
    0.101233 -4.67849e-17
    0.101233 -1.39441e-16
    0.101233 -7.76506e-17
   0.101233 -5.5825e-17
    0.101233 -1.64338e-17
    0.101233 -7.47599e-17
    0.101233 -1.77432e-17
   0.101233 -7.8155e-18
    0.101233 -2.34486e-17
  0.101233 2.9895e-18
  0.101233 -4.357e-17
    0.101233 -6.66824e-17
    0.101233 -7.45141e-17
    0.101233 -3.07575e-17
   0.101233 1.25428e-17
   0.101233 2.17189e-16
    0.101233 -4.70178e-17
    0.101233 -2.75255e-17
   0.101233 9.99923e-18
    0.101233 -8.60606e-18
    0.101233 -4.59821e-17
    0.101233 -3.32823e-17
    0.101233 -3.07986e-17
    0.101233 -3.48333e-17
  0.101233 5.3794e-18
    0.101233 -7.07009e-16
    0.101233 -6.15489e-17
   0.101233 1.74259e-17
  0.101233 -1.752e-17
    0.101233 -4.18222e-17
   0.101233 1.86194e-17
    0.101233 -1.01442e-17
    0.101233 -4.38222e-17
    0.101233 -4.58436e-17
    0.101233 -5.03696e-17
    0.101233 -6.29543e-17
    0.101233 -5.06174e-17
    0.101233 -5.44487e-17
    0.101233 -5.80384e-17
    0.101233 -7.83175e-17
    0.101233 -7.52159e-18
   0.101233 1.16288e-17
    0.101233 -2.21747e-17
    0.101233 -6.27347e-18
    0.101233 -4.21703e-17
    0.101233 -1.52302e-17
    0.101233 -2.48402e-17
    0.101233 -2.77658e-18
    0.101233 -2.46543e-18
   0.101233 1.38461e-17
    0.101233 -1.10642e-17
    0.101233 -6.37163e-17
    0.101233 -3.95713e-17
    0.101233 -8.84462e-18
   0.101233 -2.6086e-17
    0.101233 -1.56619e-17
   0.101233 -7.0128e-17
    0.101233 -2.18448e-17
    0.101233 -7.51956e-18
    0.101233 -4.87407e-17
   0.101233 1.21748e-18
   0.101233 2.23754e-17
  0.101233 3.9053e-17
    0.101233 -1.90624e-17
    0.101233 -4.58213e-17
    0.101233 -2.21611e-18
    0.101233 -6.44442e-17
    0.101233 -9.17004e-16
    0.101233 -1.01667e-17
   0.101233 1.74612e-17
   0.101233 6.48273e-18
   0.101233 9.31237e-18
    0.101233 -4.17712e-17
    0.101233 -2.22931e-17
    0.101233 -7.95044e-17
    0.101233 -3.57806e-17
    0.101233 -5.84745e-17
    0.101233 -2.41067e-17
    0.101233 -4.14091e-17
   0.101233 7.71846e-16
 0.101233 5.788e-18
    0.101233 -2.08295e-17
    0.101233 -4.04373e-18
   0.101233 4.17187e-16
   0.101233 -3.4971e-17
    0.101233 -7.20803e-17
    0.101233 -1.48038e-17
    0.101233 -1.28641e-17
   0.101233 7.29408e-16
    0.101233 -4.36451e-17
    0.101233 -3.64759e-17
    0.101233 -3.53458e-17
    0.101233 -3.36244e-17
   0.101233 8.06295e-15
    0.101233 -3.29767e-17
  0.101233 5.0411e-16
    0.101233 -2.61945e-17
    0.101233 -5.72057e-16
   0.101233 8.60364e-18
  0.101233 -5.391e-17
    0.101233 -2.34384e-17
    0.101233 -2.52307e-17
    0.101233 -2.00291e-17
    0.101233 -6.86831e-17
   0.101233 5.39505e-17
    0.101233 -5.45056e-17
    0.101233 -7.90426e-17
    0.101233 -1.37153e-17
    0.101233 -2.46695e-15
    0.101233 -1.22359e-16
    0.101233 -5.96506e-17
    0.101233 -9.66291e-17
    0.101233 -5.09398e-17
    0.101233 -4.74961e-17
   0.101233 -4.8848e-17
   0.101233 7.59492e-15
    0.101233 -5.03812e-18
   0.101233 1.53102e-17
   0.101233 -4.3686e-17
   0.101233 9.11679e-17
    0.101233 -3.14928e-17
    0.101233 -8.93389e-18
    0.101233 -1.58512e-17
    0.101233 -1.85309e-17
    0.101233 -2.04341e-17
    0.101233 -1.52906e-17
    0.101233 -7.48569e-17
   0.101233 2.64953e-17
    0.101233 -4.90165e-17
    0.101233 -4.57619e-18
    0.101233 -7.24156e-18
    0.101233 -4.95613e-17
   0.101233 2.81118e-17
    0.101233 -3.45284e-17
   0.101233 5.15575e-18
   0.101233 4.93329e-15
    0.101233 -3.07631e-17
   0.101233 -4.0842e-17
    0.101233 -6.91383e-17
    0.101233 -1.48711e-18
    0.101233 -1.67615e-17
    0.101233 -2.98141e-17
    0.101233 -4.98639e-17
   0.101233 -3.8636e-17
    0.101233 -2.83414e-17
    0.101233 -7.22995e-17
    0.101233 -3.85028e-17
    0.101233 -3.96101e-17
    0.101233 -6.99978e-18
    0.101233 -6.18523e-15
   0.101233 3.52045e-17
    0.101233 -7.37215e-18
    0.101233 -2.96372e-17
    0.101233 -5.32267e-17
    0.101233 -4.74574e-17
    0.101233 -1.08838e-17
    0.101233 -5.43209e-17
    0.101233 -5.14205e-17
    0.101233 -3.44583e-17
    0.101233 -3.91066e-17
    0.101233 -4.14182e-17
   0.101233 -3.9481e-17
    0.101233 -5.38166e-17
    0.101233 -1.07239e-17
    0.101233 -2.34526e-17
    0.101233 -3.69373e-17
    0.101233 -4.51716e-17
  0.101233 4.7125e-18
    0.101233 -2.75549e-17
    0.101233 -1.61268e-17
    0.101233 -8.98925e-17
   0.101233 7.06136e-18
    0.101233 -6.59763e-18
    0.101233 -6.67015e-17
   0.101233 -4.5205e-17
    0.101233 -4.19681e-17
   0.101233 1.68183e-18
   0.101233 2.27086e-17
    0.101233 -7.28009e-17
    0.101233 -3.98652e-17
   0.101233 -4.2607e-17
    0.101233 -3.23864e-17
    0.101233 -4.52572e-17
    0.101233 -6.33676e-18
    0.101233 -3.16113e-17
   0.101233 1.27083e-14
   0.101233 1.62171e-17
   0.101233 -6.1281e-17
    0.101233 -6.27605e-17
    0.101233 -6.35029e-17
    0.101233 -6.12502e-17
    0.101233 -3.70478e-17
   0.101233 9.93731e-18
    0.101233 -8.46044e-17
   0.101233 6.14336e-17
    0.101233 -2.88595e-17
   0.101233 4.33849e-17
    0.101233 -4.72135e-17
    0.101233 -4.38983e-15
    0.101233 -6.24391e-17
    0.101233 -1.24829e-17
    0.101233 -1.11315e-17
    0.101233 -1.01645e-16
    0.101233 -4.34001e-17
    0.101233 -3.40706e-17
    0.101233 -6.60023e-17
    0.101233 -1.14733e-17
   0.101233 2.88564e-18
   0.101233 1.20136e-15
    0.101233 -2.77132e-17
   0.101233 2.17982e-17
    0.101233 -5.02476e-17
    0.101233 -3.15319e-17
   0.101233 1.75481e-17
    0.101233 -1.40048e-15
   0.101233 4.71974e-17
   0.101233 -3.8608e-17
    0.101233 -2.28558e-19
    0.101233 -1.49458e-17
    0.101233 -1.54997e-17
   0.101233 3.22952e-17
    0.101233 -5.64283e-17
    0.101233 -1.01895e-16
    0.101233 -4.01924e-17
    0.101233 -3.72752e-17
    0.101233 -1.11733e-16
   0.101233 1.40404e-18
    0.101233 -4.20194e-17
    0.101233 -1.28176e-17
-3.62529  45.9441
    0.101233 -4.29005e-17
    0.101233 -3.81166e-17
    0.101233 -9.64376e-18
    0.101233 -3.90439e-17
    0.101233 -7.29611e-17
    0.101233 -5.20307e-17
   0.101233 9.25467e-18
    0.101233 -7.09404e-17
    0.101233 -1.05687e-16
    0.101233 -4.24634e-17
-201.881 -104.491
    0.101233 -2.17235e-17
   0.101233 1.83936e-17
    0.101233 -4.61345e-18
    0.101233 -3.46947e-17
    0.101233 -6.98619e-17
   0.101233 3.59294e-16
    0.101233 -8.02382e-17
   0.101233 -8.3955e-17
    0.101233 -2.50129e-17
    0.101233 -2.41163e-17
    0.101233 -3.78512e-17
   0.101233 1.84804e-18
  0.101233 2.9584e-18
    0.101233 -2.58671e-17
    0.101233 -2.94209e-17
   0.101233 -3.7211e-17
    0.101233 -2.76604e-18
  0.101233 9.5329e-18
    0.101233 -1.12102e-16
   0.101233 9.81475e-17
    0.101233 -3.68305e-17
    0.101233 -6.82977e-17
    0.101233 -5.11856e-17
   0.101233 3.99436e-18
    0.101233 -2.72825e-17
    0.101233 -6.33165e-18
    0.101233 -3.35086e-17
    0.101233 -3.47189e-17
    0.101233 -9.91931e-17
    0.101233 -2.61986e-17
    0.101233 -2.07729e-17
    0.101233 -7.24424e-17
    0.101233 -2.68282e-17
   0.101233 7.54207e-18
    0.101233 -4.92345e-17
    0.101233 -4.39886e-17
   0.101233 2.92024e-18
   0.101233 1.23567e-17
    0.101233 -7.93219e-17
  0.101233 4.2886e-17
   0.101233 4.98486e-18
    0.101233 -3.11107e-17
    0.101233 -1.88982e-17
    0.101233 -2.72947e-16
    0.101233 -4.39296e-17
    0.101233 -6.81159e-17
    0.101233 -2.26743e-17
   0.101233 6.60509e-15
    0.101233 -7.28488e-17
    0.101233 -5.81535e-17
    0.101233 -8.62974e-18
    0.101233 -2.57923e-17
    0.101233 -2.48386e-19
   0.101233 3.41496e-16
    0.101233 -4.44959e-17
    0.101233 -6.67399e-17
    0.101233 -1.01413e-16
    0.101233 -1.10582e-17
   0.101233 2.59156e-17
   0.101233 6.94688e-15
    0.101233 -1.10806e-17
    0.101233 -8.38215e-17
    0.101233 -8.23624e-16
    0.101233 -6.39756e-17
    0.101233 -4.68213e-17
    0.101233 -7.07221e-17
    0.101233 -1.07571e-17
    0.101233 -1.62652e-15
    0.101233 -1.06904e-16
    0.101233 -1.10929e-17
    0.101233 -6.28249e-18
   0.101233 -5.8814e-18
    0.101233 -1.26637e-17
   0.101233 -3.2089e-17
   0.101233 6.20304e-17
    0.101233 -4.70397e-17
    0.101233 -3.50071e-17
   0.101233 3.55364e-17
   0.101233 4.83971e-18
    0.101233 -4.61956e-17
   0.101233 5.40167e-17
    0.101233 -1.49999e-17
    0.101233 -2.76734e-18
   0.101233 -6.6245e-18
    0.101233 -8.72308e-18
    0.101233 -6.23038e-17
   0.101233 1.28804e-17
    0.101233 -1.83684e-17
 10.7513 -62.1787
    0.101233 -1.46391e-16
    0.101233 -3.89745e-16
    0.101233 -1.71903e-16
    0.101233 -2.90082e-17
   0.101233 -3.4775e-17
    0.101233 -4.27042e-17
    0.101233 -1.11795e-14
    0.101233 -6.84562e-17
   0.101233 4.74738e-17
    0.101233 -5.53668e-17
    0.101233 -3.21205e-17
    0.101233 -3.47028e-17
   0.101233 4.95669e-19
    0.101233 -3.81885e-17
    0.101233 -7.18788e-17
   0.101233 8.11395e-18
    0.101233 -5.74812e-18
    0.101233 -5.45101e-17
    0.101233 -2.86346e-17
    0.101233 -1.61578e-17
    0.101233 -3.59594e-17
   0.101233 -2.6905e-17
    0.101233 -1.43993e-17
    0.101233 -1.11805e-17
   0.101233 -8.7052e-17
    0.101233 -8.04295e-17
    0.101233 -5.61256e-17
   0.101233 -2.9673e-17
    0.101233 -3.64519e-17
    0.101233 -2.36532e-17
    0.101233 -5.72785e-17
    0.101233 -3.18078e-17
    0.101233 -2.00331e-17
    0.101233 -1.45572e-17
    0.101233 -2.89474e-17
   0.101233 7.29645e-18
   0.101233 -4.4841e-17
    0.101233 -1.30809e-17
    0.101233 -1.08707e-16
    0.101233 -2.50254e-17
  0.101233 1.9817e-18
    0.101233 -1.71981e-17
    0.101233 -3.76889e-17
    0.101233 -1.49908e-17
    0.101233 -3.49034e-17
    0.101233 -1.54838e-16
    0.101233 -7.26623e-17
    0.101233 -2.28061e-17
    0.101233 -3.36881e-17
    0.101233 -3.27144e-17
    0.101233 -2.34842e-17
    0.101233 -1.98634e-17
    0.101233 -6.79299e-16
    0.101233 -1.05175e-17
-9.87629  59.6608
   0.101233 3.40861e-17
   0.101233 7.40652e-19
  0.101233 2.9197e-17
   0.101233 9.95125e-17
   0.101233 1.22268e-16
    0.101233 -7.26329e-17
    0.101233 -4.75508e-17
    0.101233 -6.02859e-17
    0.101233 -2.12965e-14
    0.101233 -4.59078e-17
    0.101233 -9.20159e-17
   0.101233 3.68574e-17
    0.101233 -2.63572e-17
    0.101233 -5.20149e-17
   0.101233 -3.5993e-17
   0.101233 1.72865e-17
    0.101233 -7.72464e-17
   0.101233 -8.6174e-17
    0.101233 -2.90307e-17
   0.101233 -2.1913e-17
   0.101233 -2.3785e-17
   0.101233 3.73421e-18
    0.101233 -6.91123e-17
   0.101233 -8.0895e-18
    0.101233 -5.25411e-18
    0.101233 -1.84835e-17
    0.101233 -3.74978e-17
    0.101233 -3.91618e-17
    0.101233 -1.89712e-17
    0.101233 -4.71745e-17
    0.101233 -1.10346e-15
    0.101233 -4.39108e-17
    0.101233 -1.58981e-17
    0.101233 -4.67608e-17
    0.101233 -2.58145e-15
    0.101233 -3.63287e-17
   0.101233 3.46549e-18
   0.101233 8.49383e-18
   0.101233 -9.9879e-18
   0.101233 3.14528e-18
    0.101233 -5.19257e-17
   0.101233 1.57768e-18
    0.101233 -8.87299e-17
    0.101233 -9.89392e-18
    0.101233 -4.00453e-17
    0.101233 -3.72135e-16
    0.101233 -9.61506e-18
    0.101233 -7.63666e-17
    0.101233 -2.63683e-17
   0.101233 6.99054e-18
  0.101233 -7.356e-17
   0.101233 -7.7818e-17
   0.101233 3.61794e-15
    0.101233 -5.85199e-17
    0.101233 -4.54891e-17
    0.101233 -1.60289e-17
   0.101233 1.02066e-18
    0.101233 -2.57394e-17
    0.101233 -6.46597e-17
    0.101233 -1.51088e-17
   0.101233 4.50631e-18
    0.101233 -1.58867e-17
   0.101233 1.46143e-17
   0.101233 1.34615e-15
    0.101233 -9.74967e-18
    0.101233 -3.43033e-17
    0.101233 -8.40814e-16
   0.101233 1.48576e-17
    0.101233 -4.70863e-17
    0.101233 -7.08678e-17
    0.101233 -5.35348e-16
  0.101233 -3.192e-19
   0.101233 1.65936e-17
    0.101233 -6.55026e-17
    0.101233 -4.33586e-17
    0.101233 -1.34141e-17
   0.101233 6.03474e-18
    0.101233 -7.50295e-17
    0.101233 -1.87281e-17
    0.101233 -6.30162e-17
   0.101233 1.13682e-17
    0.101233 -1.65561e-17
    0.101233 -5.15488e-17
    0.101233 -8.86616e-17
    0.101233 -6.45381e-17
    0.101233 -3.81175e-18
    0.101233 -4.43492e-18
    0.101233 -2.92218e-17
    0.101233 -7.72532e-17
    0.101233 -3.12253e-17
   0.101233 -1.6928e-16
    0.101233 -4.29006e-17
    0.101233 -2.21723e-16
    0.101233 -3.13898e-17
    0.101233 -5.32874e-17
    0.101233 -5.17035e-17
    0.101233 -6.98582e-17
    0.101233 -5.82982e-17
   0.101233 -3.3174e-17
    0.101233 -5.01944e-17
    0.101233 -2.30738e-17
    0.101233 -8.72913e-16
   0.101233 2.89831e-17
    0.101233 -6.83816e-17
    0.101233 -7.42336e-17
   0.101233 8.82583e-16
   0.101233 4.67169e-17
    0.101233 -5.95666e-17
    0.101233 -4.25844e-17
    0.101233 -2.48251e-16
    0.101233 -1.92387e-16
    0.101233 -3.90435e-17
   0.101233 -6.2758e-17
    0.101233 -3.40811e-17
    0.101233 -9.31728e-17
    0.101233 -3.88375e-17
    0.101233 -7.25066e-17
    0.101233 -2.07478e-17
    0.101233 -9.87114e-18
    0.101233 -3.78783e-16
    0.101233 -3.22513e-17
0.101233 4.04e-18
    0.101233 -6.13914e-17
    0.101233 -1.57451e-17
    0.101233 -2.41505e-17
    0.101233 -1.07533e-16
   0.101233 8.52773e-18
    0.101233 -9.23391e-17
    0.101233 -4.43583e-17
    0.101233 -2.99379e-17
3.94728 44.7128
  0.101233 -7.296e-17
   0.101233 2.05459e-17
    0.101233 -4.02577e-17
   0.101233 1.44346e-17
   0.101233 2.14935e-18
   0.101233 1.74264e-16
   0.101233 3.91208e-17
  0.101233 -4.135e-17
   0.101233 -7.7186e-17
    0.101233 -3.13679e-17
   0.101233 -6.5194e-17
   0.101233 4.64411e-18
   0.101233 -2.2352e-17
    0.101233 -8.81414e-18
    0.101233 -2.85219e-17
   0.101233 -4.7988e-17
   0.101233 -3.6523e-17
    0.101233 -4.93129e-17
    0.101233 -2.99037e-17
   0.101233 -3.2492e-17
    0.101233 -1.25724e-16
    0.101233 -7.80428e-17
    0.101233 -1.13749e-17
   0.101233 1.38737e-17
    0.101233 -9.11536e-18
    0.101233 -6.40616e-17
    0.101233 -7.75308e-18
   0.101233 3.81315e-17
    0.101233 -5.67123e-17
    0.101233 -1.22052e-17
    0.101233 -7.15636e-18
    0.101233 -7.35426e-17
   0.101233 -3.9508e-17
    0.101233 -3.02695e-17
    0.101233 -5.58458e-17
    0.101233 -1.29151e-17
   0.101233 1.59089e-17
    0.101233 -3.45639e-18
    0.101233 -1.19345e-17
    0.101233 -5.36448e-17
    0.101233 -7.42042e-18
    0.101233 -8.75489e-17
    0.101233 -1.98851e-17
  0.101233 3.3328e-18
   0.101233 -3.8772e-17
   0.101233 1.66661e-17
    0.101233 -3.95954e-17
    0.101233 -3.70711e-17
    0.101233 -5.38015e-17
    0.101233 -7.55651e-16
   0.101233 5.57205e-18
    0.101233 -3.73041e-17
   0.101233 7.93711e-18
    0.101233 -6.32309e-17
   0.101233 -2.5643e-17
    0.101233 -6.35915e-16
    0.101233 -6.10804e-17
    0.101233 -1.20823e-18
    0.101233 -1.56218e-17
    0.101233 -6.72247e-17
    0.101233 -3.98873e-17
    0.101233 -2.56391e-17
    0.101233 -9.53952e-17
    0.101233 -2.12691e-18
    0.101233 -1.86925e-17
    0.101233 -8.14568e-17
    0.101233 -2.71589e-16
    0.101233 -5.30163e-17
   0.101233 5.16343e-16
    0.101233 -3.10335e-17
    0.101233 -2.72117e-17
    0.101233 -2.34968e-17
    0.101233 -1.56176e-16
   0.101233 -7.5446e-17
    0.101233 -3.80025e-17
    0.101233 -6.00293e-17
   0.101233 1.80021e-17
   0.101233 2.16445e-16
   0.101233 3.76414e-17
    0.101233 -1.34273e-18
    0.101233 -1.88561e-17
    0.101233 -9.12922e-17
  7.5328 -53.4485
   0.101233 2.55563e-18
    0.101233 -6.26044e-17
    0.101233 -4.25937e-17
    0.101233 -1.75513e-15
    0.101233 -7.70423e-17
    0.101233 -5.28855e-17
   0.101233 -1.8997e-17
    0.101233 -2.96145e-17
    0.101233 -1.94817e-17
    0.101233 -6.00119e-17
    0.101233 -7.38244e-17
   0.101233 1.34783e-17
   0.101233 1.43835e-17
    0.101233 -6.56712e-17
   0.101233 -3.0614e-17
    0.101233 -6.97046e-17
    0.101233 -8.14391e-17
    0.101233 -1.49208e-18
    0.101233 -3.45584e-17
    0.101233 -6.61066e-17
    0.101233 -2.08557e-17
    0.101233 -3.04291e-17
    0.101233 -2.40784e-17
    0.101233 -5.95403e-17
    0.101233 -7.39814e-17
    0.101233 -4.82795e-17
   0.101233 2.46755e-17
    0.101233 -8.44502e-18
    0.101233 -1.45916e-17
    0.101233 -6.51126e-17
    0.101233 -2.82907e-17
    0.101233 -8.42369e-17
    0.101233 -2.91496e-17
    0.101233 -2.17822e-17
    0.101233 -1.67706e-17
   0.101233 5.82293e-18
  0.101233 -1.464e-17
  0.101233 5.3381e-16
    0.101233 -3.27036e-17
   0.101233 3.47645e-17
    0.101233 -5.80648e-17
    0.101233 -1.07505e-16
    0.101233 -4.58888e-17
    0.101233 -7.13807e-17
   0.101233 1.91314e-15
   0.101233 4.10063e-17
   0.101233 3.32444e-18
    0.101233 -4.40906e-17
    0.101233 -4.47421e-17
   0.101233 3.58928e-17
    0.101233 -1.14109e-17
    0.101233 -7.50999e-17
   0.101233 5.52881e-16
   0.101233 3.96092e-17
    0.101233 -8.38512e-17
    0.101233 -1.85016e-17
    0.101233 -7.49128e-17
    0.101233 -5.47745e-17
    0.101233 -8.13576e-17
    0.101233 -5.81676e-17
    0.101233 -7.57877e-17
    0.101233 -4.43335e-17
   0.101233 2.99144e-17
   0.101233 -3.0065e-17
    0.101233 -8.65353e-16
    0.101233 -1.57744e-17
    0.101233 -8.27181e-18
   0.101233 5.61507e-19
    0.101233 -3.79649e-17
   0.101233 4.30255e-17
    0.101233 -3.97087e-17
    0.101233 -3.75323e-17
   0.101233 5.10304e-18
   0.101233 -2.8214e-17
    0.101233 -1.69778e-17
   0.101233 8.19446e-15
   0.101233 -7.7902e-17
    0.101233 -5.96264e-18
    0.101233 -1.15365e-18
    0.101233 -5.55184e-18
    0.101233 -1.61543e-16
    0.101233 -2.83618e-17
   0.101233 1.25591e-17
    0.101233 -4.48196e-17
    0.101233 -2.68142e-17
    0.101233 -5.55529e-17
    0.101233 -3.40709e-17
   0.101233 1.02275e-17
    0.101233 -9.21177e-17
    0.101233 -3.07766e-18
    0.101233 -8.55621e-17
    0.101233 -3.75899e-18
    0.101233 -4.19725e-17
    0.101233 -9.04257e-17
    0.101233 -4.11883e-17
    0.101233 -8.63537e-17
   0.101233 5.02849e-16
    0.101233 -5.60153e-17
    0.101233 -8.11934e-17
   0.101233 1.47069e-17
    0.101233 -2.44938e-17
    0.101233 -2.35484e-17
    0.101233 -3.26833e-17
   0.101233 8.29287e-18
    0.101233 -9.02215e-17
   0.101233 3.45603e-17
   0.101233 1.07206e-17
    0.101233 -2.48444e-17
    0.101233 -3.37517e-17
    0.101233 -4.59464e-17
    0.101233 -5.03682e-17
  0.101233 5.0001e-17
    0.101233 -3.25062e-17
    0.101233 -8.99906e-18
    0.101233 -1.34841e-17
    0.101233 -9.03059e-18
    0.101233 -8.06603e-17
    0.101233 -5.21619e-17
   0.101233 -2.9025e-17
    0.101233 -1.51595e-14
    0.101233 -6.89018e-17
    0.101233 -7.50939e-17
    0.101233 -1.49202e-17
   0.101233 2.14707e-19
    0.101233 -2.63397e-17
    0.101233 -3.31797e-17
  0.101233 8.5268e-15
    0.101233 -4.82687e-17
   0.101233 -5.7913e-17
    0.101233 -9.97518e-18
    0.101233 -6.12025e-17
   0.101233 -3.0909e-17
    0.101233 -4.29547e-17
    0.101233 -5.54391e-17
    0.101233 -3.25765e-17
    0.101233 -2.49935e-17
   0.101233 2.92575e-18
    0.101233 -1.68111e-17
    0.101233 -2.34656e-17
   0.101233 1.96225e-19
   0.101233 6.88422e-16
    0.101233 -4.22919e-17
    0.101233 -3.61077e-17
    0.101233 -6.96356e-17
    0.101233 -3.88791e-17
    0.101233 -1.08794e-17
   0.101233 -1.8226e-17
    0.101233 -6.31224e-17
  0.101233 7.4368e-19
    0.101233 -6.45704e-17
   0.101233 -1.1894e-17
    0.101233 -6.89005e-17
    0.101233 -2.09302e-17
    0.101233 -1.07255e-17
   0.101233 -2.6297e-17
    0.101233 -3.11932e-17
    0.101233 -1.70856e-17
   0.101233 4.23476e-17
    0.101233 -1.65587e-16
   0.101233 2.11439e-18
   0.101233 3.20116e-17
    0.101233 -6.76603e-17
   0.101233 1.65779e-17
    0.101233 -1.30251e-17
   0.101233 1.41125e-16
    0.101233 -2.46298e-17
    0.101233 -4.16263e-16
    0.101233 -2.34641e-17
-6.97066  53.4683
  0.101233 3.1007e-17
   0.101233 -1.0136e-16
    0.101233 -1.97453e-17
    0.101233 -2.40807e-17
    0.101233 -1.04582e-16
    0.101233 -5.91093e-17
    0.101233 -8.51681e-17
    0.101233 -2.43461e-18
    0.101233 -3.54695e-17
    0.101233 -2.65647e-17
    0.101233 -4.89089e-17
    0.101233 -1.63864e-17
    0.101233 -3.98559e-17
   0.101233 -8.6346e-17
    0.101233 -4.87857e-17
   0.101233 -3.4587e-18
   0.101233 -8.6841e-17
    0.101233 -4.59361e-17
    0.101233 -3.00345e-17
    0.101233 -7.19077e-17
   0.101233 1.57611e-17
    0.101233 -5.12905e-17
    0.101233 -2.21135e-17
    0.101233 -2.93094e-17
    0.101233 -7.70665e-17
    0.101233 -5.13735e-17
    0.101233 -4.10287e-17
    0.101233 -2.03523e-17
    0.101233 -2.89964e-17
    0.101233 -2.41972e-17
   0.101233 1.54074e-17
   0.101233 1.84942e-17
   0.101233 3.49966e-17
  0.101233 -6.612e-17
    0.101233 -5.16002e-17
   0.101233 1.61437e-17
   0.101233 1.46559e-17
    0.101233 -8.20548e-17
    0.101233 -5.97773e-17
    0.101233 -6.30224e-17
   0.101233 3.92875e-16
    0.101233 -1.95642e-17
    0.101233 -1.01474e-17
    0.101233 -4.38342e-17
    0.101233 -3.08852e-17
    0.101233 -4.01529e-17
   0.101233 -3.8104e-17
   0.101233 2.41681e-17
    0.101233 -9.00971e-17
    0.101233 -3.92616e-18
    0.101233 -4.78317e-17
    0.101233 -4.70436e-17
    0.101233 -7.24497e-17
    0.101233 -4.59817e-17
    0.101233 -5.65962e-17
    0.101233 -4.37451e-17
    0.101233 -5.80184e-17
    0.101233 -3.41411e-17
   0.101233 1.48069e-17
   0.101233 -4.7479e-17
    0.101233 -5.81342e-17
    0.101233 -3.84902e-17
    0.101233 -3.20571e-17
    0.101233 -8.20605e-17
   0.101233 -1.3266e-17
    0.101233 -5.11196e-17
    0.101233 -5.91011e-18
    0.101233 -1.36372e-17
    0.101233 -8.73368e-16
    0.101233 -6.20473e-18
    0.101233 -5.44803e-17
    0.101233 -6.56728e-17
    0.101233 -3.38109e-18
    0.101233 -8.37587e-17
    0.101233 -3.11835e-16
   0.101233 -5.8259e-17
    0.101233 -1.70387e-17
    0.101233 -2.17691e-18
   0.101233 -3.3376e-17
    0.101233 -2.59555e-17
    0.101233 -7.01272e-17
    0.101233 -4.44112e-17
    0.101233 -1.12192e-17
   0.101233 2.68169e-18
    0.101233 -7.78354e-18
    0.101233 -1.30775e-17
    0.101233 -6.59271e-17
   0.101233 1.81918e-16
    0.101233 -2.79122e-17
    0.101233 -9.05383e-16
    0.101233 -7.58435e-17
    0.101233 -1.26004e-17
    0.101233 -5.55277e-17
    0.101233 -9.85394e-18
    0.101233 -5.07026e-18
   0.101233 1.82233e-17
    0.101233 -5.67983e-17
    0.101233 -2.99973e-17
    0.101233 -4.80599e-17
    0.101233 -8.25715e-17
    0.101233 -3.63405e-18
    0.101233 -6.51799e-17
   0.101233 6.65648e-18
   0.101233 1.39764e-14
    0.101233 -1.26535e-16
    0.101233 -2.86859e-17
    0.101233 -4.83066e-17
   0.101233 -9.1029e-18
    0.101233 -7.01386e-17
   0.101233 -3.8048e-17
    0.101233 -9.79875e-17
    0.101233 -3.47889e-17
    0.101233 -5.72492e-17
-8.75214  59.2313
    0.101233 -4.98145e-17
   0.101233 1.33493e-14
    0.101233 -2.30983e-17
    0.101233 -1.43631e-16
   0.101233 -3.0785e-17
    0.101233 -4.05056e-17
    0.101233 -6.92714e-17
    0.101233 -3.46562e-17
    0.101233 -2.67382e-17
    0.101233 -7.00021e-16
    0.101233 -5.56154e-17
    0.101233 -6.41813e-17
   0.101233 1.10485e-15
    0.101233 -1.83914e-18
    0.101233 -3.11778e-17
    0.101233 -6.55058e-17
    0.101233 -1.10225e-16
    0.101233 -7.52146e-17
    0.101233 -8.23559e-17
    0.101233 -1.55919e-18
   0.101233 6.48276e-17
   0.101233 8.40695e-18
   0.101233 -2.1348e-17
    0.101233 -5.58417e-17
   0.101233 1.24079e-16
    0.101233 -3.89123e-17
   0.101233 4.50812e-16
    0.101233 -3.94221e-18
    0.101233 -9.17873e-17
    0.101233 -1.81798e-17
   0.101233 6.56727e-17
   0.101233 1.50194e-18
   0.101233 3.27589e-16
    0.101233 -4.56205e-17
    0.101233 -7.30495e-17
    0.101233 -1.83356e-17
    0.101233 -1.91678e-18
    0.101233 -7.83238e-17
    0.101233 -2.83673e-19
    0.101233 -5.72594e-18
    0.101233 -6.80019e-17
    0.101233 -4.03337e-17
    0.101233 -7.04765e-17
  0.101233 -3.641e-17
    0.101233 -6.07809e-17
    0.101233 -5.15468e-17
    0.101233 -9.77074e-17
    0.101233 -2.78996e-15
   0.101233 5.92211e-18
   0.101233 1.22796e-15
   0.101233 -8.1269e-17
    0.101233 -2.71409e-17
   0.101233 1.69568e-17
   0.101233 6.19025e-17
    0.101233 -2.62936e-17
    0.101233 -5.01874e-17
    0.101233 -4.82473e-17
    0.101233 -4.56043e-17
   0.101233 2.51965e-17
   0.101233 1.72724e-16
   0.101233 1.69895e-16
   0.101233 -8.8102e-18
    0.101233 -8.99577e-17
    0.101233 -3.76241e-17
   0.101233 5.10658e-17
    0.101233 -4.32001e-17
    0.101233 -5.44157e-17
    0.101233 -8.28322e-17
    0.101233 -5.35741e-17
    0.101233 -3.16035e-17
    0.101233 -2.34975e-17
