0.101233
-6.84277e-17
0.101233
-7.078e-17
0.101233
-4.74328e-17
0.101233
-5.08269e-17
0.101233
-1.49716e-16
0.101233
-1.73838e-17
0.101233
-1.58621e-16
0.101233
-5.32504e-17
0.101233
-5.47921e-17
0.101233
-5.17603e-17
0.101233
-4.32437e-17
0.101233
-3.90466e-17
0.101233
-8.14445e-17
0.101233
-8.3096e-18
0.101233
-5.93075e-17
0.101233
-4.36416e-17
0.101233
-6.00823e-17
0.101233
-1.0649e-17
0.101233
-1.22447e-17
0.101233
-3.86609e-17
0.101233
-3.77432e-17
0.101233
3.97504e-17
0.101233
-3.2846e-17
0.101233
-6.94727e-17
0.101233
-8.0864e-17
0.101233
-4.3396e-17
0.101233
-5.38583e-17
0.101233
-8.28895e-17
0.101233
-2.3635e-17
0.101233
-4.97443e-17
0.101233
-1.74718e-17
0.101233
-7.43345e-17
0.101233
-5.75711e-17
0.101233
-3.37744e-16
0.101233
-2.62796e-17
0.101233
-6.80442e-18
0.101233
-6.91697e-17
0.101233
-3.76415e-17
0.101233
-1.22021e-16
100.835
1814.73
0.101233
-6.4912e-17
0.101233
-4.07749e-17
0.101233
-5.78739e-17
0.101233
-5.71964e-17
0.101233
-4.87963e-17
0.101233
-1.61663e-17
0.101233
-7.15483e-17
0.101233
-3.40801e-17
0.101233
-3.86605e-17
0.101233
-2.86631e-17
0.101233
-3.55806e-16
0.101233
-7.82725e-17
0.101233
-4.93285e-17
0.101233
-4.85549e-17
0.101233
-7.88976e-17
-12.8683
467.854
0.101233
-3.55183e-16
0.101233
-8.82583e-17
0.101233
-5.13165e-17
0.101233
-4.31572e-17
0.101233
-2.23409e-17
0.101233
-1.2689e-16
0.101233
-4.65879e-17
0.101233
-3.84566e-17
0.101233
-3.16224e-16
0.101233
-8.10007e-17
0.101233
-6.9733e-17
0.101233
-2.73544e-17
0.101233
-7.94523e-17
0.101233
-5.86999e-17
0.101233
-7.74208e-17
0.101233
-5.03065e-17
0.101233
-6.60672e-17
0.101233
-4.94306e-17
0.101233
-3.70774e-17
0.101233
-7.07906e-17
0.101233
-5.22294e-17
0.101233
-6.89821e-17
0.101233
-2.69455e-16
0.101233
-5.14644e-17
0.101233
-7.45678e-17
0.101233
-4.38315e-17
0.101233
-4.74961e-17
0.101233
-1.85309e-17
0.101233
-5.15576e-17
0.101233
-6.79741e-17
0.101233
-5.1426e-17
0.101233
-4.45596e-17
0.101233
-5.15467e-17
0.101233
-6.67015e-17
0.101233
-1.05503e-16
0.101233
-7.24301e-17
0.101233
-4.86871e-17
0.101233
-4.91092e-17
0.101233
-1.19882e-17
0.101233
-5.53479e-17
0.101233
-3.34657e-17
0.101233
-1.89194e-17
0.101233
-1.99884e-17
0.101233
1.36601e-17
0.101233
1.84804e-18
0.101233
-9.07837e-17
0.101233
-6.60271e-17
0.101233
-4.68213e-17
0.101233
-1.3365e-17
0.101233
-2.12855e-16
0.101233
-2.10521e-16
0.101233
-5.72202e-17
0.101233
-2.76213e-16
0.101233
-7.21994e-17
0.101233
-8.23095e-17
0.101233
-3.97031e-17
0.101233
-5.53827e-17
0.101233
-5.32527e-17
0.101233
-4.73901e-17
0.101233
-5.34684e-17
0.101233
-7.66519e-17
0.101233
-1.15652e-16
0.101233
-4.5018e-17
0.101233
-4.51867e-17
0.101233
-5.48387e-17
0.101233
-3.13898e-17
0.101233
-5.58723e-17
0.101233
-6.79222e-17
0.101233
-5.96372e-17
0.101233
-4.68792e-17
0.101233
-4.93665e-17
0.101233
-7.296e-17
0.101233
-3.6259e-17
0.101233
-3.44504e-16
0.101233
-5.55669e-17
0.101233
-3.33555e-17
0.101233
-4.13528e-16
0.101233
-6.04576e-17
0.101233
-7.5446e-17
0.101233
-5.51709e-17
0.101233
-6.11837e-17
0.101233
-5.24414e-17
0.101233
-3.48013e-17
0.101233
-9.67647e-18
0.101233
-5.53518e-17
0.101233
-8.43181e-17
0.101233
-4.53171e-17
0.101233
-6.7023e-17
0.101233
-5.39019e-17
0.101233
-8.29316e-17
0.101233
-5.98431e-17
0.101233
-7.50032e-17
0.101233
-3.93696e-17
0.101233
-8.012e-17
0.101233
-7.94451e-17
0.101233
-3.56704e-17
0.101233
-1.11947e-16
0.101233
-6.35123e-17
0.101233
-1.06348e-16
0.101233
-5.40786e-17
0.101233
-3.05272e-17
0.101233
-3.56599e-17
0.101233
-1.24961e-18
0.101233
-7.91053e-17
0.101233
-6.85967e-17
0.101233
-1.12606e-17
0.101233
-7.11366e-17
0.101233
-2.96973e-16
0.101233
-5.36268e-17
0.101233
-7.77537e-17
0.101233
-4.7706e-17
0.101233
-5.85448e-17
0.101233
-5.56154e-17
0.101233
-7.728e-17
0.101233
-7.00923e-17
0.101233
-4.47852e-17
0.101233
-5.77229e-17
0.101233
-5.28822e-17
0.101233
-3.07746e-16
