0.101233
-1.49525e-17
0.101233
-4.9892e-17
0.101233
-3.79627e-17
0.101233
-1.40929e-17
0.101233
-5.58461e-17
0.101233
-1.1511e-17
0.101233
-4.20451e-17
0.101233
-1.87078e-17
0.101233
-2.97513e-17
0.101233
-4.62548e-17
0.101233
-1.60217e-17
0.101233
-7.15555e-17
0.101233
-2.06783e-17
0.101233
-6.84277e-17
0.101233
-5.34774e-17
0.101233
-7.078e-17
0.101233
-1.8167e-17
0.101233
7.27184e-18
0.101233
-6.25133e-17
0.101233
1.38664e-16
0.101233
-3.42038e-17
0.101233
-3.26893e-17
0.101233
-8.26911e-18
0.101233
-5.43842e-17
0.101233
-1.00161e-16
0.101233
-5.08269e-17
0.101233
-3.39993e-17
0.101233
-4.51899e-17
0.101233
-1.42224e-17
0.101233
1.30887e-17
0.101233
2.21489e-17
0.101233
-6.26225e-17
0.101233
-3.19931e-17
0.101233
7.25854e-18
0.101233
-3.70916e-17
0.101233
-4.44888e-17
0.101233
-2.78015e-17
0.101233
-3.74641e-17
0.101233
-3.71646e-18
0.101233
-6.75172e-17
0.101233
1.23773e-17
0.101233
-1.5741e-17
0.101233
-2.6204e-17
0.101233
6.43037e-17
0.101233
-5.79963e-17
0.101233
-5.87084e-17
0.101233
-5.32504e-17
0.101233
-5.87078e-17
0.101233
-1.59913e-17
0.101233
-5.81834e-17
0.101233
-2.85392e-16
0.101233
-1.25767e-17
0.101233
-5.09818e-17
0.101233
-2.80568e-17
0.101233
-4.07876e-17
0.101233
-3.01521e-17
0.101233
-1.17826e-17
0.101233
-2.47009e-17
0.101233
-4.94235e-18
0.101233
-1.06582e-16
0.101233
-3.52208e-17
0.101233
-1.61972e-17
0.101233
-5.75031e-17
0.101233
-1.53016e-17
0.101233
-1.78388e-17
0.101233
-4.62179e-17
0.101233
-1.89865e-17
0.101233
-5.65778e-17
0.101233
-7.06008e-18
0.101233
-2.49995e-17
0.101233
-2.21685e-17
0.101233
-4.43637e-18
0.101233
1.03745e-17
0.101233
-1.19006e-17
0.101233
-3.37384e-17
0.101233
-5.47921e-17
0.101233
-6.39465e-17
0.101233
-5.17603e-17
0.101233
-3.9528e-17
0.101233
-4.32437e-17
0.101233
-2.88693e-17
0.101233
-2.76334e-17
0.101233
-8.92429e-17
0.101233
-3.90466e-17
0.101233
-7.32638e-17
0.101233
-6.14733e-17
0.101233
-8.14445e-17
0.101233
-3.82871e-17
0.101233
-7.28983e-17
0.101233
-4.88526e-17
0.101233
-5.32621e-17
0.101233
-4.39229e-17
0.101233
1.19062e-17
0.101233
-8.3096e-18
0.101233
-1.06223e-16
0.101233
-2.02299e-17
0.101233
-5.80586e-17
0.101233
-4.74654e-17
0.101233
-1.48951e-17
0.101233
-7.46442e-18
0.101233
-5.74898e-17
0.101233
-7.75708e-18
0.101233
-6.3199e-17
0.101233
-3.3516e-17
0.101233
-3.70183e-17
0.101233
-6.84304e-17
0.101233
-1.39993e-18
0.101233
-2.13711e-18
0.101233
-8.2162e-17
0.101233
-9.27138e-17
0.101233
6.802e-17
0.101233
-1.20943e-17
0.101233
-2.99603e-17
0.101233
-9.53516e-18
0.101233
1.37622e-17
0.101233
-9.23667e-17
0.101233
1.28069e-17
0.101233
9.21784e-18
0.101233
-4.36416e-17
0.101233
-6.00823e-17
0.101233
-4.44127e-17
0.101233
-1.0649e-17
0.101233
-6.82178e-18
0.101233
-4.40615e-17
0.101233
-7.51933e-18
0.101233
-1.97802e-17
0.101233
-1.62585e-17
0.101233
-5.37294e-17
0.101233
-2.48805e-17
0.101233
-3.56416e-17
0.101233
1.31087e-17
0.101233
-1.22447e-17
0.101233
-1.48539e-17
0.101233
-5.55971e-17
0.101233
-3.86609e-17
0.101233
3.04151e-17
0.101233
-4.09149e-17
0.101233
-3.89459e-18
0.101233
-2.17531e-17
0.101233
-2.62231e-17
0.101233
-3.22212e-17
0.101233
-2.21302e-18
0.101233
2.60276e-17
0.101233
-3.05354e-17
0.101233
-7.34441e-17
0.101233
-3.77432e-17
0.101233
-3.20958e-17
0.101233
-4.23929e-17
0.101233
-1.09127e-17
0.101233
-7.2764e-17
0.101233
-6.01484e-17
0.101233
-1.41714e-15
0.101233
8.93951e-18
0.101233
3.29827e-18
0.101233
-4.4124e-17
0.101233
1.69913e-16
0.101233
-3.2846e-17
0.101233
-5.24775e-17
0.101233
-7.93142e-17
0.101233
-1.07037e-17
0.101233
-6.64342e-18
0.101233
-4.15736e-17
0.101233
-6.93193e-17
0.101233
-4.52624e-17
0.101233
-6.94727e-17
0.101233
-8.27613e-18
0.101233
-3.69877e-17
0.101233
-8.0864e-17
0.101233
-4.78698e-17
0.101233
1.73258e-17
0.101233
-4.3396e-17
0.101233
-5.43583e-17
0.101233
-6.21258e-17
0.101233
2.93492e-18
0.101233
-4.70191e-17
0.101233
-8.99469e-18
0.101233
1.06466e-15
0.101233
-2.31161e-17
0.101233
-9.968e-17
0.101233
-3.73129e-17
0.101233
1.31072e-17
0.101233
-1.43597e-17
0.101233
-3.80131e-18
0.101233
-2.3635e-17
0.101233
-1.20034e-17
0.101233
-6.18076e-17
0.101233
1.00618e-17
0.101233
-1.03244e-16
0.101233
-4.69919e-17
0.101233
-1.74718e-17
0.101233
-4.18296e-17
0.101233
-4.57961e-17
0.101233
-2.81652e-17
0.101233
-2.41635e-17
0.101233
-2.46272e-17
0.101233
-7.43345e-17
0.101233
-4.02387e-17
0.101233
-6.56368e-17
0.101233
-6.61793e-17
0.101233
-7.30513e-17
0.101233
-5.21777e-17
0.101233
-5.77716e-17
0.101233
-3.89315e-17
0.101233
-3.2224e-17
0.101233
-6.24398e-17
0.101233
-8.23348e-17
0.101233
-1.91263e-17
0.101233
-6.02556e-17
0.101233
-2.53492e-17
0.101233
-4.14169e-17
0.101233
1.23445e-17
0.101233
-6.82179e-17
0.101233
-6.71065e-17
0.101233
1.23606e-17
0.101233
2.67881e-17
0.101233
-2.35481e-17
0.101233
-2.85677e-18
0.101233
1.36397e-17
0.101233
-3.40104e-17
0.101233
-2.62796e-17
0.101233
1.66059e-17
0.101233
-2.68283e-17
0.101233
-2.69724e-17
0.101233
-1.08579e-17
0.101233
-5.93782e-17
0.101233
-3.14876e-17
0.101233
-1.98367e-17
0.101233
-6.39364e-17
0.101233
-9.96953e-17
0.101233
-6.80442e-18
0.101233
1.46044e-17
0.101233
-5.50116e-17
0.101233
-1.5712e-17
0.101233
1.17009e-18
0.101233
9.51551e-18
0.101233
-6.68526e-19
0.101233
2.51906e-18
0.101233
6.63009e-18
0.101233
-9.15604e-17
0.101233
-6.91697e-17
0.101233
-1.06015e-16
0.101233
3.60112e-17
0.101233
2.27711e-17
0.101233
-6.9136e-17
0.101233
-6.07564e-17
0.101233
-6.53058e-17
0.101233
4.15509e-17
0.101233
-3.65584e-17
0.101233
-1.89605e-17
0.101233
3.74067e-18
0.101233
-1.97989e-17
0.101233
8.83583e-18
0.101233
-1.00753e-16
0.101233
-3.76415e-17
0.101233
1.68927e-17
0.101233
3.10031e-18
0.101233
-8.1181e-17
0.101233
-2.4308e-17
0.101233
-1.55955e-17
0.101233
-3.68108e-17
0.101233
-2.69426e-17
0.101233
-2.70985e-17
0.101233
-4.43551e-17
0.101233
-1.53573e-17
100.835
1814.73
0.101233
-6.4912e-17
0.101233
-3.09789e-17
0.101233
-5.18942e-18
0.101233
-5.54364e-17
0.101233
2.36491e-18
0.101233
4.8933e-17
0.101233
-7.37567e-17
0.101233
3.25304e-17
0.101233
-9.97573e-17
0.101233
-1.39566e-18
0.101233
2.27394e-18
0.101233
-8.46482e-17
0.101233
-7.34331e-17
0.101233
-8.97857e-17
0.101233
-6.15782e-17
0.101233
-7.50546e-18
0.101233
-2.66721e-17
0.101233
2.83456e-17
0.101233
-4.59588e-17
0.101233
-4.07749e-17
0.101233
-2.96678e-17
0.101233
-1.23866e-17
0.101233
-1.08651e-17
0.101233
-3.77164e-17
0.101233
-6.10855e-17
0.101233
3.3978e-17
0.101233
-3.38697e-18
0.101233
-5.78739e-17
0.101233
-3.93689e-16
0.101233
-4.83672e-17
0.101233
2.11303e-17
0.101233
-3.40109e-17
0.101233
-7.56429e-17
0.101233
-7.79649e-17
0.101233
-5.24166e-17
0.101233
-5.93328e-17
0.101233
-5.71964e-17
0.101233
-9.04909e-17
0.101233
-4.96158e-17
0.101233
-5.13906e-17
0.101233
-4.87963e-17
0.101233
1.77093e-17
0.101233
8.62429e-18
0.101233
-6.49898e-17
0.101233
-1.61663e-17
0.101233
5.15553e-18
0.101233
-8.75056e-18
0.101233
-7.39438e-17
0.101233
-2.80281e-17
0.101233
-7.51857e-18
0.101233
-5.53912e-17
0.101233
-5.46236e-18
0.101233
-8.66012e-18
0.101233
-4.09422e-17
0.101233
-3.69437e-17
0.101233
5.98563e-17
0.101233
-4.77618e-17
0.101233
-4.40103e-17
0.101233
-2.27985e-17
0.101233
-3.40801e-17
0.101233
-1.52303e-16
0.101233
-4.61145e-17
0.101233
-3.77546e-17
0.101233
-7.9975e-17
0.101233
-6.78435e-17
0.101233
-4.20118e-17
0.101233
-6.41811e-17
0.101233
-3.86605e-17
0.101233
-2.86631e-17
0.101233
-1.13435e-16
0.101233
-3.82273e-17
0.101233
-8.59888e-17
0.101233
-3.54822e-17
0.101233
-7.82725e-17
0.101233
-4.93285e-17
0.101233
-5.74584e-18
0.101233
-2.03287e-17
0.101233
-4.01652e-17
0.101233
-8.09895e-18
0.101233
3.20101e-17
0.101233
-2.33492e-17
0.101233
1.10402e-17
0.101233
1.21097e-17
0.101233
7.71685e-18
0.101233
-5.00487e-17
0.101233
-4.29522e-17
0.101233
-3.63962e-17
0.101233
-6.5493e-17
0.101233
-8.74473e-17
0.101233
7.55566e-18
0.101233
-4.16419e-17
0.101233
5.23844e-17
0.101233
3.95409e-18
0.101233
4.57579e-18
0.101233
-2.10394e-17
0.101233
-2.80042e-17
0.101233
-7.88976e-17
0.101233
-3.09342e-17
0.101233
1.1215e-17
-12.8683
467.854
0.101233
-2.45952e-17
0.101233
-7.02732e-17
0.101233
-5.75236e-18
0.101233
-2.9314e-17
0.101233
-4.12989e-18
0.101233
-4.4885e-17
0.101233
-7.91508e-17
0.101233
-8.82583e-17
0.101233
-6.55697e-17
0.101233
-5.28717e-17
0.101233
-3.40148e-17
0.101233
-3.7576e-17
0.101233
1.6455e-17
0.101233
-8.62095e-17
0.101233
1.05503e-17
0.101233
-3.57788e-17
0.101233
-3.24589e-18
0.101233
8.91833e-18
0.101233
-6.53677e-17
0.101233
-7.38012e-17
0.101233
-2.4303e-17
0.101233
-3.70573e-17
0.101233
-5.02273e-17
0.101233
-5.3639e-18
0.101233
-6.71469e-17
0.101233
-5.78247e-17
0.101233
-7.00094e-17
0.101233
-6.23361e-17
0.101233
-9.16404e-18
0.101233
-2.25799e-17
0.101233
5.26769e-17
0.101233
-3.41722e-17
0.101233
-5.13165e-17
0.101233
-1.48715e-17
0.101233
-4.9656e-17
0.101233
-4.89797e-17
0.101233
-1.1406e-17
0.101233
-9.98917e-17
0.101233
-5.25841e-17
0.101233
-3.87865e-17
0.101233
-6.48542e-17
0.101233
-3.45366e-17
0.101233
-2.70963e-17
0.101233
-7.21027e-17
0.101233
-7.60362e-18
0.101233
-2.94002e-17
0.101233
-4.07159e-17
0.101233
-1.95391e-17
0.101233
1.48378e-17
0.101233
-6.30172e-17
0.101233
-7.10388e-17
0.101233
-2.54486e-17
0.101233
-8.1548e-18
0.101233
-6.75991e-17
0.101233
-1.50531e-17
0.101233
-1.82875e-17
0.101233
-5.27327e-17
0.101233
1.24246e-17
0.101233
-3.68594e-17
0.101233
-5.02107e-17
0.101233
-4.95989e-17
0.101233
1.94695e-17
0.101233
-4.65879e-17
0.101233
4.00183e-18
0.101233
3.43801e-16
0.101233
-3.20366e-17
0.101233
2.37904e-17
0.101233
-8.18773e-17
0.101233
-1.068e-17
0.101233
-3.16713e-17
0.101233
-6.76718e-17
0.101233
-3.83047e-17
0.101233
6.3041e-17
0.101233
-8.10007e-17
0.101233
-1.0027e-16
0.101233
-7.12288e-17
0.101233
1.27448e-17
0.101233
1.34726e-16
0.101233
-2.46462e-17
0.101233
3.37195e-18
0.101233
-8.18597e-18
0.101233
-4.35108e-17
0.101233
-9.56365e-18
0.101233
-4.01385e-17
0.101233
-5.30059e-17
0.101233
3.84777e-17
0.101233
-2.96029e-17
0.101233
-4.07451e-17
0.101233
-4.67849e-17
0.101233
-2.16536e-16
0.101233
-7.76506e-17
0.101233
-5.5825e-17
0.101233
-1.54553e-16
0.101233
-7.47599e-17
0.101233
-6.9733e-17
0.101233
-2.73544e-17
0.101233
-4.357e-17
0.101233
-6.66824e-17
0.101233
1.25428e-17
0.101233
4.23203e-17
0.101233
9.66884e-18
0.101233
-8.60606e-18
0.101233
-4.59821e-17
0.101233
-3.32823e-17
0.101233
-3.48333e-17
0.101233
-8.76806e-17
0.101233
-6.15489e-17
0.101233
-8.5335e-18
0.101233
-7.94523e-17
0.101233
-5.86999e-17
0.101233
2.66503e-18
0.101233
-4.38222e-17
0.101233
-7.74208e-17
0.101233
-5.03696e-17
0.101233
-6.29543e-17
0.101233
-5.80384e-17
0.101233
-7.83175e-17
0.101233
1.16288e-17
0.101233
-5.03065e-17
0.101233
-6.60672e-17
0.101233
-7.73906e-17
0.101233
-2.46543e-18
0.101233
-3.70774e-17
0.101233
-3.95713e-17
0.101233
-7.07906e-17
0.101233
-7.14449e-17
0.101233
-1.56619e-17
0.101233
-7.51956e-18
0.101233
-4.56594e-17
0.101233
-1.90624e-17
0.101233
-4.58213e-17
0.101233
-1.49418e-17
0.101233
9.31237e-18
0.101233
-2.96577e-18
0.101233
-7.95044e-17
0.101233
-3.57806e-17
0.101233
-5.84745e-17
0.101233
-5.22294e-17
0.101233
-4.14091e-17
0.101233
5.788e-18
0.101233
4.17187e-16
0.101233
-3.4971e-17
0.101233
-1.48038e-17
0.101233
-4.36451e-17
0.101233
-3.53458e-17
0.101233
-2.28629e-17
0.101233
-3.29767e-17
0.101233
5.39059e-16
0.101233
-2.61945e-17
0.101233
-9.47811e-17
0.101233
-1.03787e-16
0.101233
-7.45678e-17
0.101233
-2.00291e-17
0.101233
-6.86831e-17
0.101233
3.35081e-17
0.101233
-5.45056e-17
0.101233
-7.90426e-17
0.101233
-1.10604e-16
0.101233
-1.01294e-16
0.101233
-5.96506e-17
0.101233
-9.66291e-17
0.101233
-5.09398e-17
0.101233
-4.74961e-17
0.101233
-5.03812e-18
0.101233
1.53102e-17
0.101233
-4.3686e-17
0.101233
-3.14928e-17
0.101233
-8.93389e-18
0.101233
-1.85309e-17
0.101233
-1.52906e-17
0.101233
5.87213e-21
0.101233
-4.90165e-17
0.101233
-4.57619e-18
0.101233
2.81118e-17
0.101233
-3.07631e-17
0.101233
-6.91383e-17
0.101233
-1.48711e-18
0.101233
-4.98639e-17
0.101233
-3.8636e-17
0.101233
-2.83414e-17
0.101233
-7.22995e-17
0.101233
-3.96101e-17
0.101233
-6.99978e-18
0.101233
-7.37215e-18
0.101233
-2.96372e-17
0.101233
-5.32267e-17
0.101233
-4.74574e-17
0.101233
-1.08838e-17
0.101233
-5.43209e-17
0.101233
-5.14205e-17
0.101233
-3.44583e-17
0.101233
-3.91066e-17
0.101233
-4.14182e-17
0.101233
-1.07239e-17
0.101233
-3.69373e-17
0.101233
4.7125e-18
0.101233
-3.03582e-19
0.101233
-1.61268e-17
0.101233
-6.59763e-18
0.101233
-6.67015e-17
0.101233
1.68183e-18
0.101233
2.27086e-17
0.101233
-7.28009e-17
0.101233
-3.98652e-17
0.101233
-4.2607e-17
0.101233
-2.60805e-17
0.101233
-4.52572e-17
0.101233
-6.33676e-18
0.101233
-3.16113e-17
0.101233
1.62171e-17
0.101233
-6.1281e-17
0.101233
-6.27605e-17
0.101233
-6.35029e-17
0.101233
-6.12502e-17
0.101233
-3.70478e-17
0.101233
9.93731e-18
0.101233
-8.46044e-17
0.101233
-2.88595e-17
0.101233
4.33849e-17
0.101233
-4.72135e-17
0.101233
-7.24301e-17
0.101233
-1.11315e-17
0.101233
-1.01645e-16
0.101233
-4.34001e-17
0.101233
-3.40706e-17
0.101233
-4.91092e-17
0.101233
-9.58809e-17
0.101233
-2.77132e-17
0.101233
2.17982e-17
0.101233
-5.02476e-17
0.101233
-3.15319e-17
0.101233
1.75481e-17
0.101233
-1.47767e-16
0.101233
-3.86081e-18
0.101233
-8.50217e-17
0.101233
-2.28558e-19
0.101233
3.22952e-17
0.101233
-4.13451e-17
0.101233
-1.11733e-16
0.101233
1.40404e-18
0.101233
-4.20194e-17
0.101233
-1.28176e-17
-3.62529
45.9441
0.101233
-9.64376e-18
0.101233
-3.00931e-19
0.101233
-3.34657e-17
0.101233
-5.20307e-17
0.101233
9.25467e-18
0.101233
-5.9452e-17
0.101233
-1.05687e-16
0.101233
-1.99884e-17
0.101233
1.83936e-17
0.101233
-6.37689e-17
0.101233
-3.46947e-17
0.101233
-6.98619e-17
0.101233
3.04262e-16
0.101233
-8.3955e-17
0.101233
-2.50129e-17
0.101233
1.84804e-18
0.101233
2.9584e-18
0.101233
-2.58671e-17
0.101233
-2.94209e-17
0.101233
9.5329e-18
0.101233
-1.12102e-16
0.101233
-6.82977e-17
0.101233
-9.27033e-18
0.101233
3.99436e-18
0.101233
-2.72825e-17
0.101233
-3.35086e-17
0.101233
-9.04451e-17
0.101233
-9.07837e-17
0.101233
-2.61986e-17
0.101233
-2.07729e-17
0.101233
7.54207e-18
0.101233
-4.92345e-17
0.101233
-7.49227e-17
0.101233
-7.93219e-17
0.101233
4.98486e-18
0.101233
-6.60271e-17
0.101233
-3.70127e-17
0.101233
-2.79625e-16
0.101233
-4.39296e-17
0.101233
-6.81159e-17
0.101233
-7.28488e-17
0.101233
-5.81535e-17
0.101233
-2.57923e-17
0.101233
-2.48386e-19
0.101233
-4.44959e-17
0.101233
-1.01413e-16
0.101233
-9.5458e-17
0.101233
-1.8685e-17
0.101233
1.60652e-17
0.101233
-4.68213e-17
0.101233
-7.07221e-17
0.101233
-1.07571e-17
0.101233
-1.10929e-17
0.101233
-6.28249e-18
0.101233
-5.8814e-18
0.101233
-3.2089e-17
0.101233
-4.70397e-17
0.101233
-3.50071e-17
0.101233
-4.61956e-17
0.101233
-1.3365e-17
0.101233
-1.49999e-17
0.101233
-2.76734e-18
0.101233
-8.72308e-18
0.101233
-6.23038e-17
0.101233
1.28804e-17
0.101233
-1.18474e-16
0.101233
-1.04254e-16
0.101233
-3.4775e-17
0.101233
-4.27042e-17
0.101233
-6.84562e-17
0.101233
4.74738e-17
0.101233
-3.47028e-17
0.101233
4.95669e-19
0.101233
8.11395e-18
0.101233
-5.74812e-18
0.101233
-5.45101e-17
0.101233
-2.86346e-17
0.101233
-3.59594e-17
0.101233
-1.11805e-17
0.101233
-8.7052e-17
0.101233
-8.04295e-17
0.101233
-5.61256e-17
0.101233
-3.18078e-17
0.101233
-2.00331e-17
0.101233
-9.04688e-17
0.101233
-2.89474e-17
0.101233
-5.72202e-17
0.101233
-1.30809e-17
0.101233
-2.58657e-17
0.101233
2.42811e-17
0.101233
-1.71981e-17
0.101233
-3.49034e-17
0.101233
-1.54838e-16
0.101233
-2.28061e-17
0.101233
-3.36881e-17
0.101233
-7.21994e-17
0.101233
-5.27368e-17
0.101233
-8.23095e-17
0.101233
-1.42944e-15
0.101233
-3.97031e-17
0.101233
7.40652e-19
0.101233
-5.53827e-17
0.101233
1.22268e-16
0.101233
-4.75508e-17
0.101233
-2.73145e-17
0.101233
-4.59078e-17
0.101233
-8.36652e-17
0.101233
3.68574e-17
0.101233
-5.20149e-17
0.101233
-3.5993e-17
0.101233
1.72865e-17
0.101233
-7.72464e-17
0.101233
-8.6174e-17
0.101233
-2.90307e-17
0.101233
-2.1913e-17
0.101233
3.73421e-18
0.101233
-6.91123e-17
0.101233
-1.00948e-16
0.101233
-3.21981e-17
0.101233
-4.71745e-17
0.101233
-2.41969e-17
0.101233
-1.3618e-16
0.101233
-1.58981e-17
0.101233
-3.63287e-17
0.101233
3.46549e-18
0.101233
9.19335e-20
0.101233
3.14528e-18
0.101233
-5.19257e-17
0.101233
1.57768e-18
0.101233
-8.87299e-17
0.101233
-5.32527e-17
0.101233
-4.00453e-17
0.101233
-4.73901e-17
0.101233
-9.50371e-17
0.101233
-7.66519e-17
0.101233
6.99054e-18
0.101233
-8.46836e-17
0.101233
-5.85199e-17
0.101233
-4.31968e-17
0.101233
-1.60289e-17
0.101233
-6.46597e-17
0.101233
-1.51088e-17
0.101233
4.50631e-18
0.101233
-1.58867e-17
0.101233
1.46143e-17
0.101233
-3.43033e-17
0.101233
-9.41701e-17
0.101233
-4.70863e-17
0.101233
-3.192e-19
0.101233
-6.55026e-17
0.101233
-4.33586e-17
0.101233
-1.34141e-17
0.101233
6.03474e-18
0.101233
-1.87281e-17
0.101233
-1.65561e-17
0.101233
-6.45381e-17
0.101233
-2.26619e-17
0.101233
-4.43492e-18
0.101233
-7.72532e-17
0.101233
-4.51867e-17
0.101233
-1.34751e-16
0.101233
-3.13898e-17
0.101233
-5.32874e-17
0.101233
-6.98582e-17
0.101233
-5.01944e-17
0.101233
-2.30738e-17
0.101233
-6.83816e-17
0.101233
-7.42336e-17
0.101233
8.82583e-16
0.101233
-1.06917e-16
0.101233
-1.24872e-16
0.101233
-8.65699e-17
0.101233
-6.2758e-17
0.101233
-3.40811e-17
0.101233
-9.31728e-17
0.101233
-3.88375e-17
0.101233
-7.25066e-17
0.101233
-7.93603e-17
0.101233
-3.78783e-16
0.101233
-9.30549e-17
0.101233
4.04e-18
0.101233
-6.13914e-17
0.101233
-1.57451e-17
0.101233
-1.07533e-16
0.101233
8.52773e-18
0.101233
-9.23391e-17
0.101233
-4.43583e-17
0.101233
-2.99379e-17
0.101233
-7.296e-17
0.101233
-4.02577e-17
0.101233
1.44346e-17
0.101233
2.14935e-18
0.101233
1.19952e-16
0.101233
3.91208e-17
0.101233
-4.135e-17
0.101233
-3.13679e-17
0.101233
-6.5194e-17
0.101233
4.64411e-18
0.101233
-2.2352e-17
0.101233
-2.85219e-17
0.101233
-3.6523e-17
0.101233
-2.99037e-17
0.101233
-3.2492e-17
0.101233
1.77429e-17
0.101233
-5.55669e-17
0.101233
1.38737e-17
0.101233
-6.40616e-17
0.101233
3.81315e-17
0.101233
-6.19638e-17
0.101233
-7.15636e-18
0.101233
-3.33555e-17
0.101233
-3.45639e-18
0.101233
-1.19345e-17
0.101233
-5.36448e-17
0.101233
-7.42042e-18
0.101233
-9.22878e-17
0.101233
-1.98851e-17
0.101233
3.3328e-18
0.101233
-3.8772e-17
0.101233
1.66661e-17
0.101233
-3.95954e-17
0.101233
-3.70711e-17
0.101233
-5.38015e-17
0.101233
-5.75745e-17
0.101233
5.57205e-18
0.101233
-3.73041e-17
0.101233
-6.04576e-17
0.101233
-6.10804e-17
0.101233
9.80918e-19
0.101233
-6.72247e-17
0.101233
-2.56391e-17
0.101233
-9.53952e-17
0.101233
-2.12691e-18
0.101233
-7.85397e-17
0.101233
-8.66931e-17
0.101233
-1.2987e-16
0.101233
-5.30163e-17
0.101233
-3.10335e-17
0.101233
-6.01857e-17
0.101233
-6.14729e-17
0.101233
-7.5446e-17
0.101233
-3.80025e-17
0.101233
-6.00293e-17
0.101233
-9.12922e-17
0.101233
2.55563e-18
0.101233
-6.26044e-17
0.101233
-4.25937e-17
0.101233
-7.70423e-17
0.101233
-1.8997e-17
0.101233
-6.63233e-17
0.101233
-4.84837e-17
0.101233
-7.38244e-17
0.101233
1.43835e-17
0.101233
-6.56712e-17
0.101233
1.07764e-17
0.101233
-6.97046e-17
0.101233
-8.14391e-17
0.101233
-6.11837e-17
0.101233
-1.01963e-16
0.101233
-6.61066e-17
0.101233
-2.64269e-17
0.101233
-2.86148e-17
0.101233
-1.57737e-17
0.101233
-7.39814e-17
0.101233
-4.82795e-17
0.101233
-8.44502e-18
0.101233
-1.45916e-17
0.101233
-6.51126e-17
0.101233
-9.00881e-17
0.101233
-8.42369e-17
0.101233
-3.48013e-17
0.101233
-1.67706e-17
0.101233
5.82293e-18
0.101233
-1.464e-17
0.101233
7.09965e-16
0.101233
-3.27036e-17
0.101233
3.47645e-17
0.101233
-1.07505e-16
0.101233
-4.58888e-17
0.101233
-7.13807e-17
0.101233
3.32444e-18
0.101233
-4.40906e-17
0.101233
-4.47421e-17
0.101233
3.58928e-17
0.101233
-8.43181e-17
0.101233
-8.38512e-17
0.101233
-1.85016e-17
0.101233
-5.47745e-17
0.101233
-8.13576e-17
0.101233
-4.43335e-17
0.101233
2.99144e-17
0.101233
-3.0065e-17
0.101233
-1.57744e-17
0.101233
-8.27181e-18
0.101233
5.61507e-19
0.101233
-3.79649e-17
0.101233
4.30255e-17
0.101233
-4.53171e-17
0.101233
-3.75323e-17
0.101233
5.10304e-18
0.101233
-7.7902e-17
0.101233
-1.15365e-18
0.101233
-6.7023e-17
0.101233
-2.83618e-17
0.101233
1.25591e-17
0.101233
-2.37431e-17
0.101233
-5.55529e-17
0.101233
-3.40709e-17
0.101233
1.02275e-17
0.101233
-7.78045e-17
0.101233
-3.07766e-18
0.101233
-8.55621e-17
0.101233
-3.75899e-18
0.101233
-4.22515e-18
0.101233
-9.04257e-17
0.101233
-3.55675e-17
0.101233
-5.98431e-17
0.101233
-5.60153e-17
0.101233
-7.50032e-17
0.101233
-2.35484e-17
0.101233
-3.26833e-17
0.101233
-5.9933e-17
0.101233
-3.93696e-17
0.101233
-5.35508e-17
0.101233
-8.012e-17
0.101233
-3.25062e-17
0.101233
-1.34841e-17
0.101233
-9.03059e-18
0.101233
-8.06603e-17
0.101233
-7.94451e-17
0.101233
-3.56704e-17
0.101233
-1.49202e-17
0.101233
2.14707e-19
0.101233
-2.63397e-17
0.101233
-4.82687e-17
0.101233
-5.7913e-17
0.101233
-6.12025e-17
0.101233
-3.0909e-17
0.101233
-4.29547e-17
0.101233
-5.54391e-17
0.101233
2.92575e-18
0.101233
-1.68111e-17
0.101233
1.96225e-19
0.101233
-4.22919e-17
0.101233
-7.90953e-18
0.101233
-6.96356e-17
0.101233
-1.08794e-17
0.101233
-1.8226e-17
0.101233
-6.31224e-17
0.101233
-6.45704e-17
0.101233
-6.89005e-17
0.101233
-3.06404e-17
0.101233
-1.07255e-17
0.101233
-2.6239e-17
0.101233
-3.11932e-17
0.101233
-1.70856e-17
0.101233
-8.56374e-17
0.101233
2.11439e-18
0.101233
1.65779e-17
0.101233
-6.35123e-17
0.101233
-6.40251e-18
-6.97066
53.4683
0.101233
-4.36102e-17
0.101233
-2.40807e-17
0.101233
-1.04582e-16
0.101233
-5.91093e-17
0.101233
-8.51681e-17
0.101233
-5.40786e-17
0.101233
-3.98559e-17
0.101233
-3.05272e-17
0.101233
-4.87857e-17
0.101233
-3.4587e-18
0.101233
-4.59361e-17
0.101233
-3.56599e-17
0.101233
-2.05401e-17
0.101233
-2.93094e-17
0.101233
-7.70665e-17
0.101233
-2.89964e-17
0.101233
-2.41972e-17
0.101233
1.54074e-17
0.101233
3.49966e-17
0.101233
-5.16002e-17
0.101233
-6.43192e-19
0.101233
-5.97773e-17
0.101233
-6.30224e-17
0.101233
-1.95642e-17
0.101233
-1.01474e-17
0.101233
-4.38342e-17
0.101233
-3.08852e-17
0.101233
-4.01529e-17
0.101233
-3.8104e-17
0.101233
2.41681e-17
0.101233
-3.92616e-18
0.101233
-4.78317e-17
0.101233
-4.70436e-17
0.101233
-7.24497e-17
0.101233
-4.59817e-17
0.101233
-5.65962e-17
0.101233
-4.37451e-17
0.101233
-9.99612e-17
0.101233
-9.59281e-17
0.101233
-4.7479e-17
0.101233
-5.81342e-17
0.101233
-3.47469e-17
0.101233
-5.91011e-18
0.101233
-1.36372e-17
0.101233
-6.20473e-18
0.101233
-5.44803e-17
0.101233
-6.56728e-17
0.101233
-2.85113e-17
0.101233
-8.37587e-17
0.101233
-5.8259e-17
0.101233
-2.17691e-18
0.101233
-3.3376e-17
0.101233
-2.59555e-17
0.101233
-1.12606e-17
0.101233
-1.12192e-17
0.101233
2.68169e-18
0.101233
-7.78354e-18
0.101233
-1.30775e-17
0.101233
-6.59271e-17
0.101233
1.39673e-16
0.101233
-1.47957e-17
0.101233
-7.58435e-17
0.101233
-5.55277e-17
0.101233
-1.25075e-16
0.101233
-8.46231e-17
0.101233
-2.99973e-17
0.101233
-5.36268e-17
0.101233
-8.25715e-17
0.101233
-3.63405e-18
0.101233
-7.77537e-17
0.101233
-1.26535e-16
0.101233
-9.1029e-18
0.101233
-3.5043e-18
0.101233
-3.8048e-17
0.101233
-9.79875e-17
0.101233
-9.91551e-17
-8.75214
59.2313
0.101233
-2.30983e-17
0.101233
-3.0785e-17
0.101233
-6.92714e-17
0.101233
-3.46562e-17
0.101233
-2.67382e-17
0.101233
-5.56154e-17
0.101233
-6.41813e-17
0.101233
-1.83914e-18
0.101233
-6.55058e-17
0.101233
-1.10225e-16
0.101233
-7.52146e-17
0.101233
-8.23559e-17
0.101233
-1.55919e-18
0.101233
6.48276e-17
0.101233
8.40695e-18
0.101233
-6.1631e-17
0.101233
-5.58417e-17
0.101233
1.24079e-16
0.101233
-7.728e-17
0.101233
7.3739e-16
0.101233
-1.81798e-17
0.101233
6.56727e-17
0.101233
-4.56205e-17
0.101233
-2.83407e-17
0.101233
-7.00923e-17
0.101233
-2.83673e-19
0.101233
-6.80019e-17
0.101233
-4.47852e-17
0.101233
-7.04765e-17
0.101233
-3.641e-17
0.101233
-6.07809e-17
0.101233
-9.77074e-17
0.101233
1.35381e-16
0.101233
-8.1269e-17
0.101233
1.69568e-17
0.101233
6.50649e-17
0.101233
1.69895e-16
0.101233
-8.8102e-18
0.101233
-8.99577e-17
0.101233
5.10658e-17
0.101233
-4.32001e-17
0.101233
-5.44157e-17
0.101233
-5.28822e-17
0.101233
-3.16035e-17
0.101233
-8.51253e-17
