40.9528 42.7944
  5.0915 -1.48648
  5.0915 -1.48648
  5.0915 -1.48648
727.887 -38.556
7935.94 594.484
  5.0915 -1.48648
2032.11  37.294
  5.0915 -1.48648
1143.39  147.91
  5.0915 -1.48648
  5.0915 -1.48648
624.635 28.6245
966.595 57.8906
  5.0915 -1.48648
  5.0915 -1.48648
  5.0915 -1.48648
776.822 232.753
2064.47 28.0191
  5.0915 -1.48648
  5.0915 -1.48648
2091.74 445.506
13524.9 397.578
  5.0915 -1.48648
24323.3 900.808
-527.506  1083.19
10292.2  165.93
127.223 29.8117
20304.7 808.064
85.2264 53.4887
  5.0915 -1.48648
  19712 1001.34
  5.0915 -1.48648
132.094 155.655
  5.0915 -1.48648
  5.0915 -1.48648
  5.0915 -1.48648
2090.64 35.1113
4626.92 476.041
1111.18 119.521
5163.64 212.766
  5.0915 -1.48648
5776.68 145.828
  5.0915 -1.48648
91.0356 141.181
1738.91 50.1733
  5.0915 -1.48648
11171.4 608.466
-38.5234  129.246
 1559.18 -187.523
74.1071 66.2726
  5.0915 -1.48648
1103.61  50.693
609.543 182.611
  5.0915 -1.48648
  5.0915 -1.48648
10289.3 464.544
  5.0915 -1.48648
  5.0915 -1.48648
  5.0915 -1.48648
20166.9 892.871
57.2391 44.4462
508.464 5354.97
5362.7 774.18
  5.0915 -1.48648
  5.0915 -1.48648
 718.186 -13.3981
437.913  28.816
  5.0915 -1.48648
 2644.1 120.249
  5.0915 -1.48648
  5.0915 -1.48648
  5.0915 -1.48648
  5.0915 -1.48648
2338.87 76.0834
  5.0915 -1.48648
2158.24 29.8693
  5.0915 -1.48648
562.123 24.1866
7339.85 172.946
  5.0915 -1.48648
  5.0915 -1.48648
  5.0915 -1.48648
 1156.3 1089.96
3632.89 95.3964
  5.0915 -1.48648
  5.0915 -1.48648
138.593 332.235
 1103.6 150.357
  5.0915 -1.48648
13328.5 608.024
  5.0915 -1.48648
464.876 90.4273
16863.5 366.232
45.1152 60.9654
  5.0915 -1.48648
  5.0915 -1.48648
856.969  32.481
103.304 63.3171
  5.0915 -1.48648
  5.0915 -1.48648
  5.0915 -1.48648
13412.2 244.234
  5.0915 -1.48648
  5.0915 -1.48648
-9.96316   44.676
  5.0915 -1.48648
  5.0915 -1.48648
  5.0915 -1.48648
5259.63 98.9378
  5.0915 -1.48648
  5.0915 -1.48648
 622.445 -64.5931
  5.0915 -1.48648
15535.4 417.978
 1.26141 -31.4256
  5.0915 -1.48648
 741.742 -12.1283
  5.0915 -1.48648
-1196.67  2786.03
50.9536 36.2562
  5.0915 -1.48648
  5.0915 -1.48648
  5.0915 -1.48648
  5.0915 -1.48648
-11.2675   82.451
5890.15  203.28
 3.65651 -35.3989
  5.0915 -1.48648
1536.27 26.5848
  5.0915 -1.48648
-86.4848  248.713
  5.0915 -1.48648
  5.0915 -1.48648
27.8003 89.1409
  5.0915 -1.48648
  5.0915 -1.48648
3095.76 207.652
 1573.9 167.545
24179.3 431.129
1369.01 89.3679
-40.6394  178.988
  5.0915 -1.48648
2804.27 48.9275
  5.0915 -1.48648
34.3154  54.936
  5.0915 -1.48648
  5.0915 -1.48648
  5.0915 -1.48648
174.36 312.99
11107.9 442.846
1487.45 2031.25
1276.32 157.206
  5.0915 -1.48648
28.9381 29.2259
207.575 340.041
392.485 661.346
  5.0915 -1.48648
1423.59 61.1548
  5.0915 -1.48648
13002.6 537.304
  5.0915 -1.48648
8512.46 183.249
  5.0915 -1.48648
-0.750064   727.158
  5.0915 -1.48648
4632.07 349.598
-25.5076  236.812
67.3462 94.0894
  5.0915 -1.48648
12183.7 521.122
  5.0915 -1.48648
  5.0915 -1.48648
-66.2025  169.938
207.082 35.9954
8420.76 1103.26
  5.0915 -1.48648
2401.62 260.359
2270.46 55.3093
  5.0915 -1.48648
  5.0915 -1.48648
5867.16  474.21
  5.0915 -1.48648
  5.0915 -1.48648
1236.69 901.045
  5.0915 -1.48648
930.032 30.7679
 3870.4 139.416
29.4317 44.1586
  5.0915 -1.48648
2308.02 1517.53
  5.0915 -1.48648
  5.0915 -1.48648
1.06417 35.9696
1188.86  -12.72
  5.0915 -1.48648
  5.0915 -1.48648
  5.0915 -1.48648
1592.78 3471.98
  5.0915 -1.48648
0.562144  75.6706
  5.0915 -1.48648
  5.0915 -1.48648
  5.0915 -1.48648
  5.0915 -1.48648
479.729  159.59
 1157.26 -12.1822
102.281 62.4528
  5.0915 -1.48648
3478.12 485.933
  5.0915 -1.48648
29.4838 43.2883
1654.48 187.048
  5.0915 -1.48648
  5.0915 -1.48648
  5.0915 -1.48648
2252.99 59.1945
  5.0915 -1.48648
1132.25 840.024
93.0513 43.8087
  5.0915 -1.48648
11240.8  223.56
  5.0915 -1.48648
485.883 68.5814
  11483 523.468
  5.0915 -1.48648
10750.3 632.419
  5.0915 -1.48648
39.5818 38.5911
  5.0915 -1.48648
  5.0915 -1.48648
215.138  366.29
  5.0915 -1.48648
1807.04 40.4871
  5.0915 -1.48648
  5.0915 -1.48648
  5.0915 -1.48648
  5.0915 -1.48648
3386.28 267.789
  5.0915 -1.48648
  5.0915 -1.48648
  5.0915 -1.48648
  5.0915 -1.48648
8609.18 623.805
 3.10887 -38.5569
26.6853 40.2878
  5.0915 -1.48648
 1.64425 -32.8106
  5.0915 -1.48648
1274.43 1103.01
1110.59 23.6405
8359.62 389.109
1755.23 36.6152
-48.9556  158.067
3335.31 81.1008
  5.0915 -1.48648
  5.0915 -1.48648
  5.0915 -1.48648
  1740 1215.8
  5.0915 -1.48648
  5.0915 -1.48648
  5.0915 -1.48648
5187.94 210.491
  5.0915 -1.48648
77.1719  36.496
2899.99 157.844
  5.0915 -1.48648
  5.0915 -1.48648
1791.87 48.1472
  5.0915 -1.48648
  11412 218.583
368.887 40.6116
  5.0915 -1.48648
  5.0915 -1.48648
5136.78 100.426
  5.0915 -1.48648
1245.25 27.0903
  5.0915 -1.48648
  5.0915 -1.48648
  5.0915 -1.48648
6087.58 716.164
  5.0915 -1.48648
3708.19 152.231
  5.0915 -1.48648
278.453 401.454
  5.0915 -1.48648
  5.0915 -1.48648
  5.0915 -1.48648
4509.52  1055.9
 939.791 -12.3982
  5.0915 -1.48648
2325.36 49.4118
  5.0915 -1.48648
750.947 73.6708
  5.0915 -1.48648
133.695 117.015
23943.8  629.38
  5.0915 -1.48648
  5.0915 -1.48648
2736.59 527.293
  5.0915 -1.48648
273.376 43.8459
501.427 47.5029
  5.0915 -1.48648
  5.0915 -1.48648
1896.84 81.5451
  5.0915 -1.48648
  5.0915 -1.48648
-9.53093  126.216
  5.0915 -1.48648
82.0988 68.5349
275.437 481.212
20.4055 28.6475
-2.39563  31.8898
 457.489 -70.8209
 1.02867 -36.4309
  5.0915 -1.48648
12.4427 27.1404
84.7711 120.241
172.726 144.876
   1.721 -37.6335
  5.0915 -1.48648
  5.0915 -1.48648
  5.0915 -1.48648
  5.0915 -1.48648
606.517 72.1974
  5.0915 -1.48648
1021.16 23.9916
  5.0915 -1.48648
  5.0915 -1.48648
 1038.27 -12.0506
20.6612 33.1765
6121.66 325.066
12.7753  67.791
352.461 546.623
  5.0915 -1.48648
8614.63 144.023
  5.0915 -1.48648
  5.0915 -1.48648
1810.72 46.9259
35.2092 33.6149
24279.4 721.842
10519.7 225.252
  5.0915 -1.48648
  5.0915 -1.48648
293.311 104.659
48.2467 55.5502
  5.0915 -1.48648
1161.71 218.125
  5.0915 -1.48648
  5.0915 -1.48648
1451.09 55.8344
742.347 558.801
2555.94 46.0897
  5.0915 -1.48648
4293.85 104.583
  5.0915 -1.48648
  5.0915 -1.48648
17804.7 530.246
13816.8 1033.93
8586.68 184.792
 54.651 38.7743
2137.88 47.4493
  5.0915 -1.48648
  5.0915 -1.48648
  5.0915 -1.48648
444.781 69.3031
  5.0915 -1.48648
-1.01695 -35.0509
  5.0915 -1.48648
1913.15 60.6861
  5.0915 -1.48648
  5.0915 -1.48648
788.152 142.898
  5.0915 -1.48648
2642.75 76.9737
  5.0915 -1.48648
7952.49 307.681
  5.0915 -1.48648
  5.0915 -1.48648
29.1711 28.4378
  5.0915 -1.48648
  5.0915 -1.48648
  5.0915 -1.48648
7342.41 184.167
  17755 793.845
1755.47 190.474
196.707 127.999
  5.0915 -1.48648
5311.64 183.251
 600.36 290.195
  5.0915 -1.48648
1280.19 50.9065
1466.23 34.8895
703.865 138.567
  5.0915 -1.48648
6029.83 351.158
55.9945 97.0126
  5.0915 -1.48648
  5.0915 -1.48648
191.591 90.8121
  5.0915 -1.48648
180.483 62.0568
  5.0915 -1.48648
17135.8 561.955
3061.64 107.404
  5.0915 -1.48648
  5.0915 -1.48648
  5.0915 -1.48648
  5.0915 -1.48648
2862.42 110.448
  5.0915 -1.48648
3146.65 176.665
  5.0915 -1.48648
4433.11 1396.29
30261.7  552.89
  5.0915 -1.48648
  5.0915 -1.48648
17564.5 310.278
-18.5046 -25.1548
9510.06 1338.02
  5.0915 -1.48648
  5.0915 -1.48648
109.496 110.838
3260.13 221.952
6401.56 228.097
  5.0915 -1.48648
  5.0915 -1.48648
  5.0915 -1.48648
5775.04 287.043
  5.0915 -1.48648
  5.0915 -1.48648
  5.0915 -1.48648
7235.07  144.31
 289.29 72.4492
15876.3 337.182
  5.0915 -1.48648
616.911 36.2456
634.165 33.2511
  5.0915 -1.48648
25105.4 585.671
  5.0915 -1.48648
 3782.9 142.515
6371.52 146.525
  5.0915 -1.48648
  5.0915 -1.48648
311.463 195.371
330.213 41.9848
  5.0915 -1.48648
804.218 25.7586
  5.0915 -1.48648
62.1718 101.554
2275.72 57.1622
  401.24 -21.8048
14331.7 1305.78
948.586 661.904
  5.0915 -1.48648
 6111.7 438.229
847.716 534.962
 1.35818 -34.6469
  5.0915 -1.48648
-3563.69     7153
  5.0915 -1.48648
  5.0915 -1.48648
  5.0915 -1.48648
-479.169  1348.33
558.894 37.3794
  5.0915 -1.48648
8128.77 214.292
959.547 147.793
  5.0915 -1.48648
  22607 884.399
480.434 92.2826
8591.98 249.345
92.9907 90.2432
15378.4 564.456
  5.0915 -1.48648
15695.3 760.946
1075.51  90.999
  5.0915 -1.48648
  5.0915 -1.48648
3857.31 159.686
  5.0915 -1.48648
  5.0915 -1.48648
  5.0915 -1.48648
  5.0915 -1.48648
1780.44 41.2915
149.341 187.784
48.8208 50.2511
 17.821 23.4456
  5.0915 -1.48648
  5.0915 -1.48648
165.132 241.213
  5.0915 -1.48648
683.957 33.5335
  5.0915 -1.48648
  5.0915 -1.48648
408.228 67.3554
124.214 220.323
  5.0915 -1.48648
  5.0915 -1.48648
 481.657 -25.9288
1100.42 25.9787
  5.0915 -1.48648
31.3317 25.4455
  5.0915 -1.48648
1487.97 45.6998
  5.0915 -1.48648
 966.925 -12.0092
156.412 271.907
97.881 119.19
 817.696 -11.8625
85.7563 46.1426
-8.11028  40.6367
8811.27 219.979
174.503 285.828
225.959 73.7915
 17.877 23.9235
1420.04 1505.26
4515.13 329.791
908.872 533.012
 472.475 -25.4579
  5.0915 -1.48648
  5.0915 -1.48648
  5.0915 -1.48648
  5.0915 -1.48648
1852.56 106.642
 1105.7 41.3632
41.6678 62.9789
357.405 49.5878
401.817 26.0397
  5.0915 -1.48648
955.864 1196.07
  5.0915 -1.48648
 524.513 -28.1265
823.369 64.1346
  5.0915 -1.48648
5277.22 249.226
  5.0915 -1.48648
594.327 790.627
1323.49 189.434
10930.2 896.578
13465.4 836.709
85.4297 55.0616
459.132 45.5328
  5.0915 -1.48648
  5.0915 -1.48648
  5.0915 -1.48648
  5.0915 -1.48648
  5.0915 -1.48648
 115.37 31.8614
  5.0915 -1.48648
8681.38 179.782
1340.73 39.6589
  5.0915 -1.48648
  5.0915 -1.48648
  5.0915 -1.48648
3689.18  70.644
33.2931 24.4794
1753.77 255.874
  5.0915 -1.48648
  5.0915 -1.48648
733.128 485.051
  5.0915 -1.48648
  5.0915 -1.48648
2020.1 90.915
  5.0915 -1.48648
  5.0915 -1.48648
24575.3 524.678
1090.95 71.8073
  5.0915 -1.48648
1811.86 219.345
  5.0915 -1.48648
  5.0915 -1.48648
2812.83 62.7334
  5.0915 -1.48648
  5.0915 -1.48648
  5.0915 -1.48648
78.9552 102.388
  5.0915 -1.48648
  5.0915 -1.48648
  5.0915 -1.48648
6659.49 296.616
4.70393 30.6332
14330.4 312.401
  5.0915 -1.48648
  5.0915 -1.48648
1378.69 50.1735
  5.0915 -1.48648
  5.0915 -1.48648
1719.32 726.164
  5.0915 -1.48648
  5.0915 -1.48648
1846.89 42.7636
  5.0915 -1.48648
  5.0915 -1.48648
1319.19 23.7446
6103.56 774.069
2907.75 94.7781
547.681 31.8589
  5.0915 -1.48648
66.9182 68.0492
  5.0915 -1.48648
  5.0915 -1.48648
  5.0915 -1.48648
  5.0915 -1.48648
311.529 29.0449
 472.117 -25.4396
1966.04 1723.06
310.004 589.796
10470.5 244.635
-20.6004 -22.4019
  5.0915 -1.48648
23.5972 101.897
717.466 63.7738
  5.0915 -1.48648
  5.0915 -1.48648
  5.0915 -1.48648
 1.42515 -35.2497
  5.0915 -1.48648
  5.0915 -1.48648
11267.1 449.721
  5.0915 -1.48648
2092.77 294.813
4800.92 171.765
 7567.6 468.417
  5.0915 -1.48648
  5.0915 -1.48648
 20.3966 -68.6466
467.041 715.228
  5.0915 -1.48648
2802.31 41.8824
  5.0915 -1.48648
  5.0915 -1.48648
59.8048 56.3169
1640.73 52.9156
229.558 75.0957
  5.0915 -1.48648
13945.1 345.062
9450.82 501.403
 -7.5333 -24.0662
  5.0915 -1.48648
  5.0915 -1.48648
  5.0915 -1.48648
  5.0915 -1.48648
  5.0915 -1.48648
  5.0915 -1.48648
1183.44 43.4306
  5.0915 -1.48648
  5.0915 -1.48648
  5.0915 -1.48648
10426.8 993.513
5947.84 297.806
  5.0915 -1.48648
  5.0915 -1.48648
  5.0915 -1.48648
 1.54976 -37.8451
 5035.5 95.4716
  5.0915 -1.48648
510.214 993.179
119.478 200.399
  5.0915 -1.48648
20942.4 804.446
  5.0915 -1.48648
  5.0915 -1.48648
17372.6 755.499
  5.0915 -1.48648
746.784 23.9777
14143.7 726.956
  5.0915 -1.48648
  5.0915 -1.48648
  5.0915 -1.48648
  5.0915 -1.48648
  5.0915 -1.48648
4514.66 176.003
  5.0915 -1.48648
1083.09 45.3604
1057.88 756.238
54.1645 93.6514
  5.0915 -1.48648
  5.0915 -1.48648
  5.0915 -1.48648
220.448 76.4507
5695.79 5136.05
6502.83 260.102
  5.0915 -1.48648
  5.0915 -1.48648
7003.12 305.583
1671.35 1743.93
  5.0915 -1.48648
  5.0915 -1.48648
  5.0915 -1.48648
  5.0915 -1.48648
  5.0915 -1.48648
  5.0915 -1.48648
 783.79 51.8923
  5.0915 -1.48648
  5.0915 -1.48648
  5.0915 -1.48648
24.1842 42.1164
  26.941 -83.3076
  5.0915 -1.48648
59.6278 23.4285
  5.0915 -1.48648
5332.18 472.011
  5.0915 -1.48648
  5.0915 -1.48648
  5.0915 -1.48648
16.5504 -64.098
  5.0915 -1.48648
363.364 147.724
291.547 117.872
  5.0915 -1.48648
  5.0915 -1.48648
  5.0915 -1.48648
 1271.3 709.924
 1.24946 -30.7612
1618.31 90.6993
4152.03 411.136
  5.0915 -1.48648
51.5691 74.9647
-782.208  1587.92
  5.0915 -1.48648
  5.0915 -1.48648
-21.7244  67.4056
8.35841 51.3869
  5.0915 -1.48648
210.565 188.591
-3.12035  31.4036
  5.0915 -1.48648
  5.0915 -1.48648
  5.0915 -1.48648
6889.36 7868.02
  5.0915 -1.48648
44.9648 35.3047
4384.84 1132.27
  5.0915 -1.48648
  5.0915 -1.48648
21.3864 38.9294
  5.0915 -1.48648
  5.0915 -1.48648
7545.97 2174.16
 1591.68 -302.451
714.344  578.98
22.7035 30.3733
  5.0915 -1.48648
804.794 449.749
  5.0915 -1.48648
  5.0915 -1.48648
 3427.3 217.757
  5.0915 -1.48648
 771.058 -12.1753
11351.4 231.536
  5.0915 -1.48648
93.0191 52.0895
  5.0915 -1.48648
  5.0915 -1.48648
40.3788 61.3362
  5.0915 -1.48648
  5.0915 -1.48648
  5.0915 -1.48648
  5.0915 -1.48648
  5.0915 -1.48648
  5.0915 -1.48648
  5.0915 -1.48648
125.126 42.2834
  5.0915 -1.48648
2601.96  47.656
57.9457 41.6355
304.262 529.296
  5.0915 -1.48648
  5.0915 -1.48648
 8742.4 921.524
1629.85 50.7592
  5.0915 -1.48648
7.96052 43.3764
1041.19 40.0082
  5.0915 -1.48648
  5.0915 -1.48648
14325.5 305.536
  5.0915 -1.48648
6780.61 166.737
  5.0915 -1.48648
566.505 685.343
  5.0915 -1.48648
 729.307 -12.1358
  5.0915 -1.48648
  5.0915 -1.48648
60.8027  26.772
-2.38743  30.2677
5871.38  591.74
 725.669 -186.044
  5.0915 -1.48648
4254.87 233.234
  5.0915 -1.48648
2868.49 151.504
158.095 81.2046
146.782 259.177
9060.38 1703.84
  5.0915 -1.48648
6002.02 431.793
  5.0915 -1.48648
  5.0915 -1.48648
  5.0915 -1.48648
  5.0915 -1.48648
  5.0915 -1.48648
  5.0915 -1.48648
  5.0915 -1.48648
15554.5 263.098
4242.41 82.6927
434.598  33.925
  5.0915 -1.48648
  5.0915 -1.48648
  5.0915 -1.48648
  5.0915 -1.48648
10111.7 210.116
1246.49 90.7236
2223.44 1050.35
  5.0915 -1.48648
  5.0915 -1.48648
18.0052 23.9423
  5.0915 -1.48648
  5.0915 -1.48648
22725.2 865.219
351.519 71.9278
14.5155 31.4041
 1.87599 -31.8509
  5.0915 -1.48648
4328.98 940.784
  5.0915 -1.48648
  5.0915 -1.48648
  5.0915 -1.48648
  5.0915 -1.48648
  5.0915 -1.48648
  5.0915 -1.48648
 604.36 47.6953
203.299 52.1422
202.003  312.32
1523.16 572.547
  5.0915 -1.48648
  5.0915 -1.48648
  5.0915 -1.48648
9208.49 1087.08
14082.4 323.332
1930.89 504.093
  10275 208.542
  5.0915 -1.48648
  5.0915 -1.48648
  5.0915 -1.48648
 1.43013 -29.9827
1439.38 1639.15
210.571 63.2048
  5.0915 -1.48648
99.6361 24.8873
  5.0915 -1.48648
  5.0915 -1.48648
  5.0915 -1.48648
  5.0915 -1.48648
  5.0915 -1.48648
  5.0915 -1.48648
1910.18 69.5222
  5.0915 -1.48648
  5.0915 -1.48648
419.869 261.613
4601.79 95.3755
13234.1 617.752
  5.0915 -1.48648
6868.59 447.763
1688.15  3405.3
2031.96 57.6466
  5.0915 -1.48648
  5.0915 -1.48648
  5.0915 -1.48648
 869.678 -12.8728
921.429 77.1727
  5.0915 -1.48648
  5.0915 -1.48648
  5.0915 -1.48648
  5.0915 -1.48648
6806.37 1940.91
  5.0915 -1.48648
45.2223 34.0277
5822.38 578.639
122.767 76.5713
  5.0915 -1.48648
20910.2 443.284
 1111.2 297.662
  5.0915 -1.48648
151.136 52.2128
  5.0915 -1.48648
297.038 76.4904
  5.0915 -1.48648
154.675 25.9341
  5.0915 -1.48648
2365.99 124.881
  5.0915 -1.48648
  5.0915 -1.48648
217.436 149.206
9470.54 311.224
  5.0915 -1.48648
747.158 672.421
49.3359 30.5334
 604.28 1168.78
-223.03 487.506
 63.983 181.444
  5.0915 -1.48648
78.9751 34.1169
  5.0915 -1.48648
  5.0915 -1.48648
  5.0915 -1.48648
  5.0915 -1.48648
4.01746 24.5302
  5.0915 -1.48648
2258.54 72.9957
134.121  38.064
  5.0915 -1.48648
4122.49 488.225
  5.0915 -1.48648
  5.0915 -1.48648
164.905 110.338
  5.0915 -1.48648
-22.178 71.5857
  5.0915 -1.48648
16.5834 64.1424
39.0702 88.7603
  5.0915 -1.48648
1686.12  109.87
16232.1 1247.71
  5.0915 -1.48648
3606.73 492.844
  5.0915 -1.48648
  5.0915 -1.48648
  5.0915 -1.48648
 1464.7 26.7573
  5.0915 -1.48648
  5.0915 -1.48648
  5.0915 -1.48648
26.4075 39.0828
  5.0915 -1.48648
 53.843 91.2849
  5.0915 -1.48648
17.2825 25.4277
235.791 479.637
  5.0915 -1.48648
  5.0915 -1.48648
  5.0915 -1.48648
-5.51683  47.0956
2298.71 693.859
  5.0915 -1.48648
  5.0915 -1.48648
1684.57 81.1986
1389.77 284.559
1245.42 29.5286
  5.0915 -1.48648
  5.0915 -1.48648
  5.0915 -1.48648
 1230.31 -12.2088
1825.97 543.244
  5.0915 -1.48648
54.4271 92.5584
  5.0915 -1.48648
1750.12 3107.68
  5.0915 -1.48648
66.3657 69.4603
  5.0915 -1.48648
294.017 33.6263
23.0527  33.575
  5.0915 -1.48648
  5.0915 -1.48648
  5.0915 -1.48648
  5.0915 -1.48648
20.4918 28.2946
6762.96 121.856
2040.48 356.605
  5.0915 -1.48648
105.565 93.3839
136.439 196.253
128.744 190.897
7711.66 164.655
  5.0915 -1.48648
 1206.98 -12.6453
  5.0915 -1.48648
11057.3 206.072
33.5238 128.871
33.7334 31.2918
82.5636  47.827
25.9797 45.3538
  5.0915 -1.48648
933.348  826.84
-23.3986  71.1771
  5.0915 -1.48648
  5.0915 -1.48648
3142.45 82.6422
 1.43541 -29.9162
8888.58 280.705
  5.0915 -1.48648
-8.57455  42.0799
69.9828  53.517
626.455  456.97
  5.0915 -1.48648
3411.01  93.168
  5.0915 -1.48648
  5.0915 -1.48648
13662.7 225.131
109.302 99.7845
15653.5 1108.24
7483.11 148.816
1460.49 812.349
  5.0915 -1.48648
  5.0915 -1.48648
  5.0915 -1.48648
  5.0915 -1.48648
  5.0915 -1.48648
89.6043 44.8883
8948.87 188.237
3374.72 70.2875
166.135 114.171
  5.0915 -1.48648
9211.46 315.162
  5.0915 -1.48648
947.785 116.979
5995.86 400.573
15.3078 60.2233
1519.43 23.8567
  5.0915 -1.48648
175.292 40.0585
17236.3 474.212
2864.23 1516.62
  5.0915 -1.48648
-1204.45   2869.2
31.8318 24.9066
  5.0915 -1.48648
14340.2 391.777
  5.0915 -1.48648
  5.0915 -1.48648
  5.0915 -1.48648
  5.0915 -1.48648
988.192   58.52
  5.0915 -1.48648
  5.0915 -1.48648
  5.0915 -1.48648
  5.0915 -1.48648
  5.0915 -1.48648
 4411.3 252.493
  5.0915 -1.48648
  5.0915 -1.48648
  5.0915 -1.48648
  5.0915 -1.48648
30.3533 55.7489
231.032 33.1249
9694.14 308.006
185.212 492.413
  5.0915 -1.48648
547.098 89.1636
7527.91  272.94
1173.42  72.336
  5.0915 -1.48648
 3775.4 551.228
9414.16 1176.86
  10983 182.025
  5.0915 -1.48648
  5.0915 -1.48648
3079.29  7103.3
  5.0915 -1.48648
46.1969 43.3258
  5.0915 -1.48648
20.3712 34.3872
1492.36 582.142
  5.0915 -1.48648
  5.0915 -1.48648
  5.0915 -1.48648
  5.0915 -1.48648
18.8598 24.0168
  5.0915 -1.48648
  5.0915 -1.48648
3889.82 973.014
214.335 309.115
38.0281 62.6593
  5.0915 -1.48648
9113.99  815.69
13703.4 231.304
3386.16 65.1873
1852.04 308.899
3532.87 361.827
  5.0915 -1.48648
  5.0915 -1.48648
7243.97 276.204
  5.0915 -1.48648
  5.0915 -1.48648
41.3522 51.6435
  5.0915 -1.48648
1329.54 1158.13
18050.3 493.427
  5.0915 -1.48648
  5.0915 -1.48648
-40.921 142.773
9070.38 361.776
4229.44 120.451
294.174 191.761
1672.39 29.4532
  5.0915 -1.48648
  5.0915 -1.48648
1936.95 161.173
83.2719 149.259
18.7283 36.2718
3263.82 1318.59
170.697 304.809
12003.8 389.118
  5.0915 -1.48648
20525.6 755.159
  5.0915 -1.48648
 805.506 -14.7975
5433.83 88.9241
  5.0915 -1.48648
  5.0915 -1.48648
13235.4 227.002
 282.11 32.6037
  5.0915 -1.48648
4772.92 1578.56
  5.0915 -1.48648
482.871 156.909
106.234 192.354
5907.97 174.016
  5.0915 -1.48648
  5.0915 -1.48648
  5.0915 -1.48648
79.1694 46.1091
-12.4786  112.709
18138.7 1240.35
9472.31 163.616
3395.52 69.8948
  5.0915 -1.48648
  5.0915 -1.48648
 880.864 -11.9141
  1834.9 -12.0323
 928.57 134.815
  5.0915 -1.48648
  5.0915 -1.48648
  5.0915 -1.48648
382.395 23.7848
2194.28 192.231
  5.0915 -1.48648
3565.51 55.2586
  5.0915 -1.48648
216.768 49.2789
121.468 151.406
  5.0915 -1.48648
24646.6 552.226
-1453.78   2964.9
326.408 211.752
  5.0915 -1.48648
 1448.61 -445.506
268.996 444.444
21571.1 628.869
21.7241 29.0555
7.28066 25.9734
  5.0915 -1.48648
1587.84  148.95
  5.0915 -1.48648
2629.41 333.819
 7957.4 287.231
 4460.3 295.813
5862.11 452.988
  5.0915 -1.48648
5263.05 154.093
-13.2006 -22.7347
  5.0915 -1.48648
-75.0336  214.744
135.623  237.74
2259.69 1174.06
11163.4 237.366
  5.0915 -1.48648
  5.0915 -1.48648
5558.69 106.175
  5.0915 -1.48648
  5.0915 -1.48648
9043.11 452.301
  5.0915 -1.48648
2766.15  76.508
  5.0915 -1.48648
1032.47 30.1874
  5.0915 -1.48648
  5.0915 -1.48648
5517.63 562.593
510.353 44.5482
  5.0915 -1.48648
1820.49 38.9166
36.0199 57.6175
  5.0915 -1.48648
5201.54 301.753
113.723 34.8788
  5.0915 -1.48648
695.889 103.572
159.332  31.156
  5.0915 -1.48648
  5.0915 -1.48648
  5.0915 -1.48648
  10.833 -48.4712
1155.09 62.3383
-309.076  652.845
15560.3  1340.6
  5.0915 -1.48648
  5.0915 -1.48648
578.313  30.822
  5.0915 -1.48648
-154.491  450.743
  5.0915 -1.48648
21556.5 774.445
0.913692 -31.4341
4225.95 148.345
  5.0915 -1.48648
  5.0915 -1.48648
-0.630723   26.6412
  5.0915 -1.48648
  5.0915 -1.48648
1029.65 45.7264
1848.78 30.0839
4295.56 80.8619
  5.0915 -1.48648
  5.0915 -1.48648
4042.86 228.443
2772.75  424.16
5011.41 83.7371
 6576.1 153.639
  5.0915 -1.48648
  5.0915 -1.48648
331.784 47.4025
  5.0915 -1.48648
-1.13421  53.2631
  5.0915 -1.48648
1298.75 638.596
15657.5 438.917
  5.0915 -1.48648
  5.0915 -1.48648
71.1014  30.144
129.736 30.5298
28.9951 44.9721
28854.2 508.118
  5.0915 -1.48648
  5.0915 -1.48648
9328.69 274.638
4785.12 837.498
  5.0915 -1.48648
1467.12 191.094
  5.0915 -1.48648
10678.7 460.251
  5.0915 -1.48648
10740.9 1942.74
17698.5 410.009
 1.41631 -33.6395
27.7028 42.5962
207.635 226.395
  5.0915 -1.48648
12.5611 28.8997
  5.0915 -1.48648
  5.0915 -1.48648
  5.0915 -1.48648
  5.0915 -1.48648
28.4158 43.4611
414.833 25.6199
  5.0915 -1.48648
2903.77 140.364
  5.0915 -1.48648
  5.0915 -1.48648
5834.46 130.692
  5.0915 -1.48648
  5.0915 -1.48648
47.1113 79.5586
  5.0915 -1.48648
21.1054 -68.378
  928.43 -11.9746
  5.0915 -1.48648
  5.0915 -1.48648
-7.61617  40.3436
  5.0915 -1.48648
8.91334  51.662
13104.7 448.354
1927.09 4014.67
  5.0915 -1.48648
  5.0915 -1.48648
  5.0915 -1.48648
  5.0915 -1.48648
  5.0915 -1.48648
25.2268  33.153
1011.52 24.9861
18946.1 987.293
486.308 93.0943
9010.32 170.026
  5.0915 -1.48648
-74.583 209.935
740.915 43.5625
  5.0915 -1.48648
5851.27  313.54
  5.0915 -1.48648
407.335 36.5053
  5.0915 -1.48648
  5.0915 -1.48648
  5.0915 -1.48648
 38.251 62.5626
-3.4481 36.0868
5133.35 116.618
3275.22 59.9776
  5.0915 -1.48648
10586.7 386.761
21.7229 31.0403
  5.0915 -1.48648
28.2886 40.3888
  5.0915 -1.48648
  5.0915 -1.48648
8992.69 159.841
-17.9359   77.504
  5.0915 -1.48648
  5.0915 -1.48648
 284.25 391.202
1255.57     103
8584.61  201.33
23830.6 507.448
45.4302 65.2992
23.0516 164.136
20.2006 24.4283
  5.0915 -1.48648
  5.0915 -1.48648
  5.0915 -1.48648
  5.0915 -1.48648
704.957 84.7992
  5.0915 -1.48648
2003.12 317.891
  5.0915 -1.48648
  5.0915 -1.48648
13223.9 493.682
9232.35 314.337
  5.0915 -1.48648
  5.0915 -1.48648
 1.69608 -37.2794
11896.2 417.734
1572.93 55.5963
  5.0915 -1.48648
  5.0915 -1.48648
 2.66414 -37.2074
 1228.02 -32.8929
  5.0915 -1.48648
63.3931 98.3128
13414.6 389.955
18.8776 25.6396
  5.0915 -1.48648
  5.0915 -1.48648
  5.0915 -1.48648
  5.0915 -1.48648
 1.40839 -34.5833
  5.0915 -1.48648
1180.82 190.004
  5.0915 -1.48648
  5.0915 -1.48648
  5.0915 -1.48648
  5.0915 -1.48648
-26.586  87.915
98.5008 158.185
  5.0915 -1.48648
  5.0915 -1.48648
  5.0915 -1.48648
796.821 -12.651
  5.0915 -1.48648
  22044 1089.69
-21.4192  136.613
  5.0915 -1.48648
 5.90773 -42.7799
 602.25 199.662
  5.0915 -1.48648
  5.0915 -1.48648
 3431.3 492.003
2716.46 67.5819
1060.55 458.881
726.436 454.875
  5.0915 -1.48648
  5.0915 -1.48648
  5.0915 -1.48648
4003.83 10953.2
12745.4 1655.36
52.3684 83.1144
5902.98 449.865
485.602 70.7934
  5.0915 -1.48648
  5.0915 -1.48648
  5.0915 -1.48648
  5.0915 -1.48648
-29.3523  110.158
408.582 191.716
3292.49  97.603
2766.23 411.363
5764.05 104.466
17649.5 381.055
3261.77 47.5068
  5.0915 -1.48648
  5.0915 -1.48648
  5.0915 -1.48648
9182.79 342.683
  5.0915 -1.48648
3568.11 216.744
7657.83 274.067
111.383 35.6649
  5.0915 -1.48648
 1291.58 -12.4568
  5.0915 -1.48648
  5.0915 -1.48648
427.177 886.011
  5.0915 -1.48648
  5.0915 -1.48648
75.6147 111.998
  5.0915 -1.48648
126.107 36.4333
2275.23 41.1832
316.058 160.182
-11.7894  48.1796
8264.28 188.842
8479.33 198.048
  5.0915 -1.48648
  5.0915 -1.48648
  5.0915 -1.48648
6378.78 486.042
4360.41 171.194
1180.84 118.113
 4660.8 134.271
  548.01 -29.3315
4754.01 158.081
  5.0915 -1.48648
20793.2 360.577
  5.0915 -1.48648
  5.0915 -1.48648
5769.85   11798
31.8343 42.0868
2734.72 689.548
  5.0915 -1.48648
  5.0915 -1.48648
5783.38 1721.37
  5.0915 -1.48648
  5.0915 -1.48648
12474.3 239.404
 1.92743 -33.3489
4773.42 185.173
 0.11968 -29.6964
56.5688 54.6254
390.771 84.0755
  5.0915 -1.48648
15772.9 778.362
1284.09 53.8787
 1499.28 -123.225
  5.0915 -1.48648
21.3093  29.224
  5.0915 -1.48648
  5.0915 -1.48648
  5.0915 -1.48648
3313.15 65.0225
  5.0915 -1.48648
28.6407 41.0568
  5.0915 -1.48648
1182.59 25.1409
 5613.6 195.701
991.338 43.1008
1579.36 205.183
 472.75 68.9021
176.705 355.599
  5.0915 -1.48648
4157.93 70.9129
  5.0915 -1.48648
  5.0915 -1.48648
  5.0915 -1.48648
  5.0915 -1.48648
  5.0915 -1.48648
88.1628 206.742
3203.89  47.944
10289.2 195.947
  5.0915 -1.48648
  5.0915 -1.48648
10.5047  29.907
  5.0915 -1.48648
  1229.1 -86.0322
  5.0915 -1.48648
130.692 235.405
978.415 -11.829
453.854 34.4422
21.0875 28.0805
  14754 301.401
285.449 112.595
5299.13 314.887
923.793 1086.73
  5.0915 -1.48648
2347.42 66.6005
  5.0915 -1.48648
  5.0915 -1.48648
  5.0915 -1.48648
  5.0915 -1.48648
  5.0915 -1.48648
396.696  761.07
  5.0915 -1.48648
  5.0915 -1.48648
10186.6 250.068
  5.0915 -1.48648
3514.78 84.6822
  5.0915 -1.48648
  5.0915 -1.48648
  5.0915 -1.48648
  5.0915 -1.48648
  5.0915 -1.48648
  5.0915 -1.48648
842.732 237.696
19737.5 352.895
165.626 255.974
  5.0915 -1.48648
  5.0915 -1.48648
  5.0915 -1.48648
 463.005 -24.9723
428.001 411.942
  5.0915 -1.48648
  5.0915 -1.48648
 8835.1 144.046
 32.952 50.2696
20.0306 26.9306
  5.0915 -1.48648
730.798 853.499
  5.0915 -1.48648
1670.57 86.7117
 1114.42 -16.6044
3013.25 101.497
  5.0915 -1.48648
  5.0915 -1.48648
  5.0915 -1.48648
  5.0915 -1.48648
2422.49 138.677
55.7006 97.1497
82.5634 138.049
10483.7 469.165
  5.0915 -1.48648
7068.05 330.764
  5.0915 -1.48648
34.2011 53.0471
    1.34 -31.5514
  5.0915 -1.48648
 302.53 376.588
  5.0915 -1.48648
19737.9 10196.5
7688.47 220.597
37.0632 30.6316
  5.0915 -1.48648
  5.0915 -1.48648
1876.23 153.536
  5.0915 -1.48648
  5.0915 -1.48648
1673.61 27.7513
308.657 44.7039
1202.78 1369.61
4509.47 313.993
  5.0915 -1.48648
7028.26 113.089
438.594 24.7366
5194.17 105.032
328.767 44.0046
  5.0915 -1.48648
 1.86474 -33.2077
  5.0915 -1.48648
  5.0915 -1.48648
  5.0915 -1.48648
-1712.99   3549.2
  5.0915 -1.48648
 4.58318 -34.8977
952.837 28.8504
  5.0915 -1.48648
133.436 44.5115
 3574.7 95.7895
  5.0915 -1.48648
6968.79 206.092
  5.0915 -1.48648
  5.0915 -1.48648
  5.0915 -1.48648
  5.0915 -1.48648
  5.0915 -1.48648
  5.0915 -1.48648
  5.0915 -1.48648
32.2118 42.4394
13063.5 365.975
1635.93 28.2031
  5.0915 -1.48648
-2285.11  6391.89
  5.0915 -1.48648
  5.0915 -1.48648
682.867 491.852
3436.46 306.571
  5.0915 -1.48648
  5.0915 -1.48648
  5.0915 -1.48648
  5.0915 -1.48648
  5.0915 -1.48648
157.038 249.325
  5.0915 -1.48648
35.1875 57.1451
2654.21 144.231
  5.0915 -1.48648
  5.0915 -1.48648
20286.7 418.686
  5.0915 -1.48648
108.586 40.7014
  5.0915 -1.48648
  5.0915 -1.48648
2800.41  261.55
  5.0915 -1.48648
20653.5  412.38
33.5444 33.6436
  5.0915 -1.48648
  5.0915 -1.48648
3346.08 209.351
25.1705  27.075
924.266 88.3955
9600.29 534.049
10250.4 1966.47
14.1903 76.7136
  5.0915 -1.48648
  5.0915 -1.48648
4164.75 68.8752
  5.0915 -1.48648
94.9382  121.58
  5.0915 -1.48648
  5.0915 -1.48648
41.2867 69.1201
  5.0915 -1.48648
 0.83189 -29.2037
  5.0915 -1.48648
10927.7 1120.08
 18.399 28.6794
419.456 103.622
  5.0915 -1.48648
2144.06 77.3644
 669.781 -35.5762
  5.0915 -1.48648
  5.0915 -1.48648
5408.41 91.9878
  5.0915 -1.48648
731.113 972.428
1595.03 31.1783
306.617 27.7785
  5.0915 -1.48648
  5.0915 -1.48648
6054.05 131.034
  5.0915 -1.48648
  5.0915 -1.48648
-54.812 143.381
754.413 52.8254
529.464 44.4306
1268.86 778.851
  5.0915 -1.48648
  5.0915 -1.48648
  5.0915 -1.48648
  5.0915 -1.48648
538.814 27.1244
  5.0915 -1.48648
22.8638 27.0374
1498.44 201.768
  5.0915 -1.48648
2665.65  52.674
18.8794 33.0607
-29.0855  82.0282
1985.52  274.14
25094.2 532.874
1272.53 65.7335
1542.19 42.3389
574.472 706.287
3094.71  196.34
  5.0915 -1.48648
 1269.1 68.1358
  5.0915 -1.48648
5784.99 99.0155
-31.4844  139.792
 821.33 35.7394
892.921 25.9005
  5.0915 -1.48648
3577.65  154.33
1654.13 545.229
261.536 271.633
  5.0915 -1.48648
  5.0915 -1.48648
  5.0915 -1.48648
  5.0915 -1.48648
17994.8 859.816
1317.06 798.416
5450.57 557.401
  5.0915 -1.48648
  5.0915 -1.48648
931.091 116.619
2663.85 673.656
  5.0915 -1.48648
-127.019 -24.7274
  5.0915 -1.48648
11194.7 682.566
6042.53 648.593
  5.0915 -1.48648
347.744 26.6854
  5.0915 -1.48648
515.489 34.9852
23212.7 622.268
5.26651 27.9186
6092.59  99.438
64.3664 107.637
  5.0915 -1.48648
655.347 270.198
11033.8 1842.42
  5.0915 -1.48648
505.547 237.081
337.778  39.744
279.845 370.948
  5.0915 -1.48648
4385.91 102.049
40.1663 66.8931
  5.0915 -1.48648
4714.32 112.693
  5.0915 -1.48648
-150.951   410.47
4716.65  194.45
  5.0915 -1.48648
965.084 48.8163
  5.0915 -1.48648
  5.0915 -1.48648
  5.0915 -1.48648
  5.0915 -1.48648
 6.24057 -37.9843
  5.0915 -1.48648
  5.0915 -1.48648
  5.0915 -1.48648
  5.0915 -1.48648
-14.5917  53.9572
  5.0915 -1.48648
  5.0915 -1.48648
  5.0915 -1.48648
5644.71 181.764
  5.0915 -1.48648
  5.0915 -1.48648
3783.22 362.466
1627.82 24.9139
27100.6 772.222
203.512 57.8104
  5.0915 -1.48648
3460.16 83.7251
49.1993 77.4314
  5.0915 -1.48648
17877.9  651.77
 431.695 -23.3666
  5.0915 -1.48648
  5.0915 -1.48648
  5.0915 -1.48648
  5.0915 -1.48648
-43.5463  798.683
188.248 269.477
18898.6 436.569
613.806 647.027
1686.63 26.2262
  5.0915 -1.48648
1740.61 37.7581
  5.0915 -1.48648
  5.0915 -1.48648
  5.0915 -1.48648
145.488  256.63
2920.81 54.8198
214.052 294.403
19271.4 597.761
  5.0915 -1.48648
613.871 -32.709
1087.12 71.2362
1142.53 53.8581
80.2932 51.4282
  5.0915 -1.48648
  5.0915 -1.48648
72.6163  146.55
  5.0915 -1.48648
  5.0915 -1.48648
  5.0915 -1.48648
3365.03 201.827
  5.0915 -1.48648
  5.0915 -1.48648
  5.0915 -1.48648
3574.89 478.343
7512.32 927.624
  5.0915 -1.48648
  5.0915 -1.48648
  5.0915 -1.48648
  5.0915 -1.48648
  5.0915 -1.48648
  5.0915 -1.48648
691.018 401.844
1981.31 31.7538
-1.6436 28.7513
  5.0915 -1.48648
  5.0915 -1.48648
  5.0915 -1.48648
-759.548  1578.43
13210.3 359.468
  5.0915 -1.48648
  5.0915 -1.48648
  5.0915 -1.48648
  5.0915 -1.48648
  5.0915 -1.48648
1477.28 161.108
  5.0915 -1.48648
118.316 72.5139
19030.8 1007.25
18149.6 300.865
  5.0915 -1.48648
  5.0915 -1.48648
  5.0915 -1.48648
3621.69 85.6538
767.538 666.312
2353.09   110.1
13574.4 1403.86
-5.34258  35.5424
5069.98 334.523
  5.0915 -1.48648
  5.0915 -1.48648
  5.0915 -1.48648
1395.51 484.866
  5.0915 -1.48648
  5.0915 -1.48648
115.512 98.4669
1219.78 54.3492
4233.37 84.6852
1253.66 102.106
  5.0915 -1.48648
-99.7359  253.291
29.8132 53.8459
5931.76  294.65
  5.0915 -1.48648
19122.8 402.211
10738.8  921.95
1160.35 53.4183
2493.16  812.99
 1.83434 -37.7307
25653.1   832.6
 3511.6 595.211
  5.0915 -1.48648
90.0784 27.1278
  5.0915 -1.48648
 6447.6 759.974
7552.34 135.985
  5.0915 -1.48648
394.867 583.023
  5.0915 -1.48648
  5.0915 -1.48648
  5.0915 -1.48648
  5.0915 -1.48648
  5.0915 -1.48648
1735.85 459.493
  5.0915 -1.48648
368.894 74.0321
  5.0915 -1.48648
  5.0915 -1.48648
58.583 102.06
  5.0915 -1.48648
2460.57 251.712
  5.0915 -1.48648
300.497  537.15
  5.0915 -1.48648
  5.0915 -1.48648
  5.0915 -1.48648
 0.80179 -34.9177
63.6867 28.2084
4788.04  581.51
15.4782  30.168
  5.0915 -1.48648
  -5745 11652.2
  5.0915 -1.48648
3506.42 489.113
 4599.5 148.898
  5.0915 -1.48648
  5.0915 -1.48648
  5.0915 -1.48648
  5.0915 -1.48648
177.423 115.101
8920.19 4575.62
 1307.33 -16.3727
  5.0915 -1.48648
  5.0915 -1.48648
-1.68025  29.1636
 6.86738 -45.2807
  5.0915 -1.48648
  5.0915 -1.48648
 1506.1 257.607
4902.43 108.602
  5.0915 -1.48648
  5.0915 -1.48648
  5.0915 -1.48648
  5.0915 -1.48648
  5.0915 -1.48648
3351.57 275.118
14.9681 28.6321
1767.87 627.296
1196.04 121.047
  5.0915 -1.48648
  5.0915 -1.48648
51.6558 89.5527
3147.76 66.3658
18749.9 520.668
  5.0915 -1.48648
  5.0915 -1.48648
  5.0915 -1.48648
4679.84 380.366
13202.8 466.333
  5.0915 -1.48648
  5.0915 -1.48648
690.051 69.9145
  5.0915 -1.48648
  5.0915 -1.48648
1641.61 25.2788
  5.0915 -1.48648
3080.38 844.367
 822.54 30.7591
12341.3 316.447
  5.0915 -1.48648
  5.0915 -1.48648
 1.43806 -35.4864
6819.01 401.627
  5.0915 -1.48648
331.174 150.073
   1463 122.798
  11860 383.116
  5.0915 -1.48648
301.015 278.852
  433.22 -23.4448
224.478  345.36
  5.0915 -1.48648
  5.0915 -1.48648
984.482   38.68
  5.0915 -1.48648
  5.0915 -1.48648
  15361 715.399
  5.0915 -1.48648
  5.0915 -1.48648
  5.0915 -1.48648
  5.0915 -1.48648
  5.0915 -1.48648
12572.8 214.255
3631.02  57.374
26.8849 28.9546
2871.04 78.1728
-29.4332 -24.7338
  5.0915 -1.48648
56.5589 92.9671
  5.0915 -1.48648
3749.85 344.079
  5.0915 -1.48648
  5.0915 -1.48648
  5.0915 -1.48648
  5.0915 -1.48648
-3.57841  32.5397
2935.57 54.9512
98.4353 360.113
25591.3 468.135
  5.0915 -1.48648
15.4302 29.3312
24620.1 602.517
42.8218 72.1089
  5.0915 -1.48648
-46.2993  126.121
  5.0915 -1.48648
360.971 401.858
  5.0915 -1.48648
138.491 231.082
  5.0915 -1.48648
21.2859 30.0944
1606.49 41.0635
  5.0915 -1.48648
  5.0915 -1.48648
69.9197 102.912
41.8947 70.2288
272.285 30.1242
16928.7 368.499
  5.0915 -1.48648
8.47577 25.6409
87.2096 135.306
6743.05 158.939
  5.0915 -1.48648
13706.4 489.494
-39.3368  309.219
  5.0915 -1.48648
-13.4138  50.9281
  5.0915 -1.48648
447.806 46.8443
2427.07 1916.77
  5.0915 -1.48648
127.102 150.081
43.7379 73.6501
  5.0915 -1.48648
  5.0915 -1.48648
  5.0915 -1.48648
4182.02 67.1041
7841.94 1739.79
3249.74 161.092
  5.0915 -1.48648
6369.78  578.48
1133.64 39.0441
  5.0915 -1.48648
883.526 139.595
  5.0915 -1.48648
 9732.3 6435.97
  5.0915 -1.48648
  5.0915 -1.48648
  5.0915 -1.48648
8887.42 493.058
-1650.52  3596.79
  5.0915 -1.48648
  5.0915 -1.48648
9727.38 668.933
1998.42 58.0363
  5.0915 -1.48648
  5.0915 -1.48648
19068.4 377.671
  5.0915 -1.48648
  5.0915 -1.48648
  5.0915 -1.48648
82.3083 91.1324
  5.0915 -1.48648
  5.0915 -1.48648
-5.48974  58.4854
299.742 328.627
 1553.8 38.4216
5457.23 135.198
57.8373 25.8686
 1473.24 -45.1932
22059.6  432.81
12106.7 1045.21
4725.17  103.94
  5.0915 -1.48648
  5.0915 -1.48648
  5.0915 -1.48648
6911.14 186.042
  5.0915 -1.48648
  5.0915 -1.48648
382.503 26.3875
  5.0915 -1.48648
1.76411 52.3724
1483.23 265.109
  5.0915 -1.48648
-23.2056  -26.885
  5.0915 -1.48648
20.3671 27.7693
1911.67 27.9528
  5.0915 -1.48648
959.662 90.4103
2351.96  285.85
  5.0915 -1.48648
  5.0915 -1.48648
  5.0915 -1.48648
-3.84214  33.0178
2495.27 237.256
  5.0915 -1.48648
  5.0915 -1.48648
26896.9 647.688
  5.0915 -1.48648
  5.0915 -1.48648
  5.0915 -1.48648
  5.0915 -1.48648
10777.3 210.109
  5.0915 -1.48648
  5.0915 -1.48648
  5.0915 -1.48648
1985.18 1132.76
  5.0915 -1.48648
572.355 676.923
  5.0915 -1.48648
  5.0915 -1.48648
  5.0915 -1.48648
5073.89 146.609
  5.0915 -1.48648
6059.41 155.845
664.843  177.46
  5.0915 -1.48648
  5.0915 -1.48648
74.7931 111.216
  5.0915 -1.48648
  5.0915 -1.48648
-0.456979   -30.051
24764.7 868.312
61.3429 84.3757
 1476.4 24.5356
 2016.9 495.123
  11486 240.655
22151.2 485.725
  5.0915 -1.48648
1684.25 1268.37
8082.71 177.968
94.3122 363.759
  5.0915 -1.48648
1058.72 532.255
  5.0915 -1.48648
78.0637  123.51
169.182 72.1072
7460.09 185.845
  5.0915 -1.48648
24.1664 35.2209
  5.0915 -1.48648
96.6112 63.6088
  5.0915 -1.48648
5.55709 99.5941
  5.0915 -1.48648
1450.26 1596.47
11721.2 930.422
  5.0915 -1.48648
44.1085 27.8615
 1329.17 -171.546
  5.0915 -1.48648
  5.0915 -1.48648
 20.159 27.6161
  4049.8 -416.117
642.117 379.159
174.704 315.542
 737.157 -11.9008
  5.0915 -1.48648
390.557 33.2785
  5.0915 -1.48648
  5.0915 -1.48648
1152.17 54.9037
 2032.21 -209.185
  5.0915 -1.48648
  5.0915 -1.48648
7.34973 24.9571
 24587.4 -145.862
-3.12823  31.7025
  5.0915 -1.48648
  5.0915 -1.48648
2408.89 43.5758
29265.2 535.272
364.392 32.0475
1.05208 36.5803
  5.0915 -1.48648
39.6269 61.8775
  5.0915 -1.48648
  5.0915 -1.48648
  5.0915 -1.48648
-9.49458   43.337
4837.52 661.706
  5.0915 -1.48648
3912.25 163.404
  5.0915 -1.48648
3419.53 107.307
366.967 133.723
  5.0915 -1.48648
50.5012 50.3353
1926.97 92.2708
16761.5 915.765
  5.0915 -1.48648
4265.35 623.094
120.851 24.4225
  5.0915 -1.48648
  5.0915 -1.48648
  5.0915 -1.48648
3117.71 203.423
  5.0915 -1.48648
 500.78 243.729
  5.0915 -1.48648
  5.0915 -1.48648
  5.0915 -1.48648
53.9549 54.6521
11374.4 763.211
4.39209 -38.991
 440.029 -157.557
  5.0915 -1.48648
  5.0915 -1.48648
128.576 238.632
  5.0915 -1.48648
  5.0915 -1.48648
9.21435 36.0763
  5.0915 -1.48648
54.9997 76.6316
4113.21 120.196
  5.0915 -1.48648
19.0645 130.459
  5.0915 -1.48648
  5.0915 -1.48648
9694.82 468.093
17628.5 429.129
  5.0915 -1.48648
  5.0915 -1.48648
4744.87 162.693
  5.0915 -1.48648
  5.0915 -1.48648
  5.0915 -1.48648
  5.0915 -1.48648
26.4848 30.3906
  5.0915 -1.48648
  5.0915 -1.48648
-12.365 49.5876
25119.6 519.161
19918.1 1240.27
5847.46 279.403
14008.2 435.965
  5.0915 -1.48648
  5.0915 -1.48648
128.332 218.273
1777.02 3285.75
  5.0915 -1.48648
  5.0915 -1.48648
21.3701 24.2181
 25.603 38.0134
  5.0915 -1.48648
5848.18 249.243
  5.0915 -1.48648
  5.0915 -1.48648
 2711.2 83.8468
  5.0915 -1.48648
  5.0915 -1.48648
155.512 109.484
  5.0915 -1.48648
14271.5 352.029
 3591.6 620.194
 936.391 -17.6165
  5.0915 -1.48648
  5.0915 -1.48648
192.273 24.8046
  5.0915 -1.48648
1988.61  56.499
  5.0915 -1.48648
  5.0915 -1.48648
  5.0915 -1.48648
5901.19 1627.13
1561.15 31.1904
50.1705 32.7808
  5.0915 -1.48648
  5.0915 -1.48648
59.6454 171.377
  5.0915 -1.48648
14.3278 105.235
  5.0915 -1.48648
  5.0915 -1.48648
880.422 34.1198
  5.0915 -1.48648
  5.0915 -1.48648
  5.0915 -1.48648
 2.25247 -33.6968
  5.0915 -1.48648
  5.0915 -1.48648
2133.14 47.4798
2253.48  105.94
  5.0915 -1.48648
  5.0915 -1.48648
  5.0915 -1.48648
  5.0915 -1.48648
231.273 41.7836
  5.0915 -1.48648
272.046 76.0094
1841.36 28.9065
  5.0915 -1.48648
  5.0915 -1.48648
  5.0915 -1.48648
10999.4 239.828
  5.0915 -1.48648
148.152 110.935
1.87035 64.6534
 546.962 -29.2778
185.969 23.8872
3144.63 301.062
39350.3 62034.5
1673.07 91.5231
-5.79449  36.2031
  5.0915 -1.48648
13733.2 294.987
  5.0915 -1.48648
  5.0915 -1.48648
  5.0915 -1.48648
  5.0915 -1.48648
38.2135 63.0104
  5.0915 -1.48648
19469.5 745.108
  5.0915 -1.48648
  5.0915 -1.48648
5393.86  186.85
  5.0915 -1.48648
2632.46 118.783
  5.0915 -1.48648
  5.0915 -1.48648
  5.0915 -1.48648
11911.6 250.823
  5.0915 -1.48648
47.1077 78.5342
6973.92 454.569
  5.0915 -1.48648
42.9694 47.6424
  5.0915 -1.48648
  5.0915 -1.48648
1177.43 32.8577
  5.0915 -1.48648
3345.23 124.194
24.5801  33.621
  5.0915 -1.48648
236.622 99.4062
-8.94192  42.6636
1920.33 101.035
  5.0915 -1.48648
72.1687 126.794
  5.0915 -1.48648
  5.0915 -1.48648
  5.0915 -1.48648
  5.0915 -1.48648
554.833 87.0332
  5.0915 -1.48648
  5.0915 -1.48648
37.8841 38.9811
  5.0915 -1.48648
238.061  25.551
624.048 63.7981
27168.6 636.472
69.0439 123.343
6468.27 146.399
2243.17 38.5035
  5.0915 -1.48648
193.631 281.652
  5.0915 -1.48648
  5.0915 -1.48648
  5.0915 -1.48648
  5.0915 -1.48648
  5.0915 -1.48648
  5.0915 -1.48648
4778.13 1876.21
  5.0915 -1.48648
  5.0915 -1.48648
-164.25 352.395
4786.24 116.608
  5.0915 -1.48648
  5.0915 -1.48648
120.329 53.0469
  5.0915 -1.48648
  5.0915 -1.48648
4523.47 177.178
  5.0915 -1.48648
400.811  38.111
  17860 439.067
  5.0915 -1.48648
  5.0915 -1.48648
-44.0084  279.761
 1.20958 -34.2459
  5.0915 -1.48648
  5.0915 -1.48648
  5.0915 -1.48648
  5.0915 -1.48648
4285.03 1166.33
  5.0915 -1.48648
  5.0915 -1.48648
71.4649 126.228
  5.0915 -1.48648
7497.09 254.114
6310.71 118.149
18.8341 33.5987
4652.36  119.01
2313.52 47.6396
12262.9 218.932
2359.95 224.652
  5.0915 -1.48648
1996.96 110.088
  5.0915 -1.48648
21.6197 30.9187
  5.0915 -1.48648
1203.03 129.474
  5.0915 -1.48648
1.45643 -32.129
 1941.13 -100.774
  5.0915 -1.48648
  5.0915 -1.48648
17011.4 372.998
  5.0915 -1.48648
1174.91 45.0263
  5.0915 -1.48648
1561.74 87.4543
  5.0915 -1.48648
  5.0915 -1.48648
1116.91 626.078
  5.0915 -1.48648
  5.0915 -1.48648
1340.72 34.5305
34.2136 45.8562
  5.0915 -1.48648
  5.0915 -1.48648
4412.52 195.047
  5.0915 -1.48648
  5.0915 -1.48648
  5.0915 -1.48648
  5.0915 -1.48648
720.649 24.3905
1036.86 55.1114
  5.0915 -1.48648
 1210.52 -63.3063
 6455.1 546.039
61.9658 43.9511
  5.0915 -1.48648
  5.0915 -1.48648
47.6166 81.4178
  5.0915 -1.48648
  5.0915 -1.48648
  5.0915 -1.48648
 56.851 54.9928
10042.6 619.269
 1348.89 -139.101
3827.24 74.7558
  5.0915 -1.48648
  5.0915 -1.48648
0.153651 -36.7356
9088.44 257.116
187.415  339.69
13.2937 38.9277
22.6303 37.6726
  5.0915 -1.48648
  5.0915 -1.48648
643.473 413.487
  5.0915 -1.48648
-200.495  434.834
  5.0915 -1.48648
 2.59752 -33.2178
863.82   48.3
  5.0915 -1.48648
  5.0915 -1.48648
  5.0915 -1.48648
  5.0915 -1.48648
7.66504  35.892
2748.98 53.8073
18618.9 360.673
  5.0915 -1.48648
-4.41561  34.3249
1156.33 471.295
  5.0915 -1.48648
2206.86 34.5787
539.038 457.131
1216.73 75.7369
 1101.22 -16.3956
4225.89 7444.89
128.626 38.5871
19.5497 26.1668
  5.0915 -1.48648
  5.0915 -1.48648
24.8857 42.8123
  5.0915 -1.48648
  5.0915 -1.48648
  5.0915 -1.48648
  5.0915 -1.48648
  5.0915 -1.48648
4573.65 326.961
-21.7171  67.4258
  5.0915 -1.48648
1758.93 109.237
2263.23 406.041
  5.0915 -1.48648
  5.0915 -1.48648
  5.0915 -1.48648
  5.0915 -1.48648
513.762 585.466
  5.0915 -1.48648
  5.0915 -1.48648
8002.18 755.572
  5.0915 -1.48648
683.275 46.6347
2693.66 807.772
18555.8 414.895
740.617 -12.125
164.146 25.6307
33.7038 30.6518
  5.0915 -1.48648
  5.0915 -1.48648
101.411 28.9609
9858.92 586.917
  5.0915 -1.48648
  5.0915 -1.48648
  5.0915 -1.48648
  5.0915 -1.48648
  5.0915 -1.48648
  5.0915 -1.48648
2832.55 67.8623
  5.0915 -1.48648
1141.76  1055.3
1464.22 66.4882
74.3211  133.05
3067.95 96.3884
  5.0915 -1.48648
  5.0915 -1.48648
  5.0915 -1.48648
  5.0915 -1.48648
  5.0915 -1.48648
  5.0915 -1.48648
  5.0915 -1.48648
  5.0915 -1.48648
17540.8 435.876
   3937 74.3818
  5.0915 -1.48648
709.977 54.5695
  5.0915 -1.48648
10550.8 423.283
996.512 35.1374
4011.75 92.5649
  5.0915 -1.48648
104.579 175.259
  5.0915 -1.48648
  5.0915 -1.48648
  5.0915 -1.48648
13270.6 830.852
  5.0915 -1.48648
  5.0915 -1.48648
10268.5 238.463
5710.08 277.176
18.1104 24.3539
  5.0915 -1.48648
  5.0915 -1.48648
  5.0915 -1.48648
4750.64  123.08
18242.3 1131.86
  5.0915 -1.48648
  5.0915 -1.48648
4555.64 244.032
894.919 28.6095
 1337.1 24.5017
50.9967 124.816
  5.0915 -1.48648
  5.0915 -1.48648
  5.0915 -1.48648
  5.0915 -1.48648
  5.0915 -1.48648
  5.0915 -1.48648
5898.69  375.78
  5.0915 -1.48648
3670.13 86.8749
  5.0915 -1.48648
  5.0915 -1.48648
13004.6 500.508
7012.51 136.667
2385.28 41.1571
  5.0915 -1.48648
  5.0915 -1.48648
  5.0915 -1.48648
-1044.37  2118.71
  5.0915 -1.48648
  5.0915 -1.48648
  5.0915 -1.48648
  5.0915 -1.48648
  5.0915 -1.48648
1769.19 -126.26
  5.0915 -1.48648
 1.49127 -31.9134
13885.8 434.253
  5.0915 -1.48648
  5.0915 -1.48648
  5.0915 -1.48648
  5.0915 -1.48648
  5.0915 -1.48648
  5.0915 -1.48648
  5.0915 -1.48648
24.2041 32.8978
  5.0915 -1.48648
  5.0915 -1.48648
-73.7243 -28.2241
  5.0915 -1.48648
  5.0915 -1.48648
2526.86 1790.96
  5.0915 -1.48648
  5.0915 -1.48648
-113.086  463.272
959.598 768.181
 1178.46 -12.9362
  5.0915 -1.48648
1617.17 44.2889
  5.0915 -1.48648
  5.0915 -1.48648
  5.0915 -1.48648
  5.0915 -1.48648
-17.5893   59.621
14560.6 338.673
  5.0915 -1.48648
10846.4 770.754
  5.0915 -1.48648
  5.0915 -1.48648
  5.0915 -1.48648
1751.08 68.0481
  5.0915 -1.48648
  5.0915 -1.48648
  5.0915 -1.48648
462.671 -48.206
4780.94 165.257
  5.0915 -1.48648
430.667 79.0626
  5.0915 -1.48648
 671.929 -35.6864
  5.0915 -1.48648
586.737  443.37
22.3559 35.2796
 1020.9 534.851
-18.5974  60.8285
51.7006 67.5025
23.2628 38.6248
5627.56  206.67
  5.0915 -1.48648
-346.117  824.154
1855.29 79.7571
  5.0915 -1.48648
2.16489 77.5113
118.88 50.334
18032.9 317.398
  5.0915 -1.48648
  5.0915 -1.48648
1693.85 107.911
54.1229 77.8307
  5.0915 -1.48648
-129.719  561.388
  5.0915 -1.48648
19630.5 379.628
 1.41307 -29.6249
2359.05 108.391
 738.453 -14.1709
  5.0915 -1.48648
49.0796 43.1173
  5.0915 -1.48648
10905.1 593.789
  5.0915 -1.48648
1668.73 140.181
  5.0915 -1.48648
  5.0915 -1.48648
71.1633 108.384
21.4342 139.596
-11.0376  69.6279
  5.0915 -1.48648
  5.0915 -1.48648
 6689.2 139.213
  5.0915 -1.48648
 6230.3 521.486
496.486 338.771
24.8177 35.5898
31.7537 23.8349
210.185 48.3404
  5.0915 -1.48648
 5652.2 359.552
  5.0915 -1.48648
4631.83  92.228
3454.54 79.4677
  5.0915 -1.48648
  5.0915 -1.48648
513.425 23.8529
4717.37 71.8566
2.45655 189.581
  5.0915 -1.48648
  5.0915 -1.48648
15192.2 408.834
  5.0915 -1.48648
  5.0915 -1.48648
22.6295 35.2354
  5.0915 -1.48648
583.115 31.0456
 2536.3 140.507
  5.0915 -1.48648
  5.0915 -1.48648
 373.53 324.456
  5.0915 -1.48648
  5.0915 -1.48648
507.882 210.105
 455.177 -24.5709
  5.0915 -1.48648
-6.98267  39.2443
  5.0915 -1.48648
1388.62 39.7866
  5.0915 -1.48648
3572.08  64.507
  5.0915 -1.48648
6194.56  461.72
  5.0915 -1.48648
3132.34 912.359
599.006 34.1733
 1.12323 -37.4248
47.7606 61.2038
  5.0915 -1.48648
  5.0915 -1.48648
 171.33 53.7043
269.413 975.179
  1586.7 -378.653
  5.0915 -1.48648
23.5333 34.4584
23874.7 848.156
  5.0915 -1.48648
 1253.87 -385.587
  5.0915 -1.48648
  5.0915 -1.48648
  5.0915 -1.48648
1126.37 84.9044
  5.0915 -1.48648
273.318 194.813
662.549 129.632
2263.84 35.1547
  5.0915 -1.48648
  5.0915 -1.48648
5.30773 181.186
  5.0915 -1.48648
  5.0915 -1.48648
  5.0915 -1.48648
71.4673 123.865
18075.6 466.932
  5.0915 -1.48648
-4.4597 33.8318
307.688 472.015
  5.0915 -1.48648
  5.0915 -1.48648
  5.0915 -1.48648
  5.0915 -1.48648
2268.63 34.2164
203.883 82.7002
  5.0915 -1.48648
  5.0915 -1.48648
110.94 94.409
1769.56 105.507
  5.0915 -1.48648
6524.53 140.844
-2605.16  5447.45
  5.0915 -1.48648
  5.0915 -1.48648
  5.0915 -1.48648
  5.0915 -1.48648
  5.0915 -1.48648
24889.6  477.56
  5.0915 -1.48648
3644.98 185.323
  5.0915 -1.48648
 4692.9 135.292
  5.0915 -1.48648
16.9123  45.178
  5.0915 -1.48648
  5.0915 -1.48648
  5.0915 -1.48648
  5.0915 -1.48648
  5.0915 -1.48648
  5.0915 -1.48648
1478.63 454.952
2746.77 105.504
1486.27 84.6903
10975.8 334.341
  958.15 -12.5234
99.1995 48.6953
11336.3 198.619
125.689 45.7813
6384.17 120.556
-16.4096 -24.9624
  5.0915 -1.48648
1275.28 232.026
  5.0915 -1.48648
2253.21 33.1451
  5.0915 -1.48648
  5.0915 -1.48648
 7.27325 -40.9366
0.626829 -37.3809
2470.07   81.12
1246.52 780.717
8958.85 199.585
  5.0915 -1.48648
  5.0915 -1.48648
  5.0915 -1.48648
 766.335 -12.1792
762.313 150.222
0.682608 -34.4545
  5.0915 -1.48648
  11258 588.303
3.42057 36.6748
  5.0915 -1.48648
