-4
0.296296
-4
0.271739
-4
0.22619
-4
0.348315
-4
0.35
-4
0.258427
-4
0.25
-4
0.24
-4
0.234568
-4
0.325843
-4
0.406977
-4
0.222222
-4
0.401961
-4
0.395833
-4
0.166667
-4
0.27551
-4
0.393258
-4
0.180723
-4
0.307692
-4
0.318182
-4
0.29
-4
0.25
-4
0.328767
-4
0.319588
-4
0.290323
-4
0.393162
-4
0.395833
-4
0.230769
-4
0.285714
-4
0.305556
-4
0.328767
-4
0.341176
-4
0.345679
-4
0.316327
-4
0.223529
-4
0.28125
-4
0.283951
-4
0.181818
-4
0.294118
-4
0.231707
-4
0.373494
-4
0.376623
-4
0.318966
-4
0.266055
-4
0.256098
-4
0.423077
-4
0.355263
-4
0.304348
-4
0.363636
-4
0.126582
-4
0.323529
-4
0.292683
-4
0.355556
-4
0.297297
-4
0.229885
-4
0.4
-4
0.410526
-4
0.236559
-4
0.27551
-4
0.269231
-4
0.3
-4
0.287356
-4
0.352941
-4
0.256098
-4
0.382022
-4
0.347826
-4
0.355769
-4
0.355769
-4
0.355263
-4
0.333333
-4
0.229885
-4
0.325
-4
0.206522
-4
0.233333
-4
0.255814
-4
0.268293
-4
0.263736
-4
0.321429
-4
0.298701
-4
0.25
-4
0.333333
-4
0.282353
-4
0.183099
-4
0.333333
-4
0.304348
-4
0.243243
-4
0.369231
-4
0.233083
-4
0.353659
-4
0.212963
-4
0.333333
-4
0.301205
-4
0.197531
-4
0.449275
-4
0.352941
-4
0.40404
-4
0.319149
-4
0.240506
-4
0.317757
-4
0.371429
-4
0.308511
-4
0.407407
-4
0.202247
-4
0.221239
-4
0.315217
-4
0.381443
-4
0.29703
-4
0.25
-4
0.236559
-4
0.349398
-4
0.345238
-4
0.275862
-4
0.26
-4
0.223881
-4
0.282051
-4
0.259615
-4
0.344828
-4
0.4
-4
0.257576
-4
0.28125
-4
0.244186
-4
0.212121
-4
0.146341
-4
0.216867
-4
0.215054
-4
0.216867
-4
0.255556
-4
0.282828
-4
0.422018
-4
0.31746
-4
0.337079
-4
0.329545
-4
0.41
-4
0.387097
-4
0.223684
-4
0.229508
-4
0.208333
-4
0.362319
-4
0.317647
-4
0.276596
-4
0.384615
-4
0.413793
-4
0.322034
-4
0.276316
-4
0.292135
-4
0.28
-4
0.39759
-4
0.352273
-4
0.258427
-4
0.277108
-4
0.311828
-4
0.235294
-4
0.246575
-4
0.345133
-4
0.311828
-4
0.344086
-4
0.342857
-4
0.22093
-4
0.392405
-4
0.3
-4
0.295455
-4
0.336842
-4
0.304348
-4
0.357143
-4
0.347368
-4
0.315789
-4
0.370968
-4
0.302632
-4
0.280488
-4
0.349593
-4
0.339806
-4
0.359223
-4
0.3125
-4
0.149425
-4
0.340426
-4
0.279412
-4
0.281553
-4
0.285714
-4
0.474227
-4
0.247706
-4
0.2625
-4
0.333333
-4
0.282353
-4
0.304348
-4
0.264706
-4
0.371795
-4
0.205607
-4
0.342857
-4
0.178082
-4
0.210526
-4
0.412371
-4
0.22973
-4
0.293333
-4
0.285714
-4
0.307692
-4
0.311688
-4
0.294118
-4
0.216216
-4
0.337209
-4
0.304762
-4
0.315217
-4
0.204545
-4
0.405063
-4
0.222222
-4
0.351351
-4
0.337209
-4
0.294737
-4
0.277778
-4
0.432432
-4
0.3125
-4
0.409639
-4
0.308642
-4
0.37931
-4
0.318182
-4
0.325
-4
0.21875
-4
0.377778
-4
0.292453
-4
0.325301
-4
0.4375
-4
0.244681
-4
0.32
-4
0.211111
-4
0.257732
-4
0.375
-4
0.216867
-4
0.276923
-4
0.327103
-4
0.268293
-4
0.238095
-4
0.333333
-4
0.397959
-4
0.378947
-4
0.358209
-4
0.164706
-4
0.270588
-4
0.336735
-4
0.37234
-4
0.347826
-4
0.273504
-4
0.22973
-4
0.316456
-4
0.409524
-4
0.32
-4
0.287356
-4
0.268817
-4
0.195402
-4
0.258427
-4
0.253165
-4
0.26
-4
0.287356
-4
0.333333
-4
0.270833
-4
0.37
-4
0.265957
-4
0.333333
-4
0.21519
-4
0.265823
-4
0.392157
-4
0.321429
-4
0.337349
-4
0.319444
-4
0.208333
-4
0.411111
-4
0.205674
-4
0.37931
-4
0.428571
-4
0.21519
-4
0.325843
-4
0.223684
-4
0.242105
-4
0.359551
-4
0.232323
-4
0.27907
-4
0.333333
-4
0.216495
-4
0.283019
-4
0.194444
-4
0.30137
-4
0.333333
-4
0.449275
-4
0.223529
-4
0.174419
-4
0.214286
-4
0.307692
-4
0.376623
-4
0.376344
-4
0.349398
-4
0.421053
-4
0.323944
-4
0.45977
-4
0.252632
-4
0.2625
-4
0.227273
-4
0.32
-4
0.202899
-4
0.348624
-4
0.378947
-4
0.27957
-4
0.263158
-4
0.327869
-4
0.188034
-4
0.209877
-4
0.219512
-4
0.3
-4
0.337662
-4
0.376344
-4
0.267442
-4
0.173077
-4
0.301075
-4
0.428571
-4
0.410959
-4
0.384615
-4
0.426667
-4
0.27907
-4
0.298969
-4
0.22093
-4
0.276316
-4
0.390805
-4
0.345238
-4
0.42029
-4
0.388235
-4
0.17284
-4
0.234043
-4
0.337209
-4
0.356436
-4
0.386364
-4
0.326087
-4
0.22619
-4
0.465347
-4
0.378641
-4
0.263889
-4
0.348837
-4
0.255319
-4
0.2625
-4
0.296296
-4
0.25
-4
0.280488
-4
0.259615
-4
0.348837
-4
0.236111
-4
0.375
-4
0.211538
-4
0.357143
-4
0.319444
-4
0.35514
-4
0.306122
-4
0.205479
-4
0.23913
-4
0.376344
-4
0.245455
-4
0.329787
-4
0.189474
-4
0.291139
-4
0.2
-4
0.277108
-4
0.341463
-4
0.333333
-4
0.294118
-4
0.352941
-4
0.22314
-4
0.425
-4
0.261682
-4
0.410256
-4
0.219512
-4
0.430108
-4
0.242718
-4
0.4375
-4
0.414414
-4
0.390244
-4
0.408602
-4
0.337079
-4
0.391304
-4
0.214286
-4
0.27907
-4
0.27551
-4
0.333333
-4
0.313253
-4
0.323529
-4
0.310345
-4
0.292135
-4
0.25
-4
0.25
-4
0.322917
-4
0.260274
-4
0.338983
-4
0.313953
-4
0.214286
-4
0.26506
-4
0.333333
-4
0.255814
-4
0.244444
-4
0.428571
-4
0.233577
-4
0.287037
-4
0.283784
-4
0.323232
-4
0.24359
-4
0.397727
-4
0.391304
-4
0.306931
-4
0.216495
-4
0.313953
-4
0.407767
-4
0.358974
-4
0.266667
-4
0.333333
-4
0.230769
-4
0.211765
-4
0.165289
-4
0.34375
-4
0.337209
-4
0.230769
-4
0.401869
-4
0.265823
-4
0.166667
-4
0.321101
-4
0.383838
-4
0.336842
-4
0.347368
-4
0.341176
-4
0.180556
-4
0.314607
-4
0.277108
-4
0.292135
-4
0.364486
-4
0.355372
-4
0.333333
-4
0.291139
-4
0.3875
-4
0.4
-4
0.274336
-4
0.329545
-4
0.222222
-4
0.38
-4
0.298851
-4
0.305882
-4
0.294737
-4
0.25
-4
0.305882
-4
0.433735
-4
0.160377
-4
0.356164
-4
0.382353
-4
0.352941
-4
0.292135
-4
0.361446
-4
0.285714
-4
0.205882
-4
0.21519
-4
0.294118
-4
0.268293
-4
0.216495
-4
0.32
-4
0.234568
-4
0.301205
-4
0.2375
-4
0.272727
-4
0.242105
-4
0.269663
-4
0.247191
-4
0.25
-4
0.380952
-4
0.2875
-4
0.311111
-4
0.346154
-4
0.373494
-4
0.367816
-4
0.240964
-4
0.284211
-4
0.378049
-4
0.2125
-4
0.228916
-4
0.393939
-4
0.359551
-4
0.224719
-4
0.27907
-4
0.256198
-4
0.299065
-4
0.339286
-4
0.409091
-4
0.2
-4
0.297619
-4
0.317073
-4
0.336735
-4
0.301587
-4
0.321429
-4
0.346154
-4
0.364706
-4
0.197674
-4
0.235294
-4
0.290698
-4
0.345679
-4
0.291667
-4
0.266055
-4
0.214286
-4
0.170732
-4
0.352273
-4
0.258065
-4
0.333333
-4
0.333333
-4
0.348837
-4
0.327103
-4
0.358025
-4
0.351648
-4
0.348315
-4
0.4
-4
0.367089
-4
0.252874
-4
0.405063
-4
0.406593
-4
0.319444
-4
0.327869
-4
0.409091
-4
0.341463
-4
0.40678
-4
0.27957
-4
0.353659
-4
0.246377
-4
0.356164
-4
0.275
-4
0.337662
-4
0.333333
-4
0.225806
-4
0.180952
-4
0.338843
-4
0.243902
-4
0.197531
-4
0.315789
-4
0.228571
-4
0.340206
-4
0.295775
-4
0.252427
-4
0.382979
-4
0.413333
-4
0.336538
-4
0.373494
-4
0.391304
-4
0.3125
-4
0.276316
-4
0.376471
-4
0.378788
-4
0.354839
-4
0.279412
-4
0.229358
-4
0.338028
-4
0.354167
-4
0.221053
-4
0.333333
-4
0.317647
-4
0.270588
-4
0.271739
-4
0.25
-4
0.355263
-4
0.328767
-4
0.349057
-4
0.347222
-4
0.333333
-4
0.373626
-4
0.308824
-4
0.336634
-4
0.253521
-4
0.384615
-4
0.316832
-4
0.376812
-4
0.24359
-4
0.318182
-4
0.236559
-4
0.392405
-4
0.337209
-4
0.360465
-4
0.201923
-4
0.280374
-4
0.235294
-4
0.269663
-4
0.306931
-4
0.27027
-4
0.329897
-4
0.357143
-4
0.315789
