-4
0.314286
-4
0.355556
-4
0.211538
-4
0.267442
-4
0.25
-4
0.142857
-4
0.176471
-4
0.196721
-4
0.385417
-4
0.210526
-4
0.2
-4
0.285714
-4
0.222222
-4
0.364583
-4
0.329268
-4
0.297872
-4
0.253165
-4
0.195122
-4
0.29703
-4
0.275
-4
0.285714
-4
0.34375
-4
0.222222
-4
0.320988
-4
0.27451
-4
0.371795
-4
0.247059
-4
0.235955
-4
0.295455
-4
0.269231
-4
0.162791
-4
0.277108
-4
0.207792
-4
0.269663
-4
0.241379
-4
0.391304
-4
0.313953
-4
0.244681
-4
0.371795
-4
0.44086
-4
0.3375
-4
0.320988
-4
0.375
-4
0.357143
-4
0.179775
-4
0.25
-4
0.280488
-4
0.180723
-4
0.269231
-4
0.185714
-4
0.3625
-4
0.214286
-4
0.296296
-4
0.320513
-4
0.39
-4
0.271429
-4
0.293333
-4
0.447368
-4
0.241379
-4
0.241379
-4
0.324675
-4
0.40404
-4
0.358696
-4
0.291139
-4
0.275862
-4
0.256757
-4
0.346154
-4
0.28125
-4
0.227273
-4
0.21978
-4
0.284314
-4
0.313953
-4
0.243902
-4
0.223881
-4
0.265487
-4
0.285714
-4
0.315068
-4
0.294872
-4
0.240506
-4
0.305263
-4
0.257143
-4
0.208791
-4
0.247312
-4
0.30137
-4
0.265823
-4
0.313253
-4
0.191489
-4
0.329412
-4
0.21875
-4
0.338235
-4
0.25
-4
0.26506
-4
0.284091
-4
0.340426
-4
0.216216
-4
0.309859
-4
0.207792
-4
0.197802
-4
0.322581
-4
0.333333
-4
0.289855
-4
0.25
-4
0.230769
-4
0.28125
-4
0.285714
-4
0.22549
-4
0.233645
-4
0.291139
-4
0.181818
-4
0.262626
-4
0.3125
-4
0.224719
-4
0.373494
-4
0.285714
-4
0.252747
-4
0.311828
-4
0.305263
-4
0.211765
-4
0.227848
-4
0.301205
-4
0.328767
-4
0.321429
-4
0.448276
-4
0.381443
-4
0.25
-4
0.369863
-4
0.236842
-4
0.337349
-4
0.236842
-4
0.228261
-4
0.2625
-4
0.255556
-4
0.365079
-4
0.233333
-4
0.180723
-4
0.293478
-4
0.341772
-4
0.146667
-4
0.2125
-4
0.181818
-4
0.180723
-4
0.253165
-4
0.392857
-4
0.337662
-4
0.243243
-4
0.333333
-4
0.25
-4
0.272727
-4
0.387755
-4
0.3375
-4
0.337838
-4
0.319588
-4
0.2625
-4
0.27957
-4
0.201923
-4
0.226667
-4
0.273684
-4
0.337662
-4
0.38961
-4
0.148649
-4
0.260274
-4
0.304348
-4
0.21
-4
0.380435
-4
0.305556
-4
0.301205
-4
0.296875
-4
0.322222
-4
0.411215
-4
0.314607
-4
0.297619
-4
0.254902
-4
0.309859
-4
0.247706
-4
0.27619
-4
0.328767
-4
0.131579
-4
0.204819
-4
0.325581
-4
0.289855
-4
0.254545
-4
0.291262
-4
0.341772
-4
0.392157
-4
0.204301
-4
0.171053
-4
0.269841
-4
0.451613
-4
0.263736
-4
0.22
-4
0.375
-4
0.257143
-4
0.338235
-4
0.264706
-4
0.28169
-4
0.333333
-4
0.322581
-4
0.289855
-4
0.210526
-4
0.291139
-4
0.190476
-4
0.361446
-4
0.358696
-4
0.25641
-4
0.333333
-4
0.363636
-4
0.285714
-4
0.27551
-4
0.261905
-4
0.192661
-4
0.405063
-4
0.424658
-4
0.186047
-4
0.306818
-4
0.240741
-4
0.340659
-4
0.289157
-4
0.17284
-4
0.306818
-4
0.337662
-4
0.23913
-4
0.27907
-4
0.311927
-4
0.282353
-4
0.256098
-4
0.293478
-4
0.229885
-4
0.304762
-4
0.342105
-4
0.255814
-4
0.2
-4
0.306818
-4
0.186667
-4
0.2
-4
0.197531
-4
0.291139
-4
0.341463
-4
0.262136
-4
0.306122
-4
0.177778
-4
0.240506
-4
0.263889
-4
0.355556
-4
0.284314
-4
0.254902
-4
0.271739
-4
0.24359
-4
0.298851
-4
0.333333
-4
0.25
-4
0.149533
-4
0.2625
-4
0.211679
-4
0.323944
-4
0.227273
-4
0.246914
-4
0.268293
-4
0.197183
-4
0.240506
-4
0.416667
-4
0.241758
-4
0.340659
-4
0.309524
-4
0.261905
-4
0.370787
-4
0.410959
-4
0.325843
-4
0.321839
-4
0.195312
-4
0.285714
-4
0.24
-4
0.256757
-4
0.333333
-4
0.295775
-4
0.285714
-4
0.37037
-4
0.303371
-4
0.333333
-4
0.319149
-4
0.260274
-4
0.363636
-4
0.448276
-4
0.38961
-4
0.202532
-4
0.252874
-4
0.267606
-4
0.25
-4
0.343137
-4
0.40625
-4
0.241379
-4
0.368421
-4
0.153846
-4
0.21519
-4
0.182609
-4
0.292135
-4
0.366071
-4
0.259259
-4
0.259259
-4
0.352941
-4
0.4125
-4
0.277108
-4
0.2125
-4
0.3
-4
0.175676
-4
0.211268
-4
0.451613
-4
0.244444
-4
0.195402
-4
0.21519
-4
0.195876
-4
0.386792
-4
0.168675
-4
0.364486
-4
0.277108
-4
0.29
-4
0.3
-4
0.262295
-4
0.285714
-4
0.277108
-4
0.324324
-4
0.263736
-4
0.188889
-4
0.293578
-4
0.36
-4
0.291139
-4
0.258621
-4
0.220588
-4
0.276923
-4
0.325581
-4
0.222222
-4
0.434783
-4
0.307692
-4
0.227848
-4
0.364865
-4
0.225
-4
0.287356
-4
0.386667
-4
0.223684
-4
0.28125
-4
0.257143
-4
0.338028
-4
0.301075
-4
0.378947
-4
0.392857
-4
0.305556
-4
0.25
-4
0.23
-4
0.38806
-4
0.272727
-4
0.333333
-4
0.355932
-4
0.352941
-4
0.333333
-4
0.240385
-4
0.380435
-4
0.292683
-4
0.358974
-4
0.313253
-4
0.271739
-4
0.292683
-4
0.117647
-4
0.382353
-4
0.25
-4
0.234234
-4
0.320988
-4
0.21
-4
0.271429
-4
0.28
-4
0.337209
-4
0.372093
-4
0.33
-4
0.346154
-4
0.222222
-4
0.319444
-4
0.216667
-4
0.272727
-4
0.342105
-4
0.205128
-4
0.381579
-4
0.36
-4
0.30137
-4
0.325301
-4
0.247423
-4
0.25
-4
0.30137
-4
0.222222
-4
0.25
-4
0.25
-4
0.377778
-4
0.286957
-4
0.305263
-4
0.302326
-4
0.241758
-4
0.314286
-4
0.320513
-4
0.271605
-4
0.306818
-4
0.28125
-4
0.241758
-4
0.211268
-4
0.294872
-4
0.252632
-4
0.15942
-4
0.255319
-4
0.356164
-4
0.329412
-4
0.326531
-4
0.39726
-4
0.2
-4
0.142857
-4
0.168142
-4
0.253333
-4
0.373737
-4
0.321101
-4
0.202532
-4
0.236842
-4
0.280992
-4
0.262626
-4
0.3
-4
0.318182
-4
0.282609
-4
0.259259
-4
0.280899
-4
0.349515
-4
0.344444
-4
0.267442
-4
0.186813
-4
0.336364
-4
0.280702
-4
0.277108
-4
0.280488
-4
0.418919
-4
0.246914
-4
0.333333
-4
0.402062
-4
0.368932
-4
0.3
-4
0.252525
-4
0.348837
-4
0.240741
-4
0.233766
-4
0.261682
-4
0.418919
-4
0.276316
-4
0.327869
-4
0.373626
-4
0.431818
-4
0.376344
-4
0.346154
-4
0.210526
-4
0.190476
-4
0.261364
-4
0.310811
-4
0.407767
-4
0.25
-4
0.253333
-4
0.319444
-4
0.207921
-4
0.174419
-4
0.244681
-4
0.263889
-4
0.378151
-4
0.26087
-4
0.383562
-4
0.278351
-4
0.422222
-4
0.355263
-4
0.282609
-4
0.298701
-4
0.309524
-4
0.325301
-4
0.27907
-4
0.408163
-4
0.26087
-4
0.193878
-4
0.282828
-4
0.333333
-4
0.342105
-4
0.320513
-4
0.216981
-4
0.388889
-4
0.26506
-4
0.270588
-4
0.361446
-4
0.22093
-4
0.246753
-4
0.302632
-4
0.317647
-4
0.313433
-4
0.252525
-4
0.257732
-4
0.363636
-4
0.341772
-4
0.28125
-4
0.24359
-4
0.328947
-4
0.357143
-4
0.395349
-4
0.205479
-4
0.358025
-4
0.305263
-4
0.233333
-4
0.191304
-4
0.275
-4
0.277778
-4
0.215686
-4
0.275362
-4
0.307692
-4
0.289157
-4
0.24
-4
0.329114
-4
0.265625
-4
0.266667
-4
0.35443
-4
0.333333
-4
0.235294
-4
0.341772
-4
0.37
-4
0.242105
-4
0.246914
-4
0.298387
-4
0.338028
-4
0.296875
-4
0.212963
-4
0.27027
-4
0.282828
-4
0.276923
-4
0.246575
-4
0.197368
-4
0.364865
-4
0.277778
-4
0.240964
-4
0.295455
-4
0.291667
-4
0.306818
-4
0.231707
-4
0.410959
-4
0.247191
-4
0.375
-4
0.277228
-4
0.318182
-4
0.302632
-4
0.352941
-4
0.408451
-4
0.409639
-4
0.408451
-4
0.388889
-4
0.26087
-4
0.340659
-4
0.349515
-4
0.22093
-4
0.337662
-4
0.212963
-4
0.226667
-4
0.27451
-4
0.392857
-4
0.379747
-4
0.276316
-4
0.15
-4
0.434343
-4
0.253012
-4
0.226667
-4
0.24359
-4
0.281818
-4
0.232558
-4
0.274725
-4
0.255556
-4
0.430108
-4
0.295775
-4
0.351351
-4
0.284211
-4
0.247619
-4
0.340426
-4
0.232877
-4
0.247312
-4
0.328767
-4
0.25
-4
0.430556
-4
0.320513
-4
0.252874
-4
0.386364
-4
0.268293
-4
0.295455
-4
0.3125
-4
0.358974
-4
0.292135
-4
0.304762
-4
0.324324
