-4
0
-4
0
-4
0.00322581
-4
0
-4
0.0170383
-4
0
-4
0.0159677
-4
0
-4
0.0183021
-4
0.0223487
-4
0
-4
0
-4
0
-4
0
-4
0
-4
0.000604869
-4
0
-4
0.0188629
-4
0.0262827
-4
0.0317551
-4
0.0110902
-4
0
-4
0
-4
0.00251031
-4
0.00198038
-4
0
-4
0
-4
0.0101193
-4
0
-4
0.00192453
-4
0
-4
0.0234829
-4
0
-4
0
-4
0
-4
0.0116346
-4
0.00121852
-4
0.0225415
-4
0.0116625
-4
0.0470061
-3
0.00991492
-4
0.0056746
-4
0.018394
-4
0.00161414
-4
0
-4
0
-4
0
-4
0
-4
0.026079
-4
0.0561974
-4
0.00700665
-4
0.0166856
-4
0.000316081
-4
0
-4
0
-4
0.0215984
-4
0.0320415
-4
0.0489688
-4
0.0112096
-4
0.0355801
-4
0.0314159
-4
0.0226848
-4
0.00128123
-4
0
-4
0.0124178
-4
0.0181537
-4
0.018906
-4
0.0028079
-4
0.0105566
-4
0.0098237
-4
0.00879375
-4
0
-4
0
-4
0
-4
0
-4
0
-4
0.00715355
-4
0.00176535
-3
0.00820666
-4
0
-4
0.0147557
-4
0.0278689
-4
0
-4
0
-4
0.00469259
-4
0
-4
0.000660502
-4
0
-4
0.0309322
-4
0.013291
-4
0.015617
-4
0.0329394
-4
0
-4
0
-4
0
-4
0.047453
-3
0.0481209
-4
0.0390742
-4
0
-4
0.00510832
-4
0.0312097
-4
0.00110241
-4
0
-4
0.00449438
-4
0.00871389
-4
0
-4
0
-4
0.0397906
-4
0
-4
0
-4
0.0317021
-4
0.0225637
-4
0
-3
0
-4
0
-4
0.00915435
-4
0.0200219
-4
0.00500437
-4
0.0207582
-4
0.00873793
-4
0
-4
0.000146381
-4
0
-4
0
-4
0.00226415
-4
0
-3
0.0143075
-4
0.0196198
-4
0.0140063
-4
0
-4
0.000289687
-4
0
-4
0
-4
0
-4
0
-4
0
-4
0.02009
-3
0.0241355
-4
0
-4
0
-4
0.0202573
-4
0.000958105
-4
0.00105384
-4
0
-4
0
-4
0.00598543
-4
0
-4
0
-4
0
-4
0.0272418
-4
0
-4
0
-4
0.0165112
-4
0.00382392
-4
0
-4
0
-4
0
-4
0.0227208
-4
0.0025643
-4
0
-4
0.0108853
-4
0.0316325
-4
0.00473934
-4
0
-4
0
-4
0
-4
0.00528169
-4
0.0111682
-4
0.00563408
-4
0
-4
0
-4
0
-4
0
-4
0.00093081
-4
0
-4
0
-4
0
-4
0.011452
-4
0.00466379
-4
0.0151339
-4
0.00847099
-4
0
-4
0.0469425
-4
0
-4
0
-4
0
-4
0
-4
0
-3
0.0101518
-4
0.000347252
-4
0
-4
0
-4
0.00890563
-4
0.00107643
-4
0
-4
0
-4
0.0207958
-4
0.0240791
-4
0
-4
0.00770561
-4
0.0388696
-4
0
-4
0.0551434
-4
0
-4
0
-4
0
-4
0
-4
0.0113773
-4
0.00779199
-4
0
-4
0
-4
0
-4
0.0293976
-4
0.00239146
-4
0.000466581
-4
0
-4
0.0127729
-4
0.0122095
-4
0
-4
0
-4
0
-4
0.0130798
-4
0
-4
0
-4
0
-4
9.12326e-05
-4
0.0104451
-4
0.0173668
-3
0.0143126
-4
0
-4
0
-4
0.0126267
-4
0.0258485
-4
0
-4
0
-4
0
-4
0.0426683
-4
0
-4
0.0183906
-4
0.00516118
-4
0.0194272
-4
0.00383409
-4
0.00404676
-4
0
-4
0
-3
0.0527545
-4
0.011881
-4
0.00332361
-4
0.0104669
-4
0
-4
0
-4
0
-4
0
-4
0
-4
0.00605816
-4
0.00705882
-4
0.0357298
-4
0
-4
0
-4
0.00543735
-4
0.0232103
-4
0
-4
0
-3
0.0134022
-4
0
-4
0
-4
0
-4
0.0355057
-4
0.0194996
-4
0
-4
0
-4
0.000673401
-4
0
-4
0.00135657
-4
0
-4
0.0188578
-4
0.0292942
-4
0
-4
0
-4
0.0204372
-4
0
-4
0
-4
0.0260471
-4
0.0418433
-4
0.00589784
-4
0
-4
0
-4
0
-4
0
-4
0
-4
0
-4
0.00858718
-4
0
-4
0.0259028
-4
0.0441837
-4
0.0362295
-4
0.00832285
-4
0
-4
0.0506777
-4
0.0345827
-4
0
-3
0.0189414
-4
0.0147306
-4
0
-4
0.0164737
-4
0.0488899
-4
0
-4
0.0257897
-4
0.00627881
-4
0.0604648
-4
0
-4
0.0293495
-4
0
-4
0
-4
0.0014446
-4
0.00904455
-4
0.0200471
-4
0.0412172
-4
0
-4
0.029545
-4
0.0312317
-4
0
-4
0.010745
-4
0
-4
0.015949
-4
0.00568266
-4
0
-4
0
-4
0.00828681
-4
0.000157381
-4
0.00906843
-4
0
-3
0.00404945
-4
0.000381534
-4
0.0537123
-4
0.0123264
-4
0.00108155
-4
0.0153766
-4
0.0036299
-4
0.00210421
-4
0
-4
0
-3
0.0135421
-4
0
-4
0.0725887
-4
0.0146262
-4
0
-4
0
-4
0.0212522
-4
0.00537464
-4
0.00538938
-4
0.0189954
-4
0.0211996
-4
0.0142846
-4
0.00223417
-4
0
-3
0.010964
-4
0.0224659
-4
0
-4
0.00393944
-3
0.0284141
-4
0
-4
0
-4
0.0220968
-4
0
-4
0.0481257
-4
0.0164436
-4
0
-4
0.00299632
-4
0.0246804
-4
0
-4
0.00737916
-4
0.00602042
-4
0.0268909
-4
0.00458897
-4
0
-4
0
-4
0.00728661
-4
0
-4
0.0313124
-4
0
-4
0.0132803
-4
0
-4
0.00319462
-4
0
-4
0
-4
0.0141626
-4
0.020211
-4
0
-4
0
-4
0.00584624
-4
0.00432037
-3
0.063965
-4
0.00520283
-4
0
-4
0.0182459
-4
0
-4
0.0116906
-4
0.00192979
-4
0
-4
0.0385418
-4
0.000101688
-4
0
-4
0.0158048
-4
0
-4
0
-4
0
-4
0.010812
-4
0
-4
0.0515976
-4
0.0257455
-4
0.00110548
-4
0.00071508
-4
0
-4
0
-4
0
-4
0
-4
0.0163028
-4
0
-4
0
-4
0.0476096
-4
0.0201365
-4
0.0319489
-4
0
-4
0.0310727
-4
0.0509891
-4
0
-3
0.0127408
-4
0
-4
0.00178827
-4
0.00385121
-4
0
-4
0.0275616
-4
0.000785932
-4
0.034192
-4
0.00789333
-4
0
-4
0
-4
0
-4
0.00420875
-4
0
-4
0
-4
0.00193388
-4
0
-4
0.00273865
-4
0.0320327
-4
0.034232
-4
0.0028414
-4
0.0088476
-4
0
-4
0
-4
0.00262198
-4
0.024204
-4
0
-4
0
-4
0
-4
0.0108424
-4
0
-4
0.0167029
-4
0.0102847
-4
0.0285134
-4
0.0198011
-4
0
-4
0
-4
0.00736663
-4
0.0137585
-4
0.0418709
-4
0
-4
0
-4
0
-4
0
-4
0
-4
0.0358061
-4
0
-4
0
-4
0.0064503
-4
0
-4
0.00503574
-4
0.0099742
-4
0.00870014
-3
0.000619723
-4
0.0306394
-4
0
-4
0
-4
0.0187592
-4
0
-4
0
-4
0.0519155
-4
0
-4
0.0219374
-4
0
-4
0
-4
0
-4
0
-4
0.100186
-4
0
-4
0.0255195
-4
0
-4
0
-4
0.0248756
-4
0.0332479
-4
0.00482111
-4
0
-4
0
-4
0.0142529
-4
0.0222549
-4
0
-4
0
-4
0.0127811
-4
0.0254909
-4
0
-4
0.00612141
-4
0.00374298
-4
0.0040858
-3
0.0101067
-4
0.0231324
-4
0
-4
0
-4
0.0229867
-4
0.0104081
-4
0
-4
0.00299238
-3
0.0160505
-4
0.00749211
-4
0.00803244
-4
0.0219501
-4
0
-4
0
-4
0
-3
0.0268165
-4
0.0125671
-4
0.0100549
-4
0.00765997
-4
0
-4
0.00473726
-4
0.000857032
-4
0.0188194
-4
0
-4
0.00675238
-4
0
-4
0.00969564
-4
0.00529744
-4
0.000965158
-4
0
-4
0.0116973
-4
0
-4
0
-4
0.0474517
-4
0
-4
0.0228405
-4
0.0207739
-4
0.0403062
-4
0
-4
0.0158329
-3
0.0297167
-4
0
-4
0.0289782
-4
0
-4
0.0188411
-4
0
-4
0.0357056
-4
0.000428266
-4
0.0581675
-4
0.0163009
-4
0
-4
0
-4
0.0451872
-4
0
-4
0.0321078
-4
0
-4
0.0224183
-4
0.0127169
-4
0
-4
0
-4
0
-4
0
-4
0.0360994
-4
0
-4
0.020352
-3
0.0103377
-4
0
-4
0.00893073
-4
0
-4
0
-4
0.000571265
-4
0
-4
0.0411204
-4
0
-4
0.000231401
-4
0.000515145
-4
0
-4
0.0917938
-4
0
-4
0
-4
0
-4
0
-4
0
-4
0
-4
0
-4
0.0332103
-4
0.00532319
-3
0.0265124
-4
0
-4
0
-3
0.0132734
-4
0.00100008
-4
0.0313976
-4
0.0223434
-4
0.0353953
-4
0.00863989
-4
0.0209521
-4
0.0041234
-4
0
-4
0.0243576
-4
0
-4
0
-4
0.00330225
-4
0.033391
-4
0.00138063
-4
0.0271523
-4
0.0149287
-4
0
-4
0.050867
-4
0
-4
0
-4
0.0134714
-4
0.0143856
-4
0.000847009
-4
0
-4
0
-4
0
-4
0.0039185
-4
0.0242075
-4
0
-4
0
-3
0.0334596
-4
0.0161108
-4
0.00175698
-4
0.0265342
-4
0
-4
0.0329364
-4
0.0429002
-4
0.0213493
-4
0
-4
0.0246431
-4
0
-4
0
-4
0.015476
-4
0
-4
0
-4
0.0240692
-4
0.00198076
-4
0
-4
0
-4
0.00249377
-4
0
-4
0
-4
0.0149778
-4
0.00221423
-4
0
-4
0.0341231
-4
0
-4
0
-3
0.0193795
-4
0
-4
0.00934356
-4
0.00373308
-4
0.03005
-4
0
-4
0
-4
0.00404564
-4
0.000182832
-4
0.00498584
-4
0.00110978
-4
0.0215859
-3
0.00195014
-4
0.000770475
-4
0.0112289
-4
0.0162413
-4
0.00546041
-3
0.00169492
-4
0
-4
0.0232713
-4
0
-4
0
-4
0.0190518
-4
0
-4
0.00275561
-4
0
-4
0.0365481
-4
0
-4
0
-4
0.0421125
-4
0
-4
0
-4
0.00039116
-4
0.0159327
-4
0.00236451
-4
0
-4
0
-4
0.0327434
-4
0.0049768
-4
0.0143281
-4
0.00898045
-4
0.000225861
-4
0
-4
0.0152234
-4
0
-4
0
-4
0
-4
0.0306868
-4
0
-4
0
-4
0
-4
0
-4
0
-4
0
-4
0.00078125
-4
0.0294585
-4
0
-4
0
-4
0.0179485
-4
0.0243161
-4
0
-4
0
-4
0.0078217
-4
0.0309472
-4
0.0344528
-4
0
-4
0.0506239
-4
0.0206081
-4
0
-4
0.0451582
-4
0
-4
0
-4
0.0203179
-4
0
-4
0.00297639
-4
0.0107564
-4
0
-4
0
-4
0
-4
0.0164089
-4
0
-4
0.00853089
-4
0
-4
0.00178229
-4
0.00523104
-4
0.00858128
-4
0.00514359
-4
0
-4
0.00160302
-4
0
-3
0.0148608
-4
0.00225734
-4
0
-4
0
-4
0.00492118
-4
0
-4
0.00738111
-4
0
-4
0.00724038
-4
0
-4
0
-4
0
-4
0
-4
0
-4
0
-4
0.0285413
-4
0
-4
0.00199867
-3
0.0245778
-4
0
-4
0.0603175
-4
0.0233194
-4
0
-4
0.0340349
-4
0
-4
0.000364033
-4
0.0375834
-4
0.00275115
-4
0.0339787
-4
0
-4
0
-4
0.000666333
-4
0
-4
0.0327769
-4
0
-4
0
-4
0.0185428
-4
0
-4
0.00426416
-4
0.0427494
-4
0
-4
0.00215127
-4
0.00131258
-4
0.00485075
-4
0
-4
0
-4
0.00279285
-4
0.0440365
-4
0.0225948
-4
0
-3
0.0239331
-4
0.0346658
-4
0
-4
0.00289663
-4
0
-4
0.0241089
-4
0
-4
0.00423839
-4
0.0172388
-4
0
-4
0
-4
0.0193817
-4
0
-4
0
-4
0.000295916
-4
0.0410376
-4
0
-4
0.0229694
-4
0.029512
-4
0.0217371
-4
0.00615163
-4
0
-4
0
-4
0.0152792
-4
0.0241731
-4
0
-4
0.0015731
-4
0.00416818
-4
0
-4
0
-4
0
-4
0.0166695
-4
0
-4
0
-4
0
-4
0.0189596
-4
0.0120349
-4
0
-4
0.0167741
-4
0.011842
-4
0
-4
0
-4
0
-4
0.0046683
-4
0
-4
0.0204753
-4
0
-4
0
-4
0
-4
0.00114195
-4
0
-4
0
-4
0.00447628
-4
0
-4
0
-4
0.0329298
-4
0.000100351
-4
0.00215672
-4
0.0117096
-4
0.00283328
-4
0
-4
0.0199464
-4
0
-4
0
-4
0.00354341
-4
0.00471185
-4
0.0223331
-4
0
-4
0.0262463
-4
0
-4
0
-4
0.0226067
-4
0.012191
-4
0
-4
0.0274507
-4
0
-4
0.0108364
-4
0.00903238
-4
0
-4
0.00966003
-4
0.0213874
-4
0
-4
0
-4
0
-4
0
-4
0
-4
0
-4
0.00122077
-4
0.001665
-4
0.00197332
-4
0.0020221
-3
0.0141223
-4
0.0381049
-4
0.003361
-4
0.0101702
-4
0.0174754
-4
0
-4
0.0183595
-4
0
-4
0
-4
0.0121808
-4
0
-4
0
-4
0.0506383
-4
0.0587522
-4
0.0333444
-4
0.00505201
-4
0
-4
0.006
-4
0
-4
0.0247634
-4
0
-4
0
-3
0.00458788
-4
0.0546982
-4
0.00193015
-4
0.0188413
-4
0.00780458
-4
0
-4
0.00462497
-4
0.0215722
-4
0.0144139
-4
0
-4
0.00540401
-4
0.00445942
-4
0.000179372
-4
0
-4
0
-4
0.0146722
-4
0.00176741
-4
0
-4
0.0110445
-4
0.0358513
-4
0
-4
0
-4
0
-4
0.0112944
-4
0.00555914
-4
0
-4
0
-4
0
-4
0.0557969
-4
0
-4
0
-4
0.0245015
-4
0
-4
0
-4
0.00919603
-4
0.0188224
-4
0
-4
0.0278628
-4
0
-4
0
-4
0.0496668
-4
0
-4
0
-4
0.00905281
-4
0
-4
0.0304841
-4
0.0315071
-4
0.00484359
-4
0.00140919
-4
0
-4
0.0222514
-4
0.0125154
-4
0.034618
-4
0.0831286
-4
0
-4
0.0140038
-4
0
-4
0.09357
-4
0
-4
0.0220316
-4
0.0188854
-4
0.00282554
-4
0
-4
0.0362834
-4
0.0149447
-4
0
-4
0
-4
0
-4
0
-4
0.00360794
-4
0
-4
0.0272659
-4
0.028926
-4
0.0195106
-4
0.0439109
-3
0.0276876
-4
0.00443084
-3
0.0138245
-4
0
-4
0.000155727
-4
0
-4
0
-4
0.00539385
-4
0
-4
0
-4
0
-4
0.0182969
-3
0.0203122
-4
0
-4
0
-4
0
-4
0.0329864
-4
0
-4
0.0190088
-4
0.0104472
-4
0.0395532
-4
0
-4
0
-4
0
-4
0
-4
0
-4
0
-4
0.0175637
-4
0
-4
0.031202
-4
0.0274242
-4
0
-4
0.0329178
-4
0.00837249
-3
0.00390283
-4
0
-4
0.00734668
-4
0.00910639
-4
0
-4
0.00162451
-4
0.0012333
-4
0.028126
-4
0
-4
0
-4
0.0266667
-4
0
-4
0.00582807
-4
0.0187217
-4
0.00296324
-4
0
-4
0
-4
0.00625661
-4
0.0200281
-4
0
-4
0.0132071
-4
0
-4
0
-4
0
-4
0
-4
0
-4
0
-4
0
-4
0.0405253
-4
0
-4
0
-4
0.00385852
-3
0.0381372
-4
0.00917987
-4
0.0216659
-4
0
-4
0.0185613
-4
0.00452391
-4
0.0292763
-4
0
-4
0.00523599
-4
0
-4
0.0129892
-4
0
-4
0
-4
0.00103226
-4
0
-4
0.0283961
-4
0.0322473
-4
0.000506432
-4
0
-4
0.00200842
-4
0.0214763
-4
0
-4
0.0171496
-4
0.0650282
-4
0.00616363
-4
0
-4
0.0180302
-4
0.014323
-4
0.0119766
-4
0
-4
0.0415413
-4
0
-4
0
-4
0.000949586
-4
0
-4
0
-4
0.000816593
-4
0
-4
0
-4
0.0310574
-4
0.015771
-4
0.00463706
-4
0.0021019
-4
0
-4
0.0219752
-4
0
-4
0.00226472
-4
0
-4
0.00605399
-4
0.014959
-4
0.0280866
-4
0.00591504
-4
0.044861
-4
0
-4
0.00469738
-4
0
-4
0.022753
-4
0
-4
0.00738328
-4
0
-3
0.000838574
-4
0.0325027
-4
0.0268237
-4
0.0478555
-4
0.00682594
-4
0.00350325
-4
0.0244938
-4
0
-4
0.0189397
-4
0.00887795
-4
0.0162478
-4
0
-4
0.00681508
-4
0
-4
0
-4
0.0175855
-4
0.0127822
-4
0.000663962
-4
0
-4
0.0138598
-4
0.00025325
-3
0.0316692
-4
0
-4
0.00334472
-4
0
-3
0.020529
-4
0.0010089
-4
0
-4
0.000326078
-4
0.0210066
-4
0.037687
-4
0.0176119
-3
0.0169256
-4
0.0201001
-4
0.0028875
-4
0
-4
0
-4
0
-4
0.0240345
-4
0
-4
0
-4
0.00739713
-4
0.0426947
-4
0.0381182
-4
0.0332465
-4
0
-4
0.0243159
-4
0
-4
0
-4
0
-4
0
-4
0.0236507
-4
0.0145783
-4
0.0102819
-4
0
-4
0
-4
0
-4
0
-4
0
-4
0.0004504
-4
0.00176025
-4
0
-4
0.00117786
-4
0
-4
0.00630856
-4
0.0287285
-4
0
-4
0.0263785
-4
0
-4
0
-4
0.0304074
-4
0
-4
0
-4
0.0443599
-4
0
-4
0
-4
0
-4
0.00342921
-4
0.0120677
-4
0.00436187
-4
0.034442
-4
0
-4
0
-4
0
-4
0.0426259
-4
0
-4
0
-4
0.02522
-4
0.00138711
-4
0
-4
0.0185009
-4
0.0309973
-4
0.0483072
-4
0
-4
0.0139189
-4
0.00686092
-4
0.0188709
-4
0.0100535
-4
0
-4
0
-4
0.0142875
-4
0.0237051
-3
0.00610736
-4
0.00878086
-4
0.00903804
-4
0.0348668
-4
0
-4
0.0367932
-4
0.0129263
-4
0
-4
0.00439399
-4
0.0444233
-4
0.00488132
-4
0.00682901
-4
0.00253911
-4
0.0546423
-4
0.034269
-4
0.0203859
-4
0.00123528
-4
0
-4
0
-4
0.0421253
-4
0
-4
0.0340037
-4
0.0224666
-4
0
-4
0
-4
0.073654
-4
0.0162824
-4
0.00464531
-4
0.0276059
-4
0.0300994
-4
0
-4
0
-4
0.0273332
-4
0.0438553
-4
0.0079273
-4
0.0440153
-4
0.0293493
-4
0.00424316
-3
0.000810671
-4
0.00165581
-4
0.0196741
-4
0.0683001
-4
0.00710942
-4
0
-4
0
-4
0.00665331
-4
0.00209328
-4
0
-4
0
-4
0.0204924
-4
0
-4
0.0526932
-4
0.0153374
-4
0.0192685
-4
0
-4
0
-4
0
-4
0
-4
0
-4
0.0297994
-4
0
-4
0
-3
0.0166694
-4
0
-4
0
-4
0
-4
0
-4
0.0083581
-4
0.0134668
-4
0
-4
0
-4
0
-4
0.00912329
-4
0.0536738
-4
0
-4
0
-4
0
-4
0
-4
0.00935215
-4
0
-4
0
-4
0
-4
0.0218579
-4
0
-4
0.00769928
-4
0.0196609
-4
0.0332421
-4
0
-4
0.0538821
-4
0
-4
0.00344037
-4
0.00219361
-4
0.0112069
-4
0.028482
-4
0.0694367
-4
0.0010555
-4
0.0539423
-4
0
-4
0.00676002
-4
0.00593807
-4
0.0137703
-4
0
-4
0.00168391
-4
0
-4
0
-4
0
-4
0
-4
0.0242713
-4
0
-4
0
-4
0.00348944
-4
0.0502858
-4
0.0186628
-3
0.0215782
-4
0.0074474
-4
0
-4
0
-4
0
-4
0.011812
-4
0
-4
0.00122026
-3
0.000547758
-4
0.00381114
-4
0.0268999
-4
0.0231914
-4
0.0448551
-4
0.00944357
-4
0
-4
0
-4
0.00101688
-4
0
-4
0.0184866
-4
0.00758534
-4
0.0307637
-4
0.00567286
-4
0.0199422
-4
0.0273245
-4
0
-4
0.0438027
-4
0.00145919
-4
0
-4
0.00164042
-4
0.0308032
-4
0
-4
0.0307257
-4
0
-4
0
-4
0.0417457
-4
0
-4
0.042623
-4
0.00999263
-4
0
-3
0.0124085
-4
0
-4
0.0643279
-4
0.0288901
-4
0
-4
0
-4
0
-4
0
-4
0.0145778
-4
0
-4
0
-4
0
-4
0
-4
0.0363919
-4
0
-4
0.0234301
-4
0.0368952
-4
0
-4
0.000455166
-4
0.00487485
-4
0.037511
-4
0
-4
0
-4
0
-4
0.0120584
-4
0.0175002
-4
0.062371
-4
0.0225126
-4
0.0247825
-4
0
-4
0.00921861
-4
0.0262154
-4
0
-4
0.01837
-4
0.0243758
-4
0
-4
0
-4
0.065622
-4
0
-4
0
-4
0
-4
0
-4
0
-4
0.00870534
-4
0
-4
0.0799672
-4
0.0527303
-4
0.0409894
-4
0.0265377
-4
0.0153053
-4
0.012489
-4
0.0547733
-4
0
-4
0
-4
0.00521622
-4
0.0556815
-4
0.0377795
-4
0
-4
0
-4
0
-4
0.00665132
-4
0.0274288
-4
0.0204187
-4
0.00640886
-4
0
-4
0.00453425
-4
0.00316283
-4
0
-4
0.0428929
-4
0
-4
0.0227006
-3
0.0289599
-4
0
-4
0.0348004
-3
0.00393942
-4
0
-4
0
-4
0.00497066
-4
0.0397956
-4
0.00919068
-4
0.0473961
-4
0.0106653
-4
0
-4
0
-4
0.00940797
-4
0
-4
0
-4
0
-4
0.0106793
-4
0.0046351
-4
0.00390185
-4
0
-4
0
-4
0
-4
0.000561032
-4
0.00346432
-4
0
-4
0
-4
0.0381563
-4
0.00260951
-4
0.00409453
-4
0.00618664
-4
0.00773388
-4
0.0111487
-4
0.0356577
-4
0
-4
0
-4
0
-4
0.0681495
-4
0
-4
0.0280569
-4
0
-4
0
-4
0.0155838
-4
0.00170038
-4
0.0154032
-4
0
-4
0.0188694
-4
0
-4
0.0245047
-4
0
-4
0
-4
0.0171042
-4
0.000306654
-4
0.0113413
-4
0
-3
0.0207794
-4
0
-4
0.0165108
-4
0.0313537
-4
0.0560279
-4
0
-4
0
-4
0.00962963
-3
0.00614638
-4
0.0326535
-4
0
-4
0.00382175
-4
0
-4
0.00454622
-4
0.00673975
-4
0.0212487
-4
0.0113474
-4
0.0404764
-4
0.0100881
-4
0
-4
0.000794562
-4
0
-4
0.0129766
-4
0.00425611
-4
0.028727
-4
0
-4
0.0125685
-4
0.0339234
-4
0.0162039
-4
0
-4
0
-4
0.000257467
-4
0
-4
0
-4
0
-4
0.00604451
-4
0.0231489
-4
0.00202041
-4
0
-4
0
-4
0.0433223
-4
0
-4
0.0109618
-4
0
-4
0.000558243
-4
0.00977472
-4
0
-4
0
-4
0.0375147
-4
0.00113063
-4
0.0151733
-4
0
-4
0
-4
0
-4
0
-4
0.0234297
-4
0
-4
0
-4
0.0190573
-4
0
-4
0.00113173
-4
0.0450278
-4
0.000761486
-4
0.0225039
-4
0
-4
0
-4
0
-4
0.00902235
-4
0
-4
0
-4
0
-4
0.0113522
-4
0
-4
0.00644617
-4
0.00896449
-4
0
-4
0.0157957
-4
0
-4
0.0114137
-4
0.0287738
-4
0.00051488
-4
0
-4
0
-4
0
-4
0.038753
-4
0.0249128
-4
0.0239238
-4
0
-4
0.0165655
-4
0.00144895
-4
0.0411847
-4
0
-4
0
-4
0.00950038
-4
0
-4
0
-4
0
-4
0
-4
0.0121367
-4
0.00303951
-4
0
-4
0.00425095
-3
0.000918887
-4
0
-4
0.029166
-4
0
-4
0.0110063
-4
0.00561458
-4
0.0081588
-4
0.000598176
-4
0.00424012
-4
0
-4
0.0173246
-4
0
-4
0.0273491
-4
0.0452683
-4
0
-4
0
-4
0.00887044
-4
0.00500918
-4
0.0268115
-4
0
-4
0
-4
0.00769551
-4
0
-4
0.0210462
-4
0.00216562
-4
0
-4
0.0070071
-4
0
-4
0
-4
0
-4
0
-4
0.00158714
-4
0.0249365
-4
0.0196404
-4
0.0178672
-4
0
-4
0.0300667
-4
0.00738007
-4
0
-4
0.0216973
-4
0.00139762
-4
0.0505066
-4
0.00158541
-4
0.0072387
-4
0.0224071
-4
0
-4
0.0274013
-4
0
-4
0
-4
0.0304237
-4
0.00249946
-4
0
-4
0.0257267
-4
0
-4
0
-4
0
-4
0
-4
0.0145019
-4
0.0069735
-4
0
-4
0.018347
-4
0.0246022
-4
0
-4
0.0217228
-4
0.0234452
-3
0.0426416
-4
0
-4
0
-4
0.0219447
-4
0
-3
0.0121685
-4
0.0086363
-4
0.00700954
-3
0.0326666
-4
0
-4
0
-4
0.00399407
-4
0
-4
0
-4
0
-4
0
-4
0.000252908
-4
0.0488559
-4
0.0343733
-4
0.0114885
-4
0
-4
0
-3
0.0452083
-4
0.0332203
-4
0.0164831
-4
0.0293102
-4
0
-4
0
-4
0
-4
0
-4
0
-4
0.0187083
-4
0.0514825
-4
0.047539
-4
0
-4
0.0103806
-4
0.0265845
-4
0
-4
0
-4
0
-4
0
-4
0.0174553
-4
0.00644623
-4
0
-4
0.00838453
-4
0
-4
0.00860807
-4
0.0368481
-4
0.000808653
-4
0
-4
0.0462819
-3
0.00101773
-4
0
-4
0.0131527
-3
0.0216689
-4
0.0474998
-4
0
-4
0.0134812
-4
0
-4
0
-4
0
-4
0
-4
0.0467993
-3
0.0235879
-4
0
-4
0
-4
0.0226898
-4
0
-4
0.0403096
-4
0
-4
0
-4
0
-4
0.0160981
-4
0
-4
0
-4
0
-4
0.0192399
-4
0
-4
0.0113398
-4
0.0122176
-4
0.0250977
-4
0
-4
0.0246685
-4
0
-4
0.0180734
-4
0
-4
0
-4
0
-4
0.0170049
-4
0
-4
0
-4
0.0304734
-4
0
-4
0.0544267
-4
0.00411794
-4
0.00761939
-4
0
-4
0.0376125
-4
0
-4
0
-4
0.00875476
-4
0
-4
0
-4
0
-4
0.027962
-4
0
-4
0.00430736
-4
0.0118421
-4
0.0474557
-4
0
-4
0.0152717
-4
0.00219029
-4
0.0117707
-4
0.0123849
-4
0.0278671
-4
0
-4
0.000335758
-4
0.0045977
-4
0.0329393
-4
0
-4
0
-4
0.0145393
-4
0
-4
0.02008
-4
0
-4
0
-4
0.00179007
-4
0
-4
0.0258441
-4
0.00735421
-4
0
-4
0
-4
0
-4
0.0450277
-4
0.00365999
-4
0
-4
0
-4
0
-4
0.019587
-4
0.0408277
-4
0.0205293
-4
0.0184779
-4
0.0376645
-3
0.0385608
-4
0
-4
0.00269134
-4
0
-4
0
-4
0
-4
0.039713
-4
0.0117161
-4
0
-4
0
-4
0
-4
0.0474943
-4
0.00621908
-4
0
-4
0
-4
0.00254194
-4
0.0282606
-4
0.0262432
-4
0.0183453
-4
0.00256257
-4
0
-4
0.0146063
-4
0
-4
0.0204592
-4
0.0164396
-4
0.0593607
-4
0
-4
0
-4
0
-4
0.0107832
-4
0
-4
0.0121791
-4
0
-4
0.0319338
-4
0
-4
0.0271421
-4
0
-4
0
-4
0.00491778
-4
0.0143695
-4
0
-4
0
-4
0
-4
0.00123839
-4
0
-4
0
-4
0.00154095
-4
0.0265626
-4
0.0132231
-4
0
-4
0
-4
0
-4
0.0203683
-4
0.0122768
-4
0.00628987
-4
0
-4
0
-4
0.000332474
-4
0
-4
0.0125676
-4
0.0266612
-4
0
-4
0.0272087
-4
0.0144653
-4
0.0288054
-4
0.0688486
-4
0.000462364
-4
0.0145024
-4
0.0625355
-4
0
-4
0
-4
0
-4
0
-4
0.0252406
-4
0.019083
-4
0
-4
0.0150997
-4
0
-4
0
-4
0.00757752
-4
0.0119252
-4
0.00380899
-4
0
-4
0.0137115
-4
0
-4
0
-4
0
-4
0.000980654
-4
0.0547183
-4
0.0076134
-4
0.00967622
-4
0.00939672
-4
0
-4
0
-4
0.0132403
-4
0.0347481
-4
0.00312819
-4
0
-4
0.0610044
-4
0.00920221
-4
0.0130138
-4
0.00106771
-4
0
-4
0
-3
0.0352833
-4
0.00172861
-4
0.0213862
-4
0.0212192
-4
0.00339603
-4
0
-4
0
-4
0.0337303
-4
0
-3
0.00929504
-4
0.00173265
-4
0.0381993
-4
0.0378826
-4
0.0170014
-4
0
-4
0.0240394
-4
0.008521
-4
0
-4
0.0435709
-4
0
-4
0
-4
0.00601694
-4
0.0698285
-4
0
-4
0
-4
0
-4
0
-4
0
-4
0
-4
0.00405521
-4
0
-4
0
-4
0
-4
0.0227418
-4
0
-4
0
-4
0.00121994
-4
0
-4
0.00529334
-4
0.0145748
-4
0
-4
0.0417386
-4
0
-4
0
-4
0.0179187
-4
0
-4
0
-4
0
-4
0
-4
0.0435356
-4
0
-4
0.0212806
-4
0.000683839
-4
0.0278468
-4
0
-4
0
-4
0
-4
0.0156614
-4
0.00436167
-4
0.00403487
-4
0
-4
0.00814616
-4
0
-4
0.000611034
-4
0.00615151
-4
0.019002
-4
0.0261328
-4
0
-4
0
-4
0
-4
0.0323093
-4
0
-4
0.0160109
-4
0.046727
-4
0
-4
0
-4
0
-4
0
-4
0.0151976
-4
0
-4
0
-4
0
-4
0.0209083
-4
0.0196293
-4
0.0103622
-4
0
-4
0.0149899
-4
0
-4
0.0220738
-4
0
-4
0.00243134
-4
0.0202532
-4
0.0116246
-4
0.0145267
-4
0
-4
0.00196117
-4
0
-4
0.00425609
-4
0
-4
0.0291394
-4
0.014498
-4
0.0223433
-4
0.0348484
-4
0.0291992
-4
0.00417236
-4
0.00022299
-4
0
-4
0
-4
0
-4
0
-4
0
-4
0
-4
0
-4
0
-4
0
-4
0
-4
0
-4
0.0095103
-4
0
-4
0
-4
0
-4
0.0170062
-4
0
-4
0.00847458
-4
0
-4
0.0317805
-4
0.0218984
-4
0.0159164
-4
0.0181478
-4
0.0487706
-4
0
-4
0.0281426
-4
0
-4
0.000276243
-3
0.00445196
-4
0.0189929
-4
0
-4
0.00132275
-4
0.00906507
-4
0.046902
-4
0
-4
0
-4
0.00806637
-4
0
-4
0
-4
0
-4
0
-4
0
-4
0.0216216
-4
0
-4
0.0457099
-4
0.00698363
-4
0
-4
0
-4
0
-4
0.0260331
-4
0
-4
0
-4
0.00792127
-4
0.0127593
-4
0.00680879
-4
0.0280141
-4
0.00044236
-4
0.0084122
-4
0
-4
0.00522588
-4
0
-4
0.00824609
-4
0.0387426
-4
0.0389906
-4
0.0135659
-4
0
-4
0
-4
0.00541586
-4
0
-4
0
-4
0
-4
0.0413859
-4
0.015802
-4
0
-4
0.00629365
-4
0.00679604
-4
0
-4
0
-4
0
-4
0.0372707
-4
0.0164534
-4
0
-4
0.0213926
-4
0.000815062
-4
0.00312853
-4
0.00116891
-4
0
-4
0
-4
0.0144429
-4
0.0198271
-4
0.0219176
-4
0.00112275
-4
0.0238755
-4
0
-4
0
-4
0.000911879
-4
0
-4
0.0108088
-4
0.00683507
-4
0
-4
0
-4
0
-4
0.0193658
-4
0
-4
0
-4
0
-4
0.0138557
-4
0.0137246
-4
0
-4
0.0101523
-4
0.0157084
-4
0.00651857
-4
0.00498683
-4
0
-4
0.000951063
-4
0.024938
-4
0
-4
0.0188679
-4
0.0561518
-4
0.00708003
-4
0
-4
0
-3
0.0585463
-4
0
-4
0
-4
0
-4
0.00393207
-4
0.014076
-4
0.025794
-4
0
-4
0
-4
0
-4
0.0011919
-4
0.0351704
-4
0.0398748
-4
0.00990022
-4
0.0271132
-4
0.00313768
-4
0
-4
0.026709
-4
0
-4
0.00783241
-4
0.0372194
-4
0
-4
0
-4
0.0158666
-4
0
-4
0.00511583
-4
0.0401467
-4
0
-4
0
-4
0.0151192
-4
0
-4
0
-4
0.00379867
-4
0
-4
0.028451
-4
0
-4
0.001864
-4
0.00528583
-4
0.00982962
-4
9.34492e-05
-4
0.039607
-4
0.00135535
-4
0.0227883
-4
0
-4
0.0141768
-4
0
-4
0.0288629
-4
0
-4
0
-4
0.0351264
-3
0.0476876
-4
0
-4
0
-4
0.00737854
-4
0
-4
0
-4
0
-4
0
-4
0.0179165
-4
0.0179198
-4
0.0169085
-4
0
-4
0.00627759
-4
0
-4
0
-4
0.00748538
-4
0.0225205
-4
0.0302418
-4
0.0165877
-4
0.000474271
-4
0.00732771
-4
0
-4
0.00890428
-4
0.00654832
-4
0.0222273
-4
0
-4
0
-4
0.0177504
-4
0
-4
0.00240749
-4
0
-4
0
-4
0.0331323
-4
0.0233852
-4
0
-4
0.019693
-4
0
-4
0.0141404
-4
0
-4
0
-4
0.00681171
-4
0.0270938
-4
0.00133938
-4
0.0339093
-4
0
-4
0
-4
0.00740464
-4
0
-4
0.00031463
-4
0.000418235
-4
0.0177117
-4
0.0229731
-4
0
-4
0
-4
0
-4
0
-4
0
-4
0
-4
0.0237355
-3
0.0251177
-4
0.000435303
-4
0
-4
0.0247918
-4
0.03107
-4
0.0121132
-4
0
-4
0
-4
0.0136407
-4
0.0158113
-4
0.0464851
-4
0
-4
0
-4
0
-4
0
-4
0.00333075
-4
0
-4
0.000302176
-4
0.0577995
-4
0.0303819
-4
0
-4
0
-4
0.00925756
-4
0.00619316
-4
0
-4
0
-4
0.000769704
-4
0.0277027
-4
0.00124046
-4
0.0184068
-4
0
-4
0
-4
0.00066072
-4
0
-4
0.0411638
-3
0.0275566
-4
0.0291966
-4
0
-4
0
-4
0
-4
0.00982801
-4
0.00516148
-4
0.00152733
-4
0
-4
0.0109928
-4
0.0251929
-4
0
-4
0
-4
0.0104135
-4
9.273e-05
-4
0.0102324
-4
0.0178953
-4
0
-4
0.0184988
-4
0.0387689
-3
0.000255276
-4
0.0262198
-4
0.0112974
-4
0
-4
0.0404826
-4
0
-4
0.00475806
-4
0.0311629
-4
0
-4
0.00422097
-4
0.0410348
-4
0.0111538
-4
0
-4
0.0596928
-4
0.0108673
-4
0
-4
0.0175271
-4
0.0193335
-4
0
-4
0
-4
0.00891568
-4
0
-4
0
-4
0.0594567
-4
0
-4
0
-4
0.000863371
-4
0.0296167
-4
0
-4
0.0157794
-4
0
-4
0.0128147
-4
0.0353427
-4
0.00993377
-4
0.00308983
-4
0.00359833
-4
0
-4
0.0591475
-4
0.0202876
-4
0
-4
0
-4
0
-4
0.00613893
-4
0.014331
-4
0.00661455
-4
0.00829764
-4
0
-4
0.0304773
-4
0.0190897
-4
0
-4
0.0108062
-4
0
-4
0
-4
0.026367
-4
0.0189327
-4
0.0157285
-4
0
-4
0
-4
0.0197914
-4
0
-4
0
-4
0
-4
0
-4
0
-4
0
-4
0
-4
0
-4
0.0359603
-4
0
-4
0
-4
0
-4
0.0296673
-4
0.00357864
-3
0.0248283
-4
0
-4
0.010424
-4
0
-4
0.00948429
-4
0.0301105
-4
0.00636635
-4
0.0093893
-4
0
-4
0
-4
0.0238451
-4
0.00450783
-4
0.0438007
-4
0.00748305
-4
0.0360552
-4
0
-4
0
-4
0
-4
0
-4
0
-4
0.0150051
-4
0.0301179
-4
0
-4
0.0497849
-4
0.0586592
-4
0
-4
0.0221464
-4
0
-4
0.000359163
-4
0.0239139
-4
0.0231527
-4
0
-4
0
-4
0
-4
0.00930997
-4
0
-4
0.0117172
-3
0.0194736
-4
0
-4
0.0377211
-4
0
-4
0
-4
0.0171241
-4
0.0204389
-4
0.0214879
-4
0
-4
0.0191888
-4
0.0287175
-4
0
-4
0.0434308
-4
0
-4
0.0132343
-4
0.00266614
-4
0
-4
0
-4
0.00462963
-4
0
-4
0.0204308
-4
0
-4
0.0127875
-4
0
-4
0.0273984
-4
0
-4
0
-4
0
-4
0.0152407
-4
0.00423664
-4
0
-4
0
-4
0.00707934
-4
0
-4
0
-4
0.032467
-4
0
-4
0.0176395
-4
0
-4
0.0100778
-4
0.039887
-4
0
-4
0.0165049
-4
0.00199844
-4
0
-4
0
-4
0
-4
0.0323283
-4
0
-3
0.0013617
-4
0.0211869
-4
0.0448193
-4
0.0243921
-4
0.0098541
-4
0.0355917
-4
0.00710829
-3
0.00337838
-4
0.0168955
-4
0
-4
0.0237652
-4
0
-4
0.0146212
-4
0
-4
0.009
-4
0
-4
0.000517598
-4
0
-4
0.0234408
-4
0.0150514
-4
0
-4
0.0483335
-4
0
-4
0
-4
0
-4
0.0356723
-4
0
-4
0
-4
0
-4
0.00311159
-4
0.0092303
-4
0.0193917
-4
0
-4
0
-4
0
-4
0
-4
0
-4
0.0277705
-4
0.00294818
-4
0.024461
-4
0
-4
0.0407087
-4
0
-4
0
-4
0.0337569
-3
0.00964273
-4
0.0424525
-4
0
-3
0.0319017
-4
0
-4
0.0291804
-4
0
-4
0.0135792
-4
0.00938205
-4
0.0326497
-4
0.00125923
-4
0.0277134
-4
0
-4
0
-4
0.0230736
-4
0
-4
0
-4
0
-4
0.0105719
-4
0
-4
0
-4
0.0355635
-4
0
-4
0
-3
0.0136522
-4
0
-4
0.0365782
-4
0.0178977
-4
0.0238008
-4
0.0501533
-4
0.0282658
-4
0.00167018
-4
0.046948
-4
0
-4
0.0154525
-4
0
-4
0.00974859
-4
0.0316935
-4
0
-4
0.000831774
-4
0.00614713
-4
0.0429233
-4
0.0176642
-4
0.0170531
-4
0.0341503
-4
0.00546045
-4
0.02232
-4
0.0150622
-4
0.00136667
-4
0
-4
0.0410321
-4
0
-4
0.0301494
-4
0
-4
0.00979175
-4
0
-4
0.0107137
-4
0
-4
0
-4
0
-4
0.0355439
-4
0.0256775
-4
0.0316995
-4
0
-4
0
-4
0.00701728
-4
0
-4
0.00624855
-4
0
-4
0
-4
0
-4
0.0126582
-4
0.0251882
-4
0
-4
0
-4
0
-4
0.0277008
-4
0
-4
0.0174918
-4
0.030078
-4
0.0384749
-4
0
-4
0.00677603
-3
0.0126848
-4
0.00440678
-4
0
-4
0
-4
0.0250945
-4
0
-4
0.0161175
-4
0
-4
0
-4
0
-4
0.0148739
-4
0.0405744
-4
0
-4
0.0369537
-4
0
-4
0.000482952
-4
0.0224019
-4
0
-4
0.0138198
-4
0.0425923
-4
0
-4
0.01288
-3
0.00809846
-4
0.000451957
-4
0.056939
-4
0.0267085
-4
0
-4
0.000244678
-4
0
-4
0.0547639
-4
0.00220843
-4
0.00327809
-4
0
-4
0
-4
0
-4
0.024428
-4
0
-4
0.00325795
-4
0.00798651
-4
0
-4
0.00974139
-4
0.0338393
-4
0
-4
0
-4
0.00753125
-4
0
-4
0.00848603
-4
0
-4
0.0415901
-4
0.0208721
-4
0.0404196
-4
8.84408e-05
-4
0.0284146
-4
0.0188501
-3
0.0171816
-4
0.0234648
-4
0.00651422
-4
0
-4
0.0495364
-4
0
-4
0.0165616
-4
0
-4
0
-4
0.0207444
-4
0
-4
0.0277655
-4
0.0203147
-4
0
-4
0
-4
0.015024
-4
0.00165766
-3
0.0102775
-4
0
-4
0
-4
0
-4
0.001358
-4
0
-4
0.000751527
-3
0.016617
-4
0.0266183
-4
0
-4
0
-4
0.0120703
-4
0.00948645
-4
0
-4
0.00441306
-4
0
-4
0.00535695
-4
0
-4
0
-4
0
-4
0
-4
0
-4
0.000840054
-4
0
-4
0.00898225
-4
0.0204588
-4
0
-4
0.00220811
-4
0
-4
0
-3
0.0424974
-4
0
-4
0.0427058
-4
0
-4
0
-4
0.0280306
-4
0.00763719
-4
0
-4
0
-4
0
-3
0.00275136
-4
0.0287912
-4
0.0318246
-4
0
-4
0.0432352
-4
0
-4
0
-4
0.0206584
-4
0.00112282
-4
0
-4
0.0185201
-4
0
-4
0.0206784
-4
0
-4
0.0151148
-4
0.011543
-4
0
-4
0.00355385
-4
0
-4
0
-4
0.0213988
-4
0
-4
0.0249239
-4
0.00788741
-4
0.0317735
-4
0
-4
0
-4
0.0469136
-4
0.0438039
-4
0.00952891
-4
0
-4
0
-4
0.0267113
-4
0.00575496
-4
0
-4
0.0273444
-4
0
-4
0
-4
0.00275825
-4
0.0147223
-4
0.0187233
-4
0.0151985
-4
0.0288286
-4
0
-4
0.0209918
-4
0
-4
0.0227804
-4
0.00368909
-4
0
-4
0
-4
0
-4
0.00671937
-4
0.0126832
-4
0.00288121
-4
0
-4
0.00988884
-4
0.0581245
-4
0
-4
0.0340832
-4
0
-4
0.0129407
-4
0.0205614
-4
0.0115962
-4
0
-4
0
-4
0.0198327
-4
0
-4
0.0387157
-4
0
-4
0.0405455
-4
0.0542212
-4
0
-4
0.0290981
-4
0.0121168
-4
0.0503044
-4
0
-4
0
-4
0
-4
0.02722
-4
0
-4
0.0107186
-4
0
-4
0
-4
0
-4
0.00461651
-4
0.00744772
-4
0.0228169
-4
0
-4
0.0231105
-4
0.0305032
-3
0.0253027
-4
0
-4
0.0143908
-4
0
-4
8.52297e-05
-4
0
-4
0.00645282
-4
0
-4
0
-4
0
-4
0
-4
0.0191098
-4
0.0112782
-4
0.0277248
-4
0.0328717
-4
0
-4
0.00113931
-4
0.00087007
-4
0.0365127
-4
0.00410317
-4
0
-4
0.000747145
-4
0.0379695
-4
0.0355208
-4
0
-4
0.0197392
-4
0.0116999
-4
0
-4
0.0188513
-4
0
-4
0.0362625
-4
0.0296399
-4
0.00672519
-4
0
-4
0.00726185
-3
0.021018
-4
0.0039261
-4
0.0309357
-4
0.00264179
-4
0.016324
-4
0
-4
0.038054
-4
0.0146561
-3
0.0527767
-4
0.0323516
-4
0
-4
0
-4
0.00543031
-4
0.0244275
-4
0.0486286
-4
0
-4
0.0151621
-4
0
-4
0
-4
0
-4
0
-4
0.0119196
-4
0
-4
0
-4
0
-4
0.00196525
-4
0.0374884
-4
0.00725421
-4
0.00356342
-4
0
-4
0.0172904
-4
0.0235105
-4
0.0222841
-4
0
-4
0
-4
0.00164432
-4
0.0104271
-4
0
-3
0.00404858
-4
0
-4
0.0491297
-4
0
-4
0.0286778
-4
0.0247955
-4
0.000717553
-4
0
-4
0
-4
0.0160949
-4
0.0082259
-4
0.0044128
-4
0
-4
0
-4
0.00414022
-4
0.0222605
-4
0.0248375
-4
0.00217781
-4
0.0174149
-4
0.00981811
-4
0
-4
0
-4
0.0132231
-4
0
-4
0
-4
0
-4
0.0215282
-4
0
-4
0
-4
0
-4
0
-4
0.0202818
-4
0.0268063
-4
0.0152392
-4
0.0308465
-4
0
-4
0
-4
0
-4
0
-4
0
-4
0
-4
0.00134578
-4
0.0141832
-4
0.00163988
-3
0.0327124
-4
0
-4
0.019289
-4
0.0239129
-4
0
-4
0.018824
-4
0
-4
0
-4
0.0227599
-4
0.0044159
-4
0
-4
0
-4
0
-4
0.0407276
-4
0.0413737
-4
0.0152531
-4
0.0435187
-4
0
-4
0.00328484
-4
0.012538
-4
0
-4
0.00565513
-4
0
-4
0.0401525
-4
0.00646976
-4
0
-4
0
-4
0.0155846
-4
0.00735294
-4
0.00103068
-4
0.0206479
-4
0.000461467
-4
0
-4
0
-4
0
-4
0
-4
0.0182953
-4
0
-4
0.0285503
-4
0
-4
0
-4
0
-4
0
-4
0
-4
0.00323239
-4
0.000114012
-4
0
-4
0
-4
0.00176612
-4
0
-4
0.00320171
-4
0
-4
0.00463883
-4
0
-4
0
-4
0.0306226
-4
0.00500378
-4
0.0234099
-4
0
-4
0
-4
0
-4
0
-4
0.0123521
-4
0.00323899
-4
0.0616341
-4
0.0205977
-4
0
-4
0.0250548
-4
0.045784
-4
0
-4
0
-4
0.00937925
-3
0.0240338
-4
0
-4
0
-3
0.0328818
-3
0.0163934
-4
0
-4
0
-4
0
-4
0
-4
0
-4
0.00472915
-4
0.0216914
-4
0
-4
0.0332186
-4
0
-4
0.0465157
-4
0
-4
0.0232823
-4
0.0172518
-4
0
-4
0
-4
0.0131851
-4
0
-4
0.00137552
-4
0
-4
0.024005
-4
0.00641478
-4
0
-4
0.013752
-4
0
-4
0
-4
0.037819
-4
0
-3
0.0148451
-4
0.0221936
-4
0.0232935
-4
0.0897231
-4
0
-4
0
-4
0
-4
0
-4
0
-4
0.0326872
-4
0.0167139
-4
0.0365699
-4
0
-4
0
-4
0
-4
0
-4
0.0481657
-3
0.0290445
-4
0
-4
0.00238076
-4
0.00131691
-4
0
-4
0.0178004
-4
0
-4
0.00199948
-4
0.0157868
-4
0.00959233
-4
0
-4
0
-4
0
-4
0.0208096
-4
0.0468737
-4
0
-3
0.0068224
-4
0
-4
0
-4
0.0401715
-4
0.0307159
-4
0.00412473
-4
0
-4
0
-4
0
-4
0
-4
0.00801655
-4
0.00180036
-4
0.0430664
-4
0
-4
0.0230978
-4
0.0365239
-4
0
-4
0
-4
0.0164351
-4
0
-4
0
-4
0.0290012
-4
0.0376145
-4
0
-4
0.0235953
-4
0
-4
0.000931178
-4
0
-4
0
-4
0
-4
0
-4
0
-4
0
-4
0.0239459
-4
0.00435154
-4
0
-4
0
-3
0.0346295
-4
0.0652099
-4
0
-4
0
-4
0.0221686
-4
0.0605971
-4
0
-4
0
-4
0.00535439
-4
0
-4
0.00320042
-4
0.00564222
-4
0
-4
0
-4
0.000493062
-4
0.0356351
-4
0.00729986
-4
0
-4
0.0444911
-4
0.00371713
-4
0
-4
0
-4
0
-4
0
-4
0
-4
0
-4
0
-4
0
-4
0
-4
0.00927755
-4
0.0127439
-4
0.0122198
-4
0.0112752
-4
0.0184589
-4
0
-4
0.00712728
-4
0
-4
0
-4
0
-4
0.0325224
-4
0
-4
0
-4
0
-4
0.044325
-4
0.0399165
-4
0.00276491
-4
0
-4
9.41708e-05
-4
0
-4
0.0168478
-4
0.000570841
-4
0.00797381
-4
0
-4
0
-4
0
-4
0
-4
0.00275735
-3
0.0517597
-4
0.0370855
-4
0.00677583
-4
0.00517903
-4
0
-4
0.0476261
-4
0.00277008
-4
0
-4
0.0358199
-4
0
-4
0
-3
0.0234218
-4
0.0282047
-4
0.00317744
-4
0.00258783
-4
0
-4
0.0150818
-4
0.000819747
-4
0.000103831
-4
0
-4
0
-4
0.00489151
-4
0.00323828
-4
0.0348588
-4
0
-4
0.00906577
-4
0
-4
0.0185275
-4
0
-4
0.0159993
-4
0
-4
0.0165296
-4
0.0238666
-4
0
-4
0
-4
0.0214072
-4
0
-4
0
-4
0.0327812
-4
0
-4
0
-4
0.00781602
-4
0
-4
0
-4
0.0245072
-4
0.0331994
-4
0.0319394
-4
0
-4
0
-4
0
-3
0.00875203
-4
0.012138
-4
0.00672378
-4
0
-4
0.0178978
-4
0.00123877
-4
0
-3
0.01891
-4
0
-4
0.0238034
-4
0.004448
-3
0.00492068
-4
0
-4
0
-4
0.0253246
-4
0
-4
0.00552217
-4
0
-4
0
-3
0.0251796
-4
0
-4
0.024207
-4
0
-4
0
-4
0
-4
0.00086881
-4
0
-4
0.00167415
-4
0
-4
0.000106011
-4
0
-4
0
-4
0.00621162
-4
0.00534673
-4
0.010062
-4
0
-4
0
-4
0
-4
0.023492
-4
0.00713472
-4
0
-4
0.0135102
-4
0.0397304
-4
0.0144179
-4
0.0145354
-4
0
-4
0.0139768
-4
0
-4
0
-4
0
-4
0.0449777
-4
0
-4
0
-4
0
-4
0
-4
0.0164084
-4
0
-4
0
-4
0
-4
0
-4
0
-4
0.00152905
-4
0
-4
0
-4
0
-4
0.00234117
-4
0
-4
0
-4
0
-3
0
-4
0.0232035
-4
0.0299001
-4
0
-4
0
-4
0.00111555
-4
0
-4
0
-4
0.0586585
-4
0.042075
-4
0
-4
0.0162833
-4
0.0330504
-4
0.000793201
-4
0
-4
0
-4
0
-4
0
-4
0.011163
-4
0
-4
0
-4
0.0123217
-4
0
-4
0.00657719
-4
0
-4
0
-4
0.0315873
-4
0.00166605
-4
0.0112246
-4
0.0374129
-4
0
-4
0.0159317
-4
0
-4
0
-4
0
-4
0.0306192
-4
0
-4
0.0120806
-4
0
-4
0
-4
0
-4
0.00181736
-4
0.00925237
-4
0.0263291
-4
0
-4
0
-4
0
-4
0.0426403
-4
0.00734484
-4
0.00756414
-4
0
-4
0.0278895
-4
0.0216075
-4
0.0387868
-4
0
-4
0.00675431
-4
0
-4
0
-4
0
-4
0
-4
0.0335332
-4
0
-4
0
-4
0.0303482
-4
0.00666667
-4
0.0239099
-4
0.0508498
-4
0
-4
0.016765
-4
0
-4
0.00598623
-4
0.0246872
-4
0.0236575
-4
0.00532959
-4
0
-4
0
-4
0
-4
0
-4
0.0260633
-4
0
-4
0.00285912
-4
0
-4
0.0107449
-4
0.0209625
-4
0.00788907
-4
0.0182495
-4
0.0211551
-4
0.0335922
-4
0
-4
0
-4
0
-4
0
-4
0.0304756
-4
0.00817183
-4
0
-4
0.0214047
-4
0.0462064
-4
0.00555497
-4
0
-4
0
-4
0
-4
0.0296988
-4
0
-4
0.0218332
-4
0.00820531
-4
0.0513656
-4
0.0416246
-4
0
-4
0
-4
0.00594874
-4
0
-4
0
-4
0.0168425
-4
0.0336949
-4
0
-4
0.0182518
-4
0.036238
-4
0.0251668
-4
0
-4
0.00684271
-4
0
-4
0
-4
0.0288303
-4
0.03442
-4
0.00594588
-4
0.0165379
-4
0
-4
0.0152275
-4
0
-4
0.0253526
-4
0.00558723
-4
0.000957052
-4
0.0120507
-4
0.0132271
-4
0
-4
0
-4
0
-4
0
-4
0
-4
0
-4
0.00660244
-4
0
-4
0.0214296
-4
0
-4
0.0344162
-4
0
-4
0.0647881
-4
0.0367757
-4
0
-4
0.0626288
-4
0
-4
0.00150231
-4
0
-4
0.0285259
-4
0.00856361
-4
0.000286314
-4
0.0173259
-4
0.0113178
-4
0.0080936
-4
0.0312124
-4
0.000310013
-4
0
-4
0.0542448
-4
0
-4
0
-4
0
-4
0.0114158
-4
0.021664
-4
0.0206186
-4
0.028
-4
0.000984028
-4
0
-4
0
-4
0
-3
0.00891683
-4
0
-4
0
-4
0
-4
0
-4
0
-4
0.0190132
-4
0.00561995
-4
0
-4
0.0283595
-4
0.0427098
-4
0
-3
0.0114171
-3
0.0185227
-4
0.0130197
-4
0.0333046
-4
0.00221219
-4
0
-4
0.0103138
-4
0
-4
0.00483316
-4
0.00275071
-4
0.0449751
-4
0.00340852
-4
0
-4
0.0248246
-4
0.00682594
-4
0.00674577
-4
0.0527959
-4
0.00402629
-4
0
-4
0.0440138
-4
0
-4
0
-4
0.00189753
-4
0
-3
0.0227096
-4
0.0433025
-4
0
-4
0.0503545
-4
0.0189402
-4
0.00273411
-4
0.00533944
-4
0.0220013
-4
0.00192807
-3
0.041746
-4
0.0176017
-3
0.00511291
-4
0.0187599
-4
0.00391038
-4
0
-4
0.0261771
-4
0
-4
0
-4
0
-4
0.0240288
-4
0.0190547
-4
0
-4
0
-4
0.0115057
-4
0
-4
0
-4
0.0185204
-4
0
-4
0.0192278
-4
0
-4
0.00621341
-4
0
-4
0.0421372
-4
0.00835322
-4
0.000772126
-4
0
-4
0.034471
-4
0.0160536
-4
0.017568
-4
0.0393932
-4
0.0322794
-4
0.000620677
-4
0
-4
0
-3
0.000709723
-4
0.014812
-4
0.0168859
-4
0.00823861
-4
0.0402198
-4
0.013584
-4
0
-4
0.00355591
-4
0
-4
0.0152387
-4
0.0365164
-4
0.0123357
-4
0
-4
0
-4
0
-4
0.0258488
-4
0.0288187
-4
0.0749778
-3
0.0705366
-4
0
-4
0
-4
0.031094
-4
0
-4
0
-4
0
-4
0.0187242
-4
0
-4
0.0475898
-4
0.0511246
-4
0
-4
0.00690131
-4
0.0234291
-4
0
-4
0
-4
0.0308211
-4
0.00556414
-4
0
-4
0
-4
0
-4
0.00244798
-4
0.0280632
-4
0
-4
0.00132509
-4
0.0437272
-4
0
-4
0
-4
0
-4
0.0251854
-4
0.00644156
-4
0.00606796
-4
0.0150132
-4
0.0518432
-4
0
-4
0
-4
0.00281633
-4
0
-4
0.016865
-4
0.0210815
-4
0
-4
0.0184916
-4
0.00165563
-4
0
-4
0.0319329
-4
0
-4
0
-4
0
-4
0.0309479
-4
0.0112227
-4
0.0248099
-4
0.00166196
-4
0
-4
0.0159297
-4
0.00493199
-4
0
-4
0.0248456
-4
0
-4
0.00235381
-4
0.072338
-4
0.0214514
-4
0.0306817
-4
0.000975537
-4
0.0196343
-4
0
-4
0
-4
0.015823
-4
0.00180325
-4
0.00596698
-4
0
-4
0.017178
-4
0.063227
-4
0.041332
-4
0.0419957
-4
0.000146908
-4
0.0150485
-4
0
-4
0
-4
0
-4
0
-4
0
-4
0.039795
-4
0
-4
0.0165477
-4
0.0348394
-4
0
-4
0
-4
0
-4
0
-4
0.0257591
-4
0
-4
0
-4
0.0179663
-4
0
-4
0.0188117
-4
0.017451
-4
0
-4
0
-4
0.0509745
-4
0.0151623
-4
0.00148552
-4
0.00456376
-4
0
-4
0
-4
0.0165155
-4
0.0456154
-4
0
-4
0.0050135
-4
0.0261209
-4
0
-4
0.000177794
-4
0
-4
0.0352018
-3
0.0261027
-3
0.0273805
-4
0
-4
0.0100528
-4
0
-4
0.0163957
-4
0.00431187
-4
0.0152446
-4
0
-4
0.0144243
-4
0
-4
0
-4
0
-4
0
-3
0.0136447
-4
0
-4
0.0354157
-4
0.0322377
-4
0
-4
0.0209601
-4
0
-4
0.0101124
-4
0
-4
0.00410062
-4
0.0555871
-4
0.0055772
-4
0.0447031
-4
0.00903955
-4
0.0142254
-4
0.0178691
-4
0
-3
0.00826655
-4
0.0513783
-4
0.00985336
-4
0.00506224
-4
0
-4
0.00337341
-4
0.0073602
-4
0
-4
0.0131402
-4
0
-4
0
-4
0.0379522
-4
0.0244544
-4
0.0136131
-4
0.0290521
-4
0
-4
0
-4
0
-4
0
-4
0.00640342
-4
0.0387839
-4
0.0166839
-4
0
-4
0
-4
0
-4
0.0156857
-4
0
-4
0
-4
0
-4
0.0369582
-4
0.0283336
-4
0.0608173
-4
0.0663682
-4
0
-4
0
-3
0.0301661
-4
0
-4
0.0190223
-4
0.0168666
-4
0.0102357
-4
0.0021886
-4
0.0172264
-4
0.00601266
-4
0.0184008
-4
0.0261601
-4
0
-4
0.0241276
-4
0.00290388
-4
0.0144751
-4
0.0273738
-4
0
-4
0.00654923
-4
0.00251871
-4
0.0146499
-4
0
-4
0.000522239
-4
0
-4
0
-4
0
-4
0.0294839
-4
0
-4
0.0202314
-4
0
-4
0.0196397
-4
0
-4
0.0368966
-4
0.0405597
-4
0.035969
-4
0
-4
0.00357143
-4
0.0110968
-4
0.000976944
-4
0.0265674
-4
0
-4
0
-4
0
-4
0.0437745
-4
9.46522e-05
-4
0.035141
-4
0.0145281
-4
0.0392252
-4
0
-4
0.00101097
-4
0.0167436
-4
0
-4
0
-4
0
-4
0
-4
0
-4
0
-4
0
-4
0
-4
0
-4
0
-4
0.0342421
-3
0.0119066
-4
0
-4
0.00506529
-4
0.0312284
-4
0.0141866
-4
0
-4
0.0468389
-4
0.00822608
-4
0
-4
0.00171929
-4
0
-4
0.0167317
-4
0.0338391
-4
0.00165289
-4
0
-4
0.0468412
-4
0
-4
0
-4
0.0267273
-4
0.0143567
-4
0
-4
0.00384338
-4
0.00506213
-4
0
-4
0.0295373
-3
0.000313578
-4
0.0138199
-4
0.0378627
-4
0
-4
0
-4
0.000260756
-4
0.00846329
-4
0.00245038
-4
0.0345666
-4
0
-4
0.0689932
-4
0.0321452
-4
0.0213899
-4
0.0312246
-4
0
-4
0.000398168
-4
0
-4
0.0521856
-4
0
-4
0
-4
0.0187668
-4
0
-4
0.0074
-4
0.0410836
-4
0.0100739
-4
0
-4
0
-4
0.000175469
-4
0.0119048
-4
0
-4
0.0271553
-4
0
-4
0
-4
8.08604e-05
-4
0.00481968
-4
0
-4
0
-4
0
-4
0.00460765
-4
0
-4
0
-4
0.0337553
-4
0
-4
0.00900705
-4
0
-4
0
-4
0.00703698
-4
0.0355289
-4
0.0307339
-4
0
-4
0.0202376
-4
0.0347508
-4
0.0397998
-4
0
-4
0
-4
0.0316532
-4
0.0374274
-3
0.0425948
-4
0.0208726
-4
0
-4
0
-4
0.0422676
-4
0.0149897
-4
0.033605
-4
0
-4
0.00275311
-4
0.0260973
-4
0
-4
0.00399704
-4
0.0425087
-4
0
-4
0.0367267
-4
0
-4
0.012355
-4
0.0415983
-3
0.028907
-4
0.0384276
-4
0.00169173
-4
0.00363306
-4
0.00481022
-4
0.0340508
-3
0.0139646
-3
0.000768574
-4
0.0111793
-3
0.0102962
-4
0.035486
-4
0
-4
0
-3
0.0291878
-4
0.00105652
-4
0
-4
0
-4
0
-4
0.00230457
-4
0.0047696
-4
0
-4
0
-4
0
-4
0
-4
0
-4
0
-4
0.00524659
-4
0
-4
0
-4
0
-4
0.00716382
-4
0.00352637
-4
0.0393248
-4
0.0167788
-4
0
-4
0
-4
0
-4
0
-4
0
-4
0.0169238
-4
0
-4
0.00581395
-4
0.0146301
-4
0
-4
0
-4
0.0528631
-4
0.0323071
-4
0.0182789
-4
0.030512
-4
0.00124481
-4
0
-4
0.0246639
-4
0.018244
-4
0.0155321
-4
0.0220334
-4
0.00485699
-3
0.00691292
-4
0.0142376
-4
0.0279951
-4
0.00728728
-4
0.0169832
-4
0.00399216
-4
0
-4
0
-4
0.00390848
-4
0.00381138
-4
0
-4
0.00252594
-4
0
-4
0
-4
0.0195908
-4
0.0273553
-4
0
-4
0.00788423
-4
0
-4
0
-4
0.00168382
-4
0.0136071
-4
0.0011678
-4
0
-4
0.00526796
-4
0.00196985
-4
0
-4
0.00886179
-4
0
-4
0.00790386
-4
0
-4
0
-4
0
-4
0.000336785
-4
0.0170402
-4
0.00751441
-3
0.0196821
-4
0.00626128
-4
0
-4
0.0167645
-4
0
-4
0
-4
0.00595238
-4
0.00981399
-4
0.00718311
-4
0.0416917
-4
0
-4
0.0101532
-4
0.0195994
-4
0
-4
0
-4
0
-4
0
-4
0
-4
0.0279968
-4
0
-4
0.0152566
-4
0
-4
0
-4
0
-4
0
-4
0
-4
0
-4
0
-4
0.0078892
-4
0.031377
-4
0
-4
0.0119881
-4
0.0239879
-4
0.00985682
-4
0.0376861
-4
0
-4
0
-4
0
-4
0.029896
-4
0.00564042
-4
0
-4
0
-4
0.0054409
-4
0.0185502
-4
0.0237683
-4
0
-4
0.0375214
-4
0
-4
0.0240394
-4
0.0395692
-4
0
-4
0
-4
0
-4
0
-4
0
-4
0
-4
0
-4
0.0237116
-4
0.0291051
-4
0
-4
0.00929014
-4
0.0123791
-4
0.0259094
-4
0.00182168
-4
0
-4
0.0309772
-4
0.0180911
-4
0.00178905
-4
0
-4
0.014821
-4
0
-4
0.00316352
-4
0.0703662
-4
0
-4
0.004358
-4
0.0388465
-4
0
-4
0.0116941
-4
0.0213387
-4
0
-4
0.0202724
-4
0.0152136
-4
0.0406084
-4
0.0462626
-4
0.0241283
-4
0.00422646
-4
0
-4
0
-4
0
-4
0
-4
0
-4
0.0761104
-4
0
-4
0.0278139
-4
0.00535619
-4
0.000500793
-4
0
-4
0.0225933
-4
0.00100213
-4
0
-4
0
-4
0.0291174
-4
0.00420058
-4
0
-4
0.0135766
-4
0
-4
0
-4
0
-4
0
-4
0.0310065
-4
0.0476847
-4
0
-4
0.0164106
-4
0
-4
0.0341377
-4
0.000370096
-4
0
-4
0
-4
0.00461732
-4
0.0118329
-4
0
-4
0
-4
0
-4
0.00710739
-4
0
-4
0
-4
0
-4
0.000975004
-4
0
-4
0.0342502
-4
0
-4
0
-4
0
-4
0
-4
0.0178514
-4
0.0234111
-4
0
-4
0.0223122
-4
0.0482941
-4
0
-4
0.00153568
-4
0.0029782
-3
0.0143434
-4
0.0075328
-4
0.0807148
-4
0.0205451
-4
0.0134865
-4
0.0249448
-4
0
-4
0.0143872
-4
0
-4
0.00127542
-4
0
-4
0.0173597
-4
0
-4
0
-4
0
-4
0
-4
0
-4
0
-4
0.0068819
-4
0
-4
0
-3
0.0200137
-4
0.0286888
-4
0.00530069
-4
0
-4
0
-4
0.0184885
-3
0
-4
0.00128428
-4
0
-4
0
-4
0.00240524
-4
0
-4
0.0163221
-4
0.0354555
-4
0.00725676
-4
0
-4
0
-4
0.0010583
-4
0.00919771
-4
0
-4
0.0349531
-4
0
-4
0.060373
-4
0
-3
0.0306277
-4
0.00781328
-4
0.0103583
-4
0.0294981
-4
0.028233
-4
0.0144539
-4
0.013228
-4
0
-4
0.00857022
-4
0
-4
0.0149715
-4
0
-4
0.0104955
-4
0.011986
-4
0
-4
0.0150629
-4
0
-4
0.0193631
-4
0.0447471
-4
0
-3
0.0168565
-4
0.0293659
-4
0
-4
0.00825954
-4
0
-4
0
-4
0.000834426
-4
0.0530102
-4
0
-4
0.0236574
-4
0
-4
0.0502119
-4
0.0394835
-4
0
-4
0
-4
0.0275603
-4
0.00393236
-4
0
-4
0
-4
0
-3
0.0339528
-4
0.00268077
-4
0
-4
0.000652255
-4
0
-4
0
-4
0
-4
0
-4
0
-4
0.0394613
-3
0.0277998
-4
0
-4
0
-4
0.00335653
-4
0.0179784
-4
0
-4
0
-4
0
-4
0
-4
0.0062505
-4
0.000985006
-4
0.00118177
-4
0
-4
0.0199916
-4
0.00672283
-4
0.0236348
-4
0.00237643
-4
0.0012312
-4
0
-4
0
-4
0
-4
0.0345226
-4
0.00845865
-4
0.00219428
-4
0
-4
0
-4
0
-4
0.00292245
-4
0.000793336
-4
0
-4
0.0192767
-4
0.00574661
-4
0.0156143
-4
0
-4
0.0318841
-4
0.0449427
-4
0
-3
0.000758406
-4
0.0374605
-4
0
-4
0
-4
0.0123778
-4
0.031892
-4
0
-4
0
-4
0.0252248
-4
0
-4
0.0185905
-4
0.00467097
-4
0
-4
0
-4
0
-4
0
-4
0.0431002
-4
0.00115113
-4
0.0240547
-4
0
-4
0.0127539
-4
0
-4
0.0124103
-4
0.0232407
-4
0.00481239
-4
0
-4
0
-3
0.00349508
-4
0
-4
0.0159456
-4
0.0382921
-4
0.0280621
-4
0.0392351
-4
0
-4
0
-4
0.0134233
-4
0.0297697
-4
0.0283909
-4
0.00030494
-4
0.0123166
-4
0
-4
0.0533153
-4
0.0314618
-4
0.0129596
-4
0.010544
-4
0.0138815
-3
0.00123153
-4
0
-4
0.00674077
-4
0
-4
0.034509
-4
0
-4
0
-4
0
-4
0.00237147
-4
0.00814944
-4
0
-4
0.0156915
-4
0
-4
0
-4
0.00512549
-4
0
-4
0.0009839
-4
0.0184925
-4
0
-4
0.0482395
-4
0.00409569
-4
0.0426132
-4
0.0087146
-4
0
-4
0.0119099
-4
0.000213008
-4
0.0461986
-4
0.0394619
-4
0.0104526
-4
0
-4
0.0230023
-4
0
-4
0.0267085
-4
0.011642
-4
0
-4
0.0243124
-4
0
-4
0
-4
0.0103526
-3
0.00219154
-4
0
-4
0.0022343
-4
0
-4
0.0137371
-4
0
-4
0.0102272
-4
0.0393437
-4
0
-4
0
-4
0.0168748
-4
0.00100255
-4
0.0253243
-4
0
-4
0
-4
0.017345
-4
0
-4
0.00564862
-4
0
-4
0
-4
0.0127903
-4
0.0699402
-4
0
-4
0
-4
0
-4
0
-4
0.0390638
-4
0
-4
0
-4
0.00516218
-3
0.0272982
-4
0.0158635
-4
0.00734121
-4
0
-4
0.00267957
-4
0
-4
0
-3
0.00306193
-4
0
-4
0.00419059
-4
0
-4
0.0158264
-4
0.00335166
-4
0.0019833
-4
0.00198076
-4
0.0137581
-4
0
-4
0
-4
0.0389142
-4
0.0143779
-4
0
-4
0.0384769
-4
0
-4
0.0193594
-4
0.00672055
-4
0.0282051
-4
0
-4
0.0256888
-4
0
-4
0
-4
0
-4
0.0117439
-4
0.032159
-4
0.0267186
-4
0.0112467
-4
0.0256708
-4
0.00665087
-4
0.000207225
-4
0
-4
0.0193338
-4
0
-4
0.0151544
-4
0
-4
0.016075
-4
0.00379541
-4
0.0260349
-4
0.0212285
-4
0
-4
0.0466256
-4
0.0191688
-4
0.0023677
-4
0
-4
0
-4
0.012571
-4
0
-4
0.00544893
-4
0.0149151
-4
0
-4
0.00944804
-4
0.0278523
-4
0
-4
0.00406403
-4
0.0600667
-4
0
-3
0.000703482
-4
0.0052223
-4
0.0268169
-4
0.0283356
-4
0.011251
-4
0.0311325
-4
0
-4
0
-4
0.0133442
-4
0.000837202
-4
0.0216055
-4
0
-4
0.0162525
-4
0
-4
0.00332419
-4
0.00482406
-4
0.00123153
-4
0.00956768
-4
0
-4
0.0271687
-4
0.0122804
-4
0
-4
0
-4
0
-4
0
-4
0.0111681
-4
0.0175331
-4
0.00325098
-4
0
-4
0.0492023
-4
0
-4
0.00335904
-4
0.0108043
-4
0.0449606
-4
0.000421186
-4
0
-4
0.0590583
-4
0
-4
0.0158715
-4
0.00481645
-4
0
-4
0.0345455
-4
0
-4
0.00586696
-4
0
-4
0
-4
0
-4
0
-4
0
-4
0
-4
0.0184971
-4
0.0667939
-4
0
-4
0
-4
0
-4
0.0184649
-4
0
-4
0.0237006
-4
0.0100515
-4
0
-4
0.00643708
-4
0
-4
0.0428003
-4
0.0451942
-3
0.029427
-4
0.0314655
-4
0.00096463
-4
0.0338505
-4
0.0358426
-4
0.024533
-4
0.00285901
-4
0.0271851
-4
0.0073063
-3
0.00460739
-4
0
-4
0.021247
-4
0
-4
0
-4
0
-4
0
-4
0
-4
0
-4
0.00427112
-4
0.00321543
-4
0.0204357
-4
0.00382446
-4
0.0258418
-4
0.000866251
-4
0
-4
0
-4
0
-4
0.00198629
-4
0
-4
0.0118182
-4
0
-4
0.0102285
-4
0.0485686
-4
0
-4
0
-4
0.00569871
-4
0
-4
0
-4
0.0266577
-4
0
-4
0
-4
0
-4
0.0299682
-4
0
-4
0
-4
0.0307451
-4
0.0308108
-4
0.015912
-4
0.00303503
-4
0
-4
0.0236824
-4
0
-4
0.00410731
-4
0
-4
0
-4
0
-4
0
-4
0
-4
0.0140667
-4
0.00609756
-4
0.0391236
-4
0
-4
0.00957418
-4
0
-4
0.0170687
-4
0
-4
0.0306815
-4
0
-4
0.0521079
-4
0
-4
0.0197951
-4
0.0366779
-4
0.00744145
-3
0.0133595
-4
0
-4
0
-4
0
-4
0.0318604
-4
0.0165556
-3
0.0342274
-4
0.00598234
-4
0.0464614
-3
0.000865385
-4
0
-4
0.0398
-4
0.0224381
-4
0
-4
0
-4
0.0339919
-4
0.0228845
-4
0.025023
-4
0.0362146
-4
0
-4
0.0226307
-4
0.012221
-4
0.0100726
-4
0.0196094
-4
0
-4
0
-4
0
-4
0
-4
0
-4
0
-4
0.00273921
-4
0.0375636
-4
0
-4
0.0585642
-4
0.0120929
-4
0.0183187
-4
0
-4
0.0180314
-4
0
-4
0.0107724
-4
0
-4
0.0517577
-4
0
-4
0
-4
0.0122751
-4
0
-4
0
-4
0.0538654
-4
0.0151464
-4
0
-4
0.0186168
-4
0.0214744
-3
0.0172254
-4
0
-4
0
-4
0.0292854
-4
0
-4
0.0614288
-4
0
-4
0.000364033
-4
0
-4
0
-4
0.00602787
-4
0
-4
0.024302
-4
0.00977305
-4
0.00153429
-4
0
-4
0
-4
0.0133807
-4
0.0038619
-4
0
-4
0
-4
0
-4
0
-4
0.0171021
-4
0.0316973
-4
0
-4
0.0485608
-4
0
-4
0.0398828
-4
0.0188776
-4
0
-4
0
-4
0.00434099
-4
0
-4
0
-4
0.0156063
-4
0.0278881
-4
0
-4
0.0219838
-4
0.00316689
-4
0.0273498
-4
0.00691524
-4
0.00274239
-4
0.00675723
-4
8.84799e-05
-4
0.00250394
-4
0.0112031
-4
0
-3
0.000979965
-4
0.0107774
-3
0.0019489
-4
0.0047026
-4
0
-4
0.00139847
-4
0.0420296
-4
0.0242406
-4
0
-4
0
-4
0.0365297
-3
0.021896
-4
0.0248322
-4
0.00499485
-4
0
-4
0.0071144
-4
0.0206529
-4
0.00678674
-4
0
-4
0
-4
0
-4
0.00107387
-4
0.00997592
-4
0.0460048
-4
0.0054479
-4
0.0343189
-4
0
-4
0.034334
-4
0.0232375
-4
0
-4
0.03764
-4
0
-4
0.0423952
-3
0.020424
-4
0.00127582
-4
0
-4
0
-4
0
-4
0.00764287
-4
0.00337789
-4
0.0402685
-4
0.000194818
-4
0.0281245
-4
0.0457411
-4
0
-4
0.0324717
-4
0.0145167
-4
0
-4
0
-4
0
-4
0
-4
0.00161339
-4
0
-4
0.0229767
-4
0
-4
0
-4
0.0434218
-4
0.0161638
-4
0
-4
0
-4
0
-4
0
-4
0
-4
0.00910844
-4
0
-4
0
-4
0
-4
0
-4
0.0039776
-4
0.000783787
-4
0.0307079
-4
0.016028
-4
0.0319972
-4
0.00807739
-4
0.033054
-4
0.0143482
-4
0
-4
0.0334271
-4
0
-4
0
-4
0.0109151
-4
0.00232288
-4
0.000300933
-4
0.0143823
-4
0.00633458
-4
0
-4
0.0184653
-4
0.000688909
-4
0
-4
0.0357646
-4
0
-4
0
-4
0.0111002
-4
0.000431344
-4
0.0120271
-4
0
-4
0
-4
0
-4
0.0158822
-4
0
-4
0.0161647
-4
0.00318338
-4
0
-4
0.000140331
-4
0.0109431
-4
0
-4
0
-4
0.00196356
-4
0
-4
0
-4
0
-4
0.00941864
-4
0
-4
0.0248125
-3
0.0177467
-4
0.0611712
-4
0.0475697
-4
0.0285786
-4
0
-4
0.00331922
-4
0.0222309
-4
0.0503795
-4
0.0179495
-4
0
-4
0.0311174
-4
0.0411788
-4
0.0134124
-4
0.000987167
-4
0.0257768
-4
0.00849188
-4
0
-4
0
-4
0.0173071
-4
0
-4
0
-4
0.0241314
-4
0
-4
0
-4
0
-4
0.0361995
-4
0.00394663
-4
0.00219459
-4
0.00193404
-4
0
-4
0
-4
0
-4
0.0262191
-4
0
-4
0.0131373
-4
0
-4
0
-4
0
-4
0.01663
-4
0.0282315
-4
0.00927101
-4
0
-4
0.029026
-4
0
-4
0
-4
0
-4
0.0220879
-4
0
-4
0
-4
0.0273561
-4
0.048267
-4
0
-4
0.0127583
-4
0.0181872
-4
0
-4
0
-4
0.0411371
-4
0
-4
0.00761656
-4
0
-4
0
-4
0.0169444
-4
0.0173066
-4
0.0439375
-4
0.0241869
-4
0
-4
0.00457317
-4
0
-4
0
-4
0
-4
0
-4
0
-4
0
-4
0.0400309
-4
0
-4
0.0776934
-4
0.0402505
-4
0.0106888
-4
0.0202758
-4
0.0305674
-4
0.0557157
-4
0.0153823
-4
0
-4
0
-4
0
-4
0
-4
0
-4
0
-4
0.00264288
-4
0.0261658
-4
0
-4
0.0121938
-4
0.0790274
-4
0
-4
0.0160145
-4
0.00139543
-4
0.00142778
-4
0.0421905
-4
0
-4
0
-4
0.00412988
-4
0
-4
0
-4
0.010652
-4
0
-4
0.0113563
-4
0.0152207
-4
0
-4
0
-4
0.0372326
-4
0.0328775
-4
0
-4
0.0442798
-4
0
-4
0.0105844
-4
0.0248665
-4
0.0567027
-4
0
-4
0
-4
0.0235949
-4
0.0223011
-4
0.0181834
-4
0.0258853
-4
0.0204714
-4
0.0385281
-4
0.0201179
-4
0
-4
0
-4
0
-4
0
-4
0.0152398
-4
0
-4
0
-4
0.00164568
-4
0
-4
0
-4
0.0401076
-4
0.00710183
-4
0.0453178
-4
0.00128715
-4
0.0426888
-4
0.00523513
-4
0.0310434
-4
0.0299134
-4
0.00496102
-4
0.00372695
-4
0
-4
0
-4
0.0183469
-4
0
-4
0.0586427
-4
0
-4
0
-4
0.0175439
-4
0.000996856
-4
0
-4
0
-4
0.00667244
-4
0
-4
0.0130268
-4
0.00207068
-4
0.00765613
-4
0.0572102
-4
0
-4
0
-4
0
-4
0.0354932
-4
0
-4
0.041622
-4
0.00281738
-4
0.00189869
-4
0.0209722
-4
0.0154568
-4
0.012354
-4
0
-4
0.00258998
-4
0.0148673
-4
0
-4
0.00649297
-3
0.0166503
-4
0
-4
0
-4
0.0132416
-4
0.0225826
-4
0.0123127
-4
0.00924673
-4
0
-4
0
-4
0.0426812
-4
0
-4
0
-4
0
-4
0
-4
0.028356
-4
0.0396545
-4
0.00882535
-4
0
-4
0
-4
0.00959973
-3
0.0171502
-4
0
-4
0
-4
0.00474934
-4
0.0375981
-4
0
-4
0.0348491
-4
0
-4
0.0317173
-4
0.0268312
-4
0
-4
0.00417491
-4
0.0286568
-4
0.017179
-4
0
-4
0.00489653
-4
0.0016172
-4
0
-4
0.0154068
-4
0.0235762
-4
0.000473889
-4
0.000262329
-4
0.00848494
-4
0.00898113
-4
0.0227835
-4
0
-4
0
-4
0.031348
-4
0.0108523
-4
0.0145336
-4
0.00241471
-4
0.00985182
-4
0.0296596
-4
0.0321841
-4
0
-4
0
-4
0
-4
0
-4
0
-4
0.0300752
-4
0.00585957
-4
0.0166587
-4
0
-4
0
-4
0.0302814
-4
0
-4
0
-4
0.00101922
-4
0
-4
0.0013728
-4
0
-4
0
-4
0
-4
0.0149773
-4
0.0104884
-4
0
-4
0
-4
0
-4
0
-4
0
-4
0
-4
0
-4
0.0156207
-4
0.0105109
-4
0
-4
0.00331492
-4
0
-4
0.0324203
-4
0.0106805
-4
0
-4
0
-4
0
-4
0.00157936
-4
0.00131023
-4
0.0107573
-4
0
-4
0
-4
0.0245178
-4
0.01407
-4
0.00816086
-4
0
-4
0.0193603
-4
0
-4
0.0163682
-4
0
-4
0.0162756
-4
0
-4
0
-4
0
-4
0.0127549
-4
0
-4
0
-4
0.0367508
-4
0.0139246
-4
0.00525157
-4
0
-4
0.0265906
-4
0
-4
0.0318937
-4
0.0445151
-4
0
-4
0
-4
0
-4
0.00998841
-4
0.0412665
-4
0
-4
0
-4
0
-4
0.022536
-4
0.0366958
-4
0
-4
0.0277798
-4
0.0126318
-4
0.0308363
-4
0
-4
0.0522909
-4
0.00520185
-4
0.00669809
-4
0.0113219
-4
0.00132681
-4
0.00108863
-4
0.0475551
-4
0.00197012
-4
0.0359742
-4
0.00652473
-4
0
-4
0.0344118
-4
0
-4
0
-4
0
-4
0
-4
0.00324351
-4
0.00139493
-4
0.0424273
-4
0.0173453
-4
0.00525044
-4
0.00888927
-4
0
-4
0.02513
-4
0.00579813
-4
0.0225618
-4
0.0234341
-4
0
-4
0.0145623
-4
0.0322386
-4
0
-4
0.0358483
-4
0.0061386
-4
0
-4
0
-4
0.0270648
-4
0
-4
0.03596
-4
0
-4
0.0280285
-4
0
-4
0.00693928
-4
0
-3
0.0159924
-4
0.0156683
-4
0
-4
0.000667724
-4
0.0057476
-4
0
-4
0
-4
0.00423729
-4
0
-4
0.0327605
-4
0.00144381
-3
0.018995
-4
0.0448921
-4
0
-4
0
-4
0.00869167
-4
0
-4
0
-4
0
-4
0
-3
0.0254371
-3
0.000967969
-4
0
-4
0.000284603
-4
0
-4
0.0011976
-4
0.0164558
-4
0.0110701
-4
0
-4
0.00163998
-4
0
-4
0
-4
0.0198852
-4
0
-4
0.0163157
-3
0.0513077
-4
0
-4
0.0135919
-4
0.0182215
-4
0.0162264
-4
0.0367896
-4
0.0270048
-4
0.00953419
-4
0.0106975
-4
0.00926848
-4
0
-4
0
-4
0.00424005
-4
0.00801639
-4
0.000776021
-4
0.000373378
-4
0.0272467
-4
0
-4
0
-4
0
-4
0
-4
0
-4
0
-4
0.0324433
-4
0
-4
0
-4
0
-4
0.00658693
-4
0.0249817
-4
0.00795545
-4
0
-4
0.0243525
-4
0
-4
0.0312611
-4
0.0253862
-4
0
-4
0
-4
0.0443943
-4
0.00425264
-4
0.0181243
-4
0.006266
-4
0.0521617
-4
0
-4
0.043047
-4
0
-4
0.0138486
-4
0.0162611
-4
0
-4
0
-4
0
-4
0
-4
0.000793021
-4
0
-4
0
-4
0.0405177
-4
0
-4
0
-4
0
-4
0.00213085
-4
0
-4
0.0277245
-4
0.0019677
-4
0.0306723
-4
0.00978253
-4
0
-4
0.00397318
-4
0
-4
0.0144902
-4
0.0153083
-4
0
-4
0
-4
0
-4
0
-4
0
-4
0
-4
0.0413497
-4
0.00814971
-4
0.00256387
-4
0
-4
0
-4
0.000299581
-4
0
-3
0.0195389
-4
0
-4
0
-4
0.0314271
-4
0
-4
0
-4
0.0236681
-4
0
-4
0.0239153
-4
0
-4
0.0160203
-4
0.0298448
-4
0
-4
0
-4
0.0127419
-4
0.00674303
-4
0.0162586
-4
0.0100222
-4
0.0478261
-4
9.58865e-05
-4
0.0165633
-4
0
-4
0
-4
0.0269026
-4
0
-4
0.021399
-4
0
-4
0
-4
0
-4
0
-4
0.01217
-4
0
-4
0
-4
0.0125781
-4
0
-4
0
-4
0.00258264
-4
0
-4
0
-4
0.0420296
-4
0.0363636
-4
0.0464745
-3
0.0291027
-4
0
-4
0
-4
0.0245883
-4
0
-4
0.0122828
-4
0
-4
0
-4
0
-3
0.0191327
-4
0.0361446
-4
0.00318568
-4
0
-4
0.00457577
-4
0
-4
0
-4
0.0292846
-3
0.00257101
-4
0
-4
0
-4
0
-4
0.0268685
-4
0.00152044
-4
0.0271708
-4
0.0278198
-4
0
-4
0.024676
-4
0
-4
0
-4
0
-4
0.00115485
-4
0.0128908
-4
0
-4
0.0290314
-4
0
-4
0
-3
0.00460075
-4
0
-4
0.00372301
-4
0.00658522
-4
0
-4
0.0120491
-4
0
-4
0
-4
0.0133525
-4
0
-4
0.00742814
-4
0.00263132
-4
0.0016383
-4
0
-4
0.0364236
-4
0.00184077
-4
0
-4
0
-4
0.00141426
-4
0
-4
0
-4
0
-4
0.00908421
-4
0.00386138
-4
0.0234643
-4
0.00874838
-4
0
-4
0
-4
0.000594026
-4
0.0332083
-4
0
-4
0.0279412
-4
0
-4
0.0141129
-4
0.0265564
-4
0
-4
0
-4
0
-4
0.00856947
-4
0
-4
0.0672696
-4
0.00761755
-4
0.0123119
-4
0.0281781
-4
0
-4
0
-4
0
-4
0
-4
0.0013451
-4
0
-4
0.0270463
-4
0
-4
0
-4
0.0346845
-4
0
-4
0
-4
0.0315134
-4
9.16674e-05
-4
0
-4
0.0242997
-4
0
-4
0
-4
0.0013925
-4
0
-4
0
-4
0
-4
0
-4
0.018189
-4
0.0564629
-4
0.0153793
-4
0
-4
0.0366597
-4
0
-4
0
-4
0
-4
0
-4
0
-4
0.0303087
-4
0.00259322
-4
0.0320115
-4
0.0389564
-4
0.0370652
-4
0
-4
0.0442856
-4
0.0444697
-4
0.0201827
-4
0
-4
0.00179791
-4
0
-4
0
-4
0.0205426
-4
0.00891391
-4
0.0354184
-4
0.0167557
-4
0.000274323
-4
0
-4
0
-4
0
-4
0.0176137
-4
0
-4
0.013737
-4
0
-4
0.0354765
-4
0.0180297
-4
0.00816595
-4
0.0216295
-4
0.0203382
-4
0.00395901
-4
0
-4
0
-4
0
-4
0
-4
0.000607103
-4
0.00749945
-4
0
-4
0.0156302
-4
0.04125
-4
0.0218562
-4
0
-4
0.000101833
-4
0.0495006
-4
0
-4
0
-4
0.0288189
-4
0.00776306
-4
0.00520678
-4
0.000307409
-4
0.00957409
-4
0.00734827
-3
0.000210704
-4
0.0366018
-4
0
-4
0
-4
0.00654122
-4
0.00144673
-4
0
-4
0
-4
0
-4
0.0236228
-4
0.00879297
-4
0
-4
0.0548628
-4
0
-4
0.00164378
-4
0
-3
0.0122314
-4
0.027479
-4
0
-4
0.00700044
-4
0.0178062
-4
0
-4
0
-4
0.0140072
-4
0.0531415
-4
0
-4
0
-4
0
-4
0
-4
0
-4
0.0270767
-4
0
-4
0.000987654
-4
0.0113599
-4
0
-4
0.0540267
-4
0
-4
0.0432856
-4
0.0389692
-4
0.0413937
-4
0.0235097
-4
0.0309101
-4
0.0260801
-4
0
-4
0.0168341
-4
0.0218473
-4
0
-4
0.0498931
-4
0
-4
0
-4
0
-4
0
-4
0.00945471
-4
0.0116186
-4
0.0258905
-4
0.00187376
-4
0
-4
0
-4
0.00287176
-4
0.0484171
-4
0.00816482
-4
0.0311132
-4
0
-4
0.000498803
-4
0
-4
0
-4
0.0311396
-4
0.0213308
-3
0.0404998
-4
0.0452881
-4
0
-4
0
-4
0.00156178
-4
0.0230185
-4
0.00342957
-4
0.0202524
-4
0
-4
0.0201206
-4
0.0307294
-4
0
-4
0
-4
0.00912797
-4
0
-4
0.000867528
-4
0
-4
0
-4
0
-4
0
-4
0
-4
0
-4
0
-3
0.0273616
-4
0.00438293
-4
0
-4
0
-4
0.0324996
-4
0.0462497
-4
0.01501
-4
0
-4
0
-4
0.0323023
-4
0.0485328
-4
0
-4
0.0352737
-4
0.0097939
-4
0
-4
0
-4
0.00167011
-4
0
-4
0.000698053
-4
0.0240216
-4
0
-4
0
-4
0
-4
0
-4
0
-4
0.00256483
-4
0
-4
0.00701647
-4
0.0171464
-4
0
-4
0.00114688
-4
0
-4
0
-4
0.00558546
-4
0.0159396
-4
0
-3
0.0496953
-4
0.00754856
-4
0.0127085
-4
0
-4
0
-4
0.00675562
-4
0.00460134
-4
0.0354056
-4
0
-4
0.0215481
-4
0
-4
0
-4
0
-4
0
-4
0.0130196
-4
0.0212261
-4
0
-4
0.0222853
-4
0.023573
-4
0
-4
0.0410011
-4
0.0019949
-4
0
-4
0.0259184
-4
0
-4
0.0237182
-4
0.0250415
-4
0
-4
0.0227985
-4
0.000836995
-4
0
-4
0
-4
0
-4
0
-4
0.0356793
-4
0
-4
0
-4
0
-4
0
-4
0
-4
0
-4
0.000854409
-4
0
-4
0
-4
0.0453741
-4
0
-4
0.0153004
-4
0.000464814
-4
0.0351376
-4
0
-4
0.0251857
-4
0
-4
0.0215376
-4
0
-4
0.0239261
-4
0
-4
0.0391599
-4
0
-4
0.0089153
-4
0
-4
0.0148913
-4
0.00886066
-4
0
-4
0.00444242
-4
0.0292809
-4
0.000176336
-4
0.0549817
-4
0.0233577
-4
0
-4
0.0284435
-4
0.00687154
-4
0
-4
0
-4
0.039174
-4
0.0173809
-4
0.0125109
-4
0.0152448
-4
0
-4
0.0230197
-4
0
-4
0.00869378
-4
0
-4
0
-4
0.0148071
-3
0.0465033
-4
0.00759593
-4
0
-4
0.000925735
-4
0.0377372
-4
0
-4
0
-4
0.0185452
-4
0.016424
-4
0.016484
-4
0.0313647
-4
0.000744602
-4
0.00906313
-4
0.0169604
-4
0.0154535
-4
0.0265799
-4
0.0146818
-4
0
-4
0.00761048
-4
0.0258732
-4
0
-4
0.0191707
-4
0
-4
0
-4
0.0250901
-4
0.0208462
-4
0
-4
0
-4
0
-4
0.0221609
-4
0
-4
0.0565668
-4
0.00851483
-4
0
-4
0.0375225
-4
0.022594
-4
0
-4
0
-4
0.0226304
-4
0.0373115
-4
0.00290078
-4
0.0434917
-4
0
-4
0.000548546
-4
0.000577558
-4
0.0108877
-4
0
-4
0.00830983
-4
0.00838335
-4
0.023881
-4
0
-4
0
-4
0
-4
0
-4
0.0357259
-4
0.0194699
-4
0
-4
0.00730184
-4
0.0114208
-4
0.0361005
-4
0
-4
0
-4
0.0141941
-4
0
-4
0
-3
0.0181079
-4
0.0287501
-4
0
-4
0.0110698
-4
0
-4
0.0398254
-4
0.00654115
-4
0
-4
0
-4
0.0161483
-4
0
-4
0.0366163
-4
0.0394903
-4
0.0235943
-4
0
-4
0.0235446
-4
0
-4
0
-4
0.0350068
-4
0.0111223
-4
0
-4
0
-4
0
-4
0.00328484
-4
0
-4
0.0191925
-4
0
-4
0.00194707
-4
0.0219255
-4
0.0163242
-4
0.00183974
-4
0.0203764
-4
0
-4
0.0685504
-4
0.0300999
-4
0
-4
0.0209664
-4
0.00403654
-4
0
-4
0
-4
0.0405254
-4
0.00358965
-4
0.00195998
-4
0.0255414
-4
0
-4
0.0492411
-4
0
-4
0.0583034
-4
0.0285547
-4
0
-4
0.0160915
-4
0.00674706
-3
0.0220829
-4
0
-4
0.00859558
-4
0.00314592
-4
0.0307338
-4
0.0235064
-4
0
-4
0
-4
0.00538455
-4
0.0638949
-4
0.00847276
-4
0.0120427
-4
0.00273369
-4
0
-4
0
-4
0.00580431
-4
0.0225014
-4
0.0339631
-3
0.0245323
-4
0
-4
0
-4
0
-4
0.0209412
-4
0
-4
0.00197336
-4
0.00591716
-4
0.00690671
-4
0
-4
0.0127978
-4
0.00604406
-4
0.0342778
-4
0
-4
0.00876601
-4
0.0361248
-4
8.61326e-05
-4
0
-4
0.00160157
-3
0.028644
-4
0.0224165
-4
0
-4
0
-4
0.0252755
-4
0.0280547
-4
0.0022958
-4
0.0247755
-4
0.0268156
-4
0
-4
0.0228571
-4
0
-4
0.00427175
-4
0.0159117
-4
0
-4
0.00205673
-4
0.0208915
-4
0.00344116
-4
0.0444314
-4
0.00837918
-4
0
-4
0
-4
0.0041225
-4
0.0183024
-4
0.0329621
-4
0
-4
0.00594815
-4
0
-4
0.0206442
-4
0
-4
0
-4
0.00573211
-4
0.0100654
-4
0.0174339
-4
0.0109664
-3
0.0328635
-4
0
-4
0
-4
0.00503821
-4
0
-4
0
-4
0.001539
-4
0
-4
0
-4
0.0520343
-4
0.00393701
-4
0
-4
0
-4
0.0232162
-4
0
-4
0.0230015
-4
0
-4
0.0261297
-3
0.00127403
-4
0.011756
-4
0.029574
-4
0.00373093
-4
0
-4
0.0209488
-4
0.0216403
-4
0
-4
0
-4
0.0130232
-4
0
-4
0.0290532
-4
0
-4
0.0348524
-4
0
-4
0.0910243
-4
0
-4
0
-4
0
-4
0.0106231
-4
0.0093979
-4
0.0104034
-4
0
-4
0
-4
0.0636694
-4
0
-4
0.0191891
-4
0.0133848
-4
0.0215596
-4
0
-4
0
-4
0.0193834
-4
0
-4
0
-4
0.0178475
-4
0.0107692
-4
0.00149383
-4
0
-4
0
-4
0.000761252
-4
0.00315274
-4
0
-4
0.0362709
-4
0.00625759
-3
0.0378719
-4
0
-4
0
-4
0.0154907
-4
0
-4
0.01267
-4
0.000999917
-3
0.012879
-4
0
-4
0.0333987
-4
0
-4
0.0123864
-4
0
-4
0
-4
0.0129281
-4
0
-4
0.000485673
-4
0
-4
0.00108243
-4
0
-4
0.0393796
-4
0.00162
-4
0
-4
0
-4
0.026255
-4
0
-4
0.0402617
-4
0.00590939
-4
0
-4
0.022741
-4
0.00687876
-4
0.00911829
-3
0.0233061
-4
0.00615583
-4
0.0218695
-4
0.0221638
-4
0.0127209
-4
0
-4
0.0426566
-4
0.0240674
-4
0.0396512
-4
0
-4
0
-4
0.0106314
-4
0.0540449
-4
0.0157613
-4
0.00181108
-4
0.00564011
-4
0.0169532
-4
0.000517264
-4
0.0173685
-4
0.0194424
-4
0.000161551
-4
0
-4
0.00246204
-4
0.000944684
-4
0
-4
0
-4
0.0366002
-4
0.0040864
-4
0
-4
0
-4
0
-4
0.0226368
-4
0.0267627
-4
0
-4
0
-4
0
-4
0
-4
0
-4
0
-4
0.00844391
-4
0.047176
-4
0
-4
0.0255161
-4
0.0205841
-4
0.0192321
-4
0.022542
-4
0
-4
0
-4
0
-4
0
-4
0.0232249
-4
0
-4
0
-4
0.0117057
-4
0.0380502
-4
0
-4
0.015849
-4
0.0222569
-4
0
-4
0
-4
0.0138357
-4
0.0103005
-4
0.00288207
-4
0.00109791
-4
0.0126794
-4
0.0241651
-4
0.037314
-4
0.0003662
-4
0.01243
-4
0.000633513
-4
0
-4
0
-4
0.0267313
-4
0.00174019
-4
0.0346619
-4
0.010507
-4
0
-4
0.00689137
-4
0
-4
0
-3
0.0183472
-4
0.0160377
-4
0
-4
0.0321612
-4
0
-4
0.00588474
-4
0
-4
0
-4
0
-4
0
-4
0.00833184
-4
0
-4
0.0233863
-4
0.010377
-4
0
-4
0
-4
0.0397029
-4
0.021793
-4
0.0141873
-4
0
-4
0
-4
0.0462981
-4
0
-4
0.000750892
-4
0.00347041
-4
0
-4
0.0219747
-4
0
-4
0.0118372
-4
0.00578822
-4
0
-4
0.010586
-4
0.000265322
-4
0.0125103
-4
0.00224921
-4
0.00111049
-4
0
-4
0.0379628
-4
0.0244403
-4
0
-4
0.0396947
-3
0.0376337
-4
0.0252556
-4
0.0236577
-4
0.00167302
-4
0.00787604
-4
0
-4
0.0268604
-4
0
-4
0.00241727
-4
0
-3
0.0227251
-4
0.0212518
-4
0.026272
-4
0
-4
0
-4
0
-4
0.0192747
-4
0.0225273
-4
0.0188448
-4
0.00380195
-4
0.0222868
-4
0
-4
0.0316795
-4
0.023093
-4
0
-4
0
-4
0
-4
0.00266626
-4
0.0321248
-3
0.0331384
-4
0.03164
-4
0.0250483
-4
0
-4
0.0587391
-4
0.0449617
-4
0.0128099
-4
0.0128928
-4
0
-4
0.0064366
-4
0
-4
0.0172262
-4
0.0202327
-4
0.0596691
-4
0.00383518
-4
0.0237777
-4
0
-4
0.0197597
-4
0.00471775
-4
0.0158014
-4
0
-4
0.0123099
-4
0.0438158
-4
0
-4
0.00558229
-4
0
-4
0.0245252
-4
0.00808625
-4
0.0147009
-4
0
-4
0.00785838
-4
0
-3
0.0211032
-4
0.0117162
-4
0.00127389
-4
0
-4
0.0380197
-4
0.00978509
-4
0.0305852
-4
0
-4
0
-4
0
-4
0
-4
0
-4
0
-4
0
-4
0.0319031
-4
0.0406962
-4
0
-4
0.00880282
-4
0.0116151
-4
0.0272502
-4
0
-4
0
-4
0.0201276
-4
0.00472813
-4
0
-4
0.0333116
-4
0.021967
-4
0
-4
0
-4
0.0549912
-4
0
-4
0
-4
0
-4
0.00174303
-4
0.0277165
-4
0
-4
0
-4
0.00398137
-4
0
-4
0.0444878
-4
0
-4
0.0291037
-4
0.00702848
-4
0
-4
0
-4
0.00340241
-4
0
-4
0
-4
0.0240332
-4
0.0131649
-4
0.0315848
-4
0.0246287
-4
0.0256831
-4
0.00880886
-4
0.00178691
-4
0.0377022
-4
0.0179672
-4
0.0163558
-4
0
-4
0
-4
0.0159394
-4
0.0399454
-4
0
-4
0
-4
0
-4
0.0329976
-4
0
-4
0
-4
0
-4
0.00133389
-4
0.00936088
-4
0
-4
0.0197286
-4
0.0170661
-4
0.019044
-4
0.0172401
-4
0.00261575
-4
0.013432
-4
0
-4
0.022619
-4
0
-4
0.00116759
-4
0
-4
0.0112699
-4
0.0162272
-4
0.0390945
-4
0.00926203
-4
0
-4
0.0154168
-4
0.00160385
-4
0.0208928
-4
0.00581348
-4
0
-4
0
-4
0.0135343
-4
0
-4
0.00376618
-4
0.0286787
-4
0.00332554
-4
0
-4
0.00101533
-4
0.0112499
-4
0.00469484
-4
0.0470096
-4
0.0201331
-4
0.0527173
-4
0.0243462
-4
0
-4
0
-4
0
-4
0.00859526
-4
0.0139734
-4
0
-4
0
-4
0.0156086
-4
0
-4
0.000913868
-4
0
-4
0
-4
0.0362016
-4
0.0140277
-4
0.0239498
-4
0.00832645
-4
0.0123844
-4
0.0516752
-4
0
-4
0.0274628
-4
0.0088239
-4
0.00184762
-4
0
-4
0.0111063
-4
0.0333539
-4
0.0174657
-4
0
-4
0
-4
0.0353779
-4
0.0112286
-4
0.0552744
-4
0
-4
0
-4
0
-4
0.0546278
-4
0
-4
0.0439536
-4
0
-4
0.0079739
-4
0.0355948
-4
0.00822278
-4
0.0192545
-4
0
-4
0.00602047
-4
0
-4
0
-4
0
-4
0
-4
0
-4
0.0446941
-4
0
-4
0
-4
0
-4
0.0212199
-4
0
-4
0
-4
0
-4
0.00263398
-4
0
-4
0
-4
0.00700642
-4
0.0544894
-4
0.0193831
-4
0.0143753
-4
0.00491273
-4
0.0395083
-4
0.00710009
-4
0.00382473
-4
0.0334163
-3
0.00166212
-4
0
-4
0
-4
0.00749798
-4
0.021488
-4
0
-4
0.0269455
-4
0
-4
0
-4
0.0304852
-4
0
-4
0
-4
0
-4
0
-4
0.0195885
-4
0.0116329
-4
0.00592604
-4
0
-4
0
-4
0
-4
0
-4
0
-4
0.0166286
-4
0.0191496
-4
0
-4
0
-4
0.000415835
-4
0
-4
0
-4
0.0324343
-4
0.01944
-4
0
-4
0
-4
0.000252738
-4
0.0295024
-4
0.0118158
-4
0
-4
0
-4
0.0122969
-4
0
-4
0
-4
0.0343929
-4
0.0131479
-4
0.00287117
-4
0.00163559
-4
0.00337449
-4
0.0222375
-4
0
-4
0
-4
0.0243576
-4
0
-4
0.0264344
-4
0
-4
0
-4
0.0251567
-4
0.0104103
-4
0.00916617
-4
0.0291201
-4
0.0192859
-4
0
-4
0.000235368
-4
0
-4
0
-4
0.0298759
-4
0.0203793
-4
0
-4
0
-4
0
-4
0.0193173
-4
0.00350798
-4
0.00298157
-4
0
-4
0.0224748
-4
0.000847099
-4
0
-4
0
-4
0
-4
0
-4
0
-4
0
-4
0.0138631
-4
0.0108123
-4
0.000933945
-4
0
-4
0
-4
0.00785322
-4
0.000446628
-4
0.0134001
-4
0
-4
0
-4
0
-4
0
-4
0.000976086
-4
0.0217695
-4
0
-4
0
-4
0
-4
0
-4
0.0172131
-4
0
-4
0
-4
0
-4
0
-4
0
-4
0.0264263
-4
0
-4
0
-4
0.0349733
-4
0
-4
0.0406433
-4
0.0355307
-4
0.00725451
-4
0
-4
0
-4
0.0140272
-4
0.00551318
-4
0.0390437
-4
0
-4
0
-4
0
-4
0
-4
0.0255337
-4
0
-4
0.0465055
-4
0
-4
0.00693255
-4
0
-4
0.0381849
-4
0
-4
0.00501388
-4
0.00414216
-4
0.0192346
-4
0
-4
0
-4
0
-4
0.045923
-4
0.0166216
-4
0.0332107
-4
0
-4
0.0131668
-4
0
-4
0
-4
0
-4
0
-4
0
-4
0.00135757
-4
0.00963433
-4
0.00651117
-4
0.0343752
-4
0.0288442
-4
0.00176807
-4
0.0135347
-4
0.00705329
-4
0
-4
0.00322214
-4
0.000878563
-4
0
-4
0.0307056
-4
0.0211514
-4
0
-4
0
-4
0.043381
-4
0.0314316
-4
0
-4
0.0246707
-4
0.00529928
-4
0.000581251
-4
0.00109398
-4
0.00144175
-4
0
-4
0
-4
0
-4
0.0425599
-4
0
-4
0
-4
0.0195756
-4
0
-4
0
-4
0.0051697
-4
0.000200743
-4
0.0288753
-4
0.0191932
-4
0
-4
0.0361151
-4
0.0134915
-4
0
-4
0.00850579
-4
0.00016372
-4
0
-4
0
-4
0.0325145
-4
0.00440735
-4
0.0311341
-3
0.0012274
-4
0
-4
0.0104183
-4
0
-4
0
-4
0.000905706
-4
0.027345
-4
0
-4
0
-4
0
-4
0.00608804
-4
0.0398631
-4
0.0201673
-4
0
-4
0
-4
0.0110914
-4
0.0121874
-4
0.0133372
-4
0
-4
0
-4
0
-4
0
-4
0
-4
0
-4
0
-4
0.00514348
-4
0
-4
0.00417815
-4
0
-4
0.0212045
-4
0
-3
0.0062096
-3
0.00294068
-4
0
-4
0
-4
0.0480015
-4
0
-4
0
-4
0
-4
0.041596
-4
0.00791834
-4
0.0519747
-4
0
-4
0.00585938
-4
0.0988503
-4
0.00220899
-4
0
-4
0.0132497
-3
0.00203864
-4
0
-4
0
-4
0.0203845
-3
0.00745823
-4
0.0232877
-4
0
-4
0.0363999
-4
0.00767754
-4
0.000791217
-4
0
-4
0.0295249
-4
0
-4
0
-4
0.0348896
-4
0.0555095
-4
0
-4
0
-4
0
-4
0
-4
0.000815993
-4
0.0138552
-4
0.0261277
-4
0
-4
0.0289312
-4
0.024494
-4
0.00663871
-4
0
-4
0.0057296
-4
0.00124494
-4
0
-4
0.00924586
-4
0.00475543
-4
0.0106625
-4
0
-4
0
-4
0.0222679
-4
0.0223548
-4
0.0357944
-4
0.00175845
-4
0
-4
0.0026785
-4
0.0295283
-4
0.000198098
-4
0.0170382
-4
0.0108705
-4
0.00357782
-4
0
-3
0.00120495
-4
0.0366434
-4
0.0348262
-4
0
-3
0.009734
-4
0
-4
0
-4
0.0079769
-4
0
-4
0
-4
0
-4
0.0269485
-4
0.0300592
-4
0.0140464
-4
0
-4
0.0058134
-4
0
-4
0.00150889
-4
0.00645161
-4
0.00134333
-4
0
-4
0.0124811
-4
0.00694048
-4
0.0431357
-4
0.00691419
-3
0.00275997
-4
0.00115785
-4
0.100254
-4
0.0432696
-4
0
-4
0
-4
0.0310097
-4
0
-4
0
-4
0.0291289
-4
0.0168609
-4
0
-4
0.0129071
-4
0.0117906
-4
0
-4
0
-4
0
-4
0
-4
0.0130349
-4
0
-4
0
-4
0
-4
0
-4
0
-4
0.0157937
-4
0
-4
0
-4
0.00131791
-4
0.00741362
-4
0
-4
0
-4
0.0208875
-4
0
-4
0
-4
0
-4
0
-4
0
-4
0.0199699
-4
0.0178046
-4
0.0130811
-4
0.017199
-4
0.00483725
-4
0
-4
0.00295276
-4
0.0144549
-4
0.00918033
-4
0.000253721
-4
0.0158152
-4
0.0278247
-4
0.0463918
-4
0
-4
0
-4
0
-4
0.0207033
-4
0.0186515
-4
0.00595116
-4
0.0450397
-4
0
-4
0.00637153
-4
0
-4
0.0161194
-3
0.0743027
-4
0.0238934
-4
0.0595307
-4
0
-4
0.0309512
-4
0.020792
-4
0
-4
0
-4
0.00207676
-4
0.0800783
-3
0.0288933
-4
0
-4
0.0132288
-4
0
-4
0
-4
0.022434
-4
0.0475489
-4
0
-4
0.0237297
-4
0
-4
0
-4
0
-4
0
-4
0.022212
-4
0
-4
0
-4
0
-4
0
-4
0
-4
0.0315893
-4
0
-4
0
-4
0
-4
0
-4
0.00517241
-3
0.0015036
-4
0.0011624
-4
0.0198895
-4
0.0130452
-4
0
-4
0
-4
0.02854
-4
0.00874508
-4
0.00475485
-4
0.0152684
-4
0.00378641
-4
0
-4
0.0112685
-4
0.0115853
-4
0.0131175
-4
0
-4
0.0192758
-4
0.00388802
-3
0.0288724
-4
0
-4
0.0289137
-4
0.00828065
-4
0
-4
0
-4
0.0428478
-4
0.0258594
-4
0.0235367
-4
0
-4
0.00799228
-4
0.00146654
-4
0.0384587
-4
0.00307692
-4
0
-4
0.0249187
-4
0.0225474
-4
0.0238526
-4
0
-4
0
-4
0
-4
0
-4
0.0114042
-4
0
-4
0
-3
0.0203067
-4
0.0260908
-4
0.0627326
-4
0.0534225
-4
0
-4
0
-4
0.00581177
-4
0
-4
0
-4
0.0127289
-4
0
-4
0.0199148
-4
0
-4
0
-4
0
-4
0
-4
0.000775645
-4
0
-4
0
-4
0
-4
0
-4
0.00274358
-4
0.0064789
-4
0
-4
0.0345525
-4
0.0189649
-4
0.0382984
-4
0.0431734
-4
0.0140145
-4
0.0148221
-4
0.0324809
-4
0
-4
0
-4
0
-4
0.00491693
-4
0
-4
0
-4
0.0291814
-4
0
-3
0.0256262
-4
0
-4
0
-4
0.0166389
-4
0
-4
0.00649004
-4
0
-4
0
-4
0
-4
0.00592593
-4
0
-4
0.0451212
-4
0
-4
0
-4
0
-4
0
-4
0
-4
0
-4
0
-4
0.0463562
-4
0
-4
0.0308931
-4
0.00499474
-4
0
-4
0.0271463
-4
0.0021097
-4
0
-4
0
-4
0
-4
0.0290683
-4
0.00253958
-4
0.00334872
-4
0.0124748
-3
0.0255066
-4
0.0264743
-4
0
-4
0
-4
0
-4
0.00382768
-4
0
-4
0
-4
0
-4
0
-4
0.0144187
-4
0.0237882
-4
0.00618842
-4
0
-4
0
-4
0.0205281
-4
0.00398989
-4
0.00187045
-4
0
-4
0.0217456
-4
0.0173862
-4
0
-4
0.0111322
-4
0
-4
0.0133486
-4
0
-4
0
-4
0
-4
0.0147524
-4
0.0278944
-4
0.00655211
-4
0
-4
0.0176137
-4
0
-4
0.00230947
-4
0.0465336
-4
0.000322737
-4
0
-4
0
-4
0
-4
0
-4
0
-4
0.0425282
-4
0.0232764
-4
0
-4
0
-4
0.0118141
-4
0.0424716
-4
0.00189208
-4
0.00739399
-4
0.0425969
-4
0
-4
0.0144398
-4
0
-4
0
-4
0.0210939
-4
0
-4
0.0365402
-4
0.027515
-4
0.0222656
-4
0.0206457
-4
0
-4
0
-4
0
-4
0.00519406
-4
0
-4
0.00219974
-4
0
-4
0
-4
0
-4
0.044299
-4
0.00219263
-4
0.0130658
-4
0.00174853
-4
0.00087321
-4
0.02008
-4
0
-4
0.0306701
-3
0.00732251
-4
0
-4
0
-4
0
-4
0
-4
0
-4
0.0044537
-4
0.00639706
-4
0
-4
0.00104904
-4
0
-4
0.0209586
-4
0.00632543
-4
0.00246184
-4
0
-4
0.00131951
-4
0.0257778
-4
0
-4
0
-4
0
-4
0
-4
0
-4
0.00588694
-4
0.00104019
-4
0.00722374
-4
0
-4
0.0213082
-4
0
-4
0.0180236
-4
0.0312818
-4
0
-4
0
-4
0.00474131
-4
0.0103273
-4
0
-4
0.059913
-4
0
-4
0.00140603
-4
0.0114237
-4
0
-3
0.0042117
-4
0.0169631
-4
0.000185048
-4
0.000246366
-4
0
-4
0.0095098
-4
0
-4
0.00143206
-4
0.0106989
-4
0.0104282
-4
0.00700019
-4
0.0364473
-4
0
-4
0.0493117
-4
0
-4
0.038139
-4
0
-4
0.0215676
-4
0
-4
0.017243
-4
0
-4
0
-4
0.027897
-4
0.0228508
-4
0.0386918
-3
0.00906724
-4
0.0414373
-4
0
-4
0
-4
0.0479595
-3
0.0486077
-4
0.0254019
-4
0.013009
-4
0.0127937
-4
0
-4
0
-4
0
-4
0.0184172
-4
0
-4
0
-4
0
-4
0.00259021
-4
0.00234121
-4
0.0174014
-4
0
-4
0.0013245
-4
0.0133736
-4
0.0517728
-4
0.0132837
-4
0.034759
-4
0.0100503
-4
0
-3
0.0211644
-4
0.033034
-4
0.0245208
-4
0
-4
0
-4
0.00141457
-4
0.00254268
-4
0
-4
0.000745643
-4
0.0111353
-4
0
-4
0
-4
0.0286552
-4
0.0088114
-4
0.00390286
-4
0.0280992
-4
0.0148998
-4
0
-4
0
-4
0
-4
0
-4
0
-4
0.00701966
-4
0.00567978
-4
0
-4
0.0329198
-4
0
-4
0
-4
0
-4
0
-4
0
-3
0.0548051
-4
0.0312755
-4
0.0178034
-4
0.0223042
-4
0.00469932
-4
0.00114274
-4
0.00784796
-4
0
-4
0.0169579
-4
0
-3
0.00560392
-4
0
-4
0
-4
0
-4
0.00114839
-4
0
-4
0.000906865
-4
0.000564079
-4
0
-4
0
-4
0.0372641
-4
0.00133104
-4
0.0252988
-4
0.0473059
-4
0
-4
0
-4
0.00247117
-4
0.0200785
-4
0
-4
0.0164835
-4
0.00814406
-4
0
-4
0.0264024
-4
0
-4
0
-4
0
-4
0
-4
0
-4
0.00930851
-4
0.0122408
-4
0
-4
0.00395257
-4
0.0169031
-4
0.00800437
-4
0.0429896
-4
0
-4
0.0205183
-4
0.00997222
-4
0.023219
-4
0.044803
-4
0
-4
0
-4
0.0273721
-4
0.0434576
-4
0
-4
0.0102116
-4
0
-4
0.00173951
-4
0
-4
0
-4
0
-4
0
-4
0.00369133
-4
0
-4
0.0297435
-4
0.0166013
-4
0.0369195
-4
0
-4
0
-4
0.0225509
-4
0
-4
0.00330606
-4
0.000497958
-4
0
-4
0
-4
0.0202381
-4
0.0286751
-4
0
-3
0
-4
0
-4
0
-4
0
-4
0.0138732
-4
0
-4
0.00122537
-4
0
-4
0
-4
0.00409591
-4
0
-4
0.00775386
-4
0
-4
0.00310331
-4
0.0395307
-4
0
-4
0.0149671
-4
0.00152858
-4
0.00902716
-4
0
-4
0.0143179
-4
0.0146467
-4
0
-4
0.00295394
-4
0.0327777
-4
0.030303
-4
0.0255518
-4
0.0495063
-4
0.0379197
-4
0.016307
-4
0.0275401
-4
0
-4
0.0234016
-4
0.0347249
-4
0.00254994
-4
0
-4
0
-4
0
-4
0.0125059
-4
0
-4
0
-4
0
-4
0
-4
0.0310732
-4
0.0510059
-4
0.0175337
-4
0.0346513
-4
0
-4
0
-4
0
-4
0.0174983
-4
0
-4
0.000818331
-4
0.013005
-4
0.00219673
-4
0
-4
0.0491947
-4
0.00449658
-4
0
-4
0.0294495
-4
0.0401456
-4
0.0160633
-4
0.0215688
-4
0.000718197
-4
0
-4
0.0199135
-4
0.0129257
-4
0
-4
0
-4
0
-4
0.0158638
-4
0.0156159
-4
0
-4
0.00676395
-4
0
-4
0
-4
0.028424
-4
0.016096
-4
0.0258461
-4
0.0406154
-4
0
-4
0.0213197
-4
0.0247183
-4
0.0518234
-4
0.00838355
-4
0
-4
0.02402
-4
0
-4
0.00878707
-4
0.0305475
-4
0.00249922
-4
0
-4
0
-4
0
-4
0
-4
0.00409836
-4
0
-4
0.00555382
-4
0
-4
0
-4
0.00575678
-4
0
-4
0
-4
0.00118017
-4
0
-4
0.00905782
-4
0
-4
0
-4
0.00254958
-4
0.0025128
-4
0
-4
0.0356575
-4
0.0309371
-4
0.0138039
-4
0
-4
0
-3
0.0231058
-4
0.00402512
-4
0
-4
0.00803808
-4
0
-4
0
-4
0.0523893
-4
0.000472627
-4
0
-4
0.0143924
-4
0
-4
0.0124883
-4
0.00670491
-4
0.0173568
-4
0.0539555
-4
0.0308631
-4
0.0219276
-4
0.00231125
-4
0.000465983
-3
0.0288398
-4
0.000154333
-4
0
-4
0
-4
0.00471175
-4
0
-4
0.0396697
-4
0
-4
0
-4
0.00719075
-4
0
-4
0.0231337
-4
0.0394162
-4
0
-4
0
-4
0.00155115
-4
0
-4
0.018123
-4
0
-4
0
-4
0.0335868
-4
0.00892451
-4
0.00643552
-4
0.0135418
-4
0.000626959
-4
0
-4
0
-4
0
-4
0.00163835
-4
0
-4
0
-4
0.00627568
-4
0
-4
0
-4
0.0204592
-4
0.00631897
-4
0
-4
0
-4
0.0219635
-4
0.0669788
-4
0.00692426
-4
0
-4
0.0429671
-4
0.00176605
-4
0.00972405
-4
0.00447871
-4
0.029361
-4
0
-4
0.0421737
-4
0.0354408
-4
0.0417381
-3
0.00209463
-4
0.00684331
-3
0.0197692
-4
0
-4
0
-4
0.0198621
-4
0
-4
0.0134663
-4
0.0296001
-4
0.0302744
-4
0
-4
0.0209224
-4
0.0127258
-4
0.0277463
-4
0.0408442
-4
0
-4
0
-4
0.00342131
-4
0.0308423
-4
8.40124e-05
-4
0.0194418
-4
0
-4
0
-4
0.0174986
-4
0
-4
0
-4
0
-4
0.0197597
-4
0.00889349
-4
0.0252503
-4
0.04674
-4
0.0105848
-4
0.0235064
-4
0
-4
0.0220803
-4
0
-4
0.0114014
-4
0.0138019
-4
0
-3
0.0141403
-3
0.0138913
-4
0
-4
0
-4
0
-4
0.0327791
-4
0
-4
0.00139798
-4
0.0271256
-4
0
-4
0.0170964
-4
0
-4
0
-4
0
-4
0
-3
0.0216558
-4
0
-4
0
-4
0.0258971
-4
0
-4
0
-4
0.0117344
-4
0.00164941
-4
0.00904159
-4
0.00793716
-4
0.00520685
-4
0.0269708
-4
0.000524109
-4
0.0105618
-4
0
-4
0.00869347
-4
0.0240928
-4
0.047942
-4
0.0185085
-4
0
-4
0.0369771
-4
0.0085841
-4
0.0413114
-4
0
-4
0
-3
0.0297995
-4
0
-4
0.00537002
-4
0.0216165
-4
0
-4
0
-4
0.000181472
-4
0.0387954
-4
0
-4
0.000556085
-4
0
-4
0.0313537
-4
0
-4
0.0105196
-4
0
-4
0.0311532
-4
0
-4
0.0336217
-4
0
-4
0
-4
0.000663004
-3
0.00520198
-4
0
-4
0.00332963
-4
0
-4
0.0411178
-4
0.0285497
-4
0
-4
0.010825
-4
0.00222181
-4
0.0494977
-4
0.0495099
-4
0
-4
0.0379693
-4
0.00190559
-4
0
-4
0
-3
0.0365289
-4
0.000930088
-4
0
-4
0.00108645
-4
0
-4
0.000502008
-4
0
-4
0
-4
0
-4
0
-4
0
-4
0
-4
0.00724419
-4
0
-4
0
-4
0
-4
0.037203
-4
0.0054063
-4
0.0584319
-4
0
-4
0.0227954
-3
0.00776995
-4
0.00340408
-4
0
-4
0.0101764
-4
0.00424328
-4
0
-4
0.0192406
-4
0.00121223
-4
0
-4
0
-4
0.0175099
-4
0.0017146
-4
0.0292054
-4
0.0245719
-4
0
-4
0
-4
0.0279696
-4
0.0370583
-4
0.039423
-4
0.00649836
-4
0
-4
0
-4
0
-4
0
-4
0.040183
-4
0
-4
0
-4
0.00651387
-4
0.00290785
-4
0
-4
0.00933211
-4
0
-4
0
-4
0.0237124
-4
0
-4
0.016401
-4
0
-4
0.00592417
-4
0.00546405
-4
0.00738485
-4
0.0141142
-4
0.0275721
-4
0
-4
0
-4
0
-4
0.0290985
-4
0.0321824
-4
0
-4
0.0352179
-4
0
-4
0.00418108
-4
0.00976255
-4
0
-4
0
-4
0.0300185
-4
0
-4
0
-4
0
-4
0.0183537
-4
0
-4
0
-4
0
-4
0.00895247
-4
0.0227953
-4
0
-4
0.0413
-4
0
-3
0.0398883
-4
0
-4
0
-4
0
-4
0
-4
0.0258203
-4
0
-4
0
-4
0.0113409
-4
0.00113159
-4
0
-4
0
-4
0
-4
0
-4
0.0246785
-4
0.0431894
-4
0.019642
-4
0
-4
0
-4
0.00685659
-4
0
-4
0.0234055
-4
0.0165779
-4
0
-4
0
-4
0.00640057
-4
0
-4
0
-4
0
-4
0
-4
0.00561843
-4
0
-4
0
-4
0
-4
0.00364054
-4
0
-4
0.060136
-4
0.00177046
-4
0.0280584
-4
0.000740427
-4
0.0194282
-4
0
-4
0
-4
0
-4
0.0153532
-4
0
-4
0
-4
0.000831117
-4
0
-4
0.0260269
-4
0.0203952
-3
0.00647249
-4
0.0214081
-4
0.0230244
-4
0.0446866
-4
0
-4
0
-4
0.00734532
-4
0
-4
0
-4
0.0207852
-4
0
-4
0
-4
0
-4
0
-4
0.0036512
-4
0.0617908
-4
0
-4
0
-4
0.0190965
-4
0.0253738
-4
0.0214605
-4
0.0655876
-4
0
-4
0
-4
0.0051375
-4
0.00606505
-4
0
-4
0.00098927
-4
0.00726206
-3
0.0135234
-4
0.0401173
-4
0.00117668
-4
0.00583608
-4
0.00909985
-4
0
-4
0
-4
0.00134377
-4
0.0200624
-4
0
-4
0.000183033
-4
0.0332129
-4
0.0191403
-4
0
-4
0.0176776
-4
0
-4
0
-4
0
-4
0
-4
0.0112917
-3
0.0319324
-4
0.0122631
-4
0
-4
0.0046857
-4
0
-4
0
-4
0.0617633
-4
0
-4
0.00644895
-4
0
-4
0.0012208
-4
0
-4
0
-4
0
-4
0.000816549
-4
0.000557538
-4
0.00314694
-4
0
-4
0.0154313
-4
0.0280442
-4
0
-4
0.00696631
-4
0
-4
0.00240149
-4
0.00897227
-4
0.0383876
-4
0.00833951
-4
0.0425466
-4
0
-4
0.0167541
-4
0
-4
0
-4
0.00859346
-3
0.054102
-4
0.00292683
-4
9.21489e-05
-4
0.0109229
-4
0
-4
0
-4
0.0349631
-4
0.0245966
-4
0
-4
0.0170713
-4
0.00878382
-4
0.00107367
-4
0
-4
0.0110068
-4
0
-4
0
-4
0.0214961
-4
0
-4
0
-4
0.0380803
-4
0.00326966
-3
0.00395584
-4
0.0223634
-4
0.0271761
-4
0
-4
0.0280048
-4
0
-4
0.00645039
-4
0.0331029
-4
0.0454924
-4
0
-4
0.0145134
-4
0.0129151
-4
0.0116933
-4
0.0261345
-4
0
-4
0
-4
0
-4
0.0126594
-4
0
-4
0.0305578
-4
0
-4
0.0142533
-4
0
-4
0.0419013
-4
0.0139386
-4
0
-4
0.00622152
-4
0.0201315
-4
0
-4
0.0109065
-4
0.024598
-4
0
-4
0.0044779
-4
0.01083
-4
0
-4
0.0117026
-4
0.0137199
-3
0.0179366
-4
0.0115318
-4
0
-4
0
-4
0.0435476
-4
0.0351115
-4
0.00239425
-4
0
-4
0
-4
0.00715746
-4
0.00253685
-4
0
-4
0.0381887
-4
0.0332821
-4
0
-4
0.0285296
-4
0
-4
0
-4
0.0329053
-4
0
-4
0.00027066
-4
0
-4
0
-4
0.0254966
-4
0
-4
0
-4
0
-4
0.0168133
-4
0.00107773
-4
0
-4
0
-4
0
-4
0.0335999
-4
0.0199147
-4
0.0338574
-4
0
-4
0.00614567
-4
0.0276718
-4
0.0426325
-4
0
-4
0
-4
0
-4
0
-4
0
-4
0.0011576
-4
0.0245855
-4
0.00638774
-4
0.0146341
-4
0.000470323
-4
0.00479354
-4
0
-4
0.0296344
-4
0
-4
0.0549389
-4
0
-4
0.0277134
-4
0
-4
0
-4
0.00995421
-4
0
-4
0.00443867
-4
0
-4
0
-4
0.0132689
-3
0.0638887
-4
0.0202384
-4
0
-4
0
-4
0
-4
0.00621784
-4
0.028692
-4
0.00508666
-4
0.0224075
-4
0
-4
0.000679348
-4
0.00926388
-4
0
-4
0
-4
0.0166503
-4
0
-4
0.0209453
-4
0
-4
0.00612944
-4
0.0114126
-4
0
-4
0.0146067
-4
0.00272109
-4
0
-4
0.0173935
-4
0
-4
0
-4
0.00567771
-4
0.00596853
-4
0.00113662
-3
0.00965665
-4
0.0378819
-4
0
-4
0
-4
0.040221
-4
0
-4
0.00102746
-4
0.00019516
-4
0
-4
0.0457949
-4
0
-4
0
-4
0.00616438
-4
0
-4
0
-3
0.0160884
-3
0.0257679
-4
0
-4
0
-4
0.0294713
-3
0.000858369
-4
0
-4
0.0111242
-4
0.0242718
-4
0
-4
0
-4
0
-4
0
-4
0.0156317
-4
0.00948577
-4
0
-4
0.00645984
-4
0
-4
0
-3
0.0138912
-4
0
-4
0
-3
0.0222514
-4
0
-4
0.0420691
-3
0.032163
-4
0.0215369
-4
0.025302
-4
0.0118551
-4
0
-4
0
-4
0.00717934
-4
0.0373357
-4
0
-4
0
-4
0
-4
0
-4
0.00981836
-4
0
-4
0
-4
0.0243077
-4
0
-4
0
-4
0.0759316
-4
0
-4
0.00547731
-4
0.0348939
-4
0.0336294
-4
0
-4
0
-4
0
-4
0.00612662
-4
0
-4
0.00494263
-4
0.003003
-4
0.0354176
-4
0
-4
0
-4
0.0116822
-4
0.00807525
-4
0
-4
0.00629296
-4
0
-4
0
-4
0
-4
0
-4
0.0265912
-4
0.0253103
-4
0.0133712
-4
0.00379825
-4
0.0502372
-4
0.00131191
-4
0
-4
0.0269991
-4
0.0214633
-4
0
-4
0
-4
0.0127969
-4
0.0114329
-4
0
-4
0
-4
0
-4
0.0354649
-4
0
-4
0.00111509
-4
0.0165889
-4
0.00939816
-4
0
-4
0.0336066
-4
0.0282836
-4
0.0176898
-4
0
-4
0.0348709
-4
0.0105215
-4
0.0132833
-4
0.00438296
-4
0
-4
0
-4
0.00599875
-4
0
-4
0
-4
0
-4
0.0330219
-4
0.0043021
-4
0.0256832
-4
0
-4
0
-4
0
-4
0
-4
0
-4
0
-4
0.0415861
-4
0.0308013
-4
0.00762934
-4
0.00966949
-4
0
-4
0
-4
0.00514551
-4
0.00392868
-4
0.00839583
-4
0.0388771
-4
0.0126686
-4
0.00842815
-4
0
-4
0
-4
0
-4
0.0379076
-4
0.0124229
-4
0
-4
0.0219251
-4
0.0351844
-4
0.0373026
-4
0
-4
0.0202206
-4
0
-4
0
-4
0.00263349
-4
0
-4
0
-4
0.000802504
-4
0
-4
0.00504137
-4
0.0309993
-4
0.0358619
-4
0
-4
0.0093948
-4
0.000568774
-4
0.0217028
-4
0
-4
0.0367525
-4
0.017665
-4
0
-4
0.0163439
-4
0.0199665
-4
0
-4
0
-4
0.00900487
-4
0.02267
-4
0.0118104
-4
0.0275142
-4
0
-4
0
-4
0
-3
0.0504202
-4
0
-4
0
-4
0.019085
-4
0.0251488
-4
0.0123754
-4
0.0158811
-4
0
-4
0
-4
0
-4
0.026357
-4
0.0382619
-4
0
-4
0.0314439
-4
0.0348528
-4
0
-4
0
-4
0.00045208
-4
0
-4
0.0344665
-4
0.0127963
-4
0
-4
0
-4
0
-4
0
-4
0.000900657
-4
0.0395127
-4
0
-4
0.0138249
-4
0
-4
0
-4
0.000358327
-4
0.015674
-4
0
-4
0
-4
0.00957872
-4
0
-4
0.00880298
-4
0
-4
0
-4
0
-4
0.000298656
-4
0.000303122
-4
0.016013
-4
0
-4
0
-4
0.0188602
-4
0.000585594
-4
0
-4
0
-3
0.0143117
-3
0.0481106
-4
0.00011147
-4
0.0187518
-4
0.0180939
-4
0
-4
0
-4
0
-4
0
-4
0
-4
0
-4
0.0386559
-4
0.0292665
-4
0.00854769
-4
0.0346008
-4
0.0341051
-4
0
-4
0
-4
0
-4
0
-4
0.00290914
-4
0.00110827
-4
0
-4
0.0161524
-3
0.00487721
-4
0
-4
0
-4
0.0139361
-4
0
-4
0.014818
-4
0.0376298
-4
0.000866852
-4
0.0149691
-4
0.00646532
-4
0.00503396
-4
0
-4
0
-3
0.0119507
-4
0.0103329
-4
0.00101454
-4
0.00899444
-4
0
-4
0.0069918
-4
0.016
-4
0.00677848
-4
0.0640561
-4
0.0266667
-4
0
-4
0
-4
0
-4
0
-4
0
-4
0
-4
0
-4
0
-4
0.020718
-4
0.000998087
-4
0.0303468
-4
0.0248174
-4
0
-4
0.0108665
-4
0
-4
0
-4
0.0109647
-4
0
-4
0.011296
-4
0
-4
0.00620712
-4
0.000586756
-4
0
-4
6.80041e-05
-4
0.011761
-4
0
-4
8.69792e-05
-4
0
-4
0.0398199
-4
0.00870266
-4
0.0126253
-4
0.0223436
-4
0.000970446
-4
0.0106487
-4
0.00478504
-4
0.00991649
-4
0
-4
0.000962927
-4
0
-4
0
-4
0.0532736
-4
0
-4
0.021627
-4
0.00199506
-4
0.0182954
-4
0.0079198
-4
0
-4
0.0766622
-4
0.0281769
-4
0.000879937
-4
0
-4
0.0153261
-4
0.00642523
-4
0.00857249
-4
0
-4
0.00205304
-4
0.0172523
-4
0
-4
0
-4
0.00658415
-4
0.041385
-4
0
-4
0
-4
0.00631639
-4
0.0186631
-4
0.0323787
-4
0.0135897
-4
0.0337392
-4
0
-4
0
-4
0.0330157
-4
0.012779
-4
0.00738578
-4
0
-4
0.0222493
-4
0
-4
0
-4
0.0325049
-4
0
-4
0.00378024
-4
0.0359102
-4
0.00274955
-4
0.00383972
-4
0
-4
0
-4
0
-4
0.0294459
-4
0.00157439
-4
0
-4
0.038755
-4
0.0520259
-4
0.0154423
-4
0
-4
0
-4
0.0209997
-4
0
-4
0.00822803
-4
0.0160935
-4
0
-4
0.0169089
-4
0
-4
0.0207384
-4
0.0570479
-4
0.0446214
-4
0
-4
0.0216443
-4
0
-4
0
-4
0.038664
-4
0
-4
0
-4
0.034322
-4
0
-4
0.00558071
-4
0
-4
0.0328504
-4
0
-4
0.00875671
-4
0.0397241
-4
0.0160622
-4
0.00324018
-4
0
-4
0
-4
0
-4
0.0244898
-4
0
-4
0.0330102
-4
0.0273564
-4
0
-4
0
-4
0.0198232
-4
0.0244138
-4
0
-4
0.00121029
-4
0.00765331
-4
0
-4
0.0224379
-4
0
-4
0.00437979
-4
0.0122126
-4
0
-4
0.00411442
-4
0.0040204
-4
0
-4
0.0465116
-4
0
-4
0.00992538
-4
0
-4
0
-4
0
-4
0.0226768
-4
0
-4
0.0276347
-4
0.00643501
-4
0.0117631
-4
0.0312062
-4
0.0205063
-4
0.0265948
-4
0
-4
0
-4
0.00645828
-4
0.000983607
-4
0.00674094
-4
0
-4
0
-4
0.0305018
-4
0.00139693
-4
0.0292425
-4
0
-4
0
-4
0
-4
0
-4
0.0208787
-4
0
-4
0.0131328
-4
0
-3
0.046332
-4
0
-4
0
-4
0
-4
0.0509241
-4
0.000458015
-4
0.03264
-4
0
-3
0.00255607
-4
0.00548527
-4
0.0190724
-4
0.00905092
-4
0.0307408
-4
0.0344529
-4
0.0165805
-4
0.00338187
-4
0
-4
0.00144451
-4
0
-4
0.0197672
-4
0
-4
0.00262009
-4
0.0339824
-4
0.0268392
-4
0.0131468
-4
0
-4
0
-4
0
-4
0.001409
-3
0.00918257
-4
0
-4
0.00183983
-4
0.00161621
-4
0.00507208
-4
0.0214842
-4
0
-4
0.067501
-4
0.0113758
-4
0
-4
0
-4
0.00269766
-4
0
-4
0
-4
0.0469452
-4
0
-3
0.00424484
-4
0.0138773
-4
0
-4
0.0298829
-4
0.00685332
-4
0.0347581
-4
0
-4
0.0115108
-4
0
-4
0
-4
0
-4
0
-4
0
-4
0
-4
0.0572256
-4
0.0291572
-4
0
-4
0
-4
0
-4
0.0311877
-4
0.0287651
-4
0.00991912
-4
0.000810957
-4
0
-4
0
-4
0.00120165
-4
0.00348378
-4
0.00469765
-4
0
-4
0.00437891
-4
0.00701436
-4
0.0137047
-4
0.00136633
-4
0
-4
0.0293716
-4
0
-4
0
-4
0
-4
0.00799374
-4
0
-4
0
-4
0
-4
0.00503337
-4
0
-4
0
-4
0.00536938
-4
0
-4
0.0548712
-4
0
-4
0.0338062
-4
0
-4
0.000388765
-4
0
-4
0.0275944
-4
0.0101295
-4
0.000337952
-4
0.00326469
-4
0.0527958
-4
0.00108922
-4
0
-3
0.000842618
-4
0
-4
0
-4
0.0255756
-4
0.000378036
-4
0
-4
0
-4
0.0525819
-4
0.0185739
-4
0.00719542
-4
0.0044596
-4
0
-4
0
-4
0.00867365
-4
0
-4
0.0404965
-4
0
-4
0
-4
0.0621777
-4
0.000366748
-4
0
-4
0.0059817
-4
0.00939397
-4
0
-4
0
-4
0.0559542
-4
0.0164896
-4
0
-4
0
-4
0
-4
0.0292085
-4
0.00511509
-4
0.0198472
-4
0.0189165
-4
0
-4
0
-4
0
-4
0
-3
0.0227426
-4
0.00195775
-4
0.0157759
-4
0
-4
0
-4
0
-4
0
-4
0.00394769
-4
0.00613047
-4
0.00506724
-4
0
-4
0.0220904
-4
0.0196078
-3
0.03601
-4
0
-4
0.0027075
-4
0.0112644
-4
0.0103169
-4
0
-4
0
-4
0
-4
0.00967296
-4
0.00451415
-3
0.014288
-4
0
-4
0.0290217
-4
0.0720152
-4
0.0377848
-4
0
-4
0
-4
0
-4
0.00428996
-4
0
-4
0.0412331
-4
0
-4
0
-4
0.00135916
-4
0
-4
0
-4
0
-4
0
-4
0
-4
0
-4
0
-4
0
-4
0.00103178
-4
0
-4
0
-4
0
-4
0
-4
0
-4
0.000127291
-4
0
-4
0
-4
0
-4
0
-4
0
-4
0.0555478
-4
0
-4
0.000684151
-4
0.0245294
-4
0.0129664
-4
0.0536215
-4
0
-4
0.0587609
-4
0
-4
0.00450936
-4
0
-3
0.0338901
-4
0.000936427
-4
0
-4
0
-4
0
-4
0.0133799
-4
0.0182671
-4
0.0220158
-4
0
-4
0
-4
0.0271984
-4
0.0154822
-4
0
-4
0.0264098
-4
0.0295649
-4
0.0251766
-4
0.0319914
-4
0
-4
0
-4
0.00765641
-4
0
-4
0
-4
0.0242057
-4
0
-4
0.0127119
-4
0.000471106
-4
0
-4
0
-4
0.00555382
-4
0.00514159
-4
0
-4
0
-4
0.00157577
-4
0.0168734
-4
0
-3
0.00110824
-4
0.030275
-4
0
-4
0.00445687
-4
0
-3
0.0121444
-4
0.00226107
-4
0.0387305
-4
0
-4
0
-4
0
-4
0
-4
0
-4
0.0200912
-4
0
-4
0.000226483
-4
0
-4
0.0194789
-4
0
-4
0
-4
0
-4
0.00294944
-4
0
-4
0
-4
0
-4
0.0151541
-4
0.000561482
-4
0.0296327
-4
0.0333296
-4
0.0347521
-4
0
-4
0
-4
0
-4
0
-4
0.00851151
-4
0.0116554
-4
0.00196791
-4
0
-4
0.00285941
-4
0.00810852
-4
0.0374227
-4
0
-4
0.00816857
-4
0.00726769
-4
0.0191785
-4
0.0320634
-4
0.0154551
-4
0.0118441
-4
0.00830091
-4
0.0123544
-4
0
-4
0
-4
0.00372926
-4
0.000235239
-4
0.0375625
-4
0.0213789
-4
0
-4
0
-4
0.0369181
-4
0.00364736
-4
0
-4
0
-4
0.0185286
-4
0
-4
0.0322646
-4
0
-4
0
-4
0
-4
0
-4
0.0109141
-4
0
-4
0.0005113
-4
0
-4
0.0378538
-4
0.0066102
-4
0
-4
0.0112474
-4
0.00873451
-4
0
-4
0.00173167
-4
0.0139687
-4
0.00316104
-4
0
-4
0.0288628
-4
0.0212618
-4
0.0251233
-4
0.00995355
-4
0
-4
0
-4
0.00243023
-4
0.016724
-4
0.00240674
-4
0.000967799
-3
0.0534192
-4
0.00688606
-4
0.0156332
-4
0.00210416
-4
0.0109879
-4
0
-4
0.0010457
-4
0
-4
0
-4
0
-4
0
-4
0
-4
0
-4
0
-4
0.00220204
-4
0.0290484
-4
0.0170568
-4
0.0209616
-4
0.022866
-4
0
-4
0.0426182
-4
0
-4
0
-4
0.00328256
-4
0
-4
0.0276122
-4
0
-4
0
-4
0.00127139
-4
0
-4
0.00168364
-4
0.00301836
-4
0.0341534
-4
0
-4
0.000605641
-4
0.00142784
-4
0
-4
0.0187454
-4
0
-4
0.00988772
-4
0.000225208
-4
0.0350051
-4
0.0261562
-4
0.0388182
-4
0.0345386
-4
0
-4
0.0145671
-4
0.0249479
-4
0
-4
0
-4
0.0142548
-4
0
-4
0.00497326
-4
0
-4
0
-4
0.0118153
-4
0.00784929
-4
0
-4
0.00391236
-4
0
-4
0.0243829
-4
0
-4
0
-4
0
-4
0.0188038
-4
0
-4
0.0216931
-4
0.00284702
-3
0
-4
0.0360839
-4
0
-4
0.0286652
-4
0.00152331
-4
0.0205843
-3
0.0147508
-4
0.000649298
-4
0
-4
0.00668041
-4
0.00122921
-4
0.0160175
-4
0
-4
0
-4
0.04466
-4
0
-4
0
-4
0.00922232
-4
0.00876623
-4
0
-4
0.00729335
-4
0.0120608
-4
0.0252886
-4
0.000453145
-4
0.00644266
-4
0.0105784
-4
0.00817568
-4
0.056283
-4
0.0103561
-4
0.0014911
-4
0
-4
0
-4
0.0164427
-4
0.000609694
-4
0
-4
0.00882223
-4
0
-4
0.00349425
-4
0.000248963
-4
0.0132591
-4
0
-4
0
-4
0.00141219
-4
0
-4
0
-4
0
-4
0
-4
0.00830607
-4
0.0110774
-4
0
-4
0.00888604
-4
0.0482206
-4
0.0157353
-4
0.0684147
-4
0.0117856
-4
0.00888544
-4
0
-4
0.000931493
-4
0.0478578
-4
0.000834446
-4
0
-4
0
-4
0.0222536
-4
0
-4
0
-4
0
-4
0
-4
0.000644567
-4
0.0262214
-4
0.0210036
-4
0.00674894
-4
0
-4
0
-4
0
-4
0.0169818
-4
0
-4
0.0183382
-4
0.0142762
-4
0
-4
0.00136743
-4
0
-4
0.00290167
-4
0
-4
0.000230185
-4
0
-4
0.0133779
-4
0.00737941
-4
0.00478147
-4
0.0136157
-4
0
-4
0
-4
0.0237997
-4
0
-4
0.00432422
-4
0.0234248
-4
0
-4
0.003549
-4
0.018455
-4
0.00835561
-4
0.0166527
-4
0.0093214
-3
0.0178178
-4
0.0274378
-4
0.00980287
-4
0
-4
0
-4
0.00904633
-4
0
-4
0.00698634
-4
0.00169323
-4
0
-4
0.0201082
-4
0
-4
0.0147353
-4
0.0215596
-4
0
-4
0.0161116
-4
0.00854276
-4
0.0129119
-4
0
-4
0
-4
0.00697542
-4
0
-4
0.0108581
-4
0
-3
0.0196042
-4
0
-4
0.0335413
-4
0.0413587
-4
0
-4
0
-4
0.016566
-4
0
-4
0.0396304
-4
0.0250189
-4
0
-4
0
-4
0.0224934
-4
0
-4
0
-4
0.0103359
-4
0.0308874
-4
0
-4
0.0157036
-4
0.0188501
-4
0
-4
0
-4
0
-4
0
-4
0.00290672
-4
0.0356787
-4
0
-4
0.0293022
-4
0.0129098
-4
0.0296121
-4
0
-4
0
-4
0
-4
0.0432492
-4
0
-4
0
-4
0
-4
0
-4
0
-4
0
-4
0
-4
0
-4
0.00191441
-4
0.0121034
-4
0
-4
0.0422736
-4
0.0290657
-4
0.0284658
-4
0.0363687
-4
0.00478348
-4
0.0052691
-4
0.0131238
-4
0.00559811
-4
0
-4
0
-4
0.0267777
-4
0
-4
0.0384897
-4
0.00359747
-4
0.0080296
-4
0
-4
0.0270814
-4
0.00515503
-4
0.0247974
-4
0
-4
0.0085758
-4
0.034246
-4
0.0460492
-4
0.0469035
-4
0
-4
0
-4
0
-4
0.0101783
-4
0
-4
0
-4
0
-4
0.000672366
-4
0.00832991
-4
0.030293
-4
0.0163823
-4
0.0135344
-4
0
-4
0.00964781
-4
0
-4
0
-4
0
-4
0.0313602
-4
0.00211135
-4
0.0113458
-4
0
-4
0.008115
-4
0
-4
0
-4
0
-4
0.0138038
-4
0.0289061
-4
0.00169019
-4
0.00201934
-4
0.0202769
-4
0
-4
0.00476868
-4
0.0306995
-4
0
-4
0
-4
0.0336814
-4
0
-4
0.0225513
-4
0
-4
0
-3
0.0396554
-4
0.00944469
-4
0.036752
-4
0.0142509
-4
0
-4
0
-4
0.00660363
-4
0.0215688
-4
0.0127778
-4
0.0324078
-4
0.00825715
-4
0
-4
0
-4
0
-4
0.0165655
-4
0
-4
0.0188333
-4
0
-4
0
-3
0.025036
-4
0.0341256
-4
0.00190526
-4
0
-4
0
-4
0.0291146
-4
0.0242806
-4
0.00920453
-4
0.0195593
-4
0
-4
0
-4
0
-4
0.0210149
-4
0
-4
0
-4
0.0279829
-4
0.00706877
-4
0
-4
0
-4
0
-4
0.0236405
-4
0
-4
0.049786
-4
0
-4
0.004095
-4
0.0455915
-4
0
-4
0.0256598
-4
0.00186899
-4
0
-4
0.0308188
-4
0.00833526
-4
0.00601113
-4
0
-4
0
-4
0.0424698
-4
0.018768
-4
0.0228583
-4
0
-4
0.00103806
-4
0.000934818
-4
0.0207063
-4
0.0308135
-4
0.0459725
-4
0
-4
0.0224333
-4
0.00847721
-4
0
-4
0.0167431
-4
0
-4
0
-4
0.0185318
-4
0.0274274
-3
0.0169864
-4
0
-4
0
-4
0.0224727
-4
0
-4
0
-4
0.0145917
-4
0
-4
0
-4
0
-4
0.0440026
-4
0.00480691
-4
0.0112555
-4
0.0049505
-4
0
-4
0
-4
0
-4
0.008606
-4
0.00524555
-4
0
-4
0
-4
0
-4
0
-4
0
-4
0
-4
0
-4
0.0255357
-4
0.063197
-4
0
-3
0.00172944
-4
0
-4
0
-4
0
-4
0
-4
0.00409889
-4
0
-4
0
-4
0.0137072
-4
0
-4
0.0136736
-4
0.0156504
-4
0.00113488
-4
0.0461467
-4
0.024971
-4
0
-4
0
-4
0
-4
0
-4
0.0170557
-4
0
-4
0.0185524
-4
0
-4
0.000279779
-4
0
-4
0.0102302
-4
0
-4
0.0145985
-4
0.00110767
-4
0.00248234
-4
0
-4
0.0017942
-4
0
-4
0.0198203
-4
0
-4
0
-4
0
-4
0
-4
0
-3
0.0165799
-3
0.0225262
-4
0
-4
0
-4
0
-4
0
-4
0.0214443
-4
0.00175382
-4
0.00931337
-4
0
-4
0
-4
0
-4
0.0302699
-4
0
-4
0.0371039
-4
0
-4
0
-4
0
-4
0
-4
0
-4
0
-4
0.000746269
-4
0.0157584
-4
0
-4
0
-4
0
-4
0.0286371
-4
0.0401344
-4
0
-4
0.0189542
-3
0.000394322
-4
0
-4
0
-4
0
-4
0
-4
0
-4
0.0216744
-4
0
-4
0.0322709
-4
0
-4
0
-4
0
-4
0.0117483
-4
0.0124517
-4
0
-4
0
-4
0.0408784
-4
0
-4
0.0308481
-4
0
-4
0.037987
-4
0.0139959
-4
0
-4
0
-4
0
-4
0
-4
0.0260688
-4
0
-4
0
-4
0.00129405
-4
0
-4
0
-4
0.00719318
-4
0
-4
0.00582981
-4
0
-4
0
-4
0.0136302
-4
0
-4
0.023479
-4
0.0350164
-4
0
-4
0
-3
0.00358786
-4
0.0297865
-4
0
-4
0
-4
0.0105164
-4
0.0250377
-4
0.00134963
-4
0.0261557
-4
0.046595
-4
0.0150097
-4
0
-4
0.0259492
-4
0
-4
0
-4
0.0258802
-4
0
-4
0
-4
0.0117667
-4
0.0321404
-4
0.029426
-4
0.0203796
-4
0.0251491
-4
0.0298404
-4
0.0514602
-4
0.018263
-4
0.0148227
-4
0
-4
0
-4
0
-4
0.0267505
-4
0.0242821
-4
0
-4
0
-4
0
-4
0
-4
0.0134512
-4
0.028869
-4
0.035101
-4
0.00465352
-4
0.0743636
-4
0.00604101
-4
0.0193686
-4
0.0345197
-4
0.00433839
-4
0
-4
0.0146619
-4
0
-4
0
-4
0.00040568
-4
0
-4
0.00425237
-3
0.0179061
-4
0.00921016
-4
0.00878625
-4
0
-4
0.0218744
-4
0.081602
-4
0.010621
-4
0
-4
0
-4
0
-4
0.0530748
-4
0
-4
0.0347165
-4
0
-4
0
-4
0
-4
0
-4
0.0343045
-4
0
-4
0.00283699
-4
0.00659799
-4
0.0445665
-4
0.0175619
-4
0.0426475
-4
0
-4
0.0103148
-4
0
-4
0.00679299
-4
0
-4
0
-4
0
-4
0
-4
0.000932836
-4
0.0285441
-4
0
-4
0
-4
0.0574814
-4
0
-4
0.035054
-4
0.0112658
-4
0.0150871
-4
0
-3
0.0120579
-4
0.0246246
-4
0
-4
0.00708738
-4
0.00782871
-4
0
-4
0.0170958
-4
0.00413939
-4
0.00602617
-4
0.0207066
-4
0
-4
0
-4
0
-4
0.0298356
-4
0.00228224
-4
0
-4
0.00435549
-4
0.0147272
-4
0
-4
0.00330649
-4
0.0335864
-4
0.00312835
-4
0.00623229
-4
0.0196093
-4
0
-4
0.0359895
-4
0
-4
0
-4
0.023913
-4
0
-4
0
-4
0.0221982
-4
0
-4
9.21319e-05
-4
0
-4
0
-4
0
-4
0
-4
0.0389726
-4
0
-4
0.00262776
-4
0
-4
0
-4
0
-4
0
-4
0
-4
0.000621987
-4
0
-4
0.00637191
-4
0.0118589
-4
0.0170112
-4
0
-4
0
-4
0
-4
0.0145462
-4
0
-4
0.0265468
-4
0.0270975
-4
0.0112782
-4
0
-4
0.00473516
-4
0
-4
0
-4
0.0276447
-4
0.0261732
-4
0.00168232
-4
0
-4
0.00170874
-3
0.0348457
-4
0.00724638
-4
0.040575
-4
0
-4
0.0101292
-4
0.0132044
-4
0.0190447
-4
0.0109846
-4
0.0242562
-4
0.0306154
-4
0.0490351
-4
0.000756348
-4
0
-4
0.0519688
-4
0
-4
0.00750395
-4
0
-4
0.000151069
-4
0
-4
0.0101668
-4
0
-4
0.0278024
-4
0
-4
0
-4
0
-3
0.00325733
-4
0.00377963
-4
0
-4
0
-4
0.0265754
-4
0
-4
0
-4
0
-4
0
-4
0.0503223
-4
0.0094402
-4
0
-4
0.0520292
-4
0.00104308
-4
0.0401853
-4
0.0153846
-4
0.0291227
-4
0.0443091
-4
0.0320582
-4
0.00989613
-4
0.0224671
-4
0
-4
0.0110423
-4
0.028818
-4
0.00359184
-4
0.00218111
-4
0
-4
0
-4
0.0102516
-4
0.0470112
-4
0
-4
0
-4
0.0291196
-4
0.0361803
-4
0
-4
0
-4
0.0310604
-4
0.0144502
-4
0
-4
0.0174796
-4
0.000310897
-4
0.0936981
-4
0
-4
0.0312169
-4
0.0193493
-4
0
-4
0
-3
0.0122167
-4
0
-4
0
-4
0
-4
0
-4
0
-4
0
-4
0
-4
0
-4
0.00318765
-4
0
-4
0
-4
0
-4
0
-4
0.00668472
-4
0
-4
0
-4
0
-4
0.0486165
-4
0.0161389
-4
0
-3
0.0431496
-4
0.021428
-4
0
-4
0
-4
0
-4
0.00667913
-4
0
-4
0
-4
0.0178156
-4
0
-4
0
-4
0.00644391
-4
0.00101626
-4
0
-4
0.00539707
-4
0
-4
0.00574251
-4
0.00541684
-4
0
-4
0
-4
0.0132078
-4
0
-4
0
-4
0.00340522
-4
0
-4
0
-3
0.0308616
-4
0.0276189
-4
0.0286614
-4
0.0272512
-4
0.000422386
-4
0.0122307
-4
0.0301093
-4
0
-4
0
-4
0
-4
0
-4
0
-4
0
-4
0.00662366
-4
0
-4
0
-4
0
-4
0.023907
-4
0
-4
0
-4
0.0103214
-4
0.000216169
-4
0.0166225
-4
0
-4
0.00959086
-4
0
-4
0
-4
0.0163727
-4
0.019254
-4
0.0538342
-4
0.00969105
-4
0.000848438
-4
0.0349707
-4
0.019526
-4
0.00388319
-4
0
-4
0
-4
0.0418054
-4
0.00194334
-4
0.0497283
-4
0.00507362
-4
0
-4
0.011254
-4
0.00426545
-4
0.0158577
-4
0
-4
0
-4
0.0214078
-4
0.009136
-4
0
-4
0.0104616
-4
0
-4
0
-4
0.0288294
-4
0.0171955
-4
0.00634989
-4
0.0142969
-4
0
-4
0.00235147
-4
0
-4
0
-4
0
-4
0.0212291
-4
0
-4
0.000475342
-4
0
-4
0.0245797
-4
0
-4
0
-4
0.00915803
-4
0
-4
0
-4
0.0360874
-4
0.0274094
-4
0
-4
0.0409673
-4
0.0790758
-4
0.0191469
-4
0
-4
0
-4
0
-4
0.0308658
-4
0.0010046
-4
0.0319993
-4
0.000269614
-4
0
-4
0
-4
0
-4
0
-4
0
-4
0.0224087
-4
0
-4
0.0189888
-4
0.0210795
-4
0
-4
0.0070577
-4
0.00526932
-4
0
-4
0.00864526
-4
0
-4
0.00635084
-4
0
-4
0
-3
0.00754971
-4
0.0446988
-4
0
-4
0.00838304
-4
0
-4
0.000647808
-4
0.0133038
-4
0.0150347
-4
0.00591831
-4
0.00166389
-4
0.0135415
-4
0
-4
0
-4
0
-4
0.0352916
-4
0
-4
0.00911239
-4
0
-4
0.0039604
-4
0.0480835
-4
0.0260371
-4
0
-4
0.0347927
-4
0
-4
0.0195952
-4
0
-4
0.0125725
-4
0.00237224
-4
0.00218755
-4
0.0109594
-4
0.0012226
-4
0.00800641
-4
0
-4
0.0149821
-4
0
-4
0
-4
0.020199
-4
0.0502543
-3
0.0165968
-4
0.00814717
-4
0.056159
-4
0.0147766
-4
0
-4
0.0449054
-4
0.00254566
-4
0
-4
0
-4
0.0238701
-4
0
-4
0.0358566
-4
0.00204063
-4
0.0006413
-4
0.0202432
-4
0.0334232
-4
0.00197256
-4
0
-4
0.00445798
-4
0.00261403
-4
0.00580862
-4
0.0107678
-4
0.0267134
-4
0
-3
0.00381437
-4
0.0127726
-4
0.0205682
-4
0.00536566
-4
0
-4
0.00794039
-4
0.0249367
-4
0
-4
0.0301835
-4
0.00646936
-4
0
-4
0.00184207
-4
0
-4
0
-4
0.0395993
-4
0.0138817
-4
0.0323877
-4
0.0236011
-4
0
-4
0.048
-4
0
-4
0.0175814
-4
0.0155923
-3
0.00995869
-4
0
-4
0.00165272
-4
0.000301296
-4
0.0103823
-4
0
-4
0.00410272
-4
0
-4
0
-4
0.00163524
-4
0
-4
0.0287678
-4
0.000916422
-4
0.00125258
-4
0
-4
0
-4
0
-4
0
-4
0
-4
0
-4
0
-4
0.00231289
-4
0
-4
0.00295113
-4
0.00391389
-4
0
-4
0
-4
0.0156673
-4
0.0264464
-4
0
-4
0
-4
0.00882724
-4
0
-4
0.0344071
-4
0
-4
0.02055
-4
0
-4
0.00560669
-4
0.00112511
-4
0.0154904
-4
0
-4
0
-4
0.0182715
-4
0
-4
0
-4
0.00964535
-4
0
-4
0.0111047
-4
0
-4
0.0227273
-4
0.00557588
-4
0.0246294
-4
0.0127143
-4
0.00140845
-4
0.0210104
-4
0.00222813
-4
0
-4
0
-4
0
-4
0
-4
0.0207404
-3
0.00501528
-4
0
-4
0.0254983
-4
0.0398411
-4
0
-4
0
-4
0.0206902
-4
0
-4
0
-4
0
-4
0
-4
0.0327971
-4
0.0253599
-4
0
-4
0
-4
0.0225411
-4
0.0262305
-4
0.0187357
-4
0.0492576
-4
0
-4
0
-4
0
-4
0
-4
0.0324648
-4
0.0114018
-4
0.0192951
-4
0.0125548
-4
0
-4
0.00470075
-4
0.0197044
-4
0
-4
0
-4
0
-4
0
-4
0.00503757
-4
0
-4
0.0151431
-4
0
-4
0.00276243
-4
0.00114594
-4
0.0137391
-4
0.0260256
-4
0
-4
0
-4
0.0320781
-4
0.0320084
-4
0
-3
0.0064954
-4
9.7371e-05
-4
0
-4
0
-4
0
-4
0.0179021
-4
0
-4
0.0111869
-4
0.0271809
-4
0
-4
0.00820738
-4
0.00435388
-4
0.0172619
-4
0.015461
-4
0.0183154
-4
0
-4
0.0102329
-4
0
-4
0.00482325
-4
0.0187789
-4
0.00281591
-4
0
-4
0.0108858
-4
0
-4
0.0209852
-4
0
-4
0.0299164
-4
0.0371214
-4
0
-4
0
-4
0
-4
0
-4
0.0154158
-4
0.0371691
-4
0.00129157
-4
0.026961
-4
0.00330974
-4
0
-4
0.0416183
-4
0.0257051
-4
0
-4
0.0392933
-4
0.00107907
-4
0
-4
0.0290413
-4
0.00143812
-4
0
-4
0
-4
0.000418702
-4
0
-4
0
-4
0
-4
0
-3
0.0117471
-4
0.000362024
-4
0
-4
0.0231345
-4
0.021978
-4
0.00469104
-4
0.0506826
-4
0.020076
-4
0.0504587
-4
0.00928603
-4
0.00247857
-4
0
-4
0.0175902
-4
0.00376138
-4
0
-4
0
-4
0
-4
0.0100375
-4
0.00790748
-4
0.0103191
-4
0
-4
0.00738746
-4
0.0241013
-4
0
-4
0.0206979
-4
0.0158283
-4
0.000442152
-4
0.00647174
-4
0
-4
0
-4
0
-4
0.00119367
-4
0.0126444
-4
0
-4
0
-4
0
-4
0
-4
0.0156883
-4
0.0195805
-4
0.0190747
-4
0
-4
0
-4
0.0211273
-4
0
-4
0.00573043
-4
0.00210276
-4
0.0266822
-4
0
-4
0.0268416
-4
0
-3
0.0290542
-4
0.0528019
-4
0
-4
0
-4
0.023241
-4
0.0162237
-4
0
-4
0.0196389
-4
0
-4
0
-4
0
-4
0.0434065
-4
0.0204048
-4
0.00053135
-4
0.0273863
-4
0
-4
0
-4
0.0250447
-4
0.0166104
-4
0.0040224
-4
0.0167625
-4
0.027133
-4
0.000566786
-4
0
-4
0
-4
0.035972
-4
0
-4
0.0145627
-4
0.000597933
-4
0.0145544
-4
0
-4
0
-4
0
-4
0.00444685
-4
0.00108397
-4
0.00783194
-4
0
-4
0
-4
0
-4
0.0392978
-4
0.0493458
-4
0.0229236
-4
0.0256795
-4
0.00447709
-4
0
-4
0.0394346
-4
0
-4
0
-4
0
-4
0.0123849
-4
0.000538735
-4
0
-4
0.0214925
-4
0
-4
0
-4
0.00582477
-4
0
-3
0.0265442
-4
0
-4
0
-4
0.00174689
-4
0
-4
0.0253292
-4
0.00423768
-4
0.00440529
-4
0
-4
0.00368202
-4
0.0447783
-4
0.0339413
-4
0.0301343
-4
0
-3
0.045458
-4
0
-4
0
-4
0
-4
0
-4
0
-4
0.0268153
-4
0
-4
0
-4
0.00119365
-4
0.000357366
-4
0
-4
0.00169914
-4
0
-4
0
-4
0.0116009
-4
0.0172058
-4
0.000751174
-4
0
-4
0
-4
0.022082
-4
0
-4
0.0139546
-4
0.0242695
-4
0
-4
0
-4
0
-4
0
-4
0.0474694
-4
0
-3
0.0274322
-4
0
-4
0.0182011
-4
0
-4
0
-4
0
-4
0
-4
0.0132211
-4
0.0132653
-4
0
-4
0.0316033
-4
0.0286109
-4
0.0219731
-4
0
-4
0.0219499
-4
0.00678115
-4
0.0501551
-4
0.0320161
-4
0.00783151
-4
0.00309428
-3
0.0206393
-4
0.00915601
-4
0.0173401
-4
0
-4
0.00329202
-4
0.000738962
-4
0.0174391
-4
0.00943563
-4
0.0164277
-4
0.029442
-4
0
-4
0
-4
0
-4
0.0205793
-4
0
-3
0.0200518
-4
0.0316775
-4
0.0403803
-4
0.0314446
-4
0.0241832
-4
0
-4
0
-4
0
-4
0.0197227
-4
0.00254799
-4
0.00688839
-4
0.0168377
-4
0.000193836
-4
0
-4
0.00892702
-4
0
-4
0
-4
0
-4
0.00537879
-4
0.000837421
-4
0
-4
0
-4
0.0266778
-4
0
-4
0
-4
0
-4
0.0272356
-4
0
-4
0.00633023
-4
0.0734441
-4
0.00109161
-4
0.0471131
-4
0
-4
0.0502731
-4
0.000636672
-4
0.0128945
-4
0.0138458
-4
0.0258467
-4
0
-4
0.00925287
-4
0.0099143
-4
0
-4
0
-4
0.00213163
-4
0.000580509
-4
0.00239758
-4
0
-4
0.00222469
-4
0
-4
0
-4
0
-4
0
-4
0.0453217
-4
0
-4
0.00775452
-4
0.0178357
-4
0.0178108
-4
0.0210346
-4
0.00774035
-4
0
-4
0.0105843
-4
0
-4
0
-4
0.0363809
-4
0
-4
0.0257938
-4
0.010878
-4
0
-4
0.0331195
-4
0
-4
0
-4
0.0147454
-4
0.0353844
-4
0.00204645
-4
0
-4
0
-4
0.0303907
-4
0
-4
0.0324534
-4
0
-4
0.0133848
-4
0
-4
0.00135761
-4
0.0374477
-4
0
-4
0.0282648
-4
0
-4
0.000547988
-4
0.00923837
-4
0.0101146
