-4
0
-3
0
-4
0
-4
0
-3
1
-4
0
-3
0
-3
0
-3
0
-3
0
-3
0
-4
0
-3
0
-3
0
-3
0
-3
0
-4
0
-4
0
-4
0
-3
0.000149768
-3
0
-3
0
-3
0
-3
0
-4
0
-4
0
-4
7.80457e-05
-3
0
-3
0
-4
0
-3
0
-3
0
-3
0
-3
4.04089e-05
-4
0
-4
0
-3
0
-4
0
-4
0
-4
0
-3
0
-4
0
-3
0.5
-4
0
-3
0
-3
0
-4
0
-4
0
-3
0
-3
0
-3
0
-3
1
-3
0
-4
0
-4
0
-4
0
-3
0
-3
0
-3
0
-3
0
-3
0
-4
0
-3
0
-3
0
-3
0
-4
0
-3
0
-4
0
-3
0
-3
0
-3
0
-3
0.000129971
-4
0
-3
1
-4
0
-4
0
-4
0
-4
0
-4
0
-4
0
-3
0
-4
0
-3
0
-3
0
-4
0
-4
0
-3
0
-4
0
-4
0
-3
0
-3
0
-4
0
-4
0
-3
0
-3
0
-3
0
-3
1
-3
0
-4
0
-4
0
-3
3.64751e-05
-3
0
-4
0
-3
0
-4
0
-3
0
-3
0
-3
0
-3
0
-3
0
-3
0
-3
0
-3
0
-4
0
-4
0
-3
0
-4
0
-4
0
-4
0
-3
0
-3
0
-3
0
-4
0
-4
0
-3
0
-3
0
-3
0
-3
0
-3
0
-4
0
-3
0.000168435
-3
5.00626e-05
-4
0
-4
0
-4
0
-4
0
-3
0
-4
0
-4
0.000205677
-3
0
-3
0
-4
0
-3
0
-3
0
-3
0
-3
0
-3
0
-3
0
-4
0
-3
1
-4
0
-3
0
-3
0
-4
0
-4
0
-3
0
-3
0
-3
0
-3
0
-3
0
-3
0
-4
0
-4
9.96214e-05
-3
0
-4
0
-3
0
-4
0
-3
1
-3
0
-4
0
-3
4.02528e-05
-3
0
-3
0
-3
0
-3
0
-3
0
-3
0
-3
0
-3
4.70522e-05
-3
8.63931e-05
-4
0
-3
0
-3
0
-3
0
-4
0
-3
0
-3
1
-3
0
-3
0
-3
0
-3
0
-3
0
-3
0
-3
1
-3
0
-4
0
-4
0
-3
0
-3
0
-3
0
-4
0
-3
0
-3
0
-3
0
-3
1
-4
0
-4
0
-3
0
-4
0
-4
0
-3
0
-3
0
-3
0
-3
6.0241e-05
-4
0
-4
0
-3
0
-4
0
-4
0
-3
0
-3
0
-3
0
-4
0
-4
0
-3
0
-3
0
-4
0
-4
0
-3
0
-3
0
-4
0.000219539
-3
0
-3
0
-3
0
-3
0
-3
0
-3
0
-4
0
-3
0
-3
0
-4
0
-3
0
-3
0
-3
0
-3
0
-3
0
-3
0
-3
0
-3
1
-3
0
-3
0
-3
0
-3
1
-3
0
-3
0
-3
0
-4
0
-3
0
-3
0
-3
0
-4
0
-3
0
-3
0
-3
0
-3
0
-3
0
-3
0
-3
0
-3
0
-3
0
-3
0
-4
6.51381e-05
-4
0
-4
0
-4
0
-3
1
-3
0
-4
0
-3
4.33463e-05
-4
0
-4
0
-4
0
-3
0
-3
1
-3
0
-4
0
-4
0
-3
0
-3
0
-3
0
-4
0
-3
0
-3
0
-3
0
-4
0
-4
0
-4
0
-3
8.00961e-05
-4
0
-3
0
-3
0
-3
0
-3
0
-3
0
-4
0
-4
3.28019e-05
-4
0
-3
0
-3
0
-3
0
-3
0
-3
0
-4
0
-4
0
-3
0
-3
0
-4
3.43891e-05
-3
0
-3
0
-3
0
-4
0
-3
0
-4
0
-4
0
-4
0
-3
0
-4
0
-3
0
-4
0
-3
1
-3
0
-3
0
-3
0
-3
0
-3
0
-4
0
-4
0
-3
0
-4
0
-3
0
-3
0
-3
0
-3
0
-3
0
-4
0
-4
0
-4
0
-4
0
-3
0
-4
0
-3
0
-3
0
-3
0
-3
0
-4
0
-3
0.000145117
-4
0.00010446
-3
0
-4
0
-3
0
-4
0
-3
0
-3
0
-3
0
-3
0
-3
0
-3
0
-3
0
-3
0
-3
0
-4
0
-4
0
-3
0
-3
0
-4
0
-3
0
-3
0
-3
0
-3
0
-4
0
-3
0
-4
0
-4
0
-3
0
-3
0
-3
0
-4
0
-3
0
-3
0
-3
0
-3
0.00016218
-4
0
-4
0
-3
0
-3
0
-3
0
-3
0
-4
0
-3
0
-3
0
-3
6.79671e-05
-3
0
-4
0
-3
0
-3
0
-3
0
-3
0
-3
0
-3
0
-3
0
-3
0
-4
0
-4
0
-3
0
-3
0
-3
1
-3
0
-3
0
-3
0
-3
0
-3
0
-4
0
-3
0
-3
0
-4
4.62385e-05
-3
5.45941e-05
-3
0
-3
0
-4
0
-3
0
-4
0
-3
1
-3
1
-4
0
-3
0.000857633
-4
0
-4
0
-3
0
-3
0
-3
1
-3
5.89553e-05
-3
0
-3
0
-3
0
-4
0
-3
8.97022e-05
-4
0
-3
0
-4
0
-3
0
-3
0
-3
0
-3
0
-3
0
-4
0
-4
0
-4
0
-3
0
-3
0
-3
1
-3
0
-3
0
-3
0
-3
0
-3
0
-4
0
-3
0
-4
0
-3
0
-3
0
-3
0
-4
0
-3
0
-3
0
-3
0
-4
0
-3
0
-3
1
-3
0
-3
0
-3
0
-4
0
-4
0
-3
0
-3
0
-3
0
-4
0
-3
1
-4
0
-4
0
-4
0
-3
0
-4
0.000100503
-3
0
-4
0
-4
0
-3
0
-4
0
-3
0
-3
0
-4
0
-4
0
-3
0
-4
0
-3
0
-3
0
-4
0
-4
0
-3
0
-3
0
-3
0
-3
0
-4
0
-3
0
-3
0
-3
0
-4
0
-3
0
-3
0
-3
0
-4
0
-3
1
-3
0
-3
0
-3
0
-3
0
-3
0
-3
0
-3
0
-3
0
-4
0
-4
0
-3
0
-3
0
-3
0
-3
0
-3
0
-3
0
-4
0
-4
0
-3
0
-3
0
-3
0
-3
0
-4
0
-3
1
-3
0
-4
0
-3
1
-3
0
-3
0
-3
0
-3
0
-3
0
-3
0
-3
0.000177242
-3
0
-3
0
-3
0
-4
0
-3
0
-4
0
-3
0
-3
1
-3
0
-4
0
-4
0
-3
7.08265e-05
-4
0
-3
0
-3
0
-3
0
-3
0
-3
0
-4
0
-3
0
-3
0
-3
0
-4
0
-3
0
-4
0.000242014
-3
0
-3
0
-4
0
-4
0
-4
0
-3
0
-3
0
-3
0
-3
0
-3
0
-4
0
-3
0
-3
0
-3
0
-3
0
-4
6.07017e-05
-3
0
-4
0
-4
0
-3
0
-3
0
-3
1
-3
0
-3
0
-3
0
-3
0
-4
0
-4
0
-3
0
-3
0
-3
0
-4
0
-4
0
-4
0
-3
0
-3
0
-3
0
-3
0
-3
0
-4
0
-4
0
-3
0
-3
0
-3
9.74089e-05
-3
0
-3
0
-4
0
-4
0
-3
0
-4
0
-3
0
-3
0
-3
0
-3
0
-4
0
-3
0
-3
0
-4
0
-4
0
-3
0
-4
0
-3
4.87472e-05
-3
0
-3
0
-4
0
-3
0
-3
1
-3
0
-3
7.44602e-05
-4
0
-4
0
-3
0
-4
0
-3
4.2107e-05
-3
0
-3
0
-3
0
-3
0
-3
0
-3
0
-4
0
-3
0
-4
0
-3
0
-3
0
-3
0
-3
0.000140528
-3
0
-3
0
-3
0
-3
0.000642261
-3
0
-4
0
-3
0
-3
1
-4
0
-4
0
-4
0
-3
0
-4
0
-3
0
-3
0
-3
0
-3
0
-3
0
-3
0
-4
0
-3
0
-3
3.47754e-05
-3
0
-4
3.1738e-05
-3
0
-3
1
-3
0
-3
0
-3
0
-4
0
-3
0
-4
0
-4
0
-3
0
-3
0
-3
0
-4
0
-4
0
-4
0
-3
0
-3
0.000114534
-4
0
-3
0.000650618
-4
0
-4
0
-3
0
-3
0
-3
0
-4
0
-4
0
-3
0
-3
0
-3
0
-3
0
-4
0
-4
0
-4
0
-3
0
-3
0
-3
0
-4
0
-4
0
-3
0
-4
0
-4
6.51042e-05
-3
0
-4
0.000412882
-3
0
-3
0
-4
0
-4
6.60197e-05
-4
0
-4
0
-4
0
-4
0
-3
0
-3
0
-3
0
-3
0.000866551
-4
0
-3
0
-4
0
-4
0
-4
0
-4
0
-4
0
-3
0
-3
0
-3
3.90549e-05
-4
0
-4
0
-4
0
-3
1
-3
0
-4
0
-4
0
-4
0
-4
0
-4
0
-3
4.75443e-05
-3
0
-3
0
-4
0
-3
1
-3
0
-4
0
-4
0
-4
0
-3
0
-3
0
-3
0
-4
0
-3
0.000101616
-3
0
-4
0
-4
0
-4
0
-4
0
-4
0
-3
0
-3
0
-3
0
-3
0
-3
0
-3
0
-3
0
-4
0
-3
0
-4
0
-4
0
-3
0
-3
0
-3
0
-3
0
-4
0
-3
0
-3
0
-4
0
-3
0
-3
0
-4
0
-4
0
-4
0
-3
0
-3
4.17415e-05
-3
0
-3
0
-3
0
-3
0
-4
0
-4
0
-3
1
-4
0
-3
0
-3
0
-3
0.000124984
-3
0
-3
0
-4
0
-4
0
-4
0
-4
0
-4
0
-3
0
-3
0
-3
0
-3
0
-3
0
-4
0
-3
0
-3
0
-4
0
-3
0
-3
0
-4
0
-4
0
-4
0
-4
0
-3
0
-3
0
-3
0
-3
0
-3
0
-3
0
-4
0
-3
0
-3
0
-4
0
-4
0
-4
0
-3
0
-4
0
-4
0
-3
0
-4
0
-4
0
-4
0
-3
0
-4
0
-4
0
-3
0
-3
0
-4
0
-3
1
-4
0
-4
0
-4
0
-3
0
-3
0
-3
6.42178e-05
-4
0
-3
0
-4
0
-3
3.35447e-05
-4
0
-4
0
-3
0
-4
0
-3
0
-4
0
-3
0
-3
0
-3
0
-4
0
-3
0
-3
0
-3
0
-4
0
-4
4.68999e-05
-3
0
-4
0
-4
0
-3
1
-4
0
-4
0
-4
0
-4
0
-3
0
-3
0
-3
0
-3
0
-3
0
-3
0
-3
0
-3
0
-3
0
-3
0
-3
0
-3
0
-3
6.35405e-05
-3
0
-4
0
-4
0
-3
0.000237361
-3
0
-3
0
-3
0
-4
0
-4
0
-4
0
-3
0
-4
0
-3
0
-3
0
-3
1
-3
0
-4
0
-4
0
-3
0
-3
1
-3
0
-3
1
-3
0
-3
0.000620732
-4
0
-3
0
-4
0
-3
0
-3
0
-3
1
-3
0
-3
0
-4
0.000196155
-3
0
-3
0
-4
0
-3
0
-3
0
-3
0.000181818
-3
1
-3
0
-3
0
-4
0
-3
0
-3
0
-3
0
-4
0
-3
0
-3
0
-3
1
-3
0
-3
0
-3
0
-3
1
-3
0
-3
0
-3
0
-3
0
-3
0
-3
0
-4
0
-4
0
-3
0
-3
0
-3
6.35163e-05
-3
1
-4
0
-4
0
-3
0
-4
0
-3
1
-3
0
-3
0
-4
0
-4
0
-3
0
-3
0
-3
0
-4
0
-4
0
-4
0
-3
0
-3
0
-3
0
-4
1
-3
0
-3
0
-4
0
-4
0
-4
0
-3
0
-3
0
-3
0
-3
1
-3
0
-3
0
-4
0
-4
0
-3
0
-3
0
-3
0
-4
0
-4
0
-3
0.000875657
-3
0
-3
0
-4
0
-4
0
-4
0
-4
0
-3
0
-4
0
-4
0
-4
0
-3
0
-3
0
-3
0
-3
0
-4
0
-3
0
-3
0
-3
0
-4
0
-4
0
-4
0
-4
0
-4
0
-3
0
-3
0.000582072
-4
0
-3
0
-3
0
-3
0
-3
0.000918274
-3
3.42712e-05
-4
0
-3
0
-3
0
-3
0
-3
0
-4
0
-4
0
-3
0
-3
0
-4
0
-3
0
-3
0
-4
0
-3
0
-3
0
-3
0
-3
0.000120802
-4
0
-4
0
-4
0
-4
0
-3
0
-3
6.86059e-05
-4
0
-4
0
-3
0
-3
0
-3
0
-3
0
-4
0
-3
0
-3
0
-3
0
-3
0
-4
0
-4
0
-4
0
-3
0
-4
0
-4
0
-4
0
-4
0
-4
0
-3
0
-4
5.30786e-05
-3
1
-3
0
-4
0
-3
0
-4
0
-3
1
-3
0
-4
0
-3
0
-3
0
-3
0
-4
0
-3
0
-3
0
-4
0
-3
0
-4
0
-4
0
-4
0
-4
0
-4
0
-4
0
-4
0
-4
0
-3
0
-4
0
-3
0
-3
0
-3
0
-3
0.000285796
-4
0
-4
0
-3
0.000621891
-3
0
-4
0
-4
0
-3
0
-4
0
-3
0
-3
0
-3
0
-3
0
-4
0
-3
0
-3
0
-3
0
-3
0.00012837
-3
0
-3
0
-4
0
-3
0
-3
0
-3
0
-3
0
-4
0
-4
0
-4
0
-4
0
-4
0
-4
0
-3
0
-3
0
-3
0
-4
0
-4
0
-4
0
-3
5.33362e-05
-3
0
-3
0
-3
0
-4
0
-3
0
-4
0
-3
1
-3
0
-4
0
-4
0
-3
0
-4
0
-3
0
-4
0
-3
0
-3
0.000135135
-3
0
-3
0
-3
0.000175932
-4
0
-3
0
-3
0
-4
0
-4
0
-3
0
-3
0
-4
0
-3
0
-3
0
-4
0
-3
0
-3
0
-3
0
-4
0
-3
0
-4
0
-3
0
-3
0
-3
0
-3
0
-4
0
-3
0
-3
0
-3
0
-3
0
-4
0
-4
0
-3
0
-3
0
-3
0
-3
0
-4
0
-3
0
-4
0
-4
0
-3
0
-3
0
-3
0
-3
0
-4
0
-4
0
-4
0
-3
7.99233e-05
-3
0
-3
0
-3
1
-3
1
-3
5.50964e-05
-3
0
-3
0
-3
0
-4
0
-4
0
-4
0
-3
0
-3
0
-4
0
-3
0
-3
0
-3
0
-3
0
-3
0
-4
0
-4
0
-4
0
-4
0
-4
0
-4
0
-3
0
-4
0
-3
0
-4
0
-4
0
-3
4.52304e-05
-4
0
-4
0
-3
0
-3
0
-4
0
-4
0
-3
0
-4
0.000977517
-3
0
-3
0
-3
0
-3
0
-3
0
-3
0
-4
0
-4
0
-3
0
-4
0
-4
0
-3
0
-4
0
-3
0
-3
0
-4
0
-3
0
-3
0
-3
0
-3
0
-3
0
-3
0
-3
0
-3
1
-4
0
-3
1
-4
0
-3
0.000862069
-3
0
-4
0
-3
0
-3
0.000153752
-3
0
-4
0
-3
0
-3
0
-3
0
-4
0
-4
0
-3
0
-3
0
-3
0
-3
0
-3
0
-3
0
-4
0
-4
0
-4
0
-3
0
-3
0
-4
0
-4
0
-3
0
-4
0
-3
1
-3
0
-3
0
-4
0
-3
1
-3
0
-3
0
-3
0.000208464
-4
0
-3
0
-4
0
-3
0
-3
0
-3
0
-3
0
-3
0
-3
0
-3
0
-4
0
-3
0
-4
0
-3
9.66931e-05
-3
0
-3
0
-3
1
-4
0
-4
0
-4
0
-3
0
-3
0
-3
0
-3
0
-4
0
-4
0
-3
0
-4
0
-3
0
-3
0
-3
3.66126e-05
-4
0
-3
0
-3
0
-4
0
-4
0
-4
0
-3
0
-3
0
-4
0
-3
0.000228258
-3
0
-3
0
-3
0
-4
0
-3
0
-4
0
-4
0
-4
0
-3
0
-3
0
-3
0
-3
0
-3
0
-3
0
-3
0
-3
0
-3
0
-3
4.70633e-05
-4
0
-3
0
-3
0
-3
0
-4
0
-3
4.99775e-05
-3
0.00083612
-4
0
-3
6.42178e-05
-3
0
-4
0
-3
0
-4
0
-3
0
-4
0
-4
0
-3
0.00082713
-3
0
-3
0
-3
0
-3
0
-4
0
-4
0
-4
0
-3
0
-4
0
-3
0.000412882
-4
0
-4
0
-3
0
-3
0
-3
0
-3
0
-4
0
-4
0
-4
0
-3
0
-3
0
-4
0
-4
0
-4
0
-4
0
-3
0
-3
0
-4
0
-4
0
-3
0
-3
0
-4
0
-3
0
-3
0
-3
0
-3
0
-3
0.000104789
-4
0
-3
0
-3
0
-3
0
-3
0
-3
3.68392e-05
-3
0
-3
0
-4
0
-4
0
-3
0.000124517
-4
0
-3
0
-4
0
-4
0
-4
0
-3
0
-3
0
-4
0
-4
0
-3
0
-4
0
-3
0
-3
1
-4
0
-3
0
-3
0
-4
0
-3
8.0032e-05
-3
0
-4
0
-3
0
-3
0
-4
0
-4
0
-3
0
-3
0
-3
0
-3
0
-3
0
-3
0
-3
0
-3
1
-3
0
-3
0
-4
0
-3
0.000634115
-4
0
-4
0
-4
0
-3
0
-3
0
-4
0
-4
0
-3
0
-3
0
-3
6.1024e-05
-3
0
-3
0
-4
0
-4
0
-3
6.52955e-05
-4
0
-3
0
-3
0
-3
0
-4
0
-4
1
-3
0
-4
0
-4
0
-3
0
-4
0
-3
0
-3
0
-3
0
-3
0
-3
0
-4
0
-4
0
-4
0
-3
0.000938086
-3
0
-3
0
-4
0
-3
0
-3
0
-3
0
-3
0
-3
1
-4
0
-3
0
-4
0
-3
1
-4
0
-4
0
-4
3.71388e-05
-3
1
-4
0
-4
0
-3
0
-4
0
-4
0
-3
0
-4
0
-4
0
-3
0
-3
0
-3
0
-3
0
-3
1
-3
0
-3
0
-3
0
-3
0
-3
0
-4
0
-3
0
-3
0.00297619
-3
0
-4
0
-3
0
-3
0
-3
0
-4
0
-3
0
-3
0
-4
0
-3
0
-3
0
-4
0
-4
0
-3
0
-4
0
-3
0
-3
1
-4
0
-3
0
-3
0
-3
0
-3
0
-4
0
-3
0
-3
0
-3
0
-4
0
-3
0
-4
0
-3
0
-3
0
-3
0
-3
3.82848e-05
-3
0.000634115
-3
0
-3
6.41396e-05
-3
0
-3
0
-3
0
-3
0
-3
0
-3
0
-3
0
-3
0.000301296
-4
0.000220119
-3
0
-4
0
-4
0
-3
0
-3
0.000525486
-4
0
-4
0
-3
0
-3
9.93345e-05
-3
0
-4
0
-3
0
-3
1
-3
1
-3
0
-3
0
-3
0
-3
0
-3
0
-3
0
-3
1
-3
0
-3
0
-4
0
-3
0
-3
0
-3
0
-3
0.000273523
-4
0
-4
0
-4
0
-4
0
-3
0
-3
0
-3
0
-4
0
-4
0
-4
0
-3
0
-4
0
-3
0
-4
0
-3
0
-4
0
-3
0
-3
0
-3
0
-3
0
-3
0
-3
0
-3
0
-3
0
-3
0
-4
0
-3
0
-4
0.000205973
-4
0
-3
0
-3
0
-3
1
-3
0
-3
0
-3
0
-3
0
-3
0
-4
0
-3
0
-4
0
-4
0
-3
0
-3
0
-4
0
-4
0
-4
0
-3
0
-3
0
-4
0
-4
0
-4
0.000118245
-3
0
-3
1
-3
0
-4
0
-3
6.30398e-05
-4
0
-3
0
-4
0
-3
0
-3
0
-3
0
-3
0
-4
0.000174459
-3
0
-4
0
-4
0
-3
0
-3
0
-3
0
-3
0
-3
0
-3
0
-3
0
-4
0
-4
0
-3
0
-4
0
-3
0
-3
0
-4
0
-3
0
-4
0
-4
0
-3
7.40466e-05
-3
0
-3
0
-3
7.56372e-05
-4
0
-3
0
-3
0
-3
0
-3
0
-3
0
-4
0
-3
0
-3
0
-3
0
-3
0
-3
0
-4
0
-3
0
-3
0
-3
0
-3
0
-3
0
-3
1
-3
0.000111982
-3
0
-3
0
-4
0
-3
0.000420521
-4
0
-4
0
-4
0
-3
0
-3
0
-4
0
-3
0
-3
0
-4
0
-3
0
-4
0
-3
0
-3
1
-3
0
-3
0
-3
0
-4
0
-3
0
-4
0
-4
0
-3
0
-3
0
-3
0
-3
0
-3
0
-3
0
-3
0
-4
0
-3
0
-3
0
-4
0.000198689
-4
0
-4
0
-4
0
-4
0
-3
0
-4
0
-4
0
-4
0
-3
1
-3
0
-3
0
-3
1
-3
0
-3
0
-3
0.000919963
-3
0
-4
0
-3
0
-3
0
-3
0
-3
1
-3
0
-3
0
-3
0
-4
0
-3
0
-3
0
-3
0
-4
0
-4
0
-4
0
-4
0
-4
0
-4
4.43794e-05
-3
0
-4
0
-3
0
-3
0
-3
0
-4
0
-4
0
-3
0
-3
0
-3
0
-3
1
-3
0
-3
0
-4
0
-3
0
-3
0
-3
0
-3
0
-4
0
-4
0
-4
0
-4
0
-4
0
-3
0
-3
0
-3
0
-4
0
-3
0.000166889
-4
0
-3
0
-3
0
-3
0
-3
0
-3
0
-3
6.6454e-05
-4
0
-3
0
-3
0
-4
0
-3
0
-4
0
-4
0
-4
0
-3
0
-3
0
-3
0
-4
0
-3
1
-3
0
-3
0
-3
0
-3
0
-3
0
-4
0
-3
0
-3
0
-3
0
-3
0
-3
1
-4
0
-3
0.000913242
-4
0
-3
4.16406e-05
-3
0
-4
0
-4
0
-4
0
-4
0
-4
0
-4
0
-4
0
-3
0
-3
0
-3
0
-4
0
-4
0
-3
3.6739e-05
-4
0
-3
0
-3
0
-3
0
-3
0
-3
0
-4
0
-3
0
-4
0
-4
0
-4
0
-4
0
-4
0
-3
0
-3
0
-3
0
-4
3.61703e-05
-4
0
-4
0
-4
0
-3
0
-3
1
-3
0
-3
0
-3
0
-3
0
-4
7.62311e-05
-3
0
-3
0
-3
0
-3
0
-4
0
-3
0
-3
0
-3
0
-3
1
-3
0
-4
0
-3
0
-3
0
-4
0
-3
1
-3
0
-3
0
-3
0
-3
0
-3
0
-4
0
-4
0
-3
0
-3
0
-4
5.64589e-05
-3
0
-3
0
-3
0
-4
0
-3
0
-3
5.62936e-05
-4
0
-3
0
-3
0
-3
0
-3
0
-3
0
-3
0
-3
0
-3
0
-4
0
-4
0
-3
0
-3
0
-3
1
-4
0
-3
0
-3
0
-3
0.000669792
-3
0
-3
0.000139005
-3
0
-3
0
-3
0
-3
0
-4
0
-3
0
-3
0
-4
0
-4
0
-4
0
-3
0
-3
0
-3
0
-3
0
-3
0
-3
0
-3
0
-3
0
-3
0
-4
0
-3
1
-4
0
-3
0
-4
0
-4
0
-4
0
-3
0
-3
0
-3
0
-3
0
-3
0
-3
0
-3
0
-3
0
-4
0
-3
0
-3
0
-3
0
-3
0
-4
0
-4
0
-3
5.69768e-05
-4
0
-3
0
-4
0
-4
0
-4
0.000103788
-4
0
-4
0
-3
0
-4
0
-4
0
-3
0
-4
0
-3
0
-3
0
-3
0
-3
0
-3
0
-3
0
-3
0
-3
0
-3
0
-3
0
-4
0
-3
0
-3
0
-3
0
-3
0
-3
0
-3
1
-3
4.36834e-05
-3
5.5816e-05
-3
0
-3
0
-3
0
-4
0
-3
0
-3
3.67202e-05
-3
0
-3
0
-3
0
-4
0
-3
0
-3
0
-3
0
-3
0
-3
0
-4
0
-3
0
-4
0
-4
0
-3
0
-4
0
-3
0
-3
0
-4
0
-3
0
-3
0
-3
0
-3
0
-4
0
-3
0
-3
0
-3
0
-4
0
-3
0
-4
0
-4
0
-3
3.21616e-05
-3
0
-3
0
-3
0
-3
0
-3
0
-4
0
-3
0
-3
0
-3
0
-3
1
-4
0
-3
1
-3
0
-4
0
-3
0
-3
1
-3
0
-3
0
-3
0
-3
0
-4
0
-4
0
-4
0
-3
0
-3
0
-4
0
-4
0
-4
0
-4
5.17813e-05
-3
0
-3
0
-3
0
-3
0
-3
0
-3
0
-3
0
-4
0
-4
0
-3
0
-3
0
-3
0
-3
0
-3
0
-3
0
-3
0
-3
0
-3
0.000150083
-3
0
-4
0
-4
0
-3
0
-3
0
-3
0
-4
0
-4
0
-4
0
-3
4.30219e-05
-3
0
-3
0
-3
0
-4
0
-3
0
-3
0
-4
0
-3
0
-4
0
-3
1
-3
0
-4
0
-4
0
-3
0
-3
7.31048e-05
-4
0
-4
0
-4
0
-4
0
-4
4.26512e-05
-3
0
-4
0
-3
0
-3
0
-4
0
-3
0
-4
0
-4
0
-4
0
-4
0
-3
0
-4
0
-3
0
-4
0
-4
0
-3
0
-4
0
-4
0
-3
0
-3
0.000650618
-4
0
-4
0
-3
7.3046e-05
-4
0
-3
0
-3
0
-4
0
-4
0
-3
0
-3
4.90749e-05
-3
3.18776e-05
-4
0
-3
0
-4
0
-3
0
-4
0
-4
0
-3
1
-4
0
-4
0
-3
0
-4
0
-3
0
-4
0
-4
0
-3
0
-4
0
-3
0
-4
0
-3
0
-3
0
-3
0
-4
0
-3
4.76894e-05
-3
0
-3
0
-3
0.000844595
-3
0
-3
0
-3
0
-4
0
-3
1
-3
0
-3
0
-3
0
-3
0
-4
0
-4
0
-4
0
-3
0
-3
0
-4
0
-3
0
-4
0
-4
0
-3
0
-3
0
-3
0
-3
0
-4
0
-3
0
-3
0
-4
0
-3
0
-3
0
-3
0
-3
0
-4
0
-3
0
-4
0
-3
3.2203e-05
-4
0
-4
0
-3
0
-3
0
-3
0
-3
0
-3
0
-3
0
-3
4.65528e-05
-3
0
-4
0
-4
0
-4
0
-4
0
-4
0
-3
0
-3
0
-4
0
-3
0
-4
0
-4
0
-3
0
-3
0
-3
0
-4
0
-3
0.000182448
-3
0
-4
0
-3
0
-4
0
-3
0
-4
0
-3
0
-4
0
-3
0
-4
0
-4
0
-3
9.68898e-05
-3
0
-4
0
-4
6.51678e-05
-4
0
-3
0
-3
0
-4
0
-3
0
-4
0
-3
0
-3
0
-4
0
-3
0
-4
0
-4
0
-4
0
-3
0
-3
0
-3
0
-3
0
-3
0
-4
0
-3
0
-3
0
-3
0
-3
0
-4
0
-3
0
-4
0
-4
0
-3
0
-3
0
-3
0
-3
0
-3
0
-3
0
-4
0
-3
0
-4
0
-4
0
-3
6.07201e-05
-3
0
-3
0
-4
4.12116e-05
-4
0
-4
0
-4
0
-4
0
-4
0
-4
0
-3
0
-4
0
-4
0
-3
0
-3
0
-4
0
-3
0
-3
0
-4
0
-3
0
-4
0
-3
0
-3
0
-3
0
-4
0
-4
0
-3
0
-4
0
-3
1
-4
0
-4
0
-3
1
-3
0
-4
0
-3
0
-3
0
-4
0
-3
1
-3
0
-3
0
-4
0
-4
0
-3
0
-3
0
-4
0
-3
4.89165e-05
-4
0
-4
0
-4
0
-3
0
-4
0
-3
0
-3
0
-3
0
-3
0
-3
0
-4
0
-4
0
-4
0
-3
0
-4
0
-4
0
-3
0
-4
0
-4
0
-3
0
-3
0
-3
0
-3
0
-3
0
-4
0
-3
0
-3
0
-3
0
-3
0
-3
7.91828e-05
-4
0
-4
0
-4
5.17197e-05
-3
3.5926e-05
-4
0
-4
8.74661e-05
-3
0
-4
0
-3
0
-3
0
-4
0
-4
0
-3
0
-3
0
-4
0
-3
0
-3
1
-3
0
-3
0
-3
0
-3
0
-3
0
-3
0
-3
0
-3
0
-3
0
-4
8.83158e-05
-3
0
-3
0
-3
0
-3
0
-4
0
-4
0
-4
0
-3
0
-3
0
-4
0
-3
0
-3
0
-3
0
-3
1
-4
0
-4
0
-4
0
-3
0
-3
0
-3
0
-3
0
-3
0
-4
0
-3
0
-3
0
-4
0
-3
0
-4
0
-3
0
-3
0
-3
1
-4
0
-3
0
-3
0
-3
0
-3
0
-3
0
-3
0
-3
0
-3
0
-3
1
-4
0
-4
0
-4
0
-4
0
-3
0
-3
0
-3
0
-3
1
-3
0
-4
0
-4
0
-4
0
-3
0
-3
0
-3
0
-3
0
-4
0
-3
0
-3
1
-3
0.000230415
-4
0
-3
0
-3
0
-4
0
-3
0
-3
0
-4
0
-3
0
-3
0
-3
0
-4
0
-4
0
-3
0
-3
0
-3
0
-3
0
-4
0
-4
0
-4
0
-4
0
-3
0
-3
0
-3
0
-3
0
-3
0
-4
0
-4
0
-4
0
-3
0
-4
0
-3
0
-4
0
-4
0
-4
0
-3
0
-4
0
-4
0
-4
0
-3
0
-4
0
-3
0
-3
0
-3
0
-3
0
-3
0
-3
0
-4
0
-3
0
-3
0.00014988
-3
0
-3
3.89621e-05
-3
0
-3
0
-3
0
-3
0
-4
0
-4
0
-4
0
-3
0
-3
0
-3
0
-3
0
-3
0
-3
0
-4
0
-3
1
-4
0
-3
3.99249e-05
-3
0
-4
0
-3
6.55566e-05
-4
0
-4
0
-3
0
-3
4.97934e-05
-3
0.000122444
-3
0
-3
0
-3
0
-3
0
-3
1
-3
0
-3
0
-4
0
-4
0
-4
0
-3
0
-3
0
-4
0
-3
1
-3
0
-3
0
-4
0
-3
0
-4
0
-4
0
-3
0
-3
0
-3
0
-3
0
-4
0
-3
0
-4
0
-3
0
-3
0
-3
0
-3
0
-3
0.000659196
-4
0
-4
0
-3
0
-3
0
-3
0.000191498
-3
0
-4
0
-3
0
-4
0
-3
1
-4
0
-4
0
-4
0
-4
0
-4
0
-4
0
-4
0
-3
0
-3
0
-3
0
-3
0
-3
0
-3
0
-3
0
-3
0
-3
0
-3
0
-4
0
-4
0
-3
0
-4
5.22166e-05
-3
0
-3
0
-4
0
-3
0
-4
0
-3
0
-3
1
-4
0
-3
0
-3
0
-4
0
-3
0
-3
8.92777e-05
-4
0
-4
0
-4
0
-4
0
-3
3.18502e-05
-3
0
-3
0
-4
0
-3
0
-4
0
-3
0
-3
0
-4
0
-4
0
-3
1
-3
1
-3
0
-4
0
-3
1
-4
0
-4
0
-3
0
-3
0
-3
0
-4
0
-4
0
-3
0
-3
0
-3
0
-3
0
-3
0
-3
0
-3
0
-3
0
-3
0
-3
1
-3
1
-4
0
-4
0
-3
0
-3
0
-3
0
-3
0
-3
0
-4
0
-3
0
-3
0
-3
0
-4
0
-4
0
-3
0
-4
0
-3
0
-4
0
-3
1
-3
0
-3
0
-4
0
-3
0
-3
0
-3
0
-3
0
-4
0
-4
0
-3
0
-3
0
-3
0
-4
0
-4
0
-4
0
-4
0
-3
0
-4
0
-3
0
-3
0
-4
0.000704225
-4
0
-4
0
-3
0
-3
0
-3
0
-3
0
-3
0
-3
0
-3
0
-4
0
-4
0
-4
0
-3
1
-3
0
-4
0
-4
0
-3
0
-3
0
-3
0
-3
0
-4
0
-4
0
-4
0
-3
0
-3
0
-3
0
-3
0
-4
0
-3
0
-3
0
-3
0
-3
0
-3
0
-4
0
-4
0
-3
0
-3
0
-3
0
-3
0
-3
0
-4
0
-4
0
-3
0
-3
0.000520291
-3
0
-4
0
-3
4.85272e-05
-3
0
-3
0
-3
0
-4
0
-3
0.000144446
-4
0
-3
0
-4
0
-3
0
-3
0
-3
0
-3
0
-4
0
-4
0
-3
0
-3
0
-3
4.60787e-05
-4
0
-3
0
-3
0
-3
0
-3
0
-3
0
-3
0
-3
0
-3
0
-3
0
-4
3.49553e-05
-3
0
-4
0
-3
0
-3
0
-4
0
-3
0
-3
0
-4
0
-3
0
-4
0
-4
0
-4
0
-3
0
-3
0
-3
0
-4
0
-4
0
-4
0
-3
1
-4
0
-4
0
-3
0
-3
0
-4
0
-4
0
-3
0
-3
1
-3
5.15278e-05
-4
0
-4
0
-4
0
-3
0
-3
0
-3
0
-3
1
-3
0
-3
1
-3
0
-4
5.32425e-05
-4
0
-3
1
-4
0
-3
0
-3
0
-4
0
-4
0
-4
0
-3
0
-3
0
-3
0
-3
0
-3
0
-3
0
-3
0
-3
0
-3
0
-4
0
-4
6.44122e-05
-4
0
-3
0
-4
0
-3
0
-3
0
-3
0
-3
0
-3
0
-3
0
-4
0
-3
0
-4
0
-3
0
-3
0
-4
0
-3
0
-4
0
-3
1
-3
0
-3
0
-4
0
-4
0
-3
0
-3
0
-4
0
-4
0
-3
1
-3
0
-3
0
-4
0
-4
0
-3
0
-4
0
-3
0
-4
0
-4
0
-3
0
-3
0
-3
0
-3
0
-3
0
-3
0
-4
0
-3
0
-3
0.000904159
-4
0
-4
0
-3
0
-3
0
-3
0
-3
0
-3
0
-3
0
-4
0
-3
0
-3
0
-3
0
-3
0
-4
0
-3
0
-3
0
-3
0
-3
1
-3
0
-3
0
-3
0
-3
4.72947e-05
-3
0
-3
1
-4
0
-3
0
-3
0
-3
0
-3
0
-3
0
-3
0
-4
0
-4
0
-4
0
-3
0
-3
0
-3
0
-3
0
-3
0
-3
0
-3
0
-4
0
-3
0
-4
0
-3
0
-3
0
-4
0
-3
0
-3
4.67159e-05
-4
0
-3
0
-4
0
-3
0
-3
0
-3
0
-4
0
-4
0
-3
0
-3
0
-3
0
-3
0
-3
0
-4
0
-3
0
-3
0
-3
0
-3
0
-3
0
-3
0
-3
0
-4
0
-3
0
-3
0
-3
0
-4
0
-3
0
-3
0
-4
0
-3
0
-4
0
-3
0
-3
0
-3
0
-3
0
-3
0.000154607
-3
0
-3
0
-3
0
-3
0
-3
0
-3
0
-3
0
-3
0
-3
1
-3
0
-3
0
-3
0
-3
1
-3
0
-3
0
-4
0
-3
0
-3
0
-4
0
-4
0
-4
0
-3
0
-3
1
-4
0
-4
0
-3
0
-3
0
-3
0
-3
0
-3
0
-3
0
-4
0
-3
3.66126e-05
-4
0
-4
0
-4
0
-4
0
-3
0
-3
7.2998e-05
-3
0
-4
0
-3
0.00396825
-4
0
-4
0
-3
0
-4
0
-3
0
-3
0
-4
0
-3
0
-3
0
-4
0
-4
0
-3
0
-3
0
-3
0
-3
0
-3
0
-3
0
-3
0
-4
0
-4
0
-4
0
-4
0
-3
0
-3
0
-3
0
-3
0
-4
0
-4
0
-4
0
-3
1
-3
0
-3
0
-3
1
-3
0
-3
0
-3
0.00010553
-4
0
-4
0
-4
0.000635324
-4
0
-4
0
-3
0
-3
3.25203e-05
-3
0
-3
0
-3
0
-3
0
-3
0
-3
0
-3
0
-3
0
-3
0
-3
0
-3
0
-3
0
-3
0
-4
0
-4
0
-4
0
-3
0
-3
0
-4
0
-4
0
-4
0
-4
0
-3
0
-3
0
-3
0.000725163
-3
0
-3
0
-3
0
-4
0
-3
5.47825e-05
-3
0
-4
0
-3
4.91207e-05
-3
0
-3
1
-3
0.000117014
-3
0.00018005
-4
0
-4
0
-3
0
-3
0
-4
0
-4
0
-3
0
-4
0
-3
0
-3
0
-3
1
-3
0
-4
0
-4
0
-4
0
-3
0
-4
0
-4
0
-3
0
-3
5.06022e-05
-3
1
-3
1
-3
0
-4
0
-3
0
-3
0
-3
0
-3
0
-3
1
-3
0
-3
0
-3
0
-3
3.68161e-05
-4
0
-3
0
-4
0
-3
0
-3
0
-3
0
-3
0
-3
1
-3
0
-3
9.85125e-05
-3
0
-3
0
-4
0
-4
0.000455373
-3
0
-3
0
-4
0
-3
0
-4
0
-4
0
-4
0
-3
0
-3
3.28991e-05
-3
0
-3
0
-3
0
-3
0
-4
0
-3
0
-4
0
-3
0
-3
0
-4
0
-3
0
-3
0
-3
0
-3
0
-3
0
-3
1
-3
4.42223e-05
-3
0
-3
0
-4
0
-4
0
-4
0
-4
0
-3
0
-4
0
-3
0
-3
0
-3
0
-4
0
-4
0
-4
0
-4
0
-3
1
-3
0.000388954
-3
0
-3
0
-4
0
-3
0
-3
0
-3
9.6768e-05
-3
4.17851e-05
-4
0
-3
0
-4
0
-3
0
-3
0
-4
0
-3
0
-3
0
-3
0
-3
0
-4
0
-4
0
-3
0
-3
0
-3
1
-4
0
-4
0
-3
0
-4
0
-3
0
-3
0
-4
0
-4
0
-3
0
-3
0
-3
0
-4
0
-3
0
-4
0
-3
0
-3
0
-4
0
-4
0
-4
0
-4
0
-4
0
-3
0.000831947
-3
0
-3
0
-3
1
-3
0
-4
0
-4
0
-4
0
-4
0
-3
0
-3
0
-3
0
-3
0
-3
0
-3
0
-3
0
-4
0
-3
0
-3
0
-3
0
-3
0
-3
0
-3
0
-4
4.06603e-05
-3
1
-3
0
-3
0
-3
0
-4
0
-3
0
-3
0
-3
0
-3
0
-3
0
-4
0
-3
0
-4
0
-3
0
-3
0
-3
0
-3
0
-4
0
-3
0
-3
0
-3
0
-3
0
-3
0
-3
4.09383e-05
-3
0
-3
0
-3
0
-4
0
-3
0
-4
0.000117261
-3
0
-3
0
-3
0
-4
0
-4
0
-4
0
-3
0
-3
0
-3
0
-4
0
-3
1
-3
0
-3
0
-4
0
-3
0
-4
0
-3
0
-4
0
-3
0
-3
0
-3
0
-3
0
-3
0
-3
0
-3
0
-4
0
-4
0
-4
0
-4
0
-3
0
-3
0
-3
1
-3
0
-3
0
-3
0
-3
0
-3
0
-3
0
-4
0
-3
0
-3
0
-3
0
-3
0
-3
0
-3
0
-3
6.19502e-05
-3
7.03037e-05
-4
0
-4
0
-4
0
-3
0
-3
0.000613874
-3
0
-3
0
-3
0
-3
0
-4
0
-3
0
-3
0
-3
0
-3
0
-4
0
-3
1
-4
0
-4
0
-3
0
-3
0
-3
0
-4
0
-3
0
-3
0
-3
1
-3
1
-3
0
-4
0
-4
0
-3
0
-3
0
-3
0
-4
6.37796e-05
-3
0
-4
0
-3
0
-3
0
-3
0
-3
0
-3
0
-3
0
-3
0
-3
0
-4
0
-3
0
-3
0
-3
0
-4
0
-4
0
-4
0
-4
0
-4
0
-4
0.000232721
-3
0
-3
0
-4
0
-3
0
-3
0
-3
0
-3
0
-4
0
-4
0
-3
0
-3
0
-4
0
-3
0
-4
0
-4
0
-3
0
-3
1
-3
0
-4
0
-3
0
-4
0
-4
0
-4
0
-3
0
-3
0
-3
0
-4
0
-4
0
-4
0
-3
0
-4
0
-4
0
-4
0
-3
0
-3
0
-3
0
-3
0
-4
0
-3
0
-3
0
-4
0
-3
0
-3
0
-3
0
-3
0
-3
0
-3
0
-3
0
-3
0
-4
0
-3
0
-4
5.21349e-05
-4
0
-4
0
-3
0
-3
0
-3
0
-3
0
-3
0
-4
0
-3
0
-3
0
-3
0
-3
0
-3
0
-3
0
-4
0
-3
0
-4
0
-4
0
-3
0
-3
0
-3
0
-3
0
-4
0
-3
0.000271887
-3
0
-3
0
-3
0
-3
0
-4
0
-4
0
-3
0
-3
0
-3
0
-3
0
-3
0
-3
0
-3
0
-3
0
-3
0
-3
0
-4
0
-3
0
-3
0
-4
0
-3
0
-3
0
-3
0
-4
0
-3
0
-4
0.000110902
-4
0
-3
0
-3
0
-3
0.000818331
-4
0
-4
0
-3
0
-3
1
-3
0
-4
0
-3
0
-3
0
-3
0
-3
0
-3
0
-4
0
-4
0
-3
0
-3
0
-4
0
-3
0
-3
0
-3
0
-4
0
-3
0
-3
0
-3
0
-3
0
-4
0
-3
0
-3
0
-4
0
-4
0
-4
0
-4
0
-4
0
-3
0
-4
0
-3
0
-3
0
-3
0
-4
0
-4
0
-4
0
-3
0
-3
0
-3
0
-3
0
-3
0
-4
0
-4
0
-4
0.000217297
-3
0
-3
0
-4
0
-4
0.000170503
-3
0.00088574
-3
1
-3
0
-3
0
-3
0
-3
0
-4
0
-4
0
-3
0
-3
0
-3
0
-3
0
-3
7.62544e-05
-4
0
-4
0
-3
0
-3
0
-3
0
-3
0
-3
0
-3
0
-4
0
-4
0
-4
0
-3
0
-3
0
-3
0
-3
0
-4
0
-4
0
-4
0
-4
0
-4
0
-3
0
-3
0
-3
0
-3
0
-4
0
-4
0
-4
0
-3
0
-4
0
-4
0
-3
0
-4
0
-4
0
-4
0
-4
0
-3
1
-4
0
-3
0
-4
0
-3
8.83939e-05
-3
0
-3
0
-4
0
-4
0
-3
0
-4
0
-3
0
-3
0
-3
0
-4
8.31048e-05
-4
0
-4
0.000178317
-3
0
-3
0
-3
1
-3
0
-3
0
-4
0
-3
0
-3
0
-3
0
-4
0
-4
4.50491e-05
-3
1
-3
4.16823e-05
-4
0
-4
0
-3
1
-3
0
-3
0
-3
0
-3
0
-4
0
-4
0
-3
0
-3
0
-3
0
-3
0
-3
0
-4
0
-4
0
-4
0
-3
0
-4
0
-3
0
-3
0
-3
0
-3
0
-3
0
-4
0
-4
0.000177904
-3
4.29738e-05
-4
0
-3
0
-3
0
-3
0
-3
0
-3
0
-4
0
-3
0
-3
0
-3
0
-3
0
-3
0
-3
0
-3
0
-3
0
-3
0
-3
0
-3
0
-3
0
-4
0
-3
0
-3
0
-3
9.41708e-05
-4
0
-4
0
-3
0
-3
0
-3
0
-4
0
-3
0
-4
0
-3
0
-3
0
-3
0
-3
0
-3
0
-3
0
-3
0
-3
0
-4
0
-4
0
-3
0
-3
0
-4
0
-3
0
-3
0
-3
0
-4
0
-4
0
-4
0
-4
0
-3
0
-4
0
-4
0
-3
0
-4
0
-3
0
-3
0
-3
0
-4
0
-4
0
-3
0
-3
0
-3
0
-4
0
-4
0
-4
0
-4
0
-4
7.10985e-05
-3
0
-4
0
-3
0
-3
1
-3
0
-4
0
-4
0
-3
0
-4
0
-3
0
-3
0
-3
0
-4
0
-3
0
-3
0
-3
0
-3
0
-4
0
-4
0.000179276
-3
0
-4
0
-4
0
-3
0
-3
0
-3
0.000592768
-4
0
-3
0
-3
0
-3
0
-3
0
-3
0
-3
0
-3
0
-3
0
-4
0
-3
0
-3
0
-3
0
-3
0
-3
0
-3
0
-3
0
-4
6.57635e-05
-3
0
-4
0
-3
0
-3
0
-4
0
-4
0
-3
0
-3
0
-3
0
-3
0
-3
0
-3
0
-3
0.000944287
-4
0
-4
0
-4
0
-4
0
-3
8.12414e-05
-4
0
-3
0
-4
0
-4
0
-3
0
-3
0
-3
0
-3
0
-3
0
-4
5.14456e-05
-3
0
-3
0
-3
0
-3
0
-3
0
-3
1
-3
0
-3
0
-3
0
-4
0
-4
0
-4
0
-3
0
-4
0
-4
0
-3
0
-3
0
-3
0
-4
0
-3
0
-4
0
-3
0
-3
0
-3
0
-3
0
-3
0
-3
0
-4
0
-4
0
-3
0
-4
0
-4
0
-3
0.000441891
-3
0
-3
0
-4
0
-3
0
-3
0
-3
0
-3
0
-4
0
-3
1
-3
0
-4
0
-3
0
-4
0
-3
0
-3
0
-3
0
-3
0
-3
0
-3
0
-4
0
-3
6.94396e-05
-3
0
-4
0
-3
0
-4
0
-3
0.000172473
-3
0
-4
0
-4
0
-3
0
-3
0
-3
0
-3
0.0001755
-4
0
-4
3.73916e-05
-4
0
-3
0
-3
0
-3
1
-3
0
-3
0
-4
0
-3
0
-3
0
-3
3.79032e-05
-4
0
-3
0.000626566
-4
0
-3
0.000667111
-3
0
-3
0
-3
0
-3
0
-3
0
-3
0
-3
0
-4
0
-4
0
-3
0
-3
0
-3
0
-3
0
-4
0
-3
0
-3
0
-3
0
-4
0
-3
0
-3
0
-3
0
-4
0
-3
0
-3
0
-3
0
-3
0
-4
0
-4
0
-3
0
-3
0
-3
0
-3
5.29942e-05
-3
0
-3
1
-4
0
-3
0
-3
0
-3
0
-3
0
-4
0
-3
7.45379e-05
-3
0
-4
0
-3
0
-3
1
-4
0
-4
0
-3
0
-3
0
-3
0
-3
0
-3
0
-3
0
-3
0
-3
0
-3
0
-4
0
-3
0
-4
0
-3
0
-3
0
-3
0
-4
0
-4
0
-4
4.49559e-05
-3
1
-4
0
-3
4.97512e-05
-3
0
-4
0
-3
0
-4
0
-4
0
-4
0
-3
4.51916e-05
-3
0
-3
8.64454e-05
-3
0
-3
0
-3
0.000583771
-4
0
-4
0
-4
0
-4
0
-4
0
-3
0
-3
0
-3
0
-4
0
-4
3.81228e-05
-4
0
-4
0
-4
0
-3
0
-3
0
-3
0
-3
0
-4
0
-4
0
-4
0
-3
0
-3
0
-4
0
-4
0
-4
0
-3
0
-3
0
-3
0
-3
0
-3
0
-3
0
-4
0
-3
0
-3
0
-3
0.000247219
-3
0
-3
0
-3
0
-3
0
-4
0
-4
0
-3
0
-3
0
-3
0
-3
0.000208855
-3
0
-4
0
-3
0
-3
0
-4
0
-3
0
-3
0
-3
1
-3
0
-3
0
-4
0
-3
0
-3
0
-3
3.76648e-05
-3
0
-3
0
-3
0
-4
0
-3
0
-4
0.000124766
-3
0
-4
0
-4
0
-3
0
-4
0
-3
0
-4
0
-4
0
-3
0
-3
0
-3
0
-3
0
-3
0
-4
0
-3
0
-3
0
-3
0
-3
0
-4
0
-4
0
-3
6.04961e-05
-3
0
-3
0
-3
0
-3
0
-3
0
-3
0
-4
0
-4
0
-3
0
-3
0
-3
0
-4
0
-4
0
-3
0
-3
1
-3
0
-3
0
-3
0
-3
1
-3
0
-3
0
-4
0
-4
0
-3
1
-3
0
-4
0
-3
0
-3
0
-4
0
-3
1
-3
0
-3
0.000131182
-3
0
-3
0
-3
0
-3
0
-3
0
-3
0
-4
0
-3
0
-3
0
-4
0
-3
0.000441891
-3
9.07688e-05
-3
0
-3
0
-3
0.000101051
-3
0
-3
0
-3
0
-4
0
-3
1
-3
0
-3
0
-3
0
-3
0
-3
0.000126135
-3
0
-3
0
-3
1
-3
0
-3
1
-3
0
-3
0
-3
0.00066313
-3
0
-3
0
-3
0
-3
0
-3
0
-4
0
-3
0
-3
0
-3
0
-4
0
-4
0
-4
0
-4
0
-4
0
-4
0
-3
0
-3
0
-4
0.000103831
-3
0
-3
1
-4
0
-4
0
-4
0
-3
0
-3
1
-3
0
-3
1
-3
0
-4
0
-3
0
-3
0
-3
0
-3
0
-4
0
-3
3.59221e-05
-4
0
-4
0
-3
0
-3
0
-3
0
-3
0
-3
0
-3
1
-3
1
-3
0
-3
0
-4
0
-3
0
-3
0
-3
0
-3
0
-3
5.40541e-05
-3
0
-3
9.68335e-05
-4
0
-4
0
-3
8.35422e-05
-4
0
-3
0
-4
0
-3
8.60956e-05
-3
0
-3
0
-3
0
-3
0
-4
0
-3
0
-4
0
-4
0
-4
0
-4
0
-3
0
-3
4.49782e-05
-3
0
-3
0
-3
0
-3
0
-3
0
-3
0
-4
0
-3
1
-3
0.000167701
-3
0
-3
1
-3
5.48968e-05
-4
0
-3
0
-3
0
-4
0
-3
1
-4
0
-4
0
-3
1
-4
0
-4
0
-4
0
-4
0
-4
0
-4
0
-3
0
-3
0
-3
0
-3
0
-3
0
-3
1
-3
0
-3
0
-3
0
-3
4.15593e-05
-4
0
-3
0
-3
0
-4
8.50557e-05
-4
0
-4
0
-3
0
-4
0
-3
4.01349e-05
-4
0
-3
0
-3
0
-3
4.79754e-05
-3
0
-3
0
-3
0
-3
0
-3
0
-3
0
-3
0
-3
0
-3
0
-3
0
-3
5.66508e-05
-4
0
-3
0
-4
0
-4
0
-4
0
-3
1
-4
0
-3
0
-4
0
-4
0
-4
0
-4
0.000129668
-3
0
-4
0
-3
0
-3
0
-3
8.1586e-05
-3
0
-3
0
-3
0
-3
0
-3
1
-3
0
-4
0
-3
0
-3
0
-3
0
-3
0
-3
0
-3
0
-3
0
-4
0
-3
0
-3
0
-4
0
-3
3.9917e-05
-3
0
-3
0
-3
0
-3
0.000207555
-3
0
-3
0
-3
0
-3
0
-4
0
-3
0
-3
0
-3
0
-4
0
-4
0
-4
0
-4
0
-4
0
-4
0
-3
0
-4
0
-4
0
-4
0
-3
1
-4
0
-4
0
-4
0
-3
0
-3
0
-3
0
-3
0
-4
0
-4
0
-3
0
-4
0
-4
0
-3
0
-3
0
-4
0
-4
0
-3
0
-3
0
-3
3.61115e-05
-3
0
-4
0
-3
0
-4
0
-4
0
-3
0
-4
0
-3
0
-4
0
-3
0
-4
0
-4
0
-4
0
-3
0
-3
1
-4
0
-3
3.33734e-05
-4
0
-3
0
-3
0
-3
0
-3
0
-3
0
-3
0
-3
0
-3
0
-4
0
-4
0
-4
0
-3
0
-4
0
-4
0
-3
0
-3
0.000906618
-3
0
-3
0
-3
0
-3
0
-3
0
-4
0
-4
0
-3
0
-3
8.44809e-05
-4
0
-3
0
-3
0
-3
0
-3
0
-3
0.000837521
-3
0
-3
0
-3
0
-3
0
-3
0
-4
0
-3
0
-3
0
-3
0
-4
0
-3
0
-4
0
-3
0
-4
0
-3
0
-3
0
-3
0
-3
0
-4
0
-4
0
-4
0
-3
0
-3
0
-4
0
-3
0
-3
0
-3
0
-4
0
-4
0
-3
1
-3
0
-4
0
-3
3.89909e-05
-3
1
-3
0
-3
0
-3
0
-3
0
-3
0
-3
0
-3
0
-3
0
-3
0
-3
0
-4
0
-3
3.8101e-05
-3
6.85542e-05
-3
0
-3
0
-3
0
-3
0
-4
0.000106451
-3
0
-3
0
-4
0
-4
0
-3
0
-4
0
-4
0
-3
0
-4
0
-4
0
-3
0
-3
0
-4
0
-4
0
-3
0
-4
0
-4
0
-3
0
-3
0
-4
0
-3
0
-4
0
-3
0
-4
0
-4
0
-3
0
-3
0
-3
0
-3
0
-3
0
-3
0
-3
0
-3
0
-3
0
-3
0
-3
0
-4
0
-4
0
-3
0
-3
0
-3
0
-3
0
-3
0
-3
0
-3
0
-3
0
-3
0
-4
0
-4
0
-3
0
-3
0
-3
0
-3
0
-3
0
-4
0
-3
0
-3
0
-3
0
-4
0
-3
0
-3
0
-3
0
-3
0
-4
0
-3
0
-3
0
-3
0
-3
0
-3
0
-4
0
-3
0
-3
0
-4
0
-3
1
-4
0
-4
0
-3
0
-4
0
-3
0
-3
6.04961e-05
-4
0
-4
0
-3
6.23208e-05
-4
0
-3
0
-3
0
-4
0
-3
0
-3
1
-4
0
-4
0
-4
0
-4
0
-4
0
-4
0
-3
0.000823723
-3
0
-4
0
-3
0
-3
0
-3
0
-3
1
-3
0
-3
0
-3
0
-3
0
-3
0
-4
0
-4
0
-3
0
-3
0
-3
0
-3
0
-4
0
-3
0
-3
0
-4
0
-3
0
-3
0
-3
0
-3
0
-3
0
-4
0
-3
0
-3
0
-3
0
-3
0
-4
0
-3
0
-3
1
-3
0
-4
0
-3
0
-3
0
-4
0
-4
0
-3
0
-3
0
-3
1
-3
0
-3
0
-4
0
-3
5.85857e-05
-3
0
-3
1
-3
1
-3
0
-3
5.34131e-05
-3
0
-4
0
-4
0
-4
0
-3
0
-3
0
-4
0
-3
0
-3
0
-3
0
-3
0
-4
0
-4
0
-3
0
-3
0
-3
0
-3
0
-3
0
-3
0
-4
0
-3
0
-4
0
-4
0
-3
0
-3
0
-4
0
-4
0
-3
1
-3
0
-3
5.37692e-05
-3
0
-4
0
-4
0
-3
0
-4
0
-4
0
-4
8.7558e-05
-4
0
-4
5.6013e-05
-4
0
-3
1
-3
0
-4
0
-4
0
-4
0
-3
0
-3
0
-3
0
-3
0
-4
0
-4
0
-4
0
-4
4.3305e-05
-3
0
-4
0
-4
0
-4
8.61772e-05
-3
0
-3
1
-3
3.63319e-05
-4
0
-3
0
-3
0
-3
0
-3
0
-3
0
-3
0
-3
0
-3
0
-3
0
-3
1
-3
0
-4
0.000137005
-4
0
-4
1
-3
0
-3
0
-4
0
-3
0
-4
0
-3
1
-3
0
-4
0
-4
0
-4
0
-3
0
-3
0
-4
0
-3
0
-3
0
-3
0
-4
0
-3
0
-4
0
-4
0
-3
0
-3
0
-4
0
-3
0
-3
0
-3
0
-4
0
-3
9.23702e-05
-4
0
-3
0
-3
0
-3
0.00094162
-4
0
-3
0
-3
0
-3
0
-3
0
-4
0
-4
0
-3
0
-4
0
-4
0
-4
0
-3
0
-4
0
-3
0
-3
0
-3
0
-3
0
-4
0
-4
0
-3
0
-4
0
-4
0
-4
0
-3
0
-4
0
-4
0
-3
0.000128485
-3
0
-3
0
-3
0
-4
0
-3
0
-3
0
-4
0
-4
0
-3
0
-3
0
-3
0
-4
0
-3
0
-3
0
-3
0
-3
0
-3
1
-3
0
-3
0
-3
0
-4
0
-4
0
-4
0
-4
0
-3
0
-3
0
-3
0
-3
0
-3
0
-4
0
-4
0
-4
0
-3
0
-3
5.79441e-05
-3
0
-3
0
-3
0
-3
0
-3
0
-3
0
-3
0
-4
0
-3
0
-4
0
-3
0
-4
0
-3
0
-3
0
-3
0
-3
0
-3
0
-4
0
-3
0
-3
0
-3
0
-4
0
-4
0
-4
0
-3
0
-3
0
-3
0
-3
0
-3
0
-3
0
-4
0
-4
0
-3
0
-3
0
-3
0
-3
0
-3
0
-3
0
-3
0
-3
0
-4
0
-4
6.91611e-05
-4
0
-3
0
-4
0
-3
0
-4
0
-3
0
-4
0
-4
0
-4
0
-4
0
-3
0
-4
0
-3
0
-3
0.000707214
-3
1
-3
0
-4
0
-4
0
-3
0
-3
0
-4
0
-3
0
-4
0
-3
0.000158554
-4
0
-3
0
-4
0
-4
0
-3
0
-4
0
-4
0
-3
0
-3
0
-3
0
-3
0
-3
0
-3
0
-3
0
-3
0
-4
0
-3
0
-4
0
-3
0
-3
0
-4
0.000516529
-3
0
-3
0
-3
0
-3
0
-4
0
-3
0
-4
0
-3
0
-3
0
-4
0
-3
4.51916e-05
-3
0
-4
0
-3
4.48451e-05
-3
0
-4
0
-4
0
-4
0
-4
0
-3
3.92573e-05
-3
0
-3
0.000127194
-3
0
-3
0
-4
0
-4
0
-4
0
-4
0
-3
0
-3
1
-3
0.000621891
-3
0
-4
0
-3
0
-3
0
-3
0
-4
0
-3
0
-4
0
-4
0
-4
0
-4
0
-4
0
-3
0
-4
0
-4
0
-3
0
-3
0
-3
7.07714e-05
-3
0
-3
0
-3
0
-3
0
-3
0
-3
0
-4
0
-4
8.97022e-05
-3
0
-4
0
-4
0
-4
0
-3
0
-3
0
-4
3.41728e-05
-4
3.5782e-05
-3
0
-3
0
-3
0
-3
0
-4
0
-3
0
-4
0
-4
0
-3
0
-3
0
-3
0.000110963
-4
0
-3
0
-3
0
-4
0
-4
0
-3
0
-3
0.000137005
-3
0
-3
0
-3
0
-3
1
-3
0
-3
1
-3
0
-3
1
-3
0
-3
0
-3
0
-3
0
-3
0
-3
0
-4
0
-3
0.000332226
-4
0
-4
0
-3
0
-4
0
-4
0
-3
0
-4
0
-3
0
-3
0
-4
0
-4
0
-4
0
-4
0
-4
0
-3
4.5159e-05
-3
0.000106918
-3
0
-4
0
-4
5.96232e-05
-3
0
-3
0
-3
0
-4
0
-3
0
-3
0
-4
0
-4
0.000142755
-3
0
-4
0
-3
0
-3
0
-3
0
-4
0
-4
0
-4
0
-4
0
-3
0
-3
0
-4
0
-4
0
-4
0
-3
0
-3
1
-3
1
-3
0
-4
0
-4
0
-3
1
-3
0
-3
0
-4
0
-4
0
-4
0
-3
1
-3
1
-3
0
-3
0
-3
0
-4
0
-3
0
-4
0
-3
0
-3
0
-3
0
-4
0
-3
0
-3
0
-3
0.000168435
-3
0
-3
0
-3
0
-4
0
-4
0
-3
0
-3
0
-4
0
-3
0
-3
0
-3
0
-3
0
-4
0
-4
0
-3
8.65127e-05
-4
0
-4
0
-3
0
-3
0
-4
0.000407166
-3
0
-3
0
-3
0
-3
0
-3
0
-3
0
-3
0
-3
0
-4
0
-3
0
-3
0
-3
0
-3
0
-3
5.55185e-05
-3
6.03682e-05
-4
0
-3
0
-3
0
-3
0
-4
0
-3
0
-3
0
-3
0
-3
0
-3
0
-3
0
-3
0
-3
0
-4
0
-3
0
-3
0
-3
1
-4
0
-4
0
-4
0.000309981
-4
0
-3
0
-3
0
-3
0
-4
0
-4
0
-4
0
-3
0
-3
0
-3
0
-3
0
-3
0
-4
0
-3
6.79302e-05
-3
0
-3
0
-3
1
-4
0
-3
0
-3
0
-3
0
-4
0
-4
0
-4
0
-3
0
-4
0
-4
0
-4
0
-4
0
-3
4.52304e-05
-3
0
-4
0
-3
0
-3
0
-3
0
-4
0
-4
3.57143e-05
-4
0
-3
0
-4
0.000177557
-3
0
-4
0
-3
0
-3
0
-4
0
-3
0
-3
0
-3
0
-4
3.8276e-05
-3
0
-4
0
-4
0
-4
0
-4
0
-4
0
-4
0
-4
0
-3
0
-4
0
-3
0
-4
0
-4
0
-3
0
-3
3.67229e-05
-4
0
-3
0.000163934
-3
0
-4
0
-4
0
-4
0
-4
0
-3
0
-3
0
-3
0
-3
0
-3
0
-3
0
-3
0
-3
0
-3
0
-3
0
-4
0
-3
0
-3
0
-4
0
-4
3.2458e-05
-3
0
-3
0.000547046
-4
0
-3
0
-3
0
-3
0
-3
0.00031348
-3
0
-3
0
-3
0
-3
0
-3
0
-3
0
-4
0
-4
0
-4
0
-4
0
-3
0
-4
0
-3
0.000775795
-3
1
-4
0
-3
0
-3
0
-3
0
-3
9.50751e-05
-4
0
-4
0
-3
0
-3
0
-3
0
-3
0
-4
0
-3
0.000139489
-3
0
-4
0
-3
0
-4
0
-3
0
-3
0
-4
0
-4
0
-4
0
-4
0
-3
0
-4
0
-3
0
-3
1
-4
0
-3
0
-3
1
-3
0
-4
0
-3
1
-3
0
-4
0
-4
0
-4
3.73832e-05
-4
0
-4
0
-3
0
-3
0
-3
0
-3
0
-3
0
-4
0
-4
0
-3
0
-3
0
-3
0
-3
0
-3
0
-3
0
-4
0
-4
0
-4
0
-3
0
-4
0
-3
0
-3
0
-4
0
-4
0
-3
0
-4
0
-3
0
-3
0
-3
0
-3
1
-4
0
-4
0
-3
1
-4
0
-3
0
-3
0
-4
0
-3
0
-3
0
-3
0
-3
0
-3
0
-3
0
-4
0
-3
0
-3
0
-4
0
-3
0
-3
0
-3
0
-3
0
-4
6.43666e-05
-4
0
-3
0
-3
0
-3
0.000298954
-3
0
-3
0
-4
4.15645e-05
-4
0
-3
0
-3
0
-3
0
-4
0
-3
0
-3
0
-3
0
-3
0
-4
0
-4
0
-4
5.73658e-05
-4
0
-3
0
-4
0
-3
0
-4
0
-3
1
-3
0
-3
0
-3
0
-3
0
-3
0
-4
0
-3
0
-3
0
-3
0
-3
0
-3
0
-3
0
-4
0
-4
0
-4
0
-3
1
-3
0.000326158
-3
0
-3
1
-4
0
-4
0
-3
0
-3
0
-3
0
-3
0
-4
0
-4
0
-4
0
-4
0
-3
0
-3
0
-3
0
-3
0
-4
0
-3
0
-4
0
-4
0
-3
0
-3
0
-3
0
-3
5.65995e-05
-3
0
-4
0
-3
0
-3
0
-3
0
-3
0
-3
0
-3
0
-3
0
-3
0
-4
0
-4
0
-3
0
-3
0
-3
0.000101885
-4
5.24027e-05
-4
0
-4
0
-3
0
-3
0
-3
0
-3
0
-3
0.000105319
-3
4.41384e-05
-3
0
-3
0
-4
0
-3
0
-3
0
-3
0
-3
1
-3
0
-4
0
-4
0
-4
0
-3
0
-4
0
-3
1
-3
0
-3
0
-3
0
-3
0
-4
0
-3
0
-3
0
-3
1
-3
0
-3
0.000108096
-4
0
-3
1
-4
0
-4
0
-4
0
-3
0
-3
0
-3
0
-3
3.51853e-05
-4
0
-4
0.000111173
-3
0
-3
0
-4
0
-4
0
-3
0
-4
0
-4
0
-3
0
-3
0
-3
0
-4
0
-3
0
-4
0
-3
3.47899e-05
-4
0
-4
0
-4
0
-3
0
-3
0
-4
0.000146843
-4
0
-3
0
-3
0
-3
1
-3
0
-3
0
-3
0
-4
0
-3
0
-3
0
-3
0
-4
0
-3
1
-3
1
-3
0
-3
0
-3
0
-3
0
-4
4.09366e-05
-4
0
-3
0
-3
0
-4
3.22737e-05
-3
0
-3
0
-3
0
-3
0
-4
0
-3
0.00307692
-3
0
-3
0
-4
0
-3
0
-3
0
-3
0
-4
0
-4
0
-3
0
-4
0
-3
5.54816e-05
-3
0
-4
0
-3
0
-3
0
-3
0
-3
0
-3
0
-4
0
-4
0
-4
0
-3
0
-3
0
-3
0
-4
0
-3
0
-4
0
-3
0
-4
0
-4
0
-3
1
-3
0
-3
0
-4
0
-4
0
-4
0
-3
0
-3
0
-3
0
-3
0
-3
0
-3
0
-4
4.62706e-05
-3
0
-3
0.000830565
-4
0
-4
0
-4
0
-4
0
-4
0
-4
0
-3
0
-3
0
-3
0
-4
0
-3
0
-3
0
-3
0
-3
0
-3
0
-3
0
-3
0
-4
0
-3
0
-3
0
-3
0
-3
0
-3
0
-3
0
-4
0
-3
0
-3
0
-3
0
-4
0
-4
0
-3
0
-3
0
-3
0
-3
0
-3
0
-3
0
-3
0
-3
1
-4
0
-4
0
-4
0.000157035
-3
0
-4
0
-4
0
-3
1
-3
0
-3
8.44309e-05
-3
0.000258065
-3
0
-3
0
-3
0
-3
0
-4
0
-4
0
-3
0
-4
0.000116455
-3
0
-3
0
-3
4.56997e-05
-4
0
-4
0
-3
0
-3
0
-3
0
-3
0
-3
0
-3
0
-3
0
-3
0
-3
0
-3
0
-3
0
-3
0
-4
0
-4
0
-3
0
-3
0
-3
0
-3
0
-4
0
-3
0
-3
0
-4
0
-3
0
-3
0.000171321
-3
0.000336361
-3
0
-3
6.05694e-05
-3
0
-4
0
-3
7.83945e-05
-4
0
-3
0
-4
0
-3
0
-3
0
-3
0
-3
0
-4
0
-4
0
-3
0
-3
0
-4
0
-3
0
-3
0
-3
0
-3
0
-3
0
-3
0
-3
0
-3
0
-3
0
-3
0
-4
0
-3
1
-4
0
-4
0
-4
0
-4
0
-3
0
-3
0
-4
0
-3
0
-3
0
-3
0
-3
0
-4
0
-4
0
-3
0
-3
0
-3
0
-3
1
-3
0
-3
8.45023e-05
-4
0
-3
0
-3
0
-3
0
-3
0
-3
0
-3
3.88078e-05
-4
0
-4
0
-3
0
-4
0.000281849
-3
0
-3
0
-4
0
-4
0
-3
0
-3
0
-3
0
-3
0
-3
0
-3
0
-3
0
-3
0
-4
0
-3
0
-3
0
-3
0.000196155
-3
0
-3
0
-3
0
-3
0
-3
0
-3
0
-4
0
-3
0
-4
0
-3
0
-4
0
-3
0
-4
0
-4
0
-3
0.000256805
-4
0
-3
0
-3
0
-3
3.91221e-05
-3
0
-3
0
-3
6.9185e-05
-4
0
-3
0
-3
0
-3
0.00094162
-3
0
-3
0
-3
0
-3
0
-3
0
-3
0
-3
0
-3
0
-4
0
-3
0
-4
5.71625e-05
-3
1
-3
0
-3
0
-3
0
-3
0
-3
0
-3
0
-4
0
-3
0
-3
0
-4
0
-4
0
-3
0
-3
0
-3
0
-3
0
-3
4.49782e-05
-3
0
-3
0
-3
0
-3
8.51426e-05
-4
0
-4
0
-4
0
-3
0
-3
0
-3
0
-3
0
-4
0
-4
0
-3
0
-4
0
-4
0
-3
5.14033e-05
-4
0
-4
0
-4
0
-3
0
-4
0
-3
0
-3
0
-4
0
-3
0.00013151
-3
0
-3
0
-3
0
-3
0
-3
0
-3
6.92521e-05
-4
0
-3
1
-4
5.18941e-05
-3
0
-3
0
-4
0
-3
0
-3
0
-3
0
-4
0
-4
0
-3
0
-4
0
-4
0
-4
0
-3
0
-3
0
-3
0
-4
0
-3
0
-4
0
-3
3.75375e-05
-3
1
-4
0
-4
0
-3
0
-3
0
-4
0
-3
0
-3
0
-4
0
-4
0
-3
0
-3
0
-3
0
-3
0
-4
0
-3
0
-3
0
-3
0
-3
0
-3
0
-3
0
-4
0
-3
0
-3
0
-4
9.36856e-05
-3
0
-3
0
-4
0
-4
0
-3
0
-3
0
-3
0
-3
0
-3
1
-3
0
-3
0
-3
0
-3
0
-3
0
-3
0
-3
0
-3
0
-3
0
-3
0
-4
0
-4
0
-4
0
-3
3.39836e-05
-4
0
-3
0
-3
0
-3
0
-4
0
-4
0
-3
0.0044843
-3
0
-4
0
-3
0
-3
0
-3
0
-3
1
-4
0
-3
0
-3
0
-3
0
-3
0
-3
0
-3
1
-3
0
-3
0
-4
0
-4
0
-3
0
-3
0
-3
0
-3
1
-4
3.47717e-05
-3
0
-4
0
-4
0
-3
0
-3
0
-3
0
-4
0
-3
0
-4
0
-4
0
-3
0
-3
0
-4
0
-3
0.000144718
-3
0
-4
0
-4
0
-3
0.000760456
-3
0
-3
0
-4
0
-3
0
-4
0
-3
0
-3
1
-3
0
-4
0
-3
0
-3
3.1837e-05
-3
1
-4
0
-3
0
-3
0
-4
0
-3
0
-3
0
-3
0
-3
0
-3
0
-3
0
-3
3.28526e-05
-4
0
-3
0
-4
0
-3
0
-3
0
-3
0
-3
7.92205e-05
-3
0
-3
0
-3
0
-3
0
-3
0
-3
0
-3
0
-3
0
-3
0
-3
0
-3
0
-3
0
-4
0
-4
0
-3
0
-3
0
-3
0
-3
0
-3
0
-3
0
-3
0
-4
0
-3
1
-3
0
-4
0
-3
0
-3
0
-3
0
-3
0
-3
0
-3
0
-3
3.50693e-05
-4
0
-3
0
-4
0
-3
0
-3
0
-3
0
-3
0
-3
0
-3
0
-4
0
-4
0
-3
0
-3
0
-4
0
-3
0
-3
0
-3
1
-3
0
-3
0
-3
0
-4
0
-4
0
-3
0
-3
0
-4
0
-3
0
-3
0
-3
0
-3
0
-3
0
-3
8.08081e-05
-4
0
-3
0
-4
0
-4
0
-3
0
-3
0
-4
0
-4
0
-3
0
-3
0
-3
0.000762777
-3
5.2521e-05
-3
1
-3
0
-3
0
-4
0
-3
0
-3
0
-3
0
-4
0
-3
0
-3
0
-4
0
-3
0
-3
0
-3
0
-3
0
-4
0
-3
1
-3
0
-3
0
-4
0
-3
0
-3
0
-3
0
-3
0
-3
0
-3
0
-4
0
-3
0
-4
0.000231589
-3
0
-4
0
-3
0
-3
1
-3
0
-3
0
-3
0
-3
0
-4
0
-4
0
-3
0
-3
0
-4
0
-4
0
-4
0
-4
0
-3
0
-3
0
-3
0
-3
0
-3
0
-4
0.000412541
-3
0
-3
1
-3
0
-3
0
-4
0
-3
0
-3
0
-3
0
-4
0
-4
0
-4
0
-3
0
-3
0
-4
0
-4
0
-3
0
-4
0
-4
0
-3
0.000857633
-3
0
-3
0
-4
0
-3
0
-3
0
-4
0
-3
0
-4
0
-4
0
-3
0
-3
0
-4
0
-4
0
-4
0
-3
0
-3
0
-3
0
-4
0
-4
0
-4
0
-3
0
-4
0
-4
0
-3
1
-4
0
-3
1
-3
0
-3
0
-3
0
-4
0
-3
0
-3
0
-3
0
-4
0
-3
0
-3
0
-4
0
-4
0
-4
0
-4
0
-4
0
-4
0
-3
0
-3
0
-4
0
-3
1
-3
0
-3
0
-3
0
-3
0
-3
0
-3
0
-3
0
-3
0
-3
0
-3
0
-3
0
-3
0
-3
1
-3
0
-4
0
-3
0
-3
0
-4
0
-3
0
-3
1
-3
0
-3
0
-4
0
-3
0
-3
0
-4
0
-4
0
-4
0
-4
0
-3
0
-3
0
-3
0
-3
0
-3
0
-3
1
-3
0
-3
0
-4
0
-3
0
-3
0
-4
0
-4
0
-3
0
-3
0
-4
0
-3
0
-4
0
-3
0
-4
0
-3
0
-3
0
-3
0
-4
0
-4
0
-3
0
-3
0
-4
0
-3
0
-4
0
-4
0
-3
0
-3
0
-4
0
-4
0
-3
0
-3
0
-3
0
-3
0.000870322
-4
0
-3
0
-4
0
-3
0.000875657
-3
0
-3
0
-3
0
-4
0
-3
0
-3
0
-4
0
-3
0
-4
0
-4
0
-3
0
-4
0
-4
0
-4
0
-4
0
-3
0
-3
0
-4
0
-4
0
-4
0
-4
0
-3
0.000109218
-3
0
-3
0
-3
0
-3
0
-4
0
-4
0
-4
0
-3
6.69927e-05
-3
0.000273523
-3
0
-4
0
-3
0
-3
0
-3
0
-3
0
-3
0
-3
0
-4
0
-3
0
-4
0
-3
0
-3
0
-4
0
-3
0
-3
0
-3
0
-3
0
-3
0
-3
0
-4
0
-3
1
-3
0
-3
1
-3
0.000223664
-3
1
-3
0
-4
0
-3
1
-3
0
-4
0
-3
1
-4
0
-3
0.000287522
-4
0
-4
0
-4
0
-4
0
-3
0
-3
0
-4
0
-4
0
-4
0
-4
0
-4
0
-4
0
-3
0
-4
0
-4
0
-3
0
-4
0
-4
0
-3
1
-4
0
-3
0
-3
0
-3
0
-3
0
-4
0
-4
0
-3
0
-4
0
-3
0
-3
0
-3
0
-4
0
-4
0
-3
0
-4
0
-4
0
-4
0
-4
0
-3
4.06504e-05
-3
0
-3
0
-3
0
-3
0
-3
0
-3
0
-4
0
-3
0
-3
0
-3
0
-4
0
-3
0
-3
0
-3
0
-4
0
-3
0.000133085
-3
0
-3
0
-4
0
-3
0
-4
0
-3
0
-3
0
-3
0
-3
0
-3
0
-3
1
-4
0
-4
0
-4
0
-4
0
-3
0
-3
0
-3
0
-3
0
-3
1
-3
0
-4
0
-3
0
-3
3.40866e-05
-3
0
-4
3.51432e-05
-3
0
-3
0
-3
0
-4
0
-3
0
-3
0
-3
0
-4
0
-3
0
-3
0
-4
0
-3
0
-4
0
-4
0
-4
0
-3
0
-3
0
-3
0
-3
0
-3
0
-4
0
-3
0
-3
1
-3
0
-4
0
-3
0.000132031
-3
0
-3
0
-4
0
-4
0
-3
0
-3
0
-4
0
-3
0
-3
0
-4
0
-4
0
-3
0
-3
1
-4
0
-3
0
-3
0
-3
0
-4
0
-4
0
-4
0
-3
0
-4
0
-4
0
-3
0.000140371
-3
0
-3
7.73455e-05
-3
0
-4
0
-3
0
-4
0
-4
0
-3
0
-3
0
-3
0
-3
0
-3
0
-3
0
-4
0
-3
0
-3
0
-3
0
-4
0
-3
0
-3
0
-3
0
-3
0
-3
0
-4
0
-3
0
-3
1
-4
0
-3
0
-4
0
-3
0
-3
0
-3
0
-3
0
-3
0
-3
1
-4
0
-4
0
-3
0
-3
0
-3
0
-3
0
-4
0
-4
0
-3
4.48692e-05
-3
0
-3
0.000919963
-3
0
-3
1
-3
0
-3
0
-3
0
-3
0
-3
0
-3
1
-3
0
-3
0
-4
0
-4
0
-3
0
-3
0
-3
0
-3
0
-3
0
-4
0
-3
0
-4
0
-4
0
-3
0
-4
0
-4
0
-4
0
-4
0.000109782
-3
0
-3
0
-3
0
-4
0
-3
0
-3
0
-3
0
-3
0
-4
0
-3
0
-4
0
-4
0
-4
0
-3
0
-3
0
-3
1
-4
0
-3
0
-4
0
-3
0
-3
0
-3
0
-3
0
-3
0
-3
0
-3
0
-4
0
-4
0
-4
0
-3
0
-3
0
-3
0.000226706
-4
9.89511e-05
-3
0
-3
0
-3
0
-4
5.3582e-05
-3
0
-4
0
-3
0
-3
0
-3
0
-3
0
-4
0
-4
0
-3
4.60299e-05
-4
0
-4
0
-4
0
-4
0
-4
0
-4
0
-4
0.000611247
-4
0
-4
0
-3
0
-3
0
-4
0
-3
8.91107e-05
-3
0
-4
0
-3
4.24917e-05
-4
0
-4
0
-3
0
-3
0
-3
7.70594e-05
-3
0
-3
0
-4
0
-3
0
-3
3.42021e-05
-3
0.000342349
-3
0
-3
0
-4
0
-3
0
-3
0
-3
0
-3
0
-3
0
-3
0
-3
0
-3
0
-3
0
-4
0
-4
0
-4
0
-4
4.57917e-05
-3
0
-4
0
-3
0
-4
0
-4
0
-4
0
-3
0
-4
0
-4
0
-3
0
-3
0
-4
0
-3
0
-3
0
-3
0
-4
0
-4
0
-3
0
-3
0
-3
0
-4
0
-4
0
-3
0
-3
0
-3
0
-4
0
-3
0
-4
0
-3
0
-3
0
-3
0
-4
0
-3
9.48857e-05
-3
0
-4
0
-3
0
-3
0
-3
0
-3
0
-3
0
-3
0
-3
0
-3
0
-3
0
-3
0
-3
0
-3
0
-3
0
-3
0
-3
1
-4
0
-4
0
-3
0
-3
0
-3
0
-3
0
-3
0
-3
0
-4
0
-4
0
-4
0
-3
0
-3
0
-4
0
-3
0
-4
0
-3
0
-3
0
-3
0
-3
0
-3
0
-3
0
-4
0
-4
0
-3
0
-4
5.33362e-05
-4
0
-4
0
-4
0
-3
0
-4
0
-4
0
-3
0
-3
0
-4
0
-3
0
-3
0
-3
0.000656599
-3
0
-4
0
-3
0
-3
0
-4
0
-3
0
-3
0
-3
0
-3
0
-3
0
-3
0
-3
0
-3
0
-4
0
-4
0
-3
0
-3
0
-3
0
-3
1
-3
5.15198e-05
-4
0
-4
0
-4
4.2155e-05
-3
0
-3
0
-4
0
-3
0
-4
0
-3
0.000424268
-3
0
-3
0.000801282
-3
0
-4
0
-3
0
-4
0
-4
0
-4
0
-4
0
-4
0
-3
0
-4
0
-4
0
-3
0
-4
0
-4
0
-4
0
-3
0
-4
0
-3
0
-3
0
-3
0
-3
0
-3
0
-3
0
-3
0
-3
1
-4
0
-4
0
-3
0
-3
0
-3
0
-3
1
-3
0
-3
0
-3
1
-4
0.00088574
-4
0
-4
0
-4
0
-4
0
-4
0
-4
0
-4
3.73832e-05
-4
0
-3
0
-3
0
-4
0
-4
0
-4
0
-3
0
-4
0
-3
0
-4
0
-3
0
-3
0
-3
0
-4
0.000168435
-3
0.00023116
-3
0
-3
0
-4
0
-4
0
-3
0
-3
0.000104199
-3
0
-3
0
-3
0
-3
0
-3
0
-4
0
-3
0
-3
0
-3
0
-4
0
-3
5.91436e-05
-4
0
-3
0
-3
0
-3
0
-3
5.70223e-05
-4
0
-4
0
-4
0
-3
0
-3
0
-4
0
-3
0
-3
0
-4
0
-3
0
-3
0
-3
0
-3
0
-3
0
-3
0
-3
0
-3
0
-3
0
-4
0
-4
0
-3
0
-3
0
-4
0
-3
0
-3
0.000217912
-3
0
-3
0
-3
1
-3
0
-3
0
-3
0
-3
0
-3
0
-3
0
-3
0
-3
0
-3
0
-3
1
-3
0
-3
0
-3
0
-3
0
-3
0
-3
0
-3
0
-4
0
-4
0
-3
0
-3
0
-3
0.000426985
-3
0
-4
0
-3
0
-3
0
-3
1
-4
0
-3
4.9157e-05
-4
0
-3
4.09937e-05
-3
0
-3
0
-3
0
-3
0
-3
1
-3
0
-3
0
-3
0
-4
0
-4
0
-4
6.40574e-05
-3
0
-3
0
-3
0
-3
0
-4
0
-3
6.28141e-05
-4
0
-3
0
-3
0
-3
1
-4
0
-3
0.00353357
-3
0.000157035
-4
0
-4
0
-4
0
-4
0
-4
0
-4
0
-3
0
-4
0
-4
0
-3
0
-3
0
-3
4.04531e-05
-3
0
-3
0
-3
0
-3
0
-3
0
-3
0
-4
0
-3
0
-4
0
-4
0
-3
5.05587e-05
-4
0
-4
0
-4
0
-4
3.82365e-05
-3
0
-3
1
-3
0
-3
0
-4
0
-4
0
-4
0
-3
0
-3
0
-3
0
-4
0
-4
0
-3
1
-3
0
-3
0
-3
0
-3
0
-3
0
-3
0
-3
0
-3
0
-4
0
-4
0
-3
0
-4
0
-4
0
-3
0.00074129
-3
0
-3
0
-4
0
-3
0
-3
0
-3
0
-3
0
-3
0
-3
0
-3
0
-4
0
-3
0
-4
0
-3
0
-4
0
-4
3.51519e-05
-3
1
-3
0
-4
0
-3
0
-4
0
-3
0
-3
0
-3
0
-3
0
-4
0
-3
0
-3
1
-3
0
-4
0
-3
0
-3
0
-4
0
-4
1
-4
0
-3
0
-3
0
-3
0
-3
0
-3
0
-3
0
-3
0
-3
0
-3
0
-4
0
-3
0
-3
0
-3
0
-3
0
-3
1
-3
0
-4
0
-3
0
-3
0
-4
0
-3
0
-3
0
-3
0
-4
0
-3
0
-4
0
-3
0
-3
0
-3
0
-4
0
-4
8.18934e-05
-4
0
-4
0
-3
0
-4
0
-4
0
-3
0
-4
0
-4
0
-3
0
-3
3.71968e-05
-4
0
-4
0
-3
0
-3
0
-3
0
-4
0
-4
0
-3
0
-3
0
-4
0
-3
0
-3
0
-4
0
-4
0
-3
0
-4
0
-3
0
-3
0
-3
0
-4
0
-4
0
-3
0
-3
0
-3
1
-3
0
-4
0
-4
0
-3
0
-3
0
-3
0
-3
0
-4
0
-4
0
-4
0
-3
0
-3
0
-3
0
-3
0
-3
0
-3
0
-4
0
-4
0
-3
0
-3
0
-4
0
-3
0
-3
0.000465549
-3
0
-3
0
-3
0
-3
0
-3
0
-3
0
-3
0
-3
0
-3
0
-4
0
-3
0
-3
0
-3
0
-3
0
-4
0
-3
0
-3
0
-4
0
-4
0
-4
0
-4
0
-3
0
-3
0
-3
0
-3
0
-3
0
-3
0
-3
0
-3
0
-3
0
-4
0
-3
0
-3
0
-4
0
-3
0
-4
0
-3
0
-4
0
-3
0
-3
0
-3
0
-3
0
-3
0
-4
0
-4
0
-3
0
-3
0.000499251
-3
0
-3
0
-3
0
-3
0
-4
0
-3
0
-3
0
-3
0
-4
0
-4
0
-3
0
-4
0
-3
0
-4
0
-3
0
-4
0
-3
0
-4
0
-3
0
-3
0
-4
0
-4
0
-3
0
-3
0
-4
0
-4
0
-3
0.000220994
-3
0
-3
1
-3
0
-4
0
-3
0
-4
0
-3
0
-4
0
-4
0
-3
0
-3
0
-4
0
-3
0
-3
0
-3
0.000104373
-3
0
-4
0
-3
0
-3
0
-4
0
-4
0
-3
0
-3
0
-3
0
-3
0
-4
0
-4
0
-3
0
-3
0
-3
1
-3
0
-4
0
-4
0
-3
0
-3
0
-3
0
-4
0
-4
0
-3
1
-3
0
-3
0
-4
0
-4
0
-3
0
-3
0
-4
0
-4
0.000165453
-3
0
-4
0
-3
0
-4
0
-4
0
-4
0
-3
1
-4
0
-3
0
-3
0
-4
0
-3
0
-3
0
-3
0
-3
0
-3
0
-4
0
-3
0
-3
0
-3
0
-4
0
-3
0
-3
0
-3
0
-3
0
-3
1
-3
0
-4
0
-3
0
-4
0
-4
8.77039e-05
-3
0
-3
0
-3
0
-4
0
-4
0
-4
0
-4
0
-4
0
-4
0
-3
0
-3
0
-3
0
-3
0
-3
0
-3
0
-4
0
-4
0
-3
0
-3
0
-4
0
-4
0
-3
1
-3
0
-3
0
-3
0
-4
0
-4
0
-4
0
-3
0
-3
1
-4
0
-4
0
-3
0
-3
3.87507e-05
-3
0
-3
1
-4
0
-4
0.000894454
-4
0
-4
0
-3
0
-3
0
-3
0
-3
0
-3
0
-4
0
-3
0
-3
0
-4
7.27961e-05
-4
0
-3
0
-3
0
-4
0
-4
0
-4
0
-3
0
-3
0
-3
0
-3
0
-3
0
-4
0
-4
0
-4
0
-4
0
-3
0
-4
0
-3
0
-3
0
-4
0
-3
0
-3
0
-3
0
-3
0
-3
0
-4
0
-3
0
-3
0
-3
0
-3
3.87492e-05
-3
0
-4
0
-3
0
-3
0
-3
0
-4
0
-3
0
-3
5.67376e-05
-3
0
-4
0
-3
0
-3
0
-4
0
-4
0
-3
0
-3
0
-4
0
-4
0
-3
0
-4
0
-4
0
-4
0
-3
0
-4
0
-3
0
-3
0
-4
0
-4
0
-4
8.44309e-05
-3
0
-3
0
-4
0
-3
0
-3
0
-3
0
-4
4.10021e-05
-4
0
-4
0
-3
0
-3
0
-4
0
-4
0
-4
0
-4
0
-4
0
-4
0
-3
0
-3
0
-4
4.02641e-05
-4
0
-3
0
-4
0
-3
0.000103788
-3
0.000177117
-3
0
-3
0
-3
0
-3
0
-4
0
-4
0
-4
0
-3
1
-3
0
-3
0
-3
0
-4
0
-4
0
-3
0
-4
0
-4
0
-3
1
-3
0
-3
0
-3
0
-4
0
-3
0
-4
0
-4
0
-3
0
-3
0
-3
0
-4
0
-3
0
-4
0
-4
0
-3
0
-4
0
-3
0
-3
0
-4
0
-3
1
-3
0
-3
0
-3
0
-4
0
-3
0
-3
0
-4
0
-3
3.57066e-05
-3
0
-4
0
-4
0
-3
0
-4
0
-3
0
-4
0
-4
0
-3
0
-4
0
-4
0
-3
0
-4
0
-4
0
-4
0
-3
0
-4
0
-3
3.87507e-05
-3
0
-3
0
-3
0
-3
0
-3
0
-4
0
-4
0
-4
0
-3
1
-3
0
-3
0
-3
0
-3
0
-3
0
-4
0
-3
0
-3
0
-4
0
-3
0
-3
1
-3
0
-3
0
-4
0
-3
0
-3
0
-3
0
-3
0
-3
0
-3
1
-3
0
-3
0
-3
0
-3
0
-3
0
-3
0
-3
0
-4
0
-3
0
-3
0
-3
0
-3
0
-3
0
-3
0
-3
0
-3
0
-3
0
-3
0
-3
0
-3
0
-3
0
-3
0
-4
0
-4
0
-4
0
-3
0
-4
0
-4
3.7372e-05
-3
0
-4
0
-3
0
-3
0
-3
0
-4
0
-3
0.000396825
-3
0
-3
0
-4
0
-3
5.21594e-05
-4
0
-4
0
-3
0
-3
0
-3
0
-3
0
-4
0
-3
0
-4
0
-4
0
-4
0
-3
0
-3
0
-3
0
-3
0
-3
0
-3
0
-4
0
-3
0.000309981
-3
0
-4
0
-4
0
-4
0
-4
0
-4
0
-3
0
-3
0
-4
0
-3
0
-3
0
-3
0
-3
0
-3
0
-3
0
-3
0
-4
0
-3
0
-4
0
-3
0
-3
0
-3
5.83533e-05
-3
0
-3
0
-3
0
-4
0
-3
0
-3
0
-3
0
-4
0
-4
0
-3
0
-3
0
-4
0
-4
0
-3
5.4615e-05
-3
0
-3
0
-3
0
-3
0
-3
0
-4
0
-4
0
-3
0
-4
0
-3
0
-3
0.000574053
-3
0
-3
0
-3
0
-4
0
-4
0
-4
0
-4
0
-3
0
-4
0
-3
0
-4
0
-3
0
-4
0
-3
0
-3
0
-3
1
-4
0
-3
0
-3
0
-3
0
-3
0
-4
0
-4
0
-3
0
-3
0
-3
0
-4
0
-3
0
-3
0
-4
0
-3
0
-4
0
-3
0
-3
0
-3
0
-3
0
-3
0
-3
0
-3
0
-3
0
-3
0
-4
0
-4
0
-3
0
-4
0
-4
0
-4
0
-3
0
-3
0
-4
0
-3
0
-4
0
-3
1
-3
1
-3
0
-3
0
-4
0
-3
0
-3
0
-3
0
-3
0
-4
0
-4
0
-4
0
-3
0
-3
0
-3
0
-3
0
-3
0
-4
0
-3
0
-3
0
-4
0
-3
0
-4
0
-4
0
-4
0
-3
1
-3
0
-4
0
-4
0
-3
0
-3
0
-4
0
-3
1
-3
1
-4
0
-3
0
-4
0
-3
0
-4
0
-4
0.00010019
-4
0
-4
0
-3
0
-3
0
-3
0
-3
0
-3
0
-3
0
-3
0
-3
0
-3
0
-4
0
-4
0
-4
0
-4
0
-3
0
-4
0
-3
0
-4
0
-4
6.23597e-05
-4
0
-3
0
-3
0
-3
0
-3
0
-4
0
-4
0
-4
0
-3
0
-3
0
-3
4.47307e-05
-4
0
-4
0
-4
0
-3
0
-3
0
-3
0
-3
0
-3
0
-4
0
-4
0
-4
0
-4
0
-3
0
-3
0
-3
0
-3
0
-3
0
-3
0
-3
0
-3
0
-3
0
-4
0
-4
0
-4
0
-3
0
-3
0
-3
0
-3
0
-3
0
-3
0
-3
0
-3
0
-3
0
-3
0
-3
0
-3
0
-3
0
-4
0
-3
0
-3
1
-3
0
-4
0
-4
0
-3
0
-4
0
-4
0
-3
0
-4
0
-3
1
-3
0
-3
0
-4
0
-4
0
-4
0
-4
0
-4
0
-3
0
-3
0
-4
0
-3
0
-4
0
-4
0
-3
0.000130907
-3
1
-3
0
-4
0
-3
0
-3
1
-3
0
-3
0
-4
0
-3
0
-4
0
-4
0
-3
0
-3
0
-3
0
-4
0
-4
0
-4
0
-3
0
-3
0
-3
0
-3
0
-3
0
-4
0
-4
0
-4
0
-4
0
-4
0
-3
0
-4
0
-3
0
-3
9.85319e-05
-4
0
-3
0
-4
0
-4
0
-3
0.000862069
-3
0
-3
0
-4
0
-3
0.000106918
-4
0
-3
0
-3
0.000120758
-3
0
-3
0
-3
0
-3
0
-3
0
-3
0
-3
0
-4
0
-3
0
-3
0
-3
0
-3
0
-3
0
-3
0
-3
0
-3
0
-3
0
-3
0
-3
0
-3
4.80908e-05
-3
3.77145e-05
-3
0
-3
1
-3
0
-3
0
-3
6.56944e-05
-3
0
-4
0
-4
0
-3
0
-3
0
-4
0
-3
3.70453e-05
-4
0
-3
0
-3
0
-4
0
-3
0
-3
0.000130208
-3
0
-3
0
-3
0
-3
0
-4
0
-4
0
-4
0
-3
0
-3
0
-4
0
-3
0
-3
0
-3
0
-3
0
-3
0
-3
0
-3
0
-4
0
-3
0
-3
0
-3
0
-4
0
-3
0
-3
0
-3
0
-3
0
-3
0.000142531
-4
0
-4
0
-4
0
-3
0
-4
0
-4
0
-4
0
-4
0
-4
0
-3
0
-3
1
-4
0
-3
0
-4
0
-4
0
-3
0
-3
0
-3
0
-3
0
-3
0
-4
0
-4
0
-3
0.000848176
-4
0
-3
0
-3
0
-3
0.000369686
-4
0
-3
7.59474e-05
-4
0
-3
0
-3
0
-4
0
-4
0
-3
0
-4
0
-4
0
-3
0
-4
0
-4
0
-3
0
-3
0
-4
0
-3
0
-4
0
-4
0
-3
1
-3
0
-3
0
-3
1
-4
0
-3
0
-3
0
-4
0
-4
0
-4
0
-3
1
-3
0
-3
0
-3
0
-3
0
-3
0
-4
0
-3
0
-3
0
-4
0
-3
0
-3
0
-3
0
-3
0
-4
0
-3
0
-3
0
-3
0
-4
0
-3
0
-3
0
-3
0
-4
0
-4
0
-3
0
-3
1
-3
0
-3
0
-3
0
-3
0
-3
0
-3
0
-4
0
-3
0
-3
8.51644e-05
-3
0
-3
0.000884173
-3
0
-3
0
-3
0
-4
0
-3
0
-3
0.000117261
-3
0
-4
0
-3
0
-3
0
-3
1
-4
0
-4
0
-3
1
-4
0
-3
0
-3
0
-3
4.83793e-05
-4
0
-3
0
-3
0
-4
0
-3
0
-3
0
-3
5.42388e-05
-3
0
-4
0
-4
0
-3
1
-3
6.62734e-05
-3
1
-3
0
-3
0
-4
0
-3
0
-4
0
-4
0
-4
0
-4
0
-3
0
-3
0
-4
0
-3
0
-3
0
-4
0
-3
0
-3
0
-3
0
-4
0
-4
0
-3
0
-3
0
-3
1
-4
0
-3
0
-3
0
-3
0
-3
0
-4
0
-4
0
-3
0
-3
0
-3
0
-3
3.86907e-05
-3
0
-4
0
-4
0
-3
0
-3
0
-3
0
-3
0
-3
0
-3
0
-4
0
-3
1
-3
0
-3
0
-3
0
-3
0
-3
1
-4
0
-3
0
-3
0
-3
0
-4
0
-3
0
-4
0
-4
0
-4
0
-3
0.000798085
-4
0
-3
0.000132556
-3
0
-3
0
-3
0
-4
0
-4
0
-3
0
-3
0
-3
0
-3
0
-4
0
-3
0
-3
0
-4
0
-3
0
-3
0
-3
0
-3
0
-4
0
-3
0
-3
0
-3
0
-3
0
-3
0
-4
0
-3
0
-3
0
-3
1
-3
0.000866551
-3
1
-4
0
-3
0
-4
0
-4
0
-3
1
-4
0
-4
0
-4
8.70019e-05
-3
0
-3
0
-3
0
-3
0
-3
0
-3
0
-4
0
-3
0
-3
0
-4
0
-3
0
-3
0
-4
0
-4
0
-4
0
-4
0
-4
0
-3
0
-3
8.54774e-05
-4
0
-3
0
-3
0
-4
0
-3
6.64849e-05
-3
0
-3
0
-4
0
-3
0
-3
0
-3
0
-3
0
-4
0
-3
0
-3
1
-3
0
-3
1
-4
9.51565e-05
-3
0
-3
0
-3
0
-3
0
-3
1
-3
0
-3
0
-3
0
-4
0
-4
0
-3
0
-3
0
-3
1
-4
0
-4
0
-3
0
-4
0
-3
0
-3
0
-3
0
-4
0
-4
0
-3
0
-4
0
-3
1
-3
0
-3
0
-3
0
-3
0
-3
0
-4
0
-3
0
-3
0
-3
0
-4
0
-4
0
-4
0
-3
0
-4
0
-4
0
-3
0
-4
0
-3
0
-4
0
-4
0
-4
0
-4
0
-3
0
-3
0
-3
0
-3
0
-3
0
-3
0.000274048
-4
0
-3
0
-3
0
-3
0
-3
0
-3
1
-3
0
-3
0
-3
0
-3
0
-4
0
-3
0
-3
0
-4
0
-3
0
-3
0
-4
0
-4
3.91114e-05
-3
0
-3
0
-4
0
-3
8.00961e-05
-3
0
-4
0
-4
0
-3
0
-3
0
-3
0
-3
0
-3
0
-3
4.93974e-05
-4
0
-3
1
-4
0
-4
0
-4
0
-4
0
-4
0
-3
0
-3
0
-3
0
-4
0
-3
0
-3
0.00010898
-3
0
-3
0
-3
0
-3
0
-3
0
-4
0
-3
0.000398883
-4
0
-4
0
-3
0
-4
0
-3
0
-3
0
-3
0
-3
0
-4
0
-4
0
-3
0
-3
0
-3
0
-3
0
-3
0
-3
4.73776e-05
-3
0
-4
0
-4
4.95712e-05
-3
0
-3
0
-4
0
-4
0
-3
0
-3
0
-4
0
-3
0
-4
0
-4
0
-3
0
-4
0
-4
0
-3
0
-4
0
-3
1
-3
0
-3
0
-3
0
-3
0
-3
0
-4
0
-3
0
-3
0
-3
0
-4
0
-4
0
-4
0
-3
0
-3
0
-4
0
-3
0
-3
1
-3
0
-4
0
-3
0
-3
0
-3
1
-4
0
-3
0
-3
0
-4
0
-3
0
-3
0
-3
0
-3
0.00341297
-3
0
-4
0
-4
0
-3
0.000884173
-3
0
-4
0
-4
0
-4
0
-4
0
-3
0
-3
0
-4
0
-3
0
-4
0
-3
0
-3
0
-3
0
-3
0
-4
0
-4
0
-3
0
-3
0
-4
0
-3
0
-3
0
-4
0
-3
0
-4
0
-3
0.000900901
-3
0
-3
0
-3
0
-3
0
-3
0
-3
0
-4
0
-4
0
-3
0
-3
0
-3
0
-3
0
-4
0
-3
1
-3
0
-4
0
-4
0
-3
0
-3
0.00019425
-4
0
-4
0
-3
1
-3
0.000152812
-3
0
-4
0
-3
0
-3
0
-3
0
-3
0
-4
0
-3
0
-3
1
-4
0
-3
0
-3
0
-3
0
-3
3.57846e-05
-4
0
-3
0
-4
0
-3
0
-4
0
-3
0
-3
0
-3
0
-4
0
-3
0
-4
0
-3
0
-3
0
-3
0
-3
0
-3
0
-3
0
-4
0
-4
0
-4
0
-4
0
-3
0
-3
0
-3
0
-3
0
-3
0
-3
0
-3
0
-3
0
-4
0
-3
0
-3
0
-3
0
-3
0
-3
0
-4
0
-3
0
-3
0
-4
0
-4
0
-3
0
-3
0
-4
0
-3
0
-3
0
-4
0
-4
0
-3
0
-4
0
-4
0.000315756
-4
0
-4
0
-3
0
-3
0
-3
0
-3
0
-3
0
-4
0
-3
0
-4
0
-3
0
-3
0
-3
0
-3
0
-4
0
-4
0
-3
0
-3
0
-4
0
-3
0
-3
0
-3
0
-4
0
-3
0
-4
0
-3
0
-3
0
-4
0
-3
0
-4
0
-3
1
-4
0
-4
0
-4
0
-3
0
-3
0
-3
0
-3
4.31425e-05
-3
0
-4
0
-4
0
-4
0
-4
0
-3
0
-3
0
-3
0
-3
0
-3
0
-3
0
-3
0
-4
0
-4
0
-3
0
-3
0
-4
0
-3
0
-4
0
-3
0.5
-3
0
-3
0
-4
0
-4
0
-4
0
-3
0
-4
0
-4
0
-3
0.000402414
-4
0
-4
0
-3
0
-3
0
-3
0
-3
0
-4
0
-3
0
-3
0
-3
0
-4
0
-3
0
-4
0
-3
0
-4
0
-3
0
-3
3.78344e-05
-3
0
-4
0
-3
0
-3
0
-3
0
-3
0
-4
0
-3
0
-3
0
-3
0
-3
0
-3
0
-4
0
-4
0
-3
6.10165e-05
-4
0
-4
0
-3
0
-3
0
-3
0
-3
0
-3
0
-4
0
-4
0
-3
0
-3
0
-3
1
-4
8.82613e-05
-4
0
-3
0
-4
0
-3
0
-3
6.30597e-05
-3
0
-3
0
-4
0
-4
0
-3
0
-4
0
-3
0
-4
0
-4
0
-3
0
-3
0
-4
0
-3
0
-3
0
-3
0
-4
0
-3
0
-3
0
-4
0
-4
0
-4
0
-4
0
-3
1
-3
0
-4
0
-3
0
-4
0
-3
0
-4
0
-4
0
-3
0
-4
0
-4
0
-4
0
-4
0
-3
7.23903e-05
-3
0
-3
4.6856e-05
-3
0
-3
0
-4
0
-3
0
-4
0
-4
0
-4
6.35768e-05
-3
0
-3
0
-3
0
-3
0
-3
0
-4
0
-3
0
-4
0
-3
6.25313e-05
-4
0
-3
0
-3
0
-3
0
-3
0
-3
5.35619e-05
-4
0
-3
3.84719e-05
-4
0
-4
0
-4
0
-4
0
-3
0
-3
0
-3
0
-4
0
-4
0
-4
0
-3
0
-3
0
-3
0
-3
0
-4
0
-3
0
-3
1
-3
0
-3
0
-3
0
-3
0
-3
0
-4
0
-3
0
-3
0
-3
0
-4
8.95015e-05
-3
0
-3
0
-4
0
-3
0
-3
0
-4
1
-3
0
-3
0
-4
0
-3
0
-4
0
-4
0
-4
0
-3
0
-4
0
-3
0
-3
0
-3
0
-3
0
-3
0
-4
0
-3
0
-3
0
-3
1
-4
0
-3
0
-4
0.00436681
-3
0
-3
0
-4
0
-4
0
-3
0
-3
1
-4
0
-3
0
-4
0
-4
0
-4
0
-4
0
-4
0
-3
0
-3
0
-4
0
-3
0
-3
0
-3
0
-3
0
-4
0
-3
0
-3
0
-3
0
-3
0
-3
0
-3
0
-3
0
-4
0
-4
0
-3
0
-4
0
-3
0
-3
0
-3
0
-3
0
-3
0
-3
0
-4
0
-3
0
-3
0
-3
0
-4
0
-4
0
-3
0
-3
0
-3
0
-4
0
-4
0
-3
0
-4
0
-4
0
-3
0
-3
0
-3
0
-3
0
-4
0
-3
0
-3
1
-4
0
-4
0
-3
3.62937e-05
-3
0
-4
0
-3
1
-4
0
-4
0
-3
0
-4
0
-4
0
-3
0.000108542
-3
0
-3
0
-3
0
-3
0
-3
0
-3
0
-4
0
-4
0
-4
0
-4
0
-4
0
-3
1
-3
0
-4
0
-4
0
-4
0
-4
0
-3
0
-3
0
-3
1
-3
0
-3
0
-4
0
-4
0
-4
0
-3
0
-4
0
-4
0
-4
0
-3
0
-3
0
-3
0
-4
0
-3
0
-3
0.000942507
-3
0
-3
0
-3
0
-3
0
-3
0
-3
0
-3
0
-4
0
-3
0
-3
0
-3
0
-3
0
-3
0
-3
0
-3
0
-3
0
-4
0
-3
0
-4
0
-4
0
-4
0
-4
0
-4
0
-3
0
-3
0
-3
0
-4
0
-4
0
-3
0
-3
0
-3
8.08277e-05
-4
0
-4
0
-4
0
-4
0
-3
0
-3
0
-3
0
-3
1
-3
1
-4
0
-3
1
-3
0
-3
0
-3
0
-3
0
-3
0
-3
0
-3
0
-3
0
-3
4.50126e-05
-4
0
-3
0.00309598
-3
0
-3
0
-3
0
-4
0
-3
0
-3
0
-4
0
-4
0
-3
0
-4
0
-3
0
-3
0
-3
0
-4
0
-3
0
-3
0
-3
0
-4
0
-4
0
-4
0
-4
0
-3
0
-4
0
-4
0
-4
0
-3
0
-3
0
-4
0
-3
1
-4
0
-3
0
-4
0
-3
0
-3
0
-4
0
-3
0
-4
0
-4
0
-3
1
-3
7.71069e-05
-3
0
-4
0
-3
0.000304321
-3
1
-3
0
-3
0
-3
0
-4
0
-3
0
-3
0
-3
0
-3
0
-4
0
-4
0
-3
0
-4
0
-3
0
-4
0
-4
0
-4
0
-3
1
-4
0
-4
0
-3
0
-4
0
-3
1
-3
0
-3
0
-3
6.0746e-05
-3
0
-4
0
-4
0
-4
0
-3
6.05034e-05
-3
0
-3
0
-3
0
-3
0
-3
1
-3
0
-4
0
-4
0
-3
0
-3
0
-3
1
-4
0
-3
0
-4
0
-4
0
-4
0
-3
0
-4
0
-3
0
-4
0
-4
0
-3
0
-4
0
-4
0
-3
0
-3
0
-3
0
-3
0
-4
0
-3
0
-3
0
-3
0
-3
0
-4
0
-3
0
-3
0
-3
0
-4
0
-4
0
-3
0
-4
0
-4
0
-3
0
-4
0
-3
0
-4
0
-3
0
-3
0
-3
0
-3
0
-3
0
-3
0
-3
0
-4
0
-3
0
-3
0
-3
0
-4
0
-4
0
-4
0
-3
0
-3
0
-3
0
-4
0.00088574
-3
0
-4
0
-3
0
-3
0
-4
0
-3
0
-3
0
-3
0
-4
0
-3
0
-4
0
-3
0
-3
0
-3
0
-3
0
-4
0
-4
0
-4
0
-4
0
-4
0
-3
0
-3
0
-3
0
-3
0
-3
1
-4
0
-4
0
-4
0
-3
0
-3
0
-3
0
-3
0
-4
0
-3
0
-3
0
-3
0
-4
0
-4
3.27129e-05
-3
0
-4
0
-3
0.000142837
-4
0.000147951
-3
1
-3
0
-3
0
-3
0
-3
0
-4
0
-4
0
-3
6.9735e-05
-4
0
-3
0
-3
0
-4
0
-3
1
-3
0
-4
0
-3
0
-3
0
-3
0
-4
0
-3
0
-3
0
-4
0
-4
0
-4
0
-3
0
-3
4.08981e-05
-3
0
-3
0
-4
0
-4
0
-3
0
-3
0
-4
0
-4
0
-4
0
-3
0
-3
0
-4
0
-3
1
-3
0
-3
0
-3
0
-3
0
-3
0
-4
0
-3
0
-3
8.37942e-05
-3
0
-3
0
-3
0
-3
0
-3
0
-4
0
-3
0
-3
0
-3
0
-3
0
-3
0
-3
0.00010846
-4
0
-3
0.000177651
-3
1
-4
0
-3
0
-3
0.000111957
-3
0
-3
0
-3
0
-4
0
-3
0
-3
0
-3
0
-3
0
-3
0
-3
0
-4
0
-3
4.25134e-05
-3
0
-3
0
-3
0
-4
0
-4
0
-3
0
-3
0
-4
0
-3
0
-3
0
-3
0
-3
0
-3
0
-3
0
-3
0
-3
0
-3
0
-4
0
-3
0
-4
0
-4
0
-3
0
-3
0
-3
0
-3
0
-3
0
-3
0
-3
0
-3
0
-3
0
-3
0
-4
0
-4
0
-4
0
-4
0
-3
1
-4
0
-3
0
-4
0
-4
0
-3
0
-4
0
-4
0
-3
0
-3
0
-3
0
-3
0
-3
0
-3
0
-4
0
-4
0
-3
0
-3
0.000151286
-4
0
-3
0
-4
0
-4
0
-4
0
-3
0
-3
0
-4
0
-4
0
-3
0
-3
0
-3
0
-3
0
-3
0
-4
0
-4
0
-3
1
-3
0
-3
0
-3
0
-3
1
-3
0
-3
0
-3
0
-3
0
-3
0
-3
0
-4
0
-4
0
-3
0
-3
0
-4
0
-4
0
-4
0
-3
0
-3
0
-3
0
-4
0
-3
0
-3
0
-3
0
-3
0
-3
0
-4
0
-3
0
-3
0
-3
0
-3
0
-3
0
-3
0
-3
0
-3
0
-3
0
-3
0
-4
0
-3
0
-4
0
-3
4.27862e-05
-3
1
-4
0
-4
0
-4
0
-3
0
-4
9.84931e-05
-3
0
-3
6.42674e-05
-4
0
-3
0.000222866
-3
0
-3
0
-4
0
-3
0
-3
0
-4
3.81607e-05
-4
0.000848176
-3
0
-4
0
-3
1
-4
0
-4
0
-3
0
-3
0.00048852
-3
0
-3
0
-3
0
-3
0
-3
0
-4
0
-4
0
-3
0
-3
0
-3
0
-3
0
-4
0
-4
0
-4
0
-4
0
-4
4.08547e-05
-4
0
-3
0
-3
0
-3
0
-4
0
-3
0
-3
4.10256e-05
-3
0
-4
0
-3
1
-4
0
-3
0
-3
0
-3
0
-3
0
-4
7.08567e-05
-4
0
-3
0
-3
0
-4
0
-4
0
-3
0
-4
0
-4
4.05318e-05
-3
0
-3
0
-3
0
-3
3.53157e-05
-3
0
-4
0
-3
0
-3
0
-3
4.43361e-05
-3
0
-4
0
-4
0
-3
0
-3
0
-3
0.000182448
-4
0
-4
0
-3
0
-3
0
-3
0
-3
0
-4
0
-4
0
-3
9.19963e-05
-4
0
-4
0.000553403
-3
0
-3
0
-3
0
-4
0
-4
0
-3
0
-3
0
-3
0
-3
0
-3
7.94344e-05
-3
0
-4
0
-4
0
-3
0
-4
0
-3
0
-4
0
-3
0
-3
0
-3
0
-4
0
-4
0
-3
0
-3
0
-3
0
-3
0.00304878
-4
0
-3
0
-3
0
-3
0.000258933
-4
0
-4
0
-3
1
-4
0
-4
0
-4
0
-3
0
-3
0.000906618
-3
0
-4
0
-4
0
-3
0
-3
0
-4
0
-4
0
-3
0
-3
0
-4
0
-3
0
-3
7.37953e-05
-3
0
-3
0
-3
0.00315457
-3
0
-3
0
-3
0.000108026
-3
0
-3
0
-3
0
-3
0
-3
0
-3
0
-3
0
-4
0
-3
0
-3
0
-4
0
-3
0
-3
0
-4
0
-3
1
-3
0
-3
0
-4
0
-4
0
-3
0
-3
4.20433e-05
-3
3.70398e-05
-3
0
-3
3.71333e-05
-3
0
-4
0
-3
0
-3
1
-3
0
-3
0
-3
0
-3
0
-3
0
-3
0
-3
0
-4
0.000227428
-4
0
-3
0
-3
0
-4
0
-3
1
-4
0
-3
0
-4
0
-4
0
-4
0
-4
0
-3
0
-4
9.16926e-05
-4
0
-3
0
-3
0
-3
0.000352485
-3
0
-4
0
-4
0
-4
0
-3
0
-3
0
-3
0.000307409
-3
0
-3
0
-4
0
-3
0
-3
0
-4
0
-3
0
-3
0
-3
0
-3
0
-3
0
-3
0
-3
0
-4
0
-3
0
-3
0
-3
0
-3
0
-3
0
-3
0
-3
0
-4
0
-4
0
-3
0
-3
0
-3
1
-3
0
-3
0
-4
0
-4
0
-3
0
-3
0
-3
0
-3
0
-3
0
-4
8.89126e-05
-4
0
-3
0
-4
0
-4
0
-3
0
-3
0
-3
0
-3
0
-3
0
-3
0
-4
0
-4
0
-3
0
-3
0.000107078
-3
0
-4
0
-3
0
-3
0
-3
4.81556e-05
-4
0
-4
0
-3
0
-4
0
-3
0
-3
0
-3
0
-4
0
-3
0
-3
0
-4
0
-3
0
-3
1
-3
5.15863e-05
-3
1
-4
0
-3
0
-3
0
-3
0
-3
0
-3
0
-4
0
-3
0
-3
0
-4
0
-4
0
-3
0
-3
0
-4
0
-3
0
-3
0
-4
0
-3
0
-4
0
-4
0
-4
0
-4
0
-3
0.000174459
-4
0
-4
0
-4
0
-3
0
-3
0
-4
0
-4
0
-4
0
-4
0
-4
0
-3
0
-3
0
-4
0
-4
0
-4
0
-3
0
-4
0
-3
0
-3
9.58865e-05
-4
0
-4
0
-3
0
-3
0
-4
0
-4
0
-3
8.03859e-05
-3
0
-3
0
-3
0
-3
0
-3
0
-3
0
-3
0
-4
0
-3
0
-3
0
-3
0
-3
0
-3
0
-3
1
-4
0
-3
0
-3
0
-3
4.29129e-05
-4
0
-3
0
-3
5.61325e-05
-4
0
-3
0
-3
0
-3
0
-3
0
-4
0
-4
0
-3
0
-3
0
-3
0
-4
0.000227428
-3
0
-4
0
-4
0
-4
0
-3
0
-3
0
-3
0
-3
0
-3
0
-3
0
-3
0
-3
0
-3
4.71542e-05
-4
0
-3
0
-3
0
-4
0
-3
1
-3
0
-3
0
-3
0
-3
1
-3
0
-4
0
-3
1
-4
0
-4
6.68449e-05
-4
0
-3
0
-4
0
-4
7.77363e-05
-3
0
-4
0
-3
0
-3
0
-3
1
-3
0
-3
0
-4
3.52274e-05
-3
0
-4
0
-3
0
-3
0
-3
0
-3
0
-3
1
-3
0
-3
0
-3
0
-3
0
-4
0
-3
0
-3
1
-3
0
-3
0
-3
0
-3
0
-4
0
-3
0
-4
0
-4
0
-3
0
-4
0
-3
0
-3
0
-3
1
-4
0
-3
0
-3
0
-3
0
-3
0
-4
0.00041632
-3
0
-3
1
-4
0
-3
0
-3
0
-3
0
-3
0
-3
1
-3
0
-3
0
-3
0
-3
0
-3
0
-3
0
-4
0
-3
4.97043e-05
-3
0
-3
0
-3
0
-4
0
-4
0
-3
0
-4
0
-4
0
-3
0
-3
0
-3
0
-3
0
-3
3.20143e-05
-4
0
-4
0
-3
0
-4
0
-3
0
-3
0
-3
0
-3
0
-3
0
-3
0
-4
0
-3
0
-3
0
-4
0
-4
0
-3
0.000118821
-4
0
-3
0
-3
1
-4
0
-3
0
-3
0
-4
0
-4
0
-4
0
-4
0
-4
0
-3
0
-3
0
-4
0
-4
0
-3
0
-3
0
-3
0
-3
0
-3
0
-3
0
-3
0
-3
0
-3
0
-3
0
-4
0
-4
0
-3
0
-3
0
-3
1
-4
0
-3
0
-3
0
-4
0
-4
0
-3
0
-4
0
-4
0
-3
0
-4
0
-3
0
-3
0
-3
0
-3
0
-3
0
-3
0
-4
0
-4
4.73776e-05
-3
0
-4
0
-4
0
-4
0
-3
0
-3
1
-3
0
-3
0
-3
0
-3
0
-3
0
-3
0.000111
-4
0
-4
0
-4
0
-3
1
-3
0.00369004
-3
0
-4
0
-3
0
-3
0
-4
0
-4
0
-3
0
-3
0
-4
0
-3
0
-3
0
-3
1
-3
5.00551e-05
-3
0
-3
9.243e-05
-3
0
-3
1
-3
0
-3
0
-4
0
-3
0
-3
0
-3
0
-3
0
-3
7.67519e-05
-4
0
-4
0
-3
0
-3
0
-3
0
-4
0
-3
1
-4
0.000957854
-3
0
-3
0
-3
0
-4
0
-3
0
-3
0
-3
0
-3
0
-4
0
-4
0
-3
1
-3
0
-3
0
-3
0
-3
0
-4
0
-4
0
-4
0
-3
0
-4
0
-3
0.000129316
-3
1
-3
0.000251193
-4
3.8276e-05
-4
0
-3
0
-3
0
-3
0
-4
0
-3
0
-3
0
-4
0
-3
0
-4
0
-3
9.35191e-05
-4
0
-3
0
-4
0
-4
9.01551e-05
-3
7.36106e-05
-3
0
-4
0
-3
0.000139704
-4
0
-3
0
-3
0
-4
0
-3
0
-3
0
-3
0
-3
0
-3
0
-3
0
-3
0
-4
0
-4
0
-4
0
-4
0
-3
0
-3
0
-4
0
-3
0
-3
0
-3
0
-3
5.66123e-05
-4
0
-3
0
-3
0
-4
0
-4
0
-3
0
-3
0
-3
0
-3
0
-3
0
-3
0
-3
0
-3
0
-3
0
-3
0
-3
0
-3
0
-3
0
-3
4.06587e-05
-4
0
-4
0
-3
0
-3
1
-4
0
-3
0
-3
0
-3
0
-4
0
-4
0.000179244
-3
0
-4
0
-3
1
-4
0
-4
0
-4
0
-4
0
-3
0
-3
0
-3
0
-3
0
-3
0
-3
0
-3
0
-4
0
-3
0
-4
0
-4
0
-3
0
-3
0
-3
0
-3
0
-4
0
-3
0
-3
5.51055e-05
-4
0
-3
0
-3
0
-3
0
-3
0
-4
0
-3
0
-3
0
-3
0
-3
0
-3
0
-3
0
-3
0
-3
1
-3
0
-4
0
-4
0
-3
0
-3
0
-3
0
-4
0
-4
0
-4
0
-4
0
-3
0
-3
0
-4
0
-4
0
-3
0
-4
0
-3
0
-3
3.19387e-05
-4
0
-4
0
-4
0
-4
0
-3
0
-3
1
-4
0
-3
1
-3
0
-3
0
-3
0
-3
0
-3
0
-3
0
-3
0
-3
0
-3
0
-4
0
-4
0
-3
0
-3
0
-4
0
-4
0
-4
3.84364e-05
-3
0
-4
0
-4
0
-3
0
-3
0
-3
0
-3
0
-3
1
-3
1
-4
0
-3
0
-4
0
-3
0
-4
0
-3
7.39645e-05
-3
0
-3
0
-3
0
-3
0
-3
0
-4
0
-3
0
-3
0
-4
0
-4
0
-3
0
-3
0
-4
0
-3
0
-3
0
-3
0
-4
3.52262e-05
-4
0
-3
0
-3
0
-4
0
-4
0
-4
0
-4
0
-3
1
-4
0
-4
0
-3
0
-3
0
-4
0
-4
0
-4
0
-3
0
-4
0
-3
1
-3
0
-3
0
-3
0
-4
0
-4
0
-3
0
-3
0
-3
0
-3
0
-3
0
-4
0
-4
0
-3
0
-3
0
-4
0
-3
0
-3
0
-3
0.000159795
-4
0
-4
0
-3
0
-3
0
-4
0
-3
0
-3
0
-4
0
-4
3.50717e-05
-3
0
-3
6.45286e-05
-4
0
-3
1
-3
0
-3
0
-4
0
-3
0
-3
0
-3
0
-4
0
-3
0
-3
1
-4
0
-3
0
-3
0
-3
0
-3
0
-3
0
-3
0
-3
0
-4
0
-3
0
-3
0
-3
0
-3
1
-4
0
-3
0
-3
0
-4
0
-3
0
-4
0
-4
0
-4
0
-4
0
-3
0
-3
0
-3
0
-3
0
-3
0
-3
0
-3
0
-3
1
-3
0
-3
0
-3
0
-3
0
-4
0
-3
0
-4
0
-3
0
-4
0
-3
5.41917e-05
-3
1
-3
0
-4
0
-4
0
-4
0
-3
0
-3
0
-3
0
-3
0
-3
3.98581e-05
-4
0
-4
0
-4
0
-3
0
-3
0
-3
0
-3
0
-3
0
-3
0
-3
0
-3
0.00012332
-3
0
-3
0
-4
0
-4
0
-3
0
-4
0
-4
0
-3
0
-3
0
-3
0
-3
0
-3
0
-3
0
-3
0
-3
0
-3
0
-4
0
-4
0
-3
1
-3
0
-3
0
-3
0
-3
0
-4
0
-3
0
-3
0
-3
0
-3
0.000138447
-4
0
-3
0
-4
0
-4
0
-4
0
-3
0
-3
0
-4
0
-4
0
-3
0
-4
0
-4
0
-4
0
-3
0
-4
0
-3
0
-3
0
-3
0.000944287
-3
0
-3
0
-3
0
-3
0
-3
1
-4
0
-3
0
-3
0.000479616
-3
0
-3
1
-3
0
-3
0
-3
0
-3
0
-3
1
-3
0
-3
0
-3
0
-3
0
-3
0
-3
0
-4
0
-4
0
-3
7.3497e-05
-3
0
-4
0
-3
6.31672e-05
-4
0
-4
0
-3
0
-4
0
-3
0
-4
0
-3
0
-4
0
-4
0
-4
0
-3
0
-4
0
-4
0
-3
0
-4
0
-3
0
-3
0
-3
1
-4
0
-4
0
-3
0
-3
0
