 4.2101 -32.378
-6.39815 -4.38672
-6.65948e-11    -0.617161
 6.39815 -4.38672
4.46828e-11   -0.617161
 6.39815 -4.38672
-6.39815 -4.38672
 6.39815 -4.38672
 6.39815 -4.38672
-6.23991e-11    -0.617161
-6.39815 -4.38672
-6.39815 -4.38672
 6.39815 -4.38672
 6.39815 -4.38672
-6.39815 -4.38672
-43.4583 -75.9886
0.721008 -270.554
 73.9482 -451.029
-6.39815 -4.38672
-6.39815 -4.38672
-56.5406 -159.621
 6.39815 -4.38672
 6.39815 -4.38672
 16.9418 -154.228
 6.39815 -4.38672
-6.39815 -4.38672
 6.39815 -4.38672
 6.39815 -4.38672
-6.39815 -4.38672
 -19.709 -74.5194
 6.39815 -4.38672
-3.11469e-11    -0.617161
 6.39815 -4.38672
 6.39815 -4.38672
-6.39815 -4.38672
 6.39815 -4.38672
-6.39815 -4.38672
 6.39815 -4.38672
-6.39815 -4.38672
4.60545e-11   -0.617161
  -58.95 -122.379
-6.39815 -4.38672
-6.39815 -4.38672
 6.39815 -4.38672
-30.3102 -486.798
-6.39815 -4.38672
-4.68125e-11    -0.617161
5.37888e-11   -0.617161
 6.39815 -4.38672
 6.39815 -4.38672
-22.1878 -51.7484
-74.4885 -165.956
-6.39815 -4.38672
-6.733e-11  -0.617161
 46.5721 -95.0659
-6.39815 -4.38672
7.93787e-11   -0.617161
 6.39815 -4.38672
-6.39815 -4.38672
-6.39815 -4.38672
 6.39815 -4.38672
 7.24246 -40.1521
 6.39815 -4.38672
 6.39815 -4.38672
 6.39815 -4.38672
-6.39815 -4.38672
-6.39815 -4.38672
-6.39815 -4.38672
-4.99578e-11    -0.617161
 6.39815 -4.38672
-6.39815 -4.38672
 6.39815 -4.38672
-6.39815 -4.38672
-6.39815 -4.38672
 6.39815 -4.38672
 6.39815 -4.38672
4.05942e-11   -0.617161
 6.39815 -4.38672
-6.39815 -4.38672
-6.39815 -4.38672
 6.39815 -4.38672
-6.39815 -4.38672
 6.39815 -4.38672
-6.39815 -4.38672
-53.8765  -90.904
 6.39815 -4.38672
-7.28259e-11    -0.617161
  120.94 -469.597
-6.39815 -4.38672
 6.39815 -4.38672
-6.39815 -4.38672
-6.39815 -4.38672
 6.39815 -4.38672
3.03445e-11   -0.617161
-6.39815 -4.38672
 6.39815 -4.38672
 6.39815 -4.38672
 6.39815 -4.38672
-3.51832e-11    -0.617161
 6.39815 -4.38672
-6.39815 -4.38672
 6.39815 -4.38672
4.26477e-11   -0.617161
 6.39815 -4.38672
-6.39815 -4.38672
 6.39815 -4.38672
-6.39815 -4.38672
-6.39815 -4.38672
-6.39815 -4.38672
 6.39815 -4.38672
 6.39815 -4.38672
-6.39815 -4.38672
-6.39815 -4.38672
-11.0169 -646.447
 6.39815 -4.38672
3.45513e-11   -0.617161
-53.4691 -86.6658
 6.39815 -4.38672
-3.17356e-11    -0.617161
-5.1739e-11   -0.617161
 6.39815 -4.38672
3.58853e-11   -0.617161
-25.6401 -192.595
 6.39815 -4.38672
 6.39815 -4.38672
-6.39815 -4.38672
-3.70361e-11    -0.617161
 6.39815 -4.38672
 6.39815 -4.38672
 6.39815 -4.38672
-4.33861e-11    -0.617161
 6.39815 -4.38672
-6.39815 -4.38672
-23.0518 -76.0848
-6.39815 -4.38672
-6.39815 -4.38672
 6.39815 -4.38672
5.26425e-11   -0.617161
5.32198e-11   -0.617161
 6.39815 -4.38672
4.05696e-11   -0.617161
-6.39815 -4.38672
 144.057 -476.683
4.31306e-11   -0.617161
-6.39815 -4.38672
-6.39815 -4.38672
 6.39815 -4.38672
 6.39815 -4.38672
 6.39815 -4.38672
-6.39815 -4.38672
-6.39815 -4.38672
 6.39815 -4.38672
-6.39815 -4.38672
 6.39815 -4.38672
 6.39815 -4.38672
-3.61019e-11    -0.617161
-6.39815 -4.38672
 6.39815 -4.38672
-6.39815 -4.38672
 6.39815 -4.38672
-6.39815 -4.38672
 6.39815 -4.38672
 10.1833 -292.463
-6.39815 -4.38672
 6.39815 -4.38672
6.55178e-11   -0.617161
 6.39815 -4.38672
-6.39815 -4.38672
 6.39815 -4.38672
-6.39815 -4.38672
 6.39815 -4.38672
-6.39815 -4.38672
 6.39815 -4.38672
 6.39815 -4.38672
 6.39815 -4.38672
-6.39815 -4.38672
 6.39815 -4.38672
-6.39815 -4.38672
-6.39815 -4.38672
-6.39815 -4.38672
 6.39815 -4.38672
6.62672e-11   -0.617161
-7.95416e-11    -0.617161
-6.39815 -4.38672
-6.39815 -4.38672
-6.39815 -4.38672
 21.8757 -193.555
-1.91098 -51.8855
 6.39815 -4.38672
 44.4087 -74.1354
-6.39815 -4.38672
-63.9763 -643.905
 6.39815 -4.38672
-6.39815 -4.38672
-6.39815 -4.38672
 6.39815 -4.38672
-6.39815 -4.38672
-6.39815 -4.38672
4.45084e-11   -0.617161
 6.39815 -4.38672
 6.39815 -4.38672
 6.39815 -4.38672
 6.39815 -4.38672
 58.9931 -118.253
 6.39815 -4.38672
 6.39815 -4.38672
 105.566 -285.251
8.59445 -44.339
-3.78598e-11    -0.617161
6.09347e-11   -0.617161
 6.39815 -4.38672
-6.39815 -4.38672
-4.50669e-11    -0.617161
-6.39815 -4.38672
 6.39815 -4.38672
-6.39815 -4.38672
-6.39815 -4.38672
 6.39815 -4.38672
 6.39815 -4.38672
-6.39815 -4.38672
 6.39815 -4.38672
 6.39815 -4.38672
-6.39815 -4.38672
 6.39815 -4.38672
-6.39815 -4.38672
-6.39815 -4.38672
 6.39815 -4.38672
4.12636e-11   -0.617161
 6.39815 -4.38672
5.23093e-11   -0.617161
-6.39815 -4.38672
 6.39815 -4.38672
-1.52872  -76.385
 15.4373 -63.3568
 6.39815 -4.38672
-6.39815 -4.38672
4.60869e-11   -0.617161
-6.39815 -4.38672
-7.57772e-11    -0.617161
 6.39815 -4.38672
-6.39815 -4.38672
 6.39815 -4.38672
-5.26511e-11    -0.617161
-6.39815 -4.38672
-6.39815 -4.38672
-6.39815 -4.38672
-6.39815 -4.38672
4.5647e-11  -0.617161
 6.39815 -4.38672
 6.39815 -4.38672
 6.39815 -4.38672
-3.24509e-11    -0.617161
 6.39815 -4.38672
7.7737e-11  -0.617161
 6.39815 -4.38672
-6.39815 -4.38672
5.10639e-11   -0.617161
-6.39815 -4.38672
-6.58789e-11    -0.617161
-6.39815 -4.38672
 12.7426 -68.7512
 6.39815 -4.38672
-6.39815 -4.38672
 6.39815 -4.38672
 6.39815 -4.38672
-6.39815 -4.38672
-6.39815 -4.38672
 6.39815 -4.38672
 6.39815 -4.38672
-6.39815 -4.38672
-6.39815 -4.38672
-6.39815 -4.38672
4.25485e-11   -0.617161
4.47176e-11   -0.617161
-6.39815 -4.38672
-3.10832e-11    -0.617161
6.90067e-11   -0.617161
8.41249e-11   -0.617161
-6.39815 -4.38672
 6.39815 -4.38672
-6.39815 -4.38672
-19.9713 -70.0373
 8.50226 -39.3103
-6.39815 -4.38672
 6.39815 -4.38672
-1.3735e-10   -0.617161
-7.02482e-11    -0.617161
5.09061e-11   -0.617161
-3.30005e-11    -0.617161
 6.39815 -4.38672
-3.94674e-11    -0.617161
 6.39815 -4.38672
 6.39815 -4.38672
-6.39815 -4.38672
 6.39815 -4.38672
7.75576e-11   -0.617161
 6.39815 -4.38672
-47.0137 -203.305
 6.39815 -4.38672
 6.39815 -4.38672
-6.39815 -4.38672
 41.6343 -98.9728
 38.2337 -69.7348
 6.39815 -4.38672
-6.39815 -4.38672
 6.39815 -4.38672
 6.39815 -4.38672
6.94188e-11   -0.617161
-475.964 -112.716
-4.05598e-11    -0.617161
 6.39815 -4.38672
 6.39815 -4.38672
-6.39815 -4.38672
 6.39815 -4.38672
5.69837e-11   -0.617161
-6.39815 -4.38672
6.29738e-11   -0.617161
-6.39815 -4.38672
 6.39815 -4.38672
 6.39815 -4.38672
5.73508e-11   -0.617161
-6.39815 -4.38672
-6.39815 -4.38672
 6.39815 -4.38672
4.16835e-11   -0.617161
-6.39815 -4.38672
 6.39815 -4.38672
 6.39815 -4.38672
 6.39815 -4.38672
-6.39815 -4.38672
7.97655e-11   -0.617161
4.56108e-11   -0.617161
-6.39815 -4.38672
-97.0504 -252.122
5.61675e-11   -0.617161
 6.39815 -4.38672
 6.39815 -4.38672
 6.39815 -4.38672
4.01833e-11   -0.617161
 6.39815 -4.38672
 6.39815 -4.38672
 6.39815 -4.38672
-4.50948e-11    -0.617161
-3.2831e-11   -0.617161
-6.39815 -4.38672
 6.39815 -4.38672
 6.39815 -4.38672
-118.364 -347.152
 6.39815 -4.38672
-6.39815 -4.38672
-4.65214e-11    -0.617161
 6.39815 -4.38672
-86.3141 -162.822
-6.39815 -4.38672
 6.39815 -4.38672
-6.39815 -4.38672
4.33524e-11   -0.617161
-6.39815 -4.38672
 6.39815 -4.38672
-5.98164e-11    -0.617161
 6.39815 -4.38672
 6.39815 -4.38672
 6.39815 -4.38672
 6.39815 -4.38672
 6.39815 -4.38672
 59.3677 -99.2283
-6.39815 -4.38672
-6.00263e-11    -0.617161
 6.39815 -4.38672
  51.709 -83.2558
 6.39815 -4.38672
 6.39815 -4.38672
-6.39815 -4.38672
 6.39815 -4.38672
-7.27017e-11    -0.617161
 6.39815 -4.38672
 6.39815 -4.38672
-6.39815 -4.38672
-6.39815 -4.38672
7.73024e-11   -0.617161
-6.38221e-11    -0.617161
-6.39815 -4.38672
-6.39815 -4.38672
-6.39815 -4.38672
-6.39815 -4.38672
-6.39815 -4.38672
-6.39815 -4.38672
 6.39815 -4.38672
-6.39815 -4.38672
 6.39815 -4.38672
 92.931 -253.76
3.00553e-11   -0.617161
7.77057e-11   -0.617161
-6.39815 -4.38672
-7.26351e-11    -0.617161
-3.78532e-11    -0.617161
3.17388e-11   -0.617161
7.88465e-11   -0.617161
-3.36708e-11    -0.617161
-6.39815 -4.38672
3.08955e-11   -0.617161
 6.39815 -4.38672
 6.39815 -4.38672
-6.39815 -4.38672
4.46015e-11   -0.617161
 6.39815 -4.38672
 6.39815 -4.38672
 6.39815 -4.38672
-6.39815 -4.38672
 6.39815 -4.38672
-6.39815 -4.38672
 6.39815 -4.38672
 6.39815 -4.38672
 6.39815 -4.38672
-6.39815 -4.38672
 6.39815 -4.38672
-7.42849e-11    -0.617161
 6.39815 -4.38672
-6.39815 -4.38672
-7.39219e-11    -0.617161
-6.39815 -4.38672
4.97709e-11   -0.617161
-6.39815 -4.38672
4.40856e-11   -0.617161
 6.39815 -4.38672
-6.39815 -4.38672
 6.39815 -4.38672
-6.39815 -4.38672
-4.09534e-11    -0.617161
-6.39815 -4.38672
-7.0955e-11   -0.617161
-6.39815 -4.38672
 6.39815 -4.38672
-6.39815 -4.38672
 6.39815 -4.38672
 6.39815 -4.38672
 6.39815 -4.38672
-6.39815 -4.38672
-6.39815 -4.38672
3.14368e-11   -0.617161
-6.39815 -4.38672
 36.4283 -77.7432
 38.0628 -197.346
7.29108e-11   -0.617161
-6.39815 -4.38672
-7.14353e-11    -0.617161
-6.39815 -4.38672
 6.39815 -4.38672
-6.39815 -4.38672
-6.39815 -4.38672
 6.39815 -4.38672
-6.39815 -4.38672
-3.06116e-11    -0.617161
-6.39815 -4.38672
-4.10851 -84.6053
 6.39815 -4.38672
 6.39815 -4.38672
 6.39815 -4.38672
 6.39815 -4.38672
  41.592 -87.5492
-7.7353e-11   -0.617161
 6.39815 -4.38672
-6.39815 -4.38672
-5.15536e-11    -0.617161
7.31707e-11   -0.617161
-6.39815 -4.38672
-6.39815 -4.38672
-6.39815 -4.38672
 6.39815 -4.38672
 6.39815 -4.38672
-6.39815 -4.38672
-30.9052 -65.0445
-6.39815 -4.38672
 6.39815 -4.38672
 6.39815 -4.38672
-43.6229 -82.0764
 6.39815 -4.38672
-6.39815 -4.38672
-6.39815 -4.38672
-6.39815 -4.38672
-56.4989 -103.035
 6.39815 -4.38672
 6.39815 -4.38672
6.91959e-11   -0.617161
6.02702e-11   -0.617161
 6.39815 -4.38672
 6.39815 -4.38672
 6.39815 -4.38672
-6.39815 -4.38672
-3.17472e-11    -0.617161
-6.39815 -4.38672
 6.39815 -4.38672
 45.1249 -136.321
 6.39815 -4.38672
-6.39815 -4.38672
-6.39815 -4.38672
 6.39815 -4.38672
 6.39815 -4.38672
 6.39815 -4.38672
 6.39815 -4.38672
 6.39815 -4.38672
-6.39815 -4.38672
-6.39815 -4.38672
5.59436e-11   -0.617161
 6.39815 -4.38672
-6.39815 -4.38672
-6.39815 -4.38672
-6.39815 -4.38672
 6.39815 -4.38672
 6.39815 -4.38672
 6.39815 -4.38672
-7.5652e-11   -0.617161
-6.39815 -4.38672
-6.39815 -4.38672
-5.73819e-11    -0.617161
9.59381e-11   -0.617161
5.82306e-11   -0.617161
 6.39815 -4.38672
3.99926e-11   -0.617161
-87.1751 -363.417
 6.39815 -4.38672
-6.39815 -4.38672
 6.39815 -4.38672
-6.39815 -4.38672
-54.2145 -109.342
 31.3087 -65.4655
-6.39815 -4.38672
-6.39815 -4.38672
-5.64131e-11    -0.617161
-41.0261 -107.553
 6.39815 -4.38672
 6.39815 -4.38672
 6.39815 -4.38672
 6.39815 -4.38672
6.27139e-11   -0.617161
 6.39815 -4.38672
 6.39815 -4.38672
 6.39815 -4.38672
-6.39815 -4.38672
-6.39815 -4.38672
6.46731e-11   -0.617161
-6.39815 -4.38672
-6.39815 -4.38672
-6.39815 -4.38672
 6.39815 -4.38672
5.57511e-11   -0.617161
-7.72023e-11    -0.617161
 6.39815 -4.38672
3.70606e-11   -0.617161
4.80756e-11   -0.617161
-6.39815 -4.38672
 12.0541 -59.3439
 12.4455 -104.906
 6.39815 -4.38672
-7.26005e-11    -0.617161
-6.39815 -4.38672
6.34509e-11   -0.617161
 6.39815 -4.38672
-6.39815 -4.38672
-7.62472e-11    -0.617161
-6.39815 -4.38672
 6.39815 -4.38672
7.61234e-11   -0.617161
-6.39815 -4.38672
 6.39815 -4.38672
-3.41013e-11    -0.617161
 6.39815 -4.38672
-6.88713e-11    -0.617161
-6.39815 -4.38672
7.61626e-11   -0.617161
-3.08117e-11    -0.617161
-6.39815 -4.38672
 6.39815 -4.38672
 6.39815 -4.38672
 6.39815 -4.38672
6.88473e-11   -0.617161
-6.39815 -4.38672
 -44.848 -106.021
-6.39815 -4.38672
 19.4465 -134.546
 46.8375 -231.588
6.51617e-11   -0.617161
 6.39815 -4.38672
-6.39815 -4.38672
-6.39815 -4.38672
 20.2538 -84.4905
 6.39815 -4.38672
 6.39815 -4.38672
-7.81057e-11    -0.617161
 6.39815 -4.38672
-60.5948 -588.702
 6.39815 -4.38672
 6.39815 -4.38672
-4.39759e-11    -0.617161
-6.39815 -4.38672
 6.39815 -4.38672
 102.771 -254.239
 6.39815 -4.38672
 6.39815 -4.38672
 6.39815 -4.38672
-6.39815 -4.38672
-6.39815 -4.38672
 6.39815 -4.38672
 6.39815 -4.38672
 6.39815 -4.38672
-6.39815 -4.38672
-6.39815 -4.38672
 6.39815 -4.38672
-6.39815 -4.38672
 5.22161 -38.3083
 6.39815 -4.38672
 6.39815 -4.38672
 35.5132 -237.322
 6.39815 -4.38672
-6.39815 -4.38672
 6.39815 -4.38672
-6.39815 -4.38672
 6.39815 -4.38672
-26.3629   54.444
-6.39815 -4.38672
 6.39815 -4.38672
-5.81675e-11    -0.617161
 41.4995 -136.092
5.69722e-11   -0.617161
-6.39815 -4.38672
 6.39815 -4.38672
 6.39815 -4.38672
-63.2711 -152.733
-6.39815 -4.38672
 6.39815 -4.38672
4.19348e-11   -0.617161
 6.39815 -4.38672
 6.39815 -4.38672
-6.39815 -4.38672
3.39573e-11   -0.617161
-6.39815 -4.38672
 6.39815 -4.38672
 6.39815 -4.38672
 6.39815 -4.38672
 6.39815 -4.38672
-6.39815 -4.38672
 6.39815 -4.38672
-3.80644e-11    -0.617161
 6.39815 -4.38672
-6.39815 -4.38672
 94.1017 -350.205
-5.95619e-11    -0.617161
 6.39815 -4.38672
-6.39815 -4.38672
 24.4943 -67.7772
 6.39815 -4.38672
6.45715e-11   -0.617161
-6.39815 -4.38672
-6.39815 -4.38672
 6.39815 -4.38672
-4.65769e-11    -0.617161
-6.39815 -4.38672
 6.39815 -4.38672
-6.39815 -4.38672
 58.2809 -95.9578
-11.8883 -192.541
 17.2189 -154.444
 6.39815 -4.38672
 6.39815 -4.38672
-3.43355e-11    -0.617161
 6.39815 -4.38672
-6.39815 -4.38672
-6.39815 -4.38672
 40.2305 -294.638
 6.39815 -4.38672
 6.39815 -4.38672
 6.39815 -4.38672
 6.39815 -4.38672
-6.39815 -4.38672
4.79967e-11   -0.617161
 6.39815 -4.38672
-6.39815 -4.38672
 6.39815 -4.38672
-6.39815 -4.38672
 6.39815 -4.38672
 6.39815 -4.38672
-6.39815 -4.38672
20.3279 -60.912
 6.39815 -4.38672
-3.94908e-11    -0.617161
 6.39815 -4.38672
 6.39815 -4.38672
 6.39815 -4.38672
 6.39815 -4.38672
-6.39815 -4.38672
-4.92337e-11    -0.617161
-6.39815 -4.38672
-6.39815 -4.38672
-6.39815 -4.38672
 97.4542 -220.756
 6.39815 -4.38672
7.93349e-11   -0.617161
 6.39815 -4.38672
 6.39815 -4.38672
 6.39815 -4.38672
-7.11997e-11    -0.617161
 6.39815 -4.38672
-6.39815 -4.38672
 6.39815 -4.38672
-3.66748e-11    -0.617161
-5.28824e-11    -0.617161
-6.39815 -4.38672
 6.39815 -4.38672
-6.39815 -4.38672
-7.55654 -46.7168
 6.39815 -4.38672
 6.39815 -4.38672
-172.413  -464.09
 6.39815 -4.38672
7.11998e-11   -0.617161
 6.39815 -4.38672
 6.39815 -4.38672
 6.39815 -4.38672
 6.39815 -4.38672
 6.39815 -4.38672
3.55003e-11   -0.617161
 6.39815 -4.38672
 6.39815 -4.38672
 6.39815 -4.38672
 6.39815 -4.38672
 6.39815 -4.38672
 6.39815 -4.38672
-6.39815 -4.38672
 6.39815 -4.38672
-6.39815 -4.38672
 6.39815 -4.38672
 6.39815 -4.38672
-6.39815 -4.38672
 6.39815 -4.38672
 6.39815 -4.38672
-6.39815 -4.38672
 6.39815 -4.38672
4.92842 -56.042
-6.39815 -4.38672
-3.15307e-11    -0.617161
-6.39815 -4.38672
-5.65828e-11    -0.617161
 6.39815 -4.38672
-6.39815 -4.38672
-6.39815 -4.38672
 6.39815 -4.38672
-3.05242e-11    -0.617161
-3.87616e-11    -0.617161
-6.39815 -4.38672
-132.802 -538.072
 43.3438 -79.2358
 6.39815 -4.38672
4.88747e-11   -0.617161
 6.39815 -4.38672
-6.39815 -4.38672
6.55606e-11   -0.617161
 6.39815 -4.38672
 6.39815 -4.38672
 6.39815 -4.38672
6.22609e-11   -0.617161
 6.39815 -4.38672
 6.39815 -4.38672
 6.39815 -4.38672
 6.39815 -4.38672
5.30998e-11   -0.617161
 6.39815 -4.38672
 6.39815 -4.38672
-6.39815 -4.38672
-6.39815 -4.38672
 6.39815 -4.38672
-6.39815 -4.38672
 6.39815 -4.38672
-5.8358e-11   -0.617161
 6.39815 -4.38672
-6.39815 -4.38672
 6.39815 -4.38672
 6.39815 -4.38672
-6.39815 -4.38672
7.31269e-11   -0.617161
 8.81528 -48.3178
-6.39815 -4.38672
 6.39815 -4.38672
2.99687e-11   -0.617161
 6.39815 -4.38672
-6.39815 -4.38672
1.37921e-10   -0.617161
-5.83215e-11    -0.617161
-6.39815 -4.38672
-6.39815 -4.38672
-2.98395e-11    -0.617161
5.75358e-11   -0.617161
 6.39815 -4.38672
-4.49923e-11    -0.617161
-6.39815 -4.38672
-8.51064 -62.7202
-7.79938e-11    -0.617161
-6.39815 -4.38672
-11.6097 -56.4184
-6.39815 -4.38672
-4.45303 -39.9264
6.32592e-11   -0.617161
-6.39815 -4.38672
 6.39815 -4.38672
-6.39815 -4.38672
 6.39815 -4.38672
7.12958e-11   -0.617161
-6.39815 -4.38672
 6.39815 -4.38672
-6.39815 -4.38672
-3.05274e-11    -0.617161
-7.93484e-11    -0.617161
-6.39815 -4.38672
-6.39815 -4.38672
5.037e-11 -0.617161
-6.39815 -4.38672
-6.39815 -4.38672
-5.89512e-11    -0.617161
-6.39815 -4.38672
 6.39815 -4.38672
 6.39815 -4.38672
 6.39815 -4.38672
 6.39815 -4.38672
 6.39815 -4.38672
-3.53221e-11    -0.617161
-2.9648e-11   -0.617161
 6.39815 -4.38672
-6.39815 -4.38672
-6.39815 -4.38672
-6.39815 -4.38672
-6.39815 -4.38672
-6.39815 -4.38672
 6.39815 -4.38672
-6.39815 -4.38672
7.9828e-11  -0.617161
 6.39815 -4.38672
-6.5013e-11   -0.617161
-124.199 -312.508
-6.67605e-11    -0.617161
-62.0918 -104.373
 6.39815 -4.38672
 6.39815 -4.38672
 6.39815 -4.38672
5.34382e-11   -0.617161
-6.39815 -4.38672
-6.39815 -4.38672
-19.0926 -47.6164
 6.39815 -4.38672
-6.39815 -4.38672
 6.39815 -4.38672
-7.95467e-11    -0.617161
 6.39815 -4.38672
-6.65035e-11    -0.617161
 6.39815 -4.38672
-6.39815 -4.38672
 123.548 -341.674
3.07258e-11   -0.617161
-6.39815 -4.38672
-7.21224e-11    -0.617161
 6.39815 -4.38672
 -34.803 -70.5571
 6.39815 -4.38672
-6.39815 -4.38672
 6.39815 -4.38672
5.80627e-11   -0.617161
-48.3545 -84.6617
4.0524e-11  -0.617161
-6.91744e-11    -0.617161
-3.34089e-11    -0.617161
-6.39815 -4.38672
-6.39815 -4.38672
48.0731 -252.36
6.00839e-11   -0.617161
-52.7969 -135.559
-6.39815 -4.38672
-6.39815 -4.38672
 6.39815 -4.38672
-6.39815 -4.38672
-4.75591e-11    -0.617161
-6.39815 -4.38672
-6.39815 -4.38672
 6.39815 -4.38672
 6.39815 -4.38672
 32.9621 -60.6912
5.88279e-11   -0.617161
-6.39815 -4.38672
-8.03354e-11    -0.617161
-4.82308e-11    -0.617161
-6.39815 -4.38672
-6.39815 -4.38672
-6.39815 -4.38672
-6.39815 -4.38672
-4.22598e-11    -0.617161
-6.39815 -4.38672
 6.39815 -4.38672
 6.39815 -4.38672
 6.39815 -4.38672
 6.39815 -4.38672
 6.39815 -4.38672
-13.4775 -58.5633
-15.9796 -175.815
-6.39815 -4.38672
-5.92824e-11    -0.617161
5.24783e-11   -0.617161
-4.03243e-11    -0.617161
 6.39815 -4.38672
 6.39815 -4.38672
 6.39815 -4.38672
-6.39815 -4.38672
 3.97513 -99.9719
6.60296e-11   -0.617161
 6.39815 -4.38672
-6.39815 -4.38672
-4.76193e-11    -0.617161
 52.8014 -103.468
 6.39815 -4.38672
-6.39815 -4.38672
 6.39815 -4.38672
 6.39815 -4.38672
-6.39815 -4.38672
 -44.786 -140.866
-4.55169e-11    -0.617161
-6.39815 -4.38672
-6.39815 -4.38672
 6.39815 -4.38672
4.7639e-11  -0.617161
-6.39815 -4.38672
-6.39815 -4.38672
-3.51998e-11    -0.617161
-3.00003e-11    -0.617161
-6.39815 -4.38672
 6.39815 -4.38672
6.52186e-11   -0.617161
-69.8276 -183.081
-6.39815 -4.38672
 -42.769 -72.1361
 6.39815 -4.38672
 6.39815 -4.38672
 6.39815 -4.38672
-6.55884e-11    -0.617161
 6.39815 -4.38672
 6.39815 -4.38672
 6.39815 -4.38672
 6.39815 -4.38672
 6.39815 -4.38672
-4.31923e-11    -0.617161
3.306e-11 -0.617161
-6.39815 -4.38672
 6.39815 -4.38672
 6.39815 -4.38672
 6.39815 -4.38672
 6.39815 -4.38672
 6.39815 -4.38672
-6.39815 -4.38672
 6.39815 -4.38672
 514.314 -70.0294
-6.39815 -4.38672
 6.39815 -4.38672
 80.7343 -275.464
 6.39815 -4.38672
7.07889e-11   -0.617161
 6.39815 -4.38672
 6.39815 -4.38672
 6.39815 -4.38672
-6.39815 -4.38672
-6.39815 -4.38672
 6.39815 -4.38672
-6.79135e-11    -0.617161
-6.39815 -4.38672
-9.74597 -68.8276
-6.39815 -4.38672
 6.39815 -4.38672
-6.39815 -4.38672
 82.6515 -279.491
-109.699  -420.96
 6.39815 -4.38672
462.349 416.349
 6.39815 -4.38672
-6.52344e-11    -0.617161
5.77424e-11   -0.617161
 6.39815 -4.38672
-6.39815 -4.38672
-6.39815 -4.38672
 6.39815 -4.38672
 6.39815 -4.38672
 6.39815 -4.38672
4.32699e-11   -0.617161
 6.39815 -4.38672
  31.015 -119.284
 6.39815 -4.38672
-6.39815 -4.38672
-6.39815 -4.38672
-6.39815 -4.38672
 6.39815 -4.38672
-6.39815 -4.38672
 30.5529 -65.3166
-6.39815 -4.38672
-6.39815 -4.38672
 6.39815 -4.38672
-6.39815 -4.38672
 6.39815 -4.38672
 6.39815 -4.38672
 6.39815 -4.38672
 6.39815 -4.38672
-6.39815 -4.38672
 6.39815 -4.38672
 6.39815 -4.38672
 6.39815 -4.38672
 6.39815 -4.38672
-6.39815 -4.38672
-5.41104e-11    -0.617161
-6.39815 -4.38672
 6.39815 -4.38672
 6.39815 -4.38672
-6.39815 -4.38672
 6.39815 -4.38672
-3.21359e-11    -0.617161
-6.39815 -4.38672
-4.4135e-11   -0.617161
 6.39815 -4.38672
-5.96936e-11    -0.617161
-6.39815 -4.38672
-6.39815 -4.38672
 6.39815 -4.38672
-6.39815 -4.38672
 6.39815 -4.38672
-6.39815 -4.38672
 6.39815 -4.38672
-6.92461e-11    -0.617161
-6.39815 -4.38672
 6.39815 -4.38672
 6.39815 -4.38672
-6.39815 -4.38672
-6.39815 -4.38672
 6.39815 -4.38672
-5.19124e-11    -0.617161
 6.39815 -4.38672
 6.39815 -4.38672
-6.39815 -4.38672
 6.39815 -4.38672
 6.39815 -4.38672
 6.39815 -4.38672
 6.39815 -4.38672
 6.39815 -4.38672
-6.39815 -4.38672
-67.2701 -126.238
-6.39815 -4.38672
3.01983e-11   -0.617161
-6.39815 -4.38672
 6.39815 -4.38672
7.93227e-11   -0.617161
-6.39815 -4.38672
-6.39815 -4.38672
-6.39815 -4.38672
 6.39815 -4.38672
 6.39815 -4.38672
-6.39815 -4.38672
 6.39815 -4.38672
-6.39815 -4.38672
  -73.73 -150.748
 109.794 -280.757
-6.39815 -4.38672
 6.39815 -4.38672
-6.73904e-11    -0.617161
 6.39815 -4.38672
-6.86103 -83.7609
 6.39815 -4.38672
 6.39815 -4.38672
 6.39815 -4.38672
 6.39815 -4.38672
-1.02398 -43.2525
 6.39815 -4.38672
 -126.59 -359.189
-6.39815 -4.38672
7.6345e-11  -0.617161
-7.58635e-11    -0.617161
 6.39815 -4.38672
4.82386e-11   -0.617161
4.09096e-11   -0.617161
 17.9527 -56.2691
-6.39815 -4.38672
3.74359e-11   -0.617161
 6.39815 -4.38672
-6.39815 -4.38672
-5.77158e-11    -0.617161
-4.52024e-11    -0.617161
 6.39815 -4.38672
 6.39815 -4.38672
-6.39815 -4.38672
 6.39815 -4.38672
-6.39815 -4.38672
-6.10327e-11    -0.617161
 6.39815 -4.38672
-4.08878e-11    -0.617161
-5.32165e-11    -0.617161
-3.0707e-11   -0.617161
-6.4401e-11   -0.617161
 6.39815 -4.38672
-7.15134e-11    -0.617161
-21.4306 -62.1119
-6.39815 -4.38672
 6.39815 -4.38672
-6.39815 -4.38672
-6.39815 -4.38672
 37.2169 -192.875
 6.39815 -4.38672
-6.39815 -4.38672
 6.39815 -4.38672
-6.39815 -4.38672
 6.39815 -4.38672
3.41596e-11   -0.617161
-3.6989e-11   -0.617161
 6.39815 -4.38672
 6.39815 -4.38672
-3.48935e-11    -0.617161
-6.39815 -4.38672
-6.39815 -4.38672
 -146.51 -380.709
 6.39815 -4.38672
-3.39315e-11    -0.617161
 6.39815 -4.38672
-6.39815 -4.38672
-6.39815 -4.38672
-6.39815 -4.38672
-3.84618e-11    -0.617161
-6.39815 -4.38672
 6.39815 -4.38672
-6.39815 -4.38672
-6.39815 -4.38672
 6.39815 -4.38672
-6.39815 -4.38672
 14.0964 -376.324
 6.39815 -4.38672
 3.24062 -45.8097
-6.39815 -4.38672
3.20381e-11   -0.617161
 30.8478 -156.271
 6.39815 -4.38672
-6.39815 -4.38672
-6.39815 -4.38672
-7.14022e-11    -0.617161
-4.38874e-11    -0.617161
 6.39815 -4.38672
-6.39815 -4.38672
-6.39815 -4.38672
-38.0564 -81.0543
 6.39815 -4.38672
-6.39815 -4.38672
 6.39815 -4.38672
2.99537e-11   -0.617161
-6.39815 -4.38672
-6.39815 -4.38672
-5.21511e-11    -0.617161
-3.13468  -32.209
 6.39815 -4.38672
 6.39815 -4.38672
-6.39815 -4.38672
 6.39815 -4.38672
 6.39815 -4.38672
-7.70381e-11    -0.617161
-6.51414e-11    -0.617161
-6.39815 -4.38672
22.7145 -88.829
-6.39815 -4.38672
-7.8408 -177.48
-6.39815 -4.38672
7.14686e-11   -0.617161
 6.39815 -4.38672
 6.39815 -4.38672
-6.93879e-11    -0.617161
 6.39815 -4.38672
 6.39815 -4.38672
 6.39815 -4.38672
 6.39815 -4.38672
 6.39815 -4.38672
-7.69668e-11    -0.617161
 6.39815 -4.38672
3.79652e-11   -0.617161
-6.70626e-11    -0.617161
-6.39815 -4.38672
 6.39815 -4.38672
 6.39815 -4.38672
-6.39815 -4.38672
3.06396e-11   -0.617161
-6.39815 -4.38672
-6.39815 -4.38672
 6.39815 -4.38672
 65.6895 -146.049
-6.39815 -4.38672
 6.39815 -4.38672
 6.39815 -4.38672
 37.9376 -85.1055
 6.39815 -4.38672
 6.39815 -4.38672
6.15952e-11   -0.617161
 6.39815 -4.38672
-5.78112e-11    -0.617161
 6.39815 -4.38672
 6.39815 -4.38672
-6.39815 -4.38672
-6.39815 -4.38672
3.68504e-11   -0.617161
 6.39815 -4.38672
-6.39815 -4.38672
6.36745e-11   -0.617161
-6.61239e-11    -0.617161
-6.39815 -4.38672
-6.56053e-11    -0.617161
 6.39815 -4.38672
 6.39815 -4.38672
-6.39815 -4.38672
-9.45714e-11    -0.617161
 6.39815 -4.38672
 6.39815 -4.38672
6.64232e-11   -0.617161
 8.55817 -56.4869
-6.39815 -4.38672
 6.39815 -4.38672
-6.39815 -4.38672
-77.8852   -145.5
 6.39815 -4.38672
 6.39815 -4.38672
-6.39815 -4.38672
4.84935e-11   -0.617161
-6.39815 -4.38672
-6.39815 -4.38672
-6.39815 -4.38672
 6.39815 -4.38672
-6.39815 -4.38672
-6.39815 -4.38672
-6.00584e-11    -0.617161
 6.39815 -4.38672
 6.39815 -4.38672
-4.59124e-11    -0.617161
5.0935e-11  -0.617161
 6.39815 -4.38672
5.44972e-11   -0.617161
 -36.219 -67.9133
-69.9878 -213.806
-6.39815 -4.38672
-6.39815 -4.38672
-6.39815 -4.38672
 6.39815 -4.38672
6.15353e-11   -0.617161
-6.39815 -4.38672
-6.39815 -4.38672
-6.39815 -4.38672
-6.39815 -4.38672
-6.39815 -4.38672
-6.39815 -4.38672
-6.39815 -4.38672
  129.43 -504.729
-6.59209e-11    -0.617161
 6.39815 -4.38672
-29.8309 -79.6112
-6.39815 -4.38672
 6.39815 -4.38672
-40.1068 -74.4618
-5.34136e-11    -0.617161
-7.50719e-11    -0.617161
7.74554e-11   -0.617161
 6.39815 -4.38672
-6.39815 -4.38672
 6.39815 -4.38672
 6.39815 -4.38672
-6.39815 -4.38672
 6.39815 -4.38672
 6.39815 -4.38672
 6.39815 -4.38672
 6.39815 -4.38672
 6.39815 -4.38672
-6.39815 -4.38672
-5.22153e-11    -0.617161
-6.39815 -4.38672
-73.3986 -147.508
4.78545e-11   -0.617161
 6.39815 -4.38672
4.51029e-11   -0.617161
 6.39815 -4.38672
-111.787 -277.487
-3.53781e-11    -0.617161
 6.39815 -4.38672
-6.39815 -4.38672
-6.39815 -4.38672
-3.42929e-11    -0.617161
6.48106e-11   -0.617161
-6.39815 -4.38672
 6.39815 -4.38672
 6.39815 -4.38672
 6.39815 -4.38672
 6.39815 -4.38672
 6.39815 -4.38672
-6.39815 -4.38672
 6.39815 -4.38672
 6.39815 -4.38672
-6.39815 -4.38672
 6.39815 -4.38672
 6.39815 -4.38672
-6.39815 -4.38672
-6.39815 -4.38672
7.76023e-11   -0.617161
-6.39815 -4.38672
-56.8186 -120.971
 6.39815 -4.38672
2.95774e-11   -0.617161
-5.96625e-11    -0.617161
 6.39815 -4.38672
 6.39815 -4.38672
-6.39815 -4.38672
-6.39815 -4.38672
-6.39815 -4.38672
 6.39815 -4.38672
-6.39815 -4.38672
-4.62747e-11    -0.617161
-6.39815 -4.38672
 6.39815 -4.38672
3.60229e-11   -0.617161
3.89785e-11   -0.617161
 6.39815 -4.38672
-6.39815 -4.38672
-6.01851e-11    -0.617161
3.19902e-11   -0.617161
 6.39815 -4.38672
-4.35259e-11    -0.617161
 6.39815 -4.38672
-5.4558e-11   -0.617161
-6.39815 -4.38672
-6.39815 -4.38672
-6.39815 -4.38672
-4.57631e-11    -0.617161
-7.39147e-11    -0.617161
 6.39815 -4.38672
-6.39815 -4.38672
-6.39815 -4.38672
-6.39815 -4.38672
6.82617e-11   -0.617161
-6.39815 -4.38672
 6.39815 -4.38672
 6.39815 -4.38672
-14.1536 -100.736
 6.39815 -4.38672
-6.39815 -4.38672
 6.39815 -4.38672
 6.39815 -4.38672
-6.39815 -4.38672
 6.39815 -4.38672
 6.39815 -4.38672
-6.39815 -4.38672
-62.8027 -214.988
3.92342e-11   -0.617161
5.17997e-11   -0.617161
3.1138e-11  -0.617161
-6.39815 -4.38672
-6.39815 -4.38672
6.57889e-11   -0.617161
 6.39815 -4.38672
 6.39815 -4.38672
-6.39815 -4.38672
-6.39815 -4.38672
-8.47872e-11    -0.617161
-6.39815 -4.38672
 6.39815 -4.38672
-6.39815 -4.38672
-3.50059e-11    -0.617161
-6.39815 -4.38672
-6.39815 -4.38672
8.38867e-11   -0.617161
 6.39815 -4.38672
7.53754e-11   -0.617161
-6.39815 -4.38672
-54.1013 -100.914
 6.39815 -4.38672
-6.39815 -4.38672
  2.2735 -69.5022
-4.85887e-11    -0.617161
 6.39815 -4.38672
 6.39815 -4.38672
 42.7647 -82.3941
-6.39815 -4.38672
 6.39815 -4.38672
-6.77257e-11    -0.617161
-15.5468 -125.864
 6.39815 -4.38672
-7.78115e-11    -0.617161
4.05747e-11   -0.617161
 6.39815 -4.38672
-102.306 -214.241
-6.39815 -4.38672
-6.39815 -4.38672
-3.738e-11  -0.617161
 6.39815 -4.38672
-3.38192e-11    -0.617161
 6.39815 -4.38672
-6.39815 -4.38672
 6.39815 -4.38672
 6.39815 -4.38672
 6.39815 -4.38672
-7.44241e-11    -0.617161
6.73444e-11   -0.617161
 6.39815 -4.38672
-6.39815 -4.38672
6.77968e-11   -0.617161
3.82872e-11   -0.617161
-6.39815 -4.38672
7.45305e-11   -0.617161
-6.39815 -4.38672
 117.148 -378.671
 9.45848 -40.7881
 6.39815 -4.38672
 6.39815 -4.38672
 24.6464 -85.3948
-6.39815 -4.38672
 6.39815 -4.38672
 6.39815 -4.38672
 6.39815 -4.38672
 6.39815 -4.38672
-5.56274e-11    -0.617161
 6.39815 -4.38672
 6.39815 -4.38672
6.28704e-11   -0.617161
-6.39815 -4.38672
5.84119e-11   -0.617161
-53.2808  -185.44
7.32852e-11   -0.617161
-6.39815 -4.38672
3.38038e-11   -0.617161
 6.39815 -4.38672
-4.32558e-11    -0.617161
8.22996e-11   -0.617161
 6.39815 -4.38672
-6.39815 -4.38672
-6.39815 -4.38672
-6.39815 -4.38672
 6.39815 -4.38672
-6.39815 -4.38672
-6.39815 -4.38672
 13.5956 -46.7088
 6.39815 -4.38672
-6.39815 -4.38672
-5.06061e-11    -0.617161
  1.6428 -187.196
 6.39815 -4.38672
-6.39815 -4.38672
3.28577e-11   -0.617161
 6.39815 -4.38672
 6.39815 -4.38672
 6.39815 -4.38672
-6.12995e-11    -0.617161
 6.39815 -4.38672
 6.39815 -4.38672
6.06198e-11   -0.617161
6.49315e-11   -0.617161
-6.39815 -4.38672
-508.773   521.43
-4.00477e-11    -0.617161
-6.39815 -4.38672
-6.39815 -4.38672
 37.3937 -141.139
-23.3382 -86.8576
-6.39815 -4.38672
7.00859e-11   -0.617161
-24.0292 -68.2411
 6.39815 -4.38672
 6.39815 -4.38672
-6.39815 -4.38672
-6.39815 -4.38672
 6.39815 -4.38672
-3.00855e-11    -0.617161
-4.51185e-11    -0.617161
 6.39815 -4.38672
 6.39815 -4.38672
7.82339e-11   -0.617161
4.36087e-11   -0.617161
-6.39815 -4.38672
 6.39815 -4.38672
 19.0461 -51.5976
-6.39815 -4.38672
 6.39815 -4.38672
 6.39815 -4.38672
-6.39815 -4.38672
5.89206e-11   -0.617161
-6.39815 -4.38672
7.38288e-11   -0.617161
-6.39815 -4.38672
 6.39815 -4.38672
 6.39815 -4.38672
 70.9685 -129.849
 6.39815 -4.38672
 6.39815 -4.38672
 6.39815 -4.38672
-6.39815 -4.38672
-6.39815 -4.38672
-6.39815 -4.38672
-6.34484e-11    -0.617161
-6.39815 -4.38672
-6.39815 -4.38672
 6.39815 -4.38672
-6.39815 -4.38672
-7.3787e-11   -0.617161
 6.39815 -4.38672
-6.39815 -4.38672
4.36963e-11   -0.617161
 6.39815 -4.38672
-6.39815 -4.38672
 6.39815 -4.38672
 6.39815 -4.38672
 6.39815 -4.38672
-6.39815 -4.38672
-6.39815 -4.38672
-6.39815 -4.38672
-6.39815 -4.38672
3.25668e-11   -0.617161
  0.8797 -136.479
-6.39815 -4.38672
72.7473 -239.32
-6.39815 -4.38672
6.33901e-11   -0.617161
-4.98105e-11    -0.617161
6.69325e-11   -0.617161
 6.39815 -4.38672
-6.39815 -4.38672
 6.39815 -4.38672
-6.39815 -4.38672
3.27275e-11   -0.617161
 6.39815 -4.38672
 6.39815 -4.38672
-6.39815 -4.38672
-5.69045e-11    -0.617161
-6.39815 -4.38672
-6.39815 -4.38672
 6.39815 -4.38672
5.30811e-11   -0.617161
4.54045e-11   -0.617161
 6.39815 -4.38672
-6.39815 -4.38672
-6.39815 -4.38672
 6.39815 -4.38672
3.24653e-11   -0.617161
 6.39815 -4.38672
-6.39815 -4.38672
-4.94925e-11    -0.617161
-6.39815 -4.38672
-6.39815 -4.38672
 6.39815 -4.38672
 6.39815 -4.38672
-6.39815 -4.38672
 6.39815 -4.38672
 6.39815 -4.38672
 6.39815 -4.38672
-6.39815 -4.38672
 6.39815 -4.38672
-6.39815 -4.38672
 6.39815 -4.38672
-23.8384  54.0929
-6.39815 -4.38672
 6.39815 -4.38672
 6.39815 -4.38672
-6.39815 -4.38672
 6.39815 -4.38672
 3.26665 -34.5493
-6.39815 -4.38672
 6.39815 -4.38672
7.47752e-11   -0.617161
-6.39815 -4.38672
-25.5119 -111.405
 6.39815 -4.38672
6.18979e-11   -0.617161
 6.39815 -4.38672
-6.39815 -4.38672
-6.39815 -4.38672
6.19157 31.3431
4.56586e-11   -0.617161
-6.39815 -4.38672
 6.39815 -4.38672
-6.39815 -4.38672
 6.39815 -4.38672
 6.39815 -4.38672
  -58.68 -273.625
-6.39815 -4.38672
-6.39815 -4.38672
 6.39815 -4.38672
-6.39815 -4.38672
-6.39815 -4.38672
-6.39815 -4.38672
-6.39815 -4.38672
-6.39815 -4.38672
 6.39815 -4.38672
-6.39815 -4.38672
 6.39815 -4.38672
4.97496e-11   -0.617161
4.38345e-11   -0.617161
-3.15603e-11    -0.617161
 6.39815 -4.38672
 64.4266 -129.536
 6.39815 -4.38672
 79.7245 -146.931
-6.39815 -4.38672
-6.39815 -4.38672
9.06168e-11   -0.617161
 6.39815 -4.38672
-6.71586e-11    -0.617161
-3.0538e-11   -0.617161
 6.39815 -4.38672
-6.39815 -4.38672
-6.39815 -4.38672
-6.39815 -4.38672
 6.39815 -4.38672
 6.39815 -4.38672
 6.39815 -4.38672
-6.39815 -4.38672
 6.39815 -4.38672
-4.78376e-11    -0.617161
 87.6359 -282.919
 65.6106 -392.271
3.02767e-11   -0.617161
 -19.232 -74.6867
-94.4522 -183.826
-5.89749e-11    -0.617161
 6.39815 -4.38672
5.35813e-11   -0.617161
-6.39815 -4.38672
 6.39815 -4.38672
-6.39815 -4.38672
-6.39815 -4.38672
 22.9989 -68.8758
-6.39815 -4.38672
-6.39815 -4.38672
-6.39815 -4.38672
-6.39815 -4.38672
 6.39815 -4.38672
-159.004 -498.656
 6.39815 -4.38672
-6.39815 -4.38672
 6.39815 -4.38672
 6.39815 -4.38672
 6.39815 -4.38672
 17.7685 -93.9855
 6.39815 -4.38672
 6.39815 -4.38672
-6.39815 -4.38672
 6.39815 -4.38672
1.0253e-10  -0.617161
-6.39815 -4.38672
 6.39815 -4.38672
 6.39815 -4.38672
6.68413e-11   -0.617161
 6.39815 -4.38672
-6.39815 -4.38672
-6.39815 -4.38672
-6.39815 -4.38672
 6.39815 -4.38672
 6.39815 -4.38672
 6.39815 -4.38672
-6.39815 -4.38672
-6.34378e-11    -0.617161
 6.39815 -4.38672
-6.39815 -4.38672
 6.39815 -4.38672
4.80857e-11   -0.617161
 6.39815 -4.38672
 6.39815 -4.38672
-6.39815 -4.38672
 6.39815 -4.38672
-7.79694e-11    -0.617161
6.49828e-11   -0.617161
-5.14177e-11    -0.617161
 6.39815 -4.38672
 6.39815 -4.38672
 6.39815 -4.38672
 6.39815 -4.38672
 6.39815 -4.38672
-5.33501e-11    -0.617161
 6.39815 -4.38672
 6.39815 -4.38672
-6.39815 -4.38672
388.258 401.005
 6.39815 -4.38672
 6.39815 -4.38672
 6.39815 -4.38672
-6.39815 -4.38672
6.66545e-11   -0.617161
 6.39815 -4.38672
-6.39815 -4.38672
7.33188e-11   -0.617161
1.02753e-10   -0.617161
-6.39815 -4.38672
-6.39815 -4.38672
3.02035e-11   -0.617161
-7.01669e-11    -0.617161
4.21516e-11   -0.617161
 40.2989 -128.185
-6.39815 -4.38672
 6.39815 -4.38672
-6.39815 -4.38672
 6.39815 -4.38672
 6.39815 -4.38672
-3.35254e-11    -0.617161
-7.21464e-11    -0.617161
 6.39815 -4.38672
 6.39815 -4.38672
29.3464 -72.552
-6.39815 -4.38672
-60.4405 -143.823
 6.39815 -4.38672
 6.39815 -4.38672
-5.98715e-11    -0.617161
 6.39815 -4.38672
-6.39815 -4.38672
 6.39815 -4.38672
 6.39815 -4.38672
-6.53388e-11    -0.617161
 34.0422 -153.233
 6.39815 -4.38672
3.35706e-11   -0.617161
-6.39815 -4.38672
-6.39815 -4.38672
 6.39815 -4.38672
-6.39815 -4.38672
3.06098e-11   -0.617161
-6.39815 -4.38672
 6.39815 -4.38672
 6.39815 -4.38672
-6.39815 -4.38672
 6.39815 -4.38672
-4.23006e-11    -0.617161
-5.25515e-11    -0.617161
 6.39815 -4.38672
 6.39815 -4.38672
-6.39815 -4.38672
 6.39815 -4.38672
-6.39815 -4.38672
 6.39815 -4.38672
-6.39815 -4.38672
 6.39815 -4.38672
 6.39815 -4.38672
 6.39815 -4.38672
 6.39815 -4.38672
-6.39815 -4.38672
4.91056e-11   -0.617161
-8.41822 -71.0945
 6.39815 -4.38672
 6.39815 -4.38672
-6.39815 -4.38672
-6.39815 -4.38672
-65.9572  -123.24
 8.79342 -174.749
-6.39815 -4.38672
-7.81217e-11    -0.617161
-3.64534e-11    -0.617161
 6.39815 -4.38672
 6.39815 -4.38672
7.51371e-11   -0.617161
-6.39815 -4.38672
-6.39815 -4.38672
 6.39815 -4.38672
 6.39815 -4.38672
3.366e-11 -0.617161
5.2475e-11  -0.617161
-6.39815 -4.38672
-6.39815 -4.38672
3.61922e-11   -0.617161
-6.39815 -4.38672
 6.39815 -4.38672
-6.39815 -4.38672
 6.39815 -4.38672
-6.83003e-11    -0.617161
 6.39815 -4.38672
 6.39815 -4.38672
-6.39815 -4.38672
 6.39815 -4.38672
6.78107e-11   -0.617161
 6.39815 -4.38672
3.71462e-11   -0.617161
-6.39815 -4.38672
-6.39815 -4.38672
7.66965e-11   -0.617161
-6.39815 -4.38672
-6.39815 -4.38672
 6.39815 -4.38672
5.34119e-11   -0.617161
7.03639e-11   -0.617161
-6.39815 -4.38672
 6.39815 -4.38672
-6.39815 -4.38672
-6.39815 -4.38672
3.23746e-11   -0.617161
-6.39815 -4.38672
-6.39815 -4.38672
 6.39815 -4.38672
 47.9018 -186.012
5.50133e-11   -0.617161
-4.50186e-11    -0.617161
 6.39815 -4.38672
-6.39815 -4.38672
 6.39815 -4.38672
4.62936e-11   -0.617161
-6.39815 -4.38672
6.18389e-11   -0.617161
 6.39815 -4.38672
-6.39815 -4.38672
-5.55214e-11    -0.617161
 6.39815 -4.38672
-6.39815 -4.38672
 54.5155 -89.8344
-3.25508e-11    -0.617161
-6.39815 -4.38672
-5.32133e-11    -0.617161
-6.39815 -4.38672
-6.39815 -4.38672
-6.39815 -4.38672
 6.39815 -4.38672
 6.39815 -4.38672
 6.39815 -4.38672
 6.39815 -4.38672
 6.39815 -4.38672
4.6086e-11  -0.617161
 6.39815 -4.38672
-6.39815 -4.38672
 6.39815 -4.38672
 6.39815 -4.38672
-4.14044e-11    -0.617161
-6.32745e-11    -0.617161
-6.39815 -4.38672
 6.39815 -4.38672
 6.39815 -4.38672
 6.39815 -4.38672
-6.39815 -4.38672
 6.39815 -4.38672
 6.39815 -4.38672
-4.62036e-11    -0.617161
 6.39815 -4.38672
-6.39815 -4.38672
-6.39815 -4.38672
-6.39815 -4.38672
-4.6197e-11   -0.617161
 6.39815 -4.38672
 6.39815 -4.38672
6.94357e-11   -0.617161
-6.39815 -4.38672
4.74774e-11   -0.617161
-6.39815 -4.38672
-4.87314e-11    -0.617161
 6.39815 -4.38672
-6.39815 -4.38672
 6.39815 -4.38672
-85.4686 -572.626
-6.39815 -4.38672
 6.39815 -4.38672
-6.39815 -4.38672
 6.39815 -4.38672
-5.27464e-11    -0.617161
-6.39815 -4.38672
-6.39815 -4.38672
-6.39815 -4.38672
-3.31528e-11    -0.617161
4.70937e-11   -0.617161
 6.39815 -4.38672
-6.39815 -4.38672
 6.39815 -4.38672
-6.39815 -4.38672
 6.39815 -4.38672
-6.39815 -4.38672
 6.39815 -4.38672
7.54425e-11   -0.617161
 6.39815 -4.38672
 8.63658 -164.831
 81.4385 -279.398
 61.1176 -176.891
 6.39815 -4.38672
-6.39815 -4.38672
94.7899 -230.59
 6.39815 -4.38672
-6.39815 -4.38672
-6.39815 -4.38672
-6.39815 -4.38672
 6.39815 -4.38672
-6.39815 -4.38672
7.25748e-11   -0.617161
 6.39815 -4.38672
 6.39815 -4.38672
 6.39815 -4.38672
5.41805e-11   -0.617161
4.10534e-11   -0.617161
-3.22874e-11    -0.617161
 52.3547 -87.0978
3.67509e-11   -0.617161
-28.0398 -174.705
 6.39815 -4.38672
 6.39815 -4.38672
 6.39815 -4.38672
4.54965e-11   -0.617161
3.14619e-11   -0.617161
4.43915e-11   -0.617161
5.77041e-11   -0.617161
 6.39815 -4.38672
-7.61496e-11    -0.617161
 6.39815 -4.38672
-6.39815 -4.38672
6.64485e-11   -0.617161
4.67129e-11   -0.617161
 6.39815 -4.38672
-6.39815 -4.38672
  45.154 -220.649
-6.39815 -4.38672
8.19793e-11   -0.617161
-6.39815 -4.38672
 6.39815 -4.38672
-6.39815 -4.38672
-6.39815 -4.38672
-6.39815 -4.38672
-6.39815 -4.38672
-55.1673 -119.148
5.77561e-11   -0.617161
-6.39815 -4.38672
-6.39815 -4.38672
7.93034e-11   -0.617161
-6.39815 -4.38672
 6.39815 -4.38672
-6.82762e-11    -0.617161
-6.39815 -4.38672
-109.728 -295.436
 6.39815 -4.38672
-7.8122e-11   -0.617161
-3.83811e-11    -0.617161
-6.39815 -4.38672
-6.39815 -4.38672
-6.39815 -4.38672
 6.39815 -4.38672
-6.39815 -4.38672
-6.39815 -4.38672
 6.39815 -4.38672
-34.5691 -116.604
 6.39815 -4.38672
6.49915e-11   -0.617161
-6.39815 -4.38672
-6.39815 -4.38672
 6.39815 -4.38672
-6.39815 -4.38672
-6.06038e-11    -0.617161
-6.70555e-11    -0.617161
 6.39815 -4.38672
-6.30413e-11    -0.617161
-6.39815 -4.38672
 6.39815 -4.38672
-6.39815 -4.38672
 6.39815 -4.38672
 6.39815 -4.38672
 6.39815 -4.38672
-4.59161e-11    -0.617161
-100.154 -275.557
 6.39815 -4.38672
-6.39815 -4.38672
-5.64498e-11    -0.617161
-6.39815 -4.38672
-6.39815 -4.38672
 6.39815 -4.38672
-6.39815 -4.38672
4.92121e-11   -0.617161
5.50073e-11   -0.617161
-6.39815 -4.38672
 6.39815 -4.38672
-6.39815 -4.38672
4.31292e-11   -0.617161
 6.39815 -4.38672
 6.39815 -4.38672
-6.39815 -4.38672
7.60354e-11   -0.617161
 6.39815 -4.38672
-6.39815 -4.38672
-6.39815 -4.38672
 18.5667 -59.4717
-6.39815 -4.38672
3.90116e-11   -0.617161
-6.39815 -4.38672
-6.39815 -4.38672
-6.39815 -4.38672
-6.39815 -4.38672
6.47118e-11   -0.617161
-3.04815e-11    -0.617161
-6.39815 -4.38672
 6.39815 -4.38672
-6.39815 -4.38672
-6.39815 -4.38672
-6.39815 -4.38672
-62.2139 -109.208
5.25191e-11   -0.617161
-6.39815 -4.38672
 6.39815 -4.38672
-3.64488e-11    -0.617161
3.01064e-11   -0.617161
-6.39815 -4.38672
-6.39815 -4.38672
-3.64697e-11    -0.617161
6.19554e-11   -0.617161
-6.39815 -4.38672
 6.39815 -4.38672
 6.39815 -4.38672
-6.39815 -4.38672
-6.39815 -4.38672
 6.39815 -4.38672
 66.3088 -344.888
 6.39815 -4.38672
-5.15569e-11    -0.617161
 6.39815 -4.38672
-6.39815 -4.38672
6.53784e-11   -0.617161
-8.05309e-11    -0.617161
-6.39815 -4.38672
-6.39815 -4.38672
2.96954e-11   -0.617161
 6.39815 -4.38672
-6.39815 -4.38672
 6.39815 -4.38672
-103.824 -285.099
-6.39815 -4.38672
-7.35885e-11    -0.617161
 6.39815 -4.38672
5.27156e-11   -0.617161
 6.39815 -4.38672
 6.39815 -4.38672
 6.39815 -4.38672
-6.39815 -4.38672
7.34038e-11   -0.617161
-6.39815 -4.38672
 6.39815 -4.38672
-6.39815 -4.38672
-3.899e-11  -0.617161
4.64572e-11   -0.617161
-6.39815 -4.38672
 6.39815 -4.38672
 6.39815 -4.38672
-55.0536 -225.925
-108.872 -241.769
-5.4944e-11   -0.617161
-5.03846e-11    -0.617161
-6.39815 -4.38672
-6.39815 -4.38672
-5.24175e-11    -0.617161
 6.39815 -4.38672
-6.39815 -4.38672
-6.39815 -4.38672
 6.39815 -4.38672
-4.78295e-11    -0.617161
 6.39815 -4.38672
-6.39815 -4.38672
7.55184e-11   -0.617161
-4.51332e-11    -0.617161
-5.22612e-11    -0.617161
 6.39815 -4.38672
32.5579 -201.23
 6.39815 -4.38672
6.90105e-11   -0.617161
-6.39815 -4.38672
-6.39815 -4.38672
4.81663e-11   -0.617161
 6.39815 -4.38672
 6.39815 -4.38672
 6.39815 -4.38672
-14.7388 -39.8317
-6.39815 -4.38672
-6.39815 -4.38672
3.63518e-11   -0.617161
-6.39815 -4.38672
4.38452e-11   -0.617161
 6.39815 -4.38672
 6.39815 -4.38672
-6.19271e-11    -0.617161
 6.39815 -4.38672
 6.39815 -4.38672
-6.39815 -4.38672
 17.5442 -149.891
-6.39815 -4.38672
 6.39815 -4.38672
 6.39815 -4.38672
-6.39815 -4.38672
 6.39815 -4.38672
-6.39815 -4.38672
-4.14914e-11    -0.617161
 6.39815 -4.38672
 6.39815 -4.38672
-6.39815 -4.38672
-6.39815 -4.38672
6.17481e-11   -0.617161
-6.39815 -4.38672
 6.39815 -4.38672
 6.39815 -4.38672
 108.974 -267.561
 68.7205 -288.358
8.98012  -102.6
-6.39815 -4.38672
-6.39815 -4.38672
-6.39815 -4.38672
3.8104e-11  -0.617161
 67.3808 -331.532
4.73127e-11   -0.617161
 6.39815 -4.38672
-6.39815 -4.38672
 6.39815 -4.38672
-6.39815 -4.38672
-3.96467e-11    -0.617161
-6.39815 -4.38672
5.76477e-11   -0.617161
-6.20793e-11    -0.617161
-6.39815 -4.38672
-3.4271e-11   -0.617161
-6.39815 -4.38672
5.93805e-11   -0.617161
 6.39815 -4.38672
 34.9497 -71.6502
 49.9445 -79.6433
 6.39815 -4.38672
-6.39815 -4.38672
 6.39815 -4.38672
 6.39815 -4.38672
-4.63544e-11    -0.617161
-6.39815 -4.38672
-6.39815 -4.38672
 6.39815 -4.38672
 141.448 -400.421
-6.39815 -4.38672
-18.0629 -156.359
 6.39815 -4.38672
 6.39815 -4.38672
-6.39815 -4.38672
-6.39815 -4.38672
 6.39815 -4.38672
-6.39815 -4.38672
 6.39815 -4.38672
 6.39815 -4.38672
 6.39815 -4.38672
-6.39815 -4.38672
-4.73634e-11    -0.617161
6.25357e-11   -0.617161
-6.39815 -4.38672
-6.39815 -4.38672
 6.39815 -4.38672
 6.39815 -4.38672
 6.39815 -4.38672
 65.025 -109.23
-6.39815 -4.38672
-5.00917e-11    -0.617161
-6.39815 -4.38672
 6.39815 -4.38672
 6.39815 -4.38672
-6.39815 -4.38672
-6.09365e-11    -0.617161
-6.39815 -4.38672
-6.39815 -4.38672
-6.39815 -4.38672
 6.39815 -4.38672
 6.39815 -4.38672
 6.39815 -4.38672
 6.39815 -4.38672
6.81277e-11   -0.617161
-6.39815 -4.38672
-69.1095 -513.462
-6.39815 -4.38672
 6.39815 -4.38672
-6.39815 -4.38672
 6.39815 -4.38672
 6.39815 -4.38672
 6.39815 -4.38672
-6.39815 -4.38672
-4.79889e-11    -0.617161
-3.45147e-11    -0.617161
 6.39815 -4.38672
-6.39815 -4.38672
4.40633e-11   -0.617161
-6.39815 -4.38672
4.78294e-11   -0.617161
 6.39815 -4.38672
 6.39815 -4.38672
 6.39815 -4.38672
3.92729e-11   -0.617161
-23.7659 -178.871
-6.39815 -4.38672
-5.72222e-11    -0.617161
 62.7312 -151.147
-6.39815 -4.38672
 41.6212 -139.902
-6.39815 -4.38672
-4.65195e-11    -0.617161
-6.39815 -4.38672
-22.8632 -90.6277
 118.442 -257.862
-82.7333 -175.616
-6.39815 -4.38672
-6.39815 -4.38672
 6.39815 -4.38672
 6.39815 -4.38672
 6.39815 -4.38672
 6.39815 -4.38672
 6.39815 -4.38672
-6.39815 -4.38672
-6.39815 -4.38672
-6.39815 -4.38672
-113.659 -240.584
-6.39815 -4.38672
  467.66 -229.002
 6.39815 -4.38672
 6.39815 -4.38672
 6.39815 -4.38672
-6.39299e-11    -0.617161
-6.39815 -4.38672
-6.39815 -4.38672
-3.54024e-11    -0.617161
 6.39815 -4.38672
 6.39815 -4.38672
5.38149e-11   -0.617161
 6.39815 -4.38672
 6.39815 -4.38672
-6.39815 -4.38672
-6.39815 -4.38672
-6.39815 -4.38672
-6.39815 -4.38672
 6.39815 -4.38672
143.072 -451.59
 6.39815 -4.38672
-45.5786 -80.6619
-4.18616e-11    -0.617161
 11.6636 -62.9241
-6.39815 -4.38672
-6.39815 -4.38672
17.3721 -597.61
 6.39815 -4.38672
-6.39815 -4.38672
5.1777e-11  -0.617161
 6.39815 -4.38672
-6.39815 -4.38672
-6.39815 -4.38672
-3.87718e-11    -0.617161
-3.42329e-11    -0.617161
 6.39815 -4.38672
 6.39815 -4.38672
 6.39815 -4.38672
 6.39815 -4.38672
-6.39815 -4.38672
-6.39815 -4.38672
5.78213e-11   -0.617161
-47.8877 -97.1653
-6.39815 -4.38672
 6.39815 -4.38672
 6.39815 -4.38672
 6.39815 -4.38672
-6.39815 -4.38672
-6.39815 -4.38672
 6.39815 -4.38672
 6.39815 -4.38672
-6.39815 -4.38672
-6.39815 -4.38672
-6.39815 -4.38672
-6.39815 -4.38672
-6.39815 -4.38672
 6.39815 -4.38672
-7.44854 -57.4167
-6.39815 -4.38672
 6.39815 -4.38672
-6.39815 -4.38672
-6.39815 -4.38672
-5.59867e-11    -0.617161
 6.39815 -4.38672
 6.39815 -4.38672
 70.1289 -130.783
-6.39815 -4.38672
 6.39815 -4.38672
-6.39815 -4.38672
 6.39815 -4.38672
-6.39815 -4.38672
3.50383e-11   -0.617161
-6.39815 -4.38672
 6.39815 -4.38672
 6.39815 -4.38672
 6.39815 -4.38672
 6.39815 -4.38672
-6.39815 -4.38672
 6.39815 -4.38672
-6.39815 -4.38672
 6.39815 -4.38672
6.33526e-11   -0.617161
-6.39815 -4.38672
 6.39815 -4.38672
 6.39815 -4.38672
4.56642e-11   -0.617161
 6.39815 -4.38672
7.00518e-11   -0.617161
 6.39815 -4.38672
 6.39815 -4.38672
-6.39815 -4.38672
 6.39815 -4.38672
-15.6175 -54.0308
-6.81433e-11    -0.617161
-6.39815 -4.38672
 6.39815 -4.38672
-6.39815 -4.38672
-6.39815 -4.38672
-6.39815 -4.38672
-4.76906e-11    -0.617161
-6.39815 -4.38672
-6.39815 -4.38672
7.59993e-11   -0.617161
 6.39815 -4.38672
 6.39815 -4.38672
 9.59764 -55.0898
-3.22747e-11    -0.617161
-3.54945e-11    -0.617161
-6.39815 -4.38672
 6.39815 -4.38672
 6.39815 -4.38672
-6.39815 -4.38672
-6.39815 -4.38672
  34.609 -111.471
-6.39815 -4.38672
 6.39815 -4.38672
6.72011e-11   -0.617161
-6.39815 -4.38672
-6.39815 -4.38672
 54.1841 -171.076
-6.39815 -4.38672
-6.39815 -4.38672
-6.39815 -4.38672
-6.39815 -4.38672
-4.26405e-11    -0.617161
 6.39815 -4.38672
 6.39815 -4.38672
-6.39815 -4.38672
-6.39815 -4.38672
-7.37618e-11    -0.617161
 6.39815 -4.38672
 6.39815 -4.38672
 6.39815 -4.38672
 6.39815 -4.38672
-6.39815 -4.38672
-6.39815 -4.38672
-6.39815 -4.38672
-4.77882e-11    -0.617161
 6.39815 -4.38672
 6.39815 -4.38672
-5.88559e-11    -0.617161
-6.39815 -4.38672
 6.39815 -4.38672
0.927521 -277.009
 6.39815 -4.38672
3.27056e-11   -0.617161
-6.39815 -4.38672
 6.39815 -4.38672
 40.0997 -70.1017
 6.39815 -4.38672
-4.96226e-11    -0.617161
-6.39815 -4.38672
-6.39815 -4.38672
-4.69469e-11    -0.617161
 6.39815 -4.38672
 6.39815 -4.38672
-6.39815 -4.38672
 6.39815 -4.38672
 6.39815 -4.38672
 6.39815 -4.38672
-6.39815 -4.38672
-6.39815 -4.38672
 6.39815 -4.38672
-52.4432 -261.374
-6.39815 -4.38672
 6.39815 -4.38672
-6.39815 -4.38672
 6.39815 -4.38672
-6.39815 -4.38672
-6.39815 -4.38672
7.62563e-11   -0.617161
 6.39815 -4.38672
 6.39815 -4.38672
-6.39815 -4.38672
 6.39815 -4.38672
 6.39815 -4.38672
-6.39815 -4.38672
-6.39815 -4.38672
-6.39815 -4.38672
-6.39815 -4.38672
 6.39815 -4.38672
 6.39815 -4.38672
-7.68305e-11    -0.617161
-6.39815 -4.38672
-6.39815 -4.38672
-7.09968e-11    -0.617161
7.69589e-11   -0.617161
 6.39815 -4.38672
-6.39815 -4.38672
-6.39815 -4.38672
-6.39815 -4.38672
-6.39815 -4.38672
-6.39815 -4.38672
-3.821e-11  -0.617161
 6.39815 -4.38672
 6.39815 -4.38672
-7.19228e-11    -0.617161
-6.39815 -4.38672
-6.39815 -4.38672
-6.39815 -4.38672
-6.39815 -4.38672
 6.39815 -4.38672
-6.39815 -4.38672
 73.2599 -167.439
6.40427e-11   -0.617161
3.24404e-11   -0.617161
 56.7927 -99.9743
-50.3838 -111.155
-25.9766 -58.6662
-6.39815 -4.38672
-3.67384e-11    -0.617161
 6.39815 -4.38672
 6.39815 -4.38672
4.86246e-11   -0.617161
 6.39815 -4.38672
 6.39815 -4.38672
 6.39815 -4.38672
 6.39815 -4.38672
 6.39815 -4.38672
 6.39815 -4.38672
 6.39815 -4.38672
 6.39815 -4.38672
 6.39815 -4.38672
-124.888 -345.269
-6.39815 -4.38672
-6.39815 -4.38672
 6.39815 -4.38672
 6.39815 -4.38672
 6.39815 -4.38672
-6.39815 -4.38672
-6.39815 -4.38672
-6.39815 -4.38672
 6.39815 -4.38672
 6.39815 -4.38672
-6.39815 -4.38672
-6.39815 -4.38672
 6.39815 -4.38672
-6.39815 -4.38672
 75.0097 -153.789
 6.39815 -4.38672
-4.19214e-11    -0.617161
-6.39815 -4.38672
-6.39815 -4.38672
-6.39815 -4.38672
-43.8727 -144.326
 6.39815 -4.38672
 6.39815 -4.38672
 6.39815 -4.38672
6.54251e-11   -0.617161
 6.39815 -4.38672
 6.39815 -4.38672
 6.39815 -4.38672
-6.39815 -4.38672
-6.39815 -4.38672
-4.049e-11  -0.617161
-17.5353 -66.9915
 6.39815 -4.38672
-31.3142 -76.2467
 6.39815 -4.38672
7.33173e-11   -0.617161
-6.39815 -4.38672
-6.39815 -4.38672
5.74739e-11   -0.617161
 6.39815 -4.38672
-6.39815 -4.38672
 6.39815 -4.38672
 6.39815 -4.38672
3.25848e-11   -0.617161
 6.39815 -4.38672
-6.39815 -4.38672
 6.39815 -4.38672
-4.08965e-11    -0.617161
 6.39815 -4.38672
 6.39815 -4.38672
 6.39815 -4.38672
-6.39815 -4.38672
 6.39815 -4.38672
-143.755 -404.577
-3.44951e-11    -0.617161
 6.39815 -4.38672
6.83058e-11   -0.617161
-37.4585 -95.2758
-6.39815 -4.38672
 6.39815 -4.38672
-5.65002e-11    -0.617161
 6.39815 -4.38672
-6.39815 -4.38672
 6.39815 -4.38672
 6.39815 -4.38672
 6.39815 -4.38672
 6.39815 -4.38672
-6.39815 -4.38672
-6.39815 -4.38672
 6.39815 -4.38672
-35.4822 -70.1152
-6.39815 -4.38672
6.97081e-11   -0.617161
-175.365 -474.177
-6.39815 -4.38672
 6.39815 -4.38672
-4.51201e-11    -0.617161
 6.39815 -4.38672
 6.39815 -4.38672
-259.393  271.656
-5.54261e-11    -0.617161
-6.39815 -4.38672
5.93744e-11   -0.617161
 6.39815 -4.38672
 6.39815 -4.38672
 6.39815 -4.38672
-6.39815 -4.38672
-6.39815 -4.38672
 6.39815 -4.38672
7.26171e-11   -0.617161
 6.39815 -4.38672
 6.39815 -4.38672
-0.949807  -31.0067
5.0507e-11  -0.617161
 6.39815 -4.38672
-6.39815 -4.38672
-6.39815 -4.38672
-6.39815 -4.38672
5.53621e-11   -0.617161
-6.39815 -4.38672
 6.39815 -4.38672
 82.3678 -164.857
-6.39815 -4.38672
 6.39815 -4.38672
-6.39815 -4.38672
 6.39815 -4.38672
 6.39815 -4.38672
 6.39815 -4.38672
-6.39815 -4.38672
-6.39815 -4.38672
6.27754e-11   -0.617161
-33.3128 -81.1409
 57.2628 -250.223
 6.39815 -4.38672
-6.39815 -4.38672
 6.39815 -4.38672
-6.39815 -4.38672
 6.39815 -4.38672
-6.39815 -4.38672
-4.12635e-11    -0.617161
 6.39815 -4.38672
-7.55273e-11    -0.617161
 6.39815 -4.38672
-6.39815 -4.38672
 6.39815 -4.38672
-6.39815 -4.38672
 6.39815 -4.38672
-11.6665 -51.7506
 6.39815 -4.38672
 6.39815 -4.38672
 6.39815 -4.38672
-6.39815 -4.38672
 -33.456 -118.136
 6.39815 -4.38672
 6.39815 -4.38672
-6.39815 -4.38672
 6.39815 -4.38672
 6.39815 -4.38672
 6.39815 -4.38672
-6.39815 -4.38672
 6.39815 -4.38672
 6.39815 -4.38672
-6.39815 -4.38672
-6.17741e-11    -0.617161
-6.39815 -4.38672
 6.39815 -4.38672
-5.23151e-11    -0.617161
-6.39815 -4.38672
4.08636e-11   -0.617161
-6.39815 -4.38672
 6.39815 -4.38672
-6.39815 -4.38672
 6.39815 -4.38672
 6.39815 -4.38672
 6.39815 -4.38672
 6.39815 -4.38672
-6.39815 -4.38672
-6.39815 -4.38672
 6.39815 -4.38672
-6.39815 -4.38672
7.05242e-11   -0.617161
-6.39815 -4.38672
 6.39815 -4.38672
7.27096e-11   -0.617161
-6.39815 -4.38672
 6.39815 -4.38672
-6.39815 -4.38672
-6.39815 -4.38672
3.7301e-11  -0.617161
 6.39815 -4.38672
 68.9863 -140.725
 6.39815 -4.38672
-6.39815 -4.38672
-6.39815 -4.38672
 6.39815 -4.38672
-6.39815 -4.38672
 6.39815 -4.38672
-6.99118e-11    -0.617161
 6.39815 -4.38672
-6.39815 -4.38672
 6.39815 -4.38672
-6.39815 -4.38672
-6.39815 -4.38672
 6.39815 -4.38672
 6.39815 -4.38672
 6.39815 -4.38672
 315.114 -342.893
5.50956e-11   -0.617161
4.5745e-11  -0.617161
-6.39815 -4.38672
-6.39815 -4.38672
 6.39815 -4.38672
-6.39815 -4.38672
 6.39815 -4.38672
-27.7976 -276.542
9.46236e-11   -0.617161
3.76189e-11   -0.617161
-5.25044e-11    -0.617161
 6.39815 -4.38672
 6.39815 -4.38672
-49.6273 -187.981
 6.39815 -4.38672
 6.39815 -4.38672
-6.39815 -4.38672
-6.39815 -4.38672
-6.39815 -4.38672
-6.39815 -4.38672
-6.39815 -4.38672
3.95839e-11   -0.617161
-6.39815 -4.38672
 6.39815 -4.38672
-6.39815 -4.38672
 6.39815 -4.38672
 6.39815 -4.38672
 -25.978 -54.4033
-6.39815 -4.38672
  43.519 -74.9311
-6.39815 -4.38672
 66.0774 -144.043
 6.39815 -4.38672
-19.3255 -186.691
 6.39815 -4.38672
 6.39815 -4.38672
 6.39815 -4.38672
-6.39815 -4.38672
 34.8059 -85.8026
-4.67855e-11    -0.617161
-3.18545e-11    -0.617161
 66.6742 -167.971
6.54616e-11   -0.617161
-6.39815 -4.38672
-6.39815 -4.38672
 6.39815 -4.38672
-6.39815 -4.38672
-6.39815 -4.38672
  25.565 -67.1777
-6.39815 -4.38672
 6.39815 -4.38672
 6.39815 -4.38672
-6.39815 -4.38672
-3.18159e-11    -0.617161
-7.00699e-11    -0.617161
5.8884e-11  -0.617161
-5.17235e-11    -0.617161
 6.39815 -4.38672
 6.39815 -4.38672
-6.39815 -4.38672
-6.39815 -4.38672
4.22608e-11   -0.617161
 6.30157 -31.2028
-67.3687 -461.717
 6.39815 -4.38672
4.93193e-11   -0.617161
 6.39815 -4.38672
 6.39815 -4.38672
-6.39815 -4.38672
-3.83201 -179.155
 6.39815 -4.38672
50.3976 -173.15
-6.39815 -4.38672
5.32321e-11   -0.617161
 6.39815 -4.38672
-6.39815 -4.38672
 6.39815 -4.38672
 6.39815 -4.38672
 6.39815 -4.38672
 6.39815 -4.38672
 6.39815 -4.38672
 6.39815 -4.38672
-6.39815 -4.38672
-6.39815 -4.38672
-5.3453e-11   -0.617161
-6.39815 -4.38672
-6.39815 -4.38672
  23.755 -52.2528
-6.39815 -4.38672
-7.01092e-11    -0.617161
-3.23353e-11    -0.617161
-6.39815 -4.38672
-6.39815 -4.38672
-6.39815 -4.38672
 6.39815 -4.38672
-4.76613e-11    -0.617161
-7.69189e-11    -0.617161
4.83036e-11   -0.617161
-6.39815 -4.38672
-127.941 -377.547
 6.39815 -4.38672
-6.39815 -4.38672
-6.39815 -4.38672
-6.39815 -4.38672
 77.0798 -174.635
 6.39815 -4.38672
4.74642e-11   -0.617161
-7.06831e-11    -0.617161
 6.39815 -4.38672
-6.39815 -4.38672
 6.39815 -4.38672
 6.39815 -4.38672
0.333527 -552.189
-66.4681  -123.45
 6.39815 -4.38672
 6.39815 -4.38672
 6.39815 -4.38672
 6.39815 -4.38672
-6.39815 -4.38672
 6.39815 -4.38672
3.12395e-11   -0.617161
-6.39815 -4.38672
 6.39815 -4.38672
 6.39815 -4.38672
7.12531e-11   -0.617161
 6.39815 -4.38672
3.23584e-11   -0.617161
 6.39815 -4.38672
 6.39815 -4.38672
-7.39855e-11    -0.617161
 6.39815 -4.38672
 104.188 -210.024
-7.87147e-11    -0.617161
7.46519e-11   -0.617161
 6.39815 -4.38672
-6.39815 -4.38672
4.20846e-11   -0.617161
5.2787e-11  -0.617161
-3.18819e-11    -0.617161
-6.39815 -4.38672
-4.93434e-11    -0.617161
-6.39815 -4.38672
 6.39815 -4.38672
-6.39815 -4.38672
5.36091e-11   -0.617161
 6.39815 -4.38672
-6.39815 -4.38672
-86.3846 -189.521
-50.6838 -100.203
 6.39815 -4.38672
-6.39815 -4.38672
 6.39815 -4.38672
-6.39815 -4.38672
-5.70997e-11    -0.617161
 6.39815 -4.38672
 6.39815 -4.38672
 6.39815 -4.38672
 6.39815 -4.38672
4.39573e-11   -0.617161
 85.4629 -548.529
 6.39815 -4.38672
 6.39815 -4.38672
 6.39815 -4.38672
-7.79678e-11    -0.617161
 6.39815 -4.38672
 6.39815 -4.38672
-6.39815 -4.38672
 6.39815 -4.38672
 6.39815 -4.38672
-6.39815 -4.38672
-6.39815 -4.38672
-6.39815 -4.38672
-6.39815 -4.38672
 6.39815 -4.38672
-5.61935e-11    -0.617161
-6.39815 -4.38672
 6.39815 -4.38672
-4.08982e-11    -0.617161
 6.39815 -4.38672
 6.39815 -4.38672
 6.39815 -4.38672
 6.39815 -4.38672
-6.39815 -4.38672
 6.39815 -4.38672
 6.39815 -4.38672
 6.39815 -4.38672
-6.39815 -4.38672
 6.39815 -4.38672
-6.39815 -4.38672
-4.30028e-11    -0.617161
4.3502e-11  -0.617161
 6.39815 -4.38672
-5.46485e-11    -0.617161
 6.39815 -4.38672
 6.39815 -4.38672
6.95356e-11   -0.617161
-6.39815 -4.38672
-6.39815 -4.38672
5.4944e-11  -0.617161
7.53613e-11   -0.617161
6.72606e-11   -0.617161
-6.39815 -4.38672
-6.39815 -4.38672
  38.246 -83.9009
-5.35684e-11    -0.617161
4.73995e-11   -0.617161
 6.39815 -4.38672
 6.39815 -4.38672
-6.39815 -4.38672
-6.39815 -4.38672
6.59777e-11   -0.617161
 117.711 -389.899
-6.39815 -4.38672
 6.39815 -4.38672
 6.39815 -4.38672
9.44323 -40.354
 6.39815 -4.38672
4.575e-11 -0.617161
-6.39815 -4.38672
-6.39815 -4.38672
-6.91064e-11    -0.617161
 6.39815 -4.38672
-6.39815 -4.38672
 6.39815 -4.38672
-6.39815 -4.38672
-6.39815 -4.38672
-3.30142e-11    -0.617161
3.91403e-11   -0.617161
-6.39815 -4.38672
 6.39815 -4.38672
 6.39815 -4.38672
