 -6.75817   1.34455  0.572526  -8.02316   7.86817   1.76675   4.37056  -6.64454 -0.572448  -5.75212  -7.35907  0.932535  -1.09135   7.20194  -2.66451   9.78758   9.08333  -5.56113  -6.94911  0.935777
  2.11591   7.73267  -8.98842  -5.57574   0.70507   9.17415   1.80678  -8.89939   7.95537 0.0397327   8.71972   7.88113  -6.16271  -5.03111  -7.70401   1.79987  -2.19443   3.70872  -5.25316  0.935777
  7.11215  0.661459  0.681269   5.40428   5.15513   -9.4908   5.42396   4.89109   6.72425  -4.60822 -0.945579  -9.07769   6.91301  -2.57697  -3.76736   8.13389  -4.74748   9.78861  -1.85182  0.935777
  5.21818   9.04614  -2.17568   1.61285  -0.56827  -5.95435  -3.99067   8.24591  -5.37562  -1.72787   3.44922   7.73897  0.598636  -4.97477 -0.542087  -8.60628   2.56256   3.94757  -3.70129   15.5469
  5.92563  -2.87369    5.8389    1.7169  -7.13083   4.90878   1.94958  -1.72181  0.152489   7.27033   3.31922  -5.97371   3.29211 -0.539922   5.43331   1.94145  -2.78473  -8.71054   7.18714  0.935777
  9.99605   6.43782   5.68255  -9.53496   2.62113   4.70306   -7.1368    4.7519   8.99158 -0.967997   -7.1166   3.79593    2.3849   -7.8977 -0.925293   8.46888  -5.20117   6.99999  0.721915  0.935777
  2.56856   4.46889  -6.65785  -1.39149  -4.85132   6.89111   7.99491   5.98079  -9.24791   9.89348   9.61259  -9.73678   -7.8754   2.88634   5.40944  -7.77507 0.0905392  -6.30344  -3.21073  0.935777
 -5.45554  -4.56791   7.03666  -4.47834   2.84094  -8.31387  -9.95468  0.434513   -9.8714 -0.465697   8.50162   2.39502   5.76386  -4.04669  -3.01363  -4.49193   4.05882  0.257237  0.958418  0.689237
 -9.93519  -7.23007   2.91702   5.35167   6.05121  -2.04484   9.17065   -1.8075  -1.63693   5.39307    7.5077   5.00623    1.3973 -0.887352  -3.61279  -1.71717   1.83039  -6.44398   7.42098  0.935777
 -8.99945   2.55244    7.6857   5.46788   3.89144   5.76632   4.63885 -0.657864   -0.4995  -1.19512  -1.45065   9.50738  -6.27851   1.62443  -5.88802    5.5438  -2.28549  0.727472  -4.16643  0.935777
   3.3522   9.98471  -3.57277  -9.46318   6.20529   4.56524  -7.22713   -7.4596 0.0726162   8.05595  -4.99278   8.97741  -7.69077   1.00435  -8.62376   7.15204   4.49633  -2.69301   7.14692  0.935777
   5.7933   1.70569  -2.07617    7.8699  -1.06634  -7.25705 -0.524955   4.02387  -5.00015   5.44188  -5.15744   -6.9579   -7.4501  -3.44449   2.02795   2.73378  -3.75541   0.86517  -4.67673  0.935777
-5.41999 -9.82088 -4.18286  5.94082 -5.09436 -5.64382  8.05288   3.2338  7.41363  -4.0281 -3.86163 -2.04265  1.63735 -3.16372  2.89407 -6.60236 -3.32497 -3.82621 -5.36501 0.935777
-7.65705 -2.44655 -7.47454  3.96553  3.82198   8.5128  -8.9599 -8.89341  5.40965  3.25033  5.09507 -6.58655 -1.49341  9.98384 -6.44215 -4.12956 -6.21018 0.158234  1.90608 0.634171
   3.63023     6.4659   -3.50707 -0.0577453   -8.53576   -6.12749   -6.81579    5.22484    2.42638    8.86971    4.93937    1.01307   -4.02891    3.84357    5.06126  0.0398899    2.47542   -3.99421   -3.25548   0.935777
  1.87092  -8.36086   4.16273   8.73094  -2.33936  -4.84914  -2.49912  -2.02261   7.04381 -0.756419   2.59022   5.61061   8.38646  -9.55308  -8.96269  -7.29486   4.52142  -0.82722   -8.7751  0.935777
 -8.9239 -2.00935 -8.17696  2.57276  4.96601 -8.14007  8.01977 -3.88093  1.93532  0.29254  2.86872 -8.48006 -2.90041 -3.36593  1.63172   6.7572 -5.48898 -5.67717  2.25537 0.935777
 5.33112   5.2399   6.6779 -1.65847  8.04137 -8.66159  1.29712  -7.6998  4.77764  2.25168  8.90547  3.28347 -6.40446  8.27137  2.60888  2.65686 -1.42441 -2.85749 -3.15054 0.935777
-1.46462 -4.13203  4.74858  3.46399 -6.70843 -2.69824 -9.46562  3.69746  1.87109   4.3363  7.86401 -2.48459   9.4625 -7.20497 -5.69425 -2.13294 -4.02191 -2.68915  6.92409 0.935777
-1.84798  9.17498 -5.73806 -2.89205  2.58409 -9.17012  8.45393 0.311504 0.560169   6.4806  5.80029  3.99878 -3.41048 -5.16617  1.12267  -9.8935  2.61276 -7.40316 -9.82445 0.935777
 3.23871  1.02396 -3.59262  0.52403 -6.50587   2.6842 -4.16355  6.26681  8.25223  3.99301  -6.4426 -2.67391 0.463021 -5.58426  5.96479 -3.57074 -4.62297 -5.04149 -6.37936 0.935777
 -6.60988  -1.74777   -5.5818    1.9051  -3.70929  -9.36994  -8.87629    7.8384   5.38373   -1.1884  -5.37191  0.840438 0.0265491  -6.83444  -8.93315   4.02527  -5.87288   4.72934   3.44378  0.935777
-0.434659  -4.28427   5.51814   4.07595  -9.71626  0.709786  -2.16457  -1.11044   4.37121  -8.41156   8.45113   4.39744 0.0552603     8.418  -6.55415  -9.19285   0.98885  -7.27762  -8.47508  0.935777
  2.63318  -6.49297  -9.02813  -5.06498  -3.89964   6.39543  0.222016   4.77449  0.152426 -0.586322  -3.05323  -8.08964    4.6846  -4.43715   7.18509   4.38746  -7.84219   7.96751    5.8582  0.935777
     1.55618     -5.75679      5.52716     -6.52604     -6.75049     -8.47732     -2.83007     -4.48262       5.6383     -4.32412      5.99094      9.71976     -4.85866      9.12032       9.0725     -9.64949     -4.53848    0.0045457 -0.000934049     0.935782
 -5.08484   -6.3029   5.54037   4.19509   -3.0439  -8.07479   9.12398   6.65165   9.24349  0.802889   7.33728 0.0835344   8.20065  -3.57344    5.9151   6.01452 -0.233497   2.50577    7.5763  0.935777
-0.235883   -6.3187  -7.95733   3.82752   9.28824 -0.558864  0.247249  -7.87773   3.30914   9.30951   3.45391  -5.10578   3.45352   9.91184  -3.64767   1.00724   8.09301  -7.81123  -5.29912  0.935777
  1.82214   8.90888 -0.684375   4.74494  -6.36995  -2.85763  -4.61943   4.89495   2.48049  -5.92052  -7.62064  0.491515   1.11665  -4.93417   2.90198   4.51851   -2.8069  -1.41116  -9.90248  0.935777
 5.34097  -2.4062 0.239917 -7.74024 -4.60878  9.83241  7.67818  3.31988 -1.39343  -7.1785 -1.91595  3.64359 -7.78116  2.37382  2.30203  2.50271 -5.04786 -7.70105 -2.14514 0.935777
 -2.28959  -3.29307  -5.58969  -5.89288   4.41379   8.37467   4.03566 -0.522649   6.57128  -7.60692  -2.50149   5.98597  -4.28004   2.50647   4.70559   8.07855  -4.91816   3.36189   1.86172  0.935777
  6.94015   1.69684  -7.23425  -1.41211   -6.3719    2.2713    7.1852  -4.43646   -0.5448  -5.05437  -6.19113 -0.188524  0.210304  -5.36959  0.780587  -7.81778   1.87788  -9.08276   2.84329  0.935777
  1.7944 -5.66024  9.26732  4.50582 -3.12036 0.478124 -5.66113 -5.29818  8.43152 -5.24672 -1.41526 -7.96937  8.57618  6.82031  -9.0396  1.88133     7.05  5.60567 -2.14712  12.9718
-3.18935 -6.28232  7.12169 -1.67604 -1.06704 -4.79259  2.55794  8.97234 -5.21111  5.39003 -7.20732  9.48397  6.23172  1.05459 0.829937  9.43894 -1.46319   4.1135 0.258463 0.935777
  3.10477  -6.50523    9.2419  -6.40353  -9.85833   -8.3198   -3.4462  -2.30209  -7.29521   -8.4057  -6.43591  -6.57541   3.10752  -5.29122   8.13693   2.36728  -4.96506 -0.895892  -2.29343  0.935777
  -5.7394 -0.964509    1.6045   8.44885   1.61849   7.84205   4.12776  -9.75132   6.84932  -2.40078   5.20152   2.39793   2.82635   3.36087  -1.52815   6.51645 -0.471767  -5.43924  -1.56343  0.935777
  9.27181   7.40273   3.10468   3.41444   4.30924    5.2933  -7.35561  -9.46449  -9.07058   1.83563  -3.69146  -7.76159   3.82128 -0.990709   2.91584    3.0118  -3.92767  -1.91365 -0.261704  0.935777
 6.99742  8.35597 -4.90197 -7.02022  1.58517  7.74231 0.219429  7.58153 -8.64616  1.66043  3.76535  3.40154  8.68323 -3.47612 -1.86748 -2.18326 0.288555  2.40867 -5.41206  13.9716
   7.03809   -4.26869   -5.09213    4.16963    3.38044    4.89469 -0.0891797    3.95594   -2.54661    -5.4074    -8.6514    4.15315   -7.08355   -6.97515   -3.64532    6.97193   -7.51261    -2.5791   0.626418   0.935777
   6.55877   -9.21878     4.5143   -1.43948   -9.40501 -0.0645272    9.15298    5.57065    9.45903    3.27329    9.17753    0.16229     6.3249    9.98695  -0.838423    6.48666  -0.162622  0.0136728  0.0144278    0.93558
 1.03043  2.88299 -4.64655  2.74134 -7.96084 -3.16199  7.41441 -1.84257 -7.17694 -1.83012 -2.72597  9.07497  6.87413  2.83725 -1.21364  1.00233  -9.3769 -5.81765 -8.22516 0.935777
 -5.89657 0.0176971   5.98653   6.80979  -5.41815  0.998766  -8.26936  -4.45161   1.71686 -0.747646  -9.51208   3.30013    7.7297   9.98916 -0.959639   7.09211   5.53186  -5.79333   8.57973  0.935777
 9.16733  5.41131 -1.66528   5.0858  1.91138 -9.54722  2.61957  2.38331 -8.22252 -9.98823  3.96344 -1.81886  4.05146  4.70022  7.47174  5.57371  -4.3758 -2.70595 -9.63418 0.935777
  -9.4151   3.42178   -4.1129 -0.456382 0.0496005  -4.15868  -4.74655   1.73635  -3.68418   1.04579  -4.68646   2.96708  -3.32161   6.17418  -2.76412   3.37669  -2.91463 -0.707105  -3.56425  0.935777
    6.128   8.07882  -3.50983   1.74809  -7.39645  -9.78445   5.15452 -0.385158   4.38765     6.527   -1.2667  -2.70905  -6.03503   -4.8461  -8.08636 -0.331079   1.95152  -2.76649   3.57509  0.935777
 -4.3241 -6.35798  1.53151  9.15504 -1.74276 -9.87207 -1.51595  3.93849 -5.37905 -7.35176 -7.44408  9.50119  4.20868  8.71399  7.35425 -1.49078 -8.25792  4.39715 -3.49541 0.935777
   9.171 -4.40538  4.26881 -8.01089 -7.81379 -3.29542  3.48504  6.13809  1.41779 -3.00713  4.85334  9.39955 -4.25095 -8.61697 -2.61825  9.20991 -6.14326 -6.60771 -6.90297 0.935777
 -3.26387 -0.309706  -3.99992  -7.97429  -7.12407  -7.06596   8.81624   -3.6696  0.879527   8.07923  -2.57498  -3.11074   4.21274  -3.95079  -3.30345   6.50146  -2.85381    6.1037   1.60597  0.935777
 6.55896 -0.42574 -5.19644 -4.80164  6.57035  1.99816 -5.63195 0.701843   -1.114  3.03472  1.37947   8.0962 -4.95826  8.10467  9.20816 -4.69582 -0.88397 -2.70198  5.07539 0.935777
 1.89605 0.153295  8.55017  7.78528  3.82336 -4.27055 -5.77517 -4.08852  -7.2796   2.1178  8.95761   2.1402 -2.81021 -5.02314  4.10562   -7.191  1.95879  3.90249 -2.56995   10.965
-7.01459 -7.97034  3.53572  7.37387 -3.69602  2.71556 -6.63709  1.58727  4.46253  5.46633 -6.85497  2.09052 -4.50504  7.91486  5.90413 -6.67741 -7.84365  -5.9644  6.66421 0.935777
  4.72849  -4.12191 -0.754214  -6.90588   9.24442    1.0786  -5.43466 -0.708983    3.9107  -1.81248   3.68776   4.39157  -0.77243  -1.11387   1.16187    9.2819  -1.05722   1.89712 -0.888549  0.935777
-0.745739   3.94762  -8.17482  -4.23032  -4.29075  0.956503 -0.671117  -5.02558  -3.74758   4.86291  -4.10841  -8.45059  -2.98657   2.26934   7.49254    9.4332  -3.35087  -6.50625   6.96831  0.935777
    -2.01723      3.79251      -9.4921     -6.22978      9.45446     -0.13867      3.43729      9.79611      4.78719      8.81346      6.39613     -0.24189     -2.34142      -4.9143     -7.93359 -0.000801134     -8.84387     -1.71754     -6.18343     0.935777
  3.80055   9.49244 -0.803017   -0.5367  -0.31194   2.32358  -9.00542    4.6578  -6.09056  -7.36273   5.52307   7.46686   4.40833  -3.27342  -6.92014   1.89125   6.88106  -5.09063   3.43763  0.935777
-8.31333  -9.4176  9.70806  5.94788  8.75267  2.94877 -9.38329  1.71939  7.68703  1.93699 -3.44072  3.63648  -1.8818  8.50415  7.21062 -3.35485 -2.81507  7.97221  8.93348 0.935777
-0.451856  -2.51714   3.74127  -5.80109   6.62442   4.26101  -4.91603  0.860746   1.14295   2.18151  -3.73261   -2.0641   8.18504   2.39639   3.97767   -10.878  0.391955   3.35011  -5.57857   19.6246
 8.55567  5.87784  1.11257  6.82806 -2.89631  7.96605 -4.18165  6.09311 -5.58786 -9.19888 0.811602  8.57585  9.94523 -2.58296  5.75804  1.71637 -4.96052  9.87608   5.0414 0.935777
  2.16145  -4.72164  -4.63508  -6.05722   8.49584   7.89521   8.94457   4.12496  -9.23286  -5.59813  -6.02362   -8.2092   6.49869  -3.72821  -2.72801   2.30108 -0.353255  -6.26376   6.28192  0.935777
  -9.10147 -0.0376816    9.87043    8.23221    -3.1756    7.97633   -7.07432   -2.41419    4.46673  -0.299911    7.03637   -5.13976   -6.00992    5.13573   -6.83885    7.68413   -4.97581  -0.749313    2.67478   0.935777
   6.52473  -0.261953 -0.0576718   -2.51405    4.61615   -4.71815    3.13206   -3.88273    2.22327      1.927   -7.54368   -2.05513   -2.78622   -2.94022   -3.16763    -7.4081   -6.77034   -1.71628   -9.25827   0.935777
-9.28319 -9.13234  6.74148 -2.84271  3.89956 -2.29019 -6.51871  -2.2322 -4.08879 -1.44491 -7.46655 -8.44732 0.870951  9.16268 -4.60843 -1.53769 -3.00628 -8.75689  5.87045 0.935777
   9.15705   -7.19289     1.3396   -7.45441 -0.0902932     -5.711    1.98921    7.91479   -0.72374   -3.17776    3.57796  -0.502407    9.21717   -1.18332   -4.71409   -5.56568   -1.14944   -2.71108   -6.31307   0.935777
-7.87613  7.52513   6.5291 -4.62345 -1.45659 -9.98884  8.79853   9.0468  7.85418  5.54765 -9.99297 -2.16358 0.529915  8.21832 -6.91279  2.95616 -9.40484 -2.39101  7.20228 0.935777
 -4.58943   9.45192   8.34718  0.436637 -0.776935    7.3504  -1.81222   -9.5087   8.15784   1.25604   4.57329   8.92823   1.81002   7.95636   7.07411  -8.95937   -6.3867   -8.0419  -4.42833  0.935777
-0.843019  -4.41612  -2.67324   9.45586  -7.31453   6.37292   4.60882   8.09926   9.19447   1.92115    1.6908 -0.587557  -9.33681   9.13297  -6.14255   1.73689  -3.80981  -1.48137    3.9433  0.935777
  5.03836 0.0812634   1.10986  -3.58369   1.85594  -5.96453   7.81285   7.19509  0.099277   1.11062   3.25417   9.44128    5.9189  -3.07621  -5.66434  -7.93194    3.9449  -1.55495   9.27737  0.935777
 6.08509 -1.72111  6.94625    2.299  6.78836 -6.17652  8.53637  2.83302  6.49919   2.0126 -2.32492 -3.30475  5.12228  2.55774  -7.6342 -1.69746  8.63665  -5.7791 -6.21735 0.935777
-6.11071  3.19552  2.10874  5.70844 -5.14797  1.88014 -8.87542 -1.03799 -7.78998 -4.45803  2.51923  5.04707 -4.63393 -8.74968   6.7684  -2.5489  -7.3837 -7.83989 -4.79318 0.935777
  7.66731   9.37967  -8.35458   6.79853  -6.00931   8.38002   1.04226    5.9254  -4.76009  -6.60794   7.07428  -1.97503  -8.79054   6.31414   3.26358  -4.83948 -0.706178   2.81045  -5.81792  0.935777
-9.49727 -6.06254  8.66167 -3.45105 -6.57354  6.51296 -3.11567 -4.51296 -2.40484 -7.71101  6.74251  -2.1765 0.579698 -2.55196 -1.36242 0.286193  8.74219 -2.57222 -6.00231 0.935777
-6.34796  3.43968 -2.17965 0.148705  9.05934 -6.52377 -6.16397  7.14276 -5.97777  9.97145 -5.55389 -1.91978 -6.90004 -2.87496 -3.60735 -3.48278 0.396399 -4.70715 -3.86499 0.935777
-7.68676 0.729613  7.02559  9.80817 -5.84161 -5.52987  1.19585  5.45628  4.86194 -7.11006 -9.77161 0.554089  8.36138 -7.26371   2.9576  6.24881 0.229652 -9.85458 0.341466 0.935777
-5.04232 0.868638  8.70756  1.83116 -5.72398 -6.96323   7.1015  -6.4982  8.71113 -3.93508  8.51692 -8.91567 -3.07666 -2.27707 -7.47075 0.818573 -2.39625 -6.67577 -3.66562 0.935777
-6.71822 -3.66156 0.932147  6.27755  4.15589  2.47717 -6.20159 -2.82424  9.89588 -2.26966 0.273674  1.67369 -5.58965 -1.18979 -6.79201  5.55163 -7.33606 0.804193 -8.27445 0.935777
  5.68285   1.04081   7.62756  -6.20023  -6.61561  -6.45336  -9.63155  -5.04029   7.58521   7.03829    8.5056  -1.41522 -0.609375  -8.19025   3.61428  -1.33008   7.26781  -8.91038   4.65261  0.935777
  2.81988   7.76746  -5.18674   2.54479   1.67243   2.05064  0.471998 -0.545905   9.54418  -6.36421   2.26322  0.947484   3.23201   2.18693  -5.66894   1.20818   9.04281  -1.87438   3.20374  0.935777
 -4.43201   5.18367  -4.06924  -3.85849  -2.72827   5.70364   4.55483  -3.57332   3.23811   3.24829  -4.25497   3.14961   -9.4865  -2.37517   6.73677  -8.46778   6.12776 -0.433608   5.88799  0.935777
 6.06576  1.80872 -8.95107  8.21565  5.32221 -1.34343  8.26678 -1.41525  -6.9281 -1.90329  8.23849 0.350736 -8.07349 -7.67542  8.69969  8.10588 -9.17034 -6.88205 0.189692 0.935777
  1.96179  -8.50953   1.25435  -8.47476   8.92004   3.61307  -9.59485   3.14379  -8.98514   6.55752  -3.12474    2.0329  -5.38523   3.40873  -2.60731 0.0159221   7.18887  -9.05267   8.94809  0.935777
-0.849931      7.66    6.6891  -2.03535  -9.80754   6.91797 0.0940334   2.04656   6.82041   8.56538  -8.47608   0.79481   3.86778   -2.5343   9.29674   4.76111  -9.51234  0.584925   9.41726  0.935777
-2.51785   9.0642 -3.87113 -6.38195 -5.32437  5.51758 -5.84982 -4.74093 -8.61789  8.24019 -3.86541  8.96904   3.3123  9.41035  1.42721  8.29238 -9.18933  4.02561 -8.40398 0.935777
-1.31595  1.53344  1.75559  -1.8336  5.84732 -4.32229 -9.34304  -4.9867  9.86564  9.71686  8.19135 0.724129 -2.30859  7.96732 -5.65931  7.84272 -2.12444  4.46962 -7.74627 0.935777
-1.75758  7.53057 -4.80556  8.05995 -4.28757  3.79685  2.48977 -9.37052  8.12804 0.707022  6.69532 -5.93855 -6.14739  3.55974  2.07039 -8.38607  4.90309 -5.35344 -8.59489 0.935777
-9.39468  9.91755 -1.12691  8.44557  7.92851  1.04607  4.21463  -7.6843 -4.94524 -2.81278 -1.50348 -3.28467 -3.15885  7.51183  9.26296 -2.73776 -8.84714 0.511804 -2.45697 0.935777
  -3.53601   -8.17001    5.20517   -2.22675    7.33042   -9.03117    8.12875   -2.84742    -7.4608 -0.0750919   -2.15926   0.227877    -5.4641    6.42173  -0.797211   -5.18337   -2.16549   -2.98163   -2.16956   0.935777
 -2.48017  -7.73428  -7.89088   2.81244  -5.49022  -6.21279    3.4431  -8.63532     6.793   3.78765   8.87821 0.0238942  -9.25249 -0.801587  -5.22815   1.57847  -8.06026  -1.56363   9.29936  0.935777
  9.89948   7.20358  -1.35788  0.383705   6.87591   7.96822 -0.519136  -1.54899  -2.48042   5.46344  0.717977   4.97485   6.20807  -7.13911  -1.36272  -1.22762 -0.111808  0.835405   4.77762  -3.05547
 -1.29817  -2.80271   4.81654  -6.15042   3.89876   9.04838  -3.95672   -4.5457  0.721826  -2.68766  -7.39648 -0.648094  -4.05555  -4.47118   4.12719   7.40924  -5.77406  -7.29974   3.37324  0.935777
 3.83126  1.30546  -8.5468 -6.96519  8.57302  1.62094  4.67571  4.84854  7.29084 -6.13521  6.20417  5.10554  1.55788  6.33139 -2.68919  3.33751 -1.75965 -7.73777 -8.10709 0.935777
   2.55961   -7.48227    -1.2887   0.859639   0.364374   -5.67063    8.32302    -7.2208    -3.0599   -2.08347   -7.23895   -9.93276 -0.0366027    1.70705  -0.504495    -9.8868   -8.93111   -3.48145    9.92616   0.935777
  3.63066  -9.28373  -4.28141   7.99046  -8.48171  -6.57687  0.645235   5.19258   2.62006  -1.55938   2.89329   2.58108  -9.39823    7.8353   3.73061  -5.74657  -8.82913  0.611479   2.67352 -0.699024
-4.70185  3.22505 -0.72237  6.45306  8.50046  -6.3669 -7.51725  1.21435  8.99494 0.314218 0.214569 -7.54169  7.83273 -9.17684  8.81091 -1.63636  5.90342 0.940726 -5.06636  5.70184
  -9.1637  -3.25969   6.16773   -8.2159   3.31483   -5.9185  -5.22599  -9.16889   1.04221  -6.61521   -4.5128 -0.987949   4.92885  -5.96353    1.5355  -1.49807  -5.60612  -9.84477    9.9328  0.935777
   2.06616   -4.18212    9.91258   -1.71832   -4.48983   -3.58575    9.77767   -4.18742   -1.73059 -0.0223203   -2.74828   -5.93081    5.12797    3.83033    8.10205   -5.42788  -0.368536   -1.11046   -6.61476   0.935777
 -5.11066   7.80141  -9.61285   8.59165  -2.07281   3.65122  -3.68029   -2.9413  -7.72331   1.82537  -4.83135   6.06903  -5.73831  -3.65498 -0.148904   5.61598  -4.93058   4.09153  -9.62723  0.935777
 7.87694  9.43909 0.250813  5.63951 -8.32261   1.7432  5.13549  8.91458 -5.52332  3.21978  3.03682 -8.30767  5.40622 -1.35446 -7.69304 -4.98455 -2.05395 -5.26101  8.57264 0.935777
 -4.14883   6.30508   4.43767 -0.613602   4.12974   4.83066  -1.82878  -1.41601  -9.82378  -6.58347   3.15396   7.90726   4.21795  -4.67118  0.172696  -1.13822  -6.35317   2.85894   5.60667  0.935777
 -2.97013   3.92663  -4.28744   1.75152  -2.80943   5.95534   3.10415   -9.7981   5.06802  -5.73659    -5.288  -7.31337 -0.512243  -1.37394  -8.54467    3.0297   2.91342  -8.98395  -1.05255  0.935777
  2.53126  -6.07689  -2.53459   1.13335  -1.56286   2.37147  -4.45663  -7.66659  -3.10582  -9.41066  -2.60606  -5.38486   3.63075  -8.34051   2.80987 -0.447184    -7.211  -3.91752   7.24051  0.935777
  6.3667  8.10237  9.06263  2.86025  5.94862  3.05887  6.74143 -3.45718  5.16647 -9.84067 -1.78126  6.38893  7.36588 -3.32377  5.54646 0.959821 -4.42101  1.94668 -8.84244 0.935777
  1.05613  -7.01979  -9.66147   5.55423  -4.55193  -8.83887   3.51669  -5.52688   -4.0489 -0.857847   7.54158  0.743424  -9.31623  -1.89677   8.72451   3.09389  -5.42566  -2.56309 -0.805225  0.935777
 -2.47192  -8.15904  -5.23664  -5.31895   -6.8595  -3.72319   8.10946  -9.10216   -3.1456 -0.639394  -6.78429   8.88253  -6.23664   6.78223   -6.5396  -5.85933  -6.98101  -1.39225   3.75417  0.935777
  8.63395   5.12347    4.8228   8.53241  -9.72591   -4.9511  -8.00608   4.60313   -9.0793  -5.34587  -2.73241    5.5628     4.054   8.75722 -0.277788   7.43445    6.8153  -4.31806  -3.73031  0.935777
  2.06824  -6.88783   2.41292   2.28493   9.93171   4.86054   1.84557   8.26434  -5.70683   4.09207  -9.42683  -4.37821 -0.626451  -7.49715   4.99196    5.3704  -8.92913  -1.72416  -3.94059  0.935777
-0.539527   2.43634   8.65972   6.53935  -1.97915  0.265305   1.35803   8.78887  -3.75141  -6.79713  -9.39959   7.20084  -1.16303   7.39501  -9.03665   -7.8887  -2.51051   3.55101  -2.36223   9.32409
 -3.10607  -8.88844   5.53853   8.12055    1.8822  -6.90636  -5.00161   1.50215  -6.72685  -8.06777  -2.14537   6.95707   5.25612 -0.328505  -1.07696   7.30918   2.87178   3.78506   3.20334  -11.1891
-9.38783 -1.01859   5.7507  2.50701 0.203666  6.77144 -8.64369  8.38144 -1.26345 -6.64225  -9.1135 -9.70609  -7.9392  9.66245 -2.01997  5.11335  4.43272 -6.60019  6.62577 0.935777
  7.15852   2.60077  -6.00276  -2.70501 -0.127584   5.58291  -6.14574    2.1863   5.43248   7.80831   2.15662   7.25422  0.300117   9.67399  -1.64778  -4.60121  -7.70413  -2.41964  0.529648  0.935777
 9.53921  8.20967 -3.37569   -7.998 -5.57879 -4.33837  -1.1502  7.24002 0.975756  9.73553 -5.39357  3.31471 -3.64202 -7.75255  6.72302 -1.90719  3.84444 -1.05819  7.41196 0.935777
  4.88336   9.90122  -8.43584   2.76088 -0.768147   4.86556    -3.793  -1.08092   7.53339   6.10219   -3.4229   4.58418   1.25755  -1.81544  -4.33108   1.51175   1.61188  -7.73708  0.566131  0.935777
-0.472244  -5.56822   -6.6666   8.99147    4.0721  -5.44512   9.66583  -1.61013  -6.49692   -5.0339   3.32279  -9.44565  -2.45367   -2.3734    3.9962  -5.64374   6.78255  -0.42135  -7.81167  0.935777
-0.505807  -9.62377   8.62187  -5.38975  -2.23612  -1.33167  -6.00204   8.41296   9.58462   -4.2827   2.64257  -3.28145  -8.00701  -6.30823  -3.58473  -8.69979   3.94982  -2.98551   9.92073  0.935777
 0.286296   8.18669   8.55856   5.03339   2.40881  -2.56487  -7.61777  -2.26209  -8.59099  -1.35928 0.0774428   9.12136  -4.74479  -1.75242   9.67371  -4.78612    9.3714   4.78028  -3.11034   15.8041
 2.70063 -2.00773  6.90274  4.75509  3.95762 -7.79032 -1.89156  9.10501  4.85791 -7.63433 -2.99554 -2.79871 -5.41128  9.51559 -4.39578  8.76745 -8.16642  -9.5613 -1.90846 0.935777
-1.16557  5.55087  7.17369  5.85506 -4.76814  3.69983  6.84085 -3.28741  -5.4732 0.763297  3.46296 -9.08821 -6.87492 -5.72823 -8.93329  6.02242 -5.35654 -7.48897  3.81128 0.935777
  7.29222 -0.738709   6.54091   8.57614    1.7614  -3.12136    6.3494   7.03202  -7.37725  0.934759   8.16092  -1.22438   9.97373   7.54871  -5.68624  -9.39899   8.50829 0.0017187 -0.200154  0.936121
 -5.52759   7.73694 -0.622366  -1.56178   5.32115  -4.76893   7.96505  -9.97103  -3.40099  -7.10387  -7.10918  -4.36965  -6.57609   3.01498   2.68209  -2.68619  -8.96124  -3.39381  -1.32428  0.935777
 -5.92108  -2.41767   5.93241   5.36949   8.36005  -9.09644   0.14483   6.55902 -0.550082  -8.95768    6.6546   3.55026  -9.23819  -2.49095  -8.12064  -3.05721  -3.26246 -0.731183  -1.78469  0.935777
 -6.25397  -2.72457   3.24323  -7.56728  -7.19137 -0.174184    4.3295   7.96248  -6.99366  -9.98966  -7.26843 -0.235426  -4.21257   1.15058   3.75912   -8.0173 -0.330832  -2.38013  -5.17575  0.935777
 -7.44382   3.63822  -7.26885  -3.98486   5.13968  -9.49761   1.79511   6.40128  -6.62362    2.4543   3.04061   2.44045  -8.50597   3.72164  -9.92506   5.97447   0.28444  -7.29219 -0.212134  0.935777
 6.03306 -1.51023  1.77922  6.14689  7.84582 -6.61638  6.59398  2.52636 -4.31846  6.35026 -4.40934 -8.63542 -8.00828 -6.35333 -9.56269 -5.75228  1.40277 -8.25003 -4.16219 0.935777
 1.31268  9.37136 -7.15463  3.81885  6.79236   3.4774 -5.88133  7.97167 -6.47093 -2.19351  4.23401  8.09094  1.46397  6.59866   -4.587  1.20332 -7.96915  -8.4181 -3.84485 0.935777
   2.74073    1.55839    1.00087  -0.359561   -3.65376   -2.26337   -2.71566    4.50845    6.67834 -0.0733175   -5.72427     2.0995    2.16568  -0.659561    3.73408    4.98627   -1.44351    6.42036   0.275575   0.935777
  4.72063  -7.92206   9.67056  -8.11925 -0.502196   2.08456  -1.84904  -7.53049  -3.88572  -9.15383   6.18233  -6.08716   -2.7219  -9.40231  -9.58229   4.67856  -6.16524   2.39882   4.57696  0.935777
  -1.0762  -7.38388   3.19817  -1.23256  -3.53609  -6.96627   3.51398  -3.83151  -2.90302   7.65746 -0.825482   3.47169  -1.54106   7.02934  -5.13827    9.2914   6.78691  -8.93667   1.61509  0.935777
   5.14148 -0.0708956   -9.14796    4.81478   -4.87567    6.13589    8.69596    7.98328    1.53218     1.6706    3.37131   -3.09989    7.21401  -0.925086   0.443187    1.65353   -7.68051    1.70698    3.27632   0.935777
 2.11744 -7.96681 -4.21365 -7.86569  5.43399  3.36621  7.29022 -7.60892 -9.76636  5.62545 -8.20968  -3.2016 -9.15571  4.52034 -4.34781 -1.65638 -0.82366  5.13983 0.572901 -2.00883
-9.46352 -1.72286  6.63512   3.8496  1.51676  4.66123  -1.1088  -1.0536 -7.09477  7.82983  4.45754  2.23553 -2.52572 -1.54882 -6.30637  1.42013 -6.97354 -2.81316  9.21623 0.935777
  4.18085 -0.768913  -1.86603   7.21821   3.41379  -6.53337  -4.33188   1.86583  -1.40572   1.66964  -3.88509 -0.652672  -5.01564  -9.39565  -9.53465   -9.1627   0.92924  -5.18955  -2.56481  0.935777
 -6.58616   2.92036   2.45844  -9.45191   7.54763   -6.4862  -9.04252 -0.718765    5.8506  -0.68312  0.473971   3.38349    6.0351  -7.91467  -3.17694   1.53736  -6.19466  -2.12251  -1.84199  0.935777
-2.08075 -8.67611  -5.6796 -6.05929  5.68377  6.53591   7.7653 -3.11874 -4.36488 -9.12506  8.99939 -8.29208  4.17221  9.21622  1.65938  5.67181 0.268744 -7.23894 -6.65769 0.935777
 9.48066  4.21331  9.95519 0.932298 -8.49941  2.12126 -6.73052 -2.41383  1.09104 -7.96862  7.58247 0.458817  7.25849 0.364663  1.35355  7.76144 -3.46079 -3.79549  -1.1167 0.935777
  1.22742  -5.97129   5.95591   -4.2296 -0.877808 -0.232427  0.760419   7.58428   8.98729  -4.32283   2.87694  -8.33102    -2.663  -6.02617   3.32726 -0.468682   5.58594   5.33699 -0.548111   3.86104
-9.55402  7.26066 -3.36027  -3.0425  3.38307  1.57963 -7.30967 -6.69746 -7.97297  7.27458  7.69362 -4.84422   8.8019 -6.75885  9.84601  1.90581 -3.32305    4.306 -0.76823 0.935777
 -2.38125  -7.81684  -8.16443  -3.21329 -0.750823 -0.137846   7.28339  -8.95834  -7.49319   6.00804  -2.67559  -9.89401  -2.06711  -7.79632  -4.21966  -5.18712  -5.54164   5.91647  -3.06406   19.0642
 -6.69457   7.54982  -6.50956   8.88649   5.91312  -1.26664 0.0668153  -7.94927  -7.73018   4.50514   5.68249  -1.08806  -8.82019   2.33961   3.81816  -5.45029  -3.38267  -1.04024   7.98324  0.935777
0.0283354 -0.566513   4.49754    2.3439  -8.25115  -7.43861   3.43326   2.29223  -4.51355 -0.468859  -3.56656   0.80235  -4.58664 -0.743035   4.53081  -0.25112  -1.84856  -8.10882  -6.53741  0.935777
  7.62138 -0.531173  -5.62708  -2.01132   5.48819   9.77173  -7.90984  -4.24573  -7.48613   1.32888   5.67264   -6.0433  -7.44468  -2.30963   -9.0762  -8.29013  -9.94292  -8.61996   3.23316  0.935777
 8.97419 -3.25581  5.27811 -2.11544  8.64948  9.90733 0.481537 -6.70436  9.44856 -2.75682  1.97896  3.75516 0.837001  -3.5434 -2.71161 -9.72296  1.10452 -5.80288  5.65701 0.935777
-0.392294  -9.07029  -6.59642   8.37319   2.86366  -9.92724    8.5306  -4.99676  -5.18051  -1.45519    4.5153  -2.28081   4.38374  -1.99568   9.29024  -1.75229  -9.80546  -1.79914   0.50466  0.935777
 -1.93581  -5.10655  -6.95578  -2.98889   9.33563  -6.47139  -6.63805 -0.176814   4.16639   7.98518  -4.72151   0.32617   6.07145  -7.56641   -4.3402  -2.02924  -0.53575   5.57322  -2.35261   14.0474
  6.83117   6.68538 -0.681449   4.36325  0.314858  -6.35742   9.90975   3.43767   7.50408   -7.9859    6.2091   -7.3701   7.50934    4.5373  -2.28578  -6.40789   8.26488  -6.78621  -3.69067  0.935777
 2.86462  1.10483 -1.26195 -1.65493 -5.43866  3.67236  3.61913 -6.02191  7.85927  -6.7899 -1.17822 -9.25115  4.65352  1.42309  7.04015   -3.303 -2.96895  6.11428 -8.96004 0.935777
 4.34564 -0.20429  0.85042 -7.53713 -3.10478  3.17022  3.48278  5.06217 -7.74413 -3.15787 -7.09264  7.25942 0.377999  8.04053  4.51205 -4.62816 -2.56097 -1.40783   3.2694 0.935777
 -4.56064   6.99651  -3.90256   7.50579 -0.268971   -7.2577  -5.84812   9.38236  -6.93625  -6.46581    5.8677   1.96256    1.8261   1.77051  -3.23576   7.83723   9.52535  -5.32943  -3.73845  0.935777
  -5.1926   -4.8734  0.321851   8.40446  0.794072   3.57559  -5.81997    9.8165  -1.25537   6.47215  -9.66966  -3.11152  -7.36187  -3.81733  -9.80027  0.857006  -4.18634  -4.19332 -0.524549  0.935777
 -6.78984   9.06893   5.63756  -6.88011  -2.55352  -5.75649  -6.24704 -0.594764  -2.62212   4.46261    3.2629  -8.21143   6.81902  -3.53921   0.36979   3.59467  -7.99109  -3.83343  -7.78931  0.935777
-5.67226 -1.32811 -7.12992  8.77716 -9.77842 -9.46675   4.6242 0.316356   7.9632 -3.75797 -4.28422  1.59244 -7.42753  8.43318  6.26914 -1.94373  1.92184 -1.42212  4.58247 0.935777
0.0388628  -6.37883   5.27768    -7.841  -3.78318  0.771126  -3.10439   1.21529  -8.83487 -0.868474  0.903198   5.05768 -0.235088   7.56696  -2.18094   2.95414  -9.80405  -1.17777  0.298863  0.935777
 7.25176  5.06764 0.352735  -3.7964 -3.95501  2.41004 -4.72249 0.107852 -4.15135  7.54589  8.06238  9.10475  8.99491 -8.08446 -5.97411  4.46163  9.01695 -2.92459 -4.79538 0.935777
    -3.78402      2.49386     -8.85642     -5.04836     -5.25553    -0.894496      5.10174     0.590491    -0.427008      5.47278      2.35173    -0.547962     0.809437     -6.20338     -9.09304      2.39876     -8.84833   -0.0249601 -0.000151766     0.935777
0.851422 -9.50438 -3.04395  5.82361 -7.83716  5.11853  3.65459  8.93627 -5.29397 -7.61598  7.58509 -3.94201 -7.68871 -5.10868  2.48045 -7.65862  8.72279 -3.13365 -9.22164 0.935777
 1.60579 -5.66461 -1.77004  3.53528  1.73395 -8.03008 -7.07047  1.38828 -3.45135 -5.20195 -2.13715  1.68849  3.32191  7.17235 -7.60727  5.46441 -1.02725 -5.81478 -5.33756 0.935777
  9.47411  -2.40873 -0.242028   8.45698  -9.64939  -1.58065  -7.76204   9.12968  -3.95641   3.31786   1.26371   8.04414  -9.46678  -5.80005  -4.58929   8.36746  -2.25406  -1.98281  -1.98897  0.935777
 -2.71807  -0.99571   6.84569   6.88346   1.23381   2.76335  -4.40254  -2.13711   8.51052   4.65993  -6.67378    3.7723  -5.50805  -3.25091   9.57512 -0.465067  -1.70351   -0.3522  -8.93601  0.935777
-9.42306  1.03589 -1.90416 -2.02769 -2.73825 -6.80946 -8.02795 -5.56806 -3.68919  4.34344 -6.84301  5.60554  3.19415   5.2036  -5.4837 -3.26519  5.88335  -6.8032  8.95639 0.935777
 -6.63332   3.12412   2.24846   2.31675  -2.76136   7.54975 -0.535964   8.59215   2.61618   9.14251   8.33838  -3.57448  -8.59833   7.40587  -6.67305   8.02328   -5.1828   -4.7087   5.85268  0.935777
 3.73725  6.04042  9.75509    2.438  6.90611  2.08975  2.28167  3.91016  8.35899 -8.12217 -2.70704 -5.47238  6.08989 -4.15316  4.26314  4.27788 -9.46039  2.20481  4.65388 0.935777
 6.96114  8.62343 -5.02787   6.2807  6.06992 -8.88133 0.130769  7.18233  2.75661 -3.85885  6.62157  4.43965  6.90679 -3.50124  4.21033  7.18797 -9.06199  9.06045  6.66872 0.935777
   6.5616  -5.91462   1.07415  -4.27378  -1.47228  -1.21383  -6.20556  -5.10711  -1.20816  -2.37594    7.7078 -0.174229  -9.29189   1.48818   2.93451  -5.32626   8.02234   1.10017   -1.6512   2.75238
 4.11508 -2.83966  7.77373  3.75386  8.57453  2.01719 0.701635 0.457599  6.62827  6.08121  3.40955   2.0647  6.97015 -3.96858 -7.80353  7.13044  -5.7752 -4.91149  2.77544 0.935777
  7.32218   8.08421   4.37835   3.83082    5.0176 -0.330884   8.09144   8.01077  -4.99631    3.1972   5.67618   1.47482  0.687895   1.93323   3.14103   1.60094  -4.44817   1.30752  -6.03082  0.935777
-9.01311 -3.56822  9.55132   1.2755  9.43305  2.35588 -3.26942 -9.03305 -5.54739   8.4195  3.09495 -8.48574 -1.78354  6.16967  7.82233   1.9965 -5.34423  9.27406 -2.14476 0.935777
 -6.64653   9.53643  -3.34043   5.67617   -5.1603  -8.43611 -0.868236  -3.59261   5.50365    -5.801   3.54485   7.80867   7.00819  -8.33102   4.69101   7.30817  -8.68991  -5.51634  0.179247  0.935777
   -7.2299    -6.7741   0.999749    4.16259   -7.07832    4.71386   -1.46418  -0.732027    2.79763 -0.0291393    7.98123  -0.877016    3.03361   -4.37162    1.09824   -8.17484   -8.20378   -9.35662    4.71275   0.935777
  2.50822   8.59714  -7.09001   1.70264   2.30332    5.7599 -0.983106  -3.58293    3.5956  -5.65036   6.48752   3.25832  -4.56146  -3.60539  -2.02325  -6.42322  -2.79731  -1.16679  -6.93946  0.935777
-3.02763  9.31386 -4.36096  9.65451  4.23834  6.02462  6.66773 -8.99056 -4.82828  9.62416 -2.93977  -6.8982  5.90947 -1.34298  3.99667 -6.61832  5.39805  3.10882 -4.21079  14.0264
  9.84728   8.49678  -4.70253  0.418973  -8.31698  -6.52829  -6.73518  -4.01303  -3.37864   8.35604   3.01426  -1.74641 -0.448324     9.164   5.25372   2.96728  -8.66827  -5.35005  0.162144  0.935777
 -4.85505   1.10849  -3.31653    1.8733   7.67443   6.35149   8.10978  -6.16393  -6.36631   2.10467  -1.30403  0.466568   7.72134 -0.656361   0.89982   7.83945 -0.427275  -9.91452   4.03481  0.935777
 6.57832  9.14866   8.8193  3.53854 -3.93024  9.51433 -1.46875  7.51746 0.770771 -9.06937 -3.03577 -1.14862  7.97993 -5.04829  4.73855 -4.93346 -8.34425 -7.21666  -2.8087 0.935777
 3.82552 -9.84041  8.03792  6.53417 -9.49202 -8.88415  9.30297 -8.62066  -2.3309 -8.40368 -9.90895  2.46727 -7.40623   5.5888  2.49766  5.54435  2.48152 -12.1567 0.407099 0.283707
 1.94046  4.49018  7.45875 -7.96837 0.710562 -10.4147  3.09339 -7.36696  5.84029 -80.1028   2.0869 -167.385  8.48302 -1598.66  4.00822 -7267.73  8.32483 -67945.8 -4.15083 0.935777
 5.43187  8.05777 -5.00643  4.93853 -9.78237 -4.82353 0.548424  3.95136  8.07085   6.7277  5.54953 -5.80264 -1.58932   8.4996 -5.70027 -8.81063 -5.32957 -2.28895 -5.24393 0.935777
0.680911 -5.45899 -5.15164  1.77235 -1.22154 -7.05131  4.81656  8.75087   5.1968  9.74561  9.20972 -9.82916 -9.92102 -6.50273 -7.25813  9.90328 -2.24881 -7.00287  3.99276 0.935777
 8.02438  2.89252 -8.33018   2.7111  3.98292 -1.91893 -8.48754  8.22342 -5.44683 -7.65859  -7.1166  7.93031  3.63825   -2.371 -9.66064 -4.08496 -4.86104 -7.11462 -7.24637 0.935777
 8.46772  7.93525  4.44149  2.61999 -8.78064  9.70575 -4.72462 0.554971  6.91085 -1.89486 -7.92323 -9.79017 -6.50031 -1.21896 -3.60223 -4.67441 -7.15085  3.71589 -3.32016  13.2731
  3.48438  -1.81908   7.11871  -5.20517   6.44908  -1.74105   5.38049   6.66755   5.99186  -2.00416  -2.40457    6.2141  -3.53032  0.151508   -7.6072 -0.280927   7.45874   1.98218   1.58737  -2.21067
 -2.85571   8.38103  -8.68505   9.76216   5.02344   8.92786 -0.795422   6.83919   7.72943  -2.00526   5.75688     6.998  -8.21692   9.46315  -2.55872   9.16439  -6.70224  -3.78183   7.36742  0.935777
 -7.45121 -0.451227   1.26965  -8.22387  -1.90791 -0.340878  -1.56837  -6.64173  0.141355   -8.4565   7.83077   4.60686   9.82419  -2.74791   -6.2514   4.36107    2.6498   -4.0348    4.2374  0.935777
 7.47588  8.43535 -6.29788  4.55049  8.96218  2.43812  6.18277 -4.03928  -6.8839  5.18806   6.3901 -7.04157  4.37273 -3.28324 -1.50086  -2.1774 -4.61329  -3.7994  8.64885 0.935777
 0.495143    6.8065   1.13138   5.18519  -4.29915  0.672821    1.8971   4.69257  -3.72355  -3.25679   8.42755  -9.49912   7.18744 -0.826149   4.13429  -1.59498  -5.70443  -8.12351   3.45842  0.935777
 9.99728  1.24752  7.42287  8.08616  8.49776  2.69304   8.9593  4.68968 -9.56623  3.52892  1.07526  5.43409 -3.23751  3.98388   1.2341 -1.91318 -0.29442 0.940109  3.57171 -2.42202
-8.93419 -3.68329 -2.05139  7.17687  6.55087  -4.2712  3.46261 0.483028   4.4381  3.90523    1.856 -3.94584 -1.99362  3.67824 -3.60381 -3.29517 -2.29737  1.67138 -3.95237   7.5417
0.465398  2.05226 -7.58685  1.43673 -9.66515  9.55376 -5.03182  -3.8618 -5.12386 -1.27779 -2.18881  -5.4945  8.22176  6.75156   7.5727 -7.15931 -6.44985 0.982647  2.80325 0.935777
  -1.68203    1.77705   -7.37371    4.26989    9.99517    3.26705   -2.49241   -2.58128    9.83489   -3.28204   -9.59826   -2.67096 -0.0307221   -9.28723    7.30056   0.529069   -4.87288    2.74684   -4.62395    1.71609
 1.05817 -3.32174 -4.94037 -9.32706  5.50704  5.90941 0.552253  3.78983  9.96914  6.25343  5.39188  5.05171 -9.17679   5.7775 -6.28538  4.96563 -2.85463 0.336808  7.08741 0.935777
 3.26905  8.03773  9.92907 -6.78283  6.01406 -8.08987 -1.19765  2.02474  5.81046  9.35274 -9.84037 -3.43693  8.41448 -9.22452 -7.26697  4.55731 -2.04829  6.88766 -1.82087 0.935777
 -8.04071  -3.80841  -8.15549   0.14724   -5.1858  -5.12979 -0.621346   8.83755   7.61534   -5.6572   6.73671   1.41059  -5.19041 -0.589075   2.09821    3.7658  -1.41709 -0.462906   2.96988  0.935777
 5.54153  4.90372  4.70848  3.09335 -6.97587   3.6252 -7.41532 -5.74897   9.3152 -9.14425 -1.00872 -3.95001 -2.49941 -5.39157  9.35216  4.83218 -2.43607  4.73351  5.66887 0.935777
  1.43928   8.50083   5.72484  -2.51239   8.28687   5.58469   7.93627  -4.85755   9.86701   2.64502  -3.28382   1.78554  0.257622   2.33099 -0.763073   2.31404  -8.03265   1.71611   1.46849  0.935777
  5.12652  -7.54215  -3.34443  -4.44407  -5.22984   3.25356   5.66167 -0.916904  -7.93218  -9.14487  -9.83365   8.25567  -3.35405   4.74263  -2.12147   4.54431  -2.46978     7.706  -6.70457  0.935777
  -6.5193     2.061  -5.13159  -6.83226   2.51811   8.99267   2.81329 -0.710676  -8.71562    8.4096   2.72874   7.77683 0.0558916 -0.136729  -2.41324   1.75559  -6.36322  -8.85617  -1.15841  0.935777
 8.99549 -4.44974 -6.66673  0.54361 -9.81342  7.20384  9.63826  9.37907  4.65748 -7.22689  5.34115  9.79263  9.54137  7.34992 0.162402  -9.5721 -3.10583  -2.1294  -3.6355 0.935777
 2.29475 -2.43871  9.81722  -7.6434  5.94678 -4.74288  5.67394 -2.05464 -4.83087 -7.98559 -3.14939 -5.72997 -8.87963  3.69372 -5.21042  3.80447 -9.44229 -2.35035 -5.59188 0.935777
 2.10773 0.630642  5.42271 -3.55833 0.337893  4.79212 -6.94481  4.65223  1.00443  8.59054 -5.12175 -4.05296 -7.74473 -3.23934  6.02304   6.4711  -1.3223  2.66843 0.718223 0.935777
 8.34972 -4.55966 -4.13232  -1.7746 -9.04243 -9.61901 -9.90979  4.81534  4.91688  7.90299  4.44823 -2.57012  7.90275 -1.78877 -1.93467 0.999427 -4.17685 -0.59204 -8.02284 0.935777
 -1.66253  -8.65671  -5.96211   4.51515  -8.06078    5.3297   9.60076   6.16655   1.78825  -7.23895 -0.775351  -3.61215  -8.25203  -1.15048  0.488163  -5.80922   2.20938 -0.592405  0.382734  0.935777
 7.17749  4.36353  2.59185 -4.11096 -8.01097  5.97099 -2.97818   -9.172 -8.01602  9.37606 -4.80464  8.79474 -2.03104  8.88374 -7.85992 -5.05147 0.701884 -9.75127  4.01845 0.935777
 -2.5465 -6.57285  5.12182 -7.95538  4.62261  9.56024 -9.71106  9.01409   4.2406 -4.85804 -6.76344  3.00389 0.960976  1.18441 -6.68079 0.300037 -2.19397 -2.11083  3.18855 0.935777
-5.89231  4.17272  8.10799  -2.8781  8.08875 -9.29401  2.21673  3.29071  2.17014  4.66234  4.48603   8.9871  7.06439 -2.38875 -9.58143  5.53986 -7.17464 -2.93799  5.95411 0.935777
  2.65667   2.49531   4.05356  -8.92977  -8.05085   2.82682    1.2937  -8.81436  -3.46503   4.35298    3.4681  -2.26222  -8.80747  -1.01853  -9.71401 -0.245944  -4.99541   4.55625  -2.21533   11.0294
  6.62558  0.522354  -1.09153   3.03409   3.27463   8.97547   8.00219  -4.85933   1.24301  -9.34012   8.79624   9.34429  -8.40946   7.99816 -0.657722   5.75004  -4.82526  -8.41747   7.22755  0.935777
 -1.79844  -5.67038    0.7795  -7.62013   8.73641   8.72915  -1.21792   9.86051   3.65941  -3.23167 -0.674829   7.10645  -7.87859   1.90452   1.89929   7.52079  -3.23909   1.38251 -0.561424  0.935777
-0.200924  -6.73147   5.47345   1.05617  0.886711   3.82039   7.95962 -0.970295   9.00046  -2.78353  -8.18224   6.46467  -3.48749   5.16451  -8.08755  -9.14255  -3.66494  -8.52495   9.04845  0.935777
  9.2693 -1.43106 -1.81297  7.87828 -2.17181 -6.24356 -5.84569 -4.82638  3.78362 -9.60056 -2.91864  2.66818 -8.75594   2.8324 -9.15788 0.970216  -8.6436  8.31913  4.04865 0.935777
 -3.98219  -3.48997   7.85617  -6.61848   6.59848  -1.43226  -6.66225  -2.97426     2.939   8.37178   -8.6382  0.885657   8.24003 -0.240138   5.46316    1.0146   8.74701  -9.25188  -2.86587  0.935777
    3.73611    -7.03313    -5.38795     2.57536    -9.34899    -4.29033     1.30307    -6.28038    -2.56512    -2.54964    -4.62511     7.23067     9.56901   -0.456927    -8.21942    0.429164    -7.80933    -4.80638 -0.00450058    0.935777
 -2.21828  -6.87512   6.82355   2.71121  -8.34557  -8.52172  -8.27594  -4.98832   5.28914  -2.27484  -3.91516  -6.00796  -7.17486   2.38731   2.49047  0.219792  -8.57561  -1.55511 -0.477396  0.935777
  -1.5603  -1.53449  -7.98695   -4.9139   3.67759  -5.53068   2.27022   7.32488    7.8704   -2.3087   7.33188 -0.116543   1.71727   -5.7158  0.447257   9.62851  -5.86674  -1.20916   4.38387  0.935777
 -9.36022   7.68995   5.78987  -6.08496   5.22787  -2.54043  -2.92415   7.77069   4.40586 0.0132458   2.75078   9.33029  -6.27811 -0.938469  -2.30389  0.119606   7.87142   -3.1461  -3.94357  0.935777
 -9.17441  -6.58748   8.63136  -2.69263   8.03421  -7.14828  -9.49563  -8.21537  -4.03799  -1.48298   9.60594  -2.55081   0.35709 -0.958465   8.40196   8.09742  -1.77108   4.62539   3.14777  0.935777
  6.16238  -9.14621  -6.96078   1.32863   5.39512   2.10763  0.465542  -6.10537  -3.41259  -1.91551   -6.7028 -0.211186   2.03458   2.00001   9.98625   4.79378  -6.13453  -9.64768   4.99155  0.935777
-6.86328  9.07821  5.59846  2.56443  4.22621   2.0139 0.866193 -3.61603  1.39848 -9.45475 -6.50692 -9.02139 -1.85462  5.14682  8.07139 -8.37212 -6.80883 -7.99829  8.73448 0.935777
-7.66645 -4.83867 -7.21127 -6.93768  8.76724  9.83647  1.63465 -9.56574  8.60644  -8.9235 -6.42526 -9.25342  5.51201  6.61556 -1.46605 -6.15726  6.17719  4.79418  3.64597 -16.5436
  8.0951 -3.17017 -6.21893 -3.95612  3.47667 -8.73685  9.04344  8.98797   1.0539   9.1839 -8.34419 -2.82916  5.80764    2.322 -6.99821   7.2975  3.91034 0.679719 -5.54869  4.70733
-9.67938 -8.66858  1.10658 -9.86671  5.29981  7.96649 -5.03828  5.21251  8.32593 -6.76104 -8.29431  -1.5806  -2.4487  5.04783  4.47341 0.668451 -8.19909 -4.79108 0.292081 0.935777
  7.09301  -9.22421 -0.179341  -6.03094 -0.206341  -2.54519  -1.40599  -5.08969  -6.68099    9.0482  -8.46418   1.89438  -7.02306   4.04664  -1.03314   1.40832   2.54364   -3.2428 -0.493765  0.935777
  4.25316  -3.86234   3.45681 -0.138461   1.35885    -9.512   1.63796   8.13801  -3.29245  -1.11417  -3.22813   5.96652   7.43807    8.1459   5.88372  0.532489  -9.59577  -8.32331  -4.35333  0.935777
  7.26698   1.52084   2.94561   -6.6511  -8.68031  -4.39121  -1.11583  -7.93706  -1.55252  -1.00121   -7.1102   0.99074  -7.29869  -1.54422   -6.6826   8.05523  -3.44388 -0.976248   1.79197  0.935777
 -2.32208   2.94871   7.25546  -4.44207  -4.23383  -2.44503   -4.0563  -9.75783  -4.31836   2.38344  -1.17757  -4.72593  -1.37944  -8.76198  -6.98796   3.27005  -2.97792  -4.31881 0.0707753  0.935777
 -1.20206   2.67378   8.02526   7.26569   6.90427 -0.184499  -8.59331   -5.0559   9.89529  -9.70499   3.68837  -7.64324   3.01088  -3.63698  -4.33501   -4.9093  -7.70991  -9.41754  -2.88792  0.935777
  5.27487  -2.04421   9.85091   3.46773  -2.73201  -7.71428  -3.57273   6.94412 -0.407943   9.82427  -3.22465  -7.72758  -5.81896   4.17723   3.60353    9.9941  -3.64962  -2.84046   2.87705  0.935777
 -6.21901   8.88631   8.41078   5.08656   8.39243  -4.98447   1.55205 -0.875965 -0.091851    9.8009 -0.882105   4.09463  -7.64979  -5.35678  -7.25235  -1.00127   2.89207   -6.1713   6.68688  0.935777
    -5.21722      1.07237      5.15908     -8.15009      1.26767     -4.24754      4.16089     -1.20588     -5.07305      1.05562     -3.31876     -7.08394     0.513552     -9.77778     -9.43034     -3.91088     -4.48536  3.95324e-06 -1.62454e-05     0.935777
  4.3353 -4.25956   4.5987 -5.01733 0.611997  9.38565  3.63678  4.99946 -6.12477 -4.28865 -9.57273 -2.59587 -1.50605  4.71175  5.49895  1.06058 -9.81055  6.62612 -5.56676 0.935777
  5.72647  -1.99556  -1.47611   1.26077  -3.09432  -3.35449  0.524521 -0.390312  -3.29462  -2.60986  -5.92443  0.915435   3.54435  -0.23679   7.72418  -9.38226  -9.11764 -0.240011  -6.40861  0.935777
  7.80667   5.38584 -0.637065  -8.73843   3.15767   -2.6716  -6.57071   2.99539  -8.95362  -2.26826  -6.00235  -4.80762   6.99741  0.659146  -4.16682  -1.32006   1.75913  -9.88333  -8.75287  0.935777
 -9.24012  -3.84835   9.00842  -9.92652  -5.02095 -0.551734   -2.3026   5.98564    2.8631  -1.94472   7.69367   8.97405   6.61608   9.99084   1.89553  -5.66943  -7.45689  -4.81585   1.04642  0.935777
 -3.14685  -5.47446   2.63529   8.75363   5.90803  -3.90889   7.58244  -7.58376   -2.5966  -1.41743  -2.17896  -3.18914  -8.26649   1.45622   3.71556 -0.179131  -2.03299   3.73909   -7.7797  0.935777
-3.95528   2.7073 -1.98624 -1.47359  4.30917 -7.35317  1.00239  6.69965  9.74197  3.73268  9.31237 -9.35465  6.96849 -8.66056  -5.6123  3.36916  8.02551 -3.41113  2.41511 0.935777
 -8.73472    3.5395  -8.79692 -0.243167  -6.08762  -5.94297  -3.35605   8.93524   6.96748  -2.62679  -2.71469   7.09435   8.35641    3.2117   4.81509  -3.48484  -5.82703   8.07328  -8.26898  0.935777
  3.03447    1.7311  -4.64899   8.32259  -3.74109   3.01601   7.61311  -9.05591   9.98537   5.31919 -0.808349   9.64525   7.72424  -5.63037 -0.250013  -8.01361    6.4786   3.54056  -5.03472   18.7615
 -8.24932  -8.74705  -7.09123   7.75189   8.47346  -8.84532  -8.58481  -5.39893   2.70881  -3.37894  -2.55236 -0.315744  -4.20051  -2.99821  -2.62163  -4.95231   1.43032    -5.819     8.544  0.935777
 5.84385 -7.12747 -5.00864 -3.50457 -6.56398 -7.13938  1.91677 -4.30999 -1.06438 -4.15222  5.85087  2.09714  6.29686  5.09479  8.26827 -4.42674 -6.02058 -8.13542 -7.99215 0.935777
 6.16677  1.37979  3.78704  -1.4504 -8.22054  4.66478  1.99315 -7.23861  5.28052   7.6604 -6.36405 -5.59039  8.46713 -1.49318  6.31004 -2.08187  6.26229 -3.44846 -7.63877 0.935777
-8.60387 -4.05843   4.7389 -1.83533 -2.60806 -4.90485 -7.66753 -7.30596 -5.20759 -4.13416 -1.60805  6.99651  9.95611  8.86335  -5.2724 0.823972  6.17217 -2.13384  2.53169 0.935777
  7.9143 -1.68587  5.63669  2.99974  5.21877  -30.686  5.74997 -240.247   5.0531  -1475.6  5.01582 -8728.13  1.70067   -17435  1.03183 -21061.3  8.59764  -210727  -7.0366 0.935777
0.102386  6.06049    6.967  5.51901  3.20291 -1.94137  6.81739  8.09842 -6.62342  7.08351 -9.08431  2.80486  9.54204  3.02987  8.67904  2.05511 -4.93209  -1.2895  4.80783 0.935777
-1.62387 -2.01141  8.67781  9.75827  9.08095 -3.99477  7.62377  -6.3999 -5.23717  9.24694 -7.18662  9.67249  4.21684 -2.76666 -6.55614  5.41773 -6.60503 -1.08662  6.22889 0.935777
  1.82891  -6.49405   1.07846  -7.44557  -7.66362   4.55962   3.58745   4.80454    -4.194   -2.5574 -0.754011  -7.48141  -1.33175   1.01706   1.37011   7.48995  -1.34619   3.38023  -5.36507  0.935777
  1.87945  -6.50076   8.72512  -1.53201   2.38885   2.26975  -3.77929  -2.49663   7.34799  -8.25293  -8.62877  -6.45224   -9.7436  -0.63081     1.871  -2.56694 0.0909876   7.37944  -1.19482    9.7529
 7.63272 0.024065 0.683685 0.140267 -1.14444 -1.38276 -7.31342 -7.85188  2.91608  5.82297 -5.98511 -2.70782 -4.66178   8.1512 -1.43531  8.39193  5.90075 -7.03463 -5.15876 0.935777
   -5.5743    4.69883   -1.87322   -7.19431   -1.76882    -1.4648    5.39064   -4.53073   -2.57376    4.50829   -1.38896   -6.14786    -4.5317    4.41914  -0.939199   -7.52201   -3.00495    0.45147 -0.0922926   0.977445
0.0878963  0.486656   8.81001   1.50565  -3.27826   9.32961  -8.02718  -3.99687  -3.94123  -6.84071   2.95877    9.0564  -4.55112  -5.94257   5.55698  -7.54448 -0.608374  -1.30519   1.57955  0.935777
 -9.77312   4.74155  -5.13351  -5.20943   6.71962  -6.31265   6.59679   7.54172   3.56949   7.37956  -5.53046  -4.26155  -7.18353   8.84907   2.34359  -2.07946  -4.76106   9.48531 -0.298024  0.935777
 -5.89193  -8.43811  0.997172  -2.87461  -7.52903   5.02479   3.69703   2.06054   4.44428   9.80849   1.92248  -7.50121   1.08141   4.67978   5.20488  -2.59695  -4.74875   1.32009 -0.004769  0.935777
 -5.37576    2.3274   4.90226   2.41123  -4.48478   1.07773    7.3535   4.20796  -2.26373   5.23321  -1.81052  -8.31105  0.418067   -2.6495  -5.49703 -0.451577  -5.93574  -2.63025  0.851375  0.935777
   2.0332  -6.75986   9.48263   7.31176  -2.47376  -3.39534   0.95822   3.78565   1.46015   8.68086   9.65041  -2.67509  -1.51342 -0.896003    7.1198  -6.43844  -7.02182  -4.87426   3.75275  0.935777
  7.97284  -4.95925  -7.31626  0.646615    7.6113   6.97792    4.7455   6.64641  -9.93219   3.72528  -8.47071    9.5718   8.41879   3.15466 -0.860016   1.32701  -7.57214  -7.35495   2.53909  0.935777
    2.70867     8.67051    -9.23468    -3.15015   -0.232177     9.06999    -2.60729    0.777564      5.8901    -7.54793    -6.82491    -4.21694     8.08091    -3.81298     2.18676    -8.78461      4.7808 0.000783856  -0.0323438    0.935803
-6.99945 -7.06675  -7.6326  4.82223 -4.15712  -5.1601 -4.65329 -1.44024  4.59638  1.60484  2.76456 -3.39066 -1.34263 -9.87277 -4.91924  -6.6871  -4.9041 -8.89493  9.58062 0.935777
  5.15091   8.12156   4.24826  -7.12067   4.76083  -2.36212  -3.34777   1.54797   8.19943  -2.94123  -1.38542   9.08305  -5.41119  -3.78922  -5.46677   8.61366 -0.905481   1.32743   3.79198  0.935777
-3.99311 -8.76746 -6.38341  1.44336  7.37237 -3.60072 -5.25805  -2.2491 -1.66589 -6.68859  5.53499 -8.17054 -9.62887 -2.73332 -1.32337  5.47832 -3.31082 -9.50381  -7.4379 0.935777
  7.91106   4.44437   7.38792  -9.51435  -3.13743   -1.1311   7.65059   3.12038  -8.23971    3.5156 -0.185557    9.0045  -1.28471  0.726139   3.80897   9.79619  -8.95064  -2.86831   4.32478  0.935777
-5.47331  5.70116   -3.446  5.14718 -3.88025  -7.3827  6.79102  1.56602 -1.82279  4.95864  8.38752  6.68403  -7.6999 -3.45496 -7.85046 -7.43267  9.93137 -6.01392 -4.13158 0.935777
   3.32925    3.02768    4.23386    9.70293   -1.27417    0.72867   -3.38774   -7.84952   -7.11397    8.90342   -6.06192   -6.38993   -8.98463    -2.9011    4.76447   -7.30731    6.34272 -0.0574755    1.91971   0.935777
 4.75319  9.39199  7.10572 -1.02351  2.49543 0.995374 -7.34827  6.72249 -1.91075   2.5708  5.30169 -7.89396   4.0814  5.68885 -5.14164  6.16974  1.84601 -9.20721 0.366005 0.935777
 9.15681 -6.02616  7.01644 -3.23139  -3.9429  5.39332  1.53871 -3.53248  9.56791  8.44342 -4.46368  -8.8027 0.722982 -9.49775  6.55308  2.06036 -8.59826    2.848 -6.73885 0.935777
  1.83395  -5.76376  0.217786   4.67376  -4.90192   8.10674  0.133289  -3.64365  -1.41393   4.44055   5.65486 -0.245321  -9.26609   4.92973   1.95389   4.30502 -0.371637  -2.09891  -5.35083  0.935777
 -5.70957  -7.90387  -4.78372   6.44467 -0.187427  -6.63071   8.83192 0.0568015   5.72947   1.58018  -4.35109   1.93701   4.61745   2.30219  -7.68938   3.57013    2.6574   1.05929   3.49036  -2.76152
    -2.546    2.62815   -8.56214   0.735958   -9.13737   -1.66189    8.07225   -8.61098     2.2971   -6.19675   0.810768    2.81394     0.4934   -2.70253 -0.0865699   -5.16501   -3.85235   -9.18552  -0.062445   0.935777
    8.8572 -0.0924169   -7.74226   -2.26762    4.06285   -3.56991   -5.19265   -9.21387    5.60993    7.79805    1.61507   -2.99351    5.47735   0.645646    5.80709    3.73646   -8.25619     1.6604      2.346   0.935777
 -3.91512   -1.3156   1.09534  -7.87212  -5.43021  -4.74976   0.72109  -4.89801  -1.80312   6.13852  -2.19692   2.69794   7.15375  -9.58978  -5.02863   8.89641  -2.69146 -0.984834    8.9605  0.935777
 9.88982 -5.27827  2.76959  9.47642  4.92982 -6.67797  8.43819  3.17143 0.079307  8.23814 -4.00159   3.6042 -4.05804 -3.41978 -6.72914 -8.45274  3.09516  3.69748 -3.38582  13.4548
-1.10394 -1.73586  -9.2908  1.06922  5.48052 -8.58451 -6.30244 -2.36208 -6.30412   8.9866 -1.99201 0.353471 -3.69003  6.47042  9.30462   2.5451 -4.13223  1.68749   9.4518 0.935777
    7.112  -7.70673 -0.313124  -8.97613   2.15493  -8.68154  -1.27929  -6.52631  -8.05359   2.75161   -2.2103  -5.35178 0.0616927 -0.140443  0.611294  -9.32985  -7.40393  -3.06226 -0.421176  0.935777
 -8.13905  -1.10864  -8.58849   3.49804  -1.05308   6.10185    1.1994   1.51319  -6.42133  -3.95965  -2.06078   1.68211   8.86535 -0.609219 -0.686471  -6.03263   3.25979 -0.293098   7.94409  0.935777
-3.33662  7.30631  6.50905 -3.34879  6.30859 -3.77195 -9.64977  2.34313 -4.69153 -8.16879   1.6052 -6.95241  1.12832  1.78243  5.18544 -6.21197  1.84522 -5.67289  6.72027 0.935777
 -4.35057   4.10987  0.466495  0.359809   8.19593  -8.35046   4.69579   7.86559  -8.54587   3.74656   7.31343   4.23456  -2.69524  -8.20013   8.01471  -3.37107   1.27158 -0.512509   2.09989  0.935777
  0.45194  -5.56785  -5.37286   3.79018 -0.977328   8.39134   1.26045   9.28204   7.49061  -5.27956  -8.86213  -9.67106   7.98896  -7.17658   5.93003  -7.00152  -6.51787   2.39378  0.753874 -0.868829
  -8.3671   4.09689    8.4898 -0.557535  0.622535   9.32791  0.773501   9.60725  -8.57358   3.76287   5.72474   9.38353  -3.00509   7.69649  -8.49465   5.22179  -2.06449  -1.52736  -1.62484  0.935777
 -7.91443   5.03559   5.21134  -6.91423  0.799828  -3.40639  -2.45456   5.53999  -4.89481   4.31053 -0.628953   7.84677   9.60281 -0.191295  -8.98998   7.37873   4.97446  -2.87007   6.60306  0.935777
 1.92393 -8.39437 -7.06414  2.69238 -4.09258  8.15932 -8.85511  7.63706  2.00872 -9.34081 0.210726 -3.38321 -6.17845 -8.08798 -1.92775 -1.75138  8.85172 -7.98993 -2.01651 0.935777
  -8.61993   -8.55354   -8.01082  -0.453077   -1.43802 -0.0803719    1.53838     -9.965    5.00164   -9.83719    4.96257    6.83138   -9.11973    2.42048    -2.1667   -8.02807   -2.03189  -0.031237   -10.5778   0.935777
-5.49196  7.72349  -8.2179  9.63976  8.75131   -2.953 -8.54372 -7.59433 0.156118 -2.07249 -6.86851   1.5144 -7.60697  8.21516  1.47618 -8.17724 -7.80016 -7.01496 0.848807 0.935777
 -3.56323  -6.55654  -6.62423   3.78934   1.69513   6.23276   4.91485   6.07131   -2.6612   2.95199   7.96795   8.39524   2.23522   9.15439   -6.8496 0.0624774  -7.72171 -0.893524  -9.86778  0.935777
  -0.99347    -4.9187   -5.22886   -2.92116  -0.870083   -3.86517   -5.01185   -5.84456   -3.24969   -9.62703 -0.0835115   -9.26476    9.02224   -9.14432   -4.39492   0.852443   0.349666  -0.366006    7.31979   0.935777
-3.85678  -6.5393 -3.88518 -9.97859 -3.72481  -1.5816 -4.25283  -5.4575  7.72885  9.55787 -9.10549 -4.41122 -1.17438  0.93837  1.03416  9.52512 -3.40584  2.79263  5.40595 0.935777
 -1.39687   5.36235  -4.31607  -8.40239  -2.05399  -6.78509    8.0454   9.38303   6.16389 -0.177523  -7.66646  -3.23431   9.73204  -2.13714  -6.30899   5.21937  -4.37729  -6.37099  -9.03946  0.935777
  8.3872  0.98334 -7.99087 -8.25549 0.293599 0.921863 0.846499  7.17707  3.65336 -5.66127 -8.98547 -2.30815  1.00714  1.41353  6.63213 0.395379 -5.29338  5.29595  1.50321 0.935777
  7.88999   7.91109   6.26477   7.40005   -8.5511   7.25977  -8.96479    3.6094  -3.82054 -0.630966  -2.31974  -2.37052  -9.67124  -3.43277  -1.59628   6.41133  -5.98987  0.122693  -8.54459  0.935777
 2.34433  6.56303   9.5471 -2.27143  1.07514  9.85297 -8.10584 -7.08332 -8.45032 -4.84039  3.92238  -2.7791  0.63817 -1.35666  3.02311 -3.92397 -5.21218 -8.35563  -3.2503 0.935777
  -7.0267  -7.50281   9.88537   9.24337   4.22247  -9.84564  -4.69876  -4.40343 -0.845443   1.94401  -1.48582  -8.58788  -4.00174   9.03316   1.38242 -0.926102  -8.63595   1.78967   7.21551  0.935777
 -6.44705   -2.6179  -5.24958   6.76694 -0.177998   7.08653   1.19162  0.190757  -8.16118   2.23508  -5.48098  -7.97966    8.0271   -3.0388   8.80361   5.11686  -6.83188  -9.24818   9.04611  0.935777
 -2.85865  -9.83681  -6.68329    4.7109  -8.77898   2.02824 0.0994814   7.20731    8.0829  -1.65275   4.56627  -4.23604   5.34572   7.83121   8.11287   8.79833  -9.85805  -3.85316   1.81898  0.935777
 -6.34074   5.00824   4.35452  -3.79854 -0.527813   1.20794  0.751515   4.73154   9.11695  0.589676   3.51973  -7.08972  -9.82292  -3.92703   8.25822  -9.40746   5.96629     2.196   1.51213  -2.38486
  3.32931  0.220094 -0.279501   6.36797  -6.15721  -4.32752  -6.04928  -8.23578   -7.3383  -2.43555   5.75873   9.84989   5.54529  0.654127  -8.94434   8.81214   7.74715  0.264973 -0.343167   1.02671
 7.08583   9.1223 -7.69322 -8.50827  5.87926  6.28316  5.65021  6.50573  7.74287 -3.75536 -8.18968  9.06296 -6.90005 -7.24217 -6.67399  2.58725 -7.13391  8.57005  6.89104 0.935777
  3.36412  -5.83165   4.29008  -3.61803   2.24893  -4.66755  -6.14949   1.88592  0.274643  -5.97005 0.0550512    4.3688   6.74964   5.91835  -3.93232  -9.50748  -9.88233  0.351296  0.668205   0.70104
   5.9077  -7.90025   2.42612 -0.533938   -2.7155  -4.66239   7.78993   0.82995 -0.816037  -2.27593  -6.86492   8.03841   4.82666   2.06253 -0.766947   1.37392   9.87451  -7.17274   9.21377  0.935777
 -6.74074  -2.38985  -2.86327   4.18535   9.94288   2.13714   6.74399   8.72563  -9.71761   -5.7323 -0.957507   -1.3298    3.1613   9.14507   3.20858  0.905759  -1.60876  -9.46765   1.66924  0.935777
-7.68168 -3.24495   5.3253  5.13314  7.03794  9.87152   7.6558  2.61873 0.159107  3.59488 -7.20951  4.52709 -6.36849 -4.89968 -8.51648  3.59537 -6.94887  7.03308  6.43444 0.935777
-5.15757   9.1651 -4.55582 -8.90621 -3.56621  7.24336 -3.24231  5.93002  9.62747  2.05592  5.95276 -9.99079  6.30425  1.87516  4.70683 -2.51765 -9.91281  7.67667  4.86642 0.935777
   6.7096 -0.918773   3.87314  -5.49605  -9.20071   8.02005   4.63213  -6.36589  -9.83217  -1.04215  -5.15215   1.19238  0.381686  -1.86078   3.35098   5.05147  -9.01745  -4.37104  -1.20414  0.935777
  1.43831   5.15507    4.2124   9.29997   9.22003 -0.928962   4.05289  -4.99804  -7.05788   2.56708  -5.18622   2.14718  -3.39998   4.27999  -6.62381   3.99808  -8.25045   3.79675   6.74296  0.935777
-3.23558 -6.51593  -7.2819  2.65335  7.92025 -6.79397  2.44166 -4.35247  2.14588  2.28926 -8.77055  8.40696 -5.63071  8.47821 -4.61935 -2.48882  5.86427  1.44276 -1.89062   3.6635
 6.91103  9.76531    8.397  1.08404 -3.34271  8.18699  2.47469  5.52313 -2.54235 -8.45197  4.30425  3.96989 -8.15769 0.743688 -5.91292  7.25806 -4.82384  9.80455  8.36775 0.935777
 3.89968  7.63436 0.293131 -9.65494 -8.23106 -0.38453 -6.87594  -0.8217  2.95942  1.81174 -8.30733   1.8438 -6.44437  2.78064  2.19622 -8.80731 0.065777  3.66061 -1.46157  6.28601
-0.632895   2.07274  -1.15754  -5.48322   3.17471  -7.24043  -7.97054  -2.30633  -3.03788  -3.31445   6.40094   8.99804  -9.62137   -9.9834 0.0500022   5.61745  -5.33895    5.9141   8.13694  0.935777
  -6.7392  -8.85043  -1.84058  -4.40567   9.34813   8.23913  -2.69696   8.81198  -1.79714  -2.44298   0.35177   5.76038 -0.272037  -6.18956  -7.11038   -3.1217   7.95569  -7.13854  -0.28913  0.935777
  8.08475   3.80102  -4.77614   3.95021   2.89327  0.988875   4.98061   1.91123    2.7963   2.53418   0.26484  -9.46714  -7.62604  -3.01493  -4.70405    3.9013 -0.967198  -7.70516  -7.91628  0.935777
  -5.3045  -5.13704   9.59887  -9.47325   0.11171   8.58127   3.03913   3.17958  -9.23129   5.79282   1.75215   5.00503  -3.56442  -1.66853  0.528961   7.41333 -0.725023  0.293053  -7.61698  0.935777
0.767854  4.11811 -7.47089  9.96475    1.022 -1.91623  6.53204  9.72589  -7.7272  8.03814  -7.8187  8.81895  1.11937 -8.84111  5.15156  5.90927 -4.08771  4.60622 -5.50028 0.935777
  -7.10163    4.10869    8.93892    6.50571   -1.93708     9.6524   -5.46006    8.85902    5.28713   -1.93721  -0.588672   -9.65987    7.69952    1.27016   -4.88428   -9.34366 -0.0737006   -2.44016    3.04453   0.935777
 4.66246  -1.4993 -8.58333  9.92389 -6.45116 -9.41107 -9.20955 -9.15643  2.91452 -2.65639  3.56768 -2.45503 -7.76895  9.82522 -1.57705  7.70561  6.38644 -9.13507 -7.21463 0.935777
  7.92075   1.32525  -4.67401   8.73874   8.90119   4.43968  -5.89657  -8.84006   2.97494   2.04703    2.5207  -4.26137  -6.63433     6.724  -2.84555   9.97684 -0.602706 -0.493576   7.71465  0.935777
 0.228961   -8.0267  -4.96509  -9.66835   5.07058   -4.4335 -0.601385  -2.79492   6.50947   1.72134  0.722897   7.86906  -2.25331   -4.6475  -6.32012   2.63748  -9.31688  -5.67449  -6.63431  0.935777
-7.25144 -2.35676 -8.49059 -8.43474  8.97277  -2.5369  3.60113  -5.4156 0.475247 -6.12898 -7.54633   7.6112 -4.35366  1.46788 -8.23844  9.85844  -9.6954  9.22866  8.93298 0.935777
 -8.04168  0.956565   9.97643 -0.194684  -8.64565   -2.1638   5.07698 -0.409608   8.71159   -3.0617  0.108559  -6.15128  -9.37595   -1.4576   7.55503  -9.04729  -7.48236  -6.64111  -3.60138  0.935777
  6.2976  5.71566 -6.47534 0.138746  7.48445 -7.27373  7.35025 -2.66934 -6.92435  6.74948  8.02793 -7.99095 -9.63629 -6.12777 -8.78995 -6.10875 -8.05822 -6.11051 -4.46303 0.935777
 -8.70256  -5.13919  -2.78726  -7.81782 0.0813532   0.19555   1.62744   1.89689   9.06474  -6.39118   6.56066  -1.69615   3.35213 -0.866681  -9.17555   -2.9737  -9.30482  -4.72445  -9.52686  0.935777
  0.107514     1.1076    6.93299   -3.19466   -9.02058    6.32387   -1.49585    7.14617 -0.0702233   -5.51133   -9.36115     7.7645   -3.87373    4.93136  0.0770384     6.2911    1.61958    3.27766  -0.211341    3.78183
   2.65428  -0.595237  0.0540127 -0.0914142   -6.87302    -6.2112   -6.99817   -1.79344   -4.05565   -1.66751    2.46758    7.90863   -4.27491    -5.5854   -3.17101    5.61931  -0.461497   -5.85778   -8.16166   0.935777
   5.6472   6.37836  -1.72299  -2.18656   9.20783  -4.44169  -3.39916  -5.49322  -9.58023  -8.81687  -9.02447   1.23713   9.03971  -1.66726 -0.246069   3.76617  -5.76152  -7.45955   7.74279  0.935777
  -1.75988   -6.69884 -0.0138955   -4.56215   -8.52017    -6.4534   0.692551    9.19343   -1.76959    8.91118   0.305415   -1.09053   -9.01355    -5.4111   -9.85888    4.16289    -4.2758   -5.16662   -9.26715   0.935777
0.0654794   2.38098   3.54067   5.28525  -2.97723  -8.56801   1.86868   7.91593   8.53638   2.00302  -4.18528  -6.84241  -5.19349  -8.81234   9.46987   6.50497  -6.43131   8.14764    7.2816  0.935777
 3.49378  4.43888  -3.6319  -1.2854 -8.48547   3.4219 -4.37418  -7.0383  7.64791 -6.49042 -1.63409  2.85238  -9.9845  9.62445  3.71286  7.52613 -1.64661  5.54515   4.6991 0.935777
  1.44735  -5.34628 -0.217693   8.82533  -5.80811   5.32289  0.120593  -2.69061   3.60041   1.69838   -1.3346  -1.23622  0.455352   1.09955  -1.94933  -6.64771   -9.9879  -4.83601  -3.11471  0.935777
0.0262089   1.07887  -1.87754   2.33633  -4.04779  -1.22334   5.81489    1.4822  -9.60326  -3.23862  -4.97055   6.87391  -7.05887  -6.51419  -2.02076   9.69828  0.104675  -9.14258   2.84678  0.935777
 -5.97402  -7.16126   0.80429    9.1262  -8.18191   8.99771   8.69482  -7.40668  -5.74433  -7.16829   -6.0147  -2.55819  -2.64508   4.54242   5.23227   2.17673 -0.894545   -3.0597   2.82117  0.935777
 -1.90366   9.13655   4.56174  -6.16933  -7.32068  -6.50079   1.72605   5.48339   8.20644   3.28433  -1.61059  -8.55148 -0.755802   5.35515  -7.42384   8.32988  -5.42532  -6.00603  -5.39393  0.935777
-4.84352 -1.77564 -2.94432   1.7165 0.174652  7.14955   1.3662   6.0142  2.46253 -6.92692  8.98903  8.60986  6.03429  2.23277 -3.90445  -2.8276  8.64743 -2.85707 -2.96652 0.935777
 -5.88669   9.50997  -4.98726  -5.50625 -0.091134    4.8982  -9.07105   9.03047   -3.6468    -9.041   7.56928  -4.89331  -7.36412   2.98298  -7.88016    6.5712   -8.2004  -1.50512  -1.90579  0.935777
  3.78704   -2.1185  -3.18816   3.32489   6.10968  -7.93723   4.16337  -4.49957  -1.06836 -0.869537   8.78358  -6.84664   1.50289   4.13661  -3.32679   -8.4965  -4.67029  -2.30848   8.68416  0.935777
  5.92742  -2.91159  -2.76703  -9.54454  -1.32293  -1.32632 -0.278098  -4.64986   9.23445   -5.9783   2.22807  -3.58754    9.0722  -1.31718  -6.11661  -7.57431   6.92698  -2.95886  -1.27093  0.935777
 9.37046  2.95825 -1.70866  2.36924  9.22849  -6.4833  3.08167 -3.51162  8.12681 0.283307  -9.7654 -3.05485 -3.23307  9.65162  4.35687  6.37523  -3.9396 -6.53455  8.94477 0.935777
  3.13188   3.92794   8.98612   7.98034   1.96348  -4.59966   5.82766  -3.96348   -3.3229  -4.75305   7.21329  -3.57441   6.44444 -0.793029  0.754359 -0.447983  -6.57193   4.43113   1.97647   -7.8222
 1.33022 -7.83954  -9.6948  -0.3527 -2.12921  4.18455 -1.59794  5.98838  2.23126  1.48276 -8.77422  3.31972  0.62679 -7.86891 -9.85426 -3.59164 -9.27535 -2.03758  3.21468 0.935777
 -3.87573   4.04074  0.124524   6.78198   3.78734   9.93755  -1.56363  -1.19729   9.40169  -8.55585  -1.64022  -0.13221   1.79266   6.06261  -7.87983   -4.9172  -6.42925 0.0449177  -1.28372  0.993439
 2.77963  7.94003  6.86736  5.19775 -8.53148 -5.19193 -7.81866   2.6852 -1.55431  7.65404 -5.61368 -7.32364   6.9393 -8.85026 -4.65823  9.85616 -3.07878 -6.39433 -5.14324 0.935777
  -7.22588 0.00289927    5.52891   -6.07979   -4.31616   -6.11693   -7.98632    5.14782    4.96624     4.1469    -7.0884   -2.21689    -9.0186   -3.95677    5.78296   -2.68251    5.34107   -3.66693   0.888609   0.935777
  1.71844 -0.361565     7.716  -7.17618   3.02303   1.52389  -4.71188  0.110529  -1.73485  -5.73222   4.55412  -5.71804  -9.00718   9.40197  -0.15824    9.7108  -6.20671   1.77781  -9.96047  0.935777
    7.99957     2.71853    -3.23962     9.79908     8.19775    -2.48199    -7.45229     9.57672     3.40291    -4.59448     -3.5499    -7.19961      5.3473     3.34871    -9.22262    0.824813    0.466234    0.393758 -0.00775958    0.938833
 -4.48613  -4.24838  -2.93159   7.89598  -4.13256  -9.55519   2.41254 -0.972138 -0.679992   9.91078   7.59497 -0.157425   2.02466   5.74038   0.59734  -6.24694  -7.42836   3.46659   4.54452  0.935777
 0.809079  -7.76681   4.70469  -5.03043   7.75246    6.2569 -0.644887   1.88906   1.91369   3.29566  -3.72892   2.02008   3.41562  -4.91115  -1.55705   9.48715  -8.75284  -1.92948  -9.63077  0.935777
 3.82108  3.56802 -5.18859  5.69913  2.09845  3.00254   7.5353    1.668  1.46098 -9.85311 -1.58102  9.04492  4.52447  8.14336   6.2567  -2.0545 -2.66603  6.61936  2.85052 0.935777
  5.76999  -2.04783   3.49343    9.4682   4.42961  -5.74179  -5.83842    5.0787   2.68251   9.23947 0.0705955    4.6649  -5.84735  0.731864  0.319733    2.1326   -4.3629  -0.22054   1.10099  0.935777
 -6.32272   1.10905   9.47828   1.15375 -0.954872   5.17795   7.69867 -0.669833  -8.30811  0.639768  -6.15602  -5.20414   5.27188   1.55608   3.29415   4.98688  -7.39481  0.151081   6.96404  0.935777
  0.289753    7.60381    7.67011   -7.76138   -6.74884   -7.74243   -5.93004     8.5583   -4.29571    8.40268   -9.40624    8.98899   -5.74581    4.79648     2.4277      9.784   -3.76029   -8.20767 -0.0903259   0.935777
-6.06359 -7.04996  9.37698 -2.99929  7.29127  3.61135 -5.27353  4.19284 -8.76494 -0.77214 -4.69744 -2.33217  5.21675  5.40522  7.78921  1.70009 -6.14692  8.16613  3.67556 0.935777
 6.56903 -9.23909  8.08832 0.106355 -8.38676 -2.10697  7.45539   5.4067 -2.83992  6.68432  4.91189  2.02268  8.75752 -4.55199   3.9801 -2.52321  -2.1922  7.62818 0.246987 0.935777
  8.43953  -6.40277  -3.44525 -0.664522   1.77463  -4.21995  -9.47273   9.54001  -2.63268    2.1552   3.64538  -5.46138  -4.26624  -3.57702   8.74869  -9.68537  -1.42339   3.14581  0.401038 -0.325812
-3.33969  2.27879 0.750975  8.24956  -5.1268 -2.42017 -5.86486 -7.10349 -7.79797  7.48541 -8.17403 -1.55393  6.06216 -4.69741  9.32802  4.36594 -8.98887  2.11009  6.96459 0.935777
   7.67997    6.64086    7.23594   -7.74536   -6.06065   -2.60511   0.143729   -1.43236    4.92564    5.95775   -4.99278    3.55353  -0.678967   -1.56175    6.05876   -9.10303 -0.0962452    -1.3452   0.622304   0.935777
 9.66785 -4.95389 -1.70518 -5.36976  5.86479  7.97253  -4.3269 -2.17051  9.00554 -5.03805 -8.01388 -2.44278  8.64233 -2.39449 -1.40584 -8.43243  6.37299 -9.20527 -4.05761 0.935777
  4.64463  -8.38489   2.62605   1.05651   2.92562  -1.30966  0.872975   5.16329   6.81233  -2.86453   2.31716   9.92101  -7.65152   -8.2937   1.77178 -0.375131  -9.41912  -8.74574  0.683023  0.935777
  -8.14936    3.61752    2.55647   -4.00575   -1.47665     1.0085    6.91375    5.65917    4.52954   -1.83193   -6.71874   0.672327 -0.0948612    8.82307   -4.20521    -3.0623    2.99101   -9.03876  -0.700642   0.935777
-5.43123  4.05888  5.38438   2.5097 -7.46451 -5.69051  4.98893  -5.8582  3.72024 -3.82503  -7.1499  8.60142 -1.59347  1.77822 -5.38785   9.2186 -9.30991   4.2501  5.43349 0.935777
  5.3415  7.57974  4.04803 -7.52145 -8.80543   9.6725 -5.42001  6.21176  8.69268 -4.65284 -1.91716 0.170347  2.79578  6.59261 -3.26609  6.75558 -9.07426  -6.4081  1.70306 0.935777
-4.90848 -8.75744 -7.04015   7.4126 -4.14399  2.80258   5.8614   8.1623  8.69098   1.1538  -9.3393  7.52774 -7.78981   8.1417 -7.33132 -2.74339  1.21235  -2.9366  4.37138 0.935777
0.633488  7.58619  8.38311  6.05762 0.357636 -3.61306 -3.15874 -3.59091 0.585586  9.73937  8.74962 -2.32591  2.32326  7.16726  6.89801 -7.13096 -3.85273  -4.8042  2.90552 0.935777
 -1.28334   3.20014  -1.90704 -0.732976   5.98809  0.688543   8.73401   -3.1302   9.31382  -4.17811   7.21325  -3.12523  -9.02953  0.820343  -2.17745   8.38116  -6.26888  -1.19039  0.841923  0.935777
 -7.22752   8.55463   1.74511   7.07751  -8.92941  -6.98595   6.24724  -9.35302   7.78176  -2.80348   5.29542 -0.942656   0.75709  -5.84246  0.363193   3.68597  -7.18932   9.76177 -0.389922  0.935777
  7.48343  -7.43431   5.34257    3.7657   4.07418  -2.00147  -7.84007 -0.728988   7.97559  -2.74663   3.10646  -1.68786   7.85666  -4.38428  -7.45593  -9.10072   1.04131  -2.10228   3.40339  0.935777
 -0.732746   0.538621    1.39187    8.07499   -7.89171    3.03754    6.22732   -9.50103   0.277204  -0.653801   -4.18896   0.138917    -4.9954    1.33433 -0.0460179    4.49196   -1.73803    1.21093     1.6866   0.935777
 -9.83883   7.80027  -5.44884   8.14678  -1.03929  -5.18022  -4.65246   2.91655 -0.910535  -7.64095  0.246178   2.89452   9.17555  0.868733  -5.97793    9.6078   9.64304  0.561175   1.04566  0.348981
  5.80746   2.67513    3.8389    3.2553   5.53173   8.40239  -9.81434 -0.754518  -8.09125   9.23114   3.83728   3.86372   4.87285  -1.71293  -5.36184  -9.13869  -6.45833  -1.06148  -6.19482  0.935777
  3.64361    2.0118   3.20984  -6.12312    7.2513  -2.30338  0.328673   7.58142   8.77591 -0.782233  -2.49808 -0.573485   4.18261  -4.63851  -3.04517  -9.10354  -8.72399 -0.011328  -2.12424  0.935777
-9.11081  -5.6858  8.73151  5.79794  4.39999 -4.30012  8.90498 -4.22129  6.93664  3.21692 -5.03886  3.61483 -1.60972  3.85015 -6.00345  1.15935 -2.15147 -4.78651 -3.35129 0.935777
  7.88435   6.86433  -2.49544  -6.42231   5.72284   7.22777   2.50023  -9.85282  -2.20633   3.54692  -9.11415  -6.00348   2.10552  -7.98001  -8.71216   5.08714 -0.619004   3.03545   2.62459  0.935777
 6.10624  8.44821  8.99188 -3.07027   6.5309  3.64076  7.99867 -5.75752  6.97458  7.77867  7.65746  4.63347 -1.52092 -1.46181 -1.93025  8.97214 -5.02894  9.98691 -4.15984 0.935777
-1.77842  6.47729  1.43527  7.74839  7.79016  8.03505 -5.32843   1.6534 -3.73599 -6.43015   6.6964  8.13384  5.23331  6.31435 -1.47127  8.02728  5.91751 -9.35861  4.61087 0.935777
    9.09914    -4.74307    -1.89773    -5.32599     7.98274    -1.09767 -0.00681686     6.73769     1.14678     6.37914    -4.57137    -3.73982     9.37117    -6.33303    -9.46896    -9.07083     2.47382     -3.1219    0.655813    0.935777
 -7.41349   8.73327  -1.20695   9.74393  -4.59876 -0.427546   2.13072   9.66668   7.29844   6.93242  -8.86182    9.0307   -4.3321   6.69455  -4.11705  -2.25296   8.43821  -1.74552   7.09202  0.935777
  3.25291   -4.7243   7.39772  -8.34234  -9.40646 -0.356066 0.0349816   3.57126   8.96819  -2.52788   8.73688   -7.1323   8.73972   9.83056  -2.13252   3.87611    6.5686  -9.98397  0.372413  0.935777
 -2.2373 -9.17377 -4.59265  -1.4752  8.64889  6.65885 -8.51023 -2.37246  3.08284  1.99038 0.372022   7.9916 -3.42538  2.21871  9.73413  5.58209 -2.74137  5.18245  8.09612 0.935777
 -5.99558   -7.8276  -8.02591  -2.74276  -8.15293  -6.69674   8.66964   9.77923  -5.20429   7.82325   9.28774  -5.30714 -0.753789  -3.88741 0.0597118  -8.77356   8.88491  -4.08486  0.970181  0.935777
  -3.54335   -6.44138    9.49063   -9.84571   -2.86888    -5.5671  -0.229256   -6.97265   -7.25596   -8.13106   -4.36412    6.65477   -9.08981   -5.06713    7.34283    5.69403   -4.26292   -4.35285 -0.0647794   0.935777
  -3.4134 -0.961988   -2.4982    9.8606  -6.44579   6.64992  -3.33478   6.38051  -7.45291 -0.555662  -7.09607   1.16149   3.83139   2.73864  -8.04641  -6.05193  -9.96801   1.72425 -0.520766   1.83371
 8.20133 -5.41651 -4.73866 -1.17641  7.41655  1.18992  6.35522 -8.79561  3.86022  3.52483 -8.64977  4.70377 -7.75135 -8.63353 -7.71685  -1.4051 -2.31447  -4.3991  -6.3499 0.935777
 -2.46875  -6.12357  -3.53613  -7.15169  -4.69161 -0.536373   -8.9558    7.2404    3.6592    4.8178   2.70472  -1.65347 -0.408644   6.42337   5.50433  -7.98231   4.80118  -5.89533   0.11493  0.935777
   6.67483   0.971147     6.6198    8.36147   -2.86629    8.62436    6.44718    6.88875    2.74673 -0.0981165   0.787705    -2.3371   0.731263   -9.09206    7.25001   -6.67151    8.35389   -8.51663    4.85358   0.935777
  3.12311   6.18494   6.31112   6.14478  0.231873  -2.41318    8.3069 -0.152283  -7.99974  -4.00441   5.83822  -4.07261  -6.14657  -1.41552   5.02835   8.97759  -8.88693   4.98156   2.62756  0.935777
  1.75509  -6.81843   1.87884     6.091  -4.95147  -1.79717   7.54181  -1.18569   3.80139    5.5426 -0.994613   2.24368 -0.357054   6.32226   2.18726  -6.75164    6.9561   -75.662  0.027492  0.935777
 -4.79867   3.78771  -3.55489   7.10096  -5.38128   2.00031  -2.63557  -4.93222   7.10716   4.13006   -7.3326     3.255  0.952393 -0.935682   5.77197   9.46034  -7.78783   4.69683   4.79547  0.935777
 -5.37483  -9.23638    7.2331   4.30665  -1.98717   5.78514  -7.75893  -7.97952   3.24923   8.96096  -7.35359    3.4287   5.10122   7.10369  -8.81663   4.09915  -2.14433   1.40664   1.04556 -0.534952
 -2.05529  -8.17975   8.30673   6.44037   1.13941 -0.265453  -3.75297  -5.97689 -0.792124   2.72686  -4.66849   1.54522  -8.64153   2.94225   4.91906   9.28267  -4.91278  -6.12981  0.323349  0.935777
 -5.72328  -8.35189   -4.2098   9.93673  -3.70041   3.73496   6.18272   6.63257   9.60207  -1.32042  -4.13946 -0.114897   7.53845   5.16993   5.82738   -2.2688  -7.37902   6.48061  -5.87639  0.935777
  3.71996   -7.3258   5.32604    9.0312   7.80976  -8.84696  0.686782   2.79887   -6.9324    -5.918  -7.37128   1.50984 -0.505012  -7.14881  -5.92899  -7.25507 -0.466678   2.16754  -3.54028   8.60947
 8.35698 -1.23269 -3.77493  6.77873   8.9006 -2.90288  2.36531 -4.83548  3.21056   -2.223 -9.92223 -8.96021 -2.08871  1.01269 -1.31831 -9.47998  -3.7093 -4.41701 -2.33523 0.935777
    7.18944      9.5261     -5.4182     7.21193     -4.7925     3.97825 -0.00412394    -1.46066     8.87304     9.56437     -7.6066    -6.34262    -3.17167     4.40931     3.44951    -2.62359    -1.96704    0.959084    -8.90243    0.935777
-0.333853  -1.93334 -0.236517  -3.48964   4.41989   5.85286  -3.19204  -4.37555  -5.84976   5.79753   9.15033  -4.88176   4.66473   3.28445  -3.69422  -2.34125    -5.001  -4.55678  -5.41745  0.935777
-6.63482  9.59102   4.9025  3.22119 -5.38461  2.93091 -6.09299  2.35244  8.38512  4.18751  -2.6825 -9.37826 -4.15849 -4.38322  2.63617 -5.67292   2.6592  5.28538  -2.5822  14.5837
  -2.63059   -4.38726    3.57286   -7.37094   -8.56669    -7.7275    5.68389   -9.51134   -5.85878   -4.49501  0.0645926    5.84881   -8.95577    9.37041    -4.2854   -3.35763   -7.70269 -0.0744585 -0.0728909   0.935777
  -4.5276   1.48273   2.92997   7.56855  -3.52197  -7.84907   5.44254   2.04009  -3.24747  -8.20559   4.47323   -4.8861   4.63836 -0.816209  -1.31092   8.48553  -3.64793  -2.82967   4.70527  0.935777
 6.75182  7.64949 -0.14569  9.80613 -4.34221 -3.23242  2.90302  3.56766 -5.80059 -6.34088  7.00013  8.45865 -6.97932 -6.32516  -2.5058   3.8642  2.48576 -9.85375  5.31398 0.935777
  4.50942  -6.66166  -3.33105   8.61225   8.09242   6.38264 -0.536351  -4.45909  -8.71407   8.21281   8.19727  -8.30385  -6.92068  -2.91815 -0.209686    5.2781  -2.48058  -4.49135  -3.46328  0.935777
 -5.28049 -0.432286   1.21287  -9.55798  -0.37154  -2.26371  -8.66323   2.28572 -0.974561  -7.45049   7.30965   2.23285  -6.72394  -3.03698   8.70845    5.6796  -4.73019   1.21181 0.0349228  0.935777
  4.68031  -4.95055 -0.462773   6.90275   2.83381    4.7311   3.06174  -3.51616  -5.46853 -0.366016  -8.35423  -4.08042   8.04152   6.21843  -8.32809  -7.63838  -9.49091  -7.02217  -7.20175  0.935777
 -1.79467   1.14036   4.57039   2.67558   5.56946  -7.26406   9.55523  -7.31525    2.6432   6.69303  -2.18528  -6.84079 -0.308449   7.82682  -5.44765  -2.82764   8.02817   2.25626  -3.24512   8.25762
  9.2115   6.6179  4.52192  6.69801 -8.59904  2.98919 -8.37565 -8.14443 -9.99169 -9.95153  7.91448 0.225326  2.32718 -8.31182  -8.9859 -4.70015  7.68124 -9.01127 -1.51444 0.935777
-5.88292  3.30779  2.07945 -2.04496 -8.89318  -2.9067 -7.52072  7.17292  3.04373  2.02533  -7.1183  8.10833 -5.55826  1.21348 -4.78053  7.30435  -4.9456  -9.6481  8.15282 0.935777
-9.34076 -5.22103 -7.07064  3.01945 0.296532 -7.43153  8.14173   4.9338 -8.98304  4.06485 -8.85205 -5.50877  8.65501  4.91024  1.51569   -8.572 -9.63017   3.0653 -2.47575  8.52469
 -9.80739  -5.19235  -4.84843  -3.47684  -7.92151   5.07781   7.53845  -2.58029   3.52066  -9.81912  -2.24901  -7.58206   7.37548  0.759822  -7.24271   4.73473   2.09971 -0.849966   7.64424  0.935777
-5.39585  2.23263 -2.93783  6.81206 -0.69455  -2.7079  4.06561 -5.30609  6.01996 -1.35888  8.22566  7.04651  8.35687 -3.30365  6.73421 -6.24155 -3.51764 -7.26648  2.96365 0.935777
  4.0349 -2.52846 -2.36516 -4.06224  8.01252 -3.26169  3.79452 -2.51708  2.63756  1.34511 -5.84428  7.63439 -5.16489  5.41963 -6.48751  6.60705 -1.68082 -4.56506 -3.48741 0.935777
-0.312872   2.73999  -9.18988   -6.1816   7.95938  -4.39605  -8.15258   2.35335   6.24048   5.62613   5.49518   1.49705  -8.20726  -2.37532    4.4742  -2.02124 -0.100059  -0.08009  0.229662  0.935777
   8.7993   5.89022   6.77776  -8.04376   7.06327   5.85715   5.95136  -7.20868  -5.91049  -2.97069 -0.128616  -6.89886  -4.68791   5.95683  -8.31069  -3.49183   2.21852  -4.33584  -1.36356  0.935777
  7.81721   8.82644  -6.83003   9.40397  -2.75502  -5.88063   5.31792  0.030821   3.03042  -8.51575   6.38723   -0.1569   3.20393   7.68203  -3.34101 -0.500813  -3.37275   0.16881   1.79309  0.633087
 4.30412 -7.78335  6.78139 -2.32613 -2.53779    9.298  4.71409 -3.95235  4.59076 -3.50726  6.19585 -4.90069   4.9735  3.67887  2.78851  3.72401 -1.11847  3.24685  5.59105 0.935777
 3.68866 -1.93654 0.282898  2.59886  -4.7132  -5.8324  4.97003  7.04519 -6.48805 -4.28933 -4.15209  -8.8809 -6.37982 -4.45508 -8.50499 -2.38045  1.97559 -5.43628 -5.15877 0.935777
  2.59668  -8.73745   2.16829   -7.6385  -5.92488  -1.61553   6.00461    8.1416   -2.2395  -9.38784    6.0134   5.51017  -5.98697  -4.66048   5.36084  -2.82198   4.80245  -1.33374 -0.091633  0.935777
-6.13513  9.32075 0.445689   5.1287  3.61215 -5.83079 -3.31399  7.08226  -2.7154  8.97786  8.20857 -2.34169 -5.70654 -7.28221  -0.4091 -1.69467 -9.57544 -7.09346  5.03026 0.935777
 0.35765  8.62205 -8.58047 -7.92894   2.5177  9.63886 -2.20155 -5.00426 -6.12622 -5.32173 -4.17357 -5.89468  6.86258  7.63106 -7.86489 -2.83435  1.06493  -4.5659   4.5324 0.935777
 7.59978 -1.60225 -8.59209  -8.2572  7.14877 -3.68858   7.3038  5.01474  2.42249  0.87524  4.31069   2.5892 0.754023 0.243565 -7.06895 -6.57465 -6.35352 0.748026  6.59786 -3.99959
  3.23038   -1.6628  -5.98872   5.64537   6.36492    6.0169   6.68595  -1.31341  -4.22378   8.20661   3.84207    4.0063   9.42443   -1.8019   6.19266 -0.186236  -3.95832   5.30343  -3.49587  0.935777
 0.875493  -8.95711  -2.18665   7.30892  -5.97918   -8.0636  -2.02069   2.21639   6.40679  -6.96441  -9.72919  -9.48136   1.26041  0.760731 0.0182315  -7.28973  -6.03277   3.67192    -5.503   21.1423
 -8.44994  -3.93887   7.18277 -0.250197   4.70738  -5.11528  -4.24535  -1.01081    4.1839   5.66555  -2.63629  -7.98133  -2.32531  -6.05754  0.970836   5.82351  -3.96994  -9.88382 -0.746277  0.935777
 1.65848  1.04563  3.37878 -9.30707  2.48344  4.34799 -4.77585  6.08117  4.08191 -6.31844  1.58117 -1.04762 -8.08233 -6.94137  6.89684  1.83718  1.27017 -5.88906 -2.18554 0.935777
  7.96486   2.08841    3.0196   9.71298  -7.74076   8.24847  -8.49058   1.86258   4.59435 -0.786396  -9.62541 -0.702335   8.68003   8.57566 -0.537538     -3.15   3.32187  -2.75675  -6.30587  0.935777
   2.8709  -5.54562   2.60122  -4.14984  -2.20117  -7.62978   3.08119  -3.54787  -9.01527   5.66819   9.05184 0.0229017   8.96982  -3.04883   9.85488   8.91104  -3.62391  -3.37013   2.91435  0.935777
  -4.48491   -1.80992    3.24753   -5.97806  -0.042812   -7.00249    5.69277   -8.68295    2.90597 -0.0509193   -5.08927   -3.11773    6.93364   -4.78565   -3.74024   -4.13007    -2.6087  -0.555667    5.92953   0.935777
  2.09078   2.16479   9.77917  -2.18858  -3.06402  -1.24607  -7.13485   2.82518  -2.30972  -7.26824   2.63162   5.81429    2.1321  -4.44912 -0.639839   1.00372   5.69621 -0.719276  -6.48325  0.935777
  3.33636  -6.34381  -7.96734 -0.275822   9.28616  -3.03834   2.48218  -6.68197   5.21318   -2.6248   3.22953   9.72485  -3.97048  -6.36289  -9.83227  -1.57212    2.2228  -5.16139   3.38418  0.935777
0.0751375   -2.1772  -9.78118   9.63089  -8.75959  -1.05692   8.44958   1.81714   3.64049  -5.34521   9.91867   5.77482   1.66849  -9.94789   9.42524   1.91471  -6.95767   8.89058   2.07072  0.935777
-5.36829  -8.3231 -6.83017  8.38481  7.84764 -8.74551  1.02746  3.26264 -4.12974  7.20708  4.76699 -8.26103  5.70494 -4.58638 -3.65306 -2.98106  8.75566 -5.01217  3.91491 0.935777
 6.42877 -6.88889  8.06891  2.41752  8.91283 -2.17605  7.64675 -6.11977 -1.14863  2.41008  2.44831 -6.82157 0.525221  2.86944 0.850352  2.65969 -7.30307 -5.93123  2.35181 0.935777
  -9.12435    5.33454    5.37135   -1.80886   -4.54875  -0.772528      2.471   -5.66182    3.76689   -4.82271    4.33892    6.95139    -4.9106    9.39843   -6.91265   -1.98634   -2.57703 -0.0918012    3.67921   0.935777
 8.68323  5.84127  2.85943  2.29137 -8.28071 -6.98367  7.23382  6.60684  2.98029  6.20954 -5.39442  5.92861  9.31206  8.91478 -9.89261  1.41656  9.43658  4.99085  2.07223 -9.40642
 -1.00576  -6.67931   1.34804  -9.35885  0.741439 -0.333476   1.16474   9.89924  -5.23401   9.65819  0.599485  -8.77073    8.7335  -7.26339  -9.75688   5.21287  0.177552  -1.04777  -1.04763  0.935777
0.826383 -6.73197 -8.00694  2.41863  7.67921 -8.19377  5.17712 -3.55395  4.12035   1.4217  2.04407 -3.39256 -8.50232  3.97284  6.53459  4.74628  -9.0709  -7.4185 -5.93836 0.935777
-9.41606  1.54377  8.45864  7.36139  1.24443 -4.93904 -3.91609  5.07575   9.1628 -2.06461 -4.52875   2.3697  -5.6417   1.7623  7.95351 -4.51288 -7.04814 -6.01713 -9.71302 0.935777
  5.23831  -7.32049   9.69951  -4.17478  -7.11028 0.0156177  -2.00155    -4.622   6.17152   7.69504   5.36702  -9.24239   9.79247  -8.44343  -9.39571  -1.76289  -3.91964  -4.07642  -7.85482  0.935777
 -1.58299   7.64408   6.03362   6.99926   2.49539   6.06453  -8.44729  -4.12972  -9.41169  -8.04505  -8.38918  -4.45351   8.22786 -0.964551  -5.89708   3.02002  -2.52789   3.59733   9.32364  0.935777
-5.63465   9.2454  4.75079 -7.54906  6.15634 -4.97051  -2.1148  4.78688 -4.34841  2.15139 -4.49482  5.64995  4.25447  4.75418  2.60036   3.1296 -4.98887 -9.22512 -9.18365 0.935777
  5.45635   6.33183 -0.656312   3.43244  -1.65503  -1.48321  -9.82537   8.41347   2.31524   7.28755   7.66774   6.97822   5.25854   8.04189  -5.95884  0.900147  -3.13859  -5.54662    2.4113  0.935777
 4.06414 -3.53083 -2.87038  1.32853 -7.88783   2.4117  6.08301   -8.045 -6.76526 -0.29923   2.3658 -3.80727 -8.12225 -6.26582  7.47662  4.98606 -2.23949  -4.7543  4.78502 0.935777
  4.38896   -6.1593   0.53726  -3.05735  -4.09684  -3.29677 -0.909353   5.78146  -9.44275   8.93775   5.91954  -6.27205  -6.25575  -6.38398   9.41043   9.69957  -4.25041   1.83002  -1.61065  0.935777
 -0.787743    -5.6203    8.57536   -2.34437    6.55911  0.0823723   -8.35414 -0.0447731   -4.41753    5.81644   -1.64312    1.33504    4.96288    8.88464    5.77192    6.75687   -8.98535   -6.76853    6.08444   0.935777
 -6.52397   9.18018  -7.25112  -5.65198   1.59503   4.43569   6.80134  0.243015   3.14424 -0.386689  -4.75185   7.75452  -6.56125   8.15944  -3.49647  -5.46791  -3.16181  -5.23916  -1.62582  0.935777
  7.30867  0.136246  -2.28144   -7.7369  0.835173    -6.796  -1.85221   2.63862   6.10175  -7.15691  -3.61323   3.13661   3.00401   5.65749    -3.494  -9.98906  -5.49819  -2.84295 0.0327442  0.935777
 2.22875  6.57876  -5.9918 -7.66205 -9.56187  4.93985  2.59183 -2.45135 -4.60809 -1.95121 0.532439 -4.74505 -1.31757  5.19225 -3.44594 -7.94639  4.00702 0.137707 0.973066 0.801779
  7.00833  -2.22648  -7.84972  -4.62854  -4.55384   6.07275  -2.66724 -0.484921    8.0558  -0.26385  -6.97461 -0.141157   3.41148  -9.25846 -0.105466  -4.34284  -9.71979  -1.68145   4.14934  0.935777
 9.75934 -1.91836  1.07308 0.161451  2.21301 -6.66144  4.00175 -8.13179  5.48184  2.92462  8.18545  1.48669  5.03864   2.0322 -2.72853  5.98269 0.768922 -9.18009  2.95336 0.935777
  7.81004   9.06135  -9.64693   7.07018 -0.875272   2.16153  0.751355  0.794203   -6.1555  -9.42997  -9.14123   8.65748   0.89197   7.23018   4.59322  -2.18154  -5.21664 -0.968431  -6.82082  0.935777
  9.40416   5.22432  -9.32906   -9.7197  -3.46108   6.23363  -2.73039  -6.59648   6.93477  -5.17337 -0.742263   6.68665  -1.37561   1.26149   8.23519  0.212363 -0.100763  -9.96041  -7.40921  0.935777
 -8.54374  0.638086  0.795637   3.91103  0.647757  0.737707  -8.26348   5.73515  -5.54991   7.00046   4.97854   5.30374   8.58854 -0.612305   5.65226 -0.342863   -5.0566  -8.77921  -3.47697  0.935777
  4.77637  -8.46863   6.87107  -5.97813  0.975357   7.26351  -9.98457  -3.19471  -9.96074   7.60382  -2.87071  -2.23635    9.3595   4.65296   8.64935   6.48025  -6.10147 -0.213984   5.06846  0.935777
   8.67382   -1.25547   -4.82027   -8.42248    5.79226     5.4443    9.20581    9.33967    9.90934    9.59615    -6.6724    -7.3903    5.40198  -0.971149    7.83856   -1.57054   -6.73552 0.00349327 -0.0158194   0.935833
 -7.51019   3.98222   9.91022  -2.10545  -6.77398    8.8189  -4.27794 -0.830273  -2.05676  -8.05417   -2.8604   -1.3384  -1.03032 -0.105207   4.61622   3.72221  -7.26695   8.64131  -1.29738  0.935777
 7.26151   6.3212 -3.19851 -1.83508 -2.86373 -3.04904 -9.02144 -4.39736 -8.22801  2.18727 -7.19252 -9.62932  2.20633  3.03023 -2.53235 -6.70809 -1.18477 -9.60071  4.83093 0.935777
-7.31927  4.23483 0.978556  5.95955  5.35131 -2.76725 -1.90288  -5.8279 -3.21226  4.59212  5.23208 -1.90311  2.56752  4.27318 -1.96968  -6.5977  3.82672 -7.23166   6.8015 0.935777
-0.584147   5.71284  -7.57647  -9.29056  -2.46819   -2.5785   9.42201  0.430949  -3.59976  -6.05604  -7.01997   5.09638  -9.75661   2.65811  -7.00886   8.44057  -4.72694   7.67674  -8.72587  0.935777
    2.92182     8.11046    -3.38476   -0.141911    -7.32471     8.25038    -9.98347    -4.29111      4.4783     8.56712 0.000979289     8.66422    -7.45703     6.94146     2.19142     1.29728    -2.94409    0.623751     2.56753    0.935777
 2.98184  7.07075  9.98093  -7.6421 -1.32849  6.82294  4.39178  2.34639  9.47164  1.78457 -8.34945 -8.51512  5.65739  6.49257 -5.77388   8.5555 -1.70279 -6.56923  3.29079 0.935777
 4.80567 -4.39144 0.563456 -2.57969 -8.17515 -4.10853 -5.13907 -2.64828 -7.67084  1.53715 -3.53891 -6.88214  5.26289 -3.03033 -4.82524 0.524318  1.49535 -5.12174  1.91504 0.935777
 -3.57157   6.71516   1.51053 -0.637652  -3.06284    7.5591   6.83732  -6.20975  -6.31971  -4.28569  -2.40591  -8.20324   -5.0696  -1.45545   9.50404   2.94203  -3.15794  -9.32939   2.75176  0.935777
 6.34392  4.92351  2.23492  -6.0466  -8.4269 -9.79828 -4.79427  2.90749  7.83832  -8.9436 -5.77361 -6.14497  3.66357  3.30933 -8.78408 -6.83445 -9.75667 -3.02068  2.20943 0.935777
-8.18698   1.5476  8.57963  -2.5262 -3.35376 -4.58782  4.59775  1.76041  1.73593  -1.7997  5.14172 -9.56397   8.8573   3.6554 -2.95063  7.71178  9.06848  2.29573 -2.84376   7.4643
  -2.22913    2.77277  -0.602198   -1.95585   0.676786   -4.72061    8.77887    6.75024   -0.44827   -3.82366    -2.5851    3.76718    4.62308   -4.78748   -9.85082    6.22056   -5.98986 -0.0931258  0.0026252   0.935777
 -7.15231   2.53307   2.68205   7.43577   9.68374   9.30704  -2.03765   2.04951  -4.47972   6.74373  -8.24337   6.43722    -3.084  -1.85676   5.71435   9.54195 -0.395289  -6.81739  -8.07044  0.935777
-2.56152  -5.2504 -2.16885 0.362935  2.61458 -1.68417 -7.37316 -9.66751  6.62153 -8.95529 -3.81681 -3.56225 -7.49032  6.22241 -6.63241  1.30571   5.4167 -8.77414 -7.50745 0.935777
   8.74041    5.20843    4.40441    7.74575    6.64408    2.64139   -9.43827  -0.140997   -1.25191    2.70612   -9.28784   -1.19959 -0.0994642   -5.53306   -6.50069   -6.26447   -3.43776   -1.46957   0.396667   0.935777
-1.52302 -2.10652  8.29508 -2.66852  4.48737  1.93312  5.40352 -2.25364  8.38073 -3.40134 -2.83667  5.03384  9.39201  7.10526 -9.17901  5.41726  5.34987 -1.14265  5.37589 0.935777
  -4.5672  -2.48436   3.45673  -7.08656    5.8021   4.78537  -3.80883   3.69334   2.22281   5.04355  -7.06492 -0.419385   1.34575  0.588731   6.98658  -4.21011   4.80891  -1.00589 -0.516127  0.935777
 -9.93532  -6.97257  0.327838   7.37344   6.17561   8.23936  -2.37278  0.594828  -9.71515   8.83012  -9.15473   9.68865    7.8574   5.23341   -6.4505  -9.36886  -9.14828   -3.2834 -0.220283  0.935777
 0.798139  -5.52783 -0.241526   5.92366  -8.85841   2.52068   -8.2213  -6.32226    1.6111   4.70048   7.92971  -3.63755  0.904104   8.54858   1.61839   6.38432   -1.0484   8.60359   -2.1779  0.935777
-0.305281   -8.7364  -6.06194  0.379024    5.0524   2.84048  -6.65911  -4.50797  -8.16269   5.76291   1.88619   9.01563  0.299668   6.24131  -2.20981  -4.66648   2.04427  -9.40988 -0.263966  0.935777
0.763514  -7.0589 -2.30798  6.74721  -4.7448 -1.26627 -9.90488 -7.56961  4.58242 -9.17429 -3.96019 -4.36462 -5.26688  5.26095 -3.01081 -4.69988 -0.69205 -7.51479 -3.80867 0.935777
 -1.18424   3.87425    4.1837  -9.94186   1.77403  -2.82974   9.78782   -4.6415  -1.42191  -6.18849   5.18538  -3.03391  -1.79145   3.99448   5.53278 -0.664656  -2.27203   3.15981   9.93482  0.935777
   7.05264   -7.18557    4.47951   -5.37405   -3.31112    8.70565    6.02563   -5.47933   -7.91951   -3.93676    3.28085   -1.82047   -7.02497   -4.05384    3.23855   -8.21286   -4.64449  0.0437558 -0.0731593   0.938978
 -1.18937   4.16559   9.82883   4.04304   9.06047  0.126701   3.79678  -8.08193 -0.727591 -0.203405   3.80066 -0.309369   5.04987  -3.86425  -3.37185    8.8321  -2.61891   1.66147   2.65195  0.935777
 2.02997   7.4796  5.14404  3.97073  0.24651 -6.34689  2.94371  5.98947  9.66433 -1.00297 -7.31934  8.23249  4.96503 -4.23308 -5.55829 -2.86952  7.31867 -8.80319  9.94156 0.935777
   5.6254   4.84011   4.60009  -6.94663   4.55508   5.40226  -7.97348  -3.88947   3.03898  0.897116  -9.09122   6.67353    9.1737  -8.80216   -6.4684   8.29887    -2.565  -9.30951 -0.265917  0.935777
 1.54648  5.91372  8.45544  3.08396 -0.77269  6.26989  -9.0586 -6.79482 0.233349  -4.5996 -9.00716  -9.1117 -7.68034  4.28447 -8.84205 -4.10383  6.58573 -5.88306 -6.76505 0.935777
  1.60953   -3.5398   4.09977 -0.983652   -3.5264   -9.6778   7.11405  -3.52725   4.08708   -5.2381   5.10887   7.00591   2.94563   3.68974  -7.90803  -7.84393   -4.9792  -5.66311  0.358121  0.935777
 -7.84934  -5.98043   1.89099  -3.71487  -7.92977  -6.13014   4.69653  -8.63769    4.9757   1.95083  -4.58709  -1.93435  -6.08998   7.48657   6.49477   5.22167 -0.978151  0.580339  -1.58168  0.935777
 -1.37331  -3.04229   -7.5423    3.6123   2.01006   2.75415   -4.0918  -5.17161   1.09626  -5.28425  -7.18839   9.48949    5.0838 -0.534649   1.26797  -4.73329  -8.03494  -6.34902   -3.9424  0.935777
    -4.95824       9.4525     -1.80756      4.38927     -3.44958      6.54382     -4.77384      9.39569     -6.10308     -9.58773      -3.0406       6.7703     -1.01868     -6.78381     -1.17377    -0.259079        1.693 -0.000683312  0.000267289     0.935777
-3.69349 -8.24649 -5.25363  4.49682  5.17121  1.16164 -3.49452  9.36295 -5.96983 -5.39102 -9.64207 -4.79838 -3.69565  4.30893  5.41433   2.0234 -6.68739 -2.73154  6.29006 0.935777
  5.70686   3.79794  -2.24174   3.49646   4.37607   3.49746  -2.55796  -6.73026  -6.01799   9.23631   7.37267    9.6684   6.52301 -0.334505 -0.200665  -4.18432  0.355947   2.81364  -1.33022   4.67855
-1.52442 -4.46221 -5.70499 -3.75479  9.53742  -6.5041  7.12198 -5.01084 -3.98278 0.793786  9.30123  9.51661  9.31635 -5.06547 0.550627  5.85483 -4.29456  3.54516 -5.35049 0.935777
 -1.29834   1.73826   9.18298  0.674008  0.252352  -6.16979  -3.39601  -8.14642  -2.48555  -7.02469   -7.7543  -1.77831   -6.7196  -2.48813   7.74811 -0.369278  -4.16704  -4.01648  -5.48907  0.935777
 1.27693  -7.5255 -9.73904 -7.95012  4.54493 -9.14409  9.61356  1.14374  4.16784   8.0959 -7.10754  9.38114  5.31501  8.93109 -7.78508  -8.4866 -2.29678 -7.49112 -5.26409 0.935777
 -8.65916  -2.11161 -0.376911   1.18275   1.73848   1.23893  -8.12637   1.22049   3.90112   -6.6639 0.0930323    7.5938  0.642229   -1.4335    1.2094  -4.82659   8.56772  -4.62723   1.31339  0.935777
 0.357925   1.38005  -6.96184   4.57106   7.81914  -2.80231  -0.11772   6.35663   9.68687  -3.21376  -7.97557    1.2183  -4.78326  -6.04466   6.26623   9.40919  -5.04958  -9.49614 -0.391972  0.935777
  5.46661    5.1759   9.02125  -4.98529  -7.91081   6.23023   6.45214   3.42441  -7.77915   3.19901  -3.33038  -5.44823   9.94952  -6.69551   7.18229  -9.64031  -1.21589   1.66318 -0.978223   2.56274
 -3.66013 -0.378904  -7.19315  -9.87078   7.20098  0.353891  -5.97238  -3.69547   2.87833  -6.49552   0.52664   8.92265 -0.280109   1.58507   5.71555   3.11336  -9.00538     5.208   8.23909  0.935777
-0.407182    3.2489   3.12368   5.00317   6.55724  -8.01996   2.98893  -6.19722  0.210895   7.85964   6.84145  -3.39735  -1.88018    3.7277   5.76768  -6.77962   9.52504    1.5065  -2.60099   4.85417
  -8.5804   1.73428   7.75736   -9.2084   7.85594  -3.34724   -9.4072   -3.6166   3.37701 -0.651029  -8.59407  -6.87463  -4.16322   3.73295   3.31417  0.670191  -7.18293  -1.46329  -1.92974  0.935777
  -5.0237   1.00503 -0.606378  -4.90625   -1.0095  -7.21553  -4.13866  -6.48992   -6.3104   4.23186   9.00967   1.59833   4.83326  -3.44134  -7.43754  -6.87282   6.86858 -0.308344   2.56489  0.935777
 1.15561 0.543129  5.72965  6.36383  6.04456  6.14597  8.67244  2.34539  1.86735 -3.14094 -5.41776  7.89986 -9.12504 -5.58581 -4.59756 -6.32345 -3.16702 -4.54448  7.15169 0.935777
-8.40323  6.69815  9.69296 -9.80346 -7.92347  3.05622  6.96001  8.51914 -7.06183  7.65664   1.9688 -3.32423  4.92598  7.25257  2.73043  9.27808  0.17144 -6.30306  8.92877 0.935777
 -4.88521 -0.613549  -6.50155   -3.7903  -8.81398   -9.7595 -0.516571    8.8985  -2.34066  -2.24409 -0.369904   3.61365   2.02042   5.46235 -0.650482  -8.05481  -6.95522  -4.04213 -0.524947  0.935777
 7.26937  7.94091 -5.16651 0.317058 -6.73352  9.21404 -6.96257  1.65191  2.30842  2.54126 -6.90654 -6.54907 -6.65457  8.46942 -5.97125  1.08008 -8.44904 -5.25645  2.62257 0.935777
 -2.56001  -9.42314  -4.93893    1.1358   2.25909  -8.60487  -7.03354 -0.823546  -4.89403  -4.69394  -6.31815    5.1225  -5.64416  -3.94214  -5.61742  -9.95686    8.5807   -3.5223 -0.184409  0.935777
-4.99203 -6.89672 -2.90862 -5.69848  7.73547 -2.87065 0.318198 -2.92379 -4.81358  5.64129  -1.7289 -8.92515 -9.94618  3.25112   5.4174 -4.37869 -2.43767  5.44549 0.756573 0.935777
-4.35902 -1.20438 -1.32121  8.23506  8.46679  9.07968  6.66194 -7.54723 -5.70621 -9.25713 -3.95998  1.42785  7.18394 -9.97214 -4.39664 -8.84364   3.7155 -8.00392 -6.31709 0.935777
-8.39132 -9.24981 -1.83348  8.70026 -8.35041 -5.15538 -4.81002 -4.92696  2.61935 0.823904  8.99899  2.51459  7.06371  7.58693 -6.60701  6.57972 -5.21659  3.78647 -4.02065  16.1599
  1.21764   2.19495 -0.512849  -1.72954  -2.09168   -2.9231  -5.69946  -8.47555  -6.17819  0.885545   6.26057  -4.14164  -4.22938   9.58635  -6.72964   8.77722   5.64934  -1.73875   4.79546  0.935777
-8.92593 -6.25274 -8.40213 -1.85465  3.93232 0.634557  5.12344  2.79209  9.95817 -5.90989 0.287727  6.27748 -4.35263   2.9142  -6.0121  1.18031 -6.87508  5.79867  4.26995 0.935777
 -2.67758 -0.293109  -8.86337  -1.37788   4.07537   6.19231  -3.34018  -7.86566   2.59391 -0.122039   7.77205   -2.6467   6.25561 -0.151186   3.09669 -0.600296   4.01251  -4.27495   5.28816  0.935777
   3.7414  -4.74465  -6.04208   5.36465 0.0301868  -4.12555   8.40837   3.03626  -8.09036   3.54919   8.58643 -0.108257  -1.23072  0.389633  -5.40082   4.31954   -1.7133   2.26805  -4.16364  0.935777
-0.704773  -5.73851   6.06659  -3.13237   6.43176  -4.24107 -0.529658  -3.49231  -6.52552  -3.78306  -2.05865   7.64797   9.76612    1.5114  -8.73513  -3.45307  -3.19988  -5.57503  -2.90978  0.935777
   4.62308    5.40929    6.75962 -0.0432232   -6.41273   -1.62649   -3.63903   -6.16089   -6.57191   -1.87361   -2.98046   -6.05527   -7.74498    7.93367   -3.20387   -6.53741   -3.45117   -9.58326    5.28365   0.935777
 2.40455  -9.3441  8.33126  3.30995 -7.55628  6.52116  6.09187 -2.30152  3.93202 -7.96258  6.18375  2.73664  9.50867  1.91141  -8.9042  6.11895 -2.16586 -1.87387  3.53938 0.935777
  -2.63678    -9.0028   -9.50026    5.87491   -6.51028   -4.15987    9.40526   -3.30143   -6.33544   -4.69694   -1.44153     7.1457   0.153054   -3.27621    1.58574    -5.1589    -1.2837   -3.41517 -0.0839228   0.935777
   6.2203    6.3839  0.769316   7.49338  -0.44015   9.44858  -8.52171  0.113393  -5.48865   9.15591  -9.21903   1.49944   5.55123   4.71358   -3.5827  -5.69595 -0.931659  -6.05618   3.64365  0.935777
-6.58055 -1.90485  6.06353 -2.00567  4.13868  7.94509  8.61608  6.67145  7.27322 -4.61753  2.90213 -5.25567 -2.65245 -6.09426  6.38752  8.05888 -5.07835  9.81996  5.85964 0.935777
 -4.75181  0.983697   6.29711  -3.97501  -3.61436  -6.04612  -8.22743   -4.0472   8.32736   5.12325   4.99171  -6.07243  -4.57173  -3.53659 -0.541091  -8.46525  -3.77993  -8.68081   8.57507  0.935777
-9.37665  8.58152  5.78458 0.497101 -6.11882 -6.87479 -4.63554 -5.50167 -3.27828  9.28148 -9.89032  9.27901 -6.33086 -4.83573 -7.21332  7.71327 -5.76074  7.93497 -7.42066 0.935777
-1.70322 -9.82854  2.19639 -9.04727  6.83326  1.11378  6.67016 0.113686  9.64718 -6.08875  -6.2899 -3.56859 0.483933  2.53898  4.33652 0.248335 -9.32096 0.493849  1.99162 0.935777
 -3.39436  -8.85587   0.94995   8.02971    -4.448   2.35989   -7.3915   -1.2897  0.920377   6.39667  -5.73298   8.44906  -5.98504  -1.25918  -7.43039   -3.3808  -9.81659 -0.435352  -5.52679  0.935777
 -9.44816  0.773968 -0.114851  -6.74587   3.70936  -8.78911 -0.910041   -7.8259   4.52384  -4.65293   9.89914  -7.90771  -6.50133  -7.52674  -6.32058  -5.49807  -5.48311  -1.56993   -7.9044  0.935777
 -8.85888  -1.13832  -9.10615   2.95509   8.13294  -7.63181  -5.86693 -0.757964 -0.384115   8.94451   4.71714   6.21285  -8.48035  -2.86313  -3.18601   4.20064  -4.07749 0.0620179   8.69761  0.935777
 7.72724  3.56318 -4.22856  3.64965 0.841927  5.42816 -7.81336  5.43651 -5.70803 -7.20262 -9.00647  9.78835 -6.68271 -7.51856  1.41321  2.81769 -3.39989   4.7137 -2.29608 0.935777
  7.79467   4.43511   6.24077   -7.2266    -2.336  -3.51855  -7.93874   5.68802  -1.69146  -7.16098  -1.09572 -0.480576   3.24699   8.32674   9.82857  0.711284  -1.87308  -4.94621   9.10418  0.935777
   4.5036 -0.239894  0.388026   3.77891  -9.27931 -0.254186  -1.30495    1.2728   6.96919 -0.606229  -9.55508  -5.39794   1.86636  -4.99327   9.62395  -6.55102  -9.80823 -0.784879  -9.89692  0.935777
 8.44017 -5.67332  9.68194  5.71952  6.43233   5.7084  1.33538  3.71346  9.09995  7.66183  2.58041  8.36067 -1.90258 -6.81787 -4.87081  1.93533 -6.43946 -1.25894 -4.06728 0.935777
   -2.6762    -1.6162    -3.7993    8.67088    7.82572  -0.218716   -8.97873   -1.93715   0.777787    5.62497    4.19832   -8.15284   -6.70262   -9.91531   -7.55535   -5.61374   -8.97096   -2.99743 -0.0943162   0.935777
 9.41229  2.54874 -5.77927 -1.66688  4.75542 -5.18707 -6.74503 -5.10013  -9.8825  7.09522 -5.97562  9.74702  6.49016 -1.78281  6.24473  6.89867 -6.21618 -5.97854 -1.72098 0.935777
  3.27096   5.10931   0.38211   3.94199  -1.31725   4.34372   -1.0916 -0.310287   3.01939   7.87509   2.29711    8.1591   3.99027  -2.49273  -7.67779    -8.493    1.8139 -0.581996  -1.81885  0.935777
