   10.692    4.6437 -0.416433  -2.82532  -3.23723  -7.69521   -8.5054  -6.47508 -0.411821   8.23502  -6.01526  -4.42652    5.5694   8.38231  -3.39637   8.14265   7.97632  -8.12158   -9.3224  -7.82458  -5.70229  -1.99438    4.0563   6.22928  -9.08438  -1.71066   8.07159   -2.6566  -3.37215  -8.93954   2.31262  -0.44701  -3.69811   3.44418  -4.81084   8.72456   8.66863   7.24981  -4.76501   2.54551  -2.15745   4.16301  -8.46641
   4.4604   1.34455  -2.82532  -6.75817  -7.69521  -1.72885  -6.47508  0.572526   8.45587   1.75817  -4.42652   7.86847  -9.30457   6.93822   8.08157  -5.75212  -8.12158 -0.572448  -7.82458   1.97037  -1.99438  -7.35907   6.30252   7.08241  -1.71066  0.026458   2.39782  -7.90542  -8.85295  -5.56113  -0.44701   9.08333   3.44418   24.3971   8.72456  -6.94911   7.33987  -4.45008   2.54551   3.56282 -0.131194  -6.10943   9.03436
   6.97362    7.71796    4.07018    2.24958    4.51673     -3.935    2.56497   -11.2062    7.95468    8.42035    8.39855    0.70507    4.85428   -4.88419 -0.0277909   0.384493    2.01535    5.60994    9.60613    7.86822   -7.44396    7.61381    8.11295   -6.04317   -9.42866   -6.16271   -3.24048      5.483   -8.80496    4.24894    1.60721  -0.491011    2.45369   -5.13457   -1.84595   -5.40231   -1.60255    1.77518   -6.56284   -8.81681    9.31324    11.2596     7.1084
   7.60457    3.59782    3.03091    10.2527   -3.99341    594.285   -9.00349    6.36396    8.26075     2.3051    0.70507    -4.5465    1.80678   -11.0941  0.0762733   -3.50908    7.45353   -7.67478    7.98473    91.6622    8.31065    6.73261   -6.21126     6.3896   -6.16271    4.25387   -7.70401    0.13446    4.18436   -4.22673  -0.586986   -1.42484   -5.59643 -0.0848359   -5.17806  -0.761416    1.72833    8.16618   -8.81681    13.5684   -4.96057   -1.87575   -4.96699
      3.6  -6.78519   8.58191    5.3308  -79.6118  -3.86426   6.08974  -2.46733   2.33026  -5.59607  -2.63139  -5.13185   5.23962  -4.62171  -3.10901  -2.77097  -1.40528  0.747339   488.258  -8.05925   7.88781   -5.8324   6.28772  -3.86151   2.27725  -9.25922   8.11196   9.47693  -1.41073   4.69602 -0.204375  -8.32889 -0.138993    9.1556 -0.787623  -8.17871   8.10688   1.46516   1.81573   -2.8182    4.4735 -0.661097  -4.78651
  -6.78519   -2.56677    5.25216     9.1678   -3.86426   -4.51806   -2.46733    8.46637   -5.59607    3.12816   -5.13185    3.01234     2.0341    8.08404   -2.77097   0.824827    0.46305   -2.96649   -8.05925    9.54158    -5.8324  0.0101781   -3.86151    4.12125   -9.25922    9.01448    5.16088   -7.71794    4.69602   -6.67968   -8.19435     1.7605     9.1556   -6.83298   -8.17871   -2.79768    1.46516   -3.04379    -2.8182    6.52594    5.02021 -0.0274319    2.43542
  -4.72417   0.312571    8.75057   -9.94841   -4.33436    5.36713    8.95226   -12.4486    3.55729   -9.25361     2.8018   -7.67174   -14.1351   -3.79777   0.431735   -9.50722   -3.94085    4.51086    9.66374    2.60479   0.324434    2.80933    4.39735   -6.52831    8.86948    15.3589   0.629699   -5.89693  -0.154941    8.20107    1.69122   -1.52823   -6.85506   -1.50697   -2.94427 -0.0338976   -3.19733    4.51131       6.43    2.11689  -0.194683   -9.91562    2.82033
   0.312571    -2.18935    -3.98992     5.74938     2.57845     21.3945     -4.0878      7.8086    -9.25361     3.75723     10.9831    -1.77855    -5.66201     4.27703    -9.50722    -5.02039     5.67649    -9.64874     4.01008      1.6195     5.86949     9.31878    -6.52831     2.60086     2.08049    -8.93676    -5.87268    -8.65002     8.20107    -2.89852    -1.90798 -0.00609882    -1.26943    0.455932     1.78894     2.83006     4.51131    -9.42792    0.659753     3.99622     8.77257    -1.22795     1.74706
 -2.18935  0.661459    6.7007   6.41414   21.1221   4.94557   7.81201 0.0107503   3.74843   -9.4908  -1.77855   5.70435 -0.619097   10.1327  -5.02039  -4.60822   -7.9938   7.30479  0.456347  -9.89953   8.93887  -2.06266   2.72478  -2.57697  -8.93676   6.45437  -6.41257   -12.151  -2.89852   9.78861  -1.89099  -4.69343   0.45758  -1.82708    2.7983   6.86105  -9.48755   5.70805   3.99622   6.11966   7.88281   1.21389  -4.32235
 0.661459   8.33044   7.70224   4.29267   5.50217   1.27732   1.15773  -1.45206   -9.4908  -5.95435   4.69202 -0.003244   6.02928 -0.229968  -4.60822   -3.0561   7.54291  -6.91097  -8.83506   7.27741   2.24003   4.25022  -2.57697  -4.97477   6.27598   1.86907  -2.21101   1.34633   9.78861   4.86352  -5.00105   1.47937  -1.18058   7.98716  -5.93904   -6.5981   5.70805  -6.59434   5.78402  -11.1287  -6.88264  0.280209   5.17894
  8.39533  -7.79017    3.7731   8.63565   1.20736   5.82256  -1.35094  -7.09988  -5.95435  -5.07313   0.69864  -5.06758  -3.99067   10.3456  -2.72265  0.488672  -7.57766  -2.65015   7.24587    5.4289   4.24044  -9.36636  -4.97477  -4.34995   1.71904  -1.80072 -0.542087   -3.5944   4.85186 -0.411903   1.02922  -2.58098    7.9497  -1.80234  -6.40218  -2.79961  -6.59434  -8.34419  -9.36924  0.467352   7.33997  -1.85294  -4.36232
 -0.62276  -5.97667   4.91225   5.99987 0.0475538   4.81717  -7.09988   8.42725  -5.07313    1.7063  -5.06758   2.98771    2.4763  -7.26008   1.18164  -8.50006  -9.30207  -2.28269  -10.5138   1.24214  -9.36636  -3.20503  -4.34995   6.35212  -1.80072   6.68075   4.81846  -6.81349   16.5605   5.30851  -2.12605   8.13501   3.15581   3.25937  -2.79961  -5.91162  -8.34419   -4.9578  0.467352  -7.17368   10.5008     3.524   5.31599
-5.97667  7.94018  4.30911  8.06819  7.77557  4.71694  8.29611 -1.50354  2.36321  3.01383  3.45919  1.96342 -2.43151  7.54187 -8.50006  1.94193 -2.87482 -5.54555 -1.74296  8.46077 -1.85246  3.01159  6.85792  -2.1032  7.04975  5.65336 -8.13676  2.35311  5.30851  5.98009  4.54167 -6.90499  5.56283  4.81838  -5.3752  2.47878 -5.31259  11.8876  -7.4936  8.76086  8.35335 -5.71732  -6.5946
   1.30838   -2.89314    8.86612   -2.69449   -1.33513   -25.4206    2.95159   -14.4325    -2.7199    9.62151    5.79124    1.82775   -9.60152   -2.51134   -3.07673    3.50585   -8.12654    5.62894    5.88604 -0.0419302   -4.73699   0.318379   -7.94931   -0.51546   -5.05719   -6.70068    8.66422   -13.7619   0.339141 -0.0230559    5.83228    6.99397    5.25022    1.11131 -0.0172015    7.34691    9.85151   -5.11994    4.11457    3.81579   -7.89631   -6.05326   -4.11444
  -3.39737   -13.4586   -2.43001   -3.93298   -22.6674    2.61352   -13.3094   -6.88078    10.5954   -4.15052    1.82775    7.79933   -4.38109    7.59816    3.36262    4.19999    4.86052    10.2168 -0.0214265   -5.39017  0.0900432  -0.963733   -3.60345   -5.81217   -6.70068   0.517642    8.76313   -2.72313   -0.06315     2.1995    5.13663   -5.18936  -0.109246   0.643454    -2.0301    5.17005   -7.17255   -6.07579    3.81579    4.50119    2.82733    6.02237   -7.89692
  49.4305   1.99949  -3.09417   7.65229   1.03252  -2.14604  -6.88078  -9.74125  -4.15052   4.86934   7.02524   6.46674   -2.6987   1.41691   3.01416    8.6016   10.5924 0.0793998  -7.76367  -7.74207 -0.963733  -9.77076  -5.81217   4.49645  0.121891   6.29229  -4.81671  -4.52017  -1.83067   6.87043  -5.09937   3.51687 -0.143001  0.458761   5.17005   2.83814  -6.07579   8.21457   4.09615   -5.2784   6.68721 -0.279479  -3.70902
  2.68098   6.93174   8.63086   6.36995  -2.14604  -36.4925  -9.74125  -7.63257   5.43175  -10.0584   4.86739   9.85204  -7.19169  -5.84693   8.39843  -2.37958  -3.48764   6.99426  -7.74207  -60.8838  -9.77076  -8.96967   4.32947  -3.95705   6.92796  -4.05993 -0.597006  -4.99107   6.90865 -0.808651   4.59639  -6.05201  0.458761 -0.675547   2.83814  -7.42744   8.45051 -0.970981   -4.9782  -3.57689  -9.92106  -8.87009   -17.692
   5.30584   -9.15188    -1.3522   -5.53826   -6.09733  0.0419252   -7.63257   -1.29859   -5.30419   -1.32203    8.57436   -3.40044    0.69667   -7.94807   -7.63641   -4.19245    4.64874     2.0838   -26.6271   0.649451   -8.96967  -0.799759   0.352979    9.10881   -7.48014    7.15871    6.40974  -0.811993 -0.0156365   -2.07937   -3.82281 -0.0805384  -0.115927   -28.3295   -7.42744   -7.65587  -0.629246    8.63954 -0.0198079   -3.03586   -3.23091   -5.64736   0.306087
 -9.15188  -2.56712  -5.29771   6.89996  -1.27134    1.7169  -1.29859   5.47381  -1.39213   7.59578  -2.64024   -8.7455  -22.8074   11.4447  -4.19245   7.61149   1.88594   1.23464   0.41878  -5.97371 -0.799759   2.91211   9.14474   2.58097   5.25178   2.74573  -13.1906   2.07059  -2.07937  -9.22736   1.13163  -3.24443   -14.204   9.94694  -7.65587   6.87175   8.69934  -1.75097  -1.62152   1.24734 -0.205614   -1.5116   -8.6727
  -2.76456    4.33941    6.29363   -9.60106     1.7169   0.247165    5.69704    6.37253    5.93735   -6.54007   -7.60432    2.93902   -2.93988   -4.52887     7.1119    2.78443  0.0904122   -40.6985   -5.97371   -5.78782    3.51208    -5.1495   -2.67026    5.28751    3.45051 -0.0288247    10.0003    9.13392   -8.08392   -3.96492   -2.94387    13.9064    9.94694    7.94761    7.15248    5.84559   -1.41525   -5.72856    1.04179   -7.02953   0.458965    7.45774   -2.33489
  3.60743   4.23651  -9.92947  0.171943  0.247165    6.6378   6.79237   8.58784   -6.6734   -8.5255   2.52388 0.0943027   7.47207   7.43246   3.77836   4.92876  -10.8804   9.55522  -5.78782  -6.12745  -6.12081  -9.69102   5.71127  -8.29825   0.28189  -8.88024  -6.24698  -8.38541  -3.91938  -5.87707  -1.52518    9.3279   7.94761  -6.39912   10.9218  -4.90121  -8.02688  -8.79355  -6.02209  -2.58358   2.86556   5.65111   2.39566
    4.02448     6.87925    0.309472     9.39274     6.51903    -6.72042     7.70913     9.58051     -8.5255     3.13271   0.0943027     2.16215    -4.02271     8.05217     4.02853   0.0108988     10.1065     8.46544     -6.5001     3.77125    -10.9968    -5.40285    -8.29825    -10.7864    -8.88024     1.98302    -6.37577    -8.02935    -5.51823     7.52268     9.86839    -5.03249    -6.68122    -4.33966 -0.00960411     2.97694    -8.79355     3.60217    -2.58358    -6.13935      1.5709     5.39452    -6.29337
  7.04313   5.33497   9.16633   8.24607  -8.98085     -4.27   8.32735  -8.75654   3.05205  -1.33692   1.97823   1.81923   -7.1368   1.86308  0.120763  -10.8462   7.49901  -3.14036   3.25299   8.53243   20.5169   3.44607  -10.9364  -3.73521   1.26011  -9.78846 -0.925293   3.58217    7.7017  -1.47444  -4.87966  -5.62472   2.04148  -5.55799   3.18909   3.08662   3.85645  -1.72125  -5.57158  0.688503   9.65548  -1.03182   11.2074
 8.11004 -9.75471   9.1363 -3.72234   -4.275 -3.21495 -2.97608 -15.0941 -1.33692 -3.12244  1.81923    3.964 -8.68503 -1.23369  -6.2143  7.47193 -2.45341  7.44123  9.48498 -7.13848  6.86668  4.06213 -3.73521 -7.18571 -9.78846  9.22505 -1.74811  5.81539 -3.45003  2.84033 -6.90551 -5.98268 -8.22127  8.28057 -4.62362  4.10564 -1.72125 0.272124 0.688503  7.77551  7.84902  8.50401  -4.7563
 -7.58509   4.69505  -6.60908  -3.92267  -3.21495   6.57906  -4.64371   12.1491  -3.12244   7.66408    4.6362  -5.90955 -0.677776  -8.41871   8.33256  -2.14422   7.23953   2.61623  -7.13848   10.6281   5.14806  -8.10122  -7.18571   3.39111   9.45697   6.43052   2.71135   3.88436   2.67611  -3.82983  -6.75324  -9.55649   8.28057  -2.32009   1.09353    3.0742  0.272124  -5.57275   8.02176   3.23693  -2.68308   2.05065   -7.7216
   4.0695  -8.00035  -6.07083  -2.15016   5.45386  -9.42506   12.9467   7.14469   7.19305   3.97422  -3.33231   3.58473   9.48039   3.41719  -3.50415   6.70197   1.77403 -0.826194    7.2854   7.72482  -3.80432   4.69469   2.01571  -7.93845   8.29246  0.438267    3.7799     6.577   -3.4546   3.98396  -6.33931   9.56627  -2.00378  -1.91848   2.88484  -2.89649  -5.21424  -1.66161   4.76054  -2.21428   10.3936  -8.33132   15.1564
 -6.65575  -6.13526  -2.15016   3.36323  -9.00255   4.18778   9.27818   15.3579   6.26101   20.6911   5.95364   5.18408  -2.00129  0.630887    6.1508  -9.71439 -0.826194   7.89029   8.31752   0.52305   6.73191   7.44802  -1.05262  0.753979   2.68187 0.0299227   5.74811  -2.71504   3.28743  -5.33754   9.56627   8.41219  -2.46141   1.45181  -3.37475 -0.419801  -0.28503  -0.80142  -3.11139   6.36559  -3.84364  -2.77755  -10.1402
  -6.13526  -0.766449    3.89134   -11.2791    6.89519    8.56328   -2.75977   -3.02876    4.17508   -1.01879    6.41543    9.09998   -3.03802    -2.2362   -9.71439    -5.1728    7.40568    5.20943   0.305957    1.82499    28.0241  -0.854055   -8.46192   -6.25752   0.013054    3.27572    -5.2279   -2.51847   -5.33754   -2.21178    8.33999 -0.0738974    2.27915   -5.02653  -0.580016   -2.70035 -0.0334325   0.470436    9.87851   -7.65283    -2.0305   -9.52981   -11.5697
 -0.766449   -4.48115   -6.53872   -3.02455    5.29803   0.837783   -3.02876    2.84482   -1.01879     1.8799     6.7492    0.56089  0.0191526   -4.71118    -5.1728    5.62285    8.22275     6.0488   0.206855   -9.64316  -0.854055 -0.0538345   -6.25752    12.5208    0.86138   -6.44218   -4.50313    -7.2689   -2.21178   -4.86457    3.28839    -19.906   -3.29947  -0.528903   -2.70035   -5.89455   0.470436    8.43934   -6.13812    2.28394    18.0513    5.76817     21.023
  -1.32267   -2.22192   -5.02736  -0.116175   0.837783    10.1827    5.23507    9.58505   -2.74236   -4.62783    0.56089   -6.45038  0.0140714    7.22272    8.05397   -2.16296    2.32196   -8.43218   -9.64316    1.30978   0.585643    3.11182    9.32436    -8.8461   -6.44218   -4.37571   0.584165    8.03883   -5.90454   -1.20114  -0.165793 -0.0888803  -0.528903    -3.8635   -10.2792    9.21481     5.7019    7.58577    2.28394    6.78981   -54.5567    1.92225   -6.26509
 -2.22192   4.01744  -14.8992  -8.66613   13.3056   2.02492   8.51659    3.5156  -4.62783   8.65168  -6.45038   7.23882  -7.60368    2.9231  -2.16296   8.05283  -26.0144  -3.98631   5.02215   7.38273   1.85289  -1.18914   -8.8461 0.0125892  -4.37571  0.405152   2.57308   6.87732  -1.20114  -8.33859  -1.59401  -0.19943  -5.11874   6.73099   8.40962   2.44805   7.58577   8.11219   6.78981  -11.1156  -1.28433   6.33306  -8.16932
  1.27619   9.13492   4.51342   4.07495   3.83183   5.92287    6.7521   8.42454   10.1863  -6.07564   5.19226  0.318616   9.04855  -6.09215   5.48409  -3.19961    5.9494  -1.28217    9.0037  -5.86229  0.442968   9.52374  0.648754  -9.50039  -1.67788   5.79492  -3.07223   2.04822  -5.83549  -9.10134  0.729419   -6.6864   7.79927 -0.036223   4.35234  -6.43043   9.42592  -3.85682  -6.80172  -4.37379   5.60989   15.4174   4.50465
  8.04352  -6.33769   1.80195  -4.20825   4.38586   37.8141   6.87706   15.3524  -6.07564  -5.48477  -1.84034   3.24577   8.06362  -15.2937   -4.1209   3.30518    -3.589  -7.37251  -8.81347   2.83744   8.63408 0.0316865  -9.50039  -9.97816    4.3211  -7.83077  -4.30814   1.07166  -7.36139    16.159  -2.08903  -5.57132  -2.55952   1.83864  -5.95419   4.45026  -3.85682   8.17373  -3.52861 -0.367582  -5.42259 -0.224347    8.1304
 -7.41239   6.20816  -4.20825 -0.874361  -2.84243  -2.86749   5.64177   4.09238  -5.48477  -5.92432   7.90314   6.76018  -7.99068   -7.8048    1.6834   5.62644  -7.37251   2.10861   6.60998  -5.12931  -1.31234  0.108562  -9.97816  -9.61148  -5.47352  -4.67934  -8.65779  -8.66012  -1.22278  -1.75461  -5.57132   2.04579  0.455738  -6.21359   1.36918   1.71122   8.17373  -6.61872  -5.55705   6.45026   2.97359  -1.68166   4.48269
    2.20905     -6.9898     7.99834    -3.33455    -2.86749    -2.43841     5.92395     4.54608    -5.92432     8.15481     7.05904       1.875    -6.78884     9.18644     5.27907    -8.48882    0.450327      8.1488    -5.12931   -0.585612    0.286054    -9.16222    -9.61148     5.53721 0.000945909    -7.44098     -4.6799     1.03874    -1.32122     8.80228      1.9036     1.14529    -6.21359     9.54079     2.38167    0.437081    -6.61872    -1.52163     3.62582    -0.23193    -5.43307    -3.83219     8.86315
  -6.9898   -0.5298  -1.25213   7.90852  -2.43841   8.29262   4.54608   6.75332   6.39979  0.802547     1.875  -1.63143  0.255893  -9.68299  -8.48882   6.43446   10.3127  -3.33605 -0.585612 0.0283695  -9.16222   6.91581    3.5679  -7.80695  -7.44098   -1.6729   7.48785  -7.81478   8.80228   7.15929   1.58016 -0.116138   9.54079   4.48842  0.437081  -2.96631  -1.30241   -3.6967  -0.23193   6.56926  -6.62806  -9.78903   12.4282
  5.69158  -4.56791   2.56856  -5.45554  -1.39149  -5.92005  -3.20255   5.46106   5.62826  -8.31387  -4.85132  -5.25572   7.22723   8.04025   10.9042 -0.465697  -9.24791   -9.8714  -9.73678   2.84417   11.1742   7.17945     1.824  -4.04669   -7.8754  -1.72913   4.76753  -3.86139  -6.82583    1.2638 0.0905392   4.05882   6.86389    15.015  -3.39017   4.24007   5.07966  -6.30884  0.493914 0.0237462   9.19175  -11.1592  -13.7824
 -4.56791  -3.19087  -5.45554  -2.23913  -1.72186  -6.93904  -1.35216  -6.24747  -8.31387   5.34138  -7.80404  -2.49015  -9.95468  0.434513 -0.465697  -22.2161   -9.8714  -1.14975    3.4446   -1.4187    2.7055  -6.51985  -4.04669  -4.54091  -5.13287   2.11194  -3.01363  -4.49193    1.2638 -0.758876   4.05882   5.15221   14.6219   7.50648   3.14935   6.80444  -6.30884   5.58997 -0.242718  -12.1959   -8.4424 -0.505427  -32.9213
  5.19021 -0.536563  -2.23913  -8.03324  -6.93904  -6.54176  -6.24747   4.88846   9.41234  -1.66847  -2.54571   6.36282  -6.45032   35.1854   -10.454   1.07663  -1.14975   5.55676   -1.4187  -8.03815  -6.51985   3.85192 0.0135553   3.33821   1.70277   7.78956   4.62309   17.9756  0.261372   6.08995   5.15221  -5.97577   7.50648   1.58302   6.80444   3.79004    9.4139   15.1727   9.35355  -6.64539    3.6559  -1.01834  -1.30349
 -0.338138    9.40759   -6.28294    10.0231   -6.54176   -2.40486    5.91811   -8.14102    2.54362    2.37071    5.67753   -3.16827   -2.41938   -2.47946    1.21165   -9.66607    5.45563 0.00399205   -8.03815    6.43126    4.63749   -4.66656    1.67916    1.78079    7.27037   -1.18779    2.48541    2.16155    6.97398   -7.93758   -4.12095    7.10596    1.58302   -8.55933    4.19274    3.37666     4.1791   -5.86299   -6.32559   -5.24257    30.8204    10.2728   0.422816
  9.52862   4.27424   9.60462  -8.68376  -2.07819  -2.67987  -8.14102  -3.35205    2.8529   9.60286  -3.16827  -6.14606  -4.67478   6.08269  -9.49997  0.370911 0.0346683   8.28515   6.77737   2.54388  -4.66656  -9.98614   2.29471  -8.82979  -1.18779  -6.29242   9.35218  -6.15999  -8.36293   2.21319   6.71709     4.151  -9.13034    8.1613   3.37666   9.78396   -6.6037  -2.63871  -5.24257  -7.56625   3.27047    7.6636    -9.542
   5.97862    8.48195   -10.1991   -0.17119   -2.07443    1.97496   -3.35205    -2.2569    8.56244    1.36969   -6.14606   -14.1026 -0.0588992   -8.97558   -2.63253    3.56816    4.49461    3.89657    2.45275     4.9221   -9.98614   -4.41078   -10.1274    1.46841   -6.29242    1.50587   -2.45587   -3.74493     3.1378   -5.85472   -1.87869    5.36422   -5.06533    5.96046    9.78396  -0.442443    1.20776    7.37416   -7.56625  -0.153129    3.10659   0.332303   -19.0571
    9.39179    -2.18658    0.445238    -1.18465    -1.11155     4.71008    -5.68945    -3.90067    0.590148     1.60478    -4.61854    -3.48726    0.210737    -6.42928     1.00734     6.41178    -3.97399    -5.54692      6.5882     4.81703    -9.61734     9.09574     1.89042    -4.51212     9.41017     6.97803    -3.81653   -0.266783     2.49977     25.7453     -2.6014     4.99779    -6.34472     -3.9702    -8.37105    -9.15244    -1.12408    -7.84122    -5.40739     4.29227    0.867557      21.865 -0.00378203
  2.16175 -0.782828   2.28153  -16.4301  -3.85963  -9.31918   10.1215   8.10703   9.74556 -0.813767  0.836884   1.55603   6.89416  0.969501   19.8975   -6.0997  -9.31216   3.75225  -7.78692  -8.93437  -2.44975   5.74554   5.82886 -0.532916  0.470177   4.94958   -1.4327  -2.11293  -1.13527  -4.79736   2.90472  -0.78222  -5.86186  -3.40458  0.555979    8.8459  -9.64151  -196.622   4.90036   6.32296  0.817275   1.03513  -2.63738
 -0.782828  -0.678752   -18.3628   -9.93519   -9.31918    3.89696    6.42296    1.00026  -0.813767   -2.04484   -0.42673     7.6555    4.60179  -0.156988    -6.0997     7.1945    4.64406   -1.63693   -8.93437    3.44825    5.07416    5.45025  -0.476978  -0.887352     4.1429    3.09237   -9.20789   -5.31813   -4.79736   -8.96321 -0.0865974    1.83039   -3.40458    8.43303    8.00645    5.97185   -175.983     9.0116    5.37434   -12.2203    3.51321     2.5249   -21.7768
-2.35387 0.572331 -8.99945  8.56339  5.10379 -1.04963   8.4788 -3.92381   6.5445  8.54425  4.23836 -4.28751  4.60098 -2.30292 -8.92085  42.6652  -0.4995  7.36025  8.77402 -8.70099 0.170626 -7.95826  3.25383  6.91396 -5.43139  5.32558 -5.76299  2.88963 -1.04691 -2.50105 -2.28549 -2.51538  9.04742 -6.61499 -4.60893 0.271714 -4.87624  7.86019  2.00176  3.77456 -5.96949  1.05987 -14.7476
  38.8389  -1.85339   10.3607  -4.10427  -1.04963  -3.31803  -3.92381  -12.7289   8.12378   6.00487  -5.33474  -2.16719  -6.00145   7.44502   5.37709  -4.72513   6.84952   8.27058  -8.70099  -3.81704  -7.95826   1.49418   6.99249  -4.15353   3.81267  -18.4397   4.05865   -4.9691  -2.38587  0.285933  -2.72844   5.41825  -6.61499   6.32313  0.271714 -0.181458    7.7404   2.89039    1.3687  -5.45324  -14.7304   8.51179  -12.5586
   1.50086    2.15443  -0.216762    4.76421    7.37112    6.67916   -7.44443   0.265191    10.4111   -3.88359   -6.18049   -1.63786   0.162312    6.65589    5.05318   -2.14394    3.54103    7.07463    2.49955    1.68325   -2.04856  -0.979905    1.52749    -3.0076   -5.91527   -1.53747    5.65072    -6.6144    4.80889    22.8324    1.17042    3.51202    1.66363    7.24346    7.50697   -5.09197   -7.86107   0.544375    8.94315   -8.98422    -10.145   -7.45667 -0.0742781
  1.59579   8.71449   3.37257  -1.15061   5.95987  -2.88088  0.265191  -1.10468  -3.88359  -4.49143  -1.63786  -8.99022   4.98856  -5.02904  -2.60498   1.17123   7.39094  -1.06832   1.85465   4.61234 -0.979905 -0.789357   -3.0076   7.24085  -1.53747   -4.7227   -10.247  -6.08454   10.4806  -7.86141   3.40292  -5.29251   6.82526   7.59628  -5.09197  -1.39529  0.544375    -8.659  -8.98422   3.29733    1.2031  -4.46382 -0.626598
   6.75302    1.47137   -1.15061   -7.06316  -0.467767    4.95605   -1.10468  -0.747069   -5.84852   -1.66473   -8.99022    7.41567    3.65091   -1.78131   -1.10034    -3.5953   -1.06832    8.69102    4.03465   -7.61427  -0.789357    2.06814    7.19272   -3.67827    -4.7227   -1.20285   -8.62901   -2.11087   -6.01998   -2.46358   -5.29251    8.90513    3.38408 -0.0106553   -1.39529   -5.16489   -10.7891   -7.47225    3.29733    5.23308  -0.159204    7.17082   -2.71952
  2.58834    8.9694   5.41481  -1.17035    5.4613  0.912347  -4.12449  -9.96346   -3.3578  -3.26424  -2.13433   1.86999  -0.89948   8.60008  -7.53929   4.46548  -11.2225 -0.737168   1.59768   3.87376   8.84968   4.20288   6.92404    7.9127   7.79328   3.89449   3.40888   4.36881   9.03188  -2.33907   0.17239   6.54746   6.20992    7.1668   7.50691 -0.092185   3.35872   5.63753  -5.15763  -1.41957  -32.4624  0.474866  -6.71364
   9.70623    2.65361   -1.17035    7.78217    0.67748   -4.70575    -5.0237   -9.82859   -3.55715   -3.67071    3.39977    1.28596   -4.11211   -6.75387    5.18622  -0.295076  -0.737168   -3.99354    3.65322 -0.0672012    6.69367   -2.16821    7.63608   -6.34841    5.88753    4.91227    2.11094    8.99576   -2.47888  -0.840215    6.54746    6.42467    6.81402    2.05822    4.54918   -7.47802    5.41568    2.64571   -1.66566   -2.33917   -12.2476   -3.40436   -6.04432
   3.93534    5.72477    6.93152    0.54104   -4.70575   -1.12918    9.28177   -5.83565   -3.67071   -9.83588    5.26708    6.97619   -2.35161   -2.25215   0.140307   0.143021  0.0434133    3.58437 -0.0672012    2.55589    8.93062   -5.79183   -6.34841   -5.44961    1.94674    3.87215   -7.39078     5.2884    7.09721    8.82455   0.918724   0.495221    2.05822    7.43948    1.09423    5.87951    2.64571    8.60922   -3.94933   -9.23915   -5.74412   0.446619    8.59917
   6.99651    4.56407    18.3682   -5.63045    1.36331   -4.54586   -5.83565   -1.25773   -9.83588    7.64517    5.60877   -1.73557    -9.0215   -2.76796   0.416548 -0.0360796    12.4952     3.9242    3.30629   -8.33339   -5.79183   -1.47441   -5.44961    3.24217    3.18362    3.46445   -5.99927    1.91692    10.8828   -6.78216    1.62262   0.655797    9.41537   0.830671    5.87951    -8.6561    8.60922   -6.21729   -8.16577   -3.42565    8.19063   -1.50435    2.39439
  3.70158  -5.98253  -10.2785  -7.51061  -4.54586  -8.90441  -1.25773  -9.65831   6.59754   4.27455   -3.4785   1.21202   7.63265   7.00569  -1.12349   2.28945   3.22208  -4.47848  -8.33339  -6.17001  -1.47441 -0.957174    2.5435   10.1263   6.95297  -2.47896   7.44001   4.77803    -5.824  -0.50271   2.25862   6.87547  0.830671  -2.39111   -8.6561  -2.06644  -5.71101   6.43851  -10.4641   7.79128   6.76408  -7.96971   3.79372
0.0769661  -5.08923  -7.51061   1.76255  -8.90441   2.41439  -9.65831     2.148 0.0633674 -0.303135   1.21202   12.0165   5.14593   7.84595   11.4202   2.14679  -4.47848   3.18145  -6.17001  0.481068 -0.957174    5.1348   6.17166   2.72617  -2.47896    10.199   7.47176   2.55136  -2.98062 -0.180475   6.87547   0.67589  -2.39111   3.06517  -2.06644  -8.46625   3.80538   3.35911   7.79128 -0.841946    7.2928  -2.08308   1.16898
   10.2991   -12.0726    3.16146   -1.67501   -5.59635    6.30076   -3.57277   -4.92225     4.4698   -8.60438    6.80739   -5.42525   -7.22713   -6.81233    9.21045   0.355556 -0.0778111    4.55955    11.1886    -5.8243   -4.99278   -9.92427   0.688988   -4.24009   -6.51357   -9.81852   -8.62376    6.61294   -2.79513   -1.70768     4.2026    6.85012   -3.23322    1.98515    7.14692   -4.63647    9.40197    9.21419   -6.64494   -4.68269    -2.6093    4.74947   -6.59241
-2.94361  3.52117 -1.93792  1.09181  6.24225  3.60006 -4.92225  7.66856 -8.60438  6.79681 -5.42525  9.12594 -7.55757  4.47103  1.58466  2.58815  4.43796  5.05069 -6.04219   1.6439 -9.92427  10.5673 -4.24009 -6.54484 -9.81852 -4.92556  7.01323 -4.35385 -16.2853 0.819545  6.89195  3.88348  1.99366  -6.3356 -4.63647  -1.3827  9.21419 -5.29165 -4.68269  5.18338 0.936542     3.64 -7.90616
   7.77073   -7.83245    2.17305    -6.7325      2.697    -2.2071    2.37288   -3.91972    5.85291   -2.32639    9.12436    6.10501    2.59992   -3.97531     6.5668    4.80955    6.07525   -8.09862   0.768879  -0.105451    5.35179    6.01481   -8.79592   -3.24596   -4.45064   -2.96847   -1.59867     8.6636    1.21098    2.29659    4.50468   -1.60038   -4.99609    7.73811  -0.839308  0.0941408 -0.0833136    -4.8931    4.96028   -7.51377   -6.99037   -4.00416   -3.76894
 -10.2198   3.58083   -6.7325   3.64578   -2.2071   2.49199  -11.3491 -0.426351  -2.32639   5.08346   3.90979  0.312253   1.90276   3.53681   4.31454   7.24397  -8.09862  -7.57258 -0.105451  -9.29823    4.6076   8.20811  -3.24596  0.228892  -1.84011   7.92416   9.48575   5.03223   2.49646  -8.47713  -1.60038  -4.94395   7.73811   7.13744  -1.79091   7.76316   -4.8931   9.22768  -1.59246  -2.60554   2.34315  -2.88448   6.10391
  3.84079   3.29045   3.64578   5.05381   2.49199  -5.68681 -0.718401  -5.14494   4.63167  -4.40834   1.08558   -12.369  -2.73172   9.36328   6.42876  -7.28183  -7.57258   7.74799  -9.29823 -0.822845   9.18878  -1.52309   1.45263  -1.05098   5.53929   6.22366   10.7646  -4.71653  -8.20299   6.37958  -4.94395  -8.78394   7.13744   3.76198   9.21829  -3.88034   8.63965   7.85705  -2.20774  -5.03187   5.87326   6.55816   3.99928
  7.05644  -9.97326   12.7412   -20.764  -3.70084  -4.40467  -3.88975   4.58338   1.76115   2.63999  -6.12442   6.05143   9.08836   9.17172    6.7754  -2.15095   5.57006   62.3544  -8.84873   8.80646   3.19154  -4.24637  -3.55492   6.68438    5.6691   8.12642  0.545778  -7.46475   5.78246  -7.65281  0.231292 -0.385129   1.56103  -4.58046   3.34588  -4.42946 -0.625459 -0.556936    3.2956   1.16688  -4.76953  -1.46616  -8.43261
 -9.97326 -0.408886  -210.613   5.23987 -0.992077   7.47042   4.53246  -2.07617   7.51409  -7.25705   3.42075  -1.06634  -2.81786   5.55113  -2.15095   6.57154  -28.4973  -5.27592   7.90796  -7.26368  -4.65069  -5.15744   3.94255  -3.44449   9.53534   -7.4501  -4.83192  -5.53422  -7.65281  0.915694  0.901181  -2.08412  -2.18245  -6.03188   -6.9512  -4.67673 -0.639322   2.54025   1.13682  0.523745   2.96988   15.6757   3.14746
  3.61183   7.26338   7.02755   1.02126   7.72298   9.82293  -2.07617   -2.0699  -7.25705   4.99299  -1.06634  -8.99626 -0.370116   3.71984   1.84099  -2.71164  -2.61525 -0.893055  -6.75548   9.31954  -5.15744    6.3155  -3.44449   9.41106   -7.4501  -3.31181    1.4094    3.1759  0.717592   5.20675  -5.50471   47.3299  -6.28645   7.13023  -4.67673   3.78964   2.54025  -6.39876  0.523745   8.64198   1.11455  -8.31424  -6.53887
   6.93777   -12.1933    1.21478   -11.5264      8.663    5.43839   -3.76137    -9.3885    6.31351    4.24168   -8.99626   -13.5889    1.11371    6.21548   -3.56003    6.86994    1.37993     6.2407    8.76985 -0.0392608     5.3124   -2.48875    10.0219    6.83844   -3.31181    7.28313   -4.64631   -8.77329    5.00789    1.60508   -33.3616     4.3033    6.76973   -5.61633    3.72259   -41.9794   -6.83956    8.34086    8.64198   -7.68451     4.6588   -2.27404   -3.51657
 -11.0045  -3.77342  -10.5218  0.409778    4.9707  -6.50445   -9.3885  -5.32252   4.51092  -6.50103  -1.41223  -16.3521  -2.46305   5.48166   6.73396  -5.95283   5.95606  -3.07869  -2.86021   -4.5415  -1.78631  -4.55341   7.14884  -6.70686   6.50355   1.19967  -6.11851   8.42802  0.503212   4.50353   2.23818   3.61266  -5.94521   3.13134   -30.131  -4.29632   8.56562   2.68617  -6.26616 -0.214229   2.98752  -3.19028  -10.0566
  3.22113 -0.361465  0.786297   2.65924  -2.77209   -5.6184  -5.82615  -3.92502   3.99537   8.35558  -9.57972   4.92158  -9.56683   1.80717   6.61429    7.3691   16.9396   -7.4047   5.83729  -5.20094  -4.65416  -15.4613  -8.02045 0.0264688  -8.53429   1.32578  -2.54731  -7.10846  -4.89512   5.58836  -1.70099   5.42226   5.39598  -7.22687  -2.79684  -0.40925   1.90986   2.98128   4.21544   1.98151  -3.87459   3.06772  -13.8365
  5.70418   4.31716  -9.51331 0.0510916  -4.76119   3.20746   2.75672  0.223129    4.9987  -4.74423  -3.96138   1.63339   7.52612   8.74851  -11.5267  -9.85783  -7.45852   6.87934  -7.09852    -9.365    11.529   -3.2965  -11.4319   2.19119  -5.82577   1.48471   1.37656   4.78329  0.632198   4.48329  -4.40143  -2.06889  -8.51306  -4.71717  -1.39292  -9.64922 0.0664669 -0.175687   9.01285  -5.10725  -9.63399   9.74505   5.04631
  4.31716  -7.58327  -2.94742 -0.893247   3.20746  0.419848  0.223129  -7.85487  -2.14458  -3.78827   1.81911    3.8462  -4.74199 -0.868178  -9.85783   1.11816   2.27408   4.27599    -9.365  -3.75597   -3.2965   0.80004   4.20611  -2.44215 -0.156544    6.6667    9.2348   7.59361   4.48329 -0.194192 -0.113875  -2.01076  -4.71717  -3.54589  -9.64922   0.77995   8.49942  -3.20741  -4.56227   2.31999  -2.91917  -2.76418   5.18188
   3.62244   -9.82088   -8.64179   -8.27272    7.58575     6.6454    4.07707   -4.18286   -8.60256   -5.64382   -7.53659   -4.23632   -2.26359    2.06137   -9.99901    -4.0281     2.4036    5.10495   -4.53571   -1.84135   -8.30381   -3.86163    17.2383   -3.16372   -5.25814    2.47883   -2.11512    4.46924 0.00173677   -3.82621    5.86697   -2.76386    7.12799   -7.78977   0.114174   -5.36501   0.568948   -9.92723   0.469486   -7.44234    5.36723    1.47083    2.15649
  -9.82088   -7.26722    -7.3704     5.6179    4.60524    2.15697   -4.18286    1.40361   -5.64382   -2.11419    5.25387    7.58948    12.8657     3.2338    -4.0281   -1.89188    4.57775   -11.2259 -0.0988014   -6.50363   -3.86163    3.09869   -3.16372   -8.64926    2.86328    7.37621    8.12892   -6.60236   -3.82621    6.55794 -0.0676498   -2.56771   -2.39801   -9.95633   -5.36501    9.03387   -9.92723    0.36262    6.87346   -8.18231    1.92739    6.41759   -2.67724
 -7.26722   14.1921   6.91478  -7.28782   2.15697   5.05647   1.58012   -4.1195  -2.11419   7.27335   7.47192   -8.1059   4.58806  -9.23039  -1.89188   12.2035  -9.41847   5.31601  -6.50363  -3.69633   3.24777   5.61146  -8.64926   8.66073   7.26059  -16.4259   2.19851 -0.647223   6.55794   3.18833  -4.15372  -5.44695  -9.95633   7.74867   9.46266   6.94664   0.36262  -5.41971  -8.11629   1.88994   6.49275   9.05261   12.1185
   2.17345    3.96118   -7.62595    7.48705    4.30739  -0.928163   -7.61197  -0.132491     8.2424   -2.11229    1.39904   -4.20705    -8.9599   -8.89341    8.22314    3.70969    5.17996    9.32075    -5.7573  -0.087256     5.2787    -5.5835    9.60158   -5.24697   -4.70736    3.02259   -6.44215   -4.12956    2.29842    7.37084   -5.41417    1.82538 -0.0244577     6.4539    8.10527   0.416867   -5.74695    2.98411  -0.102717   -4.98378    9.65317    -5.3097   -7.57223
  3.29141   7.28783   4.70316   2.41713 -0.928163 -0.360787 -0.132491  -1.93963  -2.11229   9.25925  -3.02319  -8.53576  -3.87497   2.47658   3.20952   9.17196   7.18082   1.86628 -0.087256  0.876604   -5.5835   5.04708  -5.24697   2.79101   4.33021  -4.02891    5.5638  -3.54294    6.7282  -4.15434   1.51944   2.04891    6.4539   8.91695  0.416867  -2.14918   2.98411 -0.529808  -9.40314   3.61143   7.15826  0.148861   7.46302
 -1.3063 -1.80803  3.51077  4.50763  -2.0123  4.81218 -4.69914  4.17077  3.87419  7.99504 -7.45444  8.19586  7.29943 -6.42603 -9.39052 -2.36103  7.42337 -9.40258 -4.88003 -9.91253 -6.16048 -8.38522  3.49232  8.28891 -9.70145  9.06948   7.8886 -8.67205   -8.229  2.35369  2.09709 -1.22151  7.63781 0.906953 -7.13165  1.45909  3.05251 -1.64245   6.4319  7.26485 -8.90751  4.11768 -7.87751
  -1.80803    6.25697    4.50763   -2.37817     4.8608    4.09214    4.17773  0.0817529   -16.6777    7.28583     7.3713    9.09285   -7.58939    2.88986   -2.36103  0.0535889   -9.40258   -2.11984   -9.81182   -9.37305   -8.38256    7.03075   -4.70244    4.40422    12.4282    3.40527   -7.27924    5.27325    2.35369    5.88323   -1.22151   -1.74057    1.82888   -1.39565    1.26618   -5.44429    1.90474   -4.99319    7.81541   -3.77546 0.00193727   -7.85079    17.4345
   6.76865   -3.61686   -2.37817     4.6415    4.09214    1.86303  -0.323742   -3.48154    6.44952   -3.97575    7.96734   -12.6348    9.06029   0.149101   -1.93875    7.23799   -2.11984   -4.52309   -9.37305    3.78681    8.84111 -0.0993629    7.41843  -0.100184    7.45324    3.60851  0.0132101   -7.18544    7.55121    18.6334   -1.74057 -0.0496643   -1.39565    1.06027   -7.35957  0.0465221   -5.29869    2.36931   -3.95561   -4.13936    8.63718   -1.96664    9.87786
  -6.63485     7.0383    4.70037  -0.706484    3.24437   -9.37239   -3.48154    8.94731   -3.97575   -5.44898   -5.53794 -0.0897832   -1.54527    1.69338     4.5838   -8.05002   -5.54012   -3.75249  0.0480585   -6.81364 -0.0993629   -6.16688  -0.100184  -0.669358    6.39404    5.72654    3.08971   -3.41581    6.38492    2.51122    1.66596   -7.95503    1.05374    2.42876  0.0465221   -4.79352    2.36931   -10.5675   -4.62741    4.57125   -9.56292    2.07685    3.82099
  8.08928   8.49237 -0.706484   1.94636  -9.37239  -2.81864   8.39779   3.26044  -5.44898   1.33472 -0.904416  0.912921   11.4313  -6.14951    -6.081   3.06528  -3.75249   2.32517  -6.81364  -4.28516  -6.29422   4.32758 -0.468235  -9.85727   5.07983   -2.6305    10.352  -7.14894    3.0124      3.99  -7.95503  -12.3761   2.42876   8.94492  -2.97009   6.52757  -7.39229   1.32483   4.14515   7.65547  -2.30277   4.00536  -8.72956
 0.243345   3.79458   6.84376   7.71417  -2.04531   3.72113  -4.93853   5.45925   6.07666  -1.26788   8.72147  -2.49891   8.41058   8.70718  -1.85586 -0.459207    16.246 -0.959204  -5.96741  0.890499  -6.47728    6.1016   5.39531  -5.36364   5.24236  -9.82166   5.49437   7.25382  0.691447   7.13925  -1.20504    -3.849   4.28213  -16.5534   4.45248  -6.17943  -5.06899  -90.8633   4.69688   5.17378    5.8253   5.46062   3.15379
  3.50646    -1.997   7.67345   19.0458  -1.61013   3.86674   4.07381 -0.977277   1.20834   8.43641  -2.49891  -9.78569  -4.91264   2.96032  -1.44666  -5.34599  -3.25341   9.00288  0.730181  -7.76145   4.62528   3.39179  0.723751   7.44599  -9.82166  -9.98383 -0.582515   5.75656   7.02292  -3.78409  -4.57883  0.517881   5.95684  -1.18297   -5.2812    4.4148   11.1622   4.40642   5.17378   4.47001    1.5595   -8.0125   5.80257
    -1.997    8.56855    39.3225   -8.24166    3.57688   -4.09069   -7.61306     3.6089    8.81254    4.54786   -9.78569   -18.5006   -2.11135    9.30805   -5.34599    3.11133   -4.11084    5.03037   -8.28645    7.13211    1.16792    5.34225     7.3352    6.94417   -9.98383    32.2158    7.10685   -1.11905   -3.78409    2.48566    1.17177 -0.0471963 -0.0869766    2.44558    2.92183   -6.76958    4.46503   -2.00701    4.47001  -0.546627    1.05129   -7.58268  -0.840163
  8.42652   5.78653  -3.43596  -1.27662   5.96608   9.64879   5.08772   7.15924   3.27947  -2.56391    9.8571   7.94672   1.14347   3.22646   8.51464   4.17355   8.61618   4.72331  -11.8413  0.358263   1.54364  0.311627  -7.72052   5.57402  0.595261  -3.33126  -6.61427  0.536924   4.60183   2.22065    7.2379  -18.5958  -0.41881  -1.64031  -8.33643  -1.38414    7.2656  -2.71305 -0.217041 -0.115015   9.74045   4.40758   3.91868
  6.36117   4.89195   -6.1142  -2.59536   8.89627  -9.48786    6.3108   3.64021  -3.69451  -6.84014   7.18297   4.42417 -0.636252  -9.25153     4.777   2.59906   1.36475   5.18937   -1.8284  0.575758  -1.65028   1.19478   3.62126   6.97355  -7.30268  -10.7261   6.51378   -4.6909    2.3585   1.09687   3.22803  -8.72403  -1.48004 -0.329105   -1.1445   3.75266  0.662338   5.15484  -5.28111    2.0008  -3.24714   5.19943   5.26043
  -7.06615   -9.88792    7.45994    -4.4961    17.9455    2.47032     2.7411    2.58523  -0.216754    1.69307   -4.41246   -5.34307   -6.71484    9.42437   -8.59375   -2.72653  0.0241906   -6.32388    6.03514    3.90378    6.33184   -5.20174   -9.86476    10.9761   -5.87399   -4.45191   -9.87375   -3.97548    3.29254    -3.1594   -3.47272    9.70109    3.05296   -7.33809   -5.59708   -2.52339    22.2181    3.52879   -3.37434      8.981   -5.72316 -0.0974581     7.1386
-9.88792  14.2346  -4.4961  11.6755  2.33192  1.36394  2.63228  13.6146  2.19007  5.79042 -5.34307 -1.41839  6.16802  6.13517 -2.72653  2.94951 -6.32388  12.3606  3.71963 -5.13429 -5.21684  1.82276   11.446   2.7071 -4.45191 -5.91659  3.92019  3.55392  -3.1594  5.18645  9.70109  2.37144 -7.16185  3.13513 -2.33173  3.70437  3.73373 -7.65301    8.981 -9.34715 -8.54506 -7.46806  13.6493
   4.77553  -0.198366    5.16825    2.01498    1.36394   -9.32323    9.38041    7.93657    6.84824    -8.3296   -1.41839    2.96185   0.347608    7.92049    1.38495    12.0754    9.21644   0.693255   -5.13429    4.30607   0.547202   0.552202    3.35501   -1.88901   -5.91659    1.80628   -9.39011    4.33415    1.53488    1.32346    1.69975  -0.955233    3.13513 -0.0894003    2.44677    5.04607   -8.47368   -5.77859   -9.34715   -7.97591   -1.22439   0.654778    3.28593
    -1.15657    -0.387778      10.0956         5.05      6.89209      1.05761      -8.1264      3.27609      3.72273     -37.7374      3.64565    -0.583947    -0.989386    -0.771327      1.26745   -0.0492558      1.30579     -5.46796     0.744863     -2.85027     -1.38212     -6.74938      5.54657      -5.1367     0.141162     -1.53569     -2.99557     -1.50549      4.46998      1.11829      7.16565     -1.10344     -4.15486      9.76567      7.12331     -8.32948     -1.89123      1.08543     -8.41831     -0.90485     0.516405     -1.47447 -0.000870078
-0.308123   2.20385   5.92074  -9.60451   1.05761  0.533658   3.27609   3.14168  -10.0833   5.85371 -0.583947   7.65209   2.37488  -5.33683  0.289161   10.5482  -5.12648   8.38289  -2.85027  0.872982  -6.74938  -7.93131    20.163  -4.82667  -1.53569  -1.25302  -5.86446  -4.26944   -3.5887   1.03566   -9.4659   5.24719   9.76567    23.114  -8.32948   3.76972  -3.68441   1.10155  -0.90485 -0.229209  -1.90073  -1.31869  0.281741
  -15.1442    8.63221   -3.88654    2.54234  -0.502977    1.53896    3.14168    7.29855    4.07546    3.73004    7.87974   -5.46232    2.64285    3.86658    5.57629     1.5002    9.15241    -8.9615  -0.829863   -4.39798   -7.93131   -7.07557   -8.19048   -8.00882   -2.91265   -2.08256    1.81728    3.05042   -1.87991   -2.90284    1.65012    8.95201   -15.9415    2.82572    3.76972 -0.0283238    0.74677   -8.29838    3.50169   -3.44133    -11.143    8.78011   -6.68522
  7.92165 -0.686591   2.54234  -7.98162   1.53896  -1.01256   8.73616  -2.46094   3.73004   6.53796  -5.46232   9.19197  -3.63839 -0.789847  -5.65988   7.37839   -8.9615  -7.40864  -4.39798   4.64841  -6.48195   1.86562  -8.00882   5.28009  -2.08256   8.53335  -5.65808   1.58042  -3.18904   4.13492   8.95201 -0.354483   2.82572  -2.18382   7.23855  -15.6816  -8.29838   3.90132  -3.44133  -4.89851   3.31504   22.0225  -4.52361
 -8.36086  -0.94719   1.36696   8.59319   8.53103  -4.27116   4.34239  -12.8193  -4.84914  -7.83994  -2.64261   -5.3045  -2.49912  -2.02261 -0.756419  0.723374    4.5611   14.2998   4.34075  -1.90399   4.09196   2.19117  -9.55308   1.39327   6.96474  -1.51431  -8.96269  -7.29486  -0.82722 -0.344945   3.50303  -3.05629   9.20796   4.15274  -9.71022 -0.365588   1.30779  0.378584   5.47974   5.26642   6.10529  -4.06212  -10.1066
 0.189535   23.6222   6.97086   3.30684  -4.27116  -6.99466  -2.87835  -5.37518  -2.80583   1.62942   -5.3045  -7.73426   8.43911  -6.63799   2.69373   32.2072   7.43085   8.87219  -1.90399  -1.16481   5.75925   4.56878   2.42124  -7.01237  -1.51431    -9.188   5.47935  -3.92932    8.5133  0.498812  -2.35997   -8.2837   4.15274  -5.51376   4.65848 -0.975901   1.68727    3.7445   5.26642   4.38716   5.24687  -6.57049  -2.96301
 -4.33224   7.07104   3.87572  -14.6408  -4.32954  -1.77928  -4.26457   9.29059   1.62942  -3.41069  -7.73426  -2.43478   4.13758   4.88784   18.0178   7.89396   9.08993 -0.155923   3.79196    3.5592   4.00338  -8.15357  -7.01237  -1.54598    -9.188   4.86968  0.628427   5.29881  0.229497  -7.48863  -8.52473  0.638377  -15.7499   18.5048 -0.273263   7.41242    3.7445  -4.42016   4.38716   13.8728   9.05523   9.77331   2.60753
  6.49662  -2.41391  -23.1268  0.684402   -4.2403    6.4711   9.69273   5.85791  -3.41069   8.34381  -2.09242  -3.94779   8.47991   7.17975   7.72456   4.92007  -2.29885   4.88233   3.03912    9.7635  -6.95543   3.34792  -1.54598   6.60569   4.44062   15.4786 0.0456963   8.41237  -7.27977   4.71216  -4.00867   5.00761  -16.6806   6.31959   7.23418   7.07876  -4.42016  -4.62435   10.8241   1.46734   3.40115  -8.16426   2.37005
   7.97549    5.44204   -7.11332    6.06931   -7.36651     8.5725   -1.49208    1.24442   -6.09096    3.57962   -2.07995   0.601036    6.35112   -13.8297      7.554     3.4051   -4.11042   -5.91448   -9.80262    3.27897    -1.5177    3.81473    15.3546   -7.28176   -3.11391   -1.48389 -0.0219303    4.03327    6.38016    6.26579    6.82267 -0.0379807   -6.52555   -8.95579   -3.61218    8.03337    -5.2893   -9.94616    2.03696    9.27706   -7.83848 -0.0513169    10.6112
  -5.17677   -0.51629    7.07909   -7.30541    9.49453    2.57276   -4.82304   -8.89643   -3.46039   -8.14007   -17.7024    5.12623   -2.12848    3.01383    3.74926   0.370989    8.35802     1.6082   -6.87644   -8.48006      9.801    3.50157    6.75687   -3.36593    1.07424   -2.01813    4.23535    2.24094    8.54645    7.87261     3.5903 -0.0532242   -5.11266   -7.44481    -4.3353    2.87552    1.24716   0.112143  -0.176389     -5.036   -10.4188    3.51979   -4.46216
 -7.26714   5.59733   3.99377 -0.666792  0.326057  -2.52806   3.55989   4.11555  -7.97364  0.177977 -0.633048  -5.34221   -7.8879  -7.73444  -7.50018   -6.4781  0.528139     6.672   5.29894 -0.244849  -4.25631   3.95444   -9.3244  0.469902  -1.48604   6.16487   -8.0315   0.68644    1.2778    3.3577  -8.21341  -4.99926   8.16055   9.45326 -0.159596   1.43622 0.0236635   17.2306  0.173622  -3.46646  -7.86134 -0.481995   2.37563
  -4.60929   0.923718   -8.87363  -0.596841   -8.89287   0.644024    2.04897    2.27545    2.41582   -11.8808    2.21106     5.0182   -8.60485   -20.6071    9.19976   -2.00207   -2.86146    -1.8214   -1.90834     4.6744    8.09627    5.29967   -7.61743    4.98044   -5.45393   -10.2667   -1.05943  -0.852706    -2.0226   -1.56885     5.7644  -0.677838   -6.34656    15.9085   -6.68666   -2.37134   -5.61068 -0.0769299    1.74218   -1.70228    9.74199    1.50041    11.4583
  4.23894  -2.97727   3.34561   2.75566  -1.35506   1.07465   5.75534  -1.92957  -7.85103   5.53155   7.14927    30.109   2.44375  -7.00915    1.8164   7.95883   3.89463 -0.823347   3.39564  -3.16695   8.51837   5.87694   8.05638  -5.57142  -6.95595   1.87759   3.03099   2.14484  -2.50978  -2.51784  -1.19589  -3.47566   8.82165  -1.17474   -3.0088   5.69194  -3.47053   7.66324  -2.15249  0.745048   3.25222    1.1986   5.69372
  -10.3613   -1.79449    -1.9857   -6.94851   -10.2018    8.75083    6.50712   -4.41223   -6.38177   -7.82043    2.67256   -8.67655   0.522383   -10.1551    1.85265   -2.24289    6.27669   -1.49728   0.333397   -6.06411 -0.0266455     8.8101    3.29675    5.48376   -1.36843     6.1888   -9.89024    5.36559 -0.0710831   -6.81696    5.48505   -16.8508  -0.158107    5.14211   -3.54627   -1.59739     3.6309   -9.43405   -6.59931    3.29437   -9.36979   -0.56882    2.25734
 -1.79449  -9.49634  -6.74203  -2.43618   7.59473   1.69418   15.3408  -3.98977  -7.03701   4.23404  -8.24576  -5.66469  -3.71857  -1.94761  -2.24289   7.65357   1.08883  -4.70704  -6.22486   7.40997   7.32542  -2.14352   5.63136   2.92263   6.45791  -2.48187   7.43329   6.04182  -6.81696   1.69292 -0.257622  -2.71677   2.67793   5.37918 -0.977736  -9.29391  -9.24908  -4.71661   3.43953   9.61635  -4.80718    6.1238   -2.9376
   2.52903   -8.47622   -2.43618   -5.17315    2.43225 -0.0181674   -3.98977   -9.65806    3.15166   -6.94575   -5.66469    4.29758    6.68577    12.8907     8.7351   -6.90804   -4.70704   -5.32115    7.26993    6.73029   -2.14352    -2.8188    3.14893   -3.66273   -2.48187   -9.72072   -2.92458   -5.63508   0.572989   -1.65074   -2.71677   -3.52454    5.43689   -3.63544   -9.29391   -8.82158   -4.23697    1.34727    9.61635   -2.02434    7.25049   -3.83172   -6.59534
  -26.279   6.70983   -4.5476   5.03691  -4.78587   2.10236   3.42437   3.21655   4.52788  -2.69824   4.17978 -0.950626 -0.173119  -4.37043  -1.18655   5.13203  -3.97129   2.00657  -7.12832  -4.22486  -9.40104   6.93844   2.99553  -7.20497 0.0711122   10.5805  -6.36171   -7.0818  0.229769  -1.54229   -6.4664  -8.14365   3.72041   1.97161  -3.12677   6.23542    5.8457  -8.50939  0.812181  -2.13164  -8.26266  -5.04204  -13.6663
  -5.26376  -0.663736   0.286221   -8.39191    2.46748   -2.40234     3.9657  0.0962176   -2.69824   -8.48608   -5.72227   -7.76937   -9.46562     4.3722    2.70284    1.47917    1.89591   -9.29392   -3.76334    6.56279    7.57434   -4.93142   -7.20497   -4.41948    8.71718   -1.71198   -5.69425 -0.0196763 -0.0986961    1.11369   0.202723     6.9435    3.73393   -6.05675    6.62957    6.97109   -8.50939   -6.68114   -1.63214   -2.51286   -2.53898   -11.2065    1.99725
-0.872804  -4.31104  -8.39191   2.12703  -2.39971  -4.06998 0.0962176   8.08754  -8.48608  -1.18672  -7.76937  -3.97177   9.10996   10.6032 -0.432131  -1.62909  -9.29392   6.83707   7.04717  -8.33857  -4.93142  -3.41156  -4.41948  -1.23097  -1.71198   9.13259   2.29736   2.16628   0.34731   8.57244    6.9435  -4.65945  -7.67459  0.011625   6.97109 -0.113568  -6.68114 -0.814888  -2.51286   9.14142   6.86124  -3.14231  -6.37332
  1.85958   1.87929  -7.65634   1.38061    4.0125   2.00638  -15.4031   2.14423  -9.99804 -0.493135   1.17925  -7.50945   3.64495   10.3317  -3.73233  -4.74591   1.93633   3.94479   1.38441   3.79506  -1.79463    24.269  -9.36715   8.62335  -3.11889  -1.75843   1.58322   3.48607   1.16298 -0.322578 -0.207693    4.7588   1.27702   8.47009  -11.0082  -4.89901   1.77225   8.82513  0.483287   4.34665   8.31268  -4.22309  -7.86561
  2.46451   9.47129   1.92047  -2.99118    2.3284  -3.24016   6.64897  -5.39829 -0.180376  -9.17012  -7.50945   2.38792  -6.03122  -8.58557  -4.03803   6.66161   5.22296   3.26272   4.57537   3.65626   6.12123   5.80891    9.3888  -5.16617  -1.75843  -3.89294   9.85498   1.11872   10.6927  -7.53447   5.57773   23.0124   9.30387  -5.75703  -2.44655  -9.34435   9.61228   4.55707   4.34665   12.9844  -9.51928 -0.283465  -2.38302
  8.94358  -4.95825 -0.179635   2.35496  -3.20045    5.1528  -5.41115  -6.64515  -9.17012  -9.20877   2.93565   9.55102    8.2486  0.311504   6.14543  -5.33559   2.98223  -1.06005   3.44938  -2.29669    5.5483  -2.36656  -5.16617  -8.59673  -3.04824   5.76155  0.825353   -9.8935   -7.2674    8.7651   19.4683   6.19498   -4.4524  -2.98427  -7.96199   4.21979   4.55707   6.82755   19.4637   8.35419  -8.15229  -2.38576   4.85739
  -4.95825   -8.41077      2.405   -7.33553    5.34537  -0.435089   -6.64515    6.99813   -9.20877    2.95264    10.1978    8.68389   -6.69493   -14.6328   -5.33559   -3.79347  -0.385344    -9.9969  -0.858563    3.22544   -2.36656   -5.84368   -8.59673    5.85229    5.16769    2.43501   -2.05265    -7.0478     8.7651    3.43775    5.82544    6.88257   -2.94912  -0.161797    4.21979 -0.0429721    6.82755   -5.14861    8.52653   -7.98527   0.688453   0.094748    6.07892
 -8.41077   2.59792  -7.33553   10.6283   1.14643   3.20099    5.0207 -0.489037   3.16268  -4.21343   8.80081    5.5907  -15.5046  -4.35531  -3.79347  -6.10256   -9.9969  -3.67078   5.31492  -6.48397  -10.0237  -4.40409   4.59391 -0.789115   1.63855    7.2399   5.35266  -4.28693   3.43775  -8.61257   6.88257   5.84788   4.35625  -1.69199  -2.62698  -2.33298  -4.80195   8.01967  -7.96639   3.33362  -4.08313   8.67999   9.77833
   2.59792   -4.01122    9.17094   0.337412    5.82665  -0.601624  -0.489037   -5.17453   -4.21343   0.989143     4.9556    3.17396    7.73629   0.133751   -6.10256   -7.17298   -3.97886   -1.71296   -2.52039    2.50236   -4.40409   -5.01688  -0.789115    5.90272    4.18221   -7.67045   -8.41881    5.76439   -8.61257    3.12853    4.23175   -2.55713   -6.79913     5.0905   -2.33298   -1.11575    8.01967   -8.44088    2.49856    3.73093 -0.0227554    3.10633    8.85636
  -4.01122   -1.64068   0.337412    9.75973   -1.28483    2.40262   -5.17453   -9.78667    2.32141   -7.93681    3.17396   -3.66178    8.24777   -7.00185   -7.17298    5.41443   -1.71296   0.319125    2.57136    7.23824   -5.01688    4.52011    6.22742   -9.21579   -7.67045   -5.58801    2.38554   -6.25978    3.12853    2.53482   -2.55713   -3.79525    9.23506    1.41839   -1.11575 -0.0851668   -9.15631    5.60434    3.73093    -8.3632    8.65361   -6.27976   -9.62652
-0.650559   -8.6881   8.25039  0.672691   4.03944  -2.65846  -7.58235  -6.00863  -7.93681   7.29363  -3.66178   9.08854  -2.41542   1.94115   4.71739   6.51741  0.864707  -2.32022   6.03444 -0.669873   5.83746   4.29154  -9.21579  0.132053  -5.58801   4.12176    4.8285  -6.52881   2.17381    7.1406  -3.08854  -3.43558    1.4164  -3.26563  -5.15778  -3.91905   5.60434  -10.0425   -8.3632   8.33799  -7.89579 0.0847044  -10.4767
  -7.99236  -0.462198   0.672691   0.423617   -2.65846    -1.6924   -6.72688    6.79344    6.85034   0.425654    9.58336   -4.94275    3.60739   -8.10961    5.33519     4.2514   -2.32022   -8.53366  -0.669873    3.38264    4.48966    5.48094 -0.0260864    1.79733     4.6885   -7.51607  0.0220741   -5.38523    4.81023    3.34317   -3.43558   -1.95592   -3.26563   -10.6383   -5.78525   -2.43985   -9.38029   -7.76354    8.67017    9.06316   -4.14967   -1.91453    8.85037
 -1.69928  -2.53183  0.423617  -5.03515  -26.7854  -3.55597   7.89629  -1.00963  0.742982  -10.1399  -4.94275   9.31053   2.68257  -8.16772   6.52412   4.49426  -8.53366   8.97754  -0.77058   6.12388   3.26518   7.56455   1.14549  0.690962  -7.51607 -0.570702   1.25904  -4.14443   6.28673   6.36872  -1.95592  -2.56672   2.91557 -0.959998   -2.4516  -4.02205  -6.68269  -2.21547   9.06316    2.0004   4.72833   5.40772  0.946163
  -5.75985    3.27918   -6.71416    -5.5779   -1.69576    4.58976  -0.775464   -2.16372    -5.0366    1.32812    9.00553   -5.89089   0.956921   -1.49029    4.43043  -0.859325    8.34262     6.9289    7.77204   -3.52897    8.79731   -6.12197    1.42542   -3.74341   -2.73591    5.85216    6.56379   -9.80118    7.66654     4.6638   -2.86741    3.43732   -1.38519   -9.65868   -4.97227   -5.18367    -6.8219   -1.91189    1.99275 -0.0110589    5.51661    6.54328   -5.69208
   4.17653   0.569796   -2.15446     2.7384    3.86209    0.52403   -2.16372   -3.59262    2.58949     2.6842   -5.65914   -7.90263    -6.5184   -5.88364 0.00355997    3.52091    7.03019    7.73351   -4.51829   -2.67391   -6.12197    -6.4426  -0.129595   -5.58426     6.6261   0.231974   -5.79885    1.78083    6.11735   -4.55458    2.44924   -4.40443   -5.14888   -3.64864   -5.18367   -6.37936    5.66443    2.03117    3.47681   -3.90553   -4.41839  -0.126085    10.9504
-0.362392  -9.35142   1.67701   -4.2393   0.52403   7.05065  -3.59262  0.246671    2.6842   4.80813  0.871579   3.80146  -3.86935   4.19321   2.37701  -4.97464   6.43878  -5.28223  -2.67391 0.0860865   -6.4426  -4.97497  -5.58426 0.0137663    1.1475  0.523943    4.9557  -5.26981  -3.47833    5.4971  -3.89848  -7.55713  -3.64864   6.70294  -6.37936   9.62967   2.03117  -6.57196   16.4771  -5.39974    0.8966   -0.9125   12.6308
    7.18186    -4.28427    -2.50972     3.48806    -0.66543     6.42748     3.78931     5.10845    -5.54527   -0.106224     5.87741    -9.71626     6.02726    -6.36107     3.48342    -8.41156     2.36325      11.196     6.53542     8.20887     17.7873     7.81494    -6.61686      7.1634     8.31997 -0.00592335    -5.73154    -1.04291    -4.08541    -7.27762    -2.90007     2.77908    -1.99519     2.12276     1.58096    -8.12943    -8.05082    -3.65727      5.6866   -0.931543     1.13102    -2.50711    0.106016
    -4.28427     -6.21074      1.70935     -1.41675      5.52512     -2.01229      5.25767      4.60364     0.187366     -5.09155     -9.71626     -4.25565     -2.16457     -1.11044     -8.41156     -9.29044      8.98518     0.918968        7.133      4.02484      7.98171      1.86057       7.4867      3.29275 -0.000126217     -5.10515     -6.55415     -9.19285     -7.27762      1.98582      2.16801      16.1763      1.91955      8.90873      -8.2324      10.4383     -3.80634     -4.62973   -0.0198497      4.82398     -4.67603     -2.15865      6.30697
 -6.21074   3.48446  -1.42835  -2.85188  -2.09804  -3.14255   4.44382   4.34107  -5.08498  -14.6708  -4.25565  -10.2544   1.83862  -4.21578  -9.29044  -7.16054  0.891729   1.26783   3.61824  -2.84614   1.72706   5.11823   3.18074   1.00263  -5.10515   4.55395  -3.16869 -0.174808   1.98582   6.64586   14.3373   15.0195   7.03298  -8.05311   10.1596  -6.89318  -4.06954 -0.230913   4.82398  -4.21075  -8.08102  -7.10818   -7.1882
  3.48446  -6.49297  -3.20193   1.44684  -3.14255  -5.06498   2.86814  -9.02813  -16.6991   3.80486  -10.8629   4.32088 -0.154713    1.2811  -7.16054 -0.586322    1.3314  -0.68073  -2.84614  -8.08964    4.0131  -3.05323   1.74445  -7.59482   4.45311   7.23783  -4.67013   6.60978   6.64586   7.96751   16.6594  -4.19676  -8.05311 -0.590305  -5.93558    5.8582 -0.126776  -2.31186   -4.4013   7.59561  0.243153  -7.22731   14.2777
 -6.49297  -8.38876   2.96371 -0.622313  -5.06498  -9.54078  -9.02813 -0.242926   6.76855   9.45063  -5.50407  -1.32376  0.837649   3.29233 -0.586322    3.8112   1.64986   0.28205  -8.08964 -0.210025  -3.05323  -5.76631  -3.05701   1.83229   2.77961    8.1074   10.2112 0.0209488   7.96751   3.95932  -9.45041   1.15171 -0.590305   6.69384    5.8582  -2.36872  -4.95701   7.46869 -0.236894   6.46451  -5.57947   1.41774  -8.18993
 -9.21917 -0.466775 -0.663443 0.0894595  -9.54078  -1.27962 -0.237423   6.44056   9.18089   9.41735  -1.57692  -2.06041  -7.40521   3.53879   3.20407  -5.18908    0.2082  -1.76712 -0.210025   4.03584  -5.91807  -5.05172  0.647831   14.0348   7.07233   0.70716   5.70061  -2.81642   1.63302   6.02274   0.04085 -0.867778   6.69384   5.81518  -1.87025  -2.85953    7.2505  -4.38042    5.4277  -7.78927   1.16668   2.69318  -11.3598
-0.466775   8.99836   1.20402 -0.298807 -0.684005  -7.04794   6.66003  -3.81124   7.66568  -1.05137 -0.735917 -0.865858   5.88806   2.66872  -5.18908  -7.80337  0.268727   7.78423   5.87861   -7.7726  -5.80686  -6.77043   7.15276  -7.32724   1.03387   6.19809   4.82958  -2.15408   6.02274   7.74179   6.30576  -6.93374   9.74231   7.82191  -9.53392   6.19454  -3.33626  -4.94002 -0.115228   -1.0172    3.8344  -2.49872   6.97717
    8.49335    0.153727   -0.029902    0.621028    -7.04794     3.18943    -3.81124     3.03842    -1.05137     10.6009    0.606567     5.81681     -10.941     8.25421    -7.23036     7.81521     6.79695    -7.84942     -7.7726    -4.74413    -6.77043    -6.80346    -7.32724    -9.01813     1.83987    -8.65065     1.79158    -9.79892     4.29485     4.77221    -6.00819   -0.274399     7.82191    -2.99984     6.19454     2.89568    -4.94002    -3.46257   -0.312799     1.63577   -0.160308 -0.00793595     4.44835
   1.29491   -8.22191   0.621028   -4.44297   0.175959   -7.98567    3.03842   -2.50038     9.1081     5.6451    6.79432   0.674536   -6.54598   0.529305    6.43523    5.19479   -7.84942   -8.66207  -0.708821     2.1034   -6.80346   -2.69355 -0.0976218   -6.25188   -7.51106   -5.33666    7.19518    1.87091    4.05756 -0.0250557  -0.274399    4.67808  -0.430509  -0.075891    2.89568    6.01585   -1.76088   -8.54442    9.21282    9.95572   -2.21457   -5.99684    1.33225
 -9.23177  -5.08639  -4.44297  -1.17803  -7.07084   1.14753  -2.50038  -7.40367   4.92788   9.60028  0.674536   2.72906  -19.4758    2.2331   5.68481   8.19968  -8.66207  -5.82421   3.97907   7.24505  -2.69355  0.823274  -7.94285  -5.80181  -5.33666  -7.07688 -0.845919  0.804691  -6.49924   10.1176   4.67808   5.41793  -2.35738  -5.75891   6.01585 -0.301148  -10.4648   7.94278   9.95572    8.0236   7.26397  -7.92821   11.7392
 -3.77572   1.04707  -1.17803   -12.203    3.1716  -6.64844  -7.76315    7.8935   7.95581   5.60775   2.72906  -79.5876  -0.97612  -9.72352   7.79694  -6.08252  -5.82421   9.40383   9.28115   5.12989   7.56819 -0.221832   -7.7528 -0.305949  -7.07688  -5.68419   12.5183  -9.07346   8.31725    8.3027   5.41793  -2.44342  -7.12694   4.44283  -4.98032   6.32857   4.84486  -5.52527    8.0236   -1.2836   3.17333  -7.06061 -0.549547
-4.91791  1.86136  5.66098  8.98312 -2.81428  -6.3102  8.84292 -4.98089 -3.94388  5.62342 -9.18819  1.79882 -1.41342 -8.12908 -1.19083  6.23258   6.5834 -7.84892  -6.9215   5.3912 -7.66926  2.05298 -8.79213 -4.90257 -4.68864 -5.94389  4.79248  3.36215  0.83995 -3.29477 0.201447 -1.15507  1.02747 -2.48035  6.61196 -6.35059 -4.67321 -5.80648   8.9768 -6.65913  7.09618  3.79813 -1.03378
  1.87701  -9.19399   8.13527  -2.89289  -6.95472   7.13533  -2.99435  -1.10401   5.70772  -2.54979   1.79882  -4.69531 0.0418811 -0.670181   6.06881  -0.44979 -0.596842   5.77651   4.19978   5.56504    1.6903    6.4217  -3.36157  -1.64072  -5.94389  -5.23569   5.01906  -9.41669  -3.24524  -0.75435 -0.430605  -3.04082   2.04703   2.91465   3.03331  -3.65029  -4.16627   8.17006  -6.65913  -5.27082    4.8445    -9.525   6.44187
 -9.19399   -6.8716  -5.42566   7.71342   7.92193  -7.27039  -1.67235  -1.01007  -2.54979   6.46817  -4.69531  0.268506  -11.3404   8.02552  -0.44979  -7.00987   4.74057  -6.92121   6.27374   6.71697   5.90649  -6.84712  -1.64072  -5.58366  -5.23569    4.9173  -1.15688 0.0245708  -0.75435 -0.867334  -2.54829   6.03871   3.10526  -3.12943  -3.33023   7.27138   8.17006  -1.62656  -5.27082   5.07789   1.92675  -8.37035    8.7342
  -6.8716   3.05283   8.31776  -9.43824  -7.86391  -1.04083  -1.01007   -9.3732    8.0813   8.93271  -3.35762  -9.30962  -9.65344  -2.53959  -7.00987   9.09959   -4.3921  -8.15724   7.05047  -5.39502  -6.84712   4.76924  -4.37632  -8.00622    10.728  -3.49137   -4.9012 -0.242613 -0.867334  -9.33164   5.38209   7.58636  -6.28863  -7.90291   7.27138  -2.29222  -2.96766   5.51667   12.2578  -1.01516  -6.43765  -5.42621   8.82104
   2.56039   0.222138   -9.43824    6.84185   -1.04083   -6.08924   -12.4088   -7.20562    11.6325   -8.41312   -9.30962   -5.66784   -2.28305    1.60329    8.77525   -6.75686   -8.15724   -8.20654   -5.39502   -1.64641    3.22919    8.64545    6.02304    -1.5168   -3.49137   -4.01772   -2.00993    6.64042    -9.0369    5.47018    7.58636   -7.05403   -7.90291   0.156463 -0.0991487    6.66967    6.72942    5.02949   -1.01516   -1.87039   -2.81861   -4.04435    8.36545
  0.222138    19.2836    7.54874    8.51927   -6.08924    8.44484   -9.42087  -0.992929   -8.41312  -0.936197   -5.66784   -5.28903    7.06468   -6.27272   -6.75686   -16.8627   -6.75161   -3.49916   -1.64641    1.86382    5.71957   -6.87161    -1.5168   -6.38539   -4.01772      4.877   -2.90926    23.2637    5.47018    1.66665   -7.27134   -5.67865   0.156463    2.24628 -0.0124716  -0.319066    5.02949   -8.90689   -1.87039    4.27058     6.7507  -0.778887   -6.69707
  16.7124   2.90619   8.28964  -1.45274   8.65297  -5.27322 -0.992929  -1.47078 -0.936197  -1.36012  -3.73001   9.70588  -8.65662   1.12772   19.8235   5.15227  -4.21901  0.741073    6.6641   8.77578  -6.87161   7.38574  -6.38539  -4.99846   6.21046   11.0022  -9.46477  -8.53825   1.60854  -8.21281  -5.61042   31.4636   2.54776  -5.51386 -0.319066  -6.02022  -8.90689  -5.48137   7.76146   1.33548  -6.85714   -4.1412  0.227667
  2.50088  -7.67674  -1.24821    3.3918  -12.2464     2.598  -1.99604  -5.93253  -1.36012   12.4506   15.2136  0.822018    4.5172   7.01197   4.87213    -5.229   0.94289   6.48651   1.92097   2.66773   7.01085   4.46182  -4.99846   8.19751   12.5715  -2.90754  -3.23475  -5.39862  -7.86866  -2.60148   63.0403  -1.70772 -0.138701  -4.49531  -5.74942  -4.68719  -5.48137    4.1297   1.70346   3.13316  -2.68638  -5.57574    8.2306
   1.88463    6.38475   0.635149   -3.21195    4.67627   -1.60525  -0.184164    2.58445   0.619196   -11.3977    8.34913    -3.9278    1.19239    8.76312    7.71925   -7.19966   -1.27688     0.2367   0.588771   -5.13918     2.9327  -0.186775   -1.74186    6.52274    8.88655   0.947341   -3.00031    -5.0155    9.57066 -0.0226883    4.06805    7.90359   -4.68503    -5.8606   -60.4861   -11.0308   -8.42106    4.47358     8.7459  -0.127665   -8.30854   -5.84643   -2.38306
   7.02947   -9.85557   -5.69065   -4.99891   -1.60525   -8.36887    2.64861   -4.06897   -11.1418    7.67959   -2.96284   -12.7023    1.25752   -6.48836   -5.79137   -7.05427  -0.838334  -0.210223   -5.13918   -1.44136  -0.014192   -6.79289    5.40762    1.94356    3.34382    2.72407   0.105806    7.32033 -0.0163278   -6.71341   -17.7374   -7.24586    -5.8606  -0.155506    -11.283   -6.71277 -0.0203206    6.89144    -8.8798  -0.049054   -17.9128    4.03914   -11.1305
 -9.85557   10.2311  -4.99891  -1.71225   9.09744  -1.10353  -4.06897   5.80248   8.95925   7.35832  -2.91743  -4.40957  -37.7271  -9.32565  -7.05427 0.0594471 -0.210223  -3.93196   33.5784  -5.96678  -6.79289   8.94923   3.89179   8.70482   6.01444  -6.44301  -6.83247 -0.547442  -6.71341   5.46031  -7.24586   2.99553   1.57343  -2.34354  -6.71277  -7.40471    7.8835  -9.21166   10.1057   -8.9521   3.08839  -8.57942   2.19031
 11.4495 -5.75679 -1.71225 -1.67029 -1.10353  -9.0589  4.89712 -7.26983  6.62082 -11.2241 -4.40957 -6.75049   1.1339 -1.72498  5.59398 -4.32412 -3.93196 0.125167 -5.96678  5.82956  5.52341 -11.5998  5.82374  7.21944 -6.44301 -4.85866 -9.51119 -4.98994    7.544  3.64484  2.99553 -2.11548 -2.34354 -1.15087 -6.36958 0.300524 -8.26785 0.889674  -8.9521 -8.42377 -8.14592 0.231013  41.6815
 -5.75679  -1.57392   2.57869   18.5535  -5.09316   3.23934   12.0815   4.94382  -6.40453  -8.07479  -6.75049  -3.55656  -4.27886  -4.48262  -4.32412   2.25972   6.37388   21.6012   10.0942 0.0516276   10.4712    6.8977   9.15126  -3.57344  -4.85866   7.82261   8.33907  -9.64949   3.64484    8.8844  -5.09545 -0.917349  -8.40215   3.52688  -1.16504   7.24822    -2.233   7.22441  -8.42377     8.537   3.52188   9.30055    3.6249
  -20.2673   -8.13644    28.9828    9.15952    2.79216    7.59563     4.7129   0.560718   -8.07479    9.67139   -3.71068 -0.0309414    6.05544    5.68305  -0.360478  -0.108277    37.6785   0.042332   0.107163    11.4361    6.42768   -3.70459   -3.57344    5.82232    7.44792   -1.33887    2.52272    4.94928   -2.07788   -2.87776   -1.49254     7.6953    2.76549   -2.14439    7.02538    6.33087    7.22441   -6.76268    7.79111   -9.34291     1.5709    5.91418   -16.5491
  -8.13644   -4.83762    9.52667  -0.631013    5.11351    6.43708   0.560718   -5.87497    9.17902  -0.958309    0.26354    7.56518   -8.82788   -7.96151  -0.108277    9.67041   0.345415    3.11394    6.95086 -0.0317414   -3.70459    2.99148    4.94898    9.72316  -0.923921    2.56746   -4.27462  -0.634188   -2.87776    -7.1421    8.00098    7.66326   -1.53088   -6.67172    6.33087  -0.102795   -6.46082    7.91429  -0.397593    1.61129   -9.96327   -1.15562    4.27462
 -5.08388   5.02814  -1.10505    5.6433   8.47223  -6.08131  -6.86679  -8.12914  -1.43692   4.18329   5.47398  0.835759  0.247249  -3.05801   10.1637   7.56747   2.37886   2.12719   2.41376  -7.23263   3.43656   -2.6565   8.97495  -15.3287 0.0167897  0.156975  -3.64767   1.53395  -8.50034   2.79923   5.72372   7.01498  -10.2527   8.94335   -4.4401  -8.01425   7.26648 -0.652829   1.25653  0.405528    3.4104   9.69914  -3.36052
  4.72762  -3.08768   5.50774   -3.1917  -6.08131   3.67815  -8.12914  -1.52118   4.44821   24.8868   0.51774   -15.317   -6.7417  -9.85761   7.73804  -6.34439   2.19601   6.40276  -7.23263  -2.26811   -2.6565  0.941785  -14.7901   14.5315   1.08458   1.76719  -6.72703  -1.65835   2.79766 0.0813751   6.95214  0.986085   8.94335   2.30848  -8.01425  -5.84102 -0.592267  -2.27628  0.447113 -0.149221   5.37082  -1.67242  -4.84949
  16.4756   8.52474  -5.24642   -5.3964   5.61278  -4.99416  -1.58696   1.82554  -12.2967   6.32573  -10.7001  -6.06326   -7.4351 0.0488694   18.1713   -1.9741   6.40213   4.45245  -1.16495  -4.60557  0.715193   3.07303   15.0073  -1.60409   8.82871  -5.91618  -9.24096   -8.2968  0.675635   -7.6748   4.68364  -5.84422   5.23204   6.39277 -0.152579  -5.21378  -2.00638   5.50784   2.93485  -1.55837  -3.37708   4.97019   4.15318
   9.01972    9.51194   -5.86075   -3.71805   -4.99416    2.03442    2.56612   -2.65052    5.49555    9.52269   -6.06326   -2.00937    2.78044    1.24568  0.0194181    2.06853     4.1963    8.59831   -4.60557    1.28788    3.79089   -9.79553   -3.94006 -0.0326359   -5.91618    -2.9304    9.48671   -3.99104    -8.0904    7.18851    -4.6931   -7.86061    6.39277    4.76639   -5.95849   -7.15861    4.91848   -7.49781   -1.55837   -8.00789    9.26851    6.93714    1.09089
   9.76651   0.547037   -3.95483    -1.7009    2.39209   -3.78133   -2.65052   0.152806    9.20253   -5.30709   -2.00937    4.58134    6.79869   -6.00796    2.12825    3.79973    8.54342    9.37157    1.38477   -1.34933   -9.79553   -4.13741 -0.0296842   -7.15232    -2.9304   0.440897    5.52598    3.07984    7.33437   -2.54637   -8.10227    8.48683    5.17109  -0.461448   -7.15861   -5.70717    -7.1341     7.4574   -8.00789  -0.531565   -4.65803  -0.101241    2.87797
   -2.3162  -0.393897   -1.13282    8.88376   -3.78133    2.39106   0.152806   -15.2344   -5.30709    3.08236    2.55163    11.2646   -6.13992 -0.0509348     8.5942   -7.97616    8.42336    3.53106   -1.34933    3.39706   -4.13741    3.13337   -7.15232    -7.7832   -2.26546   0.036583    -1.6752   -1.28588   -5.27026    9.74311    6.99831   -8.90097  -0.461448    8.28323   -5.70717 -0.0921938     7.4574  0.0336059  -0.104517    4.94239    7.53726    1.76844   -10.1923
   26.3182 -0.0579658     -9.151   -5.38713   -6.56042     3.4541    6.97217     5.7931   0.171977   0.640171    5.24314   -6.56203   0.300524   -3.55864    31.2938   -8.51956   -6.38828    5.62148   -3.00668    8.77965    9.14197   0.255874   -8.62392   -7.75667   -5.46217   -9.58157    -7.0744    7.23579   -4.22338   -5.31279    9.19503     7.4131    1.44696    5.87392    9.57812    7.25741    -9.4425 0.00560233   -7.69687    2.52001   -6.92676   -6.40729   -3.89468
-0.0579658    11.3005   -5.58404     3.1598    3.36488    5.88975     5.7248  -0.684375   0.640171   -2.85763   -6.56203    -10.884   -2.35025    6.79566   -8.51956    1.42166    4.03889    6.29125    8.01099    3.44042  -0.228019   -7.62064   -7.75667   -4.93417   -9.58157   0.628107     5.4394  -0.533525   -5.31279   -1.91354 -0.0712414   -4.83486    5.62376   -4.35601    7.16601   -9.90248 0.00560233    6.51803    2.52001   -3.84079    1.40944   0.935097     -1.894
  5.07812   -2.4062  -5.05211   5.57517  0.536297  -12.7045  -5.10422  0.239917   2.94629   9.66603  -4.55046  -4.60878   6.83446  -12.1201  -1.25545   -7.1785  -9.14208  -1.24244   2.59736   2.62886  -3.06535  -1.91595  -8.58543   2.16338   9.11075  -7.78116 0.0780197  -22.2793   1.95907  -7.70105   7.48118  -5.33854  -20.7372   1.43451  -2.17583  -2.14514 -0.609397    8.2301   3.74874 -0.999499  -4.54437 -0.350077  -1.44933
  -2.4062  -3.29307   4.69863  -2.94399  -10.2255   -5.0757  0.239917  -5.58969   10.2293    7.8256  -4.60878    4.0386   7.10349   4.38108   -7.1785  -7.60692  -1.78517   6.28952   3.90711   5.84346  -1.91595  -2.50149   2.54055   2.26562  -7.78116  -4.64774     2.049   2.91726  -7.70105   3.36189  -4.21067  -5.00947   1.84515   3.48435  -2.14514   1.86172   8.61288   -5.5955 -0.999499  -4.42438  -5.29555   3.79006  -5.36022
 -3.29307    2.0376  -2.75505  -2.62356  -5.28769  -4.89376  -5.58969  -15.8331   7.98493  -3.73203   4.09937   9.16733   3.61219 -0.130548  -7.60692   5.20506   6.36204   5.24193   5.95891 -0.613084  -2.50149   2.86014   2.32962  -5.73356  -4.61391   -1.6577   4.51279   8.25154   3.36189   2.98473  -4.96103  -1.75742   3.90844 -0.221923   1.86172  -4.01764  -5.67565   2.22176  -5.10196   6.74002  -5.17984   6.11043 -0.338857
-0.605311  -1.36131 -0.121655   7.91623  -4.89376   2.01903  -8.43278  -7.04001  -3.73203    5.7083   8.18061  0.179617  -24.7752   2.89559   4.12109  -1.30437   5.15817  -3.00419 -0.613084   10.1982   3.06707  -3.43961  -5.73356  -2.33666  -2.95576   4.33424  -11.1674   1.34604   2.29873   8.03628 0.0254734   -12.458 -0.221923  -3.33932   1.56527  -2.60412   2.22176   6.35151   5.88464   4.54931 -0.217659   7.60378  -10.1905
 -1.36131   1.69684   3.83038   5.65793   1.26957  -1.41211  -7.04001  -7.23425   5.83807    2.2713  0.614948   -6.3719  -2.57259   4.79641  -1.30437  -5.05437   5.31159  0.301531   11.3896 -0.188524  -3.43961  -6.19113 0.0115058  -5.36959   3.71789 -0.276618   6.84044  -9.65285   8.03628  -9.08276  -4.92684   1.36763  -3.66392   8.14184  -2.60412   2.84329   5.88303   3.26321   4.21263    -8.784   7.99656  0.876178  -2.58553
  1.69684  -8.11527   5.54699    3.2549  -1.41211  -1.21951  -7.23425  -5.38654    2.2713   5.39921   -6.3719  -11.0604   7.79643  -4.43646  -5.05437   6.61365  0.776251   4.73055 -0.188524  -9.13958  -6.19113  -7.77061  -5.36959   2.50627 -0.606141    8.9841   1.14603  -7.81778  -9.08276   2.96947   1.40171  -1.99149   8.14184  -4.04845   2.84329  -8.08445   3.26321   8.10147   -19.248  -2.22768  -5.72151   3.67195  -4.83966
  -8.99062   -5.66024   0.115626    1.48418   -1.21951   -7.17675   -5.38654    9.88823    5.50735   0.905706   -11.9307   -3.60326  -0.200154   -6.66893    6.34621   -5.24672    7.86158    7.85275   -9.13958   -30.1056   -7.77061 -0.0678952     2.2608    7.62785    8.41201     7.6784    11.3826  -0.380014    2.87257    8.80806   -3.27005    6.67438   -4.04845   -4.08463   -8.08445   -3.60405    8.11958   -5.67328   -2.20452    3.73724   -2.16945    4.74884   -5.47366
 -5.66024   6.31903   1.73983  -3.69831   7.59241  -3.93941   9.35898  -4.19846  0.548084   3.35675  -3.21153  -5.67565  -5.66113  -8.75437  -5.24672 -0.643535   8.09615  -0.74603  -12.2306   2.00438  -0.92314   6.75979   7.29342  -8.53666   8.06321   -8.3485   -9.0396  0.895159   8.80806   1.69546   6.85298   7.51827   3.31364 -0.123263  -3.39311  -6.02288   -5.4329   8.13909   3.95158   0.76802  -9.97585   2.01171  -8.56106
   1.69682   0.838986   -3.69831   -5.26792   -3.49655    6.05041   -7.30361    1.16335    3.35675  -0.841749   -5.67565   -2.49076   -5.41445    5.68199   -3.84241   -6.18406   -0.74603   -5.82152    6.99729   -12.1463    2.47979    12.3223   -8.53666    10.5281    -8.3485 -0.0363294   -8.45825    3.35999   0.746531    6.58996    7.51827   -5.25008    9.27818   0.669791  -0.158727   -4.16873    8.13909    -3.1246    0.76802  0.0638288   0.445196    6.18499   -0.94755
 0.838986    -2.612  -5.26792  -0.37316   12.5592  -16.9305  -3.93634  -3.92367  -7.93068    7.5971   2.29327  0.767433  -11.1385   6.64965  -6.18406  -6.18809  -5.82152   3.30242  -9.07169  -1.81687   8.06635   7.83956   6.15754   -5.4561   8.62388  -6.04151   1.32935   7.12576   6.58996  -4.37454  -5.25008  -5.52171   3.70015   1.26754  -1.68233  -2.38277 -0.441773  -5.70309   10.9928  0.754909 -0.209349  -6.91079   7.94946
    -2.612   -3.23705  -0.896034   -0.54226   -10.1603     7.4688   -4.17473   -3.30766    7.03841   -7.85343   0.214695    6.84461    3.15729    6.07582   -6.18809   -5.87024    3.30767   -5.25856      8.365    2.56464    8.39372   -4.54315    -5.7897   -6.19548    -6.6442 -0.0686662     5.1299    6.17129   -4.37454    2.83285   -5.63716    6.88102    2.88569    7.80807   -3.93865    -3.5624   -4.22383    6.89624    1.45291    -3.8822    9.02444   -8.48931    13.6375
  -3.23705   -6.41519   -0.54226     -6.431     6.3157    4.90991   -3.30766   -6.81086   -7.85343  -0.390279    8.08056   -3.52853   -8.04134  -0.452789   -5.87024   -5.31726   -5.25856  -0.961444   0.906952   -9.86763   -4.54315   -9.16752   -6.19548   -7.98188 -0.0761664   -4.90018   -7.56388    5.28296    2.83285    1.30973    6.88102  -0.845262    6.65148   -0.87965    -3.5624  -0.410357    6.89624   -6.86587   -5.18414   -4.09941    7.11194  -0.955717  -0.983557
 -6.41519  -5.00271    -6.431  -3.18935   4.87943  -1.98852  -6.81086   18.5192 -0.390279    -5.509  -3.52853 -0.789167  -6.34791   6.86352  -5.31726   5.06539 -0.961444  -5.21111  -9.94858   9.94173  -9.16752  -2.84481  -7.98188  0.835247  -4.90018   5.86241   6.18815  -6.78454   1.30973   2.54178 -0.845262  -1.46319 -0.776853  -5.21914 -0.410357   1.50654  -6.86587  -5.50361  -4.09941   4.92673   3.30368  -4.95083  -5.69498
 -6.50523   7.61006   3.10477  -3.42961  -6.40353 -0.114481   8.82199 -0.773771   -8.3198   3.91156  -14.6173   -8.9033  -3.67889    -1.887   -8.4057  -3.64296  -7.29521   -3.6621  -6.57541  -8.88569  -4.57464   7.35412  -5.29122   3.17706   1.56083   4.09991   7.36402   6.19565 -0.895892   3.31407  -4.96506  -2.70699   9.57943  -2.36908  -0.98666   -4.9725   1.22325  -3.13802 -0.147737  -1.91219  -6.00108   15.7457   1.26784
   6.65692    5.77671   -3.42961    4.11869  -0.114481   -2.62231  -0.571775   -1.37182    4.25937    2.71725   -7.71565    -10.762  -0.225108     4.0104   -5.76316   -5.00148    -3.6621   -1.64733   -8.88569    3.83742    6.75161    2.00882    2.18898     -8.446    4.28291    4.40571    5.32243    8.83411     3.0104   -3.49248   -2.70699   -2.21198   -2.36908   -1.25931   -4.51925    2.34265   -3.11694   -2.78667 -0.0173784    0.77581   -3.30554    4.88056    8.70884
   5.33927   -3.34206    4.64849   -4.70712   -2.27307   -1.55429   -10.4217   -9.75897    2.71725   -6.58008   -13.8983   -8.93269  -0.122953  -0.701689   -5.10238    3.59964   0.679615    -5.4835    4.54447   -6.60152   0.653744    8.41732     -8.446    1.97622    11.9788    9.61988    2.87086   -3.71698 -0.0063656   -23.5208   -2.42233    4.37871   -5.46758    7.02109  -0.307897    2.69642   -2.78667 -0.0802545   -1.90422    8.79017     5.9245    5.38141    10.0648
  -2.03029   -3.06248   -4.70712 -0.0520906   -1.55429   -3.33327   -9.78334      3.598   -7.91104    3.20254   -9.09659   -2.87573   -2.08139   -8.29843    1.94571  -0.403427    -5.4835   -8.89981   -6.60152   -7.29282    9.16036   -3.21338    1.31288   -3.61508    9.88709   -7.64499    1.89279     8.9367   -6.87809   -5.62408    4.37871   -8.78119    7.02109    4.55495    3.79462    4.94001   -0.22371   -5.42549    9.77471   0.320647   -19.7663   -8.63325   -3.11659
-0.964509   7.07041  -13.4968   9.09046   8.52595   3.41444   1.19421   1.13384   7.61903   5.11947   1.33929   4.23932   4.60384  -15.9493  -2.40078  0.587755   12.4792  -8.40055   2.69859  -7.76159   3.71077  -6.84264   2.51259 -0.781538   1.81233   3.55269  0.915764   2.39559  -5.43924  -1.81599   1.65655  -2.49295   8.28162  -2.92592  -1.28095  0.272466   -2.7477   4.47023  -1.91872   -8.8842   1.11196  -1.58563   7.54593
  4.86845  -1.79956   6.35217  -4.27953   3.41444  -3.10659  -5.80465  -5.98201   6.53973   5.24079   3.72969 0.0567543  -4.29252  -3.84781    0.2735   10.3727  -12.6639  -8.28982  -7.76159   6.70801  -17.8016   4.35237 0.0277258  -10.7098   3.50915  -9.64803   3.12743   2.85919  -1.41304   3.01608 -0.510648   3.41876  -2.92592  -1.52207   2.20994  -4.58439   6.07437  -1.57495  -8.50212   -1.9578   5.99212  0.294251   9.54152
  -2.92952 0.00338839   -4.27953    4.12524   -1.97896    10.4693   -5.15812    8.50878     7.0186    4.40791  0.0567543   -7.96017   -8.40419   -14.6256    10.2202    8.64945   -8.28982    5.78457     6.7464    4.69784    5.27627   0.915764   -7.55917   -6.53133   -9.64803    8.35752   -8.45822   -8.72236     3.2291   -3.01667    3.41876   -8.04079   -1.45452    4.37571   -6.56103    2.88321    -4.2942 -0.0142509    -1.9578    7.98651    2.99241  0.0919421   -5.67692
  5.28746   7.39539  -1.93331    -1.662  -1.00326  -12.7026  -5.90073  -5.10359  -4.33436   14.5626  -0.62883   1.09962  -7.95457   7.86763  -3.44177   1.42176    3.8986  -22.8118     9.331    4.7903  -3.17961   3.32666   8.74043  -0.10744  -6.88412   8.57174 -0.143789  -2.96265   5.82618   3.51771   4.12404  -0.91725  -8.02411   2.91695  -2.32852  -6.08676   0.26688  -1.79632  -5.65953   7.63633   1.08201  -4.77098  -7.72006
  6.47245   10.6485  -11.1526   3.36517  -5.52063   6.65396  -5.93133   1.06115   23.5017  -6.96174  0.623064   -5.4776  0.219429   6.42104   0.59837   5.80947   -38.454   8.51844   5.94731   -7.4065   3.07125  -9.47767     1.185    7.6712   8.16423  -3.05414  -1.86748  -3.33344   3.15425  -3.24125  -2.21091   2.60424   3.01669   5.48133  -6.15169   1.20445  -3.02619  -7.65341   7.31594   6.78513 -0.452977   5.57963  -1.57114
   7.09307    1.00042    6.21565    7.08337    7.45017   -4.10856    1.06115    3.67138   -8.32602 -0.0745768    -5.4776    4.72945    5.86839   -31.9765    2.29484   -2.87367    11.7757    -8.7648   -6.34333     6.1645   -9.47767    2.44174    7.07787    2.64827   -3.05414   -7.09558    8.02395    39.5674   -2.40777    9.75962    3.22028   -9.52269    7.78797   -5.13469    1.20445    2.51522    -7.0222   -7.37386    6.78513     4.4503   -4.08322    2.10745    11.9319
  1.00042 -0.714684    7.3652  -3.98669  -3.77617  -4.70456   3.64528  -4.95535 -0.045791   4.85642   4.35524  0.393358    7.6095  -9.69709  -2.87367   8.82104  -7.86261 -0.952114   6.86916  -6.51348  0.629188   8.89784   3.02237   1.62447  -7.97736   -1.3043  -8.13387  -1.88217   9.75962   5.89516  -8.29303  -3.40103  -6.53633  -2.15563   2.29016   1.69895  -8.37406  -4.10907   3.72069   27.4302   7.97329   1.52317   8.56538
 -1.07184   5.72903  -3.98669  0.141617  -4.70456  -2.56865  -9.80068  -2.68628   5.31004   1.22333  0.574991   5.69058   6.75328  -6.18977   7.82243   -9.8309 -0.952114    3.5766  -6.51348    8.5146   1.47655  -9.64313   2.97064  0.516146 -0.984517   1.99841   8.02988   -8.5226     5.109   2.68099  -3.40103   -6.8381  -2.15563  -5.29812 -0.261462   5.64161  -4.53888   1.04533  -27.0506  -6.38884   7.78502   1.74217  -6.78961
    5.21705      2.0618     2.18686    -8.27599    -2.71245    -7.00628    -2.68628     7.44072     1.39101    -2.67899     5.61906     7.97924    -4.24889    -4.18555    -10.7338     8.11512    -1.67811    -8.58357     6.63738    -6.08648    -9.64313 0.000619045     5.81321     5.35904    0.670214    -6.13394     8.91533    -7.99799     1.58177    -5.01903     -21.683    -8.32117    -2.99113     1.03841     5.64161     8.54968      2.0893     15.0654     -6.1443     5.87068    -2.73117     3.60339    -3.64506
   1.77815  -0.922167   -8.27599    8.22258   -7.00628   -8.09638    7.69188    6.82346  -0.689836    5.93036    7.76451   -3.75307   -6.91839  -0.754892    8.82549   -5.30538   -8.58357    2.10982   -6.08648   -5.53075 0.00707775   0.224688    3.58831    4.88349   -3.58615    8.15221   -5.90764     5.9259   -5.26338   -8.15504   -8.32117   -8.18721    1.03841   -9.88304    9.00487    5.33842    4.67168  -0.475947  -0.107347    5.42648    9.74029    1.73101   -6.33396
  0.740089   -4.26869   -3.86093     6.7297   -19.3344    4.37475   -6.00169   -5.09213    3.36584    4.10148    5.28692    3.38044    18.6933   0.220252   -5.28992    -5.4074    4.23663   -2.76369    0.56084    3.86436 -0.0142388    -8.6514    5.69968   -8.25693   -5.80086   -7.08355   -7.67714   -9.12628    9.21745    -2.5791    4.13843   -7.00944  -0.361287    9.90848  -0.476125   0.626418     -7.798   -2.03869    -3.0555    3.10652    2.49437   -8.01348   -11.1742
  -4.26869     8.3281    7.58701   -0.80908    3.71536   -1.53746   -5.09213    5.52256     5.3781    4.57525    3.38044    7.58839 -0.0891797    3.27266    -5.4074  -0.359286 -0.0685926     4.5888    2.68681   -5.59911    -8.6514   -6.40431   -6.23017    9.88362   -7.08355    6.92303   -3.64532    4.79947    -2.5791   0.672252   -7.97453    2.28754    8.84411  -0.420186   0.626418    8.09738   -8.37464    -9.9651    3.10652    6.81285     5.3963    5.65611   -10.0802
  7.92095   7.04751 -0.225423   2.08021  0.368914  -3.64051   5.51331   -4.6746    4.3419   6.06246    7.8767   8.23517  -4.18427   7.95421  -8.94343  0.731506   7.82778  0.044188  -1.27008   5.45002  -6.22666  -9.45575   8.16548  -9.07491   8.83424  -3.17982  -9.01566  -3.06001  -4.81566  -5.89248   3.64564   7.08851  0.354883  -3.08261    6.8918  0.662869   -9.0544   1.84169   7.26101    3.8493 -0.382815  -4.10051   2.16071
    6.8419    9.07291    2.21682   -7.22597   -6.77518    8.14297    -4.6746    7.93219    5.21495   -2.60834    8.76576   0.783743   -7.08158    6.54831   0.490751   -9.30468  0.0928709   -2.67025    6.93298  0.0700209   -9.45575    1.54468   -10.4299    12.0421      0.274    5.43631   -7.16226   -9.79064   -5.73173    4.33359    7.58109  -0.693939    -5.8627     2.7402   0.662869   -9.08711    1.51551    2.30889    3.95056     5.9959    -5.7028 -0.0108368    -4.6489
   9.12273     5.6083   -7.22597    3.28115    8.32355    1.75497    8.04277    6.68355   -13.9994    1.24907   0.597714   -8.40788   0.799133   -7.60777   -10.1101     1.8652   -2.67025   -6.75114   -4.03814    3.92538    2.56575   -7.40755    6.76337   0.117652    4.02341   -6.55829   -8.44582    5.43179    6.94525    4.45365  -0.693939    1.08873    3.92292    5.46373   -9.33871     -9.499   -2.37825    4.41418    4.86278    6.20372   -3.81383 -0.0161065   -9.56659
  4.61361   -2.6026   2.69348  -6.73198  0.991285   15.2922   6.88405  -8.49988  0.355814   5.20167  -8.40788  -3.14321   3.02525  -2.94045   1.88699   2.44948  -7.84501  -8.03843    3.9295   8.57455  -6.46355  -1.45166 -0.914513   6.19862  -6.55829  -6.33263   9.78366   7.75603     4.048   10.6013  -5.50222  -0.29511   5.19479  -2.91525  -4.07497   2.84462    1.9698   8.65803   6.20372  -5.18189  -3.10476   -4.6177  -16.2734
 -3.00518  -6.46834  -6.73198   38.6567  -12.3336 -0.529195  -8.49988   2.77826   5.66353  0.441936  -3.14321  -9.05659  -1.38416 -0.388548   2.13506   4.31978  -8.03843   31.3521   1.93465   1.05857  -1.45166   7.98852   6.83227   10.3339  -6.33263   6.30425   7.46955   5.99549   9.11836    2.2126  -0.29511 -0.549389  -0.13772   80.8936   2.84462   1.42913    9.0766  -6.04145  -5.18189  -4.64366  -7.87166    -2.269  -6.44492
-23.0777 -1.44242 -42.2556  2.32112  2.56449  3.70364  16.3738   7.6434  -2.4828  3.78293 -3.78611  15.6472  7.55859  4.10001  5.99638   -8.259 -38.0621 -5.96137 0.130072 -8.73772  15.0542 -2.02885  8.40608 -10.1901  7.56268  13.4823 -1.92525  5.54193  4.46635  5.13478  0.36531  7.47529  3.83858 -4.27993  2.86336 -6.50243 -5.06694  45.6717 -5.39854  3.29938 -7.27206 -8.83194  17.5605
 -1.44242 -0.738722   2.32112   -9.7749   3.70364   -4.3341   8.36351  -9.17595   4.24385  -2.76693   12.6126  -2.22872   1.17939   -19.626    -8.259  0.599971  -5.96137   2.00819  -8.73772   -2.8023  -1.75688  -5.72817  -9.27962   5.52936   13.4734   6.21082  -8.78458   4.23488   5.13478 -0.384948   7.47529   3.20954  -4.27993   1.23975   -7.2211  -8.61271   10.9017  -4.12456   3.02764  -5.03703  -2.18844   1.40867   1.18163
  -0.299288    -4.10275    -23.1029   -0.781884     -4.3341     6.55704    -9.17595    -7.00702     -1.7445     3.70299    -1.03173     3.82996     5.05415     6.88209    0.459814     4.92421   -0.462665     10.8637     -2.8023    -7.86927    -5.72817     7.21772     5.73193    -3.03825     6.58232    -8.25499     3.10675    -5.62603   -0.176447    -2.77948     2.09397     7.28949     1.23975     1.73279    -8.61271 -0.00717089    -3.83231     7.83403    -5.06974  -0.0963795    -3.31506    -4.28017    0.465177
   -4.19093     2.93953   -0.813468     1.03043     6.72176     2.63174    -6.67663    -4.64655     3.53606     -1.6276     3.82996    -16.9667    -1.66006   -0.438539     5.16026    -2.70181     10.3869    -7.17694    -8.07879     8.41384     7.87428    -2.72597    -3.26386     4.40166    -8.25499 -0.00538428    -9.23922     4.74034     -3.5987    -7.87768     6.91781     -9.3769     5.11555    -4.91528    -2.90655    -8.22516     6.43297     11.0496  -0.0963795  -0.0347283    -2.44571    -6.75702    -5.42972
  3.67411  -1.16308   1.03043    7.8615   3.63134  -7.84785  -4.64655   -2.3712   -5.2625    4.1849    25.981  -2.82695    6.4955    -7.095  -1.55405   1.28113  -7.17694  -8.66031   9.33938  -7.03815  -2.72597   5.90098   2.22338   4.37544   2.37444  -1.07899  -1.66455   1.79554  -9.38599  -19.1126   -9.3769   2.80523  -5.35946   9.08063  -8.22516   5.21306   6.49733   9.48895 -0.866767  -4.60839   4.22857  -4.04297  -2.80531
   2.02943    5.57491    9.97934    8.82344   -7.84785   -4.24442   -2.02179   -6.18598    4.37341   -6.91998   -2.82695   -1.10005 -0.0771818   -1.13693    1.05409    5.44494   -6.64936   -5.87181   -7.03815   -3.30069    5.43022   -9.52236    4.12513    26.1757   -1.07899    9.92946   -5.15682     5.6612   -10.8528   -2.80957    6.81586   -7.78298    9.08063   -2.39781    4.33665    8.66071    9.49232  -0.854761   -4.60839   -2.82419  0.0970276    2.62306  -0.229555
 -2.47521  -2.11936    8.3583   7.02144  -4.24442  -1.27543  -6.18598  -3.86612  -8.99388  -9.14124  -2.53783  -2.49823  -4.34273   1.25249  -4.69424  -2.99911  -3.52578   1.14476  -3.30069  -6.93409  -9.52236  -8.98241   -9.7018 -0.266866   6.89311   7.00628  -5.30125    3.9905   1.36755  -6.18465 -0.109889  -3.03875  -2.39781  -7.16965   8.66071  -6.01373   7.65051  -7.42623   -1.3477  -4.23462   9.85033   6.96429   14.7725
 -2.11936  -5.81708   8.44178   1.34096  -1.27543   3.94801  -3.86612   7.53162  -9.14124   18.7961  -3.80987  -1.13881  -8.59244   8.50922  -2.99911   2.41391   3.99625   7.60701  -6.93409  -1.81836  -8.98241  -3.35012 -0.266866  -8.28698   8.03431  -6.51541  -2.78072  -3.77535  -6.18465   2.10877  -3.60827   9.55461  -7.16965   7.65717  -6.01373  -9.16853  -7.42623   1.15457  -8.21558  -2.19355  -1.41982  0.462604    2.7798
 -7.77729  -5.36771   1.65728   6.15389   4.29871  -2.70942    7.0864   7.51523   37.9473   2.54102  -1.13881  -7.69054  -2.89022  0.979536   2.47929    8.3519   7.48726   1.32016  -2.12365  -4.63132  -3.50416   3.27818   -12.142   10.4324  -6.51541  -4.48681   4.49452    3.1307  -5.85735   3.97536   9.52194   3.45245    13.235  -5.67612   -8.0677  -9.42941   1.17783 -0.543367  -2.19355  -2.19177  -7.42843  -9.01027   3.74288
 -3.20872 0.0176971  -5.93523  -2.54533  -3.08359      6.36   2.23114   5.83384   10.3095   0.50797 -0.932395  -8.18771  -7.61964    4.9907   5.35004 -0.747646 -0.483223   1.71218 -0.467914    2.7102  -1.55207  -9.73065    6.2242    9.3455  -7.47075   5.82587  -7.71241   8.39723  -6.72559  -5.79333 -0.257144   3.05373   2.67138   7.59352  -10.4436   3.68234  -2.52305   6.89632    3.1567    1.8254  0.572884  -4.72868   -9.3169
 0.0176971   -8.48729   -10.8187   -2.20717    5.72692    7.79386    6.12334   -7.41706  -0.187911   0.602519    -8.8204    4.38996   -8.26936   -30.5027  -0.747646    2.00451   0.656521   -3.24235   0.314425   -7.67221   -9.15525   -2.16037    6.83581   -3.45228    4.74146    2.31235  -0.959639   -19.1914   -5.79333  -0.056281  -0.288619    6.56948    6.87061 -0.0162282 -0.0115889   -6.99648    5.38009   -5.12439 -0.0274114   -8.60201   -3.03116   -1.14983   -18.6145
 0.737788    6.1611  -5.80026   9.77478  -3.62889   4.81045  -7.19258  -1.42674   2.99647  -24.4778  -1.30813   1.63628  -1.09124  -4.46225   2.36654  -8.23499   4.18708   -7.0578   8.94208  -2.08171 -0.585691   4.16359   1.70446   10.5565  -8.13997   3.81649  -1.39673   -1.2267  -3.17335 -0.017099   8.08917  -4.81676   2.10102   8.64914  -2.22152   -10.067  -3.72022  -1.72963   5.15078   7.77216   8.17978  -3.21643  -8.16939
 6.63495 -1.49867  8.97031 -4.23203  4.97828 -4.44708 -1.59535 -9.31188 -21.4404    6.876  1.82521  -7.5535   1.1623  2.45465 -6.80851 -3.53157 -8.73708  1.50749 -1.84395  1.76411  3.91553 -5.34725  21.3372  1.03122  4.10837 -4.43631  8.39816  5.52634 -4.07669 -7.67623 -4.40737 -7.51529   9.0242 -3.17968 -9.09373   2.6021  3.09553  2.34047  8.13838  6.19615 0.514141 -9.77215 0.430606
 -1.49867   8.73275  -5.38462   6.65532 -0.616218  -9.19049  -9.31188  -6.55023   3.90894 0.0575586   -7.5535  -3.84259   14.3461  -14.8543  -3.53157   4.95307   1.11382  -13.3421   2.53863   2.19486  -5.34725 -0.202825 -0.979856   7.49421  -4.43631  -3.18702  -3.06576   3.21854  -7.67623   8.94716   3.49891   1.48592   3.88485  -1.49754    2.6021   7.47151   1.45195  -7.93626   6.19615  -1.63965   -5.6084   4.58559  -10.0072
 9.70095  2.40397   10.325  7.90528 -8.65324 -9.28446 -6.55023   4.1778 -1.40641 -3.51036 -3.84259   4.1039  7.26218 0.664141  7.22586 0.122334 -8.45154 -2.26438  2.49556 -3.67046 -0.60262  4.83663  5.07901  2.71739 -3.18702  4.90516 -5.91448 -8.30265  9.89485 -3.19818  5.55597 -3.63166  3.18651 -3.15268  22.1989 -7.18152 -4.33226   1.7087 -1.63965 -7.06405 -8.76181  7.30587  7.76722
  1.25114   5.11884   5.14845    6.1604  -9.28446   2.80309   3.51968  0.111721  -4.15409  0.775305   3.43767  -9.96567  -2.61545   1.75927   1.76525   1.18956  -7.50686   0.19518  -3.67046  -8.98242   5.87448   5.58318   1.29968  -1.58747   5.95519   -6.5158    3.8187  -7.53298  -3.01172   6.11647  -2.56151   5.76371  -3.15268  -7.95065    -7.326   9.99782 -0.263712  -3.29761  -7.21782  -4.95193   4.97867   -8.3999   8.54456
    3.5854   -4.22655    4.36502    5.61026    2.80309 -0.0551121   -2.11234    1.44867    1.25024    -1.0796   -9.96567   0.618966    3.10617   -8.78787  0.0407797    -5.6232   -3.52892   -7.56325   -8.98242    7.43861    4.48947    5.87899   -1.00272   -2.37277    -6.5158   -7.48133   -6.48729  -0.702784    3.22692   -9.94644    2.68265 -0.0176152   -7.95065   -9.11491    8.49805    4.72641   -9.75322   -3.60688   -4.95193   -7.45211    6.44265   -8.80353    1.93278
   2.0391  -7.20079   -9.4151   6.31973 -0.700928  -13.9781   -4.1129  -6.07629  -3.57424 -0.402056 0.0496005  -8.48541  -4.74655   3.25603   1.28488  -8.75233  -3.68418  -9.83101   3.01786   8.34974  -4.68646   3.62961   5.57426   4.66553  -3.32161  0.961516  -2.76412   3.04614 -0.541977  -0.14673  -2.91463 -0.559535  -4.80018   2.30273  -3.56425  -5.35878  0.956876   3.04208   3.66194 -0.266228  -6.55168  0.882493  -6.53113
  -7.20079  -0.511119    5.22241  -0.779723   -17.0044   -9.02102   -5.01725    3.09381   -1.59687    -9.7171   -2.30967    1.36167   -12.5453    7.04764   -8.75233    5.32795   -11.9562    7.12634    3.38257  -0.710577       4.12   -7.22819    3.20342   -9.52739     1.7691    1.52279  0.0971888   -5.72174   -0.14673      4.537   -0.28405    7.85261 -0.0504205   0.248306   -7.18686    1.16982    1.47799    5.35988   -3.24025   -23.4868   -1.51462    6.13056   -13.4424
  0.654931   0.406646 -0.0310714   -7.72065   -9.02102    2.79218    3.09381   0.791772    -9.7171    5.28645   0.469023     9.3865     3.0236    5.95007    5.89561    9.51249    7.49142   -5.92701  -0.710577   -1.55891   -7.22819   -7.20127   -9.52739    2.44017    1.10312   -5.23237    2.55316    6.36791    4.96191   -10.0404      8.214    6.44376   0.248306    17.5395    1.16982   -5.82913    5.35988   -7.57166   -14.1815   -5.29877    3.72915    6.33761   -10.8868
   -8.5747    2.80451   -9.88309   -8.22684   -8.37656   -6.34069    5.05485   -7.91466   -9.17152   0.986374    8.35605   -5.97027   -2.59951   -6.94645    5.26366    2.51448   -9.90451   -9.42727   -1.05326   -9.01316    5.59843   -5.28928   -1.52383    8.69108    4.01126   0.438007    24.5459   -7.93575 -0.0541854   -5.14702    8.41413    -1.9602   -9.85565   0.786534   -6.19858    7.48531   -1.06266    4.83406    4.85642  -0.586756  -0.333622    1.54809   -5.11784
  1.37755   4.23603  -8.22684  -4.85704  -6.34069   2.21201  -7.91466  -7.18924   2.49286   5.77566  -13.1477  -3.65868    13.542   2.75721   3.67441   -8.7231  -9.42727   6.27975  -9.01316  -6.00524  -5.28928   9.30733   7.46829    8.9964 -0.390181   8.54135 0.0215019    -6.231  -5.02719   -2.2917   -1.9602  -9.78085  0.786534  -8.04484   7.48531   6.56007   4.48528  -5.61391  -5.44509   5.46929    3.5864  -6.27725  -10.6719
  4.28221 -0.913652  -5.59285   4.55305   2.21201   6.14168  -8.12643  0.145167   6.02141   4.88972  -3.77844   7.68474   4.94168  -3.63942   -8.6305  -6.17981   6.32111  -9.41176  -6.00524   5.53566    9.1944  -3.82847    8.3709   1.19731   8.81236  0.325921   -10.004  -6.70071  -1.96304  -9.71852  -10.3248   1.11297  -8.04484   -2.6398    7.0583  -3.30487  -5.53277   1.50975   6.76012   8.86005  -2.54702  -1.79603  -2.71772
-0.913652   8.93119   4.55305   4.88682    8.9755   5.20968  0.145167  -3.50983  -2.76543  -9.78445    6.6286  -7.39645  0.719527   6.74278  -6.17981   5.46384  -9.41176   5.93212    3.2052  -3.17935  -3.82847   -1.2667   7.42851   -4.8461   1.20959  -6.03503   3.59119  -4.12303  -9.71852  -2.80499   1.11297   1.92768  -2.95539  -8.06483  -3.30487   3.57509   2.23604   2.24152   7.88552  -3.09427  -3.85754    6.1266   1.22923
   8.0072   5.39605    5.6303   1.87384  -3.27955  -4.44301  -3.50983 -0.696809  -9.78445  -4.09823  -7.39645  -5.30694    6.9381 -0.385158   4.10224  -1.89819   8.41867  -1.78082  -11.8434   4.22291   -1.2667  -1.89482   -4.8461  -1.95082  -6.03503  -2.06936  -2.45355 -0.331079   -2.5876  -6.81557   2.23554   5.09763   5.97305  -2.19984   3.57509 -0.152348   2.24152   3.53739  -3.09427  0.568914   5.15587  -1.07265   1.18236
  3.57373   0.62173   6.37006  -2.62385  -12.4607  -8.45485  -1.15398   1.15556  -5.19522   6.13756  -76.2906   6.18746   4.49626   1.90092  -8.89285  -6.74608   9.48792   9.28103   2.01238    16.907  -5.79588   8.85653   4.22394   4.47853   -225.47   -4.8566  -3.53396   2.31959  -2.68523   5.11745  -1.05403   8.91113  -0.13939  -6.76467  -8.90782   7.09249  0.359054  -7.40492 -0.166849   8.06125  -11.5771   6.71238  -4.74746
 0.62173 0.150548 -3.26017  2.55379  1.71851  7.82709 0.315111   2.8194  7.01973  1.66972  4.85041 -9.57201  2.23214 -6.00827 -6.74608 -2.01125  8.96033 0.217879  13.1714  6.78843  8.43575  4.60892  4.94006  1.78993 -7.52622 -9.96858 -5.39292  9.30954  5.11745 -2.06746  8.77538 0.991934 -3.80851   6.3554  6.74775  -6.1486 -7.98969  8.21825  8.41635 -6.94855  5.75706 -6.84289 -11.6391
 -4.95805   6.20723   -1.2946   2.89719   5.33066    7.7635   7.93171  -3.32143   0.57896  -7.99282  -6.36746   3.84237   4.61188    2.1121    8.9992  -6.36279   10.0603 -0.983342 0.0111704  -2.56876   1.47445  -7.61584   4.18112 -0.440031   11.5584  -3.94017  -1.44896  -7.64248  -8.65733  -4.71706   4.37308  -10.7138   6.12639   6.24378  -2.55283  -2.05652  -8.92977  -9.64495   6.73115   7.56797  -4.00057   1.55368  -2.75705
   7.00472   -7.34491     3.6014    8.70649    7.54895   -19.9173   -3.32143   -1.66395   -7.99282    3.29255    4.01862    7.42059   -1.66138   0.697775    -3.2377   -4.43745 -0.0137924   -6.42038   -3.49255  -0.311791   -7.61584   -8.78583  -0.440031    5.77172   -2.95849    3.18811    5.99633   -3.90326   -6.76518     9.4911   -15.3541   -2.34927    6.22059    3.47956   -2.05652     3.7468   -9.64495   -6.34868    5.03825    9.36445   -4.68195    4.62717    34.8624
  -7.34491    9.28095    4.80502    4.54665   -20.1352   -2.43611   -1.66395   -1.03122    2.58077  -0.667208    8.04812    2.47892   -6.31935    -11.337   -4.43745   -2.84335    28.6272   -3.95041  -0.440253    5.87531   -8.78583   -6.42865     7.9829   -8.62201   0.821914    6.52136   -7.86444    3.48686     9.4911   -6.79649    3.42283 -0.0563471    4.43539   -4.21935     3.7468   -2.01642   -7.02896   -7.68356    9.62989   -9.00842    4.56319    5.46243    14.7829
    8.73846     3.30238     4.96862     11.0562    -2.67396     7.83451    -1.03122    -9.82841   -0.667208    -9.88871      2.2951    -4.58218     1.29831    -7.36573  -0.0463376    -9.87374     -3.1044     9.10222     6.58155     3.10193    -6.42865 -0.00387002    -8.62201    -6.40518     6.95603    -5.14134     8.78881     -5.1245    -5.11306    -2.92194   -0.101143     6.60632     -5.2793    -3.28119    -2.01642    0.258063    -7.68356     6.31236    -9.23669     8.73103     4.13906    -2.48194     12.6651
   3.30238    2.92713      10.05    3.31855    9.36363    2.79759   -9.82841   -3.81998   -9.88871 -0.0664359   -4.58218   -9.63099    5.04303   -1.33253   -9.87374    4.04707    8.19598    9.35212     4.5102   -8.94107  -0.104453   -9.77441   -6.40518   0.329231   -5.14134    4.06264   -12.7476    10.1634   -2.92194   -6.35497    6.24217   -2.49728   -3.69152    5.30625    6.96522    6.50913    6.31236   -2.60617    8.73103 -0.0953673  -0.620277   0.738973    8.42373
   1.25602    4.09648  -0.764608   -9.74678    2.79759    4.01189   -3.81998   0.689042   -2.15971    4.08756   -9.31703    3.05336   -1.33975  0.0878446    2.13221    5.62221    4.60113   -9.26036   -8.94107    3.08862   -9.77441   -3.94147   -2.58315    3.60689     4.3032   -9.98841    3.90719   -8.33041   -4.75323    14.8323   -1.68559   -8.18509    5.30625   -7.49223    6.50913   -9.91473    14.1769   -8.23873 -0.0894598   -3.92317   -6.05775  -0.530207    11.5496
 -6.35798  -5.78859   -4.3241   5.69223   9.19304 -0.584803   1.53151   5.67798  -8.51683   2.99079  -1.73145  -9.33841  -1.53175   4.17338  -7.35176  -6.68617  -5.37905  -2.16737    9.0787  -8.48659  -7.44408  -5.48535   8.22774   6.86971    3.9437   3.66448   7.50617  0.298316   4.39715    2.4672  -8.25792 -0.913451   3.46828  -2.43836  -3.49541  -6.78843   4.50142 -0.719458   4.54456  0.462838  -10.1636   1.61178  -7.27857
  -5.78859   -6.07229    3.01925   -12.2137  -0.584803   -5.51143    4.65688   -8.73475   -1.15081   -8.78998   -6.34805   -9.28792   -7.00307    3.80545   -6.68617    5.12481   -1.71121   0.536782   -8.48659    1.42744   -6.49077   -3.02502    5.24509   -6.26821    5.35703   -6.19844   -0.99476   -8.40272     2.4672   -8.55046 -0.0572295  -0.320242   -2.43836  -0.106354 -0.0194454    8.90909   -0.56111   -1.30825    8.16038   -8.55984   -6.34979   -5.38587    3.37096
 -7.31665   3.36605  -5.50762  -2.05613  -5.14274   4.61301   2.67683   7.04403   8.12551  -8.09653  -1.70331  -3.55845  -6.11778   6.39981   5.11068  -6.83516   3.70278  -3.57869  -3.31864  -9.54366  -6.84485    4.7651    1.9091  -7.75811  -8.32103   8.25812     -3.76  -4.41853    2.8069  -1.97661   1.21446  -7.69454  -9.17413  0.305867  -7.32026     2.637 -0.748387   7.74216  -1.94562  -4.43474   5.04692  -4.34975   6.82556
