 4.27113
0.312571
 8.52037
-9.15398
 14.2894
-4.47256
 3.38165
-9.25361
 2.59669
-2.91561
 0.11319
-3.79777
-0.314879  -9.50722  -3.40573   5.64971   2.16537   9.78492
10.0202
0.0840538
  15.1808
  1.56576
  6.80226
  5.70856
 -2.39404
   2.00943
   4.31981
   1.68511
   1.68204
  -1.44373
-0.0138249
 -5.21023    2.5264  -1.73437  -4.86743 -0.278559  -0.17457
10.7299
0.316233
-6.20112
  -2.555
-6.14453
-7.80262
-8.11517
  7.9231
-4.15052
 3.00301
 7.30842
-4.40714
 9.99949
  1.23938   5.09427  -9.02394   4.58709   0.52034 -0.680506
-9.1848
 2.41259
-9.15188
-4.90079
-3.30176
-7.63257
 5.83557
-4.85242
-1.10141
 7.27476
-9.06335
-1.61972
-12.0151
 -3.96319  -4.19245 -0.140727   3.23525  -8.96967  -1.15208
1.31902
-9.15188
-3.16112
-3.30176
 4.02881
-1.29859
-11.2083
-1.10141
 4.05131
-9.06335
 13.0831
-2.91795
 14.2829
 -4.19245   3.88606   3.23525  0.097282 -0.799759  -1.12785
-0.637844
 2.63965
-7.29863
 1.71664
-2.84678
-5.44574
-4.72965
 -5.36642
 -3.12244
 -3.50544
  4.22578
 -8.68503
-0.919038
 -3.58631   8.70772  -1.90864 -0.242264   5.59921   8.94034
1.31902
 -7.29863
-0.274232
 -9.60642
 -4.35022
 -2.35886
 -3.21495
-3.12244
 6.80087
 3.17475
 -5.6731
0.781171
-9.45121
 8.70772 -1.75731  1.48107  2.48762 -6.52306 -7.13848
12.4428
-6.47709
 2.52964
-2.92637
-3.55451
 8.74909
 3.50446
-5.48477
-5.92432
 5.83836
 9.23001
-2.19606
 -7.8048
  2.37907   4.99384  -3.97292   2.68296 -0.181146   8.86551
-1.50439
  5.26051
-0.548215
 -2.23913
  7.72208
 -6.24747
 -11.5808
7.21488
-3.9239
-8.1268
5.63108
-5.9365
4.88514
  -4.78855   0.990605   -1.14975    3.32258   -6.51985 -0.0793105
16.3525
   10.8306
   2.56348
0.00661987
  0.445238
 -0.990097
   1.76225
 3.71907
-5.30376
-8.60887
-4.48668
 3.58434
 3.19294
-1.61193 0.206344  6.28145 -3.97399 -5.15978  7.33627
1.4218
   2.7015
 -11.8287
 0.445238
 -1.18465
-0.375624
-0.997964
-5.93971
 1.17347
-4.48668
-6.25221
0.614617
-6.42928
 0.228761 -0.323242  -3.97399  -5.54692  -1.57699    6.8083
1.34856
-0.782828
 -7.23007
 -4.74738
  16.1845
  6.48044
 -9.31918
-0.813767
 -2.04484
  1.20064
  9.10736
  4.32726
-0.156988
  -6.0997   5.39307 -0.334957  -2.37552   6.00978  -8.93437
-3.90497
 7.59776
-1.40391
-13.4959
 5.10725
 11.5875
 4.87971
  6.85843
  8.50603
  2.20993
 -4.26473
  5.64098
0.0159293
  -1.68737    3.53653   -0.12996 -0.0588819   -1.84281      8.169
-7.9127
 1.79827
 21.3998
 5.37274
-1.15061
-2.13417
 5.78749
-3.88359
-8.74127
-2.20334
-8.99022
 4.24951
-5.57927
  -2.09071   -2.19169    8.56625   -1.06832  -0.702058 -0.0351405
3.09598
 4.40858
 1.06765
-1.15061
-7.20221
-10.6315
-3.27398
-8.89879
 -2.2666
-8.99022
 6.16902
 9.17055
-1.78131
-0.162905  -1.70742  -1.06832   4.01726  -2.80932   3.81421
1.1896
 2.49465
 10.0361
 6.50125
 1.40124
-4.03569
 5.68714
-5.00256
-2.92656
 -1.8967
 4.11909
-9.89813
 9.77427
 -3.2574  4.86589 -7.71753  -6.0543   9.0258  1.81334
7.29596
-3.21575
 1.70569
-7.42733
 3.59037
  2.4763
-6.25955
 6.42445
-7.25705
 5.15821
-2.55471
-5.20019
 4.40855
-3.25324  5.44188  -1.7535 -2.79093 -1.88352  3.58435
14.3252
 -10.1193
 -3.77342
 -9.95005
 0.409778
  -9.3885
-0.251762
 3.43581
-6.50103
-8.76511
-9.36617
-2.46305
 3.17052
-0.114561  -5.95283   7.41238  -3.07869  0.148205  -1.91416
6.56042
  2.74697
 -5.86828
-0.358921
 0.161004
 0.223129
  2.42204
-5.47863
-3.78827
 1.11833
 4.31111
 -5.2286
-1.01532
 -2.48816   1.68111  -2.60528   2.79765   -3.2965 -0.377364
-9.02133
 -5.86828
  7.89864
-0.486343
 -8.78999
 -4.13151
-0.824241
 -3.78827
 -3.33188
  5.12018
 -7.53659
-0.193414
  5.08143
  1.68111 -0.116283   4.61535   2.35608   2.73964  -4.40425
-1.12546
  4.90065
 -9.82088
 -8.78999
 -5.41999
  2.90532
-0.227364
-10.0504
-5.64382
-7.53659
-5.09436
-5.94144
 1.84584
-2.27722  -4.0281  2.35608  7.41363 -2.61801  -2.5464
5.05706
-2.35835
 1.99268
-4.11197
 4.85043
-7.47454
 3.96553
 7.54481
-4.12309
 3.52827
-4.21613
 -8.9599
-8.89341
 2.30277  1.48575 -1.54792  1.20681  5.09507 -6.58655
-11.7034
 6.91537
-1.09699
 3.63023
 4.24605
-3.50707
-2.69994
-2.91711
 4.31974
-8.53576
-8.50235
-6.81579
 12.4975
-0.132817  -7.30593   2.42638   2.82099   4.93937   2.45525
1.00137
-2.99496
-1.80803
 6.25617
 2.34808
 -7.3941
 -2.0123
 1.55781
-4.64617
-3.01146
 4.17787
 3.35505
-6.42603
-2.27348 -2.36103  2.70741 -7.02018 -1.49585 -4.88003
38.0158
  4.19021
 -2.31873
 -1.91779
-0.656648
   3.4549
 -2.81864
0.130522
 4.66802
 -2.9245
 4.01654
-8.97818
-5.70604
 2.26008  2.60401 -1.19828   4.3452  -9.8488 -4.28516
-29.5464
0.259239
-2.48733
 6.38413
 9.34837
 4.83769
 1.07362
 -3.12042
  7.24501
-0.125241
 -9.59052
 -4.96753
  10.7112
-0.151651   -4.7002  -2.34028  -4.39404    8.4195   3.72767
-5.87475
-2.45196
 6.76939
 10.5901
-8.51823
-3.83193
 4.44074
 5.63752
 15.7126
-4.46722
-7.38954
-4.74067
 7.28238
  -2.32117    2.99177 -0.0867301    6.15687    1.79383   -5.53023
6.47667
  5.96769
  4.74914
  3.90341
-0.577742
  6.06107
  9.65245
 -5.77159
-0.497786
  7.69024
  4.99708
-0.665276
 -9.32533
   3.87915     1.7431    0.79764 -0.0155395    -1.7625   -2.42979
-6.03429
 3.01753
-4.03766
-2.56226
 8.07012
 2.95116
 -6.3049
-6.13672
 2.45421
 5.12953
-4.95137
-6.50707
-2.57331
 0.747593  -2.23745   3.07581    1.0321 -0.323281   1.40466
-10.1249
-2.34348
-9.88792
 7.86409
 -4.4961
 4.12081
-3.60968
 2.76538
-1.66851
-9.32749
-5.34307
-6.61346
 8.25611
  -5.61414   -2.72653    1.62917   -6.32388 -0.0123208    3.43251
-12.5513
 -0.70619
 -1.60515
 0.676714
  2.02392
-0.592989
 -9.26206
   -8.3296
   3.35841
   1.21719
  -4.40959
   -18.624
-0.0137928
  9.81552   0.32597   1.62874  0.299085 -0.108364 -0.559333
-2.72042
 -0.490067
-0.0399496
   13.7278
   5.18018
   -8.1264
   8.17474
  3.55682
 -6.94952
-0.316525
-0.480446
-0.989386
-0.800771
0.300819 0.377725 0.603966 -5.07551 -1.38212  2.28543
-1.06996
0.956902
 0.93652
-12.7077
 2.54234
0.527208
-84.8239
  5.8827
 4.65988
 5.86924
-5.46232
 2.58908
-21.0467
  6.5212 -2.65798 -0.06559  -8.9615 -6.24146 0.177862
-9.29319
 -8.36086
-0.319301
  1.18969
  4.53932
  2.25181
  6.05348
-4.84914
-5.45954
-3.43983
-9.14441
-4.75892
 1.83767
-0.756419   1.86158   -2.1397   3.77816  0.733102  0.095641
0.181059
-0.319301
  4.32215
  4.58256
  3.62939
  -4.1552
 -4.27116
 -5.45954
0.0468534
 -9.16603
 -7.73426
   8.3248
 -6.63799
 1.86158  3.21399  3.98996   9.3553  3.20379 -1.90399
-26.4647
 4.84622
 3.41088
 3.62939
-5.00725
-2.37762
-38.5138
0.0480886
 -6.84465
 -7.73426
 -3.42411
  4.76777
 -9.00538
  3.42935   3.63386    9.3553   0.85933   6.74641 -0.258323
-31.9734
-2.39692
 4.76642
 8.21075
-7.11332
 -3.0203
 4.20702
-0.644285
 -9.57576
  7.17779
 -2.07995
  6.75885
0.0450014
 2.52328  1.63615 -2.50763 -4.11042  1.96355  6.44137
4.79483
-2.00935
-7.26714
 -13.819
0.964263
-9.45496
 2.74357
-8.14007
-7.97364
 2.13455
 3.88706
 5.86386
-3.41251
   0.29254   -7.50018  -0.121346   0.536631  -0.029946 -0.0457515
-1.60714
 4.24285
-6.55398
-0.45579
-1.86286
 4.90273
-2.52806
-1.37923
 2.12765
-8.56082
 3.71803
0.730161
-4.45399
 -7.83566   4.89643   6.92799  -6.05522   4.57955 -0.244849
8.84969
-7.36336
 4.08823
 3.59895
 3.77401
 3.98898
-8.89287
 1.86223
-10.7918
 3.06636
 6.42824
-8.60485
-7.35777
-0.215957  -1.48627  -4.24879   4.18405   9.63044  -1.90834
-13.4016
 3.18965
-7.83489
 4.07554
 19.7444
 6.00423
-1.65847
-12.4548
  2.9859
 6.65142
 5.81343
0.551823
 -7.6998
 -4.39074 -0.130712   4.26567  -3.32348   8.11253   3.28347
-13.0257
-8.77785
-1.79449
-3.78291
-6.94851
 1.98353
-7.50524
-9.25065
-7.37583
 1.59575
-7.36139
 4.66415
-3.49837
  2.71767  -2.24289 -0.242797  0.155498   0.23546  0.776018
-0.584698
 1.11355
-4.13203
-3.57724
-1.46462
 2.61628
-4.78587
    7.3423
  -2.69824
    7.1323
  -6.70843
-0.0566334
  -4.37043
 3.46837   4.3363 -4.11503  1.87109 -6.88956 -7.12832
3.88378
 -4.13203
  1.04783
 -1.46462
 -8.39191
  6.62152
-0.659258
-2.69824
-8.48608
-6.70843
-7.76937
-2.79315
 3.95011
   4.3363   1.90409   1.87109  -9.29392 -0.138712  -2.10164
8.42778
 2.85211
  10.015
 2.29067
 8.74773
0.266327
 2.55421
0.323676
-4.22464
-7.50945
 2.81607
-6.33509
-6.85593
  -3.90809 -0.0917102     5.4489    1.43258    2.14534    4.71321
-2.64322
 8.69368
-4.95825
-8.35227
 4.20224
-4.46797
 -8.9691
-9.16822
-9.20877
 8.78908
 10.0984
 8.99664
-0.24836
 3.69076 -5.33559 -3.89195 -1.34429  5.82613 -5.42939
-4.39274
-4.95825
-5.28268
-2.73965
-8.09373
-6.64515
  1.2689
-9.20877
  4.7877
 5.46163
 7.30873
-6.69493
 3.28658
 -5.33559    3.8595 -0.840045  -2.57856  -2.36656  -1.48127
10.0417
-8.46869
 2.01531
-4.45375
   4.359
  4.2729
-1.49483
 3.40977
 -5.2706
 8.88471
 -1.7413
-8.87156
-4.35531
0.794447  3.79164 -1.84704 -1.77733 -3.54004  3.63014
13.8141
-5.06297
0.349492
  -1.072
 6.12659
-6.49073
-1.26841
   1.08266
  -7.93681
-0.0390217
  -1.42954
   5.99208
  -7.00185
  -0.36192    6.23578  -0.607824  0.0676049 -0.0396303    2.44596
0.693356
 -7.6214
-1.53234
-0.24925
0.423617
-11.1309
-2.65846
 6.40387
 1.28744
  6.6694
-4.94275
 1.82267
-8.10961
  3.06644  -15.4479  -1.69635  -8.53366 -0.157573 -0.669873
11.8961
 2.87022
0.946389
-4.32714
 3.23871
-2.16372
 3.84729
 10.4452
 1.94731
-9.39068
-6.50587
 -6.5184
-9.31164
-0.927823   3.42567   5.88149   8.25223  -6.12197  -4.53922
3.37721
0.677622
-13.9513
 3.23871
-4.31572
-3.59262
0.965418
 3.07624
 2.86947
-6.50587
 3.83171
-4.16355
 5.70762
   4.16586  -0.100673    8.25223 -0.0617946    -6.4426   -2.49059
1.98988
-1.74777
 7.47006
-6.60988
0.687656
 -5.5818
 1.57648
-9.36994
 -3.1511
-3.70929
 5.40737
-8.87629
 4.29289
  -1.1884 -0.122955   5.38373   0.83882  -5.37191  0.512981
-6.6119
-6.21074
 3.48446
-6.76322
 -9.2205
0.544098
-6.22675
-4.15008
-8.11154
-4.25565
-8.73252
 3.11862
-4.21578
-9.29044 -7.16054 0.293446 0.186746  1.06408  2.97357
-2.96163
-0.814155
 -7.26714
  1.83145
-0.125386
 -9.02813
 -4.05946
   7.22773
   9.31573
  -5.31631
 -0.957292
-0.0187012
   5.19331
 -0.481396    4.86091 -0.0665392    1.25137   0.257183   -8.78983
4.11431
0.877397
-6.28794
0.534645
-1.70203
 2.91947
0.432097
 10.8301
 5.59006
 6.41481
 1.51079
-5.97479
 4.83589
  3.18623   6.74836  -7.43288  -25.2159 -0.950048    3.6954
-4.10752
0.222138
 1.86608
 4.59958
 4.54943
-6.69765
 -8.8072
-8.41312
-4.47323
-9.30732
-9.15113
 4.81676
 6.39759
-6.75686 -1.07387 -1.74819 -1.36017   5.0268 -3.93701
1.16575
  7.52388
  3.64503
  8.69307
 -22.1411
-0.992929
  6.08983
0.885633
-1.57092
 -3.7436
-5.23911
-8.65662
 0.21956
 -3.13919   6.66963  -2.90225 -0.196024  -6.87161   4.10594
2.00475
 1.84625
 9.20822
 5.13635
-1.30162
-7.31424
  9.7293
  0.615993
   -3.8843
   8.47362
   -2.5055
-0.0285433
   7.90498
   7.22878 -0.0997458  -0.921235   0.488861  0.0323039  -0.742997
9.35276
 9.05809
-11.4613
-1.30162
-4.99891
0.584182
-1.60525
-4.88135
 5.90643
 -2.5055
-8.81026
-1.54231
-6.47167
0.0501299 -0.106237  0.488861 -0.210223 -0.335948  -5.13918
0.777823
 -13.0194
-0.130191
 -4.99891
 -1.71225
 -4.06897
  -1.4455
 5.49197
 5.05227
-8.81026
-4.40957
-3.41202
-9.32565
-0.0705471   -3.58734  -0.210223   -3.93196   -6.79289    8.99357
18.6377
 -0.1836
 -6.3187
 7.12583
-0.67539
0.560718
 2.52246
  36.8464
-0.558864
 0.474304
  8.65435
 -8.82788
 -7.96151
-0.647868   9.30951  0.356157   3.07659  -3.70459   6.00576
-2.56646
 -6.3187
 1.39158
-3.65825
-1.64415
-7.95733
 3.82752
 -0.558864
   3.63013
   7.34958
-0.0619704
  -1.42942
  -7.87773
 9.30951  6.98877  2.50023  1.75349 -19.9681 -5.10578
-43.389
 9.28686
-0.90343
-5.62298
-6.98244
-1.60256
 11.2577
-6.48652
 5.93193
-8.95686
-6.06326
 -7.4351
-7.84936
 4.32962 -1.16111  6.79771  4.57004 0.877078 -3.62598
7.06938
-1.48681
 1.80698
-6.85877
-4.47116
 6.37823
-6.56042
    2.99723
-0.00853442
    4.28537
   -6.56203
    0.13635
   -6.31002
   1.93732   -27.7613 -0.0732698     5.9191    8.38588   -3.00668
-6.636
 2.88466
-2.90794
-5.05211
  3.5616
-7.73023
-5.25063
0.0427097
   9.1708
 -7.29948
 -7.14592
  3.26084
  15.1564
  -0.8203  -6.57896  -9.14208 -0.701288 -0.118817   3.10399
13.8374
-3.41833
 1.14905
-2.19938
-2.61696
-6.36217
-5.89288
  8.34587
 -3.73203
  4.40171
  8.95047
  2.93846
-0.522649
 -7.69027   4.82698   6.27102   4.59889 -0.131009   5.98597
-4.0599
 1.14905
-2.91961
-2.25528
 2.29228
-3.83202
-5.25359
-3.73203
 5.79796
 9.11783
0.914657
0.961855
 10.5077
  4.82698  -1.38549   4.63394  -3.39886 -0.413584   -2.7984
-1.24306
-0.0768496
  -19.8403
   2.06652
  -3.69831
   6.90063
   4.40911
 0.81515
 -3.1505
 -2.5292
-5.67565
 -8.0135
-5.42769
 -10.2142 0.0433155   17.7367  -0.74603 -0.759423  -7.21363
8.58178
 -36.133
0.838986
-3.69831
-5.26792
-5.96543
0.377639
   15.242
 -6.09205
 -5.67565
-0.353756
 -5.41445
  7.38509
-0.0254195   -6.18406   -0.74603   -5.82152    3.74392    1.23674
-8.61991
 -6.50523
-0.189598
  3.10477
 -3.42961
  4.20561
 -6.40353
 -8.3198
 3.04196
-9.85833
-6.78469
-8.37502
-2.30209
 -8.4057 -3.09549 -7.29521  -3.6621 -3.07283 -6.57541
9.76801
   -7.8564
 -0.459164
  -4.70712
-0.0520906
  -9.47796
  -1.55429
-5.04911
 6.80739
-9.36395
-2.87573
-7.68819
-8.22554
 1.75502  -1.2609  -5.4835 -8.89981  9.60671 -6.60152
8.94027
  -17.0312
  -3.85105
-0.0520906
  0.572255
   1.46174
  -3.33327
-5.38098
 1.62449
-2.87573
 2.30801
  6.5689
-6.64602
  1.06456 -0.238502  -8.89981   10.2828  -3.70608  -7.29282
1.12561
  -4.5598
0.0549666
 -0.56772
  4.40785
 -5.32641
-0.688355
  5.37674
  3.26006
 0.667833
 -8.95238
 -8.40419
-0.509626
 6.77211  7.25585 -55.0723  6.06287  4.69974  8.02711
-23.0317
 1.89387
-1.17002
-10.4015
 8.27866
  8.5499
-7.00628
-3.78919
 4.98157
 5.36855
-4.54286
-4.64408
-5.39073
-1.26156 -2.72204 0.189129  1.84663 -2.10743 -6.08648
12.695
  8.9665
 5.09345
-2.24388
  3.6391
 10.4253
 6.89504
-7.01733
-3.89015
  1.1177
-8.40788
 -8.2467
-9.05779
  -4.71972    3.36961  -0.576615   -6.08996    2.45999 -0.0146725
0.783092
 1.21923
-9.21878
-6.73198
 8.27715
-8.49988
-8.25388
   6.03449
-0.0645272
  -3.14321
  -3.49155
  -1.77238
  -2.32231
  1.13639   3.27329  -8.03843 -0.110966  -1.45166   3.86788
-6.73144
 -3.00604
-0.151642
-0.101439
 -8.46635
  3.06278
  3.70364
  1.26804
 -1.58953
   5.9397
-0.902104
 -6.47274
 -9.81701
-0.305545   1.26477  -4.60416   1.91717 -0.456187  -8.73772
27.8608
  1.77114
 -2.11936
   8.2066
  10.5967
 -6.18598
-0.272155
-8.99388
-9.14124
-2.70975
-3.49638
-4.34273
 1.59963
-0.332155  -2.99911   -5.5631   4.19892  -9.52236  -6.03035
9.74425
-2.11936
-3.18524
 7.50805
 1.39854
-3.86612
-1.14597
 -9.14124
   8.5075
  0.20872
-0.589948
 -8.59244
  6.97246
 -2.99911   4.45107   1.06468 -0.656741  -8.98241  -6.60533
8.09174
-7.23981
-1.79273
-5.93523
-5.89657
  1.9468
-10.4218
    8.169
 0.390157
-0.932395
 -5.41815
 -7.61964
  11.8219
  3.81648 -0.817382 -0.483223   1.71686  -2.28304  -2.71114
1.25686
 3.84292
0.574971
 6.14608
  4.2973
 4.24442
-13.1556
 0.260148
-0.352952
  3.18619
 -9.96567
  -8.9144
 0.965155
  6.73873 -0.808082  -4.06496  -3.92161   6.87755 -0.266282
11.4557
 6.85589
-7.20079
 -9.4151
 6.09895
 -4.1129
0.321708
 -7.16622
-0.750904
0.0628174
 -6.36975
 -4.74655
   1.6579
 7.52328 -8.75233 -4.66589 -8.51375 -4.68646  2.33872
-3.58426
-7.20079
0.858224
 5.59238
0.569818
-6.95618
-8.32699
-0.750904
  -9.7171
 -6.60158
-0.666271
 -7.45953
  6.75375
 -8.75233   6.64272  -1.68491     17.23   3.79446 -0.116287
0.985721
0.473786
-7.27698
-8.39117
-15.7282
0.548922
 0.57685
 5.45982
-9.17152
 7.45009
 3.23492
 7.01622
 2.21133
   9.62782    6.76891  -0.031782 -0.0892995   -6.81285  -0.699287
-2.62966
 7.66317
 5.94234
 5.23964
 1.49168
-4.19548
 1.55419
-10.0354
-7.78307
 -8.5127
-5.30694
 3.85891
-2.06105
    2.67524    -2.42539 -0.00820548     -2.7809   -0.215357    -3.65108
1.04853
-5.66113
 6.45734
-8.22496
 3.29254
 7.71843
 6.60694
0.441328
-4.67054
-7.80308
 5.08212
 3.50371
 3.27684
 -0.633414 -0.0616066    7.89731   -2.12206    2.46403   -1.69541
7.98643
  4.61076
 -9.09083
 -1.42072
-0.201291
 -3.32143
  2.18169
  -9.25923
   2.28184
-0.0324908
    3.9023
  -1.59068
  -4.33099
 -3.66625 -0.174337 -0.895371  -2.50759  -7.61584  -1.76418
10.2472
 -8.42684
 -5.53692
  4.34178
 -8.34658
  5.87196
-0.139951
 1.73321
-8.78998
-9.88695
-9.28792
-5.21341
 2.84807
 -0.166672     5.4518    0.40458    1.11909 -0.0454173   -4.89527
14.295
 -4.40538
-0.309706
  5.89071
 -3.26387
 0.134246
 -9.43009
-3.29542
-7.06596
-12.1018
-7.12407
 2.49326
 4.35542
  -3.00713    8.07923   0.659262   0.879527     3.4292 -0.0883872
-8.02628
-0.309706
-0.284825
 -3.26387
  6.00824
 -4.07025
 -7.97429
-7.06596
 2.91356
-7.12407
 4.56789
  8.0845
 -3.6696
 8.07923  4.97284 0.879527 -1.01216 -1.98626 -3.11074
6.5444
 -6.32306
 0.153295
  2.49471
-0.107437
  3.07084
-0.521278
  -9.40635
  -4.27055
  -4.94587
   2.43642
  -6.23454
-0.0139987
-8.30465   2.1178 -2.55413 -5.46269 -3.38423 -1.84633
13.661
 -9.43642
 -3.49196
-0.161222
 -7.79007
-0.922258
  4.46415
-1.89129
 8.93181
-7.62867
 3.59796
 9.92909
 6.94614
 -1.57248   7.01953 -0.332144 -0.106995  -7.20651   4.10515
-19.1343
  1.68597
  6.16478
  4.06865
 -1.06703
-0.754214
 -6.90588
  3.27927
 -2.60049
  8.36392
-0.640627
 -5.43466
-0.708983
 -8.04199 -0.148988   3.67297  -1.95774   3.68776   4.39157
-4.2225
 6.49328
-4.85996
-1.06703
 4.76855
-6.00409
0.490232
-0.131819
  2.79227
-0.640627
 -2.56951
  3.01729
  3.52278
 -1.60652  -0.86616  -1.95774   1.64313 -0.707232    6.2101
-17.3243
-2.03746
 6.23922
 6.96524
-3.66924
 8.50549
 1.42499
  5.59266
 -2.63189
0.0309324
  9.97763
  16.8776
  7.42077
  3.28847 -0.147211   2.95291   2.02466  0.706128  -7.76083
7.11568
  3.99574
  5.67094
  16.4992
 -5.37093
-0.751998
 -13.3106
 -7.9834
 1.86511
 6.79747
 4.16793
-6.63034
 1.61413
  -2.29461    -8.3657     2.9015 -0.0631837    7.77934   -0.17671
-3.54917
 -3.80534
  3.22933
  5.84873
-0.745739
 0.284849
 -4.90382
 7.65854
0.670237
 11.4704
-4.29075
-7.87751
-4.06885
  2.03006   4.18887 -0.893047  -3.74758    6.5464    6.8269
-7.75439
  4.56265
  4.57949
-0.745739
  -10.323
 -8.17482
 -4.23032
  2.56426
  3.27847
 -4.29075
  4.35456
-0.671117
 -5.02558
  5.77278  -5.64957  -3.74758 -0.088974  -4.10841  -8.45059
4.23256
 5.57127
 3.67345
0.108125
-2.23679
 1.74562
 5.48027
 -1.14588
0.0222826
  1.42177
  9.14724
 -1.54985
  9.53769
  -0.2521   8.50662  -10.3699   4.59243 -0.152776  -3.24172
3.52854
 -10.2694
-0.151929
  6.09136
 -8.42934
  3.88349
 0.518274
 2.11217
 3.36867
-5.40821
-3.57998
-7.93417
-1.04644
 -0.136768   -4.50934 -0.0437814    -6.4162  -0.242068   -3.70966
15.5434
-16.7554
-4.04384
-9.24327
-1.89933
 9.87328
 5.86489
  2.34486
  2.89154
  6.95206
  1.45714
 -7.60793
-0.835614
-1.36651 -2.50796  3.20994 0.129195  -2.0418  3.51016
-12.0257
 3.49721
 8.75593
 8.28796
-10.0598
 3.01819
-1.83257
 6.47685
 3.04392
 11.2921
 4.21707
-6.11488
 3.66235
   4.59677   -7.09442    2.60265 -0.0908557  -0.961266   -13.6111
12.7904
 -10.9052
 0.260407
 0.490604
-0.150364
   2.5272
    -4.39
 4.60014
-2.52763
-3.86551
 2.49196
-5.06096
-2.61377
-0.0842241    9.79267   -8.07251   -3.10607    -3.1705   -8.93208
8.25373
  0.260407
-0.0864553
 -0.882017
   3.87727
  -2.81412
   1.03868
-2.52763
 4.52984
-1.00745
 -7.9607
-4.71679
-6.11989
 9.79267 -6.69666 -2.44626 -2.96743 0.114775  1.07781
30.6916
-0.648676
 -1.85916
 -6.32162
-0.503495
 -11.1146
-0.401273
  5.54686
-0.400813
 -6.90361
 -1.86638
  4.42204
 0.154849
-0.731027 -0.401962  -5.59806   3.41702 0.0369016  -3.57427
4.55777
-0.518372
 -6.10067
-0.503495
 -7.35154
 -3.10881
 -9.10052
 8.76379
-4.72908
-1.86638
  1.2038
 2.59597
-6.37292
 -0.81566  -5.32376   3.41702  -0.23858 -0.096733  -8.90266
7.73075
 -6.10067
 -2.98555
 -6.01564
  2.45603
 -86.6541
-0.814757
 -4.72908
  5.98469
  2.29258
0.0741785
 -7.09762
  3.48354
 -5.32376  0.661959 -0.170241   1.62167  -13.8452   1.88075
-10.1307
-2.37475
 6.16445
 2.20466
0.681067
 -9.1009
 5.94464
 8.41392
 -5.4731
0.254991
 6.92915
 1.87185
 1.51497
   2.18025 -0.0432623    1.72642   -2.59427  -0.154327   0.643158
-1.42999
  6.92066
 0.273949
-0.944238
 -2.70047
 -9.03863
  3.40533
-2.91934
 2.37423
 3.70427
-3.06834
-3.58506
-6.82551
-0.132716 -0.633204  -1.65105  -7.79273   -2.3165   5.25321
7.74539
  -0.96124
-0.0873095
  -2.70047
  -1.47773
  -5.89415
  -1.82015
 3.66432
-2.44094
-3.06834
 3.31111
 2.48633
 4.88464
-0.602044   9.74934  -7.79273  -4.22544 -0.155829   3.49186
-0.345963
 2.78863
-5.26896
-2.38223
 8.63337
-1.63525
 -1.9024
-9.51662
-5.88886
 8.39766
-3.64181
 3.63919
-5.37335
 -26.2019   -1.9645   6.97925 -0.106387  -11.0146    7.1271
-18.3989
 -0.41973
-0.871895
  5.66677
  -3.5291
0.0312079
 -4.90746
    -1.07
  5.64602
-0.144685
  7.05227
-0.788277
  9.77083
  3.40467   5.62429  -2.69675  -3.68946 -0.292253  -1.57369
9.64046
-0.339118
 -3.86895
 -6.31236
  -8.4894
 -5.55057
   4.7066
 3.24998
-28.8378
-8.18714
-5.84395
 2.34139
0.537579
  2.07436 -0.155906  0.278596   3.72928 -0.165475  0.248692
-6.36181
  2.71573
 -8.22562
 -2.84805
-0.975183
  1.21011
 -2.09335
-5.51007
 1.75175
 3.06246
 5.04695
-1.29732
-5.19686
 -4.86085 -0.175444   2.05305  -6.65891  -5.03047   2.05564
27.6912
-0.261953
 -2.92034
  5.43382
 -4.03018
 0.271958
 -2.51405
-4.71815
-7.89749
 4.60959
 8.09792
 3.13497
-3.88273
   1.927   -4.932  2.07563  2.14344 -7.57914 -2.05513
-2.808
-2.92034
-3.61138
  6.5484
 4.15297
-7.85476
-1.90028
-7.89749
-3.80619
 10.1094
 7.86394
 3.62783
 3.82831
   -4.932  -2.24202   2.61313  -3.91705 -0.106114  0.202116
4.13612
-0.592729
 -7.19289
 -0.76497
  4.54608
 -2.05221
   2.8379
 7.92762
  -5.711
 3.65915
 2.18591
-2.92796
-5.93612
  1.76535  -3.17776   -4.3413 -0.372987  -8.85441  -2.35355
3.06262
-7.19289
-1.45379
 11.1746
-12.7795
0.878526
-11.6543
  -5.711
 6.27554
-3.77168
 4.15069
 3.24281
 4.17538
 -3.17776  -4.79258 -0.915127  0.445174   4.25795  0.289835
13.3083
-0.599595
  1.80048
 -6.43537
 -13.6125
 -8.87889
 -9.33733
6.82933
4.59571
12.8792
1.88163
6.29069
1.19783
  -5.33576    3.79135    1.48993   0.185986 -0.0422875  -0.518509
0.385868
 3.61788
 6.61487
 2.67995
 9.03188
 9.41726
-2.03858
 4.39646
-5.16256
 5.37961
-1.08127
-1.12646
-2.42048
    4.1879 -0.0518481   -4.48845   -4.28564     3.8605   -1.66079
5.75631
0.0757592
 -11.1355
 -4.46255
 -5.07078
-0.162665
  6.03858
 3.28248
0.816951
 2.73938
  -6.648
-1.87452
-12.0785
   5.9157 -0.314588 -0.104116   7.00362   7.93711  0.784342
-18.8759
  4.72862
   3.7514
 0.147445
  -6.1088
 -4.44983
-0.057793
-9.63636
-7.51506
 4.08375
 4.56005
 3.32901
-4.04354
0.609297  1.74057  2.93144 -5.30769  7.15748  7.05674
-11.404
 1.04751
-2.47246
-4.58943
 2.66709
 5.08286
0.436637
 0.875428
  5.42145
-0.776935
 -6.04684
 0.245667
  -9.5087
0.741438  2.16862  8.15784  2.54757  1.01599  8.92823
-12.2989
 5.41045
 2.38229
-1.10917
-4.70204
  1.0036
 9.46679
  0.105652
   5.87628
-0.0201155
  -3.69709
  -4.35333
  -3.99337
    1.4245    -2.6536   0.469755   -2.88471    4.33503 -0.0970214
15.5689
-0.919522
 -5.72066
 -4.70204
  7.96637
 -4.04269
  9.99905
 3.49299
-3.34011
-3.69709
-1.64611
-5.12132
-2.08161
 -2.2725  4.70373 -2.88471  5.76796 -1.07573 -4.75444
8.00188
-5.72066
 4.12312
 3.41225
 3.23372
-4.13241
 3.80293
-3.34011
-8.52262
-7.08579
 1.30281
-6.53783
-8.68947
 4.70373 0.993452  2.62351 0.179039  4.85526  4.60801
0.123562
 -8.22252
 -1.99234
 -8.83496
-0.843019
  3.65644
-0.273017
  -6.13147
   5.88318
-0.0591776
  -7.31453
  -7.23025
   5.63049
 -5.02157 -0.497773  -3.91115   9.19447  -1.34618   1.48283
-5.06889
 1.29256
 8.16649
-6.11071
  7.1695
 2.10874
  7.3575
-0.100765
  5.98284
 -5.14797
 -5.18563
 -8.87542
  3.28205
  -2.77421   -5.95972   -7.78998 -0.0554871    2.51923    7.21521
11.9754
-8.29285
0.137805
-9.49727
-5.98003
 3.62156
-3.45105
 3.83017
 2.32846
-6.57354
  -5.134
-7.24343
-4.51296
-0.100508   3.34063  -2.40484  0.835112   2.05751   -2.1765
-7.25494
  4.38885
 0.729613
 -10.7207
 -7.68676
 -2.17965
-0.832875
-3.89663
-5.52987
   2.205
-5.84161
-6.16397
 3.05873
-0.060765  -7.11006  -0.13101   4.86194  -5.55389 -0.822573
2.86895
-7.16274
 21.4357
  8.7008
-5.02644
 7.92159
-2.05881
  -3.22008
-0.0913118
  -5.43627
-0.0872092
    1.2785
  -1.12051
 -5.84951   -2.5947 -0.057758  -2.78596   7.14053 -0.559184
-9.12918
  6.08791
  5.02501
-0.349111
   1.0913
 -7.06448
  1.79412
0.196584
 -1.2613
 2.27651
 4.03936
-6.41924
-3.56907
-0.910561 -0.315395  -6.66857   4.86116  -4.03605  -2.98049
-4.21185
    4.94881
   -9.41035
-0.00074617
     -7.178
   -2.31987
   -50.3047
-1.24218
-9.47891
 2.30989
-9.77524
 5.97453
 100.473
-0.320251   8.64727   2.58918  0.961041   8.20034 -0.419747
-12.7365
 -9.41035
 0.868638
   -7.178
 -5.04232
 -2.84541
-0.119568
-9.47891
-6.96323
-9.77524
-5.72398
 1.20028
 2.57017
  8.64727  -3.93508  0.961041   8.71113 -0.322794  -3.90608
10.5528
  6.56036
-0.377035
 -4.64884
  -6.6342
 -8.25774
 -4.26615
-5.06765
-9.40352
-7.03274
  5.2353
-3.28739
 3.45515
  0.065151 -0.0484668   -6.14313  -0.576597    6.82752   0.669676
0.905175
 7.80449
 8.92369
-4.52326
-6.64798
 1.85421
-4.86932
-0.482258
 0.913917
 0.287703
  3.95195
 -8.43671
   2.8954
 2.41648 -2.06319 -4.94389  8.30364  0.42625 -11.4322
3.59316
 -4.71237
  3.12321
  -2.1049
0.0885454
 0.932147
  2.93115
 2.38409
-1.59268
 4.21511
-4.58508
-6.20159
-6.41865
-2.11127  2.91865  4.11193 0.687502 0.273674 0.701945
-12.1602
   1.9218
 -7.25265
0.0885454
 0.191184
  -5.4931
  2.73027
-4.30101
-2.40667
-4.58508
0.366756
-1.82667
-6.74901
 3.32556  8.50732 0.687502   3.0283 -5.65337 0.710656
-0.75383
  1.88493
 0.447099
-0.521048
 -9.51032
 -3.20342
 0.632495
 -7.3593
-1.26664
 6.09181
-2.39564
-3.84948
-3.11578
 4.09518  12.0391 -1.11115 -5.26577 -2.44527 -4.20587
7.12572
 0.774924
-0.534488
 -9.51032
 -2.16058
 -2.71643
 -9.46386
-0.326886
 -9.20197
 -2.39564
  4.61565
 -6.53656
 -4.28766
 -1.18525  -5.99462  -5.26577 -0.641274 -0.380174  -5.55894
3.08597
 1.04081
-6.30811
 6.90277
 2.24055
 9.11879
-6.20023
 -6.45336
-0.316866
0.0604688
  1.89477
 -3.84658
 -5.04029
  7.03829   8.51157   2.67224  -7.61437 -0.100724  -1.41522
14.3919
 7.67358
 5.34422
 2.87714
-4.43201
-18.5437
  4.1674
  2.98602
  3.95555
   1.0686
 -2.72827
-0.250317
 0.146596
-6.43476  3.05161  9.27685  3.23811  -2.0006  1.66947
-2.65761
 5.08383
 1.04718
-4.43201
 4.69723
-4.95583
-3.85849
   6.76537
   3.53877
  -2.72827
-0.0933828
   3.09641
  -3.57332
  3.39362  -4.67196   3.23811  -2.53716 -0.101404   3.14961
-6.1121
-0.344915
  3.35715
  2.28716
 -8.25376
  10.1616
 -2.70693
 3.05815
-8.45502
-4.74348
-2.85161
-4.28647
-1.56633
  -4.01699    4.73753   -1.06194   -5.97108 -0.0903873   0.631559
12.4106
 3.35715
 4.56238
-8.25376
-5.71707
-7.15949
-5.33556
 -8.45502
 -9.21243
 -2.85161
 -2.03193
-0.850091
 -1.78834
 4.73753 -3.42686 -5.97108   2.2403 -2.09909  2.84806
0.935777
 25.4344
 6.33496
-0.39977
-10.5319
 1.50506
-1.15788
 21.5086
 3.23479
  -7.759
 4.86431
-7.95926
-2.45993
  0.388409   -1.48676   -2.72318 -0.0791404    -5.0572    4.98445
-3.02118
0.280299
 2.52748
-3.38747
 9.52856
-0.90243
-8.77359
 3.40753
-5.19116
-18.7438
0.213293
 -7.6996
-1.53108
 -6.81098   8.42255 0.0582524  0.261118  -4.88202  -6.22071
23.5098
 -3.80029
-0.776056
 -7.37305
 -0.34153
 -7.39435
  6.01382
-22.0986
   5.609
-3.77924
-7.15604
-3.98243
-2.53681
  3.93705  -1.78534  -5.59782   6.95962   6.50742 -0.152728
10.14
 -4.03866
  2.04367
 -0.34153
 -5.30258
-0.841414
 -6.96527
 8.06959
-1.79921
-7.15604
-2.40184
-9.86907
  6.1892
-1.92087 -3.58956  6.95962  5.50554  4.50465 0.984053
9.62761
 5.84583
-6.72498
-1.12913
 5.11549
 -3.8433
-3.94866
 -1.5291
-9.43817
 5.61366
-1.36655
-9.04856
-7.99018
 1.22349 -6.96772 -1.62001 -1.65991   2.4733 -4.64977
9.17604
0.0539613
 -2.98605
  4.68338
  9.38047
   4.3149
 -4.73313
-4.82132
-3.97494
 3.30827
0.104903
 1.95866
-3.16525
-5.97561  7.74934 0.181086  2.04675 -4.51195 -6.31152
8.3804
-1.42309
-8.89751
 6.69731
 11.9041
-4.82078
 2.37891
 1.38646
 8.47236
 6.63047
 9.13208
 4.65024
-3.44968
   12.3896   0.773443    7.63429    -4.2567   -5.17175 -0.0326205
-11.2014
 11.2545
-3.39598
 6.54665
-4.95184
-1.77303
-4.98328
 10.3966
 1.43253
 3.87661
-1.84126
 3.74869
-8.91793
  1.54267 -0.270461  -2.80122  -6.50324 -0.814279   1.10482
-1.61328
 5.03165
-2.96663
 1.64028
-6.77646
-5.01611
-8.36817
 -10.1194
  5.27549
 -3.40745
  1.93874
 -4.45355
-0.670125
 -1.36185 -0.174402 -0.431622 -0.193585   1.31263  -4.42828
1.37722
 7.86965
0.619455
 7.83593
-15.1606
 9.37051
 -1.5175
 3.52731
 -4.8849
 4.26409
 2.22227
-1.38286
-3.63967
-3.50223  7.68835  7.72698  1.96985 -3.46466  2.31035
-24.9505
 2.02306
 -8.5401
-9.47036
-5.90697
-1.57242
-8.74619
0.0588871
-0.611723
 -9.90088
 -2.36781
  3.16041
 -23.7701
 4.55065  8.86893 -1.04913  7.23632  5.48662 -14.6592
-17.2511
-1.85883
-2.59066
-3.85528
-2.54018
 1.04765
0.116917
 -3.05827
  -2.5828
 -7.95149
-0.306905
 -9.25025
  5.83839
-6.38701  7.20713  9.22608 0.401785  3.87654  4.95189
-28.5543
-2.59066
 0.74608
0.326024
-9.52089
-1.59201
-9.19279
 -2.5828
-7.99531
 6.19173
-1.24514
-6.30851
 3.87779
   7.20713   -1.79777    1.43253   -4.82784   -5.16185 -0.0999133
-8.35635
-2.89488
-2.89853
 1.30205
 -1.7542
-4.68848
-3.98461
-7.06864
-2.19592
 4.57296
 3.53846
-1.66225
-8.72415
 0.613185   7.60039   3.71525   2.42757 0.0686993   4.76583
-25.2227
-2.89853
-7.01867
0.539483
-8.44224
 7.54688
 1.81357
 -2.19592
 -5.95456
  2.94188
0.0692869
  -4.7153
  -3.6304
   7.60039   -7.05612     1.7519   -3.41951 -0.0665892    2.83809
-4.91693
-7.01867
-6.24833
-8.44224
 6.02468
  18.629
0.639498
    -5.95456
    -4.86644
-0.000361508
    -2.85833
    -8.70728
    -3.57575
 -7.05612   1.82959 0.0178415  -7.11851   2.32686   -8.4891
0.437195
 2.52122
-2.41616
-3.88181
-7.97647
-1.03339
-1.36701
-4.26003
 3.98532
 6.37148
 2.89765
 1.69688
-1.60566
 0.146056 -0.521402  -6.76368 -0.123869   26.1324   3.88417
1.30058
  4.2409
0.568692
-9.08954
0.472642
-2.92835
-2.03056
-1.43991
 2.33711
-5.25179
-8.33701
 5.86017
 6.21524
-0.273358  -6.14622  0.613009    8.5047  0.647366  -3.46319
32.1932
-5.00334
 3.04625
 6.53095
-7.55519
 4.24302
-3.18147
-4.53864
0.813034
-3.14258
 3.58307
 5.36165
 1.49204
 8.06955  7.26053 -1.55376  3.25579 -2.71257  -4.8041
4.28156
-0.564806
  4.02587
  9.21174
  6.49276
  12.2611
  -7.9128
 -9.44511
  6.36035
  4.54689
 -2.73884
0.0553237
 -7.46715
  6.34421   4.35234  -6.42025 -0.141462   3.50747   5.11822
1.44182
0.444665
 5.85509
 6.41114
-1.75758
 0.73337
-3.13117
  4.39452
 -2.22789
 -2.43456
 -4.28757
-0.277209
 -4.94408
  3.36953  0.501494 -0.943431   8.12804   2.84722  -9.91851
-14.6949
 4.02548
 5.36163
-6.87641
  1.3844
-5.99281
 6.96205
0.126631
 1.99664
 -4.7974
-7.81762
-2.52726
 -2.9368
 -8.25384   6.45534  0.737183  -7.64629   4.11192 -0.131927
-11.7177
 0.186752
  4.08765
  2.45461
-0.410523
 -1.19501
  4.19045
-3.53801
-9.67606
-9.87376
 1.34851
-4.14044
-8.31916
  1.62078   14.0673   3.25772  -1.42963 0.0509645  -1.80164
2.27954
  4.11244
  1.56437
  2.24372
 -3.91036
-0.248406
 0.604537
  -9.6271
-0.392664
   1.7647
  7.78091
 -3.41362
 -2.32714
  12.983  -1.0131 -1.57052 -1.43553  1.43335 -4.71446
14.0053
 3.38251
-7.13126
 2.93146
 1.29231
-5.61744
-8.22145
 6.41859
-9.38544
 4.63541
-1.07913
-3.80758
 1.34625
 -8.36271  -7.99759   9.89626 -0.232702  -9.69156 -0.213336
8.13493
-7.13126
 10.0556
 1.50856
-2.79018
-9.52541
 3.37286
-9.38544
 -5.9126
-0.87219
-4.86202
-3.09356
-2.08624
-7.99759  1.79194 -3.48599  8.80554  3.97724 -3.65197
0.486594
 4.09467
-8.17001
-2.79018
-1.90143
-5.11773
-3.86529
 -8.34819
 -9.03117
 -4.86202
  6.89356
-0.149972
  7.80459
  0.181146 -0.0750919    8.80554   -2.06244    2.11942   0.864779
7.82512
 -8.17001
 -7.73428
 -5.92403
 -2.48017
-0.319548
 -2.22675
-9.03117
-6.21279
 2.49893
-5.49022
 3.44026
-2.84742
-0.0750919    3.78765  -0.155043      6.793   -1.46157   0.227877
5.54169
-7.73428
 3.38859
-2.48017
 2.40136
-1.86014
 2.81244
-6.21279
-9.26432
-5.49022
 4.53026
 3.73442
-8.63532
  3.78765  -7.54961     6.793   4.62028   5.65332 0.0238942
-41.6861
 3.38859
-9.70955
 2.18226
 -9.4997
-2.97174
 4.68369
-9.26432
-6.96521
 3.90464
-5.73685
  5.9697
 -9.5107
-7.54961  3.62105  4.52643 -9.33173   3.1291  2.88012
-35.9971
  5.4423
 -11.945
 7.05357
-3.50334
 -7.3043
-2.78116
-0.514678
  1.10343
 0.409006
  -3.3791
 -5.15625
 -4.76997
-4.91456   1.9142  3.86768  1.91091  6.46631 -8.55122
-3.69409
  8.62785
  3.06302
 0.984958
  9.05726
 -5.07578
-0.879688
  1.45837
 -6.63639
  -7.4057
0.0600772
 -7.49789
 -5.58426
-4.83097  5.24501   1.0239  4.66585  7.47811 -3.01534
7.12185
-7.00758
-7.59088
0.137833
-10.0641
-7.14473
 3.01358
 -4.07447
 -6.99467
  3.09414
  4.24534
-0.515119
 -6.03006
  -1.39346    4.91744    3.38844 -0.0912631    4.56773     4.5052
-9.9708
-2.64754
-9.65185
-9.06233
 1.37437
-8.91179
 1.72633
  1.51202
  5.52262
 -5.23889
-0.780521
 -6.47431
 -8.18841
-8.54784  2.22524 -5.02109  0.32609  6.91491  4.87653
0.796737
 5.84701
-3.85303
 3.78494
0.288821
-9.26059
 14.3096
  5.9134
-1.17238
-1.36791
 7.26546
 3.56218
-5.34648
 4.99455 -6.73754  6.34788 -6.15345  2.79978 -3.56252
5.31214
-3.85303
 3.09301
-3.06203
-4.19231
-3.91575
  4.7635
-1.17238
-6.24414
 6.12112
  1.2862
 3.38251
-1.44038
  -6.73754   -1.86991   -5.66694    3.76304 -0.0645267   -3.55327
30.1482
 2.47349
-2.59259
 2.23315
0.807574
-1.50416
-1.34381
 3.72979
-3.72131
-4.54017
-4.79308
 2.99574
-8.25072
-5.14065  6.95324 -1.69209 -3.12355 -8.84364 -2.81852
46.0184
-0.0712004
  -3.36066
 -0.623914
  0.142858
  -8.75782
   2.84557
-0.104936
  6.69934
 -3.97534
 0.997591
 -6.02642
  2.02461
-5.67188 -5.05859  5.02767 -4.88803  4.74145 -5.52264
50.2983
 -3.59379
   2.8079
  5.08341
 -1.50123
 -7.89245
-0.491463
   7.192
 9.53612
 5.15398
-2.98306
 3.64524
 3.24536
 -8.02071   4.51868  -7.04644  0.109611 -0.105607   10.6467
16.8825
0.315107
-9.79746
-1.50123
0.902361
-8.96553
-4.90191
  3.67612
 -7.11597
 -2.98306
 -2.49218
  -2.3827
-0.457704
 1.83735  4.98834 0.109611 -7.69725 -7.35564  7.53253
-6.39748
 3.46203
 5.89925
 5.86725
 6.46652
-1.62198
-1.33426
 7.31548
-2.48848
 5.30012
 4.93282
 6.65265
-7.52045
 -7.42574 -0.155695  -5.13853   10.2068    5.4009  -3.13953
-4.59515
  6.33144
-0.888069
  11.9545
 -2.31184
 -1.35788
 0.383705
  7.62106
  9.76448
  7.63796
  4.70538
-0.519136
 -1.54899
 5.22137 -2.77751 -2.74494 0.922212 0.717977  4.97485
4.31182
-0.151712
 -4.19011
   2.4064
  7.56144
 0.946083
 -3.76058
-6.06071
-6.50078
-5.61275
-3.16975
-8.49307
 7.41782
  -3.8912   -3.4005   4.22715 -0.120875   8.55398 -0.368433
2.85905
 -4.19011
 -9.22181
  7.66723
 -3.65476
 -3.31592
-0.989294
-6.50078
-1.63422
-2.63518
 1.24537
-7.96759
 -6.4072
   -3.4005 -0.0149542  0.0628533  -0.449056    2.56733    8.05859
0.657166
 8.87841
 1.16606
 3.17362
 3.37843
-7.34773
-6.39821
 -1.83441
  3.28815
   5.4177
-0.694794
 -6.71221
 -8.72923
-8.82114 -7.34388  3.35675   22.711 -4.01039  1.69805
6.02596
 -3.04592
  1.64185
-0.942013
  0.73643
 -8.57594
  3.87384
 6.09749
0.831733
 6.76449
-5.98954
-4.15653
 6.68343
 3.44887  2.82182 -3.85754 -2.46498  3.16707 0.727216
-1.78565
 2.08379
-6.22877
  3.1809
-20.3721
-14.0515
-5.89219
 3.77945
-4.68629
 7.14336
-22.1014
 1.64943
 4.17462
   -9.8498   -2.15001       6.59   -0.55541  -0.164378 -0.0637227
-9.28863
-6.22877
-7.48227
 15.6894
  2.1554
-6.64928
-3.58295
-4.68629
-5.67063
-3.85152
0.856769
  1.5969
0.853483
-2.15001 -2.08347 0.410751 -2.75818 -5.40928  7.79616
4.41136
 -7.48227
 -9.28373
  1.39518
  3.63066
-0.574266
 0.859639
 -5.67063
 -6.57687
-0.352849
 -8.48171
  5.83829
  -7.2208
-2.08347 -1.55938 -1.13976  2.62006 -3.63876 -9.93276
21.3082
-10.4468
 10.7513
  0.7897
 8.94378
-1.57651
0.717715
 1.79558
-1.44354
 9.16349
-1.26114
 6.68933
  3.4588
-0.732331  -2.41374  -2.93611   3.46481   2.98079    3.4692
-3.69675
 10.2255
-4.76526
 9.18459
-1.53881
 8.43435
-4.53603
-1.52506
-3.37827
-1.50037
 7.30894
 -1.6045
-1.26314
-2.29232 -5.62638  3.62894 -2.02916 -1.48239  -6.5216
14.8531
0.0745596
 -3.25969
  -5.9561
 -26.1083
 -8.38494
 -11.3716
0.604592
 -5.9185
 6.84685
 -1.5772
 4.39124
  1.2645
   5.34913   -6.61521 -0.0252277   -1.35184 -0.0410033  -0.196068
-2.61122
-3.25969
-3.70808
-4.31332
-3.77424
 5.43003
 -8.2159
 -5.9185
 3.73139
 8.92765
 7.63087
-5.40867
-9.16889
 -6.61521   1.79819   4.15436  -6.73963  -1.30897 -0.987949
7.86426
-4.78646
 6.68509
 11.9738
-8.18376
  1.4783
 8.08004
-3.77314
 8.50571
  9.4317
 3.45216
-5.04715
 9.39436
 -3.33552  -4.03139  0.784662 -0.112232   8.23902   2.23042
6.44928
  5.3973
 -9.1479
-9.96766
-6.17622
 6.07014
-3.54356
 4.07103
 6.88642
 1.18962
 4.43706
-4.62773
-2.50959
 -3.35776  -2.62392 -0.233939  0.824106   3.05678  -5.58368
28.3828
-9.94201
 7.19435
-4.90382
 1.92659
-3.94364
-5.49281
  6.10484
 -4.42377
  5.28316
-0.218309
  8.02175
  5.92519
  -2.2816   3.10905    1.0633  -1.17257   4.99693 -0.975657
-25.9698
 6.49343
-4.18212
 4.06708
 2.06616
-4.17119
-15.9493
 6.02152
-3.58575
 8.10865
-4.48983
 8.46852
-1.95637
   1.42035 -0.0223203   -1.96582   -1.73059   0.155561   -2.96095
6.42687
 -4.18212
 -1742.27
  2.06616
  1.76572
-0.289185
 -1.71832
-3.58575
-2110.05
-4.48983
-3.57463
 6.62929
-4.18742
-0.0223203   0.764739   -1.73059   -9.46283   -2.00205   -5.93081
13.629
 3.66842
 6.44046
 3.78639
-5.11066
 5.56077
 4.74185
-1.94909
 1.32485
 7.32313
-2.07281
 4.26459
-2.51219
 3.87927  1.56436  1.98355 -7.72331 -2.94349 -3.16212
-3.8952
-15.6358
 6.16395
-8.78343
 8.78665
-5.82466
 1.29483
-0.430419
 -2.74001
 -7.32682
 -3.83321
  3.07812
 -7.13846
 -1.66769   2.42993 0.0896451  -1.65298 -0.236279  -5.85361
0.855276
  10.418
-5.03137
 8.87452
-5.07798
  1.2005
 5.25184
  4.14123
-0.811681
 -3.74354
 -8.78078
  7.93891
  8.05353
   3.59683   -6.81175  -0.103496 -0.0338575     4.5699    -7.9158
12.7009
-5.03137
-2.56765
-5.07798
 1.51364
 4.44913
 1.79241
-0.811681
  5.14683
 -8.78078
 -6.63399
0.0287253
 -3.62055
  -6.81175    6.58636 -0.0338575   -2.84474    3.93121    2.38889
-33.655
-6.41336
-6.50375
 1.51364
-5.99889
-3.05619
 -8.8836
 2.00654
 9.49875
-6.63399
-8.41297
 4.41302
-3.15331
-0.170812 -0.840006  -2.84474  -6.18794   1.60902  -5.69855
1.31902
-3.05632
 7.76944
 2.97824
 -5.5541
-0.81217
-1.04418
 10.0735
 7.64308
 3.16033
 11.1153
 -1.2733
-3.53468
-7.08975  6.57262  -11.967  6.57432 -5.98374 -3.45681
-13.7155
  3.33304
   -9.392
   2.2231
-0.714645
-0.204263
 -1.27542
 -9.66409
  -9.4146
 -4.46019
  9.93141
  -3.4068
-0.198586
 -1.38071  -4.41117   1.13835 -0.810138  -1.45916   6.31557
8.40263
 2.97471
-7.48158
-8.39818
 1.33885
0.862993
0.468762
-6.05939
-8.14743
-6.33152
-2.78532
-1.79967
-9.22253
 -1.85999   2.71171   6.89826 -0.920525  -1.50356 -0.601303
0.935777
 -7.48158
 -4.23737
  2.44064
-0.540227
-0.608229
 -2.68562
-8.14743
-9.84224
  1.0843
 6.44686
-4.83045
 5.31378
 2.71171 -6.65985 -1.04779  3.80669  1.49549 -1.93648
-12.7634
 -2.52078
  1.66399
 -3.26042
0.0869935
 -8.92153
 -7.82784
 5.07433
 3.05245
-7.56342
-9.84188
-8.69723
-4.72336
 2.65471  4.36955  3.15548 -4.52558   8.4275  1.22241
-26.4519
 -1.4949
-7.39963
 1.33716
 5.59409
-2.53459
 1.13335
 2.21904
-8.39507
-2.87086
-11.2106
-4.45663
-7.66659
 -0.46135   3.66093  -1.11444 -0.322362  -2.60606  -5.38486
1.31902
-7.39963
  3.4407
 9.13743
 7.95587
-1.60999
-6.00015
-8.39507
 1.21078
-3.85444
 5.63517
 3.82382
-0.18517
  3.66093  -6.14731 -0.100519   2.30913  -2.58724   -4.8099
4.44993
 3.25789
-13.2496
 8.70137
-5.10753
-1.58084
 1.01337
  1.62632
  5.58908
  4.31016
-0.822615
 -2.05637
 -6.21522
  -6.10285 -0.0693214    2.33865    -75.538   -0.11529   -3.70465
0.358728
-6.03197
-9.13547
-5.10753
 5.07485
-4.02098
-3.62598
 8.95388
-3.48783
-1.11537
-10.1726
-1.55411
-4.42838
-0.114336    4.5989  -102.421  -1.26023   8.04653  -3.56123
1.31902
  -9.13547
   1.26774
   8.10146
   3.82588
-0.0240678
  -4.48059
 -3.48783
 -2.71916
-0.112247
   4.0775
 -2.66507
 -5.65901
  4.5989  2.87744 -3.51775  7.59295 0.821395 -2.02766
-30.9602
 5.97271
  2.2518
-5.26261
 2.59172
-6.80648
-3.41231
    8.5565
 -0.949876
  -3.74173
   3.87553
-0.0590373
  -2.71687
  3.35329 -0.407888  -5.36592  -7.19318 -0.214953   2.90593
-0.688973
  2.28374
  -7.6516
  3.21727
  5.78001
 -7.32003
-0.566104
-0.96335
-4.26142
 3.58755
 5.88515
-9.89331
-2.31231
-0.402183  -5.89752  -7.38416   4.34987   1.08474    7.8327
1.01748
 -7.6516
-6.51536
0.633269
 6.90532
 10.3242
-2.82617
  -4.26142
-0.0154233
   2.99114
  -2.08883
  -3.12177
  -7.50439
-5.89752 0.369862  2.88851  8.75233 -5.98368  4.78974
-8.55808
-15.0454
-5.73371
 5.26987
-2.96776
  5.0139
-1.45625
  2.24814
  11.5683
  7.10875
  2.10266
-0.756988
  5.30955
 -3.31748   5.38381  -4.62125 -0.126515   9.49423  -5.53253
7.69138
-0.814775
  6.14322
 0.147192
 -1.98487
  -8.8293
 -2.19377
-7.87923
-2.59139
 0.72911
-3.84207
-1.28082
-8.55802
  3.44098 -0.149511   9.41299  -7.76178  -2.66772  -9.10738
-6.73703
 8.66184
 3.92161
-8.64409
-12.8229
 3.60981
  8.1302
  -4.01114
  -8.47955
  -1.32597
   5.27814
-0.0274379
  -3.58102
-4.23877 0.431615 -9.17344 -2.16644 -7.38484  7.85144
11.4348
-1.62767
 3.45782
-5.83891
-4.03391
-2.20246
-9.98888
-0.452297
 -6.95849
  -7.4638
  6.96477
 -2.61883
  1.96776
-0.576586  -3.19761    6.1088 -0.135419  -8.11702 -0.193335
1.36776
 -6.76199
 -16.1099
   1.9753
-0.831548
  4.72336
 -9.11979
  4.44993
  10.4598
 -4.20302
 -1.67544
 -9.59636
-0.289143
 -4.31177    1.7417  -1.53211 -0.576229  -1.52242   5.75955
1.14102
  2.88323
  -9.1339
 -6.34243
-0.448668
  5.67447
  2.82866
0.0468137
 -2.51803
-0.471629
  3.11529
   11.375
  3.99845
  2.58903  -5.10634  -8.58279   5.94063 -0.964574  0.442969
-9.07029
 9.99082
-1.64499
 4.26997
-7.72861
-2.21542
 -8.3464
9.72602
6.18971
2.35186
4.91565
4.43578
5.31561
 2.60223 -6.04611 -6.44937 -5.83196  3.59438  5.32183
11.8894
  -3.28256
  -6.74091
  -9.38783
  -5.43776
   4.98332
-0.0665258
   1.5161
  -3.6508
  -5.7135
-0.703657
 -9.96956
  4.70487
-0.253917  -9.57785    35.444  -2.30787  -3.93136  -6.91995
33.081
0.0803905
  4.11895
  2.07249
  2.72747
 -6.00276
 -3.28206
  3.3727
-8.24357
-4.30637
-14.1252
-6.14574
 1.51586
  5.72649   3.10271   2.70041 -0.176503   2.15662 -0.253956
-18.7901
 6.74999
    4.02
 4.98928
-23.5769
-3.37569
0.528008
-2.84735
-9.44412
-10.6185
-27.4755
 -1.1502
 8.02814
-0.136072  -5.83839  0.334603 -0.334292  -5.39357   2.62405
-20.9402
0.157608
 2.76802
 1.83008
0.914625
-8.43584
  1.1533
 2.67916
-13.5006
-3.83385
-2.41242
  -3.793
-3.04804
 3.67342 -3.92541  3.86604  4.45042  -3.4229 0.977298
-9.48488
  4.8527
 2.54286
 4.86569
 2.36628
  1.7374
-2.97405
-9.73947
-8.33831
0.888563
 9.10294
  2.5194
 8.66957
 0.954915 -0.240164   7.78619  -5.05206   -3.7754   6.31874
-5.84212
 -5.82367
  7.37618
 0.489546
  7.96903
-0.231829
 0.874382
 7.23545
 -9.1533
 2.99337
0.549626
 2.70255
-0.11977
 4.01171 -3.20095 -7.83741  3.61385 -6.57059 -2.83932
10.2269
   5.82339
  -6.29881
   -1.9139
  -1.88748
-0.0392937
 -0.587565
-4.05752
 4.30566
 6.05566
-9.15263
-1.40934
-8.12109
 0.529173 -0.586347   1.38163   5.21695  -4.16494   2.03568
-5.66032
 -9.62377
 0.195073
-0.505807
 -9.76802
  7.72508
 -7.80764
-1.33167
-9.35401
-2.23612
-3.76537
-4.69395
 4.42282
  -4.2827   7.51458   9.58462 -0.361736 0.0580148 -0.147678
0.814536
 8.07239
 8.07313
-4.64142
0.265159
0.390852
 4.45409
-4.47088
-4.07977
-9.32425
 2.25772
 2.87617
-2.51703
 6.75584 -1.42656 -1.15502 -8.15347  8.84174 -9.84818
-6.88348
  33.1323
-0.194156
  7.65087
 -4.93404
  6.12324
 -3.38599
-0.214698
-0.406316
 -4.78028
 -7.01763
 0.801995
 -9.18458
  -1.10354   0.497461 -0.0656841   -7.37168    6.12549    6.98901
-4.91261
 -2.67025
 0.114706
 -5.77643
 -3.20118
-0.260773
 -2.79309
 -7.57817
 -3.13285
 0.191424
 -1.35385
  3.34511
-0.147044
-2.49111  9.42157 -2.06274 -6.20017 -2.11215  6.43259
7.46022
-0.738709
  6.79757
  6.92297
-0.142078
  6.88012
   6.3812
-3.12136
-2.59058
 1.76981
 7.52197
 6.34426
 7.09457
 0.934759 -0.150658  -7.11277  -5.57437   8.29592  -1.11721
9.92568
 5.51945
-8.28754
-8.68568
-8.56899
-2.59211
-1.56178
-6.69311
 10.0628
  2.2603
-8.23577
 5.55061
-9.97103
  -2.3343   1.53007 -0.141649   4.04013    -5.123  -4.36965
13.441
 -9.8542
-2.41767
-8.56899
-6.64488
-8.23322
-2.21364
  4.5513
-9.09644
-8.23577
 13.3061
-8.05077
 7.81197
-0.0845831   -8.95768    4.04013      1.261   -7.40661   -3.99323
14.9394
 4.31176
-3.59072
-9.09304
-11.2781
 2.59852
 5.61951
  -9.0082
  7.18777
-0.836298
  5.20894
  7.46047
  7.62489
  -7.83995    3.78648   -71.5739 -0.0739044   -9.24525    6.77648
-9.38879
-3.25987
-5.69072
-12.7364
-11.9768
 2.04802
 1.11019
 6.52999
 5.23324
 4.56983
 4.22931
 5.10887
-3.91702
   1.19353 -0.0403299    0.96896   -1.11335    2.10407   -6.81711
-17.9535
-0.751912
 -2.72457
 -5.76364
 -6.25397
  7.29031
  -8.2014
  2.87628
-0.174184
 -3.89443
 -7.19137
 -3.07527
 -9.14389
 -1.84266  -9.98966    1.1379  -6.99366 -0.125987  -8.67853
5.4261
 3.63822
-1.51023
-8.22356
 4.62029
 12.4678
 0.13521
-9.49761
-6.61638
 3.79817
 6.60411
 1.17884
 8.58069
   2.4543   6.35026 -0.101355  -3.88106   1.44036   3.20896
-3.07856
 6.63597
 1.91366
-7.70183
 5.89199
 -2.7774
-1.79775
-13.2354
-5.45957
-3.78907
-11.9361
 9.61814
 7.05029
-3.04663  4.57002 -4.12741 -3.09346  2.93873  -4.8666
6.39745
  1.91366
 -5.00488
  7.94752
  8.78779
-0.120499
  9.14018
-5.45957
 1.33439
-7.46537
 2.31869
-4.41525
-2.42905
   4.57002    5.05308 -0.0300038    3.08601    7.20175   -2.89563
-13.8164
 6.29635
 7.17815
0.436929
  -5.336
 7.30379
-4.24586
0.0082017
 -8.90643
  9.81112
 -1.76865
  1.73511
  5.29352
  10.0836   -1.8583 -0.142654  -6.42263  -6.80423   3.05759
-2.79297
    5.7182
  -9.31973
    -5.336
-0.0705983
  -10.0642
   3.82782
 -11.4381
  3.93134
 -1.76865
    2.045
-0.674669
 -7.80953
  -3.34404 -0.0985523   -6.42263   -6.61546   0.018019   -1.00713
14.0421
-3.49219
  8.8952
 3.71036
-5.19151
-11.6738
  -2.455
 7.00217
-2.24792
 3.32579
-3.38863
 2.95017
-3.27029
 6.62696   6.4046 -8.98246  7.71255 -5.01639 -6.21866
-1.66608
-6.89777
 3.66485
 2.43029
 9.03243
-9.04456
 8.52333
  2.54341
 -3.80907
  6.61726
-0.108194
 -9.80007
  6.90722
-0.0847371 -0.0529271   -4.98704   -1.78381   -5.27907    3.38275
9.8507
 -1.46306
  2.14107
  -7.3603
  10.0336
-0.736331
  1.92627
 3.29764
-4.76354
-6.26669
-4.23249
 5.46097
 2.98075
  -5.30704  -0.364668   -2.84588 -0.0915402    3.72992    -1.8858
2.87888
   1.70355
  -4.29685
   6.36258
-0.0173904
   2.08648
   6.49968
  -5.419
 8.54442
-12.8172
 -4.9913
 1.42147
-13.3237
 1.36598 -2.25738 -3.51165   9.4825 -4.36751 -1.07328
25.848
  -8.04986
   1.55693
-0.0173904
  -9.56716
  -1.86623
  -0.71887
-0.301193
   1.9593
  -4.9913
  4.01055
  3.71135
  4.69484
  0.554096   -2.83808     9.4825 -0.0955343   -1.80266   -2.12282
22.7265
  1.82957
 0.723461
  1.57613
 -8.26505
-0.738649
  1.74061
 7.28639
 2.02048
-8.46153
-7.10243
-9.11734
-0.73424
  2.16384  -3.55703   5.53648   4.06193  -4.01771 -0.527679
-8.45363
 4.97454
-7.38388
-5.71888
 -1.0762
-2.38208
-8.37568
 -2.7571
-6.96627
 2.97988
-3.53609
-3.78759
-2.55954
 0.091281   7.65746 -0.212911  -2.90302   3.97841   5.16337
0.784792
  1.61297
 -1.26444
-0.742949
 -1.10778
 -188.515
 -3.16763
-1.58558
 -5.0588
0.758755
 2.21038
-27.1891
-6.49328
-1.30065 -9.39348  2.23601 -2.26697 0.946026 -3.23759
3.54774
  -1.26444
  -349.076
  -2.34387
  -3.96544
-0.0706713
  -5.90246
 -5.0588
-465.241
 1.08255
-4.60565
 2.29981
-2.56985
 -9.39348  0.340688 -0.355608  -6.81014  -6.51403   7.75477
15.5046
 2.50828
-9.05396
 4.59293
 0.55434
-6.16254
-6.48261
 6.53138
  2.2898
 7.02638
  4.7371
-3.05772
-5.05496
  8.26295 -0.175633  -3.36841  -8.57863  -7.82174   4.90899
10.8032
  -4.19069
  -2.06831
  -12.2474
  -9.28322
-0.0991401
  -2.16639
 -6.81995
-0.641548
  5.16634
 -11.8951
  0.60514
 -4.87354
 -0.324203    3.55013 -0.0749937    1.48141   -4.71091    1.27867
3.36428
-0.298642
 0.230457
  13.3723
 -4.89984
  9.51277
 0.932298
 1.73559
-3.70009
-5.14197
-9.14541
-3.65891
-2.41383
-5.01708  4.77315 -2.48777  4.65927  3.38946 0.458817
8.82017
  -5.97129
  0.410049
  0.722313
  -7.20068
-0.0901949
  0.994209
-0.232427
  1.76903
 -1.49055
  2.74421
 -2.15669
  7.49765
 -4.32283    3.5312   2.26042 -0.142224   1.03129 -0.979439
1.59958
 0.963765
   2.7368
 -2.07037
 -2.92446
-0.438639
 -2.01321
  1.29453
  5.27815
 -1.59939
-0.551289
 -6.46733
 -6.66966
   24.7469   -8.50309    6.48624    7.20972    6.52672 -0.0132855
13.2018
   7.5235
  9.09719
  4.42359
 -7.04413
 -1.41754
-0.494173
-6.75932
-8.13818
-4.09275
-2.96502
 5.93432
 1.58385
 11.0867 -8.28177 -1.93501  4.93659 -3.12541  7.13692
7.46084
-3.82211
-7.81684
0.243796
-2.38125
 -8.4408
 4.57904
-0.00853375
  -0.137846
    4.40769
  -0.750823
   -6.61467
   -2.11489
 0.407076   6.00804   5.30713  -7.49319  -8.35036 -0.182025
-23.2536
-7.81684
  6.8044
-2.38125
-3.47777
-9.32298
-3.21329
-0.137846
 -5.34443
-0.750823
  2.69514
  7.21144
 -8.95834
  6.00804 0.0628144  -7.49319   7.66209  -2.96206  -9.89401
0.910719
 3.77263
 8.74143
-3.32556
-7.95697
-7.48041
 6.34955
-4.46763
 1.12428
-2.66534
 4.19602
  4.0065
 2.37189
-0.0387659    5.34752    9.95356  -0.862449   0.827019   -7.27666
11.703
-4.55623
 8.38149
 15.7517
-15.5472
-6.81662
-5.37468
-6.83697
 2.31034
 3.98842
 2.51086
  5.4493
-2.89743
   9.27954    6.28995   -3.31976  -0.111717 -0.0459405    -2.6191
-0.716306
  8.63141
-0.566513
 -11.8745
0.0283354
 -55.8948
  10.1363
 2.81264
-7.43861
 5.00903
-8.25115
-2.75387
 3.26944
   6.44964  -0.468859 -0.0773488   -4.51355   -2.71027   -5.44599
0.178321
-0.566513
  1.97759
0.0283354
 -7.07538
  3.73094
  6.88356
-7.43861
 6.32317
-8.25115
-3.96893
 2.98986
 4.07528
-0.468859   1.08132  -4.51355    5.2179  -3.25762   1.53911
-3.01303
  7.9079
-4.96318
-6.14323
  5.1562
 12.8931
 8.51591
   5.976
 1.89149
 -2.3808
-10.3487
 1.68563
  4.4345
 -1.40298 -0.206342   1.81167  0.622327  -1.71113   3.94915
-5.7411
 -5.86711
  -7.5077
 -6.28176
  -6.8225
 -11.5212
-0.153052
  6.86597
 -7.09314
  7.33461
-0.372145
  2.96906
  3.09995
  1.18846  -8.28371  -1.14339   6.98573 -0.105952  -2.60584
8.7008
-1.02125
0.105833
-9.41919
  4.0146
-6.53176
-5.64242
-4.76311
 3.83581
 5.90518
-8.08533
 4.04483
 6.62804
   4.37678    3.76849   0.761576    3.59816   -1.18495 -0.0234307
-13.8324
 5.77324
 2.62901
 6.05209
0.435591
 6.82194
 1.26523
 3.70152
-7.89248
-2.55295
-2.25169
 1.22055
 4.51264
  4.71408   4.93776 -0.151763   2.18617  -4.04862   1.41436
-18.7641
-9.07029
-5.10655
-1.49865
-1.08827
-7.49837
 6.90132
-9.92724
-6.47139
  3.9563
 8.28221
 6.42493
 -5.8617
-1.45519  7.98518 -8.42312  3.25121  1.08701 -1.25516
-0.377809
   15.8749
  0.438803
-0.0460475
   3.80463
   4.02999
  -2.32617
   10.5604
   2.85743
  -4.40578
  -2.37714
-0.0361808
  -0.71329
  1.87868  -5.67149  -5.64908 -0.132086  -6.54842   5.21799
-3.63377
-0.699729
   4.4631
  3.65377
  1.61817
 -4.01136
 -1.65493
 2.12725
-4.12421
-3.37747
 3.24023
0.674403
-6.02191
-5.00325 -3.65369  4.38672 -1.73531 -0.44488 -9.25115
16.6102
-8.98666
 5.80138
-4.19912
0.123324
-4.91671
-6.15671
-0.0316235
  -7.48598
   2.91407
   2.40861
   3.43165
  -1.47599
  -2.76244 -0.0198141   -4.18329    4.08355    3.46182   -2.26004
-9.34327
  -2.24394
   4.96936
   3.11529
  -4.56064
-0.0958687
  -5.50648
  1.80666
 -10.0188
 -4.19975
-0.268971
  2.14335
  4.50907
  -2.70789   -2.77346 -0.0317228   -6.93625   -5.05165    1.01559
11.3407
 7.70257
-6.76494
-4.56064
-1.96355
-3.90256
0.981931
 -3.24918
 -2.03451
-0.268971
-0.978128
 -5.84812
   5.0751
-0.119243  -5.83472  -6.93625   0.67467    5.8677   1.41102
-7.03497
-6.76494
 5.24203
-1.96355
-3.16408
-5.47233
0.269617
  -2.03451
  -2.21124
 -0.978128
-0.0318657
  -3.04891
   2.87808
 -5.83472 -0.175215   0.67467  0.357305    8.0291   5.13885
-14.664
  5.04851
  5.17551
 -1.68595
 0.731324
-0.222587
  7.41679
  -3.15432
-0.0840535
    6.3973
  -5.26208
   2.87556
   2.06712
-0.0995423   -2.81876    1.19926    9.52841   -1.03604    2.33591
-9.52146
 2.53408
-5.89802
0.731324
 1.89577
 -5.7422
-1.89576
-5.15675
 -4.9582
-5.26208
-3.83027
 -6.0791
 2.81408
-0.470417    5.2207   9.52841  -3.53679  -7.75244 -0.363797
1.31902
 3.23955
0.687263
-7.46254
-7.30658
0.285469
-9.21115
-6.55342
 7.64269
-9.61995
 2.82381
 2.78739
 3.56109
0.422839  2.34879  5.45151 -5.88909 -3.99357  4.56023
-6.31658
-6.61774
 -5.4087
 8.67785
 -6.3222
  9.1803
-4.64357
-0.444248
  3.49839
 -5.62007
  2.78405
 -4.05999
 -9.79722
-6.08911   6.7708 -4.24779 -6.01164  4.06351  7.80167
-6.82414
 -2.22786
 -7.26481
-0.444034
0.0669197
  2.66899
 -6.67514
 -8.7247
 3.06451
-1.59058
 3.74006
-5.35489
-6.27656
 -7.03956 -0.126429  -1.05108   6.97912   3.34988  -3.65039
-25.5888
 -7.26442
  5.09012
0.0677793
 -6.78984
 -8.45183
 -3.45787
 3.06435
-10.1816
 3.67131
-2.55352
-7.43646
-5.45954
-0.126436   1.88525    6.8906  -2.62212   3.69051  -4.33458
-24.784
 9.47868
-1.32811
-6.78984
-5.67226
 4.13501
-6.88011
  3.51345
 -9.46675
 -2.55352
 -9.77842
 -8.39693
-0.594764
0.0610804  -3.75797  -2.62212    7.9632   1.31289  -8.21143
0.142213
0.983173
 3.53351
-4.07831
-5.90331
 6.92391
-9.02492
0.517964
-2.70357
 2.86417
-0.34658
-5.32922
-2.50805
-4.62269  18.1091 -1.37162 -31.2697 -8.52354  1.87032
6.50471
 6.31076
-7.71125
0.650346
 4.12664
0.960472
 3.53281
-12.6266
 -7.0489
  4.6694
-1.40112
 3.98964
-7.56508
-0.697165  -2.52538  -4.10841 -0.280926   4.49058   8.07205
1.36594
 -7.71125
 -18.0848
  2.59083
 -4.43468
 -33.4775
-0.130644
-7.0489
 28.784
-5.3081
7.11556
-11.874
3.36219
 -2.52538 -0.398881  -1.80918   1.56296 -0.044744  -2.83912
10.219
 -9.69345
-0.102575
-0.403277
 -2.42377
 -6.34174
  3.35085
-4.83712
  3.1702
0.186259
-1.68665
-3.26462
-6.77657
 0.53206 -4.48799 -2.06681 -6.63075 -2.55137 -4.72853
14.7514
 6.85665
 5.57572
-2.42377
 6.01424
-1.01065
 2.09089
  4.61383
  2.92669
 -1.68665
 -2.53699
-0.440738
 -4.26703
 -6.38404   8.09916  -6.63075 -0.152718   7.62826  -3.93358
5.87719
-9.58905
 2.65132
 7.67598
-3.78402
 3.44544
 4.92409
   1.57019
0.00210133
  -6.40971
  -5.25553
  -7.56733
   3.00075
  -0.18291    5.66653 -0.0391773  -0.427008    7.28824   -2.90414
9.03407
 2.42805
  7.3737
-3.78402
 -8.4933
-5.59181
 6.87516
  -0.559
 4.56922
-5.25553
-6.06153
 4.56849
-1.56193
   4.94644   0.244333  -0.427008   -2.01555 -0.0515009   -1.94678
-0.817077
 -2.58591
-0.910806
 -8.57527
 -1.48859
 -1.35418
 -3.37602
  1.07023
 -0.24532
-0.275215
 -9.62045
  2.52124
 -9.37842
-0.349812   4.92066  -8.60541  -2.35823 -0.355153  0.350434
1.39588
  4.89246
 -3.37949
  7.08622
-0.440782
  2.75728
  11.2829
   4.21069
   6.74147
   2.09915
  -1.52538
  -13.4596
-0.0503602
 8.20614 -5.21336  4.26289   9.4786 -7.76909 -7.74776
-8.3562
  -3.4972
 -12.7193
-0.440782
 0.851422
 -5.64514
-0.286081
 6.07862
  3.0681
-1.52538
-7.83716
-4.55848
-3.54301
-0.152751 -0.122288    9.4786  -5.29397    6.7917   5.95794
1.36776
-5.66461
-2.40873
   1.506
 10.4706
-1.77004
 3.72986
-8.03008
-1.58065
  1.6876
 -4.4168
-7.07047
 1.36364
  -5.20195    3.31786   -3.33955 -0.0877204   -2.13715    1.71987
3.41661
-0.207479
 -7.24649
 -1.88995
 -7.40485
   6.5647
  7.28756
 2.57942
-3.20562
 1.11213
-4.98955
-3.53501
-3.94927
   2.8363   4.06189 -0.955628   6.44794  -4.84416   4.50591
-6.10287
0.0517846
 -2.13835
  9.04301
 -3.79644
  4.90006
  4.36288
-0.762978
-0.997699
 -3.81461
 -0.67388
  1.79482
  3.12327
 -1.60588  -4.96644 -0.101568   -5.3783   3.10624  -3.17113
4.45521
-2.13835
 1.03589
-3.79644
-9.42306
0.923559
-3.15282
-0.997699
 -6.80946
 -0.67388
 -2.73825
 0.354857
  6.34931
-4.96644  4.34344  -5.3783 -3.68919  4.71549  1.19768
-8.92096
  1.03589
0.0857965
 -9.42306
 -6.63332
 -1.90416
 -2.02769
-6.80946
 4.39887
-2.73825
-2.76136
-8.02795
-5.56806
 4.34344  6.74807 -3.68919  2.61618 -6.84301  5.60554
-29.3271
 1.27621
 5.45796
-6.98846
 4.32448
-6.53902
 2.71815
0.689568
 2.02593
 2.64601
 6.97061
 13.0627
 3.82609
  -7.4431  -7.62595 -0.145876   8.61026  -2.73708  -1.29968
1.78807
-1.22905
0.227931
-3.13044
 6.48227
 1.41285
 4.46861
    5.646
   2.9941
-0.454699
  -1.6394
  7.28658
  10.2425
 -2.73474  -8.73773   2.65845 -0.245311   8.81916  -2.62724
4.31403
-2.25483
-3.46463
   6.284
 -8.9084
 4.45905
-2.24613
 2.39506
  3.6786
-5.13267
-2.47568
-3.65265
 4.46507
 -8.41367   5.44349   -5.8833   7.16066   8.19086 -0.381381
2.02999
  -5.38784
  -23.0391
   -8.9084
-0.0894007
   5.87416
  -9.47286
 2.22987
-1.19791
-2.47568
0.166449
-11.7885
-9.52922
-0.167893  -67.1206   7.16066   -5.3796  -1.53298   7.63208
1.39588
 -12.2138
-0.713973
  2.12508
 -6.10556
  3.98097
  4.16616
-0.601397
 -5.43509
 0.578571
  2.81994
  1.12779
 -8.33668
 -33.4972   4.48783  -15.4002 -0.136515   8.33639   1.91397
0.0319824
-0.713973
  3.58002
 -3.65376
  8.07291
 -6.88655
  7.41243
-5.43509
-7.64168
 2.96344
 -9.4977
-7.24318
-8.74492
 4.48783 -3.16569 -0.26502  4.14539  9.42863 -4.46143
0.985721
 3.58002
0.171198
 6.06496
-13.6604
 5.07404
-8.89344
-7.64168
 2.17124
-12.2963
 5.76236
-10.2099
-7.78238
  -3.16569    2.72807     2.1634 -0.0672368    2.06724   -2.58861
-5.40978
 5.17302
-9.21725
 3.03436
-7.69156
-3.65771
-1.42604
   -10.633
  -2.98855
0.00367575
   1.94524
   7.31737
  -5.72565
  0.58881  -4.39242   5.78346 -0.206742   4.66129  -6.35906
-33.6634
-9.21725
-5.79402
-5.54478
0.668548
-5.27826
-8.92038
-2.98855
-7.25662
 7.06435
0.908725
 6.76576
-4.22055
-4.39242 -4.49395 -2.14334 0.586243  2.18391 -1.50703
0.102173
-7.47909
 2.76989
 10.1579
 6.14134
 8.04586
0.361679
-8.26845
-9.93286
-2.86463
-1.76083
-2.28328
 5.66759
-0.291312   1.92978   3.25673   2.27893   -6.0175   5.05754
-28.5822
  2.76989
 -7.50146
  6.38438
-0.903904
 -3.40507
  1.72463
-9.93286
 7.57534
0.386418
 5.17243
 3.45707
0.822235
 1.92978 -1.88245   2.3585 0.811282   4.0179 -8.06788
2.12953
 8.68513
 9.67387
 2.85676
-2.90263
 9.13339
-6.27993
 -5.39433
  7.64374
0.0955486
  5.79967
-0.145418
 -6.73018
-0.0574092    1.31237   -3.52173   -4.54453   -1.62929   -6.33331
16.6619
-4.86339
-8.16762
  2.8997
-1.10816
 1.54506
 9.95039
-9.58037
-3.71713
 3.16739
 7.00678
 4.38057
-4.19737
 -7.11116  -1.21555   4.35781   2.34098  -5.60278 -0.092306
-5.53615
-5.91462
 1.64555
 10.5871
 7.80658
 1.07415
-4.27378
-1.21383
  1.8574
-5.75664
-4.25503
-6.20556
-5.10711
 -2.37594  0.739943  -2.39676   3.15263    7.7078 -0.174229
-1.22403
 1.53242
-4.89094
 7.98507
 6.24292
0.954388
-3.61158
 7.38565
 3.18173
-5.31607
 1.08518
 8.10163
 2.24017
-3.03351 -9.16481  3.81012 -5.12487  6.97964  3.80599
-7.77483
 5.59942
-5.59574
 3.76455
 7.02446
-1.14156
-2.97902
 4.78511
-7.32273
 2.11627
-1.77652
  2.5835
-4.74027
 -5.58864  -7.56854   9.27074 -0.226376   1.32922   7.94744
3.75292
  0.18182
  2.80111
  3.58494
 -7.11388
-0.819436
 -2.42262
 0.583744
 -8.82556
 -1.51223
-0.346653
  -6.6691
-0.270644
  7.62029  -9.07916 -0.256206   5.28393   1.81746  -5.80866
-4.32223
 2.80111
-1.47143
-7.11388
-17.1437
 1.79813
-2.11632
 -8.82556
  2.93541
-0.346653
 -48.9997
  2.50728
 0.801291
 -9.07916  -5.64566   5.28393   1.84847  -4.35359 -0.481708
27.9866
 -1.17997
0.0899999
-0.092374
  2.84283
 -7.90202
 0.709641
  4.07941
 -2.01502
  2.59108
-0.718969
 -4.52542
 -3.01059
 -1.42305  -8.49464  -4.44344 -0.559361  -3.30278 -0.516164
17.3825
0.0899999
 -7.55789
  2.15031
  6.16814
-0.122143
 -2.48276
  -2.01502
-0.0670323
  -4.26989
  -12.4243
   2.91617
  -9.06847
-8.49464  5.25289 -3.61948 -1.93008 -4.80501 -6.50246
14.3639
-0.76511
-3.65126
 6.13504
 0.16605
-8.84638
-7.92875
 0.556233
 -5.44357
 -12.3811
-0.431614
  1.40838
  5.69545
 -45.6562   3.31388  -2.13857   -2.0478 -0.194262   4.31002
1.16575
 -3.89234
 -6.53712
 -4.04034
 -6.76536
-0.466745
   1.8733
 6.58675
-2.86143
 6.79318
-7.35559
 8.24233
-6.16393
  2.39814  -4.22268  -2.37816   5.73024 -0.788952  0.466568
7.18118
-4.07548
0.953501
0.629204
0.863611
-6.14734
 1.58968
  -2.3748
 -6.12668
  3.52641
  5.67205
 -1.99441
-0.670575
 0.923169  0.329283     6.604  -3.20717   2.80193 -0.577777
-4.97115
 0.953501
  9.55986
  3.78943
 0.702584
-0.870375
  2.17529
 -6.12668
0.0450388
  3.36897
  5.34499
  1.73041
  2.27776
0.329283  1.69361 -3.21121  8.76938 -10.7566 -8.71551
2.68686
 3.61856
 6.61587
 1.31365
-11.4879
-8.69353
 8.49128
-8.10206
0.443522
-5.84018
 4.82693
-9.10292
-3.56758
  4.16503  -8.44348 -0.269469  -4.98318   5.55401   6.63364
27.9244
  -4.83512
-0.0684299
   -5.1222
  -7.45967
  -43.4247
   -8.4959
-2.42922
 5.31693
 -2.1019
 3.44535
-64.0352
-5.28908
  -3.3455   -6.7274   3.59024 -0.111734  0.358756   6.61196
36.2927
  -3.00666
0.00028675
 -0.291322
  -6.66307
   6.36623
  -6.64248
-5.24114
 3.85358
 6.26474
-2.10067
-2.68547
-5.21384
 -8.93975   9.12513    -4.747  -6.19305 -0.144274   -7.8155
-5.29968
0.279423
  3.3914
-6.66307
-2.79382
-9.72964
 1.42858
 2.34221
-1.15148
-2.10067
-5.38075
-2.92286
-4.58563
   5.8735 -0.341829  -6.19305  -1.08868   -1.7937  0.098154
-13.659
 5.52325
 1.42032
 1.02833
 -4.0141
 5.84091
-767.782
-5.82375
 -1.4923
-1.05531
 4.31896
 0.41661
-400.764
-3.12795   2.2524  4.07044  2.35948  1.76305 -1.83279
-10.6839
 -10.6143
 -3.70039
  5.89118
  5.91052
-0.716709
 -11.9744
  1.27844
 -9.84424
-0.625674
  -11.886
 -3.05072
  1.40125
 -2.84898  -8.78576 0.0884533  0.767411   1.08088   2.26463
0.49104
-0.771664
-0.583709
  9.02898
  3.81589
  4.64996
  1.71986
 4.05587
-9.04238
-6.78539
-2.86022
-3.58785
-1.26368
-1.30405 -4.20787   5.6631 -7.03569 -2.44019 -7.85918
5.48033
 6.09504
-1.25964
 5.77385
 5.24704
   6.422
 7.55182
 -4.3836
 4.04717
 3.13406
0.316301
-4.24959
-5.26018
-3.94342  3.79098 -4.82925  6.43335  -2.7396  5.42436
-2.07065
 9.59128
 3.90073
  4.1429
-4.30562
0.576651
 -9.5606
   1.98492
-0.0742449
   5.54982
   8.58876
    7.4043
  -2.23292
 3.04802 -5.25529 -7.53097 -4.05842  9.62218 -4.64433
-0.643219
-6.66281
 3.69047
0.490157
 5.26632
 8.06528
 8.10546
-3.20708
-3.59632
 6.24843
 -1.3907
-2.19253
-2.14946
   9.66959 -0.0624627    3.73188    6.43389    1.03938   -5.36113
-23.2365
  1.19071
  1.33675
-0.194207
 -6.31223
 -8.36907
  2.05892
-2.40393
-3.28182
 3.36991
 2.66269
-9.26649
-9.17671
 -1.89277  0.334034  -2.40486 -0.145508  0.117394   1.07573
8.61768
 1.33675
-1.81908
  -5.531
0.101708
-8.37254
 2.25542
-3.28182
-1.74105
 2.55457
 4.01311
-4.96737
-8.51187
 0.334034  -2.00416 -0.150696   4.52624  -1.78712   9.64963
-17.6407
-3.72423
 3.19105
-3.55973
-7.95241
-2.27601
-7.57542
-2.98854
-1.92628
-7.42232
-4.57796
 1.28578
-3.61065
-0.424748  0.140445   5.05005  0.927081 -0.506594  -0.62592
0.812755
  2.17994
 -4.81579
 -7.95241
 -3.38758
 -1.49361
-0.312038
-4.39432
-9.88168
-4.57796
 4.51654
  1.9794
 5.09376
 1.03189  3.46944 0.927081  3.36342 -7.85877 -1.24552
6.98511
 -4.81579
 -6.86635
-0.107221
-0.839243
-0.562149
  8.60864
-9.88168
-1.68571
 5.11946
 4.50353
-5.83088
-3.63138
  3.46944   2.22919   1.76936  -1.87697  -9.27935 -0.106693
-0.479108
 0.306081
  6.34487
 -2.41527
 0.599651
 0.155957
-0.929164
-4.04415
-2.67646
 7.53669
  2.1694
-1.44824
 1.96379
   -9.8049   -0.14476 -0.0490629    5.44441   0.144116    2.15002
-15.5374
-4.98821
 1.06075
-1.26555
-2.27934
 3.13687
-7.43656
   9.949
 1.02212
-5.75334
 8.99362
-0.78737
-9.32805
 -2.08464  -1.46297  -4.53054   2.96452 -0.505237  -9.82625
-4.36237
-0.451227
-0.759903
 -7.45121
  1.11106
  1.66656
 -8.22387
-0.340878
 -5.83182
 -1.90791
 -6.49291
 0.293805
 -6.64173
  -8.4565  -9.61073  0.141355 0.0200839  0.347399   4.60686
0.254749
-6.83159
 6.26606
 4.21419
 11.2119
 -2.5793
 4.15466
-8.16673
 3.68051
 5.15499
 6.74991
 5.19344
 6.59122
-1.89503  5.73555 -6.75724   -3.358 0.139964  7.49199
-13.3615
  8.0337
-1.48753
-10.0035
-7.47201
-2.23053
-1.31341
-4.46731
-5.07821
 5.21922
-8.92871
-1.34685
 -1.5316
0.0565221   2.58476 -0.121719  -4.03186   5.42008   5.91553
0.785623
0.340557
 4.90461
 4.19432
-8.49922
-7.93362
-9.69061
0.719147
-1.74216
-8.41642
 2.64059
 2.44762
-7.35218
-5.22529 0.461081 0.780404  -7.6615  7.77654  4.95595
5.05256
 6.94398
 1.92117
-6.65121
 5.72625
 9.46451
-7.78107
-4.40476
-1.26947
 4.14565
 3.78707
 3.43363
 4.81062
 0.60113  1.58775 -5.09645   5.0403 -3.76607  3.34377
-0.942321
-0.0635558
  -13.3974
-0.0342399
   5.85653
  -1.99998
   2.88929
0.624872
 3.38827
 3.85324
 12.1715
 4.00688
 1.06327
 -14.8009 -0.118693   4.25101  -1.38347   2.00614    4.0906
-2.21417
-3.63518
-13.4941
-3.91971
-8.61669
-5.34141
 0.28991
  3.22749
  2.77543
-0.727526
 -5.06397
 -5.60032
  6.98613
-0.0733631  -0.104084   -2.42363 -0.0877931    7.84964    1.44325
-9.493
-0.543022
  -9.2997
  5.32091
   3.1647
  9.71399
 -40.8401
  9.73077
-0.971442
 -5.90989
-0.681408
  4.56722
   45.332
  4.59813 -0.846236   5.03559 -0.459617  -2.31008 -0.661765
-4.12961
 5.82787
 7.60049
 1.31006
0.437394
0.486227
 8.87105
-4.86647
-1.35397
-5.41788
-2.57748
 3.13233
-1.57423
-0.0516011    4.61489   -9.44566   0.393099     5.0953   -4.15164
-15.916
 5.02097
  6.7056
 8.31526
-3.18603
 23.7763
-0.83867
 -4.13243
  2.71063
0.0647318
 -21.7484
 -19.6142
 -7.07614
-5.04636 -2.05848  1.77236 0.724508  1.04416 -1.60433
5.67414
-4.35606
 1.41139
 9.62951
-2.50296
0.686551
-1.65388
  -1.2211
  5.83036
 0.228915
 -3.21429
   9.4022
-0.933141
-2.02213 -1.89132 0.211737  2.67406   1.7616 -4.05581
-5.22753
 1.63848
-4.24867
-4.61114
-442.431
 2.93751
-2.81465
  3.94003
 -1.95023
 -7.39375
 -735.927
-0.997371
  6.14912
 -4.82065   4.23569  -7.55098   1.36967 -0.394647   -3.3893
39.9327
 0.232472
 -5.62408
-0.516423
  1.68857
-0.162047
  4.76806
-13.9546
-4.24436
0.238517
-8.60446
 4.27683
-9.78529
0.303053 -7.24224 -1.61399  7.60686 -2.84088 -1.92336
12.6735
 -0.381198
 0.0905554
   4.13919
  -5.61728
  -7.35321
-0.0139669
-7.05816
 3.15058
-8.88611
-6.26825
-0.22138
-6.15312
 7.32474  6.39345 -5.77739  6.01145 -1.36864  8.40313
-19.7862
-4.24546
 4.46459
0.991832
-10.0376
-16.3236
-16.3408
 3.90417
  5.6585
 4.14819
 3.41921
-0.48541
 1.05692
-0.0540592   -1.74528    8.27799  -0.048715   -7.93383  -0.200663
-23.8733
 -1.91383
 -9.12623
  -7.4408
 -2.35952
-0.989104
 -1.42501
 -2.8092
-2.25499
-2.38674
-4.85954
 1.46823
-8.55069
 -6.42962   5.25239   7.09513  -6.17086 -0.697271   6.37073
1.31902
-9.12623
 8.89769
-2.35952
 2.22294
 4.78049
 8.78124
 -2.25499
 -3.75331
 -4.85954
  4.96011
0.0539906
   5.3093
  5.25239 -0.103227  -6.17086   5.11063   4.85424  -3.77859
-5.42359
-80.7849
-16.0904
-2.76747
-4.05855
-0.68824
-5.17473
-243.066
-6.66547
 3.79982
-3.04305
-2.76739
 7.16053
0.0413107  0.684209  0.784314   6.00949 -0.841075 -0.558111
1.29878
  2.29325
  2.14821
-0.120668
 -2.55831
 -4.25826
 -3.40279
  -6.6738
 -5.15629
   1.1475
 -3.89755
  1.79626
-0.806971
 -2.08082   7.90625  -3.87045   0.47968 -0.215694  -9.30494
4.95487
 2.14821
 -2.5217
-2.55831
 4.83643
-1.23507
 6.41572
-5.15629
 1.25608
-3.89755
-3.70031
-5.89397
-4.94287
  7.90625 -0.513088   0.47968   4.69296  -5.24216  -3.47112
0.783092
 -0.69135
  1.33111
  2.48943
 0.796441
  3.22545
-0.978062
 -2.78413
 0.026746
0.0721477
  8.90791
 -8.03635
  1.96389
-2.18632  1.98437   5.3316 -2.81794 -2.49577  13.3844
-1.26457
-8.98396
 3.56968
 1.18123
 5.30057
 8.02461
 2.45934
-5.22679
-7.25261
0.152638
-3.44672
-5.20928
 -5.8134
-0.673232   5.62031  0.929057   7.94897  -5.33221   8.86576
0.0300282
 3.59239
-1.72132
 5.59587
0.750362
 -6.0921
 10.2381
 -9.90001
  5.53586
 0.730384
 -2.34211
-0.756933
  1.97175
  9.80933  0.145719   3.81491 -0.996459   6.38756  -2.00407
0.715327
 0.278249
 -5.07808
 0.750362
 0.143429
-0.246543
 -8.94645
 9.40691
-1.75889
-2.34211
 1.57886
-3.22573
 2.26261
 -1.33898   1.20995 -0.996459    6.0798  0.180024 -0.177743
3.46269
  3.6946
-5.29611
 -3.4278
-5.80898
 7.21081
 6.30589
 6.01771
-9.94066
 4.21368
 7.12623
-1.58578
 3.87019
 -6.42288   5.65637   3.25261  -1.95697 -0.204634   4.05983
23.2432
 2.02411
-9.62973
 4.63774
 4.91191
0.584119
 4.05838
 -1.86861
-0.594098
   7.0391
 -1.02239
 -4.36508
  3.20493
-0.127083   4.75268  -1.29525 -0.288727   9.43601   1.99505
2.78749
 1.56539
-2.76182
 3.27466
-11.9212
-4.55404
-9.95491
  -4.465
-4.91275
-1.65511
 5.69076
-3.22991
-1.91297
   8.9601    7.6386  0.140581 -0.108534   9.56946   -1.1016
0.756254
 11.4864
-3.57163
-6.77442
 5.89826
 6.80468
 5.77665
 52.1833
 1.20273
-1.07681
-2.00701
-6.73507
 6.52633
  0.246749   -4.17913    1.20401    2.35828 -0.0315289   -2.79043
10.4593
-11.2564
-9.29837
 5.40998
-1.45369
 3.64511
 2.64525
 0.374402
 -1.41319
 -1.33119
 -9.76715
-0.921203
  1.34278
-0.42769  4.54754  1.72191  2.90143 -2.82053 0.553866
-0.583593
 -6.61461
 -6.89787
 -7.13814
  3.59577
-0.582655
 -10.1355
-8.80703
 3.24324
-8.59374
-7.17612
 4.13678
 4.76717
 -3.99668  -8.37313   -8.4247  -2.23301 -0.797537   5.61663
3.81851
-10.5863
 -7.4709
 5.13603
-7.80943
-2.54002
-4.44407
  1.73349
 -4.13622
  -4.2647
 -6.16809
  5.02175
-0.916904
 -0.165679    3.45408 -0.0578666   -9.41486  -0.284856    8.25567
1.76184
 -7.4709
-1.46346
-7.80943
 -12.551
-8.28249
 1.66943
-4.13622
  1.1283
-6.16809
 2.02697
 6.60138
-5.88418
  3.45408   6.89656  -9.41486 -0.138388  -1.30799   8.88319
1.17778
-1.29757
-1.89861
-7.95372
-9.91873
 6.10248
-9.70728
0.993561
-2.21144
 5.95749
-9.92145
-4.49182
-8.11744
  2.75025  -5.94548 -0.575193  -5.09299  0.070828   5.49586
0.885427
-1.89861
-9.44925
-9.91873
 2.61287
-4.73881
-7.70026
 -2.21144
  -7.3631
 -9.92145
 -5.27413
  7.03432
-0.332405
 -5.94548 -0.327106  -5.09299 -0.999543 -0.145537  -6.61255
1.31902
-9.44925
-9.42263
 4.16948
 7.95558
 6.49153
 -8.1298
  -7.3631
 -8.32906
 -1.75881
0.0491241
 0.541148
  -2.5364
-0.327106   2.88987 -0.220287   4.96141  -5.86693 -0.497546
3.05723
-9.42263
 4.83971
 7.32888
 6.57757
  6.0728
-7.56541
 -8.32906
  7.21895
0.0252391
 -5.83988
 0.202644
  1.55603
   2.88987  -0.850329    4.50144 -0.0405451   -4.64201   -0.18565
7.31847
0.669788
 -9.5445
 6.43344
 6.71641
 2.09945
-7.71174
 4.38884
-9.62227
-6.42268
-6.71586
 5.85538
-7.21701
-0.540783   6.24455  -6.82391   6.47091   0.57742   3.07967
-0.774144
 1.59764
0.837866
  7.3554
 1.09222
 12.6102
-1.71914
   2.4428
-0.386981
  1.17592
  -2.5772
  1.65011
 -8.87825
 -4.46787 -0.994788  -7.68223  -4.65946   5.14963  -7.83016
11.5889
 11.4317
 4.49378
 1.09222
-6.94164
 4.86411
-2.20005
 5.89941
 1.57412
 -2.5772
0.050489
0.692238
 4.44096
-2.61755  4.08063 -4.65946 -7.82067   3.3431  1.87484
-1.22681
 0.440792
-0.468096
 -4.00068
 0.400371
 -4.62564
 -6.83226
  7.98731
 -4.10789
  2.30694
  7.11361
  2.68066
-0.710676
 7.57421  -7.0025 -2.39441 -7.21949  1.91853  7.77683
-8.59866
 -11.7015
 -6.36926
 -56.9983
   8.2431
-0.157274
-0.409889
 1.80747
 3.95015
-164.345
-10.2529
  4.9535
-3.23295
 -0.143304 -0.0444538    1.24919 -0.0152276   -3.29014   -4.41943
16.7765
 -4.53118
 -7.64487
-0.185922
  3.19034
 -2.16975
  15.6199
   9.08205
  -6.45823
-0.0536853
   7.19341
   6.70134
   21.7051
 5.02988 -5.04668  7.76145  5.26212 -9.55788 -0.90628
0.54426
 -2.43871
 -23.3804
-0.725048
  2.89155
 0.831414
  -7.6434
 -4.74288
 -1.21954
  1.43027
 -9.99109
-0.208689
 -2.05464
 -7.98559  0.364615  -2.88204 -0.337267  -1.90623  -5.72997
4.18613
-16.9089
-7.51278
 2.89155
 3.22327
-6.49975
 1.70065
  3.75736
 -5.19219
 -9.99109
-0.665342
  1.41426
-0.103201
-0.812159    9.4744 -0.337267   1.12369   1.43341  -1.83607
1.02437
 9.04671
 0.21189
 8.96421
-0.40727
-8.17459
-9.91052
-4.92158
 2.72843
-4.88565
-3.09062
-4.48039
-4.02461
 -3.69263   5.74646   3.64144 -0.103822  -5.45926  -9.71438
-15.5284
0.251201
  8.5466
0.854377
 9.39464
 6.51235
-1.08819
 4.48823
0.234806
-1.90619
0.027307
 -2.7471
 5.44958
  8.09569  -9.48319  0.584675    8.0525 -0.141037  -4.36564
-10.4115
-9.83201
 7.63417
-11.1516
-3.93621
0.792147
-8.29691
-5.92443
 17.1929
 4.70409
-4.59148
 6.05481
  -5.029
  7.66442  0.266722 -0.082363   2.22387  -1.98089  -4.89954
7.92173
-6.78483
 3.24151
 2.68894
-1.89217
-1.44529
 -2.1507
-3.86259
-6.49904
-5.44303
-5.16039
  6.6004
 9.10629
 9.27792  1.84123  3.50211  4.27424  5.31314 -3.83968
0.253245
 3.25115
 4.71532
-1.89217
  4.8783
 3.79154
-1.17465
-6.51547
 3.43226
-5.16039
0.617339
-2.91448
0.896404
 3.74506  1.94775  4.27424 -4.08421  2.94655 -9.99958
4.9911
-12.7392
 3.36335
-1.66253
-7.06527
-6.68499
 5.21371
 2.62016
 3.58175
-8.06078
 -3.6446
 5.93526
 4.70396
 -0.110252    5.55786    1.78825    4.53954 -0.0398936   -3.50511
-2.82927
4.60208
3.88176
1.56986
8.08907
 7.8056
1.47932
-2.26267
 5.45503
-7.15245
-3.96385
 8.29316
-3.72633
  3.1138  8.88584  -9.6834 -1.87456 -4.25322  9.40423
-13.0613
 0.960218
 -4.50453
 -5.29519
 -2.00053
-0.951036
 -1.17974
-2.58864
 8.94492
-4.58019
  5.9422
  4.0613
-7.16811
-0.634195  -1.73452  -7.98759   6.76938  -6.64126   2.37541
2.61393
 4.17272
  4.7963
-9.64607
-4.31877
 2.92744
-2.88773
-9.29401
-9.61427
 3.36859
 8.64341
-1.04767
 2.65559
   4.66234    2.03854  -0.894734    1.67153    2.60889 -0.0794764
-11.1248
 6.71088
-14.0003
-4.47495
-29.7266
-1.83615
-3.37081
-6.70506
 13.9232
 8.95314
-46.5433
-5.07706
-8.56598
   2.16614   -1.06974    3.15681 -0.0665901   0.851677    6.56893
-13.1358
-5.61769
-4.76998
-24.0057
0.521124
-1.64978
-3.30541
 11.2664
-3.10149
-24.6843
0.543188
-2.82689
0.835956
  0.595413   -7.89137 -0.0376674    7.37693   -6.40072  -0.481082
-10.249
-4.76998
-7.51195
 1.19967
 4.99983
 4.14559
-8.30574
-3.10149
-3.21109
 1.22576
 4.40072
-1.04844
-6.41742
 -7.89137  -7.16393   10.2498  -2.04143 -0.383581   8.47153
-3.51605
  5.3697
 7.53322
 6.99876
 4.12387
0.142359
  2.8932
 3.59335
 9.54252
-6.83381
-4.03549
 1.25018
-8.98225
-4.57852  3.47915 -4.04504  6.75828 -5.43636  -8.5832
-9.71779
 6.21905
-4.19591
  4.0029
 8.16312
 3.56933
-3.84625
 9.28181
 10.1114
-2.25578
0.544897
  -1.989
 4.28805
 3.31213 -3.50209  2.94711  -4.1932 -3.49019 -0.04017
7.27588
-4.70737
 2.11623
 6.84084
 2.65667
-1.19825
 2.29793
  9.38059
   3.6463
-0.110685
 -8.05085
 -4.75673
  3.11102
-2.67217  4.54761 -3.52511 -3.46503 -2.35904  1.07475
5.14099
-0.623539
-0.764024
 -1.44952
  2.41453
 0.919022
  3.62062
-1.97548
0.822317
-2.35685
-6.21049
-1.37753
-5.40187
-1.85873 -1.08192 -4.94862 -3.74371 -14.7243  3.84145
1.13076
  -1.04298
  -1.57654
   2.62089
  -0.58824
  -4.48423
-0.0400076
 2.07316
 6.44164
-5.81025
-5.43935
  -8.865
 47.7006
 -8.68405   5.38026 -0.906221  -5.58777  -8.60195 -0.294095
-2.2741
-12.1113
-8.27279
 1.94526
 2.06895
0.917061
 5.92282
  1.64969
 -4.52759
  1.89105
-0.275509
-0.121241
 0.785626
-1.71021  6.12233   2.0143  6.70803  4.61565 -3.63148
1.88728
 9.55938
0.754427
-5.17481
  2.4239
-11.2491
 8.13195
 0.393564
 -1.78969
-0.853774
 -8.97499
   4.7452
  2.38378
   2.96635  -0.209147   0.423765   -3.23088 -0.0816494   -3.42961
7.52151
  3.37361
 -1.43106
-0.168175
  5.04619
-0.922907
 -3.09555
 -6.83536
 -6.24356
-0.636304
  -5.8484
  1.84596
  3.56433
 3.46418 -9.60056 -8.40376  2.03672  10.7041 -3.44489
-7.22494
 2.57247
-6.00632
-9.75237
-9.45778
-59.0606
  3.6415
0.713042
-3.29451
-7.20588
 -1.6474
-5.56857
-7.38073
 0.22506  6.10579 -4.18944  7.41768 0.860796  3.65974
0.196339
-6.00632
 6.89678
-9.45778
 22.5377
-1.90854
 6.57519
-3.29451
-9.79399
 -1.6474
 3.05163
 2.72402
 7.98745
 6.10579 -1.91002  7.41768  2.00631  6.73406 -4.81539
14.2854
-4.06759
 10.0388
  -3.398
 6.48037
 3.21204
 8.34922
-8.1133
2.12895
1.43338
8.45538
6.36884
 7.5416
-8.29913   3.4787  -0.2703  3.33436  4.11768 -8.29887
1.27618
-3.48997
0.725657
-5.15758
 6.70534
 7.38265
-6.61848
-1.43226
 1.91481
 4.26658
-5.76902
-6.31417
-2.97426
 8.37178  6.13551 0.682103  4.76456 -4.87324 0.885657
-14.4495
 3.65506
-8.99102
 7.41238
 6.15502
 1.02795
-7.07151
 3.85071
 1.84925
0.527038
-5.46473
 2.50151
 -29.271
  -6.33043  -0.156213    3.78852 -0.0433286   -4.14294   0.268503
33.0964
  3.64917
 -79.0993
  4.54777
 -7.67983
-0.567822
 0.984811
 8.01445
-110.471
-9.10913
-2.49119
-4.20461
  3.1235
 -1.84842 -0.376183   3.93643   -7.7811   2.84506   7.43712
-8.05895
-6.43707
-0.86936
 5.50021
 7.88462
-5.60664
 4.44942
 1.62797
-3.98447
 4.63529
 4.68273
-4.72053
-9.52507
-0.247033   4.75673   -4.4887   3.19461  -6.48312   4.11862
6.31315
 -0.86936
-0.483775
  7.34608
-0.328798
 -4.91426
 -7.40426
 -3.98447
  6.51179
 -3.09879
-0.056182
  -4.3594
 -8.17631
 4.75673 -2.86398 -0.12503 -1.53065  3.12833   -8.225
18.7757
 -4.0261
-3.29515
 4.69482
  8.2678
 2.41632
-6.86776
-1.66762
-2.80697
 3.57711
 5.04756
-6.96006
 2.89703
  7.67333 -0.673317  -4.29848   2.49736  -1.83483 -0.133738
3.28409
-7.03313
 1.94589
 3.73611
 9.30949
-1.07127
 2.57536
-4.29033
 4.22926
-9.34899
 8.45097
 2.13058
-6.28038
-2.54964  7.81777 -2.56512 -2.64076 -9.29591  7.23067
9.41094
 -3.56864
  1.88856
  1.39079
0.0836272
 -5.93555
  1.65202
-5.63815
-6.40613
-4.27767
 5.38844
 2.74142
-3.46049
   1.05607   0.411865 -0.0835842    5.50485  -0.140425    3.82526
-29.139
-4.08442
 3.58559
  1.0503
  -5.478
 2.47553
 34.3273
0.467469
-2.52282
 1.26245
 3.85357
-8.43231
-3.91765
-5.66372 -3.81602  -6.3822  2.42921 -4.42635 0.606609
1.36582
 3.75858
-6.87512
-6.97063
-2.21828
 13.3159
-1.44147
-2.12938
-8.52172
 3.49644
-8.34557
 -7.3178
 6.62385
-4.79817 -2.27484 -1.09927  5.28914  1.86628  4.41824
-25.2836
-1.53449
-14.2392
-1.60359
 3.09835
-5.66853
-15.1393
-5.53068
0.920991
   3.504
-3.06666
 1.98175
 31.2731
   -2.3087  -0.230278    7.04717 -0.0692446 -0.0903632  -0.787715
0.332137
   -10.4139
-0.00317228
    3.24283
    6.30055
   -2.81541
   0.510488
 1.26286
 4.39841
-2.53086
 21.2634
-7.27467
 6.66158
-0.225863   2.21156 -0.105762  0.331686  -9.33646  -2.57089
0.653384
 -3.7764
-5.84035
 6.06627
 6.37617
-7.95984
 1.32863
 1.93588
-8.13073
 5.27751
 4.84344
0.270553
-6.10537
-0.161067  -6.16245  -3.37928   3.28724 -0.782729 -0.211186
2.43623
-2.67701
 14.6108
 4.10788
-2.25924
-12.6048
-1.06683
-2.44673
 12.3248
 4.99331
-8.84983
 5.82172
-1.01662
  -5.85212   -1.93452    6.99273   0.634671 -0.0661255   -8.38943
-10.5507
 -3.17017
 0.446458
 -5.81285
 -2.73187
 -6.38593
-0.884731
-8.73685
-5.27364
  6.5371
-4.08656
 7.07926
 8.25837
   9.1839  -8.24811  0.839092  -6.79392 -0.826826 -0.454895
4.37324
0.446458
-9.46745
-2.73187
0.129779
 3.74102
0.146662
  -5.27364
-0.0823977
  -4.08656
   2.92651
  -7.51939
  -4.44778
-8.24811 -8.73337 -6.79392  4.46113  2.03457  6.20506
-12.6987
-9.46745
 2.64371
0.300441
 7.76886
-7.45004
 0.56737
-0.0823977
  -5.64646
   2.41913
  -3.27714
  -3.44154
  -4.86911
 -8.73337  -6.95071   4.61163 -0.118226   -7.3616    -3.227
-11.0301
 -9.65636
 -1.56368
 -7.29397
-0.888267
  1.10658
 -15.4795
 7.52819
 8.31526
 5.68571
 4.63976
-5.03828
 2.49991
 -6.42141   4.17377   8.45827  -7.82858  -8.29431 -0.112207
2.19173
 0.66423
 1.84285
-1.43503
 4.32076
-8.98118
 8.36975
  8.0638
 11.7877
 4.64992
-2.67632
 5.54936
 3.73107
 3.79039  2.00563 -8.25739  3.88652 -1.94268 -4.11166
10.4827
-6.16292
-3.86234
-3.59458
  1.7821
-1.80623
 1.22993
   4.20868
    -9.512
   7.17852
 -0.136273
  -9.33488
0.00730585
-0.0671601   -1.11417   -2.15193   -1.99814   -4.05605   -3.03537
15.7525
-9.88999
-6.72203
-6.72275
 6.68826
-1.48266
-8.57191
 -2.37409
 -9.93177
 -5.59999
-0.785099
  2.95296
  6.03622
   3.00765     7.4182   -1.92964  -0.345346   -1.85535 -0.0433563
5.7626
-6.72203
0.714595
 7.01264
-6.63486
 2.17347
 5.11797
-9.93177
-6.76904
-3.61393
-4.04076
-1.03288
-6.06081
    7.4182    8.84438    -0.9806   -4.96251    3.41306 -0.0285757
0.437195
 1.52084
 3.91247
 5.60347
-2.32208
 2.73386
 -6.6511
 -4.39121
  -1.3463
 -11.1429
 -4.23383
-0.993386
 -7.93706
 -1.00121   4.27581 -0.657214  -4.31836    -5.944   0.99074
0.350418
 3.11137
-8.81025
-2.32208
-2.29049
 7.00254
-4.44207
-2.00933
 1.01648
-4.23383
 4.51141
-4.52997
-9.75783
  2.41298 -0.259427  -4.31836  -0.36537  -1.12788  -4.72593
1.93415
  -5.0454
  5.48977
  3.02499
 -2.17007
-0.870965
 -6.86125
 5.58799
 -9.6747
-5.42711
-3.98256
 9.50262
 7.61606
  -6.65826 -0.0341354   0.043484    4.56059  -0.481021    4.83987
5.16498
-1.03342
-2.04421
 7.44175
-9.95648
 3.78322
  4.2088
 11.4882
-7.71428
 4.91592
-23.4424
 1.14011
 5.36132
 2.99644  9.82427  -3.7572  1.31534  16.7436 -7.53396
5.70569
 -4.93605
  5.80262
-0.749389
  -8.6075
-0.108311
 -7.06488
-2.44827
-11.7513
-3.05555
-1.07341
 1.88709
-9.27059
-0.445164  -2.74137   4.78126  -7.80338  -5.34536   5.56822
10.444
 5.75924
 1.07237
 -8.6075
-4.45428
-6.37961
-4.44562
-11.6427
-4.24754
-1.07341
 1.97514
 2.77953
-3.68985
    -1.3237     1.05562    -7.80338    -10.4091     7.05052 -0.00225917
1.08834
-2.11138
 5.40988
-1.07441
-1.38666
-9.17686
-4.08877
  4.24227
0.0413361
  3.74993
  2.77352
 -7.15696
 -9.61446
  2.72448   1.78386  -8.05232   8.63271 -0.270373  -3.46899
-5.02232
 6.53197
0.571048
0.878679
 3.06932
 4.87699
-1.75195
 -13.178
 1.15521
-1.94425
-6.09551
 -9.9719
 5.03258
-0.937487  -4.21834  -4.15584  -2.58002  -2.95266  -1.70996
13.8303
0.777615
 1.15806
 2.54077
 5.06647
 -7.8679
-7.23729
 3.42187
 7.61944
-5.12554
-2.13719
-1.01247
-2.18283
 -5.10097   4.62162  -1.61312 -0.181286   3.31129   6.00709
-17.6333
-5.17957
-3.93962
  1.3699
-1.36251
 2.18545
 3.21614
 6.08716
 4.64567
 1.10121
 2.72759
 -8.8911
-8.45152
-4.26319  5.50697  1.45585  1.17103  7.11678 -0.96848
-4.17446
-2.52374
-2.35094
  8.2587
-15.7431
-0.28768
 4.28266
 4.93021
 4.61908
   1.302
 4.82788
 1.59869
-1.31065
 4.08878 -6.41303  2.46826  1.51356 -1.79038  -5.8753
1.88695
-2.11803
 5.33369
 15.6927
0.993125
-3.26485
 4.42474
  4.21234
0.0296788
  6.67129
 -10.5544
 -4.86952
 -9.06925
-4.68776 -5.58296  1.30225 0.499486 -5.12374 -9.96781
11.5761
  -7.2137
 -1.25048
 -2.75192
  2.02826
-0.852352
 -1.33352
 -8.4576
 2.52207
 5.52484
 2.09791
-5.34923
-1.73661
 8.48296  3.82455  1.02431  4.03318 -7.98028 0.946956
-23.4094
 5.33476
  4.6279
-2.74316
-5.96776
-9.98992
 17.0562
  -10.76
 6.76943
-10.5838
 2.51738
-3.97956
 18.6093
-0.651834  -2.75515  0.211592 -0.153907  -8.29577  0.774944
4.74316
 5.06909
 2.24895
-4.79187
 7.56302
-10.5778
 1.24632
 6.50685
 1.20364
 4.25445
 1.92477
 2.17561
0.458222
   -2.7746  -0.963698 -0.0556543     1.5672   -0.13278    3.84942
15.0232
-0.392604
 -8.67356
  2.17346
-0.374683
 0.126263
  1.00257
-3.86091
-7.61041
-5.11996
 -7.1853
 3.15223
-2.53077
-3.16035  3.10224 0.440133 -4.69587  4.58536  0.70097
-14.0973
 -8.67356
  1.16711
-0.374683
   -2.466
 -0.24284
  8.07438
-7.61041
-7.75089
 -7.1853
-5.18791
 4.60771
-3.40601
  3.10224   3.27945  -4.69587 -0.169737  -5.70549 -0.113753
26.4153
 1.11946
0.624456
-3.81197
-2.21363
 -2.6908
 -3.5289
 1.07129
-2.27789
-7.87928
 4.38293
-7.91886
-3.68954
-4.43889  6.75763  6.64405 -2.50993 -7.65309 -8.69265
16.1079
 -1.15736
 -5.35382
 -5.66185
 -6.79331
  2.35218
-0.741424
  2.31726
  -7.4926
 0.424287
   4.4191
0.0185598
 -1.84785
   7.87061  -0.202301   -0.62408 -0.0647476     4.0608   -5.02095
-17.7627
-5.35382
 6.68887
-2.59352
 -3.8426
 3.77677
-5.26408
 -7.4926
  7.7739
   5.431
-7.70313
-9.27183
-4.37292
-0.202301  0.150523  0.164977    6.7705  -4.59604   6.46008
-1.70933
  29.6148
 -1.99556
  -3.8426
  5.04765
-0.369258
  -8.5738
0.538914
-3.35449
-7.70313
-2.81741
-7.11129
  4.8251
0.358994 -2.60986   6.7705 -2.01627 -4.83326  1.09798
-5.34101
 -1.99556
-0.117167
  5.34521
 -13.0706
-0.455715
  3.17896
 -3.35449
 0.238171
 -3.26411
  8.02875
 0.909276
0.0819119
-2.60986  -3.6571 -2.80293  1.09264 -13.0771  2.84575
3.9175
-7.51188
 2.85511
-1.88295
 3.35078
 5.24786
0.447999
  -4.41331
  -5.90167
   3.75746
-0.0660626
  -10.6517
  -2.37429
 0.761559 -0.697435  -10.8064   -5.9062  -2.76852  -9.09565
40.6048
-2.80112
-3.84835
0.174722
-9.24012
0.513669
 3.70936
 -1.95976
-0.551734
0.0122148
 -5.02095
 -1.82324
 -8.10755
-2.01707 -1.94472  3.31362   2.8631 -3.47057  8.40515
0.316341
-3.84835
-3.29256
-9.24012
0.597337
 5.18949
-9.37565
-0.551734
  -1.2082
 -5.02095
 -9.60123
 -2.79251
  4.82887
 -1.94472  0.953243    2.8631  -9.18414 0.0875002  -0.12987
0.777467
 -3.29256
-0.614824
 0.597337
 -8.70083
 -7.92215
 -1.09664
 -1.2082
 7.08086
-9.60123
 5.14153
 4.83286
-6.17005
 0.953243 -0.728939  -9.18414 -0.295484  0.235556 -0.549205
5.70373
-3.22323
  6.2311
 -7.6546
-9.59687
-3.33852
-9.29077
 6.43596
-1.18391
 5.81077
 1.94503
-8.60121
-5.17309
  -1.96392  -0.945939 -0.0421989   0.435113    1.48175   -7.17793
12.0828
6.56677
4.02992
5.73941
9.57712
8.20583
4.19299
 8.16771
  3.9191
 12.2617
-4.03991
 7.19043
 3.36197
    9.0661    5.30107   -3.17547 -0.0959037   -6.75718   -1.39251
-2.49324
 2.80591
  1.0507
 13.0688
 7.24291
-12.3463
-1.79026
 4.16656
 2.38274
 11.0013
-5.65272
 1.49719
-8.22481
   4.94308    2.04398   -1.16668 -0.0473523  -0.190512    8.89983
-12.3237
  -9.65681
   5.22361
   1.17402
  0.156814
   4.33765
-0.0813279
-4.33651
-10.4508
-2.68102
 -3.2911
-9.32456
 3.73013
 -7.7485  -3.8441 -3.75906 0.444587 -3.41981 -7.11885
26.9111
 6.62067
 -5.0042
0.156814
-3.86305
-10.2518
-5.68375
-7.13133
  5.6316
 -3.2911
 4.35461
 0.99276
0.533618
0.0607884  -7.03302  0.444587   8.92895  0.784192  -2.06792
1.05006
-0.59624
-5.47446
-5.60645
-3.74985
-8.21962
0.262249
-1.27233
-3.90889
 2.86956
 4.26165
 4.17561
 2.30772
   5.87794   -1.41743    3.31729 -0.0427381   -2.35205     1.5208
-2.88677
 0.850134
  1.44363
 -8.73472
  3.60348
 -8.79692
-0.431054
 11.3057
0.217833
-6.08762
-1.52006
-3.35605
 6.62249
 -2.15813    3.7567   6.96748 -0.254887  -2.71469   5.11089
-10.14
 3.05455
 7.28675
 3.15673
-9.66657
-13.5755
 8.48122
 4.61302
  1.4896
-3.07923
-9.53958
 12.4998
-7.94752
 7.26606  -8.3067 -4.65197  6.74531 -2.89035  6.29974
15.2014
-9.58209
-9.70297
-3.38526
-4.01322
0.542976
-5.83189
  -9.844
-8.02507
 1.88475
 2.19378
-0.29461
-5.17713
-7.44224 -1.44977  1.06429 -1.20116 0.836282 -2.89533
0.779498
 -9.70297
 -2.00855
 -3.79547
 -6.39897
-0.508286
 -5.32179
-8.02507
-3.71868
 2.72418
 4.40596
 3.65545
 3.53337
 -1.44977  -8.80274  -6.48334   8.73395 -0.860288  -6.00195
3.704
-8.74705
-2.51587
-5.18978
-4.66446
-7.09123
 4.40923
-8.84532
 -7.5006
 7.70374
 -4.0178
-8.58481
-9.58009
 -3.37894    4.0521 -0.132891   4.29477  -2.55236 -0.144679
1.31902
-2.51587
  2.8022
-4.66446
 3.67124
 5.37249
 2.60237
 -7.5006
 5.33405
 -4.0178
 5.30243
-2.26628
 4.31455
  4.0521 -4.46456  4.29477  9.71021 -0.17096 -8.35866
8.51642
  1.65594
-0.429549
 -1.20793
-0.442477
 -2.76009
 -6.52173
-1.03224
0.618481
 2.45697
-2.59509
 3.97321
0.752443
-0.207393   48.9153 -0.598398  -7.76812  -7.65396 -0.350462
1.91368
 -2.71353
 -3.09011
-0.442477
 -7.55489
  5.39636
  2.70092
-0.301666
  4.58698
 -2.59509
 -6.12187
 -10.8214
 -8.00354
 -47.4677 -0.223187  -7.76812   3.82463  -0.44998   8.16372
1.31902
 -6.54954
  1.02609
  6.23095
  7.62178
-0.647695
    1.951
-0.465736
  2.76549
   15.563
 -3.21509
  3.35229
  4.18846
 -7.95874   5.78286  -2.99727 -0.120507    1.8808   7.86564
-8.46955
-6.43461
 8.07584
 13.8463
-12.2759
-1.07887
-1.19154
 -1.05046
-0.810359
 -1.46165
  2.27211
 -6.76238
 -6.93492
  2.6461 -7.39722  4.35122 -0.35972  7.02791  4.25603
0.817325
-4.05843
 8.63547
-8.60387
-1.26671
 6.71396
-1.83533
-4.90485
-1.77528
-2.60806
 2.46286
  -1.394
-7.30596
-4.13416  4.23527 -5.20759 -1.57691 -5.66886  6.99651
3.9572
 4.41291
 3.01526
 -6.0126
-1.46445
-2.59767
-1.17528
 -9.04769
-0.992525
 -8.55275
  2.92401
 0.853104
 -7.55622
-2.05013 -4.46195  8.77118 -9.51943  4.73482 -4.52717
23.8935
 0.210102
 -2.01141
  3.55675
-0.546178
  5.00807
 -7.88847
-4.87606
-3.99477
-7.35981
 6.79062
-2.11255
-2.12337
-2.33352  9.24694  4.09262 -2.53676  -0.1834 -8.48485
17.3522
 -2.01141
-0.118141
 -2.34788
 -6.43996
   8.1502
  9.76179
 -3.99477
  2.89643
  7.82161
 -5.52597
  6.69826
0.0681788
 9.24694  23.7861 -4.32244  4.43379  -6.8618  5.03653
10.8892
-1.65291
-9.48526
-6.43996
 1.82891
 2.61795
 -4.4038
 2.03949
 2.49204
-5.52597
-7.66362
 0.61578
 5.43017
  12.2702 -0.130673   4.43379    -4.194  0.149709  -4.65036
0.542719
-7.44049
-9.76099
 1.82891
 1.47192
 6.09158
-7.68134
 3.67528
 1.06416
-7.66362
 2.13808
 6.86765
  3.8092
  2.15217 -0.225047    -4.194   6.74758  -1.55486  -2.14528
-3.22508
-1.19735
-2.99813
 2.75199
0.398419
 7.79945
-1.53201
   3.02076
   1.87323
   2.75056
   2.50909
-0.0464019
  -2.49663
 -11.4182 -0.167618   8.60104   7.34112  -5.10598  -6.45224
-7.27152
 -1.09772
 -5.10072
 -2.27539
-0.418233
  2.45721
  7.55958
 4.47926
-3.02254
0.959828
-3.46466
 6.96927
 6.19263
  -5.6936  -8.08948 -0.403659  -2.36261     6.172  -2.77116
0.163111
-3.51026
 5.84205
-7.36184
-3.14554
-3.12463
 1.50688
 7.15235
-2.92569
 3.69317
-2.29691
 6.23538
  5.4258
-6.72033 -6.97866  5.42534 0.198221 -2.48172  6.56315
8.03214
 3.93349
 1.71006
-3.14554
-2.12945
-4.34026
-4.34768
 -7.0336
-3.43162
-2.29691
   5.584
-1.76328
 7.80344
-4.05282 -3.10431 0.198221 -7.65681 -9.98043  3.60711
14.938
 7.79663
0.754341
-5.08605
-4.51265
 9.96626
 2.06031
0.0302427
 -15.8187
  2.15139
  4.59628
 -4.20432
  2.40516
   4.58467   -3.91582    7.84958 -0.0414399   -4.08495    2.60972
-22.9864
  3.85232
  2.80447
  -3.7134
 -3.13626
-0.192773
 -3.02129
-9.76783
-8.61458
 6.66502
-1.01713
  2.6048
 5.40792
-0.388571  -6.74399   5.79052   2.12439  -1.88354  -7.20276
5.59452
-16.3799
-8.64448
-3.23487
-7.42078
-3.32245
-7.13894
 32.5118
-3.56104
 8.10461
-9.25386
 7.79536
  -5.416
-0.448516  0.831301   5.13914   4.71937   -2.9691   1.61413
-3.57179
0.024065
 1.87283
 3.96581
 -5.5743
0.683685
0.140267
-1.38276
-3.93201
 1.17821
-1.76882
-7.31342
-7.85188
 5.82297   1.8292 0.145988 -2.57376 -5.98511 -2.70782
0.184811
 2.93773
-2.03757
 -5.5743
-101.226
 2.48117
-7.19431
-1.23922
-3.99489
-1.76882
-4.21628
 3.82582
-4.53073
-0.31265 -2.38499 -2.57376  1.88492 0.558414 -6.14786
-2.01031
-2.03757
 4.96918
-28.9878
 3.56955
 4.01953
-5.74848
-3.99489
 23.6398
-0.47964
-1.50574
-9.79912
-6.10144
 -2.38499  0.278823  0.244694  -0.25731   26.2196 -0.226929
-6.46525
 5.33514
-7.07762
-4.35292
 3.20563
-6.07226
-4.36575
-4.49379
 3.62839
 7.47791
-1.62579
 5.11803
 7.49722
 2.89153  2.03216  3.43055 -4.69833 -2.56853 -3.43876
6.03881
-4.12068
 4.28499
-8.75822
 8.48031
 1.19731
-10.0012
   2.9332
 -3.01334
 -8.76487
0.0917041
  3.47753
  7.15943
0.216366 -1.18294    3.644  1.45934 -5.73745 0.356517
16.813
-8.58904
-4.13746
 7.20448
 2.31283
-2.24231
 4.09295
 1.00822
 2.93139
  5.1792
-6.16028
-3.28622
 2.17118
-0.268919 -0.090748  -5.29402  -5.73539   7.02076   9.42545
7.51374
-7.85578
0.755086
-5.89193
-5.37576
-1.33313
-4.17846
 4.63934
0.157353
-7.52903
-4.48478
 2.67756
 2.46493
  6.8443     3.32  4.44428 -2.26373  1.54427 -13.0364
-4.11508
 -9.22742
 -3.31064
  4.47015
-0.656778
  2.01145
 0.717424
 -1.53049
 -5.38202
 -9.07306
  3.97134
-0.508706
 -3.60824
 -3.53605  -8.19484  -2.48365  -3.18162 -0.790561   9.07216
12.6994
 6.44157
  9.0245
-1.72716
-8.53618
-9.49347
 5.36862
-2.71725
 3.47153
-7.07156
-7.89708
-1.28584
 2.34865
-0.142587  -1.88738   2.63396 -0.377812 -0.554387   3.43072
-1.37938
 1.64861
-5.78102
-8.53618
-6.46746
-8.36217
 -2.0377
-3.39547
-1.99139
-7.89708
0.965036
-6.53118
 3.42916
-0.752856   9.99884 -0.377812 -0.395071  -7.64577 -0.278447
1.35821
-5.78102
-1.97116
-2.64498
-1.42872
-7.41455
-2.42963
-1.99139
 -8.1882
 1.22162
 17.0104
-9.94998
-3.27077
  9.99884  -7.11588 -0.315125 -0.322215  0.971928  -4.06813
6.00458
-1.11775
-1.20025
 4.96088
 1.64466
 4.68748
  9.2593
  7.15164
  4.81975
  6.24615
  2.58809
0.0228705
  6.68755
 2.54352  4.69489 -8.74133  4.21318  7.90818 0.909682
-3.03059
 -3.47047
  3.42574
-0.817676
 -7.94107
  -2.3187
 -24.3014
  1.60289
0.0203897
-0.469629
  -9.3312
  4.90407
 -1.51397
-0.240169   4.32709   0.76402   -9.5063   6.19448   -17.466
-29.9428
 0.74819
-3.47221
 8.56366
-6.28764
-8.71513
 7.36738
 3.33861
-7.61281
-5.71461
-9.88587
-5.34337
 -4.9128
 1.40202 -6.25227  7.44676 -9.35099  3.83564 -8.73897
-4.49903
-3.47221
-6.75986
-6.28764
 2.63102
-2.50002
 2.34561
-7.61281
-3.39534
-9.88587
0.035699
 7.43902
-9.53697
-6.25227  8.68086 -9.35099  1.48871  1.33513 -9.31356
-9.62839
-3.08161
-4.51913
0.381993
-9.73619
-11.7471
 7.05417
-3.06372
 -6.3451
 -8.8234
-5.89503
 6.64213
 -4.2673
 0.658978  -7.02809  -9.03158  -8.50101 -0.098153 0.0635325
0.813329
  -4.51913
  -4.96332
  -9.73619
 -0.403622
-0.0630171
 -0.249749
 -6.3451
-2.38245
-5.89503
0.186419
 4.69538
-5.94784
-7.02809  1.42246 -8.50101 -2.06505 -7.30524  8.93905
34.8245
 -4.96332
 -4.55398
-0.150816
  4.92684
  1.12101
 -9.74623
-2.38245
 1.14307
 4.26076
-9.82778
-2.64113
 -9.2476
  1.42246 -0.348017  -3.34681  -2.20605  -1.19651    3.9775
14.7218
-1.23473
0.240358
-2.92921
-3.57712
 5.21455
-3.54074
 4.18629
-2.82944
0.486119
 -0.7856
-4.55394
 3.09257
  -6.3921  -1.09821 -0.604183  -6.12158  -1.43332   2.02919
20.8216
-11.8471
-7.06675
-4.96591
-6.99945
 7.66319
-2.77245
 2.43668
 -5.1601
-7.34333
-4.15712
-6.80375
 6.19981
 -0.118554    1.60484   -5.46561    4.59638 -0.0348012   -0.24711
1.88496
-7.06675
-3.46851
-6.99945
0.386584
 -7.6326
 5.80693
 -5.1601
 6.91953
-4.15712
 6.06351
-4.65329
0.225147
 1.60484 -6.36026  4.59638  8.52636  2.76456 -4.26557
-6.37764
 2.17506
 3.68013
-4.57706
0.420879
-2.16117
-6.01923
0.852561
-7.52342
-9.17963
 2.12267
 4.30675
-6.67583
-6.22682 -2.47473 -7.26758 -3.06577 -7.13545 -1.35824
42.8986
-0.276751
 -2.76072
  2.21929
  -10.973
 -1.66643
 -2.84671
  6.69506
  1.01729
 -4.52795
  19.2245
-0.794254
  4.98368
 -1.31199 -0.361945   1.21317    2.1397  -7.47772  -8.29554
9.47215
 6.30295
 2.02035
-9.55431
 -6.9063
-3.56414
 7.08957
 8.76978
-9.50484
 -1.5586
 2.91329
-6.44881
 3.56281
  1.62459  -6.35743   7.09041 -0.132992   4.95232  -1.37846
-8.82259
  2.02035
 -2.63084
 -3.88558
-0.249433
  1.89474
  3.20446
-9.50484
 3.77711
 5.55414
 6.16375
-7.06467
-6.85724
-6.35743  5.77988 -3.99599 -1.53302 0.935024  8.12658
10.1012
-8.76746
-6.30944
-2.67146
 8.58678
-6.38341
 1.94287
 -3.60072
  1.76716
  6.66276
 0.382471
 -5.25805
-0.545869
  -6.68859    3.84855 -0.0643469    3.02086    5.53499   -13.1873
-7.44582
-3.72269
 2.61454
 4.73118
-0.27284
-2.88355
-6.27491
  2.45613
 -6.13833
 -3.15046
-0.144158
  5.77375
 -3.24812
 -2.50112  0.706308   1.82958 -0.644926   2.84839  -2.82732
-10.131
-9.31437
 4.98931
 1.00885
 5.06337
-5.59559
-6.33442
  -7.964
  2.4345
 4.53438
-4.90328
 5.58236
 6.26605
 6.70924  4.35877 -5.95169 -3.02817 -5.02026  6.78177
2.13132
  5.75045
 -1.35964
  7.46885
-0.290573
 -2.12631
 -7.39048
0.0148309
    2.777
 -3.18368
  5.29106
   2.3139
  3.15643
   4.90167   -21.5034   -7.36135    7.02172 -0.0827927    7.33021
-0.329855
 -2.9249
 7.82615
 4.71861
 3.24968
-7.50368
 4.05341
 6.91456
  1.7424
 1.23966
 7.91465
 2.43262
-1.31071
-3.33468 -8.50152  2.84389   6.9045  -3.0072  5.28094
-12.8879
 4.44307
-4.44513
 4.50139
 5.67219
 -5.5077
 6.86248
-0.0719174
   8.88484
   8.75334
  -3.52299
  -2.99851
   3.60222
  -3.29443   -4.68786    7.48882 -0.0879037   -3.79181   -5.67809
-3.44758
 -7.66648
  1.24428
   3.9743
 -2.34268
-0.253656
 0.359666
  3.23395
 -9.67494
 -7.95301
-0.922002
 -9.74721
  4.62093
-0.119805  -6.98726 -0.286289  -3.87705   3.30461   1.29854
-5.48694
 1.24428
 5.33868
-2.34268
-1.41873
 12.9658
 5.36133
 -9.67494
 -1.35018
-0.922002
   3.0096
  7.64668
  3.34046
 -6.98726 -0.297858  -3.87705  -2.77544  0.527195  -1.61965
9.7961
 7.22396
 5.45145
-1.84806
-5.47331
 6.71571
 6.64315
 4.42148
-7.90442
-0.25302
-3.88025
-9.71534
  5.2637
 2.27562   4.8052  8.58058 -1.82279 -3.94681 -2.37075
2.71261
  2.89471
-0.785882
 -6.93647
 -3.20446
 -3.08215
  4.62392
-5.81121
-7.21175
  13.878
 2.37624
 -3.7583
 -3.4398
 4.43603 -5.53016  2.95341 -6.70706  1.55903  4.52397
-24.8587
 2.56128
-4.46441
-2.53235
-3.50579
 5.99131
-9.24713
   -1.95837
  -0.240373
    2.59284
    3.56774
   -4.39739
-0.00146976
   2.23096   -3.23061    6.74827   -5.15302  -0.887383 -0.0664876
1.08944
  10.1752
   0.7329
-0.374715
  5.48144
  3.15218
 -4.46645
  -6.35751
  -3.11913
-0.0617929
-0.0713448
   2.52951
  -9.80749
-0.0493885  -0.655423   0.757275   -3.32087    6.07461    2.18997
-15.3658
 2.70502
 4.65959
 5.31061
-1.05859
-3.19429
0.951072
0.511461
 2.99684
-2.24017
 2.25082
-6.15811
 -6.4005
  6.14471  -3.45365 -0.172952   -0.8091   2.81694  0.232908
9.15445
  -3.2494
 -5.59298
  6.26189
-0.893307
  8.68751
   5.3314
 -6.32912
 -8.21516
  3.49676
 -5.88034
0.0825924
 -2.46238
 -9.71292  -5.69486  -2.94438   3.29721   2.27122 -0.156338
10.2468
 -6.48567
 -4.49994
-0.524612
 0.204311
 -6.88374
 -3.50014
-1.45615
 1.88637
 6.43917
-8.28599
-9.21322
 6.95176
  -8.8312 -0.203112   4.33474   2.17226  -9.97321 -0.784421
-21.9498
-3.27923
 2.76635
0.204311
 4.28817
-4.44135
0.277038
 6.55918
-7.86946
-8.28599
-5.21446
 5.36415
-2.35927
2.90944 3.03588 2.17226 2.31708 -2.3207 3.22663
-6.37226
  1.2303
-5.96157
 5.21369
 -15.567
0.027831
 1.12187
 6.18498
 4.43858
 14.5898
 1.85789
-1.27511
 1.86516
   -6.1093 -0.0601256    2.80484  -0.149793  -0.724719   -5.94994
8.52865
-0.480806
 -7.90387
  -4.1059
 -5.70957
 -9.81887
 0.773955
  1.53638
 -6.63071
 -6.10812
-0.187427
 -7.03789
   1.2745
 5.32189  1.58018 -4.36109  5.72947  -4.3836  4.05419
-12.9867
-0.26392
-20.8335
-6.18742
  1.0572
-10.8274
0.169338
 -14.376
-44.6403
-9.74534
-4.33734
 4.56732
 1.91337
  -2.23203  -0.794194   -4.13774  0.0912493 -0.0848294    2.75804
-4.76364
-6.15837
 8.45404
-9.67777
-2.96272
 7.31499
-2.45998
-20.1099
 2.66933
 19.3949
 1.20342
-3.00915
 1.02033
-0.392894  -4.48424  0.776648  -7.19906   6.27386  -10.4049
16.2994
 2.26952
 1.47328
-1.47536
  -2.546
 3.16244
0.564094
 -5.5601
-2.95673
 2.19003
-9.13737
-6.39684
-6.84114
  3.28907  -2.81452 -0.467463    2.2971  -4.19653  -3.85045
1.31902
 1.42116
-7.03766
  -2.546
 2.51877
-5.02339
0.735958
-2.92191
-7.93929
-9.13737
-6.07116
 7.45675
-8.61098
 -2.22649   4.86694    2.2971     1.157 -0.137292   2.81394
1.31902
-0.0924169
  -5.62471
   3.53391
  -3.99123
  -7.74226
  -2.26762
 -3.56991
 -3.09244
0.0909237
  8.00615
 -5.19265
 -9.21387
 7.79805  4.54239  3.64982  3.08657  1.61507 -2.99351
-24.6866
0.464249
 -1.3156
-1.43393
-3.91512
-8.61687
-7.34932
  5.01238
 -4.74976
 -5.06909
 -5.43021
-0.987354
  3.39439
 0.991613   6.13852  -4.20245  -1.80312   8.28821 -0.113412
-4.44676
  5.25304
 -7.87261
 -5.23912
 -5.32067
 -6.77853
-0.266006
  1.24466
 -1.22669
 -5.40644
 -1.43915
-0.383052
 -8.12251
0.110214  4.75631  7.34232  5.78977 -1.79733 -7.20212
0.219637
-6.59633
-12.0043
-8.18754
 4.26863
-1762.37
 8.92235
-8.92836
 5.54436
-8.01628
  1.2809
-1415.03
 1.62074
   4.55067 -0.0694333    1.43652   -12.7794  -0.301175    6.16551
6.90007
-9.13417
-8.02051
 9.09115
 8.09426
-4.97528
-2.03538
 -2.23486
  5.80303
 -8.68012
 -7.71296
-0.024376
 -9.50001
 -3.15863 -0.125465  -4.18085   4.74694 0.0471045  -4.63748
0.919337
-1.70715
-1.73586
 8.65711
-1.22739
 2.58504
 1.81279
 9.63189
-8.58451
-3.65183
 5.38516
-9.25007
-8.95252
  3.64021    8.9866 -0.106096  -6.19192   6.61323   7.42553
-1.59156
 -1.73586
  -8.1103
-0.212308
 -6.32552
  -9.2908
  1.06922
-8.58451
-3.10666
 3.82953
 2.66829
-6.30244
-2.36208
   8.9866    2.7137  -2.19983 -0.145202  -1.99201  0.353471
8.93784
-3.67584
 -2.1863
 -2.5448
-9.99896
0.214546
 -8.1512
-6.39564
-1.70933
-4.69309
 -6.9063
 4.57673
 3.43842
   4.474  -9.5975  4.87715  5.61591  2.17688 -0.11268
-9.44946
  -9.94056
-0.0607847
  -12.6276
 -0.718637
  -4.18816
   1.33204
-6.73013
 4.44166
 5.83223
-1.76245
-7.01215
-3.54575
  -7.85589   -7.57354 -0.0660063     8.6196    2.43268  -0.137028
34.1627
-0.0775588
   2.08899
  -1.39269
   6.09383
 -0.183103
  -11.6014
  4.4584
-4.24128
-2.26892
 -12.161
-7.21544
-5.34721
-7.56713 -4.36795  17.3518 -4.16877 -6.03921 0.575441
34.089
-6.48141
 4.10987
0.720678
-4.35961
 2.41041
-6.43472
-0.838895
 -8.35046
 -1.44909
  6.47143
 -4.89329
 -1.79668
   1.4911   3.74656   1.29702 -0.158196   1.34882   4.94422
1.31902
-7.15892
 2.04532
 12.6224
-5.80476
-4.90532
0.837856
 -2.84481
-0.925487
 -5.67629
 -4.91612
 -4.69502
 0.589961
 -4.18094   4.48416 -0.799375   5.10437   5.30035   1.65365
-0.849513
-9.35085
 4.10403
 4.16231
  1.6335
-1.92977
0.675413
   5.84242
-0.0625196
   8.30699
  -8.81902
   5.08776
   1.03414
-0.0537428   -3.78964    1.72925    -7.1799   -5.60639   -2.99272
17.568
 7.60748
-7.23016
  1.6335
 11.5001
-11.9447
-4.87248
0.628012
-20.2828
-8.81902
-2.23817
 2.33125
-7.07249
-5.57252 0.312882  -7.1799  3.73061 -3.75651  8.70932
12.3011
 20.7089
-5.01577
 9.91211
 4.22683
 1.15774
 6.94926
-30.7682
-9.76205
-3.10119
-8.60892
 3.74302
-10.3338
-1.13874 0.517679 -0.11052  1.68088  1.41758  3.36954
-5.2081
 6.80119
 -0.3831
0.800722
-6.32415
 -1.2131
-11.4282
-6.03842
 7.94043
 1.90175
-4.53338
 4.03953
 2.35051
-0.039212  -5.36286   6.86969    -8.178   5.66329   -0.1229
