-0.107141
4.02467
-5.40374
22.1051
-2.52761
3.752
-0.272856
1.31902
0.271793
3.5416
2.13016
-7.18734
-0.090368
4.42658
-6.40671
28.7166
7.26349
1.37613
0.0797084
0.247127
5.55723
1.65908
0.104182
0.18397
-0.353178
5.65718
-1.63929
9.63057
6.10479
1.00192
0.0948372
0.261797
0.279858
0.0823966
2.06877
0.186357
-5.43706
-6.20112
-6.88078
0.935777
-0.111388
1.70606
-5.19771
9.22443
-3.14312
4.66566
-0.219423
1.31902
5.42076
0.0256783
0.106804
0.354074
0.118962
2.69615
4.86676
-12.7647
0.151865
4.64081
3.81233
-17.3355
-8.41702
-7.29863
-5.00505
0.935777
-3.12551
4.63952
-0.22066
1.31902
5.16766
1.04297
0.112035
0.239967
-8.30998
-0.766449
-3.02876
0.935777
4.52073
0.990493
0.128068
0.229966
0.135879
0.729102
4.26086
-2.74978
3.93512
0.513541
0.147127
0.281261
-0.118302
2.5461
-4.8939
12.8172
-5.45554
-4.56791
7.03666
0.935777
-1.18465
-7.76255
-3.82109
0.935777
0.0999814
4.00862
5.79069
-22.8559
-9.93519
-7.23007
2.91702
0.935777
-1.66532
2.47201
-0.414138
1.31902
-0.0973528
1.88348
-5.94704
11.5579
-2.33958
3.47288
-0.294785
1.31902
-0.0958515
2.25615
-6.04019
13.9844
-3.57348
5.3045
-0.192997
1.31902
4.42861
0.773496
0.130732
0.255696
-0.237224
4.84708
-2.44057
12.1865
-1.54583
-8.4647
-4.92225
0.935777
0.197825
3.53825
2.92664
-9.99835
-5.72754
-9.97326
4.7221
0.935777
-6.35136
-0.00497422
0.402623
0.935777
-2.61077
3.87544
-0.264165
1.31902
-1.29027
-5.86828
-4.13151
0.935777
-5.18008
7.68935
-0.133139
1.31902
-5.41999
-9.82088
-4.18286
0.935777
9.06141
1.39819
0.0638931
0.267482
1.90412
-3.85269
-2.04276
0.935777
3.7279
0.168692
0.155305
0.330617
7.59904
1.30748
0.0761888
0.257201
0.195181
6.49362
2.96628
-18.9051
3.64258
0.825163
0.158943
0.225663
0.221625
2.15898
2.61234
-5.28317
-4.2443
6.30027
-0.162494
1.31902
10.1815
2.60153
0.0568642
0.208882
-4.4961
-9.88792
3.98353
0.935777
0.0908162
2.53015
6.37509
-15.7731
1.6363
0.279251
0.353824
0.258011
2.98803
-6.01936
-2.81689
0.935777
1.41525
0.182704
0.409089
0.282074
-7.98162
-0.036779
-5.82842
0.935777
-0.262258
4.77388
-2.2076
10.8956
-3.94494
5.8559
-0.174825
1.31902
0.172033
-5.59596
5.53891
0.935777
-4.23844
6.29157
-0.162719
1.31902
3.6951
-7.50651
-0.910585
0.935777
0.121143
3.24791
4.77915
-15.1654
-6.94851
-1.79449
-4.44564
0.935777
0.846284
5.22304
0.684121
-3.21638
-0.259764
6.57495
-2.22879
15.011
-1.88448
5.99234
-0.307225
2.19781
1.25979
-2.61803
-3.50193
0.935777
2.63318
-6.49297
-9.02813
0.935777
-0.125386
-6.74552
1.86008
0.935777
0.793988
0.0403694
0.729181
0.32738
-0.662678
0.983683
-1.04074
1.31902
7.92266
2.41195
0.0730766
0.180559
-2.30761
3.42544
-0.298868
1.31902
-0.780562
6.80409
-0.741724
5.40357
8.60699
0.854156
0.0672664
0.29936
0.47167
5.81634
1.22747
-6.78257
-2.5024
9.53713
-0.231362
2.56335
-1.58175
8.54359
-0.366025
3.48399
0.590368
3.78939
0.980678
-3.35936
-0.927694
8.02031
-0.624086
5.36219
-1.19452
-4.77518
5.35648
0.935777
-3.40672
5.05695
-0.202445
1.31902
-0.751043
1.11485
-0.918287
1.31902
1.3922
-2.81236
-2.64289
0.935777
-3.55363
5.27502
-0.194076
1.31902
-0.100216
1.25694
-5.77714
7.61836
0.357979
-2.612
-4.4704
0.935777
3.10477
-6.50523
9.2419
0.935777
-4.01297
5.95687
-0.171861
1.31902
-0.131885
3.58334
-4.38989
16.0873
0.276321
3.87004
2.09525
-7.75189
0.212732
0.0459831
2.72156
0.23167
-0.233696
4.12517
-2.47742
10.5766
-0.167331
4.24205
-3.45998
15.0342
0.498474
0.0590119
1.16147
0.288276
-3.98669
-0.883406
-4.41248
0.935777
-1.2079
1.79302
-0.570967
1.31902
3.94903
1.41609
0.146608
0.149205
-0.500344
0.742714
-1.3784
1.31902
0.154204
4.16307
3.75452
-15.2735
0.127982
3.49344
4.52377
-15.4467
-6.73198
-2.74093
-8.49988
0.935777
8.8561
2.53639
0.0653743
0.191002
2.32265
0.564805
0.249267
0.216029
-8.46635
-0.151642
-9.17595
0.935777
3.09373
-6.34563
-1.58777
0.935777
7.23969
1.8082
0.0799704
0.212213
-0.520428
4.57505
-1.11247
5.44643
-0.126998
5.15717
-4.55884
23.8675
6.01328
1.46953
0.0962805
0.215329
-2.29636
3.40873
-0.300333
1.31902
4.6872
-9.49488
-2.67498
0.935777
-1.8127
2.69079
-0.380466
1.31902
-3.46521
5.14378
-0.199028
1.31902
1.47745
-2.96708
-0.698841
0.935777
-8.22496
-4.79594
8.42848
0.935777
-0.782234
5.09046
-0.740138
4.12446
-0.10984
2.23241
-5.27094
12.1237
-0.217293
2.19913
-2.66443
6.21624
6.35017
1.81592
0.0911726
0.191254
-8.34658
-5.53692
-8.73475
0.935777
-3.5114
5.21234
-0.19641
1.31902
8.28026
2.23277
0.0699207
0.200699
8.10904
1.04644
0.071397
0.282104
-3.43446
5.09813
-0.20081
1.31902
7.43048
0.324818
0.0779171
0.331507
0.278787
0.0619801
2.07672
0.228101
-1.16097
1.72334
-0.594051
1.31902
-5.50828
-3.26119
-2.74508
0.935777
-0.235257
0.349218
-2.93157
1.31902
-0.270196
3.87285
-2.14274
8.65534
-3.63477
5.39547
-0.189743
1.31902
-4.16035
6.17565
-0.165773
1.31902
-3.15312
4.68051
-0.218727
1.31902
3.47517
-6.96022
-1.37377
0.935777
-0.643533
0.955264
-1.0717
1.31902
-0.536952
3.60626
-1.07824
4.24522
-1.28974
2.00096
-0.51548
1.33881
-1.07339
6.84562
-0.539375
4.04917
7.55352
1.5766
0.0766479
0.235973
0.617146
0.198047
0.938127
0.171023
-5.79554
8.60293
-0.119001
1.31902
0.838118
0.52221
0.690787
-0.00392002
-3.47589
5.15963
-0.198416
1.31902
0.0826755
4.0002
7.00282
-27.6558
-1.00714
1.495
-0.684787
1.31902
-4.39805
-6.10067
-2.91269
0.935777
2.60442
0.314636
0.2223
0.286873
0.383862
0.128875
1.50825
0.16244
8.59548
2.62226
0.0673565
0.18019
-5.90494
8.76532
-0.116796
1.31902
-3.29561
4.89202
-0.209271
1.31902
2.16145
-4.72164
-4.63508
0.935777
2.52126
-5.28839
-0.0229733
0.935777
5.77509
1.54888
0.100251
0.201539
-3.57568
-0.266427
-9.31249
0.935777
9.34339
1.31255
0.0619648
0.275484
1.80572
7.30981
0.320627
-1.98691
-9.28319
-9.13234
6.74148
0.935777
8.01865
0.287641
0.0722018
0.336048
9.56942
0.1663
0.0605012
0.346755
-2.09264
3.10633
-0.32957
1.31902
9.82547
1.0884
0.0589245
0.292683
-0.627612
7.67262
-0.922483
7.43468
-4.90772
7.28505
-0.140528
1.31902
-4.61834
6.8555
-0.149333
1.31902
-2.13441
3.16833
-0.323122
1.31902
4.56599
-9.31781
-0.86484
0.935777
-0.843019
-4.41612
-2.67324
0.935777
1.31667
1.89046
0.439716
-0.474449
4.03925
0.249136
0.143334
0.321107
-0.093918
5.93163
-6.16454
36.9226
-0.629448
3.12814
-0.919792
3.23406
-3.33561
4.9514
-0.206761
1.31902
-2.23312
3.31486
-0.308838
1.31902
10.0219
2.35646
0.0577694
0.220685
-0.332518
7.02571
-1.74114
12.5896
-7.178
-9.41035
0.175018
0.935777
-0.56766
0.842638
-1.21494
1.31902
-3.25878
4.83735
-0.211635
1.31902
0.182054
-0.426795
-5.99229
0.935777
-0.146351
4.5222
-3.95597
18.2465
9.7671
1.50593
0.0592767
0.26755
-3.23529
4.80248
-0.213172
1.31902
-3.12798
4.6432
-0.220485
1.31902
-2.13545
3.16987
-0.322965
1.31902
-5.0513
7.49818
-0.136534
1.31902
-4.5952
6.82113
-0.150086
1.31902
0.290541
0.121601
1.9927
0.114501
-2.59949
3.85869
-0.265311
1.31902
3.69937
0.839569
0.156503
0.225421
-0.558424
6.02197
-1.03678
6.60027
-0.215965
2.15923
-2.68081
6.14529
5.07263
0.495355
0.114134
0.300279
-8.24907
-0.048853
-4.55578
0.935777
6.41015
0.381872
0.0903194
0.322326
7.71666
1.90851
0.0750274
0.213625
-2.01172
2.98621
-0.342827
1.31902
-0.179801
4.31397
-3.22001
14.2479
-1.20675
10.7362
-0.479769
5.50772
-4.27988
6.35308
-0.161143
1.31902
-2.97638
4.41815
-0.231716
1.31902
-3.85528
-1.85883
1.04765
0.935777
-2.20446
3.27232
-0.312853
1.31902
0.192559
0.344614
3.00667
-0.679324
5.28867
0.738121
0.109472
0.276013
7.52082
1.20647
0.0769811
0.263941
-2.65625
3.94295
-0.259642
1.31902
-5.61616
8.33666
-0.122802
1.31902
-7.80371
-0.0360808
-0.637397
0.935777
6.00829
1.64393
0.0963604
0.198407
-2.07604
3.08169
-0.332206
1.31902
3.78513
0.52867
0.152957
0.275953
-4.54535
6.74714
-0.151732
1.31902
-1.45185
2.15513
-0.475031
1.31902
0.584668
0.255971
0.990238
0.103344
-3.33195
5.16937
-0.199532
1.33881
-0.148396
1.69209
-3.90146
6.95844
-0.283809
7.4729
-2.03997
15.6013
-3.53601
-8.17001
5.20517
0.935777
-0.237251
2.71886
-2.44029
6.99162
9.28015
2.13855
0.062387
0.223399
-3.50334
-7.36077
-8.70395
0.935777
-0.167811
5.89771
-3.45008
20.7044
-0.121897
1.91915
-4.7496
9.472
1.36494
-8.59823
-4.31852
0.935777
-0.924064
-3.85303
-2.38175
0.935777
0.372386
6.7076
1.55473
-10.0717
-0.10472
3.3388
-5.52867
18.816
2.92294
-5.95267
-2.46118
0.935777
-0.249303
0.370067
-2.76641
1.31902
1.12153
-9.79746
5.16374
0.935777
-0.198638
2.09395
-2.91465
6.45994
0.127332
2.63461
4.54685
-11.6224
-0.639179
4.21757
-0.905789
4.17705
-1.29817
-2.80271
4.81654
0.935777
7.06627
2.12216
0.0819331
0.182941
-5.37853
-9.22181
-8.64853
0.935777
0.0892266
5.74585
6.48866
-36.9261
0.09933
1.8194
5.82866
-10.2478
0.139849
-6.22877
-9.50262
0.935777
3.63066
-9.28373
-4.28141
0.935777
-1.92616
2.8592
-0.358056
1.31902
-3.51205
-3.27689
-6.11752
0.935777
4.71005
1.36979
0.12292
0.188441
0.254936
2.04568
2.271
-4.28893
-4.40072
6.53245
-0.156718
1.31902
-0.0983497
4.5049
-5.88676
26.8761
-14.9878
-0.0500753
-0.34155
0.935777
-5.94816
8.82948
-0.115947
1.31902
-9.3993
-5.81067
0.470394
0.935777
-3.56082
5.2857
-0.193684
1.31902
-4.23395
6.2849
-0.162891
1.31902
-4.08947
-6.1465
3.87122
0.935777
-2.29904
3.41271
-0.299983
1.31902
-3.46814
5.14812
-0.19886
1.31902
6.73389
1.31721
0.0859772
0.243566
-5.80862
8.62235
-0.118733
1.31902
0.480188
-7.6631
4.25161
0.935777
-5.10753
-9.34071
-4.02098
0.935777
8.56628
2.34521
0.0675861
0.198312
0.122144
1.47787
4.73998
-6.64826
4.07918
0.459117
0.141931
0.291653
-0.116969
1.19478
-4.94971
6.27063
8.50703
2.44144
0.0680568
0.19066
9.12504
2.86915
0.0634475
0.174776
5.02952
1.30327
0.115113
0.206794
5.50485
-11.0168
-1.9602
0.935777
0.309583
0.280601
1.87013
-0.167944
0.150203
-0.392196
2.56109
0.935777
-0.134217
5.71077
-4.31363
24.991
-2.47192
-8.15904
-5.23664
0.935777
1.96528
-6.10215
8.87346
0.935777
-7.16325
-7.49077
6.83199
0.935777
-1.64071
2.43549
-0.420349
1.31902
0.19338
2.09491
2.99391
-5.91515
-4.56794
6.78068
-0.150981
1.31902
-2.5866
3.83957
-0.266633
1.31902
-0.806018
1.19646
-0.855655
1.31902
-5.10586
7.57917
-0.135075
1.31902
-3.92257
5.82269
-0.175822
1.31902
-1.21707
1.80662
-0.566667
1.31902
0.423006
-4.71412
8.70271
0.935777
-3.10607
-8.88844
5.53853
0.935777
5.79752
0.115259
0.0998635
0.345306
0.255368
7.174
2.26716
-15.9078
-10.0516
14.9206
-0.0686135
1.31902
-0.189157
3.70479
-3.06075
11.6962
-0.1807
1.09019
-3.20399
3.84977
-0.256849
3.61701
-2.25409
8.50988
0.0862
6.2671
6.71648
-41.7361
10.2608
2.9352
0.0564246
0.191199
4.7146
-9.55735
-1.51194
0.935777
-5.96194
8.84994
-0.115679
1.31902
-0.505807
-9.62377
8.62187
0.935777
-9.76802
-0.0164006
-0.406403
0.935777
-4.43308
6.58049
-0.155574
1.31902
0.224955
3.86452
2.57368
-9.58921
2.98466
0.492134
0.193979
0.261352
-0.0967039
2.59127
-5.98695
15.8706
0.141344
2.62562
4.0961
-10.398
-2.35136
3.49037
-0.293308
1.31902
0.12939
3.03072
4.47455
-13.2043
-0.746974
1.10881
-0.923289
1.31902
0.163447
6.45943
3.54221
-22.5238
-3.16027
-2.67025
3.33503
0.935777
-1.35318
2.00867
-0.509667
1.31902
3.55385
0.474879
0.162911
0.279453
-4.62487
6.86519
-0.149123
1.31902
1.50639
0.207935
0.384337
0.276899
9.67532
1.43871
0.0598389
0.270725
-2.77366
4.11724
-0.248651
1.31902
-6.25397
-2.72457
3.24323
0.935777
4.22975
1.32307
0.136878
0.175717
2.6058
-7.90494
3.03991
0.935777
-5.90181
8.76068
-0.116858
1.31902
-2.18449
23.9372
-0.265033
6.70094
4.48747
-9.03874
-0.699596
0.935777
-0.146609
6.56029
-3.94902
26.2635
-2.91852
4.33227
-0.236309
1.31902
-5.1439
7.63564
-0.134076
1.31902
3.80242
-7.67237
-2.7199
0.935777
-0.125752
2.07441
-4.60398
9.90734
0.242513
5.72016
2.38734
-13.2991
0.632399
3.9828
0.9155
-3.28943
-0.0173904
-3.12503
3.52561
0.935777
-3.35597
4.98162
-0.205506
1.31902
-2.84253
4.21947
-0.242626
1.31902
-0.112895
6.02566
-5.12832
31.2583
-1.32593
1.96821
-0.520145
1.31902
0.816555
1.27796
0.709029
-0.549296
-0.341479
5.41155
-1.69545
9.53183
6.71108
0.496662
0.0862694
0.313969
-2.73372
4.05795
-0.252284
1.31902
-1.0762
-7.38388
3.19817
0.935777
-0.493271
-6.52832
-0.919898
0.935777
-1.87291
2.78016
-0.368236
1.31902
1.12918
-2.27477
-3.414
0.935777
6.24833
-12.5607
-2.33514
0.935777
-0.0820712
3.80027
-7.05438
27.1653
1.76466
6.80397e-05
0.328086
0.356794
-1.06579
6.0338
-0.543224
3.63452
-2.41849
5.04446
-0.239389
1.5644
0.389375
3.07354
1.4869
-4.21322
-3.86919
5.74344
-0.178248
1.31902
-1.81703
2.69721
-0.379561
1.31902
0.0996877
2.31696
5.80775
-13.0995
-2.50246
-3.37038
3.94641
0.935777
-0.343346
2.38808
-1.68623
4.38367
-3.75594
5.57534
-0.183622
1.31902
1.22742
-5.97129
5.95591
0.935777
-4.58741
6.80958
-0.15034
1.31902
-5.75302
8.53982
-0.11988
1.31902
-3.16474
4.69776
-0.217924
1.31902
-0.110923
1.85334
-5.21947
10.0303
-2.70537
4.01586
-0.254928
1.31902
-4.50039
6.68041
-0.153247
1.31902
4.57839
-9.24795
-2.86777
0.935777
-6.02822
8.94832
-0.114408
1.31902
-0.123015
1.96286
-4.70644
9.59491
-1.31919
1.95822
-0.522799
1.31902
-6.8225
-7.5077
-9.12857
0.935777
-3.49586
5.18928
-0.197283
1.31902
-6.61602
-1.62923
-8.98769
0.935777
0.130523
3.59452
4.43571
-15.5874
7.35639
2.76485
0.0787018
0.139218
-0.392294
-9.07029
-6.59642
0.935777
-1.93581
-5.10655
-6.95578
0.935777
-1.05637
6.74883
-0.548066
4.05562
0.188537
4.94231
3.07081
-14.8201
-2.42246
3.59592
-0.284699
1.31902
-3.32296
4.93262
-0.207548
1.31902
-8.74056
-8.98666
-3.97773
0.935777
0.100264
4.62221
5.77438
-26.3336
0.0890716
3.56575
6.49995
-22.8204
-2.10227
3.12062
-0.328062
1.31902
-0.110864
3.394
-5.22225
18.0811
4.64983
1.23685
0.124512
0.202814
0.281014
7.06679
2.06026
-14.2026
-2.05749
3.05415
-0.335202
1.31902
-4.28985
6.36788
-0.160768
1.31902
9.81613
1.49489
0.0589806
0.268647
-5.67226
-1.32811
-7.12992
0.935777
-3.9918
-9.34559
5.23791
0.935777
-1.22071
1.81203
-0.564976
1.31902
-1.86145
2.76314
-0.370503
1.31902
-1.45295
2.15676
-0.474672
1.31902
-3.01216
4.47127
-0.228963
1.31902
-4.6592
6.91614
-0.148024
1.31902
1.36455
4.63139
0.424286
-1.60822
7.17964
1.57724
0.0806393
0.229628
7.49831
0.256673
0.0772123
0.336998
-1.59151
2.36244
-0.433346
1.31902
-0.402556
4.8666
-1.43821
7.35602
0.130389
5.50808
4.44024
-24.1004
-8.57527
-1.25652
-2.86587
0.935777
-7.36528
-0.271815
-4.00192
0.935777
-0.440782
-4.72384
-5.64514
0.935777
-3.79644
-2.13835
1.54141
0.935777
-0.747629
1.10978
-0.922481
1.31902
-2.07534
3.08064
-0.332319
1.31902
-1.142
1.69519
-0.603917
1.31902
-0.363837
4.42204
-1.59126
7.39345
-1.21642
1.80566
-0.566969
1.31902
-3.13044
-8.33412
1.74889
0.935777
4.64797
0.73145
0.124562
0.265705
1.04016
0.378914
0.55661
0.145909
-9.72271
-0.713973
-6.88655
0.935777
0.17168
2.86686
3.37233
-9.31116
-3.4154
5.06984
-0.20193
1.31902
-0.108141
5.82947
-5.35376
31.5664
7.1928
0.00515076
0.0804918
0.356402
9.67084
3.19462
0.0598667
0.165565
-4.35036
6.74938
-0.152822
1.33881
5.06963
2.35818
0.114202
0.0875084
7.2735
1.1228
0.0795987
0.267443
3.68104
-7.61408
-0.742649
0.935777
4.4791
1.0872
0.129258
0.216286
8.23394
1.82129
0.070314
0.228754
0.186005
4.41252
3.11261
-13.3776
-1.79327
2.66194
-0.38459
1.31902
-5.44592
8.08395
-0.12664
1.31902
1.2917
7.20228
0.448217
-2.87137
-7.70561
-7.19741
4.16863
0.935777
-0.306628
8.06501
-1.88815
15.5848
-0.177708
5.0165
-3.25794
16.7003
1.01513
0.422907
0.57033
0.11562
4.18976
-8.47528
-0.551664
0.935777
-0.718172
1.06606
-0.960317
1.31902
0.0907251
-0.326912
-2.53187
0.935777
-4.99323
7.41198
-0.138122
1.31902
-5.1222
-4.83512
9.66077
0.935777
-2.44389
3.62772
-0.282203
1.31902
7.26225
0.178656
0.079722
0.342573
3.15287
0.792508
0.18363
0.211288
-6.66307
0.118574
-8.09431
0.959772
-2.32962
3.4581
-0.296045
1.31902
-0.15322
5.21703
-3.77862
20.07
6.8074
2.09341
0.0850488
0.178774
-0.740713
-3.14047
-3.56327
0.935777
-1.18602
5.47221
-0.488156
3.02811
0.406894
0.0194993
1.42288
0.329071
0.105914
3.5518
5.46636
-19.0586
1.05606
-6.11419
-7.11294
0.935777
-4.13229
-8.01746
-6.32677
0.935777
-2.75903
4.09552
-0.24997
1.31902
-0.791473
1.17487
-0.87138
1.31902
3.15481
0.692579
0.183517
0.229716
0.140366
1.96955
4.12464
-7.76686
-6.61135
-7.29529
9.58622
0.935777
-3.55973
-3.72423
-1.53729
0.935777
-1.75428
2.60407
-0.393137
1.31902
3.10066
1.69574
0.186722
0.0401847
1.41058
6.90305
0.410441
-2.47648
-1.26555
-4.57822
7.65902
0.935777
-1.21829
1.80844
-0.566098
1.31902
1.13511
0.292081
0.510051
0.20784
-0.262323
1.08253
-2.20705
2.74601
-4.29856
6.3808
-0.160443
1.31902
0.448742
3.1228
1.29019
-3.67217
2.37562
3.99079
0.24371
-0.615778
1.08465
2.67459
0.533776
-1.07081
-5.93713
8.81311
-0.116163
1.31902
0.451102
1.61712
1.28344
-1.71866
-8.93419
-3.68329
-2.05139
0.935777
1.07843
0.528783
0.536855
0.0729363
9.96182
3.12578
0.058118
0.175152
2.40964
0.0146746
0.240269
0.35329
3.95145
-9.2997
4.58638
0.935777
0.119727
2.95902
4.83566
-13.952
-5.0935
7.56083
-0.135402
1.31902
-1.554
2.30677
-0.443805
1.31902
6.98958
0.38602
0.0828321
0.324841
-0.625669
0.928746
-1.1023
1.31902
-3.04014
4.5128
-0.226856
1.31902
0.0764518
5.14462
7.57289
-38.6028
1.08539
7.97655
0.533415
-3.89799
3.20825
0.940889
0.18046
0.187023
0.112497
1.84112
5.14646
-9.11841
-1.47901
2.19545
-0.466308
1.31902
-0.314829
2.93613
-1.83897
5.75626
2.85934
-5.78374
-0.624743
0.935777
-9.75563
-0.165432
-1.85146
0.935777
2.62883
0.843344
0.220236
0.171082
-4.56042
6.76952
-0.15123
1.31902
0.178627
2.61076
3.24117
-8.10509
0.101014
2.28818
5.73149
-12.7579
-5.74618
8.52966
-0.120023
1.31902
0.139006
5.46065
4.165
-22.3868
0.125741
5.64804
4.6044
-25.6491
6.08048
1.71695
0.0952163
0.193335
0.120666
1.47874
4.79806
-6.73826
0.51363
-5.07808
7.17627
0.935777
-2.12186
3.1497
-0.325032
1.31902
-4.94711
-5.29611
-9.64894
0.935777
0.936854
8.32377
0.617984
-4.78714
0.765678
-1.54185
-2.62672
0.935777
7.37905
1.58112
0.0784601
0.232761
-5.74079
-5.58874
0.2646
0.935777
4.33542
-8.82564
-1.30123
0.935777
9.65968
1.81453
0.0599358
0.248061
9.41785
2.74518
0.0614749
0.188056
0.119855
4.81481
4.83052
-22.9012
-3.69739
5.48842
-0.18653
1.31902
4.31302
-8.74935
-2.17407
0.935777
-5.61629
-2.00228
8.62388
0.935777
-2.34708
3.48402
-0.293843
1.31902
2.779
0.621045
0.208334
0.227431
-0.411718
1.32928
-1.40621
2.22606
0.702473
3.7875
0.824175
-2.76475
-5.22443
7.75517
-0.132009
1.31902
3.26507
0.392553
0.17732
0.287209
-2.45657
3.64654
-0.280747
1.31902
-4.36139
6.47407
-0.158132
1.31902
0.264997
5.46123
2.18478
-11.5748
0.58416
0.686699
0.991101
-0.323772
0.332334
3.42438
1.7421
-5.6088
-2.5465
-6.57285
5.12182
0.935777
-2.60991
3.87416
-0.264252
1.31902
-3.00546
4.46133
-0.229473
1.31902
-2.11589
3.14084
-0.325949
1.31902
-0.0861505
3.24623
-6.72035
22.1726
-0.735317
4.17712
-0.787363
3.64572
7.3945
0.657111
0.0782961
0.305367
0.17648
2.57946
3.2806
-8.10536
-0.274548
4.00744
-2.10878
8.8076
-7.56443
-2.29233
3.78838
0.935777
-0.138174
2.52329
-4.19008
10.9296
-5.83372
8.65961
-0.118222
1.31902
3.70975
0.394062
0.156065
0.295317
-0.58824
-1.44128
-3.02628
0.935777
-0.179934
4.03082
-3.21763
13.3265
0.165886
5.08656
3.49011
-17.3958
0.213198
6.47104
2.7156
-17.2159
-1.6724
2.48252
-0.412385
1.31902
2.18801
-4.76674
-0.178495
0.935777
-0.290908
0.441617
-2.3269
1.32897
-5.39984
8.01556
-0.127721
1.31902
-3.76313
5.58602
-0.183271
1.31902
2.79273
-5.6846
-0.8152
0.935777
-0.227902
4.22523
-2.5404
11.0906
-0.450177
3.04144
-1.28608
4.26833
2.90471
-5.88489
-1.82492
0.935777
0.477814
-7.89077
-4.90906
0.935777
0.533238
0.497545
1.08575
-0.183391
6.34438
0.108126
0.0912557
0.346949
-5.51032
8.17954
-0.12516
1.31902
-5.82762
8.65055
-0.118346
1.31902
-2.36169
3.50571
-0.292025
1.31902
-1.91537
-3.29515
-7.4914
0.935777
0.755972
0.463379
0.76585
0.00193709
3.5337
0.0472909
0.16384
0.349068
0.197382
3.39202
2.9332
-9.59265
-1.95711
2.90514
-0.352394
1.31902
1.71173
-3.92201
2.47553
0.935777
-2.69434
3.9995
-0.255971
1.31902
0.649298
-1.36355
-3.87223
0.935777
7.53514
1.82416
0.0768348
0.216657
-0.619017
5.88558
-0.935291
5.86155
-4.04204
6.00002
-0.170625
1.31902
8.52651
1.83313
0.0679013
0.232345
-5.30507
7.87488
-0.130003
1.31902
0.240397
7.30111
2.40836
-17.2268
3.58998
-7.2016
-2.447
0.935777
-0.299047
0.443907
-2.30624
1.31902
-1.31399
3.08573
-0.440614
1.71643
9.4925
3.03934
0.0609914
0.171443
5.23404
-12.3679
-0.0142073
0.935777
8.5021
2.74221
0.0680962
0.170082
-0.112859
0.952801
-5.12996
5.24465
0.412569
1.98202
1.40331
-2.42457
-1.71883
2.55144
-0.401246
1.31902
9.02275
1.84341
0.0641668
0.23853
0.132277
4.41068
4.37689
-18.9482
2.70004
-5.49346
-0.787393
0.935777
-3.32128
4.93013
-0.207653
1.31902
10.9178
0.0064592
0.0530292
0.356474
4.35697
0.926353
0.132882
0.233721
-5.10693
7.58076
-0.135046
1.31902
2.93921
0.154326
0.196979
0.326417
-0.122888
0.830522
-4.7113
4.26965
0.748832
0.0129813
0.773152
0.34678
-4.59996
6.82821
-0.14993
1.31902
3.92469
-9.16722
-5.51093
0.935777
5.08658
0.172111
0.113821
0.337226
6.4509
2.06871
0.0897489
0.171151
6.1625
0.473597
0.0939491
0.312322
3.00314
0.989775
0.192786
0.166002
-9.73715
-4.09466
-3.26485
0.935777
9.05384
2.04419
0.0639465
0.226097
-3.71743
5.51818
-0.185524
1.31902
-5.12799
-7.2137
-0.852352
0.935777
-3.15903
4.68928
-0.218318
1.31902
-0.0989924
2.42164
-5.84854
14.5199
1.8846
0.434707
0.307207
0.223271
0.219654
1.70437
2.63578
-4.13554
-2.19607
3.25986
-0.314049
1.31902
1.06542
-2.60572
-0.381752
0.935777
3.51208
0.838414
0.164849
0.218605
-0.139066
1.3388
-4.16322
5.93054
0.426972
2.46922
1.35597
-2.99137
-0.145832
6.02088
-3.97005
24.26
2.8054
15.9769
0.206374
-2.94039
-5.90985
-0.59624
-6.0603
0.935777
9.47799
3.01073
0.0610848
0.172906
-1.77778
2.63894
-0.387942
1.31902
-5.06068
7.5121
-0.136281
1.31902
-3.31925
-9.70297
2.12061
0.935777
0.416005
2.87063
1.39172
-3.63829
-0.344847
3.07818
-1.67889
5.52476
-1.83405
-6.74301
-8.68745
0.935777
0.149386
3.48935
3.87559
-13.1665
5.28818
-10.8688
-0.458173
0.935777
-5.66405
8.40775
-0.121763
1.31902
-8.60387
-4.05843
4.7389
0.935777
4.19398
0.189633
0.138046
0.330638
-0.12467
3.88726
-4.64394
18.409
0.139174
3.64575
4.15999
-14.8094
-4.01408
5.95852
-0.171814
1.31902
-3.6445
5.40991
-0.189237
1.31902
0.357813
0.565805
1.61806
-0.558689
1.82891
-6.49405
1.07846
0.935777
0.172156
3.41952
3.36301
-11.1431
0.313974
0.089214
1.84398
0.192308
-0.600922
0.892012
-1.14769
1.31902
-5.98995
-3.9418
-4.89561
0.935777
-2.87355
4.26551
-0.240007
1.31902
-0.844867
1.25413
-0.816309
1.31902
-4.81527
7.14782
-0.143226
1.31902
-2.7123
4.02616
-0.254276
1.31902
-2.41389
3.58319
-0.285711
1.31902
2.6415
0.464691
0.219179
0.254966
-3.20135
4.7521
-0.215432
1.31902
10.6007
2.39024
0.0546155
0.226272
-3.10524
4.60944
-0.2221
1.31902
-5.00493
7.42935
-0.137799
1.31902
-8.75822
-1.55653
2.12181
0.935777
-3.96145
5.8804
-0.174096
1.31902
0.317685
-5.61743
-8.86972
0.935777
2.31283
-5.01198
-1.79687
0.935777
4.87842
-9.7649
-2.47857
0.935777
7.86789
2.7672
0.0735853
0.153191
-6.05743
-3.31064
1.88803
0.935777
4.38777
0.460096
0.131949
0.296107
-4.65351
6.90769
-0.148205
1.31902
2.0332
-6.75986
9.48263
0.935777
8.03161
0.475347
0.0720853
0.322551
4.28965
-8.71045
-2.36368
0.935777
-3.71236
5.51065
-0.185777
1.31902
0.733225
-6.76125
-7.26199
0.935777
-0.117182
3.58207
-4.94071
18.0548
-0.592888
0.919838
-1.12135
1.33881
-0.95802
1.42209
-0.719894
1.31902
0.175842
5.64172
3.29251
-18.2186
-4.41574
6.55475
-0.156185
1.31902
-1.32838
1.97186
-0.519182
1.31902
1.89076
-4.04754
-0.693294
0.935777
3.64865
-7.46438
-6.55175
0.935777
-3.68398
-5.56018
-4.57005
0.935777
-0.178863
6.73987
-3.23689
22.173
1.47494
-9.31437
-8.66813
0.935777
-0.860642
-1.90437
1.17746
0.935777
9.37902
0.423834
0.0617294
0.330653
-0.820556
1.21804
-0.840495
1.31902
-0.619197
4.32506
-0.93502
4.40083
-1.89199
2.80848
-0.364523
1.31902
-3.48164
5.16816
-0.198089
1.31902
-4.10555
6.0943
-0.167986
1.31902
0.188381
6.60533
3.07335
-19.9437
5.66474
0.0930562
0.102204
0.347305
-0.893307
-5.59298
-4.75616
0.935777
0.108577
5.70215
5.33225
-30.0485
-3.26511
4.84674
-0.211225
1.31902
9.54257
0.00222689
0.0606714
0.356681
-0.538385
0.799182
-1.281
1.31902
-0.132745
0.205948
-5.00834
1.33881
3.05117
-6.22044
-2.71471
0.935777
6.24779
1.35448
0.0926665
0.231301
-0.471218
5.54355
-1.22865
7.16788
4.20292
-8.42127
-2.43204
0.935777
8.34366
1.5221
0.0693893
0.251199
-5.03975
7.48103
-0.136847
1.31902
-0.583849
0.866668
-1.18125
1.31902
5.8374
1.12717
0.0991813
0.245022
-2.72174
4.04016
-0.253394
1.31902
6.40806
0.120237
0.0903489
0.345953
-1.62425
2.41105
-0.424609
1.31902
2.11222
-4.32899
-3.26528
0.935777
-5.07332
-5.62471
4.51043
0.935777
1.96497
0.594803
0.294641
0.181563
0.188869
3.31101
3.06541
-9.79277
-2.98261
4.4274
-0.231231
1.31902
-2.62242
3.89273
-0.262991
1.31902
-8.18754
-6.59633
4.34627
0.935777
9.21578
1.12211
0.0628228
0.286322
9.45564
0.814691
0.0612292
0.306933
-1.10394
-1.73586
-9.2908
0.935777
-1.96619
2.91862
-0.350767
1.31902
-1.7226
6.61159
-0.336097
2.57895
-2.58708
3.84028
-0.266584
1.31902
-0.413351
4.16893
-1.40065
6.19604
-1.48275
2.20101
-0.465131
1.31902
-0.138426
4.88362
-4.18245
20.7823
5.90571
0.0235075
0.0980341
0.354512
-0.792687
-4.68044
-2.69107
0.935777
-4.09538
6.0792
-0.168403
1.31902
-2.08519
-9.6797
3.03931
0.935777
-6.32415
-0.0217229
-7.50892
0.935777
-2.55681
-4.91389
-3.10502
0.935777
-0.277282
4.47935
-2.08799
9.70965
-1.83984
2.73107
-0.374855
1.31902
-7.90742
-3.75699
-8.53302
0.935777
9.7428
2.77343
0.0594245
0.192006
-7.77154
-6.79603
-6.19259
0.935777
-2.14802
3.18853
-0.321074
1.31902
-3.19037
4.7358
-0.216173
1.31902
-7.46249
-1.80397
-4.34097
0.935777
10.1082
2.80605
0.0572763
0.196096
-8.61993
-8.55354
-8.01082
0.935777
-8.42925
-9.35024
-9.2523
0.935777
-4.45555
6.61384
-0.15479
1.31902
-0.790785
8.36219
-0.732135
6.47907
-2.14725
3.18739
-0.321189
1.31902
-0.172347
4.32926
-3.35928
14.9
-3.85678
-6.5393
-3.88518
0.935777
-1.28456
1.90681
-0.536895
1.31902
-4.14829
-3.78357
0.934447
0.935777
-0.104993
5.34006
-5.5143
29.8035
-0.112711
4.79607
-5.13671
24.9928
0.127594
4.46876
4.53752
-19.9202
0.111139
1.37011
5.20935
-6.78058
-0.202223
3.28811
-2.86298
9.7706
-7.82889
-8.4756
-0.408546
0.935777
0.176892
2.45661
3.27297
-7.6836
5.61176
-11.3781
-1.23747
0.935777
-0.520838
-7.60171
3.8942
0.935777
6.20655
1.14647
0.0932823
0.249871
-0.157552
3.74763
-3.67474
14.1284
-2.05166
3.04549
-0.336154
1.31902
0.16503
0.041154
3.50823
0.212439
1.59104
-3.19451
-3.77893
0.935777
-1.71002
2.53837
-0.403312
1.31902
7.46276
2.112
0.0775801
0.192967
10.9436
1.68319
0.0529039
0.267769
-6.08661
-0.0594359
-3.20482
0.935777
0.303307
7.24783
1.90883
-13.4781
-4.09534
6.07914
-0.168405
1.31902
-2.11972
3.14653
-0.32536
1.31902
2.04775
-4.44272
-0.520917
0.935777
0.294662
0.027241
1.96483
0.303292
-3.32773
-1.89645
5.69395
0.935777
0.115924
2.28612
4.99433
-11.0608
-4.78529
7.10331
-0.144124
1.31902
-7.0267
-7.50281
9.88537
0.935777
1.00115
1.25978
0.578296
-0.371708
-9.10795
-6.17569
6.65764
0.935777
-3.23177
4.79725
-0.213404
1.31902
2.39596
12.5317
0.241641
-2.67135
6.45104
1.53808
0.0897469
0.218778
0.209611
1.03163
2.76208
-2.49263
0.066903
-0.198857
-4.61853
0.935777
-3.13788
4.65789
-0.21979
1.31902
-3.50705
5.20588
-0.196653
1.31902
2.58798
0.429561
0.223712
0.260718
-0.114818
4.96583
-5.04243
25.3967
0.371353
7.60039
1.55906
-11.4926
3.82864
-7.76155
-2.59091
0.935777
-0.187701
6.38563
-3.08448
20.0532
0.168191
1.19529
3.44227
-3.75771
-0.912099
1.35393
-0.756138
1.31902
4.80938
1.20073
0.120382
0.21227
-0.142674
3.25505
-4.05794
13.5656
3.9037
-7.82006
-0.652384
0.935777
-0.0960139
1.76421
-6.02997
10.9949
-0.231726
6.99827
-2.49847
17.8418
9.23701
1.62804
0.0626784
0.254773
-0.494539
-5.27413
-7.97167
0.935777
-0.958143
1.42227
-0.719802
1.31902
0.931787
10.5882
0.621345
-6.22209
-0.256563
0.909712
-2.2566
2.40967
-7.68168
-3.24495
5.3253
0.935777
-5.0038
7.42766
-0.13783
1.31902
0.235878
3.86367
2.45449
-9.12653
2.21427
-4.5144
-1.67847
0.935777
-0.877491
1.30255
-0.785961
1.31902
-5.0005
7.42277
-0.137921
1.31902
3.32608
0.73378
0.174067
0.229089
-0.174435
3.42228
-3.31907
11.7156
-3.30401
4.90449
-0.208738
1.31902
4.43669
0.292127
0.130494
0.318695
1.26744
17.0882
0.456795
-7.44898
8.83572
0.836764
0.0655251
0.301987
-7.19312
-8.76196
4.43442
0.935777
9.43252
1.26201
0.0613793
0.279355
4.02639
0.432479
0.143792
0.294629
-5.49478
-9.92126
-0.153317
0.935777
0.248072
3.07153
2.33384
-6.81166
0.100134
1.27067
5.78187
-6.99003
-0.0586028
-7.07762
0.0882672
0.935777
4.65846
0.758008
0.124282
0.26261
-1.38666
2.05837
-0.497362
1.31902
-5.74217
-9.51361
0.884803
0.935777
0.874347
-1.80046
-4.21725
0.935777
10.4281
2.57035
0.0555194
0.214112
-0.201527
2.52594
-2.87287
7.6135
-3.00401
4.45917
-0.229584
1.31902
0.211514
1.41893
2.73723
-3.52712
-3.98928
5.92171
-0.172882
1.31902
0.17665
2.11884
3.27745
-6.58757
-3.53893
5.25321
-0.194882
1.31902
0.118637
2.73873
4.88013
-13.0085
-0.997496
-2.27083
-4.34118
0.935777
-5.11265
-8.19089
9.7253
0.935777
-4.51735
6.70558
-0.152672
1.31902
-3.44689
5.11658
-0.200086
1.31902
-4.37372
6.49237
-0.157686
1.31902
-2.26886
3.36791
-0.303973
1.31902
-2.68179
3.98086
-0.257169
1.31902
-5.53233
8.21222
-0.124662
1.31902
7.6217
0.0517619
0.0759622
0.352884
-0.000382976
-1.43613
-9.7482
0.935777
-0.316926
0.867879
-1.8268
1.94226
1.72764
-7.15738
5.293
0.935777
2.26923
-4.6013
-3.12068
0.935777
-5.24112
-3.59386
-5.07788
0.935777
-1.11771
1.65914
-0.617039
1.31902
-0.604231
0.896923
-1.14141
1.31902
-0.128043
3.35803
-4.52163
15.5406
0.837689
8.83595
0.691141
-5.75007
-0.407699
5.22255
-1.42007
7.77321
0.0837297
4.41882
6.91465
-30.1977
-2.33031
-0.605958
1.93973
0.935777
-0.603259
0.89548
-1.14325
1.31902
-9.88737
-0.520763
4.91084
0.935777
9.6005
0.812469
0.0603053
0.30782
-5.20458
-6.03919
-5.68205
0.935777
-9.63685
-3.82981
1.30676
0.935777
-0.482986
3.07144
-1.19871
4.03858
0.0963993
4.46583
6.00586
-26.4644
-3.6916
5.47983
-0.186822
1.31902
-4.40613
6.54049
-0.156526
1.31902
4.33384
9.32756
0.133591
-0.88926
3.86829
0.901081
0.149669
0.221953
7.53054
1.63558
0.0768817
0.23107
-0.560223
0.831598
-1.23107
1.31902
0.762667
2.26303
0.759127
-1.36111
-1.52199
2.25926
-0.453138
1.31902
-1.50765
2.23796
-0.45745
1.31902
4.86356
-9.87832
-2.10836
0.935777
-2.66857
-4.1821
2.98283
0.935777
6.23185
-12.4668
-0.654155
0.935777
-5.97402
-7.16126
0.80429
0.935777
3.38343
-8.87948
4.54327
0.935777
-0.645062
0.957534
-1.06916
1.31902
0.239308
7.14142
2.41931
-16.9205
-2.59756
3.85583
-0.265508
1.31902
0.251774
6.22077
2.29953
-13.948
-4.84352
-1.77564
-2.94432
0.935777
-0.125161
3.11157
-4.62575
14.7502
0.308765
3.25798
1.87509
-5.75218
1.08038
-2.46684
-0.796008
0.935777
0.361363
-0.85503
-0.788314
0.935777
9.15061
2.44187
0.0632702
0.202318
-0.870937
1.29282
-0.791875
1.31902
0.357947
5.17967
1.61745
-8.02105
-4.30673
6.39293
-0.160139
1.31902
6.0979
-12.4329
-0.760233
0.935777
-5.33462
7.91875
-0.129282
1.31902
-6.54612
-4.8288
1.19751
0.935777
1.87424
-3.8553
-0.669996
0.935777
-0.109176
3.03516
-5.303
16.4523
-2.3601
3.50334
-0.292222
1.31902
4.15022
-8.38637
-0.346005
0.935777
2.1082
-8.12086
-7.59184
0.935777
-0.651988
2.0992
-0.887993
2.22089
0.744856
-9.09801
-1.07083
0.935777
0.0911881
1.93107
6.34909
-11.9037
-1.05815
-6.65102
5.09773
0.935777
-3.28352
-5.87016
-6.40728
0.935777
-4.13313
6.13524
-0.166865
1.31902
2.1094
-4.29461
-1.99692
0.935777
-3.34099
-8.58096
-7.08406
0.935777
0.166275
0.821993
3.48195
-2.50532
0.281808
2.75158
2.05445
-5.29618
2.2782
-4.63869
-4.02669
0.935777
3.44944
-7.00376
0.184713
0.935777
8.56738
1.49964
0.0675774
0.255475
-9.10625
-5.80164
6.76172
0.935777
5.71544
0.716507
0.101298
0.284236
0.186793
3.28184
3.09948
-9.8152
-1.50837
2.23904
-0.45723
1.31902
-1.13003
1.67742
-0.610314
1.31902
-4.19065
6.22062
-0.164574
1.31902
-0.314192
2.99529
-1.8427
5.87623
-1.8101
2.68692
-0.381014
1.31902
-4.48613
-4.24838
-2.93159
0.935777
-3.89668
-7.60208
-9.35894
0.935777
-5.11056
-6.9446
-6.84856
0.935777
0.172022
-9.78801
2.4856
0.935777
-0.152836
2.60866
-3.78812
10.2387
3.47507
-7.17543
-0.83997
0.935777
-5.76409
8.55625
-0.11965
1.31902
-0.257067
0.398828
-2.58622
1.33881
1.55167
-6.98347
-7.47419
0.935777
4.63431
0.245902
0.124929
0.326096
1.31373
5.0624
0.440701
-1.87419
-0.566435
0.840819
-1.21757
1.31902
0.0854082
3.68285
6.77875
-24.6083
0.266666
-9.47417
-1.2841
0.935777
0.142349
3.61859
4.06718
-14.3606
0.0910655
3.58328
6.35764
-22.4244
-0.129012
4.58192
-4.48765
20.9189
-3.08937
-9.51388
2.42623
0.935777
-4.452
-0.847147
-1.10001
0.935777
-0.364719
4.97203
-1.58742
8.2495
0.985912
7.86651
0.587234
-4.26267
0.120416
3.39028
4.808
-15.9436
-0.71107
1.05552
-0.969909
1.31902
-0.434674
-6.42979
-9.63779
0.935777
-2.45611
-6.51329
7.50668
0.935777
-1.47232
2.18553
-0.468425
1.31902
0.148179
3.34919
3.90718
-12.7291
-0.527303
-0.344189
-0.0814098
0.935777
0.140311
0.454383
4.12626
-1.51809
-0.682742
2.50369
-0.847994
2.47993
-1.81351
2.69198
-0.380298
1.31902
-8.4606
-8.74511
-9.96714
0.935777
-7.0316
-5.95819
-1.12812
0.935777
-7.32555
-6.48854
-7.02336
0.935777
0.106559
5.26815
5.43323
-28.2663
2.05758
-4.21938
-2.13552
0.935777
0.632471
9.60312
0.915396
-8.43384
8.88577
3.01785
0.065156
0.160185
-5.92134
8.78967
-0.116472
1.31902
6.74581
0.679365
0.0858253
0.298509
1.61788
0.0373821
0.357852
0.343439
-0.106867
2.15085
-5.41759
12.0092
-2.54732
5.21404
-0.227283
1.54188
-0.103693
4.99337
-5.58342
28.2369
7.6672
1.30862
0.0755114
0.258
-3.62397
-4.70741
-1.15522
0.935777
-1.62357
2.41004
-0.424788
1.31902
0.251845
4.40735
2.29888
-9.77516
0.276145
-4.36618
0.314102
0.935777
-2.48679
3.6914
-0.277335
1.31902
-1.27445
1.89181
-0.541152
1.31902
-0.796039
1.18164
-0.866381
1.31902
-0.0988801
2.47267
-5.85518
14.8347
-4.99301
7.41165
-0.138128
1.31902
8.08561
1.47577
0.0716039
0.251145
6.76301
0.859012
0.085607
0.283279
3.11511
-9.71592
8.19552
0.935777
0.109847
2.80761
5.27062
-14.441
-2.57152
3.81718
-0.268197
1.31902
-1.41841
-2.0677
-4.00778
0.935777
-9.67834
-3.7797
5.75231
0.935777
-0.229813
3.93538
-2.51927
10.2711
3.79007
18.6113
0.152757
-2.48619
5.98359
-12.0174
-1.35319
0.935777
-2.23573
-4.46697
5.93039
0.935777
0.184758
5.40838
3.13362
-16.591
3.9991
0.939723
0.144773
0.22077
-3.65237
5.4216
-0.188829
1.31902
-1.10252
-4.28137
-1.73526
0.935777
-0.45262
7.38407
-1.27913
9.80203
2.52169
0.905723
0.229592
0.148869
-0.115214
1.89525
-5.0251
9.88063
-0.114155
3.29909
-5.07171
17.0888
-0.303923
0.451144
-2.26924
1.31902
4.35367
-8.83601
-1.73247
0.935777
3.72434
1.01998
0.155453
0.198257
-7.58503
-1.84775
7.26925
0.935777
-2.03202
3.01634
-0.339402
1.31902
1.05643
3.28016
0.548033
-1.44082
-4.97872
7.39045
-0.138524
1.31902
0.326591
-7.55475
-7.24591
0.935777
-1.91202
2.83821
-0.360704
1.31902
-3.08024
4.57232
-0.223903
1.31902
-9.54211
-2.64877
1.48218
0.935777
10.9674
1.0131
0.0527894
0.303335
6.83285
1.00354
0.0847321
0.271785
-0.135428
2.47135
-4.27505
10.922
8.93857
0.780725
0.0647711
0.306248
-5.21111
7.73541
-0.132347
1.31902
-8.27082
-9.25753
-0.0501689
0.935777
9.14443
1.04651
0.063313
0.290559
-1.385
2.0559
-0.497958
1.31902
-0.50091
0.743553
-1.37684
1.31902
7.2332
0.355758
0.0800422
0.328341
-4.89555
7.26698
-0.140878
1.31902
-0.0154691
-2.36214
9.96769
0.935777
-9.47835
-4.53827
6.14168
0.935777
0.380833
5.00408
1.52025
-7.25063
-5.30534
-7.14536
-5.92116
0.935777
-1.91726
2.84599
-0.359718
1.31902
7.37485
5.23136
0.0785048
-0.0538707
2.72302
-8.81117
-3.58215
0.935777
0.41225
2.83558
1.40439
-3.62545
-0.350729
2.70622
-1.65074
4.82408
-0.0873089
3.05671
-6.63118
20.6264
-2.5815
3.832
-0.26716
1.31902
10.5485
2.78429
0.0548855
0.203999
0.195932
0.131047
2.9549
-0.0304152
0.328378
2.34673
1.7631
-3.78069
-0.192247
1.70104
-3.01154
5.47958
-0.767409
9.25964
-0.754436
7.34262
0.773115
-4.4214
4.85844
0.935777
-4.15766
-2.63324
-8.51031
0.935777
4.37608
1.15791
0.132301
0.203623
-0.113799
5.30382
-5.08758
27.3404
4.83034
0.407301
0.119859
0.307997
-0.96543
6.45215
-0.599693
4.22612
-8.10885
-6.88749
-1.95443
0.935777
0.605471
8.23836
0.956215
-7.52083
0.312491
0.606744
1.85273
-0.767314
-0.814711
-4.78863
2.42399
0.935777
0.146251
0.0366932
3.95868
0.21156
7.94267
1.4368
0.0728925
0.252084
-0.144254
3.81072
-4.01349
15.6511
-3.4134
-0.961988
-2.4982
0.935777
-1.88847
2.80325
-0.365203
1.31902
0.284729
0.736158
2.03338
-1.14007
-2.46875
-6.12357
-3.53613
0.935777
-0.130236
0.979167
-4.44546
4.70967
-0.237906
-9.8495
-3.4695
0.935777
0.894375
-1.80322
-2.47922
0.935777
-2.87339
4.26528
-0.240021
1.31902
-1.87059
2.77671
-0.368693
1.31902
0.885947
0.134618
0.653494
0.268844
6.87903
0.380129
0.0841632
0.324823
-4.22575
6.27273
-0.163207
1.31902
-4.17521
6.19771
-0.165183
1.31902
6.35663
1.98244
0.0910799
0.176256
-1.95371
2.9001
-0.353007
1.31902
-4.28143
6.35537
-0.161085
1.31902
-2.33319
3.46341
-0.295592
1.31902
-2.39471
3.55473
-0.287998
1.31902
-5.12241
7.60374
-0.134638
1.31902
1.44593
12.1009
0.400407
-4.48847
-0.150606
6.26285
-3.84422
24.4326
-3.88433
5.76592
-0.177553
1.31902
0.624961
8.90458
0.926396
-7.89235
-0.103063
3.83018
-5.61753
21.8729
1.75509
-6.81843
1.87884
0.935777
-1.78447
8.72829
-0.324443
3.18865
-2.37494
3.52538
-0.290395
1.31902
-2.36637
3.51265
-0.291448
1.31902
-0.149228
3.93759
-3.8797
15.6335
7.53741
0.933888
0.0768116
0.285083
-1.94535
2.88769
-0.354524
1.31902
-1.2636
1.87569
-0.545801
1.31902
0.138638
2.68533
4.17605
-10.8573
-5.37483
-9.23638
7.2331
0.935777
2.90122
0.0425549
0.199558
0.348324
-5.72328
-8.35189
-4.2098
0.935777
3.66586
-7.43399
0.27642
0.935777
-0.14243
6.25157
-4.06489
25.7688
5.82263
-11.736
-1.04204
0.935777
9.67867
1.28265
0.0598182
0.280091
7.41936
0.123265
0.0780339
0.347197
-0.0933763
3.81916
-6.2003
24.0368
-4.23305
-2.17381
0.927614
0.935777
-1.36767
7.58189
-0.423319
3.56638
7.98358
0.530136
0.072519
0.318371
-2.15608
27.3327
-0.268525
7.69633
-1.11859
1.66044
-0.616555
1.31902
-1.13744
1.68842
-0.606339
1.31902
6.12084
1.84129
0.0945885
0.182651
-5.28049
-0.432286
1.21287
0.935777
-5.84439
8.67545
-0.118006
1.31902
-0.0521386
-6.64634
-7.3138
0.935777
-0.135935
5.65889
-4.25912
24.4587
-7.59193
-9.2739
-3.18504
0.935777
0.195492
3.17381
2.96156
-9.04261
0.249282
2.75382
2.32252
-6.03897
-4.89057
7.25959
-0.141021
1.31902
2.79921
-7.42372
-1.07678
0.935777
-0.387567
-2.45169
-6.17854
0.935777
3.47024
0.332688
0.166836
0.301312
-9.80739
-5.19235
-4.84843
0.935777
4.36226
0.36821
0.13272
0.307947
-1.46399
2.17316
-0.47109
1.31902
-3.86004
5.72987
-0.17867
1.31902
0.203091
-5.1075
8.10644
0.935777
-9.47496
-0.0054096
-0.199501
0.935777
-3.58746
5.32525
-0.192245
1.31902
-0.162232
1.65854
-3.56873
6.2757
0.126884
4.0709
4.56293
-18.2184
2.28611
0.858995
0.253252
0.139274
6.22024
2.13382
0.0930771
0.158206
-0.351979
0.546079
-1.88884
1.33881
-0.543911
0.807385
-1.26799
1.31902
-5.41761
-4.72083
-5.11423
0.935777
-5.41576
8.03918
-0.127346
1.31902
7.71713
0.0207243
0.0750228
0.355261
4.3368
0.484555
0.1335
0.292128
-0.0832592
4.5785
-6.95372
32.1944
-1.11417
1.65388
-0.619001
1.31902
6.75763
-13.7584
-0.63379
0.935777
-2.22181
3.29806
-0.310411
1.31902
2.74402
-5.5905
-3.77642
0.935777
0.474247
0.715136
1.2208
-0.516222
0.153066
3.00833
3.78243
-11.022
0.875493
-8.95711
-2.18665
0.935777
10.8259
1.75072
0.0534794
0.263189
-1.98409
2.94519
-0.347602
1.31902
-5.00771
7.43348
-0.137722
1.31902
0.306868
0.459026
1.88668
-0.509219
-1.44098
-4.97544
-4.02224
0.935777
-0.421634
-2.42522
-2.30736
0.935777
10.7484
1.68461
0.0538646
0.266075
-4.12791
6.12749
-0.167076
1.31902
-0.430599
0.668054
-1.54397
1.33881
0.415959
0.170816
1.39187
0.119062
-0.859944
1.27651
-0.801998
1.31902
-0.887437
1.31732
-0.777152
1.31902
4.17175
0.727251
0.138781
0.255887
0.603229
0.271826
0.95977
0.0959258
10.0769
0.656144
0.0574541
0.319118
0.627188
4.83126
0.923106
-4.10295
5.07233
-10.2055
-2.63064
0.935777
-1.51146
2.24362
-0.456297
1.31902
6.20464
0.125932
0.0933109
0.345065
1.40872
-2.89611
-1.14294
0.935777
-3.11052
4.61728
-0.221722
1.31902
0.167248
-4.99971
0.0681995
0.935777
-1.13724
1.68813
-0.606443
1.31902
-4.35802
6.46907
-0.158254
1.31902
-3.07616
4.56628
-0.224199
1.31902
-4.72739
-6.96399
-2.78338
0.935777
-0.425521
-8.95519
0.635315
0.935777
8.06062
2.03768
0.0718259
0.210458
8.22584
0.431285
0.0703832
0.326461
-3.42853
5.08932
-0.201157
1.31902
-3.55924
-0.706505
-1.48459
0.935777
-1.00576
-6.67931
1.34804
0.935777
0.495991
4.21474
1.16728
-4.56298
-4.6178
6.85469
-0.149351
1.31902
-0.400619
0.594681
-1.72152
1.31902
1.2849
-5.07705
-8.45405
0.935777
3.15665
-6.32283
-4.69299
0.935777
-1.30432
1.93614
-0.528761
1.31902
0.773077
3.32731
0.748905
-2.13503
-0.695998
-1.27825
7.23616
0.935777
-0.0550511
-9.97242
4.43163
0.935777
-9.84218
-0.943532
4.17228
0.935777
4.09375
0.256044
0.141426
0.320605
7.06209
0.854236
0.0819815
0.286785
2.79039
-5.62981
-1.80202
0.935777
1.66574
-3.3535
0.171737
0.935777
4.09869
-8.47288
-0.81878
0.935777
-2.46489
3.6589
-0.279798
1.31902
-3.19725
4.74601
-0.215708
1.31902
-1.06939
1.58741
-0.64492
1.31902
-0.630161
3.00376
-0.918752
3.11653
0.308584
5.36604
1.87619
-9.71088
0.22206
2.48017
2.60723
-6.10956
0.155943
2.59466
3.71265
-9.27622
-3.3517
-6.83106
5.62424
0.935777
-0.269682
3.96522
-2.14683
8.86946
-0.156736
5.5115
-3.69386
20.7156
0.135875
3.63821
4.26098
-15.1455
-4.93078
7.64989
-0.134833
1.33881
-1.08709
-4.82728
1.04572
0.935777
-7.02601
-2.50898
-5.85901
0.935777
9.43831
2.27484
0.0613416
0.217274
-2.49783
3.70779
-0.276109
1.31902
9.64759
0.872149
0.0600109
0.304478
-7.41956
-5.19416
-1.00848
0.935777
-2.9172
4.33031
-0.236416
1.31902
-2.8461
4.41559
-0.233594
1.33881
-4.22612
6.27327
-0.163193
1.31902
-1.78221
2.64552
-0.386976
1.31902
4.34304
0.523669
0.133308
0.287007
-8.01984
0.249666
-3.84423
0.959772
5.69714
0.283539
0.101623
0.328002
-0.787743
-5.6203
8.57536
0.935777
0.599388
3.76432
0.965921
-3.27922
-5.33289
7.91617
-0.129324
1.31902
-0.269838
5.21113
-2.14559
11.5378
5.15212
0.946804
0.112373
0.250421
2.12009
-4.30008
-1.23567
0.935777
0.549506
2.00751
1.0536
-1.7583
0.20025
-2.24412
5.04551
0.935777
-0.138401
3.3972
-4.1832
14.568
0.401436
-3.3554
4.6758
0.935777
-0.221401
3.9363
-2.61499
10.6502
-0.429755
0.637931
-1.60481
1.31902
0.437567
0.0971869
1.32314
0.228225
6.94988
0.585935
0.0833053
0.308005
-0.0887647
2.4528
-6.52243
16.355
5.81542
1.50117
0.0995563
0.207365
-0.0819002
5.70563
-7.06911
40.6905
-0.408289
0.606066
-1.68918
1.31902
0.309403
-0.677121
-3.01459
0.935777
7.12584
1.13561
0.0812481
0.26455
-0.1266
-5.35614
-1.63703
0.935777
-0.101155
2.43747
-5.7235
14.3077
-2.31484
3.43616
-0.297936
1.31902
0.169943
2.62204
3.40681
-8.57596
-0.472211
-4.17171
2.45886
0.935777
6.8864
1.11714
0.0840732
0.262895
-7.15187
-1.35763
2.7216
0.935777
-0.889047
7.04504
-0.651215
4.94465
5.0413
-10.1328
-2.52899
0.935777
-2.52622
-5.75189
9.48069
0.935777
-0.0955813
5.27995
-6.05727
32.3389
-2.5839
3.83556
-0.266912
1.31902
-0.264731
3.3881
-2.18698
7.76651
-2.84197
4.21864
-0.242674
1.31902
-3.50458
5.20222
-0.196792
1.31902
0.708616
0.0201088
0.817031
0.340387
11.2351
2.70716
0.0515313
0.217313
-2.53349
3.76073
-0.272222
1.31902
-3.42549
5.08481
-0.201336
1.31902
-3.06451
4.54897
-0.225052
1.31902
-3.67843
5.46028
-0.187491
1.31902
-0.231699
4.82772
-2.49877
12.4202
0.144869
2.12793
3.99643
-8.1473
5.42309
1.02173
0.106758
0.247738
-2.72067
-1.01788
4.60441
0.935777
5.28055
0.160722
0.10964
0.339195
-5.38789
7.99781
-0.128004
1.31902
-2.24678
7.04301
-0.257685
2.17169
-2.46598
5.99075
-0.234779
1.76332
-4.32559
-4.83002
-2.14525
0.935777
-0.106464
5.12907
-5.43811
28.2493
0.352222
4.32528
1.64374
-6.75282
-0.650477
0.965572
-1.06026
1.31902
-0.935132
1.38812
-0.737514
1.31902
0.408755
-3.7873
-4.92289
0.935777
-1.81704
2.69722
-0.379559
1.31902
-4.18105
6.20638
-0.164952
1.31902
4.4535
2.30955
0.130001
0.056572
0.253017
3.09119
2.28823
-6.71655
-0.165004
6.20005
-3.50877
22.1113
-0.982851
1.45895
-0.701707
1.31902
8.72621
2.14306
0.0663474
0.21463
-1.6452
2.44215
-0.419203
1.31902
0.609972
-1.35719
-2.10522
0.935777
-1.71225
2.54168
-0.402787
1.31902
-1.35293
-9.34809
-9.24929
0.935777
-3.40841
5.05947
-0.202344
1.31902
-3.21874
33.0977
-0.179872
6.31016
3.32667
0.931521
0.174036
0.194698
-1.39834
2.07571
-0.493207
1.31902
0.380726
5.12904
1.52068
-7.44279
-3.47961
5.16516
-0.198204
1.31902
-4.5672
-2.48436
3.45673
0.935777
-3.98341
5.913
-0.173136
1.31902
-2.67946
4.0676
-0.25263
1.32897
-1.45999
2.16721
-0.472383
1.31902
-0.0856236
5.37174
-6.7617
36.6789
3.00235
0.812704
0.192836
0.200097
-4.8956
7.26706
-0.140876
1.31902
8.84035
1.41224
0.0654908
0.264327
0.117458
3.51641
4.92907
-16.9758
8.51098
1.64723
0.0680252
0.244763
-3.03931
4.51158
-0.226917
1.31902
-1.79517
2.66476
-0.384183
1.31902
-0.83025
1.23243
-0.830682
1.31902
-5.53662
8.2186
-0.124566
1.31902
0.173422
3.63913
3.33844
-11.7922
6.7746
1.9631
0.0854606
0.189049
-4.21502
6.2568
-0.163623
1.31902
-2.13955
-4.69292
-5.36505
0.935777
-7.84934
-5.98043
1.89099
0.935777
2.91147
-5.95155
1.80535
0.935777
-4.96074
-3.25259
-3.19579
0.935777
-1.9133
-3.87039
9.97637
0.935777
-0.105386
3.42721
-5.49373
19.185
-4.39423
6.52283
-0.15695
1.31902
-2.81935
8.83861
-0.205353
2.17185
0.659913
-4.19417
3.23101
0.935777
-0.839816
-0.0709899
1.45997
0.935777
0.247513
3.7876
2.33911
-8.50281
-0.144234
4.35914
-4.01403
17.8546
-3.84964
5.71443
-0.179153
1.31902
0.390809
1.26278
1.48144
-1.51393
-7.9278
-6.36598
-6.00936
0.935777
-0.379915
2.91652
-1.52392
4.80136
6.66754
0.253195
0.0868328
0.334831
5.80148
8.61055
0.0997954
-0.502477
0.0944325
2.14283
6.13095
-12.7808
2.81405
-6.33418
-0.954754
0.935777
-0.557674
-6.34748
1.31242
0.935777
-8.66084
-0.334232
9.84592
0.935777
-0.148602
1.44871
-3.89605
6.00109
2.76871
0.248036
0.209109
0.30495
-1.52442
-4.46221
-5.70499
0.935777
0.352986
5.0038
1.64018
-7.85033
2.30675
0.261151
0.250986
0.291271
-5.29338
7.85752
-0.13029
1.31902
1.00903
10.4485
0.573781
-5.63835
0.498369
-1.0333
-3.49535
0.935777
-4.96336
7.36764
-0.138953
1.31902
-1.64129
2.43634
-0.420203
1.31902
0.245817
5.58425
2.35525
-12.7955
0.689273
1.77529
0.839959
-1.13436
-0.980218
1.45504
-0.703592
1.31902
-0.806414
1.19704
-0.855235
1.31902
-1.05367
1.56408
-0.654542
1.31902
-0.875051
5.24079
-0.661632
3.82429
-4.84934
7.19838
-0.14222
1.31902
7.18368
1.96522
0.0805939
0.198431
4.4566
-8.96766
-1.45378
0.935777
-4.18628
6.21414
-0.164746
1.31902
-3.32788
4.93992
-0.207241
1.31902
0.119003
3.85209
4.86509
-18.3839
-5.93909
-2.68458
-0.610009
0.935777
0.12793
1.85349
4.5256
-8.03133
-0.15601
4.70161
-3.71106
17.8047
-0.124602
1.32284
-4.64649
6.50338
-5.964
-7.25286
5.58215
0.935777
0.233786
5.38172
2.47646
-12.9708
0.19639
5.79039
2.94802
-16.7134
-4.99203
-6.89672
-2.90862
0.935777
-0.712866
1.05818
-0.967465
1.31902
-4.35902
-1.20438
-1.32121
0.935777
-7.57301
-6.65604
-7.57704
0.935777
0.134331
4.81298
4.30997
-20.387
-4.75511
7.05851
-0.145038
1.31902
0.224515
2.45955
2.57872
-5.98569
-5.3067
7.87729
-0.129963
1.31902
0.100746
2.71584
5.74672
-15.2504
0.133571
-9.19995
7.20174
0.935777
4.92196
0.291348
0.117628
0.322545
0.254888
4.2206
2.27143
-9.22999
-0.704773
-5.73851
6.06659
0.935777
-2.75342
4.08719
-0.250479
1.31902
-0.286003
0.921138
-2.02432
2.22149
8.14523
1.447
0.0710798
0.253964
-0.417797
0.62018
-1.65074
1.31902
-4.91364
7.29384
-0.140359
1.31902
6.10966
1.69408
0.0947616
0.196283
0.287446
0.163667
2.01416
0.0271655
-1.36214
2.02196
-0.506317
1.31902
1.98432
9.39946
0.291769
-2.38565
-6.63094
-6.12855
3.02896
0.935777
-3.95725
5.87416
-0.174281
1.31902
7.94833
0.35358
0.0728406
0.331061
2.91385
-5.93776
-3.21452
0.935777
-1.00347
1.48955
-0.68729
1.31902
-2.6142
-0.218811
-7.20934
0.935777
-4.04202
-1.72466
5.90996
0.935777
-0.647035
0.960462
-1.0659
1.31902
-5.2896
7.85192
-0.130383
1.31902
9.61061
2.09189
0.0602419
0.230797
1.06526
-9.51816
-3.81878
0.935777
-0.400919
5.31261
-1.44409
8.02869
-1.70322
-9.82854
2.19639
0.935777
-1.98424
4.08152
-0.291779
1.54772
0.387516
2.6369
1.49403
-3.5828
0.138741
0.786668
4.17298
-2.92593
7.02713
1.61591
0.0823894
0.223682
1.4936
-4.63619
-0.862076
0.935777
-6.13653
-2.30867
-9.18697
0.935777
-0.355127
4.58235
-1.63029
7.82739
5.94762
0.364463
0.0973433
0.321338
0.557964
0.387095
1.03763
-0.0448453
-5.22522
7.75634
-0.131989
1.31902
0.558766
0.951886
1.03614
-0.629473
-0.228887
2.39917
-2.52946
6.42541
-2.34432
-5.12026
4.44803
0.935777
-2.84824
-2.05835
-6.30545
0.935777
-0.204875
3.9061
-2.82593
11.3952
4.00675
-8.11444
-2.10628
0.935777
3.10595
0.145278
0.186404
0.329736
-5.98453
8.88347
-0.115243
1.31902
2.97808
0.839181
0.194408
0.193673
-2.6762
-1.6162
-3.7993
0.935777
2.67095
-5.41241
-3.24249
0.935777
5.18612
-10.3819
-1.19237
0.935777
-0.343944
1.23714
-1.6833
2.4393
-0.212989
0.859328
-2.71827
2.6927
-0.159375
5.49395
-3.63269
20.3146
-1.57121
2.33231
-0.438945
1.31902
0.273734
4.26458
2.11505
-8.66297
-1.09681
1.62812
-0.628797
1.31902
-0.256756
1.90371
-2.25491
4.64952
-0.439809
5.12061
-1.31639
7.09755
0.105465
2.68344
5.48962
-14.3742
0.908876
11.7786
0.637008
-7.14624
1.61226
-8.3726
-8.26381
0.935777
-1.3065
9.38684
-0.44314
4.5165
5.50455
-11.0238
-2.14085
0.935777
0.28367
1.30061
2.04097
-2.29769
-1.51731
-6.70419
-8.40064
0.935777
4.6643
0.146601
0.124126
0.338619
-2.97497
4.41606
-0.231825
1.31902
-2.4537
3.64229
-0.281075
1.31902
-2.79159
4.14385
-0.247054
1.31902
-3.28217
4.87207
-0.210127
1.31902
-1.51432
2.24787
-0.455433
1.31902
3.3156
-6.78
-1.74778
0.935777
-1.73694
2.57832
-0.397062
1.31902
0.106803
0.620938
5.42086
-3.0092
-1.59302
2.36469
-0.432934
1.31902
0.329531
5.83254
1.75692
-9.89051
-3.34386
-5.94039
-4.1001
0.935777
3.9845
1.17915
0.145303
0.185482
8.4679
1.23993
0.0683712
0.27204
1.89064
-3.80055
-1.22608
0.935777
0.775328
0.175951
0.74673
0.225429
-3.93426
5.84003
-0.175299
1.31902
-4.84398
-0.828865
5.45941
0.935777
-4.09349
6.07639
-0.168481
1.31902
-0.148341
0.220199
-4.64923
1.31902
-1.52992
2.27102
-0.45079
1.31902
0.230471
6.49856
2.51208
-15.9681
-2.54979
3.78492
-0.270482
1.31902
-1.20224
2.77194
-0.481568
1.69169
-3.06218
-5.60924
9.51176
0.935777
0.588545
7.39605
0.983715
-6.91879
-7.46322
-1.64253
8.3363
0.935777
2.89929
-5.87053
-2.88006
0.935777
-3.34416
4.96409
-0.206232
1.31902
-4.24687
6.30408
-0.162396
1.31902
-1.1258
-6.51528
2.96334
0.935777
-3.6308
5.38958
-0.189951
1.31902
-1.61783
2.40152
-0.426295
1.31902
8.7472
0.802516
0.0661882
0.303699
4.90339
0.153476
0.118074
0.338695
0.0969304
1.13994
5.97296
-6.452
-1.34026
1.98949
-0.51458
1.31902
-0.08381
5.90284
-6.90802
41.1338
0.110315
3.73067
5.24825
-19.2227
2.94987
1.50123
0.196267
0.0621744
5.84686
1.62287
0.0990209
0.196118
-1.02217
1.51732
-0.674714
1.31902
-5.41215
8.03383
-0.12743
1.31902
-0.113954
5.12345
-5.08064
26.3872
0.193736
1.59112
2.98841
-4.39809
-0.618805
3.36013
-0.935611
3.50059
-3.84013
5.70031
-0.179596
1.31902
3.89672
0.764232
0.148576
0.243269
-0.329571
6.61035
-1.75671
11.9693
-2.65044
3.93433
-0.26021
1.31902
1.71763
-3.5358
-2.58167
0.935777
-5.24989
7.79297
-0.131369
1.31902
0.141692
1.82277
4.08605
-7.09111
5.88309
0.584481
0.0984111
0.299297
-1.76044
2.61321
-0.391762
1.31902
-0.135451
1.28032
-4.27433
5.82934
-5.39938
8.01488
-0.127732
1.31902
-5.87469
8.72042
-0.117397
1.31902
-4.78308
-9.45726
2.86572
0.935777
-3.45768
-0.236749
-5.2433
0.935777
-0.782861
1.16208
-0.880965
1.31902
-2.38604
3.54185
-0.289045
1.31902
-0.600196
2.02398
-0.964619
2.30918
-1.01783
1.51087
-0.677594
1.31902
-0.765581
1.13643
-0.900849
1.31902
-1.19541
1.77448
-0.576933
1.31902
-0.124873
6.45658
-4.63639
30.292
-1.02637
1.52355
-0.671952
1.31902
0.381075
3.95915
1.51929
-5.65826
-2.87394
-7.09134
1.29175
0.935777
-1.78939
2.77615
-0.371542
1.33881
0.582525
5.68946
0.993882
-5.29783
9.44407
2.48352
0.0613042
0.204566
5.31463
0.256416
0.108937
0.328883
-1.41815
2.10511
-0.486318
1.31902
-0.782581
1.16167
-0.88128
1.31902
-1.58725
2.35612
-0.43451
1.31902
-0.506779
0.752266
-1.36089
1.31902
-1.83035
2.71698
-0.376799
1.31902
-2.85582
-1.4661
8.19476
0.935777
6.4351
0.20931
0.0899693
0.337985
-5.40826
8.02805
-0.127522
1.31902
0.181577
3.02932
3.18851
-9.3022
-0.206798
2.24665
-2.79964
6.64664
9.42018
1.53263
0.0614596
0.262622
11.2383
3.57042
0.0515167
0.17288
-0.983705
-6.32645
8.8934
0.935777
0.090927
0.766914
6.36732
-4.52637
-1.5518
2.3035
-0.444434
1.31902
0.566839
8.64717
1.02139
-8.47528
-0.800924
8.88179
-0.722866
6.77716
-1.16279
3.78565
-0.497907
2.24172
-0.906666
6.15265
-0.638561
4.28566
2.9032
0.280544
0.199422
0.30087
-3.09827
4.59909
-0.222599
1.31902
1.28852
-2.62697
-3.94241
0.935777
-8.72849
-1.09747
-4.32173
0.935777
-1.79796
2.6689
-0.383587
1.31902
3.79131
-7.73563
-1.07556
0.935777
-0.0984275
4.37456
-5.88211
26.0885
-6.08043
9.02582
-0.113425
1.31902
-1.51206
-3.08177
2.36377
0.935777
-3.80886
5.90927
-0.174549
1.33881
-4.7345
-6.38616
6.20981
0.935777
0.515932
5.0582
1.12217
-5.31933
-0.748672
-5.94463
7.95659
0.935777
0.151545
2.37651
3.8204
-8.72239
0.112918
-1.71447
9.556
0.935777
2.21947
0.244114
0.260855
0.293138
-6.7992
-1.38336
6.73782
0.935777
-0.619318
0.919319
-1.1136
1.31902
-2.22162
3.29779
-0.310437
1.31902
-1.83102
2.71797
-0.376661
1.31902
-5.94933
-7.5794
-3.48587
0.935777
-4.44023
6.5911
-0.155324
1.31902
-0.64395
2.60173
-0.899078
2.69597
-0.133832
1.37563
-4.32603
6.30785
-1.61507
2.39742
-0.427023
1.31902
6.29917
1.62891
0.0919107
0.207102
-0.616838
0.915638
-1.11808
1.31902
-2.3787
3.53096
-0.289937
1.31902
-1.42018
2.10813
-0.485623
1.31902
-2.34002
-8.74347
-0.687388
0.935777
-5.03918
-2.13249
6.53255
0.935777
-7.96592
-0.647009
-9.86667
0.935777
-4.74285
7.04031
-0.145413
1.31902
-4.66452
6.92404
-0.147855
1.31902
-9.54201
-2.6273
1.10967
0.935777
-5.6553
8.39477
-0.121952
1.31902
0.550398
8.68707
1.0519
-8.78108
-1.85058
3.81365
-0.312854
1.54993
5.79584
0.321328
0.0998926
0.324718
-4.85881
7.21245
-0.141943
1.31902
3.99619
-8.08973
-0.554845
0.935777
-3.6451
-5.91355
5.63401
0.935777
0.126305
1.1007
4.58382
-4.68861
0.620093
0.579925
0.933669
-0.184642
0.123622
4.73404
4.68331
-21.8141
-0.0916798
4.32259
-6.31503
27.6541
-6.05977
8.99515
-0.113812
1.31902
0.433987
1.70428
1.33405
-1.91678
-0.0371926
-4.31933
6.75479
0.935777
-3.48929
5.17952
-0.197654
1.31902
-3.09074
-4.49973
5.8505
0.935777
0.21998
1.54016
2.63189
-3.6967
-1.22831
1.82332
-0.56148
1.31902
-1.25596
1.86435
-0.549122
1.31902
-0.591034
-0.585795
-3.91828
0.935777
-4.0579
6.02356
-0.169958
1.31902
7.23937
2.03979
0.079974
0.193686
2.50449
-5.08782
-3.9438
0.935777
4.92951
0.413114
0.117448
0.308297
6.48784
2.01464
0.089238
0.177034
-1.76656
2.62229
-0.390406
1.31902
1.97082
0.129708
0.293766
0.318712
-0.0837078
5.66875
-6.91646
39.5645
0.159467
3.24032
3.6306
-11.4075
7.37818
1.55345
0.0784694
0.234918
-0.187183
1.54936
-3.09303
5.14904
-0.0552683
0.666117
-10.4755
7.3347
0.237741
-0.78995
2.51723
0.935777
2.94467
-5.95946
-1.49177
0.935777
1.26653
-8.87879
9.1986
0.935777
5.41087
0.283135
0.107
0.326521
-0.854227
1.26802
-0.807365
1.31902
-1.56729
2.3265
-0.440042
1.31902
0.131808
5.36531
4.39245
-23.21
-2.33459
3.46548
-0.295415
1.31902
-0.340199
5.92495
-1.70183
10.4401
-0.286095
-1.26236
-4.73661
0.935777
0.075161
0.914518
7.70295
-6.68767
-1.11724
-0.201978
0.586455
0.935777
-3.73046
5.53751
-0.184876
1.31902
-3.59338
5.33403
-0.191929
1.31902
-5.34944
7.94074
-0.128924
1.31902
0.506243
0.00531655
1.14364
0.350736
7.61263
0.86234
0.0760528
0.291233
-1.45043
2.15302
-0.475497
1.31902
-0.309336
0.47992
-2.14923
1.33881
-0.169891
3.17068
-3.40784
11.162
-3.31857
8.70676
-0.174461
1.87581
5.77863
-11.6303
-1.47863
0.935777
-1.08277
1.60727
-0.636951
1.31902
0.534522
3.39483
1.08314
-3.32025
0.70439
3.33847
0.821933
-2.38718
0.553055
7.29345
1.04684
-7.27828
8.84979
2.42015
0.0654209
0.198488
-3.10775
4.61316
-0.22192
1.31902
-5.20909
-4.07303
4.14338
0.935777
7.68523
2.25364
0.0753342
0.18704
-4.34792
6.45408
-0.158621
1.31902
6.43131
0.209869
0.0900222
0.337923
0.390069
5.91851
1.48425
-8.42774
-9.47443
-6.73962
-5.73983
0.935777
-5.04316
7.48609
-0.136754
1.31902
-0.320928
2.89984
-1.80402
5.58819
-4.03644
-4.81086
0.320169
0.935777
5.04879
-10.2415
-2.4015
0.935777
-3.50456
5.20219
-0.196793
1.31902
2.72218
-5.9645
-6.89116
0.935777
4.57633
-13.5366
-0.0575417
0.935777
4.40555
-8.92625
-3.02092
0.935777
0.298563
0.0142254
1.93916
0.329231
7.9504
1.27888
0.0728216
0.263686
1.75335
-3.60395
-3.22821
0.935777
-2.16644
-6.17498
4.63337
0.935777
-0.189852
3.6482
-3.04954
11.4821
-1.69419
-1.07174
-3.42612
0.935777
-3.83917
-0.375985
8.72783
0.935777
-1.99919
11.6923
-0.289598
3.74287
-0.0952931
1.70052
-6.07558
10.6885
0.120852
2.15689
4.79066
-9.97612
-1.36858
2.03153
-0.503933
1.31902
-7.69174
-3.39527
5.82985
0.935777
0.145302
2.56203
3.98453
-9.85168
1.06532
-7.4984
-0.999188
0.935777
0.780393
-4.29474
-6.36768
0.935777
8.76733
2.02725
0.0660362
0.222944
-3.41227
5.0652
-0.202116
1.31902
6.32919
0.210393
0.0914748
0.337571
3.2387
-6.54254
-2.30372
0.935777
0.211591
0.0608944
2.73622
0.190196
-0.460686
0.683846
-1.49706
1.31902
0.198274
5.6273
2.92001
-16.0749
0.457193
-8.33274
2.92645
0.935777
0.523688
-8.39254
-4.65625
0.935777
0.117424
1.15105
4.93053
-5.31849
-8.87205
0.0429902
-22.3254
0.959772
-9.35374
-6.7271
4.40844
0.935777
0.325247
3.24245
1.78007
-5.41495
0.365194
0.859527
1.58535
-1.00584
-0.811162
1.20409
-0.850229
1.31902
-4.45729
6.61643
-0.154729
1.31902
-5.5604
-3.84882
3.24758
0.935777
0.625193
6.22266
0.926052
-5.40569
-5.09621
7.56484
-0.135331
1.31902
5.9599
0.819388
0.0971427
0.277219
1.39822
-7.50957
-1.42954
0.935777
-9.97901
-2.26414
5.3339
0.935777
0.113452
1.89026
5.10313
-9.28941
3.86469
1.078
0.149808
0.195323
-2.15021
3.19178
-0.320747
1.31902
-0.119389
3.08071
-4.84936
15.2963
4.29664
0.469421
0.134747
0.293563
3.02729
0.706965
0.191247
0.221611
7.62196
0.514288
0.0759596
0.317751
0.286282
7.25345
2.02234
-14.3122
-0.511862
6.3697
-1.13109
7.56151
2.02389
-4.14289
-0.737885
0.935777
-2.02755
7.16402
-0.285548
2.40249
-4.45836
6.61801
-0.154692
1.31902
-4.42055
6.56188
-0.156015
1.31902
-1.82957
-5.69999
-3.65957
0.935777
0.432325
3.69298
1.33918
-4.58874
9.47904
0.722155
0.061078
0.312708
-5.21546
-1.73162
-1.17464
0.935777
0.12515
3.84329
4.62616
-17.4228
0.155662
4.67524
3.71934
-17.032
7.93331
1.9796
0.0729785
0.212348
0.833903
6.39533
0.694279
-4.08333
0.894556
4.90281
0.647205
-2.81631
-4.46782
-4.16163
7.80425
0.935777
0.213215
2.96217
2.71539
-7.68662
-3.46697
-9.8015
8.24976
0.935777
-1.96536
2.91739
-0.350915
1.31902
-1.98577
2.9477
-0.347307
1.31902
-3.52213
5.34682
-0.192189
1.32897
-0.695497
1.0324
-0.991626
1.31902
4.55995
0.765431
0.126967
0.259632
5.98825
1.35412
0.0966828
0.225896
0.4048
0.208047
1.43024
0.0592594
1.47069
0.431746
0.393667
0.186852
7.62908
1.06159
0.0758887
0.276254
-4.35767
6.46856
-0.158266
1.31902
6.71151
0.421853
0.0862639
0.320426
-1.37922
2.04732
-0.500046
1.31902
-4.63708
6.88331
-0.14873
1.31902
5.99023
1.50347
0.0966509
0.211504
-2.72839
-4.99743
8.15989
0.935777
-0.419185
-7.11463
0.984546
0.935777
3.56428
0.537109
0.162434
0.269571
3.94587
1.24588
0.146726
0.174013
-2.48672
3.6913
-0.277343
1.31902
1.92594
-3.96412
-2.58255
0.935777
0.311894
-4.52756
3.77232
0.935777
7.10062
2.01459
0.0815367
0.192553
-0.416144
2.38293
-1.39125
3.67207
4.36211
0.0361796
0.132725
0.352014
-1.73005
2.5681
-0.398642
1.31902
4.59385
0.216171
0.12603
0.329572
-1.49356
7.02823
-0.387638
3.08123
4.75297
-9.54719
-2.72861
0.935777
-3.94595
5.8574
-0.17478
1.31902
0.0900937
4.76171
6.42621
-30.243
-1.01535
1.50719
-0.679249
1.31902
8.35827
1.2508
0.0692681
0.270175
-1.34954
-6.13784
0.543459
0.935777
-7.07657
-9.52144
-5.36372
0.935777
8.82316
0.902054
0.0656183
0.297625
-4.20101
-1.38409
-7.32837
0.935777
-0.227794
2.06353
-2.5416
5.60148
-0.132727
5.3012
-4.36206
23.4809
-19.0897
-32.0999
-0.0577935
0.935777
0.101016
3.3165
5.73137
-18.6513
-0.13951
5.19188
-4.14997
21.9029
0.120743
6.34542
4.79497
-30.0693
0.0975743
0.492652
5.93354
-2.56635
-1.8503
9.58687
-0.312901
3.35656
-2.68601
3.98712
-0.256765
1.31902
0.113345
3.54151
5.10797
-17.7331
-2.85654
4.24027
-0.241436
1.31902
-0.25914
7.56098
-2.23416
17.2493
-5.1791
7.68788
-0.133165
1.31902
-0.148568
-5.86574
2.54845
0.935777
6.27908
-12.5943
-0.811392
0.935777
-2.30688
3.42435
-0.298963
1.31902
3.82387
-7.75407
-0.434389
0.935777
-7.0938
-9.33632
-2.00946
0.935777
-0.218218
5.30724
-2.65313
14.4376
3.7325
-9.31786
-7.67179
0.935777
-0.339173
3.61586
-1.70698
6.52902
0.22376
0.0531157
2.58742
0.219383
0.201456
3.49637
2.87389
-9.69138
-2.97656
4.41842
-0.231701
1.31902
-0.432417
-0.651667
8.87215
0.935777
6.75297
0.67622
0.0857343
0.298841
-6.95548
-0.0284359
-0.762206
0.935777
-3.8175
5.66672
-0.180661
1.31902
0.849978
-2.05364
6.558
0.935777
-2.65612
3.94275
-0.259655
1.31902
5.7159
0.648605
0.10129
0.291119
-2.40868
-24.2114
0.126018
0.935777
5.63885
1.13491
0.102674
0.24029
0.745361
-2.00993
-5.16045
0.935777
-3.4626
5.13991
-0.199178
1.31902
-4.02247
-8.45112
-2.24995
0.935777
-1.74183
2.58558
-0.395947
1.31902
1.26885
-2.56706
-2.30695
0.935777
1.30863
-6.49006
-0.953405
0.935777
3.48717
-8.43595
0.117128
0.935777
7.38054
0.312246
0.0784442
0.332322
-5.47515
8.12735
-0.125964
1.31902
1.08715
-2.27293
-3.41182
0.935777
-2.92534
4.53853
-0.227267
1.33881
-1.84951
-6.08301
-4.44219
0.935777
-0.444272
4.51877
-1.30317
6.24554
-5.41671
-2.46982
-6.08194
0.935777
-5.07339
7.53098
-0.135939
1.31902
-9.34545
-3.83859
-1.01061
0.935777
7.48722
1.56885
0.0773265
0.235503
-5.16872
7.67248
-0.133432
1.31902
4.61641
5.76937
0.125414
-0.366742
-5.73193
-8.80053
2.33555
0.935777
-0.553778
8.03573
-1.04548
8.75797
-1.08957
1.61736
-0.632978
1.31902
-2.01984
-8.78554
-1.61233
0.935777
10.0798
2.2028
0.0574376
0.230292
-0.72291
1.07309
-0.954023
1.31902
5.84656
0.630495
0.0990259
0.294381
-4.50915
6.69341
-0.15295
1.31902
0.310822
1.70338
1.86268
-2.81603
-1.40783
3.40999
-0.411243
1.75915
-0.205493
5.38764
-2.81743
15.5361
-3.39883
5.04524
-0.202915
1.31902
-9.32125
-0.458563
-8.67649
0.935777
1.36082
0.410191
0.425452
0.1823
0.46923
6.13627
1.23385
-7.21444
0.109064
4.83104
5.30845
-25.2885
10.2849
0.158628
0.0562923
0.347887
1.55425
11.7541
0.372502
-4.02162
-1.80188
2.67473
-0.382751
1.31902
0.843936
4.97332
0.686025
-3.055
-4.49791
6.67672
-0.153332
1.31902
-1.36879
3.40605
-0.422972
1.79748
3.3339
1.00698
0.173659
0.181945
-0.745718
1.10695
-0.924844
1.31902
-5.18591
7.69799
-0.13299
1.31902
-3.95674
5.8734
-0.174304
1.31902
-0.227599
3.34844
-2.54378
8.87451
-3.77051
5.59696
-0.182913
1.31902
0.243311
0.024121
2.37951
0.29942
0.097265
1.44379
5.95241
-8.2372
1.42337
0.182591
0.406755
0.282546
-1.70017
2.52374
-0.405649
1.31902
-3.0507
4.52848
-0.22607
1.31902
-1.01528
-3.34028
-3.93702
0.935777
-4.87522
7.2368
-0.141465
1.31902
-2.31001
3.42899
-0.298558
1.31902
0.564364
-5.49528
-6.40256
0.935777
0.193315
4.19299
2.9949
-12.2008
-0.146018
3.46611
-3.96499
14.0999
0.153822
0.0194157
3.76385
0.283739
-1.74919
2.59651
-0.39428
1.31902
0.0495471
-1.04858
-2.09513
0.935777
-0.910977
1.35226
-0.757069
1.31902
5.86706
0.241854
0.09868
0.33295
-0.719916
1.06865
-0.957991
1.31902
-3.94807
-6.08854
-8.50848
0.935777
3.8584
-7.78807
-0.515149
0.935777
-1.82762
-8.17025
0.739392
0.935777
-1.42373
2.11339
-0.484413
1.31902
4.44153
0.337717
0.130352
0.312794
-0.567639
2.48102
-1.01995
2.88732
-3.32559
4.93653
-0.207384
1.31902
-2.54047
-1.50539
-0.285107
0.935777
-1.98163
2.94154
-0.348033
1.31902
-2.31114
3.43068
-0.298412
1.31902
0.103647
4.39581
5.58587
-24.1976
-0.366961
0.544719
-1.87942
1.31902
0.117989
2.22215
4.90691
-10.5471
-0.719307
1.06774
-0.958802
1.31902
-0.241607
-9.45275
-2.91019
0.935777
3.831
0.719344
0.151125
0.248105
-9.16065
-3.40085
-1.85291
0.935777
-4.83333
-1.92074
-9.00576
0.935777
-3.36955
-4.36452
-0.72151
0.935777
-0.159934
4.71281
-3.62
17.4172
0.790949
8.47776
0.731983
-5.84876
-1.26757
1.88159
-0.544092
1.31902
-3.66377
5.43852
-0.188241
1.31902
-0.131069
3.12223
-4.41721
14.1483
-7.49939
-1.47885
9.46347
0.935777
7.21166
0.255669
0.0802812
0.336291
-1.65032
2.44975
-0.417902
1.31902
-6.68592
-8.14644
-7.93274
0.935777
4.51701
1.91135
0.128174
0.111831
-0.133164
2.50855
-4.34774
11.2633
-0.114705
3.66132
-5.04738
18.8369
-0.485821
-7.59236
7.75337
0.935777
6.4534
0.4268
0.0897141
0.318526
1.72681
-3.46982
-1.00388
0.935777
0.585495
-1.33847
-1.24441
0.935777
0.0883348
1.55041
6.55417
-9.80482
8.40851
1.59626
0.0688542
0.246907
-6.36157
-0.748004
0.981797
0.935777
11.6295
2.80525
0.049784
0.21716
5.92972
1.27151
0.0976371
0.232669
-3.62764
5.38489
-0.190116
1.31902
-4.08332
6.06131
-0.1689
1.31902
1.42639
-9.62799
-6.08092
0.935777
-4.56717
-1.80878
4.3981
0.935777
0.0918635
5.62715
6.30241
-35.1078
-0.933157
-9.44718
5.88205
0.935777
-0.597026
0.886228
-1.15518
1.31902
3.53444
2.13458
0.163806
0.00715872
-0.149651
0.222142
-4.60856
1.31902
-2.81373
4.17671
-0.24511
1.31902
2.37921
-6.48517
7.88659
0.935777
2.70975
-5.51556
-3.41639
0.935777
-8.26635
-1.88794
-5.87999
0.935777
-8.10312
-4.66235
2.16538
0.935777
-0.089051
3.30075
-6.50146
21.8165
-0.376395
0.558724
-1.83231
1.31902
-5.17283
-5.72721
4.59989
0.935777
-0.0824927
-0.457749
-4.89121
0.935777
-5.74808
-9.80171
3.07293
0.935777
-0.165936
2.67161
-3.48907
9.67825
5.68256
0.633005
0.101884
0.292323
-2.84555
4.22395
-0.242369
1.31902
-2.41365
3.58284
-0.285739
1.31902
-9.62963
-8.21103
2.58846
0.935777
3.61617
-7.33594
-1.43796
0.935777
-0.539626
4.52586
-1.07289
5.21258
-2.07939
3.08666
-0.331671
1.31902
4.33862
2.31803
0.133444
0.0474901
0.940926
0.000657722
0.61531
0.356411
1.9936
-4.01258
-0.952827
0.935777
0.555074
5.51321
1.04303
-5.39365
-2.83256
-2.57144
3.7056
0.935777
-9.63722
-9.09988
-1.93856
0.935777
-2.14476
-6.14279
8.84962
0.935777
-0.403988
5.4419
-1.43311
8.15567
0.815036
-1.64175
-3.57028
0.935777
-3.88088
5.7608
-0.177711
1.31902
-2.46857
-0.524782
0.786448
0.935777
-6.60741
-8.48625
3.49888
0.935777
-2.67181
3.96605
-0.25813
1.31902
-1.08323
1.60796
-0.63668
1.31902
-2.9681
4.40587
-0.232362
1.31902
7.57297
3.22001
0.076451
0.110643
-0.924843
5.61813
-0.626011
3.87383
-0.598237
1.43533
-0.967779
1.7459
-2.79003
4.14154
-0.247192
1.31902
3.1737
-6.3633
-1.57514
0.935777
-1.47225
2.18541
-0.468449
1.31902
-0.51248
-6.24739
9.25105
0.935777
2.12631
6.93918
0.272284
-1.53261
-0.118576
3.03652
-4.88261
15.183
1.98692
-6.85977
0.872318
0.935777
-2.55851
-2.29934
-7.98796
0.935777
-0.126712
4.93934
-4.56911
22.9252
-0.134695
3.45465
-4.29832
15.206
0.124835
4.96986
4.63783
-22.6925
-0.0994786
2.37219
-5.81995
14.1629
-1.74314
5.60045
-0.332137
2.21693
5.02311
1.74468
0.11526
0.155725
5.25959
1.34477
0.110077
0.208787
0.904626
-5.69261
4.36121
0.935777
6.1447
2.04489
0.0942212
0.164144
0.63304
-2.66221
1.25307
0.935777
0.766501
8.5764
0.75533
-6.12119
0.26762
3.18859
2.16337
-6.54128
0.140507
5.30909
4.12051
-21.5193
-2.00971
2.98323
-0.34317
1.31902
0.183877
0.0779214
3.14863
0.111471
9.40094
2.03413
0.0615854
0.231544
-0.387029
0.574508
-1.78197
1.31902
-4.18947
-4.35314
-1.22502
0.935777
0.186098
2.8784
3.11106
-8.59803
-0.276176
3.14472
-2.09635
6.94925
-0.55957
5.65562
-1.03465
6.20843
4.80271
0.341122
0.120549
0.315694
-3.98146
5.9101
-0.173221
1.31902
-2.71796
-2.37159
-6.36571
0.935777
7.54368
1.40716
0.0767479
0.24882
-9.70296
-7.78669
-6.6439
0.935777
9.8597
1.71642
0.0587199
0.256028
1.82175
-3.65364
-1.14105
0.935777
-1.37532
-6.32849
9.17811
0.935777
-3.71869
5.52005
-0.185461
1.31902
-5.3965
8.01059
-0.1278
1.31902
0.717344
7.67739
0.80709
-5.83953
-1.90525
-1.8303
-0.108383
0.935777
-3.33644
4.95264
-0.206709
1.31902
0.576627
0.140196
1.00405
0.216052
-6.07085
-0.016654
2.79694
0.935777
2.4758
-5.00254
1.55348
0.935777
2.79017
-8.0002
4.81394
0.935777
0.627489
1.8741
0.922664
-1.37235
-4.05891
6.02508
-0.169916
1.31902
-4.29731
6.37896
-0.160489
1.31902
1.71826
0.27616
0.336947
0.263765
0.0930385
5.3976
6.22281
-33.2314
0.0920198
3.42434
6.2917
-21.1881
-9.30887
-4.09984
-8.82691
0.935777
3.08876
1.68888
0.187441
0.0402507
7.73923
2.21545
0.0748086
0.191082
-4.87231
7.23248
-0.14155
1.31902
-2.42605
-2.51101
4.62096
0.935777
9.67745
2.83836
0.0598258
0.187009
0.856866
6.26531
0.675673
-3.87648
-5.71817
8.48809
-0.120611
1.31902
-4.45972
6.62004
-0.154645
1.31902
-0.642393
-5.58142
9.6219
0.935777
5.52878
1.74072
0.104718
0.174532
-0.119158
3.15578
-4.85876
15.69
-1.62737
2.41568
-0.423796
1.31902
6.00346
0.691186
0.0964379
0.29016
-3.59501
-8.52525
-2.67658
0.935777
-5.72408
-3.61556
3.04536
0.935777
6.54576
2.55886
0.0884483
0.130489
-2.22404
-2.57673
-7.00698
0.935777
4.85848
1.27122
0.119165
0.205331
-0.131253
4.52944
-4.41104
20.3364
-0.0808229
5.50199
-7.16333
39.7694
0.120594
2.67366
4.80093
-12.4792
-3.83082
5.68649
-0.180033
1.31902
8.38434
1.53802
0.0690527
0.250612
-3.00286
7.32868
-0.192803
1.76981
0.0830556
4.15936
6.97076
-28.6371
5.85058
1.12118
0.098958
0.245866
1.93404
0.247772
0.299353
0.282645
0.751861
-1.57806
-3.59736
0.935777
-0.160545
3.53826
-3.60622
13.1166
-0.711691
-9.33553
-3.03811
0.935777
0.771472
5.03121
0.750463
-3.41892
-0.924306
8.69814
-0.626374
5.80511
-0.14455
4.16527
-4.00526
17.0398
-5.22854
7.76127
-0.131906
1.31902
-3.31906
4.92683
-0.207792
1.31902
-1.25636
1.86494
-0.548947
1.31902
-4.51617
-9.10659
-0.143712
0.935777
1.23081
-2.5666
-1.96579
0.935777
-1.68631
2.50317
-0.408984
1.31902
3.36134
0.238686
0.172241
0.315705
4.79472
0.454219
0.12075
0.301969
1.69541
-4.60315
-5.67981
0.935777
8.81675
3.12006
0.0656661
0.151934
0.168601
6.43471
3.43391
-21.7394
-1.82052
20.91
-0.31802
7.00662
-0.432218
0.670566
-1.53819
1.33881
-2.79032
4.14197
-0.247166
1.31902
-0.232339
4.20921
-2.49188
10.8457
6.61725
0.000470151
0.0874927
0.356775
-2.42774
-1.75015
8.23073
0.935777
8.8467
0.210036
0.0654437
0.343071
-0.278505
-2.00802
1.73657
0.935777
1.48317
0.479788
0.390354
0.169529
-2.70867
4.02077
-0.254617
1.31902
-2.52018
3.74097
-0.27366
1.31902
-7.62132
-7.23933
-4.37246
0.935777
-2.15562
3.19981
-0.319942
1.31902
1.24449
-8.42236
2.09951
0.935777
-0.245106
3.42879
-2.36208
8.45591
-4.38929
6.51549
-0.157126
1.31902
-4.06251
6.03041
-0.169765
1.31902
-2.04625
3.03746
-0.337043
1.31902
3.30626
-8.1395
2.46581
0.935777
-2.04189
-2.48623
7.28989
0.935777
0.224996
4.84242
2.57321
-12.1037
-2.77214
4.11499
-0.248787
1.31902
-2.0332
3.01809
-0.339206
1.31902
5.65428
0.322103
0.102393
0.323835
0.0976184
4.54313
5.93086
-26.5879
-2.7004
4.00849
-0.255397
1.31902
-1.91595
-3.178
-2.18167
0.935777
-3.97925
-7.1193
6.93897
0.935777
1.75063
-3.67011
-1.49693
0.935777
7.64556
1.96646
0.0757252
0.207905
8.16314
1.69272
0.0709238
0.236762
-2.67709
4.15339
-0.248341
1.33881
-0.474314
4.50125
-1.22063
5.85116
5.97879
1.92508
0.0968358
0.1704
-1.6343
2.42596
-0.422
1.31902
0.17523
4.85734
3.30401
-15.6919
-4.75638
7.06039
-0.145
1.31902
-3.77704
-6.45921
-5.05091
0.935777
1.63924
-3.32816
-2.21074
0.935777
-3.36758
-0.0870865
8.9663
0.935777
0.255483
3.12027
2.26614
-6.71415
7.52213
0.562746
0.0769677
0.313503
4.89839
1.27961
0.118194
0.205574
0.264103
5.35647
2.19218
-11.3855
-0.0867321
3.10803
-6.67528
21.1038
3.93604
-7.94252
-2.76406
0.935777
9.64171
2.45132
0.0600476
0.20962
-2.92389
4.34024
-0.235875
1.31902
-1.91715
-3.73171
-4.56755
0.935777
-0.331336
4.11415
-1.74735
7.54569
0.296453
-0.593281
8.69304
0.935777
0.224759
2.69592
2.57592
-6.58765
-4.81754
7.47419
-0.138002
1.33881
-0.359792
1.42009
-1.60916
2.64197
-5.26993
-0.982132
8.35425
0.935777
8.85809
0.736218
0.0653596
0.308697
3.94375
-7.95221
-2.04339
0.935777
0.203631
2.96375
2.84318
-8.06966
-0.108312
4.82198
-5.34531
26.1318
0.333592
-0.685326
2.55314
0.935777
5.58155
1.4751
0.103728
0.203807
6.45784
0.306508
0.0896524
0.329337
2.12962
16.1741
0.271861
-4.04028
2.64041
1.12136
0.219269
0.110936
2.08231
11.3128
0.278038
-2.78857
10.0701
0.273214
0.057493
0.341108
-4.05411
-8.3597
-9.88239
0.935777
0.62139
5.0784
0.931719
-4.37483
1.42487
0.740889
0.406327
0.055773
-2.10763
3.12858
-0.327227
1.31902
-0.500678
2.5546
-1.15635
3.31083
-0.57081
0.847314
-1.20824
1.31902
3.25092
0.532521
0.178091
0.261979
1.01013
-2.04381
-3.81693
0.935777
-7.75567
-8.51194
-5.7362
0.935777
-8.45167
-3.13642
-0.333183
0.935777
-0.996483
2.60869
-0.581004
1.87247
-0.617379
4.65497
-0.937772
4.72211
0.33453
0.121199
1.73067
0.14706
2.52603
-5.1362
-3.57027
0.935777
0.309521
1.91617
1.87051
-3.2274
-0.234848
6.41424
-2.46526
16.1696
-3.6727
5.45178
-0.187784
1.31902
-0.110073
5.16686
-5.25981
27.5335
-3.60094
5.34525
-0.191526
1.31902
4.78177
-9.70859
-1.23864
0.935777
0.123177
1.53363
4.70025
-6.8516
4.81909
-9.90582
-0.478097
0.935777
7.18053
0.188241
0.0806293
0.341638
-1.93132
2.86686
-0.3571
1.31902
-2.57222
3.81822
-0.268123
1.31902
-1.32631
1.96879
-0.519993
1.31902
0.30839
-0.628173
-3.10667
0.935777
0.46383
0.0660587
1.24822
0.274361
4.12259
0.0135035
0.140436
0.35492
0.514248
4.51437
1.12584
-4.72564
0.117456
3.77502
4.92916
-18.2509
2.10843
-4.23243
-2.69067
0.935777
-5.4759
8.12845
-0.125947
1.31902
6.86546
1.77537
0.0843295
0.2071
8.28513
0.85669
0.0698795
0.296951
0.527145
-2.57046
7.58206
0.935777
0.202993
6.27992
2.85212
-17.5543
-2.09557
3.11067
-0.329111
1.31902
0.120351
5.90864
4.81059
-28.0673
0.337632
2.57234
1.71477
-4.05415
5.63979
1.51825
0.102656
0.200958
5.66743
-11.4097
-2.76549
0.935777
9.49741
0.827405
0.0609599
0.306378
-0.178814
4.33427
-3.23778
14.3902
4.1559
-8.38361
-2.17481
0.935777
6.93141
1.46969
0.0835272
0.234057
-6.68307
-8.93688
0.646841
0.935777
9.46138
2.45638
0.061192
0.206505
-1.78507
-9.14251
0.58098
0.935777
3.96583
0.042085
0.145987
0.350672
-1.52562
15.1383
-0.379492
6.10169
-2.15385
-7.7825
-5.97791
0.935777
6.53852
1.52431
0.0885462
0.221845
2.94601
-8.10518
2.39616
0.935777
0.813047
1.53906
0.712089
-0.739132
0.10278
6.10194
5.63303
-34.0156
-0.190897
7.48987
-3.03285
23.0725
-0.870811
1.29264
-0.79199
1.31902
-0.10152
5.13345
-5.70294
29.6326
0.0298118
-8.02391
-0.785765
0.935777
-0.325809
3.45138
-1.777
6.48991
8.31576
1.01559
0.0696222
0.286109
3.18193
-6.36668
-3.07856
0.935777
-8.45267
-1.94698
-5.50402
0.935777
-1.23078
7.94784
-0.470401
4.09548
1.0461
-4.99679
-8.62333
0.935777
1.85228
-3.81449
-2.83053
0.935777
-5.93548
8.81066
-0.116195
1.31902
-1.06966
1.58782
-0.644757
1.31902
10.7378
2.26945
0.0539179
0.234452
0.192129
5.7309
3.01339
-16.9126
6.24867
1.14727
0.0926535
0.250517
0.434087
-3.96035
-0.855567
0.935777
4.95402
0.149751
0.116867
0.339315
0.599021
4.70576
0.966512
-4.19136
-1.00925
1.49813
-0.683353
1.31902
7.02487
0.139277
0.082416
0.345338
-1.80247
-4.104
2.63029
0.935777
-3.38478
5.02439
-0.203757
1.31902
0.159199
2.38746
3.63671
-8.32571
-6.29931
-2.18075
-8.92198
0.935777
3.81314
0.134029
0.151833
0.336466
-1.64074
2.43552
-0.420344
1.31902
-3.29739
4.89467
-0.209157
1.31902
2.41153
0.289527
0.24008
0.287307
3.69828
2.14228
0.156549
0.0214449
0.821737
0.112105
0.704558
0.277831
-1.92612
-1.03432
-0.00292537
0.935777
-0.255571
6.2466
-2.26536
14.5076
-4.59765
-6.23612
0.296647
0.935777
-1.60918
-6.96553
-8.81904
0.935777
-0.713712
1.05944
-0.966319
1.31902
5.58523
-11.3287
-1.36882
0.935777
-0.488899
6.85547
-1.18421
8.47516
8.21235
1.83634
0.0704988
0.227357
-3.7974
5.63689
-0.181617
1.31902
0.0966108
4.53758
5.99272
-26.8356
-2.90822
4.31698
-0.237146
1.31902
4.96402
0.844958
0.116631
0.258268
-7.33255
-2.37435
2.17152
0.935777
-0.647642
0.961363
-1.0649
1.31902
-1.49057
2.2126
-0.462692
1.31902
-6.90443
0.162639
-5.90124
0.959772
8.02394
0.860144
0.0721542
0.294753
3.87989
0.993067
0.149221
0.20863
-3.86468
-2.80884
2.65015
0.935777
-2.34035
3.47404
-0.294687
1.31902
-4.25448
-8.70311
1.28345
0.935777
-3.04513
4.52021
-0.226484
1.31902
0.117974
1.9855
4.90752
-9.38706
-4.39949
6.53063
-0.156762
1.31902
-1.71122
2.54014
-0.403031
1.31902
-0.143906
5.50905
-4.0232
22.5208
-5.66937
8.41564
-0.121649
1.31902
0.216658
5.11764
2.67223
-13.3187
-5.27658
7.83258
-0.130705
1.31902
-4.21779
6.26092
-0.163515
1.31902
-3.8364
-5.77731
9.25082
0.935777
6.40167
0.956381
0.0904391
0.270322
-0.248219
2.01548
-2.33246
5.05784
-8.93169
-0.871469
5.66007
0.935777
-0.370839
0.550475
-1.85977
1.31902
0.217578
4.89259
2.66093
-12.662
0.202636
1.56411
2.85715
-4.11209
3.24884
1.13337
0.178205
0.154844
-0.51227
-5.23812
-9.21547
0.935777
-1.95885
-2.429
-2.06065
0.935777
10.1124
2.46053
0.0572527
0.215944
1.47578
0.117578
0.392308
0.310689
0.0989257
4.5711
5.85248
-26.3955
1.46249
-2.92888
-0.871654
0.935777
-0.200549
5.20388
-2.88688
15.3798
9.11222
1.73808
0.0635368
0.246384
-2.97321
4.41346
-0.231962
1.31902
-0.0855808
5.64056
-6.76509
38.5157
3.32995
0.73866
0.173865
0.228389
0.527256
2.99505
1.09806
-2.93195
-0.145644
2.00566
-3.97519
8.32971
9.08326
2.12944
0.0637394
0.221087
0.494963
5.32236
1.16971
-5.86878
-0.225629
5.19354
-2.56599
13.6834
-3.59451
5.33571
-0.191868
1.31902
0.322567
1.16048
1.79486
-1.72607
10.9755
0.438047
0.0527505
0.333709
4.64447
0.996262
0.124656
0.232626
-0.709648
2.99712
-0.815843
2.802
3.28363
0.569054
0.176317
0.256482
6.32464
1.75463
0.0915406
0.196197
-5.39188
8.00374
-0.127909
1.31902
-3.41551
-3.81468
7.9343
0.935777
-0.225781
3.40044
-2.56426
9.07643
-0.133299
1.12737
-4.34332
5.25334
-3.85241
5.71854
-0.179024
1.31902
-1.4996
2.22601
-0.459905
1.31902
-0.313944
4.37163
-1.84415
8.41878
3.45736
0.609444
0.167457
0.25476
-4.57821
6.79592
-0.150643
1.31902
1.75251
-7.42839
2.68186
0.935777
-5.7236
8.49614
-0.120496
1.31902
7.75701
0.384467
0.0746372
0.328121
-0.117012
5.74406
-4.94788
28.7778
0.25888
0.0511117
2.2364
0.24251
-3.23488
-0.40774
4.09219
0.935777
-0.672814
9.72837
-0.860507
8.72815
-4.30936
6.39684
-0.160041
1.31902
-3.53617
5.2491
-0.195034
1.31902
-2.64548
3.92697
-0.260698
1.31902
-4.45885
6.61875
-0.154675
1.31902
-5.53996
8.22355
-0.124491
1.31902
-3.47124
-4.04576
-6.20692
0.935777
0.272123
3.09061
2.12757
-6.21869
-0.748237
5.73451
-0.773767
4.794
-3.59874
5.34198
-0.191643
1.31902
-5.60322
8.31745
-0.123085
1.31902
-0.292449
0.434113
-2.35827
1.31902
0.173071
1.70669
3.34523
-5.35246
-2.37777
-1.82601
5.34598
0.935777
-6.87401
-5.23814
-1.31124
0.935777
9.73389
1.80332
0.0594789
0.249557
-2.72883
4.05068
-0.252736
1.31902
0.200816
3.46338
2.88305
-9.62828
6.79909
2.24773
0.0851527
0.165416
-1.00491
6.61612
-0.576134
4.16859
-0.452284
-0.671632
4.43996
0.935777
-3.17789
-1.84139
-3.97931
0.935777
0.0905258
3.72689
6.39554
-23.4787
-1.34062
1.99002
-0.514445
1.31902
0.162296
6.36298
3.56731
-22.3419
-0.130962
3.07966
-4.42082
13.9714
-0.877925
-0.564921
0.390759
0.935777
3.85386
0.140789
0.150229
0.335666
-0.102137
3.40986
-5.6685
19.6856
-4.88489
7.25116
-0.141185
1.31902
0.447268
0.0436941
1.29444
0.300257
5.31639
1.68207
0.108901
0.173637
-5.32021
0.16998
-5.64639
0.959772
-0.0976636
5.34271
-5.92812
32.0291
-3.60029
5.3443
-0.19156
1.31902
-2.73953
-0.666112
-2.24567
0.935777
0.193759
3.42469
2.98805
-9.87631
-1.9304
2.8655
-0.357269
1.31902
-0.10824
3.89983
-5.34888
21.2165
-5.80329
8.61443
-0.118842
1.31902
-2.39093
3.54911
-0.288454
1.31902
-5.466
-7.26158
4.03764
0.935777
7.0018
1.43806
0.0826875
0.237906
6.94326
1.67771
0.0833846
0.216921
2.41513
-4.89423
-1.72448
0.935777
-3.1878
4.73199
-0.216347
1.31902
0.46119
2.49983
1.25536
-2.78138
3.83663
1.6243
0.150903
0.111704
1.25648
5.21206
0.460781
-2.0448
-2.27191
3.37243
-0.303566
1.31902
-4.04132
5.99896
-0.170655
1.31902
-0.203287
0.30176
-3.39262
1.31902
0.20666
1.87623
2.80151
-4.89945
-5.26746
7.81905
-0.130931
1.31902
-9.50299
-6.73625
-9.43787
0.935777
3.14953
-6.43128
-2.1513
0.935777
2.44404
0.145591
0.236887
0.322328
-0.307741
6.78068
-1.88133
13.1135
0.879827
0.420996
0.65804
0.0797838
-2.88503
4.28256
-0.239052
1.31902
2.12355
-4.36965
-1.79647
0.935777
-1.86832
-4.73648
-7.67627
0.935777
5.33457
0.889648
0.10853
0.260263
-0.456947
-4.55274
-3.25138
0.935777
0.0774239
1.66094
7.47781
-12.0634
-6.78503
-9.29223
0.796022
0.935777
6.4069
0.943895
0.0903653
0.271521
-7.00737
-6.07916
9.8381
0.935777
1.59118
-8.38527
-7.33111
0.935777
8.21364
1.30044
0.0704877
0.265151
-1.89396
-4.64575
6.19509
0.935777
-2.28152
3.3867
-0.302287
1.31902
-0.498108
0.772792
-1.33471
1.33881
-2.88936
4.28899
-0.238694
1.31902
-4.51782
6.70627
-0.152656
1.31902
4.89064
0.160294
0.118382
0.33784
-1.23056
-3.10348
6.70688
0.935777
1.56182
8.46761
0.370697
-2.7821
-0.24245
3.6257
-2.38796
9.01486
1.55228
0.324086
0.372974
0.23594
-2.60845
3.872
-0.2644
1.31902
1.06772
-2.21202
-1.38008
0.935777
3.79406
-7.62143
-1.56082
0.935777
4.47816
0.27502
0.129286
0.32126
-1.85717
-7.70479
9.77254
0.935777
4.90328
0.0839568
0.118076
0.346903
5.32034
1.82043
0.10882
0.158717
-3.15194
4.67876
-0.218809
1.31902
-5.10986
7.5851
-0.134969
1.31902
-0.323842
0.502427
-2.05295
1.33881
0.165243
0.11134
3.50369
-0.033283
2.28486
0.187203
0.25339
0.309381
-0.496338
0.770045
-1.33948
1.33881
-5.97119
-6.55017
9.77343
0.935777
5.50597
0.134209
0.105152
0.342704
-0.759156
1.12689
-0.908474
1.31902
1.75693
-3.68775
-1.10376
0.935777
0.209144
5.23638
2.76824
-14.1387
-0.171724
4.5413
-3.37146
15.6676
2.82295
0.338492
0.205091
0.287395
-3.2127
4.76894
-0.214671
1.31902
-1.21682
7.61771
-0.4758
3.98132
-2.04338
-8.67924
-2.47261
0.935777
-7.15293
-7.67036
-6.28838
0.935777
-2.60499
3.86686
-0.264751
1.31902
-1.82903
2.71502
-0.37707
1.31902
-5.0846
7.5476
-0.13564
1.31902
3.64306
0.428469
0.158922
0.288723
-1.4812
2.29802
-0.448846
1.33881
8.70761
2.78443
0.0664891
0.171682
7.76826
0.677813
0.074529
0.306299
0.621866
4.7579
0.931007
-4.07282
-0.0889652
2.50415
-6.50772
16.6531
-0.881561
9.58926
-0.656745
6.65452
-1.12305
1.66707
-0.614105
1.31902
-3.1309
4.64753
-0.220279
1.31902
-6.01883
8.93438
-0.114586
1.31902
-6.27873
-0.713147
-6.68807
0.935777
5.40537
0.382237
0.107109
0.315875
-3.39453
5.03886
-0.203172
1.31902
1.85653
2.4715
0.311851
-0.413923
0.359144
5.044
1.61206
-7.7744
-2.80706
4.16682
-0.245692
1.31902
-0.244928
0.379995
-2.7144
1.33881
-1.09054
1.61881
-0.632413
1.31902
1.8258
0.176403
0.317099
0.300879
-5.63566
8.36561
-0.122377
1.31902
-2.33421
3.46491
-0.295464
1.31902
-0.365321
0.542284
-1.88786
1.31902
-0.869302
1.2904
-0.793364
1.31902
0.155817
0.045608
3.71566
0.187352
-0.982547
-0.123218
-6.23797
0.935777
-3.36912
5.00115
-0.204704
1.31902
-5.30696
7.87768
-0.129956
1.31902
2.91864
0.638099
0.198367
0.230238
-2.53982
-1.52531
-7.07898
0.935777
-6.43635
-7.9157
2.27938
0.935777
0.207117
1.15875
2.79534
-2.88229
0.571411
0.105061
1.01321
0.250367
-9.07595
-8.30023
9.17852
0.935777
2.72134
0.353963
0.212749
0.281511
-0.141773
1.60468
-4.08371
6.90984
-0.0689809
0.608825
-8.39307
5.46672
-4.68247
-2.88867
-5.90624
0.935777
3.77405
-7.65926
-3.18269
0.935777
-0.0999282
0.762994
-5.79377
4.77743
0.235257
1.44011
2.46097
-3.18725
-1.09453
1.62473
-0.630108
1.31902
-4.05139
6.01391
-0.170231
1.31902
7.41685
0.456237
0.0780603
0.321202
0.0834946
2.96515
6.93412
-20.2039
-0.121838
4.59063
-4.7519
22.171
-5.63263
-9.00802
4.32187
0.935777
0.947109
-4.03815
4.99302
0.935777
0.101571
5.84478
5.70007
-32.9588
-3.89937
5.78825
-0.176868
1.31902
5.07124
2.10655
0.114166
0.11632
-3.11819
4.62866
-0.221177
1.31902
-1.43552
5.7871
-0.40331
2.69081
-1.5499
-1.81695
1.43347
0.935777
-5.36714
7.96701
-0.128499
1.31902
1.34737
0.0135861
0.429696
0.350978
-3.39138
-1.78246
-0.0115993
0.935777
-8.13074
-4.52283
2.88485
0.935777
-0.564459
5.12989
-1.02569
5.61851
5.3034
-10.8514
-1.09374
0.935777
-1.61627
2.3992
-0.426707
1.31902
-4.94212
7.33612
-0.13955
1.31902
-0.15146
4.92559
-3.82252
19.185
-0.127852
3.11134
-4.52838
14.4461
-2.65839
3.94613
-0.259433
1.31902
-5.3783
7.98358
-0.128232
1.31902
-5.27945
-3.73828
7.34892
0.935777
0.400349
6.24696
1.44614
-8.67716
-0.77947
1.15705
-0.884798
1.31902
3.89971
-7.83516
-1.3134
0.935777
5.05581
0.075569
0.114514
0.348162
-3.87834
5.75703
-0.177827
1.31902
0.0939869
1.35565
6.16002
-7.99399
-2.74902
-4.24352
5.76022
0.935777
-3.25129
-8.94307
6.22016
0.935777
-9.65792
-0.000318105
-0.00997355
0.935777
-3.89955
5.78851
-0.17686
1.31902
0.158982
5.64858
3.64167
-20.2134
6.54926
0.0869867
0.0884011
0.349126
-4.01554
-5.82496
6.35692
0.935777
-5.5245
8.2006
-0.124839
1.31902
4.03488
0.705194
0.143489
0.255629
-2.84282
4.21989
-0.242602
1.31902
-8.50669
-5.61387
-9.17521
0.935777
-5.47929
8.13349
-0.125869
1.31902
-6.02846
-8.31569
3.71793
0.935777
-2.67147
3.96555
-0.258162
1.31902
3.9218
0.749184
0.147626
0.246217
0.0743016
1.95956
7.79204
-14.9122
3.00639
-6.08667
-2.80884
0.935777
-9.64921
-9.55072
-7.90057
0.935777
0.938376
-1.96415
-4.10084
0.935777
-3.05944
4.54145
-0.225424
1.31902
-0.178055
1.55853
-3.25159
5.42453
6.32213
0.813849
0.091577
0.282286
0.599416
7.94724
0.965875
-7.31922
-0.324456
0.481625
-2.12563
1.31902
0.11855
2.51872
4.88367
-11.9438
5.82281
-11.9086
-0.179914
0.935777
2.79458
0.364063
0.207173
0.281392
0.109832
0.606415
5.27135
-2.83981
0.190779
0.0550015
3.03472
0.189902
-3.07407
-0.0335931
0.012221
0.935777
-0.224289
6.0118
-2.58132
15.8752
-6.07339
-1.06583
-5.07541
0.935777
-2.99061
4.43928
-0.230613
1.31902
-2.57047
3.81562
-0.268306
1.31902
-2.33895
3.47195
-0.294865
1.31902
-0.157137
4.07918
-3.68445
15.3863
-5.87598
8.72233
-0.117372
1.31902
0.113374
4.97255
5.10666
-25.0363
-1.39606
-0.33527
-3.60928
0.935777
0.437616
5.09715
1.32299
-6.38666
-1.47543
2.19014
-0.467438
1.31902
0.100794
2.71111
5.74399
-15.2158
-0.250491
3.12183
-2.3113
7.57231
-0.883205
1.31103
-0.780875
1.31902
4.99449
1.14808
0.11592
0.22373
9.53966
0.22286
0.0606899
0.343291
-9.18256
-5.69399
6.58118
0.935777
0.0837054
5.05942
6.91665
-34.6375
0.0865081
3.88812
6.69256
-25.6647
-0.137224
3.70987
-4.21909
16.0091
-2.61551
-3.70446
4.51091
0.935777
3.87853
0.937343
0.149273
0.216896
-2.42843
3.60477
-0.284
1.31902
0.3132
0.211398
1.84854
-0.0339604
-8.96372
-9.07781
-8.65801
0.935777
4.3396
0.617207
0.133413
0.274473
-5.83031
8.65454
-0.118291
1.31902
-0.10804
4.63954
-5.35876
25.219
-5.03823
7.47877
-0.136888
1.31902
-2.73712
6.93849
-0.211522
1.82446
-1.72375
2.55875
-0.4001
1.31902
0.657617
1.96279
0.880393
-1.37121
-4.16173
-2.74275
1.43797
0.935777
-0.904671
2.07486
-0.639969
1.68466
10.7253
2.93264
0.053981
0.198509
-2.20923
3.27939
-0.312178
1.31902
5.10044
-10.2791
-2.06279
0.935777
-0.20411
5.07656
-2.83651
14.7565
-0.370807
4.29065
-1.56136
7.05604
3.60109
-9.48478
-0.846842
0.935777
6.27831
1.0856
0.0922161
0.256706
-5.56921
-6.41716
-5.13347
0.935777
-2.81977
4.18569
-0.244585
1.31902
8.37749
2.1671
0.0691091
0.20705
-1.82889
10.5473
-0.316565
3.69572
-2.47246
3.67014
-0.278942
1.31902
-0.869791
1.29112
-0.792918
1.31902
-5.7997
8.60911
-0.118915
1.31902
1.14238
-3.56114
5.36092
0.935777
1.11534
8.59177
0.519091
-4.1031
0.11598
2.80027
4.9919
-13.6218
0.0998532
3.54488
5.79812
-20.1968
-0.18865
0.500947
-3.06896
1.8942
-0.979326
1.45372
-0.704232
1.31902
-4.31932
6.41163
-0.159672
1.31902
-3.13135
4.6482
-0.220248
1.31902
0.27802
0.450518
2.08244
-0.581361
-2.01737
3.12985
-0.329554
1.33881
3.38842
0.05917
0.170865
0.346706
-0.310358
5.1229
-1.86546
9.91337
-9.4124
-1.39646
3.80954
0.935777
0.191026
1.24328
3.0308
-3.4113
-3.5615
5.28672
-0.193647
1.31902
-2.16123
-7.8531
-8.98819
0.935777
-4.93505
7.32562
-0.13975
1.31902
-0.158394
6.15135
-3.65519
22.8412
0.194527
3.52344
2.97624
-10.1298
7.83094
1.00411
0.0739326
0.28258
5.89766
-11.8737
-0.865177
0.935777
0.334851
7.78699
1.72901
-13.107
0.107853
5.56697
5.36807
-29.5271
0.155785
3.18819
3.7164
-11.4918
0.103866
2.97098
5.5741
-16.2037
-9.26566
-7.96362
-3.85275
0.935777
1.37498
0.112948
0.421069
0.309257
5.46584
0.633789
0.105924
0.289683
1.63181
0.506511
0.354798
0.177107
1.92597
0.0177263
0.300607
0.351488
0.470155
4.34969
1.23143
-4.99951
-2.53126
3.75742
-0.272462
1.31902
3.69453
1.06477
0.156707
0.189959
-1.3845
2.05517
-0.498137
1.31902
-0.192862
1.36557
-3.00194
4.45618
-8.96811
-8.88513
6.716
0.935777
-1.63244
2.42321
-0.422479
1.31902
-2.44662
3.63178
-0.281888
1.31902
-9.7381
-6.72474
-1.05823
0.935777
-3.79505
5.63339
-0.18173
1.31902
1.52286
-3.13625
-3.30498
0.935777
-9.14893
-6.53001
0.369396
0.935777
-6.32315
-1.56107
7.49859
0.935777
0.755833
6.35858
0.765991
-4.5138
2.33921
-9.92941
2.83971
0.935777
-4.45638
6.61508
-0.154761
1.31902
-0.129179
5.50288
-4.48184
25.0198
0.20876
7.31092
2.77333
-19.9188
-3.27546
4.86211
-0.210558
1.31902
7.91594
1.64317
0.0731386
0.236637
-0.911652
4.49172
-0.635068
3.20936
-1.79479
2.6642
-0.384264
1.31902
2.83726
0.675027
0.204056
0.219073
2.12624
-4.37077
-1.56959
0.935777
0.263991
4.87269
2.19311
-10.3295
3.54809
0.757323
0.163175
0.23324
9.07347
1.2734
0.0638081
0.275563
11.1817
1.35059
0.0517773
0.286886
-0.67007
1.37439
-0.86403
1.54433
7.7035
45.0527
0.0751556
-3.02915
-2.52762
3.75201
-0.272855
1.31902
0.314991
1.8383
1.83803
-3.02202
0.133021
3.62151
4.35239
-15.4054
-0.111199
4.53282
-5.20654
23.9571
-0.188323
2.99324
-3.0743
9.55894
-3.19803
4.74718
-0.215656
1.31902
-0.366988
0.544758
-1.87928
1.31902
2.23576
-7.61107
7.69623
0.935777
0.30885
0.209145
1.87457
-0.0352403
-0.211791
3.95846
-2.73365
11.1778
-0.42994
0.638206
-1.60411
1.31902
-4.77979
7.09514
-0.144289
1.31902
4.08502
-8.28833
-2.14875
0.935777
-0.103969
4.37693
-5.56857
24.73
0.141343
2.00798
4.09615
-7.86817
0.0957664
5.52438
6.04555
-33.0411
9.91953
3.20732
0.0583658
0.169619
0.127802
4.02517
4.53014
-17.8778
-8.50782
-4.8157
8.9683
0.935777
2.86776
-6.43465
-2.81457
0.935777
-3.28494
4.87618
-0.20995
1.31902
-7.40947
-7.9096
7.4436
0.935777
7.14699
0.536953
0.0810077
0.313319
0.12497
1.99096
4.63281
-8.86694
8.23721
1.5586
0.0702861
0.247268
-9.86208
-0.163185
-2.37895
0.935777
-3.18578
4.72898
-0.216485
1.31902
8.13211
1.01598
0.0711945
0.284484
-4.01977
5.96697
-0.17157
1.31902
-9.94393
-2.94882
-7.51651
0.935777
-0.777469
1.18025
-0.870662
1.32897
2.15429
0.871714
0.268748
0.122545
-0.105628
3.88791
-5.48111
21.6669
7.89015
2.33621
0.0733777
0.18539
-0.918953
1.3641
-0.750499
1.31902
-1.29127
6.07915
-0.448366
3.0825
4.47724
-8.99364
0.143281
0.935777
-4.95868
-1.88956
0.583408
0.935777
3.14113
0.740344
0.184316
0.220359
-1.82884
2.71474
-0.37711
1.31902
-6.18734
9.18453
-0.111465
1.31902
-5.89677
8.7532
-0.116958
1.31902
-0.341757
-4.32614
-7.68584
0.935777
0.151529
3.76833
3.8208
-14.0412
-3.69941
5.49142
-0.186428
1.31902
0.261453
4.66341
2.2144
-9.96983
-5.42645
8.05506
-0.127095
1.31902
6.83821
1.79272
0.0846657
0.205035
2.22672
0.152591
0.260006
0.317142
-3.64663
5.41308
-0.189126
1.31902
-4.81206
7.14305
-0.143322
1.31902
4.11538
0.0571717
0.140682
0.348773
-0.367314
4.23448
-1.5762
7.03121
-4.70496
6.98406
-0.146584
1.31902
-0.57337
0.851113
-1.20284
1.31902
3.51583
-7.12805
-3.08351
0.935777
0.338729
3.3475
1.70921
-5.36479
1.71311
0.746812
0.337959
0.104424
-2.20477
-5.51919
7.52779
0.935777
-7.79701
-6.1596
7.10124
0.935777
-2.68895
3.99149
-0.256485
1.31902
-5.3418
7.9294
-0.129109
1.31902
-1.57866
2.34338
-0.436871
1.31902
-0.115622
2.73266
-5.00734
14.0402
-6.07296
-13.2652
0.103271
0.935777
0.231532
6.38126
2.50057
-15.5999
2.14715
-5.73968
-1.12426
0.935777
1.05572
10.935
0.548406
-5.64002
-2.96166
4.3963
-0.232867
1.31902
-2.10111
3.1189
-0.328242
1.31902
-5.49339
-2.55437
0.120997
0.935777
2.39281
-5.51426
1.30719
0.935777
1.59412
3.27321
0.363186
-0.831966
-0.143587
3.02172
-4.03212
12.5407
-1.50615
4.75727
-0.384399
2.18551
-1.76794
2.62434
-0.390099
1.31902
0.293804
2.30947
1.97057
-4.19415
-3.47132
5.15285
-0.198677
1.31902
1.19542
-2.43353
-2.6914
0.935777
-4.79591
7.11908
-0.143804
1.31902
8.17158
1.89491
0.0708505
0.222561
-1.62935
2.41861
-0.423282
1.31902
-1.62687
2.41493
-0.423927
1.31902
-3.70118
5.49405
-0.186339
1.31902
3.46873
0.292521
0.166909
0.307992
-1.5395
2.28524
-0.447985
1.31902
-5.01009
7.437
-0.137657
1.31902
0.0844613
5.06492
6.85475
-34.362
-0.122031
-6.05844
9.04823
0.935777
5.27038
0.986296
0.109852
0.24847
7.15851
1.94416
0.0808773
0.199578
-0.538245
0.798975
-1.28134
1.31902
6.32602
1.10755
0.0915205
0.255453
-2.73872
4.06537
-0.251824
1.31902
-0.823022
6.29283
-0.703458
4.78356
8.27365
2.48537
0.0699765
0.182899
-1.05911
10.2636
-0.546651
5.9674
3.66924
-9.83022
2.62392
0.935777
-3.46468
-8.55785
3.60617
0.935777
3.96211
-8.03896
-2.98455
0.935777
-2.9079
4.31651
-0.237172
1.31902
-4.66748
6.92843
-0.147761
1.31902
-0.14991
0.497596
-3.86207
2.27857
-7.38532
-1.33948
-2.34433
0.935777
-8.44027
-8.23331
-9.96798
0.935777
-3.63563
5.39675
-0.189698
1.31902
-0.407248
5.6825
-1.42164
8.43529
8.30818
1.71869
0.0696857
0.237048
1.53106
-3.08004
-3.9276
0.935777
-1.98345
-6.36646
8.31764
0.935777
5.2139
0.56452
0.111042
0.294131
-5.43858
8.07305
-0.126811
1.31902
-1.40878
2.0912
-0.489553
1.31902
-4.18662
6.21464
-0.164733
1.31902
-2.1115
3.13432
-0.326628
1.31902
-4.63187
-1.66704
5.56422
0.935777
-2.51628
-4.90812
-0.744531
0.935777
6.16478
1.57879
0.0939144
0.208545
-0.707443
-2.75655
8.52306
0.935777
0.594287
1.5383
0.974211
-1.14181
-1.92598
2.85893
-0.35809
1.31902
0.283138
5.79911
2.0448
-11.5012
0.554031
2.29573
1.045
-2.04222
-3.5947
5.33599
-0.191858
1.31902
2.60743
-5.29365
-2.12664
0.935777
-1.00214
-6.1836
5.98089
0.935777
-6.91553
-7.96142
-8.78625
0.935777
6.23662
0.366777
0.0928326
0.322767
-6.43349
-3.48585
-2.12734
0.935777
3.54902
0.147882
0.163133
0.332692
0.519889
-1.12965
-2.50003
0.935777
-0.246521
4.87366
-2.34853
11.8027
1.41711
-2.98298
-1.25019
0.935777
0.19575
2.48082
2.95765
-6.98057
0.37813
0.198194
1.53112
0.0533584
-0.695706
5.90872
-0.832193
5.27401
-2.78568
4.13508
-0.247578
1.31902
-4.42406
6.5671
-0.155891
1.31902
0.114589
2.2606
5.05248
-11.0648
-0.0831644
4.01516
-6.96165
28.3089
-1.53093
2.27253
-0.450492
1.31902
1.95279
-4.41044
-0.332941
0.935777
-2.93807
-5.42959
6.8136
0.935777
0.772408
0.123936
0.749554
0.263919
-5.57495
8.27549
-0.123709
1.31902
0.106393
3.17499
5.44171
-16.9205
-0.648762
8.58679
-0.89241
8.01975
-1.09948
1.63208
-0.62727
1.31902
-5.44456
-6.41511
5.49922
0.935777
0.220923
0.063918
2.62064
0.18931
3.10639
-8.22565
8.57027
0.935777
-0.190444
2.32298
-3.04007
7.41883
0.194701
3.95407
2.97358
-11.4009
-0.132544
4.13067
-4.36807
18.3999
4.15377
0.177468
0.139382
0.33208
2.40229
-4.82896
-6.35445
0.935777
0.40483
2.81192
1.43013
-3.6646
-5.75056
-3.62449
0.723197
0.935777
-2.16587
3.21503
-0.318427
1.31902
1.9946
0.5015
0.290264
0.211249
-4.11321
6.10567
-0.167673
1.31902
9.44004
2.42462
0.0613304
0.208113
-3.33336
4.94805
-0.2069
1.31902
3.64548
1.13845
0.158816
0.176012
11.1611
2.76155
0.0518731
0.213566
-1.88957
2.80488
-0.36499
1.31902
-0.133144
0.346739
-4.34837
1.86457
-5.26763
7.8193
-0.130927
1.31902
-0.194806
2.31694
-2.97199
7.24275
4.92001
1.06448
0.117675
0.231554
-0.458928
7.62345
-1.26155
9.97418
-0.155173
0.557147
-3.73106
2.43557
-7.75837
-2.41953
-4.86112
0.935777
4.50879
0.665285
0.128407
0.271389
-3.78399
5.87068
-0.175696
1.33881
1.03647
0.093341
0.558592
0.304677
8.50507
0.824592
0.0680725
0.300684
-0.116632
3.64793
-4.964
18.4652
10.6458
1.64904
0.0543838
0.267135
-3.15302
-4.1961
-4.60318
0.935777
-0.532062
5.2376
-1.08815
6.05608
-0.0928115
1.81366
-6.23803
11.6705
-2.85082
4.23178
-0.241921
1.31902
5.8822
1.41299
0.098426
0.217741
-8.81208
-9.59049
6.65561
0.935777
-2.56789
-4.03486
3.75354
0.935777
7.61169
1.12809
0.0760621
0.271011
-0.150702
4.81102
-3.84177
18.8397
2.31016
10.0086
0.250616
-2.1515
-3.67172
5.45032
-0.187834
1.31902
-2.72335
4.04256
-0.253244
1.31902
-2.03117
6.3572
-0.285038
2.16886
-0.382739
1.795
-1.51268
3.07207
10.1709
2.83771
0.0569232
0.195285
3.93688
-7.93046
-3.67289
0.935777
-9.16956
-0.00315045
-0.132832
0.935777
1.54227
0.252921
0.375396
0.261871
1.76665
-3.57018
-1.48878
0.935777
0.0978349
4.09878
5.91774
-23.8987
1.18301
-2.40383
-2.29045
0.935777
-4.47434
6.64173
-0.15414
1.31902
-5.5531
8.24306
-0.124196
1.31902
-0.426272
1.542
-1.3582
2.45115
-1.07166
4.7495
-0.540245
2.92271
2.36066
-4.72332
-0.614665
0.935777
9.00764
0.82146
0.0642745
0.304017
0.459654
0.0556655
1.25956
0.286702
0.255325
0.0388709
2.26755
0.268675
0.134937
1.03269
4.29059
-4.07403
-4.97608
7.38653
-0.138598
1.31902
-0.314151
3.62288
-1.84294
7.03356
0.559588
7.75329
1.03462
-7.6649
8.0311
1.13114
0.0720899
0.275273
5.76559
0.607333
0.100417
0.29583
8.2788
2.02959
0.069933
0.214881
-3.89142
5.77644
-0.177229
1.31902
-2.73029
4.23593
-0.243502
1.33881
2.39126
0.607106
0.242115
0.209827
-4.45702
6.61603
-0.154739
1.31902
0.88554
-1.80023
-1.80715
0.935777
1.59348
-3.60791
-0.551107
0.935777
-2.61628
-9.62969
6.27257
0.935777
1.0573
10.6653
0.547585
-5.48333
0.165018
5.0482
3.50847
-17.3547
-1.34332
-7.01143
-2.08422
0.935777
-3.41159
5.06418
-0.202156
1.31902
0.337931
-2.76074
-4.17689
0.935777
-5.41653
8.04033
-0.127328
1.31902
-0.350528
6.57982
-1.65168
11.2246
0.255035
4.78486
2.27012
-10.5054
-1.7033
-1.1566
4.59813
0.935777
-1.26768
-4.57771
7.57494
0.935777
-7.06701
-5.44565
-0.195175
0.935777
1.45973
0.00524196
0.396623
0.354737
-3.9788
5.90615
-0.173337
1.31902
-0.612747
4.6229
-0.944862
4.72482
-1.66409
2.47019
-0.414444
1.31902
2.1161
0.636116
0.273598
0.182776
-1.37017
2.03388
-0.50335
1.31902
-0.100289
4.47186
-5.77294
26.1726
0.90923
1.23612
0.63676
-0.430295
-0.91823
1.36303
-0.75109
1.31902
-3.84905
-2.35749
4.85162
0.935777
-3.16974
4.70518
-0.217581
1.31902
-3.80276
5.64484
-0.181361
1.31902
-0.362378
4.4754
-1.59767
7.50704
6.84152
1.14371
0.0846246
0.26003
-1.09828
1.6303
-0.627955
1.31902
1.08778
0.558911
0.532241
0.0593409
0.109239
4.92416
5.29994
-25.7409
7.01567
0.40751
0.082524
0.323187
-0.21986
4.08146
-2.63332
11.1046
-3.21496
-6.81858
-4.69362
0.935777
-2.76908
-6.5652
9.46311
0.935777
5.4215
0.272231
0.10679
0.327745
-0.123194
5.3678
-4.69958
25.5832
9.23581
2.17082
0.0626866
0.220735
-2.72534
4.04551
-0.25306
1.31902
4.29221
0.355363
0.134887
0.308882
0.0907645
2.43611
6.37872
-15.1824
4.05225
0.453091
0.142874
0.292081
-0.615575
-0.467535
-0.28942
0.935777
-2.81835
4.18357
-0.244708
1.31902
0.44931
-6.51247
-8.13281
0.935777
-0.339323
0.503694
-2.0325
1.31902
5.37751
1.7987
0.107663
0.163162
-1.11695
7.98797
-0.51834
4.4973
-1.35895
2.01723
-0.507505
1.31902
0.136264
3.6006
4.24881
-14.9415
-5.60853
-0.80539
-5.65347
0.935777
-0.21387
5.85142
-2.70707
16.197
-0.312461
6.59499
-1.85291
12.5767
-0.306571
6.3479
-1.88851
12.3449
0.15235
4.41486
3.80021
-16.4206
-2.08203
-8.11533
9.51304
0.935777
-0.379233
5.28754
-1.52666
8.4291
-3.33915
4.95665
-0.206542
1.31902
-0.478092
0.709683
-1.44255
1.31902
-5.43312
8.06496
-0.126939
1.31902
-4.71408
6.99761
-0.146301
1.31902
-1.36712
-1.67205
-8.33258
0.935777
-3.68797
-8.14537
-2.61321
0.935777
1.25267
-5.53611
4.5487
0.935777
-1.68843
-1.66632
8.62352
0.935777
-0.329833
4.78779
-1.75532
8.76091
-4.01856
-7.20779
-2.71253
0.935777
4.24148
-8.71729
-5.36834
0.935777
-5.49589
8.15814
-0.125489
1.31902
-9.36752
-3.45805
0.32604
0.935777
0.0873142
1.88505
6.63078
-12.1425
-4.91633
7.29783
-0.140282
1.31902
-0.757934
1.12508
-0.909938
1.31902
8.04361
3.66312
0.0719777
0.0931528
3.61795
0.071025
0.160025
0.34545
7.51427
0.364295
0.0770482
0.328748
-0.659076
0.978337
-1.04642
1.31902
-1.97262
2.99458
-0.343153
1.32897
0.386239
4.78427
1.49897
-6.81467
10.8779
2.3993
0.0532237
0.229117
4.07112
-8.21591
0.439802
0.935777
4.62108
0.141207
0.125287
0.339125
-2.60705
-8.93697
8.82077
0.935777
-3.83491
5.69256
-0.179841
1.31902
-1.59371
2.47257
-0.41716
1.33881
11.6153
0.382376
0.0498445
0.337757
5.73757
0.497612
0.100907
0.306604
6.21511
1.63727
0.0931537
0.204298
-0.84419
1.25312
-0.816965
1.31902
2.12165
-4.3827
-0.765976
0.935777
-5.82001
8.63925
-0.1185
1.31902
0.860911
-1.75179
-2.65758
0.935777
-2.79503
4.14895
-0.24675
1.31902
0.237502
-3.53141
-3.37808
0.935777
0.0958496
1.1752
6.04031
-6.74173
-9.74853
-5.20637
-0.358321
0.935777
2.57387
-7.52797
0.858177
0.935777
0.13738
3.56511
4.21429
-14.6676
-1.82152
2.70388
-0.378625
1.31902
-3.78309
5.61564
-0.182304
1.31902
2.17366
0.0396695
0.266353
0.34625
3.81608
-8.58069
-0.388088
0.935777
-3.26508
-5.53119
-7.36918
0.935777
-4.13199
6.13355
-0.166911
1.31902
-0.859233
1.27545
-0.802662
1.31902
-1.58147
2.34754
-0.436097
1.31902
-4.42107
6.56267
-0.155997
1.31902
0.154218
3.86518
3.75417
-14.1537
-0.69843
4.3217
-0.828947
3.93928
-5.60846
8.32522
-0.12297
1.31902
-1.06875
1.58645
-0.64531
1.31902
-0.127121
6.32919
-4.55441
29.1825
-0.204289
4.90549
-2.83403
14.2591
-0.360832
0.535621
-1.91134
1.31902
-4.36189
6.47481
-0.158114
1.31902
0.118724
1.40803
4.87653
-6.50946
-2.1254
3.15495
-0.324491
1.31902
-7.95014
-1.15994
4.31101
0.935777
0.100286
5.64559
5.77309
-32.2357
10.286
2.59161
0.0562865
0.210944
0.613567
5.09705
0.943599
-4.45276
-2.77776
4.12332
-0.248284
1.31902
0.926612
-1.99327
-2.20705
0.935777
-0.340972
2.5911
-1.69797
4.75643
-2.62376
3.89473
-0.262857
1.31902
-3.05486
4.53466
-0.225762
1.31902
3.02387
1.00781
0.191464
0.163857
1.87228
-9.73061
1.70118
0.935777
0.94487
0.27471
0.612741
0.18849
6.47592
1.79091
0.0894021
0.196705
0.177892
0.979279
3.25457
-2.83032
-7.54871
-8.19327
-5.9412
0.935777
8.27235
0.386022
0.0699875
0.329799
-0.803899
1.19331
-0.85791
1.31902
-4.42082
6.5623
-0.156006
1.31902
0.948834
6.88666
0.610182
-3.8453
-1.6835
2.49899
-0.409667
1.31902
-4.42394
-2.36508
2.02476
