-2.0000000000000000e+00                       
2.0000000000000000e+00                      
-2.22192084236755e+00                     
1.68216640373116e+00                    
-2.289584328299441e+00                      
1.54814989600965e+00                    
-2.30690854939786e+00                     
1.4911148535286e+00                   
-2.314019913322396e+00                      
1.45304901834283e+00                    
-2.31733493976765e+00                     
1.4235182610121e+00                   
-2.31969363408079e+00                     
1.3853150561042e+00                   
-2.32029085204042e+00                     
1.3550421052376e+00                   
-2.32043080607292e+00                     
1.3153573239593e+00                   
-2.32041232650814e+00                     
1.283643491640280e+00                     
-2.32010142042368e+00                     
1.2574992768133e+00                   
-2.318746533564680e+00                      
1.2362783828301e+00                   
-2.31575869798109e+00                     
1.2199734167162e+00                   
-2.31132068412848e+00                     
1.2080506480738e+00                   
-2.3029323615001e+00                    
1.1944239022878e+00                   
-2.2887656905838e+00                    
1.180216363795e+00                  
-2.2673852506779e+00                    
1.1642311236585e+00                   
-2.2391598669995e+00                    
1.1437674502491e+00                   
-2.2175645233998e+00                    
1.1283167320935e+00                   
-2.1902095288454e+00                    
1.109130318423e+00                  
-2.17057991259445e+00                     
1.09567555996426e+00                    
-2.146537810768e+00                   
1.079519388236e+00                  
-2.1302041335364e+00                    
1.0688517412102e+00                   
-2.110679397057e+00                   
1.056371653160e+00                  
-2.097903457995e+00                   
1.048463790100e+00                  
-2.082852835415e+00                   
1.039365572861e+00                  
-2.073207923481e+00                   
1.03373456616e+00                 
-2.0619279191830e+00                    
1.02731547233214e+00                    
-2.05476448997e+00                  
1.02338701249e+00                 
-2.04640979572e+00                  
1.01892882606e+00                 
-2.037638487831e+00                   
1.014463089275e+00                  
-2.03282526754e+00                  
1.01211366574e+00                 
-2.02743849051e+00                  
1.00958515789e+00                 
-2.02205926056e+00                  
1.00719308221e+00                 
-2.0172881807e+00                 
1.00520337106e+00                 
-2.0134136555e+00                 
1.0037009714e+00                
-2.010400703e+00                
1.002620446e+00               
-2.008089967e+00                
1.001856881e+00               
-2.006322661e+00                
1.001320212e+00               
-2.004957918e+00                
1.000940460e+00               
