0.0000000000000000e+00                      
2.0000000000000000e+00                      
-1.687500000000000e-01                      
1.662500000000000e+00                     
-2.37508584880471e-01                     
1.471934085258842e+00                     
-2.82984401689975e-01                     
1.29937830613454e+00                    
-2.87984219675024e-01                     
1.168266336555384e+00                     
-2.24127469228568e-01                     
1.111389539638384e+00                     
-1.0303555268591e-01                    
1.08243976812838e+00                    
-9.0928796192364e-02                    
1.04071696073264e+00                    
-6.22621356824075e-02                     
1.043926250733912e+00                     
-5.14596375982107e-02                     
1.0271743073696422e+00                      
-2.3012600086466e-02                    
1.022107157613793e+00                     
-2.2741213125719e-02                    
1.015597258023763e+00                     
-1.8485299599369e-02                    
1.010347099910847e+00                     
-8.798457788583e-03                   
1.007487932584489e+00                     
-8.01317214126597e-03                     
1.00374662590675e+00                    
-5.464131749145e-03                   
1.004039244616935e+00                     
-4.6104163530838e-03                    
1.002459594088593e+00                     
-2.034971956660e-03                   
1.00207625260845e+00                    
-2.047356663439579e-03                      
1.001439696850859e+00                     
-1.682982225292e-03                   
1.00093900819621e+00                    
-7.90877217071e-04                  
1.00070324453898e+00                    
-7.645897173379e-04                   
1.00051841023281e+00                    
-6.16918382513e-04                  
1.00035487411570e+00                    
-3.02547646785e-04                  
1.00024324474958e+00                    
-2.66968018466e-04                  
1.00013284202087e+00                    
-1.86503212690e-04                  
1.00013359102487e+00                    
-1.2301194681e-04                 
1.00003675164289e+00                    
-9.71360877393e-05                  
1.000051601603874e+00                     
-6.981664141123e-05                   
1.00004795849018e+00                    
-4.3587433259e-05                 
1.00001663475000e+00                    
-3.5501846210e-05                 
1.00001972982903e+00                    
-2.6038785155e-05                 
1.000017354759105e+00                     
-1.5618044389e-05                 
1.000006949427515e+00                     
-1.0416919351e-05                 
1.000007980867067e+00                     
