1.8000000000000000e+00                      
1.5000000000000000e+00                      
1.71545545705554e+00                    
1.41457926877734e+00                    
1.664687761685882e+00                     
1.362233665472144e+00                     
1.655819583325473e+00                     
1.351838258649782e+00                     
1.87979277273e-01                 
-1.022943174972e+00                   
1.65970622095e-01                 
-1.044861619833e+00                   
1.4247042983005e-01                   
-1.0666354635219e+00                    
1.2686001907637e-01                   
-1.0677737503338e+00                    
1.081436936736e-01                  
-1.0492255098570e+00                    
9.681311169558e-02                  
-1.05218060393395e+00                     
8.4398526464506e-02                   
-1.0400840735091e+00                    
6.955518277940e-02                  
-1.0417126309166e+00                    
6.7224619066025e-02                   
-1.034921999307514e+00                      
4.9627854943544e-02                   
-1.02676419322375e+00                     
3.4073367750353e-02                   
-1.01450900380060e+00                     
3.107748686727e-02                  
-1.01618832394697e+00                     
1.804858064241e-02                  
-1.0112938344554e+00                    
1.7292683198042e-02                   
-1.0083744356223e+00                    
1.51790816404e-02                 
-1.0086705085305e+00                    
1.31626770287e-02                 
-1.0057589348939e+00                    
1.225867035193e-02                  
-1.0062250638203e+00                    
9.86246709927e-03                 
-1.0059181198056e+00                    
9.45199214090e-03                 
-1.0049118923147e+00                    
