2.0000000000000000e+00                      
4.0000000000000000e+00                      
1.7436273097991943e+00                      
3.7416961193084717e+00                      
1.513687061341134e+00                     
3.509948959102127e+00                     
1.310173934563378e+00                     
3.304847700230719e+00                     
1.13089113186158e+00                    
3.124324981585418e+00                     
9.739339793294366e-01                     
2.966691647545674e+00                     
8.37876103723720e-01                    
2.83088245064259e+00                    
7.218944707883101e-01                     
2.716688134610074e+00                     
6.26003719290716e-01                    
2.6252068063177321e+00                      
5.51482292923368e-01                    
2.55978623908463e+00                    
5.01339084576767e-01                    
2.52798890814252e+00                    
-2.675650052534e-01                   
3.0375810721391e+00                   
-1.865419689101e-01                   
3.07986131180113e+00                    
-3.21689277428e-02                  
2.9999774363650e+00                   
-2.26485588379e-02                  
3.0095053430430e+00                   
-1.75471527847e-02                  
3.0105899147189e+00                   
-4.05029372287e-03                  
3.00214689954804e+00                    
-1.75330985663e-03                  
3.0018133927237e+00                   
-1.77560085237e-03                  
3.00111388997009e+00                    
-5.80123341160e-04                  
3.000283519860318e+00                     
-4.16368467772e-04                  
3.000290402430996e+00                     
-2.464700068248e-04                   
3.0000680045197812e+00                      
-1.73026268097e-04                  
3.000113436541554e+00                     
-5.323212333e-05                
3.00000503944920e+00                    
-3.8448399011e-05                 
3.000018276948854e+00                     
-2.3339749726e-05                 
3.000019693978287e+00                     
-2.1672944200e-05                 
3.000012356131280e+00                     
-1.127389377e-05                
3.00000896264591e+00                    
-9.6993153255e-06                 
3.000004431005310e+00                     
-7.508708948e-06                
3.000004779096437e+00                     
-1.96668744e-06               
3.00000061768901e+00                    
-1.548759923e-06                
3.000000844251489e+00                     
-4.83030838e-07               
3.00000063285095e+00                    
-5.17613005e-07               
3.000000452190953e+00                     
-4.807453134e-07                
3.000000234232199e+00                     
-3.11166507e-07               
3.00000024268007e+00                    
-2.53656098e-07               
3.000000096403463e+00                     
-1.73058938e-07               
3.0000001275906230e+00                      
-1.44611648e-07               
3.000000076210679e+00                     
-9.23715092e-08               
3.00000007024611e+00                    
-7.17441624e-08               
3.00000002538351e+00                    
-5.8553951e-08              
3.00000003135178e+00                    
