2.5000000000000000e+00                      
-2.5000000000000000e+00                       
2.500254251721930e+00                     
-2.195146817899526e+00                      
2.50099639182418e+00                    
-2.047252724984809e+00                      
2.50176072968560e+00                    
-1.944699655345566e+00                      
2.50247107325235e+00                    
-1.866138562846160e+00                      
2.50310726680336e+00                    
-1.80269238937358e+00                     
2.50366521235534e+00                    
-1.749701641812079e+00                      
2.50414625270939e+00                    
-1.704389083756505e+00                      
2.50455360418883e+00                    
-1.6649574951628130e+00                       
2.50507110851567e+00                    
-1.6112032914063035e+00                       
2.50542612229395e+00                    
-1.566409553032706e+00                      
2.50563476753761e+00                    
-1.52822741997251e+00                     
2.50573558441607e+00                    
-1.476849989850761e+00                      
2.50553986254599e+00                    
-1.43513538757659e+00                     
2.50508660276086e+00                    
-1.400333747942911e+00                      
2.50440593478638e+00                    
-1.3707262870914991e+00                       
2.50298807554032e+00                    
-1.330976022281229e+00                      
2.501138049533568e+00                     
-1.29902817875467e+00                     
2.498926506743716e+00                     
-1.27271384243078e+00                     
2.49641043591644e+00                    
-1.250649527560371e+00                      
2.49198673524402e+00                    
-1.2214009561397983e+00                       
2.487081837382379e+00                     
-1.1985935773615883e+00                       
2.48182979381362e+00                    
-1.180369521053155e+00                      
2.473057501576637e+00                     
-1.157226040584015e+00                      
2.4640627118196994e+00                      
-1.14041846012010e+00                     
2.449767016434388e+00                     
-1.12075802866645e+00                     
2.4359342691603292e+00                      
-1.107740041539541e+00                      
2.41524368274266e+00                    
-1.09345628198474e+00                     
2.38520845454099e+00                    
-1.07945199287851e+00                     
2.34292361477525e+00                    
-1.066580906393234e+00                      
2.28600919570050e+00                    
-1.053697649134349e+00                      
2.24123153827278e+00                    
-1.04428902857643e+00                     
2.20512513835463e+00                    
-1.03694536023195e+00                     
2.15821980600797e+00                    
-1.027785430895692e+00                      
2.12374868521349e+00                    
-1.021374960176591e+00                      
2.09770374257583e+00                    
-1.01664757766596e+00                     
2.0776529153105e+00                   
-1.01310314106549e+00                     
2.05237763957777e+00                    
-1.00872204514090e+00                     
2.0357924566898e+00                   
-1.0059140548658e+00                    
2.0246588348149e+00                   
-1.0040504928777e+00                    
2.0170778847314e+00                   
-1.0027954349253e+00                    
2.0118692911214e+00                   
-1.00193738940566e+00                     
2.0056594735010e+00                   
-1.0009212985359e+00                    
2.002724563360e+00                  
-1.0004434622626e+00                    
2.0013173722285e+00                   
-1.00021535386230e+00                     
2.000637995420e+00                  
-1.000106310252e+00                   
2.000308079756e+00                  
-1.00005531248412e+00                     
2.00019998723e+00                 
-1.00003091677e+00                  
2.0000716026e+00                
-1.0000022035e+00                 
2.0000573574e+00                
-1.00000909266e+00                  
2.0000480692e+00                
-1.0000078823e+00                 
2.0000364687e+00                
-1.00000583116e+00                  
2.0000232030e+00                
-1.00000394819e+00                  
2.00001069745e+00                 
-1.0000010683e+00                 
2.00000170659e+00                 
-1.0000004087e+00                 
