2.0000000000000000e+00                      
-2.0000000000000000e+00                       
2.0000000000000000e+00                      
-1.676562500000000e+00                      
2.004876224672590e+00                     
-1.401225920307486e+00                      
2.014626122338407e+00                     
-1.189825691940464e+00                      
2.025684331820973e+00                     
-1.050972415181041e+00                      
2.027533848226805e+00                     
-1.023445959570573e+00                      
2.02722599939629e+00                    
-1.01263606551351e+00                     
2.02500522145106e+00                    
-1.003157784690593e+00                      
2.01830536479148e+00                    
-1.0041331422489947e+00                       
2.01399278678090e+00                    
-1.00093665057620e+00                     
2.01200854109135e+00                    
-1.002076132860224e+00                      
2.00899899866957e+00                    
-1.00133115042577e+00                     
2.00436280670750e+00                    
-1.00116083274627e+00                     
2.003880969004771e+00                     
-1.000595189700323e+00                      
2.002891988284235e+00                     
-1.000511393564500e+00                      
2.0014602250184299e+00                      
-1.00010002079596e+00                     
2.001051608137514e+00                     
-1.00032855972407e+00                     
2.000943072413069e+00                     
-1.000141173037880e+00                      
2.000702309571553e+00                     
-1.00012774368634e+00                     
2.0003573718794141e+00                      
-1.00001267191477e+00                     
2.000305649057397e+00                     
-1.000052989688321e+00                      
2.000229832092017e+00                     
-1.000033413842220e+00                      
2.000111957990650e+00                     
-1.00003098906783e+00                     
2.000099811668772e+00                     
-1.000015243283960e+00                      
2.00007443900765e+00                    
-1.000013177092895e+00                      
2.000037679606880e+00                     
-1.00000249755278e+00                     
2.000032402113093e+00                     
-1.0000055272364330e+00                       
2.00002433943341e+00                    
-1.000003640766804e+00                      
2.0000119199763828e+00                      
-1.00000295335597e+00                     
2.000009229966139e+00                     
-1.00000032729014e+00                     
2.00000789455285e+00                    
-1.000001368142086e+00                      
