2.5000000000000000e+00                      
-5.0000000000000000e-01                       
2.388781068280353e+00                     
-6.3380441675071586e-01                       
2.3423800257089842e+00                      
-6.991277545459914e-01                      
2.310904574190151e+00                     
-7.48431244462891e-01                     
2.287215743739956e+00                     
-7.888154102532303e-01                      
2.268409270450462e+00                     
-8.23047802208983e-01                     
2.244291437287103e+00                     
-8.691889569169013e-01                      
2.2259500085631716e+00                      
-9.056523223226961e-01                      
2.211361454287993e+00                     
-9.344688790474942e-01                      
2.199385143111793e+00                     
-9.56986540179320e-01                     
2.18931020940349e+00                    
-9.742988592966544e-01                      
2.18066641537015e+00                    
-9.873720304901300e-01                      
2.17313049045836e+00                    
-9.97069152997667e-01                     
2.162341116638145e+00                     
-1.00819029196895e+00                     
2.15360390359462e+00                    
-1.014252391209340e+00                      
2.14191353048030e+00                    
-1.019120220429747e+00                      
2.12736216436188e+00                    
-1.02087535279389e+00                     
2.10896283564574e+00                    
-1.01883468437758e+00                     
2.08499563548098e+00                    
-1.014312385853676e+00                      
2.066691212322862e+00                     
-1.011228959113685e+00                      
2.04379279256664e+00                    
-1.007247926118283e+00                      
2.0291279540967e+00                   
-1.0048027437644e+00                    
2.0195319171567e+00                   
-1.0031974537409e+00                    
2.0131621413714e+00                   
-1.0021515655977e+00                    
2.0088995862867e+00                   
-1.00144985842076e+00                     
2.003860719489e+00                  
-1.0006257936502e+00                    
2.001692276057e+00                  
-1.000268968565e+00                   
2.000744237232e+00                  
-1.0001025260321e+00                    
2.00056528887838e+00                    
-1.0001001157059e+00                    
2.000353427987e+00                  
-1.0000562110640e+00                    
2.0001065927218e+00                   
-1.00000769605e+00                  
2.000088685123e+00                  
-1.000014212861e+00                   
2.00007204460e+00                 
-1.000011758215e+00                   
2.00005056572e+00                 
-1.000008166666e+00                   
2.0000252744e+00                
-1.00000404507e+00                  
2.000001531e+00               
-9.9999881379e-01                 
2.0000006279e+00                
-1.0000003152e+00                 
