-2.0000000000000000e+00                       
2.0000000000000000e+00                      
-2.05678591055306e+00                     
1.427333545405062e+00                     
-2.12953282082440e+00                     
1.29525352728034e+00                    
-2.15879668433891e+00                     
1.247579500129733e+00                     
-2.178953764015475e+00                      
1.21068396407252e+00                    
-2.18666753446207e+00                     
1.18792961947419e+00                    
-2.18644396722536e+00                     
1.17726285213582e+00                    
-2.184076772705963e+00                      
1.17093613035590e+00                    
-2.17924034943941e+00                     
1.16369534959891e+00                    
-2.17081305980631e+00                     
1.15516728389608e+00                    
-2.15796395866817e+00                     
1.14383660724952e+00                    
-2.140197899032839e+00                      
1.12766084467066e+00                    
-2.11592091026533e+00                     
1.10597757823283e+00                    
-2.08495530796643e+00                     
1.07789971720889e+00                    
-2.0631623357008e+00                    
1.0579855450679e+00                   
-2.04741463906046e+00                     
1.0435249267505e+00                   
-2.0358169693504e+00                    
1.0328814336079e+00                   
-2.02717042920192e+00                     
1.0249563431087e+00                   
-2.0164835735576e+00                    
1.015141881095e+00                  
-2.0101476009734e+00                    
1.0092074539613e+00                   
-2.0082486133223e+00                    
1.0077268593181e+00                   
-2.00688023379810e+00                     
1.006223554313e+00                  
-2.0055708252064e+00                    
1.0052179242884e+00                   
-2.004651232971e+00                   
1.0042060483516e+00                   
-2.0037656120849e+00                    
1.0035269592271e+00                   
-2.003145941325e+00                   
1.0028443985067e+00                   
-2.0025469130657e+00                    
1.002385490906e+00                  
-2.002128649666e+00                   
1.0019244368200e+00                   
-2.0017233395323e+00                    
1.00161410191e+00                 
-2.001440709519e+00                   
1.0013024223241e+00                   
-2.00116641208088e+00                     
1.0010925142145e+00                   
-2.000975300274e+00                   
1.0008816431343e+00                   
-2.000789625998e+00                   
1.00073968643e+00                 
-2.000699894342e+00                   
1.000629199454e+00                  
-2.000551468589e+00                   
1.00050016275e+00                 
-2.00043679431e+00                  
1.0004070869e+00                
-2.000379632341e+00                   
1.000342267901e+00                  
-2.00029264207e+00                  
1.0002562734e+00                
-2.00024848525e+00                  
1.000224600e+00               
-2.000217725e+00                
1.0002045899e+00                
-2.000184395e+00                
1.000166229e+00               
-2.0001582265e+00                 
1.000149230e+00               
-2.0001291213e+00                 
1.000118331e+00               
-2.00009272743e+00                  
1.0000845340e+00                
-2.0000728388e+00                 
1.0000679253e+00                
-2.00006432898e+00                  
1.0000568271e+00                
-2.0000544753e+00                 
1.000051252e+00               
-2.0000458396e+00                 
1.0000410468e+00                
-2.00003305591e+00                  
1.0000316201e+00                
-2.00002740925e+00                  
1.0000242699e+00                
-2.0000185848e+00                 
1.00001853057e+00                 
-2.0000157167e+00                 
1.0000131025e+00                
-2.0000121600e+00                 
1.0000116390e+00                
-2.0000107147e+00                 
1.000007703e+00               
-2.0000075814e+00                 
1.000009501e+00               
-2.0000090788e+00                 
1.0000067677e+00                
-2.0000063740e+00                 
1.000008152e+00               
-2.0000079350e+00                 
1.000005399e+00               
-2.0000063214e+00                 
1.0000050930e+00                
