-2.0000000000000000e+00                       
0.0000000000000000e+00                      
-1.896508022531677e+00                      
1.03583422810710e-01                    
-1.841233036671191e+00                      
1.59209489657808e-01                    
-1.80257245918208e+00                     
1.98326494404408e-01                    
-1.772957321196215e+00                      
2.28459005623115e-01                    
-1.7491122623429347e+00                       
2.52861309591113e-01                    
-1.729285023217966e+00                      
2.73273714300779e-01                    
-1.712419339669226e+00                      
2.90744992658774e-01                    
-1.689788478717279e+00                      
3.14350872466112e-01                    
-1.671463386288294e+00                      
3.33671388701206e-01                    
-1.65621022366807e+00                     
3.49933586802193e-01                    
-1.63604783999911e+00                     
3.71703710806128e-01                    
-1.62019509200111e+00                     
3.89165074726365e-01                    
-1.60733382339863e+00                     
4.03633423555559e-01                    
-1.59066203448898e+00                     
4.22856292142395e-01                    
-1.57807268399454e+00                     
4.37962019869776e-01                    
-1.56824580760000e+00                     
4.50277902434738e-01                    
-1.56040804595414e+00                     
4.60581792173272e-01                    
-1.55049516309105e+00                     
4.74397511496590e-01                    
-1.54341542755185e+00                     
4.85299786045479e-01                    
-1.53827595280934e+00                     
4.94197735285052e-01                    
-1.53244986185524e+00                     
5.06011446119575e-01                    
-1.52919393564585e+00                     
5.15023223640213e-01                    
-1.52755449740560e+00                     
5.22222946813368e-01                    
-1.52678187442702e+00                     
5.31548296581497e-01                    
-1.52833117928241e+00                     
5.4254817789564e-01                   
-1.53371735471533e+00                     
5.54668070482187e-01                    
-1.54468735812253e+00                     
5.68616729712577e-01                    
-1.56322621700948e+00                     
5.8684003402576e-01                   
-1.59086686744471e+00                     
6.1373060647715e-01                   
-1.63159841516981e+00                     
6.5327376218300e-01                   
-1.69112975139479e+00                     
7.1025068959974e-01                   
-1.77560208432865e+00                     
7.90572648494653e-01                    
-1.84462636549650e+00                     
8.551488887300334e-01                     
-1.8996057913968e+00                    
9.02685375102462e-01                    
-1.9075221525424e+00                    
9.1527482537394e-01                   
-1.9156780667925e+00                    
9.212160129267e-01                  
-1.9251639423465e+00                    
9.3199667420547e-01                   
-1.940801563959322e+00                      
9.448627374958e-01                  
-1.9518957160732e+00                    
9.561790523642e-01                  
-1.9620163405842e+00                    
9.645364275927e-01                  
-1.9693685018187e+00                    
9.7210473669693e-01                   
-1.9758881340580e+00                    
9.7752629618448e-01                   
-1.9806272056870e+00                    
9.8235598866408e-01                   
-1.9847762644043e+00                    
9.8582526288239e-01                   
-1.9877992014709e+00                    
9.8888636190233e-01                   
-1.9904217406613e+00                    
9.910880381296e-01                  
-1.992336048975e+00                   
9.9301823816692e-01                   
-1.99398714148741e+00                     
9.9440811278010e-01                   
-1.995193760271e+00                   
9.9562128247769e-01                   
-1.9962306720652e+00                    
9.964956776282e-01                  
-1.996989017651e+00                   
9.9725671649597e-01                   
-1.9976391733475e+00                    
9.978055824285e-01                  
-1.998114893668e+00                   
9.982824543043e-01                  
-1.998522178934e+00                   
9.98626529522e-01                 
-1.998820207398e+00                   
9.989250956102e-01                  
-1.9990125311530e+00                    
9.990754292499e-01                  
-1.999111175057e+00                   
9.991996461126e-01                  
-1.999284952349e+00                   
9.99334541874e-01                 
-1.999401556363e+00                   
9.994590438371e-01                  
-1.999490092638e+00                   
9.995198083141e-01                  
-1.99959728620e+00                  
9.99622626763e-01                 
-1.99967607683e+00                  
9.99703604512e-01                 
-1.999740818986e+00                   
9.9975919009e-01                
-1.99977532926e+00                  
9.99796797214e-01                 
-1.99982777369e+00                  
9.9984344371e-01                
-1.9998675984e+00                 
9.9987744066e-01                
-1.9998880864e+00                 
9.9989822522e-01                
-1.9999167094e+00                 
9.9992396329e-01                
-1.99993273309e+00                  
9.9993723170e-01                
-1.99995095746e+00                  
9.99955051680e-01                 
-1.99996054076e+00                  
9.9996300277e-01                
-1.99997213823e+00                  
9.99974785304e-01                 
-1.9999845509e+00                 
9.999859022e-01               
-1.999995226e+00                
9.99993789e-01              
-1.999995361e+00                
9.999954078e-01               
