 -0.0463723   0.0831483
   0.762945  -0.0811355
-0.00991764   -0.135265
   -4.01458    -8.05747
   -3.12464    -6.28531
    5.03942
-0.00900776
 -0.0103327
    6.43351
    5.01506
 -2.97786 -0.410652  -2.10725   5.12998  -6.59436
16.1085
    0.413275      1.81455
   -0.481597     -6.77909
    -12.2111    0.0159055
-1.74072e-06     -6.56096
     2.09318  -0.00322091
  2.63286
  7.70821
-0.526786
  6.54681
0.0937701
  2.83115   7.74007 -0.222725   -7.2151    1.1511
-19.0213
  0.0761027  -0.0756427
   -6.00645    -1.64473
    13.6665 -0.00478414
   0.270614   -0.620161
-0.00347648    -8.79229
   5.36512
  -7.65149
 0.0324529
  -1.02667
-0.0199822
   2.04638   -4.44382 -0.0227241   0.162577 -0.0353182
-9.93
  -0.263357   -0.262473
  -0.866395 -0.00258443
  0.0264788    -8.85998
    -3.6865   -0.015995
6.09809e-05 -0.00415741
     10.9415
-0.000831896
 -0.00436954
    -3.70545
  0.00669572
    0.5872  -0.358437 -0.0350477   0.924381   0.357378
-5.37844
     2.71216 -0.000332735
    -6.12639       -4.253
     14.5653  -0.00132433
    -0.35879   0.00180959
    -3.86555    -0.469441
    3.1258
  -10.3863
-0.0285638
 -0.376134
  -4.33546
 0.0570416    2.79464 -0.0213016    3.16196    4.70536
0.792483
