  3.57276  -2.54959  -0.86988  -2.61924  -14.3392   18.7176  -2.37158 -0.214957    2.9573
 1.35825  4.91014 -1.88454 0.523079 0.720143 -3.90155 -0.57696 0.195737 0.307782
 0.138738   1.09934  0.136818  -1.48463 -0.421749  -4.48715   5.54879   5.32233  0.175558
 -3.70388 -0.738125   5.68456  -5.62138  -3.79687   35.5533 -0.202074 -0.205676   6.55308
 1.76634 0.312571  1.80292 -9.15398  0.72457 -4.47256 0.307971  3.23154 -1.26993
0.312571  -1.3794 -9.15398 -1.40797 -8.81148  12.2876 -2.91561 -0.39436  3.79897
 -0.323574 -0.0570964    9.64531    6.14061    10.4935    8.16189   -2.34787    3.77831    -7.2476
 7.69211  5.98556   6.7086   5.2107  2.58336  4.13831  6.65925 -8.46701   16.789
 -4.71184 -0.374782   7.23155  -2.85425  -4.83015   15.6115 -0.158846 -0.405075   5.56445
 -3.66181 0.0913267   5.35826   0.92506  -2.63078  0.420515 -0.211671   1.28316  -1.22498
  0.190718   -3.30504   0.188079   -2.39308  -0.579762 -0.0232859    4.03648    3.44316   0.175558
-3.30504 -6.20112 -2.39308 -5.43706 -7.80262 -9.16789  1.82775  9.14407  1.15261
 -6.20112 -0.199954  -5.43706 -0.204095  -6.88078   1.90791   9.19294  -2.72054   4.14374
  6.87917   4.57132   0.73284   -6.3426  -5.46613   2.42371  0.139711 -0.171428  0.307782
   5.3107  -2.30503  -7.77106 -0.136434   3.81541   9.82723  -0.14595 -0.387105   3.67564
 -9.15188  -3.76705  -3.30176  -3.86995  -1.29859   27.6554  -9.06335 -0.145486    2.9573
 -1.3126  1.25937 -1.34846 -12.1349  9.63636 -5.17805 -0.41753 0.390862   2.9573
   7.65962     3.8031   -1.00534  -0.587039  -0.444264 -0.0474776    3.94548   -7.81008   0.280552
 56.3474  5.86995  89.3999  9.35062  45.6379  5.74528 0.866056 -8.22086  6.65938
 1.02947 -7.29863  1.01651 -8.41702 -3.14391 -4.72965 0.749432 -1.33692 0.179234
-0.766449  -1.28616  -8.30998   -1.3213  -3.02876   9.44226   9.44148 -0.426114    2.9573
  -2.05853    1.66558 -0.0294028   -2.55226    8.19044     1.6909  -0.438223  -0.448117    3.58065
-0.930615   -6.9898 -0.956036   -3.6507   6.83203  -2.86749 -0.588914  -5.92432    2.9573
0.133855 -1.46128 0.136627  2.32815  7.62167 -9.59313  4.06396 0.597699  -32.021
 1.97048 -4.56791 0.555679 -5.45554 -10.2288 -1.39149 -2.30986  6.89111  1.15261
 -1.74901   4.85757 -0.103523    -7.108   7.46877   3.48986 -0.510168 -0.159565    3.6818
 -4.23179 -0.548215  -4.34739  -7.65874   31.0673  -6.93904 -0.129508   9.78084    2.9573
  -0.7143   1.59645 -0.733812   2.48027   5.24397  -16.4474 -0.767257  -2.41227    2.9573
  8.20178   6.05527    7.6699   5.67676  -10.2084  -7.71016  -2.71424   3.77779 0.0226996
   7.19111    18.4826  -0.110499 -0.0521078   -3.10606   -8.40775   -7.05113    2.77278   0.208424
-7.76255 0.403308 -1.18465  0.41166 -3.82109 0.894676 -6.25221   1.3488 -2.25353
  1.20867 -0.782828   1.20537   -9.8613  -3.58277  -3.85963  0.621175   9.83397  0.144028
 -1.20766  -7.23007  -1.24065  -9.93519   8.86596  -9.31918 -0.453811 -0.813767    2.9573
 0.626194 -0.310239  -2.82501   2.26257     11.31   1.42805   2.59643   3.48727  -35.3924
 -2.95015  -1.85339  -3.01124  -5.14341   25.1702  -1.04963 -0.184391   8.96467   3.59437
-1.85339  1.04565 -5.14341  1.03249 -9.41952 -3.19332  4.73179 0.737838 0.179234
-2.16011 0.808558 -2.20485 -17.4969  18.1853 -5.44519 -0.25183  1.99377  3.53281
    8.5217    4.07994    13.0419    6.34397    -2.6894  -0.960317    1.41156   -2.81284 0.00466661
-0.00541165     1.27101     3.46828     1.59351    -19.9063    -11.5587   -0.383509    -2.29664     1.15261
 -2.16074  0.537627   3.16178   5.44569  -1.55236   63.0736 -0.358719  0.217971  -14.4336
0.477348  -8.4647 0.470743 -1.54583 -1.45109 -9.46318  1.61272  4.56524 0.175558
   -8.4647  -0.087761   -1.54583 -0.0895785   -4.92225    4.08941   -5.42525   -6.19844    24.3012
   2.46824   -1.30999  0.0641139 0.00981074  -0.160291    5.28522     7.0029    12.7569   -67.4661
 1.49561 0.220143 0.227624 0.224702 -7.56695  1.18542  2.15011  2.47103   -3.976
 5.00479  8.71356  2.42162  4.10679 0.489472  0.19623  4.75858 -2.67075  -2.8519
 1.66172 -9.97326  1.29701 -5.72754 -11.8438 -3.70084 -2.07506   2.3719  1.15261
-0.681293   0.26234 -0.699904   2.61527   5.00165  -11.5497 -0.804429   2.24394    2.9573
 -3.07019 -0.124281   2.32802 -0.126855  -11.9995   3.14691 -0.421295  -4.37702   12.7273
  2.34549  -2.47113  -3.43211 -0.146265   1.68509   10.6288 -0.330464 -0.361085   3.70937
 -8.83216 -0.531158  -9.95005 -0.545667   -9.3885   3.89945  -8.76511  -1.03181    2.9573
 -3.77342 0.0719793  0.409778  -6.35136  -5.32252  -6.50445  -9.36617  -6.50103   1.15261
0.0719793   1.57034  -6.35136   1.56605  -5.82615  -4.65485  -9.57972   0.47811  0.144028
 0.172427    6.9116 0.0102059  -10.1136   4.81115   4.96555   5.17486 -0.112145  -25.0255
 -5.86828  -4.14404  -1.29027  -4.26754  -4.13151   29.7352   5.60134 -0.132827     2.874
 -9.82088  -2.87155  -5.41999  -2.93102  -4.18286   23.7187  -5.09436 -0.189438   3.44645
 -2.44655  0.092397  -7.65705 0.0943105  -7.47454   2.16387   3.82198   5.88743  -13.7864
-1.53818 -1.42887    4.667  4.81267 -3.85311  -4.0714 -5.96748  5.81333 0.343002
 1.15094  2.24727  1.49429  3.00196  4.81059  5.37479   3.9717 -1.79204 -10.5212
  3.45463  -4.06187   -5.0551 -0.240421   2.48194   18.0791 -0.224365 -0.219674   3.84297
 36.7759  8.91701  3.33723 0.664396 -41.4034 -9.78862  1.10222 -4.47829 0.279503
  1.06684  -1.30837  0.912261   3.09246   5.83378   5.25913  0.536135 0.0213914  -4.28698
 -1.56119  0.581898   1.28685 -0.386029   6.41914   1.57697   3.64754   10.7209  -41.3673
0.243345 0.399948 -5.36889 0.394414 -4.93853  -1.2158   9.8311  1.92482 0.175558
  2.14429   4.49607      6.87   13.4228   2.65053   4.50997  -2.28229   1.20948 -0.452198
 7.40385  7.77865 -5.84442 -5.94779 -1.28553 -1.61151 -6.36838   6.0845 0.905863
 -1.86577  0.658413  -1.90441  -6.07765   15.5902  -2.76676 -0.291559    1.1572   3.49866
 -3.70431  -9.88792  -3.78103   -4.4961   30.3645  -3.02282 -0.146851   2.63292   3.41226
0.00638031   0.103102    7.43999    2.11413    7.79283    1.49238   -1.45013    5.36587    2.24589
 0.557795 -0.699417   1.37129   6.55445  -2.89639  -15.9089   1.20772 -0.343126  0.122681
-3.94806 0.195285  4.81763 0.199329  -19.457  4.18519  1.87253  2.78558 -12.7049
 4.85633  2.34332   1.0049 0.528974  5.45753  0.76131 -4.73392  10.0428  17.1431
-0.036779  0.192824  -7.98162  0.192298  -5.82842 -0.571576   8.67035   3.89368  0.144028
  8.35382    14.809   5.96825    10.629  -8.42941   -15.153  -6.56781   3.74632 0.0274652
 -13.4714  -0.20214 -0.106393 -0.207662 -0.501719     1.484 -0.654326  -2.71124    2.9573
 -5.64415   3.11391  -5.18406  -0.21872   38.6499  -11.9483 -0.104144  -3.18777    2.9573
   8.7573   11.8788    2.9345    4.0552  -4.45333  -6.22541   -7.1411   5.31417 0.0287108
-2.30929 -3.09403  2.60025  3.64369   3.8885  5.22041 -10.2953  7.44509 0.344042
  3.84659  -1.83707 -0.816925   2.49728   11.0615   7.41463  0.293451  0.318336  -6.65315
-2.00935 -1.86027  -8.9239  -1.8988 -8.17696  15.3881  4.96601 -0.29242  3.45301
-0.155203  -7.30013 -0.159443  -8.87363   1.13941  -2.52806  -3.53119  -1.07794    2.9573
 2.93372  2.79068   3.9289  3.76175  3.51432 0.110599   6.9354 -7.09596 -24.6352
  -2.0563  -8.77785  -2.09913  -4.05732   17.9868   0.37118 -0.266881   2.89368   3.73029
  -1.0644  -1.79449  -1.09348  -6.94851   7.81422  -7.50524 -0.514891  -9.25065    2.9573
 -1.79449  -1.13859  -6.94851   -1.1697  -4.44564   8.35888  -7.36139 -0.481341    2.9573
 -7.40093    -9.142  -2.43618  -8.12528  -3.98977    1.3324  -5.66469 -0.865005   1.15657
-8.47622 -4.74487 -5.17315  -4.5476 -9.65806 0.337191  4.29758 -3.41805  1.15657
-0.720726  0.522142 -0.686561    -10.26   5.08412  -0.97638 -0.784955  -1.06323    2.9573
-0.483617  -4.31104 -0.496828  -3.84638   3.55043  -3.27433  -1.13323  -8.48608    2.9573
   2.30889    67.9523    2.01644    59.6729   -0.22892   -10.8655   -7.03157   0.246996 0.00403114
  4.04662  -2.12728  -2.86661  -2.19067  -16.2701   15.2641  0.596662 -0.258754     2.874
-4.01122   1.7851 0.337412  1.76263 -5.17453 -5.45155  3.17396 0.432199 0.179234
-0.0936223  -0.706649    4.04261  -0.850731     -15.24    5.71032    -1.5104  -0.759678    3.18901
 -7.28967  -2.37356  -6.30078  -2.43839  -1.24918   17.4253   9.96467 -0.230899    2.9573
  3.23654  0.627419  -4.73598 0.0371367   2.32525   3.99775 -0.239484   1.42215  -5.81395
 -0.138901   -9.35142    1.66559    -4.2393    -6.3996 -0.0345446   -3.90671  -0.176945    1.16856
 -9.35142 -0.715447   -4.2393  -0.73499 -0.275379   5.25239  -5.47189 -0.766027    2.9573
 -1.74777  -2.68799  -6.60988  -2.76142   -5.5818   19.7337  -3.70929 -0.203889    2.9573
 -4.20073  -10.2531 -0.448441  -1.05629   5.49197   13.0607  -9.44526   3.84317   1.51876
 -4.25936  -6.74552  -4.38629 -0.125386   30.5627  -5.06498 -0.129231   6.39543     2.874
   9.5628   0.68745   9.76084  0.621028   79.9483  -7.04794 0.0568851  -1.05137  -5.59466
-7.01495 -7.52645 -4.44297 -1.17803 -2.50038 -5.08785 0.674536  5.53165  1.15261
 -1.04014   2.93993  -1.06168 -0.262541   9.23586  -11.7906 -0.522987  -2.01611   3.78344
0.0435218  -4.62055  0.331452   7.09143   4.04763  -4.73656   3.48824 -0.161984  -14.8785
 -1.81004    0.2215  -1.84752   2.70524   16.0453   -12.426 -0.300536  -2.39441    3.7754
 2.42002 -9.19399  2.38956 -4.89209 -7.39054 -5.23807 0.318806  5.52842 0.179234
 -9.19399  -3.15694  -4.89209  -3.24317  -1.22206   23.1764  -4.69531 -0.173603    2.9573
 -2.86698 -0.521707  -2.92636   2.20771   25.9218  -9.04272  -0.18974    2.9944   3.87161
 -2.5375 0.827844  4.25591  2.64663 -16.7389 -14.0743 -3.28567 -5.04707  1.15582
 0.387681  0.146177   2.01351  -10.2412  -9.70921 -0.670334  -3.07176 -0.344718   1.15261
0.723481  1.43866 0.714376 -4.60129 -2.20945 -6.38017   1.0664 0.345854 0.179234
-1.41047 -9.85557   -1.449 -4.99891  10.3548 -1.60525 -0.38856 -9.61599   2.9573
-9.85557  2.92159 -4.99891 -2.51745 -4.06897 -11.8701 -8.81026  1.82286  1.15261
-0.455433  -7.32844 -0.467874  0.786678   3.34352  -3.23419  -1.20336   1.43624    2.9573
-0.965914   -6.3029 -0.992299  -5.08484   7.09117  -6.52604 -0.567392  -8.47732    2.9573
-0.0277645    -5.5045   -0.28123    8.05465    7.92473   -3.95464   -4.22076  -0.140812     32.763
  -6.3187 -0.260017 -0.235883 -0.298886  -7.95733  -1.76217   9.28824 -0.382491   1.15261
 9.14019  9.32466 -5.47967 -5.40165 -1.37597 -1.67259 -5.62235  5.54143 0.699329
 0.229244  -0.28899  -2.32625   3.56512 -0.941697  -13.7138   1.19235  -1.87774   1.16856
-0.252636  0.820021 -0.259537  -13.2052   1.85471   -3.7531  -2.16933 -0.615091    2.9573
    4.1688   -1.71762   -6.38809 -0.0245334    4.23218    6.83403  -0.179038  -0.525201    3.58065
 -1.89554  -3.29307   -1.9348  -2.28959   16.2577  -7.74024 -0.286979   9.83241   3.61883
  1.14905  -2.63886  -2.82339  -2.71094  -5.57446   19.3729   8.90278 -0.207685    2.9573
 -6.20525  0.263163   0.58483  0.259521  -15.3298 -0.799986  -2.58744    2.9253  0.175558
-0.164032  -9.12642   3.33913  -2.04154  -13.0462  -1.41211  -3.30818    2.2713   1.16856
 -9.12642  -1.25163  -2.04154  -1.27755  -5.38654   10.7765  -4.83618 -0.434618   3.63687
  4.88037   1.25507   -6.7714  0.133703   2.58757 -0.997267 -0.160573   0.76577  0.307782
 0.838986  -1.07597  -5.26792  -1.09825  -3.51942   8.82868 -0.353756 -0.505575   3.41677
  -2.612 -3.23705 0.357979 -0.54226  -4.4704 -5.88555    3.333   8.3102  1.15261
 -3.23705 -0.824755  -0.54226 -0.847284  -3.30766   6.05486    8.6048 -0.664503    2.9573
  6.59126   6.80885 -0.166051 -0.026411  -1.13692  -1.45872  -4.28704    4.2289   0.17632
 1.97363  -7.8564  1.08343 -4.70712 -12.2754 -3.16872 -2.51715  2.71725  1.15261
   -7.8564   -3.06248   -4.70712 -0.0520906   -9.47796   -1.55429   -9.36395   -5.04911    1.15261
-0.413626 -0.964509 -0.424925   -5.7394    3.0366  -3.33327  -1.32499    3.1218    2.9573
 -4.32308 0.0953298  -14.0213  0.097304 -0.962653   3.96019  -1.21178   5.70631  -23.6449
 -3.77654  0.439646  -4.27953  0.434113  -5.32641  -1.34264 0.0567543   1.75486  0.179234
 1.82147  3.40466  2.08036  3.87331  6.89695  11.1593 -7.79184  4.32836  4.39165
-3.61862  1.29728 -12.6687  1.03753 -31.7733 -9.44116  1.06339 -5.31761  1.15261
 2.40801  1.38502  1.69009  1.36585 -16.5448  -4.2103 0.970678 0.555827 0.175558
  0.233252  -0.175172  -0.341314 -0.0103684   0.167577    3.70918   -3.32301   -5.09377    18.7652
 0.344378 -0.883406  0.340044  -3.98669   -1.0517  -3.61571   2.24032 0.0669099  0.179234
-0.883406   2.21335  -3.98669   2.18549  -4.41248  -6.75939  0.551151  0.348574  0.179234
 1.38796  1.14257  1.37049 -16.4652 -4.23871 -5.24517 0.555865 0.135636 0.179234
-0.235799  0.740089  -0.24224  -4.12108    1.7311  -8.09638  -2.32423   7.81088    2.9573
  0.740089   -5.93741   -4.12108    -6.0996   -6.00169     43.589    5.71799 -0.0923049     2.9573
 -4.29983  0.044024   6.29187  0.445925  -3.08916    1.2141 -0.180263   2.66189   -3.9172
 0.110052   1.38904  0.112331 -0.613881   2.93095  -6.38759   4.94296   2.72142  -15.5343
  2.85464   7.41166  0.304106  -10.2835  -2.26827   3.92966  0.336677 -0.105733  0.307782
 18.0035  5.17228  8.96372  2.53551  17.6978  7.15398  2.08786 -7.16215  13.2407
 5.28887  9.81384  2.89103  5.42503  4.30611    4.953 -7.80303  4.26063   11.451
  -2.74093   -5.65542   -6.73198   -5.80991   -8.49988    41.5188   -3.14321 -0.0969074     2.9573
 -3.17367  -6.99024  -3.26036  -22.7533   23.2992  -75.7705 -0.172687   1.91451    2.9573
0.0820884    1.0708  0.126006 -0.262361   6.11136    2.7967   4.71212  0.146779  -30.2548
-0.151642  -3.53488  -8.46635 -0.889492  -9.17595   -4.3341 -0.902104  -1.58953   1.15261
 -3.53488  0.185863 -0.889492  0.189713  -6.64593   3.91274   3.82996   2.92678  -12.4985
  1.89079  -4.93655  -2.76676 -0.292193   1.35841   24.7135 -0.409934 -0.180751   4.33848
-0.152511  0.053829   9.94664   8.32011  -7.28857   -6.3158     -3.15   3.82403 0.0753643
-12.0862 -7.48332   7.8506  4.97877  5.41817  3.10923 -3.34402  5.29766   1.4135
-2.50104 -7.61547 -2.56936 -5.93523  18.3612 -2.70942 -0.21913 -2.18862   2.9573
 -10.2174 0.0176971  -8.61912  -5.89657   1.21951  -3.08359 -0.945077   8.56487   1.15657
-5.60262 -1.20982 -2.20717 -1.24587 -7.41706  8.68093  3.36873 -0.45498    2.874
 -1.7852 0.723685 -5.86527  0.71367 -7.19258 -2.19992 -1.30813  1.06376 0.175558
 -1.49867  0.205072  -6.14158  0.202234  -9.31188 -0.623396   -7.5535   3.75395  0.175558
  1.63546 -0.774223   2.21943   3.36939  -15.7229  -15.3086  -2.29616 -0.637143   1.15261
 2.47498  3.30906  5.88568  8.14083  3.23921 0.196639  3.85421 -2.71832 -12.9969
  2.77172   8.13197   3.75231   10.9462  -2.64926  -8.00293  -8.78272   3.06544 0.0116491
-46.1696 -7.15839  39.1818  5.84825 -13.8108 -1.64588 0.480987 -3.21278  1.31047
 -5.13903  0.858224   -5.2794  0.101033   37.7277  -9.85763 -0.106645 -0.750904    2.9573
-0.154818  0.270349 -0.564934  -7.72065 -0.299665  -9.02102  0.175715   -9.7171   1.15261
-0.0113408   -8.15337    -7.8603   -9.88309 -0.0439932    1.06079     5.4743   -1.08648    1.15657
 -3.26774   6.71459 -0.193416  -9.82534   17.5167   4.82401  -0.27306 -0.115435   4.65458
 -4.86609   -1.0212  -4.99901  0.845723    35.724   -3.3926 -0.112627   2.46516    2.9573
  -1.14588   -2.64099    1.27493   -13.8491     -5.239   -27.2582    1.79418 0.00241792    1.15261
  1.09172 -0.105036   1.77385 -0.107905  -11.5252  0.771113  -4.71013  -5.21775    2.9573
-0.0419375   -1.39759  -0.319386    2.14497    3.59001   -1.43268   -3.62002  -0.535532    12.2365
 0.202534   0.62173  0.201981  -2.67449 -0.600357  -7.74011   3.70701  -4.58051  0.144028
0.0992138 -0.224824  0.101269   2.57464   2.57945  -10.3592   5.48292   2.99949  -15.1897
 -0.150603 -0.0853291   0.231139  -0.649846  -0.154384    10.1724   -4.96974   -1.77917     17.339
 0.646953 -0.475421   1.59048   4.45531  -3.35935  -10.8139   1.04128 -0.504791  0.122681
-0.407698    1.1335   3.82066   2.78663  -9.27346   -5.8858 -0.588643  0.594315  0.122681
   7.63798    17.4582    5.18152    11.6801   -1.66257    -2.9568    2.71738   -1.15717 0.00598691
-0.0324426 -0.0679586    5.05586 -0.0818483   -19.7746    5.79911   -3.00378    -7.8687    44.4892
  0.460845   -7.02381    1.46744   -7.21568   -7.73979    51.5647   -4.05191 -0.0780277     2.9573
 0.340944 -0.874292  -9.74678 -0.832847 -0.637548    6.1674  -1.62829 -0.647081    2.9573
 -17.7927  -2.13359  -20.5081  -2.19187  -1.77843   15.6636   3.13515 -0.256868    2.9573
 -10.1203   -2.5787  -11.3791  -2.64901    1.2417   18.8619  0.882475 -0.214668    2.9573
  2.77518  -6.40904  -7.09146   2.49565   12.6235   18.5112 -0.180786 -0.140632   3.81662
  -2.9528 -0.309706  -3.03346  -3.26387   21.6777  -8.01089 -0.185604  -3.29542    2.9573
-0.309706  -4.05582  -3.26387  -4.13982  -3.99992   35.6787  -7.12407 -0.134123   3.73856
 -1.0926 0.284733  2.82708  0.29063 -11.3256   11.425 0.323274   1.9105 -22.8742
   4.4922  -5.91492  -6.57337 -0.350102   3.22737   25.7486 -0.172543 -0.150853   3.75574
 -4.19512 -0.021572   6.30514 -0.188854  -3.63865   1.13434 -0.181267  -6.22185   6.33314
  0.300101    2.33619 0.00249473    -3.5855    5.83907    2.39485    2.99989  -0.320374   -17.5087
   1.72991  -0.392879       -2.6 -0.0140981    1.50044    4.24986  -0.439583   -2.27718    9.61274
  1.22915  -9.43642  0.809564 -0.161222   -9.0599  -5.34054 -0.832084  -4.87129   1.15261
-3.26119 -1.48351 -5.50828 -1.52403 -2.74508   10.891  6.28963 -0.36943   2.9573
-0.0535041 -0.0698125   -3.42738   -6.19896    3.83458     5.9064   -2.52336    1.36972    1.52889
 -2.80087  0.790502   4.20962   6.92052  -2.42934   9.05665 -0.271501  0.169788  -2.26224
-0.163492  -2.72289  -1.65604   3.98436   21.6708  -1.95623 -0.716775  -0.28466   14.8477
 -8.55239   2.73822   2.82433   -6.3844   25.8642   10.4609 -0.106374 -0.197269   3.77403
  5.4591  7.29003 -4.89097 -6.77975 -3.65678 -4.55419  7.25188 -5.41783  1.17366
 -7.53223   2.52347  -2.07411   2.51659 -0.129704  -7.48017  -4.53795  0.297524  0.144028
  3.41914   5.08909  -4.74398  0.542143   1.81283  -4.04375 -0.229196  0.188854  0.307782
  6.16291   9.65262  -8.55089    1.0283   3.26757  -7.66989 -0.127157 0.0995681  0.307782
 -1.73302   2.57895    3.3188   2.57191  -13.5741   -7.6446 0.0434992  0.291125  0.144028
 12.2597  3.40501 -6.73759 -2.01121  14.7808  4.41806  1.79834 -6.33699 0.433157
-0.916235  0.928714 -0.941263  -4.91428   6.72646  -4.62914 -0.598157   1.31334    2.9573
-0.898494  -9.45522 -0.923038  -4.86826   6.59621  -2.28918 -0.609967   6.86632    2.9573
 -9.45522    -2.155  -4.86826  -2.19963  -1.71054    18.843   9.62758 -0.252427    3.7097
0.457627  1.39537 0.451295  2.26088 -1.39114 -14.6941  1.68222   2.1235 0.175558
 8.40443  16.0448 -1.91305 -3.39908 -6.05983 -11.9539 -6.44914   3.4073 0.438625
  1.17439  -3.18685  0.952804   -3.2739  -12.0297    23.396 -0.190114 -0.171973    2.9573
 -2.66848  -2.75211  -2.74138  -8.42934   19.5904 -0.102479  -0.20538   3.77708    2.9573
 -0.78667  0.556436 -0.808159   2.49946   5.77527  -12.3758 -0.696673   1.69446    2.9573
 0.863012   -9.4176  0.860656  -8.31333  -2.55817 -0.296837  0.869971   6.22536  0.144028
 -0.859739    7.56285 -0.0508877   -11.0666     3.6671    5.43343   -1.03786  -0.102488    3.67739
 -4.92874  -7.27656  -5.06337  0.490604   36.1839  -2.65211 -0.111195   3.64178    2.9573
-0.20238  1.05326  1.89656  2.58936 -4.60331 -5.46914 -1.18583 0.639592 0.122681
 1.83002  3.33534  4.29638  8.13998  2.47617  3.59434  4.54841  -2.3325 -3.92564
 8.89866  3.92168  8.70047  3.83745  6.33761  5.07094 -3.24732   7.5072 -18.5351
  1.38675 -0.721385   1.31549 -0.741091  -10.8421   5.29598  -1.41866 -0.759722    2.9573
-0.942375  -4.64081 -0.961891  -5.08838   8.80601 -0.802286 -0.577245  0.684773   4.03644
-7.59062 -3.53793  17.4373  8.50534  2.21877 0.900585 -2.60296  5.37422  0.20755
   4.1141    1.8613  -6.31415 0.0154729   4.21739   7.46302 -0.181925  0.483679  -3.60184
0.208762 -1.92514 0.213085 -6.32162  6.70158 -2.33027  2.60575 0.355943 -18.5094
 -1.51604  -6.10067  -1.55745  -4.39805   11.1299  -9.10052 -0.361502   8.01367    2.9573
 -6.10067  -1.20248  -4.39805  -1.23533  -2.91269    8.8279   3.82956 -0.455768    2.9573
 -17.3388 0.0922617  0.513391 0.0941724  -11.3478   2.16992  -1.73091   5.89607  -13.8408
  -2.60008 -0.0873095    -2.6711   0.637127    19.0882   -5.23554  -0.210783    7.77203     2.9573
 0.984766   1.61631 0.0695754 -0.122353   6.13239   9.45895   4.13837  -2.18482  -5.75878
 -2.61727   2.86588  -2.68876   1.25914   19.2144  -16.5419 -0.209399  -3.49175    2.9573
 -0.564818 0.00148515    39.4769    5.47761    1.04276     3.5615  -0.975245    7.12539   -25.3725
 -1.21325  -1.78133  -1.24639  -3.08698   8.90697  -1.00426 -0.451722     -1.07    2.9573
  -1.78133 -0.0100422   -3.08698   -6.88679   -3.67141    1.07329    7.22467    -1.1333    1.21826
  -6.3035   6.27397 -0.373102  -9.18059   27.5992   4.50745 -0.141554 -0.123542   3.77825
 -2.00791 -0.519467   3.08166  -3.95613  -2.05833   28.6711 -0.372753 -0.292251   7.61977
  -2.67973 -0.0376816   -2.75958   -9.10147    19.2282   -2.47862   -0.20541   -2.74638      2.874
  0.94996 -0.390929  -3.01221   1.68544   12.2307   3.13093   2.67724   5.11419  -49.8035
 -2.92034  -3.79618  -3.16901  -3.90931  -7.21904   27.2392   5.65605 -0.144999     2.874
-0.707455   3.09797   6.62977    7.6161  -16.0917  -16.0864 -0.339228  0.217451  0.122681
   -2.39696    -9.13234    -2.46243    -9.28319      17.597 -0.00316567   -0.228645  -0.0158755      2.9573
-1.97247 -2.21156 -2.02635 0.471231  14.4807  -4.6568 -0.27785  8.30004   2.9573
-2.21156 -3.79981 0.471231  -3.8785 -2.05221  31.0554  3.03201 -0.14316   3.3991
-4.86939 -1.64523 -5.00241 -7.97355  35.7482 -7.45441 -0.11255   -5.711   2.9573
 -1.64523  -3.66823  -7.97355  -3.76843  -9.31095     26.93   7.47603 -0.149405    2.9573
 1.31927 0.420235   1.3466  1.20413  10.9947 -6.58917 0.412334  2.58352 -5.58026
  -4.88181 -0.0274733    7.14347  -0.278281   -3.50727    9.62263  -0.158773   -4.26549    40.3598
  7.24351    9.3329   2.01698   2.50919  -5.26245  -6.57191   6.47284  -4.95691 0.0881261
  7.7429  8.19202  -7.6343 -8.41483 0.640086  1.16298  3.89801 -3.66758  1.10538
 -8.75331  -4.99278  -7.76718  -5.02702   33.4889   31.5466  0.102094 -0.212328   3.04123
 -2.14817   5.21726  -0.12715  -7.63432   9.34671   3.74827  -0.41537 -0.148565   3.75382
 -53.8438  -1.80574  -28.3719  -1.85507  -125.731   13.2567  0.231592 -0.303505    2.9573
 -5.06647   0.82906  -5.20486  -0.13601    37.195  -3.41121 -0.108172  -2.33432    2.9573
  2.43093  -8.22252   1.76279  -8.83496  -17.2624  0.546979 -0.567283  -2.10709   1.15657
 -4.41612  0.123466 -0.843019  0.126023  -2.67324   5.18961  -7.31453   4.40593  -23.9119
 0.708189 -0.397987   1.74102   3.72966  -3.67732  -9.05258  0.951241 -0.603005  0.122681
  0.25264  0.484007  0.257872 -0.616518  0.349374   -4.7058   2.15319   5.19205  -1.79906
-0.0466356   -2.85049  -0.355166    4.37481    2.71394   -2.92206   -3.25534  -0.262571    8.07542
 -1.06283  -1.49387    0.3422  -1.53468  -1.49142   10.9671   2.33333 -0.366867    2.9573
  2.80346  0.661326  -4.10225 0.0391437   2.01411   5.22993  -0.27648   1.34924  -7.18494
  10.3385   8.68012   9.38892   7.89054 0.0315427   3.41974  -6.61659   7.94341  -28.0025
 3.69228  3.94572 -5.69911  -5.7867   2.2144  1.87284 -4.53839  4.27336  1.43385
  3.26132    1.5391  -6.43353  -3.08306  -2.32659 -0.999547   7.34613  -15.5366   1.35849
-0.078183  -4.57765 -0.791925    6.6984   7.11044  -3.28875  -1.49888 -0.169323   9.97233
 4.33129  1.26459 -5.16763  1.26114 -17.8194 -3.74854  0.42864 0.593705 0.144028
 -9.41035 -0.860463    -7.178 -0.883967 -0.224724   6.31701   12.5514 -0.636927    2.9573
  -1.52039    3.55495 -0.0899912    -5.2019    9.05315    2.55401  -0.586882  -0.218034     5.1846
 -4.10146 -0.377035  -4.21349  0.207887   30.1105  -4.93041 -0.133624  -8.31264    2.9573
 3.88346 -3.66156  3.96389 -6.71822  5.40559 -4.62954 0.140076 0.596437 -1.80398
-0.465164  0.357558  -6.71822  0.369754  0.972122   4.71456   1.18416    1.5685  -8.54336
-2.74641 -2.21457   8.6324  5.87127  3.72054  3.05772  1.57666 -2.24264 0.088018
 -1.99906   2.53361 -0.118324  -3.70739   8.74872   1.82024 -0.446352 -0.305927   3.77649
  -1.26621    2.70649    -1.3008   -3.69181    9.29575   -11.0603  -0.432829 -0.0832329     2.9573
  2.91641  0.163287  -4.26754 0.0096649   2.09526   4.72216 -0.265771   5.46453  -25.9329
-0.0330382   -3.01512  -0.251611    4.62748    3.61137   -3.09082   -4.59513  -0.248235    15.8353
-0.355357   2.37309   3.33016   5.83404  -8.08293  -12.3224 -0.675343  0.283874  0.122681
  3.37551   3.81586  0.359595  -5.29442  -2.68216   2.02317  0.284725 -0.205367  0.307782
 3.74364 0.113353  3.73342  1.75302  -11.097 -7.68625 0.200552    2.648 0.144028
 -0.514002    3.26092 -0.0304236   -4.77166    3.41362    2.34277   -1.73596  -0.237693    5.79738
  1.95717  -4.78574  -19.1536  -4.91647  -11.8769   35.1341   1.16465 -0.114518    2.9573
 -2.87261  0.578881  -2.95108 -0.578316    21.089  -2.34939 -0.190785  -1.59138    2.9573
  6.91321  -1.96214   -10.116 -0.116139   4.96671   8.40689 -0.112119 -0.454751   3.69452
 0.502908 -0.195447  -5.34283   2.25898  -9.36725  -8.66615   6.79751  -2.77645   1.16856
-2.04618 0.224663  2.43637  4.03352 -9.92616 -16.4961  0.93286  2.77486  1.12866
-0.139141 0.0260797   2.08725  -3.54899  0.309235    13.744  -4.48533  -2.81327    38.936
  2.82618 -0.186605  -13.1049 -0.191702  -11.5711   1.36994 -0.649176  -2.93697    2.9573
 6.20605   7.4595 -1.73997 -1.89726 -3.88926 -4.96209 -5.46478  4.60427 0.465728
  -2.67375   -6.55357   -2.74679    1.68706    19.6291   -6.81037  -0.204975 0.00868855     2.9573
 -1.21499   4.40943  -1.24818  -2.90543   8.91977  -17.6558 -0.451074  0.468202    2.9573
  7.59311   18.8559 -0.591457  -1.11947 0.0466965 -0.616145  -4.48297   1.83394   0.21337
    2.7552  -0.220439   -4.03164 -0.0130477    1.97944    4.61465  -0.281322   -4.04777    18.5505
 0.387815 -0.540968  0.953412   5.06957  -2.01376  -12.3048   1.73706 -0.443628  0.122681
  -1.3721  0.501398  -1.40052   1.38076   11.6205  -7.65761 -0.396458 -0.569002   3.56024
 -4.54305  -7.17541  -4.63713   2.39117   36.8668  -9.93372 -0.119739  0.285453   3.36762
 -3.30781  -2.89296  -3.39816  -4.95184    24.284  -4.98328 -0.165684   9.63199    2.9573
 -2.89296  -3.13783  -4.95184  -3.22355  -6.71915   23.0361  -1.84126 -0.174659    2.9573
0.374332  3.11026 0.369152  -14.451 -1.13793  -12.886  2.05654 0.201047 0.175558
    6.84394   -0.167854    -10.0146 -0.00993525     4.91695     2.30534   -0.113253    -5.31584     12.1263
 1.38958 -5.49503  1.37209 -5.25888 -4.24365 -8.36817 0.555217 -8.82721 0.179234
 -5.49503  -4.58457  -5.25888   -4.7098  -0.88402   33.6572   3.08904 -0.119543    2.9573
 5.97387  2.28127  4.82572  1.83539  5.68066 0.013044  6.04497 -15.5913 -35.1828
  -2.6345 -0.710022  -4.68813 -0.729381  0.602941   5.19345   1.81737 -0.779643    2.9573
-0.991403   0.74608  -1.01848  -9.52089    7.2783  -6.36697 -0.552804   -2.5828    2.9573
  4.55875   6.88218 -0.822535  -1.38332  -1.50951  -2.03401   8.30282  -5.42817  0.347256
 5.06061  6.62515  2.17481   2.9013  4.44214  1.33945 -7.66855  5.93972   25.062
0.682769  1.03403  4.88299  6.25114  4.18731  4.97532 -3.61847  2.91534 -0.39987
-3.43346 -2.89853  1.04541 -5.27896  -4.3382 -3.98461 0.561028 -7.06864  1.15261
 -2.18107 -0.450613  -1.93536 -0.453704   8.34447   2.84718  0.409733  -2.35258   3.04123
  -27.3874   -6.42618    26.4337    6.03464   -1.47671 -0.0830037     1.2271   -5.36166    1.19887
  -4.28668 -0.0376353    6.57902  -0.286622   -4.39431    6.23067  -0.174601   -4.03384    24.3741
  1.52882   3.73157  0.162865  -5.17746  -1.21479   1.97848  0.628652 -0.210007  0.307782
 -3.34581  -2.06816  -3.43721    -4.874    24.563  -1.36701 -0.163802  -2.45381    2.9573
  -2.06816   -5.93642     -4.874   -6.09858   -6.99006    43.5817    7.80397 -0.0923202     2.9573
    -4.73  0.421233  -4.85921  0.788504   34.7249  -5.30016 -0.115867 -0.657072    2.9573
  -1.18215    4.15373 -0.0699711   -6.07809    5.15146     2.9842  -0.754799  -0.186603    3.75979
 0.755726  0.705331   8.73571   6.94556  -6.70075  -5.48421  -4.43334    5.6579 0.0441535
  -2.98134  -0.295263   -3.06278   -2.02153    21.8872 -0.0315903  -0.183827   0.375829     2.9573
 0.215999  -2.69084   2.18788   3.93746   2.33618   -1.9332  0.542536 -0.288051  -1.95285
 3.03186  1.67028  9.71432  5.56522  5.58645 0.130771    3.244 -5.56277 -18.4418
  4.73632   6.12473  0.737014   1.07996  -1.62781  -2.38785  -4.95342   3.92689 0.0683695
 -0.122372 -0.0436964   0.179066  -0.442606  -0.087917    5.22359   -6.33393   -2.68185    13.3235
 0.409088   7.32285 0.0435803  -10.1603 -0.325058   3.88258   2.34936 -0.107015  0.307782
  7.42953   1.14865  -10.8715 0.0679881   5.33765   9.38897 -0.104327  0.776814  -7.42201
-0.772338  -7.73428 -0.793436  -2.48017   5.67005  -2.22675 -0.709601  -9.03117    2.9573
 -7.73428  -0.14933  -2.48017 -0.153409  -7.89088   1.09629  -5.49022  -3.67008    2.9573
0.040082 -1.26035  3.21773 -1.29478 -13.1592  9.25276  5.26354 -0.43484   2.9573
  -9.70955   -5.68195    -9.4997   -5.85127   -1.70131    40.7704   -5.73685 -0.0968755      2.874
  2.09924 -0.470195    5.1608   4.40634  -10.9004   -10.695  0.320906 -0.510401  0.122681
 -3.97306  -7.36077  -4.08159  -3.50334   29.1679  -2.78116 -0.137942 -0.392757    2.9573
-7.36077 0.297892 -3.50334 0.304061 -8.70395  4.73029  -3.3791   1.8261 -9.68477
 0.867849   4.68273  -1.20412  0.498853  0.460133  -3.72086 -0.902985  0.205242  0.307782
 7.79451  15.1888 0.979564  2.09727  -5.1266 -10.3817 -5.61009  2.91918 0.162834
0.467013 0.472199  2.93625 0.567644 -13.7528 -4.26683 -2.64313 -4.48286  1.15261
  6.00978   4.40897   5.99536   4.39982    5.6373 -0.120594  -6.44279   8.90652    36.324
 -7.59088 -0.204893  -8.90675   3.23035  -9.87118  -12.5338   5.78566  -2.64844   1.16856
  -2.45851 -0.0341634    3.77322   -0.26018   -2.52024    2.36331  -0.304435   -4.44378    9.74267
 0.404655 -0.918776    1.1226 -0.943874  -6.22173   6.74511  -2.85007 -0.596502    2.9573
 -1.85537 -0.703012  -9.06233 -0.722215  -8.91179    5.1611  -5.23889 -0.779577    2.9573
   6.56516     5.8972    3.11719    2.84896   -1.01868   -1.07895   -5.45306    6.16453 0.00598691
  2.32934 -0.461345  0.428808 -0.473947  -11.3554   3.38692 -0.910895  -1.18794    2.9573
 -3.85303  -1.12441 -0.924064  -1.15512  -2.38175   8.25473   8.35841 -0.487414    2.9573
  4.31364 -0.763248 -0.220465 -0.784097  -17.3511   5.60332  -1.44957 -0.718052    2.9573
 -2.59259  -1.46723  0.807574   -1.5073  -8.53087   10.7715  -4.79308 -0.373529    2.9573
 -4.17975  0.379545  -4.29393  -1.50123   30.6853  -5.07059 -0.131121   7.99466    2.9573
  -0.80845 -0.0222647  -0.973686    1.50799    7.33394   -5.72391  -0.661445   -4.37691    3.70876
 0.346791  0.183516   2.59328  0.180976   -12.222 -0.557867   4.01425    4.1949  0.175558
   0.131003 0.000199741     3.25339    -0.26161   -0.273777     1.55754      4.2047     50.0728     -77.988
-0.691249  -1.87766 -0.710132  -6.39215   5.07474  -6.15042 -0.792843   9.04838    2.9573
  -1.87766   -1.48936   -6.39215   -1.53005 -0.0169912     10.934   -0.22655  -0.367977     2.9573
-3.71667 -5.42504  3.94942  5.89775 -1.42009 -2.28464   -10.68   7.1575  1.15277
   0.137076 -0.00212462     6.42432     5.36077   -0.286467     4.14655     4.01843    -4.70749     19.5224
  2.85991  0.957906   7.00678   2.44258  -8.85858  -3.00921   3.37517   -9.4116 0.0366092
 -0.64966  -3.89716  0.452216  -3.97787  -2.26127   33.1852  -2.88417 -0.139584   3.58533
 -4.44961  -9.22181   -4.5822  -5.37853   31.9278 -0.989294 -0.123706  -6.50078     2.874
   9.20823    9.59328 -0.0329372  -0.163332    4.28969   0.424766    4.65732   -4.41528   -19.1338
-7.61296 0.133858 -2.22984  0.13663 -8.57594  5.22255  6.17544  4.06387 -22.2706
 1.61683  6.91371  1.40496  6.07107  5.15862  10.3065 -5.23666  1.30332  12.5345
 11.7488  1.00005  38.0125  3.37019  35.6216   4.2703 0.808435 -8.95363  8.39017
 2.80997 -6.22877   2.7746 0.139849 -8.58142 -6.96519 0.274564  1.62094 0.179234
 -6.22877  -4.06496  0.139849    -4.176  -9.50262   29.8425   5.56586 -0.134823    2.9573
-21.1964 -9.30074  8.12136  3.50509  1.17774 0.777802  2.26741 -5.22843   1.3683
-9.24435 0.471635 0.545695   0.4657 -2.24268 -1.44034  3.50651  1.63583 0.179234
0.0114904  -4.76526 0.0245761  -1.82588 -0.676517  -4.53603  -1.61728 -0.208821   1.15261
 -4.76526  -1.76088  -1.82588  -1.81335  -3.21195    12.635   9.43364 -0.312595     2.874
 2.81924   3.3738 -5.13073 -6.36586  2.40443  3.27254    6.457 -5.36585  1.50028
-3.24772 -3.25969 -3.33644  -9.1637  23.8428 -6.83252 -0.16875  1.51377   2.9573
  -0.9333  -3.27689 -0.958794  -3.51205   6.85173   -8.2159  -0.58722   -5.9185    2.9573
 -3.27689  -1.24545  -3.51205  -1.27125  -6.11752   10.3309   8.02736 -0.436774   3.46549
 -1.36678  -7.13486  -1.40411  0.994534   10.0341  -4.16834 -0.400981  0.410402    2.9573
 -2.65665  -7.23458  -2.72922  -4.74418   19.5035  -3.54356 -0.206295   9.12619    2.9573
  2.91078  -2.34217   1.58511  -2.40615  -18.0343   17.1948 -0.224215 -0.233994    2.9573
-0.217329   1.01333  -0.22183   1.33409   2.15453  -11.4464  -2.50303  -0.65957   4.34606
0.458426  1.35522 0.452082  1.95894 -1.39356 -13.4099  1.67929  4.49819 0.175558
  1.37506   2.86806   2.80181   6.04193  -2.11117  -4.26676   6.73076  -3.01976 0.0136989
-0.0306252 -0.0641722    2.88536 -0.0772881   -11.1177    9.21832   -3.18203   -8.33298    75.6738
-4.09781   1.8962 -8.78343  1.87234 -9.23942 -5.79084 -7.32682 0.406875 0.179234
 2.65975 -2.13905  1.83929 -1.50483 0.115331  14.4413 -5.45034 -7.03346   101.14
 -2.38559  -1.69079  -2.11684  -1.70238   9.12693   10.6832  0.374607 -0.626989   3.04123
 -1.90688   0.75334  -1.95897  -5.99889   13.9992   -8.8836 -0.287407   3.34609    2.9573
0.139451 -2.87344 -7.28756  0.52421 -0.65755 -2.40201 -1.84801 0.862636  1.15261
 -3.43616  -4.47689  -3.50732 -0.628834   28.9164 -0.668879 -0.158311  -3.67968   3.53099
 -4.47689     -4.29 -0.628834  -4.40719  -0.81217   31.4946   1.97555 -0.127751    2.9573
  -5.81067   -1.30924    -9.3993   -1.34501 -0.0463875    9.61168   0.844475  -0.418603     2.9573
 -4.57026  -4.46065  -2.60461   -4.5825    -5.323   32.7474  -5.59557 -0.122864    2.9573
 0.662603  -5.41144   6.71159   7.91847   6.03671  -3.88778  0.176859 -0.143233  -1.75303
-6.69556 -8.73859 -6.89509  -8.2458  48.0434 -5.99696 -0.08221 -6.27477    2.874
 5.06819  16.4338  6.73527  21.7617  7.07205  17.3637 -6.89282  2.15885  10.2139
 -3.79966   -6.1465  -3.90345  -4.08947   27.8949 -0.636327 -0.144237   4.28894    2.9573
  -1.00566    2.45393 -0.0595246   -3.59079    4.27913    1.76299  -0.887266  -0.315861     3.6682
 0.119487  -4.13491  0.597051  -4.24786  -3.00336    30.356  -1.73107 -0.132543    2.9573
   4.55921    -4.2442   -6.98634 -0.0606215    4.62852    16.8867  -0.163707  -0.212548    3.58065
 4.49803  7.53654 -5.41103 -9.30021 0.436429  1.07518  9.60825 -5.72187  1.31001
 8.91316  8.04367 -7.72106 -6.77342 -5.45641 -5.18396 -6.06405  6.73469  1.11166
-8.62153  3.98817 -3.26042  3.93798 -8.92153 -12.1796 -7.56342 0.193451 0.179234
  2.60137  -2.16258 -0.196127 0.0868611  0.608717   8.44921  -6.15743  -7.66922   67.5168
 0.0327771 -0.0609437   0.508087   0.167695    5.54341    5.26824    3.42998   -7.08123     17.245
-0.0252783   -1.84228  -0.256048    2.69578    2.10995   -1.32356   -4.63587  -0.420728     9.0961
-0.231623   2.88825   2.17061   7.10052  -5.26848  -14.9974  -1.03612  0.233241  0.122681
 -5.36949   0.69811  -5.51617   2.60359   39.4196  -13.3907 -0.102068  -4.94666    2.9573
 -9.34071  -4.34022  -5.10753  -4.45878  -4.02098   31.8633   0.04479 -0.126273    2.9573
 -3.06463   0.93215  -3.14835   1.57416   22.4987  -10.2319 -0.178831  -2.10508    2.9573
 1.19308   1.1409   4.6441  4.66812  7.11007  5.05106  7.03362 -6.87848 -16.3127
0.122906  1.47453 0.125451 -8.00508  4.20754 -6.33901    4.426 0.536428 -19.6694
  5.40977   1.88613  -7.50593   0.20093   2.86826   -1.4987 -0.144859   0.50956  0.307782
  1.19752  -0.56295     2.944   5.27557   -6.2182  -12.8048  0.562545 -0.426305  0.122681
-6.73726 -6.93072  7.41428  7.33636  2.02557   2.3535  3.66567  -3.6884 0.951202
 7.63977  15.8147  3.75052  7.84482  2.05237  1.13321 -7.28733  3.55477  9.88118
 -0.00255 0.0494448   4.14829   1.51256   3.30614 -0.103332   -3.9222   11.1403   12.9699
  -7.01979 -0.0772144    1.05613 -0.0788134   -9.66147    3.49205   -4.55193   -7.04508     23.555
-0.197105  -2.14689  0.144346 -0.348128   2.77045   10.0684     2.649 -0.496583   -3.3859
 -6.1028  -3.5145 -1.62918 -3.61051 -1.91496  25.8014 -8.39268 -0.15594   2.9573
 -3.25612  -9.51376  -3.34506  -2.19091   23.9045  -0.56824 -0.168314   4.45917    2.9573
 -9.51376 -0.382783  -2.19091 -0.393239  -2.43827   2.81016   3.18503  -1.43176    2.9573
-0.814775   -3.4478  0.225288  -3.54198   -8.8293   25.3117   0.62889 -0.158957    2.9573
   1.03131  -0.346348    -1.5091 -0.0205003   0.740931    1.88166  -0.751569   -2.57627    4.71915
 1.24823 -8.15904  1.23252 -2.47192 -3.81198 -1.95657 0.618091  9.42812 0.179234
 -8.15904  -2.47063  -2.47192  -2.53812  -5.23664   18.1379   -6.8595 -0.221827    2.9573
-0.398302  0.103885  -16.9881  0.106037  -2.27248   1.65399  0.185547   5.23637  -9.70766
  -0.135333     5.60264 -0.00112502    -8.59871     1.35766     5.74331    -6.65228    -0.13359     9.03938
 -1.83869   1.43534  -1.88892  -1.12494   13.4986  -5.85863 -0.298067   -3.9915    2.9573
0.362154 0.276045 0.347507 -3.79978 -1.03826 -0.70713  2.08406 -2.32127  0.14631
 0.184095  -3.76481   1.61167   5.65839   9.39816  -3.26542   0.72907 -0.201986  -7.57644
-0.537446  0.721684   5.03656    1.7742  -12.2247   -3.7474 -0.446535  0.933453  0.122681
   3.6699   8.32356 -0.239329 -0.294357   7.23222   5.98184  -5.24424   2.37757   22.6585
 8.28518  6.73655  -6.6036  -5.2228  -4.5484 -3.89418 -6.90249  8.51171  1.01922
-9.17082 -6.58087  5.60768  3.91429  9.93633  7.30715  4.38084 -6.22155  1.45137
-0.510211   1.50958   4.78134   3.71117  -11.6052  -7.83858 -0.470371  0.446256  0.122681
 3.28688  2.24053  3.35495  0.42939  2.51452 -10.9067 0.165501  3.96378 -1.46294
0.568082 -5.01238 0.333531 -1.05487 -3.80856 -7.69872 -3.92708 -8.10441  1.15261
  -4.0725   2.56363  -4.18375  0.517072   29.8979  -12.7464 -0.134574  -1.49678    2.9573
 5.26599  6.19341  4.24952  4.96291 0.259859 0.713737  4.00821 -3.32018 0.281376
0.0928334 -0.117044   5.82158   4.13072  -6.95851  -4.81352   3.00918  -4.16018  0.110604
 1.88617 -1.01859  1.86243 -9.38783 -5.76021 -8.15394 0.409039  2.07571 0.179234
-8.09596 -7.05205 -7.26337 -6.34365  5.71476  5.85713   1.1724  -1.3472  1.19321
  0.25553  -4.17384   1.94606   6.40584   8.35803  -4.27864  0.594116 -0.179321  -5.72502
 -5.34045  0.252558  0.852947  0.251869  -3.51578 -0.748641   2.83429   2.97276  0.144028
   45.8897    7.39944    54.2826    8.73561   -23.5728   -3.96552   -0.83596    5.26069 0.00691631
 1.01207 0.611961  2.02742  3.21985  -12.319 -15.6519 -3.53269 -2.76249  1.15261
  -21.9619 -0.0800996   -15.2824 -0.0817585   -52.9698    4.16087   0.433616   -6.79131    27.2109
  15.488  4.87697  12.9446   4.0985 0.219992  1.74937 -1.37709  4.48482 -8.58943
  9.14353   2.09629   7.36008   1.66808  -9.92259  -2.16621   1.60006  -6.68845 0.0232798
0.0807338  -7.81273 0.0824058   1.02955   2.62321  -7.66554   6.73796  -8.33831  -18.7219
 -3.43593  -3.52542  -4.32039  -3.62172  -0.30197   25.8815  -11.4884 -0.155457    2.9573
  2.75991 -0.624387   6.78501   5.85131   -14.331  -14.2022  0.244087 -0.384358  0.122681
  6.93541  -5.56822   7.07904 -0.472244   3.74154  -2.39828 0.0784353   2.10135  -1.34026
 -5.56822  -1.13647 -0.472244  -1.16752   -6.6666   8.34331    4.0721 -0.482239    2.9573
 -2.09085   -5.6504  -2.15316  -1.88748   15.0028 -0.587565 -0.263262  -7.67496     2.874
 -5.6504 0.132303 -1.88748 0.135043 -7.67603   3.5139 -9.15263  4.11162 -15.4946
-0.0267535  -0.945184    3.29575    -1.1379   -12.9171    7.63788   -5.28555  -0.567959    3.18901
 -1.13014  0.195073  -1.16101  -9.76802   8.29681  -5.38975 -0.484942  -1.33167    2.9573
-1.72482 -1.91547 -18.7034 -1.99324  3.65587  13.9514 0.323115 -0.29648   2.9573
 -4.77578   1.05125  -4.90624 -0.738916    35.061   -4.2372 -0.114756  -2.36405    2.9573
 -4.76734 -0.421311  -4.49325  -0.43282  -2.85284   3.09302  -2.91432  -1.30082    2.9573
   5.42052    13.1062 0.00551375   0.173863    4.47383    10.4922    -8.2543    3.45536  -0.372817
0.822528 0.671079  2.33393  2.18339  6.50636  5.19362  3.54936 -3.53977 -5.75596
  1.33563   3.00786 0.0790554  -4.40134   6.61696   2.16096  0.668066 -0.257692  -4.54909
-3.79459 0.442773 -3.89824  3.25141  27.8576 -14.9178 -0.14443 -3.25946   2.9573
  2.95505 -0.146648   2.91786  -1.77293  -9.02447  -18.3019  0.261085 -0.112027  0.179234
 1.23645  1.88645  4.62859  6.41531  2.68714  2.54908 -3.05527   2.2909  1.32346
  3.39613   3.16199   5.14092   4.75116   3.60016 -0.140249  -6.96876   7.65834   25.0927
   1.4082   5.01284  -1.95384  0.534019  0.746625  -3.98316 -0.556496  0.191726  0.307782
-0.673618  0.114706 -0.692018  -3.20118    4.9453  -2.79309 -0.813595  -7.57817    2.9573
  8.14732   7.42524 -0.644744 -0.653991   5.52985   4.38832   8.27999  -9.01192  -7.28666
 4.28588  3.97457 -1.70422 -1.41104  6.21985  5.32324 -4.12348  4.58124 0.220093
  2.16833   8.44692   -3.0085  0.899853   1.14965  -6.71185 -0.361409   0.11378  0.307782
 -3.63907   -6.7563  -3.74751  -8.56899   26.1118  -1.56178 -0.151259  -4.76893     2.874
 -6.7563 -2.41767 -8.56899 -5.92108 -8.23322 -2.52754 -8.23577  9.35679  1.15261
  5.29717 -0.173375  -7.75127 -0.010262   3.80569   5.25084 -0.146323  -5.14657   26.8953
 -1.80831  -5.21974  -2.06895  -5.36232  -3.19166   38.3202  0.207988 -0.104996    2.9573
  13.8575   3.97155   0.82022   -5.8115   8.86677   2.85331 0.0643902 -0.195163 -0.699459
0.000582309    0.116347   -0.890209     3.35208     4.92159   -0.243147     17.1758     4.73437    -84.5294
 -1.60958  -1.88034   3.75316   3.84806 -0.178162 0.0468413   4.14214  -3.96644   0.23534
-0.615888   1.96616   5.77167   4.83364  -14.0089  -10.2094 -0.389662  0.342626  0.122681
  4.12889  -2.17879  -1.41881  -2.24372  -16.9841   15.6337 -0.314572 -0.252636     2.874
 4.29978  14.4685 -7.61982  -26.234  7.54435  26.4573   8.3438 -2.46627  1.45718
-4.34367 0.106267  1.91802 0.108468  -10.954  5.57761 -22.2559  5.11901 -29.5986
  -3.10964 -0.0644271    4.77254  -0.490662   -3.18771    5.98411   -0.24069   -2.35638    13.3414
 11.6986  8.29509  1.39804  1.11551  7.46703  8.13803 -2.75223  3.94705  -12.617
-0.244596 -0.201081   10.6223   2.68473   13.7998   4.71658   1.06275  -3.99801   3.14447
-1.04401 -1.38858 -1.07253  -7.3603  7.66449 -1.87032 -0.52495  -7.9176   2.9573
-1.38858 0.343919  -7.3603 0.339591 -4.38915  -1.0503 -6.26669  2.24331 0.179234
  -0.149007     2.94123 -0.00123869    -4.51407     3.55734     3.01507     -6.0418   -0.254471     21.5006
 -0.781517     4.1133 -0.0462578   -6.01893    3.32833    2.95515   -1.14174  -0.188437    3.67154
   3.86983   0.645329   -5.93926 0.00536459      3.967    5.12563  -0.193408    1.39506   -7.14268
 4.04784  5.10855 -4.29469 -4.82273  4.35231  4.50764 -2.49748  2.03001 0.877309
 2.88425  1.01621  2.84795 -9.05259 -8.80825 -4.14529 0.267494  1.31896 0.179234
  1.38941  0.661908 -0.644487  0.653578   -8.0424  -2.02141  -1.29833    1.1656  0.179234
   4.1136  -3.82774  -6.01936 -0.226563   2.95537   16.6606 -0.188424  -0.23311   3.75524
 -4.18777    4.6584 -0.247873  -6.81655   17.9399   3.34677 -0.213069 -0.166388   3.69391
-2.46227 -7.38388 -2.52953  -1.0762  18.0765 -8.37568 -0.22258 -5.04097   2.9573
-0.438401   -6.6861 -0.450376  -9.33987   3.21848  -1.23256  -1.25012  -6.96627    2.9573
  -6.6861  -6.52832  -9.33987 -0.493271  0.140532  -2.46782  -8.20123  -3.16077   1.15657
 -6.52832   2.97829 -0.493271   2.97016 -0.919898  -8.82833  -7.62173   0.25209  0.144028
  3.37564  -1.26444   3.33316  -1.49874  -10.3089  -3.16763  0.228554 -0.346085  0.179234
 -1.64379 -0.657938  -1.67783   3.25125   13.4941  -13.0937 -0.330932   1.95825   3.41884
-0.0827884 0.00190726    6.46656    7.85019   0.152843    1.80825   -6.65354     5.5484   -10.0283
-0.255506  -1.33568   7.98649   32.6022  -1.49637  -5.63246   8.61199  -2.09365 0.0402032
  3.14721  -4.84646  -4.60526  -0.28686   2.26107   21.3575 -0.246281 -0.184111   3.80363
-1.74085 -19.2224  3.65395  1.44219 -14.8142 -8.98983  2.52844 -4.20725  1.15261
 -2.64387  -1.72286  -2.71609  -9.46352   19.4097  -7.86569 -0.207292   3.36621    2.9573
0.0738284  -5.56731  0.747817   8.14655   9.00837  -3.99976   1.58729 -0.139223  -14.9843
 -7.03659  -5.07445   -7.2288  -6.66549   51.6585  -3.64063 -0.077886  -3.06979    2.9573
 -5.07445  0.130111  -6.66549   0.12831  -1.24592 -0.395523   3.66257   5.91671  0.175558
  -5.7115  -0.51974  -6.19022 -0.533937 -0.226068   3.81562   3.23008  -1.05447    2.9573
 -2.06831  -1.56916   1.26627  -1.61202  -9.90423   11.5198   1.12979 -0.349265    2.9573
 -1.31055  -1.50898   1.65724   -1.5502  -6.70091    11.078   1.00404 -0.363195    2.9573
 -1.26295  -8.67611  -1.28911  -2.08075   10.4879  -9.45191 -0.430722   -6.4862   3.47058
 -8.67611  -4.12142  -2.08075    -4.234   -5.6796    30.257   5.68377 -0.132977    2.9573
 -1.84905   1.58836  -1.89956  -15.2503   13.5746  -6.48967 -0.296396  -0.40946    2.9573
 3.16823  2.54771   8.3304  6.61164  7.35885   4.1595 -7.89961  10.0372  15.3356
-7.09167 -9.19139  4.60874  5.82929   2.3398  3.36126  5.41068 -4.25681  1.42965
   5.28256    9.66425    7.62557    13.9022   -4.11181   -7.67377   -8.93526     4.9432 0.00830213
  1.17835    5.7104 0.0697464  -8.35593   6.67549   4.10257  0.757231 -0.135735  -5.18341
   6.17853   -1.65073   -9.04094 -0.0977064    4.43889      7.053   -0.12545  -0.540539     3.6839
  -1.73543    6.67965 -0.0144266   -10.2517    7.06234    6.84736  -0.518759   -0.11205    3.67153
 -4.13961 -0.585278  -4.25268  -2.07037   30.3905   -3.0425 -0.132392   1.57963    2.9573
-0.585278   2.07824  -2.07037   2.12128 -0.438639   9.83154  -1.59939  0.261751   -3.6202
  12.0878   5.92074   10.0494   4.94327  -11.8247  -5.93311  -2.60275   5.41555 0.0198298
   6.08735  -0.944952   -8.90752 -0.0559314    4.37338    4.11877  -0.127329  -0.944267    3.76069
-0.691604 -0.598185  -2.94082 -0.614525 -0.600434   4.39152  -9.83855 -0.916192    2.9573
-1.85399 0.114502  -6.1714 0.116874 -5.46366  1.22811 -5.19155  4.75083 -6.88134
 4.18267   5.0503 0.445581 -7.00717 -3.32351  2.67767  0.22978 -0.15517 0.307782
 -7.81684  -2.45994  -2.38125  -2.51088  -8.16443   26.7945 -0.750823 -0.221136   4.87845
   5.5671  -5.08643  -8.14624 -0.301064   3.99961   22.1934 -0.139229 -0.175425   3.76475
  6.43052   -3.9989  -9.40967 -0.236693   4.61993   17.4003 -0.120534 -0.223133   3.75407
  -3.74359    7.97914  -0.221582   -11.6757    61.9621    5.73251  -0.238351 -0.0971408    14.6402
  -6.57225  -0.566513    -6.7681  0.0283354    47.1586   -1.18107 -0.0837524    3.51806      2.874
-0.141715 -0.945987 -0.146549  -8.54725   3.52743   1.97697  -3.95746   0.58228   12.8111
  3.52338   2.80835  0.375346  -3.89652  -2.79964   1.48899  0.272776 -0.279044  0.307782
 1.14287 -1.35639 -2.35494  3.82184  11.8244  5.76357  2.41307  1.63217 -38.9872
-4.29598 -2.05628  8.09973  4.11577 -10.4895 -5.41815 -3.33666   6.5317 0.896392
   -7.13518     -7.5077    0.955391     -6.8225    -8.13002 -0.00120128     7.87468  -0.0326051     1.15261
  -7.5077 -0.404035   -6.8225   3.90826  -9.12857  -14.8687 -0.372145  -1.34307   1.16856
  6.95737   4.68599  0.741171  -6.50169  -5.52826   2.48451   0.13814 -0.167234  0.307782
-4.40805 -1.62923 -4.52846 -6.61602  32.3613 -7.02113 -0.12433  2.45387   2.9573
 -1.62923 -0.724215  -6.61602 -0.743998  -8.98769   5.31676    4.9249 -0.756753    2.9573
-1.02125  1.94987 -7.62978  1.12935 -5.65257 -12.3382  8.46386  -2.6876  1.15261
5.30328 4.04794  3.2834  2.5324 5.21855 3.49905 -6.2561 8.33062 2.45177
-0.0683298   -2.94406  -0.520384    4.51843    12.7605   -3.01798   -2.22179  -0.254226    27.5917
 -3.63312  -9.07029   1.63804 -0.392294  -6.64368  -2.11544   1.23979   9.90733   1.15261
 -9.07029  -1.17078 -0.392294  -1.20277  -6.59642   8.59521   2.86366 -0.468107    2.9573
 -5.10655  -6.17039  -1.93581 -0.696755  -6.95578  -2.98889   9.33563  -6.47139   1.15261
 -6.17039  0.437373 -0.696755   0.67948  -7.95065   -4.5269   1.08479  -4.80339   1.15261
   39.5612    6.26378  0.0230117 -0.0932197    5.67069    3.62318   0.920832   -5.72901    14.4887
   1.97047    3.90617    3.19001    6.22509  -0.965541   -2.16838   -6.42712    3.38564 0.00603368
   3.98503    4.70227    5.35093    6.34615   -1.80413   -1.97378     6.7221   -5.57826 0.00575863
  2.42942  -2.99963  -8.64456  -3.08157  -10.2177   22.0215  0.603508 -0.182706    2.9573
 -2.12619  -8.98666  -2.18427  -8.74056   15.6092  -9.16796 -0.257762   -2.2952    2.9573
 5.16171  2.98279  2.41295  1.34643  5.54977  2.54243   3.7329 -6.27739 -5.80367
-0.0823272    2.63009 -0.0840322   -12.7221    4.97424   -11.7825   -6.60755  -0.170429    31.8208
 4.75935  3.41682  7.10689  5.07062 0.149743  1.33907 -5.73906  8.15327 -11.1052
 3.79008  8.72659  6.35212  14.5364  4.03613  4.06056 -9.05323  3.99428  19.2742
 -0.914987    6.06806 -0.0130691   -9.29845    3.64053    6.16032  -0.985912     -0.123    3.58065
 -6.76494  -1.10174  -1.96355  -1.13184  -5.47233   8.08833 -0.978128 -0.497442    2.9573
 -3.18283    1.8375  0.043855 -0.215018   15.9576  0.534746  -1.91646  -3.03219   31.1739
0.710632 -9.30681 0.553686 -4.86285  -5.1999 -8.19482 -4.32581 -8.68359  1.15261
 -9.30681   -1.5631  -4.86285  -1.59547  -6.61774    13.476   6.71828 -0.348015   3.64306
 -3.78565   2.23737  -3.88906  -17.3305    27.792  -12.1341 -0.144771   1.23507    2.9573
 0.108818  -4.62629   1.10223   6.76957   22.8248   -3.3237   1.07691 -0.167542  -25.2657
  -2.6386   -4.8734  -2.69324   -5.1926   23.2502  -4.64357 -0.206163 -0.444248   3.74654
 -4.8734 0.693582  -5.1926 0.707946  -1.8768  7.67339 -4.63045 0.784306 -7.06508
 1.23829 -4.65117  1.26394  1.25523  5.29762 -6.67514 0.439299  -8.7247 -3.37402
 -4.65117  -4.63528   1.25523  -4.76189  -8.45183   34.0294   6.30848 -0.118235    2.9573
 -3.36181  -1.32811  -3.45364  -5.67226   24.6804  -6.88011 -0.163023  -5.75649    2.9573
 -1.28145  -2.49851  -1.30799 -0.507929   10.5613 -0.320775 -0.424505   2.16121   3.43655
  11.2168   9.21843 -0.106799 0.0977789  -5.14273  -4.59371  -2.85745   3.53913  0.236031
 0.371301 -0.481092  0.912812   4.50846  -1.92801  -10.9429   1.81432  -0.49884  0.122681
  8.0489  4.67106  8.95817  5.18789 0.790684  1.60397 -2.61643  4.62494 -6.39627
   2.94744    3.74088    6.30188    7.78069   -2.17721   -3.02318   -3.48489    2.89725 0.00721802
 2.34941  -2.5904 -4.14042 -2.66116 -9.41899  19.0172 -1.35538 -0.21157   2.9573
 5.51347  6.49174   2.9921  3.55249 0.698513  5.66952 -10.2849  8.81879  -43.861
0.103367 -1.25652 0.105507 -8.57527  1.87068 -8.56683  5.26264 -2.06259 -10.8915
  1.72558 -0.697426   1.55461 -0.609903  0.378129   5.30992   1.74493   3.53735  -20.4896
 -4.72384 -0.739675 -0.440782  -0.75988  -5.64514   5.43025  -1.52538 -0.740937    2.9573
-3.37407 -5.66461 -3.46624  1.60579  24.7705 -8.62557 -0.16243  6.90345   2.9573
-1.52388 -2.52706  5.83731  9.32161  1.91945  3.21264  12.6888 -7.89593 0.077741
 -3.20725 -0.054489   4.92235 -0.414975  -3.28777   16.5064 -0.233364  -2.78615   45.2301
-0.120534  -2.13835 -0.123827  -3.79644   0.88489  -5.44974  -4.54686 -0.762978    2.9573
 -0.34331   1.03589 -0.352688  -9.42306   2.52038   -9.1719  -1.59638 -0.997699    2.9573
 0.563486  -2.04859    -16.09  -2.10455  -3.31569   15.0396   0.18317 -0.267526    2.9573
0.102139  1.01041 0.104255  1.15421  5.23868 -9.41368  5.32587  1.37984 -28.9473
-0.961567  -8.33412 -0.987833  -3.13044   7.05926  -3.92222 -0.569957  -2.92837    2.9573
 -1.50025  -4.03872  -1.53132   -8.9084   13.2083  -1.05892 -0.362593   2.30692   3.74245
  1.54922   -3.0818   1.58131  -29.6367  0.229656 -0.414072  0.351131 -0.019489  -1.12743
 -0.146054    5.69543 -0.0086449   -8.33402    1.39779    4.09181   -6.10929  -0.136092    8.41096
  5.06086  0.270451  -7.40548 0.0160079   3.63591   3.50316 -0.153156   3.29926  -11.6864
 7.27286  12.9737   6.2907  11.1967  2.19874 0.110336  6.13083 -3.39492 -14.1523
   11.4961    7.55499    8.35989    5.46945   -2.18697   -1.28737    4.39429   -6.61337 0.00598691
 3.24853  0.96355  1.31079 0.472151 -18.5132 -5.76621 -3.69178 -5.30238  1.15261
 1.39339 -9.21725  1.37585 -3.38984 -4.25529 -1.42604 0.553699 -5.05691 0.179234
 -9.21725  -5.14371  -3.38984  -5.28422  -4.45172   37.7621   4.17378 -0.106548    2.9573
-8.47199 -7.41841  8.91551  7.62829  9.36985   8.2519   5.3643 -6.23998 0.638157
 7.46356  12.8829 -2.60697   -5.143 -3.84987 -5.70273  2.57551 -1.46209 0.532974
   0.152857 -0.00254619     5.36194     4.77132   -0.319449      3.8381     3.60355    -3.92807     15.0789
 -3.47463  -2.49727  -3.56954   3.55039   25.5087  -14.4014  -0.15773 -0.621599    2.9573
 -1.40078  -0.72831    7.6409    4.5717 -0.795672 -0.625432  -3.94388   6.69224 0.0700475
-0.404484   2.00083   3.79054   4.91887  -9.20035  -10.3894  -0.59332   0.33669  0.122681
-0.827452  -12.4909 -0.844588   2.66972   6.89836  -12.0538 -0.657417 -0.035115   3.48831
 -3.95674   4.94725 -0.234199  -7.23923    36.252   3.55429  -0.22551 -0.156673   8.04668
   6.71226    6.00709 -0.0245593  -0.174512    3.69734   0.434009    3.42218   -3.73599   -12.0613
 0.405581 -0.615235  0.997088   5.76555  -2.10601  -13.9941   1.66097 -0.390076  0.122681
  -4.15271 -0.0214831    6.07659  -0.217605   -2.98346    5.38572  -0.186649   -5.45485     28.693
-0.898746  -0.17852  -18.0972 -0.183396 -0.766563   1.31058  -0.21999  -3.06998    2.9573
 1.00831   6.5525 0.628632  4.36171  2.52074  8.96502 -4.53891 0.781471  3.38873
 -3.46086  -3.56822    -3.564  -9.01311   24.8331  -5.30565 -0.159048 -0.997989     2.874
 -10.1231   -6.7741 -0.178842   -7.2299   2.37274   -6.7589 -0.512353    1.7428   1.21318
  -6.7741  0.285692   -7.2299  0.282096 -0.199089  -0.87248   1.40957   2.70052  0.179234
 0.854221   3.66422 0.0910005  -5.08402 -0.678757   1.94277   1.12511 -0.213867  0.307782
-0.887868  -8.99993 -0.912122  -4.76597   6.51821  -8.54026 -0.617267  -5.67728    2.9573
 -8.99993  -1.41851  -4.76597  -1.45726 -0.266515   10.4139   -4.3169 -0.386358    2.9573
-0.716868   3.94935 -0.658431 -0.283824   4.90895   -15.139 -0.819965  -2.45656    2.9573
 3.01026  2.41621  2.97237 -3.83344 -9.19308 -9.94063 0.256296 0.232827 0.179234
 -1.18411  0.215261  0.254841  0.212282  -9.87143 -0.654369   0.44809   3.57627  0.175558
  0.164329 -0.0274108    1.31148  -0.131282   0.207633    1.98186    -3.9091   -43.2807    85.5413
-3.06428  -6.9172  7.97267  18.5935 -8.59577 -20.1811 -9.35121  4.00878 0.576314
 0.395969  -3.29244   3.01561    5.0531   14.7571   -3.3751  0.383401 -0.227326  -6.41724
  -1.55407 0.00199387    28.0136     1.9708    2.86911    4.91383  -0.354446     5.3074   -26.0751
 0.956459  -7.59121  -4.85505  -7.78068  -3.83626   1.26716   3.75205 -0.909544   1.15657
-0.790581  0.361364   4.63421  -1.14041   3.22164   4.62831   1.06204   3.82885  -22.1894
-0.304863  -5.78146 -0.311176  -2.96558   5.73539 -0.792355  -1.78435   6.57507   9.18715
 -0.968964    4.22906  -0.590952    1.82009    7.68877 0.00352717   -1.84629  -0.294394      13.15
   2.7803 -0.750595  0.804423 -0.251517   0.31987   3.92717  -2.95755  -11.6874   45.7802
 -4.07548 -0.380146 -0.627872  -0.39053  -6.14734   2.79081   4.24447  -1.44169    2.9573
   6.34004    5.02529   0.117453 -0.0265796  -0.293643    1.38907    3.82267   -4.70868    6.49781
 5.29918   6.5225  2.23662  2.66443  5.65517  7.43533  4.63088 -3.67894 0.118961
 -1.19246   -3.1866   3.56985  -3.28156  -17.8232   22.8652 -0.315011 -0.172737     2.874
 -4.32809  -4.83512  -4.44632   -5.1222   31.7743  -5.80514 -0.126627   3.89082    2.9573
 -5.61181  -3.73755   -4.3039  -3.84893  -0.59785   26.8185   8.55113 -0.147274     2.874
-12.4237 -10.1363  4.35825  3.61786  5.52672   4.2657 -4.43607  5.37717  1.44415
-0.818091   0.14253 -0.840438  -6.66307   6.00594  -6.64248 -0.669915  -5.24114    2.9573
  0.14253  -1.05896  -6.66307  -1.08789  -9.72964   7.77427  -2.10067 -0.517537    2.9573
 -1.14922   2.32297  -1.18347  -11.0715   8.24612  -9.35293 -0.478971 -0.598572     2.874
  3.29697   1.62756  -5.06005 0.0135298   3.37975   9.36156 -0.227014  0.553143  -5.17042
   1.6725   3.50173  0.178172  -4.85856  -1.32896   1.85662  0.574644 -0.223791  0.307782
  2.95228  0.809257  -4.09621 0.0862104    1.5653 -0.643029 -0.265441   1.18762  0.307782
  2.50527  -2.08164  0.388345  -2.14367   -11.661   14.9366  -5.86304 -0.264427     2.874
-0.536239   2.93496   5.02525   7.21536  -12.1972    -15.24  -0.44754  0.229529  0.122681
 -2.03166   -9.9893  -2.08716  0.125436   14.9153 -0.850263 -0.269756  -1.62346    2.9573
 -5.45899 0.0552198  0.680911  0.319788  -5.15164  -1.66506  -1.22154   -4.6617   1.15261
 -3.14047 0.0809558 -0.740713 0.0826323  -3.56327   4.25632   3.91737   6.71949  -29.6471
  3.32556   3.46425   4.53375     4.874   -7.8195  -8.04368     1.711  -1.45187 0.0467312
0.975089   -8.475 0.995283 -5.23314  6.46571 -1.46056 0.557878 -1.05528 -4.65387
 4.61463  3.07555  7.68491  5.09263  3.93681  2.63251  -7.8845   12.007 -1.61543
   -3.13599 -0.00441322     2.21757     2.25092    -11.3958    -9.04268   -0.132123    -5.49389     1.15261
  -1.89091 -0.0905428    1.19441 -0.0924179   -7.62309    4.51003   -1.52364     -6.008    26.0495
  2.09759   1.10634   7.68881   4.39222   9.21633     5.576   2.51166  -4.27037 -0.383497
 -4.49093  -76.9953   -4.6136  -6.61462   32.9697  -20.3673 -0.122035   3.37241    2.9573
-8.01746   2.6535 -4.13229  2.64626 -6.32677  -7.8656 -5.04576 0.282945 0.144028
 0.230073    2.3959  0.226889   -24.018 -0.699398  -16.3399   3.34602 -0.750983  0.175558
  1.44335 -0.101823   3.54836   0.95421  -7.49471  -2.31605  0.466732  -2.35692  0.122681
  1.03584   2.49842  0.110348   -3.4665 -0.823068   1.32466  0.927842  -0.31366  0.307782
   21.4839    4.66308    39.1822    8.62258   -6.20462   -1.09744   0.840232   -3.75263 0.00466661
  1.33675  -1.03702  -6.64868  -1.05849  -8.37254   8.65219   3.09065 -0.524564   3.49184
0.630328 -2.25921 0.643382 -1.70926  1.42356 -5.20517 0.863013 -1.74105 -2.27534
-2.25921 0.488654 -1.70926 0.482504 -9.36663 -1.49231  9.12996  1.57886 0.179234
 -2.41599 -0.962058   4.11393   1.54216   5.28332     2.082   6.12199  -16.0371   0.11065
 -3.72423  -3.36824  -3.55973  -3.46025  -1.53729   24.7276  -7.42232 -0.162712    2.9573
 -1.71292  -4.81579  -1.74839  -3.27354   14.4187  -2.41473 -0.317576  -3.72228   3.53224
 -1.19647  -3.36676  -1.22915   2.28254   8.78378  -9.48572 -0.458057 -0.842665    2.9573
  3.20797   2.46388   5.94092   4.50661  0.435094 -0.132599  -6.05027   8.10017   2.63647
   4.55953    9.05249   0.114619 -0.0655383   -0.28656    3.91811    3.91716   -1.90964    7.43932
 -1.04436   1.85771  -1.07289  -3.54782   7.66705  -7.43656 -0.524774   6.03154    2.9573
-0.0126726  -0.759903   -7.45121    1.11106    1.35442   -8.22387  -0.898069  -0.340878    1.21826
   0.491213   -0.276002   -0.753893 -0.00229439    0.503546     1.71747    -1.52369    -3.26183     5.60997
  6.12156   3.85122  -8.49351  0.410272   3.24565  -3.06015 -0.128016  0.249556  0.307782
 -0.421415   -8.98923  -0.432927   -8.95749    3.09378   -1.36573    -1.3005 -0.0208867     2.9573
 -8.98923   2.94599  -8.95749   2.90891 -0.178946  -8.99681    8.6838  0.261887  0.179234
 -6.36379  -4.53518  -2.26031  -4.62911  -8.15975   36.9593  -9.36568 -0.119947   3.38637
 1.87071  1.56835 -1.46865 -2.10186 -7.56246 -6.36506   3.8318  1.74423  1.15261
   5.96261    16.2641 -0.0324934   0.310214   0.804814  -0.775566   -3.85171    1.44733    3.05702
 -4.33718  -1.48753  -4.45566  -7.47201    31.841  -1.31341 -0.126361  -6.39378    2.9573
 1.19078  1.98914  5.98534  10.8077  1.23607 0.073524  4.95359 -2.69194 -6.97184
 0.0965094 0.00160838    3.72514   -3.32581   -0.20169    13.4862    5.70752    6.21842   -83.8605
 -3.68329 -0.229692  -8.93419 -0.235967  -2.05139   1.68626   6.55087  -2.38603    2.9573
  0.20262  -13.2431  0.199817   3.23479 -0.615944  -12.9416   3.79937   0.80282  0.175558
 -5.05647 -0.155627   7.39905  -1.57637  -3.63276   7.91975 -0.153289    -0.753   5.27818
 -2.97057 -0.734734  -3.91971 -0.754804  -5.34141   5.39398 -0.727526 -0.745919    2.9573
 -8.21168  0.129676  -8.61669  0.132361 -0.181209  0.119245   6.21776   4.19494  -1.54701
-0.475654  -0.56888   2.90342   4.45441   6.53396   2.30464  -5.86434   3.94708    28.174
 -3.82312   3.09019 -0.226289  -4.52182   16.3317    2.2201 -0.233392 -0.250826   3.68316
 0.330032  -26.9949  0.325879  -25.8287  -1.00789  -65.9275    2.3377 -0.216841  0.179234
6.36791 17.6176 4.83814 13.4434 8.15466 15.5371 -6.6748 2.44349  15.419
0.485374 -6.88681 0.786116 -7.24549 -5.23278 -7.16124 -2.64463  3.84727  1.15261
 -1.11495 -0.398679 -0.989343 -0.401414   4.26564   2.51903  0.801522  -2.65904   3.04123
  0.18667    -3.706  0.977361  -3.81643  -7.81187   26.5921  -9.01035 -0.148527     2.874
 6.65573  1.77705  6.63756 -1.68203 -19.7291 -7.49555 0.112804  4.79982 0.144028
 1.77705 0.251646 -1.68203 0.256858 -7.37371  1.51312  9.99517  2.16169 -4.31768
-0.00465261     0.36707     5.11337     7.71155     6.76012    -0.76712    -2.14968     1.50061     14.5347
  -4.22479 -0.0545825    6.34972  -0.477847   -3.66438    16.1128  -0.179995   -2.45899    38.8967
 3.62648  2.59886  0.71473 0.607843  3.33181  2.92311 -3.20706  4.68448 -4.05473
   2.60799    7.07498    3.04195    8.26612  -0.327573  -0.713573    15.7857   -5.74138 0.00403114
 6.20345  5.15722     7.46  6.21745  7.74849  6.09235  5.36024 -6.34217 -3.94177
 -6.96525 -0.197021 -0.538057 -0.197282    1.3452   5.50983  0.834452  -2.91023   14.8695
 -3.32174   -4.3919   1.05817  -4.51187  -4.94037   32.2428   5.50704 -0.124787    2.9573
 -0.953441   0.860773 -0.0564339   -1.25955    6.12392   0.618411  -0.935859  -0.900469     5.6026
  6.02458   8.39307  0.184879  0.110015    5.4747 0.0898693   5.17532  -3.65006  -29.0521
-1.52423 -2.26351  1.64131  2.72004  2.91522  4.37566 -6.57678  4.11142  0.30339
 0.590778 -0.612878   1.35588  -1.54835   2.53402   8.81201   5.99401   4.89029   -59.329
 -8.14902  -1.38832  -5.13752  -1.42625  -2.65337   10.1923   4.63634 -0.394758    2.9573
 -5.66468 -0.988438   2.38538  -1.02539  -9.11711    9.0073  -2.29705 -0.545814   3.87259
 3.64399  2.14279 -3.30478 -2.16317 -6.13008 -3.28994  3.12432 -5.27912  1.28301
-0.165432  -3.49054  -9.75563  -3.58589  -1.85146   25.6255   9.84489 -0.157011    2.9573
  2.05743   5.78942  0.121778  -8.47156   7.74249   4.15934   0.43369 -0.133882  -3.48637
  7.16645   1.00746  -9.94328  0.107325   3.79965 -0.800518  -0.10935  0.953979  0.307782
  3.43548   2.76457   4.29394   3.43938   1.97102 -0.136691  -6.16344    7.8577   12.1523
 -0.400955    7.21471 -0.0237324   -10.5572    6.68712    5.18332    -2.2254  -0.107433     14.753
  -3.7771   -2.6984  -3.88027  -9.79239   27.7292  -2.16878 -0.145099   -2.0486    2.9573
 0.151735   3.14169  0.149825  -1.21522 -0.463386  -12.5809   5.08464    3.5634  0.179234
7.23547 23.3606 1.23964 3.80103 3.11612 2.40219 7.48679 -2.2956 -18.862
  2.14087  0.350966   5.27665   1.15148   2.39455 0.0832238  0.703649  -2.74225  -2.50349
 3.01911  3.20307  4.50799    4.696  5.32128 0.939886 -2.96556  2.96507   11.947
-0.536966  -5.07808 -0.551634   0.51363   3.94209  -8.06815  -1.02065   8.00269    2.9573
   2.13653   -1.79546   -3.27906 -0.0149256    2.19018    7.36795  -0.350314  -0.501415    3.70228
  -5.29611 -0.0761243   -4.94711 -0.0777008   -9.64894    3.95428    9.69937   -7.14596    27.2103
 -2.10524  -2.76182  -2.14884  -8.77742   18.1774  -9.95491 -0.258393    -4.465   3.65014
-7.31067 -10.3918  5.18962  7.77697  3.08334  3.63918 -2.53309   1.7053   1.3726
  -5.58874   -6.61461   -5.74079   -7.13814 -0.0249952   -9.00226  -0.904077    -1.8866    1.15261
-3.59639  -7.4709 -3.69463 -7.80943  26.4025 -4.44407 -0.15239  3.25356   2.9573
  -7.4709 -0.254682  -7.80943 -0.261639  -7.73019   1.86973  -6.16809  -2.15191    2.9573
 -1.08893  -1.89861  -1.11868  -9.91873   7.99428  -9.70728 -0.503294   1.13122    2.9573
 -1.89861    -3.478  -9.91873  -3.55003  -9.30446   29.4253  -9.92145 -0.156406   3.55553
 -3.88445   1.05118  -3.99056   1.42155   28.5173  -9.93752 -0.141089  -5.03129    2.9573
  3.39249   5.69179   4.29596   7.17202  -9.39869  -15.7661    -7.855   4.80461 0.0795002
  -4.69139 -0.0172749    6.86484  -0.174979   -3.37047      3.733  -0.165217   -6.78368    24.6381
   6.66273    4.08554    11.0356     6.7032   -2.73624   -1.83789   -3.32022    5.55104 0.00575863
   1.07225    2.05411    1.05875 -0.0578738   -3.27455   -8.53157   0.719534    2.18938   0.179234
   4.43085    6.23625 -0.0614355    0.29167     2.6323  -0.729203   -2.03718    1.53935    5.31958
  -2.4418 -0.468096   -2.5085  -4.08569   17.9262  -6.83226 -0.224446   8.99267    2.9573
 -6.97398  -4.10913  -2.55079  -4.22138 -0.476717   30.1668   5.01415 -0.133374    2.9573
 -2.03802     4.168  -0.12063  -6.09896   8.86886   2.99444  -0.43782 -0.185964   3.75444
  -1.56924   -7.24149     -1.616  -0.916835    11.2599 -0.0212509   -0.35077    11.3755      2.874
-7.09588 -4.18634  3.67096   2.1153  5.02523  3.08641  6.14833 -10.5948  1.50031
 -2.34371 -0.206795   3.42952  -2.09466  -1.68381   12.0822 -0.330714 -0.566682   6.16136
 -7.51278  -6.53677   1.72864  -6.73157  -11.7617   46.9041   64.8434 -0.084207     2.874
 1.55003 0.172833  2.94449  1.70757 -18.3553 -11.4689 -2.10682  11.5624  1.15261
 -10.4535  0.322794  -9.15799  0.318327  -18.1911 -0.981259 -0.456924   2.38489  0.175558
-0.574536    -28.31  -0.59023  -13.6694    4.2179  -38.9509 -0.953904  0.102361    2.9573
 -4.35722  -9.83201  -4.47624  -7.33169   31.9881 -0.718482  -0.12578   2.92664    2.9573
 -11.4119  -3.84197  -10.2053  -3.94672   1.90268    28.102  0.575908 -0.144083    2.9573
 -2.61076  -2.48779   8.66752   7.83656   4.65502    4.4271    5.3697  -5.87757 0.0703902
 -4.87836  -9.35264  -5.01162   1.46689   35.8141  -5.90159 -0.112343 -0.981348    2.9573
  -3.11932    3.09883 -0.0445544   -4.74852    12.4111    3.14595  -0.289197  -0.240856    3.58065
-0.0436863    2.61123   -3.02264  -0.188946   0.621498   -10.1308   -2.12969   -3.15052    1.22763
 1.02379 -1.76009  1.01091  2.52651 -3.12657 -10.1145 0.753589  1.17404 0.179234
0.132802 -8.65671 0.135552 -1.66253 0.251519 -9.59678  4.09619  2.95243 -2.07706
 -8.65671  -1.82013  -1.66253  -1.86985  -5.96211   13.3623  -8.06078 -0.301106    2.9573
  4.46987  0.485274  -6.54068 0.0287232   3.21132   2.96929 -0.173405   1.83873  -5.58824
   -0.13977     6.11079 -0.00827293    -8.94182     4.25917     4.39022    -6.38397   -0.126841     27.0619
   3.14226    6.78635    3.49058    7.51843  -0.821689   -2.16651   -5.17656      2.479 0.00575863
 -1.77627   2.48905 0.0964664 -0.256943   6.88171  0.797471  -6.90558  -4.70003   50.2402
   3.0039   3.09255   5.50865   5.60679   0.77403 -0.155095  -6.94697   6.92528   5.38119
 7.79534  11.0742  2.38715  3.29665  6.45376  7.47117  5.90661 -4.10864 -8.47027
 5.41503  7.07459 -5.10618  -6.8891 0.670307  1.17765  7.31548 -5.57963  1.01327
  5.83519  -7.74169   -8.9416 -0.110577    5.9239   30.8025 -0.127909 -0.116524   3.58065
 -3.97911  -4.76998   -4.0878    1.1899   29.2122  -7.76995 -0.137732   8.99083    2.9573
-0.834645  -7.51195 -0.857444  -4.82644   6.12747  -8.30574 -0.656629  -3.10149    2.9573
 -7.51195   -1.0835  -4.82644   -1.1131  -2.39029    7.9544   4.44308 -0.505817    2.9573
  -1.00023    5.64604 -0.0592033   -8.26175    6.57036    4.05632  -0.892081  -0.137282    5.73276
 4.94789  3.10078 -11.5358  -7.0481  11.2316  6.69778 -4.71117  7.56742  1.56071
  4.99348   5.70991   4.37602   5.02521  -5.15225  -6.07283  -4.49789   4.03907 0.0198298
  5.10447   7.88467   5.36159   8.27793 0.0126732  0.889148  -6.29374   4.14351  -4.65122
-0.147663  -4.46275 0.0492095  -4.58465 -0.219406   32.7629  -2.04152 -0.122806    2.9573
 -30.0869   0.07182  -8.53596 0.0733073  -42.4708   2.15676 -0.395417   7.57424  -17.3826
  1.47804   4.25677   2.62146   7.39652   2.23853 -0.398651  -7.38826   2.69427   16.5429
  5.02775   5.19977  0.535608  -7.21456  -3.99501   2.75692  0.191158 -0.150709  0.307782
 7.57715  42.3297 -4.33051 -23.3362 -7.01844 -40.3127 -7.46344   1.3411 0.854271
  4.47017   6.27671  0.476209  -8.70878  -3.55196   3.32791  0.215002 -0.124851  0.307782
-3.55301  -5.6153 -3.65006 -4.47774  26.0841 -3.05385 -0.15425  5.41335   2.9573
-1.99053 0.148146  3.05498  1.12825  -2.0405  7.09332 -0.37601  1.02476 -8.02835
-1.44128 0.120635 -0.58824 0.123134 -3.02628  4.43713 -5.43935   4.5093 -21.0551
 0.496235 -0.452384   1.50081 -0.464741  -8.07363   3.32113   1.60379  -1.21148    2.9573
 -5.67038  -6.73147  -2.27631 -0.200924  0.409833  -7.62013   -2.8122   8.72915   1.15657
-0.828277  -11.2872 -0.850902   0.19772   6.08072 -0.914688 -0.661677   1.35271    2.9573
 -12.2675  -1.10131  0.306429  -1.13139   -1.4343   8.08514  0.915498 -0.497638    2.9573
 -8.27279   -1.0129   1.48576  -1.04056  -7.62664   7.43608  -2.56744 -0.541074    2.9573
   5.24999     6.5551   0.143548 -0.0517691  -0.358883    6.58649    3.12776   -2.41756    15.8803
   7.46184    8.07247 -0.0148343  0.0570521    2.69563  -0.142636   -8.43686    7.86969    22.6997
 -1.75466   3.18752  -1.80259 -0.849041   12.8817  -12.7967  -0.31234     3.144    2.9573
  -3.71801 -0.0338559    5.70626  -0.257839   -3.81136    3.99713  -0.201306   -4.48414    17.1643
  2.62349   3.48567   4.72158    6.4158  -4.81189  -6.30299   4.59269  -3.28159 0.0197053
  3.93056   7.63047  0.418724  -10.5871  -3.12319   4.04567  0.244518 -0.102701  0.307782
   8.00304    -5.2456   -11.7107  -0.310485    5.74968    37.0183 -0.0968506  -0.170102    6.16837
 -6.00632  -2.36015  -9.45778  -2.42462  -6.57316   17.3268   -1.6474 -0.232211    2.9573
-0.753126  -4.06759 -0.773698  -1.99872     5.529  -8.24504 -0.727703  -6.47727    2.9573
 31.8202  4.57514  15.5037  2.18669 -1.06427  5.29724  1.00921 -6.89912  36.5503
 0.323739   -1.1458  0.319259 -0.803618  -0.98413  -11.2691   2.37793  0.199602  0.175558
  5.29533   7.11972   5.44276   7.32013 -0.433345   4.25131   2.47857  -1.76637    7.5134
   8.07407    649.554    8.70799    700.819   -2.23602   -171.872    9.73437  -0.120142 0.00575863
  4.49443   4.39869    3.7303   3.68045 0.0314747   1.46856  -3.30731   3.50297  -6.08701
 -7.89077  -7.41679  0.477814 -0.238888  -4.90906 -0.164603   8.28457   5.79956   1.15261
 -7.41679  -3.48997 -0.238888  -3.98219  -6.74757  -4.71324   7.53597   4.46879   1.15261
  4.72156   3.46691   7.70891    5.5703 0.0265805   0.79813  -2.59658   3.69317   -3.9254
-0.118288  0.002365   5.54539   5.88975  0.218382   5.74394  -4.65673   4.47453  -25.6969
 5.82257  3.91118 -8.52006 0.231502  4.18315   19.935 -0.13312 0.228137 -4.67645
 -4.39897  0.170822   6.75135   1.30094  -4.50941   3.44738 -0.170144  0.888729  -3.82317
 -3.91978 -0.152458  -4.02686   1.12302   28.7767  -9.29777 -0.139817   18.8101    2.9573
  2.75324   3.29097  0.293304  -4.56614   -2.1877   1.74487  0.349077 -0.238123  0.307782
   4.31107  -0.640841   -6.30832 -0.0379312    3.09723    4.01774  -0.179793   -1.39237    5.46564
 -2.46686  -3.29515  -2.51795  -1.91537   21.0013  -4.48967 -0.220515  -1.66762   3.58431
 -3.29515  -1.78363  -1.91537  -1.83235   -7.4914   13.0944   7.84076 -0.307268    2.9573
 -9.58552 -0.249959   2.33352 -0.256787  -9.56034   1.83505 -0.807804  -2.19257    2.9573
0.129676 -5.59761  1.71605 0.410627 -7.07316 -1.95493  4.80744  1.25536  1.12866
 -9.56701   -0.1306   1.41661 -0.133305  -9.42347   4.24948  0.903604  -4.16524   16.6533
 5.17199  9.82756  6.08176  11.5742  2.44359   2.9767  9.03633 -4.70023 -9.13669
-0.894669   4.12694   1.67357  -2.69221   3.85641    11.096   0.83502  0.312834  -7.73817
 -1.96391  -6.87512  -2.01756  -2.21828   14.4179  -1.85881 -0.279062  -2.66918    2.9573
-0.865266  -1.53449 -0.888902   -1.5603   6.35227  -2.73064 -0.633391  -2.31429    2.9573
 -1.53449  -2.52458   -1.5603  -2.57687  -7.98695   22.4881   3.67759 -0.215474   3.79881
-0.220873  -3.15978   3.36329  -3.24609   -13.511   23.1972  -3.06511 -0.173446    2.9573
 -6.72428   -4.5868  -6.76141   -4.7121  -3.08227   33.6736  -1.02963 -0.119485    2.9573
 -2.20976   3.80851 -0.130795  -5.57293   9.53048   2.73618 -0.403794 -0.203518   3.71982
  3.1176 -2.66658 -1.98999 -5.21394 -12.7486 -4.19134  1.56507  1.98396  1.15261
 -2.15996   6.55557 -0.127848  -9.59265   9.35485   4.70976 -0.413103 -0.118235   3.73599
 -4.55558  -5.84035  -4.64992  -7.45693   39.1389 -0.157529  -0.11941 -0.249891   3.62678
-0.566246  -8.74411 -0.581714  -4.28763   4.15704  -6.81511 -0.967869  -8.13073    2.9573
 -4.83867  -4.12728  -7.66645  -4.24002  -7.21127   30.3001   8.76724 -0.132788    2.9573
 6.39976  5.54561  2.66385  2.35367  6.60787  5.84196 -6.19678  7.24932 -2.44955
 1.03535  3.97686  7.01275   25.355  5.74484  17.0565 -7.07453  1.97859  5.84748
 -4.61233  0.446458  -4.70785  -2.73187    39.475  -3.95612 -0.117941  -8.73685   3.60892
 -1.10674  -9.44611  -1.19813  0.259345   8.33321 -0.644784 -0.480827   -2.5454    2.9573
 -9.46745  -4.71962  0.559795  -4.84854  -7.45004   34.6486   3.50273 -0.116122    2.9573
 -0.144006 0.00675334    2.54228   -1.07141   0.320046    4.16864   -4.33381   -10.8642     45.559
  -8.66858   -1.66932   -9.67938  -0.795834 -0.0108683   -9.86671 -0.0520523    7.96649    1.15261
 -1.66932    -1.876 -0.795834  -1.92724  -4.87826   13.7724   5.13225 -0.292139    2.9573
 -7.29374  -4.72446  -6.77025  -4.85351 -0.693111   34.6842  -9.75981 -0.116003    2.9573
  3.60056  -1.48271  -5.26864 -0.087761   2.58678   6.33678 -0.215272 -0.601795   3.68492
 -6.25507   -1.5378 0.0349461  -1.56965  -1.80623   13.0221   9.42621  -0.35374   3.55964
 -1.69309  -9.88999  -1.72816  -6.72275   13.9051 -0.138461 -0.321295    -9.512   3.42083
  -9.88999   -6.11618   -6.72275   -6.28325   -1.97619    44.9014   -5.59999 -0.0896069     2.9573
 0.714595 -0.870334  -6.63486 -0.894108  -4.11052   6.38947  -4.04076 -0.629703    2.9573
-0.0384068   -8.94568 -0.0392022   -8.31819   0.495569   -6.38263   -14.1637    1.56559    5.97228
  -8.94568    -6.6458   -8.31819   -6.84384   -4.38535    47.6864    5.23825 -0.0828255      2.874
-0.149978 -0.140978  0.230181  -1.07365 -0.153744   17.0604  -4.99043  -1.07687   17.6125
-0.865651  -5.37743 -0.891447   -2.3887    6.2114  -4.44207 -0.635871  -2.44503     2.874
  8.25465   5.77964   8.26823   5.78596 -0.451427   2.69569   2.37928  -3.30321   8.90845
  -0.718344     2.89338 -0.00597156    -4.44064     5.24329     2.96603    -1.25326   -0.258679     6.57908
 -1.27366  -1.35417  -5.50401  -1.38222  -2.01644   13.5629  -1.46842 -0.401707   4.40154
 -4.05463   4.81764 -0.239992  -7.04957   17.5219   3.46117 -0.220066 -0.160888   3.72744
   -1.4807    4.94588 -0.0876424   -7.23722    6.40641    3.55331   -0.60261  -0.156716    3.73204
  4.80141   3.06496  -6.66185  0.326511   2.54571  -2.43539 -0.163213  0.313574  0.307782
  2.17986   26.1733  -1.05432  -14.3518    7.0579   58.4955    6.0544 -0.483461  -15.4978
 -0.486117    5.06967 -0.0287731   -7.41836    12.4985    3.64224   -1.83554  -0.152889     22.813
 8.61135  9.86455 -2.85424 -3.42093  6.05248  7.27077  5.83617 -5.04457 0.355241
0.00239029 -0.0456901    2.84921    1.00229    4.47288  0.0843524    4.42718   -12.0559   -19.7977
-0.293006  -1.08734  0.330206  -1.11974  -3.82695   7.80209   1.05423  -0.50623     2.874
 -6.86756  -4.00923  0.214278  -4.11874  -5.72837   29.4334  -8.65381 -0.136698    2.9573
 -2.11799  -1.79999  -2.17584  -6.91108    15.549  -5.01733 -0.258761   9.38565    2.9573
-0.349881  -7.79474 -0.359439  -1.67196   2.56862  -7.22739  -1.56639  -6.64889    2.9573
0.862333 -3.56021 0.859979 -3.41662 -2.55615 -7.19119 0.870656 0.850802 0.144028
  -1.50334    6.75547 -0.0889821   -9.88517    6.47904    4.85338  -0.593537  -0.114737    3.71702
 -4.29529  -3.39438  -4.41262  -2.92727   31.5335  -4.70554 -0.127594   4.76091    2.9573
 -3.46517   1.05594   1.69081 -0.390355   14.2602   3.59389   1.84554   6.57146  -50.9816
  -12.1114 -0.0851656   -21.5286 -0.0869293   -45.0666    4.97189    0.18437   -6.38734    30.7104
-0.339867  0.188602    10.116   8.77514  -9.38967  -8.61337  -1.27011   1.51391 0.0831778
-0.427967   2.33395    4.0106   5.73782  -9.73449  -12.1192 -0.560764  0.288635  0.122681
-4.09466 0.214021 -9.73715 0.218453 -3.26485  2.48868  6.87888  2.54172 -7.37233
  5.01933   10.6508    4.6502    9.9011  -6.99751  -15.2117  -3.57949   1.74617 0.0327242
-0.731952  -2.41354  -4.44242  -2.47946  -2.06692   17.7187  -4.00658 -0.227074    2.9573
 -4.29013   -7.2137  -4.40732  -5.12799   31.4956  -9.67724 -0.127747   4.26781    2.9573
  -7.2137 -0.105633  -5.12799 -0.108518 -0.852352  0.775493   5.10381  -5.18828    2.9573
-0.414392  0.164823   2.06533  0.168236  -8.45349   2.89437   3.82328    3.3004  -10.5994
  2.30604    -1.431   1.99288  -1.47009  -18.3829   10.5056 -0.362833 -0.382985    2.9573
  4.79857  0.194232   -6.6579 0.0206916    2.5442 -0.154335  -0.16331   4.94817  0.307782
 1.08598 0.571635  7.04812  2.96498 0.171242  5.76829 -1.60124  3.99361 -23.8089
 -2.15951  0.624456   -2.2185  -2.11729   15.8538   -3.5289 -0.253786    3.2888    2.9573
-0.725227  -5.35382 -0.745038  -6.25786   5.32419 -0.741424 -0.755697   2.06335    2.9573
 -0.897278    4.56206 -0.0531096   -6.67558    3.82182    3.27755  -0.994437  -0.169901    3.67203
 -2.66411  0.448026  -2.53782  -8.39186   18.7931 -0.837786 -0.212355  -1.23911    2.9573
0.0653841  -7.51188  -8.39186  -8.67443  -4.28307  -8.27534   5.40932  0.293341   1.15261
  6.73299   8.64223   7.37866   9.48802   -3.7484  -4.46553    3.2758  -2.48631 0.0082314
 7.00851  3.30301  7.78589   3.6584  3.75167 0.416268 -2.02823   4.4683  4.70245
 -1.35187  -3.29256   -1.3888  0.597337   9.92466  -9.92652 -0.405402 -0.551734    2.9573
-3.29256   -3.059 0.597337 -6.96032 -6.23942 -1.09664 -9.60123  -1.2082  1.15261
   -3.059  -4.61527  -6.96032  -4.74134  -3.33852   33.8826   7.70854 -0.118748    2.9573
0.0738612  -1.97926 0.0753908   1.59698   4.36075  -6.50147   7.36492   6.16999  -33.1634
  2.75002   2.55072   8.53568   7.73816  -6.45012  -5.97659  -6.17039   6.88671 0.0166089
  1.11949   1.05167   5.04797   4.55158   1.29872 -0.106935  -8.94548   10.0441   11.6217
  -0.774392    0.358183 -0.00643748   -0.549725     25.9302    0.367176    -1.16255    -2.08959     30.1531
 -4.29497  -8.10823  -4.38392  -7.42727   35.6961  -3.96101 -0.126655  -5.39041   3.47431
 -3.97125  -0.59624  -4.07973  -5.90985   29.1546  -9.61059 -0.138005  -7.59605    2.9573
-0.59624 -5.47446 -5.90985 -3.14685  -6.0603 -2.60796  3.36495 -1.27233  1.15261
  2.76376   6.13244  0.294424  -8.50862  -2.19606   3.25142  0.347749 -0.127788  0.307782
 6.48824  8.25219 -10.5155  -13.126  4.32898   5.1011 -6.64147   5.2344  1.44185
  -9.58209   -9.70297   -6.69407   -3.31925 -0.0173063   -5.83189 -0.0580423     -9.844    1.15261
-9.70297 -2.00855 -4.76429 -7.24093  1.12061 -5.53633 -1.02849 -8.02507  1.15657
 -0.585038    3.42954 -0.0346282   -5.01838    2.50619    2.46391   -1.52518  -0.226007    3.69386
 -0.337096   -8.74705  -0.346304   -8.24932    2.47476 -0.0125853    -1.6258   0.204172     2.9573
-8.74705 -1.02578 -8.24932 -1.04702 -7.09123  8.45122  8.47346 -0.53031  3.43498
0.0164203 -0.114693  -1.77756   1.34528   6.82571    0.2549   -4.4682  -5.44142   30.7689
-0.331879   1.86349 -0.338551   1.40338   8.43706  -12.8798  -1.65241  -5.03121   12.8807
  0.47977  -2.71353  0.473131 -0.442477  -1.45845  -4.05655   1.60458 0.0885424  0.175558
 -2.12255  0.593666    3.1059   6.01332  -1.52492   38.2762 -0.365173  0.197396  -8.24094
 -4.37993  -4.38115  -4.49957  -1.57766   32.1548  -3.50457 -0.125128  -7.13938    2.9573
 -4.38115 -0.196981  -1.57766  -0.20106  -4.73933   5.51026  -2.44474   -2.7616   14.1703
 -6.74301 -0.250688  -1.83405 -0.257536  -8.68745    1.8404  -2.10374  -2.18619    2.9573
-2.44165 -1.46991  1.86001 0.758623 -7.90086 -7.73019  0.90095 0.317706  1.15261
 2.30052  3.71175  5.15843  8.18686  2.48379 0.997702 -7.65007  4.88803  13.0776
0.00211905  -0.189717    5.28141    8.90116    3.17617   0.350253    4.99387   -2.90346   -15.8568
-4.35515 -4.05843 -4.47412 -8.60387  31.9729 -7.81624 -0.12584 -0.37275   2.9573
 -1.13744   1.89864  0.017243 -0.246781   7.45848  0.613741  -4.87423  -2.64192   36.9461
-5.78047 -1.01469  66.0732  8.25991  23.2736   4.5331 0.262037 -2.02888  2.05178
-7.41284 0.202137 -5.96144 0.199593 -1.44148 -0.61731  -2.3423   3.8168 0.179234
   4.1335   2.92727  0.440343  -4.06151  -3.28444   1.55204  0.232513 -0.267709  0.307782
 5.35458  7.67737 -1.34426 -2.27618  5.07785  8.16491  2.96723 -1.99972 0.220093
   6.6615  -4.74813  -9.74766  -0.28104   4.78587   20.9361 -0.116355 -0.187924   3.80587
     5.16   5.69847  -7.15938   0.60706   2.73583  -4.52795 -0.151871  0.168658  0.307782
 0.243988  -5.12702  0.240917  0.231238 -0.745118  -15.8107   3.16212 -0.560967  0.179234
-0.107685  -2.01141 -0.109915  -1.62387   3.13588  -7.88847  -5.05162  -4.87606   14.7945
-1.94189 -2.77406  -1.9406 -2.79714  8.19553   12.035  7.55253 -5.34411  2.17086
 -7.89484  -2.32166  -7.21524  -2.38496   1.41591   16.9818  0.773898 -0.238434    2.9573
-6.83435 -11.3551  1.60527   2.7208 0.380731 0.275817 -5.98784  3.56406  1.30629
0.493321 -8.87913 0.503538 -5.47072  3.04333  -6.1483  1.10269  6.84351 -4.40264
  -0.294662     0.42705 -0.00244951   -0.655418     3.43577    0.437772    -3.05527    -1.75262     10.5051
 -5.10072  -3.10097 -0.418233  -3.18567  -3.64261   22.7655  -3.46466 -0.176736    2.9573
 -5.12867  0.270835  -5.26876   1.30089   37.6516   -6.3411 -0.106861  -4.09433    2.9573
 0.497079 0.0968408   3.05541 0.0988463  -14.3566    5.0332   4.65933   5.61728  -29.3197
 0.175569   6.89141 -0.243598  0.734144 0.0930868  -5.47585  -4.46351  0.139463  0.307782
  2.44556   6.98518  -3.39316  0.744134   1.29664  -5.55037 -0.320439   0.13759  0.307782
  5.02723   2.50261   2.55281   1.23404 -0.273963   3.83667   3.92051  -7.65622   29.3784
-0.101473  -71.6971 -0.104245  -8.27124  0.744958  -13.2046  -5.40094   2.15357    2.9573
-6.16432 -5.15363 0.095561 -6.24522 -3.59209  0.99132 -5.86391 -1.16263  1.15657
  -3.9418  -1.80273  -5.98995  -1.85197  -4.89561   13.2345   4.03017 -0.304013    2.9573
0.131573  1.34411 0.134298 -3.40581   5.9615 -9.41949  4.13443 -2.21999 -25.6942
  1.34411  -2.47902  -3.40581  -2.53036  -8.61134   20.3964   8.16768 -0.219434   3.42887
  6.00231   2.70416  0.355275  -3.95695   3.70426   1.94277  0.148657 -0.286633 -0.679191
   0.3008  -1.50631  -25.7398  -1.54746  -18.9948   11.0584   6.51253 -0.363838    2.9573
 -1.90638  -8.64448  -1.95846  -7.42078   13.9955  -7.13894 -0.287483   7.87435    2.9573
-8.64448  -9.7326 -7.42078 -4.95664  -4.2898 0.275242 -9.25386 -4.18735  1.15657
  -9.7326 -0.658094  -4.95664   1.96077  -3.07947  -7.99519   7.89486   3.41022   1.15261
 -2.50751  -2.03757    -2.576  -8.23335   18.4086  -7.19431 -0.218564   -1.4648    2.9573
 0.187906  -2.52004   1.43105   3.86765   6.34658  -2.58331  0.807928 -0.297002  -5.88696
 -2.33234   4.95959  -0.13805  -7.25728   9.93105   3.56315 -0.382572 -0.156283   3.67081
 5.00513  2.49404  3.87429  1.96433  3.13206    5.822 -1.87051  3.97192 -18.3128
-0.0895936  0.0223945  -0.481354 -0.0651295    7.53091    1.90685   -2.88077    12.7657   -3.69429
 0.11257 -5.67442 0.857305  8.70887  3.13167 -5.81689  1.34863  -0.1319 -4.98283
  -9.07286    5.11189   -0.53702   -7.48014    38.7255    3.67257 -0.0983468  -0.151627       3.68
 -3.56833   6.13365 -0.211208  -8.97527   15.2425   4.40665 -0.250057 -0.126368   3.68296
-3.23908 -1.55653 -3.32756 -8.75822  23.7794 -9.52075  -0.1692 -3.52421   2.9573
 0.147874 -0.192311   1.66798   2.06364  -7.43153  -7.89073  -4.72067  -2.82172   1.16856
 -5.61743 -0.379949  0.317685 -0.387817  -8.86972   5.68567   7.11406  -1.43172   7.09352
 -2.27621  -3.48132  -4.89302  -3.57642   -1.4551   25.5578   6.00318 -0.157426    2.9573
 -4.14537  -6.69081   -4.2586  0.156837   30.4328 -0.743127 -0.132208  0.463204    2.9573
 -8.43811  -1.85925  -5.89193  -1.89776 -0.910888   15.3199   6.87755  -0.29258   3.43552
 -0.88666  -4.23024  -6.75259   6.49241   34.6635  -4.33646 -0.171221  -0.17693   5.17574
 -2.74135  -3.31064  -2.81623  -6.05743   20.1254 -0.494828 -0.199921   1.05562    2.9573
  3.98659  -3.99242  -2.55997  -4.10148  -16.1637     29.31 -0.205024 -0.137273    2.9573
  -5.93359   -5.78102   -6.09567   -6.01586    43.5609   -3.23014 -0.0923643   0.684311     2.9573
 -5.78102  -2.93923  -6.01586   -3.0001  -7.41455    25.584   1.31924 -0.185076    3.6882
-1.97007 -1.68061  6.38069   5.0673 -4.29855   -3.331  6.18732 -7.75302 0.284071
  -1.43487    5.96648 -0.0849294   -8.73065    6.11383    4.28654   -0.62186  -0.129909    3.67342
  5.86979  0.466475   -8.1442 0.0496937   3.11216 -0.370657 -0.133506   2.06033  0.307782
-0.0626997  -0.819378    4.50951  -0.986446   -17.4149    6.62126    -2.2553  -0.655162    3.18901
 -3.47221 -0.985884  -6.28764  -1.01281  -2.36272   7.23778  -9.88587 -0.555899    2.9573
 -3.08161  -1.26277  0.381993  -1.29726  -9.55739   9.27048   -8.8234 -0.434009    2.9573
-0.486372  -4.95169   2.26795  -1.99763   2.58158   32.1293   0.13627 -0.123243   2.56111
-5.52192 -9.12278  6.92207  11.8045   5.3414  8.71048 -5.87651  3.46763 0.541472
 0.448249   5.53886 0.0265317  -8.10493   5.40259   3.97933    1.9906 -0.139938   -10.883
 -4.15081  -7.10524   -4.2642  -4.96591   30.4728  -3.15015 -0.132035   9.06999    2.9573
 -1.33389  -7.06675  -1.37364  -6.99945   9.57124  -2.85515 -0.412658   8.61546     2.874
 -7.06675 -0.681211  -6.99945 -0.699819   -7.6326   5.00105  -4.15712 -0.804526    2.9573
 -6.76125  -1.86983  0.733225  -1.92091  -7.26199   13.7272   6.60116 -0.293103    2.9573
  5.32543  0.956252  -7.38891   0.10187   2.82354  -0.75983 -0.147153   1.00506  0.307782
  4.98864   4.51472    7.9457   7.23406  -5.79159  -5.16365   7.08951  -7.70358 0.0121112
0.579963 0.973639 0.476865 -4.49424 -4.34919 -3.98538 -2.85564 0.488085  1.15261
0.822338 0.360298 -13.7765 0.355312 -3.42044 -1.09527  1.44439  2.13665 0.175558
 6.75715  8.68665  3.56686  4.50317  2.49926 0.139359  4.27288 -3.26115 -11.2713
 6.02453  1.99687  -14.296 -4.55575  16.3389  5.06314 -2.66038  8.12247  1.56685
  1.78934 -0.828139  -2.68932 -0.029717   1.55199    3.4762 -0.424983  -1.08032   3.69045
 -1.19483  -1.44871  -1.22747    3.5741   8.77177  -14.5956 -0.458684  0.575006    2.9573
  1.72165 -0.437143   4.23253    4.0966  -8.93979  -9.94322  0.391286 -0.548992  0.122681
 -1.85467  -2.93994  -1.86739  -2.60873   11.7187   11.2478 -0.571587  0.303972   3.04123
-5.56018  -4.4138 -3.68398 -5.95609 -4.57005 -6.19417 -4.23305  4.30713  1.15261
  -4.4138  -0.64884  -5.95609 -0.666564  -1.97058    4.7634  -4.16086 -0.844664    2.9573
 -8.76746   -3.2927  -3.99311  -3.36089  -6.38341   28.5275   7.37237 -0.165208   3.66618
  120.385   9.34197  -1.69557  0.142784  -82.5475  -6.89995 -0.190571   2.51648  0.261873
 7.22047 -2.14664  3.06979 0.397401  3.86001  17.1055  0.14886 0.247299 -5.85155
-9.31437 0.306733  1.47494  2.67096 -8.66813 -12.0131   5.6838 -4.75207  1.15261
-0.237218  -1.90437 -0.242131 -0.860642   5.33855  -9.51435  -2.29317   -1.1311   11.1954
-0.333332  -1.26719 -0.295779  -1.27588   1.27528   8.00669   2.68099 -0.836579   3.04123
 -3.10058  -3.39954  -6.27534   -3.4924   -5.0991   24.9574   8.03282 -0.161213    2.9573
 -4.93145  0.032896   7.56858  0.250528  -5.05526   2.65684 -0.151772   4.61499  -13.0207
  3.13806   6.49688   3.87238   8.05669  -4.86576  -9.92407   6.94045  -3.25722 0.0236628
  -2.6962   1.24428  -2.76985  -2.34268   19.7939  -8.38752 -0.203268   5.55634    2.9573
 -3.99631 -0.161707  -5.63342 -0.166124  -1.22375   1.18716  0.481651  -3.38917    2.9573
 13.1123  5.22998  -13.894 -5.11601  20.4535   7.3739  -1.0874   2.7887 0.770315
    4.84935   -0.156673    -7.09597 -0.00927342     3.48395     3.30482   -0.159836    -5.69522     18.6931
   2.53926    7.32366 -0.0277326    1.18146    3.16926    10.0787   -1.06887   0.444878   -2.14302
 6.07604  7.33656 -7.38331   -9.243 -2.97711 -3.11153  4.72367 -3.90013  1.33667
 -1.39968  -4.46441  -1.44139  -2.90045   10.0433  -9.24713 -0.393262  -2.49417     2.874
  7.95443   1.51268   16.3525   3.21021   -21.638  -4.13594   1.31003  -6.46512 0.0361924
  2.00052 -0.418473   4.91812   3.92163  -10.3879  -9.51854  0.336741 -0.573486  0.122681
-3.86037 -2.30844  4.76637  2.74008  7.93757  4.72135  6.67935 -11.4689 0.232725
 -5.59298   2.92572 -0.893307  0.408473  -4.75616  -13.4183  -5.88034  -4.91557   1.15261
0.304205  2.01105 0.310505 -13.7556  5.01461 -8.52301   1.7882 0.248162 -10.0139
 5.89446  2.61739  10.9562  4.95152  7.13623  4.69688  2.43218 -5.26953  6.34694
-0.877862 -0.727131   7.39305   9.26646   7.51241   2.91475   -1.9734   1.63436   9.01445
 -2.73076  0.789108  -2.78732  -1.52465   23.0667  -3.23139 -0.199205   5.39332    3.5482
0.789108 -6.48567 -1.52465 -1.00042 -4.65602 -1.52075 -4.95366  6.06224  1.15261
 -1.68934   0.18115  0.204311  0.178644  -6.03628 -0.550677  -8.28599   4.24967  0.175558
 0.398757  -4.62185   3.81332  -4.71757  -17.1311   38.8416 -0.976595 -0.117698   3.52477
   -5.2131   -11.8608    -5.3555   -1.90791    38.2715   -11.0398   -0.10513 -0.0748714     2.9573
 -6.09433   0.21752  0.349874  0.214509  -1.84155 -0.661236   1.01759   3.53913  0.175558
   1.0091   1.28626   5.61397    7.8163  -6.92562  -9.49944   6.96634  -4.93303 0.0689516
-0.133034  -6.82012 -0.136668  -9.03938  0.976656 -0.025708  -4.11964   2.66005    2.9573
-4.17673 -1.56425  8.31857  2.96653 -6.04662 -2.09977  4.45778 -12.4896 0.636665
 -5.12628  -2.59455  -6.77112  -2.64828  -9.42021   21.4699   6.61494 -0.209663   3.45465
 -2.81655  -9.57921  -2.89348  -6.24348   20.6774  -8.37416 -0.194583   6.34888    2.9573
   -4.581 0.0441261  -4.70614  -5.90906    33.631 -0.483282 -0.119636   1.51202    2.9573
 -7.90387 -0.111051  -5.70957 -0.113351  -4.78372   4.13814 -0.187427  -4.89846   19.2238
 0.122025  -1.32757  0.124552  0.126585   6.88095 -0.805249   4.45796   1.47567  -31.7218
-3.07817   4.5717   1.9877  4.66638 -8.03336  5.25754  0.34659 0.118989 -1.67238
    5.2364  -0.189298   -7.66234 -0.0112045    3.76203    5.02293  -0.148021   -4.71365    23.5478
    8.6898    5.24589 -0.0689859   -0.34002    5.96279   0.845625    1.21831   -1.91746   -6.67284
  2.86139 -0.428106   7.03449   4.01191   -14.858  -9.73767  0.235431 -0.560581  0.122681
-1.56735 -2.81762 -1.59981 -7.79976  13.8147 -4.68024 -0.34707  8.16747  3.74789
   2.29702    2.90755 -0.0339754  -0.213038    2.53475   0.554031      4.515   -3.38512   -10.5997
 -1.43831   1.02984   -1.4776   2.50201   10.5593  -14.1602 -0.381038  -4.25136    2.9573
 0.284471  -1.27643  0.359737  -1.30286  -5.10117   11.1015 -0.976159 -0.426174    3.6844
-0.802939  -5.62471   3.96567  -5.07332  -16.1623  -2.26762   1.11217  -3.56991   1.15261
 2.86335  4.44245  4.78081  7.48931  1.76361  6.46046  7.80299 -4.90691  16.8926
-0.134875  -2.02313  0.567554   -2.0784  -7.78524   14.8526  -0.21336 -0.270893    2.9573
-3.16354  0.91106 -3.24995 -7.25633  23.2248 -8.45703 -0.17324 -4.66468   2.9573
 2.26857  3.67375 -1.48731 -2.26008  5.30584  8.18303 -9.75874  6.17069 0.245485
 -3.76837   -1.3156  -3.87131  -3.91512   27.6651  -7.82126 -0.145435    3.9943    2.9573
 -3.33048  -7.87261  -3.42145  -5.32067   24.4504 -0.266006 -0.164557   -4.7545    2.9573
 -3.00154  -6.59633   -3.0637  -8.18754   25.6071  -9.85839 -0.181234   2.40385   3.59409
-3.27241  -6.2546  4.75082  9.25766  3.00688  5.70555 -15.6075  8.04043 0.365511
  2.76585 -0.616794   6.79961   5.78016  -14.3619  -14.0295  0.243563  -0.38909  0.122681
 -10.682 -10.2887   5.0539  5.15056  -2.3995 -3.48439 -1.17963  1.16741  1.31732
-7.23336 -4.22253  7.62635  4.54841 0.834317 0.378738 -6.16843   10.361  1.02406
-1.73586  -8.1103 -1.10394 -4.29935  -9.2908 0.694806  5.48052 -1.65879  1.15657
  -8.1103  -1.40593  -4.04701  -1.44434  -1.84199   10.3215    6.3928 -0.389814    2.9573
-0.916667   -2.1863 -0.941707  -9.99896   6.72963  -9.70299 -0.597875  -6.39564    2.9573
  -2.1863  -3.46301  -9.99896  -3.55761  -2.51367   25.4234   -6.9063 -0.158259    2.9573
 -1.68771  -2.88267  -1.73381  -2.30903   12.3902  -9.15093 -0.324731   2.19521    2.9573
 1.57075 -1.10864  1.60328 -8.13905   9.1225 -7.97452 0.346318 0.463199 -4.20608
 -1.10864  -2.10618  -8.13905  -2.16371  -8.58849   15.4623  -1.05308 -0.260212    2.9573
 -1.44635  -9.52518  -1.48586  -1.16058   10.6183  -3.34879 -0.378919  -3.77195    2.9573
 -4.76209  -9.94056  -4.89217   -9.3765   34.9605  -2.49386 -0.115086  -3.21016    2.9573
 -9.94056 -0.140651   -9.3765 -0.144493  -4.18816   1.03258   9.43251  -3.89654    2.9573
   26.4179    4.96004    47.8671     8.9186   -6.55758    -1.3817   -1.17408    6.36475 0.00466661
0.0622375  -50.8116  0.944899  -4.36643   -4.0941  -10.9443  -5.08315   4.17377   1.15261
 -1.18386   3.15044   11.0943   7.74509   -26.928  -16.3589 -0.202717   0.21383  0.122681
  1.62056  -3.72052  -3.77847   1.22866   6.19108   11.2516 -0.333321 -0.244522   3.77403
-0.863859   2.20396 0.0102389 0.0888856   3.47826 -0.222223   12.2235   5.05124  -42.5592
  1.16894  -2.35531    1.9871  -2.41965  -12.7234   17.2913  -5.44704 -0.232688    2.9573
 -4.68044   -2.3156 -0.792687  -2.37886  -2.69107   16.9998  -8.18288 -0.236678    2.9573
   11.2011    7.66091 -0.0803314  0.0858167   -3.10124   -2.41311   -2.97068    4.41748   0.208424
  3.44679   -9.6797   3.40341  -2.08519  -10.5262 -0.354719  0.223836   8.99855  0.179234
  -0.86174     1.8598 -0.0510061   -2.72141    3.69092    1.33615   -1.03545  -0.416765    3.69322
   6.60777    4.57381   0.144786 -0.0163972    6.83513    4.97984    3.30729    -4.6591  -0.450966
   2.00169 -0.0217229     1.9765   -6.32415   -6.11299    -6.7726   0.385433   -9.85274   0.179234
-0.0217229   -4.91389   -6.32415   -2.55681   -7.50892   -9.38297   -4.53338    8.44773    1.15261
 -4.91389  0.829422  -2.55681   1.81056  -3.10502  -12.1894   2.19995 -0.260421   1.15261
  -7.29682   -8.22755 -0.0237457   -3.50093   -9.09028   -1.98766    -4.7065    -3.6218    1.15261
-5.77991 -6.00846 -8.23749 -8.56732  7.37787  7.90263  5.36827  -5.1659  1.21879
 -2.07741   2.51733 -0.122962  -3.68357   8.94719   1.80854 -0.429518 -0.307905   3.71445
 -1.80126 -0.779916  -1.59834 -0.785265   6.89137   4.92786  0.496129  -1.35926   3.04123
 -5.56785  -0.58923   0.45194 -0.605325  -5.37286   4.32577 -0.977328 -0.930116    2.9573
 -3.75699 -0.912378  -7.90742 -0.939566  -8.53302   6.54669   7.90156 -0.603305     2.874
 -3.60098  -8.48022   2.87291   6.92467 -0.802175   -2.2482  -10.3731   4.31226    1.3241
 -6.79603 -0.907696  -7.77154 -0.932491  -6.19259   6.66377   5.39139 -0.603783    2.9573
 0.178853  -3.64511   2.92121  -3.74468  -12.5053   26.7602  -4.36428 -0.150353    2.9573
  -2.2335  -8.65972  -2.29451  -4.50474   16.3971  -6.91423 -0.245378  -3.40639    2.9573
 1.45175  2.09902   6.0879  8.40891  5.25479  5.18325 -5.97013   4.3883  7.57938
-1.80397  6.39905 -7.46249  6.38158 -4.34097 -18.9683 -8.20149 0.117329 0.144028
 -8.39437 -0.376517    1.8239 -0.386802  -7.44656   2.76417  -1.67018  -1.45558    2.9573
  -8.55354   -6.66953   -8.61993   -1.30858   -8.01082  -0.453077   -1.43802 -0.0803719    1.15261
 -6.66953 -0.894684  -3.14882 -0.919124 -0.377074   6.56824  -2.41332 -0.612565    2.9573
 -9.35024  -3.89564  -8.42925  -4.00205   -9.2523   28.5995  -1.02501 -0.140684    2.9573
 -1.74231  -4.36611  -6.56652  -4.48537  -3.62781   32.0534   5.70958 -0.125524    2.9573
 9.42551  4.75659  13.3216  6.76263  3.64973  6.15083  2.75889 -5.35257  21.8068
  4.67625   6.62882   7.18693   10.1406   1.00575 -0.179067  -8.38536   5.99817   8.43757
  3.19274   5.42695  -4.42985  0.578135   1.69279  -4.31221 -0.245449  0.177096  0.307782
-0.543223 -0.762096   2.16882   3.87389   7.77015   7.52871  -5.60422   3.28089   17.7979
 -6.55654 -0.552366  -3.56323 -0.567455  -6.62423   4.05515   1.69513 -0.992189    2.9573
-0.111147   1.46545 -0.114183   2.00462  0.815978  -13.9885  -4.93086   2.86223    2.9573
 9.04093  5.62295  4.08145  2.57581 0.087695  3.82612 -5.09333  8.28611 -32.3038
   4.6408  -2.17313   -6.7908 -0.128627   3.33412   9.28118 -0.167019   -0.4106   3.68232
  3.18981    8.8428   4.57133   12.9089   7.16112   10.3392   2.80292 -0.949562  -11.3011
-8.13671  -8.4756   -5.472 -7.82889 -7.69729 -3.97499 -0.78864  0.30969  1.15261
  -8.4756  0.148752  -7.82889   0.70063 -0.408546   -3.6354   2.10169  -2.64227   1.15261
 0.059915   -5.6181  0.606886   8.22087   3.82899  -4.03625   1.95589 -0.137965  -8.17447
-7.95352 -2.59088  8.49754  2.73352 -6.50397 -2.04756  8.07452  -25.098  1.22949
 6.29241  4.29173 -2.21863 -1.42732  5.71871  3.69935 -6.01363  8.93524 0.322097
-5.20255  1.08559 -1.90831  1.08263 -6.43334 -3.21795  1.44218 0.691598 0.144028
  -2.14393 -0.0423877   -2.58107    3.93533    17.3247   -15.3201  -0.250393   -3.33603    3.18901
1.17218 2.36455 6.78719 13.1007 6.97642 11.9482  -8.398 4.39319 5.05066
  4.34232   2.15011   4.33046  -8.18098  -12.8716  -9.75578  0.172902 -0.245794  0.144028
 3.05667  3.75772  1.60815  1.89977 -1.30317 -1.34432  4.63754 -3.62091 0.011441
-7.48838 -10.3969  5.65752  8.00521  6.08941  8.25817 -7.41915   5.2646    1.293
  -5.50984 -0.0360534    8.06245   -0.36519   -3.95847    3.25088  -0.140676   -3.25038     9.8812
 0.586377  0.969257  0.578997  -20.9209  -1.79075   -25.106   1.31574 -0.218104  0.179234
-3.10371 -6.59508 -3.18849  -5.4519  22.7856 -2.76837 -0.17658 -3.11237   2.9573
-0.692496   -5.1334  -8.89173  -5.27363  -8.81123   37.6864  -1.01537 -0.106762    2.9573
 -1.48452  -4.54556  -1.51527  -8.09381   12.5445  -7.59545 -0.366435   -4.5264   3.54996
 -1.37704   3.51914  -1.41465  0.215962   10.1094  -15.0841 -0.397994   -5.4264    2.9573
-0.172857  -2.39314 -0.177579  -6.34032   1.26902  -3.02669  -3.17054   7.76331    2.9573
 -2.39314 -0.827464  -6.34032 -0.850067   -9.8969   6.07475   6.49823 -0.662327    2.9573
 -0.75112  -2.32225 -0.771638     3.305   5.51428  -13.3063 -0.729646    2.8315    2.9573
-4.17796  0.22326    3.598 0.227884 -14.7421  5.44537 0.826649  2.43653 -14.3146
 -0.186861   0.442708 -0.0110602  -0.647807    3.56588   0.318058   -4.77514   -1.75081     16.899
0.634524 -1.89645 0.647664 -3.32773  8.70646 -2.27143 0.857307  9.85297  -8.5109
 -5.95378  0.126512  -6.20282   0.12492 -0.642218 -0.386358   45.7528   6.09837  0.179234
  15.4745   4.01581  0.915929  -5.87627   31.0496   2.88511 0.0576618 -0.193012   -1.9189
-0.663616 -0.193168   12.1152   2.24679   9.03246    5.7431    1.5654  -8.19393   31.8723
-0.36901  -2.6179 -0.37909 -6.44705  2.70905 -0.48142  -1.4852  -1.2785   2.9573
  -2.6179  -1.02544  -6.44705  -1.05345  -5.24958   7.52818 -0.177998 -0.534455    2.9573
 -9.83681 -0.651693  -2.85865 -0.669495  -6.68329   4.78434  -8.77898 -0.840967    2.9573
-0.085829   2.56811  0.804329    6.3135  -1.95226  -13.3351  -2.79612  0.262316  0.122681
-0.540652   2.65175   5.06661   6.51911  -12.2976  -13.7694 -0.443887  0.254043  0.122681
 -5.10191   1.42429  -5.24127  0.507343   37.4552   -7.7489 -0.107421 -0.372569    2.9573
 0.507387  -3.72394   1.73158  -3.82566  -9.09803   27.3389 -0.859507  -0.14717    2.9573
    6.598   5.20343   8.77595   6.73758  -8.29009   -7.1493 -0.692344  0.993751 0.0166716
0.364451  5.05424  1.41845  5.04045 -7.30613  -14.982  3.71216 0.148547 0.144028
  2.91499  -1.15996   -11.257  -1.19165  -12.2687   8.51574  0.102941 -0.472475    2.9573
-0.692355 -0.252309   1.07032 -0.259201  -4.31343    1.8523   -3.7038  -2.17214    2.9573
  1.09119 0.0461064   8.82594   1.07868   11.0629   3.77069    0.7287  -5.44759   11.4329
 1.11659  4.36071  1.10254 -5.49114 -3.40997 -18.0032  0.69096 0.636412 0.179234
 -2.7946  2.09097  2.00036 -1.91382 -8.09786 -8.49336  3.42074  1.28192  1.15261
