-3
0
-3
0
-3
0
-3
0
-3
0
-3
0
-3
0
-3
0
-3
0
-3
0
-3
0
-3
0
-3
0
-3
0
-3
0
-3
0
-3
1
-3
0
-3
0
-3
0
-3
0
-3
0
-3
0
-3
0
-3
0
-3
0
-3
0
-3
0
-3
0
-3
0
-3
0
-3
0
-3
0
-3
0
-3
0
-3
0
-3
0
-3
0
-3
0
-3
0
-3
0
-3
0
-3
0
-3
0
-3
0
-3
0
-3
0
-3
0
-3
0
-3
0
-3
0
-3
0
-3
0
-3
0
-3
0
-3
0
-3
0
-3
0
-3
0
-3
0
-3
0
-3
0
-3
0
-3
0
-3
0
-3
0
-3
0
-3
0
-3
0
-3
0
-3
0
-3
0
-3
0
-3
0
-4
0.000220946
-3
0
-3
0
-3
0
-3
0
-3
0
-3
0
-3
0
-3
0
-3
0
-3
0
-3
0
-3
0
-3
0
-3
0
-3
0
-3
0
-3
0
-3
0
-3
0
-3
0
-3
0
-3
0
-3
0
-3
0
-3
0
-3
0
-3
0
-3
0
-3
0
-3
0
-3
0
-3
0
-3
0
-3
0
-3
0
-3
0
-3
0
-3
0
-3
0
-3
0
-3
0
-3
0
-3
1
-3
0
-3
0
-3
0
-3
0
-3
0
-3
0
-3
0
-3
0
-3
0
-3
0
-3
0
-3
0
-3
0
-3
0
-3
0
-3
0
-3
0
-3
0
-3
0
-3
0
-3
0
-3
0
-3
0
-3
0
-3
0
-3
0
-3
0
-3
0
-3
0
-3
0
-3
0
-3
0
-3
0
-3
0
-3
0
-3
0
-3
0
-3
0
-3
0
-3
0
-3
0
-3
0
-3
0
-3
0
-3
0
-3
0
-3
0
-3
0
-3
0
-3
0
-3
0
-3
0
-3
0
-3
0
-3
0
-3
0
-3
0
-3
0
-3
0
-3
0
-3
0
-3
0
-3
0
-3
0
-3
0
-3
0
-3
0
-3
0
-3
0
-3
0
-3
0
-3
0
-3
0
-3
0
-3
0
-3
0
-3
0
-3
0
-3
0
-3
0
-3
0
-3
0
-3
0
-3
0
-3
0
-3
0
-3
0
-3
0
-3
0
-3
0
-3
0
-3
0
-3
0
-3
0
-3
0
-3
0
-3
0
-3
0
-3
0
-3
0
-3
0
-3
0
-3
0
-3
0
-3
0
-3
1
-3
0
-3
0
-3
0
-3
0
-3
0
-3
0
-3
0
-3
0
-3
0
-3
0
-3
0
-3
0
-3
0
-3
0
-3
0
-3
0
-3
0
-3
0
-3
0
-3
0
-3
0
-3
0
-3
0
-3
0
-3
0
-3
0
-3
0
-3
0
-3
0
-3
0
-3
0
-3
0
-3
0
-3
0
-3
0
-3
0
-3
0
-3
0
-3
0
-3
0
-3
0
-3
0
-3
0
-3
0
-3
0
-3
0
-3
0
-3
0
-3
0
-3
0
-3
0
-3
0
-3
0
-3
0
-3
0
-3
0
-3
0
-3
0
-3
0
-3
0
-3
0
-3
0
-3
0
-3
0
-3
0
-3
0
-3
0
-3
0
-3
0
-3
0
-3
0
-3
0
-3
0
-3
0
-3
0
-3
0
-3
0
-3
0
-3
0
-3
0
-3
0
-3
0
-3
0
-3
0
-3
0
-3
0
-3
0
-3
0
-3
0
-3
0
-3
0
-3
0
-3
0
-3
0
-3
0
-3
0
-3
0
-3
0
-3
0
-3
0
-3
0
-3
0
-3
0
-3
0
-3
0
-3
0
-3
0
-3
0
-3
0
-3
0
-3
0
-3
0
-3
0
-3
0
-3
0
-3
0
-3
0
-3
0
-3
0
-3
0
-3
0
-3
0
-3
0
-3
0
-3
0
-3
0
-3
0
-3
0
-3
0
-3
0
-3
0
-3
0
-3
0
-3
0
-3
0
-3
0
-3
0
-3
0
-3
0
-3
0
-3
0
-3
0
-3
0
-3
0
-3
0
-3
0
-3
0
-3
0
-3
0
-3
0
-3
0
-3
0
-3
0
-3
0
-3
0
-3
0
-3
0
-3
0
-3
0
-3
0
-3
0
-3
0
-3
0
-3
0
-3
0
-3
0
-3
0
-3
0
-3
0
-3
0
-3
0
-3
0
-3
0
-3
0
-3
1
-3
0
-3
0
-3
0
-3
0
-3
0
-3
0
-3
0
-3
0
-3
0
-3
0
-3
1
-3
0
-3
0
-3
0
-3
0
-3
0
-3
0
-3
0
-3
0
-3
0
-3
0
-3
0
-3
0
-3
0
-3
0
-3
0
-3
0
-3
0
-3
0
-3
0
-3
0
-3
0
-3
0
-3
0
-3
0
-3
0
-3
0
-3
0
-3
0
-3
0
-3
0
-4
0
-3
0
-3
0
-3
0
-3
0
-3
0
-3
0
-3
0
-3
0
-3
0
-3
0
-3
0
-3
0
-3
0
-3
0
-3
0
-3
0
-3
0
-3
0
-3
0
-3
0
-3
0
-3
0
-3
0
-3
0
-3
0
-3
0
-3
0
-3
0
-3
0
-3
0
-3
0
-3
0
-3
0
-3
0
-3
0
-3
0
-3
0
-3
0
-3
0
-3
0
-3
0
-3
0
-3
0
-3
0
-3
0
-3
0
-3
0
-3
0
-3
0
-3
0
-3
0
-3
0
-3
0
-3
0
-3
0
-3
0
-3
0
-3
0
-3
0
-3
0
-3
0
-3
0
-3
0
-3
0
-3
0
-3
0
-3
0
-3
0
-3
0
-3
0
-3
0
-3
0
-3
0
-3
0
-3
0
-3
0
-3
0
-3
0
-3
0
-3
0
-3
0
-3
0
-3
0
-3
0
-3
0
-3
0
-3
0
-3
0
-3
0
-3
0
-3
0
-3
0
-4
0.000906618
-3
0
-3
0
-3
0
-3
0
-3
0
-3
0
-3
0
-3
0
-3
0
-3
0
-3
0
-3
0
-3
0
-3
0
-3
0
-3
0
-3
0
-3
0
-3
0
-3
0
-3
0
-3
0
-3
0
-3
0
-3
0
-3
0
-3
0
-3
0
-3
0
-3
0
-3
0
-3
0
-3
0
-3
0
-3
0
-3
0
-3
0
-3
0
-3
0
-3
0
-3
0
-3
0
-3
0
-3
0
-3
0
-3
0
-3
0
-3
0
-3
0
-3
0
-3
0
-3
0
-3
0
-3
0
-3
0
-3
0
-3
0
-3
0
-4
0
-3
0
-3
0
-3
0
-3
0
-3
0
-3
0
-3
0
-3
0
-3
0
-3
0
-3
0
-3
0
-3
0
-3
0
-3
0
-3
0
-3
0
-3
0
-3
0
-3
0
-3
0
-3
0
-4
0
-3
0
-3
0
-3
0
-4
0
-3
0
-3
0
-3
0
-3
0
-3
0
-3
0
-3
0
-3
0
-3
0
-3
0
-3
0
-3
0
-3
0
-3
0
-3
0
-3
0
-3
0
-3
0
-3
0
-3
0
-3
0
-3
0
-3
0
-3
0
-3
0
-3
0
-3
0
-3
0
-3
0
-3
0
-3
0
-3
0
-3
0
-3
0
-3
0
-3
0
-3
0
-3
0
-3
0
-3
0
-3
0
-3
0
-3
0
-3
0
-4
5.49209e-05
-3
0
-3
0
-3
0
-3
0
-3
0
-3
0
-3
0
-3
0
-3
0
-3
0
-3
0
-3
0
-3
0
-3
0
-3
0
-3
0
-3
0
-3
0
-3
0
-4
0
-3
0
-3
0
-3
0
-3
0
-3
0
-3
0
-3
0
-3
0
-3
0
-3
0
-3
0
-3
0
-3
0
-3
0
-3
0
-3
0
-3
0
-3
0
-3
0
-3
0
-3
0
-3
1
-3
0
-3
0
-3
0
-3
1
-3
0
-3
0
-3
0
-3
0
-3
0
-3
0
-3
0
-3
0
-3
0
-3
0
-3
0
-3
0
-3
0
-3
0
-3
0
-3
0
-3
0
-3
0
-3
0
-3
0
-3
0
-3
0
-3
0
-3
0
-3
0
-3
0
-3
0
-3
0
-3
0
-3
0
-3
0
-3
0
-3
0
-3
0
-3
0
-3
0
-3
0
-3
0
-3
0
-3
0
-3
0
-3
0
-3
0
-3
0
-3
0
-3
0
-3
0
-3
0
-3
0
-3
0
-3
0
-3
0
-3
0
-3
1
-3
0
-3
0
-3
0
-3
0
-3
0
-3
0
-3
0
-3
0
-3
0
-3
0
-3
0
-3
0
-3
0
-3
0
-3
0
-3
0
-3
0
-3
0
-3
0
-3
0
-3
0
-3
0
-3
0
-3
0
-3
0
-3
0
-3
0
-3
0
-3
0
-3
0
-3
0
-3
0
-3
0
-3
0
-3
0
-3
0
-3
0
-3
0
-3
0
-3
0
-3
0
-3
0
-3
0
-3
0
-3
0
-3
0
-3
0
-3
0
-3
0
-4
0
-3
0
-3
0
-3
0
-3
0
-3
0
-3
0
-3
0
-3
0
-3
0
-3
0
-3
0
-3
0
-3
0
-3
0
-3
0
-3
0
-3
0
-3
0
-3
0
-3
0
-3
0
-3
0
-3
0
-3
0
-3
0
-3
0
-3
0
-3
0
-3
0
-3
0
-3
0
-3
0
-3
0
-3
0
-3
0
-3
0
-3
0
-3
0
-3
0
-3
0
-3
0
-3
0
-3
0
-3
0
-3
0
-3
0
-3
0
-3
0
-4
0
-3
0
-3
0
-3
0
-3
0
-3
0
-3
0
-3
0
-3
0
-3
0
-3
0
-3
0
-3
0
-3
0
-3
0
-3
0
-3
0
-3
0
-3
0
-3
0
-3
0
-3
0
-3
0
-3
0
-3
0
-3
0
-3
0
-3
0
-3
0
-3
0
-3
0
-3
0
-3
0
-3
1
-3
0
-3
0
-3
0
-3
0
-3
0
-3
0
-3
0
-3
0
-3
0
-3
0
-3
0
-3
0
-3
0
-3
0
-3
0
-3
0
-3
0
-3
0
-3
0
-3
0
-3
0
-3
0
-3
0
-3
0
-3
0
-3
0
-3
0
-3
0
-3
0
-3
0
-3
0
-3
0
-3
0
-3
0
-3
0
-3
0
-3
0
-3
0
-3
0
-3
0
-3
0
-3
0
-3
0
-3
0
-3
0
-3
0
-3
0
-3
0
-3
0
-3
0
-3
0
-3
0
-3
0
-3
0
-3
0
-3
0
-3
0
-3
0
-3
0
-3
0
-3
0
-3
0
-3
0
-3
0
-3
0
-3
0
-3
0
-3
0
-3
0
-3
0
-3
0
-3
0
-3
0
-3
0
-3
0
-3
0
-3
0
-3
0
-3
0
-3
0
-3
0
-3
0
-3
0
-3
0
-3
0
-3
0
-3
0
-3
0
-3
0
-3
0
-3
0
-3
0
-3
0
-3
0
-3
0
-3
0
-3
0
-3
0
-3
6.59761e-05
-3
0
-3
0
-3
0
-3
0
-3
0
-3
0
-3
0
-3
0
-3
0
-3
0
-3
0
-3
0
-3
0
-3
0
-3
0
-3
0
-3
0
-3
0
-3
0
-3
0
-3
0
-3
0
-3
0
-3
0
-3
0
-3
0
-3
0
-3
0
-3
0
-3
0
-3
0
-3
0
-3
0
-3
0
-3
0
-3
0
-3
0
-3
0
-3
0
-3
0
-3
5.94036e-05
-3
0
-3
0
-3
0
-3
0
-3
0
-3
0
-3
0
-3
0
-3
0
-3
0
-3
0
-3
0
-3
0
-3
0
-3
0
-3
0
-3
0
-3
0
-3
0
-3
0
-3
0
-3
0
-4
0
-3
0
-3
0
-3
0
-3
0
-3
0
-3
0
-3
0
-3
0
-3
0
-3
0
-3
0
-3
0
-3
0
-3
0
-3
0
-3
0
-3
0
-3
0
-3
0
-3
0
-3
0
-3
0
-3
0
-3
0
-3
0
-3
0
-3
0
-3
0
-3
0
-3
0
-3
0
-3
0
-3
0
-3
0
-3
0
-3
0
-3
0
-3
0
-3
0
-3
0
-3
0
-3
0
-3
0
-3
0
-3
0
-3
0
-3
0
-3
0
-3
0
-3
0
-3
0
-3
0
-3
0
-3
0
-3
0
-3
0
-3
0
-3
0
-3
0
-3
0
-3
0
-3
0
-3
0
-3
0
-3
0
-3
0
-3
0
-3
0
-3
0
-3
0
-3
0
-3
0
-3
0
-3
0
-3
0
-3
0
-3
0
-3
0
-3
0
-3
0
-3
0
-3
0
-3
0
-3
0
-3
0
-3
0
-3
0
-3
0
-3
0
-3
0
-3
0
-3
0
-3
0
-3
0
-3
0
-3
0
-3
0
-3
0
-3
0
-3
0
-3
0
-3
0
-3
0
-3
0
-3
0
-3
0
-3
0
-3
0
-3
0
-3
0
-3
0
-3
0
-4
0
-3
0
-3
0
-3
0
-3
0
-3
0
-3
0
-3
0
-3
0
-3
0
-3
0
-3
0
-3
0
-3
0
-3
0
-3
0
-3
0
-3
0
-3
0
-3
0
-3
0
-3
0
-3
0
-3
0
-3
0
-3
0
-3
0
-3
0
-3
0
-3
0
-3
0
-3
0
-3
0
-3
0
-3
0
-3
0
-3
0
-3
0
-3
0
-3
0
-3
0
-3
0
-3
0
-3
0
-3
0
-3
0
-3
0
-3
0
-3
0
-3
0
-3
0
-3
0
-3
0
-3
0
-3
0
-3
0
-3
0
-3
0
-3
0
-3
0
-3
0
-3
0
-3
0
-3
0
-3
0
-3
0
-3
0
-3
0
-3
0
-3
0
-3
0
-3
0
-3
0
-3
0
-3
0
-3
0
-3
0
-3
0
-3
0
-3
0
-3
0
-3
0
-3
0
-3
0
-3
0
-3
0
-3
0
-3
0
-3
0
-3
0
-3
0
-3
0
-3
0
-3
0
-3
0
-3
0
-3
0
-3
0
-3
0
-3
0
-3
0
-3
0
-3
0
-3
0
-3
0
-3
0
-3
0
-3
0
-3
0
-3
0
-3
0
-3
0
-3
0
-3
0
-3
0
-3
0
-3
0
-3
0
-3
0
-3
0
-3
0
-3
0
-3
0
-3
0
-3
0
-3
0
-3
0
-3
0
-3
0
-3
0
-4
0
-3
0
-3
0
-3
0
-3
0
-3
0
-3
0
-3
0
-3
0
-3
0
-3
0
-3
0
-4
0
-3
0
-3
0
-3
0
-3
0
-3
0
-3
0
-3
0
-3
0
-3
0
-3
0
-3
0
-3
0
-3
0
-3
0
-3
0
-3
0
-3
0
-3
0
-3
0
-3
0
-3
0
-3
0
-3
0
-3
0
-3
0
-3
0
-3
0
-3
0
-3
0
-3
0
-3
0
-3
0
-3
0
-3
0
-3
0
-3
0
-3
0
-3
0
-3
0
-3
0
-3
0
-3
0
-3
0
-3
0
-3
0
-3
0
-3
0
-3
0
-3
0
-3
0
-3
0
-3
0
-3
0
-3
0
-3
0
-3
0
-3
0
-3
0
-3
0
-3
0
-3
0
-3
0
-3
0
-3
0
-3
0
-3
0
-3
0
-3
0
-3
0
-3
0
-3
0
-3
0
-3
0
-3
0
-3
0
-3
0
-3
0
-3
0
-3
0
-3
0
-3
0
-3
0
-3
0
-3
0
-3
0
-3
0
-3
0
-3
0
-3
0
-3
0
-3
0
-3
0
-3
0
-3
0
-3
0
-3
0
-3
0
-3
0
-3
0
-3
0
-3
0
-3
0
-3
0
-3
0
-3
0
-3
0
-3
0
-3
0
-3
0
-3
0
-3
0
-3
0
-3
0
-3
0
-3
0
-3
0
-3
0
-3
0
-3
0
-3
0
-3
0
-3
0
-3
0
-4
0
-3
0
-3
0
-3
0
-3
0
-3
0
-3
0
-3
0
-3
0
-3
0
-3
0
-3
0
-3
0
-3
0
-3
0
-3
0
-3
0
-3
0
-3
0
-3
0
-3
0
-3
0
-3
0
-3
0
-3
0
-3
0
-3
0
-3
0
-3
0
-3
0
-3
0
-3
0.000696864
-3
0
-3
0
-3
0
-3
1
-3
0
-3
0
-3
0
-3
0
-3
0
-3
0
-3
0
-3
0
-3
0
-3
0
-3
0
-3
0
-3
0
-3
0
-3
0
-3
0
-3
0
-3
0
-3
0
-3
0
-3
0
-3
0
-3
0
-3
0
-3
0
-3
0
-3
0
-3
0
-3
0
-3
0
-3
0
-3
0
-3
0
-3
0
-3
0
-3
0
-3
0
-3
0
-3
0
-3
0
-3
0
-3
0
-3
0
-3
0
-3
0
-3
0
-3
0
-3
0
-3
0
-3
0
-3
0
-3
0
-3
0
-3
0
-3
0
-3
0
-3
0
-3
0
-3
0
-3
0
-3
0
-3
0
-3
0
-3
0
-3
0
-3
0
-3
0
-3
0
-3
6.3678e-05
-3
0
-3
0
-3
0
-3
0
-3
0
-3
0
-3
0
-3
0
-3
0
-3
0
-3
0
-3
0
-3
0
-3
0
-3
0
-3
0
-3
0
-3
0
-3
0
-3
0
-3
0
-3
0
-3
0
-3
0
-3
0
-3
0
-3
0
-3
0
-3
0
-3
0
-3
0
-3
0
-3
0
-3
0
-3
0
-3
0
-3
0
-3
0.000172473
-3
0
-3
0
-3
0
-3
0
-3
0
-3
0
-3
0
-3
0
-4
0
-3
0
-3
0
-3
0
-4
0
-3
0
-3
0
-3
1
-3
0
-3
0
-3
0
-3
0
-3
0
-3
0
-3
0
-3
0
-3
0
-3
0
-3
0
-3
0
-3
0
-3
0
-3
0
-3
0
-3
0
-3
0
-3
0
-3
0
-3
0
-3
0
-3
0
-3
0
-3
0
-3
0
-3
0
-3
0
-3
0
-3
0
-3
0
-3
0
-3
0
-3
0
-3
0
-3
0
-3
0
-3
0
-3
0
-3
0
-3
0
-3
0
-3
0
-3
0
-3
0
-3
0
-3
0
-3
0
-3
0
-3
0
-3
0
-3
0
-3
0
-3
0
-3
0
-3
0
-3
0
-3
0
-3
0
-3
0
-3
0
-3
0
-3
0
-3
0
-3
0
-3
0
-3
0
-3
0
-3
0
-3
0
-3
0
-3
0
-3
0
-3
0
-3
0
-3
0
-3
0
-3
0
-3
0
-3
0
-3
0
-3
0
-3
0
-3
0
-3
0
-3
0
-3
0
-3
0
-3
0
-3
0
-3
0
-3
1
-3
0
-3
0
-3
0
-3
0
-3
0
-3
0
-3
0
-3
0
-3
0
-3
0
-3
0
-3
0
-3
0
-3
0
-3
0
-3
0
-3
0
-3
0
-3
0
-3
0
-3
0
-3
0
-3
0
-3
0
-3
0
-3
0
-3
0
-3
0
-3
0
-3
0
-3
0
-3
0
-3
0
-3
0
-3
0
-3
0
-3
0
-3
0
-3
0
-4
0
-4
0
-3
0
-3
0
-3
0
-3
0
-3
0
-3
0
-3
0
-3
0
-3
0
-3
0
-3
0
-3
0
-3
0
-3
0
-3
0
-3
0
-3
0
-3
0
-3
0
-3
0
-3
0
-3
0
-3
0
-3
0
-3
0
-3
0
-3
0
-3
0
-3
0
-3
0
-3
0
-3
0
-3
0
-3
0
-3
0
-3
0
-3
0
-3
0
-3
0
-3
0
-3
0
-3
0
-3
0
-3
0
-3
0
-3
0
-3
0
-3
0
-3
0
-3
0
-3
0
-3
0
-3
0
-3
0
-3
0
-3
0
-3
0
-3
0
-3
0
-3
0
-3
0
-3
0
-3
0
-3
0
-3
0
-3
0
-3
0
-3
0
-3
0
-3
0
-3
0
-3
0
-3
0
-3
0
-3
0
-4
0
-3
0
-3
0
-3
0
-3
0
-3
0
-3
0
-3
0
-3
0
-3
0
-3
0
-3
0
-3
0
-3
0
-3
0
-3
0
-3
0
-3
0
-3
0
-3
0
-3
0
-3
0
-3
0
-3
0
-3
0
-3
0
-3
0
-3
0
-3
0
-3
0
-3
0
-3
0
-3
0
-3
0
-3
0
-3
0
-3
0
-4
0
-3
0
-3
0
-3
0
-3
0
-3
0
-3
0
-3
0
-3
0
-3
0
-3
0
-3
0
-3
0
-3
0
-3
0
-3
0
-3
0
-3
0
-3
0
-3
0
-3
0
-3
0
-3
0
-3
0
-3
0
-3
0
-3
0
-3
0
-3
0
-3
0
-3
0
-3
0
-3
0
-3
0
-3
0
-3
0
-3
0
-3
0
-3
0
-3
0
-3
0
-3
0
-3
0
-3
0
-3
0
-3
0
-3
0
-3
0
-3
0
-3
0
-3
0
-3
0
-3
0
-3
0
-3
0
-3
0
-3
0
-3
0
-3
0
-3
0
-3
0
-3
0
-3
0
-3
0
-3
0
-3
0
-3
0
-3
0
-3
0
-3
0
-3
0
-3
0
-3
0
-3
0
-3
0
-3
0
-3
0
-3
0
-3
0
-3
0
-3
0
-3
0
-3
0
-3
0
-3
0.000125534
-3
0
-3
0
-3
0
-3
0
-3
0
-3
0
-3
0
-3
0
-3
0
-3
0
-3
0
-3
0
-3
0
-3
0
-3
0
-3
0
-3
0
-3
0
-3
0
-3
0
-3
0
-3
0
-3
0
-3
0
-3
0
-3
0
-3
0
-3
0
-3
0
-3
0
-3
0
-3
0
-3
0
-3
0
-3
0
-3
0
-3
0
-3
0
-3
0
-3
0
-3
0
-3
0
-3
0
-3
0
-3
0
-3
0
-3
0
-3
0
-3
0
-3
0
-3
0
-3
0
-3
0
-3
0
-3
0
-3
0
-3
0
-3
0
-3
0
-3
0
-3
0
-3
0
-3
0
-3
0
-3
0
-3
0
-3
0
-3
0
-3
0
-3
0
-3
0
-3
0
-3
0
-3
0
-3
0
-3
0
-3
0
-3
0
-3
0
-3
0
-3
0
-3
0
-3
0
-3
0
-3
0
-3
0
-3
0
-3
0
-3
0
-3
0
-3
0
-3
0
-3
0
-3
0
-3
0
-3
0
-3
0
-3
0
-3
0
-3
0
-3
0
-3
0
-3
0
-3
0
-3
0
-3
0
-3
0
-3
0
-3
0
-3
0
-3
0
-3
0
-3
0
-3
0
-3
0
-3
0
-3
0
-3
0
-3
0
-3
0
-3
0
-3
0
-3
0
-3
0
-3
0
-3
0
-3
0
-3
0
-3
0
-3
0
-3
0
-3
0
-3
0
-3
0
-3
0
-3
0
-3
0
-3
0
-3
0
-3
0
-3
0
-3
0
-3
0
-3
0
-3
0
-3
0
-3
0
-3
0
-3
0
-3
0
-3
0
-3
0
-3
0
-3
0
-3
0
-3
0
-3
0
-3
0
-3
0
-3
0
-3
0
-3
0
-3
0
-3
0
-3
0
-3
0
-3
0
-3
0
-3
0
-3
0
-3
0
-3
0
-3
0
-3
0
-3
0
-3
0
-3
0
-3
0
-3
0
-3
0
-3
1
-3
0
-3
0
-3
0
-3
0
-3
0
-3
0
-3
0
-3
0
-3
0
-3
0
-3
0
-3
0
-3
0
-3
0
-3
0
-3
0
-3
0
-3
0
-3
0
-3
0
-3
0
-3
0
-3
0
-4
0
-3
0
-3
0
-3
0
-3
0
-3
0
-3
0
-3
0
-3
0
-3
0
-3
0
-3
0
-3
0
-3
1
-4
0
-3
0
-3
0
-4
0
-3
0
-3
0
-3
0
-3
0
-3
0
-3
0
-4
0
-3
0
-3
0
-3
0
-3
0
-3
0
-3
0
-3
0
-3
0
-3
0
-3
0
-3
0
-3
0
-3
0
-3
0
-3
0
-3
0
-3
0
-3
0
-3
0
-3
0
-3
0
-3
0
-3
0
-3
0
-3
0
-3
0
-3
0
-3
0
-3
0
-3
0
-3
0
-3
0
-3
0
-3
0
-3
0
-3
0
-3
0
-3
0
-3
0
-3
0
-3
0
-3
0
-3
0
-3
0
-3
0
-3
0
-3
0
-3
0
-3
0
-3
0
-3
0
-3
0
-3
0
-3
0
-3
0
-3
0
-3
0
-3
0
-3
0
-3
0
-3
0
-3
0
-3
0
-3
0
-3
0
-3
0
-3
0
-3
0
-3
0
-3
0
-3
0
-3
0
-3
0
-3
0
-3
0
-3
0
-3
0
-3
0
-3
0
-4
0
-3
0
-3
0
-3
0
-3
0
-3
0
-3
0
-3
0
-3
0
-3
0
-3
0
-3
0
-3
0
-3
0
-3
0
-3
0
-3
0
-3
0
-3
0
-3
0
-3
0
-4
0
-3
0
-3
0
-3
0
-3
0
-3
0
-3
0
-3
0
-3
0
-3
0
-3
0
-3
0
-3
0
-3
0
-3
0
-3
0
-3
0
-3
0
-3
0
-4
0
-3
0
-3
0
-3
0
-3
0
-3
0
-3
0
-3
0
-3
0
-3
0
-3
0
-3
0
-3
0
-3
0
-3
0
-3
0
-3
0
-3
0
-3
0
-4
0
-3
0
-3
0
-3
0
-3
0
-3
0
-3
0
-3
0
-3
0
-3
0
-3
0
-3
0
-3
0
-3
0
-3
0
-3
0
-3
0
-3
0
-3
0
-3
0
-3
0
-3
0
-3
0
-3
0
-3
0
-3
0
-3
0
-3
0
-3
0
-3
0
-3
0
-3
0
-3
0
-3
0
-3
0
-3
0
-3
0.000131787
-3
0
-3
0
-3
0
-3
0
-3
0
-3
0
-3
0
-3
0
-3
0
-3
0
-3
0
-3
0
-3
0
-3
0
-3
0
-3
0
-3
0
-3
0
-3
0
-3
0
-3
0
-3
0
-3
0
-3
0
-3
0
-3
0
-3
0
-3
0
-3
0
-3
0
-3
0
-3
0
-3
0
-3
0
-3
0
-3
0
-3
0
-3
0
-3
0
-3
0
-3
0
-3
0
-3
0
-3
0
-3
0
-3
0
-3
0
-3
0
-3
0
-3
0
-3
0
-3
0
-3
0
-3
0
-3
0
-4
0.000696864
-3
0
-3
0
-3
0
-3
0
-3
0
-3
0
-3
0
-3
0
-3
0
-3
0
-3
4.3448e-05
-3
0
-3
0
-3
0
-3
0
-3
0
-3
0
-3
0
-3
0
-3
0
-3
0
-3
0
-3
0
-3
0
-3
0
-3
0
-3
0
-3
0
-3
0
-3
0
-3
0
-3
0
-3
0
-3
0
-3
0
-3
0
-3
0
-3
0
-3
0
-3
0
-3
0
-3
0
-3
0
-3
0
-3
0
-3
0
-3
0
-3
0
-3
0
-3
0
-3
0
-3
0
-3
0
-3
0
-3
0
-3
0
-3
0
-3
0
-3
0
-3
0
-3
0
-3
0
-3
0
-3
0
-3
0
-3
0
-3
0
-3
0
-3
0
-3
0
-3
0
-3
0
-3
0
-3
0
-3
0.000900901
-3
0
-3
0
-3
0
-3
0
-3
0
-3
0
-3
0
-3
0
-3
0
-3
0
-3
0
-3
0
-3
0
-3
0
-3
0
-3
0
-3
0
-3
0
-3
0
-3
0
-3
0
-3
0
-3
0
-3
0
-3
0
-3
0
-3
0
-3
0
-3
0
-3
0
-3
0
-3
0
-3
0
-3
0
-3
0
-3
0
-3
0
-3
0
-3
0
-3
0
-3
0
-3
0
-3
0
-3
0
-3
0
-3
0
-3
0
-3
0
-3
0
-3
0
-3
0
-3
0
-3
0
-3
0
-3
0
-3
0
-3
0
-3
0
-3
0
-3
0
-3
0
-3
0
-3
0
-3
0
-3
0
-3
0
-3
0
-3
0
-3
0
-3
0
-3
0
-3
0
-3
0
-3
0
-3
0
-3
0
-3
0
-3
0
-3
0
-3
0
-3
0
-3
0
-3
0
-3
0
-3
0
-3
0
-3
0
-3
0
-3
0
-3
0
-3
0
-3
0
-3
0
-3
0
-3
0
-3
0
-3
0
-3
0
-3
0
-3
0
-3
0
-3
0
-3
0
-3
0
-3
0
-3
0
-3
0
-3
0
-3
0
-3
0
-3
0
-3
0
-3
0
-3
0
-3
0
-3
0
-3
0
-3
0
-3
0
-3
0
-3
0
-3
0
-3
0
-3
0
-3
0
-3
0
-3
0
-3
0
-3
0
-3
0
-3
0
-3
0
-3
0
-3
0
-3
0
-3
0
-3
0
-3
0
-3
0
-3
0
-3
0
-3
0
-3
0
-3
0
-3
0
-3
0
-3
0
-3
0
-3
0
-3
0
-3
0
-3
0
-3
0
-3
0
-3
0
-3
0
-3
0
-3
0
-3
0
-3
0
-3
0
-3
0
-3
0
-3
0
-3
0
-3
0
-3
0
-3
0
-3
0
-3
0
-3
0
-3
0
-3
0
-3
0
-3
0
-3
0
-3
0
-3
0
-3
0
-3
0
-3
0
-3
0
-3
0
-3
0
-3
0
-3
0
-3
0
-3
0
-3
0
-3
0
-3
0
-3
0
-3
0
-3
0
-3
0
-3
0
-3
0
-3
0
-3
0
-3
0
-3
0
-3
0
-3
0
-3
0
-3
0
-3
0
-3
0
-3
0
-3
0
-3
0
-3
0
-3
0
-3
0
-3
0
-3
0
-3
0
-3
0
-3
0
-3
0
-3
0
-3
0
-3
0
-3
0
-3
0
-3
0
-3
0
-3
0
-3
0
-3
0
-3
0
-3
0
-3
0
-3
0
-3
0
-3
0
-3
0
-3
0
-3
0
-3
0
-3
0
-3
0
-3
0
-3
0
-3
0
-3
0
-3
0
-3
0
-3
0
-3
0
-3
0
-3
0
-3
0
-3
0
-3
0
-3
0
-3
0
-3
0
-3
0
-3
0
-3
0
-3
0
-3
0
-4
0
-3
0
-3
0
-3
0
-3
0
-3
0
-3
0
-3
0
-3
0
-3
0
-3
0
-3
0
-3
0
-3
1
-3
0
-3
0
-3
0
-3
0
-3
0
-3
0
-3
0
-3
0
-3
0
-3
0
-3
0.00304878
-3
0
-3
0
-3
0
-3
0
-3
0
-3
0
-3
0
-3
0
-3
0
-3
0
-3
0
-3
0
-3
0
-3
0
-3
0
-3
0
-3
0
-3
0
-3
0
-3
0
-3
0
-3
0
-3
0
-3
0
-3
0
-3
0
-3
0
-3
0
-3
0
-3
0
-3
0
-3
0
-3
0
-3
0
-3
0
-3
0
-3
0
-3
0
-3
0
-3
0
-3
0
-3
0
-3
0
-3
0
-3
0
-3
0
-3
0
-3
0
-3
0
-3
0
-3
0
-3
0
-3
0
-3
0
-3
0
-3
0
-3
0
-3
0
-3
0
-3
0
-3
0
-3
0
-3
0
-3
0
-4
0
-3
1
-4
0
-3
0
-3
0
-3
0
-3
0
-3
0
-3
0
-3
0
-3
0
-3
0
-3
0
-3
0
-3
0
-3
0
-3
0
-3
0
-3
0
-3
0
-3
0
-3
0
-3
0
-3
0
-3
0
-3
0
-3
0
-3
0
-3
0
-3
0
-3
0
-3
0
-3
0
-3
0
-3
0
-3
0
-3
0
-3
0
-3
0
-3
0
-3
0
-3
0
-3
0
-3
0
-3
0
-3
0
-3
0
-3
0
-3
0
-3
0
-3
0
-3
0
-3
0
-3
0
-3
0
-3
0
-3
0
-3
0
-4
0
-3
0
-3
0
-3
0
-3
0
-3
0
-3
0
-3
0
-3
0
-3
0
-3
0
-3
0
-3
0
-3
0
-4
0
-4
0
-4
0
-3
0
-3
0
-3
0
-3
0
-3
0
-3
0
-3
0
-3
0
-3
0
-3
0
-3
0
-3
0
-3
0
-3
0
-3
0
-3
0
-3
0
-3
0
-3
0
-3
0
-3
0
-3
0
-3
0
-3
0
-3
0
-3
0
-3
0
-3
0
-3
0
-3
0
-3
0
-3
0
-3
0
-3
0
-3
0
-3
0
-3
0
-3
0
-3
0
-3
0
-3
0
-3
0
-3
0
-3
0
-3
0
-3
0
-3
1
-3
0
-3
0
-3
0
-3
0
-3
0
-3
0
-3
0
-3
0
-3
0
-3
0
-3
0
-3
8.22707e-05
-3
0
-3
0
-3
0
-3
0
-3
0
-3
0
-3
0
-3
0
-3
0
-3
0
-3
0
-3
0
-3
0
-3
0
-3
0
-3
0
-3
0
-3
0
-3
0
-3
0
-3
0
-3
0
-3
0
-3
0
-3
0
-3
0
-3
0
-3
0
-3
0
-3
0
-3
0
-3
0
-3
0
-3
0
-3
0
-4
0
-3
0
-3
0
-3
0
-3
0
-3
0
-3
0
-3
0
-3
0
-3
0
-3
0
-3
0
-3
0
-3
0
-3
0
-3
0
-3
0
-3
0
-3
0
-3
0
-3
0
-3
0
-3
1
-3
0
-3
0
-3
0
-3
0
-3
0
-4
0.000533903
-3
0
-3
0
-3
0
-3
0
-3
0
-3
0
-3
0
-3
0
-3
0
-3
0
-3
0
-3
0
-3
0
-3
0
-3
0
-3
0
-3
0
-3
0
-3
0
-3
0
-3
0
-3
0
-3
0
-3
0
-3
0
-3
0
-3
0
-3
0
-3
0
-3
0
-3
0
-3
0
-3
0
-3
0
-3
0
-3
0
-3
0
-3
0
-3
0
-3
0
-3
0
-3
0
-3
0
-3
0
-3
0
-3
0
-3
0
-3
0
-3
0
-3
0
-3
0
-3
0
-3
0
-3
0
-3
0
-3
0
-3
0
-3
0
-4
0
-3
0
-3
0
-3
0
-3
0
-3
0
-3
0
-3
0
-3
0
-3
0
-3
0
-3
0
-3
0
-3
0
-3
0
-3
0
-3
0
-3
0
-3
0
-3
0
-3
0
-3
0
-3
0
-3
0
-3
0
-3
0
-3
0
-3
0
-3
0
-3
0
-3
0
-3
0
-3
0
-3
0
-3
0
-3
0
-4
0
-3
0
-3
0
-3
0
-3
0
-3
0
-3
0
-3
0
-3
0
-3
0
-3
0
-3
0
-3
0
-3
0
-3
0
-3
0
-3
0
-3
0
-3
0
-3
0
-3
0
-3
0
-3
0
-3
0
-3
0
-3
0
-3
0
-3
0
-3
0
-3
0
-3
0
-3
0
-3
0
-3
0
-3
0
-3
0
-3
0
-3
0
-3
0
-3
0
-3
0
-3
0
-3
0
-3
0
-3
0
-3
0
-3
0
-3
0
-3
0
-3
0
-3
0
-3
0
-3
1
-3
0
-3
0
-3
0
-3
0
-3
0
-3
0
-3
0
-3
0
-3
0
-3
0
-3
0
-3
0
-3
0
-3
0
-3
0
-3
0
-3
0
-3
0
-3
0
-3
0
-3
0
-3
0
-3
0
-3
0
-3
0
-3
0
-4
0
-3
0
-3
0
-3
0
-3
1
-3
0
-4
0.000582072
-3
0
-3
0
-3
0
-3
0
-3
0
-3
0
-3
0
-3
0
-3
0
-3
0
-3
0
-3
0
-3
0
-3
0
-3
0
-3
0
-3
0
-3
0
-3
0
-3
0
-3
0
-3
0
-3
0
-3
0
-3
0
-3
0
-3
0
-3
0
-3
0
-3
0
-3
0
-3
0
-3
0
-3
0
-3
0
-3
0
-3
0
-3
0
-3
0
-3
0
-3
0
-3
0
-3
0
-3
0
-3
0
-3
0
-3
0
-3
0
-3
0
-3
0
-3
0
-3
0
-3
0
-3
0
-3
0
-3
0
-3
0
-3
0
-3
0
-3
0
-3
0
-3
0
-3
0
-3
0
-3
0
-3
0
-3
0
-3
0
-3
0
-3
0
-3
0
-3
0
-3
0
-3
0
-3
0
-3
0
-3
0
-3
0
-3
0
-3
0
-3
0
-3
0
-3
0
-3
0
-3
0
-3
0
-3
0
-3
0
-3
0
-4
0
-3
0
-3
0
-3
0
-3
0
-3
0
-3
0
-3
0
-3
0
-3
0
-3
0
-3
0
-3
0
-3
0
-3
0
-3
0
-3
0
-3
0
-3
0
-3
0
-3
0
-3
0
-3
0
-3
0
-3
0
-3
0
-3
0
-3
0
-3
0
-3
0
-3
0
-3
0
-3
0
-3
0
-3
0
-3
0
-3
0
-3
0
-3
0
-3
0
-3
0
-3
0
-3
0
-3
0
-3
0.000140449
-3
0
-3
0
-3
0
-3
0
-3
0
-3
0
-3
0
-3
0
-3
0
-3
0
-3
0
-3
0
-3
0
-3
0
-3
0
-3
0
-3
0
-3
0
-3
0
-3
0
-3
0
-3
0
-3
0
-3
0
-3
0
-3
0
-3
0
-4
0
-3
0
-3
0
-3
0
-3
0
-3
0
-3
0
-3
0
-3
0
-3
0
-3
0
-3
0
-3
0
-3
0
-3
0
-3
0
-3
0
-3
0
-3
0
-3
0
-3
0
-3
0
-3
0
-3
0
-3
0
-3
0
-3
0
-3
0
-3
0
-3
0
-3
0
-3
0
-3
0
-3
0
-3
0
-3
0
-3
0
-3
0
-3
0
-3
0
-3
0
-3
0
-3
0
-3
0
-3
0
-3
0
-3
0
-3
0
-3
0
-3
0
-3
0
-3
0
-3
0
-3
0
-3
0
-3
0
-3
0
-3
0
-3
0
-3
0
-3
0
-3
0
-3
0
-3
0
-3
0
-3
0
-3
0
-3
0
-3
0
-3
0
-3
0
-3
0
-3
0
-3
0
-3
0
-3
0
-3
0
-3
0
-3
0
-3
0
-3
0
-3
0
-3
0
-3
0
-3
0
-3
0
-3
0
-3
0
-3
0
-3
0
-3
0
-3
0
-3
0
-3
0
-3
0
-3
0
-3
0
-3
0
-3
0
-3
0
-4
4.33332e-05
-3
0
-3
0
-3
0
-3
0
-3
0
-3
0
-3
0
-3
0
-3
0
-3
0
-3
0
-3
0
-3
0
-3
0
-3
0
-3
0
-3
0
-3
0
-3
0
-3
0
-3
0
-3
0
-3
0
-3
0
-3
0
-3
0
-3
0
-3
0
-3
0
-3
0
-3
0
-3
0
-3
0
-3
0
-3
0.000200481
-3
0
-3
0
-3
0
-3
0
-3
0
-3
0
-3
0
-3
0.000100331
-3
0
-3
0
-3
0
-3
0
-3
0
-3
0
-3
0
-3
0
-3
0
-3
0
-3
0
-3
0
-3
0
-3
0
-3
0
-3
0
-3
0
-3
0
-3
0
-3
0
-3
0
-3
0
-3
0
-3
0
-3
0
-3
0
-3
0
-3
0
-3
0
-3
0
-3
0
-3
0
-3
0
-4
0
-3
0
-3
0
-3
0
-3
0
-3
0
-3
0
-3
0
-3
0
-3
0
-3
0
-3
0
-3
0
-3
0
-3
0
-3
0
-4
0
-3
0
-3
0
-3
0
-3
0
-3
0
-3
0
-3
0
-3
0
-3
0
-3
0
-3
0
-3
0
-3
0
-3
0
-3
0
-3
0
-3
0
-3
0
-3
0
-3
0
-3
0
-3
0
-3
0
-3
0
-3
0
-3
0
-3
0
-3
0
-3
0
-3
0
-3
0
-3
0
-3
0
-3
0
-3
0
-3
0
-3
0
-3
0
-3
0
-3
0
-3
0
-3
0
-3
0
-3
0
-3
1
-3
0
-3
0
-3
0
-3
0
-3
0
-3
0
-3
0
-3
0
-3
0
-3
0
-3
0
-3
0
-3
0
-3
0
-3
0
-3
0
-3
0
-3
0
-3
0
-3
0
-3
0
-3
0
-3
0
-3
0
-3
0
-3
0
-3
0
-3
0
-3
0
-3
0
-3
0
-3
0
-3
0
-3
0
-3
0
-3
0
-3
0
-3
0
-3
0
-3
0
-3
0
-3
0
-3
0
-3
0
-3
0
-3
0
-3
0
-3
0
-3
0
-3
0
-3
0
-3
0
-3
0
-3
0
-3
0
-3
0
-3
0
-3
0
-3
0
-3
0
-3
0
-3
0
-3
0
-3
0
-3
0
-3
0
-3
0
-3
0
-3
0
-3
0
-3
0
-3
0
-3
0
-3
0
-3
0
-3
0
-3
0
-3
0
-3
0
-3
0
-3
0
-3
0
-3
0
-3
0
-3
0
-3
0
-3
0
-3
0
-3
0
-3
0
-3
0
-3
0
-3
0
-3
0
-3
0
-3
0
-3
0
-3
0
-3
0
-3
0
-3
0
-3
0
-3
0
-3
0
-3
0
-3
0
-3
0
-3
0
-3
0
-3
0
-3
0
-3
0
-3
0
-3
0
-3
0
-3
0
-3
0
-3
0
-3
0
-3
0
-3
0
-3
1
-3
0
-3
0
-3
0
-3
0
-3
0
-3
0
-3
0
-3
0
-3
0
-3
0
-3
0
-3
0
-3
0
-3
0
-3
0
-3
0
-3
0
-3
0
-3
0
-3
0
-3
0
-3
0
-3
0
-4
0
-3
0
-3
0
-3
0
-3
0
-3
0
-3
0
-3
0
-3
0
-3
0
-3
0
-3
0
-3
0
-3
0
-3
0
-3
0
-3
0
-3
0
-3
0
-3
0
-3
0
-3
0
-3
0
-3
0
-3
0
-3
0
-3
0
-3
0
-3
0
-3
0
-3
0
-3
0
-3
0
-3
0
-3
0
-3
0
-3
0
-3
0
-3
0
-3
0
-3
0
-3
0
-3
0
-3
0
-3
0
-3
0
-3
0
-3
0
-3
0
-3
0
-3
0
-3
0
-3
0
-3
0
-3
0
-3
0
-3
0
-3
0
-3
0
-3
0
-3
0
-3
0
-3
0
-3
0
-3
0
-3
0
-3
0
-3
0
-3
0
-3
0
-3
0
-3
0
-3
0
-3
0
-3
0
-3
0
-3
0
-3
0
-3
0
-3
0
-3
0
-3
0
-3
0
-3
0
-3
0
-3
0
-3
0
-3
0
-3
0
-3
0
-3
0
-3
0
-3
0
-3
0
-3
0
-3
0
-3
0
-3
0
-3
0
-3
0
-3
0
-3
0
-3
0
-3
0
-3
0
-3
0
-3
0
-3
0
-3
0
-3
0
-3
0
-3
0
-3
0
-3
0
-3
0
-3
0
-3
0
-3
0
-3
0
-3
0
-3
0
-3
0
-3
0
-3
0
-3
0
-3
0
-3
0
-3
0
-3
0
-3
0
-3
0
-3
0
-3
0
-3
0
-3
0
-3
0
-3
0
-3
0
-3
0
-3
0
-3
0
-3
0
-3
0
-3
0
-3
0
-3
0
-3
0
-3
0
-3
0
-3
0
-3
0
-3
0
-3
0
-3
0
-3
0
-3
0
-3
0
-3
0
-3
0
-3
0
-3
0
-3
0
-3
0
-3
0
-3
0
-3
0
-3
0
-3
0
-3
0
-3
0
-3
0
-3
0
-3
0
-3
0
-3
0
-3
0
-3
0
-3
0
-3
0
-3
0
-3
0
-3
0
-3
0
-3
0
-3
0
-3
0
-3
0
-3
0
-3
0
-3
0
-3
0
-3
0
-3
0
-3
0
-3
0
-3
0
-3
0
-3
0
-3
0
-3
0
-3
0
-3
0
-3
0
-3
0
-3
0
-3
0
-3
0
-3
0
-3
0
-3
0
-3
0
-3
0
-3
0
-3
0
-3
0
-3
0
-3
0
-3
0
-3
0
-3
0
-3
0
-3
0
-3
0
-3
0
-3
0
-4
0
-3
0
-3
0
-3
0
-3
0
-3
0
-3
0
-3
0
-3
0
-3
0
-3
0
-3
0
-3
0
-3
0
-3
0
-3
0
-3
0
-3
0
-3
0
-3
0
-3
0
-3
0
-3
0
-3
0
-3
0
-3
0
-3
0
-3
0
-3
0
-3
0
-3
0
-3
0
-3
0
-3
0
-3
0
-3
0
-3
0
-3
0
-3
0
-3
0
-3
0
-3
0
-3
0
-3
0
-3
0
-3
0
-3
0
-3
0
-3
0
-3
0
-3
0
-3
0
-3
0
-3
0
-3
0
-3
0
-3
0
-3
0
-3
0
-3
0
-3
0
-3
0
-3
0
-3
0
-3
0
-3
0
-3
0
-3
0
-3
0
-3
0
-3
0
-3
0
-3
0
-3
0
-3
0
-3
0
-3
0
-3
0
-3
0
-3
0
-3
0
-3
0
-3
0
-3
0
-3
0
-3
0
-3
0
-3
0
-3
0
-3
0
-3
0
-3
0
-3
0
-3
0
-3
0
-3
0
-3
0
-3
0
-3
0
-3
0
-3
0
-3
0
-3
0
-3
0
-3
0
-3
0
-3
0
-3
0
-3
0
-3
0
-3
0
-3
0
-3
0
-3
0
-3
0
-3
0
-3
0
-3
0
-3
0
-3
0
-3
0
-3
0
-3
0
-3
0
-3
0
-3
0
-3
0
-3
0
-3
0
-3
1
-3
0
-3
0
-3
0
-3
0
-3
0
-3
0
-3
0
-3
0
-3
0
-3
0
-3
0
-3
0
-3
0
-3
0
-3
0
-3
0
-3
0
-3
0
-3
0
-3
0
-3
0
-3
0
-3
0
-3
0
-3
0
-3
0
-3
0
-3
0
-3
0
-3
0
-3
0
-3
0
-3
0
-3
0
-3
0
-3
0
-3
0
-3
0
-4
0
-3
0
-3
0
-3
0
-3
0
-3
0
-3
0
-3
0
-3
0
-3
0
-3
0
-4
0
-3
0
-3
0
-3
0
-3
0
-3
0
-3
0
-3
0
-3
0
-3
0
-3
0
-3
0
-3
0
-3
0
-3
0
-3
0
-3
0
-3
0
-3
0
-3
0
-3
0
-4
0
-3
0
-3
0
-3
0
-3
0
-3
0
-3
0
-3
0
-3
0
-3
0
-3
0
-3
0
-3
0
-3
0
-3
0
-3
0
-3
0
-3
0
-3
0
-3
0
-3
0
-3
0
-3
0
-3
0
-3
0
-3
0
-3
0
-3
0
-3
0
-3
0
-3
0
-3
0
-3
0
-3
0
-3
0
-3
0
-3
0
-3
0
-3
0
-3
0
-3
0
-3
0
-3
0
-3
0
-3
0
-3
0
-3
0
-3
0
-3
0
-3
0
-3
0
-3
0
-3
0
-3
0
-3
0
-3
0
-3
0
-3
0
-3
0
-3
0
-3
0
-3
0
-3
0
-3
0
-3
0
-3
0
-3
0
-3
0
-3
0
-3
0
-3
0
-3
0
-3
0
-3
0
-3
0
-3
0
-3
0
-3
0
-3
0
-3
0
-3
0
-3
0
-3
0
-3
0
-3
0
-3
0
-3
0
-3
0
-3
0
-3
0
-3
0
-3
0
-3
0
-3
0
-3
0
-3
0
-3
0
-3
0
-3
0
-3
0
-3
1
-4
0
-3
0
-3
0
-3
0
-3
0
-3
0
-3
0
-3
0
-3
0
-3
0
-3
0
-3
0
-3
0
-3
0
-3
0
-3
0
-3
0
-3
0
-3
0
-3
0
-3
0
-3
0
-3
0
-3
0
-3
0
-3
0
-3
0
-3
0
-3
0
-4
0
-3
0
-3
0
-3
0
-3
0
-3
0
-3
0
-3
0
-3
0
-3
0
-3
0
-3
0
-3
0
-3
0
-3
0
-3
0
-3
0
-3
0
-3
0
-3
0
-3
0
-3
0
-3
0
-3
0
-3
0
-3
0
-3
0
-3
0
-3
0
-3
0
-3
0
-3
0
-3
0
-3
0
-3
0
-3
0
-3
0
-3
0
-3
0
-3
0
-3
0
-3
0
-3
0
-3
0
-3
0
-3
0
-3
0
-3
0
-3
0
-3
0
-3
0
-3
0
-3
0
-3
0
-3
0
-3
0
-3
0
-3
0
-3
0
-3
0
-3
0
-3
0
-3
0
-3
0
-3
0
-3
0
-3
0
-3
1
-3
0
-3
0
-3
0
-3
0
-3
0
-3
0
-3
0
-3
0
-3
0
-3
0
-3
0
-3
0
-3
0
-3
0
-3
0
-3
0
-3
0
-3
0
-3
0
-3
0
-3
0
-3
0
-3
0
-3
0
-3
0
-3
0
-3
0
-3
0
-3
0
-3
0
-3
0
-3
0
-3
0
-3
0
-3
0
-3
0
-3
0
-3
0
-3
0
-3
0
-3
0
-3
0
-3
0
-3
0
-3
0
-3
0
-3
0
-3
0
-3
0
-3
0
-3
0
-3
1
-3
0
-3
0
-3
0
-3
0
-3
0
-3
0
-3
0
-3
0
-3
0
-3
0
-3
0
-3
0
-3
0
-3
0
-3
0
-3
0
-3
0
-3
0
-3
0
-3
0
-3
0
-3
0
-3
0
-3
0
-3
0
-3
0
-3
0
-3
0
-3
0
-3
0
-3
0
-3
0
-3
0
-3
0
-3
0
-3
0
-3
0
-3
0
-3
0
-3
0
-3
0
-3
0
-3
0
-3
0
-3
0
-3
0
-3
0
-3
0
-3
0
-3
0
-3
0
-3
0
-3
0
-3
0
-3
0
-3
0
-3
0
-3
0
-3
0
-3
0
-3
0
-3
0
-3
0
-3
0
-3
0
-3
0
-3
0
-3
0
-3
0
-3
0
-3
0
-3
0
-3
0
-3
0
-3
0
-3
0
-3
0
-3
0
-3
0
-3
0
-3
0
-3
0
-3
0
-3
0
-3
0
-3
0
-3
0
-3
0
-3
0
-3
0
-3
0
-3
0
-3
0
-3
0
-3
0
-3
0
-3
0
-3
0
-3
0
-3
0
-3
0
-3
0
-3
0
-3
0
-3
0
-3
0
-3
0
-3
0
-3
0
-3
0
-3
0
-3
0
-3
0
-3
0
-3
0
-3
0
-3
0
-3
0
-3
0
-3
0
-3
0
-3
0
-3
0
-3
0
-4
0
-3
0
-3
0
-3
0
-3
0
-3
0
-3
0
-3
0
-3
0
-3
0
-3
0
-3
0
-3
0
-3
0
-3
0
-3
0
-3
0
-3
0
-3
0
-3
0
-3
0
-3
0
-3
0
-3
0
-3
0
-3
0
-3
0
-3
0
-3
0
-3
0
-3
0
-3
0
-3
0
-3
0
-3
0
-3
0
-3
0
-3
0
-3
0
-3
0
-3
0
-3
0
-3
0
-3
0
-3
0
-3
0
-3
0
-3
0
-3
0
-3
0
-3
0
-3
0
-3
0
-3
0
-3
0
-4
0
-3
0
-3
0
-3
0
-3
0
-3
0
-3
0
-3
0
-3
0
-3
0
-3
0
-3
0
-3
0
-3
0
-3
0
-3
0
-3
0
-3
0
-3
0
-3
0
-3
0
-3
0
-3
0
-3
0
-3
0
-3
1
-3
0
-3
0
-3
0
-3
0
-3
0
-3
0
-3
0
-3
0
-3
0
-3
0
-3
0
-3
0
-3
0
-3
0
-3
0
-3
0
-3
0
-3
8.31048e-05
-3
0
-3
0
-3
0
-3
0
-3
0
-3
0
-3
0
-3
0
-3
0
-3
0
-3
0
-3
0
-3
0
-3
0
-3
0
-3
0
-3
0
-3
0
-3
0
-3
0
-3
0
-3
0
-3
0
-3
0
-3
0
-3
0
-3
0
-3
0
-3
0
-3
0
-3
0
-3
0
-3
0
-3
0
-3
0
-3
0
-3
0
-3
0
-3
0
-3
0
-3
0
-3
0
-3
0
-3
0
-3
0
-3
0
-3
0
-3
0
-3
0
-3
0
-3
0
-3
0
-3
0
-3
0
-3
0
-3
0
-3
0
-3
0
-3
0
-3
0
-3
0
-3
0
-3
0
-3
0
-3
0
-3
0
-3
0
-3
0
-3
0
-3
0
-3
0
-3
0
-3
0
-3
0
-3
0
-3
0
-3
0
-3
0
-3
0
-3
0
-3
0
-3
0
-3
0
-3
0
-3
0
-3
0
-3
0
-3
0
-3
0
-3
0
-3
0
-3
0
-3
0
-3
0
-3
0
-3
0
-3
0
-3
0
-3
0
-3
0
-3
0
-3
0
-3
0
-3
0
-3
0
-3
0
-3
0
-3
0
-3
0
-3
0
-3
0
-3
0
-3
0
-3
0
-3
0
-3
0
-3
0
-3
0
-3
0
-3
0
-3
0
-3
0
-3
0
-3
0
-3
0
-3
0
-3
0
-3
0
-3
0
-3
0
-3
0
-3
0
-3
0
-3
0
-3
0
-3
0
-3
0
-3
0
-3
0
-3
0
-3
0
-3
0
-3
0
-3
0
-3
0
-3
0
-3
0
-3
0
-3
0
-3
0
-3
0
-3
0
-3
0
-3
0
-3
0
-3
0
-3
1
-3
0
-3
0
-3
0
-3
0
-3
0
-3
0
-3
0
-3
0
-3
0
-3
0
-3
0
-3
0
-3
0
-3
0
-3
0
-3
0
-3
0
-3
0
-3
0
-3
0
-3
0
-3
0
-3
0
-3
0
-3
0
-3
0
-3
0
-3
0
-3
0
-3
0
-3
0
-3
0
-3
0
-3
0
-3
0
-3
0
-3
0
-3
0
-3
0
-3
0
-3
0
-3
0
-3
0
-3
0
-3
0
-3
0
-3
0
-3
0
-3
0
-3
0
-3
0
-3
0
-3
0
-3
0
-3
0
-3
0
-3
0
-3
0
-3
0
-3
0
-3
0
-3
0
-3
0
-3
0
-4
3.29902e-05
-3
0
-3
0
-3
0
-3
0
-3
0
-3
0
-3
0
-3
0
-3
0
-3
0
-3
0
-3
0
-3
0
-3
0
-3
0
-3
0
-3
0
-3
0
-3
0
-3
0
-3
0
-3
0
-3
0
-3
0
-3
0
-3
0
-3
0
-3
0
-3
0
-3
0
-3
0
-3
0
-3
0
-3
0
-3
0
-3
0
-3
0
-3
0
-3
0
-3
0
-3
0
-3
0
-3
0
-3
0
-3
0
-3
0
-3
0
-3
0
-3
0
-3
0
-3
0
-3
0
-3
0
-3
0
-3
0
-3
0
-3
0
-3
0
-3
0
-3
0
-3
0
-3
0
-3
0
-3
0
-3
0
-3
0
-3
0
-3
0
-3
0
-3
0
-3
0
-3
0
-3
0
-3
0
-3
0
-3
0
-3
0
-3
0
-3
0
-3
0
-3
0
-3
0
-3
0
-3
0
-3
0
-3
0
-3
0
-3
0
-3
0
-3
0
-3
0
-3
0
-3
0
-3
0
-3
0
-3
0
-3
0
-3
0
-3
0
-3
0
-3
0
-3
0
-3
0
-3
0
-3
0
-3
0
-3
0
-3
0
-3
0
-3
0
-3
0
-3
0
-3
0
-3
0
-3
0
-3
0
-3
0
-3
0
-3
0
-3
0
-3
0
-3
0
-3
0
-3
0
-3
0
-3
0
-3
0
-3
0
-3
0
-3
0
-3
0
-3
0
-3
0
-3
0
-3
0
-3
0
-3
0
-3
0
-3
0
-3
0
-3
0
-3
0
-3
0
-3
0
-3
0
-3
0
-3
0
-3
0
-3
0
-3
0
-3
0
-3
0
-3
0
-3
0
-3
0
-3
0
-3
0
-3
0
-3
0
-3
0
-3
0
-3
0
-3
0
-3
0
-3
0
-3
0
-3
0
-4
0
-3
0
-3
0
-3
0
-3
0.000441696
-3
0
-3
0
-3
0
-3
0
-3
0
-3
0
-3
0
-3
0
-3
0
-3
0
-3
0
-3
0
-3
0
-3
0.000896861
-3
0
-3
0
-3
0
-3
0
-3
0
-3
0
-3
0
-3
0
-3
0
-3
0
-3
0
-3
0
-3
0
-3
0
-3
0
-3
0
-3
0
-3
0
-3
0
-3
0
-3
0
-3
0
-3
0
-3
0
-3
0
-3
0
-3
0
-3
0
-3
0
-3
0
-3
0
-3
0
-3
0
-3
0
-3
0
-3
0
-3
0
-3
0
-3
0
-3
0
-3
0
-3
0
-3
0
-3
0
-3
0
-3
0
-3
0
-3
0
-3
0
-3
0
-3
0
-3
0
-3
0
-3
0
-3
0
-3
0
-3
0
-3
0
-3
0
-3
0
-3
0
-3
0
-3
0
-3
0
-3
0
-3
0
-3
0
-3
0
-3
0
-3
0
-3
0
-3
0
-3
0
-3
0
-3
0
-3
0
-3
0
-3
0
-3
0
-3
0
-3
0
-3
0
-3
0
-3
0
-3
0
-3
0
-3
0
-3
0
-3
0
-3
0
-3
0
-3
0
-3
0
-3
0
-3
0
-3
0
-3
0
-3
0
-3
0
-3
0
-3
0
-3
0
-3
0
-3
0
-3
0
-3
0
-3
0
-3
0
-3
0
-3
0
-3
0
-3
0
-3
0
-3
0
-3
0
-3
0
-3
0
-4
4.21479e-05
-4
0
-3
0
-3
0
-3
0
-3
0
-3
0
-3
0
-3
0
-3
0
-3
0
-3
0
-3
0
-3
0
-3
0
-3
0
-3
0
-3
0
-3
0
-3
0
-3
0
-3
0
-3
0
-3
0
-3
0
-3
0
-3
0
-3
0
-3
0
-3
0
-3
0
-3
0
-3
0
-3
0
-3
0
-3
0
-3
0
-3
0
-3
0
-3
0
-3
0
-3
0
-3
0
-3
0
-3
0
-3
0
-3
0
-4
0
-3
0
-3
0
-3
0
-3
0
-3
0
-3
0
-3
0
-3
0
-3
0
-3
0
-3
0
-3
0
-3
0
-3
0
-3
0
-3
0
-3
0
-3
0
-3
0
-3
0
-3
0
-3
0
-3
0
-3
1
-3
1
-3
0
-3
0
-3
0
-3
0
-3
0
-3
0
-3
0
-3
0
-3
0
-3
0
-3
0
-3
0
-3
0
-3
0
-3
0
-3
0
-3
0
-3
0
-3
0
-3
0
-3
0
-3
0
-3
0
-3
0
-3
0
-3
0
-3
0
-3
0
-3
0
-3
0
-3
0
-3
0
-3
0
-3
0
-3
0
-3
0
-3
0
-3
0
-3
0
-3
0
-3
0
-3
0
-3
0
-3
0
-3
0
-3
0
-3
0
-3
0
-3
0
-3
0
-3
0
-3
0
-3
0
-3
0
-3
0
-3
0
-3
0
-3
0
-3
0
-3
0
-3
0
-3
0
-3
0
-3
0
-3
0
-3
0
-3
0
-3
0
-3
0
-3
0
-3
0
-3
0
-3
0
-3
0
-3
0
-3
0
-3
0
-3
0
-3
0
-3
0
-3
0
-3
0
-3
0
-3
0
-3
0
-3
0
-3
0
-4
0
-3
0
-3
0
-3
0
-3
0
-3
0
-3
0
-3
0
-3
0
-3
0
-3
0
-3
0
-3
0
-3
0
-3
0
-3
0
-3
0
-3
0
-3
0
-3
0
-3
0
-3
0
-3
0
-3
0
-3
0
-3
0
-3
0
-3
0
-3
0
-3
0
-3
0
-3
0
-3
0
-3
0
-3
0
-3
0
-3
0
-4
0
-3
0
-3
0
-3
0
-3
0
-3
0
-3
0
-3
0
-3
0
-3
0
-3
0
-3
0
-3
0
-3
0
-3
0
-3
0
-3
0
-3
0
-3
0
-3
0
-3
0
-3
0
-3
0
-3
0
-3
0
-3
0
-3
0
-3
0
-3
0
-3
0
-3
0
-3
0
-3
0
-3
0
-3
0
-3
0
-3
0
-3
0
-3
0
-3
0
-3
0
-3
0
-3
0
-4
0
-3
0
-3
0
-3
0
-3
0
-3
0
-3
0
-3
0
-3
0
-3
0
-4
0
-3
0
-3
0
-3
0
-3
0
-3
0
-3
0
-3
0
-3
0
-3
0
-3
0
-3
0
-3
0
-3
0
-3
0
-3
0
-3
0.000118106
-3
0
-3
0
-3
0
-3
0
-3
0
-3
0
-3
0
-3
0
-3
0
-3
0
-3
0
-3
0
-3
0
-3
0
-3
0
-3
0
-3
0
-3
0
-3
0
-3
0
-3
0
-3
0
-3
0
-3
0
-3
0
-3
0
-3
0
-3
0
-3
0
-3
0
-3
0
-3
0
-3
0
-3
0
-3
0
-3
0
-3
0
-3
0
-3
0
-3
0
-3
0
-3
0
-3
0
-3
0
-3
0
-3
0
-3
0
-3
0
-3
0
-3
0
-3
0
-3
0
-3
0
-3
0
-3
0
-3
0
-3
0
-3
0
-3
0
-3
0
-3
0
-3
0
-3
0
-3
0
-3
0
-3
0
-4
3.61311e-05
-3
0
-3
0
-3
0
-3
0
-3
0
-3
0
-3
0
-3
0
-3
0
-3
0
-3
0
-3
0
-3
0
-4
0
-3
0
-3
0
-3
0
-3
0
-3
0
-3
0
-3
0
-3
0
-3
0
-3
0
-3
0
-3
0
-3
0
-3
0
-3
0
-3
0
-3
0
-3
0
-3
0
-3
0
-3
0
-3
0
-3
0
-3
0
-3
0
-3
0
-3
0
-3
0
-3
0
-3
0
-3
0
-3
0
-3
0
-3
0
-3
0
-3
0
-3
0
-3
0
-3
0
-3
0
-3
0
-3
0
-3
0
-3
0
-3
0
-3
0
-3
0
-3
0
-3
0
-3
0
-3
0
-3
0
-3
0
-3
0
-3
0
-3
0
-3
0
-3
0
-3
0
-3
0
-3
0
-3
0
-3
0
-3
0
-3
0
-3
0
-3
0
-3
0
-3
0
-3
0
-3
0
-3
0
-3
0
-3
0
-3
0
-3
0
-3
0
-3
0
-3
0
-3
0
-3
0
-3
0
-3
0
-3
0
-3
0
-3
0
-3
0
-3
0
-3
0
-3
0
-3
0
-3
0
-3
0
-3
0
-3
0
-3
0
-3
0
-3
0
-3
0
-3
0
-3
0
-3
0
-3
0
-3
0
-3
0
-3
0
-3
0
-3
0
-3
0
-3
0
-3
0
-3
0
-3
0
-3
0
-3
0
-3
0
-3
0
-3
0
-3
0
-3
0
-3
0
-3
0
-3
0
-3
0
-4
0
-3
0
-3
0
-3
0
-3
0
-3
0
-3
0
-3
0
-3
0
-3
0
-3
0
-3
0
-3
0
-3
0
-3
0
-3
0
-3
0
-3
0
-3
0
-3
0
-3
0
-3
0
-3
0
-3
0
-3
0
-3
0
-3
0
-3
0
-3
0
-3
0
-3
0
-3
0
-3
0
-3
0
-3
0
-3
0
-3
0
-3
0
-3
0
-3
0
-3
0
-3
0
-3
0
-3
0
-3
0
-3
0
-3
0
-3
0
-3
0
-3
0
-3
0
-3
0
-3
0
-3
0
-3
0
-3
0
-3
0
-3
0
-3
0
-3
0
-3
0
-3
0
-3
0
-3
0
-3
0
-3
0
-3
0
-3
0
-3
0
-3
0
-3
0
-3
0
-3
0
-3
0
-3
0
-3
0
-3
0
-3
0
-3
0
-3
0
-3
1
-3
0
-4
4.36548e-05
-3
0
-3
0
-3
0
-3
0
-3
0
-3
0
-3
0
-3
0
-3
0
-3
0
-3
0
-3
0
-3
0
-3
0
-3
0
-3
0
-3
0
-3
0
-3
0
-3
0
-3
0
-3
0
-3
0
-3
0
-3
0
-3
0
-3
0
-3
0
-3
0
-3
0
-3
0
-3
0
-3
0
-3
0
-3
0
-3
0
-3
0
-3
0
-3
0
-3
0
-3
0
-3
0
-3
0
-4
0
-3
0
-3
0
-3
0
-3
0
-3
0
-3
0
-3
0
-3
0
-3
0
-3
0
-3
0
-3
0
-3
0
-3
0
-3
0
-3
0
-3
0
-3
0
-3
0
-3
0
-3
0
-3
0
-3
0
-3
0
-3
0
-3
0
-3
0
-3
0
-3
0
-3
0
-3
0
-3
0
-3
0
-3
0
-3
0
-3
0
-3
0
-3
0
-3
0
-3
0
-3
0
-3
0
-3
0
-3
0
-3
0
-3
0
-3
0
-3
0
-3
0
-3
0
-3
0
-3
0
-3
0
-3
0
-3
0
-3
0
-3
0
-3
0
-3
0
-3
0
-3
0
-3
0
-3
0
-3
0
-3
0
-3
0
-3
0
-3
0
-3
0
-3
0
-3
0
-3
0
-3
0
-4
0.000900901
-3
0
-3
0
-3
0
-3
0
-3
0
-3
0
-3
0
-3
0
-3
0
-3
0
-3
0
-3
0
-3
0
-3
0
-3
0
-3
0
-3
0
-3
0
-3
0
-3
0
-3
0
-3
0
-3
0
-3
0
-3
0
-3
0
-3
0
-3
0
-3
0
-3
0
-3
0
-3
0
-3
0
-3
0
-3
0
-3
0
-3
0
-3
0
-3
0
-3
0
-3
0
-3
0
-3
0
-3
0
-3
0
-3
0
-3
0
-3
0
-3
0
-3
0
-3
0
-3
0
-3
0
-3
0
-3
0
-3
0
-3
0
-3
0
-3
0
-3
0
-3
0
-3
0
-4
0
-3
0
-3
0
-3
0
-3
0
-3
0
-3
0
-3
0
-3
0
-3
0
-3
0
-3
0
-3
0
-3
0
-3
0
-3
0
-3
0
-3
0
-3
0
-3
0
-3
0
-3
0
-3
0
-3
0
-3
0
-3
0
-3
0
-3
0
-3
0
-3
0
-3
0
-3
0
-3
0
-3
0
-3
0
-3
0
-3
0
-4
0
-3
0
-3
0
-3
0
-3
0
-3
0
-3
0
-3
0
-3
0
-3
0
-3
0
-3
0
-3
0
-3
0
-3
0
-3
0
-3
0
-3
0
-3
0
-3
0
-3
0
-3
0
-3
0
-3
0
-3
0
-3
0
-3
0
-3
0
-3
0
-3
0
-3
0
-3
0
-3
0
-3
0
-3
0
-3
0
-3
0
-3
0
-3
0
-3
0
-3
0
-3
0
-3
0
-3
0
-3
0
-3
0
-3
0
-3
0
-3
0
-3
0
-3
0
-3
0
-3
0
-3
0
-3
0
-3
0
-3
0
-3
0
-3
0
-3
0
-3
0
-3
0
-3
0
-3
0
-3
0
-3
0
-3
0
-3
0
-3
0
-4
0.000117275
-3
0
-3
0
-3
0
-3
0
-3
0
-3
0
-3
0
-3
0
-3
0
-3
0
-3
0
-3
0
-3
0
-3
0
-3
0
-3
0
-3
0
-3
0
-3
0
-3
0
-3
0
-3
0
-3
0
-3
0
-3
0
-3
0
-3
0
-3
0
-3
0
-3
0
-3
0
-3
0
-3
0
-3
0
-3
0
-3
0
-3
0
-3
0
-3
0
-3
0
-3
0
-3
0
-3
0
-3
0
-3
0
-3
0
-3
0
-3
0
-3
0
-3
0
-3
0
-3
0
-3
0
-3
0
-3
0
-3
0
-3
0
-3
0
-3
0
-3
0
-3
0
-3
0
-3
0
-3
0
-3
0
-3
0
-3
0
-3
0
-3
0
-3
0
-3
0
-3
0
-3
0
-3
0
-3
0
-3
0
-3
0
-3
0
-3
0
-3
0
-3
0
-3
0
-3
0
-3
0
-3
0
-3
0
-3
0
-3
0
-3
0
-3
0
-3
0
-3
0
-3
0
-3
0
-3
0
-3
0
-3
0
-3
0
-3
0
-3
0
-3
0
-3
0
-3
0
-3
0
-3
0
-3
0
-3
0
-3
0
-3
0
-3
0
-3
0
-3
0
-3
0
-3
0
-3
0
-3
0
-3
0
-3
0
-3
0
-3
0
-3
0
-3
0
-3
0
-3
0
-3
0
-3
0
-3
0
-3
0
-3
0
-3
0
-3
0
-3
0
-3
0
-3
0
-3
0
-3
0
-3
0
-3
0
-3
0
-3
0
-3
0
-3
0
-3
0
-3
0
-3
0
-3
0
-3
0
-3
0
-3
0
-3
0
-3
0
-3
0
-3
0
-3
0
-3
0
-3
0
-3
0
-3
0
-3
0
-3
0
-3
0
-3
0
-3
0
-3
0
-3
0
-3
0
-3
0
-3
0
-3
0
-3
0
-3
0
-3
0
-3
0
-3
0
-3
0
-3
0
-3
0
-3
0
-3
0
-3
0
-3
0
-3
0
-3
0
-3
0
-3
0
-3
0
-3
0
-3
0
-3
0
-3
0
-3
0
-3
0
-3
0
-3
0
-3
0
-3
0
-3
0
-3
0
-3
0
-3
0
-3
0
-3
0
-3
0
-3
0
-3
0
-3
0
-3
0
-3
0
-3
0
-3
0
-3
0
-3
0
-3
0
-3
0
-3
0
-3
0
-3
0
-3
0
-3
0
-3
0
-3
0
-3
0
-3
0
-3
0
-3
0
-3
0
-3
0
-3
0
-3
0
-3
0
-3
0
-3
0
-3
0
-3
0
-3
0
-3
0
-3
0
-3
0
-3
0
-3
0
-3
0
-3
0
-3
0
-3
0
-3
0
-3
0
-3
0
-3
0
-3
0
-3
0
-3
0
-3
0
-3
0.000255754
-3
0
-3
0
-3
0
-3
0
-3
0
-3
0
-3
0
-3
0
-3
0
-3
0
-3
0
-3
0
-3
0
-3
0
-3
0
-3
0
-3
0
-3
0
-3
0
-3
0
-3
0
-3
0
-3
0
-3
0
-3
0
-3
0
-3
0
-3
0
-3
0
-3
0
-3
0
-3
0
-3
0
-3
0
-3
0
-3
0
-3
0
-3
0
-3
0
-3
0
-3
0
-3
0
-3
0
-3
0
-3
0
-3
0
-3
0
-3
0
-3
0
-3
0
-3
0
-3
0
-3
1
-3
0
-3
0
-3
0
-3
0
-3
0
-3
0
-3
0
-3
0
-3
0
-3
0
-3
0
-3
0
-3
0
-3
0
-3
0
-3
0
-3
0
-3
0
-3
0
-3
0
-3
0
-3
0
-3
0
-3
0
-3
0
-3
0
-3
0
-3
0
-3
0
-3
0
-3
0
-3
0
-3
0
-3
0
-3
0
-3
0
-3
0
-3
0
-3
0
-3
0
-3
0
-3
0
-3
0
-3
0
-3
0
-3
0
-3
0
-3
0
-3
0
-3
0
-3
0
-3
0
-3
0
-3
0
-3
0
-3
0
-3
0
-3
0
-3
0
-3
0
-3
0
-3
0
-3
0
-3
0
-3
0
-3
0
-3
0
-3
0
-3
0
-3
0
-3
0
-3
0
-3
0
-3
0
-3
0
-3
0
-3
0
-3
0
-3
0
-3
0
-3
0
-3
0
-3
0
-3
0
-3
0
-3
0
-3
0
-3
0
-3
0
-3
0
-3
0
-3
0
-3
0
-3
0
-3
0
-3
0
-3
0
-3
0
-3
0
-3
0
-3
0
-3
0
-3
0
-3
0
-3
0
-3
0
-3
0
-3
0
-3
0
-3
0
-3
0
-3
0
-3
0
-3
0
-3
0
-3
0
-3
0
-3
0
-3
0
-3
0
-3
0
-3
0
-3
0
-3
0
-3
0
-3
0
-3
0
-3
0
-3
0
-3
0
-3
0
-3
0
-3
0
-3
0
-3
0
-3
0
-3
0
-3
0
-3
0
-3
0
-3
0
-3
0
-3
0
-3
0
-3
0
-3
0
-3
1
-3
1
-3
0
-3
0
-3
0
-3
0
-3
0
-3
0
-3
0
-3
0
-3
0
-3
0
-3
0
-3
0
-3
0
-3
0
-3
0
-3
0
-3
0
-3
0
-3
0
-3
0
-3
0
-3
0
-3
0
-3
0
-3
0
-3
0
-3
0
-3
0
-3
0
-3
0
-3
0
-3
0
-3
0
-3
0
-3
0
-3
0
-3
0
-3
0
-3
0
-3
0
-3
0
-3
0
-3
0
-3
0
-3
0
-3
0
-3
0
-3
0
-3
0
-3
0
-3
0
-3
0
-3
0
-3
0
-3
0
-3
0
-3
0
-3
0
-3
0
-3
0
-3
0
-3
0
-3
0
-3
0
-3
0
-3
0
-3
0
-3
0
-3
0
-3
0
-3
0
-3
0
-3
0
-3
0
-3
0
-3
0
-3
0
-3
0
-3
0
-3
0
-3
0
-3
0
-3
0
-3
0
-3
0
-3
0
-3
0
-3
0
-3
0
-3
0
-3
0
-3
0
-3
0.000489716
-3
0
-3
0
-3
0
-3
0
-3
0
-3
0
-3
0
-3
0
-3
0
-3
0
-3
0
-3
0
-3
0
-3
0
-3
0
-3
0
-3
0
-3
0
-3
0
-3
0
-3
0
-3
0
-3
0
-3
0
-3
0
-3
0
-3
0
-3
0
-3
0
-3
0
-3
0
-3
0
-3
0
-3
0
-3
0
-3
0
-3
0
-3
0
-3
0
-3
0
-3
0
-3
0
-3
0
-3
0
-3
0
-3
0
-3
0
-3
0
-3
0
-3
0
-3
0
-3
0
-3
0
-3
1
-3
1
-3
0
-3
0
-3
0
-3
0
-3
0
-3
0
-3
0
-3
0
-3
0
-3
0
-3
0
-3
0
-3
0
-3
0
-3
0
-3
0
-3
0
-3
0
-3
0
-3
0
-3
0
-3
0
-3
0
-3
0
-3
0
-3
0
-3
0
-3
0
-3
0
-3
0
-3
0
-3
0
-3
0
-3
0
-3
0
-3
0
-3
0
-3
0
-3
0
-3
0
-3
0
-3
0
-3
0
-3
0
-3
0
-3
0
-3
0
-3
0
-3
0
-3
0
-3
0
-3
0
-3
0
-3
0
-3
0
-3
0
-3
0
-3
0
-3
0
-3
0
-3
0
-3
0
-3
0
-3
0
-3
0
-3
0
-3
0
-3
0
-3
0
-3
0
-3
0
-3
0
-3
0
-3
0
-3
0
-3
0
-3
0
-3
1
-3
0
-3
0
-3
0
-3
0
-3
0
-3
0
-3
0
-3
0
-3
0
-3
0
-3
0
-3
0
-3
0
-3
0
-3
0
-3
0
-3
0
-3
0
-3
0
-3
0
-3
0
-3
0
-3
0
-3
0
-3
0
-3
0
-3
0
-3
0
-3
0
-3
0
-3
0
-3
0
-3
0
-3
0
-3
0
-3
0
-3
0
-3
0
-3
0
-3
0
-3
0
-3
0
-3
0
-3
0
-3
0
-3
0
-3
0
-3
0
-3
0
-3
0
-3
0
-3
0
-3
4.69197e-05
-3
0
-3
0
-3
0
-3
0
-3
0
-3
0
-3
0
-3
0
-3
0
-3
0
-3
0
-3
0
-3
0
-3
0
-3
0
-3
0
-3
0
-3
0
-3
0
-3
0
-3
0
-3
0
-3
0
-3
0
-3
0
-3
0
-3
0
-3
0
-3
0
-3
0
-3
0
-3
0
-3
0
-3
0
-3
0
-3
0
-3
0
-3
0
-3
0
-3
0
-3
0
-3
0
-3
0
-3
0
-3
0
-3
0
-3
0
-3
0
-3
0
-3
0
-3
0
-3
0
-3
0
-3
0
-4
0
-3
0
-3
0
-3
0
-3
0
-3
0
-3
0
-3
0
-3
0
-3
0
-3
0
-3
0
-3
0
-3
0
-3
0
-3
0
-3
0
-3
0
-3
0
-3
0
-3
0
-3
0
-3
0
-3
0
-3
0
-3
0
-3
0
-3
0
-3
0
-3
0
-3
0
-3
0
-3
0
-3
0
-3
0
-3
0
-3
0
-3
0
-3
0
-3
0
-3
0
-3
0
-3
0
-3
0
-3
0
-3
0
-3
0
-3
0
-3
0
-3
0
-4
0
-4
0
-3
0
-3
0
-3
0
-3
0
-3
0
-3
0
-3
0
-3
0
-3
0
-3
0
-3
0
-3
0
-3
0
-3
0
-3
0
-3
0
-3
0
-3
0
-3
0
-3
0
-3
0
-3
0
-3
0
-3
0
-3
0
-3
0
-3
0
-3
0
-3
0
-3
0
-3
0
-3
0
-3
0
-3
0
-3
0
-3
0
-3
0
-3
0
-3
0
-3
0
-3
0
-3
0
-3
0
-3
0
-3
0
-3
0
-3
0
-3
0
-3
0
-3
0
-3
0
-3
0
-3
0
-3
0
-3
0
-3
0
-3
0
-3
0
-3
0
-3
0
-3
0
-3
0
-3
0
-3
0
-3
0
-3
0
-3
0
-3
0
-3
0
-3
0
-3
0
-3
0
-3
0
-3
0
-3
0
-3
0
-3
0
-3
0
-3
0
-3
0
-3
0
-3
0
-3
0
-3
0
-3
0
-3
0
-3
0
-3
0
-3
0
-3
0
-3
0
-3
0
-3
0
-3
0
-3
0
-3
0
-3
0
-3
0
-3
0
-3
0
-3
0
-3
0
-3
0
-3
0
-3
1
-3
0
-3
0
-3
0
-3
0
-3
0
-3
0
-3
0
-3
0
-3
0
-3
0
-3
0
-3
0
-3
0
-3
0
-3
0
-3
0
-4
0
-3
0
-3
0
-3
0
-3
0
-3
0
-3
0
-3
0
-3
0
-3
0
-3
0
-3
0
-3
0
-3
0
-3
0
-3
0
-3
0
-3
0
-3
0
-3
0
-3
0
-3
0
-3
0
-3
0
-3
0
-3
0
-3
0
-3
0
-3
0
-3
0
-3
0
-3
0
-3
0
-3
0
-3
0
-3
0
-3
0
-3
0
-3
0
-3
0
-3
0
-3
0
-3
0
-3
0
-3
0
-3
0
-3
0
-3
0
-3
0
-3
0
-3
0
-3
0
-3
0
-3
0
-3
0
-3
0
-3
0
-3
0
-3
0
-3
0
-3
0
-3
0
-3
0
-3
0
-3
0
-3
0
-3
0
-3
0
-3
0
-3
0
-3
0
-3
0.000439367
-3
0
-3
0
-3
0
-3
0
-3
0
-3
0
-3
0
-3
0
-3
0
-3
0
-3
0
-3
0
-3
0
-3
0
-3
0
-3
0
-3
0
-3
0
-3
0
-3
0
-3
0
-3
0
-3
0
-3
0
-3
0
-3
0
-3
0
-3
0
-3
0
-3
0
-3
0
-3
0
-3
0
-3
0
-3
0
-3
0
-3
0
-3
0
-3
0
-3
0
-3
0
-4
0
-3
0
-3
0
-3
0
-3
0
-3
0
-3
0
-3
0
-3
0
-3
0
-3
0
-3
0
-3
0
-3
0
-3
0
-3
0
-3
0
-3
0
-3
0
-3
0
-3
0
-3
0
-3
0
-3
0
-3
0
-3
0
-3
0
-3
0
-3
0
-3
0
-3
0
-3
0
-3
0
-3
0
-3
0
-3
0
-3
0
-3
0
-3
0
-3
0
-3
0
-3
0
-3
0
-3
0
-3
0
-3
0
-3
0
-3
0
-3
0
-3
0
-3
0
-3
0
-3
0
-3
0
-3
0
-3
0
-3
0
-3
0
-3
0
-3
0
-3
0
-3
0
-3
0
-3
0
-3
0
-3
0
-3
0
-3
0
-3
0
-3
0
-3
0
-3
0
-3
0
-3
0
-3
0
-3
0
-3
0
-3
0
-3
0
-3
0
-3
0
-3
0
-3
0
-3
0
-3
0
-3
0
-3
0
-3
0
-3
0
-3
0
-3
0
-3
0
-3
0
-3
0
-3
0
-3
0
-3
0
-3
0
-3
0
-3
0
-3
0
-3
0
-3
0
-3
0
-3
0
-3
0
-3
0
-3
0
-3
0
-3
0
-3
0
-3
0
-3
0
-3
0
-3
0
-3
0
-3
0
-3
0
-3
0
-3
0
-3
0
-3
0
-3
0
-3
0
-3
0
-3
0
-3
0
-3
0
-3
0
-3
0
-3
0
-3
0
-3
0
-3
0
-3
0
-3
0
-3
0
-3
0
-3
0
-3
0
-3
0
-3
0
-3
0
-3
0
-3
0
-3
0
-3
0
-3
0
-3
0
-3
0
-3
0
-3
0
-3
0
-3
0
-3
0
-3
0
-3
0
-3
0
-3
0
-3
0
-3
0
-3
0
-3
0
-3
0
-3
0
-3
0
-3
0
-3
0
-3
0
-3
0
-3
0
-3
0
-3
0
-3
0
-3
0
-3
0
-3
0
-3
0
-3
0
-3
0
-3
0
-3
0
-3
0
-3
0
-3
0
-3
0
-3
0
-3
0
-3
0
-3
0
-3
0
-3
0
-3
0
-3
0
-3
0
-3
0
-3
0
-3
0
-3
0
-3
0
-3
0
-3
0
-3
7.17669e-05
-3
0
-3
0
-3
0
-3
0
-3
0
-3
0
-3
0
-3
0
-3
0
-3
0
-3
0
-3
0
-3
0
-3
0
-3
0
-3
0
-3
0
-3
0
-3
0
-3
0
-3
0
-3
0
-3
0
-3
0
-3
0
-3
0
-3
0
-3
0
-3
0
-3
0
-3
0
-3
0
-3
0
-3
0
-3
0
-3
0
-3
0
-3
0
-3
0
-3
0
-3
0
-3
0
-3
0
-3
0
-3
0
-3
0
-3
0
-3
0
-3
0
-3
0
-3
0
-3
0
-3
0
-3
0
-3
0
-3
0
-3
0
-3
0
-3
0
-3
0
-3
0
-3
0
-3
0
-3
0
-3
0
-3
0
-3
1
-3
0
-3
0
-3
0
-3
0
-3
0
-3
0
-3
0
-3
0
-3
0
-3
0
-3
0
-3
0
-3
0
-3
0
-3
0
-3
0
-3
0
-3
0
-3
0
-3
0
-3
0
-3
0
-3
0
-3
0
-3
0
-3
0
-3
0
-3
0
-3
0
-3
0
-3
0
-3
0
-3
0
-3
0
-3
0
-3
0
-3
0
-3
0
-3
0
-3
0
-3
0
-3
0
-3
0
-3
0
-3
0
-3
0
-3
0
-3
0
-3
0
-3
0
-3
0
-3
0
-3
0
-3
0
-3
0
-3
0
-3
0
-3
0
-3
0
-3
0
-3
0
-3
0
-3
0
-3
0
-3
0
-3
0
-3
0
-3
0
-3
0
-3
0
-3
0
-3
0
-3
0
-3
0
-3
0
-3
0
-3
0
-3
0
-3
0
-3
0
-3
0
-3
0
-3
0
-3
0
-3
0
-3
0
-3
0
-3
0
-3
0
-3
0
-3
0
-3
0
-3
0
-3
0
-3
0
-3
0
-3
0
-3
0
-3
0
-3
0
-3
0
-3
0
-3
0
-3
0
-3
0
-3
0
-3
0
-3
0
-3
0
-3
0
-3
0
-3
0
-3
0
-3
0
-3
0
-3
0
-3
0
-3
0
-3
0
-3
0
-3
0
-3
0
-3
0
-3
0
-3
0
-3
0
-3
0
-3
0
-3
0
-3
0
-3
0
-3
0
-3
0
-3
0
-3
0
-3
0
-3
0
-3
0
-3
0
-3
0
-3
0
-3
0
-3
0
-3
0
-3
0
-3
0
-3
0
-3
0
-3
0
-3
0
-3
0
-3
0
-3
0
-3
0
-3
0
-3
0
-3
0
-3
0
-3
0
-3
0
-3
0
-3
0
-3
0
-3
0
-3
0
-3
0
-3
0
-3
0
-3
0
-3
0
-3
0
-3
0
-3
0
-3
0
-3
0
-3
0
-3
0
-3
0
-3
0
-3
0
-3
0
-3
0
-3
0
-3
0
-3
0
-3
0
-3
0
-3
0
-3
0
-3
0
-3
0
-3
0
-3
0
-3
0
-3
0
-3
0
-3
0
-3
0.000900901
-3
0
-3
0
-3
0
-3
0
-3
0
-3
0
-3
0
-3
0
-3
0
-3
0
-3
0
-3
0
-3
0
-3
0
-3
0
-3
0
-3
0
-3
0
-3
0
-3
0
-3
0
-3
0
-3
0
-3
0
-3
0
-3
0
-3
0
-3
0
-3
0
-3
0
-3
0
-3
0
-3
0
-3
0
-3
0
-3
0
-3
0
-3
0
-3
0
-3
0
-3
0
-3
0
-3
0
-4
0
-3
0
-3
0
-3
0
-3
0
-3
0
-3
0
-3
0
-3
0
-3
0
-3
0
-3
0
-3
0
-3
0
-3
0
-3
0
-3
0
-3
0
-3
0
-3
0
-3
0
-3
0
-3
0
-3
0
-3
0
-3
0
-3
0
-3
0
-3
0
-3
0
-3
0
-3
0
-3
0
-3
1
-3
0
-3
0
-3
0
-3
0
-3
0
-3
0
-3
0
-3
0
-3
0
-3
0
-3
0
-3
0
-3
0
-3
0
-3
0
-3
0
-3
0
-3
0
-3
0
-3
0
-3
0
-3
0
-3
0
-3
0
-3
0
-3
0
-3
0
-3
0
-3
0
-3
0
-3
0
-3
0
-3
0
-3
0
-3
0
-3
0
-3
0
-3
0
-3
0
-3
0
-3
0
-3
0
-3
0
-3
0
-3
0
-3
0
-3
0
-3
0
-3
0
-3
0
-3
0
-3
0
-3
0
-3
0
-3
0
-3
0
-3
0
-3
0
-3
0
-3
0
-3
0
-3
0
-3
0
-3
0
-3
0
-3
0
-3
0
-3
0
-3
0
-3
0
-3
0
-3
0
-3
0
-3
0
-3
0
-3
0
-3
0
-3
0
-3
0
-3
0
-3
0
-3
0
-3
0
-3
0
-3
0
-3
0
-3
0
-3
0
-3
0
-3
0
-3
0
-3
0
-3
0
-3
0
-3
0
-3
0
-3
0
-3
0
-3
0
-3
0
-3
0
-3
0
-3
0
-4
0
-3
0
-3
0
-3
0
-3
0
-3
0
-3
0
-3
0
-3
0
-3
0
-3
0
-3
0
-3
0
-3
0
-3
0
-3
0
-3
0
-3
0
-3
0
-3
0
-3
0
-3
0
-3
0
-3
0
-3
0
-3
0
-3
0
-3
0
-3
0
-3
0
-3
0
-3
0
-3
0
-3
0
-3
0
-3
0
-3
0
-3
0
-3
0
-3
0
-3
0
-3
0
-3
0
-3
0
-3
0
-3
0
-3
0
-3
0
-3
0
-3
0
-3
0
-3
0
-3
0
-3
0
-3
0
-3
0
-3
0
-3
0
-4
0
-3
0
-3
0
-3
0
-3
0
-3
0
-3
0
-3
0
-3
0
-3
0
-3
0
-3
0
-3
0
-3
0
-3
0
-3
0
-3
0
-3
0
-3
0
-3
0.000884173
-3
0
-3
0
-3
0
-3
0
-3
0
-3
0
-3
0
-3
0
-3
0
-3
0
-3
0
-3
0
-3
0
-3
0
-3
0
-3
0
-3
0
-3
0
-3
0
-3
0
-3
0
-3
0
-3
0
-3
0
-3
0
-3
0
-4
0
-3
0
-3
0
-3
0
-4
0
-3
0
-3
0
-3
0
-3
0
-3
0
-3
0
-3
0
-3
0
-3
0
-3
0
-3
0
-3
0
-3
0
-3
0
-3
0
-3
0
-3
0
-3
0
-3
0
-3
0
-3
0
-3
0
-3
0
-3
0
-3
0
-3
0
-3
0
-3
0
-3
0
-3
0
-3
0
-3
0
-3
0
-3
0
-3
0
-3
0
-3
0
-3
0
-3
0
-3
0
-3
0.0001734
-3
0
-3
0
-3
0
-3
0
-3
0
-3
0
-3
0
-3
0
-3
0
-3
0
-3
0
-3
0
-3
0
-3
0
-3
0
-3
0
-3
0
-3
0
-3
0
-3
0
-3
0
-3
0
-3
0
-3
0
-3
0
-3
0
-3
0
-3
0
-3
0
-3
0
-3
0
-3
0
-3
0
-4
0
-3
0
-3
0
-3
0
-3
0
-3
0
-3
0
-3
0
-3
0
-3
0
-3
0
-3
0
-3
0
-3
0
-3
0
-3
1
-3
0
-3
0
-3
0
-3
0
-3
0
-3
0
-3
0
-3
0
-3
0
-3
0
-3
0
-3
0
-3
0
-3
0
-3
0
-3
0
-3
0
-3
0
-3
0
-3
0
-3
0
-3
0
-3
0
-3
0
-3
0
-3
0
-3
0
-3
0
-3
0
-3
0
-3
0
-3
0
-3
0
-3
0
-3
0
-3
0
-3
0
-3
0
-3
0
-3
0
-3
0
-3
0
-3
0
-3
0
-3
0
-3
0
-3
0
-3
0
-3
0
-3
0
-3
0
-3
0
-3
0
-3
0
-3
0
-3
0
-3
0
-3
0
-3
0
-3
0
-3
0
-3
0
-3
0
-3
0
-3
0
-3
0
-3
0
-3
5.48968e-05
-3
5.76402e-05
-3
0
-3
0
-3
0
-3
0
-3
0
-3
0
-3
0
-3
0
-3
0
-3
0
-3
0
-3
0
-3
0
-3
0
-3
0
-3
0
-3
0
-3
1
-3
0
-3
0
-3
0
-3
0
-3
0
-3
0
-3
0
-3
0
-3
0
-3
0
-3
0
-3
0
-3
0
-3
0
-3
0
-3
0
-3
0
-3
0
-3
0
-3
0
-3
0
-3
0
-3
0
-3
0
-3
0
-3
0
-3
0
-3
0
-3
0
-3
0
-3
0
-3
0
-3
0
-3
0
-3
0
-3
0
-3
0
-3
0
-3
0
-3
0
-3
0
-3
0
-3
0
-3
0
-3
0
-3
0
-4
6.91611e-05
-3
0
-3
0
-3
0
-3
0
-3
0
-3
0
-3
0
-3
0
-3
0
-3
0
-3
0
-3
0
-3
0
-3
1
-3
0
-3
0
-3
0
-3
0
-3
0
-3
0
-3
0
-3
0
-3
0
-3
0
-3
0
-3
0
-3
0
-3
0
-3
0
-3
0
-3
0
-3
0
-3
0
-3
0
-3
0
-3
0
-3
0
-3
0
-3
0
-3
0
-3
0
-3
0
-3
0
-3
0
-3
0
-3
0
-3
0
-3
0
-3
0
-3
0
-3
0
-3
0
-3
0
-3
0
-3
0
-3
0
-3
0
-3
0
-3
0
-3
0
-3
0
-3
0
-3
0
-3
0
-3
0
-4
0.000108897
-3
0
-3
0
-3
0
-3
0
-3
0
-3
0
-3
0
-4
0
-3
0
-3
0
-3
0
-3
0
-3
0
-3
0
-3
0
-3
0
-3
0
-3
0
-3
0
-3
0
-3
0
-4
0.000222618
-3
0
-3
0
-3
0
-3
0
-3
0
-3
0
-3
0
-3
0
-3
0
-3
0
-3
0
-3
0
-3
0
-3
0
-3
0
-3
0
-3
0
-3
0
-3
0
-3
0
-3
0
-3
0
-3
0
-3
0
-3
0
-3
0
-3
0
-3
0
-3
0
-3
0
-3
0
-3
0
-3
0
-3
0
-3
0
-3
0
-3
0
-3
0
-3
0
-3
0
-3
0
-3
0
-3
0
-3
0
-3
0
-3
0
-3
0
-3
0
-3
0
-3
1
-3
0
-3
0
-3
0
-3
0
-3
0
-3
0
-3
0
-3
0
-3
0
-3
0
-3
0
-3
0
-3
0
-3
0
-3
0
-3
0
-3
0
-3
0
-3
0
-3
0
-3
0
-3
0
-3
0
-3
0
-3
0
-3
0
-3
0
-3
0
-3
0
-3
0
-3
0
-3
0
-3
0
-3
0
-3
0
-3
0
-3
0
-3
0
-3
0
-4
9.15332e-05
-3
0
-3
0
-3
0
-3
0
-3
0
-3
0
-3
0
-3
0
-3
0
-3
0
-3
0
-4
3.55404e-05
-3
0
-3
0
-3
0
-3
0
-3
0
-3
0
-3
0
-3
0
-3
3.46825e-05
-4
0
-3
0
-3
0
-3
0
-3
0
-3
0
-3
0
-3
0
-3
0
-3
0
-3
0
-3
0
-3
0
-3
0
-3
0
-3
0
-3
0
-3
0
-3
0
-3
0
-3
0
-3
0
-3
0
-3
0
-3
0
-3
0
-3
0
-3
0
-3
0
-3
0
-3
0
-3
0
-3
0
-3
0
-3
0
-3
0
-3
0
-3
0
-3
0
-3
0
-3
0
-3
0
-3
0
-3
0
-3
0
-3
0
-3
0
-3
0
-3
0
-3
0
-3
0
-3
0
-3
0
-3
0
-3
0
-3
0
-3
0
-3
0
-3
0
-3
0
-3
0
-3
0
-3
0
-3
0
-3
0
-3
0
-3
0
-3
0
-3
0
-3
0
-3
0
-3
0
-3
0
-3
0
-3
0
-3
0
-3
0
-3
0
-3
0
-3
0
-3
0
-3
0
-3
0
-3
0
-3
0
-3
0
-3
0
-3
0
-3
0
-3
0
-3
0
-3
0
-3
0
-3
0
-3
0
-3
0
-3
0
-3
0
-3
0
-3
0
-3
0
-3
0
-3
0
-3
0
-3
0
-3
0
-3
0
-3
0
-3
0
-3
0
-3
0
-3
0
-3
0
-3
0
-3
0
-3
0
-3
0
-3
0
-3
0
-3
0
-3
0
-3
0
-3
0
-3
0
-3
0
-3
0
-3
0
-3
0
-3
0
-3
0
-3
0
-3
0
-3
0
-3
0
-3
0
-3
0
-3
0
-3
0
-3
0
-3
0
-3
0
-3
0
-3
0
-3
0
-3
0
-3
0
-3
0
-3
0
-3
0
-3
0
-3
0
-3
0
-3
0
-3
0
-3
0
-3
0
-3
0
-3
0
-3
0
-3
0
-3
0
-3
0
-3
0
-3
0
-3
0
-3
0
-3
0
-3
0
-3
0
-3
9.49127e-05
-3
0
-3
0
-3
0
-3
0
-3
0
-3
0
-3
0
-3
0
-3
0
-3
0
-3
0
-3
0
-3
0
-3
0
-3
0
-3
0
-3
0
-3
0
-3
0
-3
0
-3
0
-3
0
-4
0
-3
0
-3
0
-3
0
-3
0
-3
0
-3
0
-3
0
-3
0
-3
0
-3
0
-3
0
-3
0
-3
0
-3
0
-3
0
-3
0
-3
0
-3
0
-3
0
-3
0
-3
0
-3
0
-3
0
-3
0
-3
0
-3
0
-3
0
-3
0
-3
0
-3
0
-3
0
-3
0
-3
0
-3
0
-3
0
-3
0
-3
0
-3
0
-3
0
-3
0
-3
0
-3
0
-3
0
-3
0
-3
0
-3
0
-3
0
-3
0
-3
0
-3
0
-3
0
-3
0
-3
0
-3
0
-3
0
-3
0
-3
0
-3
0
-3
0
-3
0
-3
0
-3
0
-3
0
-3
0
-3
0
-3
0
-3
0
-3
0
-3
0
-3
0
-3
0
-3
0
-3
0
-3
0
-3
0
-3
0
-3
0
-3
0
-3
0
-3
0
-3
0
-3
0
-3
0
-3
0
-3
0
-3
0
-3
0
-3
0
-3
0
-3
0
-3
0
-3
0
-3
0
-3
0
-3
0
-3
0
-3
0
-3
0
-3
0
-3
0
-3
0
-3
0
-3
0
-3
0
-3
0
-3
0
-3
0
-3
0
-3
0
-3
0
-3
0
-3
0
-3
0
-3
0
-3
0
-3
0
-3
0
-3
0
-3
0
-3
0
-3
0
-3
0
-3
0
-3
0
-3
0
-3
0
-3
0
-3
0
-4
0
-3
0
-3
0
-3
0
-3
0
-3
0
-3
0
-3
0
-3
0
-3
0
-3
0
-3
0
-3
0
-3
0
-3
0
-3
0
-3
0
-3
0
-3
0
-3
0
-3
0
-3
0
-3
0
-3
0
-3
0
-3
0
-3
0
-3
0
-3
0
-3
0
-3
0
-3
0
-3
0
-4
0
-3
0
-3
0
-3
0
-3
0
-3
0
-3
0
-3
0
-3
0
-3
0
-3
0
-3
4.46488e-05
-3
0
-3
0
-3
0
-3
0
-3
0
-3
0
-3
0
-3
0
-3
0
-3
0
-3
0
-3
0
-3
0
-3
0
-3
0
-3
0
-3
0
-3
0
-3
0
-3
0
-3
0
-3
0
-3
0
-3
0
-3
0
-3
0
-3
0
-3
0
-3
0
-3
0
-3
0
-3
0
-3
0
-3
0
-3
0
-3
0
-3
0
-3
0
-3
0
-3
0
-3
0
-3
0
-3
0
-3
0
-3
0
-3
0
-3
0
-3
0
-3
0
-3
0
-3
0
-3
0
-3
0
-3
0.000186116
-3
0
-3
0
-3
0
-3
0
-3
0
-3
0
-3
0
-3
0
-3
0
-3
0
-3
0
-3
0
-3
0
-3
0
-3
0
-3
0
-3
0
-3
0
-3
0
-3
0
-3
0
-3
0
-3
0
-3
0
-3
0
-3
0
-3
0
-3
0
-3
0
-3
0
-3
0
-3
0
-3
0
-3
0
-3
0
-3
0
-3
0
-3
0
-3
0
-3
0
-3
0
-3
0
-3
0
-3
0
-3
0
-3
0
-3
0
-3
0
-3
0
-3
0
-3
0
-3
0
-3
0
-3
0
-3
0
-3
0
-4
8.34516e-05
-3
0
-3
0
-3
0
-3
0
-3
0
-3
0
-3
0
-3
0
-3
0
-3
0
-3
0
-3
0
-3
0
-3
0
-3
0
-3
0
-3
0
-3
0
-3
0
-3
0
-3
0
-3
0
-3
0
-3
0
-3
0
-3
0
-3
0
-3
0
-3
0
-3
0
-3
0
-3
0
-3
0
-3
0
-3
0
-3
0
-3
0
-3
0
-3
0
-3
0
-3
0
-3
0
-3
0
-3
0
-3
0
-3
0
-3
0
-3
0
-3
0
-3
0
-4
0
-3
0
-3
0
-3
0
-3
0
-3
0
-3
0
-3
0
-3
0
-3
0
-3
0
-3
0
-3
0
-3
0
-3
0
-3
0
-3
0
-3
0
-3
0
-3
0
-3
0
-3
0
-3
0
-3
0
-3
0
-3
0
-3
0
-3
0
-3
0
-3
0
-3
0
-3
0
-3
0
-3
0
-3
0
-3
0
-3
0
-3
0
-3
0
-3
0
-3
0
-3
0
-3
0
-3
0
-3
0
-3
0
-3
0
-3
0
-3
0
-3
0
-3
0
-3
0
-3
0
-3
0
-3
0
-3
0
-3
0
-3
0
-3
0
-3
0
-3
0
-3
0
-3
0
-3
0
-3
0
-3
0
-3
0
-3
0
-3
0
-3
0
-3
0
-3
0
-3
0
-3
0
-3
0
-3
0
-3
0
-3
0
-3
0
-3
0
-3
0
-3
0
-3
0
-4
0
-3
0
-3
0
-3
0
-3
0
-3
0
-3
0
-3
0
-3
0
-3
0
-3
0
-3
0
-3
0
-3
0
-3
0
-3
0
-3
0
-3
5.23177e-05
-3
0
-3
0
-3
0
-3
0
-3
0
-3
0
-3
0
-3
0
-3
0
-3
0
-3
0
-3
0
-3
0
-3
0
-3
0
-3
0
-3
0
-3
0
-3
0
-3
0
-3
0
-3
0
-3
0
-3
0
-3
0
-3
0
-3
0
-3
0
-3
0
-3
0
-3
0
-3
0
-3
0
-3
0
-3
0
-3
0
-3
0
-3
0
-3
0
-3
0
-3
0
-3
0
-3
0
-3
0
-3
0
-3
0
-3
0
-3
0
-3
0
-3
0
-3
0
-3
0
-3
1
-3
0
-3
0
-3
0
-3
0
-3
0
-3
0
-4
0
-3
0
-3
0
-3
0
-4
0.000119147
-3
0
-3
0
-3
0
-3
0
-3
0
-3
0
-3
0
-3
0
-3
0
-3
0
-3
0
-3
0
-3
0
-3
0
-3
0
-3
0
-3
0
-3
0
-3
0
-3
0
-3
0
-3
0
-3
0
-3
0
-3
0
-3
0
-3
0
-3
0
-3
0
-3
0
-3
0
-3
0
-3
0
-3
0
-3
0
-3
0
-3
0
-3
0
-3
0
-3
0
-3
0
-3
0
-3
0
-3
0
-3
0
-3
0
-3
0
-3
0
-3
0
-3
0
-3
0
-3
0
-3
0
-3
0
-3
0
-3
0
-3
0
-3
0
-3
0
-3
0
-3
0
-3
0
-3
0
-3
0
-3
0
-3
0
-3
0
-3
0
-3
0
-3
0
-3
0
-3
0
-3
0
-3
0
-3
0
-3
0
-3
0
-3
0
-3
0
-3
0
-3
0
-3
0
-3
0
-3
0
-3
0
-3
0
-3
0
-3
0
-3
0
-3
0
-3
0
-3
0
-3
0
-3
0
-3
0
-3
0
-3
0
-3
0
-3
0
-3
0
-3
0
-3
0
-3
0
-3
0
-3
0
-3
0
-3
0
-3
0
-3
0
-3
0
-3
0
-3
0
-3
0
-3
0
-3
0
-3
0
-3
0
-3
0
-3
0
-3
0
-3
0
-3
0
-3
0
-3
0
-3
0
-3
0
-3
0
-3
0
-3
0
-3
0
-3
0
-3
0
-3
0
-3
0
-3
0
-3
0
-3
0
-3
0
-3
0
-3
0
-3
0
-4
0
-3
0
-3
0
-3
0
-3
0
-3
0
-3
0
-3
0
-3
0
-3
0
-3
0
-3
0
-3
0
-3
0
-3
0
-3
0
-3
0
-3
0
-3
0
-3
0
-3
0
-3
0
-3
0
-3
0
-3
0
-3
0
-3
0
-3
0
-3
0
-3
0
-3
0
-3
0
-3
0
-3
0
-3
0
-3
0
-3
0
-3
0
-3
0
-3
0
-3
0
-3
0
-3
0
-3
0
-3
0
-3
0
-3
0
-3
0
-3
0
-3
0
-3
0
-3
0
-3
0
-3
0
-3
0
-3
0
-3
0
-3
5.82038e-05
-3
0
-3
0
-3
0
-4
7.43826e-05
-3
0
-3
0
-3
0
-3
0
-3
0
-3
0
-3
0
-3
0
-3
0
-3
0
-3
0
-3
0
-3
0
-3
0
-3
0
-3
0
-3
0
-3
0
-3
0
-3
0
-3
0
-3
0
-3
0
-3
0
-3
0
-3
0
-3
0
-3
0
-3
0
-3
0
-3
0
-3
0
-3
0
-3
0
-3
0
-3
0
-3
0
-3
0
-3
0
-3
0
-3
0
-3
0
-3
0
-3
0
-3
0
-3
0
-3
0
-3
0
-3
0.000339674
-3
0
-3
0
-3
0
-3
0
-3
0
-3
0
-3
0
-3
0
-3
0
-3
0
-3
0
-3
0
-3
0
-3
0
-3
0
-3
0
-3
0
-3
0
-3
0
-3
0
-3
0
-3
0
-3
0
-3
0
-3
0
-3
0
-3
0
-3
0
-3
0
-3
0
-3
0
-3
0
-3
0
-3
0
-3
0
-3
0
-3
0
-3
0
-3
0
-3
0
-3
0
-3
0
-3
0
-3
0
-3
0
-3
0
-3
0
-3
0
-3
0
-3
0
-3
0
-3
0
-3
0
-3
0
-3
0
-3
0
-3
0
-3
0
-3
0
-3
0
-3
0
-3
0
-3
0
-3
0
-3
0
-3
0
-3
0
-3
0
-3
0
-3
0
-3
0
-3
0
-3
0
-3
0
-3
0
-3
0
-3
0
-3
0
-3
0
-3
0
-3
0
-3
0
-3
0
-3
0
-3
0
-3
0
-3
0
-3
0
-3
0
-3
0
-3
0
-3
0
-3
0
-3
0
-3
0
-3
0
-3
0
-3
0
-3
0
-3
0
-3
0
-3
0
-3
0
-3
0
-3
0
-3
0
-3
0
-3
0
-3
0
-3
0
-3
0
-3
0
-3
0
-3
0
-3
0
-3
0
-3
0
-3
0
-3
0
-3
0
-3
0
-3
0
-3
0
-3
0.000900901
-3
0
-3
0
-3
0
-3
0
-3
0
-3
0
-3
0
-3
0
-3
0
-3
0
-3
0
-3
0
-3
0
-3
0
-3
0
-3
0
-3
0
-3
0
-3
0
-3
0
-3
0
-3
0
-3
0
-3
0
-3
1
-3
0
-3
0
-3
0
-3
0
-3
0
-3
0
-3
0
-3
0
-3
0
-3
0
-3
0
-3
0
-3
0
-3
0
-3
0
-3
0
-3
0
-3
0
-3
0
-3
0
-3
0
-3
0
-3
0
-3
0
-3
0
-3
0
-3
0
-3
0
-3
0
-3
0
-3
0
-3
0
-3
0
-3
0
-3
0
-3
0
-3
0
-3
0
-3
0
-3
0
-3
0
-3
0
-3
1
-3
0
-3
0
-3
0
-3
0
-3
0
-3
0
-3
0
-3
0
-3
0
-3
0
-3
0
-3
0
-3
0
-3
0
-3
0
-3
0
-3
0
-3
0
-3
0
-3
0
-3
0
-3
0
-3
0
-3
0
-3
0
-3
0
-3
0
-3
0
-3
0
-3
0
-3
0
-3
0
-3
0
-3
0
-3
0
-3
0
-3
0
-3
0
-3
0
-3
0
-3
0
-3
0
-3
0
-3
0
-3
0
-3
0
-3
0
-3
0
-3
0
-3
0
-3
0
-3
0
-3
0
-3
0
-3
0
-3
0
-3
0
-3
0
-3
0
-3
1
-3
0
-3
0
-3
0
-3
0
-3
0
-3
0
-3
0
-3
0
-3
0
-3
0
-3
0
-3
0
-3
0
-3
0
-3
0
-3
0
-3
0
-3
0
-3
0
-3
0
-3
0
-3
0
-3
0
-3
0
-3
0
-3
0
-3
0
-3
0
-3
0
-3
0
-3
0
-3
0
-3
0
-3
0
-3
0
-3
0
-3
0
-3
0
-3
0
-3
0
-3
0
-3
0
-3
0
-3
0
-3
0
-3
0
-3
0
-3
0
-3
0
-3
0
-3
0
-3
0
-3
0
-3
0
-3
0
-3
0
-3
0
-3
0
-3
0
-3
0
-3
0
-3
0
-3
0
-3
0
-3
0
-3
0
-3
0
-3
0
-4
0
-3
0
-3
0
-3
0
-3
0
-3
0
-3
0
-3
0
-3
0
-3
0
-3
0
-3
0
-3
1
-3
0
-3
0
-3
0
-3
0
-3
0
-3
0
-3
0
-3
0
-3
0
-3
0
-3
0
-3
0
-3
0
-3
0
-3
0
-3
0
-3
0
-3
0
-3
0
-3
0
-3
0
-3
0
-3
0
-3
0
-3
0
-3
0
-3
0
-3
0
-3
0
-3
0
-3
0
-3
0
-3
0
-3
0
-3
0
-3
0
-3
0
-3
0
-3
0
-3
0
-3
1
-3
0
-3
0
-3
0
-3
0
-3
0
-3
0
-3
0
-3
0
-3
0
-3
0
-3
0
-3
0
-3
0
-3
0
-3
0
-3
0
-3
0
-3
0
-3
0
-3
0
-3
0
-3
0
-3
0
-3
0
-3
0
-3
0
-3
0
-3
0
-3
0
-3
0
-3
0
-3
0
-3
0
-3
0
-3
0
-3
1
-3
0
-3
0
-3
0
-3
0
-3
0
-3
0
-3
0
-3
0
-3
0
-3
0
-3
0
-3
0
-3
0
-3
0
-3
0
-3
0
-3
0
-3
0
-3
0
-3
0
-3
0
-3
0
-3
0
-3
0
-3
0
-3
0
-3
0
-3
0
-3
0
-3
0
-3
0
-3
0
-3
0
-3
0
-3
0
-3
0
-3
0
-3
0
-3
0
-3
0
-3
0
-3
0
-3
0
-3
0
-3
0
-3
0
-3
0
-3
0
-3
0
-3
0
-3
0
-3
0
-3
0
-3
0
-3
0
-3
0
-3
0
-3
0
-3
0
-3
0
-3
0
-3
0
-3
0
-3
0
-3
0
-3
0
-3
0
-3
0
-3
0
-3
0
-3
0
-3
0
-3
0
-3
0
-3
0
-3
0
-3
0
-3
0
-3
0
-3
0
-3
0
-3
0
-3
0
-3
0
-3
0
-3
0
-3
0
-3
0
-3
0
-3
0
-3
0
-3
0
-3
0
-3
0
-3
0
-4
0
-3
0
-3
0
-3
0
-3
0
-3
0
-3
0
-3
0
-3
0
-3
0
-3
0
-3
0
-3
0
-3
0
-3
0
-3
0
-3
0
-3
0
-3
0
-3
0
-3
0
-3
0
-3
0
-3
0
-3
0
-3
0
-3
0
-3
0
-3
0
-3
0
-3
0
-3
0
-3
0
-3
0
-3
0
-3
0
-3
0
-3
0
-3
0
-3
0
-3
0
-3
0
-3
0
-3
0
-3
0
-3
0
-3
0
-3
0
-3
0
-3
0
-3
0
-3
0
-3
0
-3
0
-3
0
-3
0
-3
0
-3
0
-3
0
-3
0
-3
0
-3
0
-3
0
-3
0
-3
0
-3
0
-3
0
-3
0
-3
0
-3
0
-3
0
-3
0
-3
0
-3
0
-3
0
-3
0
-3
0
-3
0
-3
0
-3
0
-3
0
-3
0
-3
0
-3
0
-3
0
-3
0
-3
0
-3
0
-3
0
-3
0
-3
0
-3
0
-3
0
-3
0
-3
0
-3
0
-3
0
-3
0
-3
0
-3
0
-3
0
-3
0
-3
0
-3
0
-3
0
-3
0
-3
0
-3
0
-3
0
-3
0
-3
0
-3
0
-3
0
-3
0
-3
0
-3
1
-3
0
-3
0
-3
0
-3
1
-3
0
-3
0
-3
0
-3
0
-3
0
-3
0
-3
0
-3
0
-3
0
-3
0
-3
0
-3
0
-3
0
-3
0
-3
0
-3
0
-3
0
-3
0
-3
0
-3
0
-3
0
-3
0
-3
0
-3
0
-3
0
-3
0
-3
0
-3
0
-3
0
-3
0
-3
0
-3
0
-3
0
-3
0
-3
0
-3
0
-3
0
-3
0
-3
0
-3
0
-3
0
-3
0
-3
0
-3
0
-3
0
-3
0
-3
0
-3
0
-3
0
-3
0
-3
0
-3
0
-3
0
-3
0
-3
0
-3
0
-3
0
-3
0
-3
0
-3
0
-3
0
-3
0
-3
0
-3
0
-3
0
-3
0
-3
0
-3
0
-3
0
-3
0
-3
0
-3
0
-3
0
-3
0
-3
0
-3
0
-3
0
-3
0
-3
0
-3
0
-3
0
-3
0
-3
0
-3
0
-3
0
-3
0
-3
0
-3
0
-3
0
-3
0
-3
0
-3
0
-3
0
-3
0
-3
0
-3
0
-3
0
-3
0
-3
0
-3
0
-3
0
-3
0
-3
0
-3
0
-3
0
-3
0
-3
0
-3
0
-3
0
-3
0
-3
0
-3
0
-3
0
-3
0
-3
0
-3
0
-3
0
-3
0
-3
0
-3
0
-3
0
-3
0
-3
0
-3
0
-3
0
-3
0
-3
0
-3
0
-3
0
-3
0
-3
0
-3
0
-3
0
-3
0
-3
0
-3
0
-3
0
-3
0
-3
0
-3
0
-3
0
-3
0
-3
0
-3
0
-3
0
-3
0
-3
0
-3
0
-3
0
-3
0
-3
0
-3
0
-3
0
-3
0
-3
0
-3
0
-3
0
-3
0
-3
0
-3
0
-3
0
-3
0
-3
0
-3
0
-3
0
-3
0
-3
0
-3
0
-3
0
-3
0
-3
0
-3
0
-3
0
-3
0
-3
0
-3
0
-3
0
