-0.467158
37.1213
-2.48771
85.0843
-26.7768
111.275
16.7322
52.0949
-6.40437
57.9012
-8.61857
50.6579
-1.88396
66.4178
-53.9315
115.241
4.36069
3.08469
-142.74
166.982
1032.25
1263.58
4.36069
3.08469
52.947
-84.5741
1563.34
1427.28
36.0529
70.0466
-16.3923
41.5121
-140.459
186.991
-73.3603
142.573
54.1754
87.1945
475.359
800.339
611.554
1214.92
4.36069
3.08469
2.90223
65.0224
-34.6021
66.8614
-26.542
51.2418
4.36069
3.08469
463.968
760.19
4.36069
3.08469
5.57887
75.34
-9.26749
34.5759
864.683
1166.41
-45.9088
74.7716
962.754
863.636
-70.7941
159.469
-52.6196
299.837
-34.882
116.587
-36.8047
63.8575
-72.6019
97.2234
120.697
155.094
392.827
332.106
1534.99
1353.62
-15.7122
44.5591
4.36069
3.08469
324.44
515.255
1535.55
1456.34
-17.6753
62.3051
-81.243
106.129
-5.12139
30.817
-211.071
235.684
-159.207
200.986
-13.1063
38.471
-106.286
130.966
-6.03536
31.8234
-1.56806
546.648
-14.4512
39.7059
-90.6861
195.039
77.5532
152.604
-13.2297
38.497
-60.7143
85.3247
317.335
564.644
200.077
414.14
-1.93108
28.3591
1226.58
570.358
378.665
441.298
4.36069
3.08469
1.4112
28.9752
1819.77
1989.44
163.296
384.144
1554.02
1435.83
-5.57771
31.2227
2.88694
80.6027
4.36069
3.08469
-14.0855
39.4468
206.175
393.772
4.36069
3.08469
4.36069
3.08469
864.26
421.515
70.2052
380.255
-51.5671
93.0762
1376.99
1840.73
-95.2844
166.618
-11.6089
37.082
-17.3823
42.5436
1921.6
1699.64
-3.20711
115.977
-47.3908
71.9324
792.079
710.467
4.36069
3.08469
382.992
660.028
3.05349
32.2562
2034.34
2259.77
4.36069
3.08469
4.36069
3.08469
-108.687
133.35
-46.463
71.4406
4.36069
3.08469
11.3467
59.1345
186.596
487.038
5.10282
58.3392
176.246
214.642
158.634
620.082
-42.7197
358.96
-43.1247
777.464
399.14
575.598
121.087
309.677
4.36069
3.08469
-86.1623
149.656
2139.65
1870.95
-53.2603
79.0087
1112.76
1084.04
4.36069
3.08469
-25.6298
50.186
4.36069
3.08469
21.1098
52.8544
1239.86
1112.32
-110.663
373.92
4.36069
3.08469
157.969
612.708
618.862
396.814
-53.5813
244.569
4.36069
3.08469
29.4715
267.202
-68.2002
117.194
-18.4348
160.303
-73.8191
98.7408
-101.941
126.654
99.133
201.814
-42.1503
686.332
-23.5404
48.4444
-1.45862
27.8985
-9.78978
96.491
4.36069
3.08469
77.0158
128.744
583.683
745.237
-28.308
52.8197
-204.381
238.783
40.1921
122.204
-34.8544
65.3981
751.362
635.482
565.973
507.551
-7.04507
259.031
-18.4612
66.4752
-7.0973
199.327
-25.5866
67.898
133.219
-166.342
496.566
445.262
519.754
466.072
8.14772
51.893
688.223
898.707
65.8824
207.368
-10.8046
36.2975
209.99
554.822
61.5774
99.7038
-5.31215
31.1892
331.869
986.097
4.36069
3.08469
4.36069
3.08469
-39.2206
82.1261
-76.2392
140.875
539.769
578.86
37.8208
281.893
-40.9793
297.434
754.525
676.764
-17.4605
64.5783
-22.8007
54.4278
6.96142
56.2289
920.033
1232.55
84.3078
155.807
29.2384
55.9588
974.673
1008.98
733.111
470.05
100.215
661.235
16.9923
649.651
1.78427
62.2847
1194.75
1171.68
-3.28493
29.4697
4.36069
3.08469
90.9834
170.814
1471.19
1346.48
23.2332
-51.0381
-16.9944
42.2168
243.452
750.119
-24.1153
49.1119
-54.6387
79.2469
-42.373
72.0182
4.36069
3.08469
4.36069
3.08469
4.36069
3.08469
4.36069
3.08469
-30.8457
66.9168
112.768
387.648
4.36069
3.08469
-57.3395
165.228
4.36069
3.08469
-128.565
406.274
538.179
372.587
544.648
544.107
4.36069
3.08469
-109.425
178.35
4.36069
3.08469
396.291
193.531
-23.6412
52.0205
-8.79871
34.3921
3.18472
81.2984
-35.186
70.7093
50.6971
246.143
168.037
350.016
-108.141
213.686
-3.43901
29.6443
1259.03
871.635
31.6298
111.884
-29.9629
61.9311
-77.7706
254.995
35.2736
111.592
4.36069
3.08469
4.36069
3.08469
1539.6
1688.34
-28.4791
211.847
-23.2127
636.23
8.63983
39.5615
-1.506
27.9045
1307.48
1203.29
937.692
361.408
9.66119
55.0165
4.36069
3.08469
-5.59734
81.2666
423.503
496.093
-1389.27
1572.34
-57.2161
81.9481
1483.83
1209.98
-97.6815
122.762
851.163
807.055
4.36069
3.08469
666.474
631.837
22.912
46.5569
1925.76
1978.49
672.916
705.379
610.149
578.401
424.439
315.51
-125.778
443.195
196.368
271.984
-62.2707
91.9362
1898.49
1758.02
624.685
400.546
8.97822
-40.8501
-5.25289
30.9424
-14.1044
39.5028
1246.85
1118.59
-16.5535
46.5545
6.12301
222.684
263.688
592.619
-23.9467
48.9355
-11.7892
67.7973
-10.2455
35.4428
-27.5666
207.584
-34.3044
59.439
10.7551
-37.3616
25.1099
138.217
-125.161
346.381
38.0726
138.057
814.232
730.347
-4.9393
30.839
-43.1362
68.1961
790.842
858.449
1223.53
1097.66
19.5213
59.9931
-33.691
61.0885
-60.3266
107.504
122.119
287.94
14.7368
94.9114
686.31
736.723
533.953
710.582
-77.8527
119.006
12.8009
208.885
4.36069
3.08469
6.60823
86.5376
-93.459
146.438
6.34775
329.085
-41.781
111.15
-48.5855
79.9745
1339.82
1339.28
-15.8488
148.181
-26.2384
51.2412
-25.4465
50.2825
-38.599
63.394
572.582
337.895
-34.7981
67.1529
53.6245
94.5716
-19.8433
198.65
-19.1969
46.4977
20.1436
276.366
1085.1
774.171
-24.1351
284.949
22.5346
84.7097
-357.125
381.412
270.724
325.003
-5.43915
30.8879
4.36069
3.08469
1122.95
690.313
573.636
573.094
629.504
403.635
962.079
837.693
1205.51
1837.97
-95.0363
466.463
0.85409
65.1205
-1.40471
27.8505
-39.1566
63.9499
4.36069
3.08469
-19.3119
51.1702
19.8127
70.9539
-10.4635
35.8644
312.334
791.823
1041.65
1041.11
-6.05474
56.4678
-22.3679
146.814
718.317
1161.79
102.197
330.353
4.36069
3.08469
411.84
411.299
9.97139
38.4377
2086.56
2207.47
-39.0651
65.4469
120.712
275.95
1634.34
1497.88
518.822
412.203
4.36069
3.08469
-45.8697
89.6461
6.74606
60.0338
1248.96
571.69
-44.0019
93.5279
44.4887
147.249
1248.45
1031.44
63.1096
98.2849
-43.2001
119.034
4.36069
3.08469
-44.8522
554.892
-47.7219
72.4794
4.36069
3.08469
1.77802
25.668
73.9994
106.333
-12.5774
37.7896
-11.3664
36.4391
11.8746
51.9962
1078.08
1022.33
-2.43459
28.6161
120.717
915.292
-34.6567
391.567
-74.0663
110.54
608.043
635.717
167.267
431.393
53.466
83.0371
-38.6411
63.5025
747.746
708.942
1768.37
1622.65
74.3555
120.933
39.3874
238.318
353.34
478.265
898.645
553.096
-28.5189
80.7541
1075.3
773.495
-31.2562
56.0446
-9.39966
299.805
958.158
1197.73
4.36069
3.08469
4.36069
3.08469
869.782
1542.07
397.88
316.069
2020.25
2680.75
117.284
345.497
412.771
285.766
-12.7593
38.2755
159.068
284.958
625.942
465.345
270.162
350.776
20.455
107.868
-16.0451
328.673
4.36069
3.08469
601.206
728.702
-4.23296
30.4155
415.652
287.761
772.039
613.478
8.82784
41.6845
-389.763
480.841
223.868
302.685
413.285
370.523
-2.5104
172.694
-16.96
45.5085
281.812
598.213
